<?xml version="1.0"?>
<MethodSetup Method="DNN::DNN">
  <GeneralInfo>
    <Info name="TMVA Release" value="4.2.1 [262657]"/>
    <Info name="ROOT Release" value="6.08/07 [395271]"/>
    <Info name="Creator" value="wverbeke"/>
    <Info name="Date" value="Wed Nov 22 21:54:45 2017"/>
    <Info name="Host" value="Linux vocms0302.cern.ch 2.6.32-696.1.1.el6.x86_64 #1 SMP Wed Apr 12 08:44:28 CEST 2017 x86_64 x86_64 x86_64 GNU/Linux"/>
    <Info name="Dir" value="/storage_mnt/storage/user/wverbeke/Work/AnalysisCode/ewkino/bdtTraining"/>
    <Info name="Training events" value="195222"/>
    <Info name="TrainingTime" value="2.88664759e+03"/>
    <Info name="AnalysisType" value="Classification"/>
  </GeneralInfo>
  <Options>
    <Option name="V" modified="Yes">True</Option>
    <Option name="VerbosityLevel" modified="No">Verbose</Option>
    <Option name="VarTransform" modified="Yes">N</Option>
    <Option name="H" modified="Yes">False</Option>
    <Option name="CreateMVAPdfs" modified="No">False</Option>
    <Option name="IgnoreNegWeightsInTraining" modified="No">False</Option>
    <Option name="Layout" modified="Yes">TANH|128,TANH|128,TANH|128,LINEAR</Option>
    <Option name="ErrorStrategy" modified="Yes">CROSSENTROPY</Option>
    <Option name="WeightInitialization" modified="Yes">XAVIERUNIFORM</Option>
    <Option name="Architecture" modified="Yes">STANDARD</Option>
    <Option name="TrainingStrategy" modified="Yes">LearningRate=1e-1,Momentum=0.9,Repetitions=1,ConvergenceSteps=20,BatchSize=256,TestRepetitions=10,WeightDecay=1e-4,Regularization=L2,DropConfig=0.0+0.5+0.5+0.5,</Option>
  </Options>
  <Variables NVar="19">
    <Variable VarIndex="0" Expression="topMass" Label="topMass" Title="topMass" Unit="" Internal="topMass" Type="F" Min="0.00000000e+00" Max="4.20512451e+03"/>
    <Variable VarIndex="1" Expression="pTForwardJets" Label="pTForwardJets" Title="pTForwardJets" Unit="" Internal="pTForwardJets" Type="F" Min="0.00000000e+00" Max="6.13427856e+02"/>
    <Variable VarIndex="2" Expression="etaMostForward" Label="etaMostForward" Title="etaMostForward" Unit="" Internal="etaMostForward" Type="F" Min="9.43701528e-03" Max="5.09184265e+00"/>
    <Variable VarIndex="3" Expression="pTLeadingJet" Label="pTLeadingJet" Title="pTLeadingJet" Unit="" Internal="pTLeadingJet" Type="F" Min="2.50286484e+01" Max="1.57565747e+03"/>
    <Variable VarIndex="4" Expression="pTLeadingLepton" Label="pTLeadingLepton" Title="pTLeadingLepton" Unit="" Internal="pTLeadingLepton" Type="F" Min="2.50000801e+01" Max="1.40287524e+03"/>
    <Variable VarIndex="5" Expression="mNotSoForwardJets" Label="mNotSoForwardJets" Title="mNotSoForwardJets" Unit="" Internal="mNotSoForwardJets" Type="F" Min="0.00000000e+00" Max="7.97339795e+03"/>
    <Variable VarIndex="6" Expression="pTLeadingBJet" Label="pTLeadingBJet" Title="pTLeadingBJet" Unit="" Internal="pTLeadingBJet" Type="F" Min="2.50001125e+01" Max="9.08084900e+02"/>
    <Variable VarIndex="7" Expression="missingET" Label="missingET" Title="missingET" Unit="" Internal="missingET" Type="F" Min="1.04179710e-01" Max="1.02115973e+03"/>
    <Variable VarIndex="8" Expression="highestDeepCSV" Label="highestDeepCSV" Title="highestDeepCSV" Unit="" Internal="highestDeepCSV" Type="F" Min="-2.00000000e+00" Max="9.99989569e-01"/>
    <Variable VarIndex="9" Expression="maxMjj" Label="maxMjj" Title="maxMjj" Unit="" Internal="maxMjj" Type="F" Min="0.00000000e+00" Max="7.00770557e+03"/>
    <Variable VarIndex="10" Expression="asymmetryWlep" Label="asymmetryWlep" Title="asymmetryWlep" Unit="" Internal="asymmetryWlep" Type="F" Min="-2.49803329e+00" Max="2.49931097e+00"/>
    <Variable VarIndex="11" Expression="etaZ" Label="etaZ" Title="etaZ" Unit="" Internal="etaZ" Type="F" Min="2.32135317e-05" Max="8.88787842e+00"/>
    <Variable VarIndex="12" Expression="m3l" Label="m3l" Title="m3l" Unit="" Internal="m3l" Type="F" Min="1.44754953e+01" Max="2.96052539e+03"/>
    <Variable VarIndex="13" Expression="maxDeltaPhijj" Label="maxDeltaPhijj" Title="maxDeltaPhijj" Unit="" Internal="maxDeltaPhijj" Type="F" Min="5.51939011e-05" Max="3.14159083e+00"/>
    <Variable VarIndex="14" Expression="maxDeltaRjj" Label="maxDeltaRjj" Title="maxDeltaRjj" Unit="" Internal="maxDeltaRjj" Type="F" Min="3.93641144e-01" Max="1.01756182e+01"/>
    <Variable VarIndex="15" Expression="maxDeltaPhill" Label="maxDeltaPhill" Title="maxDeltaPhill" Unit="" Internal="maxDeltaPhill" Type="F" Min="1.60422325e-02" Max="3.14158750e+00"/>
    <Variable VarIndex="16" Expression="pT3l" Label="pT3l" Title="pT3l" Unit="" Internal="pT3l" Type="F" Min="1.48212850e-01" Max="1.66903589e+03"/>
    <Variable VarIndex="17" Expression="mForwardJetsLeadinBJetW" Label="mForwardJetsLeadinBJetW" Title="mForwardJetsLeadinBJetW" Unit="" Internal="mForwardJetsLeadinBJetW" Type="F" Min="0.00000000e+00" Max="1.05669199e+04"/>
    <Variable VarIndex="18" Expression="ht" Label="ht" Title="ht" Unit="" Internal="ht" Type="F" Min="5.00481071e+01" Max="2.72426929e+03"/>
  </Variables>
  <Spectators NSpec="0"/>
  <Classes NClass="2">
    <Class Name="Signal" Index="0"/>
    <Class Name="Background" Index="1"/>
  </Classes>
  <Transformations NTransformations="1">
    <Transform Name="Normalize">
      <Selection>
        <Input NInputs="19">
          <Input Type="Variable" Label="topMass" Expression="topMass"/>
          <Input Type="Variable" Label="pTForwardJets" Expression="pTForwardJets"/>
          <Input Type="Variable" Label="etaMostForward" Expression="etaMostForward"/>
          <Input Type="Variable" Label="pTLeadingJet" Expression="pTLeadingJet"/>
          <Input Type="Variable" Label="pTLeadingLepton" Expression="pTLeadingLepton"/>
          <Input Type="Variable" Label="mNotSoForwardJets" Expression="mNotSoForwardJets"/>
          <Input Type="Variable" Label="pTLeadingBJet" Expression="pTLeadingBJet"/>
          <Input Type="Variable" Label="missingET" Expression="missingET"/>
          <Input Type="Variable" Label="highestDeepCSV" Expression="highestDeepCSV"/>
          <Input Type="Variable" Label="maxMjj" Expression="maxMjj"/>
          <Input Type="Variable" Label="asymmetryWlep" Expression="asymmetryWlep"/>
          <Input Type="Variable" Label="etaZ" Expression="etaZ"/>
          <Input Type="Variable" Label="m3l" Expression="m3l"/>
          <Input Type="Variable" Label="maxDeltaPhijj" Expression="maxDeltaPhijj"/>
          <Input Type="Variable" Label="maxDeltaRjj" Expression="maxDeltaRjj"/>
          <Input Type="Variable" Label="maxDeltaPhill" Expression="maxDeltaPhill"/>
          <Input Type="Variable" Label="pT3l" Expression="pT3l"/>
          <Input Type="Variable" Label="mForwardJetsLeadinBJetW" Expression="mForwardJetsLeadinBJetW"/>
          <Input Type="Variable" Label="ht" Expression="ht"/>
        </Input>
        <Output NOutputs="19">
          <Output Type="Variable" Label="topMass" Expression="topMass"/>
          <Output Type="Variable" Label="pTForwardJets" Expression="pTForwardJets"/>
          <Output Type="Variable" Label="etaMostForward" Expression="etaMostForward"/>
          <Output Type="Variable" Label="pTLeadingJet" Expression="pTLeadingJet"/>
          <Output Type="Variable" Label="pTLeadingLepton" Expression="pTLeadingLepton"/>
          <Output Type="Variable" Label="mNotSoForwardJets" Expression="mNotSoForwardJets"/>
          <Output Type="Variable" Label="pTLeadingBJet" Expression="pTLeadingBJet"/>
          <Output Type="Variable" Label="missingET" Expression="missingET"/>
          <Output Type="Variable" Label="highestDeepCSV" Expression="highestDeepCSV"/>
          <Output Type="Variable" Label="maxMjj" Expression="maxMjj"/>
          <Output Type="Variable" Label="asymmetryWlep" Expression="asymmetryWlep"/>
          <Output Type="Variable" Label="etaZ" Expression="etaZ"/>
          <Output Type="Variable" Label="m3l" Expression="m3l"/>
          <Output Type="Variable" Label="maxDeltaPhijj" Expression="maxDeltaPhijj"/>
          <Output Type="Variable" Label="maxDeltaRjj" Expression="maxDeltaRjj"/>
          <Output Type="Variable" Label="maxDeltaPhill" Expression="maxDeltaPhill"/>
          <Output Type="Variable" Label="pT3l" Expression="pT3l"/>
          <Output Type="Variable" Label="mForwardJetsLeadinBJetW" Expression="mForwardJetsLeadinBJetW"/>
          <Output Type="Variable" Label="ht" Expression="ht"/>
        </Output>
      </Selection>
      <Class ClassIndex="0">
        <Ranges>
          <Range Index="0" Min="0.0000000000000000e+00" Max="4.2051245117187500e+03"/>
          <Range Index="1" Min="0.0000000000000000e+00" Max="6.1342785644531250e+02"/>
          <Range Index="2" Min="5.5749185383319855e-02" Max="5.0855703353881836e+00"/>
          <Range Index="3" Min="2.5312955856323242e+01" Max="1.1174202880859375e+03"/>
          <Range Index="4" Min="2.5226669311523438e+01" Max="9.0392340087890625e+02"/>
          <Range Index="5" Min="0.0000000000000000e+00" Max="7.5273105468750000e+03"/>
          <Range Index="6" Min="2.5000480651855469e+01" Max="8.4637890625000000e+02"/>
          <Range Index="7" Min="3.8190475106239319e-01" Max="6.6588793945312500e+02"/>
          <Range Index="8" Min="-2.0000000000000000e+00" Max="9.9998682737350464e-01"/>
          <Range Index="9" Min="0.0000000000000000e+00" Max="6.6703823242187500e+03"/>
          <Range Index="10" Min="-2.4980332851409912e+00" Max="2.4993109703063965e+00"/>
          <Range Index="11" Min="6.8138127971906215e-05" Max="6.2833352088928223e+00"/>
          <Range Index="12" Min="3.2942466735839844e+01" Max="1.7663319091796875e+03"/>
          <Range Index="13" Min="8.1047415733337402e-04" Max="3.1415777206420898e+00"/>
          <Range Index="14" Min="4.2004907131195068e-01" Max="1.0175618171691895e+01"/>
          <Range Index="15" Min="7.7342987060546875e-02" Max="3.1415348052978516e+00"/>
          <Range Index="16" Min="3.6822217702865601e-01" Max="8.5802795410156250e+02"/>
          <Range Index="17" Min="0.0000000000000000e+00" Max="8.9628242187500000e+03"/>
          <Range Index="18" Min="5.0503223419189453e+01" Max="2.0241300048828125e+03"/>
        </Ranges>
      </Class>
      <Class ClassIndex="1">
        <Ranges>
          <Range Index="0" Min="0.0000000000000000e+00" Max="3.6964511718750000e+03"/>
          <Range Index="1" Min="0.0000000000000000e+00" Max="5.8406292724609375e+02"/>
          <Range Index="2" Min="9.4370152801275253e-03" Max="5.0918426513671875e+00"/>
          <Range Index="3" Min="2.5028648376464844e+01" Max="1.5756574707031250e+03"/>
          <Range Index="4" Min="2.5000080108642578e+01" Max="1.4028752441406250e+03"/>
          <Range Index="5" Min="0.0000000000000000e+00" Max="7.9733979492187500e+03"/>
          <Range Index="6" Min="2.5000112533569336e+01" Max="9.0808489990234375e+02"/>
          <Range Index="7" Min="1.0417971014976501e-01" Max="1.0211597290039062e+03"/>
          <Range Index="8" Min="-2.0000000000000000e+00" Max="9.9998956918716431e-01"/>
          <Range Index="9" Min="0.0000000000000000e+00" Max="7.0077055664062500e+03"/>
          <Range Index="10" Min="-2.4978930950164795e+00" Max="2.4969298839569092e+00"/>
          <Range Index="11" Min="2.3213531676447019e-05" Max="8.8878784179687500e+00"/>
          <Range Index="12" Min="1.4475495338439941e+01" Max="2.9605253906250000e+03"/>
          <Range Index="13" Min="5.5193901062011719e-05" Max="3.1415908336639404e+00"/>
          <Range Index="14" Min="3.9364114403724670e-01" Max="1.0166143417358398e+01"/>
          <Range Index="15" Min="1.6042232513427734e-02" Max="3.1415874958038330e+00"/>
          <Range Index="16" Min="1.4821285009384155e-01" Max="1.6690358886718750e+03"/>
          <Range Index="17" Min="0.0000000000000000e+00" Max="1.0566919921875000e+04"/>
          <Range Index="18" Min="5.0048107147216797e+01" Max="2.7242692871093750e+03"/>
        </Ranges>
      </Class>
      <Class ClassIndex="2">
        <Ranges>
          <Range Index="0" Min="0.0000000000000000e+00" Max="4.2051245117187500e+03"/>
          <Range Index="1" Min="0.0000000000000000e+00" Max="6.1342785644531250e+02"/>
          <Range Index="2" Min="9.4370152801275253e-03" Max="5.0918426513671875e+00"/>
          <Range Index="3" Min="2.5028648376464844e+01" Max="1.5756574707031250e+03"/>
          <Range Index="4" Min="2.5000080108642578e+01" Max="1.4028752441406250e+03"/>
          <Range Index="5" Min="0.0000000000000000e+00" Max="7.9733979492187500e+03"/>
          <Range Index="6" Min="2.5000112533569336e+01" Max="9.0808489990234375e+02"/>
          <Range Index="7" Min="1.0417971014976501e-01" Max="1.0211597290039062e+03"/>
          <Range Index="8" Min="-2.0000000000000000e+00" Max="9.9998956918716431e-01"/>
          <Range Index="9" Min="0.0000000000000000e+00" Max="7.0077055664062500e+03"/>
          <Range Index="10" Min="-2.4980332851409912e+00" Max="2.4993109703063965e+00"/>
          <Range Index="11" Min="2.3213531676447019e-05" Max="8.8878784179687500e+00"/>
          <Range Index="12" Min="1.4475495338439941e+01" Max="2.9605253906250000e+03"/>
          <Range Index="13" Min="5.5193901062011719e-05" Max="3.1415908336639404e+00"/>
          <Range Index="14" Min="3.9364114403724670e-01" Max="1.0175618171691895e+01"/>
          <Range Index="15" Min="1.6042232513427734e-02" Max="3.1415874958038330e+00"/>
          <Range Index="16" Min="1.4821285009384155e-01" Max="1.6690358886718750e+03"/>
          <Range Index="17" Min="0.0000000000000000e+00" Max="1.0566919921875000e+04"/>
          <Range Index="18" Min="5.0048107147216797e+01" Max="2.7242692871093750e+03"/>
        </Ranges>
      </Class>
    </Transform>
  </Transformations>
  <MVAPdfs/>
  <Weights InputWidth="19" Depth="4" LossFunction="C" OutputFunction="S">
    <Layer ActivationFunction="3">
      <Weights rows="128" cols="19">
        -2.2912498519368019e-01 1.2166132788612172e-01 7.4960004218837015e-02 -1.0496279097708036e-01 1.0410178183627385e-01 -2.9056156629776458e-01 3.5868579415925674e-02 4.3894407106730045e-02 -2.9131820174384904e-01 2.9771924927212129e-01 2.3765994827560980e-02 2.9816117845772977e-01 3.6724255344718397e-02 6.8937341277344286e-02 2.7362299452739203e-01 -2.4346450176773229e-01 -1.2925393850476879e-01 7.5659746409405967e-02 -9.8579410162923063e-03 -2.6286787555084300e-02 2.1348901637828030e-01 -3.0445985754218680e-01 4.5715498020766597e-02 -2.7887147789595063e-01 -1.9385205906946792e-01 2.2238160517170943e-01 1.0602471305061013e-01 -2.0667678823807142e-01 -2.5288274703019564e-01 -1.2214698445649368e-01 -2.3312792177065375e-01 -5.8719066716192071e-02 2.9802995981148300e-01 -2.9364658886554978e-01 1.7166820170996261e-01 2.4853641723768841e-01 2.0570625180386659e-01 2.0346959282313384e-01 -1.7942911039908285e-01 2.0540233711670700e-01 1.4033366511288969e-01 -1.8951478823210621e-01 -1.4080412502601444e-01 -1.4461383337463010e-01 3.4414087426732909e-02 9.4534872638551107e-02 2.8249069978935343e-01 -2.5220915961387458e-01 -8.4721727721825429e-02 -2.3646334960434792e-01 -4.4846013752444756e-03 2.4360252922925710e-01 2.0640199382986606e-02 1.8021955727280026e-01 1.0933185642467519e-01 -1.8782860112815797e-01 2.9393748710109968e-01 1.1122834451845409e-01 -2.7047050446167309e-01 -2.8202940442613600e-01 3.0007789917414945e-01 -2.0410227972516851e-01 -6.2173425302988382e-02 2.5149634910459812e-01 -1.4179986859981036e-01 1.9876744080835668e-01 1.8244107713784360e-01 2.8933827670100537e-01 2.4836698192003678e-01 -1.3106398750439491e-01 1.6271026966008748e-01 6.1222410114546308e-02 1.0993577251778361e-02 -9.6867852365332893e-02 1.0688770676833763e-01 -2.1733329224047023e-02 2.7388110750045402e-01 8.0430584510215092e-02 1.2073514434214869e-02 -6.0049689805252750e-03 2.5045055280206691e-01 1.3919928171258591e-01 1.6303735617960782e-01 -3.1405170972020635e-01 -1.0599232028303025e-01 -7.7103317653105782e-02 1.0069936619727955e-01 6.6956539607738758e-02 2.2893091690324388e-01 -1.7657138800723982e-01 -2.3959771334159989e-02 8.9798276398527915e-02 3.0670915938743396e-02 -8.6291520711662698e-02 -2.8069099208543841e-01 1.2794228139358797e-02 -1.8084196183414378e-01 -2.7481043929456028e-01 1.9348967243569973e-01 6.0214789354988724e-02 8.4550055386740250e-02 3.1566436217779953e-01 -2.7825316513038179e-01 2.1179478986738773e-01 -2.2726590435283445e-01 5.2896911799848782e-02 -2.9116322451550869e-01 -1.0444668299549216e-01 -5.2658157543356336e-02 3.7201105326962837e-02 4.6428166208583282e-02 -2.1092818685694689e-01 -2.4599589046437828e-01 -3.1460459991116352e-01 -2.9223751096104716e-01 -7.3668396587715318e-02 2.9746808373577477e-01 -2.1049207904029141e-01 1.2564036942727699e-01 -3.1855130800660914e-01 -7.7488469083472192e-02 -1.7845724048812164e-01 -4.3754528189322711e-02 -2.5655682951304459e-01 8.3248382735331503e-03 -1.6532228065399851e-01 2.3432549898759161e-01 -2.5533040367109849e-01 1.6875466076120121e-01 -3.1858306887483845e-01 1.7773348727679075e-01 -2.6643045650136288e-01 4.7119523208453439e-02 1.9545450082919972e-02 2.8573539006292692e-01 -1.0790522672400860e-01 -2.2200589650512359e-01 4.3554921001408717e-02 -9.5011118952283799e-02 1.5644974921542720e-01 -1.5472694171037235e-01 -2.7707808734304179e-01 -2.3796276746831124e-01 -8.0284740417093589e-02 -2.1039327378540107e-01 -2.4591181995772174e-01 -3.6902301056864255e-02 -3.2424800746947195e-02 7.2887627291747317e-02 -9.4271517150382886e-02 1.2975488416297357e-01 1.2598955247302848e-01 -3.0967853724428057e-01 -1.4308156503475150e-01 1.5385362656181792e-01 -7.4459270164773314e-02 -4.0334505421560543e-02 -2.4186792919143356e-03 1.7051742040052176e-01 1.5261243197482260e-01 9.0726615884672651e-02 1.3709431438147393e-01 2.4558918309051218e-02 -2.7167032831335608e-01 -3.0528229679309593e-01 1.7749696692595093e-01 4.3103675911930067e-02 2.5846052621348453e-01 -2.1357405794381995e-01 -8.3235088881662991e-02 -2.4300417912179526e-01 -2.7539001629203841e-01 -1.4462160755615466e-01 -2.0703578598140085e-01 -4.5784132744311090e-02 -1.8558103728032738e-01 -1.2042169233648389e-01 8.6887185194422220e-02 -1.9235021304503500e-02 -1.8979210013783135e-01 4.6065120923157114e-02 -2.8950377414523726e-01 -9.4392652833555340e-03 2.3280011933441960e-01 1.6848958848134832e-01 -1.3224146533076045e-01 2.1996944738136814e-01 8.4745302809372342e-02 -2.6650469359776985e-01 -4.1893864144786727e-02 1.1608629790463824e-01 1.7600619226216913e-01 2.7788729955327873e-01 9.4321922062124794e-02 -1.4524673546747124e-01 -2.3202097306065683e-01 -2.5388106727465221e-01 2.6525065977536211e-01 1.1813625513000657e-01 5.2662589987517404e-02 -2.5352653742716824e-01 1.1464262590477160e-01 -2.5916051307981608e-01 -2.8770179034516052e-01 -2.8034079254985994e-01 -1.7173242598411836e-02 -1.4085317074380288e-01 2.6915971160358232e-01 -9.2079868809864795e-02 2.7552285329565129e-01 -1.2640747418456719e-01 -1.5397269572371816e-01 -2.7876988842272993e-01 -1.6288633111073214e-01 -6.2777519274752461e-02 2.3477867073354350e-01 -1.5319414740711840e-01 -7.7271770339628648e-02 3.2043416346895337e-01 5.3825081380495333e-02 -2.2686855200388834e-01 2.6159584437359124e-01 2.0269529829207811e-01 2.5509964690147414e-02 1.4958920119474561e-01 3.0976624195868696e-01 -2.5498809764628483e-01 2.7651275412991716e-01 2.0913582681485278e-02 -3.0299146533688592e-01 -2.3777965645087315e-01 2.5434474589476391e-01 -1.1578859862658058e-02 -2.7522097258273265e-01 2.7725174628823523e-01 1.2076405229152883e-01 -2.3715299108557877e-01 -2.7040223728306501e-01 9.0626249332587464e-02 2.6054104555641333e-01 1.6716491902039679e-01 3.8950928860484568e-02 2.1614067247890165e-01 -3.0615511791102845e-01 2.9408034200243910e-01 -1.2281785987437306e-01 -3.0073106807572381e-01 9.9280769077973632e-02 3.1035742856638299e-01 -2.1448837373914353e-01 2.5394339882651834e-01 2.9231789956142740e-01 1.7196111100000874e-01 -1.2924688741861726e-01 -1.3851420557505744e-02 1.9794369235281337e-01 -7.5155588819348473e-02 1.9977428333051586e-01 -1.6841841325787468e-01 2.2328015539360310e-01 -2.6765000788607191e-01 3.4836238109387595e-02 -2.5042526564595646e-01 1.0685322916046886e-02 -2.6759023934217191e-01 2.1485668997735166e-01 1.2660617963894544e-01 2.0177257077502886e-01 -2.4966689076167689e-01 -2.0896364739825532e-01 -1.7950682857989708e-01 2.9159563352672707e-01 2.9998566591010795e-01 3.4345859864810661e-03 2.5991283407905671e-02 -1.6596049984999922e-01 8.4924323325484941e-02 -1.5950956448128781e-01 3.1266368957530194e-01 -1.4670251906157475e-01 -1.4674422342019444e-01 -1.7034893891672295e-01 1.9862478275607434e-01 3.0182727962723899e-01 -3.0959561724200357e-01 1.6573229350105337e-01 -6.3893055865483162e-02 -8.3326490193881997e-02 -2.9682196761791829e-01 1.7820912839774367e-01 3.1590154249720465e-01 2.0911860949225555e-01 2.1189070930892137e-01 1.4785694460218493e-01 3.0550778937361533e-01 -2.0976201735047240e-01 -1.7771957435762015e-01 -9.7082459810539548e-02 5.0178813863540048e-02 2.4247498477909410e-01 -2.6081759821888051e-01 2.2339587211066686e-01 1.2079630998625049e-01 -2.1478205047233326e-01 -2.8608016209890236e-01 -2.0782776273608530e-01 -1.0996888122093589e-01 1.5882165752671998e-02 2.9324661125678153e-01 -9.7211462776078297e-02 -1.9666002873585986e-01 2.9882443939509146e-01 2.7822612044816977e-02 -2.3300247716027442e-01 1.5263645700012593e-01 9.8288193119346390e-02 -1.6935818113927439e-01 8.6162352906214504e-02 2.0672004052715881e-01 -2.8559212882252211e-01 -9.1328020080910011e-02 1.2142875692978222e-01 -2.2359925281397633e-01 -1.1158404643595138e-01 -2.2312858471605057e-01 4.8164191699033326e-02 -1.4230184559266160e-01 4.5590218934172679e-02 -1.9559929600341605e-01 1.6370088525196652e-01 -2.2549931692808653e-01 1.2901991665287274e-01 8.4977956024153811e-02 1.0591289827345701e-01 -1.7443764807124199e-01 2.8811419377805205e-02 2.5988956516658562e-01 6.2429207064235395e-02 -1.9832507979249064e-01 -2.7938341450202103e-01 -1.7473513240984795e-01 1.1276289692612912e-01 1.5799202134492393e-01 -1.6099929833140669e-01 1.6166574658938579e-01 5.1958127472528842e-02 -2.3678412293254564e-01 2.0534084586998205e-02 -3.0078596098698140e-01 -7.0261550957726127e-02 1.3892365912639965e-01 9.2481644693009762e-02 1.4978902223662857e-01 -2.6043904200675599e-01 -2.6313718995793145e-01 1.6436267898532897e-01 2.3917775960142726e-01 -8.8145773455929638e-02 -3.5030847354457807e-02 -5.2515788834814114e-02 1.3768266871351575e-01 -8.7618092823890714e-02 -2.5851735478595417e-01 1.2518265684478244e-01 1.9654275280025704e-01 1.3728567025388322e-03 -1.9401826192383240e-01 -8.1929460721038308e-02 1.6805728778168139e-01 1.2541710837573750e-01 -9.8763585984277244e-02 2.6976891300092959e-01 -3.1096041730044244e-01 -1.9202244347811639e-01 3.4847916984002462e-03 2.0685334762360480e-03 -1.0080927374900946e-01 2.3914152803435260e-02 4.6210270630741651e-02 -1.1936975325074381e-01 3.1163972369886800e-01 9.8734165421143202e-02 2.7302322609278168e-01 2.8043866991573557e-01 6.8051582682866598e-03 1.9791309627733174e-02 -1.8542902272582915e-01 -2.0669939706353797e-02 -7.2941702324483548e-02 2.4919832017508836e-01 -2.7358175541146401e-01 2.3517958318978641e-01 2.7977052641721972e-01 2.8495689346720637e-01 -1.3815038808492755e-01 -2.0119073234204779e-01 5.3016277708048794e-02 7.9693216469516256e-02 3.0614365817784667e-01 1.6069478909645521e-01 1.8891171909812055e-01 -8.7324584637414535e-02 4.9899676135797232e-02 -2.4201724705195166e-01 7.0027780750098301e-02 6.2177206974823492e-02 8.6990629201066053e-02 -1.9847571791711147e-01 -2.0639136789284640e-01 -8.6326520273227514e-02 1.2075644818512205e-01 -3.0071432398722175e-03 1.7706839037100491e-01 1.7147384300540167e-01 3.0500350255483133e-01 -1.2080974930569417e-01 -9.6534280786756008e-02 -2.7525074519431175e-01 -2.7103803864074871e-01 1.5777388564603251e-01 -2.8600588429448074e-02 2.4067926103670018e-01 1.0673425783719377e-01 1.8700162773806106e-01 3.0198506859368802e-02 1.5203638479407489e-01 -1.2474029737334218e-01 -1.1945464929051502e-02 -2.0562956809988417e-01 -1.5351963870233426e-01 -8.7561941157506554e-02 2.8721302245349833e-01 -2.0531865903848318e-01 -1.9946585807257285e-02 -6.6162528852797456e-02 -6.8601693284008017e-02 1.0585172964111547e-01 2.4682745906836079e-01 9.2700716649639997e-02 -1.6341779493642333e-01 -1.9501285220502462e-01 -7.0617021415731840e-02 -2.1647995655682395e-01 1.7983387455975949e-01 -1.3982499264635462e-01 1.3044843924602911e-01 -2.4947225370820389e-01 -1.4697862685003363e-01 2.8418570939428184e-01 1.6473472891743882e-01 3.6904181317733764e-02 -9.0051411911326137e-02 -1.7172112952246263e-01 -1.2325967780546766e-01 -1.7846280078140161e-01 4.9241010136763630e-02 -3.7509848749092717e-02 6.9244181302409460e-02 -4.9097216704810744e-02 1.3904333000611968e-01 2.0976456007106092e-01 2.0753526905124546e-02 1.3548610985401124e-01 -1.9868579992666405e-01 -2.0923236519078780e-03 -2.3355124293864890e-01 4.2443732658298795e-02 -1.3751010882421730e-01 1.1661566747525878e-01 2.6190027193679716e-01 1.2780452425633099e-01 -1.1036910069862400e-01 -5.2423947603369998e-02 1.4391207113502053e-01 -1.8492050362290696e-01 -1.3694060516547066e-02 -1.1288424071247768e-01 -1.3277649122461979e-01 -2.7038794895612611e-01 -2.3849095054080099e-01 4.6572181474433205e-02 2.4321003282940235e-01 1.8252845751946234e-01 -2.0170420136948616e-01 -2.3901023293879384e-01 -1.1654660498105849e-02 -1.9043911499477897e-01 -3.5730439494015741e-02 -5.5010282222309290e-02 3.1373012344082446e-01 1.6650495407876464e-01 1.3155889483090033e-01 -2.5069323367730478e-01 2.9533138004617110e-01 -1.3937321422898608e-01 -2.3692736835327322e-01 -1.7888579839857705e-01 2.4180561154982133e-01 9.5659066140220725e-02 1.1757719476118196e-01 3.1651071575644607e-01 -2.6389387511836987e-01 -1.6659447824442475e-01 -2.2732138279535044e-01 1.2721629380014926e-01 2.5614524766298513e-01 3.6384866570011644e-02 -2.7099397429053509e-02 6.6820297389750635e-02 1.6861363058350429e-01 2.1971294446370013e-01 1.5268770444443108e-01 2.3052179520995314e-01 -2.1335660406780838e-01 9.8071110308722721e-03 1.6570657900503716e-02 -2.5981679768256039e-01 2.2036485091165747e-01 2.1255426439615530e-01 -3.5358687880867358e-03 2.1258855088411710e-01 1.3809297525722941e-02 -5.4140546420162174e-02 1.9655543501834308e-01 6.9246092491971847e-02 1.3759386943168583e-01 1.4515692071611844e-01 -2.3390670252337314e-01 2.2995954012985275e-02 7.7246202406356004e-02 -3.4196550647538439e-02 -2.0661553160698374e-02 2.5105785349680787e-01 5.5057833207883343e-02 2.3003117406402929e-01 -5.2986725939667807e-02 -2.4983049104599742e-01 -1.0674843172444398e-01 1.5661970619015661e-01 2.8085559803792187e-01 -1.0185771132511506e-01 -1.5365714881637924e-01 -3.1507655176827998e-01 2.0698624273367772e-01 1.2577650771178073e-01 1.8453912427952762e-01 -7.1779896077576358e-02 -6.8538145436560463e-02 4.5947186459520381e-02 2.3480764966319653e-01 2.4314594428934097e-01 -2.7795119606411073e-01 1.2914045979123254e-01 1.3346736493114714e-01 1.0999254463860131e-01 -8.8521260267820645e-02 1.5470128772528322e-01 1.2002580547552140e-01 2.8207540018130534e-01 1.1054890799545537e-01 4.4405350353163044e-02 -2.7165348200755834e-01 -3.0426583513477706e-01 1.7982226832922393e-01 7.5732890068417574e-02 -1.7970615618000116e-01 3.0964473367225853e-01 -6.5332438757856798e-02 -2.9978707757179573e-01 -4.7323759641433323e-02 1.4479542682443673e-02 -1.9254349986490077e-01 -7.5679434769757678e-02 2.0498498477820631e-01 1.4528869200084388e-01 -4.3304725723326061e-02 -1.9302204737127993e-01 -6.4008323105334650e-02 6.7238875580518831e-02 -1.8190229728349658e-01 -3.1076139710548600e-01 2.5430525066046633e-01 2.3842173660454835e-01 3.2239929202736217e-02 3.1482713151476283e-01 -1.5513459062360629e-01 2.9294734930967314e-01 2.7829056192006735e-01 -2.7779591939855330e-01 -1.1487468384908378e-01 2.2797020256282052e-01 -2.5213605652217440e-02 1.6959467313359794e-01 5.0435368976867602e-02 3.5049594394129455e-02 -1.3770256271162784e-01 2.0753304871569470e-01 2.0369077371402891e-01 -2.1869650057690826e-01 2.9896707354707669e-01 8.9318161314484529e-02 1.8297945645832084e-01 1.1712005171273987e-01 -2.2754204839155290e-01 4.3999719108335562e-02 -5.2750957862693723e-02 -6.9023841710424666e-02 8.7580075353415106e-03 -5.9274761966811307e-03 3.1951369369550675e-02 1.8774939420605158e-01 2.4973568384308797e-01 -2.1807079543968047e-01 6.9185590564936117e-02 2.5725140332194057e-01 -1.7413923035232706e-01 -2.8436797333497421e-01 6.0921848985454281e-02 6.0107101055487264e-02 2.2991267572065169e-01 -2.6722777539169722e-02 1.5830484675916140e-01 2.0167036345237380e-01 -1.5700968814574998e-01 1.8465028899346411e-01 2.2519140938749498e-02 1.7962680739178416e-01 -2.6060438174100237e-01 -1.2130509775609188e-01 -3.1374619239805879e-01 -8.4797318209560973e-03 -2.0928450699623197e-01 6.8151795926698580e-02 -6.6331099085258624e-02 2.2592570501367618e-01 -2.2951133771786528e-01 -2.5790680763168700e-01 -1.1748677205254597e-01 -2.5824016378287101e-01 8.9586977293372862e-04 6.0477567262857065e-02 2.2677866771915178e-01 8.0816618642469182e-02 -1.8604751985405238e-01 4.2275131289897024e-02 -1.6292162451904532e-01 -2.7313852735434052e-01 1.0433266560175777e-02 1.0395180411051416e-01 -7.9097964084412040e-02 1.0697794335889840e-01 -2.9740264635983354e-01 2.5001544604924431e-01 2.8328878816262243e-01 2.2261279515287882e-01 -1.0453627964967942e-01 1.9055087200902346e-01 2.2690823268889623e-01 4.1508678540309561e-03 2.0438993991074450e-01 2.5598389377197245e-01 -1.5300300717618957e-02 -1.5090315296427775e-01 1.7484156548777281e-02 -2.1778595047037907e-01 -6.9895439498156936e-02 6.1779254713128513e-02 -1.9811304417874898e-01 1.2043253410351343e-01 2.4666930393311257e-01 -9.3867235623266487e-02 3.4733386054942660e-02 2.3734672154915809e-01 -3.0264642096729893e-01 2.6810730063323840e-01 -1.7102489487289493e-01 1.4606198050126256e-02 -3.0156566637591559e-01 -1.8451303580313688e-01 -1.0935779163757349e-01 -2.0549545251380280e-01 -5.6194000605015934e-03 1.4547569402978683e-01 3.0861996210571996e-01 2.5935111073798989e-01 -5.2035864742784411e-02 -2.3082637589859450e-01 -2.6682221793117783e-01 -9.8996214781656933e-02 -2.1399424923650895e-01 -1.5329955955356006e-01 1.5495850951300766e-01 -1.4743946862697138e-01 2.6783093686843901e-01 -1.4939946616815342e-01 -9.1691376650614841e-03 -4.3820651795228593e-02 2.4968589984729098e-01 -3.1448806906588278e-01 1.9803608763443109e-01 3.1196207607059018e-01 3.2317480083519284e-02 -1.7558356984600845e-01 -2.2867876343829068e-02 -8.9169216541547580e-02 2.8084970707241286e-01 -1.0708648093088632e-02 1.2960065093652967e-01 -5.3205238472557731e-02 -1.6840097464873602e-01 -5.3386741729345349e-02 -2.6037247882943382e-01 -1.6462276342826324e-01 -1.8975227297576017e-01 -3.1092450213765660e-01 2.7611684963278327e-01 -1.2582613838219445e-01 -2.0802205176386204e-01 1.2245406882832260e-01 2.9055279947630828e-02 -2.9148550604456896e-02 -1.0246212994835477e-01 -2.8580556535324675e-01 -3.7135385575071185e-02 6.6795300481001546e-02 -1.6586478096908616e-01 1.8456163970059641e-01 1.4290783117137656e-01 -1.0573324452452171e-01 -6.2530513070151852e-02 1.7655980907574670e-01 1.8741801931391658e-01 9.1311211369703257e-02 -2.1133350433773077e-01 1.7525335007633616e-01 -1.1061039652709664e-01 -2.9343769120580332e-01 4.9272382312604994e-02 1.5614380416365972e-01 -1.4901488150518194e-01 1.2206083959497026e-02 1.7199763595918505e-01 -6.8766857726184780e-02 -9.6243456152133477e-02 3.0158871953414257e-01 -1.3715210741573727e-01 -8.3081543888884779e-02 -2.8407488106600178e-02 -8.5951089385075369e-02 1.8888896937893437e-01 5.6530721657167063e-02 5.5398660236545327e-02 3.4477765947942475e-02 -2.5300707643278269e-03 -2.1045921934259710e-02 1.0828810112857025e-01 -2.2532302670960189e-01 8.4381918385839326e-03 1.3652412171622771e-01 1.0417674745094864e-02 -2.3515608257934142e-01 -2.6908298445427786e-01 4.7695591321139721e-03 1.1851576417623350e-01 -2.0446495140900403e-01 -2.6263831039406421e-01 1.0686302103196142e-01 -1.8590727183950437e-01 -3.0967197881503383e-01 1.9667257230463145e-01 -4.5977677277920646e-02 3.0304484319006164e-01 -2.6319563771593063e-01 -2.2984426141595968e-01 1.2351648144401034e-01 -6.8507733900994697e-02 -1.5747342455119168e-01 -1.5827224191260694e-01 1.6893422532275840e-01 1.1897547078016819e-01 -1.5428648100037112e-01 2.1144647864250088e-01 -8.7969021974348555e-02 -2.7106868147601709e-01 -5.1042728559541853e-02 2.0186775298327539e-01 2.0455374871342319e-01 8.2046925516263913e-02 1.0855227513168978e-02 -1.8047038115326661e-01 1.1941090271578400e-01 2.8095438173094633e-01 2.0319605162377305e-01 3.1069677561366560e-01 2.8857388965210434e-01 1.9570354247921459e-01 1.3493281761202325e-01 -2.0628045247055876e-01 8.2707396381506926e-02 1.1318020527904546e-01 -1.0773996869214482e-01 1.8639298214862948e-01 1.5860282844051285e-01 -1.0905503549523908e-01 2.7519600549546320e-02 2.9551111864595025e-01 -1.1918170212365269e-01 1.0168837095139653e-01 2.8663364159517324e-01 1.2058753996295772e-01 1.3232912967875243e-01 -1.4094693850758214e-01 -1.2391543864661490e-01 -1.2557223561759942e-01 -7.4486692205993146e-02 1.9639614309857709e-01 7.5730595413198404e-02 1.4103309435314068e-01 1.4031993234287576e-01 8.2889964946417205e-02 -2.6990719723758694e-01 -2.1215758744983501e-01 3.7096366549086775e-02 1.5359187776098313e-01 -5.4586609319361566e-02 -1.1560528730079542e-01 -7.6536437428026002e-02 -9.3626600025609782e-02 -1.4510097166066249e-01 4.4402264096011146e-03 2.3352281797380639e-01 2.2758699123549647e-01 -9.6881556044241673e-02 -1.8935398481231944e-01 1.1601742195981320e-01 2.0089317923394082e-01 2.4556990025432279e-01 2.8836091320234802e-01 -2.8655947105255308e-01 -1.3891858548608575e-02 1.6852473194559003e-01 2.5589739565809930e-02 1.6461247192142942e-01 1.4303396136665014e-01 2.0581185103634533e-01 -1.8895298300578453e-01 -2.2873365486249425e-01 -5.2540569750151526e-02 -2.6728169833041499e-01 1.8685190133094443e-01 -2.5802535165807267e-01 3.1917116534686718e-01 2.6856108291870578e-01 -2.5291885386365248e-01 2.3918330552465500e-01 -1.2277419381119940e-01 2.7653187867155066e-01 1.6877512231121750e-01 2.6768208048581966e-04 -4.1225184682858865e-02 -2.7939183178959109e-01 -5.9547413232705217e-02 -5.4214787589347994e-02 1.4833072286675414e-01 3.6722132624765633e-02 -1.7733636676352174e-01 -1.6775089088085809e-01 -8.4170704181879066e-02 -1.6900003769326646e-01 -2.1553659449210193e-02 6.4363295301460954e-02 3.0377630510094156e-01 3.0582461435662084e-01 1.3572594647229233e-01 1.2094780071035349e-02 -1.6367862069338414e-02 1.1718383313749104e-02 2.7498820815233793e-01 2.7259806985003487e-01 -2.3964551219569766e-01 1.3286180964961997e-01 6.9827629166493099e-02 -2.2998505493363733e-01 1.3346251686533467e-01 -2.2681217859919720e-01 -4.7762605410659048e-02 -7.7290371134260960e-02 4.5220889057376278e-02 3.0397977853716135e-01 1.8204017162787264e-01 -9.9044604515037410e-03 1.0090396609311417e-01 1.4664867116897057e-01 2.1906604632772222e-01 1.0230300288732401e-01 -1.7680997801986054e-01 -2.2346746838292308e-01 -1.4753812912071781e-01 3.1570068194337525e-02 1.0221199248746549e-01 3.0851033033314201e-01 -1.1644670313101567e-01 -1.4900337828096136e-01 1.1537096111689808e-01 -2.5135764064623567e-01 -2.0592214180897839e-01 2.6554344735766738e-01 -1.4552147276319905e-03 1.1030792608841267e-01 3.3360906303133070e-02 -2.8117053134840769e-01 1.6287583298339074e-02 2.1544608068063173e-01 6.5829847138411543e-02 -2.5992111150625669e-01 -2.6573238527740406e-01 1.8486992014231982e-01 -2.3657736817988248e-01 -1.4206648873594258e-01 -3.1413536496522110e-01 -2.5055829169982924e-01 -2.4265752359982465e-01 1.3878534296069717e-01 -4.4089964155276530e-02 -2.5600470076073228e-01 3.0221115669976301e-01 1.0907546079418090e-01 1.5809325940315347e-01 9.7170638176817786e-02 2.8826588300918077e-01 2.9083427503688841e-01 -5.3470502176491359e-02 -2.2126714227431227e-01 1.3060476982042588e-01 -5.7879794498280554e-02 -1.8075270982836225e-01 -2.7874447425264215e-01 -1.2555415291464694e-01 -2.3386883769954600e-01 2.4263058367802628e-01 -2.8385872453790389e-01 -1.5213572913436435e-01 -2.4354536519361893e-02 2.8777973476915253e-01 1.9882194836405334e-01 -6.2085703195047512e-02 -1.6040299613670128e-01 -2.2048749178103746e-01 -2.2726783757734814e-01 -2.6651849009768874e-01 -2.0063073912689442e-02 -9.5933987613944810e-02 -1.5001394909011101e-01 2.9176757839596085e-01 -7.6741814283043358e-02 2.6644223496541697e-01 2.8799232298698674e-01 1.1298884263255889e-01 7.6481687353184308e-02 -2.8471695715641426e-01 3.1506580384844596e-01 8.3222806701178056e-02 -7.0142822893041676e-02 2.3192130941151357e-01 2.8198521734321691e-01 2.9163978323594281e-01 2.3917500656400018e-01 -4.0026467296311673e-02 -5.2508726589399687e-03 -2.0292482672289769e-01 1.6948053497896656e-02 -7.6465933953597326e-02 -1.9168323846672825e-01 2.7038437923854164e-01 2.2878819985632159e-01 2.5530403101001486e-01 -1.6536798781099299e-01 2.4034677060840093e-01 1.8747698035103297e-01 -1.9099792040280791e-01 1.6351633978443419e-01 7.0896757270748886e-02 2.5949993568884167e-01 -2.6841764919559868e-01 -2.2424982963740100e-01 3.1007374706092211e-01 -2.3024947531215395e-02 2.3954859531632947e-01 4.4943064179598681e-02 -3.1363922030258645e-01 -1.6803214865747587e-01 -1.8902482991781691e-01 7.7387537260177885e-02 2.7039639298801248e-02 2.9835238799484010e-01 1.1320896683606815e-01 -8.5045708929130381e-02 -1.4194362505169145e-01 -2.1878260548371287e-01 -4.6626641953427632e-02 -1.9094987698413340e-01 7.7099779148996947e-02 -2.1954370442879326e-01 3.5732158404003004e-03 1.9806383708197584e-02 -1.0551664255670810e-01 1.3286413330978292e-01 -2.9741026574072316e-01 8.5959188502180275e-02 -1.9056151254687910e-02 4.6975134548520904e-02 -9.1936801632781243e-02 2.1546867061020761e-01 -5.9703838901103388e-02 -2.2642427413546107e-01 1.9213319075380333e-01 -1.7802409024110485e-01 -2.7750053801122493e-01 4.0388030931858256e-02 -3.1333885083459294e-02 2.0868096805475608e-01 1.7556095144201955e-01 2.8185721451334556e-01 1.7766119213558568e-01 -7.8350724700980076e-02 6.3696606245064354e-03 -8.7263694921451459e-04 2.6723197962039458e-01 3.0169581010126456e-01 5.2821307892740810e-02 -1.9272105772810219e-01 1.0577495223621576e-01 1.8778178212022711e-01 6.2948352902536822e-02 9.5344735437334377e-02 6.4628012735625110e-03 7.5939778141578915e-02 -4.3678014704831479e-02 -8.4451532887662314e-02 4.1128925964702849e-02 2.1916805550918145e-02 7.0880027033245113e-02 -2.5602499228892189e-01 2.2478901319641301e-01 -8.7920811684066305e-02 1.5615515421595327e-01 2.9608284311795463e-01 -2.9470841353211730e-01 -8.4053344964811677e-02 1.8338142421619313e-01 2.9809413292874820e-01 6.3526364301445148e-02 -2.7057359232197359e-01 -2.7623629875576206e-01 -1.2802721386076313e-01 -9.3871020024385604e-02 6.4460402476127734e-02 1.6497233627751054e-01 1.7740380813719281e-01 -1.6631418016592875e-01 -2.8816985709170495e-01 -1.8478538643638670e-01 4.4646485826758023e-02 2.7690284922153213e-01 2.4693833810297733e-01 2.1694873472108886e-01 -2.9585856365616081e-01 6.3418261455797875e-02 -3.0457538559090103e-01 -2.1579429237061606e-01 -2.4695854435283404e-01 -1.8808928277698739e-01 5.7682554186965648e-02 -2.4670725243591657e-01 -8.9551792138712394e-02 -1.5831485390919473e-02 -2.5472332197547143e-01 1.6095258118119946e-02 -2.7406805492111175e-01 1.9685293953771271e-01 -1.6025876623978672e-01 -7.2523703176090179e-02 2.0481204681866477e-01 2.1733115287597601e-01 -2.4776649391104574e-02 5.7869294421987363e-02 -2.2233516384227434e-01 -2.4406650129468122e-01 -1.3457882063696730e-01 -2.6854183537728393e-01 1.4852643403372859e-01 -1.0548788092836636e-01 -2.2152387664745959e-01 -2.2339862134915417e-01 -1.6955185518718760e-01 1.2238828939767255e-01 8.2488513904733718e-02 1.2826273829644103e-03 1.3679207347651512e-01 -2.1511594956249061e-01 2.9035797373666773e-02 2.2334655495617869e-01 -1.8725890582614058e-01 -3.1653204954067193e-01 -1.0748483790390662e-01 3.1181680101311882e-01 9.7071696051524520e-02 5.0887023442549438e-02 -8.1249281651616892e-02 2.8262802492389438e-01 -1.6474542593038904e-01 1.9451504484289278e-01 1.0068320254543680e-02 8.2251242298812116e-03 -1.8138745017125579e-01 -2.7688292664936587e-01 -2.9077409553524308e-01 -1.2817378458770269e-02 2.8227166948919702e-01 -2.8925379320154565e-01 5.0265047109261149e-02 -2.3430088404971100e-01 1.2974620130123904e-01 2.3079551124256085e-02 -6.1825168016054234e-02 -7.4662254878823220e-02 -2.7738209832724936e-01 -6.9696288845742263e-02 1.5140654593830388e-01 -2.1613096713981619e-01 1.1780820953360142e-01 2.2935363704017678e-01 3.0250879392029317e-01 -2.0489698735917034e-01 -5.5849725351714508e-02 -3.3050039283783576e-02 -8.2486938061516649e-02 2.7763624679496879e-01 -8.2750092999769265e-02 1.2087740767073663e-01 -1.4043777799071072e-01 -3.4941651015766087e-02 -6.0501764079834354e-02 2.0274922692436356e-01 -1.0619346311907332e-01 2.8840354339258384e-01 4.0179891023863434e-02 -1.7738292941466841e-01 1.3799886502791836e-01 -1.6960488559455522e-01 2.8797581671736855e-01 -4.6274335662763892e-02 1.9869354439997330e-01 1.0712037765628903e-01 -2.0183795348129696e-01 -1.4494487384271207e-01 1.2838232560669233e-01 2.4133001028640405e-01 4.3297304638390814e-02 -5.6041138739276783e-02 1.5566409953207591e-01 2.9501447377819956e-01 -8.0617961390827636e-02 2.6107626994243804e-01 -1.4080471505268241e-01 1.2357395725518325e-01 2.1241187706281378e-01 -2.7186330755622223e-01 -2.1583443189417983e-01 2.2698786758926504e-01 1.0642717732951817e-01 -1.6225679854127859e-01 -9.0687240505075720e-02 6.9843071675188981e-02 2.2510327250374662e-01 -2.9622511417019343e-01 -1.1616472131866051e-01 1.1971424665342230e-01 1.3289539133875589e-01 1.2311311726397234e-01 2.3226264117115175e-01 -1.2175024602712348e-02 -6.6692106031109658e-02 -4.4100429122871217e-02 -3.0907975462867321e-01 -1.7785003094653995e-01 -1.9970405578241676e-01 1.2563957334704004e-01 2.5722455336287053e-01 -1.9115827714964601e-01 4.3203778527307099e-02 5.5786040782451482e-03 1.4393701095469455e-02 -2.0815117987313236e-01 1.4417084695454255e-01 -2.8346689446359330e-01 -1.4670690880864633e-02 -1.6470340863137070e-01 1.5878311837273806e-01 -2.2183308725463230e-01 9.3312370875595047e-02 2.1015120853080455e-01 -1.9171433076863575e-01 -7.1763771761755954e-02 -1.4542671438646754e-01 -1.6681576407843471e-01 -2.6490515965132611e-01 2.8407223245734131e-01 1.7832014410874761e-01 -1.4922828463097779e-01 7.9438135616614114e-02 1.0612359948644692e-01 1.4377245753068596e-01 -4.0207143344799724e-02 -2.8343862195735858e-01 -3.0618381171920772e-01 -1.1565742201367343e-01 -3.1333387624882764e-01 8.8005122118071516e-02 1.8854898956075422e-01 -2.3483458540391006e-01 1.6387267989291471e-01 4.1332585558645218e-02 2.1223794267956464e-01 -1.9406279410912169e-01 -2.3593175833670169e-01 2.5416012387809866e-01 -1.9336561075042968e-01 -3.4133474834402079e-02 2.8407944182565098e-01 2.3521018372671877e-02 3.0998509007453057e-01 -2.6138720465599796e-01 -6.7463580082417207e-02 -2.0183877733662159e-01 9.5300001062669656e-02 -2.6937511025554917e-01 2.7220905618597080e-01 -8.9469112441597415e-02 2.8024740397162684e-01 1.0631970440255765e-01 -1.4772386829944373e-01 7.6395319236448739e-02 -1.0065385089357713e-01 -1.7051141263944167e-01 -8.4714777613606074e-02 -2.2391725591877040e-01 -2.8334377671994304e-01 -4.4456262802992835e-02 1.2854854186399162e-01 1.3024099509269202e-01 2.8784609476956030e-01 1.8017849983413961e-01 -2.1580043499380305e-01 1.1641585640606472e-01 2.6072312310168100e-01 1.9875089545353009e-01 -1.0464343127620432e-01 -9.4480859911547740e-02 1.1980936669687264e-01 -2.1144858399181188e-01 -2.4725569425651024e-02 -1.1094802056323232e-01 2.2947633417975749e-01 -3.0316928313513342e-01 1.4519249439166149e-01 2.6229932265336997e-01 -2.8106663565432233e-01 2.4300972039117341e-01 3.1179992212033325e-01 1.8994259839960642e-01 -3.1068437559283128e-02 -5.4915798382418356e-02 -7.8231487012195983e-02 1.3567086029087580e-01 4.4853392505469387e-02 -2.2552557623684627e-01 4.5247977151605168e-02 -2.2581253206232940e-01 1.8478616768624720e-01 1.3318997074889155e-01 2.9230312606599840e-01 -9.6626712837732345e-02 -1.1422963325263939e-01 -9.3280720106084531e-03 7.6388920134903351e-02 1.2881059354046789e-01 2.4942007013999348e-01 -1.5242992937703106e-01 3.0497879916578863e-01 -7.4359174365562011e-02 -1.5970824333907713e-01 -2.2067979444011593e-01 -3.1142113390948517e-01 2.8139064097260647e-01 1.0860267768366004e-01 2.2088725657245170e-01 2.6761222612851693e-01 -1.9272484174510465e-01 -5.3004721421884726e-02 1.0078954604217834e-01 -1.8741100847633607e-01 5.2148093734452339e-02 1.6998449088263062e-01 3.0339686646946762e-01 -2.3154291266307658e-01 -9.8028594196956170e-02 -1.5172594457664121e-01 -7.2918592905296370e-02 -1.1760420210486720e-01 -6.3388066401931400e-04 2.2019456525057099e-01 1.8035663076967755e-02 -2.1774053168456373e-01 -1.1783423514411251e-01 1.9969334721909535e-01 -3.0909222858253976e-01 9.6260845027562630e-02 -2.4926391008825002e-01 2.7553036138490855e-01 1.2375003478338294e-01 2.7331728681073869e-01 -2.9876598916844138e-01 -9.1512958921116758e-02 1.8381734402051897e-01 2.6463068911246834e-01 2.5281050744241840e-01 2.5700684569106957e-01 -1.3272542312410587e-01 2.8173473715755804e-01 2.8636589685277442e-01 2.4419244539047969e-02 -9.8854021088439187e-02 6.4014236966805638e-02 -4.1654256720765157e-02 -2.0640978182444411e-01 -2.7232915391340240e-01 -4.2628274627076697e-02 1.8080859615341560e-01 1.6429167423832056e-01 2.3551820082519889e-01 9.7913865956844384e-02 2.1821555092220396e-01 -3.0070707793178525e-02 2.8591059140870709e-02 -2.5173440631210897e-01 3.1271071377786941e-01 2.1462622496497297e-01 4.7520338986417068e-02 -2.2456245391888693e-01 -1.8709094933176362e-01 -2.5543102273034779e-01 2.6660086092247887e-01 -9.4480259668679289e-02 1.0099205894860698e-01 -7.9581160259711584e-02 -1.6560784844612106e-01 9.0703462682548100e-02 -3.1231092076294037e-01 2.6078244266539585e-01 -2.4646661648819787e-01 2.9009541864712968e-01 -1.8495787236946118e-01 3.1088432566978441e-01 -8.7547179441172476e-02 3.5934345077335665e-02 -3.0016774274210850e-01 1.9950491309068008e-01 -5.9238459032045915e-02 7.7253676107538347e-02 -3.0255813486494471e-01 9.4965842904314174e-03 2.6429931567829001e-01 8.4340093819738702e-03 -6.1916743858491724e-03 8.1628208372066247e-02 -2.0281438767711954e-01 -1.6956183625134100e-01 2.2360240182543034e-01 1.7528762568007913e-01 2.2526055081299068e-01 -2.8658816085003438e-02 1.6321144261457068e-01 2.1345640109482553e-01 -1.7685405462800119e-01 -2.6477826789401082e-01 2.5337364813148428e-02 4.1488386843688940e-02 1.3289366973918459e-01 2.2571073078769568e-01 -1.4873451424661244e-01 1.5510998626366626e-01 -2.0379675758867167e-02 -1.7895380317523998e-01 2.8689335215879394e-02 -1.5369907170285271e-01 -1.9921965246115342e-01 -2.3007137594439506e-01 -3.5045931630232091e-02 2.3304505789296731e-01 1.9186145576343547e-01 -1.2656799532328078e-01 1.4578300871944147e-01 -5.6215235805206251e-02 -1.2703955008075810e-01 -2.4852739268443355e-01 -6.1075196630984117e-03 -1.4029466968989410e-01 1.0974731727717739e-01 2.1345878657736653e-01 1.7743235390178810e-01 -2.5755094462143935e-01 -9.1981354153213346e-02 -2.6538309136539978e-01 -3.0318920368126695e-01 2.3809194525032773e-01 -2.2574842161736927e-01 -2.1683544441923955e-01 -3.1052899522023697e-01 -2.1352387582630211e-01 2.2207690384871073e-01 2.9062221742664801e-01 3.1621794409313536e-01 3.0974486607889973e-01 -1.5264598509789190e-01 2.8778794655777173e-01 -8.9354038855635518e-02 1.2692179120012551e-01 8.3926038411925558e-02 6.9524962241019214e-02 -4.1055795821957793e-02 2.4286551056897215e-01 -2.9006605552083736e-01 -1.2420536578739115e-02 -2.8707416721247869e-01 7.9452557823095474e-02 5.6919082923546173e-02 -9.6789270185668033e-02 3.0840670659095687e-01 -1.8323105617805813e-01 1.3031005866040951e-01 -2.8370635166485642e-01 -2.5355422551767076e-01 -2.8277270604721627e-01 -1.9055746020416794e-01 -1.1955151720897116e-01 -1.9487359916116323e-01 -2.7869255288088528e-02 -1.1874296566820926e-01 9.6158613215711258e-02 -3.9058553162791859e-02 -1.9375091614471780e-02 2.9722780149273259e-01 2.7612206892669439e-01 2.3186679833962712e-01 2.1063701619188446e-01 7.9275655182861726e-02 -6.9908462338682628e-02 2.7757962603915404e-01 6.8177025148858733e-02 -1.7493692458340251e-01 5.7169345901386351e-02 1.9794221151552105e-01 8.2317417783427951e-02 -2.4647927650648618e-01 -9.7137694015966780e-02 -2.1876795927271317e-01 -2.3813411996074293e-01 2.4473315647584057e-01 3.0613721193555143e-01 -1.0122362521603187e-01 2.4810699828382957e-01 2.4606339838101673e-01 7.1303398659564435e-02 6.3801304526263411e-02 1.5444737469764833e-01 -9.6643282256083041e-02 2.8598793574693432e-01 2.8030792961955142e-01 2.3546875201874837e-01 1.9684993394694184e-01 2.8621736217382182e-01 9.6240438949710058e-02 1.7817739458809956e-01 -2.2625798057329485e-01 1.0387904069364080e-01 -2.3298391075985772e-01 -1.8452043904477208e-01 4.9578468012448008e-02 2.2482095882257547e-01 2.3511484586449533e-01 -1.1050289903970753e-01 1.8306373580013361e-02 -1.9032186308855834e-01 -1.5321190009734531e-01 -1.8324858157979657e-01 -2.1661607018686946e-01 -1.4083773488085968e-01 1.8975866728971783e-01 2.2958111855176450e-01 -6.0521028521861578e-03 1.9320978613997070e-01 -2.8664700651842245e-01 -1.7699160335788425e-01 1.9144821323141553e-01 -2.2965292365720338e-01 -3.0876969142370625e-01 -2.2493090609671648e-01 -1.3885187941240315e-01 -2.0372107106378590e-01 -2.0684906800385044e-01 -8.5691113883710410e-02 -3.3107558587463781e-03 -5.9022816317814419e-03 1.8656953208899321e-01 9.2943507949188819e-02 -2.5642005836752063e-01 -2.1573510650489083e-01 2.7907287893949254e-02 1.5369630739484672e-01 -1.3445359211217938e-02 -2.1152579950369335e-01 5.4959550261679958e-02 -1.3315005064222785e-01 1.5900811952201213e-01 -2.4436957260229597e-01 1.8165445848328224e-03 1.3041401850725395e-01 -1.7163792125475036e-01 -2.1086872251008351e-01 3.2609689581384931e-02 1.2750181035653951e-01 -2.2430114009336641e-01 -3.8571497733221126e-02 -2.9364424268051706e-02 4.8884532165691448e-02 -8.5794715718752763e-03 1.1013311381102528e-01 3.9724230854414483e-02 -1.8485917105136071e-01 -1.2077756862347340e-01 -2.9893310101035098e-01 -1.1304417282023047e-01 -2.5776144184956919e-02 4.4871033765129124e-02 -2.6003527855699454e-01 2.3775338748514074e-01 2.0484309460683561e-01 3.1240907090130587e-01 -1.2713630882702867e-01 -5.6580510576798353e-02 -2.6440554577278207e-03 -1.3388220339155735e-01 1.4516519690993632e-01 -1.2404889258635850e-01 2.8283158324920094e-01 2.6491193740072072e-01 6.5366246549868029e-02 2.5263976229116147e-01 -2.1724484315712712e-02 1.6448026938586882e-01 1.4022398759449584e-01 -1.6550286378545742e-01 -1.6669586035993300e-01 -2.0932028182552367e-01 -2.0328738919055897e-01 2.1116189090181595e-02 8.6456638016035134e-02 4.6334673508416135e-02 2.5457079538362304e-01 -1.2983128269655436e-01 -8.9701086740285638e-02 -1.4943133581241130e-01 -2.3999504988815082e-01 -6.0237698044256695e-02 2.0178551436229203e-01 -1.8704442986360767e-01 -2.2915701524262611e-01 3.0461941311938092e-03 -2.6722093236448463e-01 -1.6890846112500732e-01 1.1719807765819261e-01 -3.0449103819765394e-01 -8.3478965127475366e-02 1.5851719360291498e-02 -2.0664344896067302e-01 2.7131409024067110e-01 -1.9983787265179306e-01 -2.0584454716027978e-01 2.9349626627050612e-01 4.0498877094696994e-03 -1.9882325395489252e-02 -6.1183760029821982e-02 -7.7794698677359261e-02 -2.6585142288818508e-01 -6.7497943149189388e-02 -5.2520103102041860e-02 -2.0941659108738117e-01 2.6580187059090826e-01 -8.0125862865855754e-02 2.2415391200963286e-01 2.5315637952090270e-01 -2.0566648036535809e-01 1.4762888542140107e-01 2.5519891312605031e-01 1.8265236176724620e-01 1.7304936354518610e-01 2.7063209812627737e-01 4.9986813658421843e-02 -9.6272095870628627e-02 2.1182447120164616e-01 -2.0930553323938084e-01 -6.7363519136288297e-02 -5.9639385566437495e-03 2.3732009592007636e-01 2.4748110365720663e-01 2.2208917534367645e-01 -4.3459869518210861e-02 -2.6953119329075825e-01 -2.4067316257996857e-01 3.8399366398727194e-02 -1.5576620236186520e-01 -1.6258819724843535e-01 -1.3416940530512761e-01 -2.9197604815480348e-02 3.3227687267959535e-02 3.7733501582054511e-02 1.4140438278253573e-01 2.1552823530776327e-01 2.8693965580011915e-01 -3.7710509826934406e-02 -8.0793092943991229e-03 -1.9684212362768688e-01 1.7664731481112200e-01 -2.1455484817277434e-01 4.7330682955488285e-02 2.0976937648469535e-01 4.1372023052107125e-02 2.8050512577834968e-01 -9.6771916446806629e-03 1.8297187386683683e-01 -1.6694904612868661e-01 -9.4096423416712760e-02 -2.3431611999640373e-01 -3.0025098286169555e-01 -9.1728628881467544e-03 1.7314286538014492e-01 2.2509321484465147e-02 5.4439182445838660e-02 -1.3459013120347557e-01 6.1591024624613931e-02 2.3308612315667718e-01 8.8226208389642319e-02 -8.9449486208994025e-02 -1.1695034299081507e-01 6.3037875026090456e-02 -5.0489462613785757e-02 -2.7896360389922470e-01 2.6765988411774450e-01 -1.6322985200889092e-01 1.9825992686524274e-01 1.1813150730819996e-01 -1.0794327168442237e-01 1.6334248045371316e-01 1.8754955688276707e-02 1.4269266115342819e-01 -7.4029170101754999e-02 5.2508855519564981e-02 -2.1107662647422695e-01 -2.0380259372076245e-01 -2.6913089789023220e-01 1.2718138662156524e-02 -2.2891524260479412e-01 3.1208978691782274e-01 1.2361968205307017e-02 -1.3010143670262997e-01 -2.2633842234467813e-01 3.4230183138518000e-02 3.3831957691843079e-02 2.3481428140992974e-01 -2.8744131030237602e-01 -8.1714607569147030e-02 -8.5485569445322394e-03 5.9671914967742011e-02 -5.4784962049643171e-02 -2.6175643587914654e-01 -2.4749313325231495e-01 1.6229142278571120e-02 1.9335767740447704e-01 2.2216820993543265e-01 1.5084329353922543e-01 -2.3807563187702632e-02 -3.0622085092873341e-01 -2.1415399365563600e-01 -8.7885516134318400e-02 -1.7030620528035295e-01 1.6770334725261693e-01 1.5305595475735670e-02 -2.8638468941088313e-01 -1.5914286986211892e-01 1.4892198056433431e-01 1.8124965234787740e-01 -2.1380144799563003e-01 2.0241628667121578e-01 -2.4429837356972642e-01 1.1932538025287945e-01 -2.5027626950416176e-01 1.7398209459498395e-01 1.5608435449044761e-01 -6.8895751081484338e-02 -2.7737645593911654e-02 -2.9354751092489872e-01 4.7034754308342398e-02 5.8217745136785938e-02 6.4409517621136628e-02 -2.0350997814196639e-01 -9.0689940770127320e-02 -5.0010876936457159e-03 4.5892886554941420e-02 1.7600656711874083e-01 -2.9675212902676545e-01 1.3987412043855099e-01 1.7925444356503409e-02 -1.4558278632837238e-01 1.5907325022481322e-01 -1.9210785990711510e-01 -6.6401991985317405e-02 2.2884036068357602e-01 3.2985230071419722e-02 2.7068442353999556e-01 -1.6553169410223705e-02 1.8424679234908203e-02 -2.2262163204794464e-02 -2.8001362323704504e-01 -8.3119984372679159e-02 -5.9322482338902589e-02 -9.4878766364830475e-02 -1.0157294878107383e-01 2.2526782097452244e-01 2.2317435590343673e-01 -5.7470988694615852e-02 5.4022651428544705e-02 3.2440096548925157e-02 2.2429865772443935e-01 -2.8927000287399529e-01 -8.1842914097925004e-02 -2.8457550306490398e-01 2.3016481118820381e-01 -1.7893297607920042e-01 1.5808309626949785e-01 1.0588578376557212e-01 2.7913631544003820e-01 1.9528425921949366e-01 3.0021596820723845e-01 2.6497232753722955e-01 -2.0984357454847571e-01 -1.2705184643831105e-01 -4.6603216004224117e-02 1.4758554676686886e-01 -3.1019550829181536e-01 1.5006540248834327e-01 2.5557359979725808e-01 1.5193968099652294e-01 1.3434721025653917e-01 -2.2906027363311007e-01 1.5172293072606674e-01 5.0746128280828792e-02 2.5692049001380851e-01 1.8155522554839612e-02 3.0262156533921242e-02 -2.8458482992734074e-01 -2.9589676753195387e-01 -1.2941375942688502e-01 4.0886418330901064e-02 -1.2196790844853361e-01 -1.1603664794967215e-01 9.4913316794727073e-02 -1.0683644136627365e-01 -2.7932656199084371e-01 -1.4570051560269862e-01 2.5081318723512486e-01 -1.4336455931117423e-01 -2.0698116550908327e-01 2.7956876509586770e-01 1.9331460481800894e-01 -2.1233915196544845e-01 2.2911075735082584e-01 -2.3681499013892035e-01 1.0627225972530838e-01 6.1132099297046126e-02 3.0032984334055496e-01 2.4853673406880941e-01 -6.1653119991376390e-02 -2.1998238056568331e-01 1.0335202748071885e-01 7.9796727940497719e-02 -1.6401409871682726e-01 3.0224307792843602e-01 1.5340822073515473e-01 -1.6387475754398978e-01 -9.3959633935785242e-02 1.7315315780256216e-01 7.9649438633156017e-02 3.7140110591754399e-02 7.6565424011186947e-02 5.0844599326219471e-03 -1.8875005868754205e-01 4.7835031512765025e-02 2.2815448605219618e-01 1.0581592045383872e-01 -1.5124016895897063e-01 1.9658897734037481e-01 2.5968225699809611e-01 2.7983355839738011e-01 -1.1595457809916828e-02 1.9945479607704841e-01 -1.6443747658708413e-01 -4.6194434043515538e-02 2.0043502335561861e-01 -2.9731971409053304e-01 1.6232230850721036e-01 2.6717989968153749e-01 -2.2798946731874034e-01 1.4265951175721878e-01 2.0131568091365135e-01 7.5834250905101444e-02 -3.7252018491340362e-02 -2.5119800334500797e-01 -1.6694212881910508e-01 2.1712477538517178e-01 -2.8766961835670296e-01 5.8963251329849080e-02 1.8876918176175941e-01 1.7240738189605451e-01 -2.5100255298705404e-01 -8.8335025898189409e-02 2.1797807192575896e-01 2.0960664689513706e-01 -8.0642628462387692e-03 -7.8680930546430730e-02 -2.6244456882202338e-01 5.4422244791888577e-02 -1.8973485396648651e-01 -2.6898429960248361e-02 -2.4559044218147486e-01 1.7912291381423661e-03 2.1074763611206210e-01 5.6960501306172973e-02 1.2516613834247808e-01 -2.3829720225442488e-01 2.0422325085807486e-01 -1.2499276519105945e-01 -1.5491142066077404e-01 -1.9506294365921495e-01 2.0232152987663815e-01 -2.4703576502475091e-01 -4.2522300020072477e-02 -1.1088493829047297e-01 -9.1379656817947935e-02 1.6732674555433510e-01 -1.6369200378387908e-01 1.3435972148606687e-01 8.3501282344755151e-02 2.8730657609342602e-01 -2.9605235961247350e-01 9.9456273400008316e-02 -1.7294712693598663e-01 1.6610528552501128e-02 2.9632516659596148e-01 -1.8285728410817428e-01 -1.1158695843176575e-01 -2.6076161342488718e-01 -1.6918473023784594e-01 -1.1771698981518604e-01 1.1630401585602475e-01 1.5171614961642796e-01 -8.3037541369786139e-02 -2.5052734091330842e-01 7.4460727532932508e-02 1.6193810256860672e-01 1.7394507067750126e-01 2.0598542916507903e-01 2.1388679111837489e-01 1.3851870021911872e-02 -3.0326121324033828e-01 -3.1961960835165580e-02 -2.5808936966607743e-01 -1.8458238521733403e-01 5.2518788146151851e-02 -2.7953656789839176e-01 4.2150138227144099e-02 -1.8718123500052317e-01 -1.0444989813786137e-01 -1.3355085725394483e-01 -1.7804324950284389e-01 4.7048444461363227e-02 -2.4703484565914097e-01 -2.3620187866190970e-01 -2.3729782670764463e-01 -1.4867289250068896e-01 1.2830750529412985e-01 -1.5165078405751303e-01 -2.9394858017049236e-01 -1.9280811840306569e-01 2.7412509960954989e-01 1.7910983239465875e-01 2.0965984832319007e-01 -2.1761714368703211e-01 -1.9237928160507242e-01 -1.2414806627842774e-01 -2.7409867182440295e-01 9.2416321324165815e-02 -1.5816101668480639e-01 5.6226330404658360e-02 1.9913744626191468e-01 -7.4901550226650224e-02 4.1040163551898406e-02 3.0144263528063303e-01 -1.1978098138440227e-01 2.8553741386201592e-01 -5.1451254486261172e-02 -2.4860554223352724e-01 1.3532673376824123e-02 7.6148177196370039e-03 -1.2459502547671523e-01 -1.2494813669642438e-01 -1.2383575755192412e-01 8.7079187305423387e-03 -2.2935153175613568e-01 3.0338020681417383e-01 -8.3410221200680465e-02 1.0048023468421612e-01 2.3146620203176560e-01 -5.8470096113318881e-02 -1.8342917031575895e-01 -1.0604546004755493e-01 1.5844033034226390e-01 6.6526907456912476e-02 -1.3563939653567550e-01 2.4685748475660471e-01 3.2279256850784865e-02 1.3768193223018479e-01 2.2608174874425027e-01 1.5814960425335881e-01 3.0359634357991672e-01 -8.5949323915168255e-02 2.4954427630054562e-02 1.3526096959558703e-01 1.6039791663369204e-02 -2.2069008569527526e-01 -3.0657249496972350e-01 1.1309177019912948e-01 -1.5612734373927128e-01 -1.3508836334471577e-01 -1.7798858295618009e-01 1.7743647625640041e-01 -2.6729341022539471e-01 1.3568955352815472e-02 1.7924141488158601e-01 7.0806745721017417e-02 2.1276137442654358e-01 6.8185767490052715e-02 1.0294453371471129e-01 -9.9271189690880182e-02 -2.8815929127640444e-01 7.9610386993161086e-02 1.6859261042006113e-01 -8.1641599441253682e-02 -2.8647277767750373e-01 -7.6918129262752823e-03 -2.8912626092587261e-02 1.0489384489162723e-01 -1.5814293740008969e-01 -1.6809655184994476e-01 -2.6378147343523883e-01 1.1398569121237445e-01 -5.2944854376573383e-02 -2.7625651886165777e-02 1.7200135562897712e-01 1.0190384602825923e-01 7.9165615523714608e-02 -2.1630102967893017e-01 -2.6238538631557518e-01 -2.7343347342566054e-01 3.0611923943474018e-01 -2.7335224272912917e-01 -1.4065744506413122e-01 6.8865901298865606e-02 -2.3579906965013933e-01 -2.0200206405964555e-01 -2.7143174202139669e-01 9.1011192587730199e-03 1.9013554711670799e-01 1.1518758161299582e-01 1.2863723772014532e-01 2.3922445627593961e-01 1.0728478141674393e-01 -8.1944505790161291e-03 9.0626487456559504e-02 9.1756968691803859e-02 -2.6134214580167816e-02 1.1636087268234327e-01 1.7255187194568294e-01 9.1213385227477975e-02 1.2268113287694304e-01 -2.9893295825750083e-02 4.3880623475988006e-02 -5.8822436002751853e-02 4.4561294089211230e-02 -1.3877068409600421e-02 -2.6945286426128801e-01 1.0613568835336563e-01 -1.6832979434183307e-01 2.3996222220390501e-01 1.4656534695539944e-01 -1.8210078829343498e-01 1.2486852097505105e-01 2.3221808753382901e-02 -2.9851941086468325e-01 -2.1187764686063543e-01 -1.8563089899633811e-01 -1.2327028056506871e-01 -1.9482600577585707e-01 3.1522413711351743e-01 -1.9639677344076268e-03 -5.1527744091139395e-02 -9.8303058672117877e-03 -3.7554445409764596e-02 2.2188246329928971e-01 3.0759917807717259e-02 1.6443141389060381e-01 -3.0336955572498221e-02 3.0397711693893831e-01 1.3676912303494534e-01 3.3880372384957620e-02 -7.8214742843250307e-03 -1.1302386840654377e-01 -1.8657427918335179e-01 -5.4688738936427374e-02 -2.1148510467501735e-01 2.9623930894256578e-01 -2.0384906162248609e-01 5.3904796348972217e-02 2.7486123138698221e-01 8.2861093738017991e-02 -1.0557075261240044e-01 -1.9895981064120369e-02 -8.8378356098423511e-02 2.7679235010714742e-01 -1.8598258701250903e-01 1.6709404409175313e-01 2.7373120409045509e-01 1.2744912551964732e-01 -2.1138667982319398e-01 1.3414485602990101e-01 -3.7144388223107547e-02 3.6759502035576021e-02 -2.1557913152264194e-01 -1.9516977060708943e-01 1.2093296889371306e-01 2.7114096298728202e-01 -3.0457996448676411e-01 -3.5208874428835336e-02 1.2089559266903387e-01 -2.8855141283659941e-01 -4.5813685432381984e-02 -5.8559405186701739e-02 2.5192374523183120e-01 -2.8185365769015269e-01 -1.8453454823147530e-01 -2.6386997316266314e-01 -3.0662336292816295e-01 -4.8045367634774752e-02 -1.4120286173257410e-01 -1.4231267118625932e-01 -2.4140798715013265e-01 3.0270154242976682e-01 2.3180369628131481e-01 -2.2160859012156855e-01 -6.4907006983122975e-02 -2.4960009643594259e-02 -1.4569805058607060e-01 -1.6331278439324640e-01 -6.6070352672520941e-02 -1.0359697620991465e-01 5.9027746397311592e-02 2.2332677380852697e-01 -1.6651009142877060e-01 1.2858208709983196e-01 -2.8914143491173583e-01 1.3893587011260356e-02 1.1047121558050083e-01 -1.3984619229860809e-01 -2.4081095581509390e-01 -2.2752352713298513e-01 -1.1127449882460254e-01 -2.6208744632691761e-01 3.8552404402486133e-02 -1.9609209491601182e-01 -5.9068310455965625e-02 -2.2221851778364582e-01 2.0935241044605735e-01 6.7618991869504069e-02 2.5832362954776245e-01 2.3307778438167165e-01 -1.3062562148289239e-01 -1.5560848872464691e-03 -9.9038886130076123e-02 -3.5477473235009695e-02 -2.7473530403169055e-01 2.1180613084229030e-01 1.9105289986519627e-02 2.1353531277604090e-01 2.7791912976429533e-02 -9.2611183715015866e-02 -1.5989026411057836e-01 1.1960028508379285e-01 1.8927059746320027e-01 -1.8166048022529374e-01 2.3119389296628412e-01 9.2825480454876902e-02 -4.4941661820360773e-02 -2.3198345341023119e-01 -2.7710033980401561e-01 2.0328890710616002e-01 1.7921706228425621e-01 -2.9542224458851080e-01 2.8892674465056528e-01 -8.6103525163530679e-03 2.9232286672772895e-01 -1.6904217202591035e-01 -1.0456657032362816e-01 2.4602883668373238e-01 -1.1785192784435532e-01 8.1917481115216725e-03 -2.8447399015507212e-02 2.0028099451059533e-01 2.0761124820867372e-01 2.7432968986767620e-01 1.4569355693169453e-01 -4.7307112998891725e-02 -2.2855472310753081e-01 -2.2872158408711155e-01 6.3266548281768406e-02 -4.0965343569450044e-02 1.7516423834390488e-01 -1.3769578842558508e-01 1.1273599095459631e-01 -2.7142559288574519e-01 6.0845137186754113e-02 2.1898061837173178e-02 -8.7181951835134913e-02 8.4615066365732738e-02 2.2949655104446781e-01 -2.1668203991991056e-01 4.2490599872002474e-02 -2.0315694725914551e-01 2.6302602194087482e-01 -1.0477368926926557e-01 -2.5511062529019979e-01 2.8420014902634244e-01 1.8700176955347453e-01 -8.0656273041956494e-02 2.5660415793014557e-01 1.4595493356793052e-01 -1.8634116128894479e-01 2.6227644806398659e-01 1.6599077576730514e-01 2.6651079215883522e-01 2.7235684730225829e-01 -1.2631130008960006e-01 -2.9523724404315077e-01 5.9416875034418386e-02 -3.1010694202001993e-01 -2.6444340298631430e-01 1.9849775234228664e-01 -2.9504324011367983e-01 2.9430253141811935e-01 -1.6051880430525925e-02 -7.2363946840712984e-02 -2.0310661749698092e-01 -1.7697507871710691e-01 2.5834891851421143e-01 -1.8981438744953219e-01 -1.7767024740491641e-01 2.4883836751106247e-01 -1.5377903810026580e-01 2.0264350949624232e-01 -1.6111652248321148e-01 2.6240982443136646e-01 -2.6315820702569931e-01 3.1058430453073343e-01 1.9578093369135452e-01 -2.4616379370888500e-01 -1.7594032840226800e-02 -2.0590013307538907e-01 5.9852909834922266e-02 4.5884731010133267e-02 2.6642661481427671e-01 6.7727055902854758e-02 1.5754383998391247e-01 3.1610802346585515e-01 1.5896019025637444e-02 2.4832691819366362e-01 -2.2863594419540448e-01 1.6917739593124104e-01 -1.7062081848902216e-01 6.0972011849467926e-02 2.9722643488514566e-01 -6.4648397878829507e-03 2.0352811238522001e-01 3.9588295374616542e-02 1.5376324922535045e-01 -6.7482672555862225e-02 -1.3660356415554273e-01 -2.9949196604728723e-01 -2.6518386625737828e-01 1.4490872718549772e-01 -2.5517598661528917e-01 2.0871407991688587e-01 -2.0920229205688316e-02 3.7359411875867360e-02 7.4124660962752470e-02 3.0710470563517017e-01 1.5068126359439793e-01 2.5230910840461879e-01 -1.6007800404407568e-01 1.8847259861642829e-01 -1.6188749287185106e-01 1.1458327858732191e-01 4.4810684462621521e-02 9.6595378410436319e-02 -1.1468580072523382e-01 2.5726790720575383e-02 3.3725757175271903e-02 -7.7663813428590120e-02 3.1345646921765148e-02 -2.8282850134940357e-01 1.3376677205500365e-01 1.8962285098387940e-01 -2.4787282379489228e-01 -6.1201553343076774e-02 -3.4810352297171186e-02 1.1577047221292024e-01 9.5613464900993025e-02 -1.9367229502450384e-01 -3.4050299571665360e-02 1.0062110521618237e-01 8.0407056818205216e-02 1.4392908068666377e-01 6.3168704421523473e-03 2.5984578131543701e-01 -3.1421806456126694e-01 -1.3392142215369013e-01 8.5203801520718783e-02 2.3205399252226738e-01 2.4678433717750950e-01 -3.1012007156790927e-01 -2.9566457546460062e-01 2.3536708100735332e-01 -2.6961912598052001e-01 1.1402707789749575e-02 -2.9074027205525427e-01 2.7620511654465679e-01 2.1454926044174025e-01 1.2482684769406677e-01 -3.1257367736693814e-01 -6.2924928524368082e-02 9.1609454597402131e-03 -2.0448347290513691e-01 9.2679878580343225e-03 -2.9563721694146650e-01 3.4335364390462316e-04 -1.9130898140006314e-01 -1.9271941300114431e-01 1.3415035014130722e-01 -2.6083793524597015e-01 -1.2887875636258792e-01 -1.1896852246117523e-01 1.5228769925741836e-01 -3.8125850014684055e-02 -1.7865390310227222e-01 2.2741431862328060e-01 7.9479872679723104e-02 -1.8476750055718510e-02 -2.5393776627865428e-01 -5.1013109997618808e-02 -1.6245710924437520e-02 -1.4929397210630369e-01 -2.2180045155455438e-01 7.1935451457809135e-02 -1.2439819569126677e-01 -2.7841833677771799e-01 2.2885505089014083e-01 -2.6258393811464070e-01 2.5019767759447287e-01 1.5865054486523320e-01 -1.8627032708592739e-01 4.8373055636530764e-02 1.9328737500169058e-01 9.5616483313823955e-02 2.8633319077724451e-01 1.0801438982797633e-01 -6.2770170185720828e-02 2.8728090195474493e-01 -1.4817479199920880e-02 5.3199598666818157e-02 -2.8782704805679651e-02 2.7886313047898248e-01 -2.2083643774953235e-01 -3.1203376783205033e-01 5.7512391235583146e-02 -1.7394192620489432e-01 1.6157310119488016e-01 6.5850828162520830e-02 1.5521359354546349e-01 9.7403718926921234e-02 -2.9002789633754211e-01 -1.8357354904164921e-01 -8.2585261062703488e-02 -2.3843191782684575e-01 2.3369309865430618e-01 -2.1821660152720617e-02 -2.1288923815136548e-01 1.9708481105064793e-01 1.4154146894676806e-01 2.9065955747397249e-01 7.6838136637343436e-04 7.0039282530937039e-02 1.5932975427186055e-01 2.4280397697276543e-01 2.6492155491850194e-01 2.8278954311782734e-01 -3.0344297349375376e-01 1.2748965691440101e-01 -1.4125859824488479e-01 -9.9334032002465572e-02 -2.1947572441853536e-01 -1.7434041514296483e-01 1.2657879324629487e-01 -2.4048483530202902e-01 1.3672401137427702e-02 -2.4688659677206121e-01 -1.3115236978188385e-01 -9.8995159847288891e-02 -2.1091260424836353e-01 -9.3979226532465415e-03 -7.5922977599866187e-02 -4.4273705429620142e-02 1.9905748741127896e-01 2.5837114479696152e-02 -7.9527676422993493e-02 -3.0223286323333525e-02 -3.0250225942548602e-03 1.9983198992987719e-01 2.8497221849390041e-02 7.2379152662954443e-02 -2.1599536886207066e-01 -2.4822030372667975e-01 1.1190398604794632e-01 2.5333987414827702e-01 2.8800695966425555e-01 -1.8148053530368743e-02 -2.9705418644076637e-01 7.6939170764348877e-03 -1.4463693434771493e-01 -3.0745313654260892e-02 -3.1230125659060132e-01 1.8605640505833121e-01 -1.3898365791346554e-01 -5.3041061816972247e-02 -2.4259998339836251e-03 8.3804168748740689e-03 1.6835057404138082e-01 2.7372401957431219e-01 -3.1804349892611106e-01 -2.1984861414291670e-01 -2.5201793386813248e-01 -2.9984735528268323e-02 -2.3073098990950647e-01 -1.8047456971350700e-01 -4.7826413367906849e-02 1.5993443591770043e-01 6.0162678893988263e-02 2.5212375684871591e-01 1.4440658703453799e-01 -3.1546216193384352e-02 -2.2830952482516376e-01 1.8653848932042388e-01 -4.5958000800748085e-02 2.7370379621651791e-01 -4.1764235658594911e-02 -6.9754621180069407e-02 2.6659266692213074e-01 1.4180243713979068e-01 9.6085668626781237e-02 -9.8052669337446996e-02 -2.9537878543436946e-01 1.1999063072833244e-01 -1.6023905581908807e-01 -2.5594759060780136e-02 -6.0059536157109912e-02 1.4893200663959150e-01 -2.9039443007250071e-01 -2.2784326070108760e-01 -3.8903025165406301e-02 -1.8178000363795965e-01 -1.3414349285951591e-01 -2.8831050644255818e-01 1.7891377575014938e-01 -1.1772205164225175e-01 9.0045608284462411e-02 2.6830761735650838e-01 -4.6886898037758598e-02 2.9524767126641094e-01 1.6219171797087364e-01 2.2655378949982866e-01 -5.5231817628166785e-02 -1.5371659428071982e-01 1.0647146209440349e-01 -2.0709566617873881e-01 -9.3365195274976748e-02 2.6184197398634795e-01 -2.4546903716710089e-01 1.1207294554552184e-01 -1.1451210224731795e-01 -1.7474434580547851e-01 -2.8611563794904600e-02 -2.6767572655065064e-01 -2.5909867893237370e-01 -2.4049333473492324e-01 1.3997045407547407e-01 
      </Weights>
      <Biases rows="128" cols="1">
        -2.8313579749795215e-01 -2.9205123278591744e-01 -8.1393738357649154e-02 3.0336222644002447e-01 7.9307982185374923e-02 8.5893046151911831e-02 2.9851855118398624e-01 -1.7403744555104433e-01 -1.9776637069996486e-01 -1.7490031929854855e-01 -2.2474377571148596e-01 1.6794048966786146e-01 -1.7564974434650490e-01 -1.6691794999979287e-01 8.2122662802927363e-02 -1.6782849588804996e-01 -4.9834691211088307e-02 1.7650820994369945e-02 1.1270162145111293e-01 1.9179110279096190e-01 2.1904592480393495e-01 5.5453316112223455e-02 -6.7888505416498796e-02 -1.2265635709296061e-01 -9.5259244471306587e-03 -2.1673911053391604e-01 2.8658182131703669e-01 -2.7444726716175892e-03 -2.3648820860846542e-01 1.3457794556735092e-01 -1.4229526105156037e-01 -2.6678727797858959e-01 2.9332878160604436e-02 2.6561286113565558e-01 -1.3128330696752483e-01 7.9268628388003623e-02 9.8550185081420008e-02 -4.4067472904276865e-02 -1.7407648449601648e-01 2.4456504483282618e-01 1.7140628242854394e-01 -7.3852193188754814e-02 -1.8320355728935520e-01 1.2282724099402265e-01 1.3397757648493999e-01 1.4513876050914834e-01 8.3801124028152860e-02 8.2245210249570017e-02 -1.0272625361783477e-01 -3.3444185160550297e-02 -7.2295835059230484e-02 -6.0241723303083937e-02 2.3314355319981578e-01 3.1523754898920253e-01 2.3730879168751495e-01 -2.9808846583205678e-01 1.7109791355718629e-01 -1.1356755203125896e-01 2.7638005498389784e-01 -2.4330876692098914e-02 2.8241614010360300e-01 -1.0374337894288028e-01 -1.1863313330954919e-01 2.1269398608315709e-01 -4.0854017119606907e-02 -6.2627437413221049e-02 -2.2935517281218190e-02 1.0595025716468032e-02 2.3703531805053873e-01 -1.7131519429860678e-01 -7.5411265319819232e-02 -1.9408409679900074e-01 -1.6892070805687279e-01 1.2169466243084884e-01 1.8380679373235032e-01 2.1863041271711244e-02 -1.3990228998184992e-01 3.0489333053958967e-01 -2.1578663464130396e-01 1.4390944216285723e-01 8.0513106438620877e-02 1.9980615027558754e-01 1.5094053119407241e-01 -1.9320835186279800e-01 -1.8134664768841025e-01 -9.6176622045570231e-03 2.6447853336663069e-02 2.9476828424163831e-01 3.2157810025239745e-03 -2.7332080618782367e-01 -1.9448947273693842e-01 2.4675098110404334e-01 2.2162343008153434e-01 1.6614234908219919e-01 -2.6299254573810893e-01 -2.7501334910331765e-01 -1.2001568261468462e-01 -2.1427858517263593e-01 -1.7895107252195208e-01 2.0403906899870297e-01 -3.1222492474623831e-01 -1.0886065214708346e-01 2.2030916535088679e-01 -1.8342511364843206e-01 1.6651142769215557e-01 2.0654118198444266e-01 7.4832295666757503e-02 -1.3355980521878993e-01 -2.4944226431416194e-01 1.8137945213946222e-01 6.6534520444470766e-02 -2.0141140951726935e-02 1.8089811451911200e-01 8.3425533475580044e-02 7.6369312761596100e-02 -2.9347582714025072e-01 6.5512245717911755e-02 1.7210885466870909e-01 -1.5731923190303124e-01 -2.4757943078463804e-01 -1.3058158188343993e-01 -2.8871056161225078e-01 -5.4812935252694608e-02 -5.9940688947155247e-03 2.2042388545761710e-01 6.2604799416529314e-02 -1.4047904317564830e-01 -1.8571209844588699e-01 
      </Biases>
    </Layer>
    <Layer ActivationFunction="3">
      <Weights rows="128" cols="128">
        1.1684687704435241e-01 -6.2902583951643581e-02 4.8187003181846967e-02 4.8516841238859972e-02 -1.6712313475750484e-02 -1.2219603813044635e-01 4.8139694315462417e-02 -3.1515780637417931e-02 1.2721209540271401e-02 -4.1427276044774773e-03 -4.2851659782959454e-02 3.8466009116471502e-02 8.4363227841003210e-02 -7.9246035461171829e-02 8.0295599925328670e-03 -1.0419546836553470e-01 -3.9703794135400601e-02 -8.2656529116930680e-02 -1.1892467358478483e-01 -1.1090130392759492e-01 8.7707034502701606e-02 6.9511678207894223e-02 3.1423685360751553e-02 9.5942057741094405e-02 -6.2966591569669508e-02 3.3985665352885851e-02 3.5199713731173685e-02 6.7626837683211802e-02 -1.1791027494232799e-01 -3.5858484215920736e-02 -5.4975712283654374e-02 2.2816867869523402e-02 1.2505406193619584e-01 -9.8051127340677974e-02 -3.0632785815255182e-02 -3.1226728685205530e-02 -9.5242184867495167e-02 -1.4308524490969605e-02 1.0467547795451689e-01 -4.8471987410374666e-02 1.0302500265776327e-02 -2.0145221073548103e-02 7.6409978498337083e-02 -1.0517045602773657e-01 4.0757526754104510e-02 -6.9565854243234249e-02 -9.9129163274284809e-02 6.6777433730706409e-02 -5.4271695405416140e-02 -1.4918754901080401e-02 1.0381520896690122e-01 -3.1451273524975162e-02 -1.0849876912923542e-01 -9.7441366156839113e-02 4.7820253722064228e-02 6.6372886724323482e-02 -1.1954602203452432e-02 1.1360438264061787e-01 -1.1315382613992360e-01 -1.1894804466977869e-01 5.2699357732522767e-02 -4.4820063231490445e-02 -7.2094974034443253e-03 9.5401035864658007e-02 1.1759874304884983e-01 5.5434385480418423e-02 -1.5634071216508773e-03 4.9889006937345968e-03 3.8772806383731623e-02 7.5082686667733128e-02 6.8795082675725941e-02 1.6214914907844609e-02 -1.3053150255964940e-02 1.1221166374390810e-01 -2.2970148358245710e-02 -8.9727810848315090e-02 -9.2574273142999444e-02 -1.0148404530999286e-01 4.5314942418508100e-02 -1.2558212747693590e-01 9.1256706442958038e-02 4.2288238797183207e-02 -1.2818436665462971e-01 -5.4724916958487323e-02 -1.8978011793104536e-02 1.2295099588692071e-01 1.2274847597678615e-01 3.0327543284374110e-02 -1.1578771343856620e-01 4.0965643856518109e-02 -3.5017331516346950e-02 -6.0053701615680015e-02 2.7165367009572249e-02 9.9546779438078534e-02 -9.5888015017917189e-02 -2.8169736446372806e-03 -2.0278840206893077e-04 -6.1518011696600823e-02 4.1150071667175561e-02 3.2411195558196035e-02 -2.8140830263657202e-02 8.0250025970876118e-02 1.1175328816881115e-01 -4.9617552554935190e-02 1.1064535343261792e-01 -7.1476934225263841e-02 -5.6348310178989190e-02 6.0734573829792665e-02 8.4882045069161766e-03 1.0514681073129122e-01 -3.2476567769155612e-02 -4.0756121885047215e-02 7.8493642870483063e-02 -1.1606921204374183e-01 -2.2821803195097867e-02 5.4383365606868760e-02 -8.8108882422887461e-02 -1.0810021352807632e-01 4.1511623642135537e-02 7.9825436257045412e-02 7.4752385007868363e-02 4.9322870498808902e-02 6.7172198015623644e-02 -2.3298369147862541e-02 -6.1347724864713737e-02 -5.3639801643493003e-02 -1.0175590119165767e-01 -9.3823468220875950e-02 -1.1423744243403321e-01 3.1226276366107225e-02 -4.8403609836988687e-02 -1.2725816536798100e-02 2.3260085780878702e-03 -3.5209908243534004e-02 -4.7789523699823575e-02 -2.2221789016114466e-02 8.4540798475927464e-02 4.4261704068262561e-02 -8.4173609231238081e-02 -2.7778758092454305e-02 -1.0809372189342782e-01 3.4718833684734711e-02 4.2682060142475182e-03 -8.0476867485338763e-02 -1.7124538444312914e-02 1.2392371259865231e-01 -1.0248122320958106e-01 -1.2187791886129196e-01 4.9750182830309395e-02 -2.8662124918848446e-02 -3.6560398320487970e-02 9.1344655675753991e-02 -6.4361866830558584e-02 -3.3119223894435446e-02 6.5502272505892953e-02 -2.6221420934519526e-02 6.5926570337225987e-02 6.8658020000496561e-02 1.2266578223628452e-01 -1.2385110820987100e-01 1.0685848761360016e-01 -2.8257344759003437e-02 -5.8561959152347654e-03 -7.7352184523314285e-02 -3.2057779787474656e-02 5.8670431127775596e-03 -1.7150666179224304e-02 2.1722585086865271e-02 7.7286265576759813e-02 -6.9189751440548633e-02 -4.8552691922606812e-02 1.1195339610660607e-01 -1.7748311091885381e-02 1.1899529610820446e-01 4.4678713657899771e-02 -2.1683873916590515e-02 -2.3068729748639737e-02 1.1265211440611066e-01 2.1632888463274918e-02 2.0491585337621989e-02 -1.2973847259890568e-02 1.4836388602904881e-02 9.6517228259502420e-03 -6.8220279470989437e-02 5.3375263036451459e-02 9.1389525777618774e-02 -5.8910841651208669e-02 7.7627088244463682e-02 1.0994226817976095e-01 -5.7871938171346400e-02 5.8463805651887281e-02 3.3309156233536322e-02 -4.6085326718979427e-02 3.1050831288562186e-02 -8.7737338807446705e-02 -7.9817123038086801e-02 -6.1152081857110831e-02 -6.5618960062564818e-02 -8.5045807532593359e-02 -7.9479879122835773e-02 -1.4276622828960401e-02 1.1967973495634016e-01 -8.0754494963425849e-02 -5.8669512817760026e-02 -5.8225999502790129e-02 -7.9966659695982101e-02 3.6736419420836865e-02 -8.9097953592933266e-02 -7.0110567619559548e-03 -1.4849308941198810e-02 2.7231765858466740e-03 -3.4886318421268443e-02 3.6841995583325050e-02 -5.8693143380217083e-02 -4.5958886377194752e-02 9.2890303162059179e-02 7.7391899781722312e-02 -6.7049390776421941e-02 1.1626213254212250e-02 7.6051532417957170e-03 -5.6250729050709374e-02 -1.6935409299805703e-02 -6.0094687000114992e-02 -9.0276372019027967e-02 3.4117926084975603e-02 -5.1906482412103584e-02 -9.3127286516608954e-02 -6.0494278331774308e-02 -1.1710090490165070e-01 -9.9500905491753736e-02 -6.6517544170379653e-02 2.6279718231914852e-02 6.4831971202818509e-03 -7.4886401590644094e-02 -6.0577023998765446e-02 3.5048909404210085e-02 8.1781668707140275e-03 -2.5698897110788769e-03 2.4934875252599954e-02 4.1376765105910256e-02 -1.0250660177981588e-01 -1.1054311191555484e-01 -5.4570604040250506e-02 1.1727180845247287e-01 -2.5008907734610911e-02 5.1119683649125365e-03 -8.7114142803392566e-02 -9.6915267926309931e-02 -1.7596322584409071e-02 -1.1181982294145516e-01 -4.4933430997806875e-03 5.8508558685597685e-02 -4.7184546356392146e-02 -4.6121494045127415e-02 -8.4884354283164667e-02 -2.7681837631469270e-02 7.9331268465413801e-02 -5.6428753551385658e-02 -2.7393658717403437e-02 9.6335556659885246e-02 -8.8330945704524294e-02 -7.7680881148433231e-02 6.2019788796406905e-02 -8.4380136476172665e-02 -1.1777432948838487e-01 -6.2332393296217203e-02 1.1072183031789054e-01 -7.2937599412981113e-02 6.6000759490677713e-02 7.8646156200332634e-02 -1.1280863076704231e-01 5.5988967982475067e-02 -1.3120692830618071e-02 -1.1613955499517072e-01 -1.1935347634950744e-01 -9.6789921690917421e-02 -1.2105853051006525e-01 1.7132849561633978e-02 9.4966443744084292e-02 7.1240740234132530e-02 4.6167612149534583e-02 8.2336532976896207e-02 4.0709440545194771e-02 -2.8504975627160423e-02 1.2284115019572414e-01 4.4728543300757088e-02 4.2532878889078814e-02 -4.3151599981028445e-02 -9.3961836435793283e-02 -8.9550584174001635e-02 1.0600136040156033e-01 5.5691677155635033e-03 -1.0476001154864589e-01 3.5714673500310483e-02 -1.2253960068094322e-01 1.0272362883110911e-01 -8.1943365078997136e-03 -1.2135263827793522e-01 -9.3663979862149888e-02 8.6606630420716355e-02 -7.2043238676405164e-02 3.9685108854522172e-02 4.3312637850813220e-02 1.0470791762936583e-01 -7.2565617902052862e-02 9.6949483428358005e-02 -6.6543297802914361e-02 -8.4581687812726972e-02 -3.9402944530246557e-02 7.0877466798074398e-02 -9.8084282690564465e-03 9.8867591718545741e-02 1.1729331675271762e-01 4.1437842081419825e-02 -3.6922641694788982e-02 1.0778145121620607e-01 -3.0076818760735455e-02 8.4203094585495505e-02 1.0536288434150100e-01 -1.2765697745744042e-01 -1.5094409321060780e-02 -1.1533370155398745e-01 -1.1114915007137521e-01 -1.1152517448986891e-01 -7.6668181016676343e-02 5.1311153678721987e-02 1.2565599775872527e-01 7.0754078622939337e-02 -5.7194197391798277e-02 -5.1659918668250156e-02 1.1722947942023272e-01 -1.7782270487399058e-02 1.2607787914850185e-01 -9.5720750647845972e-03 5.5483298028856001e-02 -1.2825034377806866e-02 -2.9033950066108196e-03 -1.0000856562515256e-01 3.2337880795315709e-02 6.5320041701396242e-02 5.5446565107964779e-02 7.7258069923933859e-02 -1.1408244160826379e-01 9.2669675352916384e-02 -8.9621981872577847e-02 1.0690468201381906e-01 7.3174612473715511e-02 -1.0106336335850576e-01 -3.6948463016530680e-02 -1.0105751122459686e-02 -5.1876718288717356e-03 5.6825255987805801e-02 1.2769439573322935e-01 1.0613557448680086e-01 -1.9590075211766256e-02 3.9130863013952993e-02 -5.3776960687016179e-02 -8.6539687780967656e-02 9.6454640943834186e-02 -5.0518939493557770e-02 2.7335498865127879e-02 -1.5416024590493210e-02 -3.0629426482244902e-02 1.2113952771629169e-01 -5.9904793155212362e-02 4.4562071927487831e-02 -5.9109147919340924e-02 1.0027444252821335e-02 2.0501087662277723e-02 -1.1584195289514458e-01 -2.9719843566191319e-02 7.5707507386166975e-03 -7.7066239629602407e-02 6.3551739800657092e-02 8.2092814082494983e-02 -1.0132436075044779e-01 -8.0686133806043170e-02 -7.0869688186607535e-02 3.5020182895836201e-02 1.1402366931760468e-02 -8.8505921218898748e-02 3.8756058041302575e-02 -2.6224727831635208e-02 -6.8585169829861311e-03 2.4437822659453330e-02 -1.0245101899580566e-01 1.0989221071348911e-01 6.3313939542271630e-02 2.0596916312128073e-02 1.1738928346116824e-01 -1.2105598493923682e-02 -2.3886103552824677e-02 8.3148448411777667e-02 -9.5595123834118667e-02 1.6898037761227329e-02 -1.2211891674280724e-01 -7.0348806777891758e-03 -6.8051475319573507e-02 1.2346573334042146e-01 -2.7503405695730725e-02 9.8865843668281175e-02 6.2264549997577474e-02 -1.1941933936921378e-01 -5.9986692953575539e-02 6.3861440961245630e-02 -6.3734651321662228e-02 7.1060095801276951e-02 8.8086663456092507e-02 8.0298368424372657e-02 4.4550226840120097e-02 5.0596583591200426e-04 2.9006022590255313e-02 9.8407475159930105e-02 4.5649062868884691e-02 6.4458114699464178e-02 -3.6249349723301100e-02 8.2780941907086222e-03 -4.3796944933360581e-02 1.1875635938098507e-01 3.2941017827084413e-03 -1.1584848168948950e-01 3.9566015000024386e-02 4.0455621732062325e-02 9.2285116393443473e-02 -1.0208311325151313e-01 -4.0594635943295848e-02 4.6579313993771479e-02 1.0730819087502950e-01 1.1728735931674769e-01 -8.8301292681298049e-02 4.0653095889062386e-02 7.2377836160709946e-02 -8.0845258752643132e-02 1.2091421607461444e-01 3.4689398981058931e-04 -1.2296461306338836e-01 -5.9198889261125279e-02 -9.3009941756013223e-02 1.2492003701878013e-01 6.6398607915808899e-02 -5.3168673022912206e-02 7.6651548549924745e-02 2.1978412282455794e-02 8.6166902224024552e-02 2.3757493367618742e-02 -9.2869036167744404e-02 1.2174947755891523e-02 -1.3032781650812075e-03 -1.1890315224696339e-01 9.4380038137869236e-03 2.2917649638793367e-02 -4.4975442585257173e-02 5.0881165226797025e-02 -7.3606372363674080e-02 9.9168485048758033e-03 5.1955070182299362e-02 3.4663842900256583e-03 -1.0693676832676206e-01 -5.5502142138218954e-02 9.3888746614977064e-02 4.0508812544482506e-02 -1.5937833123288246e-02 -4.5836378514425472e-02 9.0472075562065102e-02 1.1901407210839987e-01 -1.0768270443609541e-01 8.7331818027786390e-02 -3.1922090626459329e-02 8.8190491657107892e-02 -1.1630849449449633e-01 -5.5416188171224109e-02 2.5038770506732120e-02 -5.8722860448410442e-02 8.4994818812349354e-02 -8.9669647708615227e-02 7.1255028477967719e-02 3.5382105362671550e-02 -6.5568819182049209e-02 -7.0828437472288286e-02 8.2610976247576198e-02 -5.9413861690955853e-02 4.2615112873741187e-02 -9.8383561175165557e-02 -2.8196078865987167e-02 8.2255038186794124e-02 1.1775183331475469e-01 3.8026806290597452e-02 -1.1612245569458228e-01 7.2689873842787342e-02 2.8079418504967913e-02 -3.8095048896380358e-02 -6.4865716444618762e-02 -8.5608667784862466e-02 5.5404751136851157e-02 -4.1680295554446002e-02 2.2983584203775977e-02 -2.3652733661284450e-02 -4.3942723101150723e-02 8.4517201555393100e-03 -6.5706709850250561e-03 -4.9927266673666822e-02 -2.9421495718811891e-02 -1.1067891326641066e-01 -1.2473333423237772e-01 8.9940309628158244e-02 -3.8472890998767577e-03 2.4792362675429107e-02 -8.9275223387244695e-02 -1.1872559640435480e-01 -1.3994017205969376e-02 -5.1832095484780433e-02 3.0803082660783521e-02 8.8923882329084020e-02 2.8640866962392847e-02 3.1839722160781431e-02 -1.9750949152085060e-02 1.2064635430485354e-01 3.5484442324728936e-02 -8.3983103792062877e-02 1.0464239534247764e-02 1.3178073003441856e-03 3.7422675665767499e-02 6.3127836591492320e-02 -1.1610003094854927e-02 5.6464974180620686e-02 -1.0202365689723884e-01 -1.1434987232998110e-01 -5.8380452664654903e-03 -8.6385519875581698e-02 2.6467879381818792e-02 8.3711009494569472e-02 1.3844806651237624e-02 1.1064239963410012e-01 -6.4351717710410599e-03 -9.4351185697543430e-02 -1.2461516774987373e-01 -1.8131984367532619e-02 1.2241055637630457e-01 1.4816453366881746e-02 -9.2285188996957215e-02 -1.1413979216908314e-01 -7.2308422816793894e-02 7.0936787679914640e-02 3.9690304286883735e-02 -5.6534143555100010e-02 1.0724483237945975e-01 1.1263354795303600e-01 -5.2712178180428733e-02 -4.4540648660525130e-02 9.9305989788522245e-02 6.7386919210407556e-02 4.7621372050735133e-02 -1.1197072082610654e-01 -5.7225856185382246e-03 1.5928044394465199e-02 1.0709455804714434e-01 5.6918671365352398e-02 6.4179646706494786e-02 -5.4940287447978478e-02 -1.9315871867885463e-02 3.0542472880200771e-02 -1.0915179301501156e-02 -5.7885451873647589e-02 -3.8777296203259576e-03 7.5017955890664678e-02 8.1257118575817466e-02 8.7948258196039769e-02 8.3108441395312399e-02 3.9876305268163367e-02 -1.2293769667667352e-01 1.1492560098516867e-01 5.3114649487929697e-02 1.4141904335510545e-02 -7.1803458833865491e-02 -9.6184998514140557e-02 -1.1136455118191087e-01 -9.7129629702259135e-02 -2.8774689583526202e-02 -8.9037026394577778e-02 -6.9291700886806529e-02 1.0285381580873648e-01 6.0873083169686405e-02 -9.4298731238690287e-02 -3.1380900748018727e-02 8.4306562030656840e-03 -2.0153911888350497e-02 -1.0220120297380673e-02 -1.2576854693224199e-01 2.9170886778422094e-02 1.1898849385481103e-02 -9.9733635927297670e-02 -1.0722155615193713e-01 6.0656585179654783e-02 5.2320743666857877e-02 1.8997678499806020e-02 -8.2696822949482787e-02 1.2590500114225392e-01 1.1455918073639974e-01 7.9258747226547674e-02 -1.0676383354720520e-01 1.0134043743173675e-01 1.1765772474479652e-01 4.1300132682473852e-02 -1.1709698416719305e-01 1.0255305672559971e-01 1.7852365134984744e-02 6.6405555387129167e-02 6.8436264843485861e-02 2.5825629902797017e-02 -3.7410205692042647e-02 1.0617307937885004e-01 8.2526431811142831e-02 -1.4348989358623592e-02 -6.0637468579209083e-02 -2.0161071544927763e-03 7.7268325842122232e-03 -1.2074158754276933e-01 -2.8399713243927667e-03 -8.9307541242183430e-02 -6.1824026774446247e-02 -1.0872134609861964e-01 -4.2112170641163673e-03 -9.4555375696096969e-02 4.2063329643920906e-02 -9.3438616683529957e-02 -5.2255055461566398e-02 -5.6847214458585801e-02 -7.0620542916489989e-02 -2.0874357854466549e-02 -1.1248527517134384e-01 1.1888185561760746e-02 -3.0747848284234047e-02 -2.5593782668509361e-02 1.2870142889549649e-01 -8.3354926657749892e-02 5.2533428455595887e-02 -3.5984461020574690e-02 6.3313000343816414e-02 1.5063867952157834e-03 4.4500294164202266e-02 -2.8855245147638904e-03 1.1521262139975960e-01 5.2368063641102316e-03 9.6335286243781709e-02 1.5258698620472065e-02 -1.1169751071346554e-01 1.2144338674768378e-01 -5.7943521603596060e-02 -5.3813038717800819e-02 -4.4610663652589921e-02 1.2002637311846968e-01 -9.2123728186674997e-02 7.5589891425692862e-02 4.5783058440159022e-02 -4.4129607926378260e-02 -8.6554847442767785e-02 1.2231384277816880e-01 9.7008828514677001e-02 -1.1641379189047096e-01 -3.6201458278256896e-02 -7.2016523138510147e-02 -8.5103258359036774e-02 -1.1208449138313611e-01 5.5778823428131417e-02 -6.2908786412058076e-02 -5.0189179152645959e-02 -5.9912951005164770e-02 8.0979280583615532e-02 -7.0092185298014434e-02 -3.3213283207857255e-02 -1.1660478159552237e-01 -1.6295664625117025e-02 9.5663212321438207e-02 3.4108679665231817e-02 1.1046883888967400e-01 -1.0825611442605010e-01 -4.5329473864757587e-02 1.1227820926274787e-01 4.4740846553519863e-02 -4.0700038955610279e-02 3.9447755752098281e-02 4.3797121744750131e-02 -6.9926303553673505e-02 -4.0760279081158750e-02 -2.8908642958739766e-02 -9.2652810448838135e-02 -9.8327306735409695e-02 -4.1579310032199140e-02 5.4710869456629736e-02 1.0571965433457912e-01 4.9758129928707720e-02 5.4607348705382752e-02 9.9132012276942072e-03 2.9831359674649272e-02 -6.9112406859085637e-02 2.9956513686143623e-03 9.3936686405194189e-02 1.1631469445093802e-01 2.3154317129157050e-02 1.6540392572502376e-02 -3.1351905445523985e-02 3.1982828799436792e-02 2.7242702540447163e-02 5.7950413153155335e-02 -1.0936774365886513e-01 -1.7991549570631059e-02 2.4473116042467193e-02 -2.2796360200502696e-02 -1.1532054320348889e-01 -9.2646738886741811e-02 9.5885120871695748e-02 -4.1430403032037717e-02 8.6649102123508681e-02 -4.4180495194424914e-02 -4.7141833998374232e-02 -7.4097531878121820e-02 9.8426188247197344e-02 -1.1922832978793196e-01 -1.1565591584158563e-01 6.6538179733708833e-02 1.1162574175043537e-01 2.9590897057509780e-02 4.2301731817116755e-03 8.6209264814943801e-02 -8.9857562168406055e-02 1.0831655934515263e-02 6.5029437474237436e-02 5.8541463922893069e-02 -4.5142720209240698e-02 -4.7214740891262715e-02 6.0781399885761783e-02 -9.1049920299902415e-02 -7.7915953247647635e-02 6.9815795475092590e-02 3.3556708545647802e-02 -7.2316407459331100e-02 4.9529330308773850e-02 -4.2736835350889082e-02 -3.3201258125129578e-02 -6.0895374651007604e-02 -4.2429159731582830e-02 8.9020071539788373e-02 5.6493150117044352e-02 -3.1232642212876135e-02 -7.5556253603046797e-02 -3.1754214426766673e-02 -5.3692017650177115e-02 2.3979806449658674e-02 -1.0860382747722055e-01 -1.8464525622109912e-04 -7.1866024165574971e-02 7.3325554364223958e-02 1.1385936846180672e-01 -3.1874025474782033e-02 -7.3369249857684294e-03 4.6530653092542160e-02 6.0157905071140341e-02 -2.2091702531702746e-02 5.7785685433183506e-02 -1.0649524215343867e-01 2.2823737858828665e-02 2.3445251317804301e-02 4.5490111307255679e-03 1.2212785067013240e-01 -9.4814678574932407e-02 9.4811844245457716e-02 -9.9491727942786948e-02 -2.4361372761220066e-04 1.0561454604119329e-01 -1.1204289401338939e-02 -1.0930372474169099e-01 -6.1436989477277890e-03 -1.2750076009455710e-02 4.1115819379486024e-02 4.6303650572970229e-02 1.1965470760483658e-01 8.0123411565062821e-02 -1.0457954436521590e-01 1.1787423385546811e-01 -1.1131509533271843e-01 1.1267728722366804e-01 5.9318600909645781e-02 3.9945354779931240e-02 -1.1716909671447408e-01 1.1277949364666882e-02 7.6945510465889572e-02 1.0326487666652837e-01 -1.8195888722409355e-02 1.0329823119152165e-01 -4.0426381648544459e-02 9.4433535308973762e-03 -9.3307129402047148e-02 -3.4736739290883840e-02 5.9458853731974508e-02 2.8853463133161235e-02 7.4587317821394494e-02 -8.0852592528057293e-02 -2.6896150498488185e-03 8.1883126317378846e-02 6.9581109040338110e-02 -4.2356424531402551e-02 -1.2342676920193377e-02 -2.4179683961020246e-02 -8.9989946831798923e-02 3.9796404230709292e-02 -1.1365572277069388e-01 1.1208521825530418e-01 -1.1068036004420855e-01 -3.3984356819302335e-02 -1.2998243216020361e-02 -1.0580844476463618e-01 -6.2551630436435260e-02 -3.9347444348207736e-02 -8.3069068500829277e-02 1.0951749162094832e-01 -1.0786875997998165e-01 -7.3415829976247893e-03 -1.1203441578033156e-01 5.8157345796663110e-03 -3.5530338160574427e-03 1.9575225164094528e-02 2.1467405681363974e-02 6.0384048610612279e-02 -8.8424198085234509e-02 -2.3784726464775568e-03 7.1435246962590036e-03 -1.0342110809982977e-01 1.8846537688277959e-02 5.9192399918734519e-02 1.0027918811310482e-01 -6.7309318020458059e-02 7.4840397902831604e-02 -1.3731981013455827e-02 -5.0094095196251215e-02 3.6799320225112423e-03 -6.6187603869477279e-02 1.5111334450547980e-02 -3.8894733628211720e-02 1.2378277426962959e-01 4.7591076790992441e-02 7.5857294978249057e-02 7.0836933273803540e-02 1.0122373801711702e-01 -1.1474631130866184e-01 6.9889433864138747e-02 -1.2964334292681299e-02 -3.3072204588075430e-02 4.2389603039153241e-02 1.0549404083925089e-01 8.8661702188944813e-02 -8.3886476753948655e-02 -1.8368974890361059e-02 5.1957037571451765e-02 1.2240032169060938e-01 -4.7524180091062698e-02 3.6649702203380922e-02 6.3354215914881735e-03 3.7814376741297472e-02 -8.7064744447724968e-02 8.7507370152180408e-02 -5.3228795573027274e-02 -1.0360978234215897e-01 5.6318331989637427e-02 -4.3308627083565331e-02 -8.0238600445194638e-02 -1.1577403000013624e-01 1.1538720698817647e-03 -9.3805748470373998e-02 1.9907570299794695e-02 -2.4624682356597878e-02 -9.7790969363759847e-02 -6.2872089001212092e-02 9.2713986585797756e-02 3.3262587580766265e-02 -4.8397459318947303e-02 -2.8437698102142767e-02 3.5580649183162734e-02 -8.8364453170572260e-02 -2.3529512474078775e-02 -1.0982403946359040e-01 -1.2112591844889981e-01 -5.0492968447930664e-02 -6.4101643995736743e-02 -1.1962293964014034e-01 1.5767066856808121e-02 -4.9276455358567048e-02 -1.1634095681059957e-01 1.0640003688427879e-02 7.0961509246814658e-02 1.2537148138439558e-01 4.9072836630700938e-02 -1.2378208692667889e-03 6.7477416070059887e-02 -1.0794080929168046e-01 -5.0869501866251478e-02 6.1552173049557908e-02 -3.5591115226732604e-02 1.6157019744997368e-02 -4.9393657864125612e-02 3.0383775410934397e-03 -6.9171028276445889e-02 -2.0127822217307204e-02 1.4544775394665073e-02 -6.7718799744310110e-02 -7.6068728225412607e-02 -6.6213300438326322e-02 7.8392897762563349e-02 2.1271884331520892e-02 7.3241058643667978e-02 5.3393036526983087e-02 1.2178262402359560e-01 -6.3367448644988611e-02 -1.1664284365942774e-01 -8.3066984668658098e-02 3.4521921409587576e-02 -1.4970319852142251e-03 -8.6018482907369229e-02 7.5644837431804959e-02 5.5988635465349219e-02 -9.9446195736572818e-02 -8.7781737682153055e-02 5.2056154142286148e-02 -6.9610320171844001e-02 2.1929334353317224e-02 -8.5701763398813458e-03 -1.1012584718634498e-01 -1.2325101186109032e-01 -5.1490633669920877e-02 -1.0017847795023029e-01 -1.8348461985505471e-03 -1.1261808289259950e-01 6.0424776292359893e-02 -5.8995641320549540e-02 1.2492999913898935e-01 -4.1833154427966826e-02 -6.1413569093558057e-03 2.4967335215797781e-04 1.1752630953351063e-01 5.0798278360534108e-03 9.6585107148174226e-02 4.9704820174266369e-02 -9.8780920111088549e-02 6.0251807182163684e-02 -5.7813726274362098e-02 3.7106369113312958e-03 -9.3170358819777740e-02 1.7857855677028873e-02 -3.9950991192163894e-02 4.2637038414198615e-02 6.3190822343884595e-02 -2.9327031735145469e-02 -1.0856343073583260e-02 -5.2243115029060844e-02 -4.0881307601024097e-02 7.0905113692009233e-02 9.7413132950745274e-02 2.9781549977361498e-02 -7.6385253038308856e-02 5.3540528383481334e-02 2.2420036289980277e-02 1.2242444549842588e-01 -3.5798671341442743e-03 7.0403679281016943e-02 1.0838311225234377e-01 -7.5527923494689481e-02 -6.2072383836473996e-02 -7.8318168844843744e-02 -1.3880799838349282e-02 6.4660577578673203e-02 -9.5410246038842322e-02 -6.9067655411928747e-02 7.6533411587615410e-02 -9.8572205581092365e-02 -8.8243142700968599e-02 1.1569590286489367e-01 -1.0576177726612753e-02 1.8095078355683482e-04 -3.1958167823776645e-04 1.0692838766435081e-01 -8.6491779858139300e-02 -6.5089383755399539e-03 -3.9657581657106110e-02 -4.5812191722201641e-02 3.6390919293124671e-02 6.7300294628920621e-02 3.1550610600805454e-02 -1.1372853104885342e-01 -5.2316233530975975e-02 8.0990443739490339e-02 1.1404772193599566e-01 5.8961367321371534e-02 -1.0231702293481927e-01 5.7656008143606975e-02 1.0719359441299862e-01 1.2140119154119128e-01 4.4479204564805197e-02 -9.0788120723117011e-02 -7.7709116716028495e-02 4.9739251898928749e-02 8.4324178855933019e-02 9.6154700177631378e-02 2.1535940638950278e-02 -4.6081903012693867e-02 -1.1040345725185458e-01 -2.4390323024424711e-02 7.2224547541374209e-02 -8.9395189328109921e-03 -5.6543260699798963e-03 -1.8733848441307278e-04 6.7645098398102779e-03 4.8238208510740725e-02 1.6811642561922933e-02 1.4779774496651995e-02 -9.9335040817977754e-02 8.9929866228970114e-03 -1.0055626227915085e-01 -7.4653372554821976e-02 -9.4924168917248114e-02 2.1224784228373327e-02 1.1231382252779790e-01 9.3695021119874974e-02 4.1461855668888797e-03 -3.4655974479525516e-02 -3.5957284110783388e-02 2.1704068787486867e-02 -1.0028335979527957e-01 3.7894388204746221e-02 1.1212540204211673e-01 1.6093885570823790e-02 -7.6857621734043965e-02 -7.4300768369967810e-02 4.0813658053506535e-02 9.4031901515905167e-03 -7.4087600917326019e-03 5.2865809580265759e-02 -1.2042706701236935e-01 -6.2407049111864572e-02 6.7049627865852390e-02 3.7685069706334312e-02 -3.5695359436312760e-02 9.8596683171472452e-02 -8.5349960446396464e-02 -2.2192080256976839e-02 1.0637292438196350e-01 4.0205056498778383e-02 -7.1832430165834529e-02 -4.6190448829922959e-02 -9.4587574133947350e-03 9.3048702478015444e-02 -5.6615241253905470e-02 -1.0393794228553178e-01 1.0749485638298761e-01 1.2482855224259616e-01 -9.5561206466383539e-02 -6.4023489568996977e-02 1.1901700503439157e-01 -4.4187936144253176e-02 -1.1512303823097188e-01 -3.2468149090103773e-02 8.1886548644272222e-02 4.1357593699272020e-02 3.6809228262352868e-02 -7.8673521177257941e-02 -1.8860365064781365e-02 -8.6071114631023626e-02 -2.1620597636323069e-02 -3.9543945255289511e-03 -1.4599432454393230e-02 -5.6554384887267904e-02 -9.1237878128107200e-02 -8.7306825519180412e-02 -1.5967254673574058e-02 -1.1123765908046744e-01 1.1968657801534407e-02 -2.8834968177064418e-02 -1.0122222831762813e-02 -9.9625765337362879e-02 3.1904427739785052e-02 -8.8294085388442398e-02 9.1847012119632802e-03 -5.2237631440874011e-02 -2.1887706762561555e-02 1.9490117860780119e-02 4.2809100913760154e-02 1.0578880755865075e-01 -1.0702622861717427e-01 -5.3243147249078138e-02 -9.3761890171262397e-03 3.9951152756784597e-02 -1.2426466135536972e-01 -3.1498798306254555e-03 -1.0165226426131833e-01 1.1768418249113632e-01 8.9309129366810208e-02 1.2174182650750913e-01 1.1798800009485125e-01 1.0950796242654715e-01 -7.7236765883812605e-02 