<?xml version="1.0"?>
<MethodSetup Method="MLP::MLP">
  <GeneralInfo>
    <Info name="TMVA Release" value="4.2.1 [262657]"/>
    <Info name="ROOT Release" value="6.08/07 [395271]"/>
    <Info name="Creator" value="wverbeke"/>
    <Info name="Date" value="Tue Dec  5 04:45:43 2017"/>
    <Info name="Host" value="Linux vocms0302.cern.ch 2.6.32-696.1.1.el6.x86_64 #1 SMP Wed Apr 12 08:44:28 CEST 2017 x86_64 x86_64 x86_64 GNU/Linux"/>
    <Info name="Dir" value="/storage_mnt/storage/user/wverbeke/Work/AnalysisCode/ewkino/bdtTraining/bdtTrainingsubmit"/>
    <Info name="Training events" value="159947"/>
    <Info name="TrainingTime" value="2.06244088e+03"/>
    <Info name="AnalysisType" value="Classification"/>
  </GeneralInfo>
  <Options>
    <Option name="NCycles" modified="Yes">600</Option>
    <Option name="HiddenLayers" modified="Yes">N+5</Option>
    <Option name="NeuronType" modified="Yes">tanh</Option>
    <Option name="RandomSeed" modified="No">1</Option>
    <Option name="EstimatorType" modified="No">CE</Option>
    <Option name="NeuronInputType" modified="No">sum</Option>
    <Option name="V" modified="Yes">False</Option>
    <Option name="VerbosityLevel" modified="No">Default</Option>
    <Option name="VarTransform" modified="Yes">N</Option>
    <Option name="H" modified="Yes">True</Option>
    <Option name="CreateMVAPdfs" modified="No">False</Option>
    <Option name="IgnoreNegWeightsInTraining" modified="No">False</Option>
    <Option name="TrainingMethod" modified="No">BP</Option>
    <Option name="LearningRate" modified="No">2.000000e-02</Option>
    <Option name="DecayRate" modified="No">1.000000e-02</Option>
    <Option name="TestRate" modified="Yes">5</Option>
    <Option name="EpochMonitoring" modified="No">False</Option>
    <Option name="Sampling" modified="No">1.000000e+00</Option>
    <Option name="SamplingEpoch" modified="No">1.000000e+00</Option>
    <Option name="SamplingImportance" modified="No">1.000000e+00</Option>
    <Option name="SamplingTraining" modified="No">True</Option>
    <Option name="SamplingTesting" modified="No">False</Option>
    <Option name="ResetStep" modified="No">50</Option>
    <Option name="Tau" modified="No">3.000000e+00</Option>
    <Option name="BPMode" modified="No">sequential</Option>
    <Option name="BatchSize" modified="No">-1</Option>
    <Option name="ConvergenceImprove" modified="No">1.000000e-30</Option>
    <Option name="ConvergenceTests" modified="No">-1</Option>
    <Option name="UseRegulator" modified="Yes">False</Option>
    <Option name="UpdateLimit" modified="No">10000</Option>
    <Option name="CalculateErrors" modified="No">False</Option>
    <Option name="WeightRange" modified="No">1.000000e+00</Option>
  </Options>
  <Variables NVar="19">
    <Variable VarIndex="0" Expression="topMass" Label="topMass" Title="topMass" Unit="" Internal="topMass" Type="F" Min="0.00000000e+00" Max="4.62161914e+03"/>
    <Variable VarIndex="1" Expression="pTForwardJets" Label="pTForwardJets" Title="pTForwardJets" Unit="" Internal="pTForwardJets" Type="F" Min="0.00000000e+00" Max="5.84062927e+02"/>
    <Variable VarIndex="2" Expression="etaMostForward" Label="etaMostForward" Title="etaMostForward" Unit="" Internal="etaMostForward" Type="F" Min="9.43701528e-03" Max="5.08775759e+00"/>
    <Variable VarIndex="3" Expression="pTLeadingJet" Label="pTLeadingJet" Title="pTLeadingJet" Unit="" Internal="pTLeadingJet" Type="F" Min="2.50661049e+01" Max="1.57565747e+03"/>
    <Variable VarIndex="4" Expression="pTLeadingLepton" Label="pTLeadingLepton" Title="pTLeadingLepton" Unit="" Internal="pTLeadingLepton" Type="F" Min="2.50000801e+01" Max="1.79043994e+03"/>
    <Variable VarIndex="5" Expression="mNotSoForwardJets" Label="mNotSoForwardJets" Title="mNotSoForwardJets" Unit="" Internal="mNotSoForwardJets" Type="F" Min="0.00000000e+00" Max="7.41861035e+03"/>
    <Variable VarIndex="6" Expression="pTLeadingBJet" Label="pTLeadingBJet" Title="pTLeadingBJet" Unit="" Internal="pTLeadingBJet" Type="F" Min="2.50000210e+01" Max="8.04922424e+02"/>
    <Variable VarIndex="7" Expression="missingET" Label="missingET" Title="missingET" Unit="" Internal="missingET" Type="F" Min="1.04179710e-01" Max="9.37117615e+02"/>
    <Variable VarIndex="8" Expression="highestDeepCSV" Label="highestDeepCSV" Title="highestDeepCSV" Unit="" Internal="highestDeepCSV" Type="F" Min="-2.00000000e+00" Max="6.32397890e-01"/>
    <Variable VarIndex="9" Expression="maxMjj" Label="maxMjj" Title="maxMjj" Unit="" Internal="maxMjj" Type="F" Min="0.00000000e+00" Max="7.41861035e+03"/>
    <Variable VarIndex="10" Expression="asymmetryWlep" Label="asymmetryWlep" Title="asymmetryWlep" Unit="" Internal="asymmetryWlep" Type="F" Min="-2.49997520e+00" Max="2.49910092e+00"/>
    <Variable VarIndex="11" Expression="etaZ" Label="etaZ" Title="etaZ" Unit="" Internal="etaZ" Type="F" Min="2.17198412e-05" Max="7.43178225e+00"/>
    <Variable VarIndex="12" Expression="m3l" Label="m3l" Title="m3l" Unit="" Internal="m3l" Type="F" Min="1.39939318e+01" Max="2.90162573e+03"/>
    <Variable VarIndex="13" Expression="maxDeltaPhijj" Label="maxDeltaPhijj" Title="maxDeltaPhijj" Unit="" Internal="maxDeltaPhijj" Type="F" Min="4.23192978e-05" Max="3.14159083e+00"/>
    <Variable VarIndex="14" Expression="maxDeltaRjj" Label="maxDeltaRjj" Title="maxDeltaRjj" Unit="" Internal="maxDeltaRjj" Type="F" Min="3.93641144e-01" Max="1.03769493e+01"/>
    <Variable VarIndex="15" Expression="maxDeltaPhill" Label="maxDeltaPhill" Title="maxDeltaPhill" Unit="" Internal="maxDeltaPhill" Type="F" Min="1.10688210e-02" Max="3.14158750e+00"/>
    <Variable VarIndex="16" Expression="pT3l" Label="pT3l" Title="pT3l" Unit="" Internal="pT3l" Type="F" Min="3.08943540e-01" Max="1.70108850e+03"/>
    <Variable VarIndex="17" Expression="mForwardJetsLeadinBJetW" Label="mForwardJetsLeadinBJetW" Title="mForwardJetsLeadinBJetW" Unit="" Internal="mForwardJetsLeadinBJetW" Type="F" Min="0.00000000e+00" Max="1.05282529e+04"/>
    <Variable VarIndex="18" Expression="ht" Label="ht" Title="ht" Unit="" Internal="ht" Type="F" Min="5.00717850e+01" Max="2.36897876e+03"/>
  </Variables>
  <Spectators NSpec="0"/>
  <Classes NClass="2">
    <Class Name="Signal" Index="0"/>
    <Class Name="Background" Index="1"/>
  </Classes>
  <Transformations NTransformations="1">
    <Transform Name="Normalize">
      <Selection>
        <Input NInputs="19">
          <Input Type="Variable" Label="topMass" Expression="topMass"/>
          <Input Type="Variable" Label="pTForwardJets" Expression="pTForwardJets"/>
          <Input Type="Variable" Label="etaMostForward" Expression="etaMostForward"/>
          <Input Type="Variable" Label="pTLeadingJet" Expression="pTLeadingJet"/>
          <Input Type="Variable" Label="pTLeadingLepton" Expression="pTLeadingLepton"/>
          <Input Type="Variable" Label="mNotSoForwardJets" Expression="mNotSoForwardJets"/>
          <Input Type="Variable" Label="pTLeadingBJet" Expression="pTLeadingBJet"/>
          <Input Type="Variable" Label="missingET" Expression="missingET"/>
          <Input Type="Variable" Label="highestDeepCSV" Expression="highestDeepCSV"/>
          <Input Type="Variable" Label="maxMjj" Expression="maxMjj"/>
          <Input Type="Variable" Label="asymmetryWlep" Expression="asymmetryWlep"/>
          <Input Type="Variable" Label="etaZ" Expression="etaZ"/>
          <Input Type="Variable" Label="m3l" Expression="m3l"/>
          <Input Type="Variable" Label="maxDeltaPhijj" Expression="maxDeltaPhijj"/>
          <Input Type="Variable" Label="maxDeltaRjj" Expression="maxDeltaRjj"/>
          <Input Type="Variable" Label="maxDeltaPhill" Expression="maxDeltaPhill"/>
          <Input Type="Variable" Label="pT3l" Expression="pT3l"/>
          <Input Type="Variable" Label="mForwardJetsLeadinBJetW" Expression="mForwardJetsLeadinBJetW"/>
          <Input Type="Variable" Label="ht" Expression="ht"/>
        </Input>
        <Output NOutputs="19">
          <Output Type="Variable" Label="topMass" Expression="topMass"/>
          <Output Type="Variable" Label="pTForwardJets" Expression="pTForwardJets"/>
          <Output Type="Variable" Label="etaMostForward" Expression="etaMostForward"/>
          <Output Type="Variable" Label="pTLeadingJet" Expression="pTLeadingJet"/>
          <Output Type="Variable" Label="pTLeadingLepton" Expression="pTLeadingLepton"/>
          <Output Type="Variable" Label="mNotSoForwardJets" Expression="mNotSoForwardJets"/>
          <Output Type="Variable" Label="pTLeadingBJet" Expression="pTLeadingBJet"/>
          <Output Type="Variable" Label="missingET" Expression="missingET"/>
          <Output Type="Variable" Label="highestDeepCSV" Expression="highestDeepCSV"/>
          <Output Type="Variable" Label="maxMjj" Expression="maxMjj"/>
          <Output Type="Variable" Label="asymmetryWlep" Expression="asymmetryWlep"/>
          <Output Type="Variable" Label="etaZ" Expression="etaZ"/>
          <Output Type="Variable" Label="m3l" Expression="m3l"/>
          <Output Type="Variable" Label="maxDeltaPhijj" Expression="maxDeltaPhijj"/>
          <Output Type="Variable" Label="maxDeltaRjj" Expression="maxDeltaRjj"/>
          <Output Type="Variable" Label="maxDeltaPhill" Expression="maxDeltaPhill"/>
          <Output Type="Variable" Label="pT3l" Expression="pT3l"/>
          <Output Type="Variable" Label="mForwardJetsLeadinBJetW" Expression="mForwardJetsLeadinBJetW"/>
          <Output Type="Variable" Label="ht" Expression="ht"/>
        </Output>
      </Selection>
      <Class ClassIndex="0">
        <Ranges>
          <Range Index="0" Min="0.0000000000000000e+00" Max="3.5174394531250000e+03"/>
          <Range Index="1" Min="0.0000000000000000e+00" Max="5.3860003662109375e+02"/>
          <Range Index="2" Min="4.9503829330205917e-02" Max="5.0834941864013672e+00"/>
          <Range Index="3" Min="2.5423738479614258e+01" Max="1.3641473388671875e+03"/>
          <Range Index="4" Min="2.5227918624877930e+01" Max="1.1464831542968750e+03"/>
          <Range Index="5" Min="0.0000000000000000e+00" Max="7.0923740234375000e+03"/>
          <Range Index="6" Min="2.5000284194946289e+01" Max="5.6383319091796875e+02"/>
          <Range Index="7" Min="2.5761952996253967e-01" Max="6.4404705810546875e+02"/>
          <Range Index="8" Min="-2.0000000000000000e+00" Max="6.3238823413848877e-01"/>
          <Range Index="9" Min="0.0000000000000000e+00" Max="6.0287744140625000e+03"/>
          <Range Index="10" Min="-2.4980332851409912e+00" Max="2.4830813407897949e+00"/>
          <Range Index="11" Min="1.8661706417333335e-04" Max="5.8101987838745117e+00"/>
          <Range Index="12" Min="3.2942466735839844e+01" Max="1.8262895507812500e+03"/>
          <Range Index="13" Min="2.9253959655761719e-04" Max="3.1415777206420898e+00"/>
          <Range Index="14" Min="4.0781101584434509e-01" Max="1.0175618171691895e+01"/>
          <Range Index="15" Min="7.7342987060546875e-02" Max="3.1415545940399170e+00"/>
          <Range Index="16" Min="5.0073194503784180e-01" Max="1.0869104003906250e+03"/>
          <Range Index="17" Min="0.0000000000000000e+00" Max="9.3009863281250000e+03"/>
          <Range Index="18" Min="5.0812908172607422e+01" Max="2.0241300048828125e+03"/>
        </Ranges>
      </Class>
      <Class ClassIndex="1">
        <Ranges>
          <Range Index="0" Min="0.0000000000000000e+00" Max="4.6216191406250000e+03"/>
          <Range Index="1" Min="0.0000000000000000e+00" Max="5.8406292724609375e+02"/>
          <Range Index="2" Min="9.4370152801275253e-03" Max="5.0877575874328613e+00"/>
          <Range Index="3" Min="2.5066104888916016e+01" Max="1.5756574707031250e+03"/>
          <Range Index="4" Min="2.5000080108642578e+01" Max="1.7904399414062500e+03"/>
          <Range Index="5" Min="0.0000000000000000e+00" Max="7.4186103515625000e+03"/>
          <Range Index="6" Min="2.5000020980834961e+01" Max="8.0492242431640625e+02"/>
          <Range Index="7" Min="1.0417971014976501e-01" Max="9.3711761474609375e+02"/>
          <Range Index="8" Min="-2.0000000000000000e+00" Max="6.3239789009094238e-01"/>
          <Range Index="9" Min="0.0000000000000000e+00" Max="7.4186103515625000e+03"/>
          <Range Index="10" Min="-2.4999752044677734e+00" Max="2.4991009235382080e+00"/>
          <Range Index="11" Min="2.1719841242884286e-05" Max="7.4317822456359863e+00"/>
          <Range Index="12" Min="1.3993931770324707e+01" Max="2.9016257324218750e+03"/>
          <Range Index="13" Min="4.2319297790527344e-05" Max="3.1415908336639404e+00"/>
          <Range Index="14" Min="3.9364114403724670e-01" Max="1.0376949310302734e+01"/>
          <Range Index="15" Min="1.1068820953369141e-02" Max="3.1415874958038330e+00"/>
          <Range Index="16" Min="3.0894353985786438e-01" Max="1.7010885009765625e+03"/>
          <Range Index="17" Min="0.0000000000000000e+00" Max="1.0528252929687500e+04"/>
          <Range Index="18" Min="5.0071784973144531e+01" Max="2.3689787597656250e+03"/>
        </Ranges>
      </Class>
      <Class ClassIndex="2">
        <Ranges>
          <Range Index="0" Min="0.0000000000000000e+00" Max="4.6216191406250000e+03"/>
          <Range Index="1" Min="0.0000000000000000e+00" Max="5.8406292724609375e+02"/>
          <Range Index="2" Min="9.4370152801275253e-03" Max="5.0877575874328613e+00"/>
          <Range Index="3" Min="2.5066104888916016e+01" Max="1.5756574707031250e+03"/>
          <Range Index="4" Min="2.5000080108642578e+01" Max="1.7904399414062500e+03"/>
          <Range Index="5" Min="0.0000000000000000e+00" Max="7.4186103515625000e+03"/>
          <Range Index="6" Min="2.5000020980834961e+01" Max="8.0492242431640625e+02"/>
          <Range Index="7" Min="1.0417971014976501e-01" Max="9.3711761474609375e+02"/>
          <Range Index="8" Min="-2.0000000000000000e+00" Max="6.3239789009094238e-01"/>
          <Range Index="9" Min="0.0000000000000000e+00" Max="7.4186103515625000e+03"/>
          <Range Index="10" Min="-2.4999752044677734e+00" Max="2.4991009235382080e+00"/>
          <Range Index="11" Min="2.1719841242884286e-05" Max="7.4317822456359863e+00"/>
          <Range Index="12" Min="1.3993931770324707e+01" Max="2.9016257324218750e+03"/>
          <Range Index="13" Min="4.2319297790527344e-05" Max="3.1415908336639404e+00"/>
          <Range Index="14" Min="3.9364114403724670e-01" Max="1.0376949310302734e+01"/>
          <Range Index="15" Min="1.1068820953369141e-02" Max="3.1415874958038330e+00"/>
          <Range Index="16" Min="3.0894353985786438e-01" Max="1.7010885009765625e+03"/>
          <Range Index="17" Min="0.0000000000000000e+00" Max="1.0528252929687500e+04"/>
          <Range Index="18" Min="5.0071784973144531e+01" Max="2.3689787597656250e+03"/>
        </Ranges>
      </Class>
    </Transform>
  </Transformations>
  <MVAPdfs/>
  <Weights>
    <Layout NLayers="3">
      <Layer Index="0" NNeurons="20">
        <Neuron NSynapses="24">
          -3.3168621004013216e-01 2.0187419052112396e+00 9.5104444213516925e-01 1.8333550197339117e+00 -2.0026370232029964e+00 -1.4874091058015058e+00 -5.3412044473314624e-01 1.9939466042814036e+00 -1.2610306230287842e+00 -1.0577731068920220e+00 -1.6138692592856254e+00 -2.2507901804619493e-01 -1.2033882584551796e+00 -6.4437987120286533e-01 -6.1863916883524483e-01 5.0909378184527210e-01 -3.4748074042169558e-01 1.7308664942636467e+00 4.3184665794457441e-02 1.4253206390739674e+00 -3.7717996313018981e-01 -7.4428362576321672e-01 5.4958731730043642e-01 4.1889030621090884e-04 
        </Neuron>
        <Neuron NSynapses="24">
          -1.1818391598721862e+00 -2.3293742606426521e-01 1.6675781887236056e+00 -8.9623095162861044e-01 -1.8815470893488688e+00 1.3785447607710336e-01 8.2118896571819444e-01 1.6600781657038912e+00 -7.5363945243761846e-02 -1.9586776733621183e-01 2.8358603464620308e-01 -5.9901684406162514e-01 -1.4286732991895474e+00 1.5107393181993676e+00 -1.2091863668683369e+00 8.4416707550738357e-01 1.2630795204114769e+00 8.5216178911298091e-01 2.1275397424337004e+00 1.2504703938057231e+00 -9.7350588995350873e-01 -1.5627740531571848e+00 6.1602327866870854e-01 9.2288656599462861e-03 
        </Neuron>
        <Neuron NSynapses="24">
          1.5055453519419690e+00 1.4953607132229481e+00 1.4833241847442749e+00 1.2609495860091067e+00 -1.6631253304450251e+00 1.3184519409708972e+00 -1.9309295661988348e+00 -9.1090483833222813e-01 -1.1721855151771936e+00 -1.7757830331828741e+00 1.5540905084392433e+00 3.9988427097480922e-01 -1.6259544685472311e+00 3.9508882759917158e-01 -3.1471093292201097e-01 5.7410934877348108e-01 1.7707202819003378e+00 -3.3441104786282339e-01 5.1888210465847195e-01 -1.1871003261264057e+00 6.6100496179271329e-01 -8.1620046987643902e-01 -6.2096663581475708e-01 -1.3998527054602907e+00 
        </Neuron>
        <Neuron NSynapses="24">
          7.4572929342985450e-01 1.1792536694258289e+00 1.3749186065056798e+00 -2.8136213335197735e-01 -1.9329982156151566e+00 -1.8632536120566605e+00 1.2813534301477476e+00 4.9800975693207117e-01 2.0542954356357663e+00 6.3910954629686256e-01 1.0125333969024000e+00 -5.0962121739668342e-01 -8.2999099954431022e-01 -3.6043319372535820e-01 1.1569712054651364e+00 -1.2708678592599023e+00 -1.5283974121224309e+00 -1.7125716605340824e+00 -3.9818475056829938e-01 -8.3046975710716717e-02 1.6122542468609313e+00 -1.6299440612115697e+00 -1.0679741582374258e+00 1.4947042835932742e+00 
        </Neuron>
        <Neuron NSynapses="24">
          -8.4943013692151315e-01 -1.5226907838789614e+00 -1.3256302383743757e+00 2.7009638876789110e-01 -1.9173778767857625e+00 -1.6653482760197391e+00 9.5168251872752185e-01 1.6655789158138510e+00 -9.3921846162208078e-01 1.6443645661318864e+00 -9.0854540917178483e-01 -5.6757277676553941e-01 -4.3165918880042210e-02 1.1548752740740748e-01 -1.7884205106495548e+00 3.4863913030573346e-02 3.6500363522088974e-01 4.4064109434741000e-01 -1.5714573004271717e+00 1.8730859883033226e+00 2.3576912674221642e-01 -9.1976287554214264e-01 6.0414853885360076e-01 -1.1793679095480587e+00 
        </Neuron>
        <Neuron NSynapses="24">
          -1.5909828796961416e+00 1.6706486765240258e-01 -2.5627137186575205e-01 1.9427179246367798e+00 7.7447927415217843e-01 -2.7563695478177951e-02 -1.8096233152434549e-01 1.6140329898811298e-01 -1.5656392766586225e+00 1.0545295696770369e+00 1.9202432396428193e-01 -1.9277739555194924e+00 6.2484181033696562e-01 -1.6487757150583660e+00 5.8431097706005172e-02 9.0834569248978136e-01 1.8012806145604829e+00 -1.8754047904365865e+00 5.3059206341371257e-01 1.5797978208823340e+00 1.5142578907503748e+00 1.9704685104467892e-01 -1.5847569723196357e+00 -2.6731048723567852e-01 
        </Neuron>
        <Neuron NSynapses="24">
          -1.4431617233734018e+00 1.6099913636928185e+00 1.3347650247328819e+00 -3.4527809405242094e-01 -4.0402396666436297e-01 1.5378400028080377e-01 -1.1086518856331267e+00 6.1018611643418341e-01 1.8670988757343085e+00 -5.6591241242692825e-01 -5.6875201322536584e-01 4.0491175932726448e-01 1.0063535026109904e+00 3.3543090538881914e-01 9.0339148980380934e-01 -1.7111430271936394e+00 1.5952471775549053e+00 7.4831155709874364e-01 4.3823675171346493e-01 6.3374821416308269e-01 9.1051373556923232e-01 -5.5530912113339514e-01 -8.3174715729495252e-01 9.4415620083042429e-01 
        </Neuron>
        <Neuron NSynapses="24">
          -9.2038483161280571e-01 -5.0491870881416845e-01 1.5545177833248633e+00 1.0165579427020004e+00 -2.9824842581086136e-01 1.5254863648379471e+00 2.1939819000502117e+00 -1.9550466789435617e+00 7.1107362009149888e-01 -3.2291758755098200e-03 4.8353217360207273e-01 -1.2902879551005839e+00 -1.4660107266357294e+00 9.7201736903201996e-01 1.7980425246047009e+00 -1.8349841620097200e+00 -1.3624640103485566e-01 -5.8539029891181782e-01 5.8957749223852420e-02 1.8049982613183213e+00 -3.5268822092187413e-01 -5.0019573270952511e-01 -1.2814587847089451e+00 9.5450752502511682e-01 
        </Neuron>
        <Neuron NSynapses="24">
          1.6138760504481422e+00 1.0749712739839055e+00 1.6264342340106869e-01 -9.6301427066781564e-01 -1.9934257259452610e+00 1.0908307938170791e+00 3.0019886195448009e-01 -1.3814183202166668e+00 -1.0743249647000572e+00 2.8935371570278867e-01 9.5432953568372947e-02 -2.2813066328596996e+00 1.6675926785646498e+00 1.4925128116620283e+00 -5.6889862494706711e-01 7.0777254765417408e-02 1.5866133862281988e+00 1.0837302675802447e+00 2.6301272648002910e-01 -1.7649166443603331e-01 -1.3891944410854080e+00 -9.5889769858984741e-01 1.4649705216808984e+00 1.1455234575095696e+00 
        </Neuron>
        <Neuron NSynapses="24">
          7.6323453107749606e-01 2.3166925486058534e-01 2.0957702811156111e+00 -1.5782639752840066e+00 -1.3117422239611167e+00 -1.0990168756065499e-01 -1.2789358142675851e+00 9.7114144800389990e-01 1.9440150709409572e+00 -1.2415296026375522e+00 8.3376511704318657e-01 -2.4406596357809512e-01 -1.7568714367441345e+00 -1.2860471538723683e+00 1.0206391874506564e+00 -2.1457532629560166e-01 1.0474890466226956e+00 -1.1640409719690017e+00 1.8598408440752103e+00 -1.7576128143476424e+00 7.6131918381044117e-01 1.2038753959310880e-01 -1.6370603971355597e+00 -1.3787906752106154e+00 
        </Neuron>
        <Neuron NSynapses="24">
          -1.9201061942991329e+00 -4.1054635410019941e-01 -1.9008513459149357e+00 -1.4751664353870750e+00 -1.8840295555771225e+00 3.9248618875325304e-02 -9.6240948334278209e-01 -1.5907576064663542e+00 1.3996077309043984e+00 -8.4394426809334377e-01 1.4696383383762149e-01 -6.0546138465841937e-01 2.1818771939074949e-01 1.5513246081538470e+00 1.3685546094595655e+00 -8.5294058601780498e-01 -1.4567709956489816e+00 -1.0664572045538718e+00 -1.0544561813796864e+00 -1.6234175955261299e+00 9.9722085238325431e-02 2.5134796042558505e-01 1.9305336364366024e+00 -2.4458164879269800e-01 
        </Neuron>
        <Neuron NSynapses="24">
          2.4377140592181687e-01 -5.4044016892906466e-01 -1.7762178693813158e+00 1.4012562566860540e+00 1.2103354287912862e+00 -8.4074686989243197e-01 -8.8712662908056650e-01 8.6615337452983698e-01 1.3699500468255870e+00 4.8421445507272204e-01 -4.4015904220488156e-01 -1.9132719581503166e-01 1.4354926185693497e+00 9.1610031956457627e-01 9.8711029275202378e-01 -4.8497032235343002e-01 2.7475420129730299e-01 -3.0098844878811731e-01 -1.5241275505903895e+00 -5.1248736723621469e-01 -1.7385244214941020e+00 -1.3103572961176650e+00 -1.6516045718099461e+00 1.6525304373268561e+00 
        </Neuron>
        <Neuron NSynapses="24">
          -1.8222138393392773e+00 1.6595188877427622e+00 -1.4104228005482871e+00 1.3095547726812982e+00 -1.0909843949226834e+00 4.6550897305769456e-01 1.0622861883553707e+00 -1.8592191645729339e+00 4.5479928103600314e-01 6.2315578509021274e-01 -1.9261508681913602e+00 -1.2928914834829957e+00 -1.7186293967192532e+00 -1.0551259301135709e+00 1.8673134427689617e+00 -7.7713807215503139e-01 3.4317756008275208e-01 -9.1755360157787980e-01 -1.3128437582362300e+00 -1.6584378687769898e+00 -1.0968426305793901e+00 -1.3531485748056240e+00 8.0548967910645697e-01 -1.4411364598948069e+00 
        </Neuron>
        <Neuron NSynapses="24">
          -1.2178923199629170e+00 1.7310335980048752e+00 2.9560016608191675e-01 -4.5389796521606585e-01 1.8799790687052653e+00 -1.8001624867734232e+00 1.0335559871013018e+00 9.6270596845664080e-01 -8.9373174135041134e-01 -8.1745165088373606e-01 2.0102708087068565e-02 -1.5483623541454752e+00 4.5435396204639428e-01 1.4760918775602876e+00 1.3174270988761754e+00 1.4414517875192798e+00 -1.3577933988621864e+00 1.0348569481791179e+00 -1.5049479140949054e+00 6.3039566280779680e-01 -1.9208402906679114e+00 -1.8962631900630358e+00 2.3338409085563522e-01 1.3971426750198570e+00 
        </Neuron>
        <Neuron NSynapses="24">
          4.2524284913062765e-01 1.0721255764314661e+00 2.7073544823252227e-01 -1.3256727359187365e-01 -7.3354824305576183e-01 1.2733236685314023e-01 1.8864771876404300e+00 -1.5638674384505926e+00 5.2398212624295826e-01 -1.4352465354558519e+00 -4.2788097513459189e-01 -2.5092152514273497e-01 1.7755074914596991e-01 -1.3059887291131509e+00 9.8153571847011800e-01 1.4721171775964390e+00 6.4784022462543822e-01 -1.3946877207508940e-01 -5.4420261893384902e-01 -1.4328684290182045e+00 -1.8354765951121916e+00 1.0690721551307032e+00 -4.5888303660897761e-01 -1.1299194914079695e+00 
        </Neuron>
        <Neuron NSynapses="24">
          5.1903593061153175e-01 -1.6650781997569726e+00 -1.3071975089920373e+00 -1.6067216111899834e+00 1.0054887301554603e+00 -1.3513820316966874e+00 -1.7345317108336327e+00 -5.8274374685853902e-01 -1.0069739383423479e+00 -1.5613545284723276e+00 1.1548084301327470e+00 -8.8075223733342078e-01 -1.2373039682013187e+00 1.6372789248042214e+00 5.5823183602814830e-01 3.9996059411421947e-01 1.0043094470832520e-01 1.3481840497863828e+00 1.2510821136354369e+00 4.8085076002385041e-01 -8.9376945298073252e-01 -7.6351971710137656e-01 -1.5371746509673314e+00 1.0386385991467593e+00 
        </Neuron>
        <Neuron NSynapses="24">
          9.3973835147012064e-01 9.4733680547932131e-02 1.2298137657703785e+00 1.0899097627900982e+00 1.6350717732346105e+00 -1.3382213542752954e+00 1.9452061573918220e+00 7.4772451673791596e-01 -1.7579573720665314e+00 -2.9849836471380609e-01 -1.0264645744522833e+00 1.1073835403619672e+00 4.5935972429251726e-01 8.3949333796447412e-01 1.7946402728353996e+00 -6.1823074938273204e-01 1.8589718956277157e+00 1.6900052405274089e+00 1.2362084843743626e-01 -1.1424319230643176e+00 1.5455516238681137e+00 -1.9285502454453722e+00 3.6318087169885965e-01 1.5987073290013218e+00 
        </Neuron>
        <Neuron NSynapses="24">
          -4.4004558634456675e-01 -7.8607409312693233e-01 2.8185711339048326e-02 -1.1762236144230924e+00 4.1571235560587105e-01 -1.9034132993570125e+00 4.0342417654003865e-01 -1.9352791746186698e-01 1.9236345986560237e+00 1.2318247107825826e+00 1.7127341422312365e+00 -4.9328036912102685e-01 -4.4043508873093368e-01 1.9894021280644189e-01 1.8520415338495630e+00 -2.1025539544527629e+00 -1.2662793561352601e+00 -5.8085968969656865e-01 -1.4105037876477460e+00 -1.6378390140829542e+00 -1.5719423481478774e+00 8.1553293266963844e-01 -1.0084694796996940e-01 -2.0019162709841662e+00 
        </Neuron>
        <Neuron NSynapses="24">
          -1.9141044263166342e+00 -1.2198264214865695e-01 1.8258501927734616e+00 1.9279188619980741e+00 1.3048853046451063e+00 -6.6323932000146302e-01 -1.6795802120196714e+00 -1.1053764434189087e-01 -1.1902829461422495e+00 -1.5856007992365608e+00 -6.4447630645404197e-01 2.6557183955636560e-01 -1.4400256631076336e+00 1.3789871079833496e+00 1.2380165370509442e+00 -3.2549173634477742e-02 -5.6481764742885976e-01 -8.8159176143186013e-01 1.6016544370497028e+00 -5.4235372789228165e-01 2.9011303095003244e-01 1.5636854865183871e+00 1.2751272156867641e+00 -1.1459487469663168e+00 
        </Neuron>
        <Neuron NSynapses="24">
          1.3794131996138208e+00 -1.8911832507058359e+00 1.4032537849095443e+00 1.6415332168334182e+00 -1.7113759854095792e-01 -2.8041248104700284e-01 -3.1094680615099630e-02 -6.1192965413533706e-01 9.4293038633744963e-01 3.0813007813190896e-01 -8.9965499778151825e-01 -1.5629929682898036e+00 -2.3130083509012123e-02 2.0370251630205760e+00 3.9870726697123576e-01 -4.6612690835547954e-01 -2.0163594603066062e+00 1.8303311999185305e+00 4.4396605721227989e-01 -1.1787844886476542e+00 -1.2722909446717554e-01 -1.0821244195410749e+00 1.4401758315585680e+00 1.5685522944889934e+00 
        </Neuron>
      </Layer>
      <Layer Index="1" NNeurons="25">
        <Neuron NSynapses="1">
          -9.7379392212965066e-01 
        </Neuron>
        <Neuron NSynapses="1">
          -8.9235323835103209e-01 
        </Neuron>
        <Neuron NSynapses="1">
          1.1705206428655317e+00 
        </Neuron>
        <Neuron NSynapses="1">
          1.1828165343672925e+00 
        </Neuron>
        <Neuron NSynapses="1">
          2.3663716547910954e-01 
        </Neuron>
        <Neuron NSynapses="1">
          -5.8728841383566432e-02 
        </Neuron>
        <Neuron NSynapses="1">
          -8.9111223048358712e-01 
        </Neuron>
        <Neuron NSynapses="1">
          -1.0041659218569834e+00 
        </Neuron>
        <Neuron NSynapses="1">
          1.1091636707802603e+00 
        </Neuron>
        <Neuron NSynapses="1">
          -2.9397674282007491e-01 
        </Neuron>
        <Neuron NSynapses="1">
          2.9513590983235188e-01 
        </Neuron>
        <Neuron NSynapses="1">
          -1.2620408512961288e+00 
        </Neuron>
        <Neuron NSynapses="1">
          -1.9942554486491906e+00 
        </Neuron>
        <Neuron NSynapses="1">
          -1.7132505272203864e+00 
        </Neuron>
        <Neuron NSynapses="1">
          -9.3721934253380157e-02 
        </Neuron>
        <Neuron NSynapses="1">
          -1.7687618383669941e+00 
        </Neuron>
        <Neuron NSynapses="1">
          8.9192767232965009e-01 
        </Neuron>
        <Neuron NSynapses="1">
          -6.0246144652566913e-01 
        </Neuron>
        <Neuron NSynapses="1">
          8.9648333218580833e-01 
        </Neuron>
        <Neuron NSynapses="1">
          -1.7535165284034412e-01 
        </Neuron>
        <Neuron NSynapses="1">
          -1.5380447110029964e+00 
        </Neuron>
        <Neuron NSynapses="1">
          1.2618306975579516e+00 
        </Neuron>
        <Neuron NSynapses="1">
          1.3570014801686685e+00 
        </Neuron>
        <Neuron NSynapses="1">
          6.8615264744307469e-01 
        </Neuron>
        <Neuron NSynapses="1">
          -7.2871813985761946e-01 
        </Neuron>
      </Layer>
      <Layer Index="2" NNeurons="1">
        <Neuron NSynapses="0"/>
      </Layer>
    </Layout>
  </Weights>
</MethodSetup>
