<?xml version="1.0"?>
<MethodSetup Method="MLP::MLP">
  <GeneralInfo>
    <Info name="TMVA Release" value="4.2.1 [262657]"/>
    <Info name="ROOT Release" value="6.08/07 [395271]"/>
    <Info name="Creator" value="wverbeke"/>
    <Info name="Date" value="Tue Dec  5 06:06:39 2017"/>
    <Info name="Host" value="Linux vocms0302.cern.ch 2.6.32-696.1.1.el6.x86_64 #1 SMP Wed Apr 12 08:44:28 CEST 2017 x86_64 x86_64 x86_64 GNU/Linux"/>
    <Info name="Dir" value="/storage_mnt/storage/user/wverbeke/Work/AnalysisCode/ewkino/bdtTraining/bdtTrainingsubmit"/>
    <Info name="Training events" value="308218"/>
    <Info name="TrainingTime" value="3.25606920e+03"/>
    <Info name="AnalysisType" value="Classification"/>
  </GeneralInfo>
  <Options>
    <Option name="NCycles" modified="Yes">600</Option>
    <Option name="HiddenLayers" modified="Yes">N+5</Option>
    <Option name="NeuronType" modified="Yes">tanh</Option>
    <Option name="RandomSeed" modified="No">1</Option>
    <Option name="EstimatorType" modified="No">CE</Option>
    <Option name="NeuronInputType" modified="No">sum</Option>
    <Option name="V" modified="Yes">False</Option>
    <Option name="VerbosityLevel" modified="No">Default</Option>
    <Option name="VarTransform" modified="Yes">N</Option>
    <Option name="H" modified="Yes">True</Option>
    <Option name="CreateMVAPdfs" modified="No">False</Option>
    <Option name="IgnoreNegWeightsInTraining" modified="No">False</Option>
    <Option name="TrainingMethod" modified="No">BP</Option>
    <Option name="LearningRate" modified="No">2.000000e-02</Option>
    <Option name="DecayRate" modified="No">1.000000e-02</Option>
    <Option name="TestRate" modified="Yes">5</Option>
    <Option name="EpochMonitoring" modified="No">False</Option>
    <Option name="Sampling" modified="No">1.000000e+00</Option>
    <Option name="SamplingEpoch" modified="No">1.000000e+00</Option>
    <Option name="SamplingImportance" modified="No">1.000000e+00</Option>
    <Option name="SamplingTraining" modified="No">True</Option>
    <Option name="SamplingTesting" modified="No">False</Option>
    <Option name="ResetStep" modified="No">50</Option>
    <Option name="Tau" modified="No">3.000000e+00</Option>
    <Option name="BPMode" modified="No">sequential</Option>
    <Option name="BatchSize" modified="No">-1</Option>
    <Option name="ConvergenceImprove" modified="No">1.000000e-30</Option>
    <Option name="ConvergenceTests" modified="No">-1</Option>
    <Option name="UseRegulator" modified="Yes">False</Option>
    <Option name="UpdateLimit" modified="No">10000</Option>
    <Option name="CalculateErrors" modified="No">False</Option>
    <Option name="WeightRange" modified="No">1.000000e+00</Option>
  </Options>
  <Variables NVar="15">
    <Variable VarIndex="0" Expression="topMass" Label="topMass" Title="topMass" Unit="" Internal="topMass" Type="F" Min="0.00000000e+00" Max="3.53506860e+03"/>
    <Variable VarIndex="1" Expression="pTForwardJets" Label="pTForwardJets" Title="pTForwardJets" Unit="" Internal="pTForwardJets" Type="F" Min="0.00000000e+00" Max="4.55680847e+02"/>
    <Variable VarIndex="2" Expression="etaMostForward" Label="etaMostForward" Title="etaMostForward" Unit="" Internal="etaMostForward" Type="F" Min="0.00000000e+00" Max="5.08899117e+00"/>
    <Variable VarIndex="3" Expression="pTLeadingJet" Label="pTLeadingJet" Title="pTLeadingJet" Unit="" Internal="pTLeadingJet" Type="F" Min="0.00000000e+00" Max="1.27810754e+03"/>
    <Variable VarIndex="4" Expression="pTLeadingLepton" Label="pTLeadingLepton" Title="pTLeadingLepton" Unit="" Internal="pTLeadingLepton" Type="F" Min="2.50367546e+01" Max="8.60989746e+02"/>
    <Variable VarIndex="5" Expression="mNotSoForwardJets" Label="mNotSoForwardJets" Title="mNotSoForwardJets" Unit="" Internal="mNotSoForwardJets" Type="F" Min="0.00000000e+00" Max="1.47404529e+03"/>
    <Variable VarIndex="6" Expression="missingET" Label="missingET" Title="missingET" Unit="" Internal="missingET" Type="F" Min="4.07828800e-02" Max="9.65719360e+02"/>
    <Variable VarIndex="7" Expression="highestDeepCSV" Label="highestDeepCSV" Title="highestDeepCSV" Unit="" Internal="highestDeepCSV" Type="F" Min="-2.00000000e+00" Max="6.32378161e-01"/>
    <Variable VarIndex="8" Expression="asymmetryWlep" Label="asymmetryWlep" Title="asymmetryWlep" Unit="" Internal="asymmetryWlep" Type="F" Min="-2.49990535e+00" Max="2.49982405e+00"/>
    <Variable VarIndex="9" Expression="etaZ" Label="etaZ" Title="etaZ" Unit="" Internal="etaZ" Type="F" Min="6.57659211e-06" Max="8.59717274e+00"/>
    <Variable VarIndex="10" Expression="m3l" Label="m3l" Title="m3l" Unit="" Internal="m3l" Type="F" Min="8.37796478e+01" Max="2.64352905e+03"/>
    <Variable VarIndex="11" Expression="maxDeltaPhill" Label="maxDeltaPhill" Title="maxDeltaPhill" Unit="" Internal="maxDeltaPhill" Type="F" Min="6.95109367e-03" Max="3.14159179e+00"/>
    <Variable VarIndex="12" Expression="pT3l" Label="pT3l" Title="pT3l" Unit="" Internal="pT3l" Type="F" Min="7.51493424e-02" Max="1.09900415e+03"/>
    <Variable VarIndex="13" Expression="mForwardJetsLeadinBJetW" Label="mForwardJetsLeadinBJetW" Title="mForwardJetsLeadinBJetW" Unit="" Internal="mForwardJetsLeadinBJetW" Type="F" Min="0.00000000e+00" Max="3.07863013e+03"/>
    <Variable VarIndex="14" Expression="ht" Label="ht" Title="ht" Unit="" Internal="ht" Type="F" Min="0.00000000e+00" Max="1.27810754e+03"/>
  </Variables>
  <Spectators NSpec="0"/>
  <Classes NClass="2">
    <Class Name="Signal" Index="0"/>
    <Class Name="Background" Index="1"/>
  </Classes>
  <Transformations NTransformations="1">
    <Transform Name="Normalize">
      <Selection>
        <Input NInputs="15">
          <Input Type="Variable" Label="topMass" Expression="topMass"/>
          <Input Type="Variable" Label="pTForwardJets" Expression="pTForwardJets"/>
          <Input Type="Variable" Label="etaMostForward" Expression="etaMostForward"/>
          <Input Type="Variable" Label="pTLeadingJet" Expression="pTLeadingJet"/>
          <Input Type="Variable" Label="pTLeadingLepton" Expression="pTLeadingLepton"/>
          <Input Type="Variable" Label="mNotSoForwardJets" Expression="mNotSoForwardJets"/>
          <Input Type="Variable" Label="missingET" Expression="missingET"/>
          <Input Type="Variable" Label="highestDeepCSV" Expression="highestDeepCSV"/>
          <Input Type="Variable" Label="asymmetryWlep" Expression="asymmetryWlep"/>
          <Input Type="Variable" Label="etaZ" Expression="etaZ"/>
          <Input Type="Variable" Label="m3l" Expression="m3l"/>
          <Input Type="Variable" Label="maxDeltaPhill" Expression="maxDeltaPhill"/>
          <Input Type="Variable" Label="pT3l" Expression="pT3l"/>
          <Input Type="Variable" Label="mForwardJetsLeadinBJetW" Expression="mForwardJetsLeadinBJetW"/>
          <Input Type="Variable" Label="ht" Expression="ht"/>
        </Input>
        <Output NOutputs="15">
          <Output Type="Variable" Label="topMass" Expression="topMass"/>
          <Output Type="Variable" Label="pTForwardJets" Expression="pTForwardJets"/>
          <Output Type="Variable" Label="etaMostForward" Expression="etaMostForward"/>
          <Output Type="Variable" Label="pTLeadingJet" Expression="pTLeadingJet"/>
          <Output Type="Variable" Label="pTLeadingLepton" Expression="pTLeadingLepton"/>
          <Output Type="Variable" Label="mNotSoForwardJets" Expression="mNotSoForwardJets"/>
          <Output Type="Variable" Label="missingET" Expression="missingET"/>
          <Output Type="Variable" Label="highestDeepCSV" Expression="highestDeepCSV"/>
          <Output Type="Variable" Label="asymmetryWlep" Expression="asymmetryWlep"/>
          <Output Type="Variable" Label="etaZ" Expression="etaZ"/>
          <Output Type="Variable" Label="m3l" Expression="m3l"/>
          <Output Type="Variable" Label="maxDeltaPhill" Expression="maxDeltaPhill"/>
          <Output Type="Variable" Label="pT3l" Expression="pT3l"/>
          <Output Type="Variable" Label="mForwardJetsLeadinBJetW" Expression="mForwardJetsLeadinBJetW"/>
          <Output Type="Variable" Label="ht" Expression="ht"/>
        </Output>
      </Selection>
      <Class ClassIndex="0">
        <Ranges>
          <Range Index="0" Min="0.0000000000000000e+00" Max="2.3030700683593750e+03"/>
          <Range Index="1" Min="0.0000000000000000e+00" Max="4.0161059570312500e+02"/>
          <Range Index="2" Min="0.0000000000000000e+00" Max="5.0819215774536133e+00"/>
          <Range Index="3" Min="0.0000000000000000e+00" Max="1.1326680908203125e+03"/>
          <Range Index="4" Min="2.5103775024414062e+01" Max="6.3412548828125000e+02"/>
          <Range Index="5" Min="0.0000000000000000e+00" Max="9.7729101562500000e+02"/>
          <Range Index="6" Min="2.7018973231315613e-01" Max="6.7196386718750000e+02"/>
          <Range Index="7" Min="-2.0000000000000000e+00" Max="6.3234257698059082e-01"/>
          <Range Index="8" Min="-2.4806344509124756e+00" Max="2.4933781623840332e+00"/>
          <Range Index="9" Min="8.0615092883817852e-05" Max="6.8213939666748047e+00"/>
          <Range Index="10" Min="8.7501655578613281e+01" Max="1.4440379638671875e+03"/>
          <Range Index="11" Min="1.1104452610015869e-01" Max="3.1415140628814697e+00"/>
          <Range Index="12" Min="2.9297173023223877e-01" Max="8.2973687744140625e+02"/>
          <Range Index="13" Min="0.0000000000000000e+00" Max="2.2872390136718750e+03"/>
          <Range Index="14" Min="0.0000000000000000e+00" Max="1.1326680908203125e+03"/>
        </Ranges>
      </Class>
      <Class ClassIndex="1">
        <Ranges>
          <Range Index="0" Min="0.0000000000000000e+00" Max="3.5350686035156250e+03"/>
          <Range Index="1" Min="0.0000000000000000e+00" Max="4.5568084716796875e+02"/>
          <Range Index="2" Min="0.0000000000000000e+00" Max="5.0889911651611328e+00"/>
          <Range Index="3" Min="0.0000000000000000e+00" Max="1.2781075439453125e+03"/>
          <Range Index="4" Min="2.5036754608154297e+01" Max="8.6098974609375000e+02"/>
          <Range Index="5" Min="0.0000000000000000e+00" Max="1.4740452880859375e+03"/>
          <Range Index="6" Min="4.0782880038022995e-02" Max="9.6571936035156250e+02"/>
          <Range Index="7" Min="-2.0000000000000000e+00" Max="6.3237816095352173e-01"/>
          <Range Index="8" Min="-2.4999053478240967e+00" Max="2.4998240470886230e+00"/>
          <Range Index="9" Min="6.5765921135607641e-06" Max="8.5971727371215820e+00"/>
          <Range Index="10" Min="8.3779647827148438e+01" Max="2.6435290527343750e+03"/>
          <Range Index="11" Min="6.9510936737060547e-03" Max="3.1415917873382568e+00"/>
          <Range Index="12" Min="7.5149342417716980e-02" Max="1.0990041503906250e+03"/>
          <Range Index="13" Min="0.0000000000000000e+00" Max="3.0786301269531250e+03"/>
          <Range Index="14" Min="0.0000000000000000e+00" Max="1.2781075439453125e+03"/>
        </Ranges>
      </Class>
      <Class ClassIndex="2">
        <Ranges>
          <Range Index="0" Min="0.0000000000000000e+00" Max="3.5350686035156250e+03"/>
          <Range Index="1" Min="0.0000000000000000e+00" Max="4.5568084716796875e+02"/>
          <Range Index="2" Min="0.0000000000000000e+00" Max="5.0889911651611328e+00"/>
          <Range Index="3" Min="0.0000000000000000e+00" Max="1.2781075439453125e+03"/>
          <Range Index="4" Min="2.5036754608154297e+01" Max="8.6098974609375000e+02"/>
          <Range Index="5" Min="0.0000000000000000e+00" Max="1.4740452880859375e+03"/>
          <Range Index="6" Min="4.0782880038022995e-02" Max="9.6571936035156250e+02"/>
          <Range Index="7" Min="-2.0000000000000000e+00" Max="6.3237816095352173e-01"/>
          <Range Index="8" Min="-2.4999053478240967e+00" Max="2.4998240470886230e+00"/>
          <Range Index="9" Min="6.5765921135607641e-06" Max="8.5971727371215820e+00"/>
          <Range Index="10" Min="8.3779647827148438e+01" Max="2.6435290527343750e+03"/>
          <Range Index="11" Min="6.9510936737060547e-03" Max="3.1415917873382568e+00"/>
          <Range Index="12" Min="7.5149342417716980e-02" Max="1.0990041503906250e+03"/>
          <Range Index="13" Min="0.0000000000000000e+00" Max="3.0786301269531250e+03"/>
          <Range Index="14" Min="0.0000000000000000e+00" Max="1.2781075439453125e+03"/>
        </Ranges>
      </Class>
    </Transform>
  </Transformations>
  <MVAPdfs/>
  <Weights>
    <Layout NLayers="3">
      <Layer Index="0" NNeurons="16">
        <Neuron NSynapses="20">
          -3.7413961365139303e-01 1.9756535680032359e+00 8.7027182217277221e-01 1.4743162961172189e+00 -1.9908782528967393e+00 -1.5025869051348357e+00 -8.0094046269715724e-01 2.0907623286340082e+00 -1.4635670797535405e+00 -1.1642611074394817e+00 -1.6319431817797343e+00 -4.9734433859543015e-01 -1.4467592805977463e+00 -5.5593086311553330e-01 -5.9826955100759449e-01 7.7084432280293402e-01 -4.1164698363227542e-01 1.7630943703282873e+00 1.5121771020279587e-01 1.3657030463095230e+00 
        </Neuron>
        <Neuron NSynapses="20">
          -3.7973732629749957e-01 -7.6439345077934506e-01 7.4434491278795367e-01 -1.5389050264784698e-01 -1.1814047465377695e+00 -2.5674355616245226e-01 1.5119771115650771e+00 -9.5088644430130465e-01 -1.8637993773751700e+00 3.6632373462208703e-03 6.7740392810677397e-01 1.5675037806258634e+00 -3.8300973753722051e-01 -1.7288483696435988e-01 2.5665159461834847e-01 -1.6647409955912235e-01 -1.4385546834050096e+00 1.7495416236109935e+00 -1.2126984704270909e+00 1.1009358064299246e+00 
        </Neuron>
        <Neuron NSynapses="20">
          1.1464055019779134e+00 8.8292307845051399e-01 1.8885681563182215e+00 9.4891352145772434e-01 -7.4527950920346708e-01 -1.6130234199046389e+00 7.8811736923596232e-01 1.1995174506089205e-01 1.0484231188817918e+00 1.7071512856107340e+00 1.5751415134874840e+00 1.5402003448832255e+00 -1.8281841254121758e+00 9.4179895440613137e-01 -1.8542597990198026e+00 -8.2207712117323806e-01 -1.3205745123807291e+00 -1.6726135445834855e+00 1.6721164179975105e+00 6.4426907572765779e-01 
        </Neuron>
        <Neuron NSynapses="20">
          -1.6419452035761593e+00 3.5158708249308057e-01 -3.2965098735975901e-01 4.1712258197007956e-01 1.8371727750722504e+00 -3.6710068454051237e-01 1.0479509525184612e-01 -1.1091670012295165e+00 7.1232377003663316e-01 -9.5978012596002593e-01 -7.4087980314634205e-01 -1.5273272181122042e+00 5.5504191486574650e-01 1.0365697685020534e+00 1.3581293736623297e+00 -2.5161887082442386e-01 -1.9265162373480897e+00 -1.8427358057787673e+00 9.9383725264116551e-01 4.7265335702350092e-01 
        </Neuron>
        <Neuron NSynapses="20">
          1.9224745318812040e+00 6.3483188601728691e-01 9.7334938018183148e-01 -1.0451087276793045e+00 -8.7146177478509834e-01 -2.7490809691962542e-01 1.1292040402736911e+00 -1.0294873895577925e+00 -1.5547545273456826e+00 -1.8892996610602260e+00 -2.0927576050659732e-01 -2.6368395916830711e-01 1.5005169760026156e+00 -1.6539267125013608e+00 -8.0085392239894493e-01 1.6932440146954046e+00 -8.4835692931545104e-01 -1.5315011097517983e+00 -1.5203293751306717e+00 8.4791163716837911e-02 
        </Neuron>
        <Neuron NSynapses="20">
          -1.9681277358096845e+00 -1.6676453390778343e+00 6.9481100189017553e-01 1.3991023532783371e+00 -1.1441375231338400e+00 1.5959480301970026e+00 -9.8053168957121994e-01 -7.4680513703871609e-01 4.7593147750546877e-02 1.0508260125043310e-01 -1.7898171091003219e+00 9.4246908473704524e-02 1.4309964469371242e-01 4.7719983066329030e-01 -1.3826422044243181e+00 1.9372113891913703e+00 3.5880712675355581e-01 -9.6537357167813453e-01 7.4992759308382595e-01 -1.0906907671160491e+00 
        </Neuron>
        <Neuron NSynapses="20">
          -1.6229236715425239e+00 1.1426401008362568e-01 -3.5129026264303803e-01 1.5490315015949825e+00 7.8622592182227902e-01 -4.9783011282308796e-02 -3.6686463881680786e-01 2.6580154445432413e-01 -1.8666364158626103e+00 9.7054833709112798e-01 1.4693306977471349e-01 -1.8964259014157931e+00 4.6450730007863783e-01 -1.5411558343744225e+00 7.6672076992634619e-02 1.2593486197163644e+00 1.7797266194650203e+00 -1.8521434345518970e+00 3.4499730893233516e-01 1.5128528963849621e+00 
        </Neuron>
        <Neuron NSynapses="20">
          1.6091483793835810e+00 1.0924388411628934e-01 -1.4945951347416404e+00 -8.6626963092074238e-02 -1.4507282700588362e+00 1.6954340980535036e+00 1.1714898929190680e+00 -4.7614401101904275e-01 -2.9569565608035547e-01 1.6408425345481673e-01 -1.3363543181188822e+00 4.9135993897162283e-01 1.6210975086609347e+00 -6.7081827342666478e-01 -6.1935755850366925e-01 2.3502394448213951e-01 1.0010578278907425e+00 5.9157475159077177e-01 8.4792231073388491e-01 -1.5009777316002004e+00 
        </Neuron>
        <Neuron NSynapses="20">
          1.4777234754699533e+00 7.8187804075666423e-01 5.1759280003767660e-01 4.8512877283113875e-01 1.0073153450558698e+00 -4.4148247780965638e-01 -6.0952112649917767e-01 9.5181032402990762e-01 -8.2706716411063408e-01 -4.1890578387604588e-01 1.5803423074370646e+00 1.0364619448364152e+00 -5.0300537765518705e-01 1.4445240017598229e+00 1.8452670565455720e+00 -1.8748695444301118e+00 6.5601800390705878e-01 9.1040380171498958e-02 5.1360633271632972e-01 -1.6944563704305342e+00 
        </Neuron>
        <Neuron NSynapses="20">
          -1.5476538198208547e+00 1.1651817927913104e+00 1.7690013132896003e+00 -1.8895090239956811e+00 -1.9203534429096583e-01 -6.2157452993642071e-01 2.6229406186967041e-01 1.7047704357456286e+00 -2.0144154770157296e-01 -7.0432146255720807e-01 -1.0550188124739530e+00 8.3928706775404238e-01 1.4544754471903385e+00 1.2122443423248237e+00 3.2584396769285545e-01 -7.0838575639025381e-01 -1.9881254060234030e+00 1.0800912709262187e+00 3.7912525834755156e-01 -1.3932895529042146e+00 
        </Neuron>
        <Neuron NSynapses="20">
          -7.1718216253265732e-01 3.1938198277736374e-01 7.9774677869651145e-02 -2.1940592237307985e+00 1.5530001505645381e+00 7.4642312425157387e-01 -6.0809877941101498e-01 -5.5458265574589764e-02 1.7534123909972195e+00 7.7008817582573252e-01 4.8925687316751498e-01 -3.3593041161427850e-01 -2.0261869875003105e+00 -8.5490965526498486e-01 1.7515556089322730e+00 1.4052624138444507e+00 7.6469472963032914e-01 1.6526353706703903e-01 1.9067098474196500e+00 -1.7292750220850865e+00 
        </Neuron>
        <Neuron NSynapses="20">
          -1.2812595023200353e+00 -1.1272270185695936e-01 -1.4201777320922562e+00 1.1172435049562932e+00 1.7340542992504009e+00 -1.1862883243006113e+00 8.2636334139599521e-01 -1.8859621346226083e-01 -1.7666951505457344e+00 -7.8021673665990088e-01 1.0193371886368312e+00 1.8676915536632960e-01 8.3022207593662556e-01 -1.2944672487195001e+00 1.6668051971432054e+00 -1.8186447274953252e+00 8.4583330925980271e-01 1.6456801420075001e-01 -1.4469325380123959e+00 -1.2954586543973012e+00 
        </Neuron>
        <Neuron NSynapses="20">
          -1.9585505683008835e+00 -4.3697088179641080e-01 -1.9058305549645322e+00 -1.8247558903693104e+00 -1.8815643567741769e+00 2.0118004488743284e-02 -1.0365355370644191e+00 -1.4957883147471422e+00 1.3934182497058600e+00 -9.5881531405140885e-01 1.5483808341330801e-01 -1.1671236402223724e+00 5.2953971641057432e-02 1.7862598577902882e+00 1.3861522237081561e+00 -7.9916427471891227e-01 -1.5028345184506906e+00 -1.0534072279371567e+00 -8.9068012718974532e-01 -1.6540429296144379e+00 
        </Neuron>
        <Neuron NSynapses="20">
          2.9218752076739735e-01 2.7471499333627497e-01 1.8695078602233697e+00 -5.8104428531250718e-01 2.5285703431660861e-01 -5.6496329394023193e-01 -1.9329422902645981e+00 1.3403256659880844e+00 1.2219713102290417e+00 -9.9252945237506918e-01 -1.0722668654941947e+00 7.5200775543924203e-01 1.0948023070688908e+00 4.2359510898512559e-01 -4.2486841300950379e-01 -1.8924973745779147e-01 1.4559828118610960e+00 1.0113473302783564e+00 9.6886918742310557e-01 -3.0216044369299333e-01 
        </Neuron>
        <Neuron NSynapses="20">
          1.8962840009360943e-01 -3.0714534665368609e-01 -1.4682605615436304e+00 -8.2187598664634653e-01 -1.7547145732592606e+00 -1.4008982643573187e+00 -1.5424922576896365e+00 1.8493907283797941e+00 -1.8769771818856542e+00 1.5473407915918858e+00 -1.5729658456451254e+00 1.0320261008845233e+00 -1.2881244290032516e+00 3.6862764966882194e-01 8.7158261696172923e-01 -1.7577765084028905e+00 2.3919855929454020e-01 6.3787404052321917e-01 -1.9565160689783458e+00 -1.5043881249607991e+00 
        </Neuron>
        <Neuron NSynapses="20">
          -1.6802921250411702e+00 -8.1908810476361216e-01 1.8931536169371830e+00 -2.8807884355033797e-01 2.6206996264180837e-01 -8.4145586223194790e-01 -1.1403155836209786e+00 -1.7701294416049731e+00 -1.0929715448568305e+00 -1.1258500413475896e+00 9.7983885450597386e-01 -1.1518739805609417e+00 -1.0721744248841505e+00 1.6902503187836952e+00 2.9294424995876800e-01 -6.2753003615116398e-01 1.8785965353835636e+00 -1.7812956804884659e+00 1.4550203625308928e+00 9.7773576564532161e-01 
        </Neuron>
      </Layer>
      <Layer Index="1" NNeurons="21">
        <Neuron NSynapses="1">
          -1.1411433373363811e+00 
        </Neuron>
        <Neuron NSynapses="1">
          -6.7739684495378283e-01 
        </Neuron>
        <Neuron NSynapses="1">
          4.4330643231714206e-01 
        </Neuron>
        <Neuron NSynapses="1">
          -9.1360070252188408e-01 
        </Neuron>
        <Neuron NSynapses="1">
          3.6882755199700795e-01 
        </Neuron>
        <Neuron NSynapses="1">
          1.2350193698460730e+00 
        </Neuron>
        <Neuron NSynapses="1">
          1.1464120432392977e+00 
        </Neuron>
        <Neuron NSynapses="1">
          1.6107340140194832e+00 
        </Neuron>
        <Neuron NSynapses="1">
          -1.4157136174709528e+00 
        </Neuron>
        <Neuron NSynapses="1">
          1.2233012302519237e+00 
        </Neuron>
        <Neuron NSynapses="1">
          -2.0653355917504315e+00 
        </Neuron>
        <Neuron NSynapses="1">
          7.0571871796786989e-01 
        </Neuron>
        <Neuron NSynapses="1">
          -1.9912432338426305e+00 
        </Neuron>
        <Neuron NSynapses="1">
          -1.2303402920692799e+00 
        </Neuron>
        <Neuron NSynapses="1">
          -1.8862133468505643e-01 
        </Neuron>
        <Neuron NSynapses="1">
          1.3120149764563080e+00 
        </Neuron>
        <Neuron NSynapses="1">
          2.8740872979932369e-01 
        </Neuron>
        <Neuron NSynapses="1">
          1.5804825911140924e-01 
        </Neuron>
        <Neuron NSynapses="1">
          3.9761935251554542e-01 
        </Neuron>
        <Neuron NSynapses="1">
          -1.1382318989949008e-01 
        </Neuron>
        <Neuron NSynapses="1">
          -8.7178411676528811e-01 
        </Neuron>
      </Layer>
      <Layer Index="2" NNeurons="1">
        <Neuron NSynapses="0"/>
      </Layer>
    </Layout>
  </Weights>
</MethodSetup>
