<?xml version="1.0"?>
<MethodSetup Method="MLP::MLP">
  <GeneralInfo>
    <Info name="TMVA Release" value="4.2.1 [262657]"/>
    <Info name="ROOT Release" value="6.08/07 [395271]"/>
    <Info name="Creator" value="wverbeke"/>
    <Info name="Date" value="Wed Nov 22 21:06:19 2017"/>
    <Info name="Host" value="Linux vocms0302.cern.ch 2.6.32-696.1.1.el6.x86_64 #1 SMP Wed Apr 12 08:44:28 CEST 2017 x86_64 x86_64 x86_64 GNU/Linux"/>
    <Info name="Dir" value="/storage_mnt/storage/user/wverbeke/Work/AnalysisCode/ewkino/bdtTraining"/>
    <Info name="Training events" value="195222"/>
    <Info name="TrainingTime" value="2.45398391e+03"/>
    <Info name="AnalysisType" value="Classification"/>
  </GeneralInfo>
  <Options>
    <Option name="NCycles" modified="Yes">600</Option>
    <Option name="HiddenLayers" modified="Yes">N+5</Option>
    <Option name="NeuronType" modified="Yes">tanh</Option>
    <Option name="RandomSeed" modified="No">1</Option>
    <Option name="EstimatorType" modified="No">CE</Option>
    <Option name="NeuronInputType" modified="No">sum</Option>
    <Option name="V" modified="Yes">False</Option>
    <Option name="VerbosityLevel" modified="No">Default</Option>
    <Option name="VarTransform" modified="Yes">N</Option>
    <Option name="H" modified="Yes">True</Option>
    <Option name="CreateMVAPdfs" modified="No">False</Option>
    <Option name="IgnoreNegWeightsInTraining" modified="No">False</Option>
    <Option name="TrainingMethod" modified="No">BP</Option>
    <Option name="LearningRate" modified="No">2.000000e-02</Option>
    <Option name="DecayRate" modified="No">1.000000e-02</Option>
    <Option name="TestRate" modified="Yes">5</Option>
    <Option name="EpochMonitoring" modified="No">False</Option>
    <Option name="Sampling" modified="No">1.000000e+00</Option>
    <Option name="SamplingEpoch" modified="No">1.000000e+00</Option>
    <Option name="SamplingImportance" modified="No">1.000000e+00</Option>
    <Option name="SamplingTraining" modified="No">True</Option>
    <Option name="SamplingTesting" modified="No">False</Option>
    <Option name="ResetStep" modified="No">50</Option>
    <Option name="Tau" modified="No">3.000000e+00</Option>
    <Option name="BPMode" modified="No">sequential</Option>
    <Option name="BatchSize" modified="No">-1</Option>
    <Option name="ConvergenceImprove" modified="No">1.000000e-30</Option>
    <Option name="ConvergenceTests" modified="No">-1</Option>
    <Option name="UseRegulator" modified="Yes">False</Option>
    <Option name="UpdateLimit" modified="No">10000</Option>
    <Option name="CalculateErrors" modified="No">False</Option>
    <Option name="WeightRange" modified="No">1.000000e+00</Option>
  </Options>
  <Variables NVar="19">
    <Variable VarIndex="0" Expression="topMass" Label="topMass" Title="topMass" Unit="" Internal="topMass" Type="F" Min="0.00000000e+00" Max="4.20512451e+03"/>
    <Variable VarIndex="1" Expression="pTForwardJets" Label="pTForwardJets" Title="pTForwardJets" Unit="" Internal="pTForwardJets" Type="F" Min="0.00000000e+00" Max="6.13427856e+02"/>
    <Variable VarIndex="2" Expression="etaMostForward" Label="etaMostForward" Title="etaMostForward" Unit="" Internal="etaMostForward" Type="F" Min="9.43701528e-03" Max="5.09184265e+00"/>
    <Variable VarIndex="3" Expression="pTLeadingJet" Label="pTLeadingJet" Title="pTLeadingJet" Unit="" Internal="pTLeadingJet" Type="F" Min="2.50286484e+01" Max="1.57565747e+03"/>
    <Variable VarIndex="4" Expression="pTLeadingLepton" Label="pTLeadingLepton" Title="pTLeadingLepton" Unit="" Internal="pTLeadingLepton" Type="F" Min="2.50000801e+01" Max="1.40287524e+03"/>
    <Variable VarIndex="5" Expression="mNotSoForwardJets" Label="mNotSoForwardJets" Title="mNotSoForwardJets" Unit="" Internal="mNotSoForwardJets" Type="F" Min="0.00000000e+00" Max="7.97339795e+03"/>
    <Variable VarIndex="6" Expression="pTLeadingBJet" Label="pTLeadingBJet" Title="pTLeadingBJet" Unit="" Internal="pTLeadingBJet" Type="F" Min="2.50001125e+01" Max="9.08084900e+02"/>
    <Variable VarIndex="7" Expression="missingET" Label="missingET" Title="missingET" Unit="" Internal="missingET" Type="F" Min="1.04179710e-01" Max="1.02115973e+03"/>
    <Variable VarIndex="8" Expression="highestDeepCSV" Label="highestDeepCSV" Title="highestDeepCSV" Unit="" Internal="highestDeepCSV" Type="F" Min="-2.00000000e+00" Max="9.99989569e-01"/>
    <Variable VarIndex="9" Expression="maxMjj" Label="maxMjj" Title="maxMjj" Unit="" Internal="maxMjj" Type="F" Min="0.00000000e+00" Max="7.00770557e+03"/>
    <Variable VarIndex="10" Expression="asymmetryWlep" Label="asymmetryWlep" Title="asymmetryWlep" Unit="" Internal="asymmetryWlep" Type="F" Min="-2.49803329e+00" Max="2.49931097e+00"/>
    <Variable VarIndex="11" Expression="etaZ" Label="etaZ" Title="etaZ" Unit="" Internal="etaZ" Type="F" Min="2.32135317e-05" Max="8.88787842e+00"/>
    <Variable VarIndex="12" Expression="m3l" Label="m3l" Title="m3l" Unit="" Internal="m3l" Type="F" Min="1.44754953e+01" Max="2.96052539e+03"/>
    <Variable VarIndex="13" Expression="maxDeltaPhijj" Label="maxDeltaPhijj" Title="maxDeltaPhijj" Unit="" Internal="maxDeltaPhijj" Type="F" Min="5.51939011e-05" Max="3.14159083e+00"/>
    <Variable VarIndex="14" Expression="maxDeltaRjj" Label="maxDeltaRjj" Title="maxDeltaRjj" Unit="" Internal="maxDeltaRjj" Type="F" Min="3.93641144e-01" Max="1.01756182e+01"/>
    <Variable VarIndex="15" Expression="maxDeltaPhill" Label="maxDeltaPhill" Title="maxDeltaPhill" Unit="" Internal="maxDeltaPhill" Type="F" Min="1.60422325e-02" Max="3.14158750e+00"/>
    <Variable VarIndex="16" Expression="pT3l" Label="pT3l" Title="pT3l" Unit="" Internal="pT3l" Type="F" Min="1.48212850e-01" Max="1.66903589e+03"/>
    <Variable VarIndex="17" Expression="mForwardJetsLeadinBJetW" Label="mForwardJetsLeadinBJetW" Title="mForwardJetsLeadinBJetW" Unit="" Internal="mForwardJetsLeadinBJetW" Type="F" Min="0.00000000e+00" Max="1.05669199e+04"/>
    <Variable VarIndex="18" Expression="ht" Label="ht" Title="ht" Unit="" Internal="ht" Type="F" Min="5.00481071e+01" Max="2.72426929e+03"/>
  </Variables>
  <Spectators NSpec="0"/>
  <Classes NClass="2">
    <Class Name="Signal" Index="0"/>
    <Class Name="Background" Index="1"/>
  </Classes>
  <Transformations NTransformations="1">
    <Transform Name="Normalize">
      <Selection>
        <Input NInputs="19">
          <Input Type="Variable" Label="topMass" Expression="topMass"/>
          <Input Type="Variable" Label="pTForwardJets" Expression="pTForwardJets"/>
          <Input Type="Variable" Label="etaMostForward" Expression="etaMostForward"/>
          <Input Type="Variable" Label="pTLeadingJet" Expression="pTLeadingJet"/>
          <Input Type="Variable" Label="pTLeadingLepton" Expression="pTLeadingLepton"/>
          <Input Type="Variable" Label="mNotSoForwardJets" Expression="mNotSoForwardJets"/>
          <Input Type="Variable" Label="pTLeadingBJet" Expression="pTLeadingBJet"/>
          <Input Type="Variable" Label="missingET" Expression="missingET"/>
          <Input Type="Variable" Label="highestDeepCSV" Expression="highestDeepCSV"/>
          <Input Type="Variable" Label="maxMjj" Expression="maxMjj"/>
          <Input Type="Variable" Label="asymmetryWlep" Expression="asymmetryWlep"/>
          <Input Type="Variable" Label="etaZ" Expression="etaZ"/>
          <Input Type="Variable" Label="m3l" Expression="m3l"/>
          <Input Type="Variable" Label="maxDeltaPhijj" Expression="maxDeltaPhijj"/>
          <Input Type="Variable" Label="maxDeltaRjj" Expression="maxDeltaRjj"/>
          <Input Type="Variable" Label="maxDeltaPhill" Expression="maxDeltaPhill"/>
          <Input Type="Variable" Label="pT3l" Expression="pT3l"/>
          <Input Type="Variable" Label="mForwardJetsLeadinBJetW" Expression="mForwardJetsLeadinBJetW"/>
          <Input Type="Variable" Label="ht" Expression="ht"/>
        </Input>
        <Output NOutputs="19">
          <Output Type="Variable" Label="topMass" Expression="topMass"/>
          <Output Type="Variable" Label="pTForwardJets" Expression="pTForwardJets"/>
          <Output Type="Variable" Label="etaMostForward" Expression="etaMostForward"/>
          <Output Type="Variable" Label="pTLeadingJet" Expression="pTLeadingJet"/>
          <Output Type="Variable" Label="pTLeadingLepton" Expression="pTLeadingLepton"/>
          <Output Type="Variable" Label="mNotSoForwardJets" Expression="mNotSoForwardJets"/>
          <Output Type="Variable" Label="pTLeadingBJet" Expression="pTLeadingBJet"/>
          <Output Type="Variable" Label="missingET" Expression="missingET"/>
          <Output Type="Variable" Label="highestDeepCSV" Expression="highestDeepCSV"/>
          <Output Type="Variable" Label="maxMjj" Expression="maxMjj"/>
          <Output Type="Variable" Label="asymmetryWlep" Expression="asymmetryWlep"/>
          <Output Type="Variable" Label="etaZ" Expression="etaZ"/>
          <Output Type="Variable" Label="m3l" Expression="m3l"/>
          <Output Type="Variable" Label="maxDeltaPhijj" Expression="maxDeltaPhijj"/>
          <Output Type="Variable" Label="maxDeltaRjj" Expression="maxDeltaRjj"/>
          <Output Type="Variable" Label="maxDeltaPhill" Expression="maxDeltaPhill"/>
          <Output Type="Variable" Label="pT3l" Expression="pT3l"/>
          <Output Type="Variable" Label="mForwardJetsLeadinBJetW" Expression="mForwardJetsLeadinBJetW"/>
          <Output Type="Variable" Label="ht" Expression="ht"/>
        </Output>
      </Selection>
      <Class ClassIndex="0">
        <Ranges>
          <Range Index="0" Min="0.0000000000000000e+00" Max="4.2051245117187500e+03"/>
          <Range Index="1" Min="0.0000000000000000e+00" Max="6.1342785644531250e+02"/>
          <Range Index="2" Min="5.5749185383319855e-02" Max="5.0855703353881836e+00"/>
          <Range Index="3" Min="2.5312955856323242e+01" Max="1.1174202880859375e+03"/>
          <Range Index="4" Min="2.5226669311523438e+01" Max="9.0392340087890625e+02"/>
          <Range Index="5" Min="0.0000000000000000e+00" Max="7.5273105468750000e+03"/>
          <Range Index="6" Min="2.5000480651855469e+01" Max="8.4637890625000000e+02"/>
          <Range Index="7" Min="3.8190475106239319e-01" Max="6.6588793945312500e+02"/>
          <Range Index="8" Min="-2.0000000000000000e+00" Max="9.9998682737350464e-01"/>
          <Range Index="9" Min="0.0000000000000000e+00" Max="6.6703823242187500e+03"/>
          <Range Index="10" Min="-2.4980332851409912e+00" Max="2.4993109703063965e+00"/>
          <Range Index="11" Min="6.8138127971906215e-05" Max="6.2833352088928223e+00"/>
          <Range Index="12" Min="3.2942466735839844e+01" Max="1.7663319091796875e+03"/>
          <Range Index="13" Min="8.1047415733337402e-04" Max="3.1415777206420898e+00"/>
          <Range Index="14" Min="4.2004907131195068e-01" Max="1.0175618171691895e+01"/>
          <Range Index="15" Min="7.7342987060546875e-02" Max="3.1415348052978516e+00"/>
          <Range Index="16" Min="3.6822217702865601e-01" Max="8.5802795410156250e+02"/>
          <Range Index="17" Min="0.0000000000000000e+00" Max="8.9628242187500000e+03"/>
          <Range Index="18" Min="5.0503223419189453e+01" Max="2.0241300048828125e+03"/>
        </Ranges>
      </Class>
      <Class ClassIndex="1">
        <Ranges>
          <Range Index="0" Min="0.0000000000000000e+00" Max="3.6964511718750000e+03"/>
          <Range Index="1" Min="0.0000000000000000e+00" Max="5.8406292724609375e+02"/>
          <Range Index="2" Min="9.4370152801275253e-03" Max="5.0918426513671875e+00"/>
          <Range Index="3" Min="2.5028648376464844e+01" Max="1.5756574707031250e+03"/>
          <Range Index="4" Min="2.5000080108642578e+01" Max="1.4028752441406250e+03"/>
          <Range Index="5" Min="0.0000000000000000e+00" Max="7.9733979492187500e+03"/>
          <Range Index="6" Min="2.5000112533569336e+01" Max="9.0808489990234375e+02"/>
          <Range Index="7" Min="1.0417971014976501e-01" Max="1.0211597290039062e+03"/>
          <Range Index="8" Min="-2.0000000000000000e+00" Max="9.9998956918716431e-01"/>
          <Range Index="9" Min="0.0000000000000000e+00" Max="7.0077055664062500e+03"/>
          <Range Index="10" Min="-2.4978930950164795e+00" Max="2.4969298839569092e+00"/>
          <Range Index="11" Min="2.3213531676447019e-05" Max="8.8878784179687500e+00"/>
          <Range Index="12" Min="1.4475495338439941e+01" Max="2.9605253906250000e+03"/>
          <Range Index="13" Min="5.5193901062011719e-05" Max="3.1415908336639404e+00"/>
          <Range Index="14" Min="3.9364114403724670e-01" Max="1.0166143417358398e+01"/>
          <Range Index="15" Min="1.6042232513427734e-02" Max="3.1415874958038330e+00"/>
          <Range Index="16" Min="1.4821285009384155e-01" Max="1.6690358886718750e+03"/>
          <Range Index="17" Min="0.0000000000000000e+00" Max="1.0566919921875000e+04"/>
          <Range Index="18" Min="5.0048107147216797e+01" Max="2.7242692871093750e+03"/>
        </Ranges>
      </Class>
      <Class ClassIndex="2">
        <Ranges>
          <Range Index="0" Min="0.0000000000000000e+00" Max="4.2051245117187500e+03"/>
          <Range Index="1" Min="0.0000000000000000e+00" Max="6.1342785644531250e+02"/>
          <Range Index="2" Min="9.4370152801275253e-03" Max="5.0918426513671875e+00"/>
          <Range Index="3" Min="2.5028648376464844e+01" Max="1.5756574707031250e+03"/>
          <Range Index="4" Min="2.5000080108642578e+01" Max="1.4028752441406250e+03"/>
          <Range Index="5" Min="0.0000000000000000e+00" Max="7.9733979492187500e+03"/>
          <Range Index="6" Min="2.5000112533569336e+01" Max="9.0808489990234375e+02"/>
          <Range Index="7" Min="1.0417971014976501e-01" Max="1.0211597290039062e+03"/>
          <Range Index="8" Min="-2.0000000000000000e+00" Max="9.9998956918716431e-01"/>
          <Range Index="9" Min="0.0000000000000000e+00" Max="7.0077055664062500e+03"/>
          <Range Index="10" Min="-2.4980332851409912e+00" Max="2.4993109703063965e+00"/>
          <Range Index="11" Min="2.3213531676447019e-05" Max="8.8878784179687500e+00"/>
          <Range Index="12" Min="1.4475495338439941e+01" Max="2.9605253906250000e+03"/>
          <Range Index="13" Min="5.5193901062011719e-05" Max="3.1415908336639404e+00"/>
          <Range Index="14" Min="3.9364114403724670e-01" Max="1.0175618171691895e+01"/>
          <Range Index="15" Min="1.6042232513427734e-02" Max="3.1415874958038330e+00"/>
          <Range Index="16" Min="1.4821285009384155e-01" Max="1.6690358886718750e+03"/>
          <Range Index="17" Min="0.0000000000000000e+00" Max="1.0566919921875000e+04"/>
          <Range Index="18" Min="5.0048107147216797e+01" Max="2.7242692871093750e+03"/>
        </Ranges>
      </Class>
    </Transform>
  </Transformations>
  <MVAPdfs/>
  <Weights>
    <Layout NLayers="3">
      <Layer Index="0" NNeurons="20">
        <Neuron NSynapses="24">
          -3.3188823883509488e-01 1.9650033559190556e+00 1.0524049912682851e+00 1.8590154774202292e+00 -1.9977957758618738e+00 -1.4871905040463012e+00 -5.4037080804931248e-01 1.9937482850547408e+00 -1.2242559056928366e+00 -1.0454746159926667e+00 -1.6033696341959311e+00 -3.2522799447506279e-01 -1.1832744141903755e+00 -6.8704458571513971e-01 -6.1972996930863677e-01 4.9645276057945797e-01 -3.6992544932322841e-01 1.7090479829831076e+00 1.3710848748455107e-01 1.3719487096406167e+00 -4.9138109686030579e-01 -7.0690406926394056e-01 5.1663828218246488e-01 -3.7976499546117252e-02 
        </Neuron>
        <Neuron NSynapses="24">
          -1.1819377113453957e+00 -2.7421242157164005e-01 1.7162110374373880e+00 -8.4054152203268184e-01 -1.8866414115437111e+00 1.3825740636078285e-01 8.3960762084115037e-01 1.6675623182033419e+00 -5.6693903788899942e-02 -1.6742338847567584e-01 2.9542303586548507e-01 -6.3192880844664634e-01 -1.3748693819685878e+00 1.4003664375781419e+00 -1.2120277663477601e+00 7.9175177201788616e-01 1.2287698722690341e+00 8.2409562626542221e-01 2.2690788136881661e+00 1.1617118311276979e+00 -1.0600435924698510e+00 -1.6127513283024220e+00 5.9525717890526142e-01 -3.5051683183507425e-02 
        </Neuron>
        <Neuron NSynapses="24">
          1.5056235424769915e+00 1.5812602124441986e+00 1.4481323086678624e+00 1.2649853469332966e+00 -1.6706485688086374e+00 1.3185904918986708e+00 -1.8949234556348185e+00 -9.1241612657786431e-01 -1.1792941054684689e+00 -1.7661348220424851e+00 1.5719752173142127e+00 5.3844085248802698e-01 -1.6380387701789942e+00 3.5590285099259328e-01 -3.1453986966160818e-01 5.8772957976578899e-01 1.7824198703176140e+00 -3.1510531975386269e-01 2.6055382205126015e-01 -1.2192970829859449e+00 6.4487545670609792e-01 -8.3352365345501700e-01 -5.9510956530242565e-01 -1.3978932711474426e+00 
        </Neuron>
        <Neuron NSynapses="24">
          7.4587381885696979e-01 1.1769226408288749e+00 1.4839019283311019e+00 -2.8011530646073102e-01 -1.9335627083269682e+00 -1.8631455746322698e+00 1.3227728235704894e+00 5.0471392259167469e-01 2.0793256103565803e+00 6.5561465638250582e-01 1.0239978612455403e+00 -4.1954130090927050e-01 -7.5284017620840626e-01 -3.6158881657679010e-01 1.1576061183608268e+00 -1.2450364759593489e+00 -1.5424279401981296e+00 -1.7199539387729337e+00 -4.4366747740862100e-01 -1.1492279412566961e-01 1.5345309098607482e+00 -1.6217356443812705e+00 -1.1129508000294217e+00 1.4291830126570637e+00 
        </Neuron>
        <Neuron NSynapses="24">
          -8.4893419234763046e-01 -1.5587506028572804e+00 -1.2258513178970514e+00 3.0342677382974220e-01 -1.9151742878615647e+00 -1.6648374792153353e+00 9.4849779424602043e-01 1.6664073223288898e+00 -9.2322333135399026e-01 1.6553972389554370e+00 -9.0814308736228333e-01 -4.3474084585291245e-01 3.3991621971246493e-02 1.4991693763778163e-01 -1.7907894017470147e+00 -9.6536397685434584e-03 3.4734140290328169e-01 4.1001803932249309e-01 -1.6564796900421386e+00 1.8423587915790616e+00 2.2963930669068136e-01 -9.3005819126768075e-01 5.9022990162555622e-01 -1.2405128943735695e+00 
        </Neuron>
        <Neuron NSynapses="24">
          -1.5906214354249057e+00 2.1361287307179572e-01 -2.1234751371702529e-01 1.9739598000747529e+00 7.6795761142622976e-01 -2.7218843938946264e-02 -1.4926924624364152e-01 1.7161017877339993e-01 -1.5593703850396330e+00 1.0744698545986522e+00 2.0536621447653719e-01 -1.9030006210445145e+00 7.1294165694298783e-01 -1.7185434807602444e+00 5.6909642023008675e-02 8.7790114727484514e-01 1.7807427727522449e+00 -1.8801313825892736e+00 6.2275043534231700e-01 1.5120885534720268e+00 1.4091636016390603e+00 1.5912282332394545e-01 -1.6221400308840312e+00 -3.0928238678487679e-01 
        </Neuron>
        <Neuron NSynapses="24">
          -1.4430645468978531e+00 1.5566096227343214e+00 1.4693213267905940e+00 -3.0374663581634254e-01 -4.0209928602380696e-01 1.5391225457828736e-01 -1.0939432741363584e+00 6.2154930534320985e-01 1.9062280037386279e+00 -5.4412264979965508e-01 -5.6231538086031518e-01 3.3981236092276901e-01 1.0763720967792445e+00 3.1769732398338557e-01 9.0150021141618852e-01 -1.7403715993938924e+00 1.5892794608264045e+00 7.1785246438825057e-01 4.7687120798997690e-01 5.8045436345094370e-01 8.5469645110575820e-01 -5.5258282133909908e-01 -8.5810381135628189e-01 8.9680029173588260e-01 
        </Neuron>
        <Neuron NSynapses="24">
          -9.2013120295487649e-01 -5.5341370828943215e-01 1.6945481032683896e+00 1.0597550103541018e+00 -2.9208862593209051e-01 1.5259172205099261e+00 2.2240283479114100e+00 -1.9584446676956142e+00 7.3123275047604686e-01 5.0876120050819418e-03 5.0308100184992033e-01 -1.2029935622494010e+00 -1.4235316929778445e+00 9.6578698569891197e-01 1.8014963701780042e+00 -1.7907503249499326e+00 -1.4304241934754747e-01 -5.9900339946858849e-01 -3.1723146958665252e-02 1.7834713181079134e+00 -4.1729160085746742e-01 -4.5120035659851376e-01 -1.3278659653767775e+00 9.0126240692816018e-01 
        </Neuron>
        <Neuron NSynapses="24">
          1.6135841242650868e+00 1.0841926317853945e+00 1.3934194151540552e-01 -9.6221545557036836e-01 -1.9937872975094675e+00 1.0901757807163068e+00 3.3476478157684858e-01 -1.3342234670443538e+00 -9.7521339347559632e-01 3.0010008622490247e-01 1.1256582377682200e-01 -2.4643828812730173e+00 1.7914230242242921e+00 1.5427609704387988e+00 -5.6694482306638450e-01 4.2292077641922499e-02 1.6014881801121112e+00 1.0852038874732663e+00 5.3023989033098851e-01 -1.4921978900435448e-01 -1.5380761572834871e+00 -9.6119317632992940e-01 1.2647622015907996e+00 1.0332204593668168e+00 
        </Neuron>
        <Neuron NSynapses="24">
          7.6361558679342600e-01 2.9244019807590294e-01 2.1171339708549421e+00 -1.5563052721238568e+00 -1.3194617862945390e+00 -1.0958113940214993e-01 -1.2452365404672951e+00 9.8111018458716548e-01 1.9441861835589052e+00 -1.2203462203826070e+00 8.4727769503242811e-01 -2.5264502320359106e-01 -1.6747366301618800e+00 -1.3310216618348261e+00 1.0192401757830265e+00 -2.3871272728706547e-01 1.0202653189815081e+00 -1.1618496749400185e+00 1.9791143569620944e+00 -1.8374260304412817e+00 6.3526442440835118e-01 8.4527467475797619e-02 -1.6731520262685389e+00 -1.4237057126508625e+00 
        </Neuron>
        <Neuron NSynapses="24">
          -1.9205281745944447e+00 -4.4845076485662766e-01 -1.8320531219037879e+00 -1.4645901095542593e+00 -1.8828466743869274e+00 3.9446843844599871e-02 -9.9843071022893304e-01 -1.5951093219980310e+00 1.3890954915936626e+00 -8.5318577255823391e-01 1.5514218064977942e-01 -4.0800692674983458e-01 2.1424077865144972e-01 1.4572896166118927e+00 1.3699592251651451e+00 -8.2863559750485449e-01 -1.4668932517065452e+00 -1.0598339113352728e+00 -7.3730641550403642e-01 -1.5373912616363057e+00 -2.4349134542534681e-01 2.6872277562919888e-01 1.9361576790505088e+00 -1.9136156151747541e-01 
        </Neuron>
        <Neuron NSynapses="24">
          2.4410700283352813e-01 -5.9340503661249266e-01 -1.6644924949056121e+00 1.4603514328512106e+00 1.2157993321939078e+00 -8.4035171202559400e-01 -8.6546414824154339e-01 8.6557445307752801e-01 1.3997866041124130e+00 4.7525766335155917e-01 -4.5298776800415586e-01 -1.8822946175559815e-01 1.4842343377244502e+00 8.5302903283681419e-01 9.8349664614318222e-01 -5.4069442294320635e-01 2.7791127996180953e-01 -3.3601064725099239e-01 -1.5639968948024410e+00 -5.4057072436616438e-01 -1.5968835064458722e+00 -1.3160567647203651e+00 -1.6141283679761935e+00 1.6257021067951620e+00 
        </Neuron>
        <Neuron NSynapses="24">
          -1.8218319839003572e+00 1.5806191659400386e+00 -1.2760871227995072e+00 1.3609614394926841e+00 -1.0849486697192019e+00 4.6611012399860241e-01 1.0532870842903785e+00 -1.8666784712088704e+00 4.8599276138635866e-01 6.3238331813487414e-01 -1.9298865878882958e+00 -1.2273064261025002e+00 -1.6583853119107757e+00 -1.0575107074703509e+00 1.8646110427734746e+00 -8.4472132526234134e-01 3.3495583414360125e-01 -9.5534568278837462e-01 -1.3639020110343334e+00 -1.6850118895388049e+00 -1.0484441810350591e+00 -1.3468000966414186e+00 8.0309908979082156e-01 -1.4853698719060062e+00 
        </Neuron>
        <Neuron NSynapses="24">
          -1.2182838519874186e+00 1.7511711544033088e+00 2.2610193857869440e-01 -4.7280265418031142e-01 1.8685940253906455e+00 -1.8008342377387845e+00 9.9887712435623732e-01 9.7750815205214703e-01 -9.1157907942159566e-01 -7.8281726571265131e-01 3.1621395573012488e-02 -1.4644847317084895e+00 4.4501692655863051e-01 1.3064968164905693e+00 1.3187466104513825e+00 1.4473458538646236e+00 -1.3808428009379048e+00 1.0462211319270978e+00 -1.1675516166317512e+00 6.7517582551700561e-01 -1.9181914873682464e+00 -1.9061884984740003e+00 2.4836697473753419e-01 1.4388967682679306e+00 
        </Neuron>
        <Neuron NSynapses="24">
          4.2532794607062718e-01 1.1430026598793142e+00 2.2154553446691419e-01 -1.1534938421416287e-01 -7.3893804260378859e-01 1.2756355034940087e-01 1.8967078051581783e+00 -1.5577874909496281e+00 5.2536950932386772e-01 -1.4080146271966079e+00 -4.0065398792808393e-01 -2.6654056376276886e-01 2.0999890691717985e-01 -1.3346166706774272e+00 9.8086684671580893e-01 1.4612553009899114e+00 6.5001110886849778e-01 -1.2974837686238735e-01 -4.6265273878290020e-01 -1.4956441788530712e+00 -1.9476219326798383e+00 1.0269587468847448e+00 -4.5079877502277410e-01 -1.1125843168426670e+00 
        </Neuron>
        <Neuron NSynapses="24">
          5.1878867137351115e-01 -1.7320624793068533e+00 -1.2034126858117553e+00 -1.5395185950268861e+00 1.0104123385346087e+00 -1.3519149680544067e+00 -1.8117242927198847e+00 -5.7382362680358323e-01 -1.0182696414264205e+00 -1.6076425170403774e+00 1.1347328236160257e+00 -7.0468867894974008e-01 -1.2903772511631653e+00 1.5482815167478998e+00 5.5703499095941411e-01 3.2775047425831605e-01 9.8664517361932422e-02 1.3431475595321707e+00 1.0111660863794099e+00 6.3875029019031349e-01 -5.1745831331628056e-01 -7.7697644711994251e-01 -1.5293829360925046e+00 1.0650422188253688e+00 
        </Neuron>
        <Neuron NSynapses="24">
          9.4023655766121583e-01 6.6937710290425792e-02 1.3248855573607290e+00 1.1208940728877372e+00 1.6372109041138732e+00 -1.3376970130684425e+00 1.9457474355139455e+00 7.4876851930634514e-01 -1.7298390785719937e+00 -2.8264852450684774e-01 -1.0158173881629748e+00 1.1696645268075005e+00 5.3345691463160905e-01 8.5581994694050134e-01 1.7926159866913010e+00 -6.5528243989754342e-01 1.8442286681869720e+00 1.6643366532566359e+00 6.3370829742883453e-02 -1.1852439815422193e+00 1.4851021849429595e+00 -1.9265012036444691e+00 3.4553716927513850e-01 1.5406427260836610e+00 
        </Neuron>
        <Neuron NSynapses="24">
          -4.3985369751287900e-01 -7.4251574212535398e-01 7.0912346725356235e-02 -1.1421401604449080e+00 4.1305434928243528e-01 -1.9029844088567733e+00 4.3311824776154439e-01 -1.8620653288494604e-01 1.9275493583314369e+00 1.2477279833727795e+00 1.7204565723519516e+00 -4.4947697666652281e-01 -3.7377081164476444e-01 1.8883656646411173e-01 1.8500348158605797e+00 -2.1380650091180473e+00 -1.2867197952995217e+00 -5.8787973141325756e-01 -1.3866584993351212e+00 -1.6879899816686952e+00 -1.6312599050458698e+00 7.9658025034152391e-01 -1.1542821887622016e-01 -2.0312923912784679e+00 
        </Neuron>
        <Neuron NSynapses="24">
          -1.9141206701002533e+00 -1.3920769703825761e-01 1.9590294570230391e+00 1.9552960070018879e+00 1.3062997502850933e+00 -6.6317285413733928e-01 -1.6488844605570721e+00 -9.7852643644746162e-02 -1.1444163362258337e+00 -1.5657604787027812e+00 -6.3569520012824576e-01 3.1788993897284162e-01 -1.3686042469800954e+00 1.3670426303901242e+00 1.2375721990177353e+00 -3.9760914779730344e-02 -5.7558930403694430e-01 -8.9839169829877319e-01 1.5850254400272721e+00 -5.6733118152574213e-01 2.1016936312241949e-01 1.5696806998648289e+00 1.2295259108848777e+00 -1.2062594125399058e+00 
        </Neuron>
        <Neuron NSynapses="24">
          1.3789624423414821e+00 -1.8230703581741319e+00 1.2763343162363827e+00 1.5855226678149343e+00 -1.7816081237401538e-01 -2.8116357215554838e-01 -2.7501973338716738e-02 -6.0207646635329570e-01 9.1045610605174454e-01 2.9439087197120389e-01 -9.0737780636567900e-01 -1.5999422575027540e+00 -8.6753423053914189e-02 2.0558830043833032e+00 4.0251803947273146e-01 -3.9990144721050375e-01 -2.0108701822162294e+00 1.8709701132353000e+00 5.0864104874589877e-01 -1.1261889569098911e+00 -1.1398792276966623e-01 -1.0919267669043811e+00 1.4394523262447469e+00 1.6132717267289045e+00 
        </Neuron>
      </Layer>
      <Layer Index="1" NNeurons="25">
        <Neuron NSynapses="1">
          -9.7105556456561681e-01 
        </Neuron>
        <Neuron NSynapses="1">
          -9.6760431829042892e-01 
        </Neuron>
        <Neuron NSynapses="1">
          1.0712341401846448e+00 
        </Neuron>
        <Neuron NSynapses="1">
          1.2107686821662116e+00 
        </Neuron>
        <Neuron NSynapses="1">
          2.4757913275222473e-01 
        </Neuron>
        <Neuron NSynapses="1">
          -2.9419661207066995e-02 
        </Neuron>
        <Neuron NSynapses="1">
          -9.7111827706267695e-01 
        </Neuron>
        <Neuron NSynapses="1">
          -1.0111640598491975e+00 
        </Neuron>
        <Neuron NSynapses="1">
          9.3807110901339008e-01 
        </Neuron>
        <Neuron NSynapses="1">
          -1.5094636647395906e-02 
        </Neuron>
        <Neuron NSynapses="1">
          3.3230048866088063e-01 
        </Neuron>
        <Neuron NSynapses="1">
          -1.2559946157464414e+00 
        </Neuron>
        <Neuron NSynapses="1">
          -2.0040589703617919e+00 
        </Neuron>
        <Neuron NSynapses="1">
          -1.3653999648727488e+00 
        </Neuron>
        <Neuron NSynapses="1">
          -1.1561014952193469e-01 
        </Neuron>
        <Neuron NSynapses="1">
          -1.7370148304712152e+00 
        </Neuron>
        <Neuron NSynapses="1">
          8.9018069227755259e-01 
        </Neuron>
        <Neuron NSynapses="1">
          -5.1620905500185288e-01 
        </Neuron>
        <Neuron NSynapses="1">
          1.0529281113465887e+00 
        </Neuron>
        <Neuron NSynapses="1">
          -3.7308509220398334e-01 
        </Neuron>
        <Neuron NSynapses="1">
          -1.0746600213287587e+00 
        </Neuron>
        <Neuron NSynapses="1">
          1.3055885102980269e+00 
        </Neuron>
        <Neuron NSynapses="1">
          1.2178707076994779e+00 
        </Neuron>
        <Neuron NSynapses="1">
          8.1669088782184640e-01 
        </Neuron>
        <Neuron NSynapses="1">
          -7.2572370317765000e-01 
        </Neuron>
      </Layer>
      <Layer Index="2" NNeurons="1">
        <Neuron NSynapses="0"/>
      </Layer>
    </Layout>
  </Weights>
</MethodSetup>
