<?xml version="1.0"?>
<MethodSetup Method="MLP::MLP">
  <GeneralInfo>
    <Info name="TMVA Release" value="4.2.1 [262657]"/>
    <Info name="ROOT Release" value="6.08/07 [395271]"/>
    <Info name="Creator" value="wverbeke"/>
    <Info name="Date" value="Sat Nov 18 10:33:15 2017"/>
    <Info name="Host" value="Linux vocms0302.cern.ch 2.6.32-696.1.1.el6.x86_64 #1 SMP Wed Apr 12 08:44:28 CEST 2017 x86_64 x86_64 x86_64 GNU/Linux"/>
    <Info name="Dir" value="/storage_mnt/storage/user/wverbeke/Work/AnalysisCode/ewkino/bdtTraining"/>
    <Info name="Training events" value="332874"/>
    <Info name="TrainingTime" value="1.25042414e+03"/>
    <Info name="AnalysisType" value="Classification"/>
  </GeneralInfo>
  <Options>
    <Option name="NCycles" modified="Yes">600</Option>
    <Option name="HiddenLayers" modified="Yes">N+5</Option>
    <Option name="NeuronType" modified="Yes">tanh</Option>
    <Option name="RandomSeed" modified="No">1</Option>
    <Option name="EstimatorType" modified="No">CE</Option>
    <Option name="NeuronInputType" modified="No">sum</Option>
    <Option name="V" modified="Yes">False</Option>
    <Option name="VerbosityLevel" modified="No">Default</Option>
    <Option name="VarTransform" modified="Yes">N</Option>
    <Option name="H" modified="Yes">True</Option>
    <Option name="CreateMVAPdfs" modified="No">False</Option>
    <Option name="IgnoreNegWeightsInTraining" modified="No">False</Option>
    <Option name="TrainingMethod" modified="No">BP</Option>
    <Option name="LearningRate" modified="No">2.000000e-02</Option>
    <Option name="DecayRate" modified="No">1.000000e-02</Option>
    <Option name="TestRate" modified="Yes">5</Option>
    <Option name="EpochMonitoring" modified="No">False</Option>
    <Option name="Sampling" modified="No">1.000000e+00</Option>
    <Option name="SamplingEpoch" modified="No">1.000000e+00</Option>
    <Option name="SamplingImportance" modified="No">1.000000e+00</Option>
    <Option name="SamplingTraining" modified="No">True</Option>
    <Option name="SamplingTesting" modified="No">False</Option>
    <Option name="ResetStep" modified="No">50</Option>
    <Option name="Tau" modified="No">3.000000e+00</Option>
    <Option name="BPMode" modified="No">sequential</Option>
    <Option name="BatchSize" modified="No">-1</Option>
    <Option name="ConvergenceImprove" modified="No">1.000000e-30</Option>
    <Option name="ConvergenceTests" modified="No">-1</Option>
    <Option name="UseRegulator" modified="Yes">False</Option>
    <Option name="UpdateLimit" modified="No">10000</Option>
    <Option name="CalculateErrors" modified="No">False</Option>
    <Option name="WeightRange" modified="No">1.000000e+00</Option>
  </Options>
  <Variables NVar="6">
    <Variable VarIndex="0" Expression="topMass" Label="topMass" Title="topMass" Unit="" Internal="topMass" Type="F" Min="-1.95212061e+03" Max="3.44901489e+03"/>
    <Variable VarIndex="1" Expression="pTForwardJets" Label="pTForwardJets" Title="pTForwardJets" Unit="" Internal="pTForwardJets" Type="F" Min="0.00000000e+00" Max="4.57443665e+02"/>
    <Variable VarIndex="2" Expression="etaMostForward" Label="etaMostForward" Title="etaMostForward" Unit="" Internal="etaMostForward" Type="F" Min="0.00000000e+00" Max="5.08972073e+00"/>
    <Variable VarIndex="3" Expression="pTLeadingLepton" Label="pTLeadingLepton" Title="pTLeadingLepton" Unit="" Internal="pTLeadingLepton" Type="F" Min="2.50012856e+01" Max="9.94023865e+02"/>
    <Variable VarIndex="4" Expression="highestDeepCSV" Label="highestDeepCSV" Title="highestDeepCSV" Unit="" Internal="highestDeepCSV" Type="F" Min="-2.00000000e+00" Max="9.99940038e-01"/>
    <Variable VarIndex="5" Expression="mNotSoForwardJets" Label="mNotSoForwardJets" Title="mNotSoForwardJets" Unit="" Internal="mNotSoForwardJets" Type="F" Min="-1.95047498e+03" Max="1.19438000e+03"/>
  </Variables>
  <Spectators NSpec="0"/>
  <Classes NClass="2">
    <Class Name="Signal" Index="0"/>
    <Class Name="Background" Index="1"/>
  </Classes>
  <Transformations NTransformations="1">
    <Transform Name="Normalize">
      <Selection>
        <Input NInputs="6">
          <Input Type="Variable" Label="topMass" Expression="topMass"/>
          <Input Type="Variable" Label="pTForwardJets" Expression="pTForwardJets"/>
          <Input Type="Variable" Label="etaMostForward" Expression="etaMostForward"/>
          <Input Type="Variable" Label="pTLeadingLepton" Expression="pTLeadingLepton"/>
          <Input Type="Variable" Label="highestDeepCSV" Expression="highestDeepCSV"/>
          <Input Type="Variable" Label="mNotSoForwardJets" Expression="mNotSoForwardJets"/>
        </Input>
        <Output NOutputs="6">
          <Output Type="Variable" Label="topMass" Expression="topMass"/>
          <Output Type="Variable" Label="pTForwardJets" Expression="pTForwardJets"/>
          <Output Type="Variable" Label="etaMostForward" Expression="etaMostForward"/>
          <Output Type="Variable" Label="pTLeadingLepton" Expression="pTLeadingLepton"/>
          <Output Type="Variable" Label="highestDeepCSV" Expression="highestDeepCSV"/>
          <Output Type="Variable" Label="mNotSoForwardJets" Expression="mNotSoForwardJets"/>
        </Output>
      </Selection>
      <Class ClassIndex="0">
        <Ranges>
          <Range Index="0" Min="-1.1026873779296875e+03" Max="2.3456208496093750e+03"/>
          <Range Index="1" Min="0.0000000000000000e+00" Max="3.7139437866210938e+02"/>
          <Range Index="2" Min="0.0000000000000000e+00" Max="5.0789723396301270e+00"/>
          <Range Index="3" Min="2.5103775024414062e+01" Max="6.5675518798828125e+02"/>
          <Range Index="4" Min="-2.0000000000000000e+00" Max="9.9992054700851440e-01"/>
          <Range Index="5" Min="-1.3093002929687500e+03" Max="1.1055692138671875e+03"/>
        </Ranges>
      </Class>
      <Class ClassIndex="1">
        <Ranges>
          <Range Index="0" Min="-1.9521206054687500e+03" Max="3.4490148925781250e+03"/>
          <Range Index="1" Min="0.0000000000000000e+00" Max="4.5744366455078125e+02"/>
          <Range Index="2" Min="0.0000000000000000e+00" Max="5.0897207260131836e+00"/>
          <Range Index="3" Min="2.5001285552978516e+01" Max="9.9402386474609375e+02"/>
          <Range Index="4" Min="-2.0000000000000000e+00" Max="9.9994003772735596e-01"/>
          <Range Index="5" Min="-1.9504749755859375e+03" Max="1.1943800048828125e+03"/>
        </Ranges>
      </Class>
      <Class ClassIndex="2">
        <Ranges>
          <Range Index="0" Min="-1.9521206054687500e+03" Max="3.4490148925781250e+03"/>
          <Range Index="1" Min="0.0000000000000000e+00" Max="4.5744366455078125e+02"/>
          <Range Index="2" Min="0.0000000000000000e+00" Max="5.0897207260131836e+00"/>
          <Range Index="3" Min="2.5001285552978516e+01" Max="9.9402386474609375e+02"/>
          <Range Index="4" Min="-2.0000000000000000e+00" Max="9.9994003772735596e-01"/>
          <Range Index="5" Min="-1.9504749755859375e+03" Max="1.1943800048828125e+03"/>
        </Ranges>
      </Class>
    </Transform>
  </Transformations>
  <MVAPdfs/>
  <Weights>
    <Layout NLayers="3">
      <Layer Index="0" NNeurons="7">
        <Neuron NSynapses="11">
          -4.4222788718443723e-01 1.9993240834445740e+00 8.8128328053812899e-01 1.9526169692838975e+00 -2.0036186398952083e+00 -1.4249408682945968e+00 -8.4884413275586112e-01 1.8889139991851525e+00 -1.4158062177834974e+00 -1.0846091159473721e+00 -1.6472862640246808e+00 
        </Neuron>
        <Neuron NSynapses="11">
          -7.2247803243610520e-01 -9.0592044162233598e-01 -4.1786760661362760e-01 6.0763189877069135e-02 6.8591797329088655e-01 -2.6373503198459985e-01 1.6083723140091934e+00 -3.3515735601299385e-01 1.3755190886941988e+00 -3.1642240867696320e-01 -1.0086015958062513e+00 
        </Neuron>
        <Neuron NSynapses="11">
          3.3798118836533525e-01 3.5195767852052739e-01 -1.1661963784204594e+00 3.5090769323257442e-01 1.5088010606419628e+00 -9.3617809190586354e-01 -2.0349208203561440e+00 -1.8282236728834303e-01 6.7094757453446841e-01 1.4389341043285295e+00 -5.1445606251704246e-01 
        </Neuron>
        <Neuron NSynapses="11">
          -3.6146474446156301e-01 3.2198404623788307e-01 -2.7825655877152483e-01 -1.0502216374557787e+00 1.7407703223239794e+00 -1.0845784045099620e+00 1.0207723599720313e+00 8.0177544975249060e-01 8.5466667575975197e-01 1.8456887545944838e+00 1.1012865930032074e+00 
        </Neuron>
        <Neuron NSynapses="11">
          -8.3937154397058256e-01 -1.6910198312967211e+00 7.4373228662116608e-01 1.9227997905777480e-01 1.5112955415929230e+00 1.6230029245613014e+00 1.4617327800945297e+00 1.4655743243875254e+00 -1.6645588282122812e+00 1.5340237762138098e+00 -1.8094733219412162e+00 
        </Neuron>
        <Neuron NSynapses="11">
          -8.3178265139500696e-01 -1.4310520337285291e+00 -1.7717610557202939e+00 1.3608665146174090e+00 6.7564346568517086e-01 -1.6464172825927219e+00 4.0395503740064148e-01 -1.8925328492507348e-01 6.8877808562961573e-01 1.7947619657490335e+00 -2.6971500125741998e-01 
        </Neuron>
        <Neuron NSynapses="11">
          3.0731756077268596e-01 -1.2188062184518342e+00 7.7968140689636456e-01 -9.9938828838032756e-01 -7.4355527424443557e-01 -1.5404489395855134e+00 8.2552485959212718e-01 1.4948538488166092e+00 1.3481987701905873e+00 -3.3331991052916371e-01 -1.8938489055143113e+00 
        </Neuron>
      </Layer>
      <Layer Index="1" NNeurons="12">
        <Neuron NSynapses="1">
          -2.1260272930090949e+00 
        </Neuron>
        <Neuron NSynapses="1">
          1.1590807189479291e+00 
        </Neuron>
        <Neuron NSynapses="1">
          1.3268026128104737e-01 
        </Neuron>
        <Neuron NSynapses="1">
          1.6613858796084102e+00 
        </Neuron>
        <Neuron NSynapses="1">
          1.0069642248463142e+00 
        </Neuron>
        <Neuron NSynapses="1">
          7.4368931862211118e-01 
        </Neuron>
        <Neuron NSynapses="1">
          -8.7934929649121785e-01 
        </Neuron>
        <Neuron NSynapses="1">
          -7.1680763834111827e-01 
        </Neuron>
        <Neuron NSynapses="1">
          9.2812780739640291e-02 
        </Neuron>
        <Neuron NSynapses="1">
          1.4568873924207555e+00 
        </Neuron>
        <Neuron NSynapses="1">
          -9.8865864992108687e-01 
        </Neuron>
        <Neuron NSynapses="1">
          -1.9597961653445530e+00 
        </Neuron>
      </Layer>
      <Layer Index="2" NNeurons="1">
        <Neuron NSynapses="0"/>
      </Layer>
    </Layout>
  </Weights>
</MethodSetup>
