<?xml version="1.0"?>
<MethodSetup Method="DNN::DNN">
  <GeneralInfo>
    <Info name="TMVA Release" value="4.2.1 [262657]"/>
    <Info name="ROOT Release" value="6.08/07 [395271]"/>
    <Info name="Creator" value="wverbeke"/>
    <Info name="Date" value="Tue Dec  5 05:01:21 2017"/>
    <Info name="Host" value="Linux vocms0302.cern.ch 2.6.32-696.1.1.el6.x86_64 #1 SMP Wed Apr 12 08:44:28 CEST 2017 x86_64 x86_64 x86_64 GNU/Linux"/>
    <Info name="Dir" value="/storage_mnt/storage/user/wverbeke/Work/AnalysisCode/ewkino/bdtTraining/bdtTrainingsubmit"/>
    <Info name="Training events" value="159947"/>
    <Info name="TrainingTime" value="9.22757976e+02"/>
    <Info name="AnalysisType" value="Classification"/>
  </GeneralInfo>
  <Options>
    <Option name="V" modified="Yes">True</Option>
    <Option name="VerbosityLevel" modified="No">Verbose</Option>
    <Option name="VarTransform" modified="Yes">N</Option>
    <Option name="H" modified="Yes">False</Option>
    <Option name="CreateMVAPdfs" modified="No">False</Option>
    <Option name="IgnoreNegWeightsInTraining" modified="No">False</Option>
    <Option name="Layout" modified="Yes">TANH|128,TANH|128,TANH|128,LINEAR</Option>
    <Option name="ErrorStrategy" modified="Yes">CROSSENTROPY</Option>
    <Option name="WeightInitialization" modified="Yes">XAVIERUNIFORM</Option>
    <Option name="Architecture" modified="Yes">STANDARD</Option>
    <Option name="TrainingStrategy" modified="Yes">LearningRate=1e-1,Momentum=0.9,Repetitions=1,ConvergenceSteps=20,BatchSize=256,TestRepetitions=10,WeightDecay=1e-4,Regularization=L2,DropConfig=0.0+0.5+0.5+0.5,</Option>
  </Options>
  <Variables NVar="19">
    <Variable VarIndex="0" Expression="topMass" Label="topMass" Title="topMass" Unit="" Internal="topMass" Type="F" Min="0.00000000e+00" Max="4.62161914e+03"/>
    <Variable VarIndex="1" Expression="pTForwardJets" Label="pTForwardJets" Title="pTForwardJets" Unit="" Internal="pTForwardJets" Type="F" Min="0.00000000e+00" Max="5.84062927e+02"/>
    <Variable VarIndex="2" Expression="etaMostForward" Label="etaMostForward" Title="etaMostForward" Unit="" Internal="etaMostForward" Type="F" Min="9.43701528e-03" Max="5.08775759e+00"/>
    <Variable VarIndex="3" Expression="pTLeadingJet" Label="pTLeadingJet" Title="pTLeadingJet" Unit="" Internal="pTLeadingJet" Type="F" Min="2.50661049e+01" Max="1.57565747e+03"/>
    <Variable VarIndex="4" Expression="pTLeadingLepton" Label="pTLeadingLepton" Title="pTLeadingLepton" Unit="" Internal="pTLeadingLepton" Type="F" Min="2.50000801e+01" Max="1.79043994e+03"/>
    <Variable VarIndex="5" Expression="mNotSoForwardJets" Label="mNotSoForwardJets" Title="mNotSoForwardJets" Unit="" Internal="mNotSoForwardJets" Type="F" Min="0.00000000e+00" Max="7.41861035e+03"/>
    <Variable VarIndex="6" Expression="pTLeadingBJet" Label="pTLeadingBJet" Title="pTLeadingBJet" Unit="" Internal="pTLeadingBJet" Type="F" Min="2.50000210e+01" Max="8.04922424e+02"/>
    <Variable VarIndex="7" Expression="missingET" Label="missingET" Title="missingET" Unit="" Internal="missingET" Type="F" Min="1.04179710e-01" Max="9.37117615e+02"/>
    <Variable VarIndex="8" Expression="highestDeepCSV" Label="highestDeepCSV" Title="highestDeepCSV" Unit="" Internal="highestDeepCSV" Type="F" Min="-2.00000000e+00" Max="6.32397890e-01"/>
    <Variable VarIndex="9" Expression="maxMjj" Label="maxMjj" Title="maxMjj" Unit="" Internal="maxMjj" Type="F" Min="0.00000000e+00" Max="7.41861035e+03"/>
    <Variable VarIndex="10" Expression="asymmetryWlep" Label="asymmetryWlep" Title="asymmetryWlep" Unit="" Internal="asymmetryWlep" Type="F" Min="-2.49997520e+00" Max="2.49910092e+00"/>
    <Variable VarIndex="11" Expression="etaZ" Label="etaZ" Title="etaZ" Unit="" Internal="etaZ" Type="F" Min="2.17198412e-05" Max="7.43178225e+00"/>
    <Variable VarIndex="12" Expression="m3l" Label="m3l" Title="m3l" Unit="" Internal="m3l" Type="F" Min="1.39939318e+01" Max="2.90162573e+03"/>
    <Variable VarIndex="13" Expression="maxDeltaPhijj" Label="maxDeltaPhijj" Title="maxDeltaPhijj" Unit="" Internal="maxDeltaPhijj" Type="F" Min="4.23192978e-05" Max="3.14159083e+00"/>
    <Variable VarIndex="14" Expression="maxDeltaRjj" Label="maxDeltaRjj" Title="maxDeltaRjj" Unit="" Internal="maxDeltaRjj" Type="F" Min="3.93641144e-01" Max="1.03769493e+01"/>
    <Variable VarIndex="15" Expression="maxDeltaPhill" Label="maxDeltaPhill" Title="maxDeltaPhill" Unit="" Internal="maxDeltaPhill" Type="F" Min="1.10688210e-02" Max="3.14158750e+00"/>
    <Variable VarIndex="16" Expression="pT3l" Label="pT3l" Title="pT3l" Unit="" Internal="pT3l" Type="F" Min="3.08943540e-01" Max="1.70108850e+03"/>
    <Variable VarIndex="17" Expression="mForwardJetsLeadinBJetW" Label="mForwardJetsLeadinBJetW" Title="mForwardJetsLeadinBJetW" Unit="" Internal="mForwardJetsLeadinBJetW" Type="F" Min="0.00000000e+00" Max="1.05282529e+04"/>
    <Variable VarIndex="18" Expression="ht" Label="ht" Title="ht" Unit="" Internal="ht" Type="F" Min="5.00717850e+01" Max="2.36897876e+03"/>
  </Variables>
  <Spectators NSpec="0"/>
  <Classes NClass="2">
    <Class Name="Signal" Index="0"/>
    <Class Name="Background" Index="1"/>
  </Classes>
  <Transformations NTransformations="1">
    <Transform Name="Normalize">
      <Selection>
        <Input NInputs="19">
          <Input Type="Variable" Label="topMass" Expression="topMass"/>
          <Input Type="Variable" Label="pTForwardJets" Expression="pTForwardJets"/>
          <Input Type="Variable" Label="etaMostForward" Expression="etaMostForward"/>
          <Input Type="Variable" Label="pTLeadingJet" Expression="pTLeadingJet"/>
          <Input Type="Variable" Label="pTLeadingLepton" Expression="pTLeadingLepton"/>
          <Input Type="Variable" Label="mNotSoForwardJets" Expression="mNotSoForwardJets"/>
          <Input Type="Variable" Label="pTLeadingBJet" Expression="pTLeadingBJet"/>
          <Input Type="Variable" Label="missingET" Expression="missingET"/>
          <Input Type="Variable" Label="highestDeepCSV" Expression="highestDeepCSV"/>
          <Input Type="Variable" Label="maxMjj" Expression="maxMjj"/>
          <Input Type="Variable" Label="asymmetryWlep" Expression="asymmetryWlep"/>
          <Input Type="Variable" Label="etaZ" Expression="etaZ"/>
          <Input Type="Variable" Label="m3l" Expression="m3l"/>
          <Input Type="Variable" Label="maxDeltaPhijj" Expression="maxDeltaPhijj"/>
          <Input Type="Variable" Label="maxDeltaRjj" Expression="maxDeltaRjj"/>
          <Input Type="Variable" Label="maxDeltaPhill" Expression="maxDeltaPhill"/>
          <Input Type="Variable" Label="pT3l" Expression="pT3l"/>
          <Input Type="Variable" Label="mForwardJetsLeadinBJetW" Expression="mForwardJetsLeadinBJetW"/>
          <Input Type="Variable" Label="ht" Expression="ht"/>
        </Input>
        <Output NOutputs="19">
          <Output Type="Variable" Label="topMass" Expression="topMass"/>
          <Output Type="Variable" Label="pTForwardJets" Expression="pTForwardJets"/>
          <Output Type="Variable" Label="etaMostForward" Expression="etaMostForward"/>
          <Output Type="Variable" Label="pTLeadingJet" Expression="pTLeadingJet"/>
          <Output Type="Variable" Label="pTLeadingLepton" Expression="pTLeadingLepton"/>
          <Output Type="Variable" Label="mNotSoForwardJets" Expression="mNotSoForwardJets"/>
          <Output Type="Variable" Label="pTLeadingBJet" Expression="pTLeadingBJet"/>
          <Output Type="Variable" Label="missingET" Expression="missingET"/>
          <Output Type="Variable" Label="highestDeepCSV" Expression="highestDeepCSV"/>
          <Output Type="Variable" Label="maxMjj" Expression="maxMjj"/>
          <Output Type="Variable" Label="asymmetryWlep" Expression="asymmetryWlep"/>
          <Output Type="Variable" Label="etaZ" Expression="etaZ"/>
          <Output Type="Variable" Label="m3l" Expression="m3l"/>
          <Output Type="Variable" Label="maxDeltaPhijj" Expression="maxDeltaPhijj"/>
          <Output Type="Variable" Label="maxDeltaRjj" Expression="maxDeltaRjj"/>
          <Output Type="Variable" Label="maxDeltaPhill" Expression="maxDeltaPhill"/>
          <Output Type="Variable" Label="pT3l" Expression="pT3l"/>
          <Output Type="Variable" Label="mForwardJetsLeadinBJetW" Expression="mForwardJetsLeadinBJetW"/>
          <Output Type="Variable" Label="ht" Expression="ht"/>
        </Output>
      </Selection>
      <Class ClassIndex="0">
        <Ranges>
          <Range Index="0" Min="0.0000000000000000e+00" Max="3.5174394531250000e+03"/>
          <Range Index="1" Min="0.0000000000000000e+00" Max="5.3860003662109375e+02"/>
          <Range Index="2" Min="4.9503829330205917e-02" Max="5.0834941864013672e+00"/>
          <Range Index="3" Min="2.5423738479614258e+01" Max="1.3641473388671875e+03"/>
          <Range Index="4" Min="2.5227918624877930e+01" Max="1.1464831542968750e+03"/>
          <Range Index="5" Min="0.0000000000000000e+00" Max="7.0923740234375000e+03"/>
          <Range Index="6" Min="2.5000284194946289e+01" Max="5.6383319091796875e+02"/>
          <Range Index="7" Min="2.5761952996253967e-01" Max="6.4404705810546875e+02"/>
          <Range Index="8" Min="-2.0000000000000000e+00" Max="6.3238823413848877e-01"/>
          <Range Index="9" Min="0.0000000000000000e+00" Max="6.0287744140625000e+03"/>
          <Range Index="10" Min="-2.4980332851409912e+00" Max="2.4830813407897949e+00"/>
          <Range Index="11" Min="1.8661706417333335e-04" Max="5.8101987838745117e+00"/>
          <Range Index="12" Min="3.2942466735839844e+01" Max="1.8262895507812500e+03"/>
          <Range Index="13" Min="2.9253959655761719e-04" Max="3.1415777206420898e+00"/>
          <Range Index="14" Min="4.0781101584434509e-01" Max="1.0175618171691895e+01"/>
          <Range Index="15" Min="7.7342987060546875e-02" Max="3.1415545940399170e+00"/>
          <Range Index="16" Min="5.0073194503784180e-01" Max="1.0869104003906250e+03"/>
          <Range Index="17" Min="0.0000000000000000e+00" Max="9.3009863281250000e+03"/>
          <Range Index="18" Min="5.0812908172607422e+01" Max="2.0241300048828125e+03"/>
        </Ranges>
      </Class>
      <Class ClassIndex="1">
        <Ranges>
          <Range Index="0" Min="0.0000000000000000e+00" Max="4.6216191406250000e+03"/>
          <Range Index="1" Min="0.0000000000000000e+00" Max="5.8406292724609375e+02"/>
          <Range Index="2" Min="9.4370152801275253e-03" Max="5.0877575874328613e+00"/>
          <Range Index="3" Min="2.5066104888916016e+01" Max="1.5756574707031250e+03"/>
          <Range Index="4" Min="2.5000080108642578e+01" Max="1.7904399414062500e+03"/>
          <Range Index="5" Min="0.0000000000000000e+00" Max="7.4186103515625000e+03"/>
          <Range Index="6" Min="2.5000020980834961e+01" Max="8.0492242431640625e+02"/>
          <Range Index="7" Min="1.0417971014976501e-01" Max="9.3711761474609375e+02"/>
          <Range Index="8" Min="-2.0000000000000000e+00" Max="6.3239789009094238e-01"/>
          <Range Index="9" Min="0.0000000000000000e+00" Max="7.4186103515625000e+03"/>
          <Range Index="10" Min="-2.4999752044677734e+00" Max="2.4991009235382080e+00"/>
          <Range Index="11" Min="2.1719841242884286e-05" Max="7.4317822456359863e+00"/>
          <Range Index="12" Min="1.3993931770324707e+01" Max="2.9016257324218750e+03"/>
          <Range Index="13" Min="4.2319297790527344e-05" Max="3.1415908336639404e+00"/>
          <Range Index="14" Min="3.9364114403724670e-01" Max="1.0376949310302734e+01"/>
          <Range Index="15" Min="1.1068820953369141e-02" Max="3.1415874958038330e+00"/>
          <Range Index="16" Min="3.0894353985786438e-01" Max="1.7010885009765625e+03"/>
          <Range Index="17" Min="0.0000000000000000e+00" Max="1.0528252929687500e+04"/>
          <Range Index="18" Min="5.0071784973144531e+01" Max="2.3689787597656250e+03"/>
        </Ranges>
      </Class>
      <Class ClassIndex="2">
        <Ranges>
          <Range Index="0" Min="0.0000000000000000e+00" Max="4.6216191406250000e+03"/>
          <Range Index="1" Min="0.0000000000000000e+00" Max="5.8406292724609375e+02"/>
          <Range Index="2" Min="9.4370152801275253e-03" Max="5.0877575874328613e+00"/>
          <Range Index="3" Min="2.5066104888916016e+01" Max="1.5756574707031250e+03"/>
          <Range Index="4" Min="2.5000080108642578e+01" Max="1.7904399414062500e+03"/>
          <Range Index="5" Min="0.0000000000000000e+00" Max="7.4186103515625000e+03"/>
          <Range Index="6" Min="2.5000020980834961e+01" Max="8.0492242431640625e+02"/>
          <Range Index="7" Min="1.0417971014976501e-01" Max="9.3711761474609375e+02"/>
          <Range Index="8" Min="-2.0000000000000000e+00" Max="6.3239789009094238e-01"/>
          <Range Index="9" Min="0.0000000000000000e+00" Max="7.4186103515625000e+03"/>
          <Range Index="10" Min="-2.4999752044677734e+00" Max="2.4991009235382080e+00"/>
          <Range Index="11" Min="2.1719841242884286e-05" Max="7.4317822456359863e+00"/>
          <Range Index="12" Min="1.3993931770324707e+01" Max="2.9016257324218750e+03"/>
          <Range Index="13" Min="4.2319297790527344e-05" Max="3.1415908336639404e+00"/>
          <Range Index="14" Min="3.9364114403724670e-01" Max="1.0376949310302734e+01"/>
          <Range Index="15" Min="1.1068820953369141e-02" Max="3.1415874958038330e+00"/>
          <Range Index="16" Min="3.0894353985786438e-01" Max="1.7010885009765625e+03"/>
          <Range Index="17" Min="0.0000000000000000e+00" Max="1.0528252929687500e+04"/>
          <Range Index="18" Min="5.0071784973144531e+01" Max="2.3689787597656250e+03"/>
        </Ranges>
      </Class>
    </Transform>
  </Transformations>
  <MVAPdfs/>
  <Weights InputWidth="19" Depth="4" LossFunction="C" OutputFunction="S">
    <Layer ActivationFunction="3">
      <Weights rows="128" cols="19">
        -2.2933532669785783e-01 1.1981126879699552e-01 7.5948953249478895e-02 -1.0443308087906833e-01 1.0528818887448656e-01 -2.9179107566982115e-01 3.5195016034864919e-02 4.3453878334119012e-02 -2.9234159675019811e-01 2.9711964369142424e-01 2.3489702903662247e-02 2.9773273555786539e-01 3.6613056661531029e-02 6.9544891780271054e-02 2.7419938028005675e-01 -2.4465255245729373e-01 -1.2844142999957994e-01 7.5383010549770021e-02 -9.9845217949146494e-03 -2.6206225954916857e-02 2.1349241254128598e-01 -3.0445580126172023e-01 4.5790937432088910e-02 -2.7857751915642343e-01 -1.9390726699911914e-01 2.2241530517053421e-01 1.0611951655777530e-01 -2.0654447825958580e-01 -2.5291162274555851e-01 -1.2214411456156514e-01 -2.3310876709281730e-01 -5.8585635411427694e-02 2.9820255490507624e-01 -2.9370977225308470e-01 1.7183705516556533e-01 2.4868494609483902e-01 2.0575804149994939e-01 2.0347212403872397e-01 -1.7959662403342455e-01 2.0540676110180889e-01 1.4027116291118763e-01 -1.8971297996545450e-01 -1.4122169949689659e-01 -1.4464553153606596e-01 3.4321614002969993e-02 9.4428088961864678e-02 2.8267360214320369e-01 -2.5234085309737680e-01 -8.4781176091498281e-02 -2.3631175090770556e-01 -4.6422588808489830e-03 2.4344216593040738e-01 2.0573173904672139e-02 1.8028409593564496e-01 1.0907581879149197e-01 -1.8797341002991019e-01 2.9386325573557270e-01 1.1134273325593028e-01 -2.6891235985639311e-01 -2.8260646303084752e-01 2.9954839009628398e-01 -2.0556750155246548e-01 -6.0963425834279258e-02 2.5195706430313652e-01 -1.4156931820034893e-01 1.9957589589682878e-01 1.8318933405752222e-01 2.8954709677947982e-01 2.4836949783799570e-01 -1.3130976115524701e-01 1.6213173438986256e-01 6.1360614493324278e-02 1.0871148476917182e-02 -9.7730316529412067e-02 1.0720405191048506e-01 -2.1673004295460849e-02 2.7391382293387989e-01 8.0838753299290855e-02 1.2104310757490312e-02 -6.1308668112762124e-03 2.5022715111223609e-01 1.3948209635083528e-01 1.6315831167992045e-01 -3.1394286547815647e-01 -1.0549436642870373e-01 -7.6902071391582741e-02 1.0080749578111177e-01 6.6952535169033364e-02 2.2892560705914111e-01 -1.7641785700252821e-01 -2.3888222897179123e-02 8.9939326748051815e-02 3.0498151746735886e-02 -8.6162775363768526e-02 -2.8070159186693860e-01 1.2862105497016668e-02 -1.8067003906242715e-01 -2.7492935219965542e-01 1.9348327068166546e-01 6.0184867917071928e-02 8.4644927757699939e-02 3.1574335984252760e-01 -2.7820316617337215e-01 2.1164154628740189e-01 -2.2720385521849429e-01 5.2910010286694169e-02 -2.9119858858098874e-01 -1.0441519406278170e-01 -5.2748722819697232e-02 3.7111271763408976e-02 4.6453410461890249e-02 -2.1094949100481117e-01 -2.4596340792529400e-01 -3.1459240516656511e-01 -2.9360773416824731e-01 -7.2812075549777311e-02 2.9948580835101546e-01 -2.1316714091130951e-01 1.2219843265890440e-01 -3.1787884808208722e-01 -7.8808142179795093e-02 -1.8009580383350393e-01 -4.1430557300281702e-02 -2.5629338481108921e-01 8.9938607710774131e-03 -1.6678584052188014e-01 2.3232117786314882e-01 -2.5385927960227350e-01 1.7087907522398707e-01 -3.1683594324458536e-01 1.7485575879375592e-01 -2.6688717068894213e-01 4.5199025659242692e-02 1.9563340744860377e-02 2.8532286951659247e-01 -1.0769207230300075e-01 -2.2185904946611454e-01 4.4185367006245160e-02 -9.5436535651934967e-02 1.5629132937681597e-01 -1.5472129018140129e-01 -2.7734166154471424e-01 -2.3821679367440543e-01 -8.0221843731506690e-02 -2.1050123341401419e-01 -2.4577446857460300e-01 -3.6525104092496721e-02 -3.2570512393989365e-02 7.3149411077698331e-02 -9.3967964990269104e-02 1.2969159353199147e-01 1.2589781631270436e-01 -3.0977431885335727e-01 -1.4375999774965151e-01 1.5401311162187725e-01 -7.4287471777543843e-02 -3.9936552004664796e-02 -2.9185014113067924e-03 1.7021462020279288e-01 1.5231324804894966e-01 9.0599624807753840e-02 1.3678186496064501e-01 2.4524153098495333e-02 -2.7191563078651126e-01 -3.0541575251785624e-01 1.7802213024991140e-01 4.3215570837385635e-02 2.5853442807138849e-01 -2.1337892672499950e-01 -8.3491692316494906e-02 -2.4307625173934197e-01 -2.7656374840149917e-01 -1.4344799434486588e-01 -2.0821367676208632e-01 -4.8116706607681255e-02 -1.8923430543526290e-01 -1.1973193791923011e-01 8.6289026158976628e-02 -2.0219719249675343e-02 -1.8712057496308823e-01 4.5917896729765414e-02 -2.8942957072066333e-01 -1.0532910821252408e-02 2.3131268292514129e-01 1.6896618963852122e-01 -1.3234924858502345e-01 2.2165571263528580e-01 8.1908573014012095e-02 -2.6730509410611808e-01 -4.3124495181392178e-02 1.1598951444423136e-01 1.7614860546079472e-01 2.7778229948991068e-01 9.4169301834064439e-02 -1.4574944641520635e-01 -2.3185455191013454e-01 -2.5386288495743647e-01 2.6520105569306002e-01 1.1867727221627358e-01 5.2698299637544355e-02 -2.5349717118915366e-01 1.1491297434474841e-01 -2.5927222243820797e-01 -2.8777105846424839e-01 -2.8021069665448739e-01 -1.7043518020090707e-02 -1.4112342969107286e-01 2.6912549970507266e-01 -9.2039822389129819e-02 2.7557721994146300e-01 -1.2955522868615357e-01 -1.5356252704182777e-01 -2.7733334078936356e-01 -1.5973620562326532e-01 -6.5135760616751776e-02 2.3406451751580226e-01 -1.5342270526639271e-01 -7.9597025638877758e-02 3.1896452614861570e-01 5.3153857061787040e-02 -2.2643203146052085e-01 2.6233428915376411e-01 2.0338723306513343e-01 2.4963386994001746e-02 1.4927994841981085e-01 3.1183133299958576e-01 -2.5552164868607830e-01 2.7669341707745726e-01 2.0784363518251525e-02 -3.0369711797898946e-01 -2.3761524532104028e-01 2.5426188207143996e-01 -1.1117022487967611e-02 -2.7589742864498534e-01 2.7676343847382645e-01 1.2040692382018808e-01 -2.3778760212105404e-01 -2.7083781993460793e-01 9.0534558895600054e-02 2.5991046703029957e-01 1.6695742968897259e-01 3.9350102937601231e-02 2.1603783136642546e-01 -3.0613465061153111e-01 2.9416544276008633e-01 -1.2314439396800406e-01 -3.0118554622107135e-01 9.9488790247795611e-02 3.0972521722493351e-01 -2.1419382609254919e-01 2.5463792628334891e-01 2.9363579978190957e-01 1.7143692707503930e-01 -1.2945610636565913e-01 -1.4003133370890817e-02 1.9712344800013215e-01 -7.5348977449055790e-02 1.9993717059661981e-01 -1.6843085977515798e-01 2.2341359482437018e-01 -2.6703981140487648e-01 3.4844434249658905e-02 -2.5038094136679284e-01 1.1482417925270621e-02 -2.6769862313959031e-01 2.1499886406854843e-01 1.2661104963117684e-01 2.0174038590093496e-01 -2.4964776788081830e-01 -2.0892598034411280e-01 -1.7941753752993200e-01 2.9157612289568741e-01 3.0000545055123945e-01 3.4600263199043098e-03 2.6187963241564791e-02 -1.6596947927087888e-01 8.4947102538362573e-02 -1.5942218187709262e-01 3.1272034086402423e-01 -1.4660066895013218e-01 -1.4673114001929843e-01 -1.7024659683917279e-01 1.9868162257062766e-01 3.0184782312273306e-01 -3.0956959686785829e-01 1.6583457683850150e-01 -6.4005928234592252e-02 -8.3136079631045495e-02 -2.9660017818006684e-01 1.7853451509033960e-01 3.1588546055903133e-01 2.0915702075533263e-01 2.1196476415879922e-01 1.4763575055254718e-01 3.0557806158515155e-01 -2.0985144311439971e-01 -1.7768181936664743e-01 -9.7006979448283376e-02 5.0268886912753587e-02 2.4253932602124534e-01 -2.6115325580744525e-01 2.2365950758264169e-01 1.2090769056197787e-01 -2.1466054742102239e-01 -2.8647477153829232e-01 -2.0657097365947444e-01 -1.0983292455565122e-01 1.4781856272344313e-02 2.9131854676259289e-01 -9.6412877633100413e-02 -1.9681006402011800e-01 2.9851731698193529e-01 2.8835228245084690e-02 -2.3253802532859730e-01 1.5299769172682412e-01 9.7503288229741053e-02 -1.7022937337187322e-01 8.6378337365993957e-02 2.0704189738635181e-01 -2.8543050018243021e-01 -9.2755065894512698e-02 1.2137900169140756e-01 -2.2419063039093470e-01 -1.1156129131143773e-01 -2.2151606515721611e-01 4.8182431316600702e-02 -1.4294220238491906e-01 4.4014375394189426e-02 -1.9454297573836049e-01 1.6400737440722474e-01 -2.2539695536931184e-01 1.2930617539701489e-01 8.5633776557478170e-02 1.0586119653344350e-01 -1.7434783471180831e-01 2.8400423412246550e-02 2.5995955309134255e-01 6.2494805618807221e-02 -1.9887665331071844e-01 -2.8028513446467096e-01 -1.7440365508117614e-01 1.1267230316915181e-01 1.5844421280873772e-01 -1.5922853083062505e-01 1.6216908146844233e-01 5.2075048834676126e-02 -2.3768587062076918e-01 2.2061517358279770e-02 -2.9998700162536146e-01 -6.9564866900642702e-02 1.3885797329144126e-01 9.3714141276853527e-02 1.4981254602986260e-01 -2.5983485981793519e-01 -2.6307861082650008e-01 1.6368355037504956e-01 2.3964236759775731e-01 -8.9500973164575073e-02 -3.5167153099517470e-02 -5.1570906307065179e-02 1.3822170744917645e-01 -8.8000070282455142e-02 -2.5704568682254358e-01 1.2571510148580095e-01 1.9539569055581280e-01 -8.7471535654889011e-04 -1.9297572709812896e-01 -8.2088199747197887e-02 1.6782486711174602e-01 1.2652014622101571e-01 -9.8140569424166213e-02 2.7028576745945981e-01 -3.1121338676980315e-01 -1.9300108313759248e-01 3.5114852517603729e-03 2.6296379331380501e-03 -1.0047554674134399e-01 2.2384231732866484e-02 4.6335655403085631e-02 -1.1999192359060144e-01 3.1078057388884101e-01 9.5169782005419964e-02 2.7475337653414345e-01 2.8072084176085599e-01 8.0076105470421495e-03 1.7149820493005261e-02 -1.8761979746247204e-01 -2.2512114359792394e-02 -7.3824212727354899e-02 2.4752834211999125e-01 -2.7491244052935404e-01 2.3271861626314114e-01 2.7806471148128997e-01 2.8749355359205464e-01 -1.3797025854509751e-01 -2.0461015881375638e-01 5.3569389386096525e-02 7.8428119696002704e-02 3.0512082533590484e-01 1.6073467262056032e-01 1.8801025714998706e-01 -8.7014870640195724e-02 5.0402718034575467e-02 -2.4113814613674669e-01 6.9426378297385821e-02 6.1990780060656975e-02 8.6910870282934719e-02 -1.9902427896401417e-01 -2.0672223844535917e-01 -8.6411638927249457e-02 1.2097996315088991e-01 -2.8228121177122909e-03 1.7747497524258612e-01 1.7155284396224382e-01 3.0490986537521725e-01 -1.2019828268819364e-01 -9.6616773039577206e-02 -2.7510124440497419e-01 -2.7119236220896414e-01 1.5845011551899318e-01 -2.8567864575179534e-02 2.4016889750613807e-01 1.0600661231546168e-01 1.8742535714007746e-01 3.0225415170916949e-02 1.5200734758201881e-01 -1.2402849439117036e-01 -1.1710466523004625e-02 -2.0537086203923416e-01 -1.5373427282983024e-01 -8.7785073221951351e-02 2.8706186636528969e-01 -2.0525947854457496e-01 -1.9546762472392520e-02 -6.6755331727356190e-02 -6.8558920775979443e-02 1.0560878154703199e-01 2.4696145023685859e-01 9.0875173416882352e-02 -1.6359338011947672e-01 -1.9413457806078480e-01 -6.8710342480607881e-02 -2.1801382933817545e-01 1.7947018366942508e-01 -1.3992780749902287e-01 1.2877431186252536e-01 -2.5048882412434842e-01 -1.4729204411990349e-01 2.8433119664545831e-01 1.6518241274242976e-01 3.6991338472800082e-02 -9.0793233053628963e-02 -1.7215304975747403e-01 -1.2199252571449902e-01 -1.7891898258645933e-01 4.9358892722121642e-02 -3.7364345090676855e-02 6.7984072154496922e-02 -4.8889227168445328e-02 1.3969496408910517e-01 2.1139922889606813e-01 1.9734582391999860e-02 1.3521794449811791e-01 -1.9867472230064168e-01 -3.4421434533849012e-03 -2.3413165703192185e-01 4.2195959196753466e-02 -1.3756252585372264e-01 1.1701198412041802e-01 2.6220283517920173e-01 1.2743026145166031e-01 -1.1054811796703394e-01 -5.1432530985281187e-02 1.4376529710876973e-01 -1.8490772497026159e-01 -1.3569461216233402e-02 -1.1336230841203174e-01 -1.3275149571790268e-01 -2.7001228506870173e-01 -2.3783910064914077e-01 4.6254606140247553e-02 2.4321722017300154e-01 1.8260581168277593e-01 -2.0209290696948798e-01 -2.3918617190805372e-01 -1.1730740514797371e-02 -1.9024919770579296e-01 -3.5483911851467403e-02 -5.4884765522193069e-02 3.1366934348830244e-01 1.6639011225320877e-01 1.3203793112836007e-01 -2.5070018633497770e-01 2.9550474465625187e-01 -1.3934148275326944e-01 -2.3745213624533851e-01 -1.7897880720990070e-01 2.4195348946468381e-01 9.6317213792830383e-02 1.1704578246190003e-01 3.1627342055146695e-01 -2.6401970785806500e-01 -1.6742803561091274e-01 -2.2764853494766185e-01 1.2713666106185140e-01 2.5571583983106039e-01 3.6404503502170220e-02 -2.7166689435342145e-02 6.6468874677779247e-02 1.6834631647709505e-01 2.2004298460166591e-01 1.5247139630844123e-01 2.3034411079757344e-01 -2.1345384904111117e-01 1.1172260904744755e-02 1.6483277598729393e-02 -2.6048922436694549e-01 2.1875449665413246e-01 2.1366330391510044e-01 -3.2265405793195649e-03 2.1264686794333770e-01 1.4952270068592359e-02 -5.3483112112760176e-02 1.9676534855507433e-01 6.9261632970523915e-02 1.3721603396691540e-01 1.4489191440626384e-01 -2.3350976721119288e-01 2.3179315919430586e-02 7.6234742777006745e-02 -3.3945270092407755e-02 -2.0693173996161929e-02 2.5100006604394698e-01 5.5040512557812712e-02 2.3001269619529935e-01 -5.3049386897304006e-02 -2.4993382072499717e-01 -1.0677544397022903e-01 1.5658091267763177e-01 2.8081212759775981e-01 -1.0179380798990850e-01 -1.5370172122398412e-01 -3.1507227513564140e-01 2.0701227936069705e-01 1.2572900819889321e-01 1.8449504564379637e-01 -7.1810661554027294e-02 -6.8518494230333502e-02 4.5879323926591616e-02 2.3475570129100112e-01 2.4311012755978084e-01 -2.7814836578272650e-01 1.2813603329888024e-01 1.3372983941274344e-01 1.1025496814311443e-01 -8.8186074406157944e-02 1.5407664180823022e-01 1.1971176875138503e-01 2.8178523830025309e-01 1.1015267038435775e-01 4.3961677632837863e-02 -2.7175841518647226e-01 -3.0401328249665005e-01 1.7976310146987259e-01 7.6022370680180182e-02 -1.7947554025872250e-01 3.0960774737913688e-01 -6.5042540718911926e-02 -3.0005612237911722e-01 -4.7270541306493288e-02 1.3284216618780565e-02 -1.9774006208320144e-01 -7.3874473113319419e-02 2.0509653488500368e-01 1.4748265807856994e-01 -4.7515470583856946e-02 -1.9586126882889071e-01 -6.6169158297834332e-02 6.3329820356685260e-02 -1.8479494186218878e-01 -3.1176002180104279e-01 2.5181752861544859e-01 2.3716507752995136e-01 3.4508731230744230e-02 3.1430532579365072e-01 -1.5621831675038300e-01 2.9374310316288649e-01 2.7621434212343854e-01 -2.7939668271949986e-01 -1.1494970850050541e-01 2.2787455966649095e-01 -2.5197583707092710e-02 1.6953364208164429e-01 5.0517363845109062e-02 3.4890857653208991e-02 -1.3780092722099679e-01 2.0748600911453546e-01 2.0381282163297865e-01 -2.1882696383120179e-01 2.9898553208361683e-01 8.9280113040647452e-02 1.8295959829237743e-01 1.1720745195120111e-01 -2.2766170757078277e-01 4.4138327812340471e-02 -5.2763616868675700e-02 -6.9116031688990512e-02 8.6445317087870399e-03 -5.8136031907413070e-03 3.3026322429669873e-02 1.8718404943171973e-01 2.4938551625439809e-01 -2.1865089613776520e-01 6.9895087263203828e-02 2.5767033659691152e-01 -1.7382478580847674e-01 -2.8381344997646957e-01 6.1285869497816718e-02 6.0360713082610533e-02 2.3022808753298685e-01 -2.6498083987293718e-02 1.5790976959419820e-01 2.0134657562406214e-01 -1.5608188129452558e-01 1.8419730240901105e-01 2.2720194817806297e-02 1.7967844269523425e-01 -2.6041472295000567e-01 -1.1998790714781291e-01 -3.1447528437859884e-01 -8.8311581492509991e-03 -2.1030873066686021e-01 6.9236099676096577e-02 -6.5603445135295882e-02 2.2654738943469946e-01 -2.2879136123419402e-01 -2.5724088402440154e-01 -1.1753125629517894e-01 -2.5770385096841769e-01 1.2341085522352779e-03 6.0125005282174911e-02 2.2691900763228767e-01 8.1628306899610203e-02 -1.8666399140053463e-01 4.2708679233928411e-02 -1.6268161995983074e-01 -2.7321542299570151e-01 1.2054699345652045e-02 1.0365788666066128e-01 -7.9881266671840936e-02 1.0529909587260486e-01 -2.9626663304684253e-01 2.5035223647691851e-01 2.8341085506164188e-01 2.2402123078023517e-01 -1.0386682239664061e-01 1.9076808985254912e-01 2.2683013630933219e-01 3.7834508954518249e-03 2.0374169372368117e-01 2.5607184388593535e-01 -1.5370266303891015e-02 -1.5196339473771858e-01 1.7691824008063035e-02 -2.1792359058177355e-01 -6.9794673315031683e-02 6.0813191066931081e-02 -1.9777316073636722e-01 1.2092964573960749e-01 2.4767522627373950e-01 -9.4399808678518521e-02 3.4437938607620414e-02 2.3707912043881962e-01 -3.0246677043509318e-01 2.6793527842792192e-01 -1.7120482876244328e-01 1.4196471856627696e-02 -3.0167132263236107e-01 -1.8331019570812479e-01 -1.0881830435783311e-01 -2.0563890463018689e-01 -5.0567364961687719e-03 1.4541680092390905e-01 3.0864727859652008e-01 2.5859903311921956e-01 -5.0340057826954075e-02 -2.3181567738591477e-01 -2.6870616097928568e-01 -1.0213543926132382e-01 -2.1295248612219794e-01 -1.5347379044350024e-01 1.5444910668498801e-01 -1.4478566884245242e-01 2.6813457445043093e-01 -1.4914118095940782e-01 -9.9925269653677960e-03 -4.4963957414581979e-02 2.4990506321147138e-01 -3.1464463216667521e-01 1.9932048825370108e-01 3.0959847997105217e-01 3.1924675229165485e-02 -1.7645307563415621e-01 -2.3793080670721046e-02 -8.7191061782082815e-02 2.8081947987279116e-01 -1.3255087995729673e-02 1.2599046799895641e-01 -5.1786921103829979e-02 -1.6880295472475632e-01 -5.4149230602440326e-02 -2.5679071871102016e-01 -1.6405719795814261e-01 -1.8955628072549671e-01 -3.1219745133435617e-01 2.7477598183841045e-01 -1.2576980864190934e-01 -2.0710091729828342e-01 1.2454766615534126e-01 2.6098441827125767e-02 -2.9420486280672072e-02 -1.0382294918610772e-01 -2.8596954196490726e-01 -3.6333195112767364e-02 6.6715677000684148e-02 -1.6643081728233383e-01 1.8355568872421135e-01 1.4347071404302847e-01 -1.0565112547639920e-01 -6.2565678294702790e-02 1.7748773697200931e-01 1.8771615235762970e-01 9.1493406994592519e-02 -2.1150286011654326e-01 1.7496262982132310e-01 -1.1073061120264138e-01 -2.9332998006843253e-01 4.9654542806423639e-02 1.5541170007369748e-01 -1.4897942474275860e-01 1.2019075811713327e-02 1.7199892020020546e-01 -6.9265039950518831e-02 -9.6260624311073156e-02 3.0179364909518080e-01 -1.3674670951741039e-01 -8.3476828889661639e-02 -2.8534651154033787e-02 -8.6023661491739151e-02 1.8835881236582946e-01 5.6267274089068106e-02 5.5294960106028822e-02 3.4454846618406761e-02 -2.4778195505282671e-03 -2.1129890399682230e-02 1.0809535922010637e-01 -2.2553440288662388e-01 8.7225025119713993e-03 1.3638812391614982e-01 1.0432537664643556e-02 -2.3546998910865699e-01 -2.6780814744184517e-01 4.9771699980868563e-03 1.1736900523431655e-01 -2.0641470308198806e-01 -2.6158089579570809e-01 1.0687212454987216e-01 -1.8617380257718780e-01 -3.0832118595392499e-01 1.9735825806927351e-01 -4.5571925445338654e-02 3.0236650225554140e-01 -2.6389174347867717e-01 -2.2966245802172847e-01 1.2457124212637782e-01 -6.7696745145227985e-02 -1.5892399382135378e-01 -1.5810999723526931e-01 1.6839919731576916e-01 1.1880923237234586e-01 -1.5530638757786591e-01 2.1156120253908942e-01 -8.7743476386773170e-02 -2.7054939010480555e-01 -5.1771443141581511e-02 2.0156459781132841e-01 2.0438713314242535e-01 8.1400341361064915e-02 1.0306234391952765e-02 -1.8074265799153733e-01 1.1959726440103734e-01 2.8102173165253264e-01 2.0308318591803076e-01 3.1048788803045485e-01 2.8833798591399767e-01 1.9607381712367292e-01 1.3465289482311629e-01 -2.0630760938447570e-01 8.2621210895104366e-02 1.1270015688927131e-01 -1.0769005744067879e-01 1.8650812313907530e-01 1.5886599130666085e-01 -1.0941785634269581e-01 2.7306085317369010e-02 2.9535561872827987e-01 -1.1913153850837968e-01 1.0146324492569891e-01 2.8673662805521144e-01 1.2045773184645338e-01 1.3223731960914753e-01 -1.4075722952741304e-01 -1.2390292052780202e-01 -1.2553939533893127e-01 -7.4373769142535462e-02 1.9620912145510411e-01 7.5663253429468266e-02 1.4106203948141091e-01 1.4115587981018962e-01 8.2823308831711351e-02 -2.7016434423931662e-01 -2.1306404004292986e-01 3.7835725271774416e-02 1.5389099146560664e-01 -5.4485250811386596e-02 -1.1514697057887997e-01 -7.6050301345900240e-02 -9.3639007872114419e-02 -1.4498904800890147e-01 4.2857306575624773e-03 2.3304683471687193e-01 2.2781312283587826e-01 -9.7205042849374201e-02 -1.8981726299554924e-01 1.1626209323712336e-01 2.0102546167258714e-01 2.4670183017819924e-01 2.8701487765888484e-01 -2.8751737652088000e-01 -1.1742418058814038e-02 1.7232953210052399e-01 2.4242153370898301e-02 1.6520723363018097e-01 1.4409101977648356e-01 2.0362535106229768e-01 -1.8981794897259871e-01 -2.2915136074369377e-01 -5.1161721152392904e-02 -2.6540234318099737e-01 1.8685192445162890e-01 -2.5966740587446269e-01 3.1898953642151001e-01 2.7132221049703370e-01 -2.5284007130379438e-01 2.4033320692118568e-01 -1.2281944702043771e-01 2.7692451371685273e-01 1.6864690051288747e-01 4.9380321831534944e-05 -4.1790709099294970e-02 -2.7908133604735513e-01 -5.9470927062223421e-02 -5.4236989944026752e-02 1.4860253243688668e-01 3.6888081255143312e-02 -1.7727216006657867e-01 -1.6777460144668879e-01 -8.4322297568722990e-02 -1.6916525060307919e-01 -2.1475517543348650e-02 6.4396675091974415e-02 3.0343583538030039e-01 3.0585923965201683e-01 1.3571529837473398e-01 1.1628159180175018e-02 -1.8896339612698772e-02 1.2092409362675508e-02 2.7528975021971663e-01 2.7392027256232965e-01 -2.4158530118837071e-01 1.3175288740464403e-01 6.9077455943850910e-02 -2.3113040005944932e-01 1.3209445724257068e-01 -2.2741134597273932e-01 -4.8534272854569703e-02 -7.7619165543658553e-02 4.5621420539851860e-02 3.0360434917803047e-01 1.8110372816292661e-01 -9.2292551551103105e-03 1.0000352272946272e-01 1.4614664546719358e-01 2.1910488223180755e-01 1.0224212781252826e-01 -1.7678300712470121e-01 -2.2337962061235558e-01 -1.4745984809858773e-01 3.1567798994625522e-02 1.0223450858138307e-01 3.0853110546148699e-01 -1.1663546685760294e-01 -1.4899553896451148e-01 1.1533574497364009e-01 -2.5129563630228474e-01 -2.0587784321201688e-01 2.6551050518308911e-01 -1.3920576278207107e-03 1.1028310850339046e-01 3.3444965790426349e-02 -2.8114572065173588e-01 1.6355276143336168e-02 2.1538273095239133e-01 6.6166707091337970e-02 -2.5997281550002865e-01 -2.6599192268353511e-01 1.8455342269282626e-01 -2.3640403267694027e-01 -1.4205768575887553e-01 -3.1415351889546783e-01 -2.5021170877328230e-01 -2.4255947902836977e-01 1.3886744340064308e-01 -4.4227828656782736e-02 -2.5611592467345107e-01 3.0232824251483809e-01 1.0905633573804922e-01 1.5828617257682587e-01 9.6889085555462010e-02 2.8827252335445891e-01 2.9069440234851007e-01 -5.3482340165585812e-02 -2.2121021521375422e-01 1.3057184557787835e-01 -5.7951998003492357e-02 -1.8086350303275400e-01 -2.7874012386031932e-01 -1.2555624503606075e-01 -2.3387357754460447e-01 2.4258620722425084e-01 -2.8388401835671651e-01 -1.5214359396964824e-01 -2.4357025057184865e-02 2.8776778341882409e-01 1.9881645526502706e-01 -6.2123880098632955e-02 -1.6033491651727286e-01 -2.2056863411133701e-01 -2.2729400446476708e-01 -2.6655526994263562e-01 -2.0218460399154901e-02 -9.7158183169684456e-02 -1.5017532467797373e-01 2.9215397085123485e-01 -7.5880853501496814e-02 2.6538290289331151e-01 2.8758294833189729e-01 1.1280811099526068e-01 7.5370157343205721e-02 -2.8550893773849395e-01 3.1496787809829990e-01 8.3293049536390371e-02 -7.0062167498424407e-02 2.3167014856270202e-01 2.8132693690917321e-01 2.9119901428095196e-01 2.3975964283161474e-01 -4.0504544934032730e-02 -5.3168874995413416e-03 -2.0305604659313611e-01 1.6071409418782628e-02 -7.6377282369741353e-02 -1.9147737073339749e-01 2.7095637860955363e-01 2.2797912130188763e-01 2.5484487442378406e-01 -1.6578983630138910e-01 2.3990456071580710e-01 1.8692086524270857e-01 -1.9132109365084990e-01 1.6317642722691775e-01 7.0649193436648536e-02 2.6022760965223812e-01 -2.6875853014380963e-01 -2.2476197048155988e-01 3.1039848601622194e-01 -2.3423714152379285e-02 2.3941166603137742e-01 4.4322751118559899e-02 -3.1129827000814775e-01 -1.6917934586793351e-01 -1.9121374600076349e-01 7.3842390881991474e-02 2.8388815091413805e-02 2.9827743785949506e-01 1.1265727108454662e-01 -8.2222445694772134e-02 -1.4147568268885924e-01 -2.1883331380071375e-01 -4.7987819078122405e-02 -1.9235915151892186e-01 7.8137876708818610e-02 -2.1965638072340413e-01 5.3872001723609874e-03 1.6992011788018815e-02 -1.0590016546149578e-01 1.3182500118262788e-01 -2.9748001185856399e-01 8.6713168985980055e-02 -1.9505942487817805e-02 4.6532441651658096e-02 -9.2860955251010346e-02 2.1589974295735367e-01 -5.9549411685129755e-02 -2.2633304658818326e-01 1.9205907868864316e-01 -1.7792934200751165e-01 -2.7762606872707257e-01 4.0387914808263640e-02 -3.1460178782822076e-02 2.0798945941935348e-01 1.7506837858323357e-01 2.8171745913450841e-01 1.7712142258174529e-01 -7.8385922242745223e-02 6.3219732304105282e-03 -1.2222563447666732e-03 2.6504086591001413e-01 3.0195184025336452e-01 5.3327162771687281e-02 -1.9168022326212023e-01 1.0422029265414534e-01 1.8707583858295587e-01 6.2432524591547939e-02 9.4659916481700343e-02 5.3021017169126994e-03 7.5679918782020655e-02 -4.3199689340830148e-02 -8.4396482229594255e-02 4.1850045832264732e-02 2.1927091479799977e-02 7.1191913353432584e-02 -2.5534426725466680e-01 2.2412736324873009e-01 -8.7942615639195434e-02 1.5620515823753317e-01 2.9632452218077515e-01 -2.9465164487879603e-01 -8.4094991675852368e-02 1.8330319456847227e-01 2.9829857601676341e-01 6.3633905317645303e-02 -2.7045089777658404e-01 -2.7611415691174501e-01 -1.2788773501792886e-01 -9.3791789168542999e-02 6.4591705804385141e-02 1.6505648385656216e-01 1.7727275151817642e-01 -1.6625410184079278e-01 -2.8805683644267538e-01 -1.8483465732714163e-01 4.4775436148505286e-02 2.7694210943795666e-01 2.4697855330053217e-01 2.1708554865245766e-01 -2.9602523224474442e-01 6.3429286386751105e-02 -3.0467428360916732e-01 -2.1570465326216806e-01 -2.4684780801380196e-01 -1.8802603609336613e-01 5.7689864518966877e-02 -2.4668990780376118e-01 -8.9557346021829895e-02 -1.5714761816655532e-02 -2.5466994459606246e-01 1.6016211756193124e-02 -2.7411928822060355e-01 1.9700188633013901e-01 -1.6029326668746735e-01 -7.2508323290780760e-02 2.0489717465375246e-01 2.1746439272618948e-01 -2.5598264224174213e-02 5.8173085609617030e-02 -2.2171176657011674e-01 -2.4298419295785348e-01 -1.3514411092061596e-01 -2.6868696421190597e-01 1.4849101123925984e-01 -1.0630291635114186e-01 -2.2177100788852960e-01 -2.2333798055062748e-01 -1.6939358768909302e-01 1.2262749776358291e-01 8.2693406586922077e-02 1.3270489728015782e-03 1.3651545557914685e-01 -2.1433854884690087e-01 2.9007584083528208e-02 2.2355793703929733e-01 -1.8622351205814602e-01 -3.1146306752678998e-01 -1.0823664455552720e-01 3.1117146894386288e-01 9.4563842663898015e-02 5.4796116289221333e-02 -7.9206866038322304e-02 2.8409609507821981e-01 -1.6189049549677700e-01 1.9737105910587902e-01 1.0749862102093074e-02 8.4505698776383472e-03 -1.8117710487543109e-01 -2.7861257777886678e-01 -2.9022251063357901e-01 -1.3196111417739733e-02 2.8095541269878394e-01 -2.8758955835263028e-01 5.1039116460706017e-02 -2.3441048860744088e-01 1.2964521421694886e-01 2.3005637705030405e-02 -6.1902309009435219e-02 -7.4907720020628205e-02 -2.7743957762756194e-01 -6.9770322154108708e-02 1.5129711709083113e-01 -2.1603950973482833e-01 1.1771446121661065e-01 2.2930846689823214e-01 3.0255739364124579e-01 -2.0502717874507101e-01 -5.5996675079167044e-02 -3.3082129327463766e-02 -8.2605845911742984e-02 2.7751569955082500e-01 -8.2867923170209495e-02 1.2085959356579810e-01 -1.4031116812642211e-01 -3.5961617813377394e-02 -6.0392020879386499e-02 2.0335926463501483e-01 -1.0495564036137869e-01 2.8763552868733405e-01 4.0018573185797622e-02 -1.7739631024605654e-01 1.3692719358346117e-01 -1.7004924764700380e-01 2.8782308334938050e-01 -4.6213756800116412e-02 1.9901030481263754e-01 1.0727292718768024e-01 -2.0211462236875530e-01 -1.4524983098070804e-01 1.2921576727578457e-01 2.4121513188232346e-01 4.3434343127838441e-02 -5.6102366706261828e-02 1.5614158262579153e-01 2.9500149317611774e-01 -8.0870756317793044e-02 2.6044348465700423e-01 -1.4036398848316578e-01 1.2367819049097072e-01 2.1241029200594747e-01 -2.7119155734164085e-01 -2.1557771519305127e-01 2.2707359436110267e-01 1.0653676281041531e-01 -1.6239998947325726e-01 -9.0728670258840918e-02 7.0121525638363907e-02 2.2518444233853552e-01 -2.9661135748775408e-01 -1.1606860822565326e-01 1.1972189484551636e-01 1.3289677151751325e-01 1.2366376941725200e-01 2.3234857650948881e-01 -1.2422876415956643e-02 -6.7078019906658667e-02 -4.3700123321295255e-02 -3.0898229995087534e-01 -1.7780147350460179e-01 -1.9914437025804546e-01 1.2593494303247779e-01 2.5742447464157697e-01 -1.9135862726274414e-01 4.3106860662331742e-02 5.7693349299215609e-03 1.4598749504432318e-02 -2.0786417385163031e-01 1.4385519127654758e-01 -2.8331771271775519e-01 -1.4755120478136714e-02 -1.6491595837038947e-01 1.5911984921449759e-01 -2.2232351980612636e-01 9.2899427248464422e-02 2.0948384440412873e-01 -1.9162072167548402e-01 -7.1771945477059521e-02 -1.4554474744035720e-01 -1.6630600012578992e-01 -2.6500052488603310e-01 2.8428440821921225e-01 1.7829457807574350e-01 -1.4933973735161660e-01 7.9167250583826246e-02 1.0593614864106293e-01 1.4440812989804228e-01 -4.0703961206910361e-02 -2.8367950949070553e-01 -3.0636346478602505e-01 -1.1558595618995599e-01 -3.1351994695856661e-01 8.8207245939268611e-02 1.8879025334343047e-01 -2.3451202992639936e-01 1.6380774393229983e-01 4.1354996393695505e-02 2.1224404710981359e-01 -1.9413035162728198e-01 -2.3592555384851349e-01 2.5413134503495105e-01 -1.9325543637634157e-01 -3.4043618087344060e-02 2.8433166027357970e-01 2.3677393684484651e-02 3.0998094806365872e-01 -2.6113705238096768e-01 -6.7402977224193403e-02 -2.0168295165805025e-01 9.4862176578277918e-02 -2.6837004758273375e-01 2.7257567819233069e-01 -9.0579905699150726e-02 2.7863270822069491e-01 1.0703346791417866e-01 -1.4790890935377790e-01 7.6110236685804813e-02 -9.9427160480750107e-02 -1.7014218610569939e-01 -8.4485386914483832e-02 -2.2459359165612622e-01 -2.8404705141783476e-01 -4.4383373313447140e-02 1.2899599829337532e-01 1.3079272003982098e-01 2.8656049501252057e-01 1.8017186563100268e-01 -2.1641575669677690e-01 1.1654238036334416e-01 2.5911244670026540e-01 1.9930829865555971e-01 -1.0379526980725758e-01 -9.2543241678157792e-02 1.1891756004468926e-01 -2.1154260061185579e-01 -2.4528186766197922e-02 -1.1218729078766164e-01 2.2899388374314802e-01 -3.0344168450559134e-01 1.4551130847407676e-01 2.6310234388657644e-01 -2.8190077684825848e-01 2.4303796362021965e-01 3.1134665986140264e-01 1.9126232458153700e-01 -3.1062557512277225e-02 -5.4590613291957905e-02 -7.8329486979503302e-02 1.4063021215670138e-01 4.3999998624124306e-02 -2.2765474766687790e-01 4.0277508538928919e-02 -2.2194578644463930e-01 1.8599356212281454e-01 1.3357972500711543e-01 2.9702689132498505e-01 -9.4190229404711265e-02 -1.1350381980365491e-01 -9.5408004582348514e-03 7.5344192591387887e-02 1.2767742085613581e-01 2.5066553213727061e-01 -1.5214523116219514e-01 3.0184271765165149e-01 -7.3394510984231845e-02 -1.5980491994885246e-01 -2.2078463612038896e-01 -3.1078868549892313e-01 2.8136763237343765e-01 1.0808122643092770e-01 2.2012200748459554e-01 2.6800273104555250e-01 -1.9279077970138275e-01 -5.3154498727349786e-02 1.0064849773493798e-01 -1.8717495881365115e-01 5.2249117501068476e-02 1.6937930391255990e-01 3.0302801698429765e-01 -2.3199713859135124e-01 -9.8048798024467615e-02 -1.5182024454837689e-01 -7.3532171592488815e-02 -1.1764568730681188e-01 -9.6903977047063325e-04 2.1966679852155255e-01 1.5604372704502285e-02 -2.1715373547771616e-01 -1.1750810884151471e-01 2.0099268947427748e-01 -3.1107518977632509e-01 9.5270655267524804e-02 -2.4992353493129968e-01 2.7376098548479660e-01 1.2233578799620559e-01 2.7297987890139341e-01 -2.9878633264697402e-01 -9.1603730174087572e-02 1.8417133770091507e-01 2.6408626051441675e-01 2.5282515892555690e-01 2.5771506419031709e-01 -1.3356685348108066e-01 2.8131927124344830e-01 2.8633076868623819e-01 2.5143772968615162e-02 -9.9175077891227120e-02 6.3565729526560089e-02 -4.2378626009612008e-02 -2.0590570554459425e-01 -2.7208949542227284e-01 -4.2466686249453336e-02 1.8160132554461383e-01 1.6452783777340721e-01 2.3549788366639474e-01 9.8004217419752487e-02 2.1822397635265936e-01 -3.0417847590467225e-02 2.8565758652503884e-02 -2.5131112521751664e-01 3.1220059278597712e-01 2.1473393894215179e-01 4.7444588662094937e-02 -2.2453690336335014e-01 -1.8480446249175167e-01 -2.5578246186134651e-01 2.6561771382397392e-01 -9.6528181504039245e-02 1.0262061669380146e-01 -7.9108730043769990e-02 -1.6543142311171657e-01 9.2072600222870032e-02 -3.1130311785874004e-01 2.6134356745196913e-01 -2.4664033239461006e-01 2.8968926176195609e-01 -1.8536873310483309e-01 3.1118594696297547e-01 -8.6893460539514758e-02 3.4528758109151299e-02 -2.9979185156017374e-01 1.9931106301744850e-01 -5.9260880241150581e-02 7.7743875045673025e-02 -3.0240439079284137e-01 9.2823303162400811e-03 2.6373141417058588e-01 8.8679636563713440e-03 -6.1005110479296050e-03 8.1642004988670233e-02 -2.0236519335219932e-01 -1.6926186729114451e-01 2.2364625845765973e-01 1.7532643387982152e-01 2.2508696898710101e-01 -2.8599062373426284e-02 1.6346306341639696e-01 2.1331412471303859e-01 -1.7718599141925143e-01 -2.6461275122210759e-01 2.5335506983629647e-02 4.1595687414916337e-02 1.3301420526853946e-01 2.2572009876432123e-01 -1.4864805583959947e-01 1.5523114591814527e-01 -2.0273279651718250e-02 -1.7885890546263600e-01 2.8787410956158773e-02 -1.5388927355099324e-01 -1.9910935251958817e-01 -2.3008730094371510e-01 -3.5019951714144543e-02 2.3314450651695753e-01 1.9183920935042165e-01 -1.2653235589874554e-01 1.4576165739682698e-01 -5.6123800780208601e-02 -1.2693166646743045e-01 -2.4845792427206137e-01 -6.4673478575506729e-03 -1.3926460777950000e-01 1.0994779892348411e-01 2.1240736503979629e-01 1.7597265028957590e-01 -2.5682614265245174e-01 -9.2158515179925835e-02 -2.6569030491351514e-01 -3.0227795742742763e-01 2.3852797546030757e-01 -2.2555242868921177e-01 -2.1771378199451480e-01 -3.1121571808707987e-01 -2.1364523200132424e-01 2.2252961967551421e-01 2.9108149537823269e-01 3.1502022553678949e-01 3.0975856202585100e-01 -1.5328318702869970e-01 2.8738000311619749e-01 -8.8134046628249571e-02 1.2559214855795151e-01 8.2747831930359825e-02 6.7329399515167462e-02 -4.0602696309849216e-02 2.4302402589868438e-01 -2.9019248705814255e-01 -1.0782149094637993e-02 -2.8731692855993823e-01 7.9355314697846333e-02 5.6948732309624939e-02 -9.7195660759969507e-02 3.0797554707967573e-01 -1.8408165250062108e-01 1.3113627016366480e-01 -2.8517575414571550e-01 -2.5405248528413604e-01 -2.8313313934940249e-01 -1.9072774320206687e-01 -1.2093570484515088e-01 -1.9485967602729734e-01 -2.7375853259717291e-02 -1.1812418797297695e-01 9.5245432703144561e-02 -3.9391045540379359e-02 -1.9610521138328372e-02 2.9611039975364739e-01 2.7543179779024896e-01 2.3172583459290289e-01 2.1119968747753190e-01 7.9371332562478747e-02 -7.0378564233994745e-02 2.7735078589088252e-01 6.7690261881603014e-02 -1.7436086390119168e-01 5.6788918852624069e-02 1.9812235500940270e-01 8.2442118664312267e-02 -2.4791171120435171e-01 -9.7005770064800864e-02 -2.1797622916832179e-01 -2.3651808711889905e-01 2.4367882516351577e-01 3.0592556592251874e-01 -1.0112654267556595e-01 2.4600700218539276e-01 2.4538058124207116e-01 7.1129563214264016e-02 6.4235370459768751e-02 1.5497673014256927e-01 -9.7580226918722271e-02 2.8534545062080285e-01 2.7975952348489591e-01 2.3662031753556625e-01 1.9666542377259424e-01 2.8644067931050626e-01 9.6471378564387325e-02 1.7702156296209559e-01 -2.2643648415739134e-01 1.0480573344592611e-01 -2.3156520356414234e-01 -1.8538069606773583e-01 4.9522665653345663e-02 2.2489852336315658e-01 2.3443657612938754e-01 -1.1101082883677899e-01 1.8237132521490659e-02 -1.8986662917238295e-01 -1.5280874336682665e-01 -1.8281850403110744e-01 -2.1701370525202002e-01 -1.4087712265048216e-01 1.9080221733614486e-01 2.2945897330959092e-01 -5.6360627909760666e-03 1.9219721982901092e-01 -2.8512182860599511e-01 -1.7715734103835842e-01 1.8904358620579503e-01 -2.3415398244729424e-01 -3.0784942957538247e-01 -2.2564248792039862e-01 -1.4011341139453234e-01 -2.0092883573640818e-01 -2.0658274086541428e-01 -8.6086906054225379e-02 -5.0088167206386895e-03 -8.1904439450380551e-03 1.8963036882726356e-01 9.4041570595523330e-02 -2.5555104787231903e-01 -2.1902596560203791e-01 2.7323021963130606e-02 1.5228807209291720e-01 -1.3207730348468743e-02 -2.1142268894388863e-01 5.4978157915378953e-02 -1.3295106636319981e-01 1.5966916698310860e-01 -2.4441298235230338e-01 1.8965706368782166e-03 1.3060778585023633e-01 -1.7219975332414506e-01 -2.1077548604911317e-01 3.2578052036202537e-02 1.2729671585399330e-01 -2.2409673850910458e-01 -3.8527348220407320e-02 -2.9627540331755992e-02 4.8597454683320017e-02 -8.2169580230978100e-03 1.1028973248082430e-01 3.9705490428252589e-02 -1.8468766368119863e-01 -1.2236368362283570e-01 -2.9870000228321508e-01 -1.1213607690713878e-01 -2.3833204440976904e-02 4.3560643446805256e-02 -2.6038923238674938e-01 2.3775932527284702e-01 2.0299408028931668e-01 3.1165464563599371e-01 -1.2735643046144807e-01 -5.6528176168439533e-02 -2.2115303579908125e-03 -1.3364700847058350e-01 1.4463537260938353e-01 -1.2433917442796819e-01 2.8408341853411473e-01 2.6464423407124027e-01 6.5500629786865508e-02 2.5261878008581001e-01 -1.9352839465625091e-02 1.6468012379097138e-01 1.3925605472266203e-01 -1.6793441293542039e-01 -1.6476177120534052e-01 -2.0879867780702449e-01 -2.0321622021522845e-01 2.2936272526467391e-02 8.7815214948591874e-02 4.6796430245689268e-02 2.5412704985943074e-01 -1.3051816419314868e-01 -8.9835857076177153e-02 -1.4852417694499584e-01 -2.4017509958028616e-01 -6.1743225503756154e-02 2.0237945000942961e-01 -1.8710850886345060e-01 -2.2955939149774665e-01 5.4819059930674525e-03 -2.6794457374282465e-01 -1.7052920805226604e-01 1.1427203675140654e-01 -3.0272561953703581e-01 -8.3145413522027076e-02 1.5689313198640992e-02 -2.0381862040553519e-01 2.7228664566286209e-01 -1.9963369034821937e-01 -2.0624540484592657e-01 2.9274688724741921e-01 4.3506438840533769e-03 -1.9381100972191669e-02 -5.9786501153411914e-02 -7.9945091728793230e-02 -2.6570775220648302e-01 -6.7970655604731797e-02 -5.2031735272837720e-02 -2.1142012747045258e-01 2.6828068611155276e-01 -7.8527815117176464e-02 2.2741569050309504e-01 2.5178704214154668e-01 -2.0627061918857389e-01 1.4776679164751200e-01 2.5140181836982023e-01 1.8242314634112358e-01 1.7304214008147226e-01 2.7035575222712338e-01 5.0493797866326830e-02 -9.6582209626728532e-02 2.1226740303349073e-01 -2.1198671586600171e-01 -6.5084710039805774e-02 -5.6393654513329419e-03 2.3749839155732921e-01 2.4746295266875518e-01 2.1874349764952894e-01 -4.3017344040832677e-02 -2.6818632748802745e-01 -2.3781100000650782e-01 3.5979512540348355e-02 -1.5666588289784067e-01 -1.6299644000571156e-01 -1.3627857435371873e-01 -3.0746783457929125e-02 3.2819525433490870e-02 3.8039323604487287e-02 1.4192295260578025e-01 2.1671442006316527e-01 2.8668259219234316e-01 -3.7750117258348391e-02 -6.2405190642248276e-03 -1.9749508643799210e-01 1.7677223042436330e-01 -2.1443573519701645e-01 4.8126420913760237e-02 2.0953367626665456e-01 4.1191983638014164e-02 2.8017608569416447e-01 -9.1537899715656637e-03 1.8325647922959079e-01 -1.6670158721526485e-01 -9.3630009588282798e-02 -2.3395290738604593e-01 -3.0002196938868980e-01 -9.1531306746189169e-03 1.7321992718958079e-01 2.2285752189818799e-02 5.4325077963823604e-02 -1.3441203422336451e-01 6.1353428807463639e-02 2.3331414349876620e-01 8.8248190653541059e-02 -8.8610332080066842e-02 -1.1357440687868960e-01 6.3247138188024271e-02 -5.0622357947813015e-02 -2.8043255210844520e-01 2.7048066772340490e-01 -1.6165836048920684e-01 1.9959298191661085e-01 1.1898036128641051e-01 -1.0573077522927010e-01 1.6405552531947712e-01 1.9720442200281126e-02 1.4321884144480820e-01 -7.4945837106206906e-02 5.3501421917916216e-02 -2.1107572311787412e-01 -2.0440357975289189e-01 -2.6755399368175725e-01 1.3486761654205969e-02 -2.2880182400408564e-01 3.1136351193621253e-01 1.2538175873596657e-02 -1.2963897791714379e-01 -2.2531567885901785e-01 3.3733102241642485e-02 3.3811842261670999e-02 2.3488782806620526e-01 -2.8758654014744195e-01 -8.1940947696718572e-02 -8.4962244675724548e-03 5.9798205521694382e-02 -5.4429894328013803e-02 -2.6144607676127984e-01 -2.4737274240379128e-01 1.6686901863431799e-02 1.9398397806947887e-01 2.2217701121073435e-01 1.5099322850125699e-01 -2.3689425534443885e-02 -3.0787448330975520e-01 -2.1376795374693824e-01 -8.7088455834699666e-02 -1.6845887680617375e-01 1.6652732507465334e-01 1.4882589287916175e-02 -2.8656465412401211e-01 -1.6060436945863815e-01 1.4834615813413063e-01 1.8113732412203551e-01 -2.1375973029422038e-01 2.0277311727839667e-01 -2.4378542354156088e-01 1.1938726987907591e-01 -2.5047027773433644e-01 1.7515760089351604e-01 1.5591282700436412e-01 -6.8888280066646018e-02 -2.7654535368858528e-02 -2.9393136449541851e-01 4.7193531571355432e-02 5.8384202267113043e-02 6.4969777397938897e-02 -2.0385141143168919e-01 -9.0830917402284619e-02 -5.0444469549719966e-03 4.5229102548018180e-02 1.7585523652128679e-01 -2.9682325575550134e-01 1.3954695224869262e-01 1.7966666990905746e-02 -1.4544070935597708e-01 1.5895562383431078e-01 -1.9235311429629895e-01 -6.6101510146560863e-02 2.2879328324319123e-01 3.2896174140674389e-02 2.7046232126830017e-01 -1.3625014608304073e-02 1.8532528539441585e-02 -2.3629915521820078e-02 -2.8324480188802109e-01 -8.0826450454601698e-02 -5.8852134220087900e-02 -9.4907761467451029e-02 -9.9338356611942735e-02 2.2685338620778081e-01 2.2361491830533897e-01 -5.8121438677828555e-02 5.2922505366179852e-02 3.1930068114239818e-02 2.2519796452788376e-01 -2.8998229171933948e-01 -8.3853220060153236e-02 -2.8400582288874338e-01 2.2986751329529975e-01 -1.7931292278311625e-01 1.5548722911256391e-01 1.0599811856067945e-01 2.7976886754246427e-01 1.9706746436197611e-01 2.9815730907761245e-01 2.6407619913837299e-01 -2.1031358120730997e-01 -1.2806819912211612e-01 -4.8054061851694196e-02 1.4733684597968860e-01 -3.1018565589697500e-01 1.5016792373330387e-01 2.5607531989782661e-01 1.5122809298188544e-01 1.3364129014069306e-01 -2.2797297310003611e-01 1.5093412006494078e-01 5.0498680657725607e-02 2.5711797684883797e-01 1.9539502226543173e-02 3.0337865625059298e-02 -2.8481465207499002e-01 -2.9698861437036334e-01 -1.2820605878435290e-01 4.1443264607116351e-02 -1.2173102393696258e-01 -1.1497717204157386e-01 9.5820556100758472e-02 -1.0698723890446905e-01 -2.7926374762583822e-01 -1.4590207549202822e-01 2.5118790933024426e-01 -1.4283285925659578e-01 -2.0754760021128013e-01 2.7906270379018844e-01 1.9389346199497220e-01 -2.1207945542857934e-01 2.2896496461715249e-01 -2.3733031925932191e-01 1.0633674598864434e-01 6.1069882795954156e-02 3.0058019077496423e-01 2.4808962363597439e-01 -6.1957994005935761e-02 -2.2022364655604890e-01 1.0321983767884707e-01 7.9448039377381971e-02 -1.6400328404545483e-01 3.0195122229061916e-01 1.5330917206411485e-01 -1.6376928260162107e-01 -9.4134181905801292e-02 1.7326344307166588e-01 7.9689016288762127e-02 3.6869575975304408e-02 7.6355370740768827e-02 4.6800955324077876e-03 -1.9150024770830812e-01 4.7637479962102033e-02 2.2872064835643408e-01 1.0780888296296617e-01 -1.5396675335085927e-01 1.9539901922865158e-01 2.5904420817470070e-01 2.7811274689037618e-01 -1.3663279097019344e-02 1.9893051735921510e-01 -1.6454068165085198e-01 -4.6205205221915846e-02 2.0103205947789721e-01 -2.9895508981434571e-01 1.6257952214285346e-01 2.6826666337065636e-01 -2.2928478496935722e-01 1.4214222018261191e-01 2.0093443469683830e-01 7.3886608457968517e-02 -3.6899091946118817e-02 -2.5086846110759109e-01 -1.6593398070735610e-01 2.1566594701972869e-01 -2.8841181368561430e-01 5.8454787591780757e-02 1.8839682895464671e-01 1.7134616899804400e-01 -2.5117099526515885e-01 -8.8135372080209481e-02 2.1798317435429068e-01 2.1048510448089591e-01 -8.0020763056874236e-03 -7.8064791960643573e-02 -2.6189461056237312e-01 5.3783421394638639e-02 -1.8992781959997598e-01 -2.6081939868755826e-02 -2.4173924907387029e-01 1.0772274538259875e-03 2.1035159256364927e-01 5.5396145784390824e-02 1.2801452813316774e-01 -2.3666916102683347e-01 2.0545362559312594e-01 -1.2404910742982031e-01 -1.5282739632373393e-01 -1.9459064345907673e-01 2.0259384980105022e-01 -2.4663924272741788e-01 -4.4479187258160136e-02 -1.1099489859068681e-01 -9.2077057338283114e-02 1.6657335867373574e-01 -1.6237085483062799e-01 1.3497525384266534e-01 8.3601507166689445e-02 2.8718235942064579e-01 -2.9606067751465909e-01 9.9684951735882515e-02 -1.7262912509130107e-01 1.6530616569206163e-02 2.9639507343816457e-01 -1.8280368252128479e-01 -1.1148624542922025e-01 -2.6077999126293960e-01 -1.6927378535021786e-01 -1.1757808824603942e-01 1.1642213818611034e-01 1.5206480535509809e-01 -8.3008212406078266e-02 -2.5054680334071078e-01 7.4700914178761874e-02 1.6198934025599770e-01 1.7409678540664755e-01 2.0621028646747841e-01 2.1456298982552235e-01 1.3937374113911801e-02 -3.0329074733869515e-01 -3.2056781134621883e-02 -2.5751096485530833e-01 -1.8426339010156298e-01 5.2766577512101800e-02 -2.7938945433680779e-01 4.2639669661825336e-02 -1.8714722748707860e-01 -1.0445295773223463e-01 -1.3341347909449033e-01 -1.7798358624206534e-01 4.7370060572895077e-02 -2.4693241449450798e-01 -2.3626922462714642e-01 -2.3692253014207496e-01 -1.4856712442197981e-01 1.2836867565782525e-01 -1.5158256331035883e-01 -2.9398257401328115e-01 -1.9278718057173028e-01 2.7423055728516582e-01 1.7913564786675235e-01 2.0968833883089216e-01 -2.1757087591058238e-01 -1.9237324714966605e-01 -1.2410225596681869e-01 -2.7406317710890404e-01 9.2257706784708404e-02 -1.5813729498483328e-01 5.6186494178478409e-02 1.9903761093207931e-01 -7.5049701915037403e-02 4.1089816104303178e-02 3.0147645697929870e-01 -1.1979140328044895e-01 2.8533669521848837e-01 -5.0815482048604428e-02 -2.4870925668395860e-01 1.3005966388947380e-02 6.7159302573383982e-03 -1.2419075896159552e-01 -1.2493735565092114e-01 -1.2390973105551005e-01 9.6823443989864505e-03 -2.2915467172387777e-01 3.0364915898028377e-01 -8.3559490582221493e-02 1.0018523810820484e-01 2.3159036281913575e-01 -5.8384949397583701e-02 -1.8306958677356111e-01 -1.0671834734847960e-01 1.5842052438609600e-01 6.6311470490920496e-02 -1.3572626993080744e-01 2.4736388668713608e-01 3.2307442956496422e-02 1.3748096920762717e-01 2.2533259209002690e-01 1.5867864362328013e-01 3.0375949445138267e-01 -8.5931989946897019e-02 2.5756356487997029e-02 1.3556924167075757e-01 1.6146832517356973e-02 -2.2038319411596982e-01 -3.0669346700109662e-01 1.1309944140540246e-01 -1.5572336319918439e-01 -1.3480821007544946e-01 -1.7839911725290991e-01 1.7759288023503297e-01 -2.6716849827540723e-01 1.4299364092185506e-02 1.7582694623135953e-01 7.1427561005150436e-02 2.1520782939724359e-01 7.2775063400523823e-02 1.0056326090858340e-01 -9.9408531669901906e-02 -2.8778895470526394e-01 7.6057396829844637e-02 1.6734255176195328e-01 -8.2532951754758277e-02 -2.8539167354054412e-01 -6.1279170213466520e-03 -2.8239467771018319e-02 1.0453042490206327e-01 -1.5866922259571994e-01 -1.6490686938734778e-01 -2.6383055322564303e-01 1.1489598991660516e-01 -5.2830038961885734e-02 -2.8134494955110580e-02 1.7200201045348121e-01 1.0232667033247275e-01 7.9823674637992517e-02 -2.1661120742745199e-01 -2.6238072152673025e-01 -2.7332287463115312e-01 3.0537521326896105e-01 -2.7346581515756130e-01 -1.4086434685257082e-01 6.8924965781897746e-02 -2.3558826148524101e-01 -2.0223159550111258e-01 -2.7151094229359324e-01 8.5191358256608788e-03 1.9065062594388346e-01 1.1520651311163291e-01 1.2881209306622221e-01 2.3923156488177741e-01 1.0704612457239542e-01 -8.0565994204352814e-03 9.0683981312616208e-02 9.2144265219449295e-02 -2.6402867514645614e-02 1.1616682671592898e-01 1.7242306011850356e-01 9.0930245878058522e-02 1.2255779227163639e-01 -3.0028752654333166e-02 4.3637022509240384e-02 -5.8909810689680854e-02 4.4823472211390693e-02 -1.3980579469071037e-02 -2.6972849364480561e-01 1.0630039719793292e-01 -1.6839630662259911e-01 2.3979272327320719e-01 1.4662332480344939e-01 -1.8174742015872467e-01 1.2485226036997225e-01 2.3071254410532132e-02 -2.9856418785410116e-01 -2.1172214831140151e-01 -1.8560493355048174e-01 -1.2323110115920444e-01 -1.9490889940640024e-01 3.1537429169607339e-01 -1.9085262820571667e-03 -5.1905181047007413e-02 -9.8903040443273135e-03 -3.7582793797672112e-02 2.2176294847351027e-01 3.0661450427571971e-02 1.6432046663103206e-01 -3.0275556902951393e-02 3.0382757937730043e-01 1.3688148225159519e-01 3.2176018245705769e-02 -7.8124537925467153e-03 -1.1208962042298630e-01 -1.8488400792632484e-01 -5.5871611295525550e-02 -2.1164954804498287e-01 2.9633450055700244e-01 -2.0505840878933373e-01 5.3157997677418016e-02 2.7470491875185227e-01 8.3559057893726432e-02 -1.0492950707208855e-01 -2.0001853844089385e-02 -8.8683024250007458e-02 2.7682451217750831e-01 -1.8478459181767473e-01 1.6690057204600361e-01 2.7407967168986280e-01 1.2755569231122962e-01 -2.0986508488672909e-01 1.3319094299396381e-01 -3.7915905240935285e-02 3.5576801465317283e-02 -2.1475042833175637e-01 -1.9443178015670115e-01 1.2165028381275100e-01 2.7136643973731561e-01 -3.0439832629529534e-01 -3.4822232145663566e-02 1.2165387171931476e-01 -2.8795570843228496e-01 -4.6895809045591708e-02 -5.9219071562954285e-02 2.5397085527181645e-01 -2.8274123178157856e-01 -1.8439028813931310e-01 -2.6386673062069677e-01 -3.0628456292240624e-01 -4.7049736763132059e-02 -1.4159805119976043e-01 -1.4219631762199786e-01 -2.4175969179151333e-01 3.0363214859692472e-01 2.3256570380567845e-01 -2.2097672871909857e-01 -6.4491067675980160e-02 -2.4313129556413599e-02 -1.4554656757005749e-01 -1.6264708463439465e-01 -6.5544744981610337e-02 -1.0429356292748120e-01 5.9120655801397352e-02 2.2364711139659116e-01 -1.6652006142191536e-01 1.2912283252825879e-01 -2.8858512612349702e-01 1.3606713149782422e-02 1.1252568667936455e-01 -1.4023044796318901e-01 -2.4211791440186833e-01 -2.3026728572212943e-01 -1.0977398235468935e-01 -2.6168726439331796e-01 3.8520789553938825e-02 -1.9433426200159049e-01 -5.8224626716450664e-02 -2.2229105380036504e-01 2.0880929910550786e-01 6.6916494426217540e-02 2.5835970259381663e-01 2.3342033760147307e-01 -1.3080716271304527e-01 -3.3324751826321725e-03 -9.8847517956022354e-02 -3.5760534154436217e-02 -2.7491275440381147e-01 2.1199857559588495e-01 1.9117537784220779e-02 2.1318921231802621e-01 2.7223026689419467e-02 -9.2460023228179172e-02 -1.5999774794845517e-01 1.1943414387454324e-01 1.8937736600126887e-01 -1.8160711383083086e-01 2.3123862076862897e-01 9.2618648431078018e-02 -4.5219490593665188e-02 -2.3213438731504343e-01 -2.7704777684655413e-01 2.0331527339850050e-01 1.7879811099767851e-01 -2.9549091388173554e-01 2.8872654501141121e-01 -9.4369126790878090e-03 2.9326194396356114e-01 -1.6881602981730151e-01 -1.0619680441243889e-01 2.4313854019335548e-01 -1.1717041308599721e-01 7.7341556270706961e-03 -2.9141393896242436e-02 2.0182801516429269e-01 2.0777150188587423e-01 2.7425110723886975e-01 1.4493876541958609e-01 -4.8620653756192948e-02 -2.2844792207123255e-01 -2.2825320857619288e-01 6.3591871721553284e-02 -4.3034076294018661e-02 1.7478514346442667e-01 -1.3854940239485070e-01 1.1249033197504345e-01 -2.7016958431481092e-01 6.0933763016395581e-02 2.1092735178738893e-02 -8.8938010766301159e-02 8.5488703836298599e-02 2.2952445384106215e-01 -2.1686631799811018e-01 4.3345116980323749e-02 -2.0261242032300289e-01 2.6318207997159526e-01 -1.0514602114169704e-01 -2.5584292139287163e-01 2.8391230211813562e-01 1.8715711769982932e-01 -8.1459880787460234e-02 2.5555738496072611e-01 1.4605143374627005e-01 -1.8666385109282407e-01 2.6294794775473435e-01 1.6846800842020465e-01 2.6571100657984542e-01 2.7215001347799250e-01 -1.2709740438600509e-01 -2.9355429751047390e-01 6.0447391110665050e-02 -3.0917974246146734e-01 -2.6386064951533822e-01 1.9975894320406726e-01 -2.9464822478080532e-01 2.9435575917875367e-01 -1.5687402528655414e-02 -7.3569944979397783e-02 -2.0349543406727172e-01 -1.7718643972632306e-01 2.5793805885856230e-01 -1.8902594830819489e-01 -1.7733363076177347e-01 2.4818463427762957e-01 -1.5538885532541649e-01 2.0294076056986418e-01 -1.6151399697298241e-01 2.6241165646099246e-01 -2.6451779293903499e-01 3.0954072508782859e-01 1.9490326472352565e-01 -2.4629913598645067e-01 -1.8729757251596060e-02 -2.0638391138401135e-01 5.8973860361889514e-02 4.5157376456065705e-02 2.6715612066804451e-01 6.7553831158890437e-02 1.5746648612401501e-01 3.1582690849853157e-01 1.4949135188283030e-02 2.4760521994911303e-01 -2.2869376064834654e-01 1.6928918855718267e-01 -1.7065154691601514e-01 6.0862435666259797e-02 2.9700274377813013e-01 -6.3719682740189581e-03 2.0353192466215334e-01 3.9562700799755823e-02 1.5397993751656425e-01 -6.7456037283721917e-02 -1.3657742839107212e-01 -2.9946819223281912e-01 -2.6525172168445993e-01 1.4492298012472640e-01 -2.5513071374886176e-01 2.0888139211144627e-01 -2.1080691203854557e-02 3.7351822793078186e-02 7.4102010272769470e-02 3.0675259650027520e-01 1.5214739559031121e-01 2.5213082333162262e-01 -1.6122037031098094e-01 1.8638350843544957e-01 -1.6082666714838142e-01 1.1464299914116802e-01 4.4590214180562124e-02 9.8222404229586530e-02 -1.1414950012732307e-01 2.5994311619338111e-02 3.3334801134649254e-02 -7.8378884732038176e-02 3.1007791901576372e-02 -2.8263517163819374e-01 1.3424228808577032e-01 1.8814822103237747e-01 -2.4784182483337602e-01 -6.1614024303037022e-02 -3.4301949527542223e-02 1.1542927063550491e-01 9.5829906154928923e-02 -1.9270653289518919e-01 -3.2826039994933859e-02 1.0051421684031951e-01 8.0844383174769302e-02 1.4443948934788983e-01 5.4714624931596120e-03 2.5993504708569398e-01 -3.1455409709490734e-01 -1.3317741009373271e-01 8.5906082421666197e-02 2.3208193710290631e-01 2.4690084613445931e-01 -3.1061332955578136e-01 -2.9460844889230575e-01 2.3571989402618126e-01 -2.6891575078966695e-01 1.1651196912015670e-02 -2.8989904783692666e-01 2.7606218117052267e-01 2.1438554721598060e-01 1.2483455159514954e-01 -3.1213262031323513e-01 -6.2696500358504811e-02 9.4099449038921000e-03 -2.0458086005956552e-01 9.6752049814789343e-03 -2.9552725139936992e-01 -2.1597025970072033e-04 -1.9127190808833908e-01 -1.9289435035581215e-01 1.3389994212520681e-01 -2.6100944614350341e-01 -1.2899500016546256e-01 -1.1871741113609990e-01 1.5215525819611336e-01 -3.8908791271425401e-02 -1.7845019776843152e-01 2.2675735682243237e-01 7.8066478055802732e-02 -2.0456659707758087e-02 -2.5415093053567295e-01 -5.1633281719942338e-02 -1.6971238644880867e-02 -1.4795532345065771e-01 -2.2241291579112207e-01 7.1939443585499654e-02 -1.2508601188854179e-01 -2.7936983157513479e-01 2.2895516859331599e-01 -2.6295821377236689e-01 2.5124242200306734e-01 1.5707256616894308e-01 -1.8709811731356535e-01 4.7396445280386779e-02 1.9326278542231362e-01 9.5824874780994440e-02 2.8621077342602813e-01 1.0788101207002657e-01 -6.2946441775077105e-02 2.8737273852666451e-01 -1.4791617505673000e-02 5.3203151748220510e-02 -2.8433032498680785e-02 2.7890288266470120e-01 -2.2075178383578098e-01 -3.1206508953802431e-01 5.7484624110942704e-02 -1.7377316714694638e-01 1.6150486081869975e-01 6.6041744754060050e-02 1.5506057114037172e-01 9.7393776956806177e-02 -2.9009186221031019e-01 -1.8377729130737483e-01 -8.2631863222735635e-02 -2.3847675231190246e-01 2.3343802098563077e-01 -2.2126889195754344e-02 -2.1299027071991516e-01 1.9692505199589247e-01 1.4137563311251425e-01 2.9113887649795889e-01 6.3667680725075276e-04 7.0034801829189031e-02 1.5921523740143323e-01 2.4260202376671738e-01 2.6484669623282292e-01 2.8268172022640203e-01 -3.0347284434122390e-01 1.2723876671774650e-01 -1.4143534200915486e-01 -9.9539265669691609e-02 -2.2032504407090775e-01 -1.7313404414307232e-01 1.2672712199422911e-01 -2.4240454918735097e-01 1.0765949224609061e-02 -2.4600559986670570e-01 -1.3154758037829895e-01 -9.9700108557252240e-02 -2.0862038393052421e-01 -9.0771784249376233e-03 -7.5739275381098217e-02 -4.5094554541038702e-02 1.9793362295810024e-01 2.6169605767393876e-02 -7.8700950954661314e-02 -2.9014124458333235e-02 -5.2703757597974922e-03 1.9957275639575497e-01 2.7479998704798055e-02 7.2400343900039799e-02 -2.1395348737901385e-01 -2.4839271455723774e-01 1.1096348897254006e-01 2.5174042809436614e-01 2.8940853211050177e-01 -1.7714256772609068e-02 -2.9683393507235500e-01 9.1280351315366128e-03 -1.4373409058970082e-01 -3.0349260723824170e-02 -3.1289725450369255e-01 1.8570632139610163e-01 -1.3929424379409763e-01 -5.2908583054366347e-02 -2.2174907209726838e-03 7.2241939593344472e-03 1.6874425165634174e-01 2.7344227653606612e-01 -3.1800557448993327e-01 -2.1900437258452549e-01 -2.5267337947661378e-01 -3.0269590302722037e-02 -2.3154666006244390e-01 -1.7991531578026249e-01 -4.7503817011703600e-02 1.6022060273518321e-01 6.0405001269991751e-02 2.5233571578915193e-01 1.4450294404107009e-01 -3.1136968159590508e-02 -2.2824185750928497e-01 1.8592966933853719e-01 -4.6242373074823054e-02 2.7418256972042143e-01 -4.2230232314181791e-02 -6.9658723184390120e-02 2.6668535713679087e-01 1.4136387239013959e-01 9.7077596955092743e-02 -9.8311191322112829e-02 -2.9643696300286387e-01 1.1800642990886305e-01 -1.5942128472621298e-01 -2.5627374556026025e-02 -6.0408209192817988e-02 1.5038014051544304e-01 -2.9007493947357249e-01 -2.2767273352614070e-01 -3.9180481952497487e-02 -1.8246560215167498e-01 -1.3408573825515094e-01 -2.8803400280778862e-01 1.7994875018890494e-01 -1.1914587850188496e-01 8.9950573548124302e-02 2.6795751639227400e-01 -4.6287220060117013e-02 2.9347656070960088e-01 1.6320126560177992e-01 2.2812428136228871e-01 -5.2483519380104211e-02 -1.5474057615439071e-01 1.0643463239595570e-01 -2.0696539986092047e-01 -9.5196999051756215e-02 2.6158775246549448e-01 -2.4591604308182743e-01 1.1212602588180040e-01 -1.1383420837210008e-01 -1.7385749134020584e-01 -2.8098318100427698e-02 -2.6886517338890531e-01 -2.5711369166050102e-01 -2.4015480748378326e-01 1.4056633802298979e-01 
      </Weights>
      <Biases rows="128" cols="1">
        -2.8253249211255982e-01 -2.9216806069395646e-01 -8.1258475995454590e-02 3.0300962883157456e-01 7.9173690616050174e-02 8.5801994771463469e-02 3.0004668597104428e-01 -1.7400340690446206e-01 -1.9732127987103243e-01 -1.7406079205143093e-01 -2.2467214111745759e-01 1.6836947864695639e-01 -1.7526667502995003e-01 -1.6653781000471332e-01 8.2107586297240437e-02 -1.6786635225481661e-01 -4.9570059716734741e-02 1.7298839467290262e-02 1.1179398061896101e-01 1.9201371898520278e-01 2.2156996434091239e-01 5.5674402210694307e-02 -6.7919538086905692e-02 -1.2243833432769979e-01 -9.4759038687734359e-03 -2.1677902814783884e-01 2.8671855891639214e-01 -2.8873279744403429e-03 -2.3643814820136350e-01 1.3499267944749715e-01 -1.3950368524358137e-01 -2.6673408045352598e-01 2.8881720966790831e-02 2.6475738121876818e-01 -1.3152994069367854e-01 7.9769142252228781e-02 9.8899006104148063e-02 -4.3506876767892756e-02 -1.7408713409642587e-01 2.4468163676736623e-01 1.7148322117768239e-01 -7.3601094419756666e-02 -1.8289679805236395e-01 1.2265175430495337e-01 1.3303657891261650e-01 1.4514164132381116e-01 8.4856610863185161e-02 8.2235822847328860e-02 -1.0276814323854780e-01 -3.3461802044638639e-02 -7.1980758583100449e-02 -5.9661822850056369e-02 2.3360674209744503e-01 3.1502509211287422e-01 2.3809528689793616e-01 -2.9824424523242149e-01 1.7101037440956285e-01 -1.1341123243004900e-01 2.7449554300502177e-01 -2.4185415840742998e-02 2.8249437505705671e-01 -1.0376169178199758e-01 -1.1874876782627246e-01 2.1270486730695101e-01 -4.0792547686279809e-02 -6.2417137994882813e-02 -2.3062815501309470e-02 9.8433307603505368e-03 2.3712650944176181e-01 -1.7042705098266811e-01 -7.5716105503220027e-02 -1.9444882218514414e-01 -1.6894741843895278e-01 1.2157112189611373e-01 1.8397436877855428e-01 2.1681109308575877e-02 -1.3948694986145976e-01 3.0494561413371690e-01 -2.1564909173711405e-01 1.4499949881422664e-01 8.0249961708233994e-02 2.0001061002427301e-01 1.5069127758901524e-01 -1.9330239179519934e-01 -1.8109127912383496e-01 -8.8248550371924032e-03 2.6101157624294418e-02 2.9313702688031118e-01 3.2195259344950122e-03 -2.7307566617400780e-01 -1.9442839409035156e-01 2.4656651523698433e-01 2.2229778380675161e-01 1.6568363341583289e-01 -2.6268668457069089e-01 -2.7395379281910187e-01 -1.1925261459530043e-01 -2.1602753380903952e-01 -1.7898656600868401e-01 2.0366021601359710e-01 -3.1228567518495148e-01 -1.0882495239420070e-01 2.2029592069006385e-01 -1.8361321556061971e-01 1.6643482953236091e-01 2.0667841794686953e-01 7.4725140351641503e-02 -1.3352824363065319e-01 -2.5049355223942188e-01 1.8058984661126934e-01 6.6202497625879833e-02 -1.9997062961807144e-02 1.8159213131031982e-01 8.3434493337380553e-02 7.5169193676704840e-02 -2.9232309962946690e-01 6.5539039008330940e-02 1.7223040690382774e-01 -1.5781710656930875e-01 -2.4796856060965045e-01 -1.2995424202726089e-01 -2.8874142125033031e-01 -5.4636543283537620e-02 -5.4958427612296261e-03 2.1995800385951247e-01 6.2229329699133230e-02 -1.4018983069907442e-01 -1.8572506555723886e-01 
      </Biases>
    </Layer>
    <Layer ActivationFunction="3">
      <Weights rows="128" cols="128">
        1.1745471890169135e-01 -6.2405080370721532e-02 4.7537956352641825e-02 4.8025481184972248e-02 -1.6025303824443161e-02 -1.2215608754004594e-01 4.9577551863010882e-02 -3.2000462090022060e-02 1.2300187327851719e-02 -3.7951000850110920e-03 -4.3921755254480645e-02 3.8611405808627028e-02 8.7155275691412737e-02 -7.9359727154836662e-02 6.5417611904473672e-03 -1.0433564636536341e-01 -3.8002172492393307e-02 -8.2308650269389244e-02 -1.1923460133555470e-01 -1.0998470880872555e-01 8.8845954857178777e-02 6.8404475192143321e-02 3.1660111279926989e-02 9.5951993718488046e-02 -6.2101914369352119e-02 3.3605096207013727e-02 3.7180759987339197e-02 6.7843481619124013e-02 -1.1791796801694299e-01 -3.7080737921446102e-02 -5.2992808896746582e-02 2.2598987837832023e-02 1.2578480026809735e-01 -9.8135327286281535e-02 -3.0766149262053781e-02 -3.0842641265450076e-02 -9.4666929041677603e-02 -1.2125266203591188e-02 1.0461168513306679e-01 -4.8539004510954130e-02 1.1368613538488505e-02 -2.0843323043393949e-02 7.6269408299625432e-02 -1.0690199535115144e-01 4.1294603693274617e-02 -6.9828109333856123e-02 -9.7512404601226718e-02 6.5987181002105655e-02 -5.2962171242773526e-02 -1.4536921836454410e-02 1.0325339687527146e-01 -3.1051273590206253e-02 -1.0744756044394234e-01 -9.7427685584060425e-02 4.5041766358970899e-02 6.6186548599069472e-02 -1.3028059556111558e-02 1.1318626323911775e-01 -1.1056880872616318e-01 -1.1811240811586156e-01 5.2545817734711467e-02 -4.4217699911707563e-02 -6.7249837859275283e-03 9.5756856757631542e-02 1.1770081157197256e-01 5.7350892766963514e-02 -2.2280660583428031e-03 4.8386329464492799e-03 4.0653364806334961e-02 7.5138612014197512e-02 6.9264064308226680e-02 1.7003664110099164e-02 -1.1821950901240684e-02 1.1303132464205559e-01 -2.0812269748988803e-02 -8.9449869779358648e-02 -9.4924351385866440e-02 -1.0364087222107327e-01 4.4301999288735530e-02 -1.2457577011352546e-01 9.3287499616405534e-02 4.1752453687697991e-02 -1.2801304659151286e-01 -5.3628272383201551e-02 -1.8739886053453930e-02 1.2166399615918574e-01 1.2455318416261800e-01 2.9508651296914469e-02 -1.1692904966950428e-01 4.1138765407056049e-02 -3.3757446803542139e-02 -6.0840967039225320e-02 2.6373345770150734e-02 9.9147306419829773e-02 -9.5489013511547746e-02 -1.3039816513899859e-03 -2.7325252762898573e-03 -5.9590007780802007e-02 4.1091701245191750e-02 3.2891972199728156e-02 -2.7462446817481459e-02 8.0873431100221410e-02 1.1033722947533353e-01 -5.0601812050504194e-02 1.1177349502553953e-01 -7.0926619903700777e-02 -5.5748487373716092e-02 5.9795291927154763e-02 8.2863825575022945e-03 1.0384691134928375e-01 -3.2723967382399674e-02 -4.0334068891486642e-02 7.7632197442455309e-02 -1.1546986103808950e-01 -2.1263334011141957e-02 5.5528249427709994e-02 -8.8484870196692350e-02 -1.0721269819987621e-01 3.9786162538571132e-02 8.2741613775112272e-02 7.5892229619625634e-02 4.8888674156669518e-02 6.7780438641970184e-02 -2.1823907066253236e-02 -6.0087715057433114e-02 -5.4154518849829789e-02 -1.0228784516800464e-01 -9.4581438049077787e-02 -1.1430204042035920e-01 3.1175443698566636e-02 -4.8342691794102201e-02 -1.2628997176740847e-02 2.2343451757564151e-03 -3.5269944035326579e-02 -4.8072664124957754e-02 -2.2167974459786091e-02 8.4523819179986567e-02 4.4200282047567749e-02 -8.3975288036104948e-02 -2.7798650886687124e-02 -1.0846649019990928e-01 3.4838382968052070e-02 4.5827858821550736e-03 -8.0452994422207380e-02 -1.7440967775275224e-02 1.2378902296223476e-01 -1.0251020207635608e-01 -1.2210556186868754e-01 4.9592631911558986e-02 -2.8533413386447562e-02 -3.6621411002373053e-02 9.1404983079566515e-02 -6.4562143051691070e-02 -3.3001196140513195e-02 6.5262269650230423e-02 -2.6270058468977578e-02 6.6000483570234650e-02 6.8808396621496806e-02 1.2238161086467171e-01 -1.2378839273578147e-01 1.0678685766594241e-01 -2.8302078296565600e-02 -5.8612197714692903e-03 -7.7362356223624834e-02 -3.2218452182412927e-02 5.4624671638737483e-03 -1.7158571432528795e-02 2.1763828818765391e-02 7.7136856771732959e-02 -6.9067597403275491e-02 -4.8447120573583413e-02 1.1218878550853166e-01 -1.7854257838062632e-02 1.1902218991212837e-01 4.4436734276278547e-02 -2.1621894838734328e-02 -2.3354488013451725e-02 1.1251858325704026e-01 2.1765145133685222e-02 2.0481555714450726e-02 -1.3151462390197427e-02 1.4765266442735280e-02 1.0049422326785592e-02 -6.8132343630085079e-02 5.3526604552611046e-02 9.1422432347789823e-02 -5.9271330503659229e-02 7.7542259333958363e-02 1.0998166401742161e-01 -5.7975879703413578e-02 5.8340136426171051e-02 3.3190787741903607e-02 -4.6179360651968364e-02 3.0647775987325179e-02 -8.7557101078499969e-02 -7.9821646216003433e-02 -6.1440392175708923e-02 -6.5673505399403462e-02 -8.5055726377568197e-02 -7.9545184621286125e-02 -1.4426630410976428e-02 1.1943507519590242e-01 -8.1175091244818240e-02 -5.8800779395773016e-02 -5.7779997217482955e-02 -7.9550895284845782e-02 3.6990250419936380e-02 -8.9297912237459837e-02 -7.3581149831242329e-03 -1.4721739663580511e-02 2.6819276778919259e-03 -3.5076271418102649e-02 3.6853399097222350e-02 -5.8509363569150270e-02 -4.6241984172972005e-02 9.3004146170408322e-02 7.7654447920137828e-02 -6.7007441827377431e-02 1.1475820383411679e-02 7.7405464797144921e-03 -5.6180359075419364e-02 -1.6964620355450759e-02 -6.0087055725935840e-02 -9.0500369967419503e-02 3.4470258043063542e-02 -5.2160944167944118e-02 -9.3048511560926667e-02 -6.0638797526172038e-02 -1.1718092396003774e-01 -9.9609952720777162e-02 -6.6380818078543236e-02 2.6416294213196721e-02 6.2548658777339941e-03 -7.4920397311847589e-02 -6.0662911856587141e-02 3.5233430432842230e-02 8.1659967899301248e-03 -2.4155404649641309e-03 2.4926620936385695e-02 4.1351392915644949e-02 -1.0235203292147678e-01 -1.1072069289583016e-01 -5.4804850214732290e-02 1.1714047014882258e-01 -2.5018479578244639e-02 4.9146229390597792e-03 -8.6878471805022880e-02 -9.7353975139607724e-02 -1.7854706826751311e-02 -1.1173366391536435e-01 -4.5378486107512227e-03 5.8226206650549762e-02 -4.7357628622695866e-02 -4.6062677766139884e-02 -8.4796394104370384e-02 -2.7501848349136326e-02 8.0116130844004374e-02 -5.6043183194271519e-02 -2.8181846242784581e-02 9.5945842079024152e-02 -8.7755504824504074e-02 -7.8078708930997984e-02 6.2565190550992203e-02 -8.4734481028255065e-02 -1.1842937267700031e-01 -6.2452971496079722e-02 1.1013514368426264e-01 -7.2813096794144938e-02 6.8029622736892642e-02 7.8940111816505010e-02 -1.1348252163791644e-01 5.6291662182743125e-02 -1.2240018031144375e-02 -1.1630955901916874e-01 -1.1983900923985152e-01 -9.6567522860849270e-02 -1.1993184994938601e-01 1.6284967939409332e-02 9.5215930618999384e-02 7.1108020999630941e-02 4.6690170573092674e-02 8.2160504227921011e-02 4.2160886737293540e-02 -2.8411402962139013e-02 1.2325443927141314e-01 4.3654465814950784e-02 4.4049807787673048e-02 -4.3275655700436136e-02 -9.3044718609253618e-02 -8.9971426282165423e-02 1.0578244007089835e-01 6.2338424928372682e-03 -1.0466600602101318e-01 3.6862960641070218e-02 -1.2278619085970792e-01 1.0280095570402829e-01 -7.6665962233588951e-03 -1.2163841605418099e-01 -9.3323271684517595e-02 8.5574115841234089e-02 -7.1850616766601413e-02 3.9541272503971790e-02 4.4646570269313915e-02 1.0394736331684554e-01 -7.1884739229513078e-02 9.6737519323400106e-02 -6.6706678354859439e-02 -8.4058341876870807e-02 -3.9013003750804763e-02 7.0488184028465475e-02 -1.1511715017935296e-02 9.9136355611251656e-02 1.1621749531585771e-01 4.0914276849722007e-02 -3.5273923937101173e-02 1.0848850527111374e-01 -3.0167499258239854e-02 8.4665020863095464e-02 1.0569331392535042e-01 -1.2784278733189783e-01 -1.5376363245278642e-02 -1.1418704170083983e-01 -1.1120023777273302e-01 -1.1170711919520429e-01 -7.5623520235339303e-02 5.1200960469995282e-02 1.2630236361403224e-01 7.1126637089082942e-02 -5.6343354961809575e-02 -5.1487658992615162e-02 1.1861313563496562e-01 -1.8021888740435619e-02 1.2473356139992173e-01 -1.0671096846888354e-02 5.4972059844131005e-02 -1.2480414952240041e-02 -1.8215186986493452e-03 -1.0020684616341551e-01 3.2401160189317220e-02 6.5793223743433590e-02 5.5978868496068784e-02 7.6477517111054133e-02 -1.1271680672034531e-01 9.1900426393042078e-02 -9.0013520773323183e-02 1.0728674682097908e-01 7.4211870950012263e-02 -1.0147353880918811e-01 -3.7279531838931894e-02 -1.0583153311037229e-02 -4.6011018078443641e-03 5.7756509729189158e-02 1.2594894047452584e-01 1.0751565952059466e-01 -1.9304046193856995e-02 3.9161698167025770e-02 -5.3052444913745576e-02 -8.6236947180259330e-02 9.5565537064885617e-02 -5.1051142415858557e-02 2.7649300009082070e-02 -1.4707570210560888e-02 -3.0089790607720622e-02 1.2070456913082431e-01 -6.0472850239546454e-02 4.3368752429720013e-02 -5.9461736597420996e-02 1.0080463372325517e-02 1.9928042288575826e-02 -1.1564781784726919e-01 -2.8478527157154092e-02 8.6401947268053333e-03 -7.7623546940264382e-02 6.3879642846648418e-02 8.1293346275988915e-02 -9.9311670965617743e-02 -8.0367594001243811e-02 -7.0743957949521485e-02 3.5541737348875627e-02 1.2085804790149710e-02 -8.7666290676118544e-02 3.8069240876921269e-02 -2.6906831941585264e-02 -7.0233187224691476e-03 2.4598681602292387e-02 -1.0232217770593639e-01 1.0965762900451717e-01 6.3151758921196649e-02 2.0792355356543800e-02 1.1742921146535795e-01 -1.1663212447580514e-02 -2.3972350670802042e-02 8.3002166065340222e-02 -9.5495573186313368e-02 1.6637457477079974e-02 -1.2209135094734200e-01 -6.2222769745070086e-03 -6.8077009984110967e-02 1.2307905858529587e-01 -2.7582924252667809e-02 9.9318180329199160e-02 6.2351433094407147e-02 -1.1950737040636478e-01 -5.9730366721508610e-02 6.4154561557562301e-02 -6.4073773362624001e-02 7.1126150815187458e-02 8.8108231608304804e-02 8.0498352735807327e-02 4.4468822680730345e-02 1.0704106926464471e-03 2.8996112946364637e-02 9.8387988527890671e-02 4.5273326530082827e-02 6.5001768532739382e-02 -3.6404032309504383e-02 8.4777195718828517e-03 -4.3778560868408360e-02 1.1859442265189504e-01 3.4501434980610235e-03 -1.1570479680233149e-01 4.0185110070280132e-02 4.0394614349576169e-02 9.2304808791153339e-02 -1.0170482520673933e-01 -4.0878400336242494e-02 4.6512866425087507e-02 1.0684328770381725e-01 1.1737727790595574e-01 -8.8370371006196741e-02 4.1091141989862454e-02 7.2150891339441525e-02 -8.0510919204354769e-02 1.2106125558680866e-01 1.1342668153804186e-04 -1.2287838379228055e-01 -5.8858317017280476e-02 -9.3035765733835110e-02 1.2412178483715314e-01 6.6341355214905126e-02 -5.3393340111924537e-02 7.6548293832005315e-02 2.2786526587321717e-02 8.6433748147833805e-02 2.3709323066956538e-02 -9.2736237065859400e-02 1.2349204044805774e-02 -1.1812324495005919e-03 -1.1889733638247411e-01 9.9529164701168092e-03 2.2742120133952420e-02 -4.5086224027559560e-02 5.1420205084570549e-02 -7.3699531393625978e-02 1.0033268556818764e-02 5.2184941255148928e-02 3.7588478056053581e-03 -1.0673936490570009e-01 -5.4856700334074616e-02 9.3965739841562007e-02 3.9805556889355748e-02 -1.6562794127992456e-02 -4.6086018426118959e-02 9.0815881968630774e-02 1.1959455743081852e-01 -1.0780528715216180e-01 8.7437595386114703e-02 -3.1589590702229602e-02 8.8211382606296948e-02 -1.1666405292836926e-01 -5.4915219555295061e-02 2.4842380388876099e-02 -5.8961643686683753e-02 8.5116113846360739e-02 -8.9291077755393702e-02 7.1109812425519697e-02 3.5119854895509631e-02 -6.5639565404100056e-02 -7.0747846277433649e-02 8.2940896907603603e-02 -6.0151930695556299e-02 4.3204747794151212e-02 -9.8374716328123696e-02 -2.7996438523254601e-02 8.2447697589714153e-02 1.1791153448435927e-01 3.7644729625128388e-02 -1.1636111939115107e-01 7.3024981522640184e-02 2.8250133334632971e-02 -3.7874705131861960e-02 -6.5145751975698607e-02 -8.5641521033229986e-02 5.5067938341797469e-02 -4.1732572875056370e-02 2.3068783366919424e-02 -2.3929136175013136e-02 -4.3812884446215054e-02 8.9807254800442181e-03 -6.3033098665794211e-03 -5.0070851584846317e-02 -2.9216396848334044e-02 -1.1116204992688233e-01 -1.2382983055677475e-01 9.0262765555491023e-02 -4.0006301309092130e-03 2.4927241870146739e-02 -8.8854781134903416e-02 -1.1833189088937229e-01 -1.4141367328485836e-02 -5.1969399633865147e-02 3.0684374559455545e-02 8.9609975999357730e-02 2.8773762244404779e-02 3.1054491482959138e-02 -2.0401652161968251e-02 1.2127245267155151e-01 3.5279077992984624e-02 -8.3041411732918596e-02 1.0160591344864908e-02 8.4773621202167851e-04 3.7261840733136514e-02 6.2536598117558406e-02 -1.1600823765577311e-02 5.8386545826096169e-02 -1.0193595198445794e-01 -1.1522218599492007e-01 -5.5535563789892673e-03 -8.5258683285581796e-02 2.6559182291705431e-02 8.3418871600596162e-02 1.4408050495883916e-02 1.1169823384615835e-01 -7.4463050709045672e-03 -9.4169873589689979e-02 -1.2489622931704254e-01 -1.7523809402186032e-02 1.2206898780574756e-01 1.6102983885325946e-02 -9.2222987843832163e-02 -1.1401519245793287e-01 -7.3360115689777530e-02 7.2457455517217426e-02 3.9355191065239985e-02 -5.5770404732341308e-02 1.0700549901879788e-01 1.1230796194354718e-01 -5.2163517455817071e-02 -4.4381471357819093e-02 1.0087047236182356e-01 6.7326980923114843e-02 4.7638763884892368e-02 -1.1134991045262169e-01 -6.2341933479003403e-03 1.5984504404831637e-02 1.0597477297213372e-01 5.7052837796724730e-02 6.4168228031891858e-02 -5.3607702217231649e-02 -2.0074115287444873e-02 3.1288662532445152e-02 -1.0871237051694051e-02 -5.8436247569271925e-02 -3.4866511535431781e-03 7.5517537816908301e-02 8.1016411948259537e-02 8.6129998643572112e-02 8.3142186745189334e-02 3.8749313332294394e-02 -1.2340637616512658e-01 1.1677574014664779e-01 5.3723524686648642e-02 1.3977083895644027e-02 -7.1330116200435931e-02 -9.5607119364448906e-02 -1.1138356861082087e-01 -9.7287653058680590e-02 -2.7215829493376583e-02 -8.9328229588736180e-02 -6.9430579896561276e-02 1.0420484282310538e-01 6.0696417522253410e-02 -9.3805806653493556e-02 -3.0987573952356115e-02 9.1341404353870240e-03 -1.9699871199323038e-02 -8.4630369505750130e-03 -1.2585038669914722e-01 2.7436087360386812e-02 1.0428058072033399e-02 -1.0042250382447010e-01 -1.0669150626330416e-01 6.1947726676671547e-02 5.2101816000888840e-02 1.9185150123068800e-02 -8.2042812756035033e-02 1.2635809046852922e-01 1.1362694415191738e-01 8.0750477542096549e-02 -1.0744846932983861e-01 1.0075528448230173e-01 1.1808385805485268e-01 4.2387424470446931e-02 -1.1752019785908506e-01 1.0218572302502590e-01 1.7593766128594823e-02 6.6802092210296302e-02 6.9265604445810480e-02 2.4018752940137715e-02 -3.6026531002127792e-02 1.0621387856075341e-01 8.2881581266932361e-02 -1.3701825307062850e-02 -6.0377952788251983e-02 -2.7896231418032616e-03 7.2778629585628588e-03 -1.2013793238249058e-01 -2.2672444373053064e-03 -8.8744566815107770e-02 -6.2530674637588032e-02 -1.0916105638089410e-01 -5.2500319461395500e-03 -9.4885971292188176e-02 4.2114853553026278e-02 -9.4055281394927762e-02 -5.1909040433151234e-02 -5.5537741883329099e-02 -6.9681823240965085e-02 -2.1360088344328666e-02 -1.1197887584616049e-01 1.1008601715960485e-02 -2.8414998046119650e-02 -2.5051829445719872e-02 1.2878977110122872e-01 -8.3065995873870133e-02 5.3485294956942132e-02 -3.5004592358342586e-02 6.2613791177353245e-02 8.5304754136074823e-04 4.4212784277763671e-02 -3.8371033005416425e-03 1.1476233973318974e-01 6.2451095778551444e-03 9.7084715499772864e-02 1.4587612452115069e-02 -1.1129434790604031e-01 1.2048911035356599e-01 -5.7525425469755725e-02 -5.2993533674973226e-02 -4.4483535091260608e-02 1.2073270603734289e-01 -9.2206260296428658e-02 7.2902790544748283e-02 4.5498282288507885e-02 -4.3122389954417570e-02 -8.7024422693884010e-02 1.2097019083402998e-01 9.7008824242659983e-02 -1.1591767184322645e-01 -3.6678563527296940e-02 -7.3583592948404788e-02 -8.3800388015585356e-02 -1.1258727718638110e-01 5.5884504375152390e-02 -6.3747692120314683e-02 -4.9735112649657326e-02 -6.1636541570907449e-02 8.0946998513252780e-02 -7.0540609854186254e-02 -3.1850561642584603e-02 -1.1876230426247102e-01 -1.5890789754586191e-02 9.4525881398475592e-02 3.4564581469112135e-02 1.1094713673969576e-01 -1.0917220351117361e-01 -4.5601199608989930e-02 1.1051444412228556e-01 4.5013651590156883e-02 -4.0856775120639531e-02 3.8752553746505138e-02 4.4339413750834056e-02 -7.0161789649448525e-02 -3.9425378083412052e-02 -2.9311733062879063e-02 -9.2594008254713644e-02 -1.0015462492120601e-01 -4.0599016173174102e-02 5.3784818431754110e-02 1.0581587489818493e-01 5.0328897563282030e-02 5.3840761315568975e-02 9.1693037891977924e-03 3.0222483255522702e-02 -6.6698796839485305e-02 2.7032329544513468e-03 9.5363732561546302e-02 1.1695860417096797e-01 2.0834482250603054e-02 1.5785407068225336e-02 -3.1165410077016092e-02 3.1634972411498825e-02 2.6716275421561051e-02 5.8125181975857206e-02 -1.0894293249173773e-01 -1.9762953000608902e-02 2.4816630729567156e-02 -2.2727848512407250e-02 -1.1684723018434780e-01 -9.2353810754667864e-02 9.5128382160756225e-02 -4.1778707722976739e-02 8.5857649314422760e-02 -4.4637378353026329e-02 -4.9161527780084174e-02 -7.3922332428591780e-02 1.0064069264825973e-01 -1.1740381875682313e-01 -1.1496245513243616e-01 6.5874161375873277e-02 1.1010705355550041e-01 2.9785850007337172e-02 4.0281314421220602e-03 8.5403816043596995e-02 -9.0454728184758929e-02 1.1972068822930762e-02 6.2992429634010236e-02 5.9569265555384346e-02 -4.4438578751614485e-02 -4.7661863568408951e-02 5.9260559783456089e-02 -9.0485607673605126e-02 -7.7418354121178784e-02 7.0133924247363005e-02 3.2895361691047835e-02 -7.3478294458273766e-02 5.1719249178157130e-02 -4.4747836739558462e-02 -3.3572120294237048e-02 -6.1173696960318893e-02 -4.3461276710908742e-02 8.8627947753286973e-02 5.7449974300522330e-02 -3.0708754967077898e-02 -7.6189238866063269e-02 -3.2732532425789412e-02 -5.4349667582178303e-02 2.5004767901063266e-02 -1.0790985061083325e-01 1.3571281150884819e-03 -7.1540952918833750e-02 7.3408121348977604e-02 1.1480519813430247e-01 -3.2240197447649686e-02 -9.2621065968246895e-03 4.5096215495039164e-02 6.0709679814094801e-02 -2.2671207342511171e-02 5.8733131421736445e-02 -1.0953794208616179e-01 2.2266446865736460e-02 2.3331351380275495e-02 3.8911704756650904e-03 1.2108752523136833e-01 -9.6072320611529580e-02 9.5803938951059112e-02 -9.8684428779790806e-02 -9.8626347006751025e-05 1.0570442983974628e-01 -1.1150433806798817e-02 -1.0942092943816073e-01 -6.2490281726744808e-03 -1.2633651956255747e-02 4.1115321083081365e-02 4.6488008412807980e-02 1.1960680645773818e-01 8.0055449823659447e-02 -1.0456296917608308e-01 1.1773092348023240e-01 -1.1129174933743005e-01 1.1305690908397860e-01 5.9321290306442766e-02 3.9770608932788443e-02 -1.1715137427925439e-01 1.1510275978176429e-02 7.6991376162921829e-02 1.0322011901173736e-01 -1.8063597596486031e-02 1.0346633411769528e-01 -4.0596293563536757e-02 9.4825214470636333e-03 -9.3334393549378961e-02 -3.4596759864911890e-02 5.9385702547938526e-02 2.9085060079314311e-02 7.4631559671037420e-02 -8.0859399335042589e-02 -2.8614168326018550e-03 8.2147497544683604e-02 6.9560981177115608e-02 -4.2264329477685991e-02 -1.2374230680769323e-02 -2.4217062269528081e-02 -8.9909353411377485e-02 3.9884267382411985e-02 -1.1334749663632107e-01 1.1210768560172278e-01 -1.1069585579939491e-01 -3.3890726986872600e-02 -1.3112846810277388e-02 -1.0581008031700079e-01 -6.2789012149502860e-02 -3.9275244762210552e-02 -8.3092620127218506e-02 1.0974021261214047e-01 -1.0796437219456181e-01 -7.1601679196849691e-03 -1.1200407757541661e-01 5.7234526315189460e-03 -3.4944520599005588e-03 1.9696943871647912e-02 2.1434999947731240e-02 6.0013661154939280e-02 -8.8429183344767737e-02 -2.5495557957748460e-03 7.0697401232621918e-03 -1.0307918411485854e-01 1.8947709327858348e-02 5.9175465152419351e-02 1.0036066446909196e-01 -6.7206557059427505e-02 7.4879507408336737e-02 -1.3732705576687477e-02 -4.9806634617052939e-02 3.5715923908707279e-03 -6.6202477483444613e-02 1.5352241972592941e-02 -3.8869447194631722e-02 1.2386292280529285e-01 4.7686936940788842e-02 7.6015021680331349e-02 7.0960487534787717e-02 1.0152643679869643e-01 -1.1471778778157504e-01 6.9545947014247794e-02 -1.3279769586835702e-02 -3.3199190926836854e-02 4.2498044944734414e-02 1.0575076774453014e-01 8.8594777041317546e-02 -8.3872536214318255e-02 -1.8209809543265787e-02 5.1992157514472018e-02 1.2222045257768134e-01 -4.7274174986093057e-02 3.6521964880333352e-02 6.1868180155778378e-03 3.7865241578830942e-02 -8.6907687043189977e-02 8.7400794006126672e-02 -5.3314065565808352e-02 -1.0364415463124976e-01 5.6372522476149121e-02 -4.3100802502391254e-02 -8.0573651705373672e-02 -1.1553486714909203e-01 1.1513028665793010e-03 -9.3738717134537769e-02 2.0010882293409086e-02 -2.4529334515242057e-02 -9.7935909052703482e-02 -6.2973370868697670e-02 9.2850922934364186e-02 3.3347464020186027e-02 -4.8334810838893183e-02 -2.8576911401662183e-02 3.5527571859362048e-02 -8.8556657941579062e-02 -2.3585667889912301e-02 -1.0978190543526266e-01 -1.2122072089733490e-01 -5.0406570497946418e-02 -6.3887253132384567e-02 -1.1946089794104550e-01 1.5734422459068555e-02 -4.9142379145715731e-02 -1.1654652981485937e-01 1.1026163221867410e-02 7.1106030792818423e-02 1.2534298032146224e-01 4.9139023343845623e-02 -1.0486416625291376e-03 6.7662767430327939e-02 -1.0804693687862418e-01 -5.0954609063991463e-02 6.1450290414335161e-02 -3.5749524178359263e-02 1.6005572049458024e-02 -4.9144201337147871e-02 3.3044443741711551e-03 -6.9379512138561916e-02 -2.0194804137684080e-02 1.4064700125849587e-02 -6.7726099994093139e-02 -7.5965021978149097e-02 -6.6354797642345517e-02 7.8645674162794957e-02 2.1257055125737750e-02 7.2437735188429900e-02 5.3468473066391943e-02 1.2218327432847184e-01 -6.3287495390085297e-02 -1.1713266533733246e-01 -8.3199695870767712e-02 3.4583268898702578e-02 -1.8091305146766769e-03 -8.6283360701646411e-02 7.5958460448024026e-02 5.5896717948603306e-02 -9.9436804504111478e-02 -8.8016453922666979e-02 5.2148488395106864e-02 -7.0083427488499786e-02 2.1925902797008383e-02 -8.5111440302871374e-03 -1.0977758784165989e-01 -1.2374389495764263e-01 -5.1312432571691512e-02 -1.0033329737044318e-01 -1.8892123717697330e-03 -1.1242075289189861e-01 6.0262696103982175e-02 -5.9227447440099661e-02 1.2419979368200756e-01 -4.1811077088475139e-02 -6.0918204526879786e-03 -1.1307896217255654e-04 1.1786990981101926e-01 5.1728059725232060e-03 9.7038312160905471e-02 4.9622494738826330e-02 -9.8715528977769570e-02 5.9824770873916758e-02 -5.7658029355212054e-02 3.3141065040450343e-03 -9.3338336134167768e-02 1.8181507632773510e-02 -3.9986737819284197e-02 4.2269453762358133e-02 6.3231149068863068e-02 -2.8512092559338117e-02 -1.0795189153406833e-02 -5.2025192819682008e-02 -4.0819845056287593e-02 7.0087483354254826e-02 9.7162558828547019e-02 2.9878425082555039e-02 -7.6553962425538191e-02 5.3290038384955198e-02 2.2256120163869131e-02 1.2237878448274331e-01 -4.1780792445945012e-03 7.0654583025038756e-02 1.0850696215444113e-01 -7.6043522653300069e-02 -6.1953841177279367e-02 -7.8384604990175646e-02 -1.4077232354085666e-02 6.4381253166661573e-02 -9.5709214843684817e-02 -6.9775807165896264e-02 7.6408789408721034e-02 -9.7737036730403348e-02 -8.7474896839752708e-02 1.1596990374536174e-01 -1.0937686176051301e-02 -4.3381368237857326e-04 -1.3954732651727487e-04 1.0682309876818273e-01 -8.6922976243848857e-02 -6.4482079506248532e-03 -3.9297399974834002e-02 -4.6317719638134393e-02 3.6596082948805946e-02 6.7542471229524614e-02 3.1416884375955134e-02 -1.1406988574800629e-01 -5.2153910236395311e-02 8.1252148810899580e-02 1.1402552000233566e-01 5.8940682470045386e-02 -1.0261115630027434e-01 5.8374079485288333e-02 1.0662382992103597e-01 1.2141284032281627e-01 4.4195585787884344e-02 -9.0988640263913068e-02 -7.7887932150769279e-02 5.0052838488634947e-02 8.4546194654754672e-02 9.5812052642693213e-02 2.1417605741334840e-02 -4.6278429643010481e-02 -1.1010980770403615e-01 -2.4372442307358154e-02 7.2524296572476651e-02 -8.9220618287471250e-03 -5.7058131682201970e-03 9.5993218091360957e-05 6.6058855581608714e-03 4.7680298456065272e-02 1.6550624434241629e-02 1.4872327900909428e-02 -9.9587358837675402e-02 9.4561196194337532e-03 -1.0149660825387392e-01 -7.5031078332503359e-02 -9.4766475681357168e-02 2.1181155360028910e-02 1.1183172070735091e-01 9.3311605476994255e-02 4.3063769222907158e-03 -3.4546147581765232e-02 -3.5817566831982846e-02 2.1853467481031522e-02 -1.0030373543297155e-01 3.7621731141391355e-02 1.1198407688703764e-01 1.6416920213904923e-02 -7.6745970713184106e-02 -7.3690968051384947e-02 4.0704963552168232e-02 9.4321966220912070e-03 -7.4121897787104178e-03 5.2440563017952614e-02 -1.2039900016362934e-01 -6.1705542343547325e-02 6.6822026729196196e-02 3.7073753925819318e-02 -3.5792662920352811e-02 9.9159330604687845e-02 -8.5143457729301750e-02 -2.2146472663477561e-02 1.0684150426065685e-01 4.0453225145288901e-02 -7.2086484487537822e-02 -4.6194939880404545e-02 -9.7539061627935405e-03 9.3344616654076285e-02 -5.6857767965139951e-02 -1.0336970705618836e-01 1.0761675438394766e-01 1.2455843986004139e-01 -9.5971788095084942e-02 -6.3610509480467384e-02 1.1889877315199580e-01 -4.4003564518014106e-02 -1.1501368127271769e-01 -3.2541385769466066e-02 8.1905993279998715e-02 4.1592018017929874e-02 3.7591829685420165e-02 -7.8641391671765579e-02 -1.8945995765048705e-02 -8.5682111796695354e-02 -2.2010026821197310e-02 -4.1602428787643787e-03 -1.5129402404906999e-02 -5.6518108709340938e-02 -9.1310222336106722e-02 -8.6892918157316423e-02 -1.6132077159052672e-02 -1.1068854982945817e-01 1.2256080129255106e-02 -2.9087803127874814e-02 -1.0231629969215075e-02 -9.9391025033259431e-02 3.1949344839306282e-02 -8.9000232489574338e-02 8.9479968034951330e-03 -5.2522750597984898e-02 -2.2037546524480922e-02 2.0332408868929900e-02 4.3159358608638940e-02 1.0577842853247052e-01 -1.0663948051707259e-01 -5.2847427409031499e-02 -9.0867003862447719e-03 4.0212905382011471e-02 -1.2348489493930487e-01 -3.3973684652485428e-03 -1.0184468822712080e-01 1.1830661721573979e-01 8.9394853103177088e-02 1.2178690595344994e-01 1.1817272283944051e-01 1.0994069347411968e-01 