<?xml version="1.0"?>
<MethodSetup Method="MLP::MLP">
  <GeneralInfo>
    <Info name="TMVA Release" value="4.2.1 [262657]"/>
    <Info name="ROOT Release" value="6.08/07 [395271]"/>
    <Info name="Creator" value="wverbeke"/>
    <Info name="Date" value="Wed Nov 22 18:49:49 2017"/>
    <Info name="Host" value="Linux vocms0302.cern.ch 2.6.32-696.1.1.el6.x86_64 #1 SMP Wed Apr 12 08:44:28 CEST 2017 x86_64 x86_64 x86_64 GNU/Linux"/>
    <Info name="Dir" value="/storage_mnt/storage/user/wverbeke/Work/AnalysisCode/ewkino/bdtTraining"/>
    <Info name="Training events" value="222800"/>
    <Info name="TrainingTime" value="2.74518132e+03"/>
    <Info name="AnalysisType" value="Classification"/>
  </GeneralInfo>
  <Options>
    <Option name="NCycles" modified="Yes">600</Option>
    <Option name="HiddenLayers" modified="Yes">N+5</Option>
    <Option name="NeuronType" modified="Yes">tanh</Option>
    <Option name="RandomSeed" modified="No">1</Option>
    <Option name="EstimatorType" modified="No">CE</Option>
    <Option name="NeuronInputType" modified="No">sum</Option>
    <Option name="V" modified="Yes">False</Option>
    <Option name="VerbosityLevel" modified="No">Default</Option>
    <Option name="VarTransform" modified="Yes">N</Option>
    <Option name="H" modified="Yes">True</Option>
    <Option name="CreateMVAPdfs" modified="No">False</Option>
    <Option name="IgnoreNegWeightsInTraining" modified="No">False</Option>
    <Option name="TrainingMethod" modified="No">BP</Option>
    <Option name="LearningRate" modified="No">2.000000e-02</Option>
    <Option name="DecayRate" modified="No">1.000000e-02</Option>
    <Option name="TestRate" modified="Yes">5</Option>
    <Option name="EpochMonitoring" modified="No">False</Option>
    <Option name="Sampling" modified="No">1.000000e+00</Option>
    <Option name="SamplingEpoch" modified="No">1.000000e+00</Option>
    <Option name="SamplingImportance" modified="No">1.000000e+00</Option>
    <Option name="SamplingTraining" modified="No">True</Option>
    <Option name="SamplingTesting" modified="No">False</Option>
    <Option name="ResetStep" modified="No">50</Option>
    <Option name="Tau" modified="No">3.000000e+00</Option>
    <Option name="BPMode" modified="No">sequential</Option>
    <Option name="BatchSize" modified="No">-1</Option>
    <Option name="ConvergenceImprove" modified="No">1.000000e-30</Option>
    <Option name="ConvergenceTests" modified="No">-1</Option>
    <Option name="UseRegulator" modified="Yes">False</Option>
    <Option name="UpdateLimit" modified="No">10000</Option>
    <Option name="CalculateErrors" modified="No">False</Option>
    <Option name="WeightRange" modified="No">1.000000e+00</Option>
  </Options>
  <Variables NVar="19">
    <Variable VarIndex="0" Expression="topMass" Label="topMass" Title="topMass" Unit="" Internal="topMass" Type="F" Min="0.00000000e+00" Max="4.13083252e+03"/>
    <Variable VarIndex="1" Expression="pTForwardJets" Label="pTForwardJets" Title="pTForwardJets" Unit="" Internal="pTForwardJets" Type="F" Min="0.00000000e+00" Max="6.14603882e+02"/>
    <Variable VarIndex="2" Expression="etaMostForward" Label="etaMostForward" Title="etaMostForward" Unit="" Internal="etaMostForward" Type="F" Min="3.27013107e-03" Max="5.25781250e+00"/>
    <Variable VarIndex="3" Expression="pTLeadingJet" Label="pTLeadingJet" Title="pTLeadingJet" Unit="" Internal="pTLeadingJet" Type="F" Min="2.50550404e+01" Max="1.71022925e+03"/>
    <Variable VarIndex="4" Expression="pTLeadingLepton" Label="pTLeadingLepton" Title="pTLeadingLepton" Unit="" Internal="pTLeadingLepton" Type="F" Min="2.50396080e+01" Max="1.12119299e+03"/>
    <Variable VarIndex="5" Expression="mNotSoForwardJets" Label="mNotSoForwardJets" Title="mNotSoForwardJets" Unit="" Internal="mNotSoForwardJets" Type="F" Min="0.00000000e+00" Max="7.90751172e+03"/>
    <Variable VarIndex="6" Expression="pTLeadingBJet" Label="pTLeadingBJet" Title="pTLeadingBJet" Unit="" Internal="pTLeadingBJet" Type="F" Min="2.50002232e+01" Max="1.20835571e+03"/>
    <Variable VarIndex="7" Expression="missingET" Label="missingET" Title="missingET" Unit="" Internal="missingET" Type="F" Min="1.37234628e-01" Max="1.02472314e+03"/>
    <Variable VarIndex="8" Expression="highestDeepCSV" Label="highestDeepCSV" Title="highestDeepCSV" Unit="" Internal="highestDeepCSV" Type="F" Min="-2.00000000e+00" Max="9.99997139e-01"/>
    <Variable VarIndex="9" Expression="maxMjj" Label="maxMjj" Title="maxMjj" Unit="" Internal="maxMjj" Type="F" Min="0.00000000e+00" Max="6.90522168e+03"/>
    <Variable VarIndex="10" Expression="asymmetryWlep" Label="asymmetryWlep" Title="asymmetryWlep" Unit="" Internal="asymmetryWlep" Type="F" Min="-2.49952292e+00" Max="2.49918556e+00"/>
    <Variable VarIndex="11" Expression="etaZ" Label="etaZ" Title="etaZ" Unit="" Internal="etaZ" Type="F" Min="3.55485827e-06" Max="7.10353661e+00"/>
    <Variable VarIndex="12" Expression="m3l" Label="m3l" Title="m3l" Unit="" Internal="m3l" Type="F" Min="8.05780334e+01" Max="1.91306055e+03"/>
    <Variable VarIndex="13" Expression="maxDeltaPhijj" Label="maxDeltaPhijj" Title="maxDeltaPhijj" Unit="" Internal="maxDeltaPhijj" Type="F" Min="2.38418579e-07" Max="3.14159250e+00"/>
    <Variable VarIndex="14" Expression="maxDeltaRjj" Label="maxDeltaRjj" Title="maxDeltaRjj" Unit="" Internal="maxDeltaRjj" Type="F" Min="3.86572540e-01" Max="1.03208532e+01"/>
    <Variable VarIndex="15" Expression="maxDeltaPhill" Label="maxDeltaPhill" Title="maxDeltaPhill" Unit="" Internal="maxDeltaPhill" Type="F" Min="1.03464127e-02" Max="3.14159179e+00"/>
    <Variable VarIndex="16" Expression="pT3l" Label="pT3l" Title="pT3l" Unit="" Internal="pT3l" Type="F" Min="2.88553387e-01" Max="1.50189575e+03"/>
    <Variable VarIndex="17" Expression="mForwardJetsLeadinBJetW" Label="mForwardJetsLeadinBJetW" Title="mForwardJetsLeadinBJetW" Unit="" Internal="mForwardJetsLeadinBJetW" Type="F" Min="0.00000000e+00" Max="1.07120068e+04"/>
    <Variable VarIndex="18" Expression="ht" Label="ht" Title="ht" Unit="" Internal="ht" Type="F" Min="5.01036263e+01" Max="2.83466162e+03"/>
  </Variables>
  <Spectators NSpec="0"/>
  <Classes NClass="2">
    <Class Name="Signal" Index="0"/>
    <Class Name="Background" Index="1"/>
  </Classes>
  <Transformations NTransformations="1">
    <Transform Name="Normalize">
      <Selection>
        <Input NInputs="19">
          <Input Type="Variable" Label="topMass" Expression="topMass"/>
          <Input Type="Variable" Label="pTForwardJets" Expression="pTForwardJets"/>
          <Input Type="Variable" Label="etaMostForward" Expression="etaMostForward"/>
          <Input Type="Variable" Label="pTLeadingJet" Expression="pTLeadingJet"/>
          <Input Type="Variable" Label="pTLeadingLepton" Expression="pTLeadingLepton"/>
          <Input Type="Variable" Label="mNotSoForwardJets" Expression="mNotSoForwardJets"/>
          <Input Type="Variable" Label="pTLeadingBJet" Expression="pTLeadingBJet"/>
          <Input Type="Variable" Label="missingET" Expression="missingET"/>
          <Input Type="Variable" Label="highestDeepCSV" Expression="highestDeepCSV"/>
          <Input Type="Variable" Label="maxMjj" Expression="maxMjj"/>
          <Input Type="Variable" Label="asymmetryWlep" Expression="asymmetryWlep"/>
          <Input Type="Variable" Label="etaZ" Expression="etaZ"/>
          <Input Type="Variable" Label="m3l" Expression="m3l"/>
          <Input Type="Variable" Label="maxDeltaPhijj" Expression="maxDeltaPhijj"/>
          <Input Type="Variable" Label="maxDeltaRjj" Expression="maxDeltaRjj"/>
          <Input Type="Variable" Label="maxDeltaPhill" Expression="maxDeltaPhill"/>
          <Input Type="Variable" Label="pT3l" Expression="pT3l"/>
          <Input Type="Variable" Label="mForwardJetsLeadinBJetW" Expression="mForwardJetsLeadinBJetW"/>
          <Input Type="Variable" Label="ht" Expression="ht"/>
        </Input>
        <Output NOutputs="19">
          <Output Type="Variable" Label="topMass" Expression="topMass"/>
          <Output Type="Variable" Label="pTForwardJets" Expression="pTForwardJets"/>
          <Output Type="Variable" Label="etaMostForward" Expression="etaMostForward"/>
          <Output Type="Variable" Label="pTLeadingJet" Expression="pTLeadingJet"/>
          <Output Type="Variable" Label="pTLeadingLepton" Expression="pTLeadingLepton"/>
          <Output Type="Variable" Label="mNotSoForwardJets" Expression="mNotSoForwardJets"/>
          <Output Type="Variable" Label="pTLeadingBJet" Expression="pTLeadingBJet"/>
          <Output Type="Variable" Label="missingET" Expression="missingET"/>
          <Output Type="Variable" Label="highestDeepCSV" Expression="highestDeepCSV"/>
          <Output Type="Variable" Label="maxMjj" Expression="maxMjj"/>
          <Output Type="Variable" Label="asymmetryWlep" Expression="asymmetryWlep"/>
          <Output Type="Variable" Label="etaZ" Expression="etaZ"/>
          <Output Type="Variable" Label="m3l" Expression="m3l"/>
          <Output Type="Variable" Label="maxDeltaPhijj" Expression="maxDeltaPhijj"/>
          <Output Type="Variable" Label="maxDeltaRjj" Expression="maxDeltaRjj"/>
          <Output Type="Variable" Label="maxDeltaPhill" Expression="maxDeltaPhill"/>
          <Output Type="Variable" Label="pT3l" Expression="pT3l"/>
          <Output Type="Variable" Label="mForwardJetsLeadinBJetW" Expression="mForwardJetsLeadinBJetW"/>
          <Output Type="Variable" Label="ht" Expression="ht"/>
        </Output>
      </Selection>
      <Class ClassIndex="0">
        <Ranges>
          <Range Index="0" Min="0.0000000000000000e+00" Max="4.1308325195312500e+03"/>
          <Range Index="1" Min="0.0000000000000000e+00" Max="5.9586614990234375e+02"/>
          <Range Index="2" Min="5.7866152375936508e-02" Max="5.1014590263366699e+00"/>
          <Range Index="3" Min="2.5414291381835938e+01" Max="1.2070167236328125e+03"/>
          <Range Index="4" Min="2.5221763610839844e+01" Max="9.5040502929687500e+02"/>
          <Range Index="5" Min="0.0000000000000000e+00" Max="7.9075117187500000e+03"/>
          <Range Index="6" Min="2.5000484466552734e+01" Max="9.0312213134765625e+02"/>
          <Range Index="7" Min="2.5713309645652771e-01" Max="6.9178784179687500e+02"/>
          <Range Index="8" Min="-2.0000000000000000e+00" Max="9.9999713897705078e-01"/>
          <Range Index="9" Min="0.0000000000000000e+00" Max="6.9052216796875000e+03"/>
          <Range Index="10" Min="-2.4995229244232178e+00" Max="2.4976141452789307e+00"/>
          <Range Index="11" Min="3.5548582673072815e-06" Max="6.6987223625183105e+00"/>
          <Range Index="12" Min="8.1177528381347656e+01" Max="1.9130605468750000e+03"/>
          <Range Index="13" Min="2.3841857910156250e-07" Max="3.1415925025939941e+00"/>
          <Range Index="14" Min="3.9674183726310730e-01" Max="1.0320853233337402e+01"/>
          <Range Index="15" Min="1.7146348953247070e-02" Max="3.1415655612945557e+00"/>
          <Range Index="16" Min="5.2739834785461426e-01" Max="9.7683941650390625e+02"/>
          <Range Index="17" Min="0.0000000000000000e+00" Max="1.0712006835937500e+04"/>
          <Range Index="18" Min="5.0604114532470703e+01" Max="2.0113192138671875e+03"/>
        </Ranges>
      </Class>
      <Class ClassIndex="1">
        <Ranges>
          <Range Index="0" Min="0.0000000000000000e+00" Max="3.3365661621093750e+03"/>
          <Range Index="1" Min="0.0000000000000000e+00" Max="6.1460388183593750e+02"/>
          <Range Index="2" Min="3.2701310701668262e-03" Max="5.2578125000000000e+00"/>
          <Range Index="3" Min="2.5055040359497070e+01" Max="1.7102292480468750e+03"/>
          <Range Index="4" Min="2.5039608001708984e+01" Max="1.1211929931640625e+03"/>
          <Range Index="5" Min="0.0000000000000000e+00" Max="7.5570957031250000e+03"/>
          <Range Index="6" Min="2.5000223159790039e+01" Max="1.2083557128906250e+03"/>
          <Range Index="7" Min="1.3723462820053101e-01" Max="1.0247231445312500e+03"/>
          <Range Index="8" Min="-2.0000000000000000e+00" Max="9.9999171495437622e-01"/>
          <Range Index="9" Min="0.0000000000000000e+00" Max="6.6139243164062500e+03"/>
          <Range Index="10" Min="-2.4993782043457031e+00" Max="2.4991855621337891e+00"/>
          <Range Index="11" Min="1.9249042452429421e-05" Max="7.1035366058349609e+00"/>
          <Range Index="12" Min="8.0578033447265625e+01" Max="1.7380347900390625e+03"/>
          <Range Index="13" Min="1.8954277038574219e-05" Max="3.1415920257568359e+00"/>
          <Range Index="14" Min="3.8657253980636597e-01" Max="1.0085276603698730e+01"/>
          <Range Index="15" Min="1.0346412658691406e-02" Max="3.1415917873382568e+00"/>
          <Range Index="16" Min="2.8855338692665100e-01" Max="1.5018957519531250e+03"/>
          <Range Index="17" Min="0.0000000000000000e+00" Max="9.4116679687500000e+03"/>
          <Range Index="18" Min="5.0103626251220703e+01" Max="2.8346616210937500e+03"/>
        </Ranges>
      </Class>
      <Class ClassIndex="2">
        <Ranges>
          <Range Index="0" Min="0.0000000000000000e+00" Max="4.1308325195312500e+03"/>
          <Range Index="1" Min="0.0000000000000000e+00" Max="6.1460388183593750e+02"/>
          <Range Index="2" Min="3.2701310701668262e-03" Max="5.2578125000000000e+00"/>
          <Range Index="3" Min="2.5055040359497070e+01" Max="1.7102292480468750e+03"/>
          <Range Index="4" Min="2.5039608001708984e+01" Max="1.1211929931640625e+03"/>
          <Range Index="5" Min="0.0000000000000000e+00" Max="7.9075117187500000e+03"/>
          <Range Index="6" Min="2.5000223159790039e+01" Max="1.2083557128906250e+03"/>
          <Range Index="7" Min="1.3723462820053101e-01" Max="1.0247231445312500e+03"/>
          <Range Index="8" Min="-2.0000000000000000e+00" Max="9.9999713897705078e-01"/>
          <Range Index="9" Min="0.0000000000000000e+00" Max="6.9052216796875000e+03"/>
          <Range Index="10" Min="-2.4995229244232178e+00" Max="2.4991855621337891e+00"/>
          <Range Index="11" Min="3.5548582673072815e-06" Max="7.1035366058349609e+00"/>
          <Range Index="12" Min="8.0578033447265625e+01" Max="1.9130605468750000e+03"/>
          <Range Index="13" Min="2.3841857910156250e-07" Max="3.1415925025939941e+00"/>
          <Range Index="14" Min="3.8657253980636597e-01" Max="1.0320853233337402e+01"/>
          <Range Index="15" Min="1.0346412658691406e-02" Max="3.1415917873382568e+00"/>
          <Range Index="16" Min="2.8855338692665100e-01" Max="1.5018957519531250e+03"/>
          <Range Index="17" Min="0.0000000000000000e+00" Max="1.0712006835937500e+04"/>
          <Range Index="18" Min="5.0103626251220703e+01" Max="2.8346616210937500e+03"/>
        </Ranges>
      </Class>
    </Transform>
  </Transformations>
  <MVAPdfs/>
  <Weights>
    <Layout NLayers="3">
      <Layer Index="0" NNeurons="20">
        <Neuron NSynapses="24">
          -3.3139441909950201e-01 2.0538651808790376e+00 1.0045914680347159e+00 1.8318636429415660e+00 -2.0144103227055630e+00 -1.4854528397479541e+00 -4.6604795704494578e-01 2.0010264774465862e+00 -1.2701655013106370e+00 -1.0177175214590726e+00 -1.5991433221194904e+00 -2.4533410590974866e-01 -1.2523297769430626e+00 -6.6765341817904067e-01 -6.1525534035540208e-01 5.0531141242085087e-01 -3.8019248531533612e-01 1.7347115244247904e+00 2.1842723308798079e-01 1.4205976624650629e+00 -6.1655790445126268e-01 -7.6861979556727600e-01 4.2312154558127540e-01 -6.7193857969136484e-03 
        </Neuron>
        <Neuron NSynapses="24">
          -1.1825378229532315e+00 -1.8546957506589051e-01 1.7681232691134501e+00 -8.0641748608615893e-01 -1.8960738396218177e+00 1.3938380938485292e-01 8.6491876676457335e-01 1.6589609791675248e+00 -6.6947097924568350e-02 -1.4625343253255893e-01 3.1383655068465810e-01 -5.2360626349361861e-01 -1.5126810310535248e+00 1.3992079438663803e+00 -1.2088753649682185e+00 8.2291252010340465e-01 1.2471683796040953e+00 8.5955568436268670e-01 2.3679194427616199e+00 1.2013461830873526e+00 -1.2150638903678026e+00 -1.5532828317090857e+00 5.5271484188796827e-01 -1.1914434036540049e-02 
        </Neuron>
        <Neuron NSynapses="24">
          1.5053970892016988e+00 1.4709923648523286e+00 1.4547698546643066e+00 1.2308283821313277e+00 -1.6548791546814690e+00 1.3185397781749744e+00 -1.8847042422238736e+00 -9.1868835664171367e-01 -1.0579591934674155e+00 -1.7856839324748717e+00 1.6390552798509204e+00 6.1535230872359437e-01 -1.5675719875938636e+00 3.1844215039217566e-01 -3.0977431561914398e-01 5.3994191425192573e-01 1.7889559232938077e+00 -3.4696333649325184e-01 6.6353201513159044e-02 -1.2043893357844613e+00 7.0197402933716735e-01 -8.5842955272401045e-01 -5.5403070567446644e-01 -1.3931864548731172e+00 
        </Neuron>
        <Neuron NSynapses="24">
          7.4647585481922729e-01 1.2220390181621628e+00 1.4560050628608525e+00 -2.5221180118608100e-01 -1.9505442893061848e+00 -1.8629828609299497e+00 1.3667158055846595e+00 5.2301111313129545e-01 2.0142322181576429e+00 6.8816300262275965e-01 1.0111576345496420e+00 -4.5786622554419854e-01 -8.3921438235925805e-01 -4.4771838872594383e-01 1.1604010058572407e+00 -1.2521359050690011e+00 -1.5388067308133440e+00 -1.7107097253265282e+00 -5.1113166052971959e-01 -6.7469544377050328e-02 1.5206174162474171e+00 -1.6790173927762821e+00 -1.1864756849748022e+00 1.4477883801406928e+00 
        </Neuron>
        <Neuron NSynapses="24">
          -8.4858149508411373e-01 -1.4611852270869481e+00 -1.2179983496241349e+00 2.9770229674841803e-01 -1.9396009711627515e+00 -1.6643173093658099e+00 9.9906698984076059e-01 1.6940199797473128e+00 -1.0011108690583148e+00 1.6931712621987964e+00 -9.4089866332051519e-01 -3.5565974776157910e-01 -6.8510743609850711e-02 7.8401060338240944e-02 -1.7844561938180408e+00 5.5992420991542786e-02 3.4111146680534221e-01 4.3728780122260824e-01 -1.7719288473380734e+00 1.8946077890657065e+00 2.4553177234329709e-01 -9.7154803223275665e-01 4.6573197360379998e-01 -1.2336168061992225e+00 
        </Neuron>
        <Neuron NSynapses="24">
          -1.5908790886902369e+00 1.9462064798662695e-01 -1.6230833887152873e-01 1.9489370170085667e+00 7.6306959512299921e-01 -2.4902904169097902e-02 -1.4426244595543936e-01 1.7614370052962916e-01 -1.5408675450789071e+00 1.0995825198747440e+00 2.3284416424895932e-01 -2.0306917082711200e+00 6.0461150050014811e-01 -1.7615292557959648e+00 5.9932018239623977e-02 8.8782207845434369e-01 1.7910253624517105e+00 -1.8814445658295802e+00 6.1360571644869188e-01 1.5637677281876683e+00 1.2722755871363789e+00 1.9485610155782673e-01 -1.6254951566358011e+00 -2.9499557072748805e-01 
        </Neuron>
        <Neuron NSynapses="24">
          -1.4425740381887127e+00 1.6446766048121457e+00 1.4962221785342726e+00 -2.5663261796609765e-01 -4.2647313142561594e-01 1.5691279969691616e-01 -1.0613653347961136e+00 6.3218870358360590e-01 1.8742864257008427e+00 -5.0878483844455769e-01 -5.7856903160074558e-01 3.1732265846649188e-01 9.4995163843985719e-01 2.2822889023938986e-01 9.0097869547246079e-01 -1.7439813840322753e+00 1.5917916728851946e+00 7.4192030786219765e-01 5.0497981063779129e-01 6.3319496196353298e-01 7.8729980767374330e-01 -5.5000393233118139e-01 -9.2180733770127521e-01 9.2307979757352732e-01 
        </Neuron>
        <Neuron NSynapses="24">
          -9.1972733448702226e-01 -4.6318411529941333e-01 1.6420260251272112e+00 1.0823296150969395e+00 -3.1523652498136251e-01 1.5281127509935644e+00 2.2900408083652071e+00 -1.9340045219168007e+00 6.8048204507761845e-01 3.5549208609785853e-02 4.7996940846943653e-01 -1.1858889252991880e+00 -1.4752503804926271e+00 8.6802242080369518e-01 1.7984946515065110e+00 -1.8621423113001840e+00 -1.4301391027167523e-01 -5.8486689620773258e-01 -8.6571830913744416e-02 1.8495887732713756e+00 -4.1932265866593138e-01 -5.5234541547487137e-01 -1.4002180845804524e+00 9.3861024503307633e-01 
        </Neuron>
        <Neuron NSynapses="24">
          1.6136620253882157e+00 1.0442627424158704e+00 1.1651334244867551e-01 -9.9048960567656630e-01 -1.9778420701812829e+00 1.0855526464358269e+00 2.8985611622804358e-01 -1.3640904950845842e+00 -1.0426642252401230e+00 2.4132478098069274e-01 1.6992764823666048e-01 -2.5109289155827343e+00 1.6961981570228410e+00 1.3879390200483981e+00 -5.7044868841050000e-01 7.2139456403689899e-03 1.5951050775558435e+00 1.0750187567521918e+00 5.3718735902668091e-01 -1.8355843305044067e-01 -1.3159100136276805e+00 -8.8053918077633841e-01 1.2658648081506501e+00 9.5308241111659142e-01 
        </Neuron>
        <Neuron NSynapses="24">
          7.6351642663545616e-01 2.6456116627975207e-01 2.1474175849806114e+00 -1.5796491529128440e+00 -1.3269063665414380e+00 -1.0781680277380243e-01 -1.2210997668540549e+00 9.8843458796585715e-01 1.9627409542600787e+00 -1.1935926806441421e+00 8.6416031712442842e-01 -3.4055360580502508e-01 -1.7596846673660722e+00 -1.3792993937698173e+00 1.0214244471857588e+00 -2.2179534890916985e-01 1.0318703767446309e+00 -1.1615756365912699e+00 1.9619073509402019e+00 -1.7790129794864666e+00 5.0567499947241989e-01 1.0609627384771650e-01 -1.6730788800476650e+00 -1.4055687648107060e+00 
        </Neuron>
        <Neuron NSynapses="24">
          -1.9208102057140080e+00 -4.4948029054804933e-01 -1.7767545825050286e+00 -1.4279291999177213e+00 -1.8608538323233830e+00 3.9660209263637662e-02 -1.0206954546928464e+00 -1.5907590142617696e+00 1.3707445749068550e+00 -8.4728730553684817e-01 1.4097175551320434e-01 -4.1863575531436742e-01 1.7436762475230380e-01 1.4304623008467716e+00 1.3670252726109788e+00 -8.6778028017011255e-01 -1.4568640670194652e+00 -1.0625306559236540e+00 -4.2725343355900952e-01 -1.5963092265798280e+00 -1.9343344694961945e-01 2.3516104081199532e-01 1.9661177878579890e+00 -1.8143409486839490e-01 
        </Neuron>
        <Neuron NSynapses="24">
          2.4456061846289590e-01 -4.8121899982284511e-01 -1.6616024170235815e+00 1.4814107051080729e+00 1.1891235731993997e+00 -8.3776568183063327e-01 -8.6266786263752648e-01 8.7876523437142851e-01 1.3308918212018830e+00 5.2095295556340404e-01 -4.6344469207898015e-01 -5.2718353508157612e-01 1.3737548090475433e+00 7.7734078873771373e-01 9.8017048397587325e-01 -5.2820633794328786e-01 2.8040417705289050e-01 -2.9998685890824933e-01 -1.3780661205739120e+00 -5.0352460854960346e-01 -1.5918163878800022e+00 -1.2738317365014935e+00 -1.6732571645469414e+00 1.6885177205588136e+00 
        </Neuron>
        <Neuron NSynapses="24">
          -1.8213709336902555e+00 1.7111137878674130e+00 -1.2825136881581314e+00 1.3768506981367612e+00 -1.1116469446746688e+00 4.6755240539473014e-01 1.1388332877254044e+00 -1.8409685700788716e+00 4.0760832467331121e-01 6.8145194233631634e-01 -1.9726659369826047e+00 -1.0614719224177736e+00 -1.7496101427678834e+00 -1.0882494715854412e+00 1.8691118762788523e+00 -7.9169063032072062e-01 3.2068429129074899e-01 -9.2372547994337140e-01 -1.5216961382083578e+00 -1.6169251325527083e+00 -9.8181672659753771e-01 -1.3803168536813888e+00 6.5668021979624025e-01 -1.4994028834391082e+00 
        </Neuron>
        <Neuron NSynapses="24">
          -1.2188937064712486e+00 1.7008901866461208e+00 2.3425129742027154e-01 -5.1994157134372954e-01 1.8771721491812596e+00 -1.8036799678458144e+00 9.6161558631900079e-01 9.4838606397164749e-01 -8.3136807419456427e-01 -8.3051657314239380e-01 7.9274287523634301e-02 -1.3499696031909378e+00 5.6772567191199463e-01 1.3129715497853982e+00 1.3175076795207334e+00 1.4167796933988623e+00 -1.3703967959945382e+00 1.0351679890172047e+00 -1.0156831132523279e+00 6.2882676429374940e-01 -1.8795662975481970e+00 -1.8895852175422689e+00 3.1743296445314756e-01 1.4518692538041835e+00 
        </Neuron>
        <Neuron NSynapses="24">
          4.2523153385027024e-01 1.0742563935852429e+00 2.6201466674737395e-01 -1.5497624555774350e-01 -7.3806380467122634e-01 1.2768855010227742e-01 1.9122771072492903e+00 -1.5607624721982309e+00 6.0132056896391139e-01 -1.4123400721574304e+00 -3.6048227514727921e-01 -3.4338399538894582e-01 2.1968633758564535e-01 -1.3905126419862068e+00 9.8440190481291778e-01 1.4440241401146208e+00 6.5405141282817258e-01 -1.5026867362267851e-01 -5.5567385838879924e-01 -1.4603208776907606e+00 -2.0609279101642874e+00 1.0502300315105191e+00 -3.7476483907199376e-01 -1.1098253963696489e+00 
        </Neuron>
        <Neuron NSynapses="24">
          5.1886051682545797e-01 -1.6326052583390200e+00 -1.2783160532696083e+00 -1.6143935031995604e+00 1.0112260561467026e+00 -1.3539966472381650e+00 -1.6203589627619204e+00 -5.8817018388601172e-01 -1.0736390734370045e+00 -1.5475394904471227e+00 9.8451003265488324e-01 -7.3325108236078684e-01 -1.1830684049083915e+00 1.7911907806139464e+00 5.5490720305576091e-01 3.7118799887116122e-01 8.8369884720527397e-02 1.3453781632069244e+00 7.4935791900545312e-01 5.9620047205108317e-01 2.3533432300912660e-01 -7.9598456104292847e-01 -1.4826116260369113e+00 1.0186903093052915e+00 
        </Neuron>
        <Neuron NSynapses="24">
          9.4054233957122568e-01 1.3719550725540866e-01 1.3421517167728600e+00 1.1335368758283375e+00 1.6170231253936225e+00 -1.3360941785250209e+00 1.9587713224377064e+00 7.7314175702849797e-01 -1.7940870887308014e+00 -2.5993455095011009e-01 -1.0116952079116077e+00 1.1017119350443645e+00 4.0295468614107166e-01 7.7763873302568653e-01 1.7969964825075402e+00 -6.1513887971433012e-01 1.8408159386148577e+00 1.6857405280000299e+00 7.3912909433803561e-02 -1.1473421283793779e+00 1.3760483507629304e+00 -1.9243290645495734e+00 2.4221978119972176e-01 1.5631093680372738e+00 
        </Neuron>
        <Neuron NSynapses="24">
          -4.4001002406971862e-01 -7.3697495026077986e-01 1.1946353929970280e-01 -1.1328736203398375e+00 3.9764903050280748e-01 -1.9015472979418071e+00 4.7345198837517455e-01 -1.7915546470535776e-01 1.9291941161584618e+00 1.2890482354297195e+00 1.7015840272933478e+00 -4.3562400798379947e-01 -4.5832284996643985e-01 9.3301004952646940e-02 1.8520894773975114e+00 -2.1197900850211453e+00 -1.2747801415562747e+00 -5.8386922604726310e-01 -1.5275597095988793e+00 -1.6240893621219423e+00 -1.6687440284523785e+00 7.6651763098779291e-01 -1.3122016165342684e-01 -2.0275533562015320e+00 
        </Neuron>
        <Neuron NSynapses="24">
          -1.9136084189843841e+00 -7.1114484423793811e-02 1.9211748047126047e+00 1.9585495274633626e+00 1.2871822156494055e+00 -6.6254673708746303e-01 -1.6091053349022078e+00 -8.4487976626260661e-02 -1.2034589618045195e+00 -1.5353270430397481e+00 -6.4833666808303303e-01 3.1881424707802491e-01 -1.4444202691924481e+00 1.2907746512826679e+00 1.2406414212681784e+00 -3.7612717734039805e-02 -5.7652844225216082e-01 -8.8299415916540080e-01 1.4914262595719334e+00 -5.1964126944743616e-01 2.2423135741162870e-01 1.5315971527526144e+00 1.1691653385913496e+00 -1.1972064365729027e+00 
        </Neuron>
        <Neuron NSynapses="24">
          1.3783449290752863e+00 -1.9549314041624979e+00 1.2550885965157548e+00 1.5513547440575788e+00 -1.4370866319476897e-01 -2.8472284312509843e-01 -7.7798879937114179e-02 -6.3347444287956045e-01 9.8797213291486552e-01 2.5398805391791268e-01 -8.8895214332477490e-01 -1.4903349766511285e+00 6.9994388859520251e-02 2.1716514794951181e+00 3.9862371316147027e-01 -4.4916917005675194e-01 -2.0088152933189298e+00 1.8345113773334019e+00 4.0506104764725004e-01 -1.1780227975384241e+00 -2.3993563348307174e-02 -1.0533930303272592e+00 1.5542490656323456e+00 1.5574625361407084e+00 
        </Neuron>
      </Layer>
      <Layer Index="1" NNeurons="25">
        <Neuron NSynapses="1">
          -9.1257436750103182e-01 
        </Neuron>
        <Neuron NSynapses="1">
          -9.9038545915931087e-01 
        </Neuron>
        <Neuron NSynapses="1">
          9.4360720823727062e-01 
        </Neuron>
        <Neuron NSynapses="1">
          1.1089983844884892e+00 
        </Neuron>
        <Neuron NSynapses="1">
          1.3760703539004440e-01 
        </Neuron>
        <Neuron NSynapses="1">
          4.9195945517080224e-02 
        </Neuron>
        <Neuron NSynapses="1">
          -8.7613936073050180e-01 
        </Neuron>
        <Neuron NSynapses="1">
          -1.0539810925020259e+00 
        </Neuron>
        <Neuron NSynapses="1">
          9.8827304914266800e-01 
        </Neuron>
        <Neuron NSynapses="1">
          -2.0353467989462407e-01 
        </Neuron>
        <Neuron NSynapses="1">
          3.5333823997281982e-01 
        </Neuron>
        <Neuron NSynapses="1">
          -9.6902601896489948e-01 
        </Neuron>
        <Neuron NSynapses="1">
          -1.8942803612074106e+00 
        </Neuron>
        <Neuron NSynapses="1">
          -1.5103148633928583e+00 
        </Neuron>
        <Neuron NSynapses="1">
          -1.6905483590816758e-01 
        </Neuron>
        <Neuron NSynapses="1">
          -1.7600239679454464e+00 
        </Neuron>
        <Neuron NSynapses="1">
          8.0917474865262651e-01 
        </Neuron>
        <Neuron NSynapses="1">
          -5.4103378101288813e-01 
        </Neuron>
        <Neuron NSynapses="1">
          1.2310737482929952e+00 
        </Neuron>
        <Neuron NSynapses="1">
          -3.3208758998575766e-01 
        </Neuron>
        <Neuron NSynapses="1">
          -9.5099585830703037e-01 
        </Neuron>
        <Neuron NSynapses="1">
          1.3105602604225159e+00 
        </Neuron>
        <Neuron NSynapses="1">
          1.3379874701857175e+00 
        </Neuron>
        <Neuron NSynapses="1">
          7.9143027497021456e-01 
        </Neuron>
        <Neuron NSynapses="1">
          -6.6687239963075540e-01 
        </Neuron>
      </Layer>
      <Layer Index="2" NNeurons="1">
        <Neuron NSynapses="0"/>
      </Layer>
    </Layout>
  </Weights>
</MethodSetup>
