<?xml version="1.0"?>
<MethodSetup Method="MLP::MLP">
  <GeneralInfo>
    <Info name="TMVA Release" value="4.2.1 [262657]"/>
    <Info name="ROOT Release" value="6.08/07 [395271]"/>
    <Info name="Creator" value="wverbeke"/>
    <Info name="Date" value="Tue Dec  5 06:40:24 2017"/>
    <Info name="Host" value="Linux vocms0302.cern.ch 2.6.32-696.1.1.el6.x86_64 #1 SMP Wed Apr 12 08:44:28 CEST 2017 x86_64 x86_64 x86_64 GNU/Linux"/>
    <Info name="Dir" value="/storage_mnt/storage/user/wverbeke/Work/AnalysisCode/ewkino/bdtTraining/bdtTrainingsubmit"/>
    <Info name="Training events" value="254197"/>
    <Info name="TrainingTime" value="4.04292175e+03"/>
    <Info name="AnalysisType" value="Classification"/>
  </GeneralInfo>
  <Options>
    <Option name="NCycles" modified="Yes">600</Option>
    <Option name="HiddenLayers" modified="Yes">N+5</Option>
    <Option name="NeuronType" modified="Yes">tanh</Option>
    <Option name="RandomSeed" modified="No">1</Option>
    <Option name="EstimatorType" modified="No">CE</Option>
    <Option name="NeuronInputType" modified="No">sum</Option>
    <Option name="V" modified="Yes">False</Option>
    <Option name="VerbosityLevel" modified="No">Default</Option>
    <Option name="VarTransform" modified="Yes">N</Option>
    <Option name="H" modified="Yes">True</Option>
    <Option name="CreateMVAPdfs" modified="No">False</Option>
    <Option name="IgnoreNegWeightsInTraining" modified="No">False</Option>
    <Option name="TrainingMethod" modified="No">BP</Option>
    <Option name="LearningRate" modified="No">2.000000e-02</Option>
    <Option name="DecayRate" modified="No">1.000000e-02</Option>
    <Option name="TestRate" modified="Yes">5</Option>
    <Option name="EpochMonitoring" modified="No">False</Option>
    <Option name="Sampling" modified="No">1.000000e+00</Option>
    <Option name="SamplingEpoch" modified="No">1.000000e+00</Option>
    <Option name="SamplingImportance" modified="No">1.000000e+00</Option>
    <Option name="SamplingTraining" modified="No">True</Option>
    <Option name="SamplingTesting" modified="No">False</Option>
    <Option name="ResetStep" modified="No">50</Option>
    <Option name="Tau" modified="No">3.000000e+00</Option>
    <Option name="BPMode" modified="No">sequential</Option>
    <Option name="BatchSize" modified="No">-1</Option>
    <Option name="ConvergenceImprove" modified="No">1.000000e-30</Option>
    <Option name="ConvergenceTests" modified="No">-1</Option>
    <Option name="UseRegulator" modified="Yes">False</Option>
    <Option name="UpdateLimit" modified="No">10000</Option>
    <Option name="CalculateErrors" modified="No">False</Option>
    <Option name="WeightRange" modified="No">1.000000e+00</Option>
  </Options>
  <Variables NVar="19">
    <Variable VarIndex="0" Expression="topMass" Label="topMass" Title="topMass" Unit="" Internal="topMass" Type="F" Min="0.00000000e+00" Max="4.57646777e+03"/>
    <Variable VarIndex="1" Expression="pTForwardJets" Label="pTForwardJets" Title="pTForwardJets" Unit="" Internal="pTForwardJets" Type="F" Min="0.00000000e+00" Max="6.57554993e+02"/>
    <Variable VarIndex="2" Expression="etaMostForward" Label="etaMostForward" Title="etaMostForward" Unit="" Internal="etaMostForward" Type="F" Min="3.27013107e-03" Max="5.25781250e+00"/>
    <Variable VarIndex="3" Expression="pTLeadingJet" Label="pTLeadingJet" Title="pTLeadingJet" Unit="" Internal="pTLeadingJet" Type="F" Min="2.50286484e+01" Max="1.71022925e+03"/>
    <Variable VarIndex="4" Expression="pTLeadingLepton" Label="pTLeadingLepton" Title="pTLeadingLepton" Unit="" Internal="pTLeadingLepton" Type="F" Min="2.50486832e+01" Max="1.16689429e+03"/>
    <Variable VarIndex="5" Expression="mNotSoForwardJets" Label="mNotSoForwardJets" Title="mNotSoForwardJets" Unit="" Internal="mNotSoForwardJets" Type="F" Min="0.00000000e+00" Max="7.90751172e+03"/>
    <Variable VarIndex="6" Expression="pTLeadingBJet" Label="pTLeadingBJet" Title="pTLeadingBJet" Unit="" Internal="pTLeadingBJet" Type="F" Min="2.50000343e+01" Max="1.20835571e+03"/>
    <Variable VarIndex="7" Expression="missingET" Label="missingET" Title="missingET" Unit="" Internal="missingET" Type="F" Min="1.01562843e-01" Max="1.27721997e+03"/>
    <Variable VarIndex="8" Expression="highestDeepCSV" Label="highestDeepCSV" Title="highestDeepCSV" Unit="" Internal="highestDeepCSV" Type="F" Min="-2.00000000e+00" Max="6.32362485e-01"/>
    <Variable VarIndex="9" Expression="maxMjj" Label="maxMjj" Title="maxMjj" Unit="" Internal="maxMjj" Type="F" Min="0.00000000e+00" Max="6.90522168e+03"/>
    <Variable VarIndex="10" Expression="asymmetryWlep" Label="asymmetryWlep" Title="asymmetryWlep" Unit="" Internal="asymmetryWlep" Type="F" Min="-2.49937820e+00" Max="2.49931502e+00"/>
    <Variable VarIndex="11" Expression="etaZ" Label="etaZ" Title="etaZ" Unit="" Internal="etaZ" Type="F" Min="1.62485976e-05" Max="7.23190069e+00"/>
    <Variable VarIndex="12" Expression="m3l" Label="m3l" Title="m3l" Unit="" Internal="m3l" Type="F" Min="8.05780334e+01" Max="2.38235767e+03"/>
    <Variable VarIndex="13" Expression="maxDeltaPhijj" Label="maxDeltaPhijj" Title="maxDeltaPhijj" Unit="" Internal="maxDeltaPhijj" Type="F" Min="2.38418579e-07" Max="3.14159250e+00"/>
    <Variable VarIndex="14" Expression="maxDeltaRjj" Label="maxDeltaRjj" Title="maxDeltaRjj" Unit="" Internal="maxDeltaRjj" Type="F" Min="3.96741837e-01" Max="1.04596567e+01"/>
    <Variable VarIndex="15" Expression="maxDeltaPhill" Label="maxDeltaPhill" Title="maxDeltaPhill" Unit="" Internal="maxDeltaPhill" Type="F" Min="1.71463490e-02" Max="3.14158416e+00"/>
    <Variable VarIndex="16" Expression="pT3l" Label="pT3l" Title="pT3l" Unit="" Internal="pT3l" Type="F" Min="1.24590486e-01" Max="1.50189575e+03"/>
    <Variable VarIndex="17" Expression="mForwardJetsLeadinBJetW" Label="mForwardJetsLeadinBJetW" Title="mForwardJetsLeadinBJetW" Unit="" Internal="mForwardJetsLeadinBJetW" Type="F" Min="0.00000000e+00" Max="1.08327715e+04"/>
    <Variable VarIndex="18" Expression="ht" Label="ht" Title="ht" Unit="" Internal="ht" Type="F" Min="5.00481071e+01" Max="3.00348584e+03"/>
  </Variables>
  <Spectators NSpec="0"/>
  <Classes NClass="2">
    <Class Name="Signal" Index="0"/>
    <Class Name="Background" Index="1"/>
  </Classes>
  <Transformations NTransformations="1">
    <Transform Name="Normalize">
      <Selection>
        <Input NInputs="19">
          <Input Type="Variable" Label="topMass" Expression="topMass"/>
          <Input Type="Variable" Label="pTForwardJets" Expression="pTForwardJets"/>
          <Input Type="Variable" Label="etaMostForward" Expression="etaMostForward"/>
          <Input Type="Variable" Label="pTLeadingJet" Expression="pTLeadingJet"/>
          <Input Type="Variable" Label="pTLeadingLepton" Expression="pTLeadingLepton"/>
          <Input Type="Variable" Label="mNotSoForwardJets" Expression="mNotSoForwardJets"/>
          <Input Type="Variable" Label="pTLeadingBJet" Expression="pTLeadingBJet"/>
          <Input Type="Variable" Label="missingET" Expression="missingET"/>
          <Input Type="Variable" Label="highestDeepCSV" Expression="highestDeepCSV"/>
          <Input Type="Variable" Label="maxMjj" Expression="maxMjj"/>
          <Input Type="Variable" Label="asymmetryWlep" Expression="asymmetryWlep"/>
          <Input Type="Variable" Label="etaZ" Expression="etaZ"/>
          <Input Type="Variable" Label="m3l" Expression="m3l"/>
          <Input Type="Variable" Label="maxDeltaPhijj" Expression="maxDeltaPhijj"/>
          <Input Type="Variable" Label="maxDeltaRjj" Expression="maxDeltaRjj"/>
          <Input Type="Variable" Label="maxDeltaPhill" Expression="maxDeltaPhill"/>
          <Input Type="Variable" Label="pT3l" Expression="pT3l"/>
          <Input Type="Variable" Label="mForwardJetsLeadinBJetW" Expression="mForwardJetsLeadinBJetW"/>
          <Input Type="Variable" Label="ht" Expression="ht"/>
        </Input>
        <Output NOutputs="19">
          <Output Type="Variable" Label="topMass" Expression="topMass"/>
          <Output Type="Variable" Label="pTForwardJets" Expression="pTForwardJets"/>
          <Output Type="Variable" Label="etaMostForward" Expression="etaMostForward"/>
          <Output Type="Variable" Label="pTLeadingJet" Expression="pTLeadingJet"/>
          <Output Type="Variable" Label="pTLeadingLepton" Expression="pTLeadingLepton"/>
          <Output Type="Variable" Label="mNotSoForwardJets" Expression="mNotSoForwardJets"/>
          <Output Type="Variable" Label="pTLeadingBJet" Expression="pTLeadingBJet"/>
          <Output Type="Variable" Label="missingET" Expression="missingET"/>
          <Output Type="Variable" Label="highestDeepCSV" Expression="highestDeepCSV"/>
          <Output Type="Variable" Label="maxMjj" Expression="maxMjj"/>
          <Output Type="Variable" Label="asymmetryWlep" Expression="asymmetryWlep"/>
          <Output Type="Variable" Label="etaZ" Expression="etaZ"/>
          <Output Type="Variable" Label="m3l" Expression="m3l"/>
          <Output Type="Variable" Label="maxDeltaPhijj" Expression="maxDeltaPhijj"/>
          <Output Type="Variable" Label="maxDeltaRjj" Expression="maxDeltaRjj"/>
          <Output Type="Variable" Label="maxDeltaPhill" Expression="maxDeltaPhill"/>
          <Output Type="Variable" Label="pT3l" Expression="pT3l"/>
          <Output Type="Variable" Label="mForwardJetsLeadinBJetW" Expression="mForwardJetsLeadinBJetW"/>
          <Output Type="Variable" Label="ht" Expression="ht"/>
        </Output>
      </Selection>
      <Class ClassIndex="0">
        <Ranges>
          <Range Index="0" Min="0.0000000000000000e+00" Max="4.5764677734375000e+03"/>
          <Range Index="1" Min="0.0000000000000000e+00" Max="6.5755499267578125e+02"/>
          <Range Index="2" Min="5.2743308246135712e-02" Max="5.0889744758605957e+00"/>
          <Range Index="3" Min="2.5409280776977539e+01" Max="1.2070167236328125e+03"/>
          <Range Index="4" Min="2.5221763610839844e+01" Max="9.5040502929687500e+02"/>
          <Range Index="5" Min="0.0000000000000000e+00" Max="7.9075117187500000e+03"/>
          <Range Index="6" Min="2.5000034332275391e+01" Max="6.0185266113281250e+02"/>
          <Range Index="7" Min="2.5713309645652771e-01" Max="6.9178784179687500e+02"/>
          <Range Index="8" Min="-2.0000000000000000e+00" Max="6.3234066963195801e-01"/>
          <Range Index="9" Min="0.0000000000000000e+00" Max="6.9052216796875000e+03"/>
          <Range Index="10" Min="-2.4976110458374023e+00" Max="2.4959404468536377e+00"/>
          <Range Index="11" Min="5.2801384299527854e-05" Max="6.2569618225097656e+00"/>
          <Range Index="12" Min="8.1177528381347656e+01" Max="1.9798461914062500e+03"/>
          <Range Index="13" Min="2.3841857910156250e-07" Max="3.1415925025939941e+00"/>
          <Range Index="14" Min="3.9674183726310730e-01" Max="9.9698743820190430e+00"/>
          <Range Index="15" Min="1.7146348953247070e-02" Max="3.1415646076202393e+00"/>
          <Range Index="16" Min="3.8977694511413574e-01" Max="9.7683941650390625e+02"/>
          <Range Index="17" Min="0.0000000000000000e+00" Max="1.0832771484375000e+04"/>
          <Range Index="18" Min="5.0604114532470703e+01" Max="2.0329559326171875e+03"/>
        </Ranges>
      </Class>
      <Class ClassIndex="1">
        <Ranges>
          <Range Index="0" Min="0.0000000000000000e+00" Max="3.2854951171875000e+03"/>
          <Range Index="1" Min="0.0000000000000000e+00" Max="5.5703997802734375e+02"/>
          <Range Index="2" Min="3.2701310701668262e-03" Max="5.2578125000000000e+00"/>
          <Range Index="3" Min="2.5028648376464844e+01" Max="1.7102292480468750e+03"/>
          <Range Index="4" Min="2.5048683166503906e+01" Max="1.1668942871093750e+03"/>
          <Range Index="5" Min="0.0000000000000000e+00" Max="7.3053310546875000e+03"/>
          <Range Index="6" Min="2.5000038146972656e+01" Max="1.2083557128906250e+03"/>
          <Range Index="7" Min="1.0156284272670746e-01" Max="1.2772199707031250e+03"/>
          <Range Index="8" Min="-2.0000000000000000e+00" Max="6.3236248493194580e-01"/>
          <Range Index="9" Min="0.0000000000000000e+00" Max="6.6139243164062500e+03"/>
          <Range Index="10" Min="-2.4993782043457031e+00" Max="2.4993150234222412e+00"/>
          <Range Index="11" Min="1.6248597603407688e-05" Max="7.2319006919860840e+00"/>
          <Range Index="12" Min="8.0578033447265625e+01" Max="2.3823576660156250e+03"/>
          <Range Index="13" Min="1.8954277038574219e-05" Max="3.1415872573852539e+00"/>
          <Range Index="14" Min="3.9802929759025574e-01" Max="1.0459656715393066e+01"/>
          <Range Index="15" Min="2.1914958953857422e-02" Max="3.1415841579437256e+00"/>
          <Range Index="16" Min="1.2459048628807068e-01" Max="1.5018957519531250e+03"/>
          <Range Index="17" Min="0.0000000000000000e+00" Max="9.6388769531250000e+03"/>
          <Range Index="18" Min="5.0048107147216797e+01" Max="3.0034858398437500e+03"/>
        </Ranges>
      </Class>
      <Class ClassIndex="2">
        <Ranges>
          <Range Index="0" Min="0.0000000000000000e+00" Max="4.5764677734375000e+03"/>
          <Range Index="1" Min="0.0000000000000000e+00" Max="6.5755499267578125e+02"/>
          <Range Index="2" Min="3.2701310701668262e-03" Max="5.2578125000000000e+00"/>
          <Range Index="3" Min="2.5028648376464844e+01" Max="1.7102292480468750e+03"/>
          <Range Index="4" Min="2.5048683166503906e+01" Max="1.1668942871093750e+03"/>
          <Range Index="5" Min="0.0000000000000000e+00" Max="7.9075117187500000e+03"/>
          <Range Index="6" Min="2.5000034332275391e+01" Max="1.2083557128906250e+03"/>
          <Range Index="7" Min="1.0156284272670746e-01" Max="1.2772199707031250e+03"/>
          <Range Index="8" Min="-2.0000000000000000e+00" Max="6.3236248493194580e-01"/>
          <Range Index="9" Min="0.0000000000000000e+00" Max="6.9052216796875000e+03"/>
          <Range Index="10" Min="-2.4993782043457031e+00" Max="2.4993150234222412e+00"/>
          <Range Index="11" Min="1.6248597603407688e-05" Max="7.2319006919860840e+00"/>
          <Range Index="12" Min="8.0578033447265625e+01" Max="2.3823576660156250e+03"/>
          <Range Index="13" Min="2.3841857910156250e-07" Max="3.1415925025939941e+00"/>
          <Range Index="14" Min="3.9674183726310730e-01" Max="1.0459656715393066e+01"/>
          <Range Index="15" Min="1.7146348953247070e-02" Max="3.1415841579437256e+00"/>
          <Range Index="16" Min="1.2459048628807068e-01" Max="1.5018957519531250e+03"/>
          <Range Index="17" Min="0.0000000000000000e+00" Max="1.0832771484375000e+04"/>
          <Range Index="18" Min="5.0048107147216797e+01" Max="3.0034858398437500e+03"/>
        </Ranges>
      </Class>
    </Transform>
  </Transformations>
  <MVAPdfs/>
  <Weights>
    <Layout NLayers="3">
      <Layer Index="0" NNeurons="20">
        <Neuron NSynapses="24">
          -3.3192882629735093e-01 2.0228847370642393e+00 1.0562334086383485e+00 1.8042882629253258e+00 -2.0065675218509598e+00 -1.4866143007725114e+00 -5.0896008202094389e-01 2.0087251453906840e+00 -1.3000403655786308e+00 -1.0487636845594690e+00 -1.6306139502683410e+00 -2.8636953496995465e-01 -1.2061854351831285e+00 -6.4629385257975680e-01 -6.1829522854966834e-01 5.4085323463602164e-01 -3.6070862364052220e-01 1.7248180477440629e+00 2.0224592610656772e-01 1.3978186603439307e+00 -4.9598313196322413e-01 -7.4889117381192283e-01 4.9653215847564836e-01 1.7113143757217314e-02 
        </Neuron>
        <Neuron NSynapses="24">
          -1.1822394088422261e+00 -2.2116007917207048e-01 1.7452102025463081e+00 -8.9922621353737797e-01 -1.8971879215149481e+00 1.3911084720071953e-01 8.6291385626529460e-01 1.6749306586083559e+00 -1.1325201317615709e-01 -1.8472977750263861e-01 2.5760200339826084e-01 -6.7776526176338847e-01 -1.4519048540105222e+00 1.4951796497486278e+00 -1.2103453447345065e+00 8.8652481799723337e-01 1.2441738679270826e+00 8.5882166882650512e-01 2.3240175486314172e+00 1.1912534229957064e+00 -1.0466924543184253e+00 -1.5334203496180847e+00 5.4176962103531945e-01 -1.1921177843394203e-02 
        </Neuron>
        <Neuron NSynapses="24">
          1.5055590769608516e+00 1.4865038227324587e+00 1.4356170415221776e+00 1.2428350377453641e+00 -1.6596690717835518e+00 1.3188149920094145e+00 -1.9049421146218000e+00 -9.1566511843567522e-01 -1.0683622408809608e+00 -1.7940724433983188e+00 1.5554976759791892e+00 4.3003460435646385e-01 -1.6230859962526150e+00 3.4814424959246049e-01 -3.1501919248204480e-01 5.8045634578762406e-01 1.7783934524906497e+00 -3.4178172278089108e-01 3.5417583132530944e-01 -1.2187207644317524e+00 6.4025648942690627e-01 -8.2338651154945564e-01 -5.9208670101222149e-01 -1.4010761544178749e+00 
        </Neuron>
        <Neuron NSynapses="24">
          7.4599420212075152e-01 1.2018212920961220e+00 1.4747192834433458e+00 -3.0341294439415267e-01 -1.9401880905494435e+00 -1.8632074782188677e+00 1.3273221164711457e+00 5.1648480802259988e-01 1.9974714890494187e+00 6.5545592802696384e-01 9.8339853392855325e-01 -4.2945576358527882e-01 -8.0079491089351396e-01 -3.5372355330793948e-01 1.1574514222397294e+00 -1.2424595506813891e+00 -1.5274409697788547e+00 -1.7193013464044764e+00 -4.2904565361006985e-01 -9.0771633373498348e-02 1.5868941992644863e+00 -1.6520331193482087e+00 -1.1420536634380261e+00 1.4763574550710117e+00 
        </Neuron>
        <Neuron NSynapses="24">
          -8.4894418418607487e-01 -1.5017563479284797e+00 -1.2104235182230547e+00 2.4175265537408452e-01 -1.9316578670431783e+00 -1.6648102955458550e+00 9.6298456491878559e-01 1.6853881928712062e+00 -1.0413346190310870e+00 1.6664447194918204e+00 -9.4532738119827875e-01 -3.2528285327473766e-01 -2.7102448122565428e-02 1.7191490926055455e-01 -1.7892063514959453e+00 7.2210064767752796e-02 3.5683022108594981e-01 4.3580526546314347e-01 -1.5723686380929816e+00 1.8652107319721942e+00 2.1849154169667973e-01 -9.3371455089740740e-01 5.2628835967477539e-01 -1.1976803803292972e+00 
        </Neuron>
        <Neuron NSynapses="24">
          -1.5906700109737657e+00 1.8461234688221262e-01 -2.1601690429022372e-01 1.8949049210635567e+00 7.6432084533931355e-01 -2.6678542632953651e-02 -1.4241177546557274e-01 1.8610361038598802e-01 -1.5904930461322002e+00 1.0662108420089189e+00 1.6603241562709367e-01 -1.9666803249767391e+00 6.5141208779964532e-01 -1.6829144250849333e+00 5.7503465568949731e-02 9.4471610431732944e-01 1.7895769226579812e+00 -1.8799695492134409e+00 5.0791772370609056e-01 1.5509330366016265e+00 1.5174923218357703e+00 1.8242744029616087e-01 -1.6236630676431720e+00 -2.7095502916367037e-01 
        </Neuron>
        <Neuron NSynapses="24">
          -1.4429369309565143e+00 1.6000660839856313e+00 1.4930237960183614e+00 -3.3697327551505885e-01 -4.1784483073721507e-01 1.5459752109648087e-01 -1.0891710606465528e+00 6.3192287095689048e-01 1.8095881355434920e+00 -5.4689578856645615e-01 -6.0704375306258396e-01 3.3905619036730883e-01 1.0157901817940946e+00 3.4927351591224898e-01 9.0133773582717625e-01 -1.6979020581384372e+00 1.6059436980801454e+00 7.4132300521860084e-01 5.0419616188244432e-01 6.1356367565428249e-01 9.0011899972137810e-01 -5.4782757652856184e-01 -8.9255099426954954e-01 9.3362753256928177e-01 
        </Neuron>
        <Neuron NSynapses="24">
          -9.2028500708654748e-01 -5.1407584564979647e-01 1.7437565766241401e+00 1.0582517633805060e+00 -3.0050831200191080e-01 1.5260410726449043e+00 2.2036711575555068e+00 -1.9340752657607023e+00 6.8425462143410742e-01 7.3467905840547913e-03 4.6644452889016819e-01 -1.3134642339581901e+00 -1.4373571311962110e+00 9.6969451812911844e-01 1.7989258609817314e+00 -1.8452365547298455e+00 -1.2359710456770596e-01 -5.9272586956196183e-01 1.0307438615135077e-01 1.7996446308528820e+00 -4.4292756128450794e-01 -5.2477172769019398e-01 -1.3457416563615894e+00 9.4609980819433148e-01 
        </Neuron>
        <Neuron NSynapses="24">
          1.6135098784463953e+00 1.0670324706081804e+00 3.8799395708231287e-02 -9.7884068013925718e-01 -1.9810044643125224e+00 1.0885580928166299e+00 2.5741120988007354e-01 -1.3446292846208627e+00 -1.1648178723230180e+00 2.6912854422362403e-01 1.3114403470457905e-01 -2.6662880441874006e+00 1.6796659756538455e+00 1.5483791145526400e+00 -5.6878814100330666e-01 3.1186111381231091e-02 1.5687561469121520e+00 1.0662885110014726e+00 4.3121261744857697e-01 -1.6806585285991563e-01 -1.4841136609285492e+00 -9.1136532755018784e-01 1.3596848451615198e+00 1.0342575309468940e+00 
        </Neuron>
        <Neuron NSynapses="24">
          7.6359485266735727e-01 2.5492397110142007e-01 2.1116180924996963e+00 -1.6220631780143202e+00 -1.3249551378010906e+00 -1.0918378193357355e-01 -1.2356006077070982e+00 9.9485445082648183e-01 1.9156978266754063e+00 -1.2265645846551376e+00 8.0698314990110309e-01 -3.2636277411052239e-01 -1.7233609572090018e+00 -1.3061867010229027e+00 1.0204332594625700e+00 -1.7467818498718332e-01 1.0313832607731717e+00 -1.1622514429086952e+00 1.8919542907758313e+00 -1.7904294649645744e+00 7.2113659914702022e-01 1.0298604144683303e-01 -1.6767776916316524e+00 -1.3715563933600561e+00 
        </Neuron>
        <Neuron NSynapses="24">
          -1.9204436545766250e+00 -4.3933126048785798e-01 -1.7569752768766780e+00 -1.4659229724379812e+00 -1.8716018174806375e+00 3.9433409771879327e-02 -1.0410642537206756e+00 -1.5833495552359043e+00 1.3659217973250113e+00 -8.6023074043461334e-01 1.6215786063222784e-01 -2.6129775846335629e-01 1.9632139632594536e-01 1.3636553075533278e+00 1.3680074764617827e+00 -8.5688915859065684e-01 -1.4451271430710113e+00 -1.0577260940988018e+00 -6.6255221797444663e-01 -1.6185134732452036e+00 -1.5307442903846435e-01 2.8519537154300695e-01 1.9319854531993697e+00 -1.7398885866992647e-01 
        </Neuron>
        <Neuron NSynapses="24">
          2.4407201049376248e-01 -5.2234859892915952e-01 -1.6538677806133786e+00 1.4038182037236668e+00 1.1960250282313176e+00 -8.3969618971126514e-01 -8.6524097384180132e-01 8.7950735492924847e-01 1.2312474802897471e+00 4.9844960433062840e-01 -4.6668131008469149e-01 -3.1106830384338457e-01 1.4658576245836672e+00 8.3941559140553390e-01 9.8609260496884499e-01 -4.2635384892008943e-01 2.9315258831170760e-01 -2.9812825851446306e-01 -1.4646698184570073e+00 -5.2778164665303740e-01 -1.6193596491288644e+00 -1.3352426263796768e+00 -1.6544199139345268e+00 1.6895714728429672e+00 
        </Neuron>
        <Neuron NSynapses="24">
          -1.8218133449356486e+00 1.6753458465844804e+00 -1.2606411898280105e+00 1.3060563504336344e+00 -1.1046043210361487e+00 4.6648227342386644e-01 1.1091812413807678e+00 -1.8406160365550921e+00 3.6364745743187155e-01 6.5335696843503666e-01 -1.9586733129860139e+00 -1.0353675967449985e+00 -1.6992429487361969e+00 -1.0140573935027095e+00 1.8665867365624023e+00 -7.5922429347478371e-01 3.4755223510715305e-01 -9.2291841692125232e-01 -1.3201261870043119e+00 -1.6549837950586173e+00 -1.0798926645431435e+00 -1.3622361353257362e+00 7.1546455563360190e-01 -1.4637698890655659e+00 
        </Neuron>
        <Neuron NSynapses="24">
          -1.2182674869494103e+00 1.7348260379156655e+00 2.1383284419230011e-01 -5.3102597102490778e-01 1.8748884992550443e+00 -1.8014851063578627e+00 1.0413613995482305e+00 9.6091179486244438e-01 -8.8362813446920208e-01 -8.2019972022643151e-01 -1.0270833737527582e-02 -1.2396810089823693e+00 5.3151793666074532e-01 1.3611521365230277e+00 1.3192846474007967e+00 1.4628214935945996e+00 -1.3725422857893754e+00 1.0393971047064712e+00 -1.1966100759937608e+00 6.6093641057280339e-01 -1.9233637197554079e+00 -1.8983943027820565e+00 1.8222360780607627e-01 1.4153156247916701e+00 
        </Neuron>
        <Neuron NSynapses="24">
          4.2531633906761712e-01 1.0740117233046300e+00 2.3943944383248592e-01 -1.6977531894211101e-01 -7.3857548009752660e-01 1.2788644296641724e-01 1.9153393827687710e+00 -1.5565153937887295e+00 5.4056168436029395e-01 -1.4212209095160919e+00 -4.4191666521732786e-01 -3.2327419814287095e-01 1.9018199246678405e-01 -1.2934886295386008e+00 9.8105429035454050e-01 1.4936249508123369e+00 6.4951869235043225e-01 -1.4406623018950629e-01 -5.8677174991120296e-01 -1.4500255180059332e+00 -1.8736700753518922e+00 1.0674851641443819e+00 -4.4070091887804635e-01 -1.1226439236685919e+00 
        </Neuron>
        <Neuron NSynapses="24">
          5.1889936616504673e-01 -1.6501689449016610e+00 -1.2528859042011165e+00 -1.6215293102428028e+00 1.0131971412887069e+00 -1.3524615871342580e+00 -1.6521648764990469e+00 -5.8860476681673513e-01 -1.0839760784842423e+00 -1.5023999926485583e+00 1.1169119777312355e+00 -4.5312925293452549e-01 -1.2415282995499730e+00 1.7605233138976044e+00 5.6003469318162069e-01 4.0604679584747960e-01 8.7013121820416497e-02 1.3531109743448242e+00 1.2569071495130106e+00 5.6259665617031163e-01 -5.9674697667666676e-01 -7.9422615084234216e-01 -1.5050116348122300e+00 1.0364958287708739e+00 
        </Neuron>
        <Neuron NSynapses="24">
          9.4021746062770650e-01 1.0690791670789798e-01 1.3357016742910734e+00 1.0761168827137086e+00 1.6229870276786282e+00 -1.3374317619094280e+00 1.9461134552543167e+00 7.6678061689214960e-01 -1.8216294928348047e+00 -2.9139499226194188e-01 -1.0496055827631909e+00 1.1365997266032153e+00 4.6710575771107488e-01 8.5554670401869326e-01 1.7931913674999607e+00 -5.9388875502995564e-01 1.8561396379798647e+00 1.6828835958943729e+00 1.8171358658180642e-01 -1.1656156658581698e+00 1.4786599378627157e+00 -1.9165572789954226e+00 2.9475806951688172e-01 1.5858551095579565e+00 
        </Neuron>
        <Neuron NSynapses="24">
          -4.3993611388510162e-01 -7.7828557225806672e-01 1.0362709994474699e-01 -1.1993025886911015e+00 4.0209065553456025e-01 -1.9025633449523183e+00 4.4269688205793695e-01 -1.7166507212816962e-01 1.8814319116854030e+00 1.2573786650635326e+00 1.6799529135986060e+00 -3.9387358969502190e-01 -4.0727496087754711e-01 1.9314532996009748e-01 1.8514910029117879e+00 -2.0658623331342132e+00 -1.2712129892015973e+00 -5.7724622658079239e-01 -1.4033825507413180e+00 -1.6588692903042237e+00 -1.5887803758192984e+00 7.9782971297711269e-01 -1.2892730338396619e-01 -2.0066112028892715e+00 
        </Neuron>
        <Neuron NSynapses="24">
          -1.9139218300473475e+00 -1.0301496874131684e-01 1.9447735256141745e+00 1.9132754444412583e+00 1.2967199220657155e+00 -6.6310846515368260e-01 -1.6507800105432691e+00 -8.8250745133638689e-02 -1.2342497240016852e+00 -1.5688166526855838e+00 -6.7870334104893104e-01 2.9171247999217514e-01 -1.4206324349451478e+00 1.3863236438176674e+00 1.2378045053349596e+00 -2.2167587668712352e-02 -5.6361522361302174e-01 -8.8903094487371970e-01 1.5884378104281105e+00 -5.4633203088971749e-01 2.9265486825708015e-01 1.5622481265343366e+00 1.2075299201440988e+00 -1.1682568987833812e+00 
        </Neuron>
        <Neuron NSynapses="24">
          1.3789652901518858e+00 -1.9135835811195889e+00 1.2565413366476985e+00 1.6618714610538696e+00 -1.5355298935633699e-01 -2.8176196327874481e-01 -6.5887340816864856e-02 -6.3151117606748053e-01 1.0588764140963247e+00 2.9130186973435834e-01 -8.6273015390343089e-01 -1.5945307814794971e+00 -4.3391127834840171e-02 2.0282891743431648e+00 4.0016744471928839e-01 -5.1314750295886014e-01 -2.0302625380825985e+00 1.8338642448906453e+00 3.6726526347535826e-01 -1.1541730666496199e+00 -1.1253430915089863e-01 -1.0568044733551778e+00 1.5092408037028249e+00 1.5591167335835010e+00 
        </Neuron>
      </Layer>
      <Layer Index="1" NNeurons="25">
        <Neuron NSynapses="1">
          -9.1184168249260678e-01 
        </Neuron>
        <Neuron NSynapses="1">
          -9.7115929350055397e-01 
        </Neuron>
        <Neuron NSynapses="1">
          1.0764013157471914e+00 
        </Neuron>
        <Neuron NSynapses="1">
          1.2294345451238273e+00 
        </Neuron>
        <Neuron NSynapses="1">
          1.1603357045426584e-01 
        </Neuron>
        <Neuron NSynapses="1">
          2.0128499177325555e-02 
        </Neuron>
        <Neuron NSynapses="1">
          -7.9829439900364663e-01 
        </Neuron>
        <Neuron NSynapses="1">
          -1.0550263731027019e+00 
        </Neuron>
        <Neuron NSynapses="1">
          1.0116847149658874e+00 
        </Neuron>
        <Neuron NSynapses="1">
          -1.1046665394562259e-01 
        </Neuron>
        <Neuron NSynapses="1">
          2.5239683443918903e-01 
        </Neuron>
        <Neuron NSynapses="1">
          -1.2945238369250700e+00 
        </Neuron>
        <Neuron NSynapses="1">
          -1.9413329407307098e+00 
        </Neuron>
        <Neuron NSynapses="1">
          -1.4995125692084179e+00 
        </Neuron>
        <Neuron NSynapses="1">
          -1.6063873829854536e-01 
        </Neuron>
        <Neuron NSynapses="1">
          -1.8125761647684202e+00 
        </Neuron>
        <Neuron NSynapses="1">
          7.3483356451826132e-01 
        </Neuron>
        <Neuron NSynapses="1">
          -5.3087974094252321e-01 
        </Neuron>
        <Neuron NSynapses="1">
          8.8397393212061248e-01 
        </Neuron>
        <Neuron NSynapses="1">
          -3.5301420436481573e-01 
        </Neuron>
        <Neuron NSynapses="1">
          -1.1278097290183391e+00 
        </Neuron>
        <Neuron NSynapses="1">
          1.3066737277358544e+00 
        </Neuron>
        <Neuron NSynapses="1">
          1.3691452996009337e+00 
        </Neuron>
        <Neuron NSynapses="1">
          8.2416870207276660e-01 
        </Neuron>
        <Neuron NSynapses="1">
          -6.6651525413783386e-01 
        </Neuron>
      </Layer>
      <Layer Index="2" NNeurons="1">
        <Neuron NSynapses="0"/>
      </Layer>
    </Layout>
  </Weights>
</MethodSetup>
