<?xml version="1.0"?>
<MethodSetup Method="MLP::MLP">
  <GeneralInfo>
    <Info name="TMVA Release" value="4.2.1 [262657]"/>
    <Info name="ROOT Release" value="6.08/07 [395271]"/>
    <Info name="Creator" value="wverbeke"/>
    <Info name="Date" value="Tue Dec  5 04:31:48 2017"/>
    <Info name="Host" value="Linux vocms0302.cern.ch 2.6.32-696.1.1.el6.x86_64 #1 SMP Wed Apr 12 08:44:28 CEST 2017 x86_64 x86_64 x86_64 GNU/Linux"/>
    <Info name="Dir" value="/storage_mnt/storage/user/wverbeke/Work/AnalysisCode/ewkino/bdtTraining/bdtTrainingsubmit"/>
    <Info name="Training events" value="179768"/>
    <Info name="TrainingTime" value="2.39401116e+03"/>
    <Info name="AnalysisType" value="Classification"/>
  </GeneralInfo>
  <Options>
    <Option name="NCycles" modified="Yes">600</Option>
    <Option name="HiddenLayers" modified="Yes">N+5</Option>
    <Option name="NeuronType" modified="Yes">tanh</Option>
    <Option name="RandomSeed" modified="No">1</Option>
    <Option name="EstimatorType" modified="No">CE</Option>
    <Option name="NeuronInputType" modified="No">sum</Option>
    <Option name="V" modified="Yes">False</Option>
    <Option name="VerbosityLevel" modified="No">Default</Option>
    <Option name="VarTransform" modified="Yes">N</Option>
    <Option name="H" modified="Yes">True</Option>
    <Option name="CreateMVAPdfs" modified="No">False</Option>
    <Option name="IgnoreNegWeightsInTraining" modified="No">False</Option>
    <Option name="TrainingMethod" modified="No">BP</Option>
    <Option name="LearningRate" modified="No">2.000000e-02</Option>
    <Option name="DecayRate" modified="No">1.000000e-02</Option>
    <Option name="TestRate" modified="Yes">5</Option>
    <Option name="EpochMonitoring" modified="No">False</Option>
    <Option name="Sampling" modified="No">1.000000e+00</Option>
    <Option name="SamplingEpoch" modified="No">1.000000e+00</Option>
    <Option name="SamplingImportance" modified="No">1.000000e+00</Option>
    <Option name="SamplingTraining" modified="No">True</Option>
    <Option name="SamplingTesting" modified="No">False</Option>
    <Option name="ResetStep" modified="No">50</Option>
    <Option name="Tau" modified="No">3.000000e+00</Option>
    <Option name="BPMode" modified="No">sequential</Option>
    <Option name="BatchSize" modified="No">-1</Option>
    <Option name="ConvergenceImprove" modified="No">1.000000e-30</Option>
    <Option name="ConvergenceTests" modified="No">-1</Option>
    <Option name="UseRegulator" modified="Yes">False</Option>
    <Option name="UpdateLimit" modified="No">10000</Option>
    <Option name="CalculateErrors" modified="No">False</Option>
    <Option name="WeightRange" modified="No">1.000000e+00</Option>
  </Options>
  <Variables NVar="15">
    <Variable VarIndex="0" Expression="topMass" Label="topMass" Title="topMass" Unit="" Internal="topMass" Type="F" Min="0.00000000e+00" Max="3.99334863e+03"/>
    <Variable VarIndex="1" Expression="pTForwardJets" Label="pTForwardJets" Title="pTForwardJets" Unit="" Internal="pTForwardJets" Type="F" Min="0.00000000e+00" Max="4.20486572e+02"/>
    <Variable VarIndex="2" Expression="etaMostForward" Label="etaMostForward" Title="etaMostForward" Unit="" Internal="etaMostForward" Type="F" Min="0.00000000e+00" Max="5.09056902e+00"/>
    <Variable VarIndex="3" Expression="pTLeadingJet" Label="pTLeadingJet" Title="pTLeadingJet" Unit="" Internal="pTLeadingJet" Type="F" Min="0.00000000e+00" Max="1.43800635e+03"/>
    <Variable VarIndex="4" Expression="pTLeadingLepton" Label="pTLeadingLepton" Title="pTLeadingLepton" Unit="" Internal="pTLeadingLepton" Type="F" Min="2.50012856e+01" Max="1.52704761e+03"/>
    <Variable VarIndex="5" Expression="mNotSoForwardJets" Label="mNotSoForwardJets" Title="mNotSoForwardJets" Unit="" Internal="mNotSoForwardJets" Type="F" Min="0.00000000e+00" Max="1.24173828e+03"/>
    <Variable VarIndex="6" Expression="missingET" Label="missingET" Title="missingET" Unit="" Internal="missingET" Type="F" Min="5.70351332e-02" Max="1.09605994e+03"/>
    <Variable VarIndex="7" Expression="highestDeepCSV" Label="highestDeepCSV" Title="highestDeepCSV" Unit="" Internal="highestDeepCSV" Type="F" Min="-2.00000000e+00" Max="6.32396579e-01"/>
    <Variable VarIndex="8" Expression="asymmetryWlep" Label="asymmetryWlep" Title="asymmetryWlep" Unit="" Internal="asymmetryWlep" Type="F" Min="-2.49871349e+00" Max="2.49709010e+00"/>
    <Variable VarIndex="9" Expression="etaZ" Label="etaZ" Title="etaZ" Unit="" Internal="etaZ" Type="F" Min="6.37137873e-06" Max="8.59097958e+00"/>
    <Variable VarIndex="10" Expression="m3l" Label="m3l" Title="m3l" Unit="" Internal="m3l" Type="F" Min="1.41661253e+01" Max="3.03126807e+03"/>
    <Variable VarIndex="11" Expression="maxDeltaPhill" Label="maxDeltaPhill" Title="maxDeltaPhill" Unit="" Internal="maxDeltaPhill" Type="F" Min="2.39989758e-02" Max="3.14158869e+00"/>
    <Variable VarIndex="12" Expression="pT3l" Label="pT3l" Title="pT3l" Unit="" Internal="pT3l" Type="F" Min="4.94666360e-02" Max="9.96792725e+02"/>
    <Variable VarIndex="13" Expression="mForwardJetsLeadinBJetW" Label="mForwardJetsLeadinBJetW" Title="mForwardJetsLeadinBJetW" Unit="" Internal="mForwardJetsLeadinBJetW" Type="F" Min="0.00000000e+00" Max="3.99334863e+03"/>
    <Variable VarIndex="14" Expression="ht" Label="ht" Title="ht" Unit="" Internal="ht" Type="F" Min="0.00000000e+00" Max="1.43800635e+03"/>
  </Variables>
  <Spectators NSpec="0"/>
  <Classes NClass="2">
    <Class Name="Signal" Index="0"/>
    <Class Name="Background" Index="1"/>
  </Classes>
  <Transformations NTransformations="1">
    <Transform Name="Normalize">
      <Selection>
        <Input NInputs="15">
          <Input Type="Variable" Label="topMass" Expression="topMass"/>
          <Input Type="Variable" Label="pTForwardJets" Expression="pTForwardJets"/>
          <Input Type="Variable" Label="etaMostForward" Expression="etaMostForward"/>
          <Input Type="Variable" Label="pTLeadingJet" Expression="pTLeadingJet"/>
          <Input Type="Variable" Label="pTLeadingLepton" Expression="pTLeadingLepton"/>
          <Input Type="Variable" Label="mNotSoForwardJets" Expression="mNotSoForwardJets"/>
          <Input Type="Variable" Label="missingET" Expression="missingET"/>
          <Input Type="Variable" Label="highestDeepCSV" Expression="highestDeepCSV"/>
          <Input Type="Variable" Label="asymmetryWlep" Expression="asymmetryWlep"/>
          <Input Type="Variable" Label="etaZ" Expression="etaZ"/>
          <Input Type="Variable" Label="m3l" Expression="m3l"/>
          <Input Type="Variable" Label="maxDeltaPhill" Expression="maxDeltaPhill"/>
          <Input Type="Variable" Label="pT3l" Expression="pT3l"/>
          <Input Type="Variable" Label="mForwardJetsLeadinBJetW" Expression="mForwardJetsLeadinBJetW"/>
          <Input Type="Variable" Label="ht" Expression="ht"/>
        </Input>
        <Output NOutputs="15">
          <Output Type="Variable" Label="topMass" Expression="topMass"/>
          <Output Type="Variable" Label="pTForwardJets" Expression="pTForwardJets"/>
          <Output Type="Variable" Label="etaMostForward" Expression="etaMostForward"/>
          <Output Type="Variable" Label="pTLeadingJet" Expression="pTLeadingJet"/>
          <Output Type="Variable" Label="pTLeadingLepton" Expression="pTLeadingLepton"/>
          <Output Type="Variable" Label="mNotSoForwardJets" Expression="mNotSoForwardJets"/>
          <Output Type="Variable" Label="missingET" Expression="missingET"/>
          <Output Type="Variable" Label="highestDeepCSV" Expression="highestDeepCSV"/>
          <Output Type="Variable" Label="asymmetryWlep" Expression="asymmetryWlep"/>
          <Output Type="Variable" Label="etaZ" Expression="etaZ"/>
          <Output Type="Variable" Label="m3l" Expression="m3l"/>
          <Output Type="Variable" Label="maxDeltaPhill" Expression="maxDeltaPhill"/>
          <Output Type="Variable" Label="pT3l" Expression="pT3l"/>
          <Output Type="Variable" Label="mForwardJetsLeadinBJetW" Expression="mForwardJetsLeadinBJetW"/>
          <Output Type="Variable" Label="ht" Expression="ht"/>
        </Output>
      </Selection>
      <Class ClassIndex="0">
        <Ranges>
          <Range Index="0" Min="0.0000000000000000e+00" Max="3.9933486328125000e+03"/>
          <Range Index="1" Min="0.0000000000000000e+00" Max="2.9514294433593750e+02"/>
          <Range Index="2" Min="0.0000000000000000e+00" Max="5.0815353393554688e+00"/>
          <Range Index="3" Min="0.0000000000000000e+00" Max="6.2263836669921875e+02"/>
          <Range Index="4" Min="2.5821325302124023e+01" Max="7.4753253173828125e+02"/>
          <Range Index="5" Min="0.0000000000000000e+00" Max="1.1055692138671875e+03"/>
          <Range Index="6" Min="6.9705116748809814e-01" Max="5.5268560791015625e+02"/>
          <Range Index="7" Min="-2.0000000000000000e+00" Max="6.3239657878875732e-01"/>
          <Range Index="8" Min="-2.4987134933471680e+00" Max="2.4829993247985840e+00"/>
          <Range Index="9" Min="2.2830278612673283e-03" Max="6.3215737342834473e+00"/>
          <Range Index="10" Min="4.1045242309570312e+01" Max="2.0939008789062500e+03"/>
          <Range Index="11" Min="2.1965362131595612e-01" Max="3.1414413452148438e+00"/>
          <Range Index="12" Min="3.9526891708374023e-01" Max="7.3696093750000000e+02"/>
          <Range Index="13" Min="0.0000000000000000e+00" Max="3.9933486328125000e+03"/>
          <Range Index="14" Min="0.0000000000000000e+00" Max="6.2263836669921875e+02"/>
        </Ranges>
      </Class>
      <Class ClassIndex="1">
        <Ranges>
          <Range Index="0" Min="0.0000000000000000e+00" Max="3.1422841796875000e+03"/>
          <Range Index="1" Min="0.0000000000000000e+00" Max="4.2048657226562500e+02"/>
          <Range Index="2" Min="0.0000000000000000e+00" Max="5.0905690193176270e+00"/>
          <Range Index="3" Min="0.0000000000000000e+00" Max="1.4380063476562500e+03"/>
          <Range Index="4" Min="2.5001285552978516e+01" Max="1.5270476074218750e+03"/>
          <Range Index="5" Min="0.0000000000000000e+00" Max="1.2417382812500000e+03"/>
          <Range Index="6" Min="5.7035133242607117e-02" Max="1.0960599365234375e+03"/>
          <Range Index="7" Min="-2.0000000000000000e+00" Max="6.3234961032867432e-01"/>
          <Range Index="8" Min="-2.4982640743255615e+00" Max="2.4970901012420654e+00"/>
          <Range Index="9" Min="6.3713787312735803e-06" Max="8.5909795761108398e+00"/>
          <Range Index="10" Min="1.4166125297546387e+01" Max="3.0312680664062500e+03"/>
          <Range Index="11" Min="2.3998975753784180e-02" Max="3.1415886878967285e+00"/>
          <Range Index="12" Min="4.9466636031866074e-02" Max="9.9679272460937500e+02"/>
          <Range Index="13" Min="0.0000000000000000e+00" Max="3.0322880859375000e+03"/>
          <Range Index="14" Min="0.0000000000000000e+00" Max="1.4380063476562500e+03"/>
        </Ranges>
      </Class>
      <Class ClassIndex="2">
        <Ranges>
          <Range Index="0" Min="0.0000000000000000e+00" Max="3.9933486328125000e+03"/>
          <Range Index="1" Min="0.0000000000000000e+00" Max="4.2048657226562500e+02"/>
          <Range Index="2" Min="0.0000000000000000e+00" Max="5.0905690193176270e+00"/>
          <Range Index="3" Min="0.0000000000000000e+00" Max="1.4380063476562500e+03"/>
          <Range Index="4" Min="2.5001285552978516e+01" Max="1.5270476074218750e+03"/>
          <Range Index="5" Min="0.0000000000000000e+00" Max="1.2417382812500000e+03"/>
          <Range Index="6" Min="5.7035133242607117e-02" Max="1.0960599365234375e+03"/>
          <Range Index="7" Min="-2.0000000000000000e+00" Max="6.3239657878875732e-01"/>
          <Range Index="8" Min="-2.4987134933471680e+00" Max="2.4970901012420654e+00"/>
          <Range Index="9" Min="6.3713787312735803e-06" Max="8.5909795761108398e+00"/>
          <Range Index="10" Min="1.4166125297546387e+01" Max="3.0312680664062500e+03"/>
          <Range Index="11" Min="2.3998975753784180e-02" Max="3.1415886878967285e+00"/>
          <Range Index="12" Min="4.9466636031866074e-02" Max="9.9679272460937500e+02"/>
          <Range Index="13" Min="0.0000000000000000e+00" Max="3.9933486328125000e+03"/>
          <Range Index="14" Min="0.0000000000000000e+00" Max="1.4380063476562500e+03"/>
        </Ranges>
      </Class>
    </Transform>
  </Transformations>
  <MVAPdfs/>
  <Weights>
    <Layout NLayers="3">
      <Layer Index="0" NNeurons="16">
        <Neuron NSynapses="20">
          -3.5622161334413566e-01 1.9831462417424204e+00 8.5645048123658030e-01 1.4705995554610252e+00 -1.9948018376929519e+00 -1.5183792271702243e+00 -7.9050824942363929e-01 2.0609603147630802e+00 -1.5056914727777582e+00 -1.1764958898950530e+00 -1.6275231101765002e+00 -4.9009413109579314e-01 -1.3527804452271268e+00 -5.0952961352509640e-01 -6.1398418565927437e-01 7.9259211480975555e-01 -4.1099843013814502e-01 1.7752298483328710e+00 1.1835004318942380e-01 1.3845344624247973e+00 
        </Neuron>
        <Neuron NSynapses="20">
          -3.9029193352508401e-01 -7.7086005323030216e-01 7.2298925709605122e-01 -1.6322329483461334e-01 -1.1711325229052461e+00 -2.2760313466991672e-01 1.5149977361368216e+00 -9.6614014908289869e-01 -1.9655844893379979e+00 2.1473034757584866e-03 6.6576105820799369e-01 1.5650129587221957e+00 -3.5439159038036655e-01 -1.8867503728569138e-01 2.3992919194907358e-01 -1.4673586894830731e-01 -1.4385536819128968e+00 1.7702787691140887e+00 -1.2526462524929740e+00 1.1190673357501852e+00 
        </Neuron>
        <Neuron NSynapses="20">
          1.0941509672808383e+00 8.4995323250303245e-01 1.8974437596194058e+00 9.5213515646424796e-01 -7.3853239094751633e-01 -1.5498418500508546e+00 8.2314198789574911e-01 1.4762638055225483e-01 1.2503035587219278e+00 1.6335194237203075e+00 1.5666472005002265e+00 1.4319047589481211e+00 -1.7938891183514616e+00 9.9062000199031652e-01 -1.8594551974960687e+00 -8.2657070453272929e-01 -1.3210863765285850e+00 -1.7020754443107398e+00 1.5983484923131117e+00 6.6592228518733354e-01 
        </Neuron>
        <Neuron NSynapses="20">
          -1.6226593964749378e+00 3.6145367162527980e-01 -3.4980834516624570e-01 4.2504577156034218e-01 1.8387066273299593e+00 -3.8699821710695015e-01 1.0649945222322886e-01 -1.1418511914157239e+00 6.6344859837743886e-01 -9.9890513592892738e-01 -7.3963965544730015e-01 -1.5324680985299981e+00 6.1486529885941210e-01 1.0658918529582488e+00 1.3437094950407780e+00 -2.3203510785568729e-01 -1.9253661498757473e+00 -1.8326748910671806e+00 9.5377747937022650e-01 4.9236294477809467e-01 
        </Neuron>
        <Neuron NSynapses="20">
          1.9251510477859228e+00 6.2997315064377912e-01 9.6246569975389962e-01 -1.0535924699200090e+00 -8.6282304440890656e-01 -2.4163105926536971e-01 1.1460131284416331e+00 -1.0216355048123451e+00 -1.6430022324998270e+00 -1.8702024074820276e+00 -2.2230802851193354e-01 -2.3642700476865164e-01 1.5512650677158799e+00 -1.6517670983914252e+00 -8.1881302254945709e-01 1.7180918316353566e+00 -8.4712741881541298e-01 -1.5070401399434898e+00 -1.5368267471850181e+00 1.0551066444823159e-01 
        </Neuron>
        <Neuron NSynapses="20">
          -1.9715942783785489e+00 -1.6857374186745897e+00 6.8350914741436175e-01 1.3934762644212806e+00 -1.1369330760355412e+00 1.6434968224864392e+00 -9.4069087591544664e-01 -7.1209621268715717e-01 -9.9959455765578673e-02 1.8542870569044378e-01 -1.8027278530415600e+00 1.6079249764390777e-01 1.8226685763549380e-01 4.2724676007439871e-01 -1.4063702161826612e+00 1.9593784990234575e+00 3.5909630859351288e-01 -9.3636482834165735e-01 7.4417022101567021e-01 -1.0729659036303554e+00 
        </Neuron>
        <Neuron NSynapses="20">
          -1.5975855076780592e+00 1.3273964751387762e-01 -3.7048694661212384e-01 1.5384946021476451e+00 7.7866043139881158e-01 -6.7665291271917172e-02 -3.5763437397984427e-01 2.0658361711309181e-01 -1.8950694478048418e+00 9.3922501149695126e-01 1.5183211153883358e-01 -1.8973697167007164e+00 5.2477217131507015e-01 -1.5146958728006044e+00 6.3687140206127701e-02 1.2790317845230117e+00 1.7803852356468268e+00 -1.8362962383441168e+00 3.0863452151377363e-01 1.5293926194894933e+00 
        </Neuron>
        <Neuron NSynapses="20">
          1.6489198602333417e+00 1.7043889107307900e-01 -1.5193114387739826e+00 -8.5403608712707343e-02 -1.4552517140453178e+00 1.5312299782094065e+00 1.1673935364789807e+00 -5.0643059867518869e-01 -3.6615317795216140e-01 -1.4059932637154767e-02 -1.3285309668641743e+00 4.5781886725423665e-01 1.5930494650034412e+00 -5.8407265647207940e-01 -5.9960834544790498e-01 2.0926418151507070e-01 1.0046373659861112e+00 5.8487664370720760e-01 8.5316661517958770e-01 -1.5138688245551577e+00 
        </Neuron>
        <Neuron NSynapses="20">
          1.4904233868437151e+00 7.6277580014296553e-01 4.8882884435228557e-01 4.9862884237650174e-01 1.0111481859707734e+00 -5.3189038804956923e-01 -5.9171778577378198e-01 1.0298281942974856e+00 -9.3741517263364837e-01 -4.7668848357494592e-01 1.5742570825898101e+00 1.0174046520558175e+00 -5.1744930163213299e-01 1.3946271464687447e+00 1.8487935902698014e+00 -1.8614926425358895e+00 6.5431312102136574e-01 8.6327002870518713e-02 5.0488374519693979e-01 -1.7089770770090194e+00 
        </Neuron>
        <Neuron NSynapses="20">
          -1.5225750380580338e+00 1.1531026414535517e+00 1.7527051237665388e+00 -1.9060330821168643e+00 -1.8730846163258510e-01 -6.5717788322343063e-01 2.8823296643763296e-01 1.7405558700900514e+00 -3.1327982524054665e-01 -6.6928083644337977e-01 -1.0635420824964947e+00 9.0281044378564157e-01 1.5123268712058167e+00 1.1708930618813675e+00 3.0534032777303077e-01 -6.9127570892381229e-01 -1.9871565757058105e+00 1.0935496140955876e+00 3.7553842446537522e-01 -1.3768654473346773e+00 
        </Neuron>
        <Neuron NSynapses="20">
          -7.1356173192916339e-01 3.0290399178548566e-01 7.6621627421168126e-02 -2.1873376675102909e+00 1.5591368210928400e+00 8.0169713088139682e-01 -5.7751968431027467e-01 -2.2394423549651064e-02 1.6074862066526945e+00 8.6472379953929102e-01 4.7877191389731089e-01 -2.5752568646477697e-01 -1.9499300578054732e+00 -9.0439245260734713e-01 1.7260754288336824e+00 1.4047737756641108e+00 7.6555112111233004e-01 1.9388444966501220e-01 1.9224353317139167e+00 -1.7069439451869295e+00 
        </Neuron>
        <Neuron NSynapses="20">
          -1.3146217677677137e+00 -1.2218246665885120e-01 -1.3939348413115484e+00 1.0658086152801429e+00 1.7429337409716372e+00 -1.1284130456648516e+00 8.7058342409300848e-01 -1.5510764437866692e-01 -1.6788083847821316e+00 -6.7951541924023251e-01 1.0099879094976456e+00 2.1096470044283033e-01 7.8016890287903329e-01 -1.2630364285386559e+00 1.6825352347116631e+00 -1.7911083965651429e+00 8.4710365670456833e-01 2.1885258348849962e-01 -1.4270093708030753e+00 -1.3094542962137359e+00 
        </Neuron>
        <Neuron NSynapses="20">
          -1.9583314876466533e+00 -4.3260157728140997e-01 -1.9197340841442903e+00 -1.8165492589980752e+00 -1.8759469003220932e+00 2.7170844590126732e-02 -1.0268905976740961e+00 -1.5036745670043514e+00 1.3276216481707395e+00 -9.6266860282590871e-01 1.4585479782401273e-01 -1.1528987019120487e+00 7.6813654363949699e-02 1.7705594718240765e+00 1.3724531619424674e+00 -7.8044947638671236e-01 -1.5022022140854903e+00 -1.0312604245602766e+00 -9.1759371190757233e-01 -1.6381964504274580e+00 
        </Neuron>
        <Neuron NSynapses="20">
          2.9849662405298683e-01 2.6278126577088462e-01 1.8546240043629632e+00 -5.9184080607861911e-01 2.5726123451444505e-01 -5.4718371899769491e-01 -1.9186630613833924e+00 1.3439293710404081e+00 1.1309328586579925e+00 -9.7634373292526722e-01 -1.0784320731170067e+00 7.7788020392940782e-01 1.1581065216373059e+00 4.1633694716651370e-01 -4.4324789625185124e-01 -1.6544288633297388e-01 1.4561043061836481e+00 1.0292038382655369e+00 9.4139430216412667e-01 -2.8510705846447931e-01 
        </Neuron>
        <Neuron NSynapses="20">
          2.0891420719655363e-01 -2.9727875752148686e-01 -1.4884179193453670e+00 -8.1395279705631185e-01 -1.7531807210015518e+00 -1.4207957969226377e+00 -1.5407879007188388e+00 1.8167065381935867e+00 -1.9258523535419529e+00 1.5082157816226172e+00 -1.5717256979467951e+00 1.0268852204667294e+00 -1.2283010450093250e+00 3.9794973412706874e-01 8.5716273834182966e-01 -1.7381927454332127e+00 2.4034864676035350e-01 6.4793495523458566e-01 -1.9965758422499149e+00 -1.4846785372140623e+00 
        </Neuron>
        <Neuron NSynapses="20">
          -1.6904470488453445e+00 -8.0549379623833506e-01 1.9081086494571287e+00 -2.8207518399940201e-01 2.5539491105099260e-01 -8.6134305580658010e-01 -1.1643498638417549e+00 -1.7849229389050567e+00 -9.4063336315680190e-01 -1.1774241528140403e+00 9.9143407295956165e-01 -1.2062152541783733e+00 -1.1258040581256803e+00 1.7500816114315969e+00 3.1702333235900443e-01 -6.5402066931304670e-01 1.8779273904526641e+00 -1.8050345885438719e+00 1.4613242257664456e+00 9.5940708833783284e-01 
        </Neuron>
      </Layer>
      <Layer Index="1" NNeurons="21">
        <Neuron NSynapses="1">
          -1.1612296380865177e+00 
        </Neuron>
        <Neuron NSynapses="1">
          -7.0011756904280864e-01 
        </Neuron>
        <Neuron NSynapses="1">
          5.0598672744287310e-01 
        </Neuron>
        <Neuron NSynapses="1">
          -7.5006609854178130e-01 
        </Neuron>
        <Neuron NSynapses="1">
          3.7385917944544267e-01 
        </Neuron>
        <Neuron NSynapses="1">
          1.1245557481135211e+00 
        </Neuron>
        <Neuron NSynapses="1">
          1.1976295204257099e+00 
        </Neuron>
        <Neuron NSynapses="1">
          1.6393050124877611e+00 
        </Neuron>
        <Neuron NSynapses="1">
          -1.3655181432880819e+00 
        </Neuron>
        <Neuron NSynapses="1">
          1.0837830379685203e+00 
        </Neuron>
        <Neuron NSynapses="1">
          -2.0267674517941749e+00 
        </Neuron>
        <Neuron NSynapses="1">
          6.4351220528247433e-01 
        </Neuron>
        <Neuron NSynapses="1">
          -1.8542194591359495e+00 
        </Neuron>
        <Neuron NSynapses="1">
          -1.3081484663414100e+00 
        </Neuron>
        <Neuron NSynapses="1">
          -1.6104671534041222e-02 
        </Neuron>
        <Neuron NSynapses="1">
          1.2634362163838755e+00 
        </Neuron>
        <Neuron NSynapses="1">
          2.9069048352159260e-01 
        </Neuron>
        <Neuron NSynapses="1">
          3.4968817033599969e-01 
        </Neuron>
        <Neuron NSynapses="1">
          2.8474840614051894e-01 
        </Neuron>
        <Neuron NSynapses="1">
          -2.1165286296637426e-01 
        </Neuron>
        <Neuron NSynapses="1">
          -8.6978946524850465e-01 
        </Neuron>
      </Layer>
      <Layer Index="2" NNeurons="1">
        <Neuron NSynapses="0"/>
      </Layer>
    </Layout>
  </Weights>
</MethodSetup>
