<?xml version="1.0"?>
<MethodSetup Method="MLP::MLP">
  <GeneralInfo>
    <Info name="TMVA Release" value="4.2.1 [262657]"/>
    <Info name="ROOT Release" value="6.08/07 [395271]"/>
    <Info name="Creator" value="wverbeke"/>
    <Info name="Date" value="Wed Nov 22 17:02:13 2017"/>
    <Info name="Host" value="Linux vocms0302.cern.ch 2.6.32-696.1.1.el6.x86_64 #1 SMP Wed Apr 12 08:44:28 CEST 2017 x86_64 x86_64 x86_64 GNU/Linux"/>
    <Info name="Dir" value="/storage_mnt/storage/user/wverbeke/Work/AnalysisCode/ewkino/bdtTraining"/>
    <Info name="Training events" value="227487"/>
    <Info name="TrainingTime" value="2.03961319e+03"/>
    <Info name="AnalysisType" value="Classification"/>
  </GeneralInfo>
  <Options>
    <Option name="NCycles" modified="Yes">600</Option>
    <Option name="HiddenLayers" modified="Yes">N+5</Option>
    <Option name="NeuronType" modified="Yes">tanh</Option>
    <Option name="RandomSeed" modified="No">1</Option>
    <Option name="EstimatorType" modified="No">CE</Option>
    <Option name="NeuronInputType" modified="No">sum</Option>
    <Option name="V" modified="Yes">False</Option>
    <Option name="VerbosityLevel" modified="No">Default</Option>
    <Option name="VarTransform" modified="Yes">N</Option>
    <Option name="H" modified="Yes">True</Option>
    <Option name="CreateMVAPdfs" modified="No">False</Option>
    <Option name="IgnoreNegWeightsInTraining" modified="No">False</Option>
    <Option name="TrainingMethod" modified="No">BP</Option>
    <Option name="LearningRate" modified="No">2.000000e-02</Option>
    <Option name="DecayRate" modified="No">1.000000e-02</Option>
    <Option name="TestRate" modified="Yes">5</Option>
    <Option name="EpochMonitoring" modified="No">False</Option>
    <Option name="Sampling" modified="No">1.000000e+00</Option>
    <Option name="SamplingEpoch" modified="No">1.000000e+00</Option>
    <Option name="SamplingImportance" modified="No">1.000000e+00</Option>
    <Option name="SamplingTraining" modified="No">True</Option>
    <Option name="SamplingTesting" modified="No">False</Option>
    <Option name="ResetStep" modified="No">50</Option>
    <Option name="Tau" modified="No">3.000000e+00</Option>
    <Option name="BPMode" modified="No">sequential</Option>
    <Option name="BatchSize" modified="No">-1</Option>
    <Option name="ConvergenceImprove" modified="No">1.000000e-30</Option>
    <Option name="ConvergenceTests" modified="No">-1</Option>
    <Option name="UseRegulator" modified="Yes">False</Option>
    <Option name="UpdateLimit" modified="No">10000</Option>
    <Option name="CalculateErrors" modified="No">False</Option>
    <Option name="WeightRange" modified="No">1.000000e+00</Option>
  </Options>
  <Variables NVar="15">
    <Variable VarIndex="0" Expression="topMass" Label="topMass" Title="topMass" Unit="" Internal="topMass" Type="F" Min="0.00000000e+00" Max="3.63246729e+03"/>
    <Variable VarIndex="1" Expression="pTForwardJets" Label="pTForwardJets" Title="pTForwardJets" Unit="" Internal="pTForwardJets" Type="F" Min="0.00000000e+00" Max="4.39241577e+02"/>
    <Variable VarIndex="2" Expression="etaMostForward" Label="etaMostForward" Title="etaMostForward" Unit="" Internal="etaMostForward" Type="F" Min="0.00000000e+00" Max="5.08972073e+00"/>
    <Variable VarIndex="3" Expression="pTLeadingJet" Label="pTLeadingJet" Title="pTLeadingJet" Unit="" Internal="pTLeadingJet" Type="F" Min="0.00000000e+00" Max="1.53989551e+03"/>
    <Variable VarIndex="4" Expression="pTLeadingLepton" Label="pTLeadingLepton" Title="pTLeadingLepton" Unit="" Internal="pTLeadingLepton" Type="F" Min="2.50011730e+01" Max="1.52704761e+03"/>
    <Variable VarIndex="5" Expression="mNotSoForwardJets" Label="mNotSoForwardJets" Title="mNotSoForwardJets" Unit="" Internal="mNotSoForwardJets" Type="F" Min="0.00000000e+00" Max="1.24173828e+03"/>
    <Variable VarIndex="6" Expression="missingET" Label="missingET" Title="missingET" Unit="" Internal="missingET" Type="F" Min="4.16581221e-02" Max="9.60182922e+02"/>
    <Variable VarIndex="7" Expression="highestDeepCSV" Label="highestDeepCSV" Title="highestDeepCSV" Unit="" Internal="highestDeepCSV" Type="F" Min="-2.00000000e+00" Max="9.99812603e-01"/>
    <Variable VarIndex="8" Expression="asymmetryWlep" Label="asymmetryWlep" Title="asymmetryWlep" Unit="" Internal="asymmetryWlep" Type="F" Min="-2.49968743e+00" Max="2.49853206e+00"/>
    <Variable VarIndex="9" Expression="etaZ" Label="etaZ" Title="etaZ" Unit="" Internal="etaZ" Type="F" Min="3.41986015e-06" Max="7.53275013e+00"/>
    <Variable VarIndex="10" Expression="m3l" Label="m3l" Title="m3l" Unit="" Internal="m3l" Type="F" Min="1.37949934e+01" Max="3.70467773e+03"/>
    <Variable VarIndex="11" Expression="maxDeltaPhill" Label="maxDeltaPhill" Title="maxDeltaPhill" Unit="" Internal="maxDeltaPhill" Type="F" Min="3.16418409e-02" Max="3.14158654e+00"/>
    <Variable VarIndex="12" Expression="pT3l" Label="pT3l" Title="pT3l" Unit="" Internal="pT3l" Type="F" Min="7.96797946e-02" Max="1.25070654e+03"/>
    <Variable VarIndex="13" Expression="mForwardJetsLeadinBJetW" Label="mForwardJetsLeadinBJetW" Title="mForwardJetsLeadinBJetW" Unit="" Internal="mForwardJetsLeadinBJetW" Type="F" Min="0.00000000e+00" Max="3.63246729e+03"/>
    <Variable VarIndex="14" Expression="ht" Label="ht" Title="ht" Unit="" Internal="ht" Type="F" Min="0.00000000e+00" Max="1.53989551e+03"/>
  </Variables>
  <Spectators NSpec="0"/>
  <Classes NClass="2">
    <Class Name="Signal" Index="0"/>
    <Class Name="Background" Index="1"/>
  </Classes>
  <Transformations NTransformations="1">
    <Transform Name="Normalize">
      <Selection>
        <Input NInputs="15">
          <Input Type="Variable" Label="topMass" Expression="topMass"/>
          <Input Type="Variable" Label="pTForwardJets" Expression="pTForwardJets"/>
          <Input Type="Variable" Label="etaMostForward" Expression="etaMostForward"/>
          <Input Type="Variable" Label="pTLeadingJet" Expression="pTLeadingJet"/>
          <Input Type="Variable" Label="pTLeadingLepton" Expression="pTLeadingLepton"/>
          <Input Type="Variable" Label="mNotSoForwardJets" Expression="mNotSoForwardJets"/>
          <Input Type="Variable" Label="missingET" Expression="missingET"/>
          <Input Type="Variable" Label="highestDeepCSV" Expression="highestDeepCSV"/>
          <Input Type="Variable" Label="asymmetryWlep" Expression="asymmetryWlep"/>
          <Input Type="Variable" Label="etaZ" Expression="etaZ"/>
          <Input Type="Variable" Label="m3l" Expression="m3l"/>
          <Input Type="Variable" Label="maxDeltaPhill" Expression="maxDeltaPhill"/>
          <Input Type="Variable" Label="pT3l" Expression="pT3l"/>
          <Input Type="Variable" Label="mForwardJetsLeadinBJetW" Expression="mForwardJetsLeadinBJetW"/>
          <Input Type="Variable" Label="ht" Expression="ht"/>
        </Input>
        <Output NOutputs="15">
          <Output Type="Variable" Label="topMass" Expression="topMass"/>
          <Output Type="Variable" Label="pTForwardJets" Expression="pTForwardJets"/>
          <Output Type="Variable" Label="etaMostForward" Expression="etaMostForward"/>
          <Output Type="Variable" Label="pTLeadingJet" Expression="pTLeadingJet"/>
          <Output Type="Variable" Label="pTLeadingLepton" Expression="pTLeadingLepton"/>
          <Output Type="Variable" Label="mNotSoForwardJets" Expression="mNotSoForwardJets"/>
          <Output Type="Variable" Label="missingET" Expression="missingET"/>
          <Output Type="Variable" Label="highestDeepCSV" Expression="highestDeepCSV"/>
          <Output Type="Variable" Label="asymmetryWlep" Expression="asymmetryWlep"/>
          <Output Type="Variable" Label="etaZ" Expression="etaZ"/>
          <Output Type="Variable" Label="m3l" Expression="m3l"/>
          <Output Type="Variable" Label="maxDeltaPhill" Expression="maxDeltaPhill"/>
          <Output Type="Variable" Label="pT3l" Expression="pT3l"/>
          <Output Type="Variable" Label="mForwardJetsLeadinBJetW" Expression="mForwardJetsLeadinBJetW"/>
          <Output Type="Variable" Label="ht" Expression="ht"/>
        </Output>
      </Selection>
      <Class ClassIndex="0">
        <Ranges>
          <Range Index="0" Min="0.0000000000000000e+00" Max="3.6324672851562500e+03"/>
          <Range Index="1" Min="0.0000000000000000e+00" Max="3.7139437866210938e+02"/>
          <Range Index="2" Min="0.0000000000000000e+00" Max="5.0829029083251953e+00"/>
          <Range Index="3" Min="0.0000000000000000e+00" Max="7.0702319335937500e+02"/>
          <Range Index="4" Min="2.5032909393310547e+01" Max="7.4753253173828125e+02"/>
          <Range Index="5" Min="0.0000000000000000e+00" Max="1.1337043457031250e+03"/>
          <Range Index="6" Min="3.1336358189582825e-01" Max="5.5268560791015625e+02"/>
          <Range Index="7" Min="-2.0000000000000000e+00" Max="9.9829298257827759e-01"/>
          <Range Index="8" Min="-2.4987134933471680e+00" Max="2.4890909194946289e+00"/>
          <Range Index="9" Min="2.1028241608291864e-03" Max="6.2558598518371582e+00"/>
          <Range Index="10" Min="4.1045242309570312e+01" Max="2.0939008789062500e+03"/>
          <Range Index="11" Min="1.0813641548156738e-01" Max="3.1415066719055176e+00"/>
          <Range Index="12" Min="4.4127702713012695e-01" Max="7.3696093750000000e+02"/>
          <Range Index="13" Min="0.0000000000000000e+00" Max="3.6324672851562500e+03"/>
          <Range Index="14" Min="0.0000000000000000e+00" Max="7.0702319335937500e+02"/>
        </Ranges>
      </Class>
      <Class ClassIndex="1">
        <Ranges>
          <Range Index="0" Min="0.0000000000000000e+00" Max="2.8756542968750000e+03"/>
          <Range Index="1" Min="0.0000000000000000e+00" Max="4.3924157714843750e+02"/>
          <Range Index="2" Min="0.0000000000000000e+00" Max="5.0897207260131836e+00"/>
          <Range Index="3" Min="0.0000000000000000e+00" Max="1.5398955078125000e+03"/>
          <Range Index="4" Min="2.5001173019409180e+01" Max="1.5270476074218750e+03"/>
          <Range Index="5" Min="0.0000000000000000e+00" Max="1.2417382812500000e+03"/>
          <Range Index="6" Min="4.1658122092485428e-02" Max="9.6018292236328125e+02"/>
          <Range Index="7" Min="-2.0000000000000000e+00" Max="9.9981260299682617e-01"/>
          <Range Index="8" Min="-2.4996874332427979e+00" Max="2.4985320568084717e+00"/>
          <Range Index="9" Min="3.4198601497337222e-06" Max="7.5327501296997070e+00"/>
          <Range Index="10" Min="1.3794993400573730e+01" Max="3.7046777343750000e+03"/>
          <Range Index="11" Min="3.1641840934753418e-02" Max="3.1415865421295166e+00"/>
          <Range Index="12" Min="7.9679794609546661e-02" Max="1.2507065429687500e+03"/>
          <Range Index="13" Min="0.0000000000000000e+00" Max="2.8466379394531250e+03"/>
          <Range Index="14" Min="0.0000000000000000e+00" Max="1.5398955078125000e+03"/>
        </Ranges>
      </Class>
      <Class ClassIndex="2">
        <Ranges>
          <Range Index="0" Min="0.0000000000000000e+00" Max="3.6324672851562500e+03"/>
          <Range Index="1" Min="0.0000000000000000e+00" Max="4.3924157714843750e+02"/>
          <Range Index="2" Min="0.0000000000000000e+00" Max="5.0897207260131836e+00"/>
          <Range Index="3" Min="0.0000000000000000e+00" Max="1.5398955078125000e+03"/>
          <Range Index="4" Min="2.5001173019409180e+01" Max="1.5270476074218750e+03"/>
          <Range Index="5" Min="0.0000000000000000e+00" Max="1.2417382812500000e+03"/>
          <Range Index="6" Min="4.1658122092485428e-02" Max="9.6018292236328125e+02"/>
          <Range Index="7" Min="-2.0000000000000000e+00" Max="9.9981260299682617e-01"/>
          <Range Index="8" Min="-2.4996874332427979e+00" Max="2.4985320568084717e+00"/>
          <Range Index="9" Min="3.4198601497337222e-06" Max="7.5327501296997070e+00"/>
          <Range Index="10" Min="1.3794993400573730e+01" Max="3.7046777343750000e+03"/>
          <Range Index="11" Min="3.1641840934753418e-02" Max="3.1415865421295166e+00"/>
          <Range Index="12" Min="7.9679794609546661e-02" Max="1.2507065429687500e+03"/>
          <Range Index="13" Min="0.0000000000000000e+00" Max="3.6324672851562500e+03"/>
          <Range Index="14" Min="0.0000000000000000e+00" Max="1.5398955078125000e+03"/>
        </Ranges>
      </Class>
    </Transform>
  </Transformations>
  <MVAPdfs/>
  <Weights>
    <Layout NLayers="3">
      <Layer Index="0" NNeurons="16">
        <Neuron NSynapses="20">
          -3.7850015844753948e-01 1.9828028714389418e+00 8.4633017411226485e-01 1.4480498048097112e+00 -1.9917654744947650e+00 -1.5202668308532576e+00 -8.1223857752489637e-01 2.1187724877514609e+00 -1.4562070756740924e+00 -1.0408476562640856e+00 -1.6331134334886495e+00 -4.4447149394098601e-01 -1.3167734626589360e+00 -5.8813956707035486e-01 -5.9715427232724372e-01 7.9300850304873871e-01 -4.1004005096717505e-01 1.8664090908210436e+00 1.0601077448411311e-01 1.3651736546435878e+00 
        </Neuron>
        <Neuron NSynapses="20">
          -4.0203891396954022e-01 -7.4504463568755230e-01 7.1622339661115708e-01 -1.7415982329618315e-01 -1.1836740020898184e+00 -2.4475905756787691e-01 1.4879931588132418e+00 -9.6381967177519290e-01 -1.8267548519956380e+00 9.5909222785482695e-02 6.7003407086689537e-01 1.6145972311056220e+00 -2.1338795734509547e-01 -2.1007489654914532e-01 2.5960413918913361e-01 -1.4504250646961464e-01 -1.4388178357847410e+00 1.8381386025413002e+00 -1.2720110456098495e+00 1.0990533081191241e+00 
        </Neuron>
        <Neuron NSynapses="20">
          1.0694774966001124e+00 8.4855541921789213e-01 1.9009084338312707e+00 9.3500375009639580e-01 -7.4543666616295923e-01 -1.5823200024118624e+00 8.4171620985457929e-01 1.8368151690800372e-01 1.1423020855199959e+00 1.6817462881113869e+00 1.5694865749086691e+00 1.4685776199727023e+00 -1.9657879186057221e+00 9.4349862188275313e-01 -1.8624162844167633e+00 -8.1554125713907311e-01 -1.3214584062426691e+00 -1.5947785883486434e+00 1.6358995426701832e+00 6.5865015398167048e-01 
        </Neuron>
        <Neuron NSynapses="20">
          -1.6233961273321669e+00 3.6679014383987230e-01 -3.5769800111839251e-01 4.0643283000077512e-01 1.8382646597999173e+00 -4.0462706703463647e-01 8.6437961383954667e-02 -1.1185028956917036e+00 7.8035801365617707e-01 -9.2273729007093430e-01 -7.3821146114018177e-01 -1.5116124238651552e+00 7.1226494338341717e-01 1.0054895699965074e+00 1.3640296262695615e+00 -2.2686003803258387e-01 -1.9248989965150480e+00 -1.7616589148337123e+00 9.2594550773102180e-01 4.7560874800443975e-01 
        </Neuron>
        <Neuron NSynapses="20">
          1.9467509544051973e+00 6.4000439541453003e-01 9.4876914654591360e-01 -1.0652456319761094e+00 -8.6929507759650448e-01 -2.7913192712375062e-01 1.1291240459171399e+00 -1.0090978545410394e+00 -1.4938308908363076e+00 -1.7824471573427827e+00 -2.1904862878868966e-01 -2.1129485785734717e-01 1.6495734647049289e+00 -1.7019313288135869e+00 -7.9757543757237459e-01 1.7171463665106448e+00 -8.4645085044682733e-01 -1.4389660606567516e+00 -1.5660255435601986e+00 8.5785011677018824e-02 
        </Neuron>
        <Neuron NSynapses="20">
          -1.9632242559443691e+00 -1.6732987848553891e+00 6.6957042052786475e-01 1.3746996164663416e+00 -1.1444106256402906e+00 1.5826060875589034e+00 -9.5418532726661842e-01 -7.2350264757623994e-01 7.4191959349443976e-02 2.3145747157507732e-01 -1.7983402718093011e+00 1.7307763421089667e-01 3.6164248525547726e-01 4.1854521936330796e-01 -1.3783712950030458e+00 1.9600723154566766e+00 3.5999171271948283e-01 -8.8028505511033239e-01 7.0186674910271918e-01 -1.0923919951712546e+00 
        </Neuron>
        <Neuron NSynapses="20">
          -1.6025364737808587e+00 1.1780348542604549e-01 -3.7096276418385732e-01 1.5312820855308802e+00 7.8589281565833424e-01 -4.6582823047036891e-02 -3.8143955329886758e-01 2.7795105767107836e-01 -1.8751127024602507e+00 1.0971368481225212e+00 1.4639280543057420e-01 -1.8425549628366367e+00 5.3613307404074784e-01 -1.6345569045364099e+00 7.5850795855316899e-02 1.2744802362411962e+00 1.7813544854962833e+00 -1.7482320512432175e+00 3.0452203824066282e-01 1.5123583740522828e+00 
        </Neuron>
        <Neuron NSynapses="20">
          1.6575583490348083e+00 1.5429688863830510e-01 -1.5665378959058480e+00 -1.3019606195011191e-01 -1.4479466992138734e+00 1.5402798990281423e+00 1.1451873393212049e+00 -4.8437102773640517e-01 -2.9443627508165582e-01 -1.5992318371360331e-01 -1.3343076329196089e+00 3.9468146123127634e-01 1.3385147704482889e+00 -7.3560739738194836e-01 -6.0196346908893061e-01 2.4215518241750633e-01 1.0020498243899849e+00 5.6637975508971738e-01 8.1491218815704403e-01 -1.5013825947284640e+00 
        </Neuron>
        <Neuron NSynapses="20">
          1.5150958308344591e+00 7.7092276966095397e-01 4.9827941711934814e-01 5.1552928690783661e-01 1.0061428891239605e+00 -5.6144528609819488e-01 -5.7141955030099667e-01 9.6838097910988408e-01 -8.1287496449946139e-01 -5.3651517865417053e-01 1.5778478223945296e+00 9.7319807247847911e-01 -3.4353092030637961e-01 1.4470691531036317e+00 1.8486598097231284e+00 -1.8669492955714631e+00 6.5288808351965677e-01 3.9858472789418391e-02 4.8788680750230123e-01 -1.6917958282568828e+00 
        </Neuron>
        <Neuron NSynapses="20">
          -1.4919151690380601e+00 1.1791132864416423e+00 1.7359781670516663e+00 -1.8949012915609320e+00 -1.9437200028642274e-01 -7.2786461817201997e-01 2.6329951823093328e-01 1.6395578142135312e+00 -2.1873399234348395e-01 -6.1461573104912404e-01 -1.0596472800631354e+00 9.0825512581910295e-01 1.4200760388392459e+00 9.9415640381357229e-01 3.2264831095537827e-01 -6.9584857125573907e-01 -1.9874170211258901e+00 1.1761768318243286e+00 3.5824304643220672e-01 -1.3957554608623557e+00 
        </Neuron>
        <Neuron NSynapses="20">
          -7.0058869594134576e-01 3.1874322519250903e-01 6.1186002988779450e-02 -2.2122294866747398e+00 1.5528981750026167e+00 7.4823156435479254e-01 -5.9931273212595837e-01 -1.7812280847965076e-02 1.7930760404433592e+00 9.3768673891293775e-01 4.8205298215704057e-01 -2.3761364383818986e-01 -1.8373031908083175e+00 -9.2251998207244112e-01 1.7511278551834382e+00 1.4170027603065831e+00 7.6629755828690804e-01 2.6369921131881346e-01 1.8812531966991966e+00 -1.7293256621995234e+00 
        </Neuron>
        <Neuron NSynapses="20">
          -1.2953077105936885e+00 -1.1125996582707526e-01 -1.3651940867449697e+00 1.0623220334815229e+00 1.7352134723380113e+00 -1.1146156154338569e+00 8.4874556825821235e-01 -1.9664015296990903e-01 -1.7354345520001941e+00 -6.5256987654500520e-01 1.0152923773273215e+00 2.1343890363933454e-01 7.3425198788512680e-01 -1.1841649019595364e+00 1.6632418342465916e+00 -1.7933262041716751e+00 8.4863713403373886e-01 1.6584712463001433e-01 -1.3990467668593236e+00 -1.2938780476365539e+00 
        </Neuron>
        <Neuron NSynapses="20">
          -1.9405350783032633e+00 -4.3051202709639808e-01 -1.9356168899074260e+00 -1.8293525037199110e+00 -1.8800771496603550e+00 1.2182059763573762e-03 -1.0407876669072871e+00 -1.4832456626931374e+00 1.4398145034397969e+00 -8.9559085352217693e-01 1.4665004724319280e-01 -1.1369662482057730e+00 1.4671660301443729e-01 1.7002793575220843e+00 1.3905324141249749e+00 -7.7843556111027157e-01 -1.5015649799750876e+00 -9.7054965738300725e-01 -9.4203903619055740e-01 -1.6537051546294819e+00 
        </Neuron>
        <Neuron NSynapses="20">
          2.8810516685333626e-01 2.7503312537924485e-01 1.8420416419627179e+00 -6.1363383232166335e-01 2.5184907474923418e-01 -5.7202184012112833e-01 -1.9388726387864614e+00 1.3754320981531494e+00 1.2283208861577515e+00 -8.6037078840751746e-01 -1.0784216026330986e+00 8.2167193763910695e-01 1.2519918372817740e+00 3.6904040337714678e-01 -4.2203926170602318e-01 -1.6889872614877263e-01 1.4570601826432155e+00 1.1112772854881936e+00 9.2193288449795630e-01 -3.0608774758303114e-01 
        </Neuron>
        <Neuron NSynapses="20">
          2.0817747634166375e-01 -2.9194228530689437e-01 -1.4963075752944150e+00 -8.3256573861658889e-01 -1.7536226885315938e+00 -1.4384246468528028e+00 -1.5608493915572998e+00 1.8400548339176070e+00 -1.8089429382645608e+00 1.5843836274808563e+00 -1.5702975036408200e+00 1.0477408951315723e+00 -1.1309014004852955e+00 3.3754745116477791e-01 8.7748286956954635e-01 -1.7330176756095057e+00 2.4081580012182127e-01 7.1895093146647904e-01 -2.0244078138879495e+00 -1.5014327339860503e+00 
        </Neuron>
        <Neuron NSynapses="20">
          -1.7073413029368916e+00 -8.1717031964880504e-01 1.9189381098454983e+00 -2.6275289769965454e-01 2.6259560136284865e-01 -8.1826089691564974e-01 -1.1519427291487536e+00 -1.7885914664603486e+00 -1.1455184245811270e+00 -1.2266525119672140e+00 9.8728066904455181e-01 -1.2219209549332284e+00 -1.2963795178297328e+00 1.7684583374897147e+00 2.8713624539208221e-01 -6.5388408867649128e-01 1.8771884811835076e+00 -1.8654106363165848e+00 1.5055861909672796e+00 9.7969333426161753e-01 
        </Neuron>
      </Layer>
      <Layer Index="1" NNeurons="21">
        <Neuron NSynapses="1">
          -1.1664509017037292e+00 
        </Neuron>
        <Neuron NSynapses="1">
          -6.3813752651993905e-01 
        </Neuron>
        <Neuron NSynapses="1">
          5.9679407884787417e-01 
        </Neuron>
        <Neuron NSynapses="1">
          -8.0991502162428708e-01 
        </Neuron>
        <Neuron NSynapses="1">
          3.2795678536615580e-01 
        </Neuron>
        <Neuron NSynapses="1">
          9.0050957394182496e-01 
        </Neuron>
        <Neuron NSynapses="1">
          1.1217808207332716e+00 
        </Neuron>
        <Neuron NSynapses="1">
          1.6412735463816766e+00 
        </Neuron>
        <Neuron NSynapses="1">
          -1.4128221235418577e+00 
        </Neuron>
        <Neuron NSynapses="1">
          1.1331547039343359e+00 
        </Neuron>
        <Neuron NSynapses="1">
          -2.0985036913658828e+00 
        </Neuron>
        <Neuron NSynapses="1">
          5.0667822198705526e-01 
        </Neuron>
        <Neuron NSynapses="1">
          -1.7522905067229364e+00 
        </Neuron>
        <Neuron NSynapses="1">
          -1.2969811517293777e+00 
        </Neuron>
        <Neuron NSynapses="1">
          -2.1470996926977884e-01 
        </Neuron>
        <Neuron NSynapses="1">
          1.3330769729278069e+00 
        </Neuron>
        <Neuron NSynapses="1">
          2.5533353801510067e-01 
        </Neuron>
        <Neuron NSynapses="1">
          2.5956683415518478e-01 
        </Neuron>
        <Neuron NSynapses="1">
          4.0254971384670823e-01 
        </Neuron>
        <Neuron NSynapses="1">
          -1.3199853474037088e-01 
        </Neuron>
        <Neuron NSynapses="1">
          -9.0765318924682248e-01 
        </Neuron>
      </Layer>
      <Layer Index="2" NNeurons="1">
        <Neuron NSynapses="0"/>
      </Layer>
    </Layout>
  </Weights>
</MethodSetup>
