<?xml version="1.0"?>
<MethodSetup Method="DNN::DNN">
  <GeneralInfo>
    <Info name="TMVA Release" value="4.2.1 [262657]"/>
    <Info name="ROOT Release" value="6.08/07 [395271]"/>
    <Info name="Creator" value="wverbeke"/>
    <Info name="Date" value="Thu Nov 16 18:53:08 2017"/>
    <Info name="Host" value="Linux vocms0302.cern.ch 2.6.32-696.1.1.el6.x86_64 #1 SMP Wed Apr 12 08:44:28 CEST 2017 x86_64 x86_64 x86_64 GNU/Linux"/>
    <Info name="Dir" value="/storage_mnt/storage/user/wverbeke/Work/AnalysisCode/ewkino/bdtTraining"/>
    <Info name="Training events" value="148421"/>
    <Info name="TrainingTime" value="1.61701393e+03"/>
    <Info name="AnalysisType" value="Classification"/>
  </GeneralInfo>
  <Options>
    <Option name="V" modified="Yes">True</Option>
    <Option name="VerbosityLevel" modified="No">Verbose</Option>
    <Option name="VarTransform" modified="Yes">N</Option>
    <Option name="H" modified="Yes">False</Option>
    <Option name="CreateMVAPdfs" modified="No">False</Option>
    <Option name="IgnoreNegWeightsInTraining" modified="No">False</Option>
    <Option name="Layout" modified="Yes">TANH|128,TANH|128,TANH|128,LINEAR</Option>
    <Option name="ErrorStrategy" modified="Yes">CROSSENTROPY</Option>
    <Option name="WeightInitialization" modified="Yes">XAVIERUNIFORM</Option>
    <Option name="Architecture" modified="Yes">STANDARD</Option>
    <Option name="TrainingStrategy" modified="Yes">LearningRate=1e-1,Momentum=0.9,Repetitions=1,ConvergenceSteps=20,BatchSize=256,TestRepetitions=10,WeightDecay=1e-4,Regularization=L2,DropConfig=0.0+0.5+0.5+0.5,</Option>
  </Options>
  <Variables NVar="10">
    <Variable VarIndex="0" Expression="topMass" Label="topMass" Title="topMass" Unit="" Internal="topMass" Type="F" Min="-1.52389038e+03" Max="4.13083252e+03"/>
    <Variable VarIndex="1" Expression="pTForwardJets" Label="pTForwardJets" Title="pTForwardJets" Unit="" Internal="pTForwardJets" Type="F" Min="0.00000000e+00" Max="6.57554993e+02"/>
    <Variable VarIndex="2" Expression="etaLeading" Label="etaLeading" Title="etaLeading" Unit="" Internal="etaLeading" Type="F" Min="5.95281472e-06" Max="5.08406591e+00"/>
    <Variable VarIndex="3" Expression="etaMostForward" Label="etaMostForward" Title="etaMostForward" Unit="" Internal="etaMostForward" Type="F" Min="1.79375941e-03" Max="5.08897448e+00"/>
    <Variable VarIndex="4" Expression="pTLeadingLepton" Label="pTLeadingLepton" Title="pTLeadingLepton" Unit="" Internal="pTLeadingLepton" Type="F" Min="2.51461773e+01" Max="1.79043994e+03"/>
    <Variable VarIndex="5" Expression="pTLeadingJet" Label="pTLeadingJet" Title="pTLeadingJet" Unit="" Internal="pTLeadingJet" Type="F" Min="2.58344803e+01" Max="1.83383179e+03"/>
    <Variable VarIndex="6" Expression="pTLeadingBJet" Label="pTLeadingBJet" Title="pTLeadingBJet" Unit="" Internal="pTLeadingBJet" Type="F" Min="2.55013065e+01" Max="9.03122131e+02"/>
    <Variable VarIndex="7" Expression="missingET" Label="missingET" Title="missingET" Unit="" Internal="missingET" Type="F" Min="1.23718478e-01" Max="1.44135791e+03"/>
    <Variable VarIndex="8" Expression="pTTrailingLepton" Label="pTTrailingLepton" Title="pTTrailingLepton" Unit="" Internal="pTTrailingLepton" Type="F" Min="1.50005836e+01" Max="4.95976685e+02"/>
    <Variable VarIndex="9" Expression="highestDeepCSV" Label="highestDeepCSV" Title="highestDeepCSV" Unit="" Internal="highestDeepCSV" Type="F" Min="-2.00000000e+00" Max="9.99990165e-01"/>
  </Variables>
  <Spectators NSpec="0"/>
  <Classes NClass="2">
    <Class Name="Signal" Index="0"/>
    <Class Name="Background" Index="1"/>
  </Classes>
  <Transformations NTransformations="1">
    <Transform Name="Normalize">
      <Selection>
        <Input NInputs="10">
          <Input Type="Variable" Label="topMass" Expression="topMass"/>
          <Input Type="Variable" Label="pTForwardJets" Expression="pTForwardJets"/>
          <Input Type="Variable" Label="etaLeading" Expression="etaLeading"/>
          <Input Type="Variable" Label="etaMostForward" Expression="etaMostForward"/>
          <Input Type="Variable" Label="pTLeadingLepton" Expression="pTLeadingLepton"/>
          <Input Type="Variable" Label="pTLeadingJet" Expression="pTLeadingJet"/>
          <Input Type="Variable" Label="pTLeadingBJet" Expression="pTLeadingBJet"/>
          <Input Type="Variable" Label="missingET" Expression="missingET"/>
          <Input Type="Variable" Label="pTTrailingLepton" Expression="pTTrailingLepton"/>
          <Input Type="Variable" Label="highestDeepCSV" Expression="highestDeepCSV"/>
        </Input>
        <Output NOutputs="10">
          <Output Type="Variable" Label="topMass" Expression="topMass"/>
          <Output Type="Variable" Label="pTForwardJets" Expression="pTForwardJets"/>
          <Output Type="Variable" Label="etaLeading" Expression="etaLeading"/>
          <Output Type="Variable" Label="etaMostForward" Expression="etaMostForward"/>
          <Output Type="Variable" Label="pTLeadingLepton" Expression="pTLeadingLepton"/>
          <Output Type="Variable" Label="pTLeadingJet" Expression="pTLeadingJet"/>
          <Output Type="Variable" Label="pTLeadingBJet" Expression="pTLeadingBJet"/>
          <Output Type="Variable" Label="missingET" Expression="missingET"/>
          <Output Type="Variable" Label="pTTrailingLepton" Expression="pTTrailingLepton"/>
          <Output Type="Variable" Label="highestDeepCSV" Expression="highestDeepCSV"/>
        </Output>
      </Selection>
      <Class ClassIndex="0">
        <Ranges>
          <Range Index="0" Min="-1.5206217041015625e+03" Max="4.1308325195312500e+03"/>
          <Range Index="1" Min="0.0000000000000000e+00" Max="6.5755499267578125e+02"/>
          <Range Index="2" Min="2.5403429754078388e-04" Max="5.0727930068969727e+00"/>
          <Range Index="3" Min="4.7298897057771683e-02" Max="5.0889744758605957e+00"/>
          <Range Index="4" Min="2.5221763610839844e+01" Max="9.8220538330078125e+02"/>
          <Range Index="5" Min="2.6647949218750000e+01" Max="1.1983630371093750e+03"/>
          <Range Index="6" Min="2.5501306533813477e+01" Max="9.0312213134765625e+02"/>
          <Range Index="7" Min="5.1122868061065674e-01" Max="7.9335406494140625e+02"/>
          <Range Index="8" Min="1.5004747390747070e+01" Max="3.2883105468750000e+02"/>
          <Range Index="9" Min="-2.0000000000000000e+00" Max="9.9996662139892578e-01"/>
        </Ranges>
      </Class>
      <Class ClassIndex="1">
        <Ranges>
          <Range Index="0" Min="-1.5238903808593750e+03" Max="3.2680275878906250e+03"/>
          <Range Index="1" Min="0.0000000000000000e+00" Max="5.5968280029296875e+02"/>
          <Range Index="2" Min="5.9528147176024504e-06" Max="5.0840659141540527e+00"/>
          <Range Index="3" Min="1.7937594093382359e-03" Max="5.0875806808471680e+00"/>
          <Range Index="4" Min="2.5146177291870117e+01" Max="1.7904399414062500e+03"/>
          <Range Index="5" Min="2.5834480285644531e+01" Max="1.8338317871093750e+03"/>
          <Range Index="6" Min="2.5503477096557617e+01" Max="8.3191021728515625e+02"/>
          <Range Index="7" Min="1.2371847778558731e-01" Max="1.4413579101562500e+03"/>
          <Range Index="8" Min="1.5000583648681641e+01" Max="4.9597668457031250e+02"/>
          <Range Index="9" Min="-2.0000000000000000e+00" Max="9.9999016523361206e-01"/>
        </Ranges>
      </Class>
      <Class ClassIndex="2">
        <Ranges>
          <Range Index="0" Min="-1.5238903808593750e+03" Max="4.1308325195312500e+03"/>
          <Range Index="1" Min="0.0000000000000000e+00" Max="6.5755499267578125e+02"/>
          <Range Index="2" Min="5.9528147176024504e-06" Max="5.0840659141540527e+00"/>
          <Range Index="3" Min="1.7937594093382359e-03" Max="5.0889744758605957e+00"/>
          <Range Index="4" Min="2.5146177291870117e+01" Max="1.7904399414062500e+03"/>
          <Range Index="5" Min="2.5834480285644531e+01" Max="1.8338317871093750e+03"/>
          <Range Index="6" Min="2.5501306533813477e+01" Max="9.0312213134765625e+02"/>
          <Range Index="7" Min="1.2371847778558731e-01" Max="1.4413579101562500e+03"/>
          <Range Index="8" Min="1.5000583648681641e+01" Max="4.9597668457031250e+02"/>
          <Range Index="9" Min="-2.0000000000000000e+00" Max="9.9999016523361206e-01"/>
        </Ranges>
      </Class>
    </Transform>
  </Transformations>
  <MVAPdfs/>
  <Weights InputWidth="10" Depth="4" LossFunction="C" OutputFunction="S">
    <Layer ActivationFunction="3">
      <Weights rows="128" cols="10">
        -3.1514228036430320e-01 1.5007498495271365e-01 1.0186250912536360e-01 -1.4487411403527264e-01 1.3563104921837499e-01 -4.0187129563816043e-01 3.8937566053907316e-02 5.0339822603848443e-02 -3.9926478265191551e-01 3.9408682873736040e-01 -3.5502148669458569e-02 2.8564879288022227e-01 -4.1138938627232219e-01 6.1956718877401416e-02 -3.7554362351530124e-01 -2.6252162308452665e-01 2.9908972293198871e-01 1.4227604928166282e-01 -2.8042403488357387e-01 -3.4239986601020139e-01 -2.3863666291931662e-01 2.8371788476596332e-01 1.8999167550388910e-01 -2.5297182390653616e-01 -1.8632947091027796e-01 -1.8990554525708045e-01 5.1791238436967001e-02 1.3243026193737834e-01 3.8319411778504070e-01 -3.3622431839929268e-01 1.5281502541633243e-01 -3.5596345330472245e-01 -3.8014681078664819e-01 4.0451261591603027e-01 -2.7498650668070157e-01 -7.7029904313846778e-02 3.4365828894234135e-01 -1.8700893566702390e-01 2.7385081088878210e-01 2.5025161073829172e-01 3.7103880310808834e-01 1.1190596245510973e-01 1.6851709857217408e-02 -6.5682967085579020e-03 3.3940966371698700e-01 1.9030842527642997e-01 2.2251381982687599e-01 -4.2099170729899105e-01 -1.4190176914891256e-01 -1.0163992651762746e-01 1.6044755322065569e-02 -2.4718842528968626e-01 -3.7112470066824743e-01 2.5927191313831466e-01 7.9724453549054913e-02 1.1246247864622110e-01 4.2304277404839546e-01 -3.7742723284969187e-01 2.8458050612335434e-01 -3.0838758800498006e-01 -3.9713833220448519e-01 -9.6391943377141270e-02 4.0604361180464649e-01 -2.9083146324317177e-01 1.6237343894230280e-01 -4.2665480897925162e-01 -1.0758422969109639e-01 -2.4420290966093983e-01 -5.0695445035571877e-02 -3.4405202943747326e-01 2.6363845761082017e-02 3.8544176595684865e-01 -1.4433920911418763e-01 -2.9824849973012729e-01 6.1381330459585930e-02 -1.2851250388376162e-01 2.1247787470648780e-01 -2.0716984796057927e-01 -3.7343884171473585e-01 -3.2261364125511122e-01 -4.2067550204932619e-01 -2.0033659961994424e-01 2.0631586757399437e-01 -1.0267484573958020e-01 -5.7368470821714923e-02 -8.4349688995975051e-03 2.2448704812082235e-01 2.0077300637143858e-01 1.2109860851901821e-01 1.8095489636506903e-01 -3.7059630260028142e-01 -1.8921331708070496e-01 -2.8205594362881720e-01 -6.5885712474587230e-02 -2.5474734388239445e-01 -1.5679021544736396e-01 1.1741671902517214e-01 -2.5846465205009734e-02 -2.5060742279623904e-01 6.5848479224780376e-02 1.5978156994551970e-01 2.4414965855639981e-01 3.7508878987465943e-01 1.2964944446775351e-01 -1.9440979371366982e-01 -3.0847868534164874e-01 -3.3800380398685836e-01 3.6128510586753815e-01 1.6112565521254160e-01 7.6954099581783411e-02 3.6659488041300420e-01 -1.8717741141432023e-01 -2.0942476702198945e-01 -3.7513432223687476e-01 -2.1897820391129047e-01 -9.7460661699090290e-02 3.0862294070067831e-01 -2.1375961011664890e-01 -1.1441861838636616e-01 4.2224791730108030e-01 2.1994222684914407e-02 -4.2235522022249383e-01 -3.2339551526688060e-01 3.3588847219107998e-01 -1.9900297056930430e-02 -3.7938986422353965e-01 3.6453730049469030e-01 1.5441722041022896e-01 -3.2224045960027836e-01 -3.7428475513669002e-01 1.3095559260216089e-01 4.1212470184963573e-01 -2.9016793424320120e-01 3.4250514677279403e-01 3.9234458492529845e-01 2.2540565964680492e-01 -1.7866715497444619e-01 -2.2931588833053865e-02 2.6624024427189041e-01 -1.0440773931248698e-01 1.7083857592846965e-01 2.6898512259322294e-01 -3.3847193369388001e-01 -2.8190768108225428e-01 -2.4294831941100117e-01 3.9195428666979282e-01 4.0257456745762576e-01 2.7845054539330848e-03 3.2180798761123265e-02 -2.2307981784868577e-01 2.2335147793776913e-01 -8.8179510939494013e-02 -1.1293329267446357e-01 -4.0006903239022007e-01 2.4003025184640125e-01 4.2485010701745130e-01 2.8092973142454497e-01 2.8471445814756430e-01 1.9760808535211299e-01 4.1215990811198211e-01 -3.8589885917786931e-01 -2.7742804221896111e-01 -1.4721453283862659e-01 1.7937826441222045e-02 3.9359300047279727e-01 -1.2727531743163961e-01 -2.6503150197229308e-01 4.0344175395941223e-01 4.2918044414775050e-02 -3.1450345148233338e-01 -1.4650984983077406e-01 -2.9275630803302727e-01 6.5363631178847428e-02 -1.9036281717920567e-01 6.3057782037602261e-02 -2.5637349848562008e-01 2.2593196372039059e-01 -2.9959741999302780e-01 1.7650911279851669e-01 1.1971437331158222e-01 2.1791991609386019e-01 -2.1297826561559136e-01 2.1844905016317048e-01 7.2115605665612523e-02 -3.1785302012699856e-01 3.4682809076043729e-02 -4.0252256968326849e-01 -9.1679514168903312e-02 1.8567732463820832e-01 1.3052397973567068e-01 -1.1531716984313078e-01 -3.4665517121426453e-01 1.6740416857841334e-01 2.6185687870601310e-01 1.5721124044214478e-03 -2.5489001150344087e-01 -1.0965091830516321e-01 2.2789805206963187e-01 1.7328211869777480e-01 -1.3070716538366062e-01 4.1176529748019941e-01 1.1719046483567683e-01 3.7114162542889506e-01 3.7572757729926509e-01 3.6255035252839192e-03 1.1569473513444778e-02 -2.6070779804941241e-01 -3.8308523351770860e-02 -1.0046245875554614e-01 3.2597121814361768e-01 2.1546429289870883e-01 2.4917014686176042e-01 -1.1844088305252404e-01 6.7637833837881703e-02 -3.2663927934998238e-01 9.0781182892590379e-02 8.0913313797006545e-02 1.1463769160434042e-01 -2.7060212417437962e-01 -2.8048582636061758e-01 -3.6526499368279519e-01 2.1254378949064101e-01 -3.9499715918610200e-02 3.2447943406992696e-01 1.4222672268757566e-01 2.5255737839002229e-01 3.9616132409572478e-02 2.0402438618418389e-01 -1.6914614331858874e-01 -1.4430697012220444e-02 3.2758982535553999e-01 1.1198386882697402e-01 -2.2202966399494850e-01 -2.6510714947961184e-01 -9.7645243276719446e-02 -3.0242990534278374e-01 2.3473500304370110e-01 -1.9567761513850704e-01 1.6954560392370685e-01 -3.4446434470657528e-01 -5.2608283198600447e-02 9.0107893074610201e-02 -6.4846508188892843e-02 1.8791870833243376e-01 2.8537568145360698e-01 2.3768735663828394e-02 1.8256175469038910e-01 -2.6806394416159951e-01 -4.5321460166122835e-03 -3.1975035733018842e-01 -1.5668712904481432e-02 -1.4055372999450116e-01 -1.7522580241628605e-01 -3.6108872079917648e-01 -3.1503849112809157e-01 6.8272867984991548e-02 3.3763197143503865e-01 2.5475058662696359e-01 -2.6571731984183550e-01 -3.1963696633085786e-01 -1.9411276866595506e-01 -3.3655644340167251e-01 -2.4568409345738138e-01 3.1845235518059167e-01 1.2436670500688420e-01 1.4921197792479557e-01 4.1542524363148975e-01 -3.6543086512906103e-01 -2.3036911241607222e-01 -3.1690636624280522e-01 -2.8541139156527801e-01 1.8167432148027102e-02 2.1719008817038848e-02 -3.5072488256480461e-01 2.9490920368020318e-01 2.9133138075990106e-01 -3.5680162142306049e-03 2.8775566215315762e-01 2.0774519682642906e-02 -6.6762024343016133e-02 3.3910151644909214e-01 7.5150014146309965e-02 3.1002799624252286e-01 -7.0819368169028563e-02 -3.3666673248630208e-01 -1.4342776118077266e-01 2.1174223758771168e-01 3.7914731022844983e-01 -1.3757025241717072e-01 -2.0592756238136428e-01 -3.7368851826566590e-01 1.7782516856379235e-01 1.8178272329850612e-01 1.5001873749925218e-01 -1.1776387639373058e-01 2.0940937800978071e-01 1.6451834603528909e-01 3.8240221272580621e-01 1.5043470183115762e-01 6.2625250928738552e-02 4.4030530619535374e-03 -2.8561690484642283e-01 -9.9253861986344769e-02 2.6791363829092346e-01 1.8742455264606797e-01 -8.2062551598670916e-02 -2.7858690566690580e-01 -1.0328038303518654e-01 8.3513519895620059e-02 -2.6519181401639730e-01 -1.5471025020462564e-01 3.0537451363155255e-01 -3.4766928544600346e-02 2.2934757676408724e-01 6.8585086252716268e-02 4.6630823627482137e-02 -1.8639770836648914e-01 2.7931989490883757e-01 2.7292459508624894e-01 -2.9540463627133379e-01 -4.2467194437614472e-03 5.1108538960405951e-02 2.5327726625217256e-01 3.3847433273412891e-01 -2.8998391331528145e-01 1.0001317978755936e-01 3.5293880187946580e-01 -2.2894265870064937e-01 -3.7971802284309381e-01 8.4784930603900147e-02 -3.4779761957039390e-01 -1.5202250095171674e-01 -4.2197171836387865e-01 -1.0260063142556980e-02 -2.8031740605651456e-01 9.9480199668145183e-02 -8.2400039755483726e-02 3.1136114840207890e-01 -3.0563803952437590e-01 -3.4198104169512417e-01 -3.6309190838635053e-01 2.5974929877310458e-02 1.4075242067247393e-01 -1.0404728712860525e-01 1.4668638902597531e-01 -3.9178906737194141e-01 3.4436183530364239e-01 3.8869440859226040e-01 3.0439780307803449e-01 -1.3264559243868279e-01 -9.9551206443758811e-02 7.4050727304978872e-02 -2.6813630538562155e-01 1.6022278951790872e-01 3.2697833060274689e-01 -1.3583534683435491e-01 3.9380585734078037e-02 3.1265434948092713e-01 -4.0963859788961571e-01 3.5744158924642011e-01 3.5291896771339154e-01 -5.9260608961088014e-02 -3.1190676469679690e-01 -3.6113682103038253e-01 -1.3420143101040105e-01 -2.7973347682590632e-01 -2.0176622402782016e-01 2.1354574315837799e-01 -1.9090356639214931e-01 3.6642768444108798e-01 -2.9259713719121075e-02 -1.0633627915232746e-01 3.8222814746504341e-01 -1.7828970337904045e-02 1.7237090633366164e-01 -6.2555533218102088e-02 -2.2194172970357803e-01 -6.7378679236805586e-02 -3.3920381845513015e-01 -2.1635061979461501e-01 -3.8529708810139518e-01 -5.2544079546494329e-02 8.8109449448295976e-02 -2.2534570231728585e-01 2.4634032168653616e-01 1.9318697708638186e-01 -1.4532952264360952e-01 -8.6611399143980070e-02 2.3695806973292302e-01 2.5350393884565930e-01 2.2874133536317803e-01 -1.0272006666473218e-01 -1.3236477004207889e-01 4.0371254520131261e-01 -1.8888880612416056e-01 -1.1821894926642709e-01 -4.5457091953639811e-02 -1.2240672729794916e-01 2.4949903037189691e-01 7.2213202325364573e-02 -3.1991844617404369e-01 -3.6251806272912551e-01 6.6757263537805941e-03 1.5376510685306627e-01 -2.8273019322116894e-01 -3.5367260291646685e-01 1.4041944923620694e-01 -2.5437358157116829e-01 -4.1341524671347318e-01 2.6593420372658350e-01 1.6089355829683888e-01 -2.0844073550042255e-01 2.8523759876821542e-01 -1.1669800090458397e-01 -3.6440492259644491e-01 -6.9930893103469768e-02 2.7268056211393771e-01 2.7617356110389535e-01 1.0809470290547339e-01 1.5511276346518162e-02 1.1039295617012529e-01 1.5087889750350808e-01 -1.4568155949794787e-01 2.5131359057195307e-01 2.1245316441909826e-01 -1.4964633602013233e-01 3.5528120849251534e-02 3.9697060831743725e-01 -1.6086645344529155e-01 1.3648734285212646e-01 1.9219016993783661e-01 1.9459468484739814e-01 1.1232260178861794e-01 -3.6387802326352842e-01 -2.8590280883664226e-01 5.4609437292517368e-02 2.0989726161256350e-01 -7.0988283401730218e-02 -1.5296306467847484e-01 -9.9711322411972614e-02 3.3165502485430920e-01 3.8237643658392817e-01 -3.8934711623382517e-01 -1.2910826831422115e-02 2.3422563731991577e-01 2.8244609329910575e-02 2.2271912782371528e-01 1.9384018514665591e-01 2.6981411494894730e-01 -2.6052324314416780e-01 -1.6448750463050293e-01 3.7826759580445840e-01 2.2797900303662211e-01 6.9793249034544259e-04 -5.6358461370009522e-02 -3.7434231869774109e-01 -7.7924270035833923e-02 -7.1200826804477951e-02 2.0268780760188401e-01 5.3449454875003237e-02 1.2758676842144974e-02 -2.7815916234129875e-02 1.8193275127896414e-02 3.7028275269452360e-01 3.6823756817514525e-01 -3.2970242747903672e-01 1.7670580574470651e-01 9.1814825198601430e-02 -3.1273054354485863e-01 1.7405188003142627e-01 2.9511696803920007e-01 1.3741077054377021e-01 -2.3827146428604851e-01 -3.0186442453286666e-01 -1.9890414306211643e-01 4.2542177611471825e-02 1.3753753825331597e-01 4.1581604873026173e-01 -1.5650792589769655e-01 -2.0149825580065447e-01 2.9054658999333571e-01 8.6593107640495007e-02 -3.5166177264103715e-01 -3.5877153822333441e-01 2.5028083855760480e-01 -3.1778151047802417e-01 -1.9202120078745874e-01 -4.2347852968422039e-01 -3.3769314184780791e-01 -3.2957419553396838e-01 -7.1642444998204963e-02 -2.9679343111497070e-01 1.7683930378175314e-01 -7.8227097234002091e-02 -2.4254581132003264e-01 -3.7439047064632908e-01 -1.6789594710311359e-01 -3.1397546361195172e-01 3.2868723577747777e-01 -3.8344372334948296e-01 -2.6767513856261697e-02 -1.3032154888760988e-01 -2.0242026608236061e-01 3.9561822242462802e-01 -1.0084563592075968e-01 3.5761020897647927e-01 3.8937157685655421e-01 1.5336529367790966e-01 1.0040762209583905e-01 -3.8467426608423655e-01 -2.7403920404878401e-01 2.1405327843424027e-02 -1.0270751091373445e-01 -2.5666258484662174e-01 3.6626685445930807e-01 3.0653386267548088e-01 3.4442760169450087e-01 -2.2305399901810113e-01 3.2364664690929451e-01 2.5070787028895553e-01 6.0496221736505887e-02 -4.1681843064658286e-01 -2.2905029023593440e-01 -2.5973542823781010e-01 9.7918732879128473e-02 4.0442899839113956e-02 4.0197924824647363e-01 1.5193680952220681e-01 -1.0683996154669317e-01 -1.8771800774231023e-01 -3.9688494104659106e-01 1.2716460860424186e-01 -2.4902300886056567e-02 6.5520373104726484e-02 -1.2038126210505637e-01 2.9792640598180292e-01 -7.2914587663711450e-02 -2.9836875010255215e-01 2.6180907317341701e-01 -2.3371634777010455e-01 4.6260498050501407e-04 3.6278503611378587e-01 4.0882634416883207e-01 7.4901139793954671e-02 -2.5685956647423325e-01 1.4188533088017996e-01 2.5597185254380250e-01 8.7155827216624918e-02 1.2794159224992185e-01 1.1780232863157819e-02 2.1112380980045248e-01 3.9939146076406290e-01 -3.9813287208668785e-01 -1.1239433093721894e-01 2.4655779403111500e-01 4.0185517152488920e-01 8.5345065657280880e-02 -3.6515133963244717e-01 -3.7424954587036452e-01 -1.7011413053835658e-01 3.3307407457704546e-01 2.9232027120300214e-01 -3.9974335994856602e-01 8.4924063961688834e-02 -4.1080451124004053e-01 -2.9059109938833760e-01 -3.3311664270465974e-01 -2.5368345207914367e-01 7.8135198533642897e-02 -3.3309616614156334e-01 2.9245896574212743e-01 -3.5874334683179174e-02 7.9293057189155566e-02 -2.9946140609810112e-01 -3.2635974690457115e-01 -1.8252664117051814e-01 -3.6195178325948907e-01 2.0052220249001018e-01 -1.4165456854995867e-01 -3.0249859499990411e-01 -2.4523370320029614e-01 -4.0879251108702175e-01 -1.4564713164350995e-01 4.2197219178513046e-01 1.3153980270088000e-01 8.3062591302633021e-02 -1.0024426426220830e-01 3.9002463740471821e-01 -2.1310677998006072e-01 2.7409117229076668e-01 -3.1546558903250799e-01 1.7487296517475048e-01 3.0547094128841448e-02 -8.3277320970132213e-02 -1.0093101626885599e-01 -3.7343993437265355e-01 -9.4141999844097060e-02 2.0400346254500781e-01 -2.9180257258863751e-01 1.5946798263653386e-01 -1.9350703876866529e-01 -6.0018267465083243e-02 -8.4241176652200461e-02 2.7027789182825918e-01 -1.4564738115077253e-01 3.8082984556502325e-01 4.6381189617615108e-02 -2.4605787663079279e-01 1.8042749260539714e-01 -2.3574135903594634e-01 -7.3260509946316998e-02 2.1444601237490016e-01 3.9786890362399102e-01 -1.0706417843977743e-01 3.5253117856234395e-01 -1.8640388764082566e-01 1.6919591652430410e-01 2.8863380785715687e-01 -3.6567087123141057e-01 -2.8652393980624952e-01 1.7879290361500216e-01 1.6472157361481898e-01 3.1277910651408608e-01 -1.7805741400684593e-02 -9.1431251063476063e-02 -5.9537496598571320e-02 -4.1820310446120890e-01 -2.4113007378268064e-01 -2.6883282803070030e-01 1.6910606075928336e-01 -2.2215633106155980e-01 2.1352734522341704e-01 -3.0113265567786307e-01 1.2331176499691625e-01 2.8303470980473600e-01 -2.5698258655549250e-01 -9.7279234835445996e-02 -1.9637570751758279e-01 -2.2391566751570338e-01 -3.5821279139495271e-01 -1.5499235781183471e-01 -4.2031062094773253e-01 1.2023426933874218e-01 2.5585543749717826e-01 -3.1452490789448245e-01 2.2247812328179145e-01 5.7946789106079082e-02 2.8821468566955749e-01 -2.6044238372931200e-01 -3.1795402486010199e-01 1.2777089284096688e-01 -3.6547746004140574e-01 3.6580740382807247e-01 -1.2288077284500090e-01 3.7364129447821032e-01 1.4344243706657497e-01 -2.0281995224363464e-01 9.9797568920920565e-02 -1.3691474175604304e-01 -2.2772148147548277e-01 1.5401091854711549e-01 3.4196582777762957e-01 2.6802163544306801e-01 -1.4166781755074906e-01 -1.2774441716569515e-01 1.5475824018402828e-01 -2.9036638159164435e-01 -3.7779528938795881e-02 -1.5769285513726139e-01 3.0523353360504757e-01 -9.4869973044918232e-02 2.1423842690755518e-01 6.3330238297986466e-02 -3.0145580544045802e-01 6.2832197214147720e-02 -2.8081447422293027e-01 2.6565349550786388e-01 1.9456740545793841e-01 4.1140260002561474e-01 -1.1087073851253726e-01 -3.0195982408662347e-01 -4.2794168294136264e-01 3.7710831947851042e-01 1.4000653719958819e-01 2.9185543235356459e-01 3.5659987441366275e-01 -2.6738751705238828e-01 -7.8109648825826605e-02 1.3546591095765770e-01 -2.5717122717503904e-01 2.9576184270397565e-01 1.9900204753869298e-02 -2.9275291215208488e-01 -1.5719338714028658e-01 2.7199325580424077e-01 -4.2133062378700514e-01 1.2923288987781684e-01 -3.3676959036317572e-01 3.6775151570221565e-01 1.6351895317001161e-01 3.8628575941041449e-01 2.9318505557819625e-02 -1.3552469575487594e-01 8.5693637191190233e-02 -5.9162042835137790e-02 -2.7894463034690820e-01 -3.7047001577553024e-01 -6.0607589260608129e-02 2.3899368792615083e-01 2.2249480768555599e-01 -2.9987882408831701e-01 -2.4304925760842422e-01 -3.4451410528031334e-01 3.5756706998163357e-01 -1.2713366129774756e-01 1.4468006770358502e-01 -1.0274040727161027e-01 -2.1890180634396522e-01 1.2994439008043754e-01 -4.1708548123869382e-01 -8.0316316071482818e-02 9.7140612417580846e-02 -4.0997089690160216e-01 1.1077290003434550e-02 3.5427054689041915e-01 1.0513442679093765e-02 -1.3147843332844125e-02 1.0610424119110964e-01 -2.7659135595388157e-01 -2.3056333687516078e-01 5.7550162675466823e-02 1.8624476181467714e-01 3.0656102034754412e-01 -1.9932773876215992e-01 2.1205566608952645e-01 -2.3895933240214814e-02 -2.3610050000985641e-01 4.3319205274814851e-02 -2.0261729697895250e-01 -2.6665862130702672e-01 -8.8278525215949935e-03 -1.8228185911219916e-01 1.5095719950946124e-01 2.8598195011970545e-01 2.3823943850054663e-01 -3.4402187276363810e-01 -1.2143279527141579e-01 -3.5557462816073393e-01 -4.0256538940680492e-01 3.2157154306090785e-01 3.9260124406275160e-01 -1.1209762414630015e-01 1.6833261704802524e-01 1.1402200017133407e-01 9.4805212323808369e-02 -4.7844619752313820e-02 3.3252504887536988e-01 -3.8684749596954393e-01 -1.5110546107719751e-02 -3.8092506098248780e-01 -2.5625583261551937e-01 -1.6286228919871160e-01 -2.6281573539814135e-01 -3.6072241628034719e-02 -1.5807060644197116e-01 1.2948704688347204e-01 -5.2389818000114483e-02 -2.5682824185542318e-02 3.9858528186743170e-01 3.7175659975885700e-01 1.0989745409611064e-01 -3.3968939129615494e-01 -1.3197104124366679e-01 -2.9415712133562166e-01 -3.1925903136122996e-01 3.2552568409269578e-01 4.1003351370103019e-01 -1.3863666000821703e-01 3.2811580068977519e-01 3.2765670093023519e-01 1.2775713345659223e-01 2.2971719498381621e-01 -3.0806349445224163e-01 1.4010020596667150e-01 -3.1470281743945383e-01 -2.5494294791903371e-01 6.1450373439269249e-02 2.9834874400806988e-01 3.1220568608090427e-01 -1.5409146827011014e-01 2.5863124698713202e-01 -3.7821399806650036e-01 -2.3673364882555692e-01 2.5184042612602225e-01 -3.1842291127530853e-01 -4.1222006328562438e-01 -3.0350853372489728e-01 -1.8812852411855557e-01 -2.6215796140505027e-01 -2.7670390849990939e-01 -2.0381633078317769e-02 -2.9237808829376161e-01 7.2565003019257071e-02 -1.8144651310084103e-01 2.1406359045097595e-01 -3.3329939790658653e-01 -1.2907756192682956e-03 1.7260570637776293e-01 -2.3410488773646923e-01 -2.8985684804233042e-01 -2.5423298098468372e-01 -1.7797368117470153e-01 -4.0572800212824051e-01 -1.5422151599901993e-01 -3.6933052304143628e-02 4.9804454868514869e-02 -3.5941824087098967e-01 3.1269001778406130e-01 2.6856407579604674e-01 4.1304601618397774e-01 3.4188188344876785e-01 -2.4177787692415284e-02 2.2186941066260224e-01 1.8517821534820250e-01 -2.2821134735781523e-01 -2.1900205852775423e-01 -2.8254653434984206e-01 -2.7447293702305781e-01 3.4428214231034565e-02 1.2173499832145294e-01 -3.0598402982826495e-01 1.4700899732186473e-02 -3.6132831178835678e-01 -2.2888086373755301e-01 1.5537943200901255e-01 -4.0233161988122601e-01 -1.0886641833169575e-01 2.4541748399392885e-02 -2.7192765256132756e-01 3.7325996980133791e-01 -7.6255339392058696e-02 -2.9687682011439825e-01 3.6320003736332857e-01 -1.0745472835707187e-01 3.0218498061316929e-01 3.2973338774968669e-01 -2.8521492390111264e-01 1.9270191416408522e-01 3.3604474832506287e-01 2.3793682975628111e-01 3.2621585202040720e-01 2.7328909631627579e-01 -6.2184965126132793e-02 -3.6482358776847873e-01 -3.2816828359598149e-01 3.5128177598490663e-02 -2.2516929946780098e-01 -2.3276946452000835e-01 -1.9379455294176573e-01 -5.2910914082245984e-02 -2.8863934949703862e-01 6.4629842225083153e-02 2.8191917957109802e-01 5.6344899180975183e-02 3.7752668207054019e-01 -1.2399614427636685e-02 2.4675330117060348e-01 -2.2512525054782800e-01 -1.2776272069872890e-01 -3.1413009612410836e-01 -1.1362023975154553e-01 -1.3961633888333960e-01 8.8380416175115162e-02 -6.5131050519253844e-02 -3.7244823429914309e-01 3.7510782171780677e-01 -2.0900168328896726e-01 2.7814761534196203e-01 1.6769217152452842e-01 -1.3519428069003822e-01 -3.1169399160669209e-01 4.1302354283719261e-01 1.5827332368114951e-02 -1.7705824648030086e-01 -3.0687631730452047e-01 4.0640192229609080e-02 4.0899152089064431e-02 3.1233304964974884e-01 -3.9073900373663473e-01 -1.1473576032764483e-01 -3.9090973643888784e-02 -4.2785225029996565e-01 -2.8939468403732616e-01 -1.2178045228071223e-01 -2.3341858387738076e-01 2.1453859621354934e-01 1.1021743079148629e-02 -3.9514790535824063e-01 -2.1964591000971587e-01 1.9031738847753446e-01 -4.1084435920333395e-02 -4.0335948304901431e-01 6.2803592071134659e-02 7.5637149217583147e-02 8.3995863054149550e-02 -2.8006990473416266e-01 -1.2765066562617361e-01 -1.1637469786933982e-02 5.9361515343929673e-02 2.3191923222302699e-01 3.6721714560905327e-01 -1.2618359871217096e-02 2.6037994403929926e-02 -3.1840431189760321e-02 -3.8239934583271712e-01 -1.0404588615682459e-01 -7.7818811654799050e-02 -1.2615998560687591e-01 -1.2929254217901123e-01 3.1114812706605005e-01 -2.4366751676016549e-01 2.0081045340778766e-01 1.4137440751105729e-01 3.7868262624702298e-01 2.6468276282853115e-01 3.9646534668723910e-01 3.5212183988642037e-01 -2.8785561509456398e-01 -1.8163538969131912e-01 -6.8291438128145018e-02 3.4744658650421673e-01 2.4973142812478203e-02 4.0319236581562418e-02 -3.8419628316993981e-01 -4.0099985440060137e-01 -1.7170494025500407e-01 5.4464110139217058e-02 -1.6520663501314511e-01 -1.5555572343361498e-01 1.2942670040320081e-01 3.0812488281592348e-01 -3.2023827309686359e-01 1.4386872159127373e-01 8.2207667093636999e-02 4.0534111581326460e-01 3.3379482457596177e-01 -8.3603250923249661e-02 -2.9702673901627413e-01 1.3947144079162352e-01 1.0613571927279467e-01 6.9449734298039642e-03 -2.5857285162419996e-01 6.3407727620325344e-02 3.1173206588141184e-01 1.4932768959553111e-01 -2.0893257673220972e-01 2.6674259251162363e-01 3.5174022040158176e-01 3.7423666704385794e-01 -2.1028145757817942e-02 2.7228963486361923e-01 1.0646065401185330e-01 -4.6040627707245874e-02 -3.3301910654226169e-01 -2.2107390217123707e-01 2.9230546569696453e-01 -3.8358037402827461e-01 8.3034222661213242e-02 2.5526928371618501e-01 2.3305565935369366e-01 -3.3079366015462366e-02 -3.2274079047923865e-01 7.3387643825854562e-04 2.8331785191994674e-01 7.5052516362837621e-02 1.7602244046132742e-01 -3.1813901163230007e-01 2.7847171358180534e-01 -1.6607597316572217e-01 -2.0261262975660582e-01 1.1305390265317772e-01 3.8614708741603165e-01 -3.9959540109936320e-01 1.3493079663557694e-01 -2.3224558018574015e-01 2.2231585760129815e-02 3.9956047345193785e-01 -2.4663653932180254e-01 -1.5133243608486741e-01 -3.5203748929575912e-01 2.7742239851171607e-01 2.9052215491880840e-01 1.9486479170201170e-02 -4.0985625805597503e-01 -4.3573252125707194e-02 -3.4722258553552071e-01 -2.4804888181809900e-01 7.1466995857346033e-02 -3.7470231268841564e-01 5.6826624989029413e-02 1.7310434583110690e-01 -2.0135041105852111e-01 -3.9511163088406825e-01 -2.5903792616218313e-01 3.7098106371922801e-01 2.4244726297076186e-01 2.8505810980281265e-01 -2.9137675094758386e-01 -2.5773146625352633e-01 -1.6716212219917190e-01 3.8772027683515781e-01 -6.4135212422000376e-02 -3.3467179013722437e-01 1.9560510330364593e-02 1.2385763612295861e-02 -1.6306934691845312e-01 -1.6473246849164033e-01 -1.6344024381134858e-01 1.4303649170901486e-02 -3.0629300586738512e-01 -1.7924048692741354e-01 3.4297840450106903e-01 4.5895051794748752e-02 1.8877222502810403e-01 3.0646628670318876e-01 2.1905270146185796e-01 4.1515032285945974e-01 -1.1053693616714784e-01 3.7689114045797813e-02 1.8953835093237156e-01 1.2552362152458644e-02 2.2406403300813837e-01 9.4905950745098402e-02 2.8804376539088034e-01 9.3114471845709978e-02 1.2403686579723773e-01 -1.4164957922067858e-01 -3.9593401302956560e-01 9.6050319492014591e-02 2.1653550013487202e-01 -7.1332940044013193e-02 -3.3090199155840980e-02 2.3547177487883722e-01 1.3879447183887322e-01 1.0936917768914900e-01 -2.9060805043509319e-01 -3.5010462139239512e-01 -3.6532928266296522e-01 4.1493382848276683e-01 -3.7014693820317945e-01 3.2199646762664169e-01 1.4817581062294008e-01 -8.0096277883502376e-03 1.2478153725219306e-01 1.2335877091972555e-01 -3.7394972101846939e-02 1.5842124008765246e-01 2.3345803685035157e-01 1.2392352900598980e-01 1.6681770774305657e-01 1.9563652656865205e-01 -2.4945213336991784e-01 1.6731015528322260e-01 2.9480619160151177e-02 -4.0504800595215290e-01 -2.8865841842426510e-01 -2.5358772464014012e-01 -1.6938011441728870e-01 -2.6436202995791963e-01 4.2290741594035230e-01 1.8334340418825307e-01 3.7743813772429816e-02 -1.1802588557500826e-02 -1.5095187516337694e-01 -2.5011760116335724e-01 -7.8659667976028705e-02 -2.8823422361858775e-01 3.9687035724143321e-01 -2.8118349221600969e-01 6.8887762473504199e-02 1.7578164299982824e-01 -2.7870003445194186e-01 1.7903534538171284e-01 -5.0015631469269302e-02 5.1702849556974968e-02 -2.8387352497505619e-01 -2.5914423113170010e-01 1.6791530269416508e-01 3.6532342765399928e-01 -4.0680082125645506e-01 -4.0933046704916687e-01 -5.5332138813882777e-02 -1.8941955171790850e-01 -1.8993679691705520e-01 -3.2177626944073257e-01 4.1576458419237894e-01 3.1936910056126977e-01 -2.9257625842568630e-01 -8.5604679573563089e-02 -2.8434206718381008e-02 2.1543761190416070e-02 1.6030194563246397e-01 -1.8717981735148520e-01 -3.2649841914241073e-01 -3.0815814421729226e-01 -1.4119411698212139e-01 -3.4833817515283577e-01 5.6493433713891685e-02 -2.5859549445729835e-01 -7.3880178855473433e-02 -3.7155857565975930e-01 2.8275839903537864e-01 2.4919858288484035e-02 2.8551923486111463e-01 3.5590366420527694e-02 -1.2544346647577206e-01 -2.1819407141040909e-01 1.5915995183186746e-01 2.5553657073535491e-01 -2.4665763071368460e-01 -8.3158181801675866e-03 4.1033450413594352e-01 -2.2306815238438696e-01 -1.3983775745422825e-01 3.3105189440414762e-01 -1.4968009225889609e-01 1.8699064713291230e-02 -3.1612634892920717e-02 2.7906576291401169e-01 2.8829410416320622e-01 1.5540306273516521e-01 -3.5869072770266386e-01 8.3235611598706086e-02 2.9842967638752004e-02 -1.1590224656840274e-01 1.2150110806526691e-01 3.1396801543793051e-01 -2.8791348429676217e-01 6.1285818695965222e-02 -2.7027516963648807e-01 3.5435055297074153e-01 2.2558897639550154e-01 3.5696649767906424e-01 3.6568832341790414e-01 -1.7370593655153405e-01 -3.9684450587634529e-01 7.8986029482777415e-02 -4.1897527734372508e-01 -3.5741945922127061e-01 2.7022442014638748e-01 3.3432868973324664e-01 -2.0558996449799125e-01 2.7634782989109929e-01 -2.1662799096917437e-01 3.5471820261498588e-01 -3.5641351619722267e-01 4.2005044482508974e-01 2.6498438451336287e-01 -3.2953571345702359e-01 -2.5318926485710283e-02 -3.0763234624860131e-01 2.3077510347359403e-01 -2.2972671482279672e-01 8.2831658703581279e-02 4.0105795712840181e-01 -7.4599525097648290e-03 2.7593116547099339e-01 5.4727507510750076e-02 2.0850744237979238e-01 -8.9397231021787996e-02 4.1710137192247815e-01 2.1199827568374754e-01 3.4043906485871311e-01 -2.1579792829155167e-01 2.5339416234816775e-01 -2.1147043321677350e-01 1.5837521195963813e-01 6.3916864419048175e-02 1.3558368675948246e-01 -1.4835887302932410e-01 -4.5911012438500265e-02 1.5686411011144191e-01 1.3013951150323752e-01 -2.5768985667055527e-01 -4.4049348955122546e-02 1.3511541037448616e-01 1.0990389057383511e-01 1.9531051338443872e-01 6.0024954621982199e-03 3.5173482311149068e-01 1.2748658597916662e-02 -3.9456464886145903e-01 3.7217914851445066e-01 2.8664946086073367e-01 1.6602245047526595e-01 -4.2430635753532608e-01 -8.7382265534332995e-02 9.9461620269295520e-03 -2.7579123953370688e-01 8.9232244978974373e-03 -5.0531299135214217e-02 -2.3541917505045051e-01 3.0716960614557781e-01 1.0513075644443984e-01 -2.4714360049572566e-02 -3.3803002296718926e-01 -6.5971124504396322e-02 -1.9291110382670149e-02 -1.9557549127601109e-01 -2.9917450860757167e-01 2.6207474411069581e-01 1.3396808906632096e-01 3.8772975674348586e-01 1.4824111056837624e-01 -8.5084523302986603e-02 3.8784588772497858e-01 -1.7765745223502851e-02 7.3282191042084457e-02 -3.8713154735134495e-02 3.8057137852283668e-01 -2.4487203186594542e-01 -1.0420839955176145e-01 -3.2018833896442683e-01 3.1802926521874858e-01 -2.6362041630439658e-02 -2.8320535581743317e-01 2.7109188292645059e-01 1.9552573980221521e-01 3.9375949190118387e-01 5.0360473584132861e-03 -2.9539237086576015e-01 -2.2813152301026468e-01 1.7212196537806537e-01 -3.2817938623600629e-01 1.5256604501263590e-02 -3.2685988945663785e-01 -1.7533203954504487e-01 -1.3223399627277924e-01 -2.7789131361828506e-01 -9.0379372384827329e-03 9.9636039643633184e-02 -2.8292129327327886e-01 -3.3413643467972731e-01 1.5076682238968694e-01 3.4103109942165993e-01 3.9385965444159393e-01 -2.0576183836853824e-02 -3.9717376005352839e-01 1.4306842357123312e-02 -1.8995397442719444e-01 -4.2693321626570224e-01 -2.9462775149534404e-01 -3.4266957783467827e-01 -3.9453347342692756e-02 -3.1104071869438343e-01 -2.4036498263355369e-01 -6.3303479961896239e-02 2.1678544324918869e-01 8.0120813673383001e-02 3.4193069078512439e-01 1.9286926300078289e-01 1.3494496136946302e-01 -1.3402353300883674e-01 -3.9946051432899021e-01 1.5873838107854224e-01 -2.1189303008663793e-01 -3.3623170207314312e-02 -8.0319232369770593e-02 2.0466047924217903e-01 -3.8551879191879762e-01 -6.9269878247163477e-02 3.8750523157561834e-01 2.2013718068162275e-01 3.0380169535401935e-01 -7.6951288893703729e-02 -2.1794865849869374e-01 1.3748175483378083e-01 -2.8559785483103489e-01 -1.3010244173955149e-01 3.4590391127397185e-01 
      </Weights>
      <Biases rows="128" cols="1">
        3.3280652180486751e-02 -1.6446013413313701e-01 -1.1662110649435736e-01 3.9173723915031722e-01 1.3487227811877028e-01 7.3426736300433851e-02 1.5664386727337644e-02 -1.1260132100883610e-01 3.5662022463836859e-02 -3.8479258551123202e-01 -3.4156960250472518e-01 6.9739987422477043e-02 1.2414945260770127e-01 2.7019711876770391e-01 1.1777826901449689e-01 -2.8188797522094267e-01 2.0838400586866723e-01 1.4525838031041022e-01 2.0904147662031056e-01 3.7236512263120686e-01 -3.7520488393958373e-01 -1.1502017316109703e-01 -2.7366613540930335e-01 -1.9908427362201966e-01 4.9367399469969160e-02 -2.7829599582833608e-02 1.7680244326553299e-01 2.7099859453972769e-01 -4.2451334108959216e-01 -3.6914375284033102e-01 -4.2830404617875767e-01 4.0420464729610328e-01 7.9227378344473257e-02 -1.6168533996688189e-01 2.5770354543058444e-01 -2.3033089425211023e-01 -1.9917265723739480e-01 -2.5747872118385867e-01 1.2994969335581558e-01 7.9831652751701093e-02 -5.7828091429981125e-02 -2.4475088887959234e-01 3.8679759784370704e-01 -1.2467102066900623e-01 -3.1531643788831260e-01 -2.3977622950613239e-01 -3.1422910180127228e-01 1.5556077637111557e-01 1.8878418897251834e-01 -2.0660195420267954e-01 4.2175948989670387e-01 -2.6040511858712256e-01 -2.9045983971274619e-01 -3.7830690101221115e-01 9.7884670421641867e-02 -1.2456551937100417e-01 -1.1997238549702434e-01 -3.0379216292667371e-01 1.8686463072777843e-02 3.1089076054137887e-01 3.9116934886210464e-01 3.0762055130453775e-01 3.4906231300725649e-01 3.8548097956097843e-01 3.4052428872022467e-01 -1.0696890779273571e-01 -4.1015959557826220e-01 -1.5021074637373460e-01 7.5723779390762275e-02 3.6373837038147289e-01 3.2452866418502668e-01 3.5473827375799266e-01 3.1024259730910642e-01 -3.1638942476056264e-01 -3.0821185395807199e-01 1.1098359196662674e-01 3.1310947930210925e-01 9.5790093209866464e-02 2.8019121977908779e-02 -1.1417695677996849e-01 4.3920406315657093e-02 -1.7006579387034129e-01 7.0624302837166350e-02 -2.6468231904861272e-01 2.3055940227296501e-01 5.0156720388209203e-02 -4.0264390457685939e-01 2.2090675102535973e-01 -1.1069179647527768e-02 2.4456233335015509e-01 -3.9996869800441281e-01 3.0870054842541794e-01 1.9883228396598596e-01 -1.3844805170641161e-01 -2.2326322919914041e-01 2.6007438844332331e-01 -3.4626554477338678e-01 -2.5746184612030409e-01 -2.2775093669301399e-01 -2.5411335435552318e-01 -3.7360018094230141e-01 4.0961632893074357e-01 2.1212603229014478e-02 -1.1639506620515346e-01 -1.9693689493715960e-01 -4.5442911437062951e-02 -1.5707940274421628e-03 3.7099936094579911e-01 -4.4981599638807358e-02 -1.9830452762848461e-01 -2.9896760997798505e-01 3.1505384844252954e-01 3.6753916169836620e-01 3.5677383093467524e-01 -3.9263659966725678e-01 -2.8518371241020074e-01 -1.8468689521625725e-01 3.7923809330405824e-02 -4.2567122042416838e-01 -4.0019456604131132e-01 9.5593668005236970e-02 -2.9893820928839310e-01 9.0434264075473766e-02 -9.9870547353597169e-02 -4.1585249447789012e-02 1.9943952890300801e-01 -3.0185287431219482e-01 -3.3770189184971522e-01 
      </Biases>
    </Layer>
    <Layer ActivationFunction="3">
      <Weights rows="128" cols="128">
        1.1547458088139964e-01 1.3862691030249199e-02 3.0663303542980844e-02 1.0383569005551783e-01 -9.6204489642526911e-02 -5.3023830310729589e-02 2.3361285756093728e-02 -4.6188808193326422e-03 -1.0884635541773915e-01 1.1327238984724579e-01 -5.9324562945312076e-02 4.4484724724147821e-02 4.2663552866786837e-02 -1.2951809533841056e-02 -1.1507387765197062e-01 6.2057193497771231e-02 -3.6290927284710665e-02 9.5064711624405097e-03 -6.5391278076411602e-03 -4.8710744220499404e-02 4.2147702118899795e-02 9.2924362804106847e-02 -7.6764324977850448e-02 3.9400193308823522e-03 -1.0887155408312352e-01 -3.6166437656367581e-02 -8.4152778886041335e-02 -1.1592678234381214e-01 -1.0070761603899987e-01 9.2876700034593779e-02 6.4685448804035262e-02 3.1151222461805603e-02 9.7861752625992490e-02 -6.7358997153615374e-02 3.6353834848320096e-02 4.2620426338901334e-02 6.3235678889454902e-02 -1.2365657812610632e-01 -3.9697403693266145e-02 -5.3413541459022558e-02 1.1748637014551724e-02 1.2751874121918269e-01 -9.2435720838561178e-02 -3.1691421264974470e-02 -2.5322708502656648e-02 -9.0624216577206609e-02 -4.8587895586096434e-03 1.0413438117856362e-01 -5.3977512606975191e-02 1.3850398728121069e-02 -2.5683433814446273e-02 7.7033087358183969e-02 -1.0796177006648909e-01 4.0620875360053640e-02 -6.4609433863729873e-02 -9.6282053132713125e-02 6.1820080972268869e-02 -5.5279476647474450e-02 -1.0742830384386129e-02 9.4125064661120528e-02 -3.7211792836065259e-02 -1.0150985271795970e-01 -1.0103291458902841e-01 3.5131205664522165e-02 5.6874118627807321e-02 -1.0317053318982538e-02 1.2005282329997152e-01 -9.8753934490361087e-02 -1.1921782828890594e-01 4.9450243746694607e-02 -4.9052539687603661e-02 -1.1285298261235786e-02 9.7238712095497129e-02 1.2196931083269009e-01 5.5425898979954577e-02 -5.9972906520376042e-03 -2.7107618111212706e-04 4.5940552277952358e-02 7.3536916565413876e-02 6.0135903532055834e-02 1.5207279008828357e-02 -1.3576406565402963e-02 1.1041277091829467e-01 -1.9748366841263479e-02 -8.6263282352409890e-02 -1.0231134823242917e-01 -1.0469217316972577e-01 4.0948634892965768e-02 -1.1609739033161696e-01 9.1440132817071695e-02 4.0004626323295017e-02 -1.2886693714071007e-01 -4.7314312184598278e-02 -2.3581447105979196e-02 1.2218943133288777e-01 1.2660211241066111e-01 3.5829829943199429e-02 -1.1913896219018005e-01 4.6539855675764401e-02 -3.1821387148255449e-02 -5.7931959117783913e-02 1.5168246395064313e-02 1.0769668886262967e-01 -9.6135401830587455e-02 -6.2477725521741297e-03 -8.9011546431994081e-04 -6.2360101120913697e-02 3.4706739834259787e-02 3.5748828603736731e-02 -2.9474662675110060e-02 7.8491715956023125e-02 1.0745430298625377e-01 -4.8890519384958343e-02 1.1171728345037574e-01 -7.0632872384007533e-02 -4.9235640644940480e-02 6.2962936700762043e-02 1.7349389715004694e-02 1.1212976969311515e-01 -3.2171629802752989e-02 -4.4480999810428599e-02 8.1743582284490843e-02 -1.1323951198658162e-01 -2.3114322496085637e-02 4.9144893281783293e-02 -9.6377777007726234e-02 -1.0523241226311872e-01 4.1153256085399818e-02 -9.1870880164462973e-02 -2.3252957907845793e-02 1.1730690291640854e-01 -1.1587040008083345e-01 6.7405089077670649e-02 9.8606992121542142e-02 8.1655404409586796e-02 8.0493712315062083e-02 -1.1548276517347890e-01 -1.1369427115694355e-01 3.1161009838876583e-02 -4.8024252380932511e-02 -1.2261434358490118e-02 2.1388029680094278e-03 -3.6469559828384047e-02 -5.0113525883653413e-02 -2.1730888481822773e-02 8.4642905928376255e-02 4.4269486397329007e-02 -8.3490332603548281e-02 -2.7929431660821191e-02 -1.0956470329902263e-01 3.4885166446171637e-02 5.2357416053624151e-03 -7.9403085541208993e-02 -1.8152340538706679e-02 1.2350099070877596e-01 -1.0315379532853200e-01 -1.2356517472441317e-01 4.9589045308128799e-02 -2.7740417067320874e-02 -3.6348434119625621e-02 9.0953641481189548e-02 -6.3982721471587706e-02 -3.3217588067928919e-02 6.4520219920523605e-02 -2.5448024245462473e-02 6.7048158344954256e-02 6.9402459965760693e-02 1.2232156060768276e-01 -1.2228600814860764e-01 1.0682791908245155e-01 -2.9354581213530181e-02 -5.3981833928963448e-03 -7.7714383188670216e-02 -3.2529820882195797e-02 4.4078422381865828e-03 -1.6966712274723589e-02 2.1882272807175161e-02 7.5934250821330512e-02 -6.7848048665174160e-02 -4.7889912479386294e-02 1.1256803243052756e-01 -1.7434182353242844e-02 1.1858663992083296e-01 4.4491905153125497e-02 -2.1205341803061904e-02 -2.3152830414246067e-02 1.1142932430636711e-01 2.3219025686438362e-02 2.1336623797224421e-02 -1.4310713566354601e-02 1.4874188132513099e-02 1.1548161947088178e-02 -6.6746710146927873e-02 5.2750887049782307e-02 9.0682893793848154e-02 -6.1284866500251473e-02 7.7357507418540875e-02 1.1016851792534360e-01 -5.7314409121152314e-02 5.8413762497443393e-02 3.2526531722924301e-02 -4.6753419722416284e-02 3.0653853170840170e-02 -8.6769367395601815e-02 -7.9141377834969218e-02 -6.2631337318941147e-02 -6.5055451452383839e-02 -8.4078146042605190e-02 -7.9928325288101468e-02 -1.3991051225200214e-02 1.1962172937059114e-01 -8.1669156411703289e-02 -5.9392734461435399e-02 -5.6564941055622202e-02 -7.8805815624646253e-02 3.7295787828037115e-02 -9.0973556163651811e-02 -7.8328693021135262e-03 -1.4624519587168927e-02 2.1799794907508105e-03 -3.5975044875276974e-02 3.7610206896845882e-02 -5.8286349596672990e-02 -4.6441994281966908e-02 9.1976653005159989e-02 7.8030884610203619e-02 -6.7799619944865483e-02 1.0973121137326342e-02 7.0619745490418445e-03 -5.4544445349510758e-02 -1.8026680361969263e-02 -5.9551365274429315e-02 -8.9874487324967944e-02 3.4903449726731969e-02 -5.2439504615722971e-02 -9.2278308218380400e-02 -6.1574754989369450e-02 -1.1671403862646948e-01 -9.9563697841323170e-02 -6.5843461064212849e-02 2.6296804899763309e-02 5.5190062709433319e-03 -7.4952640267288262e-02 -6.1626340745887617e-02 3.5432811261580502e-02 6.8220770976617036e-03 -3.3199748336719377e-03 2.4655050465828412e-02 4.1559108363987581e-02 -1.0235918086741114e-01 -1.1111084460365561e-01 -5.5150451118303044e-02 1.1825220416041574e-01 -2.4069411691369447e-02 4.7341739150376745e-03 -8.6421514682772899e-02 -9.2807879886800393e-02 -1.2702859327441507e-03 9.5891877242861065e-02 9.2024862916368876e-03 7.1140628837878389e-02 4.4050974596392851e-02 -7.2597450397650656e-02 1.1678669874556014e-01 -3.3257960324404479e-02 7.9146578564854506e-02 -5.8730022374371305e-02 -2.7407245878784323e-02 9.7166420246152699e-02 -8.9348428314381820e-02 -7.5373598192422786e-02 6.6319418468598804e-02 -8.3404524753007636e-02 -1.1596910690091354e-01 -5.9984168021926160e-02 1.1091713427231371e-01 -7.5159801055379352e-02 6.9130926832998971e-02 7.5472247420222974e-02 -1.1604753345528483e-01 5.2546151823730271e-02 -9.2165309399253343e-03 -1.1289769989839182e-01 -1.1788553862675118e-01 -9.4476510527408186e-02 -1.2382067095236167e-01 1.5832359008037662e-02 9.3420448812247009e-02 7.2264037319622373e-02 4.6701526543276896e-02 8.1873753838453356e-02 4.1911569328922420e-02 -3.0040992284251503e-02 1.2049572480813803e-01 4.2972111695187803e-02 4.4095865216186643e-02 -4.5028924419747082e-02 -9.5447331821720077e-02 -8.6908804036150866e-02 1.0403215487077289e-01 3.4015538893530780e-03 -1.0516360909787645e-01 3.8549459987449658e-02 -1.2349436003805138e-01 1.0485941057378746e-01 -1.7883133261198442e-03 -1.2477286102504682e-01 -9.7835437750485130e-02 8.4614896985591354e-02 -7.4333834158399698e-02 3.7995036162805515e-02 4.2917684155376640e-02 1.0475266748669593e-01 -7.1128582044746549e-02 1.0123201164107797e-01 -6.9539783905952446e-02 -8.5973831064931047e-02 -3.6198135849731972e-02 7.3137272996678715e-02 -1.2828372881521602e-02 9.6766502729462092e-02 1.1985849395995231e-01 4.1366547931773891e-02 -3.2646062785654177e-02 1.1027117389525457e-01 -2.9896933570977766e-02 8.4704876872814139e-02 1.0823791269748864e-01 -1.2399306929976152e-01 -1.3905151476932309e-02 -1.1266321304246991e-01 -1.1296499395979633e-01 -1.1249514376541782e-01 -7.2209158011461175e-02 4.8019934620046958e-02 1.2555423499658905e-01 7.4086483241440862e-02 -5.7433033675667176e-02 -4.9645520707039703e-02 1.2116566781129433e-01 -1.5632825527564179e-02 1.2261450031301735e-01 -1.4575338735761906e-02 5.4629592838987238e-02 -8.4786873796302235e-03 2.8077265849656692e-03 -1.0018397496908027e-01 3.5959162778296312e-02 6.7041480291898617e-02 5.3958913664930643e-02 7.5571152971237524e-02 -1.1354045496285807e-01 9.4045732174739660e-02 -9.0680769616116569e-02 1.0741026843218837e-01 7.5188282073520990e-02 -9.9904066474155326e-02 -3.9340814713945696e-02 -9.9870779000214537e-03 -7.9387465604980889e-03 5.6383986984724854e-02 1.2310694375764018e-01 1.1029408505451675e-01 -2.0587333213666351e-02 4.3660753676425620e-02 -5.4666429848752605e-02 -8.5598240691159483e-02 9.4018994938979042e-02 -5.2048183951403489e-02 3.2433855619971065e-02 -1.6746753831270750e-02 -2.9069082329034168e-02 1.1787686067071095e-01 -5.7885812609742432e-02 4.4316453948533695e-02 -5.7481150897949966e-02 1.1448979163005548e-02 1.6885232471032883e-02 -1.1497362673956328e-01 -2.5799671351228511e-02 6.1586337247969917e-03 -7.7567888733879597e-02 6.3731625918138538e-02 7.7281107773711930e-02 9.7816831113219524e-02 -5.1361222792098198e-02 6.5493017690114411e-02 2.4327496355900168e-02 5.4837176310324944e-03 -3.8357603553685435e-02 4.3093204690308515e-02 -8.1674704420273258e-03 1.1876330252331609e-01 2.3724915576456923e-02 -1.0273731111473541e-01 1.0945307549134500e-01 6.2946231188272875e-02 2.0799478468089789e-02 1.1900228376465941e-01 -9.2903333832314739e-03 -2.3798679255257471e-02 8.3375078210689721e-02 -9.5193435794176051e-02 1.6335515069347852e-02 -1.2243418110884020e-01 -5.5353300435927464e-03 -6.8659499572949659e-02 1.2222347756429502e-01 -2.8858058512861228e-02 1.0029708172411696e-01 6.3146279002689348e-02 -1.1844263120827643e-01 -5.8219660783078497e-02 6.3622028608882247e-02 -6.4331931435788747e-02 7.0742949197392685e-02 8.8409913861209832e-02 8.0022580866364629e-02 4.4799579948722058e-02 1.3998817268797614e-03 2.7945150175219778e-02 9.7156415386542710e-02 4.5055615662068754e-02 6.4812451607427657e-02 -3.8054872085951194e-02 7.9936145890226601e-03 -4.2507161489201306e-02 1.1806313204902856e-01 3.3659562763279291e-03 -1.1546805993100065e-01 4.1276002559452879e-02 4.0279387047609930e-02 9.2204298422263728e-02 -1.0002632930815704e-01 -4.1928240140338885e-02 4.5571945767093530e-02 1.0669495967599887e-01 1.1692888626693358e-01 -8.8240845220985631e-02 4.0818773555470714e-02 7.1826327162739262e-02 -8.0548038682310613e-02 1.2256034249321826e-01 -1.6786659653184103e-03 -1.2391504305978070e-01 -5.7417073262026545e-02 -9.2806942124718031e-02 1.2279700310492370e-01 6.4781070048551395e-02 -5.1844600740966265e-02 7.7238463813627881e-02 2.4677896944829403e-02 8.7024502875901411e-02 2.3398964552930765e-02 -9.3398965980467444e-02 1.2481546786452398e-02 4.4199211800717442e-05 -1.1794169255003248e-01 9.9377423490936874e-03 2.2017390979629820e-02 -4.5848130872240531e-02 5.2776116804764371e-02 -7.4610398978779913e-02 8.7468152519307920e-03 5.2857220138834850e-02 3.2557975276792232e-03 -1.0665150490620995e-01 -5.4293929147315234e-02 9.5153374525353149e-02 3.8394519626536477e-02 -1.7422634510434791e-02 -4.6424412507608759e-02 9.2514589587956525e-02 1.2045120521857398e-01 -1.0800063248650213e-01 8.8006059821480978e-02 -3.0556970148991981e-02 8.6960540644412596e-02 -1.1662715531015871e-01 -5.4817948302312638e-02 2.6048173993244980e-02 -5.9237243316134239e-02 8.5554603750255143e-02 -8.9104805260456707e-02 7.1930388303450166e-02 3.3478067224215299e-02 -6.4569805165372099e-02 -7.1779249897765879e-02 8.2285908949994463e-02 -6.0568431482841627e-02 4.3388385986974705e-02 -9.9521136802543833e-02 -2.6357915738659067e-02 8.1786647735957022e-02 1.1766974742182096e-01 3.7008733382026246e-02 -1.1649048649145312e-01 7.4349825425577512e-02 2.7399034265825843e-02 -3.6906362015200665e-02 -6.5418786608303511e-02 -8.3935661494944649e-02 5.6216673873346806e-02 -4.1250279147474214e-02 2.2996771011328191e-02 -2.4295527475928586e-02 -4.3416699560974277e-02 9.2673659008502482e-03 -7.3710079989043730e-03 -5.0838705343842494e-02 -2.8834492696044593e-02 -1.1236349914169187e-01 2.7116289992791778e-02 9.0705368226950120e-02 -7.0572723896284273e-02 -8.2132494299476423e-03 3.5131790645388399e-02 1.2770920245512832e-02 -3.2353097732893757e-02 -1.1062833922107465e-01 3.0570304909673669e-02 8.8751297901831047e-02 2.5214489482550291e-02 3.1795717944818669e-02 -1.9176104499537605e-02 1.1939076461236264e-01 3.8253259214245286e-02 -7.8415770320371253e-02 1.1857445911262811e-02 3.8168552699741507e-03 4.0409840363826853e-02 6.3878566487522340e-02 -1.4659956850316458e-02 5.9889676351947266e-02 -1.0625231778341589e-01 -1.1853172819071836e-01 -1.0199707980693447e-02 -8.1677765342443170e-02 3.0657895346353943e-02 8.5471644900978680e-02 1.6768705055297251e-02 1.0686189768747059e-01 -8.2450561009291806e-03 -9.6552533960611725e-02 -1.2350058038558459e-01 -1.7592721393776371e-02 1.2175728089173969e-01 1.6072216941465396e-02 -9.4433390578948187e-02 -1.1723886966824565e-01 -7.4337146623109251e-02 7.2937171311565727e-02 3.7097083260053107e-02 -5.8574332977618090e-02 1.1065403331539608e-01 1.0972828394058169e-01 -5.5653418642900604e-02 -4.5337424107599812e-02 1.0332101916270871e-01 6.6285980769117528e-02 5.0340637751045247e-02 -1.0363558946500893e-01 -1.0218030882127395e-02 1.0196046290204167e-02 1.0443460506539877e-01 5.3719632284280144e-02 6.2447121264751812e-02 -5.5482369856993279e-02 -1.9398770912475227e-02 3.2042801118885876e-02 -5.3240180885003232e-03 -6.1906679438789490e-02 -5.6931354171555213e-03 7.8922642247948732e-02 8.4472847883089147e-02 8.4488194154448179e-02 8.0356159842773958e-02 4.2943151684452605e-02 -1.2305355427732280e-01 1.2031547288640007e-01 5.6082168797755592e-02 1.4104085858725747e-02 -7.0912731906067866e-02 -9.2203059177928939e-02 -1.0676454421610465e-01 -9.5835498680384351e-02 -2.4769426775151874e-02 -9.1005335185060335e-02 -7.0422649861711081e-02 1.0870970401647108e-01 5.6347804370117688e-02 -9.4467868125543072e-02 -2.7119027530245938e-02 7.7896223933778090e-03 -1.7268774314438830e-02 -4.5431500997109835e-03 -1.2329587999583791e-01 2.4681180288882183e-02 5.5436502362029389e-03 -1.0092950135829094e-01 -1.0177679885983222e-01 6.8018861778215117e-02 5.2274666993268819e-02 2.3791931582112763e-02 -8.0539764444521059e-02 1.2414495100455018e-01 1.1208696099104649e-01 8.0114662337020165e-02 -1.0511179503400812e-01 1.0019316318926809e-01 1.1837214779200922e-01 4.4087361071977395e-02 -1.1581099929777566e-01 9.9717465599718016e-02 1.7888258059469971e-02 6.2938491887275280e-02 6.7526739891439050e-02 1.9809885902353917e-02 -3.2034615541418003e-02 1.0480675718438671e-01 8.8449600125596273e-02 -1.5547664346959382e-02 -5.9906706304940882e-02 -4.8695454835543089e-03 5.9926506200703861e-03 -1.1403528918749820e-01 -4.4677166490010500e-03 -8.7322214886168120e-02 -6.6399476564437079e-02 -1.0627791384873227e-01 -4.3702652885924693e-03 -9.2473407207174493e-02 4.4056794161491858e-02 -9.8136811972897017e-02 -5.1372110671168335e-02 -5.1445774361602054e-02 -7.2604556397631734e-02 -2.1420710558922581e-02 -1.1232356609527282e-01 5.9287132041244304e-03 -1.1602879625323119e-01 -4.1019438334402837e-02 -1.9443953416166764e-02 1.2960817917333034e-02 1.8882991647067266e-02 -8.3937992873347245e-02 -9.9215122464773667e-02 -1.2429377147941056e-01 3.4472784822122828e-02 -3.0709407621397713e-03 1.1870786664253929e-01 5.0118734341756278e-03 9.5219338348525695e-02 1.7267217682920600e-02 -1.1421864849876516e-01 1.1577841036761503e-01 -5.9434166836644500e-02 -5.6505848629610618e-02 -4.8376556800630952e-02 1.1910596875083997e-01 -8.8924088982140922e-02 7.1022408494880895e-02 5.0541839170076583e-02 -3.9088776422862452e-02 -8.1729162640572658e-02 1.1693020941013017e-01 9.2010641422104439e-02 -1.1818429742800790e-01 -3.8980062805372855e-02 -6.7938605249322492e-02 -8.2532034816971703e-02 -1.1005265972315184e-01 5.4050104284914399e-02 -6.3999864755578645e-02 -4.9059597871979187e-02 -6.1548065680290212e-02 8.3283458105946714e-02 -6.7191921221729345e-02 -3.0693720076801316e-02 -1.1966050003406621e-01 -1.4000623111931162e-02 9.7668646879006976e-02 3.0564267249703604e-02 1.1417272985970911e-01 -1.0486504630153713e-01 -4.4335525349887599e-02 1.0805686572305087e-01 4.6633860483058211e-02 -4.4723767723613674e-02 2.9838392525176505e-02 4.9207662699249123e-02 -6.3295779771164767e-02 -3.7534311773080475e-02 -2.5449910929466607e-02 -9.0219241368754186e-02 -9.7909333002382581e-02 -4.1707226645814589e-02 5.2763584977590421e-02 9.9325252764042582e-02 5.3730827948922734e-02 5.5825420562260308e-02 5.3208044830518001e-03 2.5966605325667351e-02 -6.4938515880878733e-02 5.3305141878222054e-03 9.0650444513309614e-02 1.1690374607959673e-01 1.7087661021452323e-02 1.2876445579917574e-02 -3.1895778791979849e-02 3.1061193110387120e-02 2.2270345593021327e-02 5.3023179303428605e-02 -1.1018918867779361e-01 -2.2854162074451539e-02 2.7081409649630961e-02 -2.2075485868107942e-02 -1.2189063962823277e-01 -8.7330929136093249e-02 9.5011764452888794e-02 -4.6511682022467880e-02 8.7509966985346369e-02 -4.7578169455158914e-02 -5.3655979307063395e-02 -7.6871852635375715e-02 1.0381424388622795e-01 -1.1127782632158180e-01 -1.1474004809863243e-01 6.0345010914126834e-02 1.0271381616158801e-01 2.9285852145043003e-02 -1.6856330734527640e-03 8.3933687696849973e-02 -8.8193879111899492e-02 1.3776914716640890e-02 6.3651437876895645e-02 5.7228209437076481e-02 -4.3640571918270060e-02 -4.7571444784984707e-02 5.7240503615594608e-02 -9.2515583733914636e-02 -7.5156679598335316e-02 7.0018567750121441e-02 3.7330495517274895e-02 -7.2107953197458330e-02 5.7015064962374108e-02 -5.0154078622620987e-02 -3.2726979413667152e-02 -6.7345808066200885e-02 -4.1332689678958340e-02 8.7559744912410753e-02 5.9697084437398407e-02 -2.9370549499359921e-02 -8.3369750982815558e-02 -3.0910196888381477e-02 -5.5785732101666277e-02 3.0105543511860251e-02 -1.1059033011274529e-01 1.2657718217298683e-03 -7.4467006709879158e-02 7.0953378681834572e-02 1.2011864783769480e-01 -3.2968959860186990e-02 -1.4535246474288764e-02 4.8147924675840413e-02 6.0162647855312570e-02 -2.1896775641971566e-02 6.4547016450472394e-02 -6.5868408615723920e-02 9.1350573828944445e-02 -1.0134326390953634e-01 7.1516557287713486e-02 -1.2517089131489662e-01 7.0130264593871755e-02 -1.0046958613435492e-01 1.7109644914440673e-02 1.1772560605833760e-01 1.0813427070476500e-01 -1.5917349439124057e-02 -1.0857508874657533e-01 -1.1319488538357751e-03 -1.5948557827193625e-02 3.8957159005232604e-02 4.2825717410003634e-02 1.2483523514916987e-01 8.3922092626423431e-02 -1.0025508778603708e-01 1.2195875604222946e-01 -1.1663090907795001e-01 1.1212796412382542e-01 5.4509673476679468e-02 3.8785779942683646e-02 -1.1777889187712022e-01 1.4053787737736165e-02 8.2362421917694897e-02 1.0262077212945322e-01 -2.1680115480347071e-02 9.7276923071808394e-02 -3.8347011772304727e-02 8.4353126716303056e-03 -9.2960652032858637e-02 -3.0525280033539132e-02 5.7946055649187901e-02 2.5997763673577000e-02 7.4496463613739738e-02 -7.9465686152250206e-02 -3.1579067963632738e-03 8.3361474740286434e-02 7.3915530640931926e-02 -4.5477655917798801e-02 -1.3080625089631285e-02 -2.6730035660869362e-02 -9.5748266050576417e-02 3.6839924377409919e-02 -1.1548524649936621e-01 1.1075194800439307e-01 -1.0464710214077935e-01 -2.7412933280377385e-02 -1.3543038136827517e-02 -1.1119115528724700e-01 -6.3698191052399669e-02 -4.1252864272598590e-02 -8.8499036605805284e-02 1.0730104083725055e-01 -1.0472630348502514e-01 -4.5718805102611011e-03 -1.0943560710524221e-01 7.9358682545947780e-03 -9.6110706318628108e-04 1.9785500524265150e-02 2.5967023102504160e-02 6.4252201855838381e-02 -8.4492079710766790e-02 -1.3057686769226296e-04 2.1686375623372104e-03 -1.0620809848221913e-01 2.3194242665963687e-02 6.0946685222990446e-02 1.0307477562570250e-01 -6.0589452083358655e-02 7.8331869654433853e-02 -1.4880815628539899e-02 -4.6667277101679089e-02 4.6367216566193204e-03 -6.4785545014292206e-02 1.5482427789736439e-02 -4.1991585946950558e-02 1.2923952667182334e-01 5.2986893398288652e-02 7.5857910486641991e-02 7.4339486800029719e-02 1.0393784292512420e-01 -1.1476129566783701e-01 7.0625183142612152e-02 -1.6692925028774373e-02 -3.1319857309103596e-02 4.1992112678811609e-02 1.1225430584787364e-01 9.0041553687914277e-02 -7.9593050658438649e-02 -2.0222215773359125e-02 5.2355736565583302e-02 1.2038409579054882e-01 -4.8388258945418240e-02 3.3954517790959440e-02 7.9479830319738858e-03 3.5667253345875324e-02 -8.6769222225077269e-02 8.7274053878238222e-02 -4.8900230355665070e-02 -1.0867876630089583e-01 5.3254895606188429e-02 -4.0450865828843774e-02 -8.6259899625146921e-02 -1.0992643329089127e-01 3.8134133567278385e-03 -8.9519619340634446e-02 2.0046295280439979e-02 -2.2279673193720245e-02 -9.7527488771044890e-02 -6.5910007091991005e-02 9.8414842914193765e-02 3.1523481651878550e-02 -5.0882337681845601e-02 -3.3731670023625253e-02 3.2309962852104371e-02 -9.3611942057715739e-02 -2.1119304372597774e-02 -1.0532281382566326e-01 -1.2830720931899053e-01 -5.0774835670978319e-02 -5.8364601881148247e-02 -1.1746067835436658e-01 1.9806209146437815e-02 -5.0564506071349241e-02 -1.2245706693787206e-01 -8.3592645646338407e-02 -9.7445557416494827e-02 -1.4268682772899962e-02 -1.4257580314085404e-02 2.8493145393779989e-02 -3.7442808514314557e-02 4.9524562001324830e-02 4.9676461434222260e-02 -6.7931849364977717e-02 -3.5746786005018856e-02 1.8105975075512461e-02 -4.9900356890624366e-02 1.7855173119839362e-03 -6.7877628903323300e-02 -2.1155300169773756e-02 1.2931269253195940e-02 -6.9073763160078877e-02 -7.7903760978624004e-02 -6.8547274315891291e-02 7.7580556130171036e-02 2.3208230561181091e-02 7.1888596330677956e-02 5.6189142601801224e-02 1.2371958679177605e-01 -6.1105548118279049e-02 -1.1909443540758267e-01 -8.5824215615284041e-02 3.3873823982865536e-02 -2.2083696470051881e-03 -8.3113699055962262e-02 7.5998173782003561e-02 5.7056674342287242e-02 -1.0029668233187705e-01 -8.8727819132327287e-02 5.2684597159865523e-02 -6.9557583961615779e-02 2.2588692895457046e-02 -7.2735178623765879e-03 -1.0929700856541691e-01 -1.2411860336959837e-01 -5.1337147551788927e-02 -9.8532655659700416e-02 -3.4139975613428695e-03 -1.1113150923576348e-01 6.2880849878191716e-02 -5.8513095056796569e-02 1.2370861624508893e-01 -4.1228149875117359e-02 -8.2754251093429439e-03 -4.2197672462737246e-03 1.1969098487206788e-01 8.5911336127363781e-03 9.7850951903134600e-02 5.1314478915275505e-02 -9.6988212436800836e-02 6.1110824215010726e-02 -5.8797837685106616e-02 2.3769465188491958e-03 -9.6092158675341904e-02 1.9048256295456072e-02 -3.9462316792798428e-02 4.0844949749519605e-02 6.0892142098982360e-02 -2.8529584157800818e-02 -1.0295985772910663e-02 -5.4086358770991202e-02 -4.0331753204158674e-02 6.9391465709079669e-02 9.5801848142411980e-02 2.9348644881908376e-02 -7.7192270947001998e-02 5.0870677280657459e-02 1.9702981507286634e-02 1.2194008734290558e-01 -5.6233446689154349e-03 7.1469331931073049e-02 1.0861481592640683e-01 -7.7853010251190291e-02 -5.9854684064172277e-02 -7.9084505429868571e-02 -1.6433321390882733e-02 6.4928505030646108e-02 -9.7416494112286076e-02 -7.1632161444336054e-02 7.5359704110871367e-02 -9.7014769749386900e-02 -8.4673358712904559e-02 1.1587858106205898e-01 -1.3051084033068644e-02 -4.0942060645172860e-03 -3.6103212576801987e-04 1.0409352910835712e-01 -8.7175063064523509e-02 -5.6731582634509930e-03 -3.8340268389787421e-02 -4.5574047410397681e-02 3.5994418072546913e-02 6.7752214705449315e-02 3.1711115565219848e-02 -1.1478700368200229e-01 -5.2769744977669161e-02 8.1454394733117622e-02 1.1468954393661387e-01 6.1120871684700026e-02 -1.0225029128446798e-01 6.0914908493521339e-02 1.0401258187825224e-01 1.2139100482158080e-01 4.1395748836669542e-02 -9.0203451106987687e-02 -7.8784610330859511e-02 5.0867774082629734e-02 8.5537047075360445e-02 9.2421928963610622e-02 2.2545319121655475e-02 -4.6251526180587546e-02 -1.0757797045076208e-01 -2.5037356853098471e-02 7.2981491661112508e-02 -1.0369562912350987e-02 -7.2256812030416975e-03 2.8868668556774747e-03 6.4018915391675273e-03 4.5205367860781775e-02 1.7602407663986425e-02 1.3989525291218531e-02 -9.9150103916501586e-02 1.2402320307926672e-02 -1.0835637481658247e-01 -1.2120522798259806e-01 7.1353853298499040e-02 1.5575054336023313e-02 1.0254182219172875e-01 -8.5231536012167874e-02 -3.5205008894797142e-02 -9.6540856705465361e-02 -7.6823289806659201e-02 1.9702367584524264e-02 -9.9944125574051065e-02 3.7105287627408293e-02 1.1094664275725598e-01 1.6994807359580769e-02 -7.3684733815620962e-02 -6.8925354467228930e-02 3.9092396711213943e-02 8.9840374039562819e-03 -8.3264714129346554e-03 5.1033679563025923e-02 -1.1955294213549301e-01 -6.0032582223726809e-02 6.7359484236046097e-02 3.5924324300757260e-02 -3.7953944256993395e-02 1.0026579715311319e-01 -8.4929621745386846e-02 -2.0447716253201163e-02 1.1061765712121434e-01 4.0885696736484400e-02 -7.3926415327080622e-02 -4.6861964114998544e-02 -8.9053537864203242e-03 9.1577061961251580e-02 -5.6414613581718384e-02 -1.0189783591728407e-01 1.0607172962711146e-01 1.2186396900758507e-01 -9.6823112168497510e-02 -6.4191039494191221e-02 1.1561504186621849e-01 -4.4273717902293987e-02 -1.1267445280200289e-01 -3.2977947323374293e-02 8.3016493589149240e-02 4.2610802668802385e-02 3.9902942811878783e-02 -7.8437242708855562e-02 -1.9926174288083808e-02 -8.4330760908947630e-02 -2.4579192442225860e-02 -4.6917159892418386e-03 -1.5940494299308040e-02 -5.6881900299216810e-02 -8.9667818869064303e-02 -8.7402277176509571e-02 -1.7254986109311692e-02 -1.1173050433220881e-01 1.4463403574589305e-02 -3.2388083663156438e-02 -1.2526593386637362e-02 -9.7134494619996972e-02 3.1166465128697494e-02 -9.2272847504149963e-02 5.2985563817601038e-03 -5.0876056502034743e-02 -1.9965281040406943e-02 2.4653342040663499e-02 4.2893344661880932e-02 1.0547263245552274e-01 -1.0860244292832265e-01 -5.3846649798220819e-02 -7.9773543282223389e-03 4.1773424355134203e-02 -1.2410863811145552e-01 -5.6039975039510566e-03 -1.0323208030948620e-01 1.2072983622592964e-01 8.8979589527580352e-02 1.1898818314414411e-01 1.1855389462011814e-01 1.0893657300860003e-01 -7.7722638892993384e-02 -4.6363776902284659e-02 1.0044288703690764e-01 -1.7754447007699476e-02 -9.8913810377234027e-02 -6.2460035391884175e-02 -1.2200962175812934e-01 -1.2571493289949975e-01 1.7180824892869741e-02 -1.7852319633757382e-02 -8.3112745404711155e-02 5.6174407617444459e-02 -8.9068677825390921e-02 7.6662157049480845e-02 5.6961983429137233e-02 1.1694720391646568e-01 7.2915030546698734e-02 1.1334390234328599e-01 -5.5189474618167270e-02 1.2288058891908250e-01 -8.4607806810229086e-02 -1.1084147720229072e-01 8.6145538528247911e-02 5.7057624702891947e-02 -1.1532459125773510e-01 8.2780553160889336e-02 -4.3013294140207617e-03 5.6942727738172320e-02 -2.4461995818581692e-02 -1.0667017094351977e-01 -1.2129727363528654e-01 1.6471066352829765e-02 5.8133144058281315e-02 8.6142278320331996e-03 -3.8056320331573863e-02 -6.4203938298992375e-02 4.8314937431555662e-02 -2.5783494620011227e-02 -6.9179612445315550e-03 7.3400901065949278e-02 -9.9764710632409444e-03 -1.0106386980807237e-01 4.5071476374385966e-02 -1.2617193196217946e-01 -3.8551464670596856e-02 -6.7935932555370730e-03 -2.2800151144848377e-03 9.2427203408474573e-02 6.6341489968800321e-02 -4.8626164812797107e-02 8.9064878216874921e-02 3.2782886238847675e-02 -1.0122442840019658e-01 -1.6954150475580965e-02 -7.1218857893867518e-02 1.2038107349743143e-01 -1.1357201587240938e-01 4.7182740479134434e-02 9.0160177758733168e-02 -8.1637137934106346e-02 -6.1718344589653931e-02 8.6238078317661726e-02 5.6997310918564650e-02 -7.4149246652181131e-02 -1.1814214098342864e-01 9.7749269621706977e-02 -1.5516317880329400e-02 9.5407709585310807e-02 2.2321867687818991e-02 -1.1287564746914677e-01 -8.2619767807683528e-02 -1.0721575868562218e-01 -2.3555226227391882e-02 6.3470986090265052e-02 -8.0829185645397761e-02 4.4012734063513708e-03 -9.5097795994209949e-02 5.6839537846411020e-02 -5.7327678320163993e-02 3.9875302619574400e-02 1.0722673710374982e-01 -9.7881147888378220e-02 -1.1684952797419031e-01 4.9111368325092671e-02 7.4182000288142355e-02 -2.7017107240139792e-02 5.5916002321008233e-02 9.9601912489276898e-02 -1.6046152342545215e-02 1.2228591355330906e-01 2.1024209669921745e-03 -7.4778034256412440e-02 -7.4688969531922056e-02 -5.9990069935444840e-02 1.6597836545047880e-02 6.7006921099057745e-02 -7.9883607327070699e-02 6.8456548108114107e-03 3.9516169031197187e-02 2.3924475675759851e-02 -1.2381523131932481e-01 -8.6129358200909084e-02 -5.6156515239592281e-02 3.5828540589419255e-02 4.9658079557761926e-03 -2.5745550339414308e-02 7.4537028501509117e-02 4.7170823267440230e-02 -8.2449983816165626e-02 -3.2779275353028853e-02 -3.7823487744299803e-03 -1.2310331053504911e-01 3.0308059803900812e-02 1.0122307653804713e-01 8.1633361824984107e-03 -7.2376318721007443e-02 1.4677961955730470e-02 1.1758848712725241e-02 -5.4250561702588011e-02 6.2782729162897358e-02 -6.1547936470884836e-02 -8.8011147685873384e-03 7.0086580424910949e-02 -2.1413056877553977e-02 6.1415331767952074e-02 -2.9046033047005471e-02 -5.8676986819102335e-02 8.5223595259264817e-02 2.3137312740612658e-02 6.7637229332818807e-02 -4.6945057468481537e-02 -3.0642030556229712e-02 -1.8082288093983729e-02 -8.1554520393204780e-02 8.0117358829794455e-02 7.5706721655938961e-02 -1.5551300664442691e-02 -2.5810331086569320e-02 8.8221032155531565e-02 -2.3949249986517950e-02 -1.2299730139313368e-01 2.3573780750814231e-03 -6.8604744198285730e-02 9.9111211280438705e-02 3.9817637282054619e-02 1.9281931132718061e-02 1.0499480811797435e-02 6.1543635909940525e-02 1.0220672357368021e-02 7.9556217420378106e-02 3.4923399290826052e-02 7.2803920063425509e-02 -1.7124255429319345e-02 1.2055480646124306e-01 5.1598648318100578e-02 5.2818036480048111e-02 1.9356497620803017e-02 2.1304071959772335e-02 -9.0184528493452307e-02 -1.0155011056262148e-01 -2.6727598782376495e-02 -7.7937688795914145e-02 5.3758224518693075e-02 -5.2565141741720771e-02 2.6247962311539547e-02 2.4016516950740575e-02 -2.9682288631727956e-02 -1.2000892357683196e-02 7.4574033674537771e-02 -6.5725045383835917e-02 6.1081124555723711e-02 -5.5783523851329890e-02 -2.9270638379819313e-02 4.4622430484296045e-02 4.6672859469165037e-02 -1.0195334491984676e-01 -1.1507207906189802e-01 -1.0794683814528470e-01 -6.9844150314787058e-03 -5.4524634211839125e-02 1.0994319053854308e-01 -3.5950317880440723e-02 -9.0498058741140142e-02 -1.0613543199441230e-01 6.2605206226719917e-02 7.8695156349119430e-02 1.5823732383101655e-02 7.1000981868966168e-02 -4.8506915616430848e-02 1.2974352308895236e-02 -8.6000727628872869e-02 -2.2842537051896789e-02 7.7273383733562129e-02 -3.3853086495970533e-02 -1.0160659145111881e-01 -2.6367403872409441e-02 6.6504476522601857e-02 1.1364256873216014e-01 -6.0286682235047989e-02 -3.2478705083233701e-02 -3.7398558490907868e-02 1.1872025644450661e-01 -4.0386144116250577e-02 -5.6743017059458604e-02 4.5175642083127611e-02 -1.1906928483236627e-01 -9.8814655120533307e-02 -1.1719949896793368e-01 6.3538140064774040e-02 8.8681824441367099e-04 4.3548191723199570e-02 5.0115040446459036e-02 6.7400775809693128e-02 -8.6608565765806986e-02 1.1706207549820372e-01 -5.3722344498804739e-02 7.2761377262140631e-02 7.3945210990020063e-02 -8.6609404057446909e-02 1.2225743203987356e-01 1.1479032629882555e-01 -9.6845499381396388e-02 -6.5213179180789158e-02 2.6470480994947816e-02 -1.0211258017541204e-01 -9.5874102595086778e-03 -4.9174569470928083e-02 -2.7024132596565158e-02 6.3176455034146151e-02 1.1198789551810616e-01 -5.2486617320225623e-02 3.9101775129424490e-02 8.7374960644387711e-02 -1.6916912822650423e-02 1.4932463513415558e-02 -5.4524730874086470e-02 7.1530314961284161e-02 -9.3178323468178989e-02 3.5419190240147613e-02 6.3554769730395047e-02 -2.8296183072942634e-02 -5.8619722950470209e-02 4.6000019477369702e-02 -1.7491083206645552e-02 -7.9220192943244228e-02 -1.1154925806868185e-01 1.7049326807081221e-02 -2.9585193915354187e-02 -1.0280479263990017e-01 3.8207758727397463e-02 9.3434518731336912e-03 -6.7457931776452429e-02 8.5912012224454409e-02 -4.2992051255712413e-02 9.0294309737028275e-02 1.0669893068456825e-01 1.2172238940172483e-01 6.8614066844183775e-03 -1.1404157386159806e-01 8.5748621883595624e-02 -1.1175276150758914e-01 2.2839377577661763e-02 9.0868991430888738e-02 1.1213842022297128e-02 -2.4424457830270856e-02 1.0222423791922536e-01 -2.7240464941774931e-02 -6.3022188711870986e-02 -2.1041684646528131e-02 -5.2019047267025990e-02 -1.2916390656422085e-02 -1.9268027419016880e-02 7.6800198941636977e-02 7.2158931903822499e-02 8.1994340794946066e-02 1.5776726942440502e-02 -4.2028845105127499e-02 -7.8295920087272139e-02 1.0607965954661906e-01 9.3045277691962219e-02 -6.1527320187734234e-02 5.5195188298082246e-02 -8.2929931377314012e-02 -9.8376140243966723e-02 5.8202132423644110e-02 -1.0029009617896718e-01 -1.2015346883253943e-01 6.8705381305362745e-02 -1.1921307335604550e-02 4.4145367122788215e-02 7.4253240490390199e-02 -1.1038375639030734e-01 -4.3807560452396824e-02 9.2809193940363008e-02 -5.8245565194060787e-02 -7.4246839869476958e-02 -6.8947768289451455e-02 -6.7233863500282695e-02 6.6842447111410158e-02 2.9143178173475986e-02 -1.1772898191473366e-01 -9.6520248316581861e-02 -9.0071948894116211e-02 1.0260605402816561e-01 7.9757734104304728e-02 7.8715101879292364e-03 5.7487531483262230e-02 1.2278711476094448e-01 -1.0389108445912702e-01 1.0884661534678756e-01 6.8834597239249631e-02 -4.9852209770604651e-02 -5.7299461676022033e-02 9.2472533868305840e-02 -9.5386388444478956e-02 -1.0848103289609697e-01 -1.1358564409986174e-01 -8.2991039618588711e-02 -9.2700346766464076e-02 -1.5146966830343096e-02 4.4617399958293502e-02 2.5442975728397411e-02 6.1467599604762890e-02 4.4577247059551361e-03 -6.2458511823119497e-02 -1.1962953496390824e-01 -1.1799166060145685e-01 -3.2928120950600119e-03 1.0698524918991645e-03 1.6867193904343776e-02 -7.0193486984574116e-02 1.2323182612984973e-01 3.1489523453408538e-02 -8.8750809441027811e-02 -4.5069383270939780e-03 -2.1814371457464225e-02 -3.4764198717385747e-03 1.1229975268492939e-01 -6.8858194314033311e-02 6.9297001673130881e-02 1.1695270062813333e-01 3.6387659136950905e-02 -7.7484825732474880e-02 -1.1350051077264733e-01 7.0279981651810194e-02 2.8165226805737815e-02 -5.0618891660782331e-02 1.4106226894733908e-03 3.7405500071475061e-03 -1.1813022702255967e-01 1.0532987528259073e-01 -7.3793601174634418e-02 2.0695377530222641e-02 -4.2123141289063457e-02 -3.9240256081349172e-02 -1.8870569195484278e-02 7.2237582999481839e-02 3.1859428713316783e-02 1.1130235365274146e-01 -7.9488508018111748e-02 1.2111185209465301e-01 5.2913721311795524e-02 -9.8195237416925221e-02 -1.2016443419074473e-01 3.5041578277320386e-02 6.1450642751108189e-02 3.0694326212945745e-02 5.2172828380827228e-02 -4.9007260346683693e-02 -4.6562134504767949e-03 9.1199202092635517e-02 1.8571713139734145e-02 4.6605547147333714e-03 -1.0705489606567878e-01 -2.9966164237006182e-02 8.7970879547246528e-02 6.8368894368275215e-02 -4.0746772232732265e-02 1.2155496718698326e-01 1.2173739924937770e-01 1.2263680028694532e-02 3.5285754808822095e-02 -5.9583710979416019e-02 -6.6987225739185446e-02 -1.5544571400153067e-02 -6.6960859119912799e-02 -1.9977833130752617e-02 2.7271409128847946e-02 -7.2862103950234125e-02 5.3220123784723135e-02 -5.2707429042249017e-02 7.9982542949975907e-02 -8.5415792308480218e-02 6.6773118131861500e-02 -2.5232374372686769e-02 2.4847788863448416e-02 -5.1749663964623931e-02 -6.5406693967369950e-02 1.0783468791989863e-02 -4.0860406009001768e-03 -1.0011087731005983e-01 9.6069411641602376e-02 2.3106790995488659e-02 6.2203258402260556e-02 4.0869676894010644e-02 6.0298327839412642e-02 8.0525602844868663e-02 3.5412177488841540e-02 5.0399655007896629e-02 3.1840704413530672e-02 4.8383593365234512e-02 1.1137635360789401e-01 -3.7235468437799651e-02 -6.1730523878587976e-02 1.1803125876634656e-01 7.2462079005282676e-02 9.0705393792274353e-02 -1.1038345429069922e-01 6.6270321216355330e-02 9.1736055356744506e-02 8.5219686418269089e-02 -1.2413507959671866e-01 9.5941202768828518e-02 -9.8664039318895252e-02 8.2492897554033148e-02 4.1920276569347627e-03 -5.9118769850735026e-02 -9.0672822370614636e-02 8.1293437085424178e-02 2.9923321302365437e-02 1.0099726236169913e-01 6.4786098635054287e-02 1.7324015491625107e-02 8.2262371978874718e-02 -1.2073180842610677e-01 1.1433363621642831e-01 -5.3229471413212437e-02 -1.2003666542523873e-01 -6.6667225040929159e-02 -7.1859201360791214e-02 7.2284827095284832e-02 -7.9584251223186131e-02 -7.6077892008498293e-02 -1.9739161469337772e-02 -4.9371270188457342e-02 -6.5973391329817088e-03 -7.6634181709610658e-02 1.6611927676221865e-02 8.5495893863578212e-02 -2.8043344405534829e-02 -2.0736735649020888e-02 1.1473446811668256e-01 -2.4281410086160631e-02 -7.8852945270548314e-02 4.2825011198952163e-02 -8.6671414783821787e-02 1.0728556579957006e-01 8.3873815810336025e-03 -1.4191650436995922e-02 1.5428725457241806e-02 -5.8972726744367029e-02 -7.7111711287767296e-02 -1.2420515534361122e-01 2.1544936981437456e-02 1.1150552293256950e-01 -3.7953438284254903e-02 -8.7168323675614570e-02 -4.1406375767866932e-02 1.1782993725633829e-01 -5.5267770272520219e-03 1.0611817611532905e-01 9.9941740842975108e-02 7.1763971224385464e-02 -9.4683733680232654e-02 1.1852122254204735e-01 -6.8815836236675504e-02 -8.8867114974385542e-02 3.9345230961527665e-02 -7.6527915223781634e-02 2.3485361126828350e-02 -9.2961913263604104e-02 -1.3687614483697338e-02 -3.6561457335255600e-02 9.5275550251371396e-02 7.3012992383926778e-02 1.2328425410904169e-01 -1.2020809526096005e-01 -5.5029364670403091e-02 1.2196760391242055e-01 4.4615629339965643e-02 -1.2392577244662684e-01 -7.7482757107764005e-02 -4.4889899744101715e-02 -1.8940746647858824e-02 7.6150671593846170e-02 5.4063178188293887e-03 6.7692379605626588e-02 -1.1547212706580066e-01 -1.0097537457288379e-02 -1.1179048071807211e-01 2.7182084490511689e-02 -1.0060004380717705e-02 -1.0982541435036096e-01 5.7342455547188059e-02 7.8706188547911574e-02 -2.5789785818594837e-02 -2.8206232053257611e-02 -6.3005326585581292e-02 -6.9990880072990841e-02 -1.0995380554767267e-01 2.1586229181608074e-02 -9.3022218348715272e-03 -7.6258121558762340e-02 -1.1593392088458869e-01 -1.2790067411862220e-02 -1.0964562251909946e-01 -5.1929271248782070e-02 -4.8615227571086633e-02 -8.7947874297491277e-02 -5.5486179291637343e-02 -3.5279745484014878e-02 -1.9325172450711473e-02 3.8228660360033605e-02 3.0363845184439801e-03 4.6750709842904317e-02 1.2095753255514179e-01 -6.0539124114326201e-02 8.2332076779152996e-02 2.5137301211592026e-02 -9.1966810410857192e-02 -4.7387750167789330e-02 3.8315608379730151e-02 1.2581022671422065e-01 7.4370400573367766e-03 1.1727187520755433e-01 -5.1130440760851922e-02 -1.6457622137952405e-02 -1.8894722722585335e-02 -1.4981622224436837e-02 2.6895036841327769e-02 1.0918517422193628e-01 -1.1530765160149160e-01 7.9104169826978946e-02 7.2297702222390023e-03 -6.0103541311089519e-02 -9.4682642082917476e-02 -7.2983939607982329e-02 -8.4062837607119523e-02 -8.0068513264288085e-02 -5.3401956093385439e-02 1.2113789661883285e-01 1.9343403265581333e-02 2.8031800942178244e-02 -3.2378517742073169e-02 -2.2731926649122606e-02 -3.3452936657480406e-02 3.9391141684619595e-02 -6.6847123025879654e-02 -6.9190164269259474e-02 8.7786322471202397e-02 -1.0309011867419113e-01 9.4849106072025877e-03 -9.8741361618824144e-02 3.5753028141342507e-03 -1.1062922802489940e-01 8.4820826938462796e-02 -6.3667461991592372e-02 -6.9787793750136329e-02 1.1225970007385431e-02 -2.3389454729021635e-02 1.1964647966181270e-01 9.1410774822972496e-02 6.9227459722280060e-02 -8.0156633794411930e-02 -2.7527765809581800e-02 -9.1856949572380275e-02 -7.5407957205067709e-03 1.1821172616082148e-03 6.7113641665135254e-02 8.0723459787279378e-02 -7.1391523335584572e-02 -6.8496679382195336e-02 9.6626178692678560e-02 1.0850802050449872e-01 4.3805627413840510e-02 -1.0561771739234718e-01 -8.3979028835770284e-02 7.5562647469382696e-02 1.8375870588616200e-02 -8.5876017580766267e-02 1.1242180899930571e-01 6.7518296563997868e-02 9.7650553007273877e-02 9.3940612185778566e-02 -4.4840558579036127e-02 -5.3866894889217240e-02 -4.9814953552259018e-02 9.9942896877681001e-02 -9.0073237565764339e-02 2.7136189198307223e-02 -7.2609447810180250e-02 1.7483432189881572e-02 -8.6864368416899630e-03 -9.5403520856852542e-03 6.6344292562051335e-02 -1.1122449090044754e-02 1.1296814588940267e-01 4.9116791299701063e-02 3.8366287681411856e-02 -2.8232995778670521e-02 -7.1995460628264465e-02 9.0113937144645467e-02 -8.3996303223939903e-02 -6.7301111561982666e-02 7.8913585706143902e-03 9.4984894930109032e-02 1.0693641235616415e-01 8.6191509193047092e-02 -1.0497213473179606e-01 -5.2328257278992402e-02 -6.8791859517637596e-02 -2.9387205079235756e-02 1.8411024691720564e-02 5.1340392372974074e-02 -7.1105067965803626e-02 7.6760182004958835e-02 -2.5721405965238402e-02 -4.3139120733598733e-02 2.6786733024017368e-02 7.1689101062936994e-02 -8.0263091838026504e-02 -1.5803720027708707e-02 1.1450461532869264e-03 -6.6347204765303286e-02 8.6973501964912367e-02 -9.8747311978448965e-02 7.4792654692275057e-02 -1.1769040599939673e-01 -3.7155731145834946e-02 -3.6459539778889605e-02 -2.4663558184796524e-02 4.3571185295084025e-02 -8.1615126459400028e-02 -3.3765279763672627e-02 -9.4914250830519381e-02 3.8027380467449731e-02 -7.1369234298400266e-02 -1.2622181979190250e-01 5.7658195454578912e-02 -1.0257250506146057e-01 -3.5808259437256788e-02 9.4940017239472763e-02 -6.2591935130695622e-02 1.1842746545822834e-02 -3.6354275068692619e-02 2.9761247551152392e-02 5.1636486636044789e-02 -3.3330291177878509e-02 -9.2142852365780431e-02 1.0457864693441689e-01 7.5204937909303979e-02 -8.4262783187404627e-02 8.8335944470634406e-02 9.5524579787680836e-02 9.3472335418086319e-02 8.6131958521477488e-03 -2.8068392299839241e-02 9.8604534725615797e-02 8.7265812245465202e-02 -4.0964246444432827e-02 -3.8857220961558518e-02 -8.2642073488391199e-02 1.0417354086446100e-01 1.0067300726526585e-02 -1.1685127606691272e-01 -4.8575385825601808e-02 -1.1860903921290147e-01 -9.3597053325188001e-02 -4.1602885041164987e-02 3.4026842468811184e-03 -6.9162832196408258e-02 1.1440151995966432e-02 1.6893983898768037e-02 -4.0776209428594452e-02 -1.1290970924663532e-01 4.2408197735190202e-02 -6.2059691462963688e-02 1.2354061439557339e-01 -5.9764546612302245e-02 -5.5810689001408668e-02 -6.8033807006068078e-02 7.9610280447024881e-02 1.2223296680321996e-01 -1.2208078090569023e-01 3.1662411866778935e-02 1.0435358274905367e-01 -3.1326554418594846e-03 4.8537502317040952e-02 6.4009830398997686e-02 -7.1879114935251051e-02 -7.3680682455804586e-02 1.0400972347317006e-01 2.1842937892151412e-02 1.9882401056016505e-02 7.5089025343507643e-02 3.9712274023243573e-02 -1.7103894781888503e-02 -9.6435229911676398e-02 -1.2030152035626530e-01 3.1574672416106890e-02 -1.1909850004740671e-01 -7.1735151951180076e-02 1.9744182448841484e-02 1.1145407032711081e-01 -1.0491911245491453e-01 -8.3244555697520622e-02 1.0828901523096414e-01 2.4129404977380108e-02 4.5019435648125418e-02 -1.1036806692043441e-02 -9.4185090222822274e-02 2.4052989034943791e-02 -7.5238152451952103e-02 -1.1765822033890468e-01 8.6713956241234000e-02 9.4331093968360088e-03 4.2499926469440973e-02 -4.8797201894065792e-02 -1.9031398197447112e-02 2.5083100025358206e-02 -7.8380985829654526e-02 -6.1510402550480736e-02 -1.1305723987466754e-01 -1.2472730296596053e-01 -2.0189532327463691e-02 -2.1673557376493808e-02 7.9257009492083169e-02 1.9877231834883935e-02 -1.1901450883852530e-02 -3.6147980021568389e-02 -1.1819810951937727e-01 1.7685862723909661e-02 -1.3484457810766832e-02 -2.7290538961360522e-02 -7.4496531351148559e-02 -3.5019776367454881e-02 6.3370930357710797e-02 1.0963990056559142e-01 -9.4851040706991629e-02 7.6525917165770743e-02 2.2308354123015642e-02 -6.9317335342256772e-02 7.6913473669690882e-02 4.5307949684257783e-02 4.6570101628672686e-02 -8.6310493223738891e-02 8.2261313416114062e-02 -5.9476923901295400e-02 2.7097335387669608e-02 -2.8160890689852499e-02 2.5716638315463156e-02 -1.2164505508175723e-01 3.4753690488674105e-02 -2.9295690766748235e-03 -9.0029457192912138e-02 -5.9045660231603903e-03 4.9279249992450432e-02 -3.7733094187621143e-02 -1.0418915608227358e-01 -6.9546934010307412e-02 -1.1991771868448711e-01 1.1034624459210707e-01 -3.9777077781382668e-02 -1.1232269659074441e-01 5.1157431085517679e-02 -4.9867017148250634e-02 -5.6478015559109682e-02 6.8367278569420750e-02 2.3720458035323754e-02 -9.9056578669102002e-02 6.7838990824094531e-02 6.3773475311301592e-02 7.3738306182047034e-02 5.1486666158585277e-02 -1.1209752438925089e-01 -1.0577790834476837e-01 -1.5770139212860492e-02 -4.2857079616275461e-02 2.1463097864512729e-03 9.0112505140689636e-02 1.1223864617236148e-01 7.5245952177562123e-02 -4.0320188334037037e-03 1.1203103862876122e-01 -7.5896202332176380e-02 6.3496833810793071e-03 -2.6001425861616603e-02 1.2377495986402565e-01 -4.1066971179826210e-02 -1.0208130124199737e-01 8.1045468237005314e-02 1.3810655463105061e-02 -3.7822683463012985e-02 -1.2338473166937067e-01 -5.9758596101290647e-02 3.5150480234707342e-02 -1.2126467531007838e-01 3.6048181153806744e-02 5.0236807862042460e-02 -1.2049989947988035e-01 6.7941647890090287e-02 9.2916510380662196e-04 -7.3372405771933311e-02 -8.5909817480344861e-02 -7.0378153288355172e-02 -3.7686524468142225e-02 2.1308005461073910e-02 9.3869376444005906e-02 -1.0319146198295065e-01 8.7207640459586899e-02 4.4893047724882236e-02 -8.4592561381930068e-02 -6.5694095457075802e-02 -8.6309194638638106e-02 2.6233554795257262e-02 -4.7320677283384106e-02 -8.8444215309098663e-03 1.2188920850276187e-01 -6.9869875870226431e-02 8.9730688972238987e-02 1.0556057311449643e-01 7.4157730745325612e-02 4.3676834564381935e-02 -1.0910494191947717e-01 1.2306602762061027e-01 -2.0075936116731308e-02 -3.1178466558851904e-02 8.5682761219847983e-02 9.2714164919297140e-02 -5.2808732674906669e-02 -6.7993008447658126e-02 -3.2249060313622804e-02 7.7506457433064030e-02 1.0135925434435256e-01 1.0041734885711413e-01 -7.7020002252760233e-02 -4.8607057559186831e-02 9.5927398113066067e-02 -2.4577106921197620e-02 6.4151478263697909e-02 9.4120228550402599e-02 -4.7367198344926406e-02 -1.2145292543354937e-01 -3.3474956189503857e-02 -1.1986175501631228e-02 -9.2254535444613608e-02 -1.0012231863832070e-01 -2.1937157386610971e-02 8.7192719588900569e-02 1.6862981159160583e-02 -1.0891729330421186e-02 -1.0877192707560497e-01 -1.0520454374901700e-01 3.8743642713540201e-02 -3.7334689898786869e-02 -3.5241017273915064e-02 1.9665070687919610e-02 5.7772391332710137e-02 1.0588735332834996e-01 1.2083189965072275e-01 -2.3167389187200572e-04 2.2065043020983041e-02 2.1440397569979723e-02 -2.0847694874891107e-02 3.1074396978159574e-03 6.7592828370089203e-02 -8.5108483925133788e-02 -1.3423191882047431e-02 1.2059829611751596e-01 -1.2278456774805407e-01 -5.3367642599557716e-02 -4.3862890853991379e-02 -1.8160623688654870e-02 -1.1680359762903667e-01 -1.3553223736340847e-02 2.0071416570306068e-02 -7.0245412451658967e-02 -3.3947922540743782e-02 1.0919919461500273e-01 -1.1605815803439401e-01 -4.2340403153165174e-02 1.1398246809036780e-01 -3.0258094983664056e-02 1.3313156190908837e-02 -8.4283274268229291e-02 -1.5060215677550851e-02 -3.8588873434704116e-02 1.1922516461324933e-01 1.0184507004598201e-01 -1.1312949149637166e-01 9.6418692995374422e-02 -1.2061390308854632e-01 9.1832559066957350e-02 -6.0871389602620354e-02 1.3259021062054885e-02 -9.3823901309854248e-03 -1.0078049619714254e-01 1.2103102648255736e-01 6.2490952486498899e-02 -4.7074098780882097e-02 -6.5938260076125361e-03 4.4705984832622506e-03 1.2460388424664068e-01 -4.4302937217508588e-02 -1.5099243318500979e-02 -2.2439329272606022e-02 1.0196293516458611e-02 -6.2601141956322839e-02 6.0581556986276798e-02 4.8808317055656206e-02 -1.8847992301428331e-02 7.8081364163609501e-02 -2.1332939998644995e-02 -7.6360909405021507e-02 9.2833371307364826e-02 1.3222496109552952e-02 6.1340286172662996e-02 -8.1890542559627216e-02 3.9421789740031306e-02 -2.3742655961545647e-02 1.1795957816465283e-01 6.8664884873163648e-02 -9.5218789925942585e-02 1.1155959290675406e-02 -2.7431717272945869e-02 4.9677313711805643e-02 2.5752636120926066e-03 -1.0114307596893093e-03 -1.8749754434741552e-02 1.0068256844069727e-01 -4.9268539763723064e-02 -2.9265487751164877e-02 3.8408826570489316e-02 -6.6846181766922433e-02 3.5416980097901014e-02 8.1641490938690123e-02 -1.1214154849250202e-01 -3.7524744666650185e-02 4.7460492629981789e-02 -8.8712977867403037e-02 -1.9806247726365481e-02 -2.7397524584387521e-02 5.4240367144129269e-02 -4.0288301994303659e-02 2.9201831783438537e-02 1.1400025117253319e-02 1.2000657341373944e-02 5.7880052808146808e-02 -1.7907597955197928e-02 5.6530532968575541e-02 4.3924500962451415e-02 -5.3762430024238229e-02 1.2103591088249395e-01 3.7296269315075889e-02 1.2499422753035748e-02 1.1238770858927363e-01 3.1898588719533383e-02 9.6315784499675788e-02 3.7993955448903820e-02 -3.0700006787851179e-02 -7.4726057869008974e-02 -9.2168524828355997e-02 -2.1414171671965319e-02 1.1903227564690107e-01 6.1793867913896199e-03 1.0494552851211433e-01 1.1648938857982788e-01 -2.1415478397380724e-02 9.4949205057101790e-02 -8.7963071797537914e-02 -9.2591736671797500e-02 9.2520716307213438e-02 7.1811548452924187e-02 4.3132659796114650e-02 5.3155054257196903e-02 -5.8379575855278594e-02 -1.9620132628547196e-03 5.8722847582059888e-02 -2.8279849959037460e-02 -1.0729701159947953e-01 -6.4363238498497094e-02 -1.8309567257701982e-03 1.0282129305415454e-01 7.1841348006897177e-03 9.1607395826255697e-02 1.2071678110960291e-01 -1.1993565801875820e-01 7.8105108039645973e-02 1.0620190660889373e-02 -8.5203693227868124e-02 -2.1859830142925214e-02 -2.0397337803073425e-02 -1.0425373801237445e-01 7.9731245623227517e-02 8.7505840053290956e-02 -5.1374810221585902e-02 1.0217346232369261e-01 8.8751972720058192e-02 2.6301560169291083e-02 4.8722329616372989e-02 -1.1251720151145388e-01 7.3603215329560531e-02 1.0195288349378655e-01 -1.0543143486112636e-01 -4.4383723380959784e-02 -9.9357365407427928e-02 -1.1556512166255281e-01 -5.8278636872459613e-02 -1.1815021220933247e-01 1.9456016303021718e-02 -2.7075286169792687e-02 -8.1968346245608142e-02 -7.7153712664820948e-02 -6.3711350367715205e-02 -6.8846082480543636e-02 6.1365314254827025e-02 5.1283045475597179e-02 1.1163198141818148e-01 1.1587012405179475e-01 5.7106560114840797e-02 -6.8694699085905780e-02 -1.0667823990094571e-01 -6.4205691694592254e-02 -2.1372635218145017e-02 -7.1691847269184275e-02 -8.5916868099028237e-02 1.1031073191615430e-01 -1.0217872550968735e-01 8.6889841054244596e-04 1.0275233830988523e-01 -7.1932321399100912e-02 1.6407131759749349e-02 -1.2997056614999832e-02 -6.4406111750215184e-02 3.4911216188779480e-02 -4.8792613161281098e-02 -4.5222671178630436e-02 3.4181061958467138e-02 1.1578916489903734e-01 6.7043038194352686e-02 2.5899902551348125e-03 1.0970012528134540e-01 9.3617062050893318e-02 -8.9519686712296029e-02 -6.7674669125410720e-03 -7.8576268291273538e-02 7.7276013666885732e-02 -1.1064302925399377e-01 9.5009951336978579e-02 -1.0549387428977053e-01 1.2585489824969666e-02 -1.0516237021094685e-01 -8.9849117646984625e-02 -2.2050318601833586e-02 -1.0014637306578887e-01 -4.4189536174444932e-02 -7.8864282157540457e-03 1.1895577714190710e-01 -5.1518719968208476e-02 2.9086966680040172e-02 -6.7585453173904839e-02 1.2041773626522265e-02 1.0214680624451121e-01 2.7471534229205626e-02 -7.9324165357061605e-02 -1.0952365140723921e-01 -6.5173512227818545e-02 4.5314481801482925e-02 4.6610801331828091e-03 6.2698077198393543e-02 -1.1002250974873877e-01 -1.2161191886165944e-01 -3.9842786367328388e-02 -5.2383364276310726e-02 2.2680649024682436e-03 1.2634527540655820e-02 -1.0697071641425916e-01 -7.0444254724013125e-02 1.2212536901052577e-01 7.1079164450929258e-03 7.9322538938422921e-02 -1.2828795126625278e-02 7.0118744299819791e-02 1.7008159782058049e-02 -5.0394551461937158e-02 6.3333069645963289e-02 7.6930057384186262e-02 5.2189248135740246e-02 1.7163404809801455e-02 3.1982113656523425e-02 -6.5429875039300603e-02 -1.2357077486546486e-02 3.1404886175574173e-02 -9.6861782415764916e-02 5.8834046970203335e-02 2.3512851030345280e-02 6.9236205499585684e-03 -3.1589028367957008e-03 -2.7847414896323974e-03 -1.1806657687026580e-01 -1.1926568315782536e-01 -2.2330990004469732e-02 -7.0722915217234478e-02 -5.0900698715464071e-02 9.9275871026794221e-02 1.0626483313561189e-01 -3.2662391331644780e-02 2.0519874483897121e-02 1.1607943523305469e-02 -1.1867501072550775e-01 4.9807351985234130e-02 9.7060748579279460e-02 5.3359175728332681e-02 -6.6087202564789047e-02 -6.7257624240593533e-02 1.0923308239714932e-01 -8.4030867611707610e-02 -5.2299615986987492e-02 9.8661728684716996e-02 -1.1540175509020308e-01 -1.0712274934119323e-02 -1.2368648294883708e-01 2.8128700854906343e-02 7.4823321034652848e-02 -4.5253833253730669e-02 -6.5599936709240636e-02 8.5070984398647909e-02 -1.2478148242259143e-01 7.7982475821852013e-02 -2.2257865825435756e-02 -4.8488394460533608e-02 -8.0038045382550271e-02 6.5810100216339318e-02 1.1704971367247149e-02 -4.8991760266017280e-02 2.1283205599798783e-02 5.5141209687712266e-02 -9.2468866633740029e-02 -1.2179267209843862e-02 -1.7542238512613224e-02 1.2087662847012227e-02 1.0371087415930931e-01 -8.1941406959948976e-02 -1.0789703386474946e-01 -1.6986446624884209e-02 8.7167698045264211e-02 -8.2491305601112022e-02 1.2235156775215998e-01 -2.6822434953028159e-02 1.0190533018574605e-01 -8.3489180119440551e-02 -8.9022012248106727e-02 1.0571412496979073e-01 1.5640347530018962e-02 -8.0484776238052988e-02 -4.8561908135312241e-02 4.4266312197638491e-02 8.4211417846997763e-05 -7.8984994071340117e-02 4.9539599048604811e-02 4.8511525677460393e-02 8.0735392090746261e-02 -3.0577064483213234e-02 3.1168844040193485e-02 9.9933955880534484e-02 -4.9308933797348707e-02 7.9465296677387900e-02 1.1542752585328481e-01 7.0115066229966258e-02 8.5203360169411421e-02 -6.8103792019017558e-05 -6.7882592418640642e-02 5.0093208769513642e-03 4.6183710411898345e-02 -2.0224735672823659e-02 -1.0137306032640027e-01 -8.8960477756130210e-02 -1.8238153048197557e-02 6.4754353347980494e-03 1.1341055881407257e-01 -7.3206906974152428e-02 -5.6923837040864116e-02 -1.6618498462202709e-02 -5.5117025238490859e-02 -1.0383308235417657e-01 4.7337693278929761e-02 6.2698435047299619e-02 -7.2690488689201152e-02 -1.0326056428127607e-01 -1.0209814517695595e-01 6.8178560761627954e-02 9.2641703736133604e-02 -3.5298464637599142e-02 -1.3633497039434148e-02 -2.0851992975140298e-02 5.6205514549531620e-02 4.2975510423823353e-02 -5.7874704293562992e-02 -6.9202040602981657e-02 8.9981632952203253e-02 -4.6100478737130246e-02 2.9330541678014976e-03 7.8925362684941894e-02 4.1892826834135317e-02 -1.1184334869183854e-01 -4.6136987393571097e-03 8.9666453647401542e-02 -1.1129379996181564e-01 -5.0233851334689439e-02 1.4191821118649649e-02 -9.2057779496239056e-02 -1.7553362940172779e-02 3.8663150158714701e-02 1.1536460941366497e-01 1.1389554101156071e-01 8.7758865603855069e-02 -7.9318230008255344e-02 1.1474375614543224e-01 9.9159224669508411e-02 -5.2844084014393909e-02 3.2482356338127523e-02 1.0384479012461907e-01 6.7690108601992885e-02 9.9665042997309605e-02 -1.0697054495409898e-01 -1.1853351076847683e-01 5.9468151263046588e-02 -2.5361103808465874e-02 7.5583007982729558e-02 -3.3749662608394668e-02 8.0439563011365761e-02 4.9914216337131221e-03 -5.4720087867471505e-02 1.1836415811865182e-01 -9.1431355471266088e-02 3.5180173690920385e-02 -2.6883772705919604e-02 7.8698707513506092e-02 6.5929956677787629e-02 3.3422210248717027e-02 1.5898420592884918e-02 -4.3127208215378082e-03 4.6655267607380965e-02 1.2321486035326322e-01 6.9650354601816677e-02 1.6626563471503909e-02 3.4596682514370918e-02 -2.6956912390635399e-02 -6.1057465577247116e-02 1.1207878284648313e-02 6.4260151424616413e-02 8.6756412249610920e-02 -9.9701274550863556e-02 3.8514272810655517e-02 3.7563810303725817e-04 1.2794051814028440e-01 -2.9113752744184752e-02 -9.9600719708400606e-02 -8.1326126828005552e-02 -1.8428756666277357e-02 -1.0197444608705727e-01 -9.1533599929922854e-02 -6.8554420809222569e-02 4.9958957998098866e-02 -6.8864510863032594e-02 9.5687216020231752e-02 6.3352137431108832e-02 -5.2872219038901588e-02 9.2276200424652288e-02 5.2137032393866904e-02 -1.1877043485422699e-01 -9.5453566523083427e-02 6.2314053970206840e-02 4.8789890192655685e-02 1.0194233909528377e-04 -1.0144930290531806e-01 7.0743747124704354e-02 -6.7901283487100797e-02 1.2056915887963846e-02 2.6606830852847287e-02 7.0617386194903389e-02 -6.7848139334534499e-02 6.7118977224011833e-02 6.3558721267197513e-02 1.7866403408151450e-02 -1.1681039645870500e-01 2.7451525337937689e-02 3.8505200663174526e-02 -8.1673146289826221e-02 1.3381846710348866e-02 1.0996489190543031e-01 -3.7228918542948915e-02 -5.1248748648943659e-03 -1.6795228419231690e-02 1.1298169557237889e-01 -1.1399204325343057e-01 4.8203845699694679e-02 1.6549820225528880e-02 -1.1319378497195970e-01 -3.1391555217397515e-03 9.0078453502726065e-03 5.7910499762130314e-02 -6.0152170150333103e-03 2.4212091862035465e-02 2.8505207283515667e-02 4.6386302683397100e-02 6.6087931781569714e-02 -8.4864525669042998e-02 -5.0101937033524356e-02 4.3609561240239597e-02 7.2950579168189533e-02 -5.5105253249602790e-02 7.6412478326294983e-02 -1.2004110462464371e-01 1.0073227298567243e-01 -6.4645955119864235e-02 -1.2355889510558074e-01 -7.5086644300640049e-02 3.6486704444153211e-03 2.2639064327887687e-04 -3.9256457964565471e-02 9.0847328575661655e-03 1.8131981321844782e-02 -4.6405943663321410e-02 7.4815200421728859e-02 3.6388643432044739e-02 1.2404641598776360e-01 4.3118060484943772e-02 3.0577010097948434e-04 1.0599207020978088e-01 -1.0739020338191370e-01 -2.5470592697025361e-02 6.2836401035099507e-02 -1.9186540562216140e-02 -1.0485996355775082e-01 -1.6236053431640932e-02 9.2874844828566713e-02 -2.0566084682766755e-02 6.3432501259369015e-02 8.5279842545401788e-02 -8.2198603203135823e-02 1.0510823234115146e-01 -4.7393392238452368e-02 -2.6354942338163443e-03 -6.4881135281274732e-02 -6.1089828367750398e-02 -1.2536048621168022e-01 -2.5532211679509788e-02 3.2637323203414871e-02 -3.5628486358552577e-02 3.7023400853032420e-02 -2.6712359622375136e-02 6.1582947755324947e-02 -6.6869668076017630e-02 -1.1473730175587916e-01 6.3426598428701783e-02 -4.8030434015258465e-02 4.8977547706662412e-02 