<?xml version="1.0"?>
<MethodSetup Method="MLP::MLP">
  <GeneralInfo>
    <Info name="TMVA Release" value="4.2.1 [262657]"/>
    <Info name="ROOT Release" value="6.08/07 [395271]"/>
    <Info name="Creator" value="wverbeke"/>
    <Info name="Date" value="Thu Nov 23 08:38:05 2017"/>
    <Info name="Host" value="Linux vocms0302.cern.ch 2.6.32-696.1.1.el6.x86_64 #1 SMP Wed Apr 12 08:44:28 CEST 2017 x86_64 x86_64 x86_64 GNU/Linux"/>
    <Info name="Dir" value="/storage_mnt/storage/user/wverbeke/Work/AnalysisCode/ewkino/bdtTraining"/>
    <Info name="Training events" value="260790"/>
    <Info name="TrainingTime" value="2.31898856e+03"/>
    <Info name="AnalysisType" value="Classification"/>
  </GeneralInfo>
  <Options>
    <Option name="NCycles" modified="Yes">600</Option>
    <Option name="HiddenLayers" modified="Yes">N+5</Option>
    <Option name="NeuronType" modified="Yes">tanh</Option>
    <Option name="RandomSeed" modified="No">1</Option>
    <Option name="EstimatorType" modified="No">CE</Option>
    <Option name="NeuronInputType" modified="No">sum</Option>
    <Option name="V" modified="Yes">False</Option>
    <Option name="VerbosityLevel" modified="No">Default</Option>
    <Option name="VarTransform" modified="Yes">N</Option>
    <Option name="H" modified="Yes">True</Option>
    <Option name="CreateMVAPdfs" modified="No">False</Option>
    <Option name="IgnoreNegWeightsInTraining" modified="No">False</Option>
    <Option name="TrainingMethod" modified="No">BP</Option>
    <Option name="LearningRate" modified="No">2.000000e-02</Option>
    <Option name="DecayRate" modified="No">1.000000e-02</Option>
    <Option name="TestRate" modified="Yes">5</Option>
    <Option name="EpochMonitoring" modified="No">False</Option>
    <Option name="Sampling" modified="No">1.000000e+00</Option>
    <Option name="SamplingEpoch" modified="No">1.000000e+00</Option>
    <Option name="SamplingImportance" modified="No">1.000000e+00</Option>
    <Option name="SamplingTraining" modified="No">True</Option>
    <Option name="SamplingTesting" modified="No">False</Option>
    <Option name="ResetStep" modified="No">50</Option>
    <Option name="Tau" modified="No">3.000000e+00</Option>
    <Option name="BPMode" modified="No">sequential</Option>
    <Option name="BatchSize" modified="No">-1</Option>
    <Option name="ConvergenceImprove" modified="No">1.000000e-30</Option>
    <Option name="ConvergenceTests" modified="No">-1</Option>
    <Option name="UseRegulator" modified="Yes">False</Option>
    <Option name="UpdateLimit" modified="No">10000</Option>
    <Option name="CalculateErrors" modified="No">False</Option>
    <Option name="WeightRange" modified="No">1.000000e+00</Option>
  </Options>
  <Variables NVar="15">
    <Variable VarIndex="0" Expression="topMass" Label="topMass" Title="topMass" Unit="" Internal="topMass" Type="F" Min="0.00000000e+00" Max="3.83546826e+03"/>
    <Variable VarIndex="1" Expression="pTForwardJets" Label="pTForwardJets" Title="pTForwardJets" Unit="" Internal="pTForwardJets" Type="F" Min="0.00000000e+00" Max="4.57814819e+02"/>
    <Variable VarIndex="2" Expression="etaMostForward" Label="etaMostForward" Title="etaMostForward" Unit="" Internal="etaMostForward" Type="F" Min="0.00000000e+00" Max="5.08888674e+00"/>
    <Variable VarIndex="3" Expression="pTLeadingJet" Label="pTLeadingJet" Title="pTLeadingJet" Unit="" Internal="pTLeadingJet" Type="F" Min="0.00000000e+00" Max="1.36354138e+03"/>
    <Variable VarIndex="4" Expression="pTLeadingLepton" Label="pTLeadingLepton" Title="pTLeadingLepton" Unit="" Internal="pTLeadingLepton" Type="F" Min="2.50115604e+01" Max="9.37622559e+02"/>
    <Variable VarIndex="5" Expression="mNotSoForwardJets" Label="mNotSoForwardJets" Title="mNotSoForwardJets" Unit="" Internal="mNotSoForwardJets" Type="F" Min="0.00000000e+00" Max="1.19438000e+03"/>
    <Variable VarIndex="6" Expression="missingET" Label="missingET" Title="missingET" Unit="" Internal="missingET" Type="F" Min="9.85783562e-02" Max="9.65719360e+02"/>
    <Variable VarIndex="7" Expression="highestDeepCSV" Label="highestDeepCSV" Title="highestDeepCSV" Unit="" Internal="highestDeepCSV" Type="F" Min="-2.00000000e+00" Max="9.99920547e-01"/>
    <Variable VarIndex="8" Expression="asymmetryWlep" Label="asymmetryWlep" Title="asymmetryWlep" Unit="" Internal="asymmetryWlep" Type="F" Min="-2.49992728e+00" Max="2.49994540e+00"/>
    <Variable VarIndex="9" Expression="etaZ" Label="etaZ" Title="etaZ" Unit="" Internal="etaZ" Type="F" Min="6.57659211e-06" Max="7.80469656e+00"/>
    <Variable VarIndex="10" Expression="m3l" Label="m3l" Title="m3l" Unit="" Internal="m3l" Type="F" Min="8.40027924e+01" Max="2.52709961e+03"/>
    <Variable VarIndex="11" Expression="maxDeltaPhill" Label="maxDeltaPhill" Title="maxDeltaPhill" Unit="" Internal="maxDeltaPhill" Type="F" Min="1.96895599e-02" Max="3.14158773e+00"/>
    <Variable VarIndex="12" Expression="pT3l" Label="pT3l" Title="pT3l" Unit="" Internal="pT3l" Type="F" Min="4.62111421e-02" Max="1.09900415e+03"/>
    <Variable VarIndex="13" Expression="mForwardJetsLeadinBJetW" Label="mForwardJetsLeadinBJetW" Title="mForwardJetsLeadinBJetW" Unit="" Internal="mForwardJetsLeadinBJetW" Type="F" Min="0.00000000e+00" Max="3.37708105e+03"/>
    <Variable VarIndex="14" Expression="ht" Label="ht" Title="ht" Unit="" Internal="ht" Type="F" Min="0.00000000e+00" Max="1.36354138e+03"/>
  </Variables>
  <Spectators NSpec="0"/>
  <Classes NClass="2">
    <Class Name="Signal" Index="0"/>
    <Class Name="Background" Index="1"/>
  </Classes>
  <Transformations NTransformations="1">
    <Transform Name="Normalize">
      <Selection>
        <Input NInputs="15">
          <Input Type="Variable" Label="topMass" Expression="topMass"/>
          <Input Type="Variable" Label="pTForwardJets" Expression="pTForwardJets"/>
          <Input Type="Variable" Label="etaMostForward" Expression="etaMostForward"/>
          <Input Type="Variable" Label="pTLeadingJet" Expression="pTLeadingJet"/>
          <Input Type="Variable" Label="pTLeadingLepton" Expression="pTLeadingLepton"/>
          <Input Type="Variable" Label="mNotSoForwardJets" Expression="mNotSoForwardJets"/>
          <Input Type="Variable" Label="missingET" Expression="missingET"/>
          <Input Type="Variable" Label="highestDeepCSV" Expression="highestDeepCSV"/>
          <Input Type="Variable" Label="asymmetryWlep" Expression="asymmetryWlep"/>
          <Input Type="Variable" Label="etaZ" Expression="etaZ"/>
          <Input Type="Variable" Label="m3l" Expression="m3l"/>
          <Input Type="Variable" Label="maxDeltaPhill" Expression="maxDeltaPhill"/>
          <Input Type="Variable" Label="pT3l" Expression="pT3l"/>
          <Input Type="Variable" Label="mForwardJetsLeadinBJetW" Expression="mForwardJetsLeadinBJetW"/>
          <Input Type="Variable" Label="ht" Expression="ht"/>
        </Input>
        <Output NOutputs="15">
          <Output Type="Variable" Label="topMass" Expression="topMass"/>
          <Output Type="Variable" Label="pTForwardJets" Expression="pTForwardJets"/>
          <Output Type="Variable" Label="etaMostForward" Expression="etaMostForward"/>
          <Output Type="Variable" Label="pTLeadingJet" Expression="pTLeadingJet"/>
          <Output Type="Variable" Label="pTLeadingLepton" Expression="pTLeadingLepton"/>
          <Output Type="Variable" Label="mNotSoForwardJets" Expression="mNotSoForwardJets"/>
          <Output Type="Variable" Label="missingET" Expression="missingET"/>
          <Output Type="Variable" Label="highestDeepCSV" Expression="highestDeepCSV"/>
          <Output Type="Variable" Label="asymmetryWlep" Expression="asymmetryWlep"/>
          <Output Type="Variable" Label="etaZ" Expression="etaZ"/>
          <Output Type="Variable" Label="m3l" Expression="m3l"/>
          <Output Type="Variable" Label="maxDeltaPhill" Expression="maxDeltaPhill"/>
          <Output Type="Variable" Label="pT3l" Expression="pT3l"/>
          <Output Type="Variable" Label="mForwardJetsLeadinBJetW" Expression="mForwardJetsLeadinBJetW"/>
          <Output Type="Variable" Label="ht" Expression="ht"/>
        </Output>
      </Selection>
      <Class ClassIndex="0">
        <Ranges>
          <Range Index="0" Min="0.0000000000000000e+00" Max="2.1743095703125000e+03"/>
          <Range Index="1" Min="0.0000000000000000e+00" Max="4.0161059570312500e+02"/>
          <Range Index="2" Min="0.0000000000000000e+00" Max="5.0833072662353516e+00"/>
          <Range Index="3" Min="0.0000000000000000e+00" Max="7.0800195312500000e+02"/>
          <Range Index="4" Min="2.9021457672119141e+01" Max="6.3412548828125000e+02"/>
          <Range Index="5" Min="0.0000000000000000e+00" Max="8.3273065185546875e+02"/>
          <Range Index="6" Min="2.7018973231315613e-01" Max="6.7196386718750000e+02"/>
          <Range Index="7" Min="-2.0000000000000000e+00" Max="9.9992054700851440e-01"/>
          <Range Index="8" Min="-2.4867861270904541e+00" Max="2.4745452404022217e+00"/>
          <Range Index="9" Min="1.5953136608004570e-04" Max="6.5274877548217773e+00"/>
          <Range Index="10" Min="8.8886512756347656e+01" Max="1.4440379638671875e+03"/>
          <Range Index="11" Min="2.4848520755767822e-01" Max="3.1413049697875977e+00"/>
          <Range Index="12" Min="5.1124435663223267e-01" Max="8.2973687744140625e+02"/>
          <Range Index="13" Min="0.0000000000000000e+00" Max="2.0035152587890625e+03"/>
          <Range Index="14" Min="0.0000000000000000e+00" Max="7.0800195312500000e+02"/>
        </Ranges>
      </Class>
      <Class ClassIndex="1">
        <Ranges>
          <Range Index="0" Min="0.0000000000000000e+00" Max="3.8354682617187500e+03"/>
          <Range Index="1" Min="0.0000000000000000e+00" Max="4.5781481933593750e+02"/>
          <Range Index="2" Min="0.0000000000000000e+00" Max="5.0888867378234863e+00"/>
          <Range Index="3" Min="0.0000000000000000e+00" Max="1.3635413818359375e+03"/>
          <Range Index="4" Min="2.5011560440063477e+01" Max="9.3762255859375000e+02"/>
          <Range Index="5" Min="0.0000000000000000e+00" Max="1.1943800048828125e+03"/>
          <Range Index="6" Min="9.8578356206417084e-02" Max="9.6571936035156250e+02"/>
          <Range Index="7" Min="-2.0000000000000000e+00" Max="9.9882417917251587e-01"/>
          <Range Index="8" Min="-2.4999272823333740e+00" Max="2.4999454021453857e+00"/>
          <Range Index="9" Min="6.5765921135607641e-06" Max="7.8046965599060059e+00"/>
          <Range Index="10" Min="8.4002792358398438e+01" Max="2.5270996093750000e+03"/>
          <Range Index="11" Min="1.9689559936523438e-02" Max="3.1415877342224121e+00"/>
          <Range Index="12" Min="4.6211142092943192e-02" Max="1.0990041503906250e+03"/>
          <Range Index="13" Min="0.0000000000000000e+00" Max="3.3770810546875000e+03"/>
          <Range Index="14" Min="0.0000000000000000e+00" Max="1.3635413818359375e+03"/>
        </Ranges>
      </Class>
      <Class ClassIndex="2">
        <Ranges>
          <Range Index="0" Min="0.0000000000000000e+00" Max="3.8354682617187500e+03"/>
          <Range Index="1" Min="0.0000000000000000e+00" Max="4.5781481933593750e+02"/>
          <Range Index="2" Min="0.0000000000000000e+00" Max="5.0888867378234863e+00"/>
          <Range Index="3" Min="0.0000000000000000e+00" Max="1.3635413818359375e+03"/>
          <Range Index="4" Min="2.5011560440063477e+01" Max="9.3762255859375000e+02"/>
          <Range Index="5" Min="0.0000000000000000e+00" Max="1.1943800048828125e+03"/>
          <Range Index="6" Min="9.8578356206417084e-02" Max="9.6571936035156250e+02"/>
          <Range Index="7" Min="-2.0000000000000000e+00" Max="9.9992054700851440e-01"/>
          <Range Index="8" Min="-2.4999272823333740e+00" Max="2.4999454021453857e+00"/>
          <Range Index="9" Min="6.5765921135607641e-06" Max="7.8046965599060059e+00"/>
          <Range Index="10" Min="8.4002792358398438e+01" Max="2.5270996093750000e+03"/>
          <Range Index="11" Min="1.9689559936523438e-02" Max="3.1415877342224121e+00"/>
          <Range Index="12" Min="4.6211142092943192e-02" Max="1.0990041503906250e+03"/>
          <Range Index="13" Min="0.0000000000000000e+00" Max="3.3770810546875000e+03"/>
          <Range Index="14" Min="0.0000000000000000e+00" Max="1.3635413818359375e+03"/>
        </Ranges>
      </Class>
    </Transform>
  </Transformations>
  <MVAPdfs/>
  <Weights>
    <Layout NLayers="3">
      <Layer Index="0" NNeurons="16">
        <Neuron NSynapses="20">
          -3.7848716735156229e-01 1.9763700610935362e+00 9.0040426264180917e-01 1.4839766382502004e+00 -1.9938798953181056e+00 -1.4724264932048650e+00 -8.0416320552401488e-01 2.0926743422980314e+00 -1.4376666450778210e+00 -1.1606633555309811e+00 -1.6333262178422259e+00 -4.4617928356608094e-01 -1.4645604036805151e+00 -4.7168907394460946e-01 -5.9794465330311342e-01 7.8580195588056934e-01 -4.0761616498152731e-01 1.9757279690822320e+00 1.5483182995645930e-01 1.3700347372651576e+00 
        </Neuron>
        <Neuron NSynapses="20">
          -3.8694879973393587e-01 -7.6417730423306196e-01 7.6841283248479164e-01 -1.3799424897890480e-01 -1.1796758085295580e+00 -2.9339961418954219e-01 1.5203181470701048e+00 -9.3970595093766696e-01 -1.8029327425852120e+00 2.7172570068601490e-03 6.7223057993855329e-01 1.6315534261498472e+00 -4.4777301655837576e-01 -1.1161742797297564e-01 2.6657728088946825e-01 -1.4873769361894087e-01 -1.4413787413647203e+00 1.9622049164983919e+00 -1.2167945228209731e+00 1.1009789211266747e+00 
        </Neuron>
        <Neuron NSynapses="20">
          1.1479678502442847e+00 8.6608784757075397e-01 1.8696121141352875e+00 9.4455434914878500e-01 -7.4488333085891423e-01 -1.6315591095285775e+00 8.1512832485596542e-01 1.8232813648216900e-01 1.0725380992460785e+00 1.7063349586208785e+00 1.5725648820715183e+00 1.4925098821672473e+00 -1.8158418772401006e+00 1.1118597236358589e+00 -1.8563488535957258e+00 -8.1229811060181722e-01 -1.3218681543047095e+00 -1.4583746337790495e+00 1.6448274775915326e+00 6.5733078336752304e-01 
        </Neuron>
        <Neuron NSynapses="20">
          -1.6399542645439082e+00 3.5723970331495841e-01 -3.0368683474494051e-01 4.3127563222977955e-01 1.8357819453550881e+00 -3.4084624506804301e-01 9.2419908524915967e-02 -1.1229482338396728e+00 7.3853987143646671e-01 -9.4697307253465091e-01 -7.3468652320112715e-01 -1.4829441274870157e+00 4.8877767859861271e-01 1.0966397423588441e+00 1.3604874692260465e+00 -2.3568481784442458e-01 -1.9240124142030717e+00 -1.6240334066376581e+00 9.9371323154400604e-01 4.7815008035830175e-01 
        </Neuron>
        <Neuron NSynapses="20">
          1.9192790539550149e+00 6.4568150960180160e-01 1.0031990370548378e+00 -1.0310176786378766e+00 -8.7279189929763290e-01 -2.3130009194387596e-01 1.1193651611694320e+00 -1.0615216340857476e+00 -1.4843441042961818e+00 -1.9123163209103367e+00 -2.1364606570747183e-01 -2.5014480087555813e-01 1.5065228973084153e+00 -1.5581140894945154e+00 -7.9120154190765546e-01 1.7010204466737089e+00 -8.4412936533720861e-01 -1.3279036206706603e+00 -1.5318740404907254e+00 8.8952389146474672e-02 
        </Neuron>
        <Neuron NSynapses="20">
          -1.9631686118935754e+00 -1.6561555306008346e+00 7.2190506304513646e-01 1.4174278728394414e+00 -1.1463418989303156e+00 1.6123952337979441e+00 -9.6163002854921120e-01 -7.7660077202433830e-01 1.0750512659200435e-01 8.8759150157208311e-02 -1.7950599126169138e+00 1.2393963441154379e-01 1.0820433369341047e-01 5.6906866226959818e-01 -1.3686193070420902e+00 1.9537438121611534e+00 3.6364828870500449e-01 -7.3192364306738789e-01 7.3028928837098783e-01 -1.0891460422568344e+00 
        </Neuron>
        <Neuron NSynapses="20">
          -1.6300616284316354e+00 1.1705574948966770e-01 -3.2413808570835823e-01 1.5507226163440770e+00 7.8458702831172511e-01 -1.6289995063148429e-02 -3.7087965308847937e-01 2.5086742727682931e-01 -1.8500487419540244e+00 9.8810550059770941e-01 1.4674973771102526e-01 -1.8677673882082575e+00 3.9399456187017368e-01 -1.4815025917771725e+00 7.6222136149665873e-02 1.2797024243998241e+00 1.7853051592134388e+00 -1.6479257659569531e+00 3.5041135703310677e-01 1.5171025249426535e+00 
        </Neuron>
        <Neuron NSynapses="20">
          1.6351346903022168e+00 1.2585548143914246e-01 -1.4735303769957386e+00 -1.5301667840591759e-01 -1.4459702407586432e+00 1.7378238111621698e+00 1.1506143549927992e+00 -5.0325276117992124e-01 -3.4659853896175846e-01 1.3730893127746807e-01 -1.3339310325604803e+00 4.9919810059527719e-01 1.6112289441440599e+00 -7.0905276788528993e-01 -6.2560899325065245e-01 2.4124511076447996e-01 1.0075557417715613e+00 5.0244105286227714e-01 8.9393146905425547e-01 -1.4981318200868294e+00 
        </Neuron>
        <Neuron NSynapses="20">
          1.4557462036872930e+00 8.0249112057634997e-01 5.1749166551496273e-01 4.9404620383832321e-01 1.0059283658207498e+00 -4.7454509110336579e-01 -6.0808299548676015e-01 8.7815528678992660e-01 -7.7878627530251654e-01 -4.7811661390187987e-01 1.5807430589176863e+00 1.0189434337971612e+00 -4.8591603450066390e-01 1.4201216964157417e+00 1.8557071543242027e+00 -1.8631831436486654e+00 6.5541006319308448e-01 6.1673182327471522e-02 5.0676055536477371e-01 -1.6982072911468831e+00 
        </Neuron>
        <Neuron NSynapses="20">
          -1.5281048598105385e+00 1.1654293518005581e+00 1.7906567225211836e+00 -1.8727339362369049e+00 -1.9402930362860535e-01 -5.4779469689602978e-01 2.6794226403930732e-01 1.6562699653568735e+00 -1.8863293197154982e-01 -6.5474382583768764e-01 -1.0595423688136925e+00 8.7512132873492288e-01 1.3696910898101551e+00 1.2247351969254061e+00 3.2714897814668104e-01 -7.0337140154520106e-01 -1.9848302028291385e+00 1.2292395504035467e+00 3.8016343552411852e-01 -1.3935394370853273e+00 
        </Neuron>
        <Neuron NSynapses="20">
          -7.1237293428082138e-01 3.3708579839240826e-01 1.1048620099494569e-01 -2.1685639758096076e+00 1.5510591064217563e+00 7.8627532726468341e-01 -6.1707784666661003e-01 -9.3508035690731933e-02 1.8386409457738786e+00 7.2876801870310171e-01 4.8494219058423821e-01 -3.0992900956917829e-01 -1.9705359064856451e+00 -7.4012381455028475e-01 1.7667494806921953e+00 1.3888637080136654e+00 7.6986216467188406e-01 3.6553535196747405e-01 1.8897774569940067e+00 -1.7252725243308749e+00 
        </Neuron>
        <Neuron NSynapses="20">
          -1.2907911840110928e+00 -1.0249145391563377e-01 -1.4298478497069442e+00 1.1034849685338943e+00 1.7343830154678350e+00 -1.1545003194939878e+00 8.3384271230414631e-01 -2.0123400846961101e-01 -1.7575241566073663e+00 -8.5030698624942747e-01 1.0153050333778491e+00 1.0948048932601828e-01 9.8372903996010319e-01 -1.2813671064430334e+00 1.6601874961612573e+00 -1.8248718003398940e+00 8.4750621762749978e-01 -4.9422566603623576e-02 -1.4566155175247668e+00 -1.2969072358558820e+00 
        </Neuron>
        <Neuron NSynapses="20">
          -1.9625561454912206e+00 -4.3091587517139929e-01 -1.8800352250733314e+00 -1.8136486142047903e+00 -1.8830721480087826e+00 5.0023776714079017e-02 -1.0426877465668818e+00 -1.5219736730858540e+00 1.4185499764404010e+00 -9.5303397603337570e-01 1.5205030395808269e-01 -1.1397766610194080e+00 5.4066963351589287e-04 1.8405665585444042e+00 1.3861034553198814e+00 -7.8651349463165088e-01 -1.4992106914715730e+00 -8.4586269907100153e-01 -8.9119645608504194e-01 -1.6493618024290282e+00 
        </Neuron>
        <Neuron NSynapses="20">
          2.9015823824918963e-01 2.7664601724435783e-01 1.9005791702349533e+00 -5.7223077863628824e-01 2.5039886639395342e-01 -5.5356717377934250e-01 -1.9320420430155165e+00 1.3406998001465227e+00 1.2496225639134546e+00 -9.8872870605099450e-01 -1.0759670075252619e+00 8.1613161943466872e-01 1.0612706050870733e+00 4.9063781087746322e-01 -4.2161326302484675e-01 -1.7459225462514025e-01 1.4595931090404699e+00 1.2315352858203041e+00 9.7156651899273816e-01 -3.0134230288368591e-01 
        </Neuron>
        <Neuron NSynapses="20">
          1.9161933912949497e-01 -3.0149272583180825e-01 -1.4422964089261381e+00 -8.0772293638616455e-01 -1.7561054029764229e+00 -1.3746438248855999e+00 -1.5548674444174597e+00 1.8356094957696378e+00 -1.8507610804837895e+00 1.5601478450162705e+00 -1.5667725657019234e+00 1.0764091915097118e+00 -1.3543886652705424e+00 4.2869762352793284e-01 8.7394071252691863e-01 -1.7418424554215117e+00 2.4170238243864531e-01 8.5657643966740915e-01 -1.9566400900765577e+00 -1.4988914016236876e+00 
        </Neuron>
        <Neuron NSynapses="20">
          -1.6902615459881674e+00 -8.2781192475586640e-01 1.8647489804818635e+00 -3.0659091687209167e-01 2.6410737719101562e-01 -8.6325381794577583e-01 -1.1331598450351772e+00 -1.7320518534166964e+00 -1.1668006267377071e+00 -1.1063534635122276e+00 9.8498337406943892e-01 -1.1880560448376494e+00 -1.0216796426953643e+00 1.6095882585969377e+00 2.7820691789044100e-01 -6.4412205717904758e-01 1.8733764624838880e+00 -2.0189185373947311e+00 1.4741730092867189e+00 9.7676743787104769e-01 
        </Neuron>
      </Layer>
      <Layer Index="1" NNeurons="21">
        <Neuron NSynapses="1">
          -1.1760787168383700e+00 
        </Neuron>
        <Neuron NSynapses="1">
          -6.5187683965909526e-01 
        </Neuron>
        <Neuron NSynapses="1">
          4.6109455505962726e-01 
        </Neuron>
        <Neuron NSynapses="1">
          -7.7117363319579479e-01 
        </Neuron>
        <Neuron NSynapses="1">
          3.4884261513969428e-01 
        </Neuron>
        <Neuron NSynapses="1">
          1.2382375706282696e+00 
        </Neuron>
        <Neuron NSynapses="1">
          1.1327041403609910e+00 
        </Neuron>
        <Neuron NSynapses="1">
          1.6057301330496612e+00 
        </Neuron>
        <Neuron NSynapses="1">
          -1.4287769905957233e+00 
        </Neuron>
        <Neuron NSynapses="1">
          1.2248802720764045e+00 
        </Neuron>
        <Neuron NSynapses="1">
          -2.0784802011256902e+00 
        </Neuron>
        <Neuron NSynapses="1">
          7.0378238984821928e-01 
        </Neuron>
        <Neuron NSynapses="1">
          -1.8249796716803348e+00 
        </Neuron>
        <Neuron NSynapses="1">
          -1.1013570318385448e+00 
        </Neuron>
        <Neuron NSynapses="1">
          -3.4142071537338947e-01 
        </Neuron>
        <Neuron NSynapses="1">
          1.3220246801862918e+00 
        </Neuron>
        <Neuron NSynapses="1">
          3.0886116908203914e-01 
        </Neuron>
        <Neuron NSynapses="1">
          5.0566005822509130e-01 
        </Neuron>
        <Neuron NSynapses="1">
          5.0510655416812456e-01 
        </Neuron>
        <Neuron NSynapses="1">
          -4.9851070526590185e-02 
        </Neuron>
        <Neuron NSynapses="1">
          -8.8928325321243651e-01 
        </Neuron>
      </Layer>
      <Layer Index="2" NNeurons="1">
        <Neuron NSynapses="0"/>
      </Layer>
    </Layout>
  </Weights>
</MethodSetup>
