<?xml version="1.0"?>
<MethodSetup Method="MLP::MLP">
  <GeneralInfo>
    <Info name="TMVA Release" value="4.2.1 [262657]"/>
    <Info name="ROOT Release" value="6.08/07 [395271]"/>
    <Info name="Creator" value="wverbeke"/>
    <Info name="Date" value="Wed Nov 22 15:03:30 2017"/>
    <Info name="Host" value="Linux vocms0302.cern.ch 2.6.32-696.1.1.el6.x86_64 #1 SMP Wed Apr 12 08:44:28 CEST 2017 x86_64 x86_64 x86_64 GNU/Linux"/>
    <Info name="Dir" value="/storage_mnt/storage/user/wverbeke/Work/AnalysisCode/ewkino/bdtTraining"/>
    <Info name="Training events" value="41585"/>
    <Info name="TrainingTime" value="8.27771943e+02"/>
    <Info name="AnalysisType" value="Classification"/>
  </GeneralInfo>
  <Options>
    <Option name="NCycles" modified="Yes">600</Option>
    <Option name="HiddenLayers" modified="Yes">N+5</Option>
    <Option name="NeuronType" modified="Yes">tanh</Option>
    <Option name="RandomSeed" modified="No">1</Option>
    <Option name="EstimatorType" modified="No">CE</Option>
    <Option name="NeuronInputType" modified="No">sum</Option>
    <Option name="V" modified="Yes">False</Option>
    <Option name="VerbosityLevel" modified="No">Default</Option>
    <Option name="VarTransform" modified="Yes">N</Option>
    <Option name="H" modified="Yes">True</Option>
    <Option name="CreateMVAPdfs" modified="No">False</Option>
    <Option name="IgnoreNegWeightsInTraining" modified="No">False</Option>
    <Option name="TrainingMethod" modified="No">BP</Option>
    <Option name="LearningRate" modified="No">2.000000e-02</Option>
    <Option name="DecayRate" modified="No">1.000000e-02</Option>
    <Option name="TestRate" modified="Yes">5</Option>
    <Option name="EpochMonitoring" modified="No">False</Option>
    <Option name="Sampling" modified="No">1.000000e+00</Option>
    <Option name="SamplingEpoch" modified="No">1.000000e+00</Option>
    <Option name="SamplingImportance" modified="No">1.000000e+00</Option>
    <Option name="SamplingTraining" modified="No">True</Option>
    <Option name="SamplingTesting" modified="No">False</Option>
    <Option name="ResetStep" modified="No">50</Option>
    <Option name="Tau" modified="No">3.000000e+00</Option>
    <Option name="BPMode" modified="No">sequential</Option>
    <Option name="BatchSize" modified="No">-1</Option>
    <Option name="ConvergenceImprove" modified="No">1.000000e-30</Option>
    <Option name="ConvergenceTests" modified="No">-1</Option>
    <Option name="UseRegulator" modified="Yes">False</Option>
    <Option name="UpdateLimit" modified="No">10000</Option>
    <Option name="CalculateErrors" modified="No">False</Option>
    <Option name="WeightRange" modified="No">1.000000e+00</Option>
  </Options>
  <Variables NVar="19">
    <Variable VarIndex="0" Expression="topMass" Label="topMass" Title="topMass" Unit="" Internal="topMass" Type="F" Min="0.00000000e+00" Max="2.57172974e+03"/>
    <Variable VarIndex="1" Expression="pTForwardJets" Label="pTForwardJets" Title="pTForwardJets" Unit="" Internal="pTForwardJets" Type="F" Min="0.00000000e+00" Max="5.57763855e+02"/>
    <Variable VarIndex="2" Expression="etaMostForward" Label="etaMostForward" Title="etaMostForward" Unit="" Internal="etaMostForward" Type="F" Min="2.98196897e-02" Max="5.09238243e+00"/>
    <Variable VarIndex="3" Expression="numberOfJets" Label="numberOfJets" Title="numberOfJets" Unit="" Internal="numberOfJets" Type="F" Min="2.00000000e+00" Max="1.40000000e+01"/>
    <Variable VarIndex="4" Expression="pTLeadingLepton" Label="pTLeadingLepton" Title="pTLeadingLepton" Unit="" Internal="pTLeadingLepton" Type="F" Min="2.51133461e+01" Max="9.52867065e+02"/>
    <Variable VarIndex="5" Expression="mNotSoForwardJets" Label="mNotSoForwardJets" Title="mNotSoForwardJets" Unit="" Internal="mNotSoForwardJets" Type="F" Min="0.00000000e+00" Max="6.78851611e+03"/>
    <Variable VarIndex="6" Expression="missingET" Label="missingET" Title="missingET" Unit="" Internal="missingET" Type="F" Min="3.96049082e-01" Max="8.07633972e+02"/>
    <Variable VarIndex="7" Expression="highestDeepCSV" Label="highestDeepCSV" Title="highestDeepCSV" Unit="" Internal="highestDeepCSV" Type="F" Min="6.37540460e-01" Max="9.99999881e-01"/>
    <Variable VarIndex="8" Expression="maxMjj" Label="maxMjj" Title="maxMjj" Unit="" Internal="maxMjj" Type="F" Min="0.00000000e+00" Max="5.61438037e+03"/>
    <Variable VarIndex="9" Expression="minMlb" Label="minMlb" Title="minMlb" Unit="" Internal="minMlb" Type="F" Min="-4.33825165e+02" Max="4.88517944e+02"/>
    <Variable VarIndex="10" Expression="asymmetryWlep" Label="asymmetryWlep" Title="asymmetryWlep" Unit="" Internal="asymmetryWlep" Type="F" Min="-2.49775434e+00" Max="2.48997927e+00"/>
    <Variable VarIndex="11" Expression="etaZ" Label="etaZ" Title="etaZ" Unit="" Internal="etaZ" Type="F" Min="4.95472596e-05" Max="6.68996859e+00"/>
    <Variable VarIndex="12" Expression="m3l" Label="m3l" Title="m3l" Unit="" Internal="m3l" Type="F" Min="1.89289074e+01" Max="1.88618079e+03"/>
    <Variable VarIndex="13" Expression="maxDeltaRjj" Label="maxDeltaRjj" Title="maxDeltaRjj" Unit="" Internal="maxDeltaRjj" Type="F" Min="4.19424951e-01" Max="9.95507908e+00"/>
    <Variable VarIndex="14" Expression="maxDeltaPhill" Label="maxDeltaPhill" Title="maxDeltaPhill" Unit="" Internal="maxDeltaPhill" Type="F" Min="1.33972168e-02" Max="3.14159036e+00"/>
    <Variable VarIndex="15" Expression="pTMaxlb" Label="pTMaxlb" Title="pTMaxlb" Unit="" Internal="pTMaxlb" Type="F" Min="2.62868843e+01" Max="1.30785474e+03"/>
    <Variable VarIndex="16" Expression="pT3l" Label="pT3l" Title="pT3l" Unit="" Internal="pT3l" Type="F" Min="6.44394338e-01" Max="1.33422107e+03"/>
    <Variable VarIndex="17" Expression="mForwardJetsLeadinBJetW" Label="mForwardJetsLeadinBJetW" Title="mForwardJetsLeadinBJetW" Unit="" Internal="mForwardJetsLeadinBJetW" Type="F" Min="0.00000000e+00" Max="7.06368359e+03"/>
    <Variable VarIndex="18" Expression="ht" Label="ht" Title="ht" Unit="" Internal="ht" Type="F" Min="5.13513870e+01" Max="2.87697998e+03"/>
  </Variables>
  <Spectators NSpec="0"/>
  <Classes NClass="2">
    <Class Name="Signal" Index="0"/>
    <Class Name="Background" Index="1"/>
  </Classes>
  <Transformations NTransformations="1">
    <Transform Name="Normalize">
      <Selection>
        <Input NInputs="19">
          <Input Type="Variable" Label="topMass" Expression="topMass"/>
          <Input Type="Variable" Label="pTForwardJets" Expression="pTForwardJets"/>
          <Input Type="Variable" Label="etaMostForward" Expression="etaMostForward"/>
          <Input Type="Variable" Label="numberOfJets" Expression="numberOfJets"/>
          <Input Type="Variable" Label="pTLeadingLepton" Expression="pTLeadingLepton"/>
          <Input Type="Variable" Label="mNotSoForwardJets" Expression="mNotSoForwardJets"/>
          <Input Type="Variable" Label="missingET" Expression="missingET"/>
          <Input Type="Variable" Label="highestDeepCSV" Expression="highestDeepCSV"/>
          <Input Type="Variable" Label="maxMjj" Expression="maxMjj"/>
          <Input Type="Variable" Label="minMlb" Expression="minMlb"/>
          <Input Type="Variable" Label="asymmetryWlep" Expression="asymmetryWlep"/>
          <Input Type="Variable" Label="etaZ" Expression="etaZ"/>
          <Input Type="Variable" Label="m3l" Expression="m3l"/>
          <Input Type="Variable" Label="maxDeltaRjj" Expression="maxDeltaRjj"/>
          <Input Type="Variable" Label="maxDeltaPhill" Expression="maxDeltaPhill"/>
          <Input Type="Variable" Label="pTMaxlb" Expression="pTMaxlb"/>
          <Input Type="Variable" Label="pT3l" Expression="pT3l"/>
          <Input Type="Variable" Label="mForwardJetsLeadinBJetW" Expression="mForwardJetsLeadinBJetW"/>
          <Input Type="Variable" Label="ht" Expression="ht"/>
        </Input>
        <Output NOutputs="19">
          <Output Type="Variable" Label="topMass" Expression="topMass"/>
          <Output Type="Variable" Label="pTForwardJets" Expression="pTForwardJets"/>
          <Output Type="Variable" Label="etaMostForward" Expression="etaMostForward"/>
          <Output Type="Variable" Label="numberOfJets" Expression="numberOfJets"/>
          <Output Type="Variable" Label="pTLeadingLepton" Expression="pTLeadingLepton"/>
          <Output Type="Variable" Label="mNotSoForwardJets" Expression="mNotSoForwardJets"/>
          <Output Type="Variable" Label="missingET" Expression="missingET"/>
          <Output Type="Variable" Label="highestDeepCSV" Expression="highestDeepCSV"/>
          <Output Type="Variable" Label="maxMjj" Expression="maxMjj"/>
          <Output Type="Variable" Label="minMlb" Expression="minMlb"/>
          <Output Type="Variable" Label="asymmetryWlep" Expression="asymmetryWlep"/>
          <Output Type="Variable" Label="etaZ" Expression="etaZ"/>
          <Output Type="Variable" Label="m3l" Expression="m3l"/>
          <Output Type="Variable" Label="maxDeltaRjj" Expression="maxDeltaRjj"/>
          <Output Type="Variable" Label="maxDeltaPhill" Expression="maxDeltaPhill"/>
          <Output Type="Variable" Label="pTMaxlb" Expression="pTMaxlb"/>
          <Output Type="Variable" Label="pT3l" Expression="pT3l"/>
          <Output Type="Variable" Label="mForwardJetsLeadinBJetW" Expression="mForwardJetsLeadinBJetW"/>
          <Output Type="Variable" Label="ht" Expression="ht"/>
        </Output>
      </Selection>
      <Class ClassIndex="0">
        <Ranges>
          <Range Index="0" Min="0.0000000000000000e+00" Max="2.1893728027343750e+03"/>
          <Range Index="1" Min="0.0000000000000000e+00" Max="5.5776385498046875e+02"/>
          <Range Index="2" Min="2.9819689691066742e-02" Max="5.0887470245361328e+00"/>
          <Range Index="3" Min="2.0000000000000000e+00" Max="1.2000000000000000e+01"/>
          <Range Index="4" Min="2.6607089996337891e+01" Max="9.0035656738281250e+02"/>
          <Range Index="5" Min="0.0000000000000000e+00" Max="6.7885161132812500e+03"/>
          <Range Index="6" Min="5.7174742221832275e-01" Max="7.8405853271484375e+02"/>
          <Range Index="7" Min="6.5059375762939453e-01" Max="9.9999970197677612e-01"/>
          <Range Index="8" Min="0.0000000000000000e+00" Max="5.6143803710937500e+03"/>
          <Range Index="9" Min="-3.8980252075195312e+02" Max="3.2955810546875000e+02"/>
          <Range Index="10" Min="-2.4732096195220947e+00" Max="2.4899792671203613e+00"/>
          <Range Index="11" Min="1.0208741878159344e-04" Max="6.6899685859680176e+00"/>
          <Range Index="12" Min="2.9798519134521484e+01" Max="1.8509733886718750e+03"/>
          <Range Index="13" Min="4.2181497812271118e-01" Max="9.9550790786743164e+00"/>
          <Range Index="14" Min="2.8601169586181641e-02" Max="3.1415848731994629e+00"/>
          <Range Index="15" Min="2.6286884307861328e+01" Max="1.1286495361328125e+03"/>
          <Range Index="16" Min="6.4439433813095093e-01" Max="1.3342210693359375e+03"/>
          <Range Index="17" Min="0.0000000000000000e+00" Max="7.0636835937500000e+03"/>
          <Range Index="18" Min="5.4258029937744141e+01" Max="2.0153314208984375e+03"/>
        </Ranges>
      </Class>
      <Class ClassIndex="1">
        <Ranges>
          <Range Index="0" Min="0.0000000000000000e+00" Max="2.5717297363281250e+03"/>
          <Range Index="1" Min="0.0000000000000000e+00" Max="5.0631842041015625e+02"/>
          <Range Index="2" Min="4.1423834860324860e-02" Max="5.0923824310302734e+00"/>
          <Range Index="3" Min="2.0000000000000000e+00" Max="1.4000000000000000e+01"/>
          <Range Index="4" Min="2.5113346099853516e+01" Max="9.5286706542968750e+02"/>
          <Range Index="5" Min="0.0000000000000000e+00" Max="6.2244096679687500e+03"/>
          <Range Index="6" Min="3.9604908227920532e-01" Max="8.0763397216796875e+02"/>
          <Range Index="7" Min="6.3754045963287354e-01" Max="9.9999988079071045e-01"/>
          <Range Index="8" Min="0.0000000000000000e+00" Max="5.5571679687500000e+03"/>
          <Range Index="9" Min="-4.3382516479492188e+02" Max="4.8851794433593750e+02"/>
          <Range Index="10" Min="-2.4977543354034424e+00" Max="2.4780998229980469e+00"/>
          <Range Index="11" Min="4.9547259550308809e-05" Max="6.1759700775146484e+00"/>
          <Range Index="12" Min="1.8928907394409180e+01" Max="1.8861807861328125e+03"/>
          <Range Index="13" Min="4.1942495107650757e-01" Max="9.7427072525024414e+00"/>
          <Range Index="14" Min="1.3397216796875000e-02" Max="3.1415903568267822e+00"/>
          <Range Index="15" Min="3.2265296936035156e+01" Max="1.3078547363281250e+03"/>
          <Range Index="16" Min="1.0420196056365967e+00" Max="1.0353421630859375e+03"/>
          <Range Index="17" Min="0.0000000000000000e+00" Max="6.0845463867187500e+03"/>
          <Range Index="18" Min="5.1351387023925781e+01" Max="2.8769799804687500e+03"/>
        </Ranges>
      </Class>
      <Class ClassIndex="2">
        <Ranges>
          <Range Index="0" Min="0.0000000000000000e+00" Max="2.5717297363281250e+03"/>
          <Range Index="1" Min="0.0000000000000000e+00" Max="5.5776385498046875e+02"/>
          <Range Index="2" Min="2.9819689691066742e-02" Max="5.0923824310302734e+00"/>
          <Range Index="3" Min="2.0000000000000000e+00" Max="1.4000000000000000e+01"/>
          <Range Index="4" Min="2.5113346099853516e+01" Max="9.5286706542968750e+02"/>
          <Range Index="5" Min="0.0000000000000000e+00" Max="6.7885161132812500e+03"/>
          <Range Index="6" Min="3.9604908227920532e-01" Max="8.0763397216796875e+02"/>
          <Range Index="7" Min="6.3754045963287354e-01" Max="9.9999988079071045e-01"/>
          <Range Index="8" Min="0.0000000000000000e+00" Max="5.6143803710937500e+03"/>
          <Range Index="9" Min="-4.3382516479492188e+02" Max="4.8851794433593750e+02"/>
          <Range Index="10" Min="-2.4977543354034424e+00" Max="2.4899792671203613e+00"/>
          <Range Index="11" Min="4.9547259550308809e-05" Max="6.6899685859680176e+00"/>
          <Range Index="12" Min="1.8928907394409180e+01" Max="1.8861807861328125e+03"/>
          <Range Index="13" Min="4.1942495107650757e-01" Max="9.9550790786743164e+00"/>
          <Range Index="14" Min="1.3397216796875000e-02" Max="3.1415903568267822e+00"/>
          <Range Index="15" Min="2.6286884307861328e+01" Max="1.3078547363281250e+03"/>
          <Range Index="16" Min="6.4439433813095093e-01" Max="1.3342210693359375e+03"/>
          <Range Index="17" Min="0.0000000000000000e+00" Max="7.0636835937500000e+03"/>
          <Range Index="18" Min="5.1351387023925781e+01" Max="2.8769799804687500e+03"/>
        </Ranges>
      </Class>
    </Transform>
  </Transformations>
  <MVAPdfs/>
  <Weights>
    <Layout NLayers="3">
      <Layer Index="0" NNeurons="20">
        <Neuron NSynapses="24">
          -3.3605996282867301e-01 1.9250628188355099e+00 8.6265902608062783e-01 1.6860710578026372e+00 -1.9848193283798841e+00 -1.4875282431528838e+00 -9.0112097495597043e-01 1.9937409030812292e+00 -1.4267361208103451e+00 -1.0110792499512409e+00 -1.5946696862515339e+00 -5.8756413855953527e-01 -1.4832848969577008e+00 -4.4067420387690931e-01 -6.6519639674811026e-01 5.9786717689985636e-01 -4.1061876706500883e-01 1.7825938124895473e+00 4.2223785928239815e-01 1.4071713085787638e+00 -1.6915770870586547e-01 -7.4313863339050212e-01 6.0251234579414581e-01 3.4691175662424423e-01 
        </Neuron>
        <Neuron NSynapses="24">
          -1.1852670444807274e+00 -3.2608425560107135e-01 1.6066983809869047e+00 -9.5233883334863834e-01 -1.8404840978291972e+00 1.3774427549893367e-01 5.3267277114705947e-01 1.6371233697318088e+00 -3.4319270287759152e-01 -1.1664960074987453e-01 3.2383099979739804e-01 -4.4149415902885203e-01 -1.7046611830959228e+00 1.6347089495464173e+00 -1.3214224485775194e+00 9.3957014558724217e-01 1.2043625662898247e+00 8.7461368762415592e-01 2.1869751402429567e+00 1.2401721089035427e+00 -8.6537329378524552e-01 -1.6159515227120678e+00 8.4463158845311415e-01 3.9414625187272290e-01 
        </Neuron>
        <Neuron NSynapses="24">
          1.5058764055171945e+00 1.5253248716820311e+00 1.7172977489403305e+00 1.3707429981209529e+00 -1.6983856420354555e+00 1.3183745704322192e+00 -1.8332857102066900e+00 -9.0880534015134062e-01 -1.3137542382184244e+00 -1.7456077800226821e+00 1.5903805685977275e+00 7.3209601796437040e-01 -1.5413253593531928e+00 3.7222476325828274e-01 -2.9893386575475184e-01 5.7685608754314188e-01 1.8306019410883054e+00 -4.0831599446965522e-01 2.0845593105025906e-01 -1.1786791076194214e+00 6.0013892797809310e-01 -8.4513044354288391e-01 -6.8807776304872315e-01 -1.3432365750263531e+00 
        </Neuron>
        <Neuron NSynapses="24">
          7.4113110931321047e-01 1.1109895335483966e+00 1.2474379077754914e+00 -6.2007037377363539e-01 -1.9169492198838118e+00 -1.8633070607877102e+00 9.2631579347031545e-01 4.9026299083714314e-01 1.9445832220072077e+00 6.4010400804909073e-01 9.3126183507963711e-01 -8.3418358268763038e-01 -9.6849954226024859e-01 -1.1162161158478875e-01 1.1534261387545912e+00 -1.0399346468405353e+00 -1.5856886738124878e+00 -1.6256567363588292e+00 -9.3662628598047387e-02 -1.2506677573455430e-01 1.9266711081539680e+00 -1.6121963389028264e+00 -1.2542082299019668e+00 1.7146852440377127e+00 
        </Neuron>
        <Neuron NSynapses="24">
          -8.5203249733038733e-01 -1.5752671767768915e+00 -1.4127938891722718e+00 8.3069800632143156e-02 -1.9152519130190540e+00 -1.6655685161254581e+00 5.8164511155071330e-01 1.6560524387412263e+00 -1.1678198383807659e+00 1.6874739741161371e+00 -8.6361106792564235e-01 -9.4346351044805965e-01 -2.6410325934496381e-01 3.5026844379908217e-01 -1.8343779808996572e+00 1.0489749204851152e-01 2.9685287738794247e-01 4.8611334911702259e-01 -1.1147111427209013e+00 1.8543442412103981e+00 4.1979944502682498e-01 -9.6268045468332397e-01 7.1868492968241793e-01 -8.1722414110880293e-01 
        </Neuron>
        <Neuron NSynapses="24">
          -1.6010300965484805e+00 8.4162072338680713e-02 -2.0094844266398060e-01 1.9811339272000617e+00 7.9708337353170367e-01 -2.7694434671482498e-02 -4.7018533882762492e-01 1.5012223810079897e-01 -1.8016409390018175e+00 1.1095862925788913e+00 2.7551646160622412e-01 -1.8697395043654543e+00 3.9400939910701654e-01 -1.4011697028468508e+00 -6.2936852126347226e-02 9.5224148687444965e-01 1.7781211537838957e+00 -1.8851249133648469e+00 6.3640600563514571e-01 1.5718063975436649e+00 1.3094732729331187e+00 1.7301646679767971e-01 -1.2248119290989654e+00 8.5228514817441023e-02 
        </Neuron>
        <Neuron NSynapses="24">
          -1.4457424070829645e+00 1.5048257904958302e+00 1.1904760503775647e+00 -5.8546374374874743e-01 -3.8798583158741873e-01 1.5372138865793927e-01 -1.4360964658337778e+00 6.0966859809965812e-01 1.6976207496403692e+00 -5.1851408948971800e-01 -5.8101501824695190e-01 1.3013708606283630e-01 7.4906677760343077e-01 5.7105623598472199e-01 8.5419687076348716e-01 -1.5658325283295549e+00 1.5333926344793443e+00 8.1616126273613765e-01 7.3272421770040885e-01 6.0720972140727825e-01 1.2272441048183642e+00 -5.7418839613791361e-01 -8.5470966158157657e-01 1.2670124892846546e+00 
        </Neuron>
        <Neuron NSynapses="24">
          -9.0817970314007501e-01 -5.1049377160880105e-01 1.4769610839912068e+00 9.6161360875446544e-01 -2.9500925179085236e-01 1.5252709855354729e+00 1.9685463309486100e+00 -1.9576226569146769e+00 6.6403450316853230e-01 -7.4402490395103799e-02 3.3740588743034738e-01 -1.4634214902587337e+00 -1.1814513406591984e+00 1.1516606871418336e+00 1.8658760331681978e+00 -1.5821733274373206e+00 -1.9967997014156311e-01 -5.6852319308014165e-01 -2.3590872662177787e-02 1.7357621562793297e+00 -1.9899378605422113e-01 -4.9610601479921934e-01 -1.1397925934818582e+00 7.3649584099019871e-01 
        </Neuron>
        <Neuron NSynapses="24">
          1.6044077850338561e+00 1.0402842659896847e+00 4.0366521769376634e-01 -7.3038233153495713e-01 -1.9844495532436770e+00 1.0910243008485256e+00 3.6491349117319266e-01 -1.3986232802232250e+00 -6.9718650486330169e-01 3.5971391685475812e-01 2.1629627116863939e-01 -2.0067960759070687e+00 1.2960018207882247e+00 8.9051073829074756e-01 -6.6179384397197805e-01 -2.7688141838457508e-01 1.6338239025833481e+00 1.0631613139729357e+00 7.6365112564352389e-01 -9.7504653027508950e-02 -2.0746753833532994e+00 -9.1504055182925736e-01 1.7363853587380840e+00 1.5884256064299613e+00 
        </Neuron>
        <Neuron NSynapses="24">
          7.6582386453167017e-01 2.2058574072606993e-01 2.0282966887321674e+00 -1.7005244558389510e+00 -1.3177586164096631e+00 -1.1010322099230548e-01 -1.4422980666628096e+00 9.6934530813884323e-01 1.7348571612607180e+00 -1.2356893699114109e+00 8.0104124232677387e-01 -1.0546007496452507e-01 -1.6839825571659948e+00 -1.0544298978064588e+00 1.0203605893796932e+00 1.8784201819783585e-02 1.0147020381011642e+00 -1.1754503109223033e+00 1.6605514641375525e+00 -1.8002942596718918e+00 7.1119676465872861e-01 6.8912184591980827e-02 -1.4431325678286782e+00 -1.3314439026106406e+00 
        </Neuron>
        <Neuron NSynapses="24">
          -1.9125635884446703e+00 -3.8520591853003966e-01 -1.7707254553630198e+00 -1.5232904254885817e+00 -1.8765142617563371e+00 3.9177787168092976e-02 -9.7633067687752506e-01 -1.5990997225070560e+00 1.4289290224537408e+00 -8.2962513467182586e-01 2.1564204010924573e-01 -1.0322617827406151e+00 2.0832068235673357e-01 1.7718222991891630e+00 1.3001805722771438e+00 -1.0922973287688620e+00 -1.5036732415343450e+00 -1.0631629741114375e+00 -8.0896031542585223e-01 -1.6264954414640000e+00 2.4137411920761473e-01 2.6749215061878279e-01 1.7675622179719246e+00 -2.5141743545010403e-01 
        </Neuron>
        <Neuron NSynapses="24">
          2.3265132733958710e-01 -6.0884745919683003e-01 -1.8567892425971710e+00 1.3033159247594364e+00 1.2458152361957706e+00 -8.4088404634382730e-01 -1.2002451292731844e+00 8.5439526573040236e-01 1.2215899765678966e+00 4.8984407929541990e-01 -4.1463573103975937e-01 -4.6749740472726681e-01 1.1995945302961355e+00 8.7449161960790012e-01 9.1876884255473679e-01 -3.6462463405699613e-01 2.2813052530925015e-01 -2.6503780719972581e-01 -1.1678088261336850e+00 -5.3420607228161821e-01 -1.5431740307508930e+00 -1.3738712596020390e+00 -1.3680897470660454e+00 1.9512624631000930e+00 
        </Neuron>
        <Neuron NSynapses="24">
          -1.8276058218917557e+00 1.6342699015110360e+00 -1.5585405438732678e+00 1.0259544311696598e+00 -1.1061829912725718e+00 4.6532059281303262e-01 7.0454677893766027e-01 -1.8705859518875907e+00 2.3291508494973828e-01 6.5771864823110859e-01 -1.9180083039888760e+00 -1.5770080189423796e+00 -1.8691300266839743e+00 -7.9725089253720072e-01 1.8664939070813731e+00 -5.9414560565358965e-01 2.7335220353654693e-01 -8.6231406955310075e-01 -8.9248393153883010e-01 -1.6794360751893223e+00 -6.7405157708225938e-01 -1.3891575962639411e+00 7.4591572156695374e-01 -1.1012107205757911e+00 
        </Neuron>
        <Neuron NSynapses="24">
          -1.2194975609928218e+00 1.7875798570950907e+00 4.5247283743167882e-01 -3.5526457337889483e-01 1.8767266844812591e+00 -1.7999608086544276e+00 1.3247558200579279e+00 9.6164648540913977e-01 -1.0372259601296918e+00 -7.8638896037852812e-01 3.5510668534904637e-02 -1.1380254524365947e+00 4.2915151016479092e-01 1.8837822203644261e+00 1.2723843116120581e+00 1.4476652477791421e+00 -1.3726777888553239e+00 9.9908544873755234e-01 -1.7923523867127693e+00 6.3481315431026564e-01 -1.9802126913622378e+00 -1.8447196106394745e+00 1.4637858607873658e-01 1.3725161570394935e+00 
        </Neuron>
        <Neuron NSynapses="24">
          4.2859034119173739e-01 1.1191906197431911e+00 2.2321930365891321e-01 5.3286744065521224e-02 -7.3770762536579926e-01 1.2721634307638233e-01 1.8636242940042249e+00 -1.5748404189986582e+00 3.2175499869872576e-01 -1.4145533877399383e+00 -5.2559023327615084e-01 1.6536454941967590e-01 2.2359819935295983e-01 -1.4024167776744580e+00 1.0184063359985038e+00 1.8031178317920529e+00 6.7427617813558971e-01 -2.1326315245813390e-01 -7.9958116732988904e-01 -1.4491735986308971e+00 -1.1271010250655309e+00 1.0441704541715497e+00 -2.0167261498628186e-01 -1.1230724935237510e+00 
        </Neuron>
        <Neuron NSynapses="24">
          5.1421980562558267e-01 -1.7571227845041661e+00 -1.1646226741689141e+00 -1.6707178124038795e+00 1.0250879290796147e+00 -1.3511886485420543e+00 -1.8193835913465444e+00 -5.8474637991076828e-01 -9.5764398574698795e-01 -1.5788101700655937e+00 1.2487478187108745e+00 -1.5388671753552963e+00 -1.4518955950325421e+00 1.6955918144898674e+00 5.0532481768511928e-01 2.1663269278222338e-01 1.0006529054132883e-01 1.4008470063149738e+00 1.9645437714613079e+00 5.1622156869176916e-01 -7.8323587812068507e-01 -6.9963605533366646e-01 -1.8648327003066476e+00 1.1306413943354634e+00 
        </Neuron>
        <Neuron NSynapses="24">
          9.3457579609442898e-01 1.8671528469475753e-02 1.1551584850465009e+00 9.1410601607916675e-01 1.6428123378298813e+00 -1.3383727517167625e+00 1.6178378944934906e+00 7.3891824258041860e-01 -1.9532320033865018e+00 -2.4976537622447226e-01 -9.8267678375698442e-01 7.4902461728870173e-01 2.3427291676997627e-01 1.0887473679203359e+00 1.7365257869049817e+00 -5.8816015162793078e-01 1.8022004867188341e+00 1.7340039812708872e+00 4.8017561929674579e-01 -1.1612702026067985e+00 1.5614362851074235e+00 -1.9657724500378657e+00 4.7796228628556175e-01 1.9418539813880822e+00 
        </Neuron>
        <Neuron NSynapses="24">
          -4.4279145947667231e-01 -8.6059716009769727e-01 -3.9101528454392520e-02 -1.3560311527493771e+00 4.2268878041594143e-01 -1.9036034891947078e+00 6.9397552504751991e-02 -2.0048466005187887e-01 1.6988322985495365e+00 1.2775288502538733e+00 1.7315850222343836e+00 -6.0956615578671003e-01 -6.4333201406906448e-01 4.5955607223768385e-01 1.7866609473527808e+00 -1.9576306218471384e+00 -1.3016662684701463e+00 -5.5743885912862579e-01 -1.1881070730618513e+00 -1.6559062058527900e+00 -1.3072710653246098e+00 7.7760372765674213e-01 -1.0871391660396772e-01 -1.6630165705302211e+00 
        </Neuron>
        <Neuron NSynapses="24">
          -1.9206392053709356e+00 -2.2397640840220148e-01 1.7637445354964059e+00 1.7042145362362104e+00 1.3213768158776407e+00 -6.6319464211239931e-01 -1.9895850282072820e+00 -1.1633906587862769e-01 -1.2974339732304478e+00 -1.5534089156344231e+00 -6.6068504264841188e-01 -6.0892907497771327e-02 -1.6624085434707874e+00 1.6286521884395040e+00 1.1970213938960585e+00 9.6318141030422633e-02 -6.2056187990551703e-01 -8.1728278863128856e-01 1.9208317135315551e+00 -5.7157909568365706e-01 4.5466556635915673e-01 1.5966034387987786e+00 1.2109065791139726e+00 -8.6032562322894290e-01 
        </Neuron>
        <Neuron NSynapses="24">
          1.3915636528628157e+00 -1.7945092356578394e+00 1.5712268001132341e+00 1.8446002749072847e+00 -1.8949509670104381e-01 -2.8022695292746447e-01 3.6673320510922541e-01 -5.9731600449474953e-01 1.2066962525209728e+00 2.4694528648254521e-01 -9.5687182956578976e-01 -1.2420571212286613e+00 3.2961760634628418e-01 1.8656832572005371e+00 4.8475623009398899e-01 -5.5536548766490768e-01 -1.9410065316127061e+00 1.7847259230055226e+00 -1.7598131265131777e-02 -1.1609178243581979e+00 -3.2616434220354407e-01 -1.0235238971617071e+00 1.2660616637633024e+00 1.1068259488691889e+00 
        </Neuron>
      </Layer>
      <Layer Index="1" NNeurons="25">
        <Neuron NSynapses="1">
          -9.3673993418519452e-01 
        </Neuron>
        <Neuron NSynapses="1">
          -9.3748885431106999e-01 
        </Neuron>
        <Neuron NSynapses="1">
          9.3627311906913535e-01 
        </Neuron>
        <Neuron NSynapses="1">
          9.9727677688819327e-01 
        </Neuron>
        <Neuron NSynapses="1">
          4.3746111659780634e-01 
        </Neuron>
        <Neuron NSynapses="1">
          -2.0739594546950072e-02 
        </Neuron>
        <Neuron NSynapses="1">
          -1.2325649008766084e+00 
        </Neuron>
        <Neuron NSynapses="1">
          -1.0509610753985699e+00 
        </Neuron>
        <Neuron NSynapses="1">
          9.4868701466485705e-01 
        </Neuron>
        <Neuron NSynapses="1">
          1.4788337932115019e-02 
        </Neuron>
        <Neuron NSynapses="1">
          5.7486972561204197e-01 
        </Neuron>
        <Neuron NSynapses="1">
          -1.7569503814677196e+00 
        </Neuron>
        <Neuron NSynapses="1">
          -1.6908986301039961e+00 
        </Neuron>
        <Neuron NSynapses="1">
          -1.8301667949527407e+00 
        </Neuron>
        <Neuron NSynapses="1">
          -5.5341195857431491e-01 
        </Neuron>
        <Neuron NSynapses="1">
          -7.7231553133751307e-01 
        </Neuron>
        <Neuron NSynapses="1">
          9.1872742426066001e-01 
        </Neuron>
        <Neuron NSynapses="1">
          -8.8018151549197635e-02 
        </Neuron>
        <Neuron NSynapses="1">
          1.4652238024782158e+00 
        </Neuron>
        <Neuron NSynapses="1">
          1.6494295777088172e-01 
        </Neuron>
        <Neuron NSynapses="1">
          -2.1206367495728151e+00 
        </Neuron>
        <Neuron NSynapses="1">
          1.2735021604594174e+00 
        </Neuron>
        <Neuron NSynapses="1">
          1.7083173011549235e+00 
        </Neuron>
        <Neuron NSynapses="1">
          8.0456763396158038e-01 
        </Neuron>
        <Neuron NSynapses="1">
          -6.9898379420015921e-01 
        </Neuron>
      </Layer>
      <Layer Index="2" NNeurons="1">
        <Neuron NSynapses="0"/>
      </Layer>
    </Layout>
  </Weights>
</MethodSetup>
