<?xml version="1.0"?>
<MethodSetup Method="MLP::MLP">
  <GeneralInfo>
    <Info name="TMVA Release" value="4.2.1 [262657]"/>
    <Info name="ROOT Release" value="6.08/07 [395271]"/>
    <Info name="Creator" value="wverbeke"/>
    <Info name="Date" value="Thu Nov 16 16:58:03 2017"/>
    <Info name="Host" value="Linux vocms0302.cern.ch 2.6.32-696.1.1.el6.x86_64 #1 SMP Wed Apr 12 08:44:28 CEST 2017 x86_64 x86_64 x86_64 GNU/Linux"/>
    <Info name="Dir" value="/storage_mnt/storage/user/wverbeke/Work/AnalysisCode/ewkino/bdtTraining"/>
    <Info name="Training events" value="197251"/>
    <Info name="TrainingTime" value="1.07412651e+03"/>
    <Info name="AnalysisType" value="Classification"/>
  </GeneralInfo>
  <Options>
    <Option name="NCycles" modified="Yes">600</Option>
    <Option name="HiddenLayers" modified="Yes">N+5</Option>
    <Option name="NeuronType" modified="Yes">tanh</Option>
    <Option name="RandomSeed" modified="No">1</Option>
    <Option name="EstimatorType" modified="No">CE</Option>
    <Option name="NeuronInputType" modified="No">sum</Option>
    <Option name="V" modified="Yes">False</Option>
    <Option name="VerbosityLevel" modified="No">Default</Option>
    <Option name="VarTransform" modified="Yes">N</Option>
    <Option name="H" modified="Yes">True</Option>
    <Option name="CreateMVAPdfs" modified="No">False</Option>
    <Option name="IgnoreNegWeightsInTraining" modified="No">False</Option>
    <Option name="TrainingMethod" modified="No">BP</Option>
    <Option name="LearningRate" modified="No">2.000000e-02</Option>
    <Option name="DecayRate" modified="No">1.000000e-02</Option>
    <Option name="TestRate" modified="Yes">5</Option>
    <Option name="EpochMonitoring" modified="No">False</Option>
    <Option name="Sampling" modified="No">1.000000e+00</Option>
    <Option name="SamplingEpoch" modified="No">1.000000e+00</Option>
    <Option name="SamplingImportance" modified="No">1.000000e+00</Option>
    <Option name="SamplingTraining" modified="No">True</Option>
    <Option name="SamplingTesting" modified="No">False</Option>
    <Option name="ResetStep" modified="No">50</Option>
    <Option name="Tau" modified="No">3.000000e+00</Option>
    <Option name="BPMode" modified="No">sequential</Option>
    <Option name="BatchSize" modified="No">-1</Option>
    <Option name="ConvergenceImprove" modified="No">1.000000e-30</Option>
    <Option name="ConvergenceTests" modified="No">-1</Option>
    <Option name="UseRegulator" modified="Yes">False</Option>
    <Option name="UpdateLimit" modified="No">10000</Option>
    <Option name="CalculateErrors" modified="No">False</Option>
    <Option name="WeightRange" modified="No">1.000000e+00</Option>
  </Options>
  <Variables NVar="9">
    <Variable VarIndex="0" Expression="topMass" Label="topMass" Title="topMass" Unit="" Internal="topMass" Type="F" Min="-2.18718091e+03" Max="3.83546826e+03"/>
    <Variable VarIndex="1" Expression="pTForwardJets" Label="pTForwardJets" Title="pTForwardJets" Unit="" Internal="pTForwardJets" Type="F" Min="0.00000000e+00" Max="5.28055115e+02"/>
    <Variable VarIndex="2" Expression="etaLeading" Label="etaLeading" Title="etaLeading" Unit="" Internal="etaLeading" Type="F" Min="0.00000000e+00" Max="5.08899117e+00"/>
    <Variable VarIndex="3" Expression="etaMostForward" Label="etaMostForward" Title="etaMostForward" Unit="" Internal="etaMostForward" Type="F" Min="0.00000000e+00" Max="5.08899117e+00"/>
    <Variable VarIndex="4" Expression="pTLeadingLepton" Label="pTLeadingLepton" Title="pTLeadingLepton" Unit="" Internal="pTLeadingLepton" Type="F" Min="2.50367546e+01" Max="9.37622559e+02"/>
    <Variable VarIndex="5" Expression="pTLeadingJet" Label="pTLeadingJet" Title="pTLeadingJet" Unit="" Internal="pTLeadingJet" Type="F" Min="0.00000000e+00" Max="1.36354138e+03"/>
    <Variable VarIndex="6" Expression="missingET" Label="missingET" Title="missingET" Unit="" Internal="missingET" Type="F" Min="9.85783562e-02" Max="9.49460754e+02"/>
    <Variable VarIndex="7" Expression="pTTrailingLepton" Label="pTTrailingLepton" Title="pTTrailingLepton" Unit="" Internal="pTTrailingLepton" Type="F" Min="1.50022421e+01" Max="3.25111908e+02"/>
    <Variable VarIndex="8" Expression="highestDeepCSV" Label="highestDeepCSV" Title="highestDeepCSV" Unit="" Internal="highestDeepCSV" Type="F" Min="-2.00000000e+00" Max="9.99834597e-01"/>
  </Variables>
  <Spectators NSpec="0"/>
  <Classes NClass="2">
    <Class Name="Signal" Index="0"/>
    <Class Name="Background" Index="1"/>
  </Classes>
  <Transformations NTransformations="1">
    <Transform Name="Normalize">
      <Selection>
        <Input NInputs="9">
          <Input Type="Variable" Label="topMass" Expression="topMass"/>
          <Input Type="Variable" Label="pTForwardJets" Expression="pTForwardJets"/>
          <Input Type="Variable" Label="etaLeading" Expression="etaLeading"/>
          <Input Type="Variable" Label="etaMostForward" Expression="etaMostForward"/>
          <Input Type="Variable" Label="pTLeadingLepton" Expression="pTLeadingLepton"/>
          <Input Type="Variable" Label="pTLeadingJet" Expression="pTLeadingJet"/>
          <Input Type="Variable" Label="missingET" Expression="missingET"/>
          <Input Type="Variable" Label="pTTrailingLepton" Expression="pTTrailingLepton"/>
          <Input Type="Variable" Label="highestDeepCSV" Expression="highestDeepCSV"/>
        </Input>
        <Output NOutputs="9">
          <Output Type="Variable" Label="topMass" Expression="topMass"/>
          <Output Type="Variable" Label="pTForwardJets" Expression="pTForwardJets"/>
          <Output Type="Variable" Label="etaLeading" Expression="etaLeading"/>
          <Output Type="Variable" Label="etaMostForward" Expression="etaMostForward"/>
          <Output Type="Variable" Label="pTLeadingLepton" Expression="pTLeadingLepton"/>
          <Output Type="Variable" Label="pTLeadingJet" Expression="pTLeadingJet"/>
          <Output Type="Variable" Label="missingET" Expression="missingET"/>
          <Output Type="Variable" Label="pTTrailingLepton" Expression="pTTrailingLepton"/>
          <Output Type="Variable" Label="highestDeepCSV" Expression="highestDeepCSV"/>
        </Output>
      </Selection>
      <Class ClassIndex="0">
        <Ranges>
          <Range Index="0" Min="-9.5288891601562500e+02" Max="2.1461174316406250e+03"/>
          <Range Index="1" Min="0.0000000000000000e+00" Max="4.1290045166015625e+02"/>
          <Range Index="2" Min="0.0000000000000000e+00" Max="5.0763616561889648e+00"/>
          <Range Index="3" Min="0.0000000000000000e+00" Max="5.0763616561889648e+00"/>
          <Range Index="4" Min="2.7411432266235352e+01" Max="6.3412548828125000e+02"/>
          <Range Index="5" Min="0.0000000000000000e+00" Max="7.0800195312500000e+02"/>
          <Range Index="6" Min="8.1412190198898315e-01" Max="5.3613195800781250e+02"/>
          <Range Index="7" Min="1.5019478797912598e+01" Max="1.7767253112792969e+02"/>
          <Range Index="8" Min="-2.0000000000000000e+00" Max="9.9782776832580566e-01"/>
        </Ranges>
      </Class>
      <Class ClassIndex="1">
        <Ranges>
          <Range Index="0" Min="-2.1871809082031250e+03" Max="3.8354682617187500e+03"/>
          <Range Index="1" Min="0.0000000000000000e+00" Max="5.2805511474609375e+02"/>
          <Range Index="2" Min="0.0000000000000000e+00" Max="5.0889911651611328e+00"/>
          <Range Index="3" Min="0.0000000000000000e+00" Max="5.0889911651611328e+00"/>
          <Range Index="4" Min="2.5036754608154297e+01" Max="9.3762255859375000e+02"/>
          <Range Index="5" Min="0.0000000000000000e+00" Max="1.3635413818359375e+03"/>
          <Range Index="6" Min="9.8578356206417084e-02" Max="9.4946075439453125e+02"/>
          <Range Index="7" Min="1.5002242088317871e+01" Max="3.2511190795898438e+02"/>
          <Range Index="8" Min="-2.0000000000000000e+00" Max="9.9983459711074829e-01"/>
        </Ranges>
      </Class>
      <Class ClassIndex="2">
        <Ranges>
          <Range Index="0" Min="-2.1871809082031250e+03" Max="3.8354682617187500e+03"/>
          <Range Index="1" Min="0.0000000000000000e+00" Max="5.2805511474609375e+02"/>
          <Range Index="2" Min="0.0000000000000000e+00" Max="5.0889911651611328e+00"/>
          <Range Index="3" Min="0.0000000000000000e+00" Max="5.0889911651611328e+00"/>
          <Range Index="4" Min="2.5036754608154297e+01" Max="9.3762255859375000e+02"/>
          <Range Index="5" Min="0.0000000000000000e+00" Max="1.3635413818359375e+03"/>
          <Range Index="6" Min="9.8578356206417084e-02" Max="9.4946075439453125e+02"/>
          <Range Index="7" Min="1.5002242088317871e+01" Max="3.2511190795898438e+02"/>
          <Range Index="8" Min="-2.0000000000000000e+00" Max="9.9983459711074829e-01"/>
        </Ranges>
      </Class>
    </Transform>
  </Transformations>
  <MVAPdfs/>
  <Weights>
    <Layout NLayers="3">
      <Layer Index="0" NNeurons="10">
        <Neuron NSynapses="14">
          -3.3321003678061406e-01 2.0039596574684619e+00 8.7051630949977354e-01 1.7104873812661077e+00 -2.0357718318481330e+00 -1.4314412887332735e+00 -7.8129598339800366e-01 1.9929302492684082e+00 -1.4156622043569078e+00 -1.0142397006706847e+00 -1.6544051035451031e+00 -4.1723824853412234e-01 -1.1730609909664607e+00 -4.4843794555857347e-01 
        </Neuron>
        <Neuron NSynapses="14">
          -6.1008877827311447e-01 7.3450877716893026e-01 -5.0011519525889525e-01 1.6919431188242189e+00 9.2408395259696088e-03 1.2352408079421118e+00 -3.0084734491338555e-01 -7.5155330947106758e-01 7.4929843654266548e-01 2.3601041025017958e-01 -1.0541739085772208e+00 -2.4395486621529922e-01 1.7220891329238570e+00 -1.0808295067591192e+00 
        </Neuron>
        <Neuron NSynapses="14">
          -1.8910197659955732e+00 1.9435103357898698e-01 6.1028854132133881e-01 1.5607776947709722e+00 -5.0434938341430935e-01 -1.3756425389928056e-01 2.6803727586793108e-01 -2.8965054363572890e-01 -1.4389215930979491e+00 1.9114184994258496e+00 -1.1285632061647721e+00 1.1030153386353079e+00 1.5924000072113651e+00 8.6383931168694517e-01 
        </Neuron>
        <Neuron NSynapses="14">
          1.8724761374665984e+00 1.2677254176614097e+00 -8.1788475017559370e-01 -1.7238671538961130e+00 5.9572186704678498e-01 1.0622670231476657e-01 1.5388345508740249e+00 1.4476361572310896e+00 1.5779573144708037e+00 1.4714949624620888e+00 -1.5807923111008950e+00 1.3078718554286781e+00 -1.4543591213591915e+00 -9.0784282221119383e-01 
        </Neuron>
        <Neuron NSynapses="14">
          -1.3140787126942339e+00 -1.7184064279009652e+00 1.4771052014256512e+00 6.5201550965886090e-01 -1.6074866272770174e+00 5.9246630529313737e-01 -2.8123594479137953e-01 6.9059349166685813e-01 1.8211373237793920e+00 -2.4044961610827909e-01 2.4127014527827437e-01 -1.2241354014857551e+00 9.2116596574633447e-01 -8.4292864439555570e-01 
        </Neuron>
        <Neuron NSynapses="14">
          -7.2229768256931848e-01 -1.3776371856128424e+00 6.6740108469535253e-01 1.0866151360078928e+00 1.2286411029602000e+00 -2.2543465611278088e-01 -1.8930318268422188e+00 -1.8629238418693761e+00 9.9396384674259430e-01 6.3458996684469482e-01 2.0453628831898669e+00 6.3160820524111905e-01 1.2055838633904774e+00 -8.0731044588992651e-01 
        </Neuron>
        <Neuron NSynapses="14">
          -8.6576298141542374e-01 -1.5975071644373554e-01 1.0927485280214624e+00 -1.1508474343719843e+00 -1.6722791540705277e+00 -1.4170324303420154e+00 -1.6191336210192703e-01 -1.2175531048247852e-01 1.6200742961530539e+00 -1.4764020452037419e+00 -7.6566360820233270e-01 1.6000177546619636e+00 -5.7714913632986364e-01 -1.5239423750451444e+00 
        </Neuron>
        <Neuron NSynapses="14">
          -1.4665066940789295e+00 1.4983237318596501e-01 -1.9984583276813617e+00 -1.6980121646274227e+00 6.5415736394326807e-01 1.9119506163069682e+00 -1.1117265349758023e+00 1.6452540541690710e+00 -9.5143276729613513e-01 -6.8322064633586421e-01 4.4920301618932242e-02 3.2585328753888032e-01 -1.5383849845366555e+00 2.6130941257770263e-01 
        </Neuron>
        <Neuron NSynapses="14">
          3.0815004571085702e-01 4.6729744873229595e-01 -1.4661523827818870e+00 1.8668816113473932e+00 3.6493621477677601e-01 -6.7475126983140532e-01 8.3179699163279841e-01 -1.0701544394110938e+00 -1.6058040350901555e+00 1.7765670748548690e-01 -2.4901856932082478e-01 1.8173993853265693e+00 7.1354485853600058e-01 -2.9058818708992747e-02 
        </Neuron>
        <Neuron NSynapses="14">
          -3.6931310026841252e-01 1.0446145799425788e-01 -1.7099717374748022e+00 1.0997571136699051e+00 2.4995236225748194e-01 -2.1174942443105476e+00 6.0414266932121408e-01 -1.4434351077202847e+00 7.6148847104352366e-02 1.0308426588969910e+00 1.7022744752412322e+00 -1.8683406297730405e+00 6.7693612587624907e-02 1.5355301852515486e+00 
        </Neuron>
      </Layer>
      <Layer Index="1" NNeurons="15">
        <Neuron NSynapses="1">
          1.1345976778980709e+00 
        </Neuron>
        <Neuron NSynapses="1">
          2.5759807711261296e-01 
        </Neuron>
        <Neuron NSynapses="1">
          -1.0441641429051760e+00 
        </Neuron>
        <Neuron NSynapses="1">
          -1.0663980812693909e-01 
        </Neuron>
        <Neuron NSynapses="1">
          -1.7551473675466243e+00 
        </Neuron>
        <Neuron NSynapses="1">
          1.9254448741868224e+00 
        </Neuron>
        <Neuron NSynapses="1">
          7.7030686107419977e-01 
        </Neuron>
        <Neuron NSynapses="1">
          -7.3851193165159340e-02 
        </Neuron>
        <Neuron NSynapses="1">
          -1.0353958620726139e-01 
        </Neuron>
        <Neuron NSynapses="1">
          6.1006862328196210e-01 
        </Neuron>
        <Neuron NSynapses="1">
          -1.5823082652352991e+00 
        </Neuron>
        <Neuron NSynapses="1">
          1.1064229227967586e+00 
        </Neuron>
        <Neuron NSynapses="1">
          1.6128344802561072e+00 
        </Neuron>
        <Neuron NSynapses="1">
          -1.0444820774308137e+00 
        </Neuron>
        <Neuron NSynapses="1">
          -1.1000330449693694e+00 
        </Neuron>
      </Layer>
      <Layer Index="2" NNeurons="1">
        <Neuron NSynapses="0"/>
      </Layer>
    </Layout>
  </Weights>
</MethodSetup>
