<?xml version="1.0"?>
<MethodSetup Method="DNN::DNN">
  <GeneralInfo>
    <Info name="TMVA Release" value="4.2.1 [262657]"/>
    <Info name="ROOT Release" value="6.08/07 [395271]"/>
    <Info name="Creator" value="wverbeke"/>
    <Info name="Date" value="Thu Nov 23 01:04:06 2017"/>
    <Info name="Host" value="Linux vocms0302.cern.ch 2.6.32-696.1.1.el6.x86_64 #1 SMP Wed Apr 12 08:44:28 CEST 2017 x86_64 x86_64 x86_64 GNU/Linux"/>
    <Info name="Dir" value="/storage_mnt/storage/user/wverbeke/Work/AnalysisCode/ewkino/bdtTraining"/>
    <Info name="Training events" value="49778"/>
    <Info name="TrainingTime" value="3.36769864e+03"/>
    <Info name="AnalysisType" value="Classification"/>
  </GeneralInfo>
  <Options>
    <Option name="V" modified="Yes">True</Option>
    <Option name="VerbosityLevel" modified="No">Verbose</Option>
    <Option name="VarTransform" modified="Yes">N</Option>
    <Option name="H" modified="Yes">False</Option>
    <Option name="CreateMVAPdfs" modified="No">False</Option>
    <Option name="IgnoreNegWeightsInTraining" modified="No">False</Option>
    <Option name="Layout" modified="Yes">TANH|128,TANH|128,TANH|128,LINEAR</Option>
    <Option name="ErrorStrategy" modified="Yes">CROSSENTROPY</Option>
    <Option name="WeightInitialization" modified="Yes">XAVIERUNIFORM</Option>
    <Option name="Architecture" modified="Yes">STANDARD</Option>
    <Option name="TrainingStrategy" modified="Yes">LearningRate=1e-1,Momentum=0.9,Repetitions=1,ConvergenceSteps=20,BatchSize=256,TestRepetitions=10,WeightDecay=1e-4,Regularization=L2,DropConfig=0.0+0.5+0.5+0.5,</Option>
  </Options>
  <Variables NVar="21">
    <Variable VarIndex="0" Expression="topMass" Label="topMass" Title="topMass" Unit="" Internal="topMass" Type="F" Min="0.00000000e+00" Max="2.41867969e+03"/>
    <Variable VarIndex="1" Expression="pTForwardJets" Label="pTForwardJets" Title="pTForwardJets" Unit="" Internal="pTForwardJets" Type="F" Min="0.00000000e+00" Max="5.30691956e+02"/>
    <Variable VarIndex="2" Expression="etaMostForward" Label="etaMostForward" Title="etaMostForward" Unit="" Internal="etaMostForward" Type="F" Min="7.56851258e-03" Max="5.08811855e+00"/>
    <Variable VarIndex="3" Expression="pTLeadingJet" Label="pTLeadingJet" Title="pTLeadingJet" Unit="" Internal="pTLeadingJet" Type="F" Min="2.52303104e+01" Max="1.31254529e+03"/>
    <Variable VarIndex="4" Expression="pTLeadingLepton" Label="pTLeadingLepton" Title="pTLeadingLepton" Unit="" Internal="pTLeadingLepton" Type="F" Min="2.50929489e+01" Max="9.83317871e+02"/>
    <Variable VarIndex="5" Expression="mNotSoForwardJets" Label="mNotSoForwardJets" Title="mNotSoForwardJets" Unit="" Internal="mNotSoForwardJets" Type="F" Min="0.00000000e+00" Max="5.11072314e+03"/>
    <Variable VarIndex="6" Expression="pTLeadingBJet" Label="pTLeadingBJet" Title="pTLeadingBJet" Unit="" Internal="pTLeadingBJet" Type="F" Min="2.50006523e+01" Max="1.31254529e+03"/>
    <Variable VarIndex="7" Expression="missingET" Label="missingET" Title="missingET" Unit="" Internal="missingET" Type="F" Min="3.39112341e-01" Max="7.93616760e+02"/>
    <Variable VarIndex="8" Expression="highestDeepCSV" Label="highestDeepCSV" Title="highestDeepCSV" Unit="" Internal="highestDeepCSV" Type="F" Min="6.32403016e-01" Max="9.99999881e-01"/>
    <Variable VarIndex="9" Expression="maxMjj" Label="maxMjj" Title="maxMjj" Unit="" Internal="maxMjj" Type="F" Min="0.00000000e+00" Max="4.86016992e+03"/>
    <Variable VarIndex="10" Expression="minMlb" Label="minMlb" Title="minMlb" Unit="" Internal="minMlb" Type="F" Min="-2.72974030e+02" Max="1.00051398e+03"/>
    <Variable VarIndex="11" Expression="asymmetryWlep" Label="asymmetryWlep" Title="asymmetryWlep" Unit="" Internal="asymmetryWlep" Type="F" Min="-2.48666644e+00" Max="2.49501038e+00"/>
    <Variable VarIndex="12" Expression="etaZ" Label="etaZ" Title="etaZ" Unit="" Internal="etaZ" Type="F" Min="6.63794708e-05" Max="7.90405655e+00"/>
    <Variable VarIndex="13" Expression="m3l" Label="m3l" Title="m3l" Unit="" Internal="m3l" Type="F" Min="1.63404770e+01" Max="2.46046558e+03"/>
    <Variable VarIndex="14" Expression="maxDeltaPhijj" Label="maxDeltaPhijj" Title="maxDeltaPhijj" Unit="" Internal="maxDeltaPhijj" Type="F" Min="3.64780426e-05" Max="3.14155316e+00"/>
    <Variable VarIndex="15" Expression="maxDeltaRjj" Label="maxDeltaRjj" Title="maxDeltaRjj" Unit="" Internal="maxDeltaRjj" Type="F" Min="4.07080978e-01" Max="9.50587273e+00"/>
    <Variable VarIndex="16" Expression="maxDeltaPhill" Label="maxDeltaPhill" Title="maxDeltaPhill" Unit="" Internal="maxDeltaPhill" Type="F" Min="5.11491299e-03" Max="3.14158344e+00"/>
    <Variable VarIndex="17" Expression="pTMaxlb" Label="pTMaxlb" Title="pTMaxlb" Unit="" Internal="pTMaxlb" Type="F" Min="1.30851822e+01" Max="1.26456311e+03"/>
    <Variable VarIndex="18" Expression="pT3l" Label="pT3l" Title="pT3l" Unit="" Internal="pT3l" Type="F" Min="5.49152493e-01" Max="1.07090503e+03"/>
    <Variable VarIndex="19" Expression="mForwardJetsLeadinBJetW" Label="mForwardJetsLeadinBJetW" Title="mForwardJetsLeadinBJetW" Unit="" Internal="mForwardJetsLeadinBJetW" Type="F" Min="0.00000000e+00" Max="5.35813623e+03"/>
    <Variable VarIndex="20" Expression="ht" Label="ht" Title="ht" Unit="" Internal="ht" Type="F" Min="5.03089218e+01" Max="2.22776343e+03"/>
  </Variables>
  <Spectators NSpec="0"/>
  <Classes NClass="2">
    <Class Name="Signal" Index="0"/>
    <Class Name="Background" Index="1"/>
  </Classes>
  <Transformations NTransformations="1">
    <Transform Name="Normalize">
      <Selection>
        <Input NInputs="21">
          <Input Type="Variable" Label="topMass" Expression="topMass"/>
          <Input Type="Variable" Label="pTForwardJets" Expression="pTForwardJets"/>
          <Input Type="Variable" Label="etaMostForward" Expression="etaMostForward"/>
          <Input Type="Variable" Label="pTLeadingJet" Expression="pTLeadingJet"/>
          <Input Type="Variable" Label="pTLeadingLepton" Expression="pTLeadingLepton"/>
          <Input Type="Variable" Label="mNotSoForwardJets" Expression="mNotSoForwardJets"/>
          <Input Type="Variable" Label="pTLeadingBJet" Expression="pTLeadingBJet"/>
          <Input Type="Variable" Label="missingET" Expression="missingET"/>
          <Input Type="Variable" Label="highestDeepCSV" Expression="highestDeepCSV"/>
          <Input Type="Variable" Label="maxMjj" Expression="maxMjj"/>
          <Input Type="Variable" Label="minMlb" Expression="minMlb"/>
          <Input Type="Variable" Label="asymmetryWlep" Expression="asymmetryWlep"/>
          <Input Type="Variable" Label="etaZ" Expression="etaZ"/>
          <Input Type="Variable" Label="m3l" Expression="m3l"/>
          <Input Type="Variable" Label="maxDeltaPhijj" Expression="maxDeltaPhijj"/>
          <Input Type="Variable" Label="maxDeltaRjj" Expression="maxDeltaRjj"/>
          <Input Type="Variable" Label="maxDeltaPhill" Expression="maxDeltaPhill"/>
          <Input Type="Variable" Label="pTMaxlb" Expression="pTMaxlb"/>
          <Input Type="Variable" Label="pT3l" Expression="pT3l"/>
          <Input Type="Variable" Label="mForwardJetsLeadinBJetW" Expression="mForwardJetsLeadinBJetW"/>
          <Input Type="Variable" Label="ht" Expression="ht"/>
        </Input>
        <Output NOutputs="21">
          <Output Type="Variable" Label="topMass" Expression="topMass"/>
          <Output Type="Variable" Label="pTForwardJets" Expression="pTForwardJets"/>
          <Output Type="Variable" Label="etaMostForward" Expression="etaMostForward"/>
          <Output Type="Variable" Label="pTLeadingJet" Expression="pTLeadingJet"/>
          <Output Type="Variable" Label="pTLeadingLepton" Expression="pTLeadingLepton"/>
          <Output Type="Variable" Label="mNotSoForwardJets" Expression="mNotSoForwardJets"/>
          <Output Type="Variable" Label="pTLeadingBJet" Expression="pTLeadingBJet"/>
          <Output Type="Variable" Label="missingET" Expression="missingET"/>
          <Output Type="Variable" Label="highestDeepCSV" Expression="highestDeepCSV"/>
          <Output Type="Variable" Label="maxMjj" Expression="maxMjj"/>
          <Output Type="Variable" Label="minMlb" Expression="minMlb"/>
          <Output Type="Variable" Label="asymmetryWlep" Expression="asymmetryWlep"/>
          <Output Type="Variable" Label="etaZ" Expression="etaZ"/>
          <Output Type="Variable" Label="m3l" Expression="m3l"/>
          <Output Type="Variable" Label="maxDeltaPhijj" Expression="maxDeltaPhijj"/>
          <Output Type="Variable" Label="maxDeltaRjj" Expression="maxDeltaRjj"/>
          <Output Type="Variable" Label="maxDeltaPhill" Expression="maxDeltaPhill"/>
          <Output Type="Variable" Label="pTMaxlb" Expression="pTMaxlb"/>
          <Output Type="Variable" Label="pT3l" Expression="pT3l"/>
          <Output Type="Variable" Label="mForwardJetsLeadinBJetW" Expression="mForwardJetsLeadinBJetW"/>
          <Output Type="Variable" Label="ht" Expression="ht"/>
        </Output>
      </Selection>
      <Class ClassIndex="0">
        <Ranges>
          <Range Index="0" Min="0.0000000000000000e+00" Max="2.4186796875000000e+03"/>
          <Range Index="1" Min="0.0000000000000000e+00" Max="5.3069195556640625e+02"/>
          <Range Index="2" Min="4.5419510453939438e-02" Max="5.0881185531616211e+00"/>
          <Range Index="3" Min="2.5404005050659180e+01" Max="1.1519465332031250e+03"/>
          <Range Index="4" Min="2.5140686035156250e+01" Max="9.8331787109375000e+02"/>
          <Range Index="5" Min="0.0000000000000000e+00" Max="5.1107231445312500e+03"/>
          <Range Index="6" Min="2.5000652313232422e+01" Max="1.0071645507812500e+03"/>
          <Range Index="7" Min="6.2190920114517212e-01" Max="7.1239324951171875e+02"/>
          <Range Index="8" Min="6.3240301609039307e-01" Max="9.9999988079071045e-01"/>
          <Range Index="9" Min="0.0000000000000000e+00" Max="4.8601699218750000e+03"/>
          <Range Index="10" Min="-1.8097407531738281e+02" Max="7.8352270507812500e+02"/>
          <Range Index="11" Min="-2.4818017482757568e+00" Max="2.4946858882904053e+00"/>
          <Range Index="12" Min="8.6421452579088509e-05" Max="6.4718461036682129e+00"/>
          <Range Index="13" Min="3.5809226989746094e+01" Max="1.4938769531250000e+03"/>
          <Range Index="14" Min="3.6478042602539062e-05" Max="3.1415531635284424e+00"/>
          <Range Index="15" Min="4.2039516568183899e-01" Max="9.5058727264404297e+00"/>
          <Range Index="16" Min="7.7300429344177246e-02" Max="3.1415407657623291e+00"/>
          <Range Index="17" Min="1.7872709274291992e+01" Max="1.2645631103515625e+03"/>
          <Range Index="18" Min="5.4915249347686768e-01" Max="1.0485744628906250e+03"/>
          <Range Index="19" Min="0.0000000000000000e+00" Max="5.3581362304687500e+03"/>
          <Range Index="20" Min="5.0545673370361328e+01" Max="2.2277634277343750e+03"/>
        </Ranges>
      </Class>
      <Class ClassIndex="1">
        <Ranges>
          <Range Index="0" Min="0.0000000000000000e+00" Max="2.2337004394531250e+03"/>
          <Range Index="1" Min="0.0000000000000000e+00" Max="4.1548184204101562e+02"/>
          <Range Index="2" Min="7.5685125775635242e-03" Max="5.0833616256713867e+00"/>
          <Range Index="3" Min="2.5230310440063477e+01" Max="1.3125452880859375e+03"/>
          <Range Index="4" Min="2.5092948913574219e+01" Max="8.8005285644531250e+02"/>
          <Range Index="5" Min="0.0000000000000000e+00" Max="3.9661577148437500e+03"/>
          <Range Index="6" Min="2.5005516052246094e+01" Max="1.3125452880859375e+03"/>
          <Range Index="7" Min="3.3911234140396118e-01" Max="7.9361676025390625e+02"/>
          <Range Index="8" Min="6.3242119550704956e-01" Max="9.9999988079071045e-01"/>
          <Range Index="9" Min="0.0000000000000000e+00" Max="3.8674196777343750e+03"/>
          <Range Index="10" Min="-2.7297402954101562e+02" Max="1.0005139770507812e+03"/>
          <Range Index="11" Min="-2.4866664409637451e+00" Max="2.4950103759765625e+00"/>
          <Range Index="12" Min="6.6379470808897167e-05" Max="7.9040565490722656e+00"/>
          <Range Index="13" Min="1.6340476989746094e+01" Max="2.4604655761718750e+03"/>
          <Range Index="14" Min="3.2925605773925781e-04" Max="3.1414465904235840e+00"/>
          <Range Index="15" Min="4.0708097815513611e-01" Max="9.1172161102294922e+00"/>
          <Range Index="16" Min="5.1149129867553711e-03" Max="3.1415834426879883e+00"/>
          <Range Index="17" Min="1.3085182189941406e+01" Max="1.1866927490234375e+03"/>
          <Range Index="18" Min="7.6824438571929932e-01" Max="1.0709050292968750e+03"/>
          <Range Index="19" Min="0.0000000000000000e+00" Max="4.3077324218750000e+03"/>
          <Range Index="20" Min="5.0308921813964844e+01" Max="1.8313054199218750e+03"/>
        </Ranges>
      </Class>
      <Class ClassIndex="2">
        <Ranges>
          <Range Index="0" Min="0.0000000000000000e+00" Max="2.4186796875000000e+03"/>
          <Range Index="1" Min="0.0000000000000000e+00" Max="5.3069195556640625e+02"/>
          <Range Index="2" Min="7.5685125775635242e-03" Max="5.0881185531616211e+00"/>
          <Range Index="3" Min="2.5230310440063477e+01" Max="1.3125452880859375e+03"/>
          <Range Index="4" Min="2.5092948913574219e+01" Max="9.8331787109375000e+02"/>
          <Range Index="5" Min="0.0000000000000000e+00" Max="5.1107231445312500e+03"/>
          <Range Index="6" Min="2.5000652313232422e+01" Max="1.3125452880859375e+03"/>
          <Range Index="7" Min="3.3911234140396118e-01" Max="7.9361676025390625e+02"/>
          <Range Index="8" Min="6.3240301609039307e-01" Max="9.9999988079071045e-01"/>
          <Range Index="9" Min="0.0000000000000000e+00" Max="4.8601699218750000e+03"/>
          <Range Index="10" Min="-2.7297402954101562e+02" Max="1.0005139770507812e+03"/>
          <Range Index="11" Min="-2.4866664409637451e+00" Max="2.4950103759765625e+00"/>
          <Range Index="12" Min="6.6379470808897167e-05" Max="7.9040565490722656e+00"/>
          <Range Index="13" Min="1.6340476989746094e+01" Max="2.4604655761718750e+03"/>
          <Range Index="14" Min="3.6478042602539062e-05" Max="3.1415531635284424e+00"/>
          <Range Index="15" Min="4.0708097815513611e-01" Max="9.5058727264404297e+00"/>
          <Range Index="16" Min="5.1149129867553711e-03" Max="3.1415834426879883e+00"/>
          <Range Index="17" Min="1.3085182189941406e+01" Max="1.2645631103515625e+03"/>
          <Range Index="18" Min="5.4915249347686768e-01" Max="1.0709050292968750e+03"/>
          <Range Index="19" Min="0.0000000000000000e+00" Max="5.3581362304687500e+03"/>
          <Range Index="20" Min="5.0308921813964844e+01" Max="2.2277634277343750e+03"/>
        </Ranges>
      </Class>
    </Transform>
  </Transformations>
  <MVAPdfs/>
  <Weights InputWidth="21" Depth="4" LossFunction="C" OutputFunction="S">
    <Layer ActivationFunction="3">
      <Weights rows="128" cols="21">
        -2.2144047824562119e-01 1.0806982371328951e-01 7.2995279568202301e-02 -1.0153966451543085e-01 9.8100880948706462e-02 -2.8287794792905319e-01 3.0514594594930528e-02 3.8159523211103587e-02 -2.8130696751699902e-01 2.7887220332640783e-01 2.1673234000833090e-02 2.8237871048399593e-01 3.2127274742153621e-02 6.6252200789370802e-02 2.6032235187861974e-01 -2.3514087835330288e-01 -1.2598390759418018e-01 6.8909611408408220e-02 -1.1592338493464934e-02 -2.6480074816989313e-01 2.8075506744272205e-01 -2.4319529865010417e-02 1.9135720272997078e-01 -2.8943283477185772e-01 4.1706778855882809e-02 -2.6487003247486596e-01 -1.9065081769635991e-01 2.1357253629031750e-01 1.0131418978472106e-01 -2.0018122666057267e-01 -2.4821751740035641e-01 -1.1610110038282577e-01 -2.2210281545467775e-01 -5.3986055287430890e-02 2.8393564325462056e-01 -2.8278090606450001e-01 1.5869963188031536e-01 2.3445910198649278e-01 1.9822904588884188e-01 1.9519275260214536e-01 -2.7838554511733238e-01 -2.7827618619308203e-01 -1.6989903956505098e-01 2.2453455823562690e-01 1.3039520730709114e-01 -1.7289323899078488e-01 -1.3246234916480543e-01 -1.2297042665635781e-01 3.1958453034543435e-02 9.2821023878968067e-02 2.7300261525401709e-01 -2.2235947930245661e-01 -8.1903909172230310e-02 -2.2159120200681864e-01 -7.7102485797536108e-03 2.3334673552307086e-01 2.2009278735949624e-02 1.8024065943700038e-01 1.1145990582437891e-01 -1.8197493499898135e-01 2.8188969827871924e-01 -7.9899414060797924e-02 1.9846495430270331e-01 1.0872067378248815e-01 -2.5151827598685456e-01 -2.6695427209834710e-01 2.8651491857240058e-01 -1.9434091801463596e-01 -5.3714491534550719e-02 2.4359933974525025e-01 -1.3182957072882104e-01 1.9583988093615559e-01 1.7838595225390083e-01 2.7820632000151152e-01 2.3621771061150953e-01 -1.2216521038138754e-01 1.5828756375154227e-01 6.0707786575326474e-02 1.4829403944507652e-02 -9.2163073527516320e-02 1.0579144214248622e-01 -1.9209172460384377e-02 2.8839149327266927e-01 5.8408058552702910e-02 2.6126904557590475e-01 7.2944947905133825e-02 1.0583529175826910e-02 -6.5969340446786415e-03 2.3868858713229318e-01 1.3081212618149171e-01 1.5593357843655659e-01 -2.9953877744984869e-01 -1.0388990129205783e-01 -7.5872569302109713e-02 9.5964919498215659e-02 6.4513869195500589e-02 2.1879477024790187e-01 -1.6926282242429283e-01 -2.3592102645616491e-02 8.2614646334256137e-02 2.9137042950230559e-02 -8.1409721483313671e-02 -2.6736731175545070e-01 7.2773485929379461e-02 2.1010552563641915e-01 1.2538071138139758e-02 -1.7282245029143700e-01 -2.6176570154382656e-01 1.8456008731914744e-01 5.7682869280252846e-02 8.0572453434384364e-02 3.0144455124170705e-01 -2.6500631262042312e-01 2.0092055767803391e-01 -2.1684561033665919e-01 5.0965600992835688e-02 -2.7804785760494755e-01 -9.9370031620167526e-02 -4.9333450276462763e-02 3.4479857718442745e-02 4.4582747826075901e-02 -2.0253667077117254e-01 -2.3408302827943644e-01 -2.9966811602424803e-01 8.3090899129740298e-02 -4.2389794580940327e-03 -2.7284814084430931e-01 -7.3879295861223201e-02 2.8843859187567500e-01 -2.0042930583428345e-01 1.2313296836698051e-01 -3.0287326437930073e-01 -6.4436469795176587e-02 -1.6508016708273279e-01 -3.5815683000708441e-02 -2.4608925848314137e-01 1.6759362481773215e-02 -1.6275389767871820e-01 2.2921107916409261e-01 -2.3176689053512087e-01 1.5929126871851038e-01 -3.0290548223734470e-01 1.5780617812416839e-01 -2.4227143307413204e-01 4.9192704296564853e-02 2.9273281592411798e-01 2.5726079124029788e-01 1.8153690031353007e-02 2.7313326181478431e-01 -1.0430435792620844e-01 -2.1033077326062774e-01 4.2131492420142864e-02 -9.1307496672719646e-02 1.4794013055710761e-01 -1.4832343728866135e-01 -2.6653899972695905e-01 -2.2665818932643703e-01 -7.7137751526997006e-02 -2.0010881098660671e-01 -2.3540188213717203e-01 -3.6091718007133386e-02 -3.1702753189907916e-02 6.8101717451456364e-02 -8.9549480013256078e-02 1.2208561249791992e-01 1.1997322918586167e-01 -1.6507368980000167e-01 -8.2903118278312898e-02 -2.9810531808455765e-01 -1.3005234839550919e-01 1.4641931556205051e-01 -7.0636532296088683e-02 -4.0377188449689426e-02 -9.0796439830871645e-04 1.5858693093281975e-01 1.4282132736195002e-01 8.8788282961745388e-02 1.3372016447478424e-01 2.2205044249798189e-02 -2.5922768530882689e-01 -2.9549026032508968e-01 1.6889184739693580e-01 4.1170536062656075e-02 2.4986907700583091e-01 -2.0224619356762327e-01 -8.4058424289229758e-02 -2.3396836643929375e-01 -1.8665407596210393e-01 5.1841589108141371e-02 -2.5914436091424981e-01 -1.6201855000712875e-01 -1.9884904193555000e-01 -5.1595038595313225e-02 -1.7773273173698842e-01 -1.2441854831818613e-01 9.0340956388980778e-02 -1.5199723526760243e-02 -1.8798732363393325e-01 2.8797834435124629e-02 -2.7238651447141338e-01 -1.1860118556966772e-02 2.2884589513344641e-01 1.6678862654200652e-01 -1.3148109850146744e-01 2.0299588731480572e-01 6.8176719063364893e-02 -2.4430421787110554e-01 -3.7830812452308134e-02 -1.7095384171261563e-01 2.7668618292917629e-01 1.1216626044712258e-01 1.7069957797069304e-01 2.6353746869092187e-01 9.0971615503091297e-02 -1.3761109923973530e-01 -2.1928656493193008e-01 -2.4031665319083087e-01 2.5459186756182067e-01 1.1100689963081492e-01 5.2120027315376405e-02 -2.4110491516035445e-01 1.1086622211404275e-01 -2.4616165184363539e-01 -2.7372467869017264e-01 -2.6702336678629873e-01 -1.6977796199815823e-02 -1.3353965457260011e-01 2.5836654818350946e-01 -8.6303040343866433e-02 -2.1830731299169562e-01 -2.6013022812657766e-01 2.5838543310741952e-01 -1.2163764126893804e-01 -1.4474086278384429e-01 -2.6415815458954578e-01 -1.5546041363968330e-01 -6.2972655732392413e-02 2.1748843666130249e-01 -1.5102807424722808e-01 -7.3410970134537110e-02 3.0490240816973474e-01 4.7588787354715854e-02 -2.1591052282273970e-01 2.4424935116872445e-01 1.8974789716258528e-01 2.4427438466755012e-02 1.4426753865734671e-01 3.0055337669648824e-01 -2.5097431939142012e-01 2.6066686063878919e-01 1.6672955027086445e-01 -1.1671977555449710e-01 3.7345291521099687e-02 -3.1354190943763910e-01 -2.0871884910010433e-01 2.5582782857682168e-01 9.6678568669271974e-03 -2.6155135427423937e-01 2.9005040406717730e-01 1.3475699777854638e-01 -2.6584986496150576e-01 -2.6120334638943327e-01 9.8989854337929450e-02 2.4679512757079106e-01 1.7429800759261913e-01 5.5627587839993782e-02 1.6393744374799379e-01 -2.9517998960452646e-01 2.4897515814143162e-01 -9.4540841191397662e-02 -2.6355117844903125e-01 -1.4155575292982225e-01 -1.5643614890311811e-01 8.4335643578281924e-02 3.0348253996787150e-01 -2.0062113626070457e-01 2.3851975500328357e-01 2.7034161360605219e-01 1.6166057683290197e-01 -1.3691574216209387e-01 -2.4092160637644085e-02 1.9323082082313744e-01 -6.9762842932519470e-02 1.8535856882924567e-01 -1.5938337293486798e-01 2.0090284473723760e-01 -2.6359432372701885e-01 3.6547668559025484e-02 -2.3411680143364358e-01 2.0255801254877904e-02 -2.6956789441402562e-01 1.9536747926014833e-01 -1.6237557129510502e-01 -1.6377604953227781e-01 1.1828745312438214e-01 2.1236088901249564e-01 -2.2747245753010342e-01 -1.9636774396599452e-01 -1.7220807176423344e-01 2.8714172986365655e-01 2.8254299944115319e-01 1.3364306471572046e-03 2.5264352712370777e-02 -1.4593064911582593e-01 7.8830295360277025e-02 -1.4868341561534926e-01 2.9285507918512960e-01 -1.4173666564944334e-01 -1.3716485599150749e-01 -1.5220802148428175e-01 1.9669732506526572e-01 2.8248279308346735e-01 -2.9658589456087203e-01 7.7858609418480412e-02 2.5204562184314044e-01 1.5726703917242221e-01 -6.6877196997539801e-02 -8.0214572431589984e-02 -2.8441888190731129e-01 1.6936596554329442e-01 2.9767995221503041e-01 1.9883203086717730e-01 2.0100958204722716e-01 1.3741384681073135e-01 2.8738584148172258e-01 -2.0050786140472818e-01 -1.6952320007866145e-01 -9.2979359001923070e-02 4.6534213843223531e-02 2.2975430363339064e-01 -2.5264486034201250e-01 2.1253284644970674e-01 1.1491796337550327e-01 -2.0518473264425621e-01 -1.6124308523604053e-01 -2.0718064945580331e-01 -2.6578295255414841e-01 -2.0835190315117438e-01 -9.4372143158088256e-02 1.7416394429030764e-02 2.8479701709887167e-01 -9.0702361463639775e-02 -1.7627611208495819e-01 2.9198069382163633e-01 1.4954590884168058e-02 -2.2331750360804289e-01 1.5152290599616222e-01 9.3110326480758690e-02 -1.5350327175931872e-01 9.0446742020445586e-02 1.8411358268940947e-01 -2.7076646831320661e-01 -9.9656784346315405e-02 1.2685430497735292e-01 -2.0536375155211239e-01 -3.9593645586592771e-02 -6.3216601838030448e-02 -1.0236907904370086e-01 -1.9309243935322482e-01 5.0885701633424596e-02 -1.3066737121967190e-01 4.5795015709867673e-02 -1.7296007629137919e-01 1.6070219187714979e-01 -2.0995870697067331e-01 1.3194872001861421e-01 9.4911467975785174e-02 1.0248514453186437e-01 -1.6514851692896729e-01 3.0306932654809774e-02 2.5279451043410389e-01 6.3482627467582875e-02 -1.8124471934203559e-01 -2.6153125586908610e-01 -1.6300781040192042e-01 1.1069035471622163e-01 1.6754657613870419e-02 1.5226211851788479e-01 1.5414654907331324e-01 -1.4533897949314387e-01 1.5374717724724760e-01 5.2454610484620898e-02 -2.2401309947801976e-01 2.5704073198793656e-02 -2.8271772157199027e-01 -6.2827763426491712e-02 1.3113012145058861e-01 9.4064600867695122e-02 1.4427018575395148e-01 -2.4600472733858161e-01 -2.4859262054583051e-01 1.5761624078805600e-01 2.2988332304262285e-01 -8.6926705187213404e-02 -3.1056841322486393e-02 -4.5754903664442570e-02 1.3459808168800147e-01 1.0079138640281438e-01 -1.3508618460350910e-01 -7.5327708921759773e-02 -2.6442449459965417e-01 1.2321520433577253e-01 1.8699238262346793e-01 7.5590659066895067e-03 -1.8709048795293842e-01 -6.5462606270274268e-02 1.6752613247451184e-01 1.0819891773573320e-01 -1.0138733219012031e-01 2.6427466988658793e-01 -2.9965610892192696e-01 -1.7030518533430594e-01 1.2274069204212302e-02 -4.1449226192820992e-03 -1.0343519378311820e-01 1.2363559944014382e-02 5.8338990820160370e-02 -1.0588851286121334e-01 1.8536268107793588e-01 8.7096044724561394e-02 2.9081195701701296e-01 7.5520862800349753e-02 2.6596721313419386e-01 2.6421647092048128e-01 3.2389805144719406e-03 6.4472166211904467e-03 -1.8453662264987644e-01 -2.7925858914886720e-02 -7.2634587651210961e-02 2.2650534780460663e-01 -2.6415206008496139e-01 2.1881151493338510e-01 2.5881704803267491e-01 2.7454019739397761e-01 -1.3478317046722002e-01 -1.9863497502910421e-01 4.8466750822526439e-02 6.8998236674068694e-02 2.8767217951864660e-01 2.1971210890398787e-01 -4.6114767033667244e-02 1.5195238117040022e-01 1.8920877076596282e-01 -8.5969338446673163e-02 5.0862764380655186e-02 -2.3033559123984401e-01 6.9590529414808103e-02 5.6405865688535513e-02 8.1570436606949431e-02 -1.9059218606898864e-01 -1.9150711861688172e-01 -8.3344983916195894e-02 1.1691398990879572e-01 -5.9766119080568204e-03 1.6817432732530241e-01 1.6407640807387341e-01 2.9185876416582135e-01 -1.1251570391681555e-01 -9.5670636556260832e-02 -2.6296670144328232e-01 5.2277380780672532e-02 -2.2913201447860199e-01 -2.5700928787044619e-01 1.5504168528199688e-01 -2.6318499687921715e-02 2.3068874909192252e-01 1.0251525169266179e-01 1.8177587333621315e-01 3.0445080189641649e-02 1.4668714483285275e-01 -1.1651393297733256e-01 -8.0432386570663608e-03 -1.9518414813488785e-01 -1.4610125111554523e-01 -8.2261732167930826e-02 2.7457230088368589e-01 -1.9457647008746820e-01 -1.6800426318598294e-02 -6.2728825427739360e-02 -6.3815117973320054e-02 1.0202072573894023e-01 -6.4846083222770592e-02 -2.9759114027155997e-01 2.3517070988603209e-01 7.3033881330817896e-02 -1.5193267873815761e-01 -1.8540878475469608e-01 -6.4029222913199499e-02 -2.1499279683441108e-01 1.7177969833465753e-01 -1.3452613134216235e-01 1.1026676405948924e-01 -2.4635602197328674e-01 -1.3949991124387862e-01 2.7071173612420496e-01 1.5779245384981058e-01 3.5930372539536397e-02 -9.5963222432393733e-02 -1.6862365045042033e-01 -1.2399005032194742e-01 -1.6946853469207668e-01 4.8727711921869879e-02 -1.0898560367906325e-01 -1.9949918607719896e-01 -3.7593900824722984e-02 5.5504329728230967e-02 -4.6000851144399633e-02 1.3144005872474449e-01 2.0019497560301983e-01 1.3458828524397977e-02 1.2690836410371983e-01 -1.9204604992274463e-01 -4.3888092682162457e-03 -2.2905804706284932e-01 3.9216210612034813e-02 -1.3290722039253991e-01 1.1043108375370855e-01 2.4842538864314104e-01 1.2053524419813788e-01 -1.0819711004432496e-01 -5.0872432750172718e-02 1.3503264055769473e-01 -1.7762032084222781e-01 -3.7595761122938614e-03 2.9159317290736947e-01 -7.7125373139606259e-03 -1.2850672321273976e-01 -1.2262711754487042e-01 -2.5638073049550880e-01 -2.2135395703734828e-01 3.8784524879180542e-02 2.4065743810359302e-01 1.7863954515657882e-01 -2.0275798524962779e-01 -2.3641164486985844e-01 -6.4437142346191849e-03 -1.8061290711757655e-01 -2.9177091553082221e-02 -4.8801987693966133e-02 2.8858539609016376e-01 1.5402887888148914e-01 1.1862905666540029e-01 -2.2952042828480340e-01 2.8779508331724724e-01 -2.0100490385422545e-01 1.5190103135664007e-01 -1.3472271515715997e-01 -2.0994724334238105e-01 -1.6746769944116624e-01 2.3392106108670069e-01 9.0349897303005341e-02 1.2015300958624427e-01 2.9845592322999759e-01 -2.5266706031307773e-01 -1.4945411095552297e-01 -2.0652820801834024e-01 1.1994572205050003e-01 2.4268839073607706e-01 3.0517461719664817e-02 -2.5438011775626043e-02 6.6281746092264143e-02 1.7122072085584111e-01 2.1286403450632524e-01 1.4021896644670898e-01 2.1788285722518824e-01 2.8144470370761054e-01 -2.3357578535149393e-01 -2.0065005237407554e-01 1.9377420516914930e-02 1.9420341967576586e-02 -2.4638413083744343e-01 2.1056414890619507e-01 2.1070251147950880e-01 3.8615387447524040e-04 2.0633383041260400e-01 2.1069824423531485e-02 -4.4355011060027372e-02 1.8898113275894174e-01 6.6260523960983461e-02 1.3365858681675813e-01 1.4135800297444467e-01 -2.1847364340693090e-01 2.8639486038694689e-02 7.5056916116971767e-02 -2.8842837659523165e-02 -1.7947105057814394e-02 -4.1584946989038094e-03 -2.5961163639030138e-01 2.4108474527260038e-01 5.0346606274699980e-02 2.2691331570660739e-01 -5.0515780090642039e-02 -2.3708912983750499e-01 -1.0005740041871936e-01 1.5208288800879871e-01 2.6959930621267258e-01 -9.0995873606700833e-02 -1.4596832096521556e-01 -2.9966004944301727e-01 1.9627165373475600e-01 1.2249108943884369e-01 1.7711641808712475e-01 -6.5758785082898771e-02 -6.0853783092848890e-02 4.4931231828249603e-02 2.2666008298493706e-01 2.3292926068239436e-01 -2.2173787665439731e-01 -2.9135634035157149e-01 -2.6548304757167862e-01 1.2322231928197924e-01 1.2386939721021821e-01 1.0528332161713787e-01 -8.4330123534971782e-02 1.4623694211970897e-01 1.1336647509910988e-01 2.6816800570354488e-01 1.0348883299460576e-01 4.1641092761778659e-02 -2.5912065348511504e-01 -2.8939242097153267e-01 1.7065045385077551e-01 7.2665534037599205e-02 -1.7079383900118433e-01 2.9318708990362385e-01 -6.1926429849574471e-02 -2.8675517422703073e-01 -4.5378437561155345e-02 1.2641389163439773e-01 2.6373393149979224e-01 1.6673612586081258e-03 -1.9907930061707679e-01 -7.2680779245976906e-02 1.8910744793065462e-01 1.3154657974831083e-01 -5.6740858597852474e-02 -2.0010256225219608e-01 -7.5035730686048518e-02 6.0932224951092032e-02 -1.8607145774799680e-01 -3.0228290005107838e-01 2.3553049596503589e-01 2.1475801773663014e-01 2.9725644935093557e-02 2.9679406232384092e-01 -1.5019492327003553e-01 2.7604358323353023e-01 2.4992560849176781e-01 -2.7536862893577635e-01 -1.2049221273878147e-01 1.2561097069532687e-01 -1.0875203803076632e-01 2.1285356785880338e-01 -2.4813333425890191e-02 1.6167700629516443e-01 4.9097861453876256e-02 3.1319506053037176e-02 -1.3025303394975099e-01 1.9845845412454163e-01 1.9239370665128330e-01 -2.1105921417242662e-01 2.8530602210580286e-01 8.5245792840541498e-02 1.7573653016225330e-01 1.1131862591888018e-01 -2.1820370794327021e-01 3.9024656389156059e-02 -5.0974877875958342e-02 -6.4602421798047288e-02 9.3253517919680978e-03 -2.5498223790650887e-01 -2.3298466472489449e-01 -4.2022252947377572e-03 4.0874824061940020e-02 1.7758259209866606e-01 2.3976008599527157e-01 -2.0744674699322432e-01 7.2261510179335159e-02 2.4654169237790408e-01 -1.6361148823762181e-01 -2.6453387215137120e-01 6.4444130655982104e-02 5.7111210288074359e-02 2.2028901794646960e-01 -2.4153266424676238e-02 1.4986783208016280e-01 1.9506273437492513e-01 -1.4514166336593612e-01 1.7952885576967256e-01 2.2092168418302676e-02 1.7187592260035528e-01 2.5500825739841772e-02 -4.8606930958166740e-02 -2.4180462655930135e-01 -1.2676847021045740e-01 -2.9922528375124330e-01 -7.3719050197093051e-03 -1.9444059452141219e-01 6.4106627503735733e-02 -5.3420376117488816e-02 2.2257791694468484e-01 -2.3081033739268719e-01 -2.5045303213280184e-01 -1.0784367676605637e-01 -2.4565482179201598e-01 9.1880828458014863e-03 6.3209180986976407e-02 2.0993912362656461e-01 7.3278583292374688e-02 -1.8614719366857715e-01 5.1319888260457504e-02 -1.4889515539414067e-01 2.5355913951687559e-01 2.3117393728706112e-01 -2.5588996485699789e-01 3.9475322525540889e-02 9.9951051402096411e-02 -6.7544316102980242e-02 1.0471849587854250e-01 -2.6548086559501327e-01 2.4242905834328851e-01 2.7605895162411104e-01 2.2317447166969087e-01 -7.9933698665422964e-02 1.8311657057917666e-01 2.1912033320674462e-01 5.3260250273535047e-03 1.9794064062558156e-01 2.5012520350537532e-01 -3.3001782467824243e-03 -1.3704769103153636e-01 1.9382257684571396e-02 -2.0446974090410000e-01 -1.2733935056379014e-01 2.7639366662806786e-01 -7.2737807851024183e-02 2.9830747474492728e-02 -1.8677762942975851e-01 1.0444481345834025e-01 2.2893453271977740e-01 -1.0905396270398156e-01 2.6792449725768330e-02 2.1802777397410489e-01 -2.8935923500611682e-01 2.3501460954023107e-01 -1.6482099046272694e-01 8.9817035841947921e-03 -2.9164214739356592e-01 -1.7974421685034428e-01 -1.0288477552813011e-01 -2.0585773508050428e-01 -9.3637851515856862e-03 1.3428477945822956e-01 2.8751883047918497e-01 7.5211256050106104e-02 -6.0910174114338300e-02 2.5037874372155688e-01 -4.1410235499314274e-02 -2.2016879478109422e-01 -2.5444849108206052e-01 -9.4507840528516879e-02 -1.9739547621541612e-01 -1.4175354433590326e-01 1.5168825915144546e-01 -1.3526719422438924e-01 2.6062988933653919e-01 -1.4018434791725984e-01 -8.7678177015728734e-03 -3.8939631339506370e-02 2.4260576032421344e-01 -2.9831325372599848e-01 1.9422707564901437e-01 2.9561422251893527e-01 3.5408007722751315e-02 -1.6569379072962304e-01 9.0891216275928249e-02 -2.8328804733367813e-01 -2.2010677084842781e-02 -7.2480503553702377e-02 2.7372235817991170e-01 -1.3058833752779190e-02 1.1976739826606758e-01 -4.2041888064806555e-02 -1.6004303847378928e-01 -4.9977886506306864e-02 -2.3682536511796107e-01 -1.4931770578737946e-01 -1.8034844060793970e-01 -2.9803760240288946e-01 2.6286609126102994e-01 -1.1725426518047326e-01 -1.9255621048285276e-01 1.2949666167222695e-01 2.7600616091907913e-02 -2.6801628027593873e-02 -1.0007962650257093e-01 -4.1976750326044310e-02 -1.9182969808828818e-01 -2.7192936200164630e-01 -2.1950675003957521e-02 6.1544654711731497e-02 -1.5570909018004472e-01 1.7590651913599176e-01 1.4315743245494078e-01 -1.0075696381867746e-01 -5.7991581450244571e-02 1.6929789527276115e-01 1.8675689556522879e-01 8.6775667844698201e-02 -1.9940362291724209e-01 1.6602013231520416e-01 -1.0502625407142839e-01 -2.7938319160343034e-01 5.1036708771783589e-02 1.5068769096205240e-01 -1.4269783099181760e-01 1.2260387333832647e-02 -1.6869811370832583e-01 -4.6246823775831773e-02 1.6029845551195396e-01 -5.3385189019665609e-02 -8.5587798296736017e-02 2.8795563556724368e-01 -1.3336027582642584e-01 -7.4569800794179256e-02 -3.2341033434224682e-02 -8.5466996309954982e-02 1.8265293079060160e-01 6.0961308821983674e-02 4.9618117322730082e-02 3.4343383738041071e-02 -7.0977993051611664e-03 -2.2685200088833249e-02 1.0656728355484461e-01 -2.0697539421603248e-01 1.2957974554569462e-02 1.2364892599573449e-01 6.2597459472830339e-03 2.3447343200255555e-01 2.6573126643015443e-01 -2.2004996966836510e-01 -2.6369882205236156e-01 -2.0709864034546633e-03 1.1227742350588221e-01 -1.9262381820435553e-01 -2.5121724273995255e-01 1.0760114903871663e-01 -1.7210121802713818e-01 -2.9746535549816161e-01 1.8419874297912650e-01 -3.9177757109461836e-02 2.8560345262934567e-01 -2.4735542546837633e-01 -2.1109889036945839e-01 1.1238485642877873e-01 -6.7878482652938207e-02 -1.6071022650912267e-01 -1.4312349206014616e-01 1.6470201876252472e-01 1.6679683046187516e-01 -2.3681464330515875e-01 1.0955056011210730e-01 -1.5527116737145435e-01 1.9909639554379591e-01 -8.7983244092247601e-02 -2.6177065357935114e-01 -5.5305729372353625e-02 1.8810956054558098e-01 1.9084715753670736e-01 7.5129398748699699e-02 3.7098285910540630e-03 -1.7488179286183031e-01 1.1467197275485211e-01 2.6474689696405690e-01 1.8851234901029884e-01 2.9610954329228795e-01 2.7015665977974268e-01 1.8935506549665224e-01 1.2470385176027023e-01 -2.0022073666711951e-01 -7.4948235652281467e-02 -5.8550338280143374e-02 8.0835804651711252e-02 9.1508399209088945e-02 -9.9262768694748246e-02 1.7528116240899352e-01 1.5208624670240861e-01 -1.1082371211975477e-01 2.9567805667090358e-02 2.8259305481874669e-01 -1.0748273388755897e-01 8.7992190941888301e-02 2.7612849493257779e-01 1.1137183019528271e-01 1.2950745530906069e-01 -1.3293407989942152e-01 -1.1432073509467859e-01 -1.2208476979929730e-01 -7.4230451252637025e-02 1.9178714005914929e-01 7.2613150224530312e-02 -1.7056023920474572e-01 -1.9493978351626140e-01 1.3691698008055547e-01 1.4115967555728060e-01 8.2658532245516683e-02 -2.5594818754565019e-01 -2.0130316991384417e-01 4.1633572038553703e-02 1.4969452536218575e-01 -4.8904254056589373e-02 -1.0377181543399003e-01 -6.7354477122302026e-02 -8.7908926587355135e-02 -1.3839195879300756e-01 6.6805123983366774e-03 2.2512778556571975e-01 2.1984602623032709e-01 -8.7137911355383138e-02 -1.7942148711932021e-01 1.1378513015058507e-01 1.9316107654514725e-01 1.1741915571961915e-01 1.5867672775435543e-01 2.3704734192156554e-01 2.5722795076902782e-01 -2.8283642043386104e-01 -9.6045167505755067e-03 1.6752988303635427e-01 1.3818857077416567e-02 1.5965432288710316e-01 1.3823322831454285e-01 1.8427652390171972e-01 -1.9092353592851671e-01 -2.1880782172971880e-01 -4.8122477826297860e-02 -2.5074613266035434e-01 1.7615765905244388e-01 -2.5751328850298105e-01 2.9037854985926970e-01 2.5532674381287157e-01 -2.3919076803179287e-01 2.3277007708577641e-01 1.2864141337657808e-01 2.6224048711696923e-01 -1.1622834472925410e-01 2.8659658721781039e-01 1.5774369038367264e-01 6.2808650982250679e-03 -3.8108098707499052e-02 -2.5434839249161367e-01 -5.7596231062218589e-02 -4.9272504686720731e-02 1.4237211446955278e-01 4.9806696194666343e-02 -1.6907518420803250e-01 -1.5682736184393359e-01 -8.3896362630204238e-02 -1.5879786889369171e-01 -2.2112385707064173e-02 6.8793680771854743e-02 2.9260789309208157e-01 2.8942987606990378e-01 1.3095006502606477e-01 1.3763723362032318e-01 -1.6372265736185043e-01 6.2703838853308061e-03 -2.3399999472813360e-03 1.1661223727455332e-02 2.6393361574666080e-01 2.5631806322479994e-01 -2.2498866478821120e-01 1.1866951748291532e-01 6.1808033701271803e-02 -2.0866673145457820e-01 1.3428956162039243e-01 -2.2135898922912792e-01 -4.6454217678394860e-02 -8.1330746093152481e-02 3.9917218458772233e-02 2.9530891896727396e-01 1.8146890268319735e-01 -3.3584259485847775e-03 8.5781031398112578e-02 1.3484765532015458e-01 8.6585862289491194e-02 9.3201380044640486e-02 2.0925378726906702e-01 1.0574368402533176e-01 -1.6604590626734328e-01 -2.1071087682575360e-01 -1.3999710516566263e-01 3.5097924465208881e-02 9.7577465406347721e-02 2.9478229420131974e-01 -1.0621068461431916e-01 -1.3622706131335374e-01 1.1026714089353830e-01 -2.3936934390983461e-01 -1.9662018229875333e-01 2.5462248936929599e-01 6.6669263874371523e-04 1.1093791998573101e-01 3.3906139169165156e-02 -2.6842689305529410e-01 1.5880926113827069e-02 8.0812899028038107e-02 -2.6311095770603304e-01 2.0524130861901413e-01 4.6456616690714048e-02 -2.4936286113949915e-01 -2.5794012783238635e-01 1.7560969385133632e-01 -2.3475037687622630e-01 -1.3507381772161739e-01 -3.0099445067630354e-01 -2.4108222773915122e-01 -2.4238591215556310e-01 1.3287110518398779e-01 -4.3315239899325522e-02 -2.4213139236967246e-01 2.8749438021773976e-01 1.0642453557754952e-01 1.4284395347034343e-01 9.0377997482772296e-02 2.7724968157428131e-01 2.7637666246062181e-01 -1.0189023798862618e-01 2.1089475459095927e-01 -3.5816259976415861e-02 -2.2227780535246830e-01 1.3492447583617073e-01 -4.3830271495525978e-02 -1.5516792565909657e-01 -2.6419027398722400e-01 -1.0014710560208240e-01 -2.0973346982298785e-01 2.1962594503990779e-01 -2.7119881036387350e-01 -1.3420329906576831e-01 -2.3555871953964545e-02 2.9055842230846224e-01 2.0534565752718292e-01 -7.2830537877279847e-02 -1.5552420945483017e-01 -2.2553413868704514e-01 -1.9524651462592768e-01 -2.3841826107750685e-01 -1.8311614055226494e-02 1.7276300891942500e-01 -1.7241048437404431e-02 -1.0667198154359826e-01 -1.4832699047295003e-01 2.7853329538181931e-01 -6.9225891332474920e-02 2.4554798959151658e-01 2.7705090952199113e-01 1.0871742100531248e-01 6.3414413355162541e-02 -2.8097772100439128e-01 3.0196843951613250e-01 7.9301781728664186e-02 -6.3261732057773551e-02 2.2188884918707916e-01 2.6199378872467866e-01 2.6737086784303948e-01 2.2435812030052896e-01 -3.4303570968337950e-02 -1.8137766462311639e-03 -6.8314831833816522e-02 9.3607506377388003e-02 -1.9254910560427568e-01 4.4718619623862555e-03 -7.6143400432442956e-02 -1.8302251968920247e-01 2.5996733758262902e-01 2.1169638811410127e-01 2.4469772978171947e-01 -1.5751362901605187e-01 2.2613283409029925e-01 1.7156040155877861e-01 -1.8168758041766525e-01 1.5539882690998810e-01 6.9236795305172891e-02 2.4890188051426662e-01 -2.6031784713684880e-01 -2.2111907781504356e-01 2.9450300148302760e-01 -1.9906410548134214e-02 2.3003500251768699e-01 -5.5995485540091726e-02 1.1804161398205848e-01 4.6099842315306880e-02 -2.8549952494265274e-01 -1.5778393019235501e-01 -1.7941959250299139e-01 7.3316431078796998e-02 3.5901880349066197e-02 2.8920326716558126e-01 1.1228912909499950e-01 -7.0771827489609487e-02 -1.2647164725864063e-01 -2.0604891945698295e-01 -4.6954963163826892e-02 -1.7983918053889966e-01 8.1798250814318699e-02 -2.0760787895202859e-01 1.4474676489867914e-02 1.5507519465226877e-02 -9.6623851589542661e-02 1.2829976050362565e-01 2.2548779023323781e-01 2.7458349216453520e-01 -2.7649795639838132e-01 1.5386997548572517e-01 -2.2517008643057397e-02 6.7693416410994606e-02 -8.1058399703596920e-02 2.4242514420920316e-01 -5.2891511146328840e-02 -2.0738500237704841e-01 1.9518015523044632e-01 -1.2498696108469885e-01 -2.6285656631634069e-01 4.3038195100299700e-02 -3.1608248198083187e-02 2.0582459652060026e-01 1.7786858227114749e-01 2.9077149651979117e-01 1.7786400584420609e-01 -7.6481486279307828e-02 1.1526874687433585e-02 3.0202683903729893e-01 1.3524555142447145e-01 -5.6155501678026428e-03 2.6775050250889637e-01 2.8341012865700516e-01 4.9618656960734565e-02 -1.8707904910760098e-01 1.0299390870664850e-01 1.7061221670192597e-01 5.4748258691575839e-02 1.0524939675090174e-01 1.0772953648157569e-02 6.7488881204139220e-02 -4.1227242508156653e-02 -8.3394823776098304e-02 3.6436387337404834e-02 3.4935875287396820e-02 7.2428193091548618e-02 -2.3168834359996174e-01 2.0608976015087466e-01 -8.9862828595900848e-02 2.2437028488249566e-01 -2.5606365064263559e-01 1.5084803481861769e-01 2.8915468211149581e-01 -2.8001600191741827e-01 -7.6754070950870015e-02 1.7725084932621959e-01 2.8875462276447994e-01 6.2296204540569458e-02 -2.5527893837936322e-01 -2.6567471326762582e-01 -1.1681585117478430e-01 -8.8941220138314694e-02 6.3409459084743769e-02 1.5826881929913783e-01 1.7031409879112658e-01 -1.6125032113183138e-01 -2.7292017974533789e-01 -1.7618200040966001e-01 4.3990104142039230e-02 2.6680705205203281e-01 -2.8421793279046986e-01 1.2690572537681441e-01 2.3706268746952322e-01 2.2682685656266460e-01 -2.8626124274529774e-01 6.6521452747373352e-02 -2.8915392707907811e-01 -1.9572492308989414e-01 -2.3497849252358724e-01 -1.7720546641076568e-01 5.9447978034435571e-02 -2.2272748076344998e-01 -8.4783823306348163e-02 -1.3393086138837407e-02 -2.4410770551241798e-01 1.7200161865604208e-02 -2.5823481710668289e-01 1.9392349194462469e-01 -1.5028260771072269e-01 -7.0632670283449162e-02 1.9609972865153694e-01 1.6348927678308947e-01 3.0508472893744715e-01 2.2222764865109659e-01 -5.4944923563516795e-02 5.6690314237773272e-02 -2.0440152783696416e-01 -2.1513714813294449e-01 -1.3530861843512706e-01 -2.3557322455680665e-01 1.5475655533203406e-01 -1.1935872817326217e-01 -2.2402818722216328e-01 -2.0150042284983491e-01 -1.6396629559503303e-01 1.3438656993913581e-01 9.4409260182659632e-02 -1.9143829533014415e-02 1.1805700085654926e-01 -2.2390461008988108e-01 5.0750362759367756e-02 2.3033115296622775e-01 -9.1983171528185942e-02 -1.9674584738244286e-01 -1.7313624012894910e-01 -2.9766389578305030e-01 -9.9481082982557423e-02 2.9622548776881152e-01 9.2874963726474344e-02 5.3736773053185853e-02 -6.9487916587875079e-02 2.7574192951062459e-01 -1.5157175951432261e-01 1.8816892730212986e-01 1.2953645068507602e-02 8.5268345389425786e-03 -1.6702712491066618e-01 -2.6400437430570239e-01 -2.7582584054668141e-01 -1.1680260804676245e-02 2.6824922930465062e-01 -2.6711406565849333e-01 5.1328159883711852e-02 2.5531247470961954e-01 2.0754619922464013e-01 -2.2314323327429275e-01 1.3343809599206569e-01 1.9196772077290224e-02 -5.6282020472992141e-02 -7.0855483019709606e-02 -2.6056793075759493e-01 -6.7243649847012407e-02 1.4457573066605808e-01 -2.0769509569653305e-01 1.1791109284108632e-01 2.1853212044269216e-01 2.9037275435887766e-01 -1.9716841172411051e-01 -5.3180988300658441e-02 -3.1407149174543195e-02 -7.8089351237800170e-02 2.6582604948716959e-01 -8.0271246338546820e-02 1.1554129056653906e-01 -2.6016472689855189e-02 -6.9412268304990851e-02 -1.3604455011396788e-01 -2.8215455500660073e-02 -5.4541066544642344e-02 1.9402042635527705e-01 -1.0155059970745357e-01 2.7653960178701809e-01 3.4776907074033483e-02 -1.7098652072167131e-01 1.3059206034321716e-01 -1.5888252071444575e-01 2.7232409166731092e-01 -4.5670230430916052e-02 1.8733379702421818e-01 1.0151695393549878e-01 -1.9249565520950385e-01 -1.3498092606357240e-01 1.2383642890128208e-01 2.2531436429636256e-01 3.9711674615321220e-02 2.7412073645255702e-01 2.2458144464059029e-01 -5.2204152507882705e-02 1.7839061288300187e-01 2.7619000345341799e-01 -7.0860211748229304e-02 2.4956443584460511e-01 -1.1871289048471123e-01 1.1676736466733298e-01 2.0543577028211243e-01 -2.3816916436856589e-01 -1.8784226700724965e-01 2.1519865459455617e-01 1.0237737154386577e-01 -1.5379360923375876e-01 -8.4538110285677232e-02 7.8880554643180556e-02 2.2669822851591442e-01 -2.7217469140159667e-01 -1.1248307704188200e-01 1.1404012631332110e-01 -9.8835242734382836e-02 -2.4346867168467182e-01 1.2729404098252281e-01 1.2636680191980335e-01 2.2235302084515696e-01 -9.3934933034172455e-03 -6.3201252309974323e-02 -3.7126529827043654e-02 -2.9461177062066030e-01 -1.6876778144907623e-01 -1.8943649750372243e-01 1.2570424737154595e-01 2.4563576402067730e-01 -1.8161894492494227e-01 4.0295511307629775e-02 6.8582090619378660e-03 1.4844582611730132e-02 -1.9455773544789123e-01 1.3768901096886482e-01 -2.7074648042131350e-01 -1.3569074307806944e-02 -1.1231222866886120e-01 9.6299463558600057e-02 -1.5524886332218610e-01 1.4375608886869093e-01 -2.1166893012475230e-01 8.7629952336574474e-02 2.0122269072170418e-01 -1.8605912282898390e-01 -6.5337752825462281e-02 -1.3664237494192905e-01 -1.6210940702964874e-01 -2.5719642851043661e-01 2.7290411043021395e-01 1.6973331174975323e-01 -1.4003829078947883e-01 7.6889663717444948e-02 9.7311741007938601e-02 1.3517203122068044e-01 -4.2566893447838955e-02 -2.6654975293978544e-01 -2.9017329766251121e-01 2.0248471638443108e-01 -2.2320427622586717e-01 -1.0516784673024518e-01 -3.1696130718340426e-01 8.6858241708816425e-02 1.7898473211582358e-01 -2.1923169354257774e-01 1.5082569657735478e-01 4.6913925554670305e-02 2.0689641284202298e-01 -1.8700288231787807e-01 -2.3408837042621272e-01 2.4535304115288478e-01 -1.8758278378323817e-01 -2.4374162925072027e-02 2.7547260764789033e-01 1.8355029155219006e-02 2.9019096289841589e-01 -2.5464599279304612e-01 -5.5779583432294610e-02 -1.8744268320986579e-01 -3.3746966844857562e-02 -2.4434486501992997e-01 8.9436788106106849e-02 -2.4682693076015455e-01 2.6082437308137985e-01 -8.5926136422961444e-02 2.6496805216970792e-01 1.0576554577152608e-01 -1.4301889798653242e-01 7.2013903399373760e-02 -9.5004289906261669e-02 -1.5720092252200943e-01 -8.1633765581970941e-02 -2.1189943221572974e-01 -2.7319208671268358e-01 -4.2749243808460111e-02 1.2380683900451961e-01 1.2788680178160730e-01 2.7689484429995759e-01 1.6999163935038164e-01 -2.0741782664979189e-01 -6.3364942199397228e-02 8.9648311089350091e-02 1.0865805701873825e-01 2.6587529045248104e-01 1.8514923521105012e-01 -9.2443393926638695e-02 -8.8186724546476733e-02 1.2110701048691090e-01 -2.0628217338786467e-01 -2.6061065823124261e-02 -1.1671246495556145e-01 2.3049752835006476e-01 -2.9185625528796683e-01 1.4262236895695637e-01 2.4560344422932032e-01 -2.7175022383005693e-01 2.2678479040493535e-01 3.0050896015702971e-01 1.8331262942196894e-01 -3.5492691373812842e-02 -5.2863820154659361e-02 -2.1464746623564141e-02 1.2392097610791480e-01 -6.5540276190456118e-02 1.8389828269931074e-01 3.7423039280510481e-02 -2.0336865099603885e-01 4.6381965741007884e-02 -1.8130498618569635e-01 1.8503379995696692e-01 1.3915088399267270e-01 2.9651609603991214e-01 -5.6510876928047661e-02 -1.0380340605393359e-01 -4.5416396487748013e-03 7.5229853185240961e-02 1.3210698184299544e-01 2.4729571791501428e-01 -1.2649013840774401e-01 2.9710798212478368e-01 -6.3781843724012688e-02 -1.4574802653728619e-01 9.9677087160747859e-04 1.6386154497456448e-01 -2.0888113930763516e-01 -3.0799664493511453e-01 2.6543878995554770e-01 1.0077753582943937e-01 2.1096321991154346e-01 2.4997578334013601e-01 -1.8106339394693183e-01 -4.9345982536452213e-02 9.3772079926080068e-02 -1.8618513168970338e-01 5.2504624840562994e-02 1.5710089132350902e-01 2.9178268817219061e-01 -2.1691686518740910e-01 -9.7125496333550929e-02 -1.4948344285627424e-01 -7.8104433213793845e-02 -1.0845295897418857e-01 1.6463455536646298e-04 2.2997742875937668e-01 -5.6587605749493251e-02 2.0304053705693284e-01 3.1334570638372777e-02 -2.0785323243706938e-01 -1.1082205126155326e-01 1.8630543767479071e-01 -2.9212189247065040e-01 8.1077428070573540e-02 -2.4517563921557023e-01 2.6787722508565814e-01 1.2517980260683076e-01 2.5533086467921101e-01 -2.8146260408427992e-01 -9.6199845781549234e-02 1.6886525864178392e-01 2.6047034823974652e-01 2.4776829426463381e-01 2.5673638243426139e-01 -1.3866486875885464e-01 2.6220406712790695e-01 -1.6469990060117704e-01 2.4733731056866592e-01 2.7657806453035794e-01 1.7952718105346401e-02 -9.4680052733328288e-02 6.0967699104386694e-02 -3.7154358287865563e-02 -1.9742024582594669e-01 -2.5469569210796789e-01 -3.7017506091013078e-02 1.6747037554300351e-01 1.5415008399489094e-01 2.2583588178298153e-01 9.3522467367670711e-02 2.1295533011655327e-01 -2.7256432277158345e-02 2.5175077490108937e-02 -2.4320909343412139e-01 2.9455431567764734e-01 2.1003332529101804e-01 4.8568388408506837e-02 -7.3437506375819653e-02 2.3693309976660057e-01 -2.1199494100850047e-01 -1.6983994735086672e-01 -2.4567161322034511e-01 2.5423545328513075e-01 -9.0785894373236822e-02 1.0178964332590305e-01 -7.3099478737169377e-02 -1.5508309828755473e-01 9.0918756353158450e-02 -2.9306035959927856e-01 2.5114769042835638e-01 -2.3544454300986487e-01 2.7818871019180302e-01 -1.7377969587110223e-01 2.9839208583196075e-01 -8.0948713015961127e-02 3.3101584452577597e-02 -2.8326907472651686e-01 1.9125546401529675e-01 -1.8886235893264630e-01 7.0618033834264349e-02 -5.1715188102014635e-02 5.2698399060577390e-02 -2.8927351405372353e-01 6.9553088551534067e-03 2.5538828110627571e-01 2.0134561767245915e-04 1.5252885755805367e-03 8.1844385594406696e-02 -2.0227577714748543e-01 -1.7332990552561414e-01 2.1675429878278352e-01 1.6489611148707670e-01 2.2290572130130493e-01 -2.4039842005107413e-02 1.5251416395237335e-01 1.9275423768932970e-01 -1.7648109761984962e-01 -2.4323818799715238e-01 2.8528761126356644e-02 -1.6207295292258575e-01 -4.3175829336512719e-02 3.7875533418663551e-02 1.3883296036577517e-01 2.1049774334564797e-01 -1.4020110658168930e-01 1.4612367343174107e-01 -1.5912534114734690e-02 -1.7370596659375548e-01 2.6122970211925021e-02 -1.3815119578355917e-01 -1.8446963231938690e-01 -2.2003065176558254e-01 -3.3160127101637495e-02 2.1922173391244781e-01 1.8213991062095830e-01 -1.1684729587699373e-01 1.4176047681220760e-01 -4.9820169793297814e-02 -1.2470944186907384e-01 -2.3890587463028981e-01 1.1506833638406110e-01 2.6419664412128857e-01 -1.0030245466717115e-02 -1.1027767923659793e-01 1.1081393057483241e-01 2.0574711563689940e-01 1.6594657680374478e-01 -2.3568542740885726e-01 -9.4365020380640277e-02 -2.5728124303071798e-01 -2.9289764501309540e-01 2.4108301580987362e-01 -2.1762730062058538e-01 -2.0313156881272820e-01 -3.0349269487897018e-01 -2.0407158475198733e-01 2.1092619545415248e-01 2.8753326156041631e-01 3.0409061724804554e-01 2.8844637145397095e-01 -1.4909670593758811e-01 1.7396002183074596e-01 -1.7025074870899489e-02 2.7757640153863006e-01 -7.1185063891759978e-02 1.2215091936865573e-01 8.2025498257126447e-02 6.7100973517410623e-02 -2.9598239465316055e-02 2.3574977822528892e-01 -2.7254562987780778e-01 -4.9857817179111462e-03 -2.6474619816656991e-01 7.6472968627964308e-02 5.6939920688228160e-02 -8.9359216233669603e-02 2.9700387208983436e-01 -1.7144072437163266e-01 1.3164811334408796e-01 -2.6696794177325395e-01 -2.3848508379995537e-01 -2.6770520184770608e-01 1.6112255166150644e-02 -2.1631414665388093e-01 -1.8189976077982420e-01 -1.3381086670776940e-01 -1.8640686587547864e-01 -3.0432183480845334e-02 -1.1302822884329326e-01 8.1490811383917727e-02 -3.6515809387672113e-02 -1.9508808151798111e-02 2.7349198056056429e-01 2.5119567647471275e-01 2.2095645692893146e-01 2.0139477665457797e-01 7.7193303147323408e-02 -6.8766885393078347e-02 2.6091537541763066e-01 5.5320971741447657e-02 -1.7113975009146473e-01 5.6412032817022742e-02 1.8911764983150714e-01 -1.3691095752394458e-01 2.4444214561278421e-01 7.8301597766234007e-02 -2.1785063583802153e-01 -9.2873184808304907e-02 -2.0199142463923045e-01 -2.2508191236454644e-01 2.4091541577761533e-01 2.8990803318689190e-01 -9.6558598177472518e-02 2.3668639381076623e-01 2.4520872509906319e-01 6.6421498423452269e-02 6.2527371991317485e-02 1.4519801600567733e-01 -9.4414529802882813e-02 2.7597771741007571e-01 2.7242600287294033e-01 2.3078585047478126e-01 1.8373253940150039e-01 2.7279696947661980e-01 2.9374990396412481e-01 -2.4779588714994791e-01 9.3610093207751779e-02 1.5938127443629133e-01 -2.1523425465593743e-01 1.0058418236145024e-01 -2.1830690300609856e-01 -1.8075974068024131e-01 4.9772007202403108e-02 2.1531176141545694e-01 2.1539707267142597e-01 -1.1070313024013148e-01 1.8595220957459552e-02 -1.8130661512657414e-01 -1.4338489631130122e-01 -1.7342362135843320e-01 -2.1281169289770899e-01 -1.3964550982167354e-01 1.7733972411599291e-01 2.2118904302740902e-01 -2.5397497874345958e-03 -2.0246923003858416e-01 1.0360593051620968e-01 1.8652119714167642e-01 -2.7593883108698519e-01 -1.5930078720896981e-01 1.7777578772701047e-01 -2.2262277193920910e-01 -2.9151115916703735e-01 -2.0958667433154432e-01 -1.2998894253000109e-01 -1.7830373873849675e-01 -1.9803479485657630e-01 -7.7924146605290609e-02 -1.0600937989277238e-02 -2.5831326283291384e-03 1.9259622045377556e-01 9.4867478220537413e-02 -2.3559542267550829e-01 -2.1376398345510969e-01 3.2542736613132943e-02 1.4627362188737636e-01 1.4486968432236277e-01 2.4819955330055476e-01 -1.3073735719814508e-02 -2.1370639745753606e-01 5.8410235602442025e-02 -1.2946735355982650e-01 1.5155869933650365e-01 -2.3816284427938733e-01 2.3067360602300208e-03 1.2346774384647628e-01 -1.6161963253168091e-01 -2.0769686448580674e-01 3.0917592273349604e-02 1.1878566427348181e-01 -2.1244358611455205e-01 -3.7907117058404473e-02 -2.8481082941719860e-02 4.5266111843996162e-02 -9.5317090237038125e-03 1.0589733544490756e-01 3.7433613582414628e-02 8.2170842322649984e-02 1.8902186192342987e-01 -1.7989701067578295e-01 -1.1682833888646744e-01 -2.8790135958904478e-01 -1.0755464808317974e-01 -2.5431256985379593e-02 3.8581913602687541e-02 -2.5350665684654794e-01 2.2269089790107774e-01 1.9436452849909625e-01 2.9560154363801278e-01 -1.2373943262080228e-01 -5.4326512491114726e-02 -6.2952336349895990e-03 -1.3108057958899200e-01 1.3721738776784251e-01 -1.2026494902989128e-01 2.7186219439171877e-01 2.4663882645997270e-01 5.9672625974185760e-02 1.9373816664961938e-01 1.1844677295580426e-01 2.4314105460183280e-01 -1.2477121673547236e-02 1.5887903084576174e-01 1.3304796473042751e-01 -1.5902920335502013e-01 -1.5236266675842222e-01 -1.9612439629898745e-01 -1.9078026115947500e-01 2.6849512146066960e-02 8.7811759550001853e-02 4.7283156980326022e-02 2.4143162080987410e-01 -1.2232387354591555e-01 -8.1231455614636433e-02 -1.3995889488102606e-01 -2.2459427352475050e-01 -6.0023799993446710e-02 1.9650515334936733e-01 -1.7739148438190824e-01 1.4220657075700799e-01 -2.1624363717025982e-01 -2.1030216398377066e-01 -1.2840655345987792e-02 -2.5448938178152164e-01 -1.6174429682800912e-01 1.1690820849934203e-01 -2.9338144357236101e-01 -6.7052855897327734e-02 2.3400686940725043e-02 -2.1126669371521545e-01 2.5122423053625237e-01 -1.8361491835247271e-01 -1.9472009375067223e-01 2.8761627600240314e-01 1.2327378564607779e-02 -3.0970117404019497e-02 -6.5099983121657920e-02 -8.7644523547697487e-02 -2.3897038446924429e-01 -5.5921001327977594e-02 -1.8699892464495252e-01 1.1198230335106303e-01 -5.3170647151141157e-02 -1.8836280164011895e-01 2.5808849840213571e-01 -7.0240587713081351e-02 2.1558992775077268e-01 2.4488815581297371e-01 -2.0254173864642616e-01 1.3814760391888850e-01 2.4377278627447163e-01 1.8192304042060928e-01 1.6355447392783004e-01 2.5698561861640951e-01 4.1137662290753239e-02 -9.4675420790316475e-02 2.0099197541838987e-01 -1.9877184064008183e-01 -5.7978885310589513e-02 -1.2732484303565456e-02 2.2535888516195546e-01 -1.6222463104578413e-01 -2.5833062608985524e-01 2.3039700385584719e-01 2.0645089491271429e-01 -4.3895733315355505e-02 -2.5705513216005033e-01 -2.3105280936322353e-01 2.9094438729049075e-02 -1.5663512199512508e-01 -1.6163227569733646e-01 -1.3236026495567801e-01 -3.2451671750130924e-02 2.7989810709432423e-02 3.7146248596110501e-02 1.2822105610361190e-01 2.0104643453630405e-01 2.7158749368810586e-01 -3.9143385675250525e-02 -4.8237774671130084e-03 -1.9628168693351275e-01 1.6447801985225396e-01 -6.2675552367375039e-03 2.4582332826267295e-01 -2.0213939193129801e-01 4.6100064116503671e-02 2.0469353182944805e-01 4.0463999213197786e-02 2.6915763381586111e-01 -6.0626863708043988e-03 1.7778099243533849e-01 -1.5650189657991137e-01 -8.5329729793215431e-02 -2.2127796674659436e-01 -2.8509105186203160e-01 -9.2171708466570693e-03 1.6823065387923242e-01 2.2894767204047532e-02 5.3558147544580929e-02 -1.2483945001865408e-01 5.9192991438996534e-02 2.2550961442809661e-01 8.5969631441310299e-02 2.7500181986315046e-02 1.9492572087998325e-01 -8.0342693076518840e-02 -9.8940403036736402e-02 6.3913916180676156e-02 -4.5666209098530100e-02 -2.6435568539086507e-01 2.6593697956342249e-01 -1.4921548177566948e-01 1.9542772696745522e-01 1.1980089538308186e-01 -9.3490016195697703e-02 1.5917691478299115e-01 1.9274147251302973e-02 1.4058427096265952e-01 -6.8286023141432645e-02 5.4354617782408805e-02 -1.9662844790286094e-01 -1.9255577371910026e-01 -2.4989237009453727e-01 1.5699447530066055e-02 2.7712545287934276e-01 1.3633347091042503e-01 -2.1945806379251892e-01 3.1931704125354649e-01 9.7220547351222070e-03 -1.1817522318962437e-01 -2.1516178180585946e-01 4.2144051490079742e-02 2.8379651335008329e-02 2.2313777671393775e-01 -2.6661816391889243e-01 -6.4743824120353816e-02 -9.5715825026078602e-03 5.7636093674051633e-02 -5.5926401512427816e-02 -2.4947673679403376e-01 -2.3121508724846920e-01 2.4852299936724588e-02 1.8997398186868492e-01 2.0633496826311018e-01 1.4258741108897505e-01 6.9492577082862625e-03 3.2050828551625637e-02 -1.8927467333811454e-02 -3.1792270480972362e-01 -1.9618494455281416e-01 -8.1652363308686055e-02 -1.5550528135741007e-01 1.5124243859008601e-01 2.1544908168728744e-02 -2.6976476580321546e-01 -1.6980851660132734e-01 1.3152486283155057e-01 1.7816793025595767e-01 -2.0530719180780202e-01 1.9434281661952432e-01 -2.2793839218316189e-01 9.3383497935831047e-02 -2.4403493846666494e-01 1.5366206360327103e-01 1.5573963311049990e-01 -5.8927106372789362e-02 -2.4737414252615739e-01 -2.5147414123754169e-01 -2.7308275659925281e-02 -2.8620818602028536e-01 4.5889190151918835e-02 5.4631933538673044e-02 6.1245504987681380e-02 -1.9745117839464213e-01 -8.7241262454506432e-02 -5.9723799958136562e-03 4.1179073428813627e-02 1.6417596066977849e-01 -2.8295017792306060e-01 1.3173803160059255e-01 1.6323985259696985e-02 -1.3867789497863800e-01 1.4839424298954135e-01 -1.8445664887775179e-01 -6.6627022447237630e-02 2.1739427717962800e-01 3.0857443644937949e-02 -1.8069031661881049e-01 -4.8726134570857477e-02 2.5706194432038287e-01 1.3888198586866076e-02 1.6328725655960098e-02 -1.9530895487357029e-02 -2.7150947922698176e-01 -6.4416602799733103e-02 -5.8588534872192115e-02 -8.9920504072535642e-02 -8.4795899131487495e-02 2.3192303343105650e-01 2.1343636780026121e-01 -5.3147968635590924e-02 4.6073401732383584e-02 3.2393553757231630e-02 2.2085287581108096e-01 -2.6671895191240308e-01 -7.2768218283936412e-02 -2.7385344513750204e-01 2.1723761826209229e-01 2.2788058175345641e-01 2.0900825368111910e-02 -1.7141347228581277e-01 1.3580352173797902e-01 1.0327515878667667e-01 2.6727479999286247e-01 1.8911154164580438e-01 2.7875388703679693e-01 2.5218642804078906e-01 -2.0208338674418636e-01 -1.3104565089774631e-01 -5.1613691233181921e-02 1.3978247445173708e-01 -2.9413788969280313e-01 1.4340985900248462e-01 2.4114170310162278e-01 1.4174973623163029e-01 1.2126640411731907e-01 -2.1875250298960924e-01 1.4446987583451770e-01 4.9317404163640360e-02 2.1398246573747254e-01 -2.2807733054487886e-01 2.4381515793525810e-01 4.1073523841043368e-02 2.8439383702852625e-02 -2.6891503580752035e-01 -2.8485420464802463e-01 -1.1215156081203372e-01 3.5751892096368088e-02 -1.1649503184432258e-01 -1.0222214468695143e-01 1.0412560076528916e-01 -1.0409280221300943e-01 -2.6392638785228512e-01 -1.4377566754735496e-01 2.3939081186369840e-01 -1.2964597893409027e-01 -1.8985267370882086e-01 2.7433579263118490e-01 1.8004827251904926e-01 -2.0469143202209250e-01 1.5318742017705855e-01 -2.7304068508030266e-01 2.1600547406063611e-01 -2.2586208552889087e-01 1.0115738504751703e-01 5.6867403213297328e-02 2.8442793402683525e-01 2.3568188165902990e-01 -6.1984636360984828e-02 -2.1223452685710884e-01 1.0029776860677501e-01 7.5306624328787014e-02 -1.5798527544269927e-01 2.8776270307153290e-01 1.4384854579718187e-01 -1.5861191606443514e-01 -8.8857521165039824e-02 1.6597226389642702e-01 7.7652777632790659e-02 3.2110942946184967e-02 7.0579894986250627e-02 -2.5046702567559498e-01 2.2560828399807251e-01 3.9336118516624203e-03 -1.9755516017978145e-01 4.3180393266217913e-02 2.1730092042277843e-01 1.0322707851073934e-01 -1.5465225118988241e-01 1.8606992916442874e-01 2.4547717185014570e-01 2.5942717748317418e-01 -2.1926679024942091e-02 1.8856057352227684e-01 -1.5775384566995945e-01 -4.2668571360426122e-02 1.8812826135584895e-01 -2.8992974414976502e-01 1.4564198668084771e-01 2.5491469686525192e-01 -2.1928037583492249e-01 1.3655104194566467e-01 -2.5784309258037852e-01 -2.6135905910161739e-01 1.8742291672744285e-01 1.0055479610827356e-01 -3.8551706441646100e-02 -2.3302698860246135e-01 -1.6102219467605611e-01 2.1686027314427450e-01 -2.8273523073994433e-01 5.1767144071430377e-02 1.8485878068248321e-01 1.8039090052512680e-01 -2.4312368260095668e-01 -7.8985739560339580e-02 1.9871335304334636e-01 1.9686957675191269e-01 -1.8658333208973401e-03 -6.6478269680671068e-02 -2.3863449196333344e-01 4.1352297775170278e-02 -1.8472660450544798e-01 -1.1724751306930439e-01 2.0960995985164868e-01 -2.0297642407247324e-02 -2.4282911347563071e-01 -1.3919639868323233e-03 1.9961862611629960e-01 5.6386534297164406e-02 1.1902179957265482e-01 -2.1874709276158225e-01 2.0078273091600823e-01 -1.2350500250089495e-01 -1.5169284330632080e-01 -1.8178207165373519e-01 1.9124995163128353e-01 -2.2866477297787288e-01 -3.9590256624498478e-02 -1.1104070147277596e-01 -9.3135163746776439e-02 1.5195977637392938e-01 -1.4662536705976587e-01 1.3282864724614793e-01 -2.0886281586489264e-01 -1.2126083598338086e-01 8.0366684641395847e-02 2.7936189752404228e-01 -2.7923245397323443e-01 9.7345756246668885e-02 -1.6328273699423154e-01 1.9201558942855010e-02 2.8315349335056000e-01 -1.7326263023135197e-01 -1.0782410379249746e-01 -2.4446125464720000e-01 -1.6155505615929391e-01 -1.1057216178609104e-01 1.1103584776212219e-01 1.4556464434394784e-01 -8.0696124797262139e-02 -2.3637650572984520e-01 7.2332055099301837e-02 1.5439460245561640e-01 1.6739666976998838e-01 -1.6936572950902912e-01 2.0168319441326149e-01 1.9664667552088605e-01 2.0624636812963318e-01 1.3130448562596535e-02 -2.8885196796144802e-01 -3.0697034572742258e-02 -2.4482800570896443e-01 -1.7580053081173572e-01 5.0348410231515990e-02 -2.6645091658637138e-01 4.1555794320817428e-02 -1.7806776921439790e-01 -1.0032092606057877e-01 -1.2754810959364732e-01 -1.6871426927995697e-01 4.5110330721131721e-02 -2.3453496675846330e-01 -2.2695633158360973e-01 -2.2635984002217061e-01 -1.4180051680071934e-01 1.9545251635225716e-01 -2.2502978921150282e-01 1.3213594405443072e-01 -1.7681363840933348e-01 -2.7616039703658890e-01 -1.8237324485264217e-01 2.7003854259209842e-01 1.6168595740014871e-01 2.1475045936265760e-01 -1.9797329027522112e-01 -2.0487917427542682e-01 -1.3279494665155520e-01 -2.5417877892106600e-01 8.5005559541930051e-02 -1.3877792002389408e-01 6.0593166611212709e-02 1.7089029560778976e-01 -8.3037438766992724e-02 1.9939240333492175e-02 3.0248280615891998e-01 -1.0283667313086160e-01 -2.8880444097799635e-01 -1.6971765970846411e-01 2.8233687035215127e-01 -7.4290651983097672e-02 -2.3490960475270251e-01 1.1751363153681187e-02 1.5061673012778295e-02 -1.2448204181092019e-01 -1.0517703314032058e-01 -1.0843067891660954e-01 4.6680398316577068e-03 -2.3114535812101675e-01 2.9561435063186164e-01 -8.3306345216418914e-02 1.0972412273692754e-01 2.2886980701463333e-01 -5.4890451571858380e-02 -1.8278726278944277e-01 -1.1324266773846141e-01 1.6679573895403135e-01 7.2043277760621041e-02 -9.8109871473885030e-02 1.5200816688895305e-01 -1.2406442613046464e-01 2.3304928149459489e-01 3.3499103497288428e-02 1.3365254199321691e-01 2.1949372093550343e-01 1.5322736528051301e-01 2.9686372257681043e-01 -7.6512059363111340e-02 2.3916656036758372e-02 1.2969228214452205e-01 1.9087815957223867e-02 -2.0945374945677381e-01 -2.8758971595122790e-01 1.1202306407690552e-01 -1.4958671788642866e-01 -1.2851278449535902e-01 -1.7317961252981795e-01 1.7678255431447260e-01 -2.5013412905902493e-01 2.0888543698752582e-01 -9.3902111786975634e-02 5.9747024216964999e-03 1.5443040350910237e-01 6.1265668267750317e-02 2.0098512483401382e-01 6.3476453539417638e-02 8.3398655716684506e-02 -1.0424619280955119e-01 -2.8331918389240945e-01 6.2062332708979089e-02 1.4854110904562784e-01 -8.2940673844034113e-02 -2.7233911284341844e-01 -1.3973406029227068e-02 -3.4646150209480399e-02 9.4313095222042273e-02 -1.6176644824425407e-01 -1.5903075729074254e-01 -2.6138724449085532e-01 1.0418895042877262e-01 -1.7301478857458469e-01 5.4194312374766719e-02 -5.1461335980445291e-02 -3.5955836052939567e-02 1.6343233251920980e-01 9.5279645034424126e-02 7.5218312678826213e-02 -2.1249874170519747e-01 -2.5072240633340792e-01 -2.6266240684533199e-01 2.8798041680293474e-01 -2.6710663860354600e-01 -1.3379749488065215e-01 6.3983295021113884e-02 -2.2472948308502549e-01 -1.9291344064514548e-01 -2.5952286286462717e-01 4.3387651668275609e-03 1.7770588911803517e-01 1.0976327760370634e-01 1.2184486531680475e-01 1.5990474318407272e-01 -2.2708354066311634e-01 2.2725469891544167e-01 9.8038040664804829e-02 -8.3936613026015221e-03 8.6035889956812633e-02 8.7184422203706730e-02 -2.7882916979039420e-02 1.0983924063455562e-01 1.6331813965869665e-01 8.6399547251909348e-02 1.1419270880683137e-01 -2.8809825281066848e-02 4.0718856342652300e-02 -5.7280565790248206e-02 4.1899592654906434e-02 -1.4583286328062287e-02 -2.5994485137006379e-01 1.0068794370837510e-01 -1.6162010054742318e-01 2.2832928040723782e-01 1.9866135270230001e-01 9.6198986373945583e-02 1.4126214425440586e-01 -1.9166678243039043e-01 1.1534829546184758e-01 1.8819489062414475e-02 -2.8385575091201287e-01 -2.1030231564815974e-01 -1.7374306801914244e-01 -1.1617009988933662e-01 -1.8709627180845945e-01 2.8938176660467746e-01 1.0767157321720652e-04 -5.2738015781828511e-02 -6.5245605500585018e-03 -3.5142644183661531e-02 2.0734638408167394e-01 2.1642441664609210e-02 1.5018512094458780e-01 -2.4854834148353551e-02 2.9100393282994724e-01 7.4109741517225922e-02 -4.9407925134810800e-02 1.3074970967917307e-01 3.7324935316316331e-02 -1.0503782154606872e-02 -1.0391614069888311e-01 -1.7517546931188618e-01 -4.9486617106892720e-02 -2.0272685011060809e-01 2.8315711786090658e-01 -1.9448820067542563e-01 5.5201083449534921e-02 2.6064100375708088e-01 8.0436104707049635e-02 -1.0007970058765316e-01 -1.9449552358681940e-02 -8.4072456899178832e-02 2.6541382261750068e-01 -1.7361277487175975e-01 1.5761999035083929e-01 2.6203639319160260e-01 -1.2478078667374071e-01 -4.4207138686473593e-02 1.2580444797869739e-01 -2.0083629408023776e-01 1.2653876673287839e-01 -3.4526856522334573e-02 3.7952266864141326e-02 -2.0241808407255243e-01 -1.8067587300057308e-01 1.1994769314421948e-01 2.5691849651036053e-01 -2.8899994627551107e-01 -3.1773099771659596e-02 1.1829030087499037e-01 -2.6898380616848044e-01 -4.3484361655235761e-02 -5.5660731371160142e-02 2.4248446541940516e-01 -2.6976165336999092e-01 -1.6953925250705590e-01 -2.4876848884147573e-01 -2.4265818600622108e-01 1.6426333780344590e-01 -2.9240537552093715e-01 -1.3739552485063377e-03 -1.3518393275696514e-01 -1.2619003686511371e-01 -2.2929785646868023e-01 3.1074887671758739e-01 2.1942848465256812e-01 -2.0920055104590785e-01 -5.4369784229594612e-02 2.7633501159404004e-03 -1.4165825799598969e-01 -1.4909209029776113e-01 -6.3961583548945614e-02 -9.9768725944008263e-02 6.0720761855817339e-02 2.2930824499862598e-01 -1.5110676869409623e-01 1.1759630744507989e-01 -2.7531646740432386e-01 1.6960159607080405e-01 -2.5509250090872237e-01 1.4872467121225806e-02 1.2140574603217710e-01 -1.3636426232267979e-01 -2.2887152732223079e-01 -2.1814231424263059e-01 -9.6881348213349858e-02 -2.4807290705704130e-01 3.9187621687027337e-02 -1.8328749027200822e-01 -4.7083845653965464e-02 -2.1144013395530153e-01 2.0011297658120239e-01 6.5038835286684554e-02 2.5108215634579645e-01 2.2690951569820655e-01 -1.2014942411894666e-01 -1.8880664310139954e-03 -9.2662048255240353e-02 -3.3478614673650521e-02 5.8002861279065676e-02 4.2085330927658933e-02 -2.6071985167112932e-01 2.2598399942091094e-01 1.7027104987923154e-02 2.1027634918782773e-01 2.7620083988113931e-02 -7.5205510378582599e-02 -1.5256796224567251e-01 1.1660355391412380e-01 1.8274398224127272e-01 -1.5705961423561146e-01 2.2053526910179247e-01 9.1903437554339440e-02 -4.6541008164409682e-02 -2.1881811285156949e-01 -2.6691392224217431e-01 2.0342911154568788e-01 1.7357078588925387e-01 -2.8398074917413207e-01 2.7728110174496973e-01 -1.7415032785131554e-02 -2.3819438188632694e-01 -1.1949301909233044e-02 2.9719998803724079e-01 -1.5893983458127764e-01 -1.0259536407300388e-01 2.2802562105405932e-01 -1.0521767281072661e-01 2.5576203602749904e-03 -3.0311057121626434e-02 1.9789029329702226e-01 2.0677374721033057e-01 2.5923230495298072e-01 1.3977749169451928e-01 -5.0291051925029834e-02 -2.1806632179697250e-01 -2.0876993177569311e-01 6.8037313082585288e-02 -3.4381205007547821e-02 1.6187455480170029e-01 -1.3643698828936995e-01 1.6461812116198368e-01 -2.2380490493372561e-02 1.0940682347122070e-01 -2.4687605350149230e-01 6.1449129376809131e-02 2.2554657769111482e-02 -8.3285563330377607e-02 8.9018841353460776e-02 2.2129159257217951e-01 -2.0399310567753481e-01 4.8452887763992099e-02 -1.8547530708919421e-01 2.5187757458671428e-01 -9.9435854666080348e-02 -2.4221680022610576e-01 2.7303003697061662e-01 1.8282777930932650e-01 -7.2096302301726936e-02 2.4827313963167916e-01 1.4133312226406042e-01 -1.7667669193084623e-01 7.7694289316408649e-02 2.8591510786790436e-01 2.5193377519937360e-01 1.6475139458148430e-01 2.5399138050683601e-01 2.6061123306930034e-01 -1.2024990898148813e-01 -2.7728576399495158e-01 5.8894445599750572e-02 -2.9341019411197389e-01 -2.5245859281178512e-01 1.9335440101241652e-01 -2.8001511092438164e-01 2.8105737473994014e-01 -1.4421089683364830e-02 -6.9399838639886163e-02 -1.9464061429864912e-01 -1.6723949383146675e-01 2.4508203610786472e-01 -1.7910185618361368e-01 -1.6827035685504332e-01 7.0878996278664064e-02 -2.4968878243367595e-01 2.3638852746270247e-01 -1.6045515929157073e-01 2.0415750863715870e-01 -1.5684426615567612e-01 2.4993864573325666e-01 -2.5655312471965541e-01 2.9595180390418346e-01 1.8501569298727955e-01 -2.3136875762986661e-01 -2.3974143709365528e-02 -1.9686279389791886e-01 5.4408577125991744e-02 4.4558280553109966e-02 2.5641458661592481e-01 6.4954597688450980e-02 1.5274000313874730e-01 3.0020001147712977e-01 1.6116136182508695e-02 2.3592417549529818e-01 -2.7211094001250907e-01 2.1861724674228922e-01 -2.2579303624258215e-01 1.9442082900484622e-01 -1.5847278830767456e-01 5.9323378916044382e-02 2.7631807292570426e-01 7.5501033220466904e-03 1.8257144728642755e-01 3.0498636165834439e-02 1.5507090959025482e-01 -4.5669912345666960e-02 -1.3573374888114351e-01 -2.8278802218109167e-01 -2.6383388267248037e-01 1.3279019364730563e-01 -2.3110411551526489e-01 2.1480324987681834e-01 -5.8242635963495371e-03 2.2451418150561293e-02 6.2800199025125653e-02 5.8306573043130319e-02 -7.2588434443834934e-02 2.8866742525355316e-01 1.6312283621093907e-01 2.3645679909052855e-01 -1.5494965394371329e-01 1.7342874306417699e-01 -1.4747303580262006e-01 1.0353708958761965e-01 3.9540433581443400e-02 1.0421225689789416e-01 -1.0049712668416871e-01 2.1993993562598041e-02 3.3871467307458131e-02 -7.9743137684651161e-02 2.6345025234564248e-02 -2.6189771559080277e-01 1.3354556736426615e-01 1.8905463436824863e-01 -2.4234695719511495e-01 -6.3527418264772137e-02 1.5425328052885517e-01 9.1877992881839066e-02 -3.3105436462671209e-02 8.3007612621074700e-02 8.5842632881210426e-02 -1.9046593297714337e-01 -3.1891377629297737e-02 8.1637719620056240e-02 7.8152305805492150e-02 1.3681315558541504e-01 -6.7150359039953641e-03 2.3018068037644657e-01 -2.9990557452664973e-01 -1.3090760796644424e-01 8.4737390500780635e-02 2.1959667683238884e-01 2.3208320408778882e-01 -3.1109019020150153e-01 -2.8773012517656082e-01 2.2750169219543692e-01 -2.5644474648524490e-01 -1.5415082434131755e-01 -1.1859610503696913e-01 1.6802755315880630e-02 -2.9398813942387847e-01 2.5744939814294182e-01 2.0638346324433168e-01 1.2550585210221593e-01 -3.0242138785474537e-01 -5.1630283299635878e-02 1.4909635046800018e-02 -2.0093234074414629e-01 1.1250563993270592e-03 -2.7725395313585571e-01 -3.1510373698757153e-03 -1.7409735744375537e-01 -1.7753014549204735e-01 1.1579184056399275e-01 -2.5616313241622579e-01 -1.3392490706282781e-01 -1.0377162223857654e-01 1.5169833538053140e-01 -2.2683852762731005e-01 7.6657052869744911e-03 -3.2681074643225533e-02 -1.8166228896106440e-01 2.0572288827776988e-01 7.4567054066691008e-02 -1.5396751867714061e-02 -2.4648003475838062e-01 -4.3023208688676581e-02 -1.1602320151369805e-02 -1.4624397833510999e-01 -2.1874742155967108e-01 7.2300010786172042e-02 -1.2227472776374065e-01 -2.5934261885428006e-01 2.2374857284535032e-01 -2.5604052226658847e-01 2.3096839982084358e-01 1.4180772454159113e-01 -1.7094667816476505e-01 4.9697237176257854e-02 -1.2507541033721137e-01 9.9617740180689626e-02 1.8546920765000321e-01 1.2751904791756002e-01 2.6914669811105552e-01 1.1425564373090655e-01 -5.7498135174436360e-02 2.9136218423750643e-01 -1.5020512570608770e-02 5.2821764803173084e-02 -2.1906779419773127e-02 2.8878212968789296e-01 -2.1078451085297353e-01 -2.8932717624028070e-01 5.0485158740002922e-02 -1.6342604600699689e-01 1.5724714336794249e-01 7.4221423236442818e-02 1.5388920675357534e-01 8.9582657220724324e-02 -2.7458848830760751e-01 -2.7526164462984892e-01 -4.8813469167815267e-02 -1.7610812861432951e-01 -7.3321501310963849e-02 -2.2437977911903265e-01 2.2301941672041248e-01 -2.1918994966099191e-02 -2.0027230782615552e-01 1.8649827005830333e-01 1.3405825464942497e-01 2.8170745550365028e-01 4.1903304255698796e-03 6.5300116671618988e-02 1.5337158714199339e-01 2.3012172317622132e-01 2.5015125046796449e-01 2.7282035439576507e-01 -2.8608158590679128e-01 1.2654246328051830e-01 -1.3638313656731230e-01 -9.5960602239591172e-02 -5.4154758134605241e-02 1.8937256329688698e-01 -2.0715944154240767e-01 -1.7230490960054373e-01 1.2492337861885651e-01 -2.3365355296669107e-01 1.1851521716816634e-02 -2.3539846588799324e-01 -1.2046813562369742e-01 -9.1896200350910826e-02 -1.9614564749832719e-01 -1.2179990557976259e-02 -6.9674865077831050e-02 -4.4986478120434929e-02 1.9370690986027023e-01 2.9578241924191985e-02 -7.4595144303595914e-02 -2.6015575637448565e-02 -8.8340522677782547e-03 1.9660698766640380e-01 2.7854757607972031e-02 -5.2915287449624461e-03 2.4517940831641741e-01 7.1818028803649722e-02 -1.9818440380819716e-01 -2.3133980535956022e-01 1.0756577396392135e-01 2.4216870480356101e-01 2.8191962158419309e-01 -1.3303727126175877e-02 -2.7960982523317718e-01 1.6268652233273978e-02 -1.3186162240817997e-01 -2.7768583267865590e-02 -2.9887445773910082e-01 1.8069020893854468e-01 -1.3010347160531019e-01 -4.6486878372310997e-02 4.4430193694995779e-03 8.6757785125700128e-03 1.6441556450075040e-01 2.6234789533287434e-01 2.1243092706904562e-01 -9.8266001582825113e-02 -3.0033560067843679e-01 -2.0666994368884861e-01 -2.3982562105188390e-01 -2.7429538440049497e-02 -2.1837428496551720e-01 -1.6886188637983848e-01 -4.1726485379942072e-02 1.5588031696156798e-01 5.9442200295885192e-02 2.4274018986879226e-01 1.3906173347040293e-01 -2.8937748122077240e-02 -2.1416868173322340e-01 1.7922865126983631e-01 -4.2971808743472138e-02 2.6292883548480639e-01 -3.9327194487715572e-02 -6.2805419986813840e-02 2.5648908645210378e-01 5.7144339835692164e-02 6.1370678588192458e-02 1.4217477232788045e-01 5.7129582461392582e-02 -9.5952153969234635e-02 -2.8703748404187029e-01 1.1966202209101004e-01 -1.6602929625202081e-01 -1.2669047505680845e-02 -5.1151952577542147e-02 1.2238426191562127e-01 -2.9672849312821931e-01 -2.1060634911736442e-01 -4.0106857277760595e-02 -1.6075757068905827e-01 -1.2064910379338221e-01 -2.8783311181215060e-01 1.5611012094505500e-01 -1.2811359311437923e-01 1.0122997676142048e-01 2.6346159889775556e-01 -1.3578926248137904e-01 -1.1650247334862748e-01 -4.8546418002884541e-02 2.8529859806009139e-01 1.5873307418763855e-01 2.1842397005698971e-01 -5.3606289344416025e-02 -1.4653612913461742e-01 9.5736020863982224e-02 -2.0217146536182343e-01 -8.9321724738556124e-02 2.5267506805544554e-01 -2.3649214020543613e-01 1.0481340727884071e-01 -1.1533255393294028e-01 -1.6743972680151109e-01 -2.6424102370644100e-02 -2.5220122964180408e-01 -2.4647937316016791e-01 -2.3670324324812192e-01 1.3069373719430538e-01 -1.6777340975300581e-01 -1.8474112128999426e-01 
      </Weights>
      <Biases rows="128" cols="1">
        -1.5571556874205444e-01 7.6937723387559401e-02 -1.4196305714830995e-01 -2.4940793588271329e-01 6.5595038045994924e-02 2.8123536439004149e-01 -3.3625706383449090e-02 4.0245010287062101e-02 -2.4447929978790078e-01 -2.6600820769317834e-01 1.5801592494936686e-01 -1.4064442856914777e-01 1.4349290959609609e-01 2.5509248126331600e-02 -8.5071468848586210e-04 5.7436763745724928e-02 1.2053380098432821e-01 -2.6301468426730118e-01 -1.7486297942279305e-01 2.8912373071550740e-01 -1.5575424203496849e-01 1.9468207580264709e-02 -2.9259834123484652e-01 2.6958425492487931e-01 2.3940971653415835e-01 2.9298046088000151e-01 8.7082692569923376e-02 -2.6532831674075491e-01 -1.6084807957503658e-01 -1.8128684266919290e-01 -2.8843184194321408e-01 -8.8906921567065256e-02 -1.5163196313120169e-02 2.2171359804700141e-01 1.2160165741867990e-01 2.2417469375242785e-01 -1.0423096001543173e-02 -2.0478087560854782e-02 1.6767875660574416e-01 -1.5756106627059363e-01 -1.2962061136641281e-01 2.4638842041607467e-01 2.3733286960176095e-01 1.6975090926918518e-01 2.8510038671064319e-01 -1.6256814946602979e-01 2.4699642623121387e-01 -2.0819020527280335e-01 -2.9723301791435791e-01 -1.6764247282176781e-01 -7.0958691081059747e-02 -1.0752611260551569e-01 -1.9453765245626842e-01 -2.5595709205448247e-01 -2.1555145815714288e-01 2.8681688029583319e-01 2.7519970563358365e-01 8.2895394119641169e-02 -2.0657782776331188e-01 -1.8762797341312085e-01 -2.5163815114845189e-01 -1.9934609878619200e-01 -1.3713761215418374e-02 5.6780889664514438e-02 4.3629413920037170e-02 -1.0885616419590348e-01 1.0038480809474534e-01 -2.7389449875536975e-01 2.1755785193894131e-01 -4.0715286118276822e-02 1.9036832762966421e-01 1.5047832024020491e-01 2.2474898209572486e-01 -1.8435913408856855e-01 3.9514290039234699e-02 4.3170682382617211e-02 2.7286871884332620e-01 1.3997363908705471e-01 1.4017011758419318e-01 -1.7020261258424535e-01 -2.7348290888205989e-01 1.1534600898885815e-01 2.1664824564593521e-01 3.6205414884690453e-03 1.4347395427359977e-01 -2.5443843401847527e-01 1.5739941787970219e-01 1.3060986734601265e-01 1.3414090877198240e-01 -1.2786136066366591e-01 2.8341572896027656e-01 2.3017253260873977e-01 2.9884490807301362e-01 -1.2499176438838777e-01 -6.7944669522559840e-03 -3.0126898481952488e-02 1.5532065783367985e-01 -2.6131502211066482e-01 -2.6405347238637339e-01 1.2504886985459099e-01 -5.5762228611873257e-02 2.7491617785728223e-01 2.2301058541947714e-02 1.3377218058865128e-01 8.5110946458626602e-02 -2.2617174327560766e-01 1.1552440507123771e-01 -2.9572214483088932e-01 7.7267031958068180e-02 -1.0865865975287874e-01 4.5824943697576628e-02 3.0315864407665236e-02 -2.2435427119803921e-02 -8.8143123809172816e-02 1.9887559424970219e-01 2.1608375529871982e-01 9.5396722917275203e-02 -3.7861337085972111e-04 -1.9908863507658886e-01 -2.4520564291334143e-01 1.0393202186468940e-01 1.0487521390274528e-01 -1.3148980576605027e-01 -2.0023657552177390e-01 -3.9192707865114747e-03 -2.6045276691113489e-01 -2.3082748309047221e-01 1.1476406529861395e-01 
      </Biases>
    </Layer>
    <Layer ActivationFunction="3">
      <Weights rows="128" cols="128">
