<?xml version="1.0"?>
<MethodSetup Method="MLP::MLP">
  <GeneralInfo>
    <Info name="TMVA Release" value="4.2.1 [262657]"/>
    <Info name="ROOT Release" value="6.08/07 [395271]"/>
    <Info name="Creator" value="wverbeke"/>
    <Info name="Date" value="Thu Nov 23 03:07:37 2017"/>
    <Info name="Host" value="Linux vocms0302.cern.ch 2.6.32-696.1.1.el6.x86_64 #1 SMP Wed Apr 12 08:44:28 CEST 2017 x86_64 x86_64 x86_64 GNU/Linux"/>
    <Info name="Dir" value="/storage_mnt/storage/user/wverbeke/Work/AnalysisCode/ewkino/bdtTraining"/>
    <Info name="Training events" value="54049"/>
    <Info name="TrainingTime" value="6.71881437e+02"/>
    <Info name="AnalysisType" value="Classification"/>
  </GeneralInfo>
  <Options>
    <Option name="NCycles" modified="Yes">600</Option>
    <Option name="HiddenLayers" modified="Yes">N+5</Option>
    <Option name="NeuronType" modified="Yes">tanh</Option>
    <Option name="RandomSeed" modified="No">1</Option>
    <Option name="EstimatorType" modified="No">CE</Option>
    <Option name="NeuronInputType" modified="No">sum</Option>
    <Option name="V" modified="Yes">False</Option>
    <Option name="VerbosityLevel" modified="No">Default</Option>
    <Option name="VarTransform" modified="Yes">N</Option>
    <Option name="H" modified="Yes">True</Option>
    <Option name="CreateMVAPdfs" modified="No">False</Option>
    <Option name="IgnoreNegWeightsInTraining" modified="No">False</Option>
    <Option name="TrainingMethod" modified="No">BP</Option>
    <Option name="LearningRate" modified="No">2.000000e-02</Option>
    <Option name="DecayRate" modified="No">1.000000e-02</Option>
    <Option name="TestRate" modified="Yes">5</Option>
    <Option name="EpochMonitoring" modified="No">False</Option>
    <Option name="Sampling" modified="No">1.000000e+00</Option>
    <Option name="SamplingEpoch" modified="No">1.000000e+00</Option>
    <Option name="SamplingImportance" modified="No">1.000000e+00</Option>
    <Option name="SamplingTraining" modified="No">True</Option>
    <Option name="SamplingTesting" modified="No">False</Option>
    <Option name="ResetStep" modified="No">50</Option>
    <Option name="Tau" modified="No">3.000000e+00</Option>
    <Option name="BPMode" modified="No">sequential</Option>
    <Option name="BatchSize" modified="No">-1</Option>
    <Option name="ConvergenceImprove" modified="No">1.000000e-30</Option>
    <Option name="ConvergenceTests" modified="No">-1</Option>
    <Option name="UseRegulator" modified="Yes">False</Option>
    <Option name="UpdateLimit" modified="No">10000</Option>
    <Option name="CalculateErrors" modified="No">False</Option>
    <Option name="WeightRange" modified="No">1.000000e+00</Option>
  </Options>
  <Variables NVar="19">
    <Variable VarIndex="0" Expression="topMass" Label="topMass" Title="topMass" Unit="" Internal="topMass" Type="F" Min="0.00000000e+00" Max="3.46391577e+03"/>
    <Variable VarIndex="1" Expression="pTForwardJets" Label="pTForwardJets" Title="pTForwardJets" Unit="" Internal="pTForwardJets" Type="F" Min="0.00000000e+00" Max="7.49083618e+02"/>
    <Variable VarIndex="2" Expression="etaMostForward" Label="etaMostForward" Title="etaMostForward" Unit="" Internal="etaMostForward" Type="F" Min="1.29182696e-01" Max="5.08704376e+00"/>
    <Variable VarIndex="3" Expression="numberOfJets" Label="numberOfJets" Title="numberOfJets" Unit="" Internal="numberOfJets" Type="F" Min="4.00000000e+00" Max="1.50000000e+01"/>
    <Variable VarIndex="4" Expression="pTLeadingLepton" Label="pTLeadingLepton" Title="pTLeadingLepton" Unit="" Internal="pTLeadingLepton" Type="F" Min="2.50299168e+01" Max="1.00611121e+03"/>
    <Variable VarIndex="5" Expression="mNotSoForwardJets" Label="mNotSoForwardJets" Title="mNotSoForwardJets" Unit="" Internal="mNotSoForwardJets" Type="F" Min="0.00000000e+00" Max="7.66627002e+03"/>
    <Variable VarIndex="6" Expression="missingET" Label="missingET" Title="missingET" Unit="" Internal="missingET" Type="F" Min="8.77920091e-01" Max="1.07711572e+03"/>
    <Variable VarIndex="7" Expression="highestDeepCSV" Label="highestDeepCSV" Title="highestDeepCSV" Unit="" Internal="highestDeepCSV" Type="F" Min="6.32416248e-01" Max="9.99999940e-01"/>
    <Variable VarIndex="8" Expression="maxMjj" Label="maxMjj" Title="maxMjj" Unit="" Internal="maxMjj" Type="F" Min="0.00000000e+00" Max="6.59338477e+03"/>
    <Variable VarIndex="9" Expression="minMlb" Label="minMlb" Title="minMlb" Unit="" Internal="minMlb" Type="F" Min="-3.46298859e+02" Max="1.03501245e+03"/>
    <Variable VarIndex="10" Expression="asymmetryWlep" Label="asymmetryWlep" Title="asymmetryWlep" Unit="" Internal="asymmetryWlep" Type="F" Min="-2.49288988e+00" Max="2.49127817e+00"/>
    <Variable VarIndex="11" Expression="etaZ" Label="etaZ" Title="etaZ" Unit="" Internal="etaZ" Type="F" Min="4.39537295e-08" Max="6.82625818e+00"/>
    <Variable VarIndex="12" Expression="m3l" Label="m3l" Title="m3l" Unit="" Internal="m3l" Type="F" Min="1.59733038e+01" Max="1.71828882e+03"/>
    <Variable VarIndex="13" Expression="maxDeltaRjj" Label="maxDeltaRjj" Title="maxDeltaRjj" Unit="" Internal="maxDeltaRjj" Type="F" Min="9.21496212e-01" Max="1.00089331e+01"/>
    <Variable VarIndex="14" Expression="maxDeltaPhill" Label="maxDeltaPhill" Title="maxDeltaPhill" Unit="" Internal="maxDeltaPhill" Type="F" Min="8.59284401e-03" Max="3.14155602e+00"/>
    <Variable VarIndex="15" Expression="pTMaxlb" Label="pTMaxlb" Title="pTMaxlb" Unit="" Internal="pTMaxlb" Type="F" Min="1.24168682e+01" Max="1.33571582e+03"/>
    <Variable VarIndex="16" Expression="pT3l" Label="pT3l" Title="pT3l" Unit="" Internal="pT3l" Type="F" Min="3.34145248e-01" Max="1.27351782e+03"/>
    <Variable VarIndex="17" Expression="mForwardJetsLeadinBJetW" Label="mForwardJetsLeadinBJetW" Title="mForwardJetsLeadinBJetW" Unit="" Internal="mForwardJetsLeadinBJetW" Type="F" Min="0.00000000e+00" Max="7.32470264e+03"/>
    <Variable VarIndex="18" Expression="ht" Label="ht" Title="ht" Unit="" Internal="ht" Type="F" Min="1.02129440e+02" Max="2.81807153e+03"/>
  </Variables>
  <Spectators NSpec="0"/>
  <Classes NClass="2">
    <Class Name="Signal" Index="0"/>
    <Class Name="Background" Index="1"/>
  </Classes>
  <Transformations NTransformations="1">
    <Transform Name="Normalize">
      <Selection>
        <Input NInputs="19">
          <Input Type="Variable" Label="topMass" Expression="topMass"/>
          <Input Type="Variable" Label="pTForwardJets" Expression="pTForwardJets"/>
          <Input Type="Variable" Label="etaMostForward" Expression="etaMostForward"/>
          <Input Type="Variable" Label="numberOfJets" Expression="numberOfJets"/>
          <Input Type="Variable" Label="pTLeadingLepton" Expression="pTLeadingLepton"/>
          <Input Type="Variable" Label="mNotSoForwardJets" Expression="mNotSoForwardJets"/>
          <Input Type="Variable" Label="missingET" Expression="missingET"/>
          <Input Type="Variable" Label="highestDeepCSV" Expression="highestDeepCSV"/>
          <Input Type="Variable" Label="maxMjj" Expression="maxMjj"/>
          <Input Type="Variable" Label="minMlb" Expression="minMlb"/>
          <Input Type="Variable" Label="asymmetryWlep" Expression="asymmetryWlep"/>
          <Input Type="Variable" Label="etaZ" Expression="etaZ"/>
          <Input Type="Variable" Label="m3l" Expression="m3l"/>
          <Input Type="Variable" Label="maxDeltaRjj" Expression="maxDeltaRjj"/>
          <Input Type="Variable" Label="maxDeltaPhill" Expression="maxDeltaPhill"/>
          <Input Type="Variable" Label="pTMaxlb" Expression="pTMaxlb"/>
          <Input Type="Variable" Label="pT3l" Expression="pT3l"/>
          <Input Type="Variable" Label="mForwardJetsLeadinBJetW" Expression="mForwardJetsLeadinBJetW"/>
          <Input Type="Variable" Label="ht" Expression="ht"/>
        </Input>
        <Output NOutputs="19">
          <Output Type="Variable" Label="topMass" Expression="topMass"/>
          <Output Type="Variable" Label="pTForwardJets" Expression="pTForwardJets"/>
          <Output Type="Variable" Label="etaMostForward" Expression="etaMostForward"/>
          <Output Type="Variable" Label="numberOfJets" Expression="numberOfJets"/>
          <Output Type="Variable" Label="pTLeadingLepton" Expression="pTLeadingLepton"/>
          <Output Type="Variable" Label="mNotSoForwardJets" Expression="mNotSoForwardJets"/>
          <Output Type="Variable" Label="missingET" Expression="missingET"/>
          <Output Type="Variable" Label="highestDeepCSV" Expression="highestDeepCSV"/>
          <Output Type="Variable" Label="maxMjj" Expression="maxMjj"/>
          <Output Type="Variable" Label="minMlb" Expression="minMlb"/>
          <Output Type="Variable" Label="asymmetryWlep" Expression="asymmetryWlep"/>
          <Output Type="Variable" Label="etaZ" Expression="etaZ"/>
          <Output Type="Variable" Label="m3l" Expression="m3l"/>
          <Output Type="Variable" Label="maxDeltaRjj" Expression="maxDeltaRjj"/>
          <Output Type="Variable" Label="maxDeltaPhill" Expression="maxDeltaPhill"/>
          <Output Type="Variable" Label="pTMaxlb" Expression="pTMaxlb"/>
          <Output Type="Variable" Label="pT3l" Expression="pT3l"/>
          <Output Type="Variable" Label="mForwardJetsLeadinBJetW" Expression="mForwardJetsLeadinBJetW"/>
          <Output Type="Variable" Label="ht" Expression="ht"/>
        </Output>
      </Selection>
      <Class ClassIndex="0">
        <Ranges>
          <Range Index="0" Min="0.0000000000000000e+00" Max="3.4639157714843750e+03"/>
          <Range Index="1" Min="0.0000000000000000e+00" Max="5.3508203125000000e+02"/>
          <Range Index="2" Min="3.8610678911209106e-01" Max="5.0824832916259766e+00"/>
          <Range Index="3" Min="4.0000000000000000e+00" Max="1.3000000000000000e+01"/>
          <Range Index="4" Min="2.5029916763305664e+01" Max="9.5856365966796875e+02"/>
          <Range Index="5" Min="0.0000000000000000e+00" Max="7.0369213867187500e+03"/>
          <Range Index="6" Min="8.7792009115219116e-01" Max="7.1455737304687500e+02"/>
          <Range Index="7" Min="6.3245564699172974e-01" Max="9.9999994039535522e-01"/>
          <Range Index="8" Min="0.0000000000000000e+00" Max="6.5933847656250000e+03"/>
          <Range Index="9" Min="-2.2530012512207031e+02" Max="9.0361517333984375e+02"/>
          <Range Index="10" Min="-2.4928898811340332e+00" Max="2.4912781715393066e+00"/>
          <Range Index="11" Min="6.3615836552344263e-05" Max="5.9699587821960449e+00"/>
          <Range Index="12" Min="3.0820764541625977e+01" Max="1.5109134521484375e+03"/>
          <Range Index="13" Min="1.5240086317062378e+00" Max="1.0008933067321777e+01"/>
          <Range Index="14" Min="4.1966199874877930e-02" Max="3.1414682865142822e+00"/>
          <Range Index="15" Min="2.2177160263061523e+01" Max="8.9835986328125000e+02"/>
          <Range Index="16" Min="9.4957399368286133e-01" Max="9.1898370361328125e+02"/>
          <Range Index="17" Min="0.0000000000000000e+00" Max="7.2728295898437500e+03"/>
          <Range Index="18" Min="1.0513504791259766e+02" Max="2.5034631347656250e+03"/>
        </Ranges>
      </Class>
      <Class ClassIndex="1">
        <Ranges>
          <Range Index="0" Min="0.0000000000000000e+00" Max="2.1596396484375000e+03"/>
          <Range Index="1" Min="0.0000000000000000e+00" Max="7.4908361816406250e+02"/>
          <Range Index="2" Min="1.2918269634246826e-01" Max="5.0870437622070312e+00"/>
          <Range Index="3" Min="4.0000000000000000e+00" Max="1.5000000000000000e+01"/>
          <Range Index="4" Min="2.5046249389648438e+01" Max="1.0061112060546875e+03"/>
          <Range Index="5" Min="0.0000000000000000e+00" Max="7.6662700195312500e+03"/>
          <Range Index="6" Min="1.2596132755279541e+00" Max="1.0771157226562500e+03"/>
          <Range Index="7" Min="6.3241624832153320e-01" Max="9.9999988079071045e-01"/>
          <Range Index="8" Min="0.0000000000000000e+00" Max="5.1528427734375000e+03"/>
          <Range Index="9" Min="-3.4629885864257812e+02" Max="1.0350124511718750e+03"/>
          <Range Index="10" Min="-2.4870831966400146e+00" Max="2.4845275878906250e+00"/>
          <Range Index="11" Min="4.3953729544909947e-08" Max="6.8262581825256348e+00"/>
          <Range Index="12" Min="1.5973303794860840e+01" Max="1.7182888183593750e+03"/>
          <Range Index="13" Min="9.2149621248245239e-01" Max="9.6939811706542969e+00"/>
          <Range Index="14" Min="8.5928440093994141e-03" Max="3.1415560245513916e+00"/>
          <Range Index="15" Min="1.2416868209838867e+01" Max="1.3357158203125000e+03"/>
          <Range Index="16" Min="3.3414524793624878e-01" Max="1.2735178222656250e+03"/>
          <Range Index="17" Min="0.0000000000000000e+00" Max="7.3247026367187500e+03"/>
          <Range Index="18" Min="1.0212944030761719e+02" Max="2.8180715332031250e+03"/>
        </Ranges>
      </Class>
      <Class ClassIndex="2">
        <Ranges>
          <Range Index="0" Min="0.0000000000000000e+00" Max="3.4639157714843750e+03"/>
          <Range Index="1" Min="0.0000000000000000e+00" Max="7.4908361816406250e+02"/>
          <Range Index="2" Min="1.2918269634246826e-01" Max="5.0870437622070312e+00"/>
          <Range Index="3" Min="4.0000000000000000e+00" Max="1.5000000000000000e+01"/>
          <Range Index="4" Min="2.5029916763305664e+01" Max="1.0061112060546875e+03"/>
          <Range Index="5" Min="0.0000000000000000e+00" Max="7.6662700195312500e+03"/>
          <Range Index="6" Min="8.7792009115219116e-01" Max="1.0771157226562500e+03"/>
          <Range Index="7" Min="6.3241624832153320e-01" Max="9.9999994039535522e-01"/>
          <Range Index="8" Min="0.0000000000000000e+00" Max="6.5933847656250000e+03"/>
          <Range Index="9" Min="-3.4629885864257812e+02" Max="1.0350124511718750e+03"/>
          <Range Index="10" Min="-2.4928898811340332e+00" Max="2.4912781715393066e+00"/>
          <Range Index="11" Min="4.3953729544909947e-08" Max="6.8262581825256348e+00"/>
          <Range Index="12" Min="1.5973303794860840e+01" Max="1.7182888183593750e+03"/>
          <Range Index="13" Min="9.2149621248245239e-01" Max="1.0008933067321777e+01"/>
          <Range Index="14" Min="8.5928440093994141e-03" Max="3.1415560245513916e+00"/>
          <Range Index="15" Min="1.2416868209838867e+01" Max="1.3357158203125000e+03"/>
          <Range Index="16" Min="3.3414524793624878e-01" Max="1.2735178222656250e+03"/>
          <Range Index="17" Min="0.0000000000000000e+00" Max="7.3247026367187500e+03"/>
          <Range Index="18" Min="1.0212944030761719e+02" Max="2.8180715332031250e+03"/>
        </Ranges>
      </Class>
    </Transform>
  </Transformations>
  <MVAPdfs/>
  <Weights>
    <Layout NLayers="3">
      <Layer Index="0" NNeurons="20">
        <Neuron NSynapses="24">
          -3.4127219227204048e-01 1.8496818877243872e+00 8.0167597464186691e-01 1.7962702851304606e+00 -1.9218582016131471e+00 -1.4874407502134224e+00 -8.9526537463126532e-01 1.9827033413082684e+00 -1.4442900668456331e+00 -1.0703018147378993e+00 -1.5492260063368795e+00 -4.5405366552328563e-01 -1.4388061711260050e+00 -2.9733692306760595e-01 -6.5334749858915575e-01 3.7332380997898418e-01 -4.1271211520363771e-01 1.7324893316847738e+00 4.0059980352563901e-01 1.3531374228244857e+00 -2.4741887425133530e-01 -7.4509046354138453e-01 8.4658831365108256e-01 2.4983931259011150e-01 
        </Neuron>
        <Neuron NSynapses="24">
          -1.1744587735411198e+00 -3.4923620943080047e-01 1.5641481464917506e+00 -1.0028907841158299e+00 -1.8375997450144959e+00 1.3721182894107534e-01 5.3084943254273664e-01 1.6324608568250465e+00 -3.7730418288775924e-01 -1.8424973265282601e-01 3.5065180775632682e-01 -2.1678600507899962e-01 -1.6053905219704556e+00 1.8842237118968936e+00 -1.2380080564192417e+00 7.2183177209620430e-01 1.1983506726165294e+00 8.3638644103316995e-01 2.1042272585313819e+00 1.1790487629304518e+00 -7.0482862715005024e-01 -1.6296554096956468e+00 9.2993518456507640e-01 2.3574699495169263e-01 
        </Neuron>
        <Neuron NSynapses="24">
          1.5053562122950446e+00 1.6004963070234635e+00 1.6872071375606059e+00 1.2967162649115969e+00 -1.6924836679726336e+00 1.3184725870324097e+00 -1.8231131799004490e+00 -9.1378043377048479e-01 -1.3330050779439755e+00 -1.7364295430396253e+00 1.4949476478551023e+00 6.6839830866898764e-01 -1.5314480606882275e+00 2.8446925024037578e-01 -2.9863607884164917e-01 6.0600239654741039e-01 1.8320244911909558e+00 -3.8064749302467127e-01 1.8787661314523052e-01 -1.1163214272193385e+00 8.0018480784883028e-01 -8.4269728951321565e-01 -8.8865201951701478e-01 -1.3292450017975119e+00 
        </Neuron>
        <Neuron NSynapses="24">
          7.3814766640279605e-01 1.1161784152523431e+00 1.0619888412316860e+00 -5.7181982716395807e-01 -1.8944814425643430e+00 -1.8634620188263076e+00 8.9075973917803619e-01 4.6737876493201275e-01 1.9131930650189004e+00 5.7684429242147939e-01 9.7215697037590065e-01 -7.1125298853627850e-01 -1.0589798244366142e+00 7.5627204114160004e-02 1.1849664336238581e+00 -1.3725543991861875e+00 -1.5888516001481543e+00 -1.7029271358305789e+00 6.9239853727820100e-02 -2.0810770793204850e-01 2.1076696397650303e+00 -1.6180763112070149e+00 -1.1596003940483572e+00 1.6257030368544667e+00 
        </Neuron>
        <Neuron NSynapses="24">
          -8.5478126601901527e-01 -1.5916297784675453e+00 -1.6181869692853237e+00 4.8192464807114289e-02 -1.8515651958155699e+00 -1.6654788998026486e+00 6.1323316960532681e-01 1.6457117848007468e+00 -1.1705134636510026e+00 1.6208002053141923e+00 -8.8893602910828806e-01 -8.4803174502821044e-01 -2.0861215729764310e-01 4.6858931029398804e-01 -1.8130770624255117e+00 -3.4728010471704415e-02 3.0142165434973117e-01 4.4081156693865398e-01 -1.1727894473889620e+00 1.7870542142426034e+00 3.4825492037237898e-01 -9.4924604560340087e-01 7.4787211086819805e-01 -9.2118168650660304e-01 
        </Neuron>
        <Neuron NSynapses="24">
          -1.5982459911090361e+00 8.5166867991251269e-02 -2.4625142570068784e-01 1.9051267828748191e+00 8.1851999557231836e-01 -2.8027435788733977e-02 -4.8051041903342001e-01 1.3651227878148176e-01 -1.8173786369135922e+00 1.0718591018696797e+00 3.8483882087613036e-01 -1.8171952104217657e+00 4.5340898684754422e-01 -1.3740853660935188e+00 2.1689182711720833e-02 7.9071886602241004e-01 1.7746680984704772e+00 -1.8942606428597009e+00 6.3823647193487931e-01 1.5519665751459779e+00 1.4054384869895802e+00 1.6241107787684367e-01 -1.2955135256804295e+00 -2.7972003343512252e-03 
        </Neuron>
        <Neuron NSynapses="24">
          -1.4503763836546006e+00 1.4621220056108351e+00 1.1095754162852727e+00 -5.0133688188063585e-01 -3.3470776684821946e-01 1.5344084992183096e-01 -1.4429699045419770e+00 6.1472067409138531e-01 1.6787531491677943e+00 -5.7962735180241431e-01 -5.9760913802395388e-01 2.7736288943926551e-01 8.0088377852508708e-01 7.5355791410004314e-01 8.8704287230510037e-01 -1.7824264311997347e+00 1.5336300787925226e+00 7.4794512544945146e-01 7.0906638420313106e-01 5.2547872923915551e-01 1.1780668270364261e+00 -5.7812752851516924e-01 -6.5877772081487840e-01 1.1739447942823624e+00 
        </Neuron>
        <Neuron NSynapses="24">
          -9.0704067074948891e-01 -5.8840483315376124e-01 1.5900998982171795e+00 1.0421257656731329e+00 -3.7186879028579939e-01 1.5253057520985300e+00 1.9233303388082912e+00 -1.9664406603327000e+00 7.6389774399585630e-01 -2.7373687773603474e-02 8.9330754663830045e-02 -1.6951553257252607e+00 -1.3029067222446411e+00 9.6205345935660247e-01 1.8234722842187352e+00 -1.3977634244737247e+00 -1.9963964739303713e-01 -5.3336828081458398e-01 1.0027213123737541e-01 1.8217459150457949e+00 -1.2596683166517300e-01 -4.8601271006716035e-01 -7.5668539162684745e-01 9.3231098647546085e-01 
        </Neuron>
        <Neuron NSynapses="24">
          1.6041433000001937e+00 1.0430749327671454e+00 3.3452752699169652e-01 -7.5420264361246792e-01 -1.9520656682528601e+00 1.0907056246742293e+00 3.4785524944450746e-01 -1.4110124804400179e+00 -7.2791487472000849e-01 3.1532165316107580e-01 2.9304056848062515e-01 -1.9581389658494590e+00 1.3605072589799452e+00 9.4496737665828301e-01 -6.0038586461050980e-01 -4.7013783956085747e-01 1.6303829030433048e+00 1.0384803593821224e+00 7.5853977815849238e-01 -1.3923664403455310e-01 -1.9837624342379352e+00 -9.2446163198763831e-01 1.7018819868479220e+00 1.4986627182883072e+00 
        </Neuron>
        <Neuron NSynapses="24">
          7.5999100726585656e-01 1.5417386889892015e-01 1.9201966765367691e+00 -1.7291708615070960e+00 -1.2789537859115554e+00 -1.1011444173232718e-01 -1.4624505087731079e+00 9.6671555024576361e-01 1.7003114156215760e+00 -1.2417201771211794e+00 8.1176490290139669e-01 -1.4338897235309778e-01 -1.7908263713461017e+00 -9.9923340835178565e-01 1.0097640020313046e+00 -8.0410379148032118e-02 1.0147599412551096e+00 -1.1601334495545264e+00 1.7641564103697831e+00 -1.8012453379803901e+00 8.1971957009081564e-01 7.5458713263349603e-02 -1.4925835700461880e+00 -1.2375716337279461e+00 
        </Neuron>
        <Neuron NSynapses="24">
          -1.9153815516159809e+00 -3.5025092994902790e-01 -1.7805798284425480e+00 -1.5254965360914259e+00 -1.9120646064085336e+00 3.9242120409770105e-02 -1.0501548190099665e+00 -1.5885702717433690e+00 1.3764077623850850e+00 -8.4715434560400649e-01 2.0278600353579976e-01 -1.0231479199288964e+00 2.3767850901454274e-01 1.7184272009585673e+00 1.3639497480347369e+00 -8.7276136884968336e-01 -1.5039778375511577e+00 -1.0764505021450932e+00 -8.7384920514951814e-01 -1.5713329383062564e+00 1.3757898539472599e-01 2.7703309084302807e-01 1.9667949159542888e+00 -2.1778971480483431e-01 
        </Neuron>
        <Neuron NSynapses="24">
          2.3004500432540981e-01 -6.1939532873238379e-01 -1.8455947514991198e+00 1.4072153242621384e+00 1.2878893221577175e+00 -8.4114896565112107e-01 -1.1990355743913532e+00 8.4570107982647325e-01 1.2049584122616117e+00 4.4457651293903655e-01 -3.6658484090857790e-01 -3.0624786901763368e-01 1.2407998503051663e+00 9.7421697467994472e-01 9.6000408941555948e-01 -6.1958101272237887e-01 2.2678953566348048e-01 -3.0234728884664092e-01 -1.1806836028022345e+00 -5.7133813270259393e-01 -1.5955139532197324e+00 -1.3855026508380581e+00 -1.1883446792304451e+00 1.9100521710694618e+00 
        </Neuron>
        <Neuron NSynapses="24">
          -1.8252367231153364e+00 1.6243047234958448e+00 -1.7616809224945487e+00 1.0380317330895992e+00 -1.0342315369321198e+00 4.6520220587678923e-01 7.2170124744747144e-01 -1.8796588155584975e+00 2.2031952564410001e-01 5.8809316101279052e-01 -1.9409847647232172e+00 -1.4867989107524004e+00 -1.8580273877388065e+00 -6.9210969750296814e-01 1.8536759557252431e+00 -8.5391553329359304e-01 2.7355167034840372e-01 -9.1662848798524976e-01 -9.2705840444291499e-01 -1.7436349631089252e+00 -7.4597654763801680e-01 -1.3914565191607231e+00 7.7857949727172571e-01 -1.2162994058342151e+00 
        </Neuron>
        <Neuron NSynapses="24">
          -1.2230302898427952e+00 1.8536079504314928e+00 5.4692647218211310e-01 -3.7964616526263056e-01 1.8754334498603771e+00 -1.7999062738509561e+00 1.3422280462550138e+00 9.5562580163755539e-01 -1.0511394721399696e+00 -7.7308547028045738e-01 1.2638745841043195e-01 -1.2070560828211967e+00 4.3519663961354654e-01 1.8111195678194363e+00 1.3018957137513509e+00 1.3880471010877233e+00 -1.3726829897877613e+00 1.0211981938638699e+00 -1.7906253701081283e+00 6.9466433072584444e-01 -1.9115089896838364e+00 -1.8414611873044091e+00 1.1702150305601623e-01 1.3976541547118899e+00 
        </Neuron>
        <Neuron NSynapses="24">
          4.2933468957079673e-01 1.1081325222252512e+00 4.0138247348076161e-01 -1.4513384259117368e-01 -8.0111608445181104e-01 1.2737394149780168e-01 1.8743233085118411e+00 -1.5840431867249822e+00 3.8840459376631803e-01 -1.4135849305099746e+00 -5.1715956278682318e-01 7.7123941604443191e-02 2.9385216924746155e-01 -1.1822948353620613e+00 1.0071270984157681e+00 1.6272685202605193e+00 6.8055959695247203e-01 -1.9537395265438992e-01 -8.6321860927709648e-01 -1.4833841434198798e+00 -9.2785980837040860e-01 1.0637487816805682e+00 -7.7086723040483018e-01 -1.1791177234104837e+00 
        </Neuron>
        <Neuron NSynapses="24">
          5.1236327028556794e-01 -1.8087643013764922e+00 -1.2569775788956137e+00 -1.6133151953910010e+00 1.0757140408812635e+00 -1.3512335530965656e+00 -1.7894356287190849e+00 -5.8908958943664858e-01 -9.7937827813522849e-01 -1.6337501988939476e+00 1.2741800899482842e+00 -1.4670909810783368e+00 -1.3699008421780239e+00 1.8327014374972641e+00 5.3375230557624487e-01 2.0392754068216480e-02 1.0168465361431678e-01 1.3537241490097685e+00 1.9224531405451546e+00 4.8447330780227277e-01 -9.7159248879409821e-01 -6.9737474242171860e-01 -1.6582878044339868e+00 1.0940590780133068e+00 
        </Neuron>
        <Neuron NSynapses="24">
          9.3342308537469298e-01 1.0049194603807930e-02 9.5411415715684156e-01 9.0571331324110127e-01 1.7081654889539284e+00 -1.3384011082017448e+00 1.6482836124174192e+00 7.3150121824859882e-01 -1.9734081831861585e+00 -3.1080287935256790e-01 -9.8619600748312430e-01 8.6838097738302822e-01 2.9808576077535964e-01 1.1571488193734529e+00 1.7642269331588680e+00 -6.7530932910778674e-01 1.8035194317889780e+00 1.6942809195167368e+00 4.2822278842591954e-01 -1.2166480086942595e+00 1.5732093749283920e+00 -1.9642443255807842e+00 5.7962813026077586e-01 1.8470354646852440e+00 
        </Neuron>
        <Neuron NSynapses="24">
          -4.4564869528563261e-01 -8.6994812761973539e-01 -6.0225913041104411e-02 -1.3281089069263348e+00 4.5305337704646093e-01 -1.9036806777640862e+00 7.8743551406956644e-02 -2.0951967140134531e-01 1.6246405014994190e+00 1.2229784703191604e+00 1.7478173419303440e+00 -5.6316891032176075e-01 -5.6575351800453988e-01 5.4038437559202346e-01 1.8112855406622110e+00 -2.1951558439786742e+00 -1.3063825808311886e+00 -6.0022719757107124e-01 -1.2316311695420252e+00 -1.7143312322958479e+00 -1.2066734850978615e+00 7.7096610561396040e-01 -1.2265969882111379e-01 -1.7848681244179820e+00 
        </Neuron>
        <Neuron NSynapses="24">
          -1.9169832055799869e+00 -2.4854871976860010e-01 1.6140469261550878e+00 1.7127029605632629e+00 1.3622262416555639e+00 -6.6336529130257504e-01 -1.9677437925498116e+00 -1.2109463999911188e-01 -1.3420581518843060e+00 -1.6124517496805428e+00 -6.5519671693576531e-01 2.7338637542845157e-02 -1.5897615480090297e+00 1.8039174729630436e+00 1.2328068215230752e+00 -7.6740481357246551e-02 -6.2332907428100881e-01 -8.7113148468623169e-01 1.9100090398243057e+00 -6.3787038757069148e-01 5.3812201155904094e-01 1.5844565327907885e+00 1.3187973297215034e+00 -9.5147321658659734e-01 
        </Neuron>
        <Neuron NSynapses="24">
          1.3942278317311660e+00 -1.7561012468088464e+00 1.6815299741763312e+00 1.7507708817652010e+00 -2.5635021262877700e-01 -2.7969273746971868e-01 3.4893460185460629e-01 -5.8398174361950195e-01 1.2186116810174368e+00 3.1925136606464610e-01 -9.9825986951628554e-01 -1.4600373789623473e+00 2.4927374043559020e-01 1.6863381213014672e+00 4.3337534771101061e-01 -3.0437974116949962e-01 -1.9383307748261411e+00 1.8315475007396760e+00 1.8224522288636653e-02 -1.1052712070521162e+00 -1.9534686490073519e-01 -1.0067455236499425e+00 9.9859175596080674e-01 1.2449287125109654e+00 
        </Neuron>
      </Layer>
      <Layer Index="1" NNeurons="25">
        <Neuron NSynapses="1">
          -8.6576976168786213e-01 
        </Neuron>
        <Neuron NSynapses="1">
          -1.1024753279565627e+00 
        </Neuron>
        <Neuron NSynapses="1">
          6.7904306524813995e-01 
        </Neuron>
        <Neuron NSynapses="1">
          9.2733042001752986e-01 
        </Neuron>
        <Neuron NSynapses="1">
          4.5363227389092819e-01 
        </Neuron>
        <Neuron NSynapses="1">
          1.3411428537928710e-02 
        </Neuron>
        <Neuron NSynapses="1">
          -1.2047743879339721e+00 
        </Neuron>
        <Neuron NSynapses="1">
          -1.0904746328044712e+00 
        </Neuron>
        <Neuron NSynapses="1">
          9.2382186212846407e-01 
        </Neuron>
        <Neuron NSynapses="1">
          -6.3273454467002166e-02 
        </Neuron>
        <Neuron NSynapses="1">
          8.7400471946219760e-01 
        </Neuron>
        <Neuron NSynapses="1">
          -1.8069617212568292e+00 
        </Neuron>
        <Neuron NSynapses="1">
          -1.7352677869882760e+00 
        </Neuron>
        <Neuron NSynapses="1">
          -1.8308616261340100e+00 
        </Neuron>
        <Neuron NSynapses="1">
          -3.9723634691903320e-01 
        </Neuron>
        <Neuron NSynapses="1">
          -1.3441959056923589e+00 
        </Neuron>
        <Neuron NSynapses="1">
          8.7505104535617972e-01 
        </Neuron>
        <Neuron NSynapses="1">
          2.3873864454596871e-01 
        </Neuron>
        <Neuron NSynapses="1">
          1.5044163187619954e+00 
        </Neuron>
        <Neuron NSynapses="1">
          4.0712733937090018e-01 
        </Neuron>
        <Neuron NSynapses="1">
          -2.3707106554239465e+00 
        </Neuron>
        <Neuron NSynapses="1">
          1.3143461804554881e+00 
        </Neuron>
        <Neuron NSynapses="1">
          1.4561935122542862e+00 
        </Neuron>
        <Neuron NSynapses="1">
          1.0103907135173940e+00 
        </Neuron>
        <Neuron NSynapses="1">
          -6.4963140753686432e-01 
        </Neuron>
      </Layer>
      <Layer Index="2" NNeurons="1">
        <Neuron NSynapses="0"/>
      </Layer>
    </Layout>
  </Weights>
</MethodSetup>
