<?xml version="1.0"?>
<MethodSetup Method="MLP::MLP">
  <GeneralInfo>
    <Info name="TMVA Release" value="4.2.1 [262657]"/>
    <Info name="ROOT Release" value="6.08/07 [395271]"/>
    <Info name="Creator" value="wverbeke"/>
    <Info name="Date" value="Fri Nov 17 00:08:02 2017"/>
    <Info name="Host" value="Linux vocms0302.cern.ch 2.6.32-696.1.1.el6.x86_64 #1 SMP Wed Apr 12 08:44:28 CEST 2017 x86_64 x86_64 x86_64 GNU/Linux"/>
    <Info name="Dir" value="/storage_mnt/storage/user/wverbeke/Work/AnalysisCode/ewkino/bdtTraining"/>
    <Info name="Training events" value="63505"/>
    <Info name="TrainingTime" value="3.70573500e+02"/>
    <Info name="AnalysisType" value="Classification"/>
  </GeneralInfo>
  <Options>
    <Option name="NCycles" modified="Yes">600</Option>
    <Option name="HiddenLayers" modified="Yes">N+5</Option>
    <Option name="NeuronType" modified="Yes">tanh</Option>
    <Option name="RandomSeed" modified="No">1</Option>
    <Option name="EstimatorType" modified="No">CE</Option>
    <Option name="NeuronInputType" modified="No">sum</Option>
    <Option name="V" modified="Yes">False</Option>
    <Option name="VerbosityLevel" modified="No">Default</Option>
    <Option name="VarTransform" modified="Yes">N</Option>
    <Option name="H" modified="Yes">True</Option>
    <Option name="CreateMVAPdfs" modified="No">False</Option>
    <Option name="IgnoreNegWeightsInTraining" modified="No">False</Option>
    <Option name="TrainingMethod" modified="No">BP</Option>
    <Option name="LearningRate" modified="No">2.000000e-02</Option>
    <Option name="DecayRate" modified="No">1.000000e-02</Option>
    <Option name="TestRate" modified="Yes">5</Option>
    <Option name="EpochMonitoring" modified="No">False</Option>
    <Option name="Sampling" modified="No">1.000000e+00</Option>
    <Option name="SamplingEpoch" modified="No">1.000000e+00</Option>
    <Option name="SamplingImportance" modified="No">1.000000e+00</Option>
    <Option name="SamplingTraining" modified="No">True</Option>
    <Option name="SamplingTesting" modified="No">False</Option>
    <Option name="ResetStep" modified="No">50</Option>
    <Option name="Tau" modified="No">3.000000e+00</Option>
    <Option name="BPMode" modified="No">sequential</Option>
    <Option name="BatchSize" modified="No">-1</Option>
    <Option name="ConvergenceImprove" modified="No">1.000000e-30</Option>
    <Option name="ConvergenceTests" modified="No">-1</Option>
    <Option name="UseRegulator" modified="Yes">False</Option>
    <Option name="UpdateLimit" modified="No">10000</Option>
    <Option name="CalculateErrors" modified="No">False</Option>
    <Option name="WeightRange" modified="No">1.000000e+00</Option>
  </Options>
  <Variables NVar="10">
    <Variable VarIndex="0" Expression="topMass" Label="topMass" Title="topMass" Unit="" Internal="topMass" Type="F" Min="-1.44631592e+02" Max="3.47205688e+03"/>
    <Variable VarIndex="1" Expression="pTForwardJets" Label="pTForwardJets" Title="pTForwardJets" Unit="" Internal="pTForwardJets" Type="F" Min="0.00000000e+00" Max="6.73745239e+02"/>
    <Variable VarIndex="2" Expression="etaLeading" Label="etaLeading" Title="etaLeading" Unit="" Internal="etaLeading" Type="F" Min="1.50946080e-05" Max="5.02865553e+00"/>
    <Variable VarIndex="3" Expression="etaMostForward" Label="etaMostForward" Title="etaMostForward" Unit="" Internal="etaMostForward" Type="F" Min="2.21789733e-01" Max="5.08577156e+00"/>
    <Variable VarIndex="4" Expression="pTLeadingLepton" Label="pTLeadingLepton" Title="pTLeadingLepton" Unit="" Internal="pTLeadingLepton" Type="F" Min="2.50299168e+01" Max="1.10716992e+03"/>
    <Variable VarIndex="5" Expression="pTLeadingJet" Label="pTLeadingJet" Title="pTLeadingJet" Unit="" Internal="pTLeadingJet" Type="F" Min="2.80178127e+01" Max="1.89955347e+03"/>
    <Variable VarIndex="6" Expression="pTLeadingBJet" Label="pTLeadingBJet" Title="pTLeadingBJet" Unit="" Internal="pTLeadingBJet" Type="F" Min="2.55373421e+01" Max="1.47124316e+03"/>
    <Variable VarIndex="7" Expression="missingET" Label="missingET" Title="missingET" Unit="" Internal="missingET" Type="F" Min="3.09173644e-01" Max="1.07711572e+03"/>
    <Variable VarIndex="8" Expression="pTTrailingLepton" Label="pTTrailingLepton" Title="pTTrailingLepton" Unit="" Internal="pTTrailingLepton" Type="F" Min="1.50017414e+01" Max="4.60266388e+02"/>
    <Variable VarIndex="9" Expression="highestDeepCSV" Label="highestDeepCSV" Title="highestDeepCSV" Unit="" Internal="highestDeepCSV" Type="F" Min="6.32416248e-01" Max="9.99999940e-01"/>
  </Variables>
  <Spectators NSpec="0"/>
  <Classes NClass="2">
    <Class Name="Signal" Index="0"/>
    <Class Name="Background" Index="1"/>
  </Classes>
  <Transformations NTransformations="1">
    <Transform Name="Normalize">
      <Selection>
        <Input NInputs="10">
          <Input Type="Variable" Label="topMass" Expression="topMass"/>
          <Input Type="Variable" Label="pTForwardJets" Expression="pTForwardJets"/>
          <Input Type="Variable" Label="etaLeading" Expression="etaLeading"/>
          <Input Type="Variable" Label="etaMostForward" Expression="etaMostForward"/>
          <Input Type="Variable" Label="pTLeadingLepton" Expression="pTLeadingLepton"/>
          <Input Type="Variable" Label="pTLeadingJet" Expression="pTLeadingJet"/>
          <Input Type="Variable" Label="pTLeadingBJet" Expression="pTLeadingBJet"/>
          <Input Type="Variable" Label="missingET" Expression="missingET"/>
          <Input Type="Variable" Label="pTTrailingLepton" Expression="pTTrailingLepton"/>
          <Input Type="Variable" Label="highestDeepCSV" Expression="highestDeepCSV"/>
        </Input>
        <Output NOutputs="10">
          <Output Type="Variable" Label="topMass" Expression="topMass"/>
          <Output Type="Variable" Label="pTForwardJets" Expression="pTForwardJets"/>
          <Output Type="Variable" Label="etaLeading" Expression="etaLeading"/>
          <Output Type="Variable" Label="etaMostForward" Expression="etaMostForward"/>
          <Output Type="Variable" Label="pTLeadingLepton" Expression="pTLeadingLepton"/>
          <Output Type="Variable" Label="pTLeadingJet" Expression="pTLeadingJet"/>
          <Output Type="Variable" Label="pTLeadingBJet" Expression="pTLeadingBJet"/>
          <Output Type="Variable" Label="missingET" Expression="missingET"/>
          <Output Type="Variable" Label="pTTrailingLepton" Expression="pTTrailingLepton"/>
          <Output Type="Variable" Label="highestDeepCSV" Expression="highestDeepCSV"/>
        </Output>
      </Selection>
      <Class ClassIndex="0">
        <Ranges>
          <Range Index="0" Min="7.8702316284179688e+01" Max="3.4676721191406250e+03"/>
          <Range Index="1" Min="0.0000000000000000e+00" Max="5.3508203125000000e+02"/>
          <Range Index="2" Min="8.4856088506057858e-05" Max="5.0286555290222168e+00"/>
          <Range Index="3" Min="4.2224106192588806e-01" Max="5.0857715606689453e+00"/>
          <Range Index="4" Min="2.5029916763305664e+01" Max="1.1071699218750000e+03"/>
          <Range Index="5" Min="2.9717447280883789e+01" Max="1.8995534667968750e+03"/>
          <Range Index="6" Min="2.5537885665893555e+01" Max="8.1961877441406250e+02"/>
          <Range Index="7" Min="8.7792009115219116e-01" Max="7.1390576171875000e+02"/>
          <Range Index="8" Min="1.5001741409301758e+01" Max="2.0602983093261719e+02"/>
          <Range Index="9" Min="6.3245564699172974e-01" Max="9.9999994039535522e-01"/>
        </Ranges>
      </Class>
      <Class ClassIndex="1">
        <Ranges>
          <Range Index="0" Min="-1.4463159179687500e+02" Max="3.4720568847656250e+03"/>
          <Range Index="1" Min="0.0000000000000000e+00" Max="6.7374523925781250e+02"/>
          <Range Index="2" Min="1.5094607988430653e-05" Max="4.9976997375488281e+00"/>
          <Range Index="3" Min="2.2178973257541656e-01" Max="5.0846657752990723e+00"/>
          <Range Index="4" Min="2.5046249389648438e+01" Max="1.0241379394531250e+03"/>
          <Range Index="5" Min="2.8017812728881836e+01" Max="1.6879935302734375e+03"/>
          <Range Index="6" Min="2.5537342071533203e+01" Max="1.4712431640625000e+03"/>
          <Range Index="7" Min="3.0917364358901978e-01" Max="1.0771157226562500e+03"/>
          <Range Index="8" Min="1.5007122039794922e+01" Max="4.6026638793945312e+02"/>
          <Range Index="9" Min="6.3241624832153320e-01" Max="9.9999994039535522e-01"/>
        </Ranges>
      </Class>
      <Class ClassIndex="2">
        <Ranges>
          <Range Index="0" Min="-1.4463159179687500e+02" Max="3.4720568847656250e+03"/>
          <Range Index="1" Min="0.0000000000000000e+00" Max="6.7374523925781250e+02"/>
          <Range Index="2" Min="1.5094607988430653e-05" Max="5.0286555290222168e+00"/>
          <Range Index="3" Min="2.2178973257541656e-01" Max="5.0857715606689453e+00"/>
          <Range Index="4" Min="2.5029916763305664e+01" Max="1.1071699218750000e+03"/>
          <Range Index="5" Min="2.8017812728881836e+01" Max="1.8995534667968750e+03"/>
          <Range Index="6" Min="2.5537342071533203e+01" Max="1.4712431640625000e+03"/>
          <Range Index="7" Min="3.0917364358901978e-01" Max="1.0771157226562500e+03"/>
          <Range Index="8" Min="1.5001741409301758e+01" Max="4.6026638793945312e+02"/>
          <Range Index="9" Min="6.3241624832153320e-01" Max="9.9999994039535522e-01"/>
        </Ranges>
      </Class>
    </Transform>
  </Transformations>
  <MVAPdfs/>
  <Weights>
    <Layout NLayers="3">
      <Layer Index="0" NNeurons="11">
        <Neuron NSynapses="15">
          -4.0060386596612479e-01 1.8582655841156737e+00 9.8572300089641729e-01 1.7204624168187717e+00 -1.9624534198682224e+00 -1.2429769701522262e+00 -7.9947969734179780e-01 1.9799689198820214e+00 -1.4122507550073047e+00 -8.3909825687256778e-01 -1.7062016480460696e+00 -1.8774591024381485e-01 -1.1840484802127265e+00 -3.4456928798837233e-01 -6.3608767376311370e-01 
        </Neuron>
        <Neuron NSynapses="15">
          5.7768791494007710e-01 -5.9322326209363130e-01 1.9536890074547506e+00 1.4284255782488273e-01 1.4026693845968374e+00 1.1327970755635897e-01 -7.4610985125895701e-01 6.9008824457121976e-01 1.1152264489548563e-01 -7.6256618472913995e-01 -4.3087405217647312e-01 1.8405200432216862e+00 -1.0228500802025617e+00 -1.7267057039600573e+00 5.5488455126553121e-02 
        </Neuron>
        <Neuron NSynapses="15">
          5.9386603784394998e-01 1.5287430074595845e+00 -1.1661281682364648e-02 -2.0106233902974613e-01 1.7833391594521361e-01 3.3980341676834236e-01 -1.4251325567361635e+00 1.6818270139681413e+00 -1.1970708306082372e+00 1.4524823930830499e+00 1.0271837233579497e+00 1.1268000100468856e+00 1.8695294909615638e+00 1.3512804977614636e+00 -8.1481510326975326e-01 
        </Neuron>
        <Neuron NSynapses="15">
          -1.6675102417856498e+00 7.1272309445911342e-01 2.3846080492735441e-01 1.5242932995760530e+00 1.4344330928778155e+00 1.6884438009689839e+00 1.3281700875085487e+00 -1.7222286760863033e+00 1.3247118006781133e+00 -1.5502199253759454e+00 -8.6549345171143044e-01 -1.3013329994155691e+00 -1.8069216130685219e+00 1.6015893878523411e+00 6.4155626928199816e-01 
        </Neuron>
        <Neuron NSynapses="15">
          -1.6752422680121477e+00 2.3192469462109908e-01 -3.6912686250829824e-01 6.8315418051657051e-01 1.8898114290117374e+00 -3.8351885204627872e-01 1.1857740460171808e-01 -1.2100167359124623e+00 7.7395725391559733e-01 -7.7159724797207663e-01 -8.3534512964149132e-01 -1.2283660594513612e+00 8.5504385616386924e-01 1.1816914406957757e+00 1.2775241438060208e+00 
        </Neuron>
        <Neuron NSynapses="15">
          -4.2350230432273944e-01 -2.0722360727742677e+00 -1.8594286626886565e+00 9.9595654435968983e-01 5.4903912902052654e-01 2.0633534519402228e+00 6.2831474043337754e-01 9.8880347367545496e-01 -8.0769890486739082e-01 -7.2198603048629983e-01 -2.9614453116755818e-01 1.3849060308010062e+00 -1.0097561357515232e+00 -1.5083544912452065e+00 -1.6940368102732348e+00 
        </Neuron>
        <Neuron NSynapses="15">
          -2.8396965347366154e-01 -2.7091146596437854e-01 1.5940479764086293e+00 -1.6139355022302897e+00 -7.6680081987437176e-01 1.5519297062028101e+00 -8.6633944365927806e-01 -1.5201229819735975e+00 -1.4854445648930450e+00 1.7892913198170698e-01 -1.9741577344767756e+00 -1.4561285482668154e+00 8.3191147884269967e-01 1.7331893503577205e+00 -1.1354895311895270e+00 
        </Neuron>
        <Neuron NSynapses="15">
          1.5623331746596016e+00 -1.0923291971711888e+00 -7.5902980320149094e-01 -4.6522174858516660e-02 3.8752013060434998e-01 -1.5935111213451831e+00 2.5330076084617065e-01 2.8102792987770092e-01 4.6192561657771869e-01 -1.1318042972189510e+00 1.6391235750224276e+00 6.1056196590404921e-01 -8.5753385198622845e-01 8.6738212307008700e-01 -1.0935698802531237e+00 
        </Neuron>
        <Neuron NSynapses="15">
          -1.6680028376750893e+00 -2.7143313279342673e-02 -3.8156706649122474e-01 1.7975507303279199e+00 8.4128605618859054e-01 -5.2092586847265643e-02 -3.5840514552450392e-01 1.5819577521817715e-01 -1.7900512734931369e+00 1.1762151282762596e+00 -4.1552558235883726e-02 -1.5670857797049631e+00 7.6931149160468359e-01 -1.3868429129100075e+00 -1.4566327183433071e-02 
        </Neuron>
        <Neuron NSynapses="15">
          1.0979110108844403e+00 1.6824812761884897e+00 -1.6701514219221814e+00 3.3842745644038924e-01 1.4713052867031235e+00 1.5597897144977637e+00 1.7648796507012524e-01 -1.5280620096409208e+00 -2.1179558936319984e-01 -1.6568660908629131e+00 1.4785573482851813e+00 1.1722033716897988e+00 -5.7111409036153871e-01 -3.4711602450070611e-01 1.3248352558108215e-01 
        </Neuron>
        <Neuron NSynapses="15">
          -1.2467663878291342e+00 7.9256069606909285e-01 1.6831040073760797e+00 -5.4514964685473521e-01 -6.7008188410228542e-01 1.4127395303964296e-01 1.0167303526353071e+00 5.6348851134861899e-01 8.9068002638560106e-01 -1.7162170968517303e+00 1.7779138470991702e+00 4.5144320176185454e-01 3.8529721486795460e-01 4.9666861497057324e-01 1.0855625664981399e+00 
        </Neuron>
      </Layer>
      <Layer Index="1" NNeurons="16">
        <Neuron NSynapses="1">
          7.9220990100766372e-02 
        </Neuron>
        <Neuron NSynapses="1">
          -1.1908002618745681e-01 
        </Neuron>
        <Neuron NSynapses="1">
          9.2343256141649599e-01 
        </Neuron>
        <Neuron NSynapses="1">
          -7.0203377940216383e-01 
        </Neuron>
        <Neuron NSynapses="1">
          -1.5230719337173115e-01 
        </Neuron>
        <Neuron NSynapses="1">
          1.7336791414981187e+00 
        </Neuron>
        <Neuron NSynapses="1">
          7.7891258854379941e-01 
        </Neuron>
        <Neuron NSynapses="1">
          -1.1073893156753799e-01 
        </Neuron>
        <Neuron NSynapses="1">
          1.3116484355985951e+00 
        </Neuron>
        <Neuron NSynapses="1">
          1.0805739512742569e+00 
        </Neuron>
        <Neuron NSynapses="1">
          -2.0289157908493669e+00 
        </Neuron>
        <Neuron NSynapses="1">
          9.1146967725170802e-01 
        </Neuron>
        <Neuron NSynapses="1">
          -2.4685773183881510e-01 
        </Neuron>
        <Neuron NSynapses="1">
          4.1677461912007191e-01 
        </Neuron>
        <Neuron NSynapses="1">
          -1.8783344100137480e+00 
        </Neuron>
        <Neuron NSynapses="1">
          -1.7644645136645809e+00 
        </Neuron>
      </Layer>
      <Layer Index="2" NNeurons="1">
        <Neuron NSynapses="0"/>
      </Layer>
    </Layout>
  </Weights>
</MethodSetup>
