<?xml version="1.0"?>
<MethodSetup Method="MLP::MLP">
  <GeneralInfo>
    <Info name="TMVA Release" value="4.2.1 [262657]"/>
    <Info name="ROOT Release" value="6.08/07 [395271]"/>
    <Info name="Creator" value="wverbeke"/>
    <Info name="Date" value="Tue Dec  5 02:08:47 2017"/>
    <Info name="Host" value="Linux vocms0302.cern.ch 2.6.32-696.1.1.el6.x86_64 #1 SMP Wed Apr 12 08:44:28 CEST 2017 x86_64 x86_64 x86_64 GNU/Linux"/>
    <Info name="Dir" value="/storage_mnt/storage/user/wverbeke/Work/AnalysisCode/ewkino/bdtTraining/bdtTrainingsubmit"/>
    <Info name="Training events" value="6423"/>
    <Info name="TrainingTime" value="5.70000610e+01"/>
    <Info name="AnalysisType" value="Classification"/>
  </GeneralInfo>
  <Options>
    <Option name="NCycles" modified="Yes">600</Option>
    <Option name="HiddenLayers" modified="Yes">N+5</Option>
    <Option name="NeuronType" modified="Yes">tanh</Option>
    <Option name="RandomSeed" modified="No">1</Option>
    <Option name="EstimatorType" modified="No">CE</Option>
    <Option name="NeuronInputType" modified="No">sum</Option>
    <Option name="V" modified="Yes">False</Option>
    <Option name="VerbosityLevel" modified="No">Default</Option>
    <Option name="VarTransform" modified="Yes">N</Option>
    <Option name="H" modified="Yes">True</Option>
    <Option name="CreateMVAPdfs" modified="No">False</Option>
    <Option name="IgnoreNegWeightsInTraining" modified="No">False</Option>
    <Option name="TrainingMethod" modified="No">BP</Option>
    <Option name="LearningRate" modified="No">2.000000e-02</Option>
    <Option name="DecayRate" modified="No">1.000000e-02</Option>
    <Option name="TestRate" modified="Yes">5</Option>
    <Option name="EpochMonitoring" modified="No">False</Option>
    <Option name="Sampling" modified="No">1.000000e+00</Option>
    <Option name="SamplingEpoch" modified="No">1.000000e+00</Option>
    <Option name="SamplingImportance" modified="No">1.000000e+00</Option>
    <Option name="SamplingTraining" modified="No">True</Option>
    <Option name="SamplingTesting" modified="No">False</Option>
    <Option name="ResetStep" modified="No">50</Option>
    <Option name="Tau" modified="No">3.000000e+00</Option>
    <Option name="BPMode" modified="No">sequential</Option>
    <Option name="BatchSize" modified="No">-1</Option>
    <Option name="ConvergenceImprove" modified="No">1.000000e-30</Option>
    <Option name="ConvergenceTests" modified="No">-1</Option>
    <Option name="UseRegulator" modified="Yes">False</Option>
    <Option name="UpdateLimit" modified="No">10000</Option>
    <Option name="CalculateErrors" modified="No">False</Option>
    <Option name="WeightRange" modified="No">1.000000e+00</Option>
  </Options>
  <Variables NVar="15">
    <Variable VarIndex="0" Expression="topMass" Label="topMass" Title="topMass" Unit="" Internal="topMass" Type="F" Min="0.00000000e+00" Max="1.94356555e+03"/>
    <Variable VarIndex="1" Expression="etaMostForward" Label="etaMostForward" Title="etaMostForward" Unit="" Internal="etaMostForward" Type="F" Min="2.04481315e-04" Max="2.75211215e+00"/>
    <Variable VarIndex="2" Expression="pTLeadingJet" Label="pTLeadingJet" Title="pTLeadingJet" Unit="" Internal="pTLeadingJet" Type="F" Min="2.50070133e+01" Max="9.14649109e+02"/>
    <Variable VarIndex="3" Expression="pTLeadingLepton" Label="pTLeadingLepton" Title="pTLeadingLepton" Unit="" Internal="pTLeadingLepton" Type="F" Min="2.51116409e+01" Max="9.04014832e+02"/>
    <Variable VarIndex="4" Expression="mNotSoForwardJets" Label="mNotSoForwardJets" Title="mNotSoForwardJets" Unit="" Internal="mNotSoForwardJets" Type="F" Min="0.00000000e+00" Max="2.95411652e+02"/>
    <Variable VarIndex="5" Expression="missingET" Label="missingET" Title="missingET" Unit="" Internal="missingET" Type="F" Min="4.80668336e-01" Max="4.88814789e+02"/>
    <Variable VarIndex="6" Expression="highestDeepCSV" Label="highestDeepCSV" Title="highestDeepCSV" Unit="" Internal="highestDeepCSV" Type="F" Min="6.32599592e-01" Max="9.99998748e-01"/>
    <Variable VarIndex="7" Expression="minMlb" Label="minMlb" Title="minMlb" Unit="" Internal="minMlb" Type="F" Min="-2.76358429e+02" Max="8.22276733e+02"/>
    <Variable VarIndex="8" Expression="etaZ" Label="etaZ" Title="etaZ" Unit="" Internal="etaZ" Type="F" Min="6.07080583e-05" Max="7.83874226e+00"/>
    <Variable VarIndex="9" Expression="m3l" Label="m3l" Title="m3l" Unit="" Internal="m3l" Type="F" Min="1.57242317e+01" Max="1.98644385e+03"/>
    <Variable VarIndex="10" Expression="maxDeltaPhill" Label="maxDeltaPhill" Title="maxDeltaPhill" Unit="" Internal="maxDeltaPhill" Type="F" Min="2.49407291e-02" Max="3.14147997e+00"/>
    <Variable VarIndex="11" Expression="pTMaxlb" Label="pTMaxlb" Title="pTMaxlb" Unit="" Internal="pTMaxlb" Type="F" Min="1.89849243e+01" Max="8.99639771e+02"/>
    <Variable VarIndex="12" Expression="pT3l" Label="pT3l" Title="pT3l" Unit="" Internal="pT3l" Type="F" Min="5.21555066e-01" Max="8.33644531e+02"/>
    <Variable VarIndex="13" Expression="mForwardJetsLeadinBJetW" Label="mForwardJetsLeadinBJetW" Title="mForwardJetsLeadinBJetW" Unit="" Internal="mForwardJetsLeadinBJetW" Type="F" Min="0.00000000e+00" Max="1.94356555e+03"/>
    <Variable VarIndex="14" Expression="ht" Label="ht" Title="ht" Unit="" Internal="ht" Type="F" Min="2.50070133e+01" Max="9.14649109e+02"/>
  </Variables>
  <Spectators NSpec="0"/>
  <Classes NClass="2">
    <Class Name="Signal" Index="0"/>
    <Class Name="Background" Index="1"/>
  </Classes>
  <Transformations NTransformations="1">
    <Transform Name="Normalize">
      <Selection>
        <Input NInputs="15">
          <Input Type="Variable" Label="topMass" Expression="topMass"/>
          <Input Type="Variable" Label="etaMostForward" Expression="etaMostForward"/>
          <Input Type="Variable" Label="pTLeadingJet" Expression="pTLeadingJet"/>
          <Input Type="Variable" Label="pTLeadingLepton" Expression="pTLeadingLepton"/>
          <Input Type="Variable" Label="mNotSoForwardJets" Expression="mNotSoForwardJets"/>
          <Input Type="Variable" Label="missingET" Expression="missingET"/>
          <Input Type="Variable" Label="highestDeepCSV" Expression="highestDeepCSV"/>
          <Input Type="Variable" Label="minMlb" Expression="minMlb"/>
          <Input Type="Variable" Label="etaZ" Expression="etaZ"/>
          <Input Type="Variable" Label="m3l" Expression="m3l"/>
          <Input Type="Variable" Label="maxDeltaPhill" Expression="maxDeltaPhill"/>
          <Input Type="Variable" Label="pTMaxlb" Expression="pTMaxlb"/>
          <Input Type="Variable" Label="pT3l" Expression="pT3l"/>
          <Input Type="Variable" Label="mForwardJetsLeadinBJetW" Expression="mForwardJetsLeadinBJetW"/>
          <Input Type="Variable" Label="ht" Expression="ht"/>
        </Input>
        <Output NOutputs="15">
          <Output Type="Variable" Label="topMass" Expression="topMass"/>
          <Output Type="Variable" Label="etaMostForward" Expression="etaMostForward"/>
          <Output Type="Variable" Label="pTLeadingJet" Expression="pTLeadingJet"/>
          <Output Type="Variable" Label="pTLeadingLepton" Expression="pTLeadingLepton"/>
          <Output Type="Variable" Label="mNotSoForwardJets" Expression="mNotSoForwardJets"/>
          <Output Type="Variable" Label="missingET" Expression="missingET"/>
          <Output Type="Variable" Label="highestDeepCSV" Expression="highestDeepCSV"/>
          <Output Type="Variable" Label="minMlb" Expression="minMlb"/>
          <Output Type="Variable" Label="etaZ" Expression="etaZ"/>
          <Output Type="Variable" Label="m3l" Expression="m3l"/>
          <Output Type="Variable" Label="maxDeltaPhill" Expression="maxDeltaPhill"/>
          <Output Type="Variable" Label="pTMaxlb" Expression="pTMaxlb"/>
          <Output Type="Variable" Label="pT3l" Expression="pT3l"/>
          <Output Type="Variable" Label="mForwardJetsLeadinBJetW" Expression="mForwardJetsLeadinBJetW"/>
          <Output Type="Variable" Label="ht" Expression="ht"/>
        </Output>
      </Selection>
      <Class ClassIndex="0">
        <Ranges>
          <Range Index="0" Min="9.4647819519042969e+01" Max="1.7542631835937500e+03"/>
          <Range Index="1" Min="6.6365464590489864e-04" Max="2.6528210639953613e+00"/>
          <Range Index="2" Min="2.5029060363769531e+01" Max="8.4051641845703125e+02"/>
          <Range Index="3" Min="2.5562446594238281e+01" Max="6.4438989257812500e+02"/>
          <Range Index="4" Min="0.0000000000000000e+00" Max="2.6201147460937500e+02"/>
          <Range Index="5" Min="2.0222196578979492e+00" Max="4.6242691040039062e+02"/>
          <Range Index="6" Min="6.3292264938354492e-01" Max="9.9999868869781494e-01"/>
          <Range Index="7" Min="-2.1753265380859375e+02" Max="4.6589364624023438e+02"/>
          <Range Index="8" Min="6.0708058299496770e-05" Max="5.2725610733032227e+00"/>
          <Range Index="9" Min="5.2116802215576172e+01" Max="1.1461545410156250e+03"/>
          <Range Index="10" Min="4.3584614992141724e-02" Max="3.1409258842468262e+00"/>
          <Range Index="11" Min="3.5235424041748047e+01" Max="8.0350360107421875e+02"/>
          <Range Index="12" Min="1.5975372791290283e+00" Max="5.0354785156250000e+02"/>
          <Range Index="13" Min="0.0000000000000000e+00" Max="1.7542631835937500e+03"/>
          <Range Index="14" Min="2.5029060363769531e+01" Max="8.4051641845703125e+02"/>
        </Ranges>
      </Class>
      <Class ClassIndex="1">
        <Ranges>
          <Range Index="0" Min="0.0000000000000000e+00" Max="1.9435655517578125e+03"/>
          <Range Index="1" Min="2.0448131544981152e-04" Max="2.7521121501922607e+00"/>
          <Range Index="2" Min="2.5007013320922852e+01" Max="9.1464910888671875e+02"/>
          <Range Index="3" Min="2.5111640930175781e+01" Max="9.0401483154296875e+02"/>
          <Range Index="4" Min="0.0000000000000000e+00" Max="2.9541165161132812e+02"/>
          <Range Index="5" Min="4.8066833615303040e-01" Max="4.8881478881835938e+02"/>
          <Range Index="6" Min="6.3259959220886230e-01" Max="9.9999874830245972e-01"/>
          <Range Index="7" Min="-2.7635842895507812e+02" Max="8.2227673339843750e+02"/>
          <Range Index="8" Min="2.8213979676365852e-03" Max="7.8387422561645508e+00"/>
          <Range Index="9" Min="1.5724231719970703e+01" Max="1.9864438476562500e+03"/>
          <Range Index="10" Min="2.4940729141235352e-02" Max="3.1414799690246582e+00"/>
          <Range Index="11" Min="1.8984924316406250e+01" Max="8.9963977050781250e+02"/>
          <Range Index="12" Min="5.2155506610870361e-01" Max="8.3364453125000000e+02"/>
          <Range Index="13" Min="0.0000000000000000e+00" Max="1.9435655517578125e+03"/>
          <Range Index="14" Min="2.5007013320922852e+01" Max="9.1464910888671875e+02"/>
        </Ranges>
      </Class>
      <Class ClassIndex="2">
        <Ranges>
          <Range Index="0" Min="0.0000000000000000e+00" Max="1.9435655517578125e+03"/>
          <Range Index="1" Min="2.0448131544981152e-04" Max="2.7521121501922607e+00"/>
          <Range Index="2" Min="2.5007013320922852e+01" Max="9.1464910888671875e+02"/>
          <Range Index="3" Min="2.5111640930175781e+01" Max="9.0401483154296875e+02"/>
          <Range Index="4" Min="0.0000000000000000e+00" Max="2.9541165161132812e+02"/>
          <Range Index="5" Min="4.8066833615303040e-01" Max="4.8881478881835938e+02"/>
          <Range Index="6" Min="6.3259959220886230e-01" Max="9.9999874830245972e-01"/>
          <Range Index="7" Min="-2.7635842895507812e+02" Max="8.2227673339843750e+02"/>
          <Range Index="8" Min="6.0708058299496770e-05" Max="7.8387422561645508e+00"/>
          <Range Index="9" Min="1.5724231719970703e+01" Max="1.9864438476562500e+03"/>
          <Range Index="10" Min="2.4940729141235352e-02" Max="3.1414799690246582e+00"/>
          <Range Index="11" Min="1.8984924316406250e+01" Max="8.9963977050781250e+02"/>
          <Range Index="12" Min="5.2155506610870361e-01" Max="8.3364453125000000e+02"/>
          <Range Index="13" Min="0.0000000000000000e+00" Max="1.9435655517578125e+03"/>
          <Range Index="14" Min="2.5007013320922852e+01" Max="9.1464910888671875e+02"/>
        </Ranges>
      </Class>
    </Transform>
  </Transformations>
  <MVAPdfs/>
  <Weights>
    <Layout NLayers="3">
      <Layer Index="0" NNeurons="16">
        <Neuron NSynapses="20">
          -3.5059917150868863e-01 1.9876761331824724e+00 8.8467005598604054e-01 1.7160447016541578e+00 -1.9980991547714102e+00 -1.4853278645706236e+00 -4.9908237109821163e-01 1.9859410148125709e+00 -1.5252606204842170e+00 -1.0062266428525535e+00 -1.6270539314165349e+00 -3.9220618323365147e-01 -1.2591793178071218e+00 -5.1517616093010099e-01 -6.2970022773519130e-01 6.8513744477846317e-01 -4.1287819465716108e-01 1.8651102061050724e+00 1.5524246236455669e-01 1.3845089808674125e+00 
        </Neuron>
        <Neuron NSynapses="20">
          -1.6923339246736385e-01 -7.4598373047333777e-01 7.5053841553425937e-01 1.2905877342405048e-01 -1.1831738385029462e+00 -2.2863850505991487e-01 1.3942262021755616e+00 -1.0863041344040023e+00 -1.8109213730023439e+00 9.6923693684452750e-02 6.8283070389722800e-01 1.6355682065532142e+00 -3.2926118776292690e-01 -1.0789503437241224e-01 2.5298178446899150e-01 -2.7916081171762325e-01 -1.4384833672642878e+00 1.6773875917803047e+00 -1.2065980454472280e+00 1.1128767642304485e+00 
        </Neuron>
        <Neuron NSynapses="20">
          1.1617954773605430e+00 8.6564013280836749e-01 1.8739234463911087e+00 1.1876436648192477e+00 -7.4459308421007286e-01 -1.6288790174219261e+00 1.1068413697484922e+00 6.1946332533639001e-02 1.3686088907666571e+00 1.5277618815845897e+00 1.5755032847444577e+00 1.3437084435032234e+00 -1.6646195765289813e+00 1.2361505363894301e+00 -1.8626767145978724e+00 -9.0372952374023541e-01 -1.3206282970911662e+00 -1.5987209080232814e+00 1.5124441685514436e+00 6.8258770333836760e-01 
        </Neuron>
        <Neuron NSynapses="20">
          -1.6512253515472559e+00 3.7356288890018025e-01 -3.1508130334377610e-01 6.5160748056068640e-01 1.8346912652244838e+00 -3.4107041091038182e-01 4.6246401446150603e-01 -1.2112699803045015e+00 6.1341756974580997e-01 -7.7356422037807104e-01 -7.6290688432149634e-01 -1.4000302847691564e+00 7.4021816555059661e-01 1.0339940822555826e+00 1.3212896130498648e+00 -3.3578612065009272e-01 -1.9268087059810359e+00 -1.7000528062694658e+00 1.0003488066133777e+00 4.9479829482636417e-01 
        </Neuron>
        <Neuron NSynapses="20">
          1.9140653412050426e+00 6.4343196853240736e-01 9.9358223935784340e-01 -8.3275462175398840e-01 -8.7629025616018252e-01 -1.9460649763569107e-01 1.4628163753121874e+00 -1.1111918144254853e+00 -1.6998228992026059e+00 -1.6520176160973081e+00 -2.3802546936582908e-01 -9.3533659220484233e-02 1.6305841295413765e+00 -1.7312347559876391e+00 -8.4396445449644542e-01 1.6329935010491026e+00 -8.4886037726753694e-01 -1.3599755241654836e+00 -1.4791813773838833e+00 9.7461749887676863e-02 
        </Neuron>
        <Neuron NSynapses="20">
          -1.9761443513749182e+00 -1.6647625791391114e+00 7.1664193957410838e-01 1.6356850779010357e+00 -1.1518846736713819e+00 1.6419909732446831e+00 -6.1942065225794019e-01 -8.2276308032856116e-01 -1.5709092885383466e-01 3.9533367511091883e-01 -1.7804589907249588e+00 2.8444575728805266e-01 2.9009723695422873e-01 3.8037287426963717e-01 -1.4274724248696029e+00 1.8337490283464977e+00 3.5728242784015474e-01 -8.1830249663795507e-01 7.9892556711581642e-01 -1.0776808975084786e+00 
        </Neuron>
        <Neuron NSynapses="20">
          -1.6702710314373916e+00 1.3232496275320094e-01 -3.4282642737739982e-01 1.8110493352689825e+00 7.7789454414923442e-01 -2.8669375161802339e-02 -3.6206706619527290e-01 1.6753582736443412e-01 -1.7089214614169770e+00 1.0823633615085917e+00 1.5194701464404839e-01 -1.7976840095386595e+00 6.5671735529083841e-01 -1.5032974157885353e+00 5.0347689982105620e-02 1.1697613244025113e+00 1.7784288030798294e+00 -1.9220973093968496e+00 3.4625067361197776e-01 1.5296640177360621e+00 
        </Neuron>
        <Neuron NSynapses="20">
          1.5802836715040753e+00 1.6381660356349190e-01 -1.4505111165362239e+00 -2.1427811529624702e-01 -1.4428718314086495e+00 1.5657663235254069e+00 1.3493106340888974e+00 -4.9135822075763819e-01 -4.4673191704132764e-01 1.7670506280626086e-01 -1.3390509725264892e+00 6.2179202368117092e-01 1.7100155387372047e+00 -5.9241089596590812e-01 -6.1757893280659704e-01 2.8314510194349868e-01 1.0032588342922673e+00 6.1509629850273939e-01 9.0423076066411645e-01 -1.4947581074009479e+00 
        </Neuron>
        <Neuron NSynapses="20">
          1.4574417896195548e+00 7.6127674345892293e-01 4.9037264931490349e-01 5.2975803866229332e-01 1.0076441802887179e+00 -5.6575889136390956e-01 -3.5883096945048537e-01 1.0652405730528114e+00 -1.0364887527978408e+00 -5.0617010448079269e-01 1.5498844019926707e+00 1.0310763200629285e+00 -2.9452022574002101e-01 1.4273000320936748e+00 1.8419450024070882e+00 -1.9313163380189633e+00 6.5382949628519504e-01 1.3122544136976164e-01 4.8662553786460161e-01 -1.7069058170282463e+00 
        </Neuron>
        <Neuron NSynapses="20">
          -1.6007108487540476e+00 1.1484206149238674e+00 1.7971817527203398e+00 -1.7856779166824595e+00 -1.9659534786889041e-01 -5.6288227205457364e-01 6.3459985857883261e-01 1.7714714106588836e+00 -5.2947295114743931e-01 -4.1100138786733637e-01 -1.0799571640865204e+00 1.0804937234247267e+00 1.6080964434916698e+00 9.7557653626567686e-01 2.7762179811465659e-01 -7.7418469900232745e-01 -1.9884681901418118e+00 1.2585254063619498e+00 4.6837237415632083e-01 -1.3898057502895731e+00 
        </Neuron>
        <Neuron NSynapses="20">
          -6.6283250397119953e-01 3.1272442606450912e-01 1.1024643007704293e-01 -1.9573899088495958e+00 1.5452505791381790e+00 8.4116543928211951e-01 -7.7625008189198252e-01 -1.0707330305533427e-01 1.6942346117251601e+00 1.0247289593073687e+00 4.9411940934587167e-01 -1.4985312569669587e-01 -1.9403973769596095e+00 -8.8279394719972049e-01 1.7339087242276041e+00 1.3342397862484077e+00 7.6356277017730378e-01 9.0050225093686015e-02 1.9897442973513351e+00 -1.7190041709599289e+00 
        </Neuron>
        <Neuron NSynapses="20">
          -1.3435187059277829e+00 -1.0839932991094371e-01 -1.4495563376693501e+00 9.5435449171223030e-01 1.7322595241869507e+00 -1.2328019150762450e+00 1.0910310737496420e+00 -1.5331147213827193e-01 -1.8519019648120087e+00 -1.0207612884826072e+00 1.0199495497179105e+00 5.7083045742726359e-02 1.0107687220702950e+00 -1.2382134400320621e+00 1.6774794077954434e+00 -1.7996052152082318e+00 8.4613368642423459e-01 2.1771053045130090e-01 -1.5030117845088971e+00 -1.3108441405161049e+00 
        </Neuron>
        <Neuron NSynapses="20">
          -1.9572341336660495e+00 -4.1364392933575012e-01 -1.8952699781244715e+00 -1.5998097643186300e+00 -1.8848052142924252e+00 4.5701392572629160e-02 -7.0784972086668174e-01 -1.5942016522620062e+00 1.2981028394937753e+00 -7.8361460184146059e-01 1.3844093994183324e-01 -1.0432243811662596e+00 2.0650203137244860e-01 1.7897307980219266e+00 1.3505419272312147e+00 -8.7984038175232837e-01 -1.5032685541679240e+00 -9.1748432646301659e-01 -8.8346962979469446e-01 -1.6346673024151313e+00 
        </Neuron>
        <Neuron NSynapses="20">
          3.2525382767568323e-01 2.7919557929299849e-01 1.8818507406770846e+00 -3.4222260634413831e-01 2.4557543555138597e-01 -5.2592779271210066e-01 -1.6374099531702058e+00 1.2417573212229756e+00 1.0933943608410155e+00 -7.9308246695261597e-01 -1.0648373796380419e+00 8.9035477067248003e-01 1.2242906287363986e+00 3.8588679867395670e-01 -4.6000581649182110e-01 -2.8621125755374438e-01 1.4542191732503751e+00 1.1281150239402300e+00 9.8850540169012291e-01 -2.8948744279702165e-01 
        </Neuron>
        <Neuron NSynapses="20">
          1.8377816116057785e-01 -2.8471227257578530e-01 -1.4533019323233931e+00 -5.7576854999644222e-01 -1.7586190433963869e+00 -1.3867283223587523e+00 -1.1770752936299853e+00 1.7380974433243048e+00 -1.9587401945941083e+00 1.7333203930131247e+00 -1.5729468775172668e+00 1.1549546514184699e+00 -1.1019590500447303e+00 3.8305284891416269e-01 8.3306008572241819e-01 -1.8519316904463383e+00 2.3891792954467464e-01 7.8160139001148576e-01 -1.9499019205210819e+00 -1.4804460102483064e+00 
        </Neuron>
        <Neuron NSynapses="20">
          -1.6526952666211745e+00 -8.2386910447091777e-01 1.8693365434683911e+00 -5.0478947211600433e-01 2.6799786864081959e-01 -9.2086204255333814e-01 -1.5691201827237167e+00 -1.7051203389879708e+00 -7.9699422135785469e-01 -1.4776913474064153e+00 1.0107069559651722e+00 -1.3888928424133147e+00 -1.2106019079756314e+00 1.8862357584064839e+00 3.4733340965125287e-01 -5.4054470865554072e-01 1.8799994189323921e+00 -1.9969140657640603e+00 1.3876628638398791e+00 9.6570177460680506e-01 
        </Neuron>
      </Layer>
      <Layer Index="1" NNeurons="21">
        <Neuron NSynapses="1">
          -1.1638579748905253e+00 
        </Neuron>
        <Neuron NSynapses="1">
          -3.8709108430917671e-01 
        </Neuron>
        <Neuron NSynapses="1">
          -2.1561799207171187e-01 
        </Neuron>
        <Neuron NSynapses="1">
          -8.4755538049157930e-01 
        </Neuron>
        <Neuron NSynapses="1">
          1.3605687677289557e-01 
        </Neuron>
        <Neuron NSynapses="1">
          1.5373157646536346e+00 
        </Neuron>
        <Neuron NSynapses="1">
          1.4083414177094327e+00 
        </Neuron>
        <Neuron NSynapses="1">
          1.9803634181715717e+00 
        </Neuron>
        <Neuron NSynapses="1">
          -1.6266965952394323e+00 
        </Neuron>
        <Neuron NSynapses="1">
          7.1894098604400902e-01 
        </Neuron>
        <Neuron NSynapses="1">
          -2.3171156786756808e+00 
        </Neuron>
        <Neuron NSynapses="1">
          9.9595844295112057e-01 
        </Neuron>
        <Neuron NSynapses="1">
          -1.3077986793647949e+00 
        </Neuron>
        <Neuron NSynapses="1">
          -1.4956195138667656e+00 
        </Neuron>
        <Neuron NSynapses="1">
          -6.6797679645088218e-02 
        </Neuron>
        <Neuron NSynapses="1">
          8.7097861135757138e-01 
        </Neuron>
        <Neuron NSynapses="1">
          1.0825219603813274e-02 
        </Neuron>
        <Neuron NSynapses="1">
          7.7777752073097406e-01 
        </Neuron>
        <Neuron NSynapses="1">
          -6.4393302807189967e-02 
        </Neuron>
        <Neuron NSynapses="1">
          -5.9190633679723326e-01 
        </Neuron>
        <Neuron NSynapses="1">
          -1.1456448534322865e+00 
        </Neuron>
      </Layer>
      <Layer Index="2" NNeurons="1">
        <Neuron NSynapses="0"/>
      </Layer>
    </Layout>
  </Weights>
</MethodSetup>
