<?xml version="1.0"?>
<MethodSetup Method="MLP::MLP">
  <GeneralInfo>
    <Info name="TMVA Release" value="4.2.1 [262657]"/>
    <Info name="ROOT Release" value="6.08/07 [395271]"/>
    <Info name="Creator" value="wverbeke"/>
    <Info name="Date" value="Sat Nov 18 15:53:13 2017"/>
    <Info name="Host" value="Linux vocms0302.cern.ch 2.6.32-696.1.1.el6.x86_64 #1 SMP Wed Apr 12 08:44:28 CEST 2017 x86_64 x86_64 x86_64 GNU/Linux"/>
    <Info name="Dir" value="/storage_mnt/storage/user/wverbeke/Work/AnalysisCode/ewkino/bdtTraining"/>
    <Info name="Training events" value="7100"/>
    <Info name="TrainingTime" value="2.85928359e+01"/>
    <Info name="AnalysisType" value="Classification"/>
  </GeneralInfo>
  <Options>
    <Option name="NCycles" modified="Yes">600</Option>
    <Option name="HiddenLayers" modified="Yes">N+5</Option>
    <Option name="NeuronType" modified="Yes">tanh</Option>
    <Option name="RandomSeed" modified="No">1</Option>
    <Option name="EstimatorType" modified="No">CE</Option>
    <Option name="NeuronInputType" modified="No">sum</Option>
    <Option name="V" modified="Yes">False</Option>
    <Option name="VerbosityLevel" modified="No">Default</Option>
    <Option name="VarTransform" modified="Yes">N</Option>
    <Option name="H" modified="Yes">True</Option>
    <Option name="CreateMVAPdfs" modified="No">False</Option>
    <Option name="IgnoreNegWeightsInTraining" modified="No">False</Option>
    <Option name="TrainingMethod" modified="No">BP</Option>
    <Option name="LearningRate" modified="No">2.000000e-02</Option>
    <Option name="DecayRate" modified="No">1.000000e-02</Option>
    <Option name="TestRate" modified="Yes">5</Option>
    <Option name="EpochMonitoring" modified="No">False</Option>
    <Option name="Sampling" modified="No">1.000000e+00</Option>
    <Option name="SamplingEpoch" modified="No">1.000000e+00</Option>
    <Option name="SamplingImportance" modified="No">1.000000e+00</Option>
    <Option name="SamplingTraining" modified="No">True</Option>
    <Option name="SamplingTesting" modified="No">False</Option>
    <Option name="ResetStep" modified="No">50</Option>
    <Option name="Tau" modified="No">3.000000e+00</Option>
    <Option name="BPMode" modified="No">sequential</Option>
    <Option name="BatchSize" modified="No">-1</Option>
    <Option name="ConvergenceImprove" modified="No">1.000000e-30</Option>
    <Option name="ConvergenceTests" modified="No">-1</Option>
    <Option name="UseRegulator" modified="Yes">False</Option>
    <Option name="UpdateLimit" modified="No">10000</Option>
    <Option name="CalculateErrors" modified="No">False</Option>
    <Option name="WeightRange" modified="No">1.000000e+00</Option>
  </Options>
  <Variables NVar="7">
    <Variable VarIndex="0" Expression="topMass" Label="topMass" Title="topMass" Unit="" Internal="topMass" Type="F" Min="5.51730576e+01" Max="2.04064551e+03"/>
    <Variable VarIndex="1" Expression="etaMostForward" Label="etaMostForward" Title="etaMostForward" Unit="" Internal="etaMostForward" Type="F" Min="6.49616122e-05" Max="2.39992023e+00"/>
    <Variable VarIndex="2" Expression="pTLeadingLepton" Label="pTLeadingLepton" Title="pTLeadingLepton" Unit="" Internal="pTLeadingLepton" Type="F" Min="2.56046982e+01" Max="6.67207397e+02"/>
    <Variable VarIndex="3" Expression="highestDeepCSV" Label="highestDeepCSV" Title="highestDeepCSV" Unit="" Internal="highestDeepCSV" Type="F" Min="6.32525384e-01" Max="9.99999583e-01"/>
    <Variable VarIndex="4" Expression="maxMlb" Label="maxMlb" Title="maxMlb" Unit="" Internal="maxMlb" Type="F" Min="0.00000000e+00" Max="1.54103357e+03"/>
    <Variable VarIndex="5" Expression="minDeltaPhilb" Label="minDeltaPhilb" Title="minDeltaPhilb" Unit="" Internal="minDeltaPhilb" Type="F" Min="1.07049942e-04" Max="2.96563029e+00"/>
    <Variable VarIndex="6" Expression="mNotSoForwardJets" Label="mNotSoForwardJets" Title="mNotSoForwardJets" Unit="" Internal="mNotSoForwardJets" Type="F" Min="-1.85529602e+02" Max="4.05674957e+02"/>
  </Variables>
  <Spectators NSpec="0"/>
  <Classes NClass="2">
    <Class Name="Signal" Index="0"/>
    <Class Name="Background" Index="1"/>
  </Classes>
  <Transformations NTransformations="1">
    <Transform Name="Normalize">
      <Selection>
        <Input NInputs="7">
          <Input Type="Variable" Label="topMass" Expression="topMass"/>
          <Input Type="Variable" Label="etaMostForward" Expression="etaMostForward"/>
          <Input Type="Variable" Label="pTLeadingLepton" Expression="pTLeadingLepton"/>
          <Input Type="Variable" Label="highestDeepCSV" Expression="highestDeepCSV"/>
          <Input Type="Variable" Label="maxMlb" Expression="maxMlb"/>
          <Input Type="Variable" Label="minDeltaPhilb" Expression="minDeltaPhilb"/>
          <Input Type="Variable" Label="mNotSoForwardJets" Expression="mNotSoForwardJets"/>
        </Input>
        <Output NOutputs="7">
          <Output Type="Variable" Label="topMass" Expression="topMass"/>
          <Output Type="Variable" Label="etaMostForward" Expression="etaMostForward"/>
          <Output Type="Variable" Label="pTLeadingLepton" Expression="pTLeadingLepton"/>
          <Output Type="Variable" Label="highestDeepCSV" Expression="highestDeepCSV"/>
          <Output Type="Variable" Label="maxMlb" Expression="maxMlb"/>
          <Output Type="Variable" Label="minDeltaPhilb" Expression="minDeltaPhilb"/>
          <Output Type="Variable" Label="mNotSoForwardJets" Expression="mNotSoForwardJets"/>
        </Output>
      </Selection>
      <Class ClassIndex="0">
        <Ranges>
          <Range Index="0" Min="8.4452453613281250e+01" Max="1.7903197021484375e+03"/>
          <Range Index="1" Min="6.4961612224578857e-05" Max="2.3999202251434326e+00"/>
          <Range Index="2" Min="2.5953056335449219e+01" Max="4.9199887084960938e+02"/>
          <Range Index="3" Min="6.3261330127716064e-01" Max="9.9999958276748657e-01"/>
          <Range Index="4" Min="5.2434780120849609e+01" Max="1.5401154785156250e+03"/>
          <Range Index="5" Min="1.0704994201660156e-04" Max="2.9656302928924561e+00"/>
          <Range Index="6" Min="-1.2620723724365234e+02" Max="4.0567495727539062e+02"/>
        </Ranges>
      </Class>
      <Class ClassIndex="1">
        <Ranges>
          <Range Index="0" Min="5.5173057556152344e+01" Max="2.0406455078125000e+03"/>
          <Range Index="1" Min="1.9508792320266366e-03" Max="2.3972473144531250e+00"/>
          <Range Index="2" Min="2.5604698181152344e+01" Max="6.6720739746093750e+02"/>
          <Range Index="3" Min="6.3252538442611694e-01" Max="9.9999958276748657e-01"/>
          <Range Index="4" Min="0.0000000000000000e+00" Max="1.5410335693359375e+03"/>
          <Range Index="5" Min="4.2110681533813477e-04" Max="2.9075648784637451e+00"/>
          <Range Index="6" Min="-1.8552960205078125e+02" Max="1.6736274719238281e+02"/>
        </Ranges>
      </Class>
      <Class ClassIndex="2">
        <Ranges>
          <Range Index="0" Min="5.5173057556152344e+01" Max="2.0406455078125000e+03"/>
          <Range Index="1" Min="6.4961612224578857e-05" Max="2.3999202251434326e+00"/>
          <Range Index="2" Min="2.5604698181152344e+01" Max="6.6720739746093750e+02"/>
          <Range Index="3" Min="6.3252538442611694e-01" Max="9.9999958276748657e-01"/>
          <Range Index="4" Min="0.0000000000000000e+00" Max="1.5410335693359375e+03"/>
          <Range Index="5" Min="1.0704994201660156e-04" Max="2.9656302928924561e+00"/>
          <Range Index="6" Min="-1.8552960205078125e+02" Max="4.0567495727539062e+02"/>
        </Ranges>
      </Class>
    </Transform>
  </Transformations>
  <MVAPdfs/>
  <Weights>
    <Layout NLayers="3">
      <Layer Index="0" NNeurons="8">
        <Neuron NSynapses="12">
          -3.9852924097072745e-01 2.0396487093897138e+00 7.4056878431668771e-01 1.7095996654475822e+00 -2.0646892013577571e+00 -1.5062013447017990e+00 -5.6994656309840985e-01 1.8417726327050050e+00 -1.3908849624538984e+00 -1.0209737827520848e+00 -1.5780148594563441e+00 -4.3579756175994649e-01 
        </Neuron>
        <Neuron NSynapses="12">
          -1.2564185037930620e+00 -4.2223043043920183e-01 -7.1117940875588859e-01 6.9018249052908553e-01 -4.3299721247239070e-01 1.7990769170675567e+00 2.5979137861676149e-01 1.4617360043382102e+00 -3.4263344895515346e-01 -7.9435320634915019e-01 7.4650577073475621e-01 8.3288974300946839e-02 
        </Neuron>
        <Neuron NSynapses="12">
          -1.2527939415540013e+00 -1.8191723025145198e-01 1.3897173390864626e+00 -1.1039109781465195e+00 -1.9352577620034563e+00 1.4638796656219735e-01 8.9668061929003795e-01 1.5036123630784499e+00 -3.0921498395493657e-01 -1.3841338172705578e-01 3.0404334914634235e-01 -3.0610109039369127e-01 
        </Neuron>
        <Neuron NSynapses="12">
          -1.6729797616684554e+00 1.7040365078060751e+00 -1.2814133044886986e+00 1.1216313381992444e+00 1.2097188310120581e+00 6.8399985375221795e-01 1.9018191826008914e+00 1.3942706147650201e+00 -7.4239300725174062e-01 -1.3102392241075409e+00 6.4646486717948748e-01 5.6985995806264719e-02 
        </Neuron>
        <Neuron NSynapses="12">
          1.4083656944074596e+00 1.5008542535456173e+00 1.4443822184666744e+00 1.2962347330638377e+00 -1.7204037381094177e+00 1.2968884642189957e+00 -1.6369274118801116e+00 -9.7028212504508526e-01 -1.3026156694639495e+00 -1.6854661500330197e+00 1.5596697068491796e+00 6.5942022066814665e-01 
        </Neuron>
        <Neuron NSynapses="12">
          -1.5555663811710803e+00 3.7796853692582738e-01 -3.8429464752516618e-01 6.8495813117256032e-01 1.7380756403873390e+00 -3.3215671052862239e-01 1.5716630953255498e-01 -1.1810264141015385e+00 7.5555974823241678e-01 -9.3043755461926780e-01 -7.1101564409279239e-01 -1.4167019104025333e+00 
        </Neuron>
        <Neuron NSynapses="12">
          6.8138796454751049e-01 1.1440562378203949e+00 1.2605461035769294e+00 -3.4759789972238359e-01 -1.9720065591693472e+00 -1.9099702721662442e+00 1.1193209767737369e+00 5.1812849697684482e-01 1.9323724015207500e+00 6.9722485950362689e-01 9.9813709123731409e-01 -8.1897817851417753e-01 
        </Neuron>
        <Neuron NSynapses="12">
          -6.8635225796103583e-01 -2.3307449008183476e-01 1.3809380491947747e+00 -1.1214549844930477e+00 -1.4466673056390824e+00 -1.5660268459423317e+00 -5.4824091384997131e-01 -2.1375972758209860e-01 1.7066070147240844e+00 -1.7842043778241479e+00 -8.3033178888665948e-01 1.6684691281343667e+00 
        </Neuron>
      </Layer>
      <Layer Index="1" NNeurons="13">
        <Neuron NSynapses="1">
          -1.0228031970938365e+00 
        </Neuron>
        <Neuron NSynapses="1">
          -1.2433637915928195e+00 
        </Neuron>
        <Neuron NSynapses="1">
          -1.3942508216872829e+00 
        </Neuron>
        <Neuron NSynapses="1">
          4.2687772979162303e-01 
        </Neuron>
        <Neuron NSynapses="1">
          -2.0603420919559738e+00 
        </Neuron>
        <Neuron NSynapses="1">
          -1.1938410680598066e+00 
        </Neuron>
        <Neuron NSynapses="1">
          1.0290960230417088e+00 
        </Neuron>
        <Neuron NSynapses="1">
          1.9060533543849039e+00 
        </Neuron>
        <Neuron NSynapses="1">
          -1.4479050044838435e+00 
        </Neuron>
        <Neuron NSynapses="1">
          1.3167776543220029e+00 
        </Neuron>
        <Neuron NSynapses="1">
          -4.6205064673214996e-01 
        </Neuron>
        <Neuron NSynapses="1">
          -1.1658232277477627e+00 
        </Neuron>
        <Neuron NSynapses="1">
          -4.2428607586793687e-01 
        </Neuron>
      </Layer>
      <Layer Index="2" NNeurons="1">
        <Neuron NSynapses="0"/>
      </Layer>
    </Layout>
  </Weights>
</MethodSetup>
