<?xml version="1.0"?>
<MethodSetup Method="MLP::MLP">
  <GeneralInfo>
    <Info name="TMVA Release" value="4.2.1 [262657]"/>
    <Info name="ROOT Release" value="6.08/07 [395271]"/>
    <Info name="Creator" value="wverbeke"/>
    <Info name="Date" value="Tue Dec  5 03:33:21 2017"/>
    <Info name="Host" value="Linux vocms0302.cern.ch 2.6.32-696.1.1.el6.x86_64 #1 SMP Wed Apr 12 08:44:28 CEST 2017 x86_64 x86_64 x86_64 GNU/Linux"/>
    <Info name="Dir" value="/storage_mnt/storage/user/wverbeke/Work/AnalysisCode/ewkino/bdtTraining/bdtTrainingsubmit"/>
    <Info name="Training events" value="44512"/>
    <Info name="TrainingTime" value="6.91271304e+02"/>
    <Info name="AnalysisType" value="Classification"/>
  </GeneralInfo>
  <Options>
    <Option name="NCycles" modified="Yes">600</Option>
    <Option name="HiddenLayers" modified="Yes">N+5</Option>
    <Option name="NeuronType" modified="Yes">tanh</Option>
    <Option name="RandomSeed" modified="No">1</Option>
    <Option name="EstimatorType" modified="No">CE</Option>
    <Option name="NeuronInputType" modified="No">sum</Option>
    <Option name="V" modified="Yes">False</Option>
    <Option name="VerbosityLevel" modified="No">Default</Option>
    <Option name="VarTransform" modified="Yes">N</Option>
    <Option name="H" modified="Yes">True</Option>
    <Option name="CreateMVAPdfs" modified="No">False</Option>
    <Option name="IgnoreNegWeightsInTraining" modified="No">False</Option>
    <Option name="TrainingMethod" modified="No">BP</Option>
    <Option name="LearningRate" modified="No">2.000000e-02</Option>
    <Option name="DecayRate" modified="No">1.000000e-02</Option>
    <Option name="TestRate" modified="Yes">5</Option>
    <Option name="EpochMonitoring" modified="No">False</Option>
    <Option name="Sampling" modified="No">1.000000e+00</Option>
    <Option name="SamplingEpoch" modified="No">1.000000e+00</Option>
    <Option name="SamplingImportance" modified="No">1.000000e+00</Option>
    <Option name="SamplingTraining" modified="No">True</Option>
    <Option name="SamplingTesting" modified="No">False</Option>
    <Option name="ResetStep" modified="No">50</Option>
    <Option name="Tau" modified="No">3.000000e+00</Option>
    <Option name="BPMode" modified="No">sequential</Option>
    <Option name="BatchSize" modified="No">-1</Option>
    <Option name="ConvergenceImprove" modified="No">1.000000e-30</Option>
    <Option name="ConvergenceTests" modified="No">-1</Option>
    <Option name="UseRegulator" modified="Yes">False</Option>
    <Option name="UpdateLimit" modified="No">10000</Option>
    <Option name="CalculateErrors" modified="No">False</Option>
    <Option name="WeightRange" modified="No">1.000000e+00</Option>
  </Options>
  <Variables NVar="19">
    <Variable VarIndex="0" Expression="topMass" Label="topMass" Title="topMass" Unit="" Internal="topMass" Type="F" Min="0.00000000e+00" Max="2.88382642e+03"/>
    <Variable VarIndex="1" Expression="pTForwardJets" Label="pTForwardJets" Title="pTForwardJets" Unit="" Internal="pTForwardJets" Type="F" Min="0.00000000e+00" Max="7.49083618e+02"/>
    <Variable VarIndex="2" Expression="etaMostForward" Label="etaMostForward" Title="etaMostForward" Unit="" Internal="etaMostForward" Type="F" Min="1.29182696e-01" Max="5.08535576e+00"/>
    <Variable VarIndex="3" Expression="numberOfJets" Label="numberOfJets" Title="numberOfJets" Unit="" Internal="numberOfJets" Type="F" Min="4.00000000e+00" Max="1.60000000e+01"/>
    <Variable VarIndex="4" Expression="pTLeadingLepton" Label="pTLeadingLepton" Title="pTLeadingLepton" Unit="" Internal="pTLeadingLepton" Type="F" Min="2.50462494e+01" Max="1.19285669e+03"/>
    <Variable VarIndex="5" Expression="mNotSoForwardJets" Label="mNotSoForwardJets" Title="mNotSoForwardJets" Unit="" Internal="mNotSoForwardJets" Type="F" Min="0.00000000e+00" Max="7.57018652e+03"/>
    <Variable VarIndex="6" Expression="missingET" Label="missingET" Title="missingET" Unit="" Internal="missingET" Type="F" Min="1.53993711e-01" Max="1.31463379e+03"/>
    <Variable VarIndex="7" Expression="highestDeepCSV" Label="highestDeepCSV" Title="highestDeepCSV" Unit="" Internal="highestDeepCSV" Type="F" Min="6.32410586e-01" Max="9.99999881e-01"/>
    <Variable VarIndex="8" Expression="maxMjj" Label="maxMjj" Title="maxMjj" Unit="" Internal="maxMjj" Type="F" Min="0.00000000e+00" Max="6.76741162e+03"/>
    <Variable VarIndex="9" Expression="minMlb" Label="minMlb" Title="minMlb" Unit="" Internal="minMlb" Type="F" Min="-4.82293945e+02" Max="1.73676660e+03"/>
    <Variable VarIndex="10" Expression="asymmetryWlep" Label="asymmetryWlep" Title="asymmetryWlep" Unit="" Internal="asymmetryWlep" Type="F" Min="-2.49321842e+00" Max="2.47766781e+00"/>
    <Variable VarIndex="11" Expression="etaZ" Label="etaZ" Title="etaZ" Unit="" Internal="etaZ" Type="F" Min="4.39537295e-08" Max="6.79044962e+00"/>
    <Variable VarIndex="12" Expression="m3l" Label="m3l" Title="m3l" Unit="" Internal="m3l" Type="F" Min="1.59733038e+01" Max="1.96933447e+03"/>
    <Variable VarIndex="13" Expression="maxDeltaRjj" Label="maxDeltaRjj" Title="maxDeltaRjj" Unit="" Internal="maxDeltaRjj" Type="F" Min="9.21496212e-01" Max="1.04091921e+01"/>
    <Variable VarIndex="14" Expression="maxDeltaPhill" Label="maxDeltaPhill" Title="maxDeltaPhill" Unit="" Internal="maxDeltaPhill" Type="F" Min="8.59284401e-03" Max="3.14157772e+00"/>
    <Variable VarIndex="15" Expression="pTMaxlb" Label="pTMaxlb" Title="pTMaxlb" Unit="" Internal="pTMaxlb" Type="F" Min="1.43577347e+01" Max="1.29544348e+03"/>
    <Variable VarIndex="16" Expression="pT3l" Label="pT3l" Title="pT3l" Unit="" Internal="pT3l" Type="F" Min="1.28677756e-01" Max="1.25666968e+03"/>
    <Variable VarIndex="17" Expression="mForwardJetsLeadinBJetW" Label="mForwardJetsLeadinBJetW" Title="mForwardJetsLeadinBJetW" Unit="" Internal="mForwardJetsLeadinBJetW" Type="F" Min="0.00000000e+00" Max="7.67557861e+03"/>
    <Variable VarIndex="18" Expression="ht" Label="ht" Title="ht" Unit="" Internal="ht" Type="F" Min="1.02129440e+02" Max="2.81807153e+03"/>
  </Variables>
  <Spectators NSpec="0"/>
  <Classes NClass="2">
    <Class Name="Signal" Index="0"/>
    <Class Name="Background" Index="1"/>
  </Classes>
  <Transformations NTransformations="1">
    <Transform Name="Normalize">
      <Selection>
        <Input NInputs="19">
          <Input Type="Variable" Label="topMass" Expression="topMass"/>
          <Input Type="Variable" Label="pTForwardJets" Expression="pTForwardJets"/>
          <Input Type="Variable" Label="etaMostForward" Expression="etaMostForward"/>
          <Input Type="Variable" Label="numberOfJets" Expression="numberOfJets"/>
          <Input Type="Variable" Label="pTLeadingLepton" Expression="pTLeadingLepton"/>
          <Input Type="Variable" Label="mNotSoForwardJets" Expression="mNotSoForwardJets"/>
          <Input Type="Variable" Label="missingET" Expression="missingET"/>
          <Input Type="Variable" Label="highestDeepCSV" Expression="highestDeepCSV"/>
          <Input Type="Variable" Label="maxMjj" Expression="maxMjj"/>
          <Input Type="Variable" Label="minMlb" Expression="minMlb"/>
          <Input Type="Variable" Label="asymmetryWlep" Expression="asymmetryWlep"/>
          <Input Type="Variable" Label="etaZ" Expression="etaZ"/>
          <Input Type="Variable" Label="m3l" Expression="m3l"/>
          <Input Type="Variable" Label="maxDeltaRjj" Expression="maxDeltaRjj"/>
          <Input Type="Variable" Label="maxDeltaPhill" Expression="maxDeltaPhill"/>
          <Input Type="Variable" Label="pTMaxlb" Expression="pTMaxlb"/>
          <Input Type="Variable" Label="pT3l" Expression="pT3l"/>
          <Input Type="Variable" Label="mForwardJetsLeadinBJetW" Expression="mForwardJetsLeadinBJetW"/>
          <Input Type="Variable" Label="ht" Expression="ht"/>
        </Input>
        <Output NOutputs="19">
          <Output Type="Variable" Label="topMass" Expression="topMass"/>
          <Output Type="Variable" Label="pTForwardJets" Expression="pTForwardJets"/>
          <Output Type="Variable" Label="etaMostForward" Expression="etaMostForward"/>
          <Output Type="Variable" Label="numberOfJets" Expression="numberOfJets"/>
          <Output Type="Variable" Label="pTLeadingLepton" Expression="pTLeadingLepton"/>
          <Output Type="Variable" Label="mNotSoForwardJets" Expression="mNotSoForwardJets"/>
          <Output Type="Variable" Label="missingET" Expression="missingET"/>
          <Output Type="Variable" Label="highestDeepCSV" Expression="highestDeepCSV"/>
          <Output Type="Variable" Label="maxMjj" Expression="maxMjj"/>
          <Output Type="Variable" Label="minMlb" Expression="minMlb"/>
          <Output Type="Variable" Label="asymmetryWlep" Expression="asymmetryWlep"/>
          <Output Type="Variable" Label="etaZ" Expression="etaZ"/>
          <Output Type="Variable" Label="m3l" Expression="m3l"/>
          <Output Type="Variable" Label="maxDeltaRjj" Expression="maxDeltaRjj"/>
          <Output Type="Variable" Label="maxDeltaPhill" Expression="maxDeltaPhill"/>
          <Output Type="Variable" Label="pTMaxlb" Expression="pTMaxlb"/>
          <Output Type="Variable" Label="pT3l" Expression="pT3l"/>
          <Output Type="Variable" Label="mForwardJetsLeadinBJetW" Expression="mForwardJetsLeadinBJetW"/>
          <Output Type="Variable" Label="ht" Expression="ht"/>
        </Output>
      </Selection>
      <Class ClassIndex="0">
        <Ranges>
          <Range Index="0" Min="0.0000000000000000e+00" Max="2.4163129882812500e+03"/>
          <Range Index="1" Min="0.0000000000000000e+00" Max="6.4470300292968750e+02"/>
          <Range Index="2" Min="3.8610678911209106e-01" Max="5.0853557586669922e+00"/>
          <Range Index="3" Min="4.0000000000000000e+00" Max="1.3000000000000000e+01"/>
          <Range Index="4" Min="2.5456172943115234e+01" Max="8.2802258300781250e+02"/>
          <Range Index="5" Min="0.0000000000000000e+00" Max="7.5701865234375000e+03"/>
          <Range Index="6" Min="1.5399371087551117e-01" Max="7.7186743164062500e+02"/>
          <Range Index="7" Min="6.3245564699172974e-01" Max="9.9999988079071045e-01"/>
          <Range Index="8" Min="0.0000000000000000e+00" Max="6.7674116210937500e+03"/>
          <Range Index="9" Min="-2.0903700256347656e+02" Max="9.0361517333984375e+02"/>
          <Range Index="10" Min="-2.4928898811340332e+00" Max="2.4776678085327148e+00"/>
          <Range Index="11" Min="2.2960621572565287e-04" Max="5.9699587821960449e+00"/>
          <Range Index="12" Min="3.2858013153076172e+01" Max="1.4325657958984375e+03"/>
          <Range Index="13" Min="1.3461346626281738e+00" Max="1.0409192085266113e+01"/>
          <Range Index="14" Min="6.0090065002441406e-02" Max="3.1414594650268555e+00"/>
          <Range Index="15" Min="2.2177160263061523e+01" Max="1.0860093994140625e+03"/>
          <Range Index="16" Min="9.4957399368286133e-01" Max="8.4028967285156250e+02"/>
          <Range Index="17" Min="0.0000000000000000e+00" Max="7.6755786132812500e+03"/>
          <Range Index="18" Min="1.0513504791259766e+02" Max="2.3588918457031250e+03"/>
        </Ranges>
      </Class>
      <Class ClassIndex="1">
        <Ranges>
          <Range Index="0" Min="0.0000000000000000e+00" Max="2.8838264160156250e+03"/>
          <Range Index="1" Min="0.0000000000000000e+00" Max="7.4908361816406250e+02"/>
          <Range Index="2" Min="1.2918269634246826e-01" Max="5.0846657752990723e+00"/>
          <Range Index="3" Min="4.0000000000000000e+00" Max="1.6000000000000000e+01"/>
          <Range Index="4" Min="2.5046249389648438e+01" Max="1.1928566894531250e+03"/>
          <Range Index="5" Min="0.0000000000000000e+00" Max="6.6902299804687500e+03"/>
          <Range Index="6" Min="3.0917364358901978e-01" Max="1.3146337890625000e+03"/>
          <Range Index="7" Min="6.3241058588027954e-01" Max="9.9999982118606567e-01"/>
          <Range Index="8" Min="0.0000000000000000e+00" Max="4.8690908203125000e+03"/>
          <Range Index="9" Min="-4.8229394531250000e+02" Max="1.7367666015625000e+03"/>
          <Range Index="10" Min="-2.4932184219360352e+00" Max="2.4714665412902832e+00"/>
          <Range Index="11" Min="4.3953729544909947e-08" Max="6.7904496192932129e+00"/>
          <Range Index="12" Min="1.5973303794860840e+01" Max="1.9693344726562500e+03"/>
          <Range Index="13" Min="9.2149621248245239e-01" Max="9.9590759277343750e+00"/>
          <Range Index="14" Min="8.5928440093994141e-03" Max="3.1415777206420898e+00"/>
          <Range Index="15" Min="1.4357734680175781e+01" Max="1.2954434814453125e+03"/>
          <Range Index="16" Min="1.2867775559425354e-01" Max="1.2566696777343750e+03"/>
          <Range Index="17" Min="0.0000000000000000e+00" Max="5.9879033203125000e+03"/>
          <Range Index="18" Min="1.0212944030761719e+02" Max="2.8180715332031250e+03"/>
        </Ranges>
      </Class>
      <Class ClassIndex="2">
        <Ranges>
          <Range Index="0" Min="0.0000000000000000e+00" Max="2.8838264160156250e+03"/>
          <Range Index="1" Min="0.0000000000000000e+00" Max="7.4908361816406250e+02"/>
          <Range Index="2" Min="1.2918269634246826e-01" Max="5.0853557586669922e+00"/>
          <Range Index="3" Min="4.0000000000000000e+00" Max="1.6000000000000000e+01"/>
          <Range Index="4" Min="2.5046249389648438e+01" Max="1.1928566894531250e+03"/>
          <Range Index="5" Min="0.0000000000000000e+00" Max="7.5701865234375000e+03"/>
          <Range Index="6" Min="1.5399371087551117e-01" Max="1.3146337890625000e+03"/>
          <Range Index="7" Min="6.3241058588027954e-01" Max="9.9999988079071045e-01"/>
          <Range Index="8" Min="0.0000000000000000e+00" Max="6.7674116210937500e+03"/>
          <Range Index="9" Min="-4.8229394531250000e+02" Max="1.7367666015625000e+03"/>
          <Range Index="10" Min="-2.4932184219360352e+00" Max="2.4776678085327148e+00"/>
          <Range Index="11" Min="4.3953729544909947e-08" Max="6.7904496192932129e+00"/>
          <Range Index="12" Min="1.5973303794860840e+01" Max="1.9693344726562500e+03"/>
          <Range Index="13" Min="9.2149621248245239e-01" Max="1.0409192085266113e+01"/>
          <Range Index="14" Min="8.5928440093994141e-03" Max="3.1415777206420898e+00"/>
          <Range Index="15" Min="1.4357734680175781e+01" Max="1.2954434814453125e+03"/>
          <Range Index="16" Min="1.2867775559425354e-01" Max="1.2566696777343750e+03"/>
          <Range Index="17" Min="0.0000000000000000e+00" Max="7.6755786132812500e+03"/>
          <Range Index="18" Min="1.0212944030761719e+02" Max="2.8180715332031250e+03"/>
        </Ranges>
      </Class>
    </Transform>
  </Transformations>
  <MVAPdfs/>
  <Weights>
    <Layout NLayers="3">
      <Layer Index="0" NNeurons="20">
        <Neuron NSynapses="24">
          -3.4026829396087216e-01 1.9663577790079758e+00 7.5382788191477945e-01 1.7061094844082907e+00 -1.9831693082538464e+00 -1.4875655222570827e+00 -8.2083217075494186e-01 1.9892515794210506e+00 -1.4993114492904065e+00 -1.0771872772012490e+00 -1.6203555626431518e+00 -4.3594904479135310e-01 -1.3687650663908555e+00 -4.2591097338385603e-01 -6.3225033840443889e-01 4.2203674278388098e-01 -4.1352145895207659e-01 1.7330805672255212e+00 3.3941377595965705e-01 1.3735532080384356e+00 -1.8495844372569425e-01 -7.4138658551582093e-01 6.7206646358599242e-01 2.6475530174598239e-01 
        </Neuron>
        <Neuron NSynapses="24">
          -1.1734954127740802e+00 -2.5276776406548007e-01 1.5286653209184102e+00 -1.0040788172208379e+00 -1.8645893599704575e+00 1.3765712144208142e-01 5.9394509927250250e-01 1.6352767701400024e+00 -4.1087022212777752e-01 -1.8525703402840149e-01 2.7896241702442609e-01 -2.5562137631202347e-01 -1.6011932389880104e+00 1.7210135342988813e+00 -1.2261473092333506e+00 7.9345399800585337e-01 1.2014850373149426e+00 8.3424889774184652e-01 2.1164039550129883e+00 1.2053600633373855e+00 -6.9879369412467829e-01 -1.6261519662522010e+00 8.9507499498435439e-01 2.6431856296473327e-01 
        </Neuron>
        <Neuron NSynapses="24">
          1.5065782409662571e+00 1.4906967752285996e+00 1.6522116046295114e+00 1.3129916601408969e+00 -1.6733198913796661e+00 1.3184852102919347e+00 -1.8116684403566963e+00 -9.0886381386241422e-01 -1.3001294595023440e+00 -1.7513472005985826e+00 1.5071737420536893e+00 6.6970009003825337e-01 -1.5312927148167665e+00 3.3055604497339680e-01 -3.1514317181991058e-01 6.2961254579381865e-01 1.8318401545169649e+00 -3.6612866551885215e-01 1.9049035683035900e-01 -1.1989900692541562e+00 8.0996902675084692e-01 -8.4780989110853355e-01 -7.1291328511282337e-01 -1.3812502322395115e+00 
        </Neuron>
        <Neuron NSynapses="24">
          7.4587735540077160e-01 1.1244394751354290e+00 1.1116442022043826e+00 -4.5471077570836704e-01 -1.9084173303796554e+00 -1.8633666336525896e+00 9.5231155045886873e-01 4.8078925903614300e-01 1.8559180807297044e+00 5.9310866197885459e-01 9.4866213419173540e-01 -7.7113418878837647e-01 -1.0221849847355344e+00 -7.5342958834826723e-02 1.1547762509952315e+00 -1.3308792286147235e+00 -1.5883988352347884e+00 -1.6642963033027085e+00 7.0274714271629417e-03 -1.6024809196122677e-01 2.0203282705260230e+00 -1.6139068033680259e+00 -1.1541554297417986e+00 1.7162128310345739e+00 
        </Neuron>
        <Neuron NSynapses="24">
          -8.4823533975461418e-01 -1.5504100311827405e+00 -1.5492619477709377e+00 1.2686559934837685e-01 -1.8999879716868033e+00 -1.6654085138581125e+00 6.5161056166659925e-01 1.6502067395151094e+00 -1.2016936401806759e+00 1.6271243440215359e+00 -9.0569137214133999e-01 -8.3102954328643042e-01 -1.7260879598290976e-01 3.0484110664704767e-01 -1.8020674785858131e+00 -2.0423710860422061e-02 2.9589372649648171e-01 4.3918229719025459e-01 -1.1771774072447334e+00 1.8263775989295545e+00 3.1667972312567555e-01 -9.5679462640881119e-01 8.3213498697020449e-01 -8.6118497485119772e-01 
        </Neuron>
        <Neuron NSynapses="24">
          -1.5903981282002635e+00 1.2368426857306412e-01 -2.9378141632989319e-01 1.8903128486947132e+00 8.0283280529875478e-01 -2.7751657773864041e-02 -4.1244865585192991e-01 1.4434823444058947e-01 -1.8198189563707878e+00 1.0558808802741670e+00 2.4670653157791875e-01 -1.8211903929864395e+00 4.9469859557302404e-01 -1.4700282264486164e+00 4.0114421956593024e-02 8.5278778596028404e-01 1.7774751628895353e+00 -1.9246946302290346e+00 6.2224626346203882e-01 1.5380735349362076e+00 1.4966119769566391e+00 1.6199942685119054e-01 -1.1682068564625543e+00 1.3605616914530336e-02 
        </Neuron>
        <Neuron NSynapses="24">
          -1.4453589704787513e+00 1.5442716301090189e+00 1.0879470023930291e+00 -5.3350834582973827e-01 -3.8577187240411720e-01 1.5360691317092587e-01 -1.3865927601083832e+00 6.0344640760931945e-01 1.6360180606452950e+00 -5.7912647713474230e-01 -5.9670875722595129e-01 2.7065957051781458e-01 8.2721274540454437e-01 6.1578713004734831e-01 8.8714998349233021e-01 -1.7671927743989460e+00 1.5330252153232988e+00 7.5718729561836950e-01 6.7408641312014395e-01 5.7832154183926598e-01 1.1300777185931765e+00 -5.7774607329142502e-01 -6.7818035216860617e-01 1.2282250709255480e+00 
        </Neuron>
        <Neuron NSynapses="24">
          -9.1871653184276458e-01 -5.6594554473504810e-01 1.6782466730467895e+00 9.7161169425345961e-01 -3.1396308216358421e-01 1.5254041959301734e+00 1.8442566387582680e+00 -1.9683271906002178e+00 7.2693011567223997e-01 -1.8966340569382248e-02 3.5583528779415985e-01 -1.6887648314265467e+00 -1.3390099299991651e+00 1.0837012977791165e+00 1.8213097560626821e+00 -1.4540680406181192e+00 -2.0106670461876430e-01 -5.3574820899751130e-01 1.5622810624719100e-01 1.7616973897420325e+00 -2.3907368352066274e-01 -4.8409035186401700e-01 -1.1111024484528795e+00 8.6183328650766122e-01 
        </Neuron>
        <Neuron NSynapses="24">
          1.6135792981223893e+00 1.0699492929631202e+00 2.9253654904053433e-01 -7.5373883966891120e-01 -1.9639768972795104e+00 1.0909948094336475e+00 4.0765735996302088e-01 -1.4041719657411338e+00 -7.3037266300787795e-01 3.0472480421292220e-01 1.8714567527813608e-01 -1.9754242692805555e+00 1.3812236245306899e+00 8.4784777446730220e-01 -5.8998343261136177e-01 -4.1767198291784313e-01 1.6334503199253807e+00 1.0278855899117136e+00 7.3747920994737537e-01 -1.2840161157698102e-01 -1.9781426725779006e+00 -9.2369044874057793e-01 1.8982564726876594e+00 1.5362223838261306e+00 
        </Neuron>
        <Neuron NSynapses="24">
          7.6244738797933609e-01 1.8381708185514944e-01 1.9541503556751765e+00 -1.6985544336652172e+00 -1.2956692646031209e+00 -1.1006857772830488e-01 -1.4832272556379631e+00 9.6486731677190285e-01 1.6834648204856255e+00 -1.2415895090603444e+00 8.1022956583092531e-01 -1.4461454853602673e-01 -1.8271758065629349e+00 -1.0748432555181175e+00 1.0111438145369349e+00 -1.2374399599806213e-01 1.0150808611962658e+00 -1.1800890390931196e+00 1.8150800934086009e+00 -1.8046614562425325e+00 8.5966949272448545e-01 7.9058135190317264e-02 -1.4783934672143422e+00 -1.2051805265115645e+00 
        </Neuron>
        <Neuron NSynapses="24">
          -1.9222336878057331e+00 -3.9905478956568585e-01 -1.8688725948770104e+00 -1.5176947118062794e+00 -1.8967153526578517e+00 3.9404653559765107e-02 -1.0482528689021080e+00 -1.5933192343368974e+00 1.4002926065279828e+00 -8.3399596400242892e-01 1.6856132863237511e-01 -1.0680078562145194e+00 2.2422142121657088e-01 1.7659829296833689e+00 1.3700724546191618e+00 -9.1296593157485606e-01 -1.5042511522494202e+00 -1.1001448021338256e+00 -8.3072833609059005e-01 -1.6200450024508164e+00 3.0263620466755425e-01 2.8284128125211494e-01 1.7555142617427044e+00 -2.8639811491041889e-01 
        </Neuron>
        <Neuron NSynapses="24">
          2.3982013083554046e-01 -5.6404363899676146e-01 -1.8989473860839614e+00 1.3677436531425986e+00 1.2291633717017862e+00 -8.4097840969654436e-01 -1.1152322760771276e+00 8.5691207547645987e-01 1.1660203662115278e+00 4.3756485756212715e-01 -4.2824044506206765e-01 -3.1668451387285240e-01 1.2709328978559051e+00 9.4705585279615712e-01 9.7034709208728620e-01 -5.6105904378549953e-01 2.2567719408760240e-01 -3.2716315587441896e-01 -1.2251950174295436e+00 -5.6030925064744053e-01 -1.6027154766340044e+00 -1.3811419013471979e+00 -1.3349383813202376e+00 1.9045688404714503e+00 
        </Neuron>
        <Neuron NSynapses="24">
          -1.8242193136660996e+00 1.6423555371549687e+00 -1.6729653567062703e+00 1.1475007272731612e+00 -1.0771943398598165e+00 4.6533848619282753e-01 7.8916914336480770e-01 -1.8739548480159713e+00 1.8016207426549852e-01 6.0096260846433036e-01 -1.9552231970891019e+00 -1.4781833890637477e+00 -1.8265824459652877e+00 -8.1669483913657759e-01 1.8613035206076058e+00 -8.3708815468531761e-01 2.7102909586486784e-01 -9.0998178813442843e-01 -9.4805584843836344e-01 -1.7055788249255233e+00 -9.0541912945099601e-01 -1.3928108644880974e+00 9.0332898176655951e-01 -1.1612862774050408e+00 
        </Neuron>
        <Neuron NSynapses="24">
          -1.2190206256145257e+00 1.7682276082407087e+00 4.5252247128022360e-01 -4.2655449930316042e-01 1.8833582817357510e+00 -1.7998424156496706e+00 1.3736002732124613e+00 9.5740199706766871e-01 -1.0186548030862164e+00 -7.9506547957006679e-01 4.9673571764391966e-02 -1.1922729871611306e+00 4.4591108183743372e-01 1.8738987635932614e+00 1.3083899607501459e+00 1.4273007062606786e+00 -1.3726130955575586e+00 9.9600436055995922e-01 -1.7896821893660362e+00 6.1249853554223377e-01 -1.7810142277248961e+00 -1.8452244713191652e+00 2.3182815929201683e-01 1.3523448947256320e+00 
        </Neuron>
        <Neuron NSynapses="24">
          4.2622371484688837e-01 1.0708520485713446e+00 3.8412571520709360e-01 -7.7696838113588462e-02 -7.5782065322622383e-01 1.2713040731232772e-01 1.9376055603661322e+00 -1.5717659556877943e+00 3.6109094917542389e-01 -1.3898712381255622e+00 -5.3365394259220200e-01 3.9401759582558434e-02 3.0309705731190018e-01 -1.2889821944252478e+00 1.0004670553524970e+00 1.5951132992370283e+00 6.7702543552140393e-01 -1.8198764479202911e-01 -8.8323586654179809e-01 -1.4472588212322670e+00 -1.1657769429122511e+00 1.0555750557843095e+00 -4.8763152849142111e-01 -1.1012149613960365e+00 
        </Neuron>
        <Neuron NSynapses="24">
          5.1943265783172110e-01 -1.7305079420167409e+00 -1.2337015768895769e+00 -1.5975253838614791e+00 1.0303629753030878e+00 -1.3511675731172561e+00 -1.7743562866138389e+00 -5.8457785723216127e-01 -1.0206285310514416e+00 -1.6333793853845682e+00 1.2353931247363790e+00 -1.4661859777913604e+00 -1.3514614882480189e+00 1.6542709460970333e+00 5.4179224956162231e-01 5.0221931659261684e-02 9.8143275751111203e-02 1.3402601696192269e+00 1.8892587269484928e+00 4.9337261078722033e-01 -9.2602710162949720e-01 -7.0162067290357499e-01 -1.6998586157247504e+00 1.1113461908306907e+00 
        </Neuron>
        <Neuron NSynapses="24">
          9.4096237554791040e-01 6.1240823932006444e-02 1.0211092889860836e+00 9.6450811071097031e-01 1.6565882878646705e+00 -1.3382583841457310e+00 1.6742916415448366e+00 7.3439922711846140e-01 -1.9976266801794689e+00 -3.0916446342285969e-01 -1.0143152762212708e+00 8.9408322120934969e-01 3.3689294910808121e-01 1.0190913749055199e+00 1.7781754426739531e+00 -6.3908836914084488e-01 1.8001161051153332e+00 1.6872676783405638e+00 4.1588565569096614e-01 -1.1899053344664978e+00 1.5697626190723888e+00 -1.9646263183031556e+00 5.9804696930726486e-01 1.8804840007002610e+00 
        </Neuron>
        <Neuron NSynapses="24">
          -4.4156367103669786e-01 -8.2811379931844253e-01 -1.1221386673827562e-01 -1.3471736475111082e+00 4.3639391494394947e-01 -1.9035180169008350e+00 1.4945252278054613e-01 -2.0688392394316180e-01 1.6388659137671042e+00 1.2118466501213627e+00 1.7031654850710920e+00 -5.3005797258127763e-01 -5.4716407182773841e-01 4.8364706509155803e-01 1.8335661636244012e+00 -2.1487747223212117e+00 -1.3046715985533235e+00 -5.8927348359596665e-01 -1.2538563638823004e+00 -1.7064455320328142e+00 -1.2902611861176152e+00 7.7220517571470981e-01 4.0685681948340616e-02 -1.7696650057486214e+00 
        </Neuron>
        <Neuron NSynapses="24">
          -1.9114849384386388e+00 -1.7826497929917892e-01 1.6298919126153548e+00 1.7833091483252776e+00 1.3285937196468955e+00 -6.6329523048697092e-01 -1.9622072087605924e+00 -1.1928762775911990e-01 -1.3849830737134050e+00 -1.6082896859260511e+00 -6.9625780142623550e-01 1.6523672725215315e-02 -1.5959694513986842e+00 1.6434902845884141e+00 1.2295872774402052e+00 -5.8413122633793391e-02 -6.2184175918603191e-01 -8.5793287724724765e-01 1.8720299307141515e+00 -5.9662114466810390e-01 5.3050560442011108e-01 1.5897022716727680e+00 1.3224685388930426e+00 -9.0046272381661208e-01 
        </Neuron>
        <Neuron NSynapses="24">
          1.3798269200994357e+00 -1.8617443117541845e+00 1.6455936009744856e+00 1.7786250086579067e+00 -1.9416178217534366e-01 -2.8010809813766280e-01 2.7448116266178768e-01 -5.9392144315097928e-01 1.2686216316814622e+00 3.2370494698246893e-01 -9.2780887675349777e-01 -1.4738311970852906e+00 1.9397772502610416e-01 1.8365202532689511e+00 4.2141705886027891e-01 -3.7747392762992110e-01 -1.9377178152222425e+00 1.8467016535750174e+00 6.8225445494053141e-02 -1.1244177284046721e+00 -2.0580190447667576e-01 -1.0103196754222925e+00 1.0499422137417367e+00 1.2123584879901137e+00 
        </Neuron>
      </Layer>
      <Layer Index="1" NNeurons="25">
        <Neuron NSynapses="1">
          -8.6141553934573500e-01 
        </Neuron>
        <Neuron NSynapses="1">
          -9.5892396838152394e-01 
        </Neuron>
        <Neuron NSynapses="1">
          8.3740136352015659e-01 
        </Neuron>
        <Neuron NSynapses="1">
          9.0690241053527010e-01 
        </Neuron>
        <Neuron NSynapses="1">
          3.0114634894865305e-01 
        </Neuron>
        <Neuron NSynapses="1">
          4.7286906117581858e-02 
        </Neuron>
        <Neuron NSynapses="1">
          -1.1143346304995920e+00 
        </Neuron>
        <Neuron NSynapses="1">
          -1.1219638403929382e+00 
        </Neuron>
        <Neuron NSynapses="1">
          9.1626885436117211e-01 
        </Neuron>
        <Neuron NSynapses="1">
          2.9468422163113476e-03 
        </Neuron>
        <Neuron NSynapses="1">
          6.2680972207046814e-01 
        </Neuron>
        <Neuron NSynapses="1">
          -1.8770944926471695e+00 
        </Neuron>
        <Neuron NSynapses="1">
          -1.7614836268786507e+00 
        </Neuron>
        <Neuron NSynapses="1">
          -1.8175273010901478e+00 
        </Neuron>
        <Neuron NSynapses="1">
          -3.1211180200408450e-01 
        </Neuron>
        <Neuron NSynapses="1">
          -1.4340830011362418e+00 
        </Neuron>
        <Neuron NSynapses="1">
          8.4308976981598316e-01 
        </Neuron>
        <Neuron NSynapses="1">
          -3.7524843479569386e-02 
        </Neuron>
        <Neuron NSynapses="1">
          1.5713920370915329e+00 
        </Neuron>
        <Neuron NSynapses="1">
          2.4247217255514580e-01 
        </Neuron>
        <Neuron NSynapses="1">
          -2.1747148295759997e+00 
        </Neuron>
        <Neuron NSynapses="1">
          1.3474781130403408e+00 
        </Neuron>
        <Neuron NSynapses="1">
          1.5992063305269533e+00 
        </Neuron>
        <Neuron NSynapses="1">
          8.5864175948456867e-01 
        </Neuron>
        <Neuron NSynapses="1">
          -6.2044321654450263e-01 
        </Neuron>
      </Layer>
      <Layer Index="2" NNeurons="1">
        <Neuron NSynapses="0"/>
      </Layer>
    </Layout>
  </Weights>
</MethodSetup>
