<?xml version="1.0"?>
<MethodSetup Method="BDT::BDTGAlt_shrinkage04">
  <GeneralInfo>
    <Info name="TMVA Release" value="4.2.1 [262657]"/>
    <Info name="ROOT Release" value="6.08/07 [395271]"/>
    <Info name="Creator" value="wverbeke"/>
    <Info name="Date" value="Tue Dec  5 02:03:57 2017"/>
    <Info name="Host" value="Linux vocms0302.cern.ch 2.6.32-696.1.1.el6.x86_64 #1 SMP Wed Apr 12 08:44:28 CEST 2017 x86_64 x86_64 x86_64 GNU/Linux"/>
    <Info name="Dir" value="/storage_mnt/storage/user/wverbeke/Work/AnalysisCode/ewkino/bdtTraining/bdtTrainingsubmit"/>
    <Info name="Training events" value="6423"/>
    <Info name="TrainingTime" value="8.88168597e+00"/>
    <Info name="AnalysisType" value="Classification"/>
  </GeneralInfo>
  <Options>
    <Option name="V" modified="Yes">False</Option>
    <Option name="VerbosityLevel" modified="No">Default</Option>
    <Option name="VarTransform" modified="No">None</Option>
    <Option name="H" modified="Yes">False</Option>
    <Option name="CreateMVAPdfs" modified="No">False</Option>
    <Option name="IgnoreNegWeightsInTraining" modified="Yes">True</Option>
    <Option name="NTrees" modified="Yes">1000</Option>
    <Option name="MaxDepth" modified="Yes">2</Option>
    <Option name="MinNodeSize" modified="Yes">2.5%</Option>
    <Option name="nCuts" modified="Yes">200</Option>
    <Option name="BoostType" modified="Yes">Grad</Option>
    <Option name="AdaBoostR2Loss" modified="No">quadratic</Option>
    <Option name="UseBaggedBoost" modified="No">False</Option>
    <Option name="Shrinkage" modified="Yes">4.000000e-01</Option>
    <Option name="AdaBoostBeta" modified="No">5.000000e-01</Option>
    <Option name="UseRandomisedTrees" modified="No">False</Option>
    <Option name="UseNvars" modified="No">4</Option>
    <Option name="UsePoissonNvars" modified="No">True</Option>
    <Option name="BaggedSampleFraction" modified="No">6.000000e-01</Option>
    <Option name="UseYesNoLeaf" modified="No">True</Option>
    <Option name="NegWeightTreatment" modified="No">pray</Option>
    <Option name="Css" modified="No">1.000000e+00</Option>
    <Option name="Cts_sb" modified="No">1.000000e+00</Option>
    <Option name="Ctb_ss" modified="No">1.000000e+00</Option>
    <Option name="Cbb" modified="No">1.000000e+00</Option>
    <Option name="NodePurityLimit" modified="No">5.000000e-01</Option>
    <Option name="SeparationType" modified="No">giniindex</Option>
    <Option name="RegressionLossFunctionBDTG" modified="No">huber</Option>
    <Option name="HuberQuantile" modified="No">7.000000e-01</Option>
    <Option name="DoBoostMonitor" modified="No">False</Option>
    <Option name="UseFisherCuts" modified="No">False</Option>
    <Option name="MinLinCorrForFisher" modified="No">8.000000e-01</Option>
    <Option name="UseExclusiveVars" modified="No">False</Option>
    <Option name="DoPreselection" modified="No">False</Option>
    <Option name="SigToBkgFraction" modified="No">1.000000e+00</Option>
    <Option name="PruneMethod" modified="No">nopruning</Option>
    <Option name="PruneStrength" modified="No">0.000000e+00</Option>
    <Option name="PruningValFraction" modified="No">5.000000e-01</Option>
    <Option name="SkipNormalization" modified="No">False</Option>
    <Option name="nEventsMin" modified="No">0</Option>
    <Option name="UseBaggedGrad" modified="No">False</Option>
    <Option name="GradBaggingFraction" modified="No">6.000000e-01</Option>
    <Option name="UseNTrainEvents" modified="No">0</Option>
    <Option name="NNodesMax" modified="No">0</Option>
  </Options>
  <Variables NVar="15">
    <Variable VarIndex="0" Expression="topMass" Label="topMass" Title="topMass" Unit="" Internal="topMass" Type="F" Min="0.00000000e+00" Max="1.94356555e+03"/>
    <Variable VarIndex="1" Expression="etaMostForward" Label="etaMostForward" Title="etaMostForward" Unit="" Internal="etaMostForward" Type="F" Min="2.04481315e-04" Max="2.75211215e+00"/>
    <Variable VarIndex="2" Expression="pTLeadingJet" Label="pTLeadingJet" Title="pTLeadingJet" Unit="" Internal="pTLeadingJet" Type="F" Min="2.50070133e+01" Max="9.14649109e+02"/>
    <Variable VarIndex="3" Expression="pTLeadingLepton" Label="pTLeadingLepton" Title="pTLeadingLepton" Unit="" Internal="pTLeadingLepton" Type="F" Min="2.51116409e+01" Max="9.04014832e+02"/>
    <Variable VarIndex="4" Expression="mNotSoForwardJets" Label="mNotSoForwardJets" Title="mNotSoForwardJets" Unit="" Internal="mNotSoForwardJets" Type="F" Min="0.00000000e+00" Max="2.95411652e+02"/>
    <Variable VarIndex="5" Expression="missingET" Label="missingET" Title="missingET" Unit="" Internal="missingET" Type="F" Min="4.80668336e-01" Max="4.88814789e+02"/>
    <Variable VarIndex="6" Expression="highestDeepCSV" Label="highestDeepCSV" Title="highestDeepCSV" Unit="" Internal="highestDeepCSV" Type="F" Min="6.32599592e-01" Max="9.99998748e-01"/>
    <Variable VarIndex="7" Expression="minMlb" Label="minMlb" Title="minMlb" Unit="" Internal="minMlb" Type="F" Min="-2.76358429e+02" Max="8.22276733e+02"/>
    <Variable VarIndex="8" Expression="etaZ" Label="etaZ" Title="etaZ" Unit="" Internal="etaZ" Type="F" Min="6.07080583e-05" Max="7.83874226e+00"/>
    <Variable VarIndex="9" Expression="m3l" Label="m3l" Title="m3l" Unit="" Internal="m3l" Type="F" Min="1.57242317e+01" Max="1.98644385e+03"/>
    <Variable VarIndex="10" Expression="maxDeltaPhill" Label="maxDeltaPhill" Title="maxDeltaPhill" Unit="" Internal="maxDeltaPhill" Type="F" Min="2.49407291e-02" Max="3.14147997e+00"/>
    <Variable VarIndex="11" Expression="pTMaxlb" Label="pTMaxlb" Title="pTMaxlb" Unit="" Internal="pTMaxlb" Type="F" Min="1.89849243e+01" Max="8.99639771e+02"/>
    <Variable VarIndex="12" Expression="pT3l" Label="pT3l" Title="pT3l" Unit="" Internal="pT3l" Type="F" Min="5.21555066e-01" Max="8.33644531e+02"/>
    <Variable VarIndex="13" Expression="mForwardJetsLeadinBJetW" Label="mForwardJetsLeadinBJetW" Title="mForwardJetsLeadinBJetW" Unit="" Internal="mForwardJetsLeadinBJetW" Type="F" Min="0.00000000e+00" Max="1.94356555e+03"/>
    <Variable VarIndex="14" Expression="ht" Label="ht" Title="ht" Unit="" Internal="ht" Type="F" Min="2.50070133e+01" Max="9.14649109e+02"/>
  </Variables>
  <Spectators NSpec="0"/>
  <Classes NClass="2">
    <Class Name="Signal" Index="0"/>
    <Class Name="Background" Index="1"/>
  </Classes>
  <Transformations NTransformations="0"/>
  <MVAPdfs/>
  <Weights NTrees="1000" AnalysisType="1">
    <BinaryTree type="DecisionTree" boostWeight="1.0000000000000000e+00" itree="0">
      <Node pos="s" depth="0" NCoef="0" IVar="9" Cut="1.0396540832519531e+02" cType="1" res="-1.6080056099882774e-18" rms="5.0000000000000000e-01" purity="5.0000000000000000e-01" nType="0">
        <Node pos="l" depth="1" NCoef="0" IVar="5" Cut="3.2339416503906250e+01" cType="1" res="-3.9262506365776062e-01" rms="3.0958932638168335e-01" purity="1.0737492889165878e-01" nType="0">
          <Node pos="l" depth="2" NCoef="0" IVar="-1" Cut="0.0000000000000000e+00" cType="1" res="-8.4663610905408859e-03" rms="1.7058742046356201e-01" purity="3.0000073835253716e-02" nType="-99"/>
          <Node pos="r" depth="2" NCoef="0" IVar="-1" Cut="0.0000000000000000e+00" cType="1" res="-4.2719235643744469e-03" rms="4.3390354514122009e-01" purity="2.5154936313629150e-01" nType="-99"/>
        </Node>
        <Node pos="r" depth="1" NCoef="0" IVar="6" Cut="8.8849949836730957e-01" cType="1" res="9.5999851822853088e-02" rms="4.9069750308990479e-01" purity="5.9599983692169189e-01" nType="0">
          <Node pos="l" depth="2" NCoef="0" IVar="-1" Cut="0.0000000000000000e+00" cType="1" res="-1.5173302963376045e-02" rms="4.8753949999809265e-01" purity="3.8907098770141602e-01" nType="-99"/>
          <Node pos="r" depth="2" NCoef="0" IVar="-1" Cut="0.0000000000000000e+00" cType="1" res="4.6388320624828339e-02" rms="4.5197364687919617e-01" purity="7.1382188796997070e-01" nType="-99"/>
        </Node>
      </Node>
    </BinaryTree>
    <BinaryTree type="DecisionTree" boostWeight="1.0000000000000000e+00" itree="1">
      <Node pos="s" depth="0" NCoef="0" IVar="9" Cut="1.0396540832519531e+02" cType="1" res="-8.9676706120371819e-03" rms="4.9403133988380432e-01" purity="5.0000000000000000e-01" nType="0">
        <Node pos="l" depth="1" NCoef="0" IVar="5" Cut="3.2339416503906250e+01" cType="1" res="-3.8912439346313477e-01" rms="3.0924966931343079e-01" purity="1.0737492889165878e-01" nType="0">
          <Node pos="l" depth="2" NCoef="0" IVar="-1" Cut="0.0000000000000000e+00" cType="1" res="-8.3907097578048706e-03" rms="1.7058742046356201e-01" purity="3.0000073835253716e-02" nType="-99"/>
          <Node pos="r" depth="2" NCoef="0" IVar="-1" Cut="0.0000000000000000e+00" cType="1" res="-4.2352746240794659e-03" rms="4.3390351533889771e-01" purity="2.5154936313629150e-01" nType="-99"/>
        </Node>
        <Node pos="r" depth="1" NCoef="0" IVar="6" Cut="8.4828668832778931e-01" cType="1" res="8.3983577787876129e-02" rms="4.8619300127029419e-01" purity="5.9599983692169189e-01" nType="0">
          <Node pos="l" depth="2" NCoef="0" IVar="-1" Cut="0.0000000000000000e+00" cType="1" res="-1.6445338726043701e-02" rms="4.8040124773979187e-01" purity="3.6138314008712769e-01" nType="-99"/>
          <Node pos="r" depth="2" NCoef="0" IVar="-1" Cut="0.0000000000000000e+00" cType="1" res="3.9282631129026413e-02" rms="4.5792016386985779e-01" purity="6.9883829355239868e-01" nType="-99"/>
        </Node>
      </Node>
    </BinaryTree>
    <BinaryTree type="DecisionTree" boostWeight="1.0000000000000000e+00" itree="2">
      <Node pos="s" depth="0" NCoef="0" IVar="9" Cut="1.0396540832519531e+02" cType="1" res="-1.7201337963342667e-02" rms="4.8896995186805725e-01" purity="5.0000000000000000e-01" nType="0">
        <Node pos="l" depth="1" NCoef="0" IVar="5" Cut="3.2339416503906250e+01" cType="1" res="-3.8565516471862793e-01" rms="3.0891609191894531e-01" purity="1.0737492889165878e-01" nType="0">
          <Node pos="l" depth="2" NCoef="0" IVar="-1" Cut="0.0000000000000000e+00" cType="1" res="-8.3169108256697655e-03" rms="1.7058742046356201e-01" purity="3.0000073835253716e-02" nType="-99"/>
          <Node pos="r" depth="2" NCoef="0" IVar="-1" Cut="0.0000000000000000e+00" cType="1" res="-4.1990918107330799e-03" rms="4.3390354514122009e-01" purity="2.5154936313629150e-01" nType="-99"/>
        </Node>
        <Node pos="r" depth="1" NCoef="0" IVar="6" Cut="9.4881874322891235e-01" cType="1" res="7.2888456284999847e-02" rms="4.8260554671287537e-01" purity="5.9599983692169189e-01" nType="0">
          <Node pos="l" depth="2" NCoef="0" IVar="-1" Cut="0.0000000000000000e+00" cType="1" res="-7.6607502996921539e-03" rms="4.9220538139343262e-01" purity="4.4380423426628113e-01" nType="-99"/>
          <Node pos="r" depth="2" NCoef="0" IVar="-1" Cut="0.0000000000000000e+00" cType="1" res="6.1600189656019211e-02" rms="4.3399971723556519e-01" purity="7.4828255176544189e-01" nType="-99"/>
        </Node>
      </Node>
    </BinaryTree>
    <BinaryTree type="DecisionTree" boostWeight="1.0000000000000000e+00" itree="3">
      <Node pos="s" depth="0" NCoef="0" IVar="9" Cut="1.0396540832519531e+02" cType="1" res="-2.7191432192921638e-02" rms="4.8297682404518127e-01" purity="5.0000000000000000e-01" nType="0">
        <Node pos="l" depth="1" NCoef="0" IVar="5" Cut="3.2339416503906250e+01" cType="1" res="-3.8221704959869385e-01" rms="3.0858844518661499e-01" purity="1.0737492889165878e-01" nType="0">
          <Node pos="l" depth="2" NCoef="0" IVar="-1" Cut="0.0000000000000000e+00" cType="1" res="-8.2448953762650490e-03" rms="1.7058742046356201e-01" purity="3.0000073835253716e-02" nType="-99"/>
          <Node pos="r" depth="2" NCoef="0" IVar="-1" Cut="0.0000000000000000e+00" cType="1" res="-4.1633639484643936e-03" rms="4.3390351533889771e-01" purity="2.5154936313629150e-01" nType="-99"/>
        </Node>
        <Node pos="r" depth="1" NCoef="0" IVar="6" Cut="8.4828668832778931e-01" cType="1" res="5.9615071862936020e-02" rms="4.7818878293037415e-01" purity="5.9599983692169189e-01" nType="0">
          <Node pos="l" depth="2" NCoef="0" IVar="-1" Cut="0.0000000000000000e+00" cType="1" res="-1.4953394420444965e-02" rms="4.8040124773979187e-01" purity="3.6138314008712769e-01" nType="-99"/>
          <Node pos="r" depth="2" NCoef="0" IVar="-1" Cut="0.0000000000000000e+00" cType="1" res="3.0757058411836624e-02" rms="4.5565792918205261e-01" purity="6.9883829355239868e-01" nType="-99"/>
        </Node>
      </Node>
    </BinaryTree>
    <BinaryTree type="DecisionTree" boostWeight="1.0000000000000000e+00" itree="4">
      <Node pos="s" depth="0" NCoef="0" IVar="9" Cut="1.0396540832519531e+02" cType="1" res="-3.3109899610280991e-02" rms="4.7932800650596619e-01" purity="5.0000000000000000e-01" nType="0">
        <Node pos="l" depth="1" NCoef="0" IVar="5" Cut="3.2339416503906250e+01" cType="1" res="-3.7880980968475342e-01" rms="3.0826669931411743e-01" purity="1.0737492889165878e-01" nType="0">
          <Node pos="l" depth="2" NCoef="0" IVar="-1" Cut="0.0000000000000000e+00" cType="1" res="-8.1746000796556473e-03" rms="1.7058743536472321e-01" purity="3.0000073835253716e-02" nType="-99"/>
          <Node pos="r" depth="2" NCoef="0" IVar="-1" Cut="0.0000000000000000e+00" cType="1" res="-4.1280817240476608e-03" rms="4.3390351533889771e-01" purity="2.5154936313629150e-01" nType="-99"/>
        </Node>
        <Node pos="r" depth="1" NCoef="0" IVar="6" Cut="9.4881874322891235e-01" cType="1" res="5.1416393369436264e-02" rms="4.7574332356452942e-01" purity="5.9599983692169189e-01" nType="0">
          <Node pos="l" depth="2" NCoef="0" IVar="-1" Cut="0.0000000000000000e+00" cType="1" res="-7.3733339086174965e-03" rms="4.9055045843124390e-01" purity="4.4380423426628113e-01" nType="-99"/>
          <Node pos="r" depth="2" NCoef="0" IVar="-1" Cut="0.0000000000000000e+00" cType="1" res="4.9184098839759827e-02" rms="4.3399971723556519e-01" purity="7.4828255176544189e-01" nType="-99"/>
        </Node>
      </Node>
    </BinaryTree>
    <BinaryTree type="DecisionTree" boostWeight="1.0000000000000000e+00" itree="5">
      <Node pos="s" depth="0" NCoef="0" IVar="9" Cut="1.0396540832519531e+02" cType="1" res="-4.0453739464282990e-02" rms="4.7507742047309875e-01" purity="5.0000000000000000e-01" nType="0">
        <Node pos="l" depth="1" NCoef="0" IVar="5" Cut="3.2339416503906250e+01" cType="1" res="-3.7543314695358276e-01" rms="3.0795067548751831e-01" purity="1.0737492889165878e-01" nType="0">
          <Node pos="l" depth="2" NCoef="0" IVar="-1" Cut="0.0000000000000000e+00" cType="1" res="-8.1059616059064865e-03" rms="1.7058742046356201e-01" purity="3.0000073835253716e-02" nType="-99"/>
          <Node pos="r" depth="2" NCoef="0" IVar="-1" Cut="0.0000000000000000e+00" cType="1" res="-4.0932339616119862e-03" rms="4.3390354514122009e-01" purity="2.5154936313629150e-01" nType="-99"/>
        </Node>
        <Node pos="r" depth="1" NCoef="0" IVar="6" Cut="7.0754170417785645e-01" cType="1" res="4.1451301425695419e-02" rms="4.7281193733215332e-01" purity="5.9599983692169189e-01" nType="0">
          <Node pos="l" depth="2" NCoef="0" IVar="-1" Cut="0.0000000000000000e+00" cType="1" res="-2.4995572865009308e-02" rms="4.2359697818756104e-01" purity="2.3435816168785095e-01" nType="-99"/>
          <Node pos="r" depth="2" NCoef="0" IVar="-1" Cut="0.0000000000000000e+00" cType="1" res="1.5797976404428482e-02" rms="4.6677777171134949e-01" purity="6.4431047439575195e-01" nType="-99"/>
        </Node>
      </Node>
    </BinaryTree>
    <BinaryTree type="DecisionTree" boostWeight="1.0000000000000000e+00" itree="6">
      <Node pos="s" depth="0" NCoef="0" IVar="9" Cut="1.0396540832519531e+02" cType="1" res="-4.4034697115421295e-02" rms="4.7279959917068481e-01" purity="5.0000000000000000e-01" nType="0">
        <Node pos="l" depth="1" NCoef="0" IVar="5" Cut="3.2339416503906250e+01" cType="1" res="-3.7208676338195801e-01" rms="3.0764031410217285e-01" purity="1.0737492889165878e-01" nType="0">
          <Node pos="l" depth="2" NCoef="0" IVar="-1" Cut="0.0000000000000000e+00" cType="1" res="-8.0389222130179405e-03" rms="1.7058742046356201e-01" purity="3.0000073835253716e-02" nType="-99"/>
          <Node pos="r" depth="2" NCoef="0" IVar="-1" Cut="0.0000000000000000e+00" cType="1" res="-4.0588127449154854e-03" rms="4.3390354514122009e-01" purity="2.5154936313629150e-01" nType="-99"/>
        </Node>
        <Node pos="r" depth="1" NCoef="0" IVar="6" Cut="8.4828668832778931e-01" cType="1" res="3.6176558583974838e-02" rms="4.7149595618247986e-01" purity="5.9599983692169189e-01" nType="0">
          <Node pos="l" depth="2" NCoef="0" IVar="-1" Cut="0.0000000000000000e+00" cType="1" res="-1.3598142191767693e-02" rms="4.7842282056808472e-01" purity="3.6138314008712769e-01" nType="-99"/>
          <Node pos="r" depth="2" NCoef="0" IVar="-1" Cut="0.0000000000000000e+00" cType="1" res="2.2658001631498337e-02" rms="4.5424821972846985e-01" purity="6.9883829355239868e-01" nType="-99"/>
        </Node>
      </Node>
    </BinaryTree>
    <BinaryTree type="DecisionTree" boostWeight="1.0000000000000000e+00" itree="7">
      <Node pos="s" depth="0" NCoef="0" IVar="9" Cut="1.0396540832519531e+02" cType="1" res="-4.7750554978847504e-02" rms="4.7033551335334778e-01" purity="5.0000000000000000e-01" nType="0">
        <Node pos="l" depth="1" NCoef="0" IVar="5" Cut="3.2339416503906250e+01" cType="1" res="-3.6877036094665527e-01" rms="3.0733552575111389e-01" purity="1.0737492889165878e-01" nType="0">
          <Node pos="l" depth="2" NCoef="0" IVar="-1" Cut="0.0000000000000000e+00" cType="1" res="-7.9734241589903831e-03" rms="1.7058742046356201e-01" purity="3.0000073835253716e-02" nType="-99"/>
          <Node pos="r" depth="2" NCoef="0" IVar="-1" Cut="0.0000000000000000e+00" cType="1" res="-4.0248078294098377e-03" rms="4.3390354514122009e-01" purity="2.5154936313629150e-01" nType="-99"/>
        </Node>
        <Node pos="r" depth="1" NCoef="0" IVar="6" Cut="7.0754170417785645e-01" cType="1" res="3.0741263180971146e-02" rms="4.6994787454605103e-01" purity="5.9599983692169189e-01" nType="0">
          <Node pos="l" depth="2" NCoef="0" IVar="-1" Cut="0.0000000000000000e+00" cType="1" res="-2.3099109530448914e-02" rms="4.2359697818756104e-01" purity="2.3435816168785095e-01" nType="-99"/>
          <Node pos="r" depth="2" NCoef="0" IVar="-1" Cut="0.0000000000000000e+00" cType="1" res="1.2957060709595680e-02" rms="4.6603223681449890e-01" purity="6.4431047439575195e-01" nType="-99"/>
        </Node>
      </Node>
    </BinaryTree>
    <BinaryTree type="DecisionTree" boostWeight="1.0000000000000000e+00" itree="8">
      <Node pos="s" depth="0" NCoef="0" IVar="9" Cut="1.0396540832519531e+02" cType="1" res="-5.0413392484188080e-02" rms="4.6848329901695251e-01" purity="5.0000000000000000e-01" nType="0">
        <Node pos="l" depth="1" NCoef="0" IVar="5" Cut="3.2339416503906250e+01" cType="1" res="-3.6548373103141785e-01" rms="3.0703619122505188e-01" purity="1.0737492889165878e-01" nType="0">
          <Node pos="l" depth="2" NCoef="0" IVar="-1" Cut="0.0000000000000000e+00" cType="1" res="-7.9094152897596359e-03" rms="1.7058742046356201e-01" purity="3.0000073835253716e-02" nType="-99"/>
          <Node pos="r" depth="2" NCoef="0" IVar="-1" Cut="0.0000000000000000e+00" cType="1" res="-3.9912112988531590e-03" rms="4.3390354514122009e-01" purity="2.5154936313629150e-01" nType="-99"/>
        </Node>
        <Node pos="r" depth="1" NCoef="0" IVar="2" Cut="1.3123294067382812e+02" cType="1" res="2.6623733341693878e-02" rms="4.6891731023788452e-01" purity="5.9599983692169189e-01" nType="0">
          <Node pos="l" depth="2" NCoef="0" IVar="-1" Cut="0.0000000000000000e+00" cType="1" res="1.0373678058385849e-02" rms="4.6176442503929138e-01" purity="6.2790215015411377e-01" nType="-99"/>
          <Node pos="r" depth="2" NCoef="0" IVar="-1" Cut="0.0000000000000000e+00" cType="1" res="-4.4021874666213989e-02" rms="4.5422294735908508e-01" purity="3.3497980237007141e-01" nType="-99"/>
        </Node>
      </Node>
    </BinaryTree>
    <BinaryTree type="DecisionTree" boostWeight="1.0000000000000000e+00" itree="9">
      <Node pos="s" depth="0" NCoef="0" IVar="9" Cut="1.0396540832519531e+02" cType="1" res="-5.1459461450576782e-02" rms="4.6660491824150085e-01" purity="5.0000000000000000e-01" nType="0">
        <Node pos="l" depth="1" NCoef="0" IVar="5" Cut="3.2339416503906250e+01" cType="1" res="-3.6222654581069946e-01" rms="3.0674225091934204e-01" purity="1.0737492889165878e-01" nType="0">
          <Node pos="l" depth="2" NCoef="0" IVar="-1" Cut="0.0000000000000000e+00" cType="1" res="-7.8468443825840950e-03" rms="1.7058742046356201e-01" purity="3.0000073835253716e-02" nType="-99"/>
          <Node pos="r" depth="2" NCoef="0" IVar="-1" Cut="0.0000000000000000e+00" cType="1" res="-3.9580133743584156e-03" rms="4.3390354514122009e-01" purity="2.5154936313629150e-01" nType="-99"/>
        </Node>
        <Node pos="r" depth="1" NCoef="0" IVar="6" Cut="9.4881874322891235e-01" cType="1" res="2.4525487795472145e-02" rms="4.6750524640083313e-01" purity="5.9599983692169189e-01" nType="0">
          <Node pos="l" depth="2" NCoef="0" IVar="-1" Cut="0.0000000000000000e+00" cType="1" res="-7.8949481248855591e-03" rms="4.8505270481109619e-01" purity="4.4380423426628113e-01" nType="-99"/>
          <Node pos="r" depth="2" NCoef="0" IVar="-1" Cut="0.0000000000000000e+00" cType="1" res="3.5381857305765152e-02" rms="4.3270304799079895e-01" purity="7.4828255176544189e-01" nType="-99"/>
        </Node>
      </Node>
    </BinaryTree>
    <BinaryTree type="DecisionTree" boostWeight="1.0000000000000000e+00" itree="10">
      <Node pos="s" depth="0" NCoef="0" IVar="9" Cut="1.0396540832519531e+02" cType="1" res="-5.5752333253622055e-02" rms="4.6396937966346741e-01" purity="5.0000000000000000e-01" nType="0">
        <Node pos="l" depth="1" NCoef="0" IVar="5" Cut="3.2339416503906250e+01" cType="1" res="-3.5899859666824341e-01" rms="3.0645355582237244e-01" purity="1.0737492889165878e-01" nType="0">
          <Node pos="l" depth="2" NCoef="0" IVar="-1" Cut="0.0000000000000000e+00" cType="1" res="-7.7856625430285931e-03" rms="1.7058743536472321e-01" purity="3.0000073835253716e-02" nType="-99"/>
          <Node pos="r" depth="2" NCoef="0" IVar="-1" Cut="0.0000000000000000e+00" cType="1" res="-3.9252070710062981e-03" rms="4.3390354514122009e-01" purity="2.5154936313629150e-01" nType="-99"/>
        </Node>
        <Node pos="r" depth="1" NCoef="0" IVar="6" Cut="7.0754170417785645e-01" cType="1" res="1.8393713980913162e-02" rms="4.6578684449195862e-01" purity="5.9599983692169189e-01" nType="0">
          <Node pos="l" depth="2" NCoef="0" IVar="-1" Cut="0.0000000000000000e+00" cType="1" res="-2.1686866879463196e-02" rms="4.2262607812881470e-01" purity="2.3435816168785095e-01" nType="-99"/>
          <Node pos="r" depth="2" NCoef="0" IVar="-1" Cut="0.0000000000000000e+00" cType="1" res="9.8244678229093552e-03" rms="4.6343588829040527e-01" purity="6.4431047439575195e-01" nType="-99"/>
        </Node>
      </Node>
    </BinaryTree>
    <BinaryTree type="DecisionTree" boostWeight="1.0000000000000000e+00" itree="11">
      <Node pos="s" depth="0" NCoef="0" IVar="9" Cut="1.0396540832519531e+02" cType="1" res="-5.7388614863157272e-02" rms="4.6252256631851196e-01" purity="5.0000000000000000e-01" nType="0">
        <Node pos="l" depth="1" NCoef="0" IVar="5" Cut="3.2339416503906250e+01" cType="1" res="-3.5579952597618103e-01" rms="3.0617007613182068e-01" purity="1.0737492889165878e-01" nType="0">
          <Node pos="l" depth="2" NCoef="0" IVar="-1" Cut="0.0000000000000000e+00" cType="1" res="-7.7258218079805374e-03" rms="1.7058743536472321e-01" purity="3.0000073835253716e-02" nType="-99"/>
          <Node pos="r" depth="2" NCoef="0" IVar="-1" Cut="0.0000000000000000e+00" cType="1" res="-3.8927828427404165e-03" rms="4.3390354514122009e-01" purity="2.5154936313629150e-01" nType="-99"/>
        </Node>
        <Node pos="r" depth="1" NCoef="0" IVar="11" Cut="1.3136134338378906e+02" cType="1" res="1.5575151890516281e-02" rms="4.6499124169349670e-01" purity="5.9599983692169189e-01" nType="0">
          <Node pos="l" depth="2" NCoef="0" IVar="-1" Cut="0.0000000000000000e+00" cType="1" res="1.1121601797640324e-02" rms="4.5138463377952576e-01" purity="6.4713609218597412e-01" nType="-99"/>
          <Node pos="r" depth="2" NCoef="0" IVar="-1" Cut="0.0000000000000000e+00" cType="1" res="-2.6633376255631447e-02" rms="4.7563847899436951e-01" purity="4.6190765500068665e-01" nType="-99"/>
        </Node>
      </Node>
    </BinaryTree>
    <BinaryTree type="DecisionTree" boostWeight="1.0000000000000000e+00" itree="12">
      <Node pos="s" depth="0" NCoef="0" IVar="9" Cut="1.0396540832519531e+02" cType="1" res="-5.7002142071723938e-02" rms="4.6100753545761108e-01" purity="5.0000000000000000e-01" nType="0">
        <Node pos="l" depth="1" NCoef="0" IVar="5" Cut="3.2339416503906250e+01" cType="1" res="-3.5262912511825562e-01" rms="3.0589166283607483e-01" purity="1.0737492889165878e-01" nType="0">
          <Node pos="l" depth="2" NCoef="0" IVar="-1" Cut="0.0000000000000000e+00" cType="1" res="-7.6672779396176338e-03" rms="1.7058742046356201e-01" purity="3.0000073835253716e-02" nType="-99"/>
          <Node pos="r" depth="2" NCoef="0" IVar="-1" Cut="0.0000000000000000e+00" cType="1" res="-3.8607332389801741e-03" rms="4.3390354514122009e-01" purity="2.5154936313629150e-01" nType="-99"/>
        </Node>
        <Node pos="r" depth="1" NCoef="0" IVar="6" Cut="7.0754170417785645e-01" cType="1" res="1.5280934050679207e-02" rms="4.6370300650596619e-01" purity="5.9599983692169189e-01" nType="0">
          <Node pos="l" depth="2" NCoef="0" IVar="-1" Cut="0.0000000000000000e+00" cType="1" res="-2.0741522312164307e-02" rms="4.2211490869522095e-01" purity="2.3435816168785095e-01" nType="-99"/>
          <Node pos="r" depth="2" NCoef="0" IVar="-1" Cut="0.0000000000000000e+00" cType="1" res="8.8610146194696426e-03" rms="4.6201539039611816e-01" purity="6.4431047439575195e-01" nType="-99"/>
        </Node>
      </Node>
    </BinaryTree>
    <BinaryTree type="DecisionTree" boostWeight="1.0000000000000000e+00" itree="13">
      <Node pos="s" depth="0" NCoef="0" IVar="9" Cut="1.0396540832519531e+02" cType="1" res="-5.8365847915410995e-02" rms="4.5970547199249268e-01" purity="5.0000000000000000e-01" nType="0">
        <Node pos="l" depth="1" NCoef="0" IVar="5" Cut="3.2339416503906250e+01" cType="1" res="-3.4948712587356567e-01" rms="3.0561831593513489e-01" purity="1.0737492889165878e-01" nType="0">
          <Node pos="l" depth="2" NCoef="0" IVar="-1" Cut="0.0000000000000000e+00" cType="1" res="-7.6099890284240246e-03" rms="1.7058743536472321e-01" purity="3.0000073835253716e-02" nType="-99"/>
          <Node pos="r" depth="2" NCoef="0" IVar="-1" Cut="0.0000000000000000e+00" cType="1" res="-3.8290508091449738e-03" rms="4.3390354514122009e-01" purity="2.5154936313629150e-01" nType="-99"/>
        </Node>
        <Node pos="r" depth="1" NCoef="0" IVar="6" Cut="8.9215523004531860e-01" cType="1" res="1.2815549038350582e-02" rms="4.6300524473190308e-01" purity="5.9599983692169189e-01" nType="0">
          <Node pos="l" depth="2" NCoef="0" IVar="-1" Cut="0.0000000000000000e+00" cType="1" res="-1.1576575227081776e-02" rms="4.7708010673522949e-01" purity="3.9191868901252747e-01" nType="-99"/>
          <Node pos="r" depth="2" NCoef="0" IVar="-1" Cut="0.0000000000000000e+00" cType="1" res="1.5955712646245956e-02" rms="4.4521236419677734e-01" purity="7.1527761220932007e-01" nType="-99"/>
        </Node>
      </Node>
    </BinaryTree>
    <BinaryTree type="DecisionTree" boostWeight="1.0000000000000000e+00" itree="14">
      <Node pos="s" depth="0" NCoef="0" IVar="9" Cut="1.0396540832519531e+02" cType="1" res="-5.9722051024436951e-02" rms="4.5824289321899414e-01" purity="5.0000000000000000e-01" nType="0">
        <Node pos="l" depth="1" NCoef="0" IVar="5" Cut="3.2339416503906250e+01" cType="1" res="-3.4637328982353210e-01" rms="3.0534982681274414e-01" purity="1.0737492889165878e-01" nType="0">
          <Node pos="l" depth="2" NCoef="0" IVar="-1" Cut="0.0000000000000000e+00" cType="1" res="-7.5539131648838520e-03" rms="1.7058743536472321e-01" purity="3.0000073835253716e-02" nType="-99"/>
          <Node pos="r" depth="2" NCoef="0" IVar="-1" Cut="0.0000000000000000e+00" cType="1" res="-3.7977283354848623e-03" rms="4.3390354514122009e-01" purity="2.5154936313629150e-01" nType="-99"/>
        </Node>
        <Node pos="r" depth="1" NCoef="0" IVar="2" Cut="1.3123294067382812e+02" cType="1" res="1.0366384871304035e-02" rms="4.6209198236465454e-01" purity="5.9599983692169189e-01" nType="0">
          <Node pos="l" depth="2" NCoef="0" IVar="-1" Cut="0.0000000000000000e+00" cType="1" res="6.6357511095702648e-03" rms="4.5703521370887756e-01" purity="6.2790215015411377e-01" nType="-99"/>
          <Node pos="r" depth="2" NCoef="0" IVar="-1" Cut="0.0000000000000000e+00" cType="1" res="-3.9654426276683807e-02" rms="4.5143786072731018e-01" purity="3.3497980237007141e-01" nType="-99"/>
        </Node>
      </Node>
    </BinaryTree>
    <BinaryTree type="DecisionTree" boostWeight="1.0000000000000000e+00" itree="15">
      <Node pos="s" depth="0" NCoef="0" IVar="9" Cut="1.0396540832519531e+02" cType="1" res="-5.9662319719791412e-02" rms="4.5693579316139221e-01" purity="5.0000000000000000e-01" nType="0">
        <Node pos="l" depth="1" NCoef="0" IVar="5" Cut="3.2339416503906250e+01" cType="1" res="-3.4328731894493103e-01" rms="3.0508622527122498e-01" purity="1.0737492889165878e-01" nType="0">
          <Node pos="l" depth="2" NCoef="0" IVar="-1" Cut="0.0000000000000000e+00" cType="1" res="-7.4990112334489822e-03" rms="1.7058743536472321e-01" purity="3.0000073835253716e-02" nType="-99"/>
          <Node pos="r" depth="2" NCoef="0" IVar="-1" Cut="0.0000000000000000e+00" cType="1" res="-3.7667583674192429e-03" rms="4.3390354514122009e-01" purity="2.5154936313629150e-01" nType="-99"/>
        </Node>
        <Node pos="r" depth="1" NCoef="0" IVar="6" Cut="9.7623664140701294e-01" cType="1" res="9.6861766651272774e-03" rms="4.6109089255332947e-01" purity="5.9599983692169189e-01" nType="0">
          <Node pos="l" depth="2" NCoef="0" IVar="-1" Cut="0.0000000000000000e+00" cType="1" res="-6.7426827736198902e-03" rms="4.7845590114593506e-01" purity="4.8196628689765930e-01" nType="-99"/>
          <Node pos="r" depth="2" NCoef="0" IVar="-1" Cut="0.0000000000000000e+00" cType="1" res="3.1431920826435089e-02" rms="4.2060732841491699e-01" purity="7.6448625326156616e-01" nType="-99"/>
        </Node>
      </Node>
    </BinaryTree>
    <BinaryTree type="DecisionTree" boostWeight="1.0000000000000000e+00" itree="16">
      <Node pos="s" depth="0" NCoef="0" IVar="9" Cut="1.0396540832519531e+02" cType="1" res="-6.1944168061017990e-02" rms="4.5517385005950928e-01" purity="5.0000000000000000e-01" nType="0">
        <Node pos="l" depth="1" NCoef="0" IVar="5" Cut="3.2339416503906250e+01" cType="1" res="-3.4022897481918335e-01" rms="3.0482733249664307e-01" purity="1.0737492889165878e-01" nType="0">
          <Node pos="l" depth="2" NCoef="0" IVar="-1" Cut="0.0000000000000000e+00" cType="1" res="-7.4452455155551434e-03" rms="1.7058742046356201e-01" purity="3.0000073835253716e-02" nType="-99"/>
          <Node pos="r" depth="2" NCoef="0" IVar="-1" Cut="0.0000000000000000e+00" cType="1" res="-3.7361336871981621e-03" rms="4.3390354514122009e-01" purity="2.5154936313629150e-01" nType="-99"/>
        </Node>
        <Node pos="r" depth="1" NCoef="0" IVar="11" Cut="1.3136134338378906e+02" cType="1" res="6.0986131429672241e-03" rms="4.5995265245437622e-01" purity="5.9599983692169189e-01" nType="0">
          <Node pos="l" depth="2" NCoef="0" IVar="-1" Cut="0.0000000000000000e+00" cType="1" res="8.3823790773749352e-03" rms="4.4833552837371826e-01" purity="6.4713609218597412e-01" nType="-99"/>
          <Node pos="r" depth="2" NCoef="0" IVar="-1" Cut="0.0000000000000000e+00" cType="1" res="-2.4638893082737923e-02" rms="4.7190320491790771e-01" purity="4.6190765500068665e-01" nType="-99"/>
        </Node>
      </Node>
    </BinaryTree>
    <BinaryTree type="DecisionTree" boostWeight="1.0000000000000000e+00" itree="17">
      <Node pos="s" depth="0" NCoef="0" IVar="9" Cut="1.0396540832519531e+02" cType="1" res="-6.1017978936433792e-02" rms="4.5405030250549316e-01" purity="5.0000000000000000e-01" nType="0">
        <Node pos="l" depth="1" NCoef="0" IVar="5" Cut="3.2339416503906250e+01" cType="1" res="-3.3719801902770996e-01" rms="3.0457314848899841e-01" purity="1.0737492889165878e-01" nType="0">
          <Node pos="l" depth="2" NCoef="0" IVar="-1" Cut="0.0000000000000000e+00" cType="1" res="-7.3925806209445000e-03" rms="1.7058743536472321e-01" purity="3.0000073835253716e-02" nType="-99"/>
          <Node pos="r" depth="2" NCoef="0" IVar="-1" Cut="0.0000000000000000e+00" cType="1" res="-3.7058477755635977e-03" rms="4.3390354514122009e-01" purity="2.5154936313629150e-01" nType="-99"/>
        </Node>
        <Node pos="r" depth="1" NCoef="0" IVar="6" Cut="7.0754170417785645e-01" cType="1" res="6.5101706422865391e-03" rms="4.5899683237075806e-01" purity="5.9599983692169189e-01" nType="0">
          <Node pos="l" depth="2" NCoef="0" IVar="-1" Cut="0.0000000000000000e+00" cType="1" res="-1.8921434879302979e-02" rms="4.2136955261230469e-01" purity="2.3435816168785095e-01" nType="-99"/>
          <Node pos="r" depth="2" NCoef="0" IVar="-1" Cut="0.0000000000000000e+00" cType="1" res="6.3807023689150810e-03" rms="4.5851594209671021e-01" purity="6.4431047439575195e-01" nType="-99"/>
        </Node>
      </Node>
    </BinaryTree>
    <BinaryTree type="DecisionTree" boostWeight="1.0000000000000000e+00" itree="18">
      <Node pos="s" depth="0" NCoef="0" IVar="9" Cut="9.4160835266113281e+01" cType="1" res="-6.1640080064535141e-02" rms="4.5306652784347534e-01" purity="5.0000000000000000e-01" nType="0">
        <Node pos="l" depth="1" NCoef="0" IVar="5" Cut="4.1181976318359375e+01" cType="1" res="-3.6351191997528076e-01" rms="2.6234802603721619e-01" purity="7.7355861663818359e-02" nType="0">
          <Node pos="l" depth="2" NCoef="0" IVar="-1" Cut="0.0000000000000000e+00" cType="1" res="-7.6904427260160446e-03" rms="1.4298027753829956e-01" purity="2.1098325029015541e-02" nType="-99"/>
          <Node pos="r" depth="2" NCoef="0" IVar="-1" Cut="0.0000000000000000e+00" cType="1" res="-3.2578257378190756e-03" rms="4.0726277232170105e-01" purity="2.0993611216545105e-01" nType="-99"/>
        </Node>
        <Node pos="r" depth="1" NCoef="0" IVar="3" Cut="4.2664028167724609e+01" cType="1" res="-1.3552160235121846e-03" rms="4.5900416374206543e-01" purity="5.8440345525741577e-01" nType="0">
          <Node pos="l" depth="2" NCoef="0" IVar="-1" Cut="0.0000000000000000e+00" cType="1" res="-9.4293402507901192e-03" rms="4.1727414727210999e-01" purity="2.6075470447540283e-01" nType="-99"/>
          <Node pos="r" depth="2" NCoef="0" IVar="-1" Cut="0.0000000000000000e+00" cType="1" res="3.7848621141165495e-03" rms="4.5528873801231384e-01" purity="6.0478538274765015e-01" nType="-99"/>
        </Node>
      </Node>
    </BinaryTree>
    <BinaryTree type="DecisionTree" boostWeight="1.0000000000000000e+00" itree="19">
      <Node pos="s" depth="0" NCoef="0" IVar="9" Cut="9.4160835266113281e+01" cType="1" res="-6.2264584004878998e-02" rms="4.5236250758171082e-01" purity="5.0000000000000000e-01" nType="0">
        <Node pos="l" depth="1" NCoef="0" IVar="5" Cut="4.1181976318359375e+01" cType="1" res="-3.6038446426391602e-01" rms="2.6208385825157166e-01" purity="7.7355861663818359e-02" nType="0">
          <Node pos="l" depth="2" NCoef="0" IVar="-1" Cut="0.0000000000000000e+00" cType="1" res="-7.6367598958313465e-03" rms="1.4298121631145477e-01" purity="2.1098325029015541e-02" nType="-99"/>
          <Node pos="r" depth="2" NCoef="0" IVar="-1" Cut="0.0000000000000000e+00" cType="1" res="-3.2386127859354019e-03" rms="4.0726274251937866e-01" purity="2.0993611216545105e-01" nType="-99"/>
        </Node>
        <Node pos="r" depth="1" NCoef="0" IVar="3" Cut="4.2664028167724609e+01" cType="1" res="-2.7289965655654669e-03" rms="4.5878872275352478e-01" purity="5.8440345525741577e-01" nType="0">
          <Node pos="l" depth="2" NCoef="0" IVar="-1" Cut="0.0000000000000000e+00" cType="1" res="-9.2788003385066986e-03" rms="4.1724836826324463e-01" purity="2.6075470447540283e-01" nType="-99"/>
          <Node pos="r" depth="2" NCoef="0" IVar="-1" Cut="0.0000000000000000e+00" cType="1" res="3.3996396232396364e-03" rms="4.5530679821968079e-01" purity="6.0478538274765015e-01" nType="-99"/>
        </Node>
      </Node>
    </BinaryTree>
    <BinaryTree type="DecisionTree" boostWeight="1.0000000000000000e+00" itree="20">
      <Node pos="s" depth="0" NCoef="0" IVar="9" Cut="9.4160835266113281e+01" cType="1" res="-6.2756404280662537e-02" rms="4.5169550180435181e-01" purity="5.0000000000000000e-01" nType="0">
        <Node pos="l" depth="1" NCoef="0" IVar="5" Cut="4.1181976318359375e+01" cType="1" res="-3.5728442668914795e-01" rms="2.6182606816291809e-01" purity="7.7355861663818359e-02" nType="0">
          <Node pos="l" depth="2" NCoef="0" IVar="-1" Cut="0.0000000000000000e+00" cType="1" res="-7.5842016376554966e-03" rms="1.4298221468925476e-01" purity="2.1098325029015541e-02" nType="-99"/>
          <Node pos="r" depth="2" NCoef="0" IVar="-1" Cut="0.0000000000000000e+00" cType="1" res="-3.2195716630667448e-03" rms="4.0726274251937866e-01" purity="2.0993611216545105e-01" nType="-99"/>
        </Node>
        <Node pos="r" depth="1" NCoef="0" IVar="3" Cut="4.2664028167724609e+01" cType="1" res="-3.9381254464387894e-03" rms="4.5858544111251831e-01" purity="5.8440345525741577e-01" nType="0">
          <Node pos="l" depth="2" NCoef="0" IVar="-1" Cut="0.0000000000000000e+00" cType="1" res="-9.1320732608437538e-03" rms="4.1722440719604492e-01" purity="2.6075470447540283e-01" nType="-99"/>
          <Node pos="r" depth="2" NCoef="0" IVar="-1" Cut="0.0000000000000000e+00" cType="1" res="3.0537517741322517e-03" rms="4.5532351732254028e-01" purity="6.0478538274765015e-01" nType="-99"/>
        </Node>
      </Node>
    </BinaryTree>
    <BinaryTree type="DecisionTree" boostWeight="1.0000000000000000e+00" itree="21">
      <Node pos="s" depth="0" NCoef="0" IVar="9" Cut="9.4160835266113281e+01" cType="1" res="-6.3130065798759460e-02" rms="4.5106196403503418e-01" purity="5.0000000000000000e-01" nType="0">
        <Node pos="l" depth="1" NCoef="0" IVar="5" Cut="4.1181976318359375e+01" cType="1" res="-3.5421150922775269e-01" rms="2.6157450675964355e-01" purity="7.7355861663818359e-02" nType="0">
          <Node pos="l" depth="2" NCoef="0" IVar="-1" Cut="0.0000000000000000e+00" cType="1" res="-7.5327325612306595e-03" rms="1.4298325777053833e-01" purity="2.1098325029015541e-02" nType="-99"/>
          <Node pos="r" depth="2" NCoef="0" IVar="-1" Cut="0.0000000000000000e+00" cType="1" res="-3.2006993424147367e-03" rms="4.0726274251937866e-01" purity="2.0993611216545105e-01" nType="-99"/>
        </Node>
        <Node pos="r" depth="1" NCoef="0" IVar="3" Cut="4.2664028167724609e+01" cType="1" res="-5.0000846385955811e-03" rms="4.5839321613311768e-01" purity="5.8440345525741577e-01" nType="0">
          <Node pos="l" depth="2" NCoef="0" IVar="-1" Cut="0.0000000000000000e+00" cType="1" res="-8.9889867231249809e-03" rms="4.1720220446586609e-01" purity="2.6075470447540283e-01" nType="-99"/>
          <Node pos="r" depth="2" NCoef="0" IVar="-1" Cut="0.0000000000000000e+00" cType="1" res="2.7431421913206577e-03" rms="4.5533892512321472e-01" purity="6.0478538274765015e-01" nType="-99"/>
        </Node>
      </Node>
    </BinaryTree>
    <BinaryTree type="DecisionTree" boostWeight="1.0000000000000000e+00" itree="22">
      <Node pos="s" depth="0" NCoef="0" IVar="9" Cut="9.4160835266113281e+01" cType="1" res="-6.3398540019989014e-02" rms="4.5045882463455200e-01" purity="5.0000000000000000e-01" nType="0">
        <Node pos="l" depth="1" NCoef="0" IVar="5" Cut="4.1181976318359375e+01" cType="1" res="-3.5116550326347351e-01" rms="2.6132905483245850e-01" purity="7.7355861663818359e-02" nType="0">
          <Node pos="l" depth="2" NCoef="0" IVar="-1" Cut="0.0000000000000000e+00" cType="1" res="-7.4823196046054363e-03" rms="1.4298436045646667e-01" purity="2.1098325029015541e-02" nType="-99"/>
          <Node pos="r" depth="2" NCoef="0" IVar="-1" Cut="0.0000000000000000e+00" cType="1" res="-3.1819939613342285e-03" rms="4.0726274251937866e-01" purity="2.0993611216545105e-01" nType="-99"/>
        </Node>
        <Node pos="r" depth="1" NCoef="0" IVar="3" Cut="4.2664028167724609e+01" cType="1" res="-5.9304730966687202e-03" rms="4.5821097493171692e-01" purity="5.8440345525741577e-01" nType="0">
          <Node pos="l" depth="2" NCoef="0" IVar="-1" Cut="0.0000000000000000e+00" cType="1" res="-8.8493768125772476e-03" rms="4.1718170046806335e-01" purity="2.6075470447540283e-01" nType="-99"/>
          <Node pos="r" depth="2" NCoef="0" IVar="-1" Cut="0.0000000000000000e+00" cType="1" res="2.4641884956508875e-03" rms="4.5535308122634888e-01" purity="6.0478538274765015e-01" nType="-99"/>
        </Node>
      </Node>
    </BinaryTree>
    <BinaryTree type="DecisionTree" boostWeight="1.0000000000000000e+00" itree="23">
      <Node pos="s" depth="0" NCoef="0" IVar="9" Cut="9.4160835266113281e+01" cType="1" res="-6.3573412597179413e-02" rms="4.4988334178924561e-01" purity="5.0000000000000000e-01" nType="0">
        <Node pos="l" depth="1" NCoef="0" IVar="5" Cut="3.6760696411132812e+01" cType="1" res="-3.4814617037773132e-01" rms="2.6108959317207336e-01" purity="7.7355861663818359e-02" nType="0">
          <Node pos="l" depth="2" NCoef="0" IVar="-1" Cut="0.0000000000000000e+00" cType="1" res="-7.3225796222686768e-03" rms="1.3654784858226776e-01" purity="1.9110227003693581e-02" nType="-99"/>
          <Node pos="r" depth="2" NCoef="0" IVar="-1" Cut="0.0000000000000000e+00" cType="1" res="-3.3417348749935627e-03" rms="4.0463295578956604e-01" purity="2.0639552175998688e-01" nType="-99"/>
        </Node>
        <Node pos="r" depth="1" NCoef="0" IVar="3" Cut="4.2664028167724609e+01" cType="1" res="-6.7432373762130737e-03" rms="4.5803785324096680e-01" purity="5.8440345525741577e-01" nType="0">
          <Node pos="l" depth="2" NCoef="0" IVar="-1" Cut="0.0000000000000000e+00" cType="1" res="-8.7130926549434662e-03" rms="4.1716277599334717e-01" purity="2.6075470447540283e-01" nType="-99"/>
          <Node pos="r" depth="2" NCoef="0" IVar="-1" Cut="0.0000000000000000e+00" cType="1" res="2.2136466577649117e-03" rms="4.5536607503890991e-01" purity="6.0478538274765015e-01" nType="-99"/>
        </Node>
      </Node>
    </BinaryTree>
    <BinaryTree type="DecisionTree" boostWeight="1.0000000000000000e+00" itree="24">
      <Node pos="s" depth="0" NCoef="0" IVar="9" Cut="9.4160835266113281e+01" cType="1" res="-6.3671171665191650e-02" rms="4.4933822751045227e-01" purity="5.0000000000000000e-01" nType="0">
        <Node pos="l" depth="1" NCoef="0" IVar="5" Cut="4.1181976318359375e+01" cType="1" res="-3.4519007802009583e-01" rms="2.6086941361427307e-01" purity="7.7355861663818359e-02" nType="0">
          <Node pos="l" depth="2" NCoef="0" IVar="-1" Cut="0.0000000000000000e+00" cType="1" res="-7.3859384283423424e-03" rms="1.4296858012676239e-01" purity="2.1098325029015541e-02" nType="-99"/>
          <Node pos="r" depth="2" NCoef="0" IVar="-1" Cut="0.0000000000000000e+00" cType="1" res="-3.1440355814993382e-03" rms="4.0726274251937866e-01" purity="2.0993611216545105e-01" nType="-99"/>
        </Node>
        <Node pos="r" depth="1" NCoef="0" IVar="3" Cut="4.2664028167724609e+01" cType="1" res="-7.4508660472929478e-03" rms="4.5787307620048523e-01" purity="5.8440345525741577e-01" nType="0">
          <Node pos="l" depth="2" NCoef="0" IVar="-1" Cut="0.0000000000000000e+00" cType="1" res="-8.5799908265471458e-03" rms="4.1714537143707275e-01" purity="2.6075470447540283e-01" nType="-99"/>
          <Node pos="r" depth="2" NCoef="0" IVar="-1" Cut="0.0000000000000000e+00" cType="1" res="1.9886083900928497e-03" rms="4.5537793636322021e-01" purity="6.0478538274765015e-01" nType="-99"/>
        </Node>
      </Node>
    </BinaryTree>
    <BinaryTree type="DecisionTree" boostWeight="1.0000000000000000e+00" itree="25">
      <Node pos="s" depth="0" NCoef="0" IVar="9" Cut="9.4160835266113281e+01" cType="1" res="-6.3688755035400391e-02" rms="4.4881099462509155e-01" purity="5.0000000000000000e-01" nType="0">
        <Node pos="l" depth="1" NCoef="0" IVar="5" Cut="3.6760696411132812e+01" cType="1" res="-3.4222289919853210e-01" rms="2.6064106822013855e-01" purity="7.7355861663818359e-02" nType="0">
          <Node pos="l" depth="2" NCoef="0" IVar="-1" Cut="0.0000000000000000e+00" cType="1" res="-7.2293714620172977e-03" rms="1.3654896616935730e-01" purity="1.9110227003693581e-02" nType="-99"/>
          <Node pos="r" depth="2" NCoef="0" IVar="-1" Cut="0.0000000000000000e+00" cType="1" res="-3.3013543579727411e-03" rms="4.0461796522140503e-01" purity="2.0639552175998688e-01" nType="-99"/>
        </Node>
        <Node pos="r" depth="1" NCoef="0" IVar="3" Cut="4.2664028167724609e+01" cType="1" res="-8.0645121634006500e-03" rms="4.5771601796150208e-01" purity="5.8440345525741577e-01" nType="0">
          <Node pos="l" depth="2" NCoef="0" IVar="-1" Cut="0.0000000000000000e+00" cType="1" res="-8.4499362856149673e-03" rms="4.1712939739227295e-01" purity="2.6075470447540283e-01" nType="-99"/>
          <Node pos="r" depth="2" NCoef="0" IVar="-1" Cut="0.0000000000000000e+00" cType="1" res="1.7864704132080078e-03" rms="4.5538875460624695e-01" purity="6.0478538274765015e-01" nType="-99"/>
        </Node>
      </Node>
    </BinaryTree>
    <BinaryTree type="DecisionTree" boostWeight="1.0000000000000000e+00" itree="26">
      <Node pos="s" depth="0" NCoef="0" IVar="9" Cut="9.4160835266113281e+01" cType="1" res="-6.3646689057350159e-02" rms="4.4830995798110962e-01" purity="5.0000000000000000e-01" nType="0">
        <Node pos="l" depth="1" NCoef="0" IVar="5" Cut="4.1181976318359375e+01" cType="1" res="-3.3931791782379150e-01" rms="2.6043123006820679e-01" purity="7.7355861663818359e-02" nType="0">
          <Node pos="l" depth="2" NCoef="0" IVar="-1" Cut="0.0000000000000000e+00" cType="1" res="-7.2933342307806015e-03" rms="1.4295373857021332e-01" purity="2.1098325029015541e-02" nType="-99"/>
          <Node pos="r" depth="2" NCoef="0" IVar="-1" Cut="0.0000000000000000e+00" cType="1" res="-3.1067493837326765e-03" rms="4.0726274251937866e-01" purity="2.0993611216545105e-01" nType="-99"/>
        </Node>
        <Node pos="r" depth="1" NCoef="0" IVar="3" Cut="4.2664028167724609e+01" cType="1" res="-8.5941860452294350e-03" rms="4.5756599307060242e-01" purity="5.8440345525741577e-01" nType="0">
          <Node pos="l" depth="2" NCoef="0" IVar="-1" Cut="0.0000000000000000e+00" cType="1" res="-8.3228033035993576e-03" rms="4.1711485385894775e-01" purity="2.6075470447540283e-01" nType="-99"/>
          <Node pos="r" depth="2" NCoef="0" IVar="-1" Cut="0.0000000000000000e+00" cType="1" res="1.6048932448029518e-03" rms="4.5539858937263489e-01" purity="6.0478538274765015e-01" nType="-99"/>
        </Node>
      </Node>
    </BinaryTree>
    <BinaryTree type="DecisionTree" boostWeight="1.0000000000000000e+00" itree="27">
      <Node pos="s" depth="0" NCoef="0" IVar="9" Cut="9.4160835266113281e+01" cType="1" res="-6.3540257513523102e-02" rms="4.4782337546348572e-01" purity="5.0000000000000000e-01" nType="0">
        <Node pos="l" depth="1" NCoef="0" IVar="5" Cut="3.6760696411132812e+01" cType="1" res="-3.3640196919441223e-01" rms="2.6021355390548706e-01" purity="7.7355861663818359e-02" nType="0">
          <Node pos="l" depth="2" NCoef="0" IVar="-1" Cut="0.0000000000000000e+00" cType="1" res="-7.1397796273231506e-03" rms="1.3655018806457520e-01" purity="1.9110227003693581e-02" nType="-99"/>
          <Node pos="r" depth="2" NCoef="0" IVar="-1" Cut="0.0000000000000000e+00" cType="1" res="-3.2616849057376385e-03" rms="4.0460368990898132e-01" purity="2.0639552175998688e-01" nType="-99"/>
        </Node>
        <Node pos="r" depth="1" NCoef="0" IVar="3" Cut="4.2664028167724609e+01" cType="1" res="-9.0488214045763016e-03" rms="4.5742255449295044e-01" purity="5.8440345525741577e-01" nType="0">
          <Node pos="l" depth="2" NCoef="0" IVar="-1" Cut="0.0000000000000000e+00" cType="1" res="-8.1984708085656166e-03" rms="4.1710159182548523e-01" purity="2.6075470447540283e-01" nType="-99"/>
          <Node pos="r" depth="2" NCoef="0" IVar="-1" Cut="0.0000000000000000e+00" cType="1" res="1.4417838538065553e-03" rms="4.5540755987167358e-01" purity="6.0478538274765015e-01" nType="-99"/>
        </Node>
      </Node>
    </BinaryTree>
    <BinaryTree type="DecisionTree" boostWeight="1.0000000000000000e+00" itree="28">
      <Node pos="s" depth="0" NCoef="0" IVar="9" Cut="9.4160835266113281e+01" cType="1" res="-6.3388146460056305e-02" rms="4.4735962152481079e-01" purity="5.0000000000000000e-01" nType="0">
        <Node pos="l" depth="1" NCoef="0" IVar="6" Cut="8.3588898181915283e-01" cType="1" res="-3.3354717493057251e-01" rms="2.6001358032226562e-01" purity="7.7355861663818359e-02" nType="0">
          <Node pos="l" depth="2" NCoef="0" IVar="-1" Cut="0.0000000000000000e+00" cType="1" res="-5.0030578859150410e-03" rms="1.2860952317714691e-01" purity="1.6896082088351250e-02" nType="-99"/>
          <Node pos="r" depth="2" NCoef="0" IVar="-1" Cut="0.0000000000000000e+00" cType="1" res="-6.7063537426292896e-03" rms="3.2937595248222351e-01" purity="1.3476440310478210e-01" nType="-99"/>
        </Node>
        <Node pos="r" depth="1" NCoef="0" IVar="3" Cut="4.2664028167724609e+01" cType="1" res="-9.4364471733570099e-03" rms="4.5728519558906555e-01" purity="5.8440345525741577e-01" nType="0">
          <Node pos="l" depth="2" NCoef="0" IVar="-1" Cut="0.0000000000000000e+00" cType="1" res="-8.0768270418047905e-03" rms="4.1708964109420776e-01" purity="2.6075470447540283e-01" nType="-99"/>
          <Node pos="r" depth="2" NCoef="0" IVar="-1" Cut="0.0000000000000000e+00" cType="1" res="1.2952574761584401e-03" rms="4.5541569590568542e-01" purity="6.0478538274765015e-01" nType="-99"/>
        </Node>
      </Node>
    </BinaryTree>
    <BinaryTree type="DecisionTree" boostWeight="1.0000000000000000e+00" itree="29">
      <Node pos="s" depth="0" NCoef="0" IVar="9" Cut="9.4160835266113281e+01" cType="1" res="-6.3189685344696045e-02" rms="4.4694188237190247e-01" purity="5.0000000000000000e-01" nType="0">
        <Node pos="l" depth="1" NCoef="0" IVar="6" Cut="8.3588898181915283e-01" cType="1" res="-3.3071354031562805e-01" rms="2.6012605428695679e-01" purity="7.7355861663818359e-02" nType="0">
          <Node pos="l" depth="2" NCoef="0" IVar="-1" Cut="0.0000000000000000e+00" cType="1" res="-4.9801748245954514e-03" rms="1.2860557436943054e-01" purity="1.6896082088351250e-02" nType="-99"/>
          <Node pos="r" depth="2" NCoef="0" IVar="-1" Cut="0.0000000000000000e+00" cType="1" res="-6.6459556110203266e-03" rms="3.2940083742141724e-01" purity="1.3476440310478210e-01" nType="-99"/>
        </Node>
        <Node pos="r" depth="1" NCoef="0" IVar="3" Cut="4.2664028167724609e+01" cType="1" res="-9.7642308101058006e-03" rms="4.5715349912643433e-01" purity="5.8440345525741577e-01" nType="0">
          <Node pos="l" depth="2" NCoef="0" IVar="-1" Cut="0.0000000000000000e+00" cType="1" res="-7.9577658325433731e-03" rms="4.1707891225814819e-01" purity="2.6075470447540283e-01" nType="-99"/>
          <Node pos="r" depth="2" NCoef="0" IVar="-1" Cut="0.0000000000000000e+00" cType="1" res="1.1636287672445178e-03" rms="4.5542308688163757e-01" purity="6.0478538274765015e-01" nType="-99"/>
        </Node>
      </Node>
    </BinaryTree>
    <BinaryTree type="DecisionTree" boostWeight="1.0000000000000000e+00" itree="30">
      <Node pos="s" depth="0" NCoef="0" IVar="9" Cut="9.4160835266113281e+01" cType="1" res="-6.2951117753982544e-02" rms="4.4653913378715515e-01" purity="5.0000000000000000e-01" nType="0">
        <Node pos="l" depth="1" NCoef="0" IVar="6" Cut="8.3588898181915283e-01" cType="1" res="-3.2790642976760864e-01" rms="2.6023688912391663e-01" purity="7.7355861663818359e-02" nType="0">
          <Node pos="l" depth="2" NCoef="0" IVar="-1" Cut="0.0000000000000000e+00" cType="1" res="-4.9576079472899437e-03" rms="1.2860155105590820e-01" purity="1.6896082088351250e-02" nType="-99"/>
          <Node pos="r" depth="2" NCoef="0" IVar="-1" Cut="0.0000000000000000e+00" cType="1" res="-6.5864636562764645e-03" rms="3.2942640781402588e-01" purity="1.3476440310478210e-01" nType="-99"/>
        </Node>
        <Node pos="r" depth="1" NCoef="0" IVar="6" Cut="7.0754170417785645e-01" cType="1" res="-1.0038617998361588e-02" rms="4.5702710747718811e-01" purity="5.8440345525741577e-01" nType="0">
          <Node pos="l" depth="2" NCoef="0" IVar="-1" Cut="0.0000000000000000e+00" cType="1" res="-1.9088512286543846e-02" rms="4.2292055487632751e-01" purity="2.3718251287937164e-01" nType="-99"/>
          <Node pos="r" depth="2" NCoef="0" IVar="-1" Cut="0.0000000000000000e+00" cType="1" res="1.9648186862468719e-03" rms="4.5703306794166565e-01" purity="6.2953186035156250e-01" nType="-99"/>
        </Node>
      </Node>
    </BinaryTree>
    <BinaryTree type="DecisionTree" boostWeight="1.0000000000000000e+00" itree="31">
      <Node pos="s" depth="0" NCoef="0" IVar="9" Cut="9.4160835266113281e+01" cType="1" res="-6.2266822904348373e-02" rms="4.4596925377845764e-01" purity="5.0000000000000000e-01" nType="0">
        <Node pos="l" depth="1" NCoef="0" IVar="6" Cut="8.3588898181915283e-01" cType="1" res="-3.2512560486793518e-01" rms="2.6034605503082275e-01" purity="7.7355861663818359e-02" nType="0">
          <Node pos="l" depth="2" NCoef="0" IVar="-1" Cut="0.0000000000000000e+00" cType="1" res="-4.9353502690792084e-03" rms="1.2859743833541870e-01" purity="1.6896082088351250e-02" nType="-99"/>
          <Node pos="r" depth="2" NCoef="0" IVar="-1" Cut="0.0000000000000000e+00" cType="1" res="-6.5278499387204647e-03" rms="3.2945269346237183e-01" purity="1.3476440310478210e-01" nType="-99"/>
        </Node>
        <Node pos="r" depth="1" NCoef="0" IVar="3" Cut="4.2664028167724609e+01" cType="1" res="-9.7730085253715515e-03" rms="4.5663696527481079e-01" purity="5.8440345525741577e-01" nType="0">
          <Node pos="l" depth="2" NCoef="0" IVar="-1" Cut="0.0000000000000000e+00" cType="1" res="-7.8551648184657097e-03" rms="4.1719630360603333e-01" purity="2.6075470447540283e-01" nType="-99"/>
          <Node pos="r" depth="2" NCoef="0" IVar="-1" Cut="0.0000000000000000e+00" cType="1" res="1.1174845276400447e-03" rms="4.5498082041740417e-01" purity="6.0478538274765015e-01" nType="-99"/>
        </Node>
      </Node>
    </BinaryTree>
    <BinaryTree type="DecisionTree" boostWeight="1.0000000000000000e+00" itree="32">
      <Node pos="s" depth="0" NCoef="0" IVar="9" Cut="9.4160835266113281e+01" cType="1" res="-6.2022104859352112e-02" rms="4.4558063149452209e-01" purity="5.0000000000000000e-01" nType="0">
        <Node pos="l" depth="1" NCoef="0" IVar="6" Cut="8.3588898181915283e-01" cType="1" res="-3.2237073779106140e-01" rms="2.6045352220535278e-01" purity="7.7355861663818359e-02" nType="0">
          <Node pos="l" depth="2" NCoef="0" IVar="-1" Cut="0.0000000000000000e+00" cType="1" res="-4.9133948050439358e-03" rms="1.2859326601028442e-01" purity="1.6896082088351250e-02" nType="-99"/>
          <Node pos="r" depth="2" NCoef="0" IVar="-1" Cut="0.0000000000000000e+00" cType="1" res="-6.4700874499976635e-03" rms="3.2947963476181030e-01" purity="1.3476440310478210e-01" nType="-99"/>
        </Node>
        <Node pos="r" depth="1" NCoef="0" IVar="2" Cut="1.3123294067382812e+02" cType="1" res="-1.0029571130871773e-02" rms="4.5651412010192871e-01" purity="5.8440345525741577e-01" nType="0">
          <Node pos="l" depth="2" NCoef="0" IVar="-1" Cut="0.0000000000000000e+00" cType="1" res="1.6267640748992562e-03" rms="4.5292821526527405e-01" purity="6.1374282836914062e-01" nType="-99"/>
          <Node pos="r" depth="2" NCoef="0" IVar="-1" Cut="0.0000000000000000e+00" cType="1" res="-3.6912608891725540e-02" rms="4.5131886005401611e-01" purity="3.3602043986320496e-01" nType="-99"/>
        </Node>
      </Node>
    </BinaryTree>
    <BinaryTree type="DecisionTree" boostWeight="1.0000000000000000e+00" itree="33">
      <Node pos="s" depth="0" NCoef="0" IVar="9" Cut="9.4160835266113281e+01" cType="1" res="-6.0577049851417542e-02" rms="4.4486400485038757e-01" purity="5.0000000000000000e-01" nType="0">
        <Node pos="l" depth="1" NCoef="0" IVar="6" Cut="8.3588898181915283e-01" cType="1" res="-3.1964161992073059e-01" rms="2.6055926084518433e-01" purity="7.7355861663818359e-02" nType="0">
          <Node pos="l" depth="2" NCoef="0" IVar="-1" Cut="0.0000000000000000e+00" cType="1" res="-4.8917359672486782e-03" rms="1.2858903408050537e-01" purity="1.6896082088351250e-02" nType="-99"/>
          <Node pos="r" depth="2" NCoef="0" IVar="-1" Cut="0.0000000000000000e+00" cType="1" res="-6.4131501130759716e-03" rms="3.2950720191001892e-01" purity="1.3476440310478210e-01" nType="-99"/>
        </Node>
        <Node pos="r" depth="1" NCoef="0" IVar="3" Cut="4.2664028167724609e+01" cType="1" res="-8.8409474119544029e-03" rms="4.5583811402320862e-01" purity="5.8440345525741577e-01" nType="0">
          <Node pos="l" depth="2" NCoef="0" IVar="-1" Cut="0.0000000000000000e+00" cType="1" res="-7.7619180083274841e-03" rms="4.1713181138038635e-01" purity="2.6075470447540283e-01" nType="-99"/>
          <Node pos="r" depth="2" NCoef="0" IVar="-1" Cut="0.0000000000000000e+00" cType="1" res="1.2966968351975083e-03" rms="4.5420485734939575e-01" purity="6.0478538274765015e-01" nType="-99"/>
        </Node>
      </Node>
    </BinaryTree>
    <BinaryTree type="DecisionTree" boostWeight="1.0000000000000000e+00" itree="34">
      <Node pos="s" depth="0" NCoef="0" IVar="9" Cut="9.4160835266113281e+01" cType="1" res="-6.0406573116779327e-02" rms="4.4447660446166992e-01" purity="5.0000000000000000e-01" nType="0">
        <Node pos="l" depth="1" NCoef="0" IVar="6" Cut="8.3588898181915283e-01" cType="1" res="-3.1693801283836365e-01" rms="2.6066327095031738e-01" purity="7.7355861663818359e-02" nType="0">
          <Node pos="l" depth="2" NCoef="0" IVar="-1" Cut="0.0000000000000000e+00" cType="1" res="-4.8703677020967007e-03" rms="1.2858471274375916e-01" purity="1.6896082088351250e-02" nType="-99"/>
          <Node pos="r" depth="2" NCoef="0" IVar="-1" Cut="0.0000000000000000e+00" cType="1" res="-6.3570123165845871e-03" rms="3.2953533530235291e-01" purity="1.3476440310478210e-01" nType="-99"/>
        </Node>
        <Node pos="r" depth="1" NCoef="0" IVar="3" Cut="4.2664028167724609e+01" cType="1" res="-9.1763464733958244e-03" rms="4.5571610331535339e-01" purity="5.8440345525741577e-01" nType="0">
          <Node pos="l" depth="2" NCoef="0" IVar="-1" Cut="0.0000000000000000e+00" cType="1" res="-7.6492778025567532e-03" rms="4.1712316870689392e-01" purity="2.6075470447540283e-01" nType="-99"/>
          <Node pos="r" depth="2" NCoef="0" IVar="-1" Cut="0.0000000000000000e+00" cType="1" res="1.1649957159534097e-03" rms="4.5421215891838074e-01" purity="6.0478538274765015e-01" nType="-99"/>
        </Node>
      </Node>
    </BinaryTree>
    <BinaryTree type="DecisionTree" boostWeight="1.0000000000000000e+00" itree="35">
      <Node pos="s" depth="0" NCoef="0" IVar="9" Cut="9.4160835266113281e+01" cType="1" res="-6.0195822268724442e-02" rms="4.4410336017608643e-01" purity="5.0000000000000000e-01" nType="0">
        <Node pos="l" depth="1" NCoef="0" IVar="6" Cut="8.3588898181915283e-01" cType="1" res="-3.1425964832305908e-01" rms="2.6076549291610718e-01" purity="7.7355861663818359e-02" nType="0">
          <Node pos="l" depth="2" NCoef="0" IVar="-1" Cut="0.0000000000000000e+00" cType="1" res="-4.8492844216525555e-03" rms="1.2858034670352936e-01" purity="1.6896082088351250e-02" nType="-99"/>
          <Node pos="r" depth="2" NCoef="0" IVar="-1" Cut="0.0000000000000000e+00" cType="1" res="-6.3016507774591446e-03" rms="3.2956409454345703e-01" purity="1.3476440310478210e-01" nType="-99"/>
        </Node>
        <Node pos="r" depth="1" NCoef="0" IVar="3" Cut="1.0824911499023438e+02" cType="1" res="-9.4583882018923759e-03" rms="4.5559903979301453e-01" purity="5.8440345525741577e-01" nType="0">
          <Node pos="l" depth="2" NCoef="0" IVar="-1" Cut="0.0000000000000000e+00" cType="1" res="5.3076311014592648e-03" rms="4.4544777274131775e-01" purity="6.2681275606155396e-01" nType="-99"/>
          <Node pos="r" depth="2" NCoef="0" IVar="-1" Cut="0.0000000000000000e+00" cType="1" res="-1.1250306852161884e-02" rms="4.6850848197937012e-01" purity="4.7565096616744995e-01" nType="-99"/>
        </Node>
      </Node>
    </BinaryTree>
    <BinaryTree type="DecisionTree" boostWeight="1.0000000000000000e+00" itree="36">
      <Node pos="s" depth="0" NCoef="0" IVar="9" Cut="9.4160835266113281e+01" cType="1" res="-5.9972316026687622e-02" rms="4.4348770380020142e-01" purity="5.0000000000000000e-01" nType="0">
        <Node pos="l" depth="1" NCoef="0" IVar="6" Cut="8.3588898181915283e-01" cType="1" res="-3.1160622835159302e-01" rms="2.6086598634719849e-01" purity="7.7355861663818359e-02" nType="0">
          <Node pos="l" depth="2" NCoef="0" IVar="-1" Cut="0.0000000000000000e+00" cType="1" res="-4.8284800723195076e-03" rms="1.2857590615749359e-01" purity="1.6896082088351250e-02" nType="-99"/>
          <Node pos="r" depth="2" NCoef="0" IVar="-1" Cut="0.0000000000000000e+00" cType="1" res="-6.2470417469739914e-03" rms="3.2959336042404175e-01" purity="1.3476440310478210e-01" nType="-99"/>
        </Node>
        <Node pos="r" depth="1" NCoef="0" IVar="3" Cut="4.2664028167724609e+01" cType="1" res="-9.7201429307460785e-03" rms="4.5519098639488220e-01" purity="5.8440345525741577e-01" nType="0">
          <Node pos="l" depth="2" NCoef="0" IVar="-1" Cut="0.0000000000000000e+00" cType="1" res="-7.6154195703566074e-03" rms="4.1712075471878052e-01" purity="2.6075470447540283e-01" nType="-99"/>
          <Node pos="r" depth="2" NCoef="0" IVar="-1" Cut="0.0000000000000000e+00" cType="1" res="1.0206175502389669e-03" rms="4.5370796322822571e-01" purity="6.0478538274765015e-01" nType="-99"/>
        </Node>
      </Node>
    </BinaryTree>
    <BinaryTree type="DecisionTree" boostWeight="1.0000000000000000e+00" itree="37">
      <Node pos="s" depth="0" NCoef="0" IVar="9" Cut="9.4160835266113281e+01" cType="1" res="-5.9718843549489975e-02" rms="4.4313141703605652e-01" purity="5.0000000000000000e-01" nType="0">
        <Node pos="l" depth="1" NCoef="0" IVar="6" Cut="8.3588898181915283e-01" cType="1" res="-3.0897760391235352e-01" rms="2.6096463203430176e-01" purity="7.7355861663818359e-02" nType="0">
          <Node pos="l" depth="2" NCoef="0" IVar="-1" Cut="0.0000000000000000e+00" cType="1" res="-4.8079490661621094e-03" rms="1.2857142090797424e-01" purity="1.6896082088351250e-02" nType="-99"/>
          <Node pos="r" depth="2" NCoef="0" IVar="-1" Cut="0.0000000000000000e+00" cType="1" res="-6.1931638047099113e-03" rms="3.2962316274642944e-01" purity="1.3476440310478210e-01" nType="-99"/>
        </Node>
        <Node pos="r" depth="1" NCoef="0" IVar="3" Cut="4.2664028167724609e+01" cType="1" res="-9.9409967660903931e-03" rms="4.5507648587226868e-01" purity="5.8440345525741577e-01" nType="0">
          <Node pos="l" depth="2" NCoef="0" IVar="-1" Cut="0.0000000000000000e+00" cType="1" res="-7.5056906789541245e-03" rms="4.1711351275444031e-01" purity="2.6075470447540283e-01" nType="-99"/>
          <Node pos="r" depth="2" NCoef="0" IVar="-1" Cut="0.0000000000000000e+00" cType="1" res="9.1695360606536269e-04" rms="4.5371395349502563e-01" purity="6.0478538274765015e-01" nType="-99"/>
        </Node>
      </Node>
    </BinaryTree>
    <BinaryTree type="DecisionTree" boostWeight="1.0000000000000000e+00" itree="38">
      <Node pos="s" depth="0" NCoef="0" IVar="9" Cut="9.4160835266113281e+01" cType="1" res="-5.9435047209262848e-02" rms="4.4278711080551147e-01" purity="5.0000000000000000e-01" nType="0">
        <Node pos="l" depth="1" NCoef="0" IVar="6" Cut="8.3588898181915283e-01" cType="1" res="-3.0637344717979431e-01" rms="2.6106148958206177e-01" purity="7.7355861663818359e-02" nType="0">
          <Node pos="l" depth="2" NCoef="0" IVar="-1" Cut="0.0000000000000000e+00" cType="1" res="-4.7876858152449131e-03" rms="1.2856687605381012e-01" purity="1.6896082088351250e-02" nType="-99"/>
          <Node pos="r" depth="2" NCoef="0" IVar="-1" Cut="0.0000000000000000e+00" cType="1" res="-6.1399950645864010e-03" rms="3.2965347170829773e-01" purity="1.3476440310478210e-01" nType="-99"/>
        </Node>
        <Node pos="r" depth="1" NCoef="0" IVar="6" Cut="7.0754170417785645e-01" cType="1" res="-1.0120585560798645e-02" rms="4.5496639609336853e-01" purity="5.8440345525741577e-01" nType="0">
          <Node pos="l" depth="2" NCoef="0" IVar="-1" Cut="0.0000000000000000e+00" cType="1" res="-1.8273726105690002e-02" rms="4.2242431640625000e-01" purity="2.3718251287937164e-01" nType="-99"/>
          <Node pos="r" depth="2" NCoef="0" IVar="-1" Cut="0.0000000000000000e+00" cType="1" res="1.7487610457465053e-03" rms="4.5522278547286987e-01" purity="6.2953186035156250e-01" nType="-99"/>
        </Node>
      </Node>
    </BinaryTree>
    <BinaryTree type="DecisionTree" boostWeight="1.0000000000000000e+00" itree="39">
      <Node pos="s" depth="0" NCoef="0" IVar="9" Cut="9.4160835266113281e+01" cType="1" res="-5.8754689991474152e-02" rms="4.4228684902191162e-01" purity="5.0000000000000000e-01" nType="0">
        <Node pos="l" depth="1" NCoef="0" IVar="6" Cut="8.3588898181915283e-01" cType="1" res="-3.0379357933998108e-01" rms="2.6115652918815613e-01" purity="7.7355861663818359e-02" nType="0">
          <Node pos="l" depth="2" NCoef="0" IVar="-1" Cut="0.0000000000000000e+00" cType="1" res="-4.7676856629550457e-03" rms="1.2856227159500122e-01" purity="1.6896082088351250e-02" nType="-99"/>
          <Node pos="r" depth="2" NCoef="0" IVar="-1" Cut="0.0000000000000000e+00" cType="1" res="-6.0875150375068188e-03" rms="3.2968425750732422e-01" purity="1.3476440310478210e-01" nType="-99"/>
        </Node>
        <Node pos="r" depth="1" NCoef="0" IVar="3" Cut="4.2664028167724609e+01" cType="1" res="-9.8195699974894524e-03" rms="4.5461764931678772e-01" purity="5.8440345525741577e-01" nType="0">
          <Node pos="l" depth="2" NCoef="0" IVar="-1" Cut="0.0000000000000000e+00" cType="1" res="-7.4094743467867374e-03" rms="4.1723194718360901e-01" purity="2.6075470447540283e-01" nType="-99"/>
          <Node pos="r" depth="2" NCoef="0" IVar="-1" Cut="0.0000000000000000e+00" cType="1" res="9.0326281497254968e-04" rms="4.5331749320030212e-01" purity="6.0478538274765015e-01" nType="-99"/>
        </Node>
      </Node>
    </BinaryTree>
    <BinaryTree type="DecisionTree" boostWeight="1.0000000000000000e+00" itree="40">
      <Node pos="s" depth="0" NCoef="0" IVar="9" Cut="9.4160835266113281e+01" cType="1" res="-5.8475814759731293e-02" rms="4.4195324182510376e-01" purity="5.0000000000000000e-01" nType="0">
        <Node pos="l" depth="1" NCoef="0" IVar="6" Cut="8.3588898181915283e-01" cType="1" res="-3.0123770236968994e-01" rms="2.6124972105026245e-01" purity="7.7355861663818359e-02" nType="0">
          <Node pos="l" depth="2" NCoef="0" IVar="-1" Cut="0.0000000000000000e+00" cType="1" res="-4.7479434870183468e-03" rms="1.2855762243270874e-01" purity="1.6896082088351250e-02" nType="-99"/>
          <Node pos="r" depth="2" NCoef="0" IVar="-1" Cut="0.0000000000000000e+00" cType="1" res="-6.0357046313583851e-03" rms="3.2971546053886414e-01" purity="1.3476440310478210e-01" nType="-99"/>
        </Node>
        <Node pos="r" depth="1" NCoef="0" IVar="3" Cut="4.2664028167724609e+01" cType="1" res="-9.9954176694154739e-03" rms="4.5451042056083679e-01" purity="5.8440345525741577e-01" nType="0">
          <Node pos="l" depth="2" NCoef="0" IVar="-1" Cut="0.0000000000000000e+00" cType="1" res="-7.3037124238908291e-03" rms="4.1722559928894043e-01" purity="2.6075470447540283e-01" nType="-99"/>
          <Node pos="r" depth="2" NCoef="0" IVar="-1" Cut="0.0000000000000000e+00" cType="1" res="8.1148406025022268e-04" rms="4.5332273840904236e-01" purity="6.0478538274765015e-01" nType="-99"/>
        </Node>
      </Node>
    </BinaryTree>
    <BinaryTree type="DecisionTree" boostWeight="1.0000000000000000e+00" itree="41">
      <Node pos="s" depth="0" NCoef="0" IVar="9" Cut="9.4160835266113281e+01" cType="1" res="-5.8170769363641739e-02" rms="4.4163048267364502e-01" purity="5.0000000000000000e-01" nType="0">
        <Node pos="l" depth="1" NCoef="0" IVar="6" Cut="8.3588898181915283e-01" cType="1" res="-2.9870563745498657e-01" rms="2.6134109497070312e-01" purity="7.7355861663818359e-02" nType="0">
          <Node pos="l" depth="2" NCoef="0" IVar="-1" Cut="0.0000000000000000e+00" cType="1" res="-4.7284536994993687e-03" rms="1.2855292856693268e-01" purity="1.6896082088351250e-02" nType="-99"/>
          <Node pos="r" depth="2" NCoef="0" IVar="-1" Cut="0.0000000000000000e+00" cType="1" res="-5.9845438227057457e-03" rms="3.2974711060523987e-01" purity="1.3476440310478210e-01" nType="-99"/>
        </Node>
        <Node pos="r" depth="1" NCoef="0" IVar="2" Cut="2.1090237426757812e+02" cType="1" res="-1.0135115124285221e-02" rms="4.5440721511840820e-01" purity="5.8440345525741577e-01" nType="0">
          <Node pos="l" depth="2" NCoef="0" IVar="-1" Cut="0.0000000000000000e+00" cType="1" res="3.1551655411021784e-05" rms="4.5305633544921875e-01" purity="5.9858697652816772e-01" nType="-99"/>
          <Node pos="r" depth="2" NCoef="0" IVar="-1" Cut="0.0000000000000000e+00" cType="1" res="-6.0731031000614166e-02" rms="3.9642578363418579e-01" purity="1.9594563543796539e-01" nType="-99"/>
        </Node>
      </Node>
    </BinaryTree>
    <BinaryTree type="DecisionTree" boostWeight="1.0000000000000000e+00" itree="42">
      <Node pos="s" depth="0" NCoef="0" IVar="9" Cut="9.4160835266113281e+01" cType="1" res="-5.6919459253549576e-02" rms="4.4098627567291260e-01" purity="5.0000000000000000e-01" nType="0">
        <Node pos="l" depth="1" NCoef="0" IVar="6" Cut="8.3588898181915283e-01" cType="1" res="-2.9619711637496948e-01" rms="2.6143062114715576e-01" purity="7.7355861663818359e-02" nType="0">
          <Node pos="l" depth="2" NCoef="0" IVar="-1" Cut="0.0000000000000000e+00" cType="1" res="-4.7092116437852383e-03" rms="1.2854818999767303e-01" purity="1.6896082088351250e-02" nType="-99"/>
          <Node pos="r" depth="2" NCoef="0" IVar="-1" Cut="0.0000000000000000e+00" cType="1" res="-5.9340153820812702e-03" rms="3.2977917790412903e-01" purity="1.3476440310478210e-01" nType="-99"/>
        </Node>
        <Node pos="r" depth="1" NCoef="0" IVar="6" Cut="8.4828668832778931e-01" cType="1" res="-9.1348737478256226e-03" rms="4.5380493998527527e-01" purity="5.8440345525741577e-01" nType="0">
          <Node pos="l" depth="2" NCoef="0" IVar="-1" Cut="0.0000000000000000e+00" cType="1" res="-1.1889354325830936e-02" rms="4.6817407011985779e-01" purity="3.6187699437141418e-01" nType="-99"/>
          <Node pos="r" depth="2" NCoef="0" IVar="-1" Cut="0.0000000000000000e+00" cType="1" res="4.8685749061405659e-03" rms="4.4296044111251831e-01" purity="6.7882841825485229e-01" nType="-99"/>
        </Node>
      </Node>
    </BinaryTree>
    <BinaryTree type="DecisionTree" boostWeight="1.0000000000000000e+00" itree="43">
      <Node pos="s" depth="0" NCoef="0" IVar="9" Cut="9.4160835266113281e+01" cType="1" res="-5.6318707764148712e-02" rms="4.4045922160148621e-01" purity="5.0000000000000000e-01" nType="0">
        <Node pos="l" depth="1" NCoef="0" IVar="6" Cut="8.3588898181915283e-01" cType="1" res="-2.9371193051338196e-01" rms="2.6151826977729797e-01" purity="7.7355861663818359e-02" nType="0">
          <Node pos="l" depth="2" NCoef="0" IVar="-1" Cut="0.0000000000000000e+00" cType="1" res="-4.6902126632630825e-03" rms="1.2854340672492981e-01" purity="1.6896082088351250e-02" nType="-99"/>
          <Node pos="r" depth="2" NCoef="0" IVar="-1" Cut="0.0000000000000000e+00" cType="1" res="-5.8841016143560410e-03" rms="3.2981163263320923e-01" purity="1.3476440310478210e-01" nType="-99"/>
        </Node>
        <Node pos="r" depth="1" NCoef="0" IVar="3" Cut="4.2664028167724609e+01" cType="1" res="-8.9104510843753815e-03" rms="4.5341774821281433e-01" purity="5.8440345525741577e-01" nType="0">
          <Node pos="l" depth="2" NCoef="0" IVar="-1" Cut="0.0000000000000000e+00" cType="1" res="-7.2409659624099731e-03" rms="4.1762655973434448e-01" purity="2.6075470447540283e-01" nType="-99"/>
          <Node pos="r" depth="2" NCoef="0" IVar="-1" Cut="0.0000000000000000e+00" cType="1" res="1.0444214567542076e-03" rms="4.5216515660285950e-01" purity="6.0478538274765015e-01" nType="-99"/>
        </Node>
      </Node>
    </BinaryTree>
    <BinaryTree type="DecisionTree" boostWeight="1.0000000000000000e+00" itree="44">
      <Node pos="s" depth="0" NCoef="0" IVar="9" Cut="9.4160835266113281e+01" cType="1" res="-5.6108396500349045e-02" rms="4.4013723731040955e-01" purity="5.0000000000000000e-01" nType="0">
        <Node pos="l" depth="1" NCoef="0" IVar="6" Cut="8.3588898181915283e-01" cType="1" res="-2.9124981164932251e-01" rms="2.6160407066345215e-01" purity="7.7355861663818359e-02" nType="0">
          <Node pos="l" depth="2" NCoef="0" IVar="-1" Cut="0.0000000000000000e+00" cType="1" res="-4.6714516356587410e-03" rms="1.2853857874870300e-01" purity="1.6896082088351250e-02" nType="-99"/>
          <Node pos="r" depth="2" NCoef="0" IVar="-1" Cut="0.0000000000000000e+00" cType="1" res="-5.8347852900624275e-03" rms="3.2984441518783569e-01" purity="1.3476440310478210e-01" nType="-99"/>
        </Node>
        <Node pos="r" depth="1" NCoef="0" IVar="3" Cut="4.2664028167724609e+01" cType="1" res="-9.1498317196965218e-03" rms="4.5331385731697083e-01" purity="5.8440345525741577e-01" nType="0">
          <Node pos="l" depth="2" NCoef="0" IVar="-1" Cut="0.0000000000000000e+00" cType="1" res="-7.1383174508810043e-03" rms="4.1762000322341919e-01" purity="2.6075470447540283e-01" nType="-99"/>
          <Node pos="r" depth="2" NCoef="0" IVar="-1" Cut="0.0000000000000000e+00" cType="1" res="9.3842623755335808e-04" rms="4.5217102766036987e-01" purity="6.0478538274765015e-01" nType="-99"/>
        </Node>
      </Node>
    </BinaryTree>
    <BinaryTree type="DecisionTree" boostWeight="1.0000000000000000e+00" itree="45">
      <Node pos="s" depth="0" NCoef="0" IVar="9" Cut="9.4160835266113281e+01" cType="1" res="-5.5866762995719910e-02" rms="4.3982633948326111e-01" purity="5.0000000000000000e-01" nType="0">
        <Node pos="l" depth="1" NCoef="0" IVar="6" Cut="8.3588898181915283e-01" cType="1" res="-2.8881058096885681e-01" rms="2.6168802380561829e-01" purity="7.7355861663818359e-02" nType="0">
          <Node pos="l" depth="2" NCoef="0" IVar="-1" Cut="0.0000000000000000e+00" cType="1" res="-4.6529253013432026e-03" rms="1.2853372097015381e-01" purity="1.6896082088351250e-02" nType="-99"/>
          <Node pos="r" depth="2" NCoef="0" IVar="-1" Cut="0.0000000000000000e+00" cType="1" res="-5.7860501110553741e-03" rms="3.2987755537033081e-01" purity="1.3476440310478210e-01" nType="-99"/>
        </Node>
        <Node pos="r" depth="1" NCoef="0" IVar="3" Cut="1.0824911499023438e+02" cType="1" res="-9.3470662832260132e-03" rms="4.5321398973464966e-01" purity="5.8440345525741577e-01" nType="0">
          <Node pos="l" depth="2" NCoef="0" IVar="-1" Cut="0.0000000000000000e+00" cType="1" res="4.8485803417861462e-03" rms="4.4369590282440186e-01" purity="6.2681275606155396e-01" nType="-99"/>
          <Node pos="r" depth="2" NCoef="0" IVar="-1" Cut="0.0000000000000000e+00" cType="1" res="-1.0555828921496868e-02" rms="4.6621012687683105e-01" purity="4.7565096616744995e-01" nType="-99"/>
        </Node>
      </Node>
    </BinaryTree>
    <BinaryTree type="DecisionTree" boostWeight="1.0000000000000000e+00" itree="46">
      <Node pos="s" depth="0" NCoef="0" IVar="9" Cut="9.4160835266113281e+01" cType="1" res="-5.5626511573791504e-02" rms="4.3930333852767944e-01" purity="5.0000000000000000e-01" nType="0">
        <Node pos="l" depth="1" NCoef="0" IVar="6" Cut="8.3588898181915283e-01" cType="1" res="-2.8639397025108337e-01" rms="2.6177009940147400e-01" purity="7.7355861663818359e-02" nType="0">
          <Node pos="l" depth="2" NCoef="0" IVar="-1" Cut="0.0000000000000000e+00" cType="1" res="-4.6346276067197323e-03" rms="1.2852883338928223e-01" purity="1.6896082088351250e-02" nType="-99"/>
          <Node pos="r" depth="2" NCoef="0" IVar="-1" Cut="0.0000000000000000e+00" cType="1" res="-5.7378807105123997e-03" rms="3.2991105318069458e-01" purity="1.3476440310478210e-01" nType="-99"/>
        </Node>
        <Node pos="r" depth="1" NCoef="0" IVar="3" Cut="4.2664028167724609e+01" cType="1" res="-9.5414398238062859e-03" rms="4.5286256074905396e-01" purity="5.8440345525741577e-01" nType="0">
          <Node pos="l" depth="2" NCoef="0" IVar="-1" Cut="0.0000000000000000e+00" cType="1" res="-7.1059525944292545e-03" rms="4.1761809587478638e-01" purity="2.6075470447540283e-01" nType="-99"/>
          <Node pos="r" depth="2" NCoef="0" IVar="-1" Cut="0.0000000000000000e+00" cType="1" res="8.2998425932601094e-04" rms="4.5173642039299011e-01" purity="6.0478538274765015e-01" nType="-99"/>
        </Node>
      </Node>
    </BinaryTree>
    <BinaryTree type="DecisionTree" boostWeight="1.0000000000000000e+00" itree="47">
      <Node pos="s" depth="0" NCoef="0" IVar="9" Cut="9.4160835266113281e+01" cType="1" res="-5.5354531854391098e-02" rms="4.3900543451309204e-01" purity="5.0000000000000000e-01" nType="0">
        <Node pos="l" depth="1" NCoef="0" IVar="6" Cut="8.3588898181915283e-01" cType="1" res="-2.8399980068206787e-01" rms="2.6185032725334167e-01" purity="7.7355861663818359e-02" nType="0">
          <Node pos="l" depth="2" NCoef="0" IVar="-1" Cut="0.0000000000000000e+00" cType="1" res="-4.6165557578206062e-03" rms="1.2852390110492706e-01" purity="1.6896082088351250e-02" nType="-99"/>
          <Node pos="r" depth="2" NCoef="0" IVar="-1" Cut="0.0000000000000000e+00" cType="1" res="-5.6902617216110229e-03" rms="3.2994484901428223e-01" purity="1.3476440310478210e-01" nType="-99"/>
        </Node>
        <Node pos="r" depth="1" NCoef="0" IVar="3" Cut="4.2664028167724609e+01" cType="1" res="-9.6932705491781235e-03" rms="4.5276466012001038e-01" purity="5.8440345525741577e-01" nType="0">
          <Node pos="l" depth="2" NCoef="0" IVar="-1" Cut="0.0000000000000000e+00" cType="1" res="-7.0057930424809456e-03" rms="4.1761267185211182e-01" purity="2.6075470447540283e-01" nType="-99"/>
          <Node pos="r" depth="2" NCoef="0" IVar="-1" Cut="0.0000000000000000e+00" cType="1" res="7.4574118480086327e-04" rms="4.5174121856689453e-01" purity="6.0478538274765015e-01" nType="-99"/>
        </Node>
      </Node>
    </BinaryTree>
    <BinaryTree type="DecisionTree" boostWeight="1.0000000000000000e+00" itree="48">
      <Node pos="s" depth="0" NCoef="0" IVar="9" Cut="9.4160835266113281e+01" cType="1" res="-5.5058848112821579e-02" rms="4.3871712684631348e-01" purity="5.0000000000000000e-01" nType="0">
        <Node pos="l" depth="1" NCoef="0" IVar="6" Cut="8.3588898181915283e-01" cType="1" res="-2.8162780404090881e-01" rms="2.6192867755889893e-01" purity="7.7355861663818359e-02" nType="0">
          <Node pos="l" depth="2" NCoef="0" IVar="-1" Cut="0.0000000000000000e+00" cType="1" res="-4.5987046323716640e-03" rms="1.2851893901824951e-01" purity="1.6896082088351250e-02" nType="-99"/>
          <Node pos="r" depth="2" NCoef="0" IVar="-1" Cut="0.0000000000000000e+00" cType="1" res="-5.6431787088513374e-03" rms="3.2997891306877136e-01" purity="1.3476440310478210e-01" nType="-99"/>
        </Node>
        <Node pos="r" depth="1" NCoef="0" IVar="3" Cut="4.2664028167724609e+01" cType="1" res="-9.8122321069240570e-03" rms="4.5267039537429810e-01" purity="5.8440345525741577e-01" nType="0">
          <Node pos="l" depth="2" NCoef="0" IVar="-1" Cut="0.0000000000000000e+00" cType="1" res="-6.9074472412467003e-03" rms="4.1760802268981934e-01" purity="2.6075470447540283e-01" nType="-99"/>
          <Node pos="r" depth="2" NCoef="0" IVar="-1" Cut="0.0000000000000000e+00" cType="1" res="6.7005428718402982e-04" rms="4.5174556970596313e-01" purity="6.0478538274765015e-01" nType="-99"/>
        </Node>
      </Node>
    </BinaryTree>
    <BinaryTree type="DecisionTree" boostWeight="1.0000000000000000e+00" itree="49">
      <Node pos="s" depth="0" NCoef="0" IVar="9" Cut="9.4160835266113281e+01" cType="1" res="-5.4742448031902313e-02" rms="4.3843775987625122e-01" purity="5.0000000000000000e-01" nType="0">
        <Node pos="l" depth="1" NCoef="0" IVar="6" Cut="8.3588898181915283e-01" cType="1" res="-2.7927780151367188e-01" rms="2.6200518012046814e-01" purity="7.7355861663818359e-02" nType="0">
          <Node pos="l" depth="2" NCoef="0" IVar="-1" Cut="0.0000000000000000e+00" cType="1" res="-4.5810700394213200e-03" rms="1.2851394712924957e-01" purity="1.6896082088351250e-02" nType="-99"/>
          <Node pos="r" depth="2" NCoef="0" IVar="-1" Cut="0.0000000000000000e+00" cType="1" res="-5.5966181680560112e-03" rms="3.3001324534416199e-01" purity="1.3476440310478210e-01" nType="-99"/>
        </Node>
        <Node pos="r" depth="1" NCoef="0" IVar="6" Cut="7.0754170417785645e-01" cType="1" res="-9.9019519984722137e-03" rms="4.5257955789566040e-01" purity="5.8440345525741577e-01" nType="0">
          <Node pos="l" depth="2" NCoef="0" IVar="-1" Cut="0.0000000000000000e+00" cType="1" res="-1.7040181905031204e-02" rms="4.2203271389007568e-01" purity="2.3718251287937164e-01" nType="-99"/>
          <Node pos="r" depth="2" NCoef="0" IVar="-1" Cut="0.0000000000000000e+00" cType="1" res="1.5004439046606421e-03" rms="4.5318663120269775e-01" purity="6.2953186035156250e-01" nType="-99"/>
        </Node>
      </Node>
    </BinaryTree>
    <BinaryTree type="DecisionTree" boostWeight="1.0000000000000000e+00" itree="50">
      <Node pos="s" depth="0" NCoef="0" IVar="9" Cut="9.4160835266113281e+01" cType="1" res="-5.4084245115518570e-02" rms="4.3802231550216675e-01" purity="5.0000000000000000e-01" nType="0">
        <Node pos="l" depth="1" NCoef="0" IVar="6" Cut="8.3588898181915283e-01" cType="1" res="-2.7694958448410034e-01" rms="2.6207983493804932e-01" purity="7.7355861663818359e-02" nType="0">
          <Node pos="l" depth="2" NCoef="0" IVar="-1" Cut="0.0000000000000000e+00" cType="1" res="-4.5636487193405628e-03" rms="1.2850894033908844e-01" purity="1.6896082088351250e-02" nType="-99"/>
          <Node pos="r" depth="2" NCoef="0" IVar="-1" Cut="0.0000000000000000e+00" cType="1" res="-5.5505656637251377e-03" rms="3.3004781603813171e-01" purity="1.3476440310478210e-01" nType="-99"/>
        </Node>
        <Node pos="r" depth="1" NCoef="0" IVar="3" Cut="4.2664028167724609e+01" cType="1" res="-9.5772594213485718e-03" rms="4.5228603482246399e-01" purity="5.8440345525741577e-01" nType="0">
          <Node pos="l" depth="2" NCoef="0" IVar="-1" Cut="0.0000000000000000e+00" cType="1" res="-6.8197487853467464e-03" rms="4.1772466897964478e-01" purity="2.6075470447540283e-01" nType="-99"/>
          <Node pos="r" depth="2" NCoef="0" IVar="-1" Cut="0.0000000000000000e+00" cType="1" res="6.8622874096035957e-04" rms="4.5141029357910156e-01" purity="6.0478538274765015e-01" nType="-99"/>
        </Node>
      </Node>
    </BinaryTree>
    <BinaryTree type="DecisionTree" boostWeight="1.0000000000000000e+00" itree="51">
      <Node pos="s" depth="0" NCoef="0" IVar="9" Cut="9.4160835266113281e+01" cType="1" res="-5.3782556205987930e-02" rms="4.3775039911270142e-01" purity="5.0000000000000000e-01" nType="0">
        <Node pos="l" depth="1" NCoef="0" IVar="6" Cut="8.3588898181915283e-01" cType="1" res="-2.7464288473129272e-01" rms="2.6215264201164246e-01" purity="7.7355861663818359e-02" nType="0">
          <Node pos="l" depth="2" NCoef="0" IVar="-1" Cut="0.0000000000000000e+00" cType="1" res="-4.5464360155165195e-03" rms="1.2850390374660492e-01" purity="1.6896082088351250e-02" nType="-99"/>
          <Node pos="r" depth="2" NCoef="0" IVar="-1" Cut="0.0000000000000000e+00" cType="1" res="-5.5050090886652470e-03" rms="3.3008262515068054e-01" purity="1.3476440310478210e-01" nType="-99"/>
        </Node>
        <Node pos="r" depth="1" NCoef="0" IVar="3" Cut="1.0824911499023438e+02" cType="1" res="-9.6759749576449394e-03" rms="4.5219737291336060e-01" purity="5.8440345525741577e-01" nType="0">
          <Node pos="l" depth="2" NCoef="0" IVar="-1" Cut="0.0000000000000000e+00" cType="1" res="4.4617736712098122e-03" rms="4.4280216097831726e-01" purity="6.2681275606155396e-01" nType="-99"/>
          <Node pos="r" depth="2" NCoef="0" IVar="-1" Cut="0.0000000000000000e+00" cType="1" res="-1.0141978971660137e-02" rms="4.6591475605964661e-01" purity="4.7565096616744995e-01" nType="-99"/>
        </Node>
      </Node>
    </BinaryTree>
    <BinaryTree type="DecisionTree" boostWeight="1.0000000000000000e+00" itree="52">
      <Node pos="s" depth="0" NCoef="0" IVar="9" Cut="9.4160835266113281e+01" cType="1" res="-5.3499076515436172e-02" rms="4.3728432059288025e-01" purity="5.0000000000000000e-01" nType="0">
        <Node pos="l" depth="1" NCoef="0" IVar="6" Cut="8.3588898181915283e-01" cType="1" res="-2.7235752344131470e-01" rms="2.6222357153892517e-01" purity="7.7355861663818359e-02" nType="0">
          <Node pos="l" depth="2" NCoef="0" IVar="-1" Cut="0.0000000000000000e+00" cType="1" res="-4.5294286683201790e-03" rms="1.2849885225296021e-01" purity="1.6896082088351250e-02" nType="-99"/>
          <Node pos="r" depth="2" NCoef="0" IVar="-1" Cut="0.0000000000000000e+00" cType="1" res="-5.4599363356828690e-03" rms="3.3011767268180847e-01" purity="1.3476440310478210e-01" nType="-99"/>
        </Node>
        <Node pos="r" depth="1" NCoef="0" IVar="3" Cut="4.2664028167724609e+01" cType="1" res="-9.7922775894403458e-03" rms="4.5188122987747192e-01" purity="5.8440345525741577e-01" nType="0">
          <Node pos="l" depth="2" NCoef="0" IVar="-1" Cut="0.0000000000000000e+00" cType="1" res="-6.7868465557694435e-03" rms="4.1772311925888062e-01" purity="2.6075470447540283e-01" nType="-99"/>
          <Node pos="r" depth="2" NCoef="0" IVar="-1" Cut="0.0000000000000000e+00" cType="1" res="6.1924481997266412e-04" rms="4.5101875066757202e-01" purity="6.0478538274765015e-01" nType="-99"/>
        </Node>
      </Node>
    </BinaryTree>
    <BinaryTree type="DecisionTree" boostWeight="1.0000000000000000e+00" itree="53">
      <Node pos="s" depth="0" NCoef="0" IVar="9" Cut="9.4160835266113281e+01" cType="1" res="-5.3181476891040802e-02" rms="4.3702232837677002e-01" purity="5.0000000000000000e-01" nType="0">
        <Node pos="l" depth="1" NCoef="0" IVar="6" Cut="8.3588898181915283e-01" cType="1" res="-2.7009332180023193e-01" rms="2.6229268312454224e-01" purity="7.7355861663818359e-02" nType="0">
          <Node pos="l" depth="2" NCoef="0" IVar="-1" Cut="0.0000000000000000e+00" cType="1" res="-4.5126224867999554e-03" rms="1.2849378585815430e-01" purity="1.6896082088351250e-02" nType="-99"/>
          <Node pos="r" depth="2" NCoef="0" IVar="-1" Cut="0.0000000000000000e+00" cType="1" res="-5.4153339006006718e-03" rms="3.3015289902687073e-01" purity="1.3476440310478210e-01" nType="-99"/>
        </Node>
        <Node pos="r" depth="1" NCoef="0" IVar="13" Cut="2.5140649414062500e+02" cType="1" res="-9.8634231835603714e-03" rms="4.5179402828216553e-01" purity="5.8440345525741577e-01" nType="0">
          <Node pos="l" depth="2" NCoef="0" IVar="-1" Cut="0.0000000000000000e+00" cType="1" res="2.3259432055056095e-03" rms="4.4318249821662903e-01" purity="6.1793482303619385e-01" nType="-99"/>
          <Node pos="r" depth="2" NCoef="0" IVar="-1" Cut="0.0000000000000000e+00" cType="1" res="-3.0409246683120728e-02" rms="4.7088083624839783e-01" purity="4.5712667703628540e-01" nType="-99"/>
        </Node>
      </Node>
    </BinaryTree>
    <BinaryTree type="DecisionTree" boostWeight="1.0000000000000000e+00" itree="54">
      <Node pos="s" depth="0" NCoef="0" IVar="9" Cut="9.4160835266113281e+01" cType="1" res="-5.1058921962976456e-02" rms="4.3647024035453796e-01" purity="5.0000000000000000e-01" nType="0">
        <Node pos="l" depth="1" NCoef="0" IVar="6" Cut="8.3588898181915283e-01" cType="1" res="-2.6785001158714294e-01" rms="2.6235994696617126e-01" purity="7.7355861663818359e-02" nType="0">
          <Node pos="l" depth="2" NCoef="0" IVar="-1" Cut="0.0000000000000000e+00" cType="1" res="-4.4960142113268375e-03" rms="1.2848868966102600e-01" purity="1.6896082088351250e-02" nType="-99"/>
          <Node pos="r" depth="2" NCoef="0" IVar="-1" Cut="0.0000000000000000e+00" cType="1" res="-5.3711906075477600e-03" rms="3.3018833398818970e-01" purity="1.3476440310478210e-01" nType="-99"/>
        </Node>
        <Node pos="r" depth="1" NCoef="0" IVar="3" Cut="4.2664028167724609e+01" cType="1" res="-7.7649825252592564e-03" rms="4.5115938782691956e-01" purity="5.8440345525741577e-01" nType="0">
          <Node pos="l" depth="2" NCoef="0" IVar="-1" Cut="0.0000000000000000e+00" cType="1" res="-6.7010731436312199e-03" rms="4.1846096515655518e-01" purity="2.6075470447540283e-01" nType="-99"/>
          <Node pos="r" depth="2" NCoef="0" IVar="-1" Cut="0.0000000000000000e+00" cType="1" res="1.0652934433892369e-03" rms="4.5023077726364136e-01" purity="6.0478538274765015e-01" nType="-99"/>
        </Node>
      </Node>
    </BinaryTree>
    <BinaryTree type="DecisionTree" boostWeight="1.0000000000000000e+00" itree="55">
      <Node pos="s" depth="0" NCoef="0" IVar="9" Cut="9.4160835266113281e+01" cType="1" res="-5.0907578319311142e-02" rms="4.3619605898857117e-01" purity="5.0000000000000000e-01" nType="0">
        <Node pos="l" depth="1" NCoef="0" IVar="6" Cut="8.3588898181915283e-01" cType="1" res="-2.6562741398811340e-01" rms="2.6242539286613464e-01" purity="7.7355861663818359e-02" nType="0">
          <Node pos="l" depth="2" NCoef="0" IVar="-1" Cut="0.0000000000000000e+00" cType="1" res="-4.4795996509492397e-03" rms="1.2848357856273651e-01" purity="1.6896082088351250e-02" nType="-99"/>
          <Node pos="r" depth="2" NCoef="0" IVar="-1" Cut="0.0000000000000000e+00" cType="1" res="-5.3274962119758129e-03" rms="3.3022391796112061e-01" purity="1.3476440310478210e-01" nType="-99"/>
        </Node>
        <Node pos="r" depth="1" NCoef="0" IVar="6" Cut="8.4828668832778931e-01" cType="1" res="-8.0272760242223740e-03" rms="4.5107099413871765e-01" purity="5.8440345525741577e-01" nType="0">
          <Node pos="l" depth="2" NCoef="0" IVar="-1" Cut="0.0000000000000000e+00" cType="1" res="-1.0949112474918365e-02" rms="4.6696037054061890e-01" purity="3.6187699437141418e-01" nType="-99"/>
          <Node pos="r" depth="2" NCoef="0" IVar="-1" Cut="0.0000000000000000e+00" cType="1" res="4.5613097026944160e-03" rms="4.4025036692619324e-01" purity="6.7882841825485229e-01" nType="-99"/>
        </Node>
      </Node>
    </BinaryTree>
    <BinaryTree type="DecisionTree" boostWeight="1.0000000000000000e+00" itree="56">
      <Node pos="s" depth="0" NCoef="0" IVar="9" Cut="1.0396540832519531e+02" cType="1" res="-5.0390593707561493e-02" rms="4.3575853109359741e-01" purity="5.0000000000000000e-01" nType="0">
        <Node pos="l" depth="1" NCoef="0" IVar="5" Cut="3.2339416503906250e+01" cType="1" res="-2.4311897158622742e-01" rms="2.9471725225448608e-01" purity="1.0737492889165878e-01" nType="0">
          <Node pos="l" depth="2" NCoef="0" IVar="-1" Cut="0.0000000000000000e+00" cType="1" res="-6.1759552918374538e-03" rms="1.6289535164833069e-01" purity="3.0000073835253716e-02" nType="-99"/>
          <Node pos="r" depth="2" NCoef="0" IVar="-1" Cut="0.0000000000000000e+00" cType="1" res="-2.4460423737764359e-03" rms="4.2560902237892151e-01" purity="2.5154936313629150e-01" nType="-99"/>
        </Node>
        <Node pos="r" depth="1" NCoef="0" IVar="6" Cut="9.9268734455108643e-01" cType="1" res="-3.2670192886143923e-03" rms="4.5141309499740601e-01" purity="5.9599983692169189e-01" nType="0">
          <Node pos="l" depth="2" NCoef="0" IVar="-1" Cut="0.0000000000000000e+00" cType="1" res="-5.9231654740869999e-03" rms="4.6646767854690552e-01" purity="5.1762545108795166e-01" nType="-99"/>
          <Node pos="r" depth="2" NCoef="0" IVar="-1" Cut="0.0000000000000000e+00" cType="1" res="3.1317006796598434e-02" rms="4.0042188763618469e-01" purity="7.8673475980758667e-01" nType="-99"/>
        </Node>
      </Node>
    </BinaryTree>
    <BinaryTree type="DecisionTree" boostWeight="1.0000000000000000e+00" itree="57">
      <Node pos="s" depth="0" NCoef="0" IVar="9" Cut="9.4160835266113281e+01" cType="1" res="-5.1375072449445724e-02" rms="4.3476974964141846e-01" purity="5.0000000000000000e-01" nType="0">
        <Node pos="l" depth="1" NCoef="0" IVar="6" Cut="8.3588898181915283e-01" cType="1" res="-2.6123836636543274e-01" rms="2.6231497526168823e-01" purity="7.7355861663818359e-02" nType="0">
          <Node pos="l" depth="2" NCoef="0" IVar="-1" Cut="0.0000000000000000e+00" cType="1" res="-4.4458182528614998e-03" rms="1.2854488193988800e-01" purity="1.6896082088351250e-02" nType="-99"/>
          <Node pos="r" depth="2" NCoef="0" IVar="-1" Cut="0.0000000000000000e+00" cType="1" res="-5.2464934997260571e-03" rms="3.2993659377098083e-01" purity="1.3476440310478210e-01" nType="-99"/>
        </Node>
        <Node pos="r" depth="1" NCoef="0" IVar="3" Cut="4.2664028167724609e+01" cType="1" res="-9.4646373763680458e-03" rms="4.4997805356979370e-01" purity="5.8440345525741577e-01" nType="0">
          <Node pos="l" depth="2" NCoef="0" IVar="-1" Cut="0.0000000000000000e+00" cType="1" res="-6.6786166280508041e-03" rms="4.1889786720275879e-01" purity="2.6075470447540283e-01" nType="-99"/>
          <Node pos="r" depth="2" NCoef="0" IVar="-1" Cut="0.0000000000000000e+00" cType="1" res="6.4283021492883563e-04" rms="4.4903403520584106e-01" purity="6.0478538274765015e-01" nType="-99"/>
        </Node>
      </Node>
    </BinaryTree>
    <BinaryTree type="DecisionTree" boostWeight="1.0000000000000000e+00" itree="58">
      <Node pos="s" depth="0" NCoef="0" IVar="9" Cut="9.4160835266113281e+01" cType="1" res="-5.1084198057651520e-02" rms="4.3452370166778564e-01" purity="5.0000000000000000e-01" nType="0">
        <Node pos="l" depth="1" NCoef="0" IVar="6" Cut="8.3588898181915283e-01" cType="1" res="-2.5907623767852783e-01" rms="2.6237598061561584e-01" purity="7.7355861663818359e-02" nType="0">
          <Node pos="l" depth="2" NCoef="0" IVar="-1" Cut="0.0000000000000000e+00" cType="1" res="-4.4299559667706490e-03" rms="1.2853914499282837e-01" purity="1.6896082088351250e-02" nType="-99"/>
          <Node pos="r" depth="2" NCoef="0" IVar="-1" Cut="0.0000000000000000e+00" cType="1" res="-5.2040596492588520e-03" rms="3.2997363805770874e-01" purity="1.3476440310478210e-01" nType="-99"/>
        </Node>
        <Node pos="r" depth="1" NCoef="0" IVar="3" Cut="4.2664028167724609e+01" cType="1" res="-9.5474645495414734e-03" rms="4.4989398121833801e-01" purity="5.8440345525741577e-01" nType="0">
          <Node pos="l" depth="2" NCoef="0" IVar="-1" Cut="0.0000000000000000e+00" cType="1" res="-6.5865088254213333e-03" rms="4.1889497637748718e-01" purity="2.6075470447540283e-01" nType="-99"/>
          <Node pos="r" depth="2" NCoef="0" IVar="-1" Cut="0.0000000000000000e+00" cType="1" res="5.7775393361225724e-04" rms="4.4903784990310669e-01" purity="6.0478538274765015e-01" nType="-99"/>
        </Node>
      </Node>
    </BinaryTree>
    <BinaryTree type="DecisionTree" boostWeight="1.0000000000000000e+00" itree="59">
      <Node pos="s" depth="0" NCoef="0" IVar="9" Cut="9.4160835266113281e+01" cType="1" res="-5.0776161253452301e-02" rms="4.3428504467010498e-01" purity="5.0000000000000000e-01" nType="0">
        <Node pos="l" depth="1" NCoef="0" IVar="6" Cut="8.3588898181915283e-01" cType="1" res="-2.5693401694297791e-01" rms="2.6243516802787781e-01" purity="7.7355861663818359e-02" nType="0">
          <Node pos="l" depth="2" NCoef="0" IVar="-1" Cut="0.0000000000000000e+00" cType="1" res="-4.4142743572592735e-03" rms="1.2853340804576874e-01" purity="1.6896082088351250e-02" nType="-99"/>
          <Node pos="r" depth="2" NCoef="0" IVar="-1" Cut="0.0000000000000000e+00" cType="1" res="-5.1620323210954666e-03" rms="3.3001077175140381e-01" purity="1.3476440310478210e-01" nType="-99"/>
        </Node>
        <Node pos="r" depth="1" NCoef="0" IVar="3" Cut="4.2664028167724609e+01" cType="1" res="-9.6057169139385223e-03" rms="4.4981288909912109e-01" purity="5.8440345525741577e-01" nType="0">
          <Node pos="l" depth="2" NCoef="0" IVar="-1" Cut="0.0000000000000000e+00" cType="1" res="-6.4959540031850338e-03" rms="4.1889256238937378e-01" purity="2.6075470447540283e-01" nType="-99"/>
          <Node pos="r" depth="2" NCoef="0" IVar="-1" Cut="0.0000000000000000e+00" cType="1" res="5.1927042659372091e-04" rms="4.4904124736785889e-01" purity="6.0478538274765015e-01" nType="-99"/>
        </Node>
      </Node>
    </BinaryTree>
    <BinaryTree type="DecisionTree" boostWeight="1.0000000000000000e+00" itree="60">
      <Node pos="s" depth="0" NCoef="0" IVar="9" Cut="9.4160835266113281e+01" cType="1" res="-5.0453212112188339e-02" rms="4.3405336141586304e-01" purity="5.0000000000000000e-01" nType="0">
        <Node pos="l" depth="1" NCoef="0" IVar="6" Cut="8.3588898181915283e-01" cType="1" res="-2.5481152534484863e-01" rms="2.6249262690544128e-01" purity="7.7355861663818359e-02" nType="0">
          <Node pos="l" depth="2" NCoef="0" IVar="-1" Cut="0.0000000000000000e+00" cType="1" res="-4.3987710960209370e-03" rms="1.2852764129638672e-01" purity="1.6896082088351250e-02" nType="-99"/>
          <Node pos="r" depth="2" NCoef="0" IVar="-1" Cut="0.0000000000000000e+00" cType="1" res="-5.1204022020101547e-03" rms="3.3004802465438843e-01" purity="1.3476440310478210e-01" nType="-99"/>
        </Node>
        <Node pos="r" depth="1" NCoef="0" IVar="3" Cut="4.2664028167724609e+01" cType="1" res="-9.6421437337994576e-03" rms="4.4973465800285339e-01" purity="5.8440345525741577e-01" nType="0">
          <Node pos="l" depth="2" NCoef="0" IVar="-1" Cut="0.0000000000000000e+00" cType="1" res="-6.4069055952131748e-03" rms="4.1889068484306335e-01" purity="2.6075470447540283e-01" nType="-99"/>
          <Node pos="r" depth="2" NCoef="0" IVar="-1" Cut="0.0000000000000000e+00" cType="1" res="4.6670914161950350e-04" rms="4.4904434680938721e-01" purity="6.0478538274765015e-01" nType="-99"/>
        </Node>
      </Node>
    </BinaryTree>
    <BinaryTree type="DecisionTree" boostWeight="1.0000000000000000e+00" itree="61">
      <Node pos="s" depth="0" NCoef="0" IVar="9" Cut="9.4160835266113281e+01" cType="1" res="-5.0117362290620804e-02" rms="4.3382829427719116e-01" purity="5.0000000000000000e-01" nType="0">
        <Node pos="l" depth="1" NCoef="0" IVar="6" Cut="8.3588898181915283e-01" cType="1" res="-2.5270855426788330e-01" rms="2.6254829764366150e-01" purity="7.7355861663818359e-02" nType="0">
          <Node pos="l" depth="2" NCoef="0" IVar="-1" Cut="0.0000000000000000e+00" cType="1" res="-4.3834419921040535e-03" rms="1.2852188944816589e-01" purity="1.6896082088351250e-02" nType="-99"/>
          <Node pos="r" depth="2" NCoef="0" IVar="-1" Cut="0.0000000000000000e+00" cType="1" res="-5.0791604444384575e-03" rms="3.3008539676666260e-01" purity="1.3476440310478210e-01" nType="-99"/>
        </Node>
        <Node pos="r" depth="1" NCoef="0" IVar="1" Cut="8.2350976765155792e-02" cType="1" res="-9.6591887995600700e-03" rms="4.4965913891792297e-01" purity="5.8440345525741577e-01" nType="0">
