<?xml version="1.0"?>
<MethodSetup Method="DNN::DNN">
  <GeneralInfo>
    <Info name="TMVA Release" value="4.2.1 [262657]"/>
    <Info name="ROOT Release" value="6.08/07 [395271]"/>
    <Info name="Creator" value="wverbeke"/>
    <Info name="Date" value="Tue Dec  5 02:18:17 2017"/>
    <Info name="Host" value="Linux vocms0302.cern.ch 2.6.32-696.1.1.el6.x86_64 #1 SMP Wed Apr 12 08:44:28 CEST 2017 x86_64 x86_64 x86_64 GNU/Linux"/>
    <Info name="Dir" value="/storage_mnt/storage/user/wverbeke/Work/AnalysisCode/ewkino/bdtTraining/bdtTrainingsubmit"/>
    <Info name="Training events" value="6423"/>
    <Info name="TrainingTime" value="5.69112009e+02"/>
    <Info name="AnalysisType" value="Classification"/>
  </GeneralInfo>
  <Options>
    <Option name="V" modified="Yes">True</Option>
    <Option name="VerbosityLevel" modified="No">Verbose</Option>
    <Option name="VarTransform" modified="Yes">N</Option>
    <Option name="H" modified="Yes">False</Option>
    <Option name="CreateMVAPdfs" modified="No">False</Option>
    <Option name="IgnoreNegWeightsInTraining" modified="No">False</Option>
    <Option name="Layout" modified="Yes">TANH|128,TANH|128,TANH|128,LINEAR</Option>
    <Option name="ErrorStrategy" modified="Yes">CROSSENTROPY</Option>
    <Option name="WeightInitialization" modified="Yes">XAVIERUNIFORM</Option>
    <Option name="Architecture" modified="Yes">STANDARD</Option>
    <Option name="TrainingStrategy" modified="Yes">LearningRate=1e-1,Momentum=0.9,Repetitions=1,ConvergenceSteps=20,BatchSize=256,TestRepetitions=10,WeightDecay=1e-4,Regularization=L2,DropConfig=0.0+0.5+0.5+0.5,</Option>
  </Options>
  <Variables NVar="15">
    <Variable VarIndex="0" Expression="topMass" Label="topMass" Title="topMass" Unit="" Internal="topMass" Type="F" Min="0.00000000e+00" Max="1.94356555e+03"/>
    <Variable VarIndex="1" Expression="etaMostForward" Label="etaMostForward" Title="etaMostForward" Unit="" Internal="etaMostForward" Type="F" Min="2.04481315e-04" Max="2.75211215e+00"/>
    <Variable VarIndex="2" Expression="pTLeadingJet" Label="pTLeadingJet" Title="pTLeadingJet" Unit="" Internal="pTLeadingJet" Type="F" Min="2.50070133e+01" Max="9.14649109e+02"/>
    <Variable VarIndex="3" Expression="pTLeadingLepton" Label="pTLeadingLepton" Title="pTLeadingLepton" Unit="" Internal="pTLeadingLepton" Type="F" Min="2.51116409e+01" Max="9.04014832e+02"/>
    <Variable VarIndex="4" Expression="mNotSoForwardJets" Label="mNotSoForwardJets" Title="mNotSoForwardJets" Unit="" Internal="mNotSoForwardJets" Type="F" Min="0.00000000e+00" Max="2.95411652e+02"/>
    <Variable VarIndex="5" Expression="missingET" Label="missingET" Title="missingET" Unit="" Internal="missingET" Type="F" Min="4.80668336e-01" Max="4.88814789e+02"/>
    <Variable VarIndex="6" Expression="highestDeepCSV" Label="highestDeepCSV" Title="highestDeepCSV" Unit="" Internal="highestDeepCSV" Type="F" Min="6.32599592e-01" Max="9.99998748e-01"/>
    <Variable VarIndex="7" Expression="minMlb" Label="minMlb" Title="minMlb" Unit="" Internal="minMlb" Type="F" Min="-2.76358429e+02" Max="8.22276733e+02"/>
    <Variable VarIndex="8" Expression="etaZ" Label="etaZ" Title="etaZ" Unit="" Internal="etaZ" Type="F" Min="6.07080583e-05" Max="7.83874226e+00"/>
    <Variable VarIndex="9" Expression="m3l" Label="m3l" Title="m3l" Unit="" Internal="m3l" Type="F" Min="1.57242317e+01" Max="1.98644385e+03"/>
    <Variable VarIndex="10" Expression="maxDeltaPhill" Label="maxDeltaPhill" Title="maxDeltaPhill" Unit="" Internal="maxDeltaPhill" Type="F" Min="2.49407291e-02" Max="3.14147997e+00"/>
    <Variable VarIndex="11" Expression="pTMaxlb" Label="pTMaxlb" Title="pTMaxlb" Unit="" Internal="pTMaxlb" Type="F" Min="1.89849243e+01" Max="8.99639771e+02"/>
    <Variable VarIndex="12" Expression="pT3l" Label="pT3l" Title="pT3l" Unit="" Internal="pT3l" Type="F" Min="5.21555066e-01" Max="8.33644531e+02"/>
    <Variable VarIndex="13" Expression="mForwardJetsLeadinBJetW" Label="mForwardJetsLeadinBJetW" Title="mForwardJetsLeadinBJetW" Unit="" Internal="mForwardJetsLeadinBJetW" Type="F" Min="0.00000000e+00" Max="1.94356555e+03"/>
    <Variable VarIndex="14" Expression="ht" Label="ht" Title="ht" Unit="" Internal="ht" Type="F" Min="2.50070133e+01" Max="9.14649109e+02"/>
  </Variables>
  <Spectators NSpec="0"/>
  <Classes NClass="2">
    <Class Name="Signal" Index="0"/>
    <Class Name="Background" Index="1"/>
  </Classes>
  <Transformations NTransformations="1">
    <Transform Name="Normalize">
      <Selection>
        <Input NInputs="15">
          <Input Type="Variable" Label="topMass" Expression="topMass"/>
          <Input Type="Variable" Label="etaMostForward" Expression="etaMostForward"/>
          <Input Type="Variable" Label="pTLeadingJet" Expression="pTLeadingJet"/>
          <Input Type="Variable" Label="pTLeadingLepton" Expression="pTLeadingLepton"/>
          <Input Type="Variable" Label="mNotSoForwardJets" Expression="mNotSoForwardJets"/>
          <Input Type="Variable" Label="missingET" Expression="missingET"/>
          <Input Type="Variable" Label="highestDeepCSV" Expression="highestDeepCSV"/>
          <Input Type="Variable" Label="minMlb" Expression="minMlb"/>
          <Input Type="Variable" Label="etaZ" Expression="etaZ"/>
          <Input Type="Variable" Label="m3l" Expression="m3l"/>
          <Input Type="Variable" Label="maxDeltaPhill" Expression="maxDeltaPhill"/>
          <Input Type="Variable" Label="pTMaxlb" Expression="pTMaxlb"/>
          <Input Type="Variable" Label="pT3l" Expression="pT3l"/>
          <Input Type="Variable" Label="mForwardJetsLeadinBJetW" Expression="mForwardJetsLeadinBJetW"/>
          <Input Type="Variable" Label="ht" Expression="ht"/>
        </Input>
        <Output NOutputs="15">
          <Output Type="Variable" Label="topMass" Expression="topMass"/>
          <Output Type="Variable" Label="etaMostForward" Expression="etaMostForward"/>
          <Output Type="Variable" Label="pTLeadingJet" Expression="pTLeadingJet"/>
          <Output Type="Variable" Label="pTLeadingLepton" Expression="pTLeadingLepton"/>
          <Output Type="Variable" Label="mNotSoForwardJets" Expression="mNotSoForwardJets"/>
          <Output Type="Variable" Label="missingET" Expression="missingET"/>
          <Output Type="Variable" Label="highestDeepCSV" Expression="highestDeepCSV"/>
          <Output Type="Variable" Label="minMlb" Expression="minMlb"/>
          <Output Type="Variable" Label="etaZ" Expression="etaZ"/>
          <Output Type="Variable" Label="m3l" Expression="m3l"/>
          <Output Type="Variable" Label="maxDeltaPhill" Expression="maxDeltaPhill"/>
          <Output Type="Variable" Label="pTMaxlb" Expression="pTMaxlb"/>
          <Output Type="Variable" Label="pT3l" Expression="pT3l"/>
          <Output Type="Variable" Label="mForwardJetsLeadinBJetW" Expression="mForwardJetsLeadinBJetW"/>
          <Output Type="Variable" Label="ht" Expression="ht"/>
        </Output>
      </Selection>
      <Class ClassIndex="0">
        <Ranges>
          <Range Index="0" Min="9.4647819519042969e+01" Max="1.7542631835937500e+03"/>
          <Range Index="1" Min="6.6365464590489864e-04" Max="2.6528210639953613e+00"/>
          <Range Index="2" Min="2.5029060363769531e+01" Max="8.4051641845703125e+02"/>
          <Range Index="3" Min="2.5562446594238281e+01" Max="6.4438989257812500e+02"/>
          <Range Index="4" Min="0.0000000000000000e+00" Max="2.6201147460937500e+02"/>
          <Range Index="5" Min="2.0222196578979492e+00" Max="4.6242691040039062e+02"/>
          <Range Index="6" Min="6.3292264938354492e-01" Max="9.9999868869781494e-01"/>
          <Range Index="7" Min="-2.1753265380859375e+02" Max="4.6589364624023438e+02"/>
          <Range Index="8" Min="6.0708058299496770e-05" Max="5.2725610733032227e+00"/>
          <Range Index="9" Min="5.2116802215576172e+01" Max="1.1461545410156250e+03"/>
          <Range Index="10" Min="4.3584614992141724e-02" Max="3.1409258842468262e+00"/>
          <Range Index="11" Min="3.5235424041748047e+01" Max="8.0350360107421875e+02"/>
          <Range Index="12" Min="1.5975372791290283e+00" Max="5.0354785156250000e+02"/>
          <Range Index="13" Min="0.0000000000000000e+00" Max="1.7542631835937500e+03"/>
          <Range Index="14" Min="2.5029060363769531e+01" Max="8.4051641845703125e+02"/>
        </Ranges>
      </Class>
      <Class ClassIndex="1">
        <Ranges>
          <Range Index="0" Min="0.0000000000000000e+00" Max="1.9435655517578125e+03"/>
          <Range Index="1" Min="2.0448131544981152e-04" Max="2.7521121501922607e+00"/>
          <Range Index="2" Min="2.5007013320922852e+01" Max="9.1464910888671875e+02"/>
          <Range Index="3" Min="2.5111640930175781e+01" Max="9.0401483154296875e+02"/>
          <Range Index="4" Min="0.0000000000000000e+00" Max="2.9541165161132812e+02"/>
          <Range Index="5" Min="4.8066833615303040e-01" Max="4.8881478881835938e+02"/>
          <Range Index="6" Min="6.3259959220886230e-01" Max="9.9999874830245972e-01"/>
          <Range Index="7" Min="-2.7635842895507812e+02" Max="8.2227673339843750e+02"/>
          <Range Index="8" Min="2.8213979676365852e-03" Max="7.8387422561645508e+00"/>
          <Range Index="9" Min="1.5724231719970703e+01" Max="1.9864438476562500e+03"/>
          <Range Index="10" Min="2.4940729141235352e-02" Max="3.1414799690246582e+00"/>
          <Range Index="11" Min="1.8984924316406250e+01" Max="8.9963977050781250e+02"/>
          <Range Index="12" Min="5.2155506610870361e-01" Max="8.3364453125000000e+02"/>
          <Range Index="13" Min="0.0000000000000000e+00" Max="1.9435655517578125e+03"/>
          <Range Index="14" Min="2.5007013320922852e+01" Max="9.1464910888671875e+02"/>
        </Ranges>
      </Class>
      <Class ClassIndex="2">
        <Ranges>
          <Range Index="0" Min="0.0000000000000000e+00" Max="1.9435655517578125e+03"/>
          <Range Index="1" Min="2.0448131544981152e-04" Max="2.7521121501922607e+00"/>
          <Range Index="2" Min="2.5007013320922852e+01" Max="9.1464910888671875e+02"/>
          <Range Index="3" Min="2.5111640930175781e+01" Max="9.0401483154296875e+02"/>
          <Range Index="4" Min="0.0000000000000000e+00" Max="2.9541165161132812e+02"/>
          <Range Index="5" Min="4.8066833615303040e-01" Max="4.8881478881835938e+02"/>
          <Range Index="6" Min="6.3259959220886230e-01" Max="9.9999874830245972e-01"/>
          <Range Index="7" Min="-2.7635842895507812e+02" Max="8.2227673339843750e+02"/>
          <Range Index="8" Min="6.0708058299496770e-05" Max="7.8387422561645508e+00"/>
          <Range Index="9" Min="1.5724231719970703e+01" Max="1.9864438476562500e+03"/>
          <Range Index="10" Min="2.4940729141235352e-02" Max="3.1414799690246582e+00"/>
          <Range Index="11" Min="1.8984924316406250e+01" Max="8.9963977050781250e+02"/>
          <Range Index="12" Min="5.2155506610870361e-01" Max="8.3364453125000000e+02"/>
          <Range Index="13" Min="0.0000000000000000e+00" Max="1.9435655517578125e+03"/>
          <Range Index="14" Min="2.5007013320922852e+01" Max="9.1464910888671875e+02"/>
        </Ranges>
      </Class>
    </Transform>
  </Transformations>
  <MVAPdfs/>
  <Weights InputWidth="15" Depth="4" LossFunction="C" OutputFunction="S">
    <Layer ActivationFunction="3">
      <Weights rows="128" cols="15">
        -2.6064824391759955e-01 1.2764228602078426e-01 8.5493647818533469e-02 -1.1979436847835054e-01 1.1398903066720142e-01 -3.3157857640841515e-01 3.4782302725785218e-02 4.4024388868620284e-02 -3.2918306814876097e-01 3.2718338279750914e-01 2.4751684573945176e-02 3.3115972303888502e-01 3.6666084503762526e-02 7.6789607465629114e-02 3.0548243352394983e-01 -3.0391678295884090e-02 2.3707821250615113e-01 -3.4188947703783429e-01 5.0538980387037150e-02 -3.1304643080668543e-01 -2.1856612351786833e-01 2.4843887957468494e-01 1.1814618165031612e-01 -2.3365192206960847e-01 -2.8459204614235001e-01 -1.3641812149845556e-01 -2.6090863166308559e-01 -6.6516099365653863e-02 3.3155510446259129e-01 -3.2983016654911601e-01 -1.9896110325673630e-01 2.3230091088165628e-01 1.5666065150164477e-01 -2.1064659282397236e-01 -1.5628995794444209e-01 -1.5946143747053584e-01 4.0664214122275645e-02 1.0772330808768524e-01 3.1577636946172949e-01 -2.8005409408094406e-01 -9.4336391901004499e-02 -2.6318428098457813e-01 -3.2965586616486037e-03 2.7268831087050704e-01 2.3748417307570133e-02 1.2571470978341576e-01 -2.9600270395231293e-01 -3.1644739245630615e-01 3.3456379917517520e-01 -2.2976464370195310e-01 -6.5392807806590167e-02 2.8451334010482354e-01 -1.5613884285594504e-01 2.2566456300830573e-01 2.0721815678660627e-01 3.2620013643714324e-01 2.7690233093000821e-01 -1.4578140548698781e-01 1.8360505091090798e-01 6.9026877698367406e-02 3.0815903908578879e-01 9.1910114230677825e-02 1.4309292634795965e-02 -4.8452882011057047e-03 2.8206964092055903e-01 1.5811986295506025e-01 1.8386791369556332e-01 -3.4961172981423289e-01 -1.1729964813061168e-01 -8.3662903341510886e-02 1.1275075662045186e-01 7.6204093399939554e-02 2.5780535340859778e-01 -1.9645966364826797e-01 -2.5419202702120631e-02 1.4001192054218915e-02 -2.0254338706613004e-01 -3.0696079321858627e-01 2.1589522793091481e-01 6.6833522656305211e-02 9.4234683695873817e-02 3.5211429028688179e-01 -3.1152042626820969e-01 2.3699645196823066e-01 -2.5447874394178416e-01 5.8705411063983574e-02 -3.2573826506359677e-01 -1.1706165973861343e-01 -5.8588445673345348e-02 4.1554295543208143e-02 -3.2908113307838954e-01 -7.8631913172723972e-02 3.3748160989562104e-01 -2.4070273124303254e-01 1.3497773798886872e-01 -3.5336907599723200e-01 -8.8535052884895660e-02 -2.0173230302233366e-01 -4.1517860965928986e-02 -2.8510669451064363e-01 1.1822331023310716e-02 -1.8881593543342173e-01 2.5906085288980651e-01 -2.8016460932958309e-01 1.9339076808475344e-01 2.0482922645593322e-02 3.1603653983567170e-01 -1.2132686680014920e-01 -2.4854174908667154e-01 4.8140262316291968e-02 -1.0915379892798421e-01 1.7347261912055192e-01 -1.7435503479083689e-01 -3.1254222301116691e-01 -2.6864434381702551e-01 -9.0356023542997252e-02 -2.3553531622509599e-01 -2.7613160051693775e-01 -4.3204397773260170e-02 -3.7794277008288253e-02 -3.4693778454157215e-01 -1.6292470547945073e-01 1.7326376878176175e-01 -8.3092691828042131e-02 -4.4768198547391558e-02 -4.2357137663893958e-03 1.8830415915670518e-01 1.6886717712852425e-01 1.0329836221968572e-01 1.5225227273749017e-01 2.6679840951176020e-02 -3.0418397788305124e-01 -3.4213890417175258e-01 2.0028064568762741e-01 4.8690853999197148e-02 -3.0579305395959855e-01 -1.5256353816001134e-01 -2.3185534248768572e-01 -5.3071595113019274e-02 -2.0917531706751372e-01 -1.2776070464584549e-01 1.0029653893491847e-01 -1.8738697258173707e-02 -2.0529526982473073e-01 5.6909664645757287e-02 -3.2246901325450533e-01 -1.0356252624779107e-02 2.6242508492039851e-01 1.9479734527460607e-01 -1.4512829757968893e-01 1.3386125363540854e-01 2.0127269609815859e-01 3.1291340197736373e-01 1.0898255926700838e-01 -1.5861725634946353e-01 -2.5408431120084446e-01 -2.8153878925898462e-01 2.9994481774036330e-01 1.3523083627390059e-01 6.4018081035849592e-02 -2.8374409849084681e-01 1.3129279533538843e-01 -2.8565417434286172e-01 -3.1848420020220775e-01 -3.0984429733112556e-01 3.0440541441955365e-01 -1.5405119725567368e-01 -1.7317803433100096e-01 -3.1099198603189682e-01 -1.8081291105532146e-01 -7.9962701612522766e-02 2.5674965985025988e-01 -1.7626460203154040e-01 -9.4098356774226760e-02 3.5022204647379135e-01 5.6557508287713130e-02 -2.5350998343551001e-01 2.8971661576360852e-01 2.2351432842649663e-01 2.4859223419891871e-02 2.3817671063079148e-02 -3.4371250626049205e-01 -2.6102214912180377e-01 2.8665331179019071e-01 -9.8130787458135856e-03 -3.0856448520470420e-01 3.0471321001196372e-01 1.3192911276280553e-01 -2.6063541756655206e-01 -3.0173235929387704e-01 9.8528789117340254e-02 2.9221653708210005e-01 1.8708234955284656e-01 4.8304026906349620e-02 2.4448471303334876e-01 1.1012948071003839e-01 3.4182553249206998e-01 -2.3902110275321545e-01 2.8517473571153978e-01 3.2800982810114759e-01 1.8926594316975345e-01 -1.4701610978509580e-01 -1.7923188510843381e-02 2.2290982220681951e-01 -8.6079916636763995e-02 2.2317005284124655e-01 -1.8944334096040744e-01 2.4831161195693957e-01 -2.9867964645363138e-01 3.8161255164122818e-02 1.4328316029258756e-01 2.2642259301258216e-01 -2.7814104425402475e-01 -2.3162054996738296e-01 -1.9841862722728221e-01 3.2775631030177271e-01 3.3627244008109164e-01 4.8927564797853554e-03 2.9877086922380697e-02 -1.8361486004592381e-01 9.4643399224807218e-02 -1.7679515964469347e-01 3.5132559412746595e-01 -1.6324412978539393e-01 -1.6277800408295404e-01 1.8494212399392138e-01 -7.2182255333104878e-02 -9.3442898496596594e-02 -3.3188682786940893e-01 1.9913802381253196e-01 3.5242995550641282e-01 2.3402655746513745e-01 2.3674179901547149e-01 1.6419518443435641e-01 3.4088454303626198e-01 -2.3458979925662068e-01 -1.9903019108983924e-01 -1.0901240866362231e-01 5.5390815504497815e-02 2.7060138466564965e-01 -3.1902774788665894e-01 -2.2818417617181391e-01 -1.2116496504341492e-01 1.6799660456029968e-02 3.2659903652284694e-01 -1.0515852662162238e-01 -2.1944304724924657e-01 3.3491227700151499e-01 3.6182875677759622e-02 -2.5751627394799742e-01 1.7201511216299503e-01 1.0899806637544020e-01 -1.8920701425507538e-01 1.0006579486720159e-01 2.3323899230573428e-01 -1.1982017439379593e-01 -2.4134945404004396e-01 5.5948116674765166e-02 -1.5567730310114875e-01 5.4267957636273248e-02 -2.1096738514033067e-01 1.8773075440398840e-01 -2.4774083102108785e-01 1.4816331355208315e-01 1.0231808329654582e-01 1.1966684405977121e-01 -1.9262896130607590e-01 3.6527058834228340e-02 2.9566244645979017e-01 7.3198363431603852e-02 1.8155623912924626e-01 -1.7161610831855542e-01 1.8284860655425883e-01 6.1707698973913476e-02 -2.6192993354714028e-01 3.0567283321343081e-02 -3.3060059695374233e-01 -7.3101127190142196e-02 1.5655446316919291e-01 1.1040739267034373e-01 1.6946071011079378e-01 -2.8876902266426480e-01 -2.9013892308154843e-01 1.8563204015439377e-01 2.7086466699519546e-01 -9.3396103140673314e-02 -2.8119628997358703e-01 1.4315736239329144e-01 2.2263295774053637e-01 3.8012146869471947e-03 -2.0894946149238902e-01 -8.8209375832392092e-02 1.9205950464264987e-01 1.4726499505474078e-01 -1.0296273750776215e-01 3.0453099190951349e-01 -3.4638073496201510e-01 -2.1121669568330431e-01 8.7181581425898255e-03 6.6554059184269904e-03 3.4180059406762270e-01 9.5518797988121018e-02 3.0819758630868449e-01 3.1175533297380015e-01 4.6221080742502871e-03 1.0462885890542326e-02 -2.1682661222781952e-01 -3.2149919601386093e-02 -8.2163932351470584e-02 2.6920959718587439e-01 -3.1002011168777066e-01 2.5613640916233099e-01 3.0433010233911856e-01 3.2314119061441149e-01 -1.5660713457229039e-01 1.7824534176402185e-01 2.0812482247942149e-01 -9.8453464979676955e-02 5.5473832962773501e-02 -2.7106163033740988e-01 7.5355850807462446e-02 6.8393872569635139e-02 9.6020734347978726e-02 -2.2417413856988769e-01 -2.3334705008031395e-01 -9.6615665648031840e-02 1.3446626305017345e-01 -4.6065184397001465e-03 1.9680607086111404e-01 1.9042265884554108e-01 -2.9966326554691036e-01 1.7957895196323753e-01 -2.9198852285661596e-02 2.7214788831430781e-01 1.2288382645787461e-01 2.1386543891790225e-01 3.5129547129243759e-02 1.7206914144585572e-01 -1.3555564641314541e-01 -8.4380720865263534e-03 -2.2987564506217142e-01 -1.6920472299253472e-01 -9.4635139405233201e-02 3.2352813930325680e-01 -2.2632483890459240e-01 2.7689709741871033e-01 9.5782820834929769e-02 -1.7843310269951212e-01 -2.1392316119875573e-01 -7.3498723055193296e-02 -2.4442746449807301e-01 1.9580892955512794e-01 -1.5918069917854410e-01 1.4697516084120610e-01 -2.7947926622455321e-01 -1.6833816060695303e-01 3.2050201567174186e-01 1.8549258150108758e-01 4.3266384208479607e-02 -9.9077790361214627e-02 -4.5994075284128279e-02 6.9173434504995926e-02 -5.6585468023991635e-02 1.5362628537591230e-01 2.3280116171608367e-01 1.5723593211722640e-02 1.4762925382220535e-01 -2.2642986779129398e-01 -7.9011885037274399e-03 -2.6774642047131864e-01 4.5944763799145749e-02 -1.5564244409119191e-01 1.2660834776875959e-01 2.8940581965191814e-01 1.3914619790585839e-01 -1.5702347394393700e-02 -1.2817903428256855e-01 -1.4854429417465800e-01 -3.0195307634531982e-01 -2.6628330931065758e-01 5.0648469374942162e-02 2.7101965787952631e-01 2.0349616954515626e-01 -2.2690058743442029e-01 -2.6838339056354710e-01 -1.3811614013524225e-02 -2.1262395502085493e-01 -4.0152114729180309e-02 -6.2283671976061307e-02 3.5029255975164797e-01 -1.5847646811506066e-01 -2.7037900486124322e-01 -1.9981401581828373e-01 2.6882931713902997e-01 1.0559743924047740e-01 1.2712581890058383e-01 3.4983589216684968e-01 -2.9865413540884783e-01 -1.8735500602389385e-01 -2.5787247338195707e-01 1.4077246866018528e-01 2.8480952590292330e-01 3.8019680852094860e-02 -3.1206393668545513e-02 7.3096404399638715e-02 -2.3875607117211645e-01 1.7542480407996410e-02 1.6333911242124150e-02 -2.9338173903927178e-01 2.4254731321215828e-01 2.4042763233713957e-01 -2.3496865988935735e-04 2.4003191492560771e-01 1.6302788727924414e-02 -5.9180768549340998e-02 2.2273269409842081e-01 7.5578561471060485e-02 1.5328693718381503e-01 1.6211561563341534e-01 -2.6181140352002907e-01 2.8053042200946215e-01 6.2034563352799027e-02 2.5642511880193608e-01 -5.9573427699486245e-02 -2.7974751041462881e-01 -1.1943921913823601e-01 1.7588918471515616e-01 3.1425846167237670e-01 -1.1456891091696443e-01 -1.7201234725348877e-01 -3.5178504114641684e-01 2.3119084876493753e-01 1.4046996356150751e-01 2.0554839901396441e-01 -8.0775832038121068e-02 -3.0812126201611811e-01 1.4432582727225804e-01 1.5244749703829152e-01 1.2645496050065450e-01 -9.4893756893227529e-02 1.7535903620733861e-01 1.3369173124460521e-01 3.1648779168144275e-01 1.2604368078827141e-01 5.2503828495327157e-02 -3.0529373899927376e-01 -3.3725530095808409e-01 2.0400166785806015e-01 8.8336831739306398e-02 -1.9746259451208997e-01 5.1089038538762437e-03 -2.3848798607946484e-01 -8.1122186911264188e-02 2.2358887051138862e-01 1.5773954386449446e-01 -6.6532709989565661e-02 -2.3228007038975187e-01 -8.6403575841942221e-02 7.1137423000453393e-02 -2.1852710935455077e-01 -3.5325172872034505e-01 2.7748177764148968e-01 2.5518264786225325e-01 3.7314440379734366e-02 3.4788250635827850e-01 -1.2930956836855198e-01 2.5436786298704034e-01 -2.9958070809770330e-02 1.8896262845908049e-01 5.5562912573593616e-02 3.7807648312404213e-02 -1.5323203681426015e-01 2.3183042828306985e-01 2.2568356941780190e-01 -2.4591254716003208e-01 3.3504926780316380e-01 9.9142187833396622e-02 2.0372236341112832e-01 1.2902525787966745e-01 -2.5608650676908135e-01 -3.5259518070644043e-03 4.0568929118435688e-02 2.0949966901093053e-01 2.8124924337406010e-01 -2.4125032784977926e-01 8.1839657106101332e-02 2.9073696633580071e-01 -1.9166625732860429e-01 -3.1577477607334553e-01 7.2236060163937549e-02 6.8086793384203134e-02 2.5921113745227048e-01 -2.6566149109480033e-02 1.7703714932264564e-01 2.2633163291336963e-01 -2.9043383767378522e-01 -1.3050921556182771e-01 -3.5227985404784867e-01 -1.0694492782452660e-02 -2.3556945502124849e-01 7.9370128334280823e-02 -7.1342554362593111e-02 2.5515586055183070e-01 -2.5677054201830107e-01 -2.8616398970904672e-01 -1.3044248026786920e-01 -2.8763823744109823e-01 2.3085243372715047e-03 6.7826214285194780e-02 2.5413314431538309e-01 -3.0276068397820433e-01 1.9760875086554466e-02 1.1500620911672960e-01 -8.8169707788587667e-02 1.1937364964548750e-01 -3.2697766234447240e-01 2.8485977618097041e-01 3.2091779499826001e-01 2.5038774070245601e-01 -1.1244579210588743e-01 2.1540139114310849e-01 2.5422851122533968e-01 6.9123516015170893e-03 2.2838675340095044e-01 2.8720068816635297e-01 -8.1519974068611320e-02 6.2445847928462341e-02 -2.2106119496968299e-01 1.3310916122908517e-01 2.7389391526366391e-01 -1.1018185216629407e-01 3.4360493678031775e-02 2.6106897341873780e-01 -3.3728818256403748e-01 2.9545489275243547e-01 -1.9260942766022804e-01 1.3483279500011224e-02 -3.4117032287559462e-01 -2.0532180611988152e-01 -1.2315814503153405e-01 2.8924575565559807e-01 -5.0175735656171880e-02 -2.6213992112805123e-01 -3.0305937609973371e-01 -1.1665445441472409e-01 -2.3613656375918199e-01 -1.6742141022274409e-01 1.7552228116799110e-01 -1.6256956487508484e-01 3.0063366671722730e-01 -1.6359186759072483e-01 -1.2796640028170455e-02 -5.0046760401179301e-02 2.8008057296691113e-01 -3.5291877868226179e-01 -2.6868705725628189e-02 -9.2360960581498688e-02 3.1351865462113404e-01 -1.7778343381237127e-02 1.3878294403759786e-01 -5.5705903990228671e-02 -1.8655145437789666e-01 -5.9153544835308720e-02 -2.8516024574048499e-01 -1.8206298461326387e-01 -2.0932542838456136e-01 -3.5122260387798987e-01 3.0708501923432341e-01 -1.3904042024508659e-01 -2.3136693131012584e-01 -3.1561688226650386e-01 -3.6814684831422972e-02 7.7585726797575749e-02 -1.8238609637935468e-01 2.0983955588914707e-01 1.6569639548901671e-01 -1.1628278120323644e-01 -6.7091114776641300e-02 2.0234144220574415e-01 2.1532814049961430e-01 1.0220693802146760e-01 -2.3371472731617016e-01 1.9972919688009233e-01 -1.2002523006051657e-01 -3.2425286784864310e-01 1.8946631478723217e-01 -7.9908519049143215e-02 -1.0954836513299646e-01 3.3472873284937388e-01 -1.5616187394922684e-01 -9.6721958557635490e-02 -3.3164090260798848e-02 -9.8226803733909934e-02 2.0864188999502456e-01 5.9456425628964166e-02 6.2340501167973503e-02 3.6471801020486451e-02 -5.6400978060514965e-03 -2.6138980028014808e-02 1.1828993891889553e-01 -2.6551588057961473e-01 -2.9828053170561297e-01 6.1932612003919836e-03 1.2736097259220888e-01 -2.3421062338546592e-01 -2.9301182289981570e-01 1.1798334980191648e-01 -2.0957897847672907e-01 -3.4210646927689820e-01 2.1963110713877024e-01 -5.0004517217036061e-02 3.3563015216887399e-01 -2.9734469919518969e-01 -2.5461051343356655e-01 1.3952808760065666e-01 1.3562999474164517e-01 -1.7313716202459370e-01 2.3874099354790751e-01 -9.4603212780095036e-02 -2.9859387733872350e-01 -5.5195689329290358e-02 2.2570955942805385e-01 2.2960403909329324e-01 9.2679693447737549e-02 1.4783072578442691e-02 -2.0260399219451189e-01 1.3640066619086325e-01 3.1689866449607285e-01 2.2873624657543898e-01 3.4958902538924791e-01 8.9685838655136338e-02 1.2405239261842274e-01 -1.2264448172940032e-01 2.0593182343754016e-01 1.7433921125854002e-01 -1.2566067995680111e-01 2.9556297407030377e-02 3.2859499130897568e-01 -1.3495796120543149e-01 1.0999635119550463e-01 3.2163718110981437e-01 1.3235834529611795e-01 1.4502290406748486e-01 -1.5958708177094127e-01 -1.4110176781538036e-01 1.6412231426750629e-01 1.6297410160941070e-01 9.8107485593567245e-02 -2.9610784786893907e-01 -2.3077880064939854e-01 5.0529282359385808e-02 1.7410968644101665e-01 -5.6923141362906424e-02 -1.2157677336741080e-01 -7.6340458147412860e-02 -1.0520872678702434e-01 -1.5760532030081303e-01 1.1135065569061093e-02 2.6722358580025435e-01 2.6088616299684059e-01 2.7275599912323262e-01 3.1361863315640481e-01 -3.2634755316187652e-01 -1.3670082227151029e-02 1.9031976415104052e-01 2.0329041221035446e-02 1.8280399098841751e-01 1.5824773085733740e-01 2.1992641862065909e-01 -2.1860312118821107e-01 -2.5825486760093685e-01 -5.7615536993420813e-02 -2.9968261429855581e-01 2.0214085258087860e-01 -2.9577232029620176e-01 -1.3391565724430399e-01 3.1256079813075444e-01 1.9203177593168344e-01 3.1743716286981288e-03 -4.2526157581957560e-02 -3.0764530410172986e-01 -6.6111516975630585e-02 -5.8773718069239145e-02 1.7095035008930609e-01 4.5891200192840868e-02 -1.9903260268993989e-01 -1.8525322288043225e-01 -9.0846500139969158e-02 -1.8489044489480341e-01 -2.0380029122492923e-02 1.1557820746441457e-02 -2.7184449034581112e-02 1.5741721479776597e-02 3.0857170268827983e-01 3.0667785491884636e-01 -2.7314236729681657e-01 1.4319989771433575e-01 7.3799052184052361e-02 -2.5893015664031666e-01 1.4567670927854789e-01 -2.5684867583011839e-01 -5.3800359893578335e-02 -8.8378421189389642e-02 5.1114032067215452e-02 3.4012408632314367e-01 2.4148952268769655e-01 1.1283321417993780e-01 -2.0067963372938596e-01 -2.5359365414223922e-01 -1.6965682096604079e-01 3.1453846557295675e-02 1.1368441116294010e-01 3.4360145369138745e-01 -1.3378281058828836e-01 -1.7085378054829101e-01 1.2986804792017459e-01 -2.8369670463248331e-01 -2.3339626059225424e-01 2.9406380110797103e-01 -4.7027880382591748e-03 2.4084712931583005e-01 7.4323611247708671e-02 -2.9116341347085906e-01 -2.9745575388021722e-01 2.0600766333464471e-01 -2.6434292338895438e-01 -1.5820631920792727e-01 -3.5074040681368435e-01 -2.8090120191852680e-01 -2.7138405215504569e-01 1.5529015576485281e-01 -4.9343428721967411e-02 -2.8622564290254876e-01 3.3768208313264969e-01 1.2181706548493199e-01 -5.9797641240264113e-02 -2.4719229772069812e-01 1.4599842915195782e-01 -6.4887868414492025e-02 -2.0222541584713963e-01 -3.1153808753666407e-01 -1.4030072632038024e-01 -2.6150481252126628e-01 2.7147496593266940e-01 -3.1729069567350371e-01 -1.6998412377043193e-01 -2.7270311278519081e-02 3.2177161210227101e-01 2.2255473845780088e-01 -6.9465878425919739e-02 -2.6131195540021131e-02 -1.1157341502640807e-01 -1.7207426577218141e-01 3.2361523427926114e-01 -8.8997780852514238e-02 2.9170956362336803e-01 3.2106678509959141e-01 1.2432531217984243e-01 7.8495359154345579e-02 -3.2438522216656779e-01 3.5296972667882259e-01 9.0643959700122498e-02 -8.1831654557745562e-02 2.5411910167347301e-01 3.1032023219905647e-01 -2.2782103822052979e-01 1.6046342310369766e-02 -8.6447235398650610e-02 -2.1388296047856240e-01 3.0260698276917197e-01 2.5316005110638590e-01 2.8477132906323266e-01 -1.8626688695290228e-01 2.6718899108504962e-01 2.0752402386058896e-01 -2.1410675079908031e-01 1.8194128481883831e-01 7.8090221267993851e-02 2.9003977739470005e-01 -3.0182377111285663e-01 4.8128810419564079e-02 -3.4353964474176146e-01 -1.9160073664348673e-01 -2.1755079360551435e-01 7.8866169349732368e-02 3.2004568038570540e-02 3.3453447844484074e-01 1.2687491263180894e-01 -8.9943536697584689e-02 -1.5869879318839225e-01 -2.4213452068347283e-01 -5.6743028858022786e-02 -2.1649060497662376e-01 8.9307055000893545e-02 -2.4734238228825803e-01 -3.2896958160063483e-01 1.0149070024928605e-01 -2.0279916867221422e-02 5.4881717445851623e-02 -9.9965086379040322e-02 2.4621606752912181e-01 -6.3741862883752137e-02 -2.4981338238084400e-01 2.1609230748700917e-01 -1.9425317191769187e-01 -3.1085192421904373e-01 4.7895162029641794e-02 -3.1231965309742094e-02 2.3499388982900837e-01 1.9834055360546676e-01 -1.1356779646335923e-03 2.9547930287768409e-01 3.3731525297270587e-01 6.0537972857690976e-02 -2.1358382758884270e-01 1.1621674399983041e-01 2.0964112350771968e-01 6.9777089772100023e-02 1.0468268869314862e-01 5.8183791001797632e-03 8.4570124619925080e-02 -4.7659013101348069e-02 -9.4115396710832841e-02 4.6471628197123929e-02 2.4572325791969815e-02 1.7438883313981987e-01 3.3217133818394334e-01 -3.3060882703860051e-01 -9.4591021157516747e-02 2.0430516663881082e-01 3.3329698384548240e-01 7.2201415062970870e-02 -3.0190983920775943e-01 -3.1026635237913780e-01 -1.4348335952016777e-01 -1.0432106478808736e-01 7.1765338771204959e-02 1.8428094721999771e-01 1.9687560610834856e-01 -1.8666762878662416e-01 2.7606660241793318e-01 2.4295704229796947e-01 -3.3129360426976501e-01 7.0541247376894628e-02 -3.4117989431555534e-01 -2.4117037314138629e-01 -2.7591009095308699e-01 -2.1005792347228902e-01 6.4443495570812956e-02 -2.7598108728899479e-01 -1.0011284645194232e-01 -1.7567799952142332e-02 -2.8474823675794492e-01 1.8108245478182267e-02 -3.0666716395197247e-01 2.3905554405232654e-01 -3.2477808816179690e-02 6.1836745892822995e-02 -2.5146955299102286e-01 -2.7660800057694312e-01 -1.5632926737431632e-01 -3.0192930176615551e-01 1.6320337898406276e-01 -1.2232524470138489e-01 -2.5332944634445914e-01 -2.4835252157869275e-01 -1.9218960802222129e-01 1.3288731958284963e-01 8.8928878282437035e-02 -2.2495588257624636e-03 -1.9961461029943464e-01 -3.3715133148610577e-01 -1.1682051331982586e-01 3.5441117010731310e-01 1.1401188701419800e-01 7.3153576205056275e-02 -8.2703735360433892e-02 3.2540785488326335e-01 -1.7248450339254245e-01 2.3246732826790495e-01 1.3409225146232630e-02 1.3691171396190990e-02 -1.9417314639528810e-01 -3.0530008924671970e-01 -3.1841770542554498e-01 -2.6017909189681382e-01 1.4670463804571943e-01 2.7090534637552247e-02 -6.7457255815601080e-02 -8.1674910625754785e-02 -3.0787721980903365e-01 -7.7451234357903423e-02 1.7052700886339420e-01 -2.4008112124562594e-01 1.3401329628569983e-01 2.5604420574683573e-01 3.3968375522206057e-01 -2.2729728747193662e-01 -6.1202583677686044e-02 -3.5343835235780309e-02 -1.5485235786934307e-01 -4.3168048799829641e-02 -6.3370668031471664e-02 2.3104344720275050e-01 -1.1301200608815924e-01 3.2273993343627672e-01 4.1789554682011600e-02 -1.9921850912695899e-01 1.5666465118221462e-01 -1.8809672771661676e-01 3.1825677790016732e-01 -4.8735521044917192e-02 2.2468172536521977e-01 1.2254601669187760e-01 -2.2303003947282851e-01 -6.1433677894856216e-02 1.7766164974346491e-01 3.2930108907583794e-01 -8.9868758291004047e-02 2.9182696223710758e-01 -1.5492011911791942e-01 1.4060175934574537e-01 2.3949671621551111e-01 -3.0363000993777783e-01 -2.3934766740197211e-01 2.5483486441407321e-01 1.1937324569828035e-01 -1.8031145104645108e-01 -1.0106835713102746e-01 7.8919565241900191e-02 1.5086690964930824e-01 1.3906168390983428e-01 2.6252828781725002e-01 -1.1462423405222154e-02 -7.1991600180338511e-02 -4.6177914354108583e-02 -3.4558962108523877e-01 -1.9793845146059882e-01 -2.1943994908320577e-01 1.4381222556999423e-01 2.8672526793502351e-01 -2.1205147974808675e-01 5.0487747715580213e-02 9.2235772545445315e-03 1.8933906511405547e-02 -1.8554207901561351e-01 1.7876944080834972e-01 -2.5019853424104965e-01 1.0167137753402102e-01 2.3205666855449925e-01 -2.1497212360300877e-01 -7.9633949136120152e-02 -1.6264739935474554e-01 -1.8753602594349114e-01 -2.9759163144589679e-01 3.1841410122744507e-01 1.9829762324058056e-01 -1.6786595901091644e-01 8.7873848332785082e-02 1.1727454817748631e-01 -1.2707229130909489e-01 -3.5039349494247735e-01 1.0075523901201683e-01 2.1365155289382434e-01 -2.5951969866664376e-01 1.8541475288165044e-01 4.6259564118311537e-02 2.3824721167393165e-01 -2.1532570885535163e-01 -2.6130625932228169e-01 2.8332785424229068e-01 -2.1399626912451042e-01 -3.5907463455081404e-02 3.1996484664735936e-01 2.8752940638947705e-02 1.0617270316780451e-01 -2.9749672875929251e-01 3.0406082855691652e-01 -1.0220978390998779e-01 3.1065711461098489e-01 1.2057911149318845e-01 -1.6392685310581123e-01 8.6328450994062125e-02 -1.1165853395811812e-01 -1.8983776096915073e-01 -9.3367257974726739e-02 -2.5178464444866072e-01 -3.1743540201255904e-01 -4.9477629517016418e-02 1.4422187268518596e-01 1.3259995208904501e-01 2.8630568887055535e-01 2.2742862280982909e-01 -1.1222757915697244e-01 -9.8599384535244819e-02 1.3453859041535862e-01 -2.3910978087014334e-01 -2.8293592788732332e-02 -1.2419663023749518e-01 2.5851944356185369e-01 -3.4294848336666611e-01 1.6696162617722982e-01 2.9671045282905484e-01 -3.1510455255427233e-01 2.7536372084741906e-01 -7.6893176776194755e-02 1.7500589854139401e-01 5.3985489185628815e-02 -2.4814505214795704e-01 5.4205594492490898e-02 -2.3153913099010143e-01 2.1786735196036455e-01 1.6014513665943059e-01 3.4238728998670298e-01 -8.9551520962227474e-02 -1.2243048150702712e-01 -6.3694833420504761e-03 9.4824741321176076e-02 1.5352483466058053e-01 2.8888837850140348e-01 -2.4772527404062492e-01 -3.4829737040944270e-01 3.1629669045543568e-01 1.1967308368868251e-01 2.4559622812748547e-01 2.9932098731175960e-01 -2.1773576654469332e-01 -6.1118515878180943e-02 1.1658497176597596e-01 -2.0937494175762603e-01 5.8292387929602181e-02 1.8836940048869485e-01 3.3784171107481026e-01 -2.5705867265125615e-01 -1.0908165968604062e-01 2.5179699287376245e-01 1.5797054181073720e-02 -2.3592096242777424e-01 -1.2266033879007919e-01 2.3460449411686052e-01 -3.4262102532888039e-01 1.0467209481521224e-01 -2.7830728080762057e-01 3.1179836258443999e-01 1.4340770174193446e-01 3.0128297740025878e-01 -3.2726116396420585e-01 -9.6321802898778688e-02 2.1119895889281659e-01 3.0180254333103690e-01 3.2257088103226383e-01 3.1366083586511946e-02 -1.1007934320111461e-01 7.2872366034350725e-02 -4.4827745028439711e-02 -2.2692950367536052e-01 -3.0165076429557558e-01 -4.5214715947839670e-02 2.0311305275807157e-01 1.8712942575029429e-01 2.6312210304928274e-01 1.1126066154896627e-01 2.4648838334064221e-01 -3.3268646571375696e-02 3.3604215498299728e-02 -2.4940900343143804e-01 -2.0112357742611747e-01 -2.8589203784674205e-01 2.9684710618902643e-01 -1.0755295166264565e-01 1.1826337243312457e-01 -8.5671938545313783e-02 -1.8230390488880366e-01 1.0613852667878999e-01 -3.4511747923333008e-01 2.9453836779583092e-01 -2.7644956637389090e-01 3.2546759383385027e-01 -2.0467126333195421e-01 3.4900416788424915e-01 -6.6942206239240215e-02 8.8876298102190554e-02 -3.4018286440019979e-01 8.8673925864687780e-03 2.9293791990887202e-01 9.5952311890506944e-03 -5.0615223236750344e-03 9.2299426105582560e-02 -2.2832967181851144e-01 -1.9018857914495171e-01 2.5128263667196787e-01 1.9467446432571855e-01 2.5095180148653146e-01 -3.3306907285689677e-02 1.8144431672332625e-01 4.6135645025173762e-02 1.4808793565822093e-01 2.5261509153204598e-01 -1.6650305398277529e-01 1.7327051081367345e-01 -2.3093053371414731e-02 -2.0067381344046234e-01 3.1673201138077256e-02 -1.7144446477216649e-01 -2.2299960741088135e-01 -2.5736661124738958e-01 -3.9358889618252166e-02 2.6031150891821098e-01 2.1491435267975934e-01 -1.4147019070066710e-01 -6.4617045700646877e-03 -1.5484030153926126e-01 1.2517415418127439e-01 2.3786436239984729e-01 1.9779539678369842e-01 -2.8551467263777108e-01 -1.0387036195442521e-01 -2.9701588184694766e-01 -3.3459209398985013e-01 2.6847586689627101e-01 -2.5273306360862535e-01 -2.4309766413749728e-01 -3.4714476416404688e-01 -2.3634012481418551e-01 2.5061207729878532e-01 3.2664206249227440e-01 -9.0396681188985709e-02 1.4096638499916225e-01 9.5863279114947339e-02 8.0023631251027308e-02 -3.8148189582870459e-02 2.7727085106674143e-01 -3.1918194767568570e-01 -1.0883054468759649e-02 -3.1443257049574380e-01 9.0025765444923508e-02 6.6998526394461189e-02 -1.0304740454764709e-01 3.4910614352866071e-01 -2.0289919164476389e-01 -2.1158859778782685e-01 -1.3391336375779803e-01 -2.1707437890193010e-01 -2.8840466385158314e-02 -1.3000956489630736e-01 1.0832307378528946e-01 -4.2848791013171898e-02 -2.0671288631794710e-02 3.3153894438010606e-01 3.0990873977785222e-01 2.5888038045676570e-01 2.3740582905633859e-01 9.0429653820947711e-02 -7.7743755663919903e-02 3.1136809462570247e-01 9.0863403089225900e-02 -2.8029687913849977e-01 -1.0961129487829181e-01 -2.4393469912078061e-01 -2.6516642164000770e-01 2.6981440981872595e-01 3.4118158545631883e-01 -1.1448436266495175e-01 2.7211993414145264e-01 2.7200167532937503e-01 7.8900991852848018e-02 7.1733563778812237e-02 1.7200899954776433e-01 -1.1249892539096222e-01 3.1741368713226004e-01 1.0470248086302500e-01 1.9410548828227014e-01 -2.5626986267248963e-01 1.1480100280453055e-01 -2.6249933939103259e-01 -2.1185290075782887e-01 5.4137038160710339e-02 2.4941928144487460e-01 2.5820165136669065e-01 -1.2889667034290400e-01 2.0139823950911465e-02 -2.1422830375965415e-01 -1.7395180070772437e-01 -2.0840702446061482e-01 -2.4615042303564691e-01 2.1703375469657279e-01 -3.1373145865818730e-01 -1.9394422611118300e-01 2.1163409883084403e-01 -2.6077769362059083e-01 -3.3918521131384843e-01 -2.5243121822260212e-01 -1.5547924328599338e-01 -2.1496476043039839e-01 -2.2599775848850670e-01 -9.5051186182531472e-02 -6.1538147124939680e-03 -7.6679236450283936e-03 2.2428362580010758e-01 1.0960011655486190e-01 -1.8435063673771200e-02 -2.4074222053226968e-01 5.9071854021010908e-02 -1.5148611987627647e-01 1.7455062018733108e-01 -2.7845728902063371e-01 -5.2314248019233543e-04 1.4312715265956469e-01 -1.9612522215423131e-01 -2.4088102118590171e-01 3.5728168594005891e-02 1.4015796991087101e-01 -2.5423037713732471e-01 -4.7183940316220516e-02 -3.6613669357416986e-02 -2.1445367927016393e-01 -1.4488884754312242e-01 -3.3977712313057712e-01 -1.3205501315827375e-01 -3.5153242945884684e-02 3.8136547033126918e-02 -2.9524779170892013e-01 2.6006626321905119e-01 2.1986652311370486e-01 3.3781960699173141e-01 -1.4233889897702751e-01 -6.8420387233020297e-02 -1.0390062222778973e-02 -1.5760105967704138e-01 1.5426722980077967e-01 2.8603462094915327e-01 -1.5022375067297013e-02 1.8758556885605843e-01 1.5723222636256567e-01 -1.8481043768147523e-01 -1.7774419134678507e-01 -2.3107903580366712e-01 -2.2406834948730014e-01 3.3172357299886664e-02 1.0435168477486371e-01 5.3978538316367376e-02 2.8495816842422439e-01 -1.4258706487056252e-01 -9.4429742249270740e-02 -1.6201104688333609e-01 -2.5407407406870552e-01 1.3716296544791319e-02 -2.9978978778290410e-01 -1.9066541663072054e-01 1.2860891068800678e-01 -3.3342849349891612e-01 -8.9017828550243344e-02 2.1507883084150727e-02 -2.2532756195983192e-01 3.0866623048736475e-01 -2.2099892112536348e-01 -2.3059390249423167e-01 3.2999459249988772e-01 8.1707420156840408e-03 -2.0049186251962316e-02 -6.3039704736040716e-02 -2.4691000045670219e-01 3.0115851634877383e-01 -8.9148968194846148e-02 2.5121823954865874e-01 2.7361059951412198e-01 -2.3695317360079921e-01 1.5940462662403873e-01 2.7896887186121860e-01 1.9690390666690455e-01 1.9167872691331680e-01 2.9985766089749533e-01 5.1052811148333606e-02 -1.1326820809684687e-01 2.3515042461163166e-01 2.7109738422832796e-01 2.3547816603667501e-01 -5.0837182988334666e-02 -3.0316583152364934e-01 -2.7073590375158763e-01 3.1730970075528518e-02 -1.8009671166066893e-01 -1.8776891795160011e-01 -1.5773060105726180e-01 -4.2485173251079672e-02 3.4847160199046968e-02 4.0248958585910981e-02 1.5320827121890593e-01 2.3692432597563026e-01 3.1615367883053574e-01 -2.4069624908164244e-01 5.4467563371809524e-02 2.3234994642815301e-01 4.4660088118412468e-02 3.1163556220422411e-01 -1.1220283088230939e-02 2.0620358116693641e-01 -1.8611595432746386e-01 -1.0693419903500598e-01 -2.6293672163234000e-01 -3.3474683872305594e-01 -1.1339428262006531e-02 1.9277053022867643e-01 2.3029011679199272e-02 5.9204790245361086e-02 -9.2711039226714892e-02 -1.1850699088314108e-01 7.4489733336804143e-02 -5.1899676173972127e-02 -3.0744386057165918e-01 3.1150010141277251e-01 -1.7611227977768032e-01 2.2892206906300167e-01 1.3944252171131030e-01 -1.0936890424285960e-01 1.8524835652966656e-01 2.5189373542377130e-02 1.6627606206603301e-01 -7.8840905598738659e-02 6.4979205886619068e-02 -2.5818888320372013e-01 3.4409806488891514e-01 1.3553856379078274e-02 -1.4654425993172390e-01 -2.5409505916952879e-01 3.4366683729852174e-02 3.5098520408151319e-02 2.6009388871213579e-01 -3.2338109178629054e-01 -9.4826791535319449e-02 -1.0628813362683282e-02 6.6064043123301108e-02 -6.3197698914797013e-02 -2.9465051032963385e-01 -2.7795746857570847e-01 -2.9543522102879003e-02 -3.5194119372808064e-01 -2.3727644292050756e-01 -9.8371404992708397e-02 -1.8991655559793658e-01 1.8144057045790510e-01 1.0693673605204982e-02 -3.2542142223075371e-01 -1.7871408574709030e-01 1.6196637851867809e-01 2.0033529913833192e-01 -2.3982407747636317e-01 2.2356543862366410e-01 -2.7327616582326480e-01 1.3284514424393931e-01 -3.0630730856899543e-02 -3.3141304626783114e-01 5.5537062117916140e-02 6.6702276352554921e-02 7.4504378858892037e-02 -2.2806049489098398e-01 -1.0451183815003097e-01 -7.7392425713574443e-03 5.3980094995601503e-02 1.9729674438833519e-01 -3.3302618101965886e-01 1.5695520071137184e-01 2.0025070091929564e-02 -1.6100967900135293e-01 1.7912069276148651e-01 3.0269540983505688e-01 -8.2142798723926127e-03 1.9480830300672370e-02 -2.8984328393622024e-02 -3.1904746589444860e-01 -8.7281462597246048e-02 -6.1894314788237717e-02 -1.0347140205155941e-01 -1.0792838714184945e-01 2.5577916419968388e-01 2.5481658456024275e-01 -6.8041686300620602e-02 5.8960264451757949e-02 3.8321624268369076e-02 2.5157625618605534e-01 -2.0209938117973594e-01 1.6880454205628978e-01 1.1723261582458286e-01 3.1345028968739463e-01 2.1996815685266402e-01 3.2951326683999782e-01 2.9441721193890580e-01 -2.3721058344867038e-01 -1.4958192754400029e-01 -5.7013444340013555e-02 1.6344922816663898e-01 -3.4656656666672853e-01 1.6627106748767165e-01 2.8200877204406433e-01 1.6726411796116777e-01 2.8790243509982089e-01 2.5186406595634377e-02 3.3250776532467829e-02 -3.1928127996919975e-01 -3.3283883097109973e-01 -1.4187133221213274e-01 4.8220110861944554e-02 -1.3454794464074396e-01 -1.2833333392520835e-01 1.0807592114567566e-01 -1.1826529308990399e-01 -3.1302800439360851e-01 -1.6280638448962059e-01 2.8226129497870067e-01 -1.5968969677047090e-01 2.5608081208698236e-01 -2.6641455641653849e-01 1.1958681339468065e-01 6.8879368410079425e-02 3.3694052145190456e-01 2.7714447682802840e-01 -7.0172165423823568e-02 -2.4698153117016941e-01 1.1625295261435027e-01 8.8938529460724919e-02 -1.8394303965659295e-01 3.3797161231702449e-01 1.7147225381383593e-01 -1.8330726549533227e-01 -1.0498799986398805e-01 2.7834884320820466e-03 -2.2085325376916931e-01 4.9078579801657710e-02 2.5589297637975056e-01 1.1908453183356853e-01 -1.7806723338192490e-01 2.1678808795141025e-01 2.8697996774155421e-01 3.0535450952855936e-01 -2.0674385113406392e-02 2.2139196081873824e-01 -1.8460043239007490e-01 -5.4123879464313310e-02 2.1908650802074098e-01 -3.3905558918860118e-01 2.2669376681457695e-01 8.1201287540625208e-02 -3.9338139489023483e-02 -2.7698397582209155e-01 -1.8207788469878766e-01 2.4251959732271799e-01 -3.2234517866332885e-01 6.5554117983965945e-02 2.1136697657561329e-01 1.9380762012789232e-01 -2.8184933468089673e-01 -9.5970124524200992e-02 2.4567451836691498e-01 2.3646836761287376e-01 -6.8375976403980210e-03 -2.4679447924343356e-02 -2.6375627094377896e-01 3.6916288684873690e-03 2.3802603658145371e-01 6.6222368364936751e-02 1.4965639675430645e-01 -2.6147108221127474e-01 2.3364697530003314e-01 -1.3377077207338506e-01 -1.6449059758171755e-01 -2.1659540639263758e-01 2.2851830042768939e-01 -2.7135108335073022e-01 -4.6306839289119175e-02 -1.2098615884473968e-01 9.3003078228925798e-02 3.2078030343086916e-01 -3.3204749020683716e-01 1.1115366027191105e-01 -1.9369664531936887e-01 1.7641037302028328e-02 3.3168479309529769e-01 -2.0444141134675531e-01 -1.2623521369375371e-01 -2.9250927487447514e-01 -1.8915190786848354e-01 -1.3182015392207411e-01 1.2965272327959426e-01 1.6895732563319765e-01 -9.3663120457402244e-02 2.2994195110923052e-01 2.3917840615941871e-01 1.6005551789818110e-02 -3.3979516041447000e-01 -3.6489663593380933e-02 -2.8848542480674833e-01 -2.0722388589436216e-01 5.8228982306494884e-02 -3.1142511498156350e-01 4.7119165686612542e-02 -2.0954781272268372e-01 -1.1717300367243902e-01 -1.4976907709322543e-01 -1.9849314485396652e-01 5.2964311701847497e-02 1.4612776592042404e-01 -1.6941672148473771e-01 -3.2547754598929401e-01 -2.1225629299308918e-01 3.1044956119517658e-01 2.0300950909361659e-01 2.3382959031713157e-01 -2.4266843914295341e-01 -2.1208930734766979e-01 -1.3542461043267548e-01 -3.0791919160482628e-01 1.0576798655296392e-01 -1.7422218674978571e-01 6.5498586993010394e-02 2.2551433156869452e-01 3.1885331527347727e-01 -5.4295527546343501e-02 -2.8027901509706937e-01 1.3482516902220468e-02 6.1116549017653831e-03 -1.3865428922060535e-01 -1.3727011329684416e-01 -1.3705267221163206e-01 8.3469513085101948e-03 -2.5661593212516670e-01 3.4099862552568372e-01 -9.4269274430343997e-02 1.1183639058764211e-01 2.5765572426321626e-01 -6.6327475357616794e-02 -1.5028795064580364e-01 2.8103747805375151e-01 3.5143484158509021e-02 1.5395803541490560e-01 2.5261926678012470e-01 1.8013203191085353e-01 3.4347485221862412e-01 -9.3513707578647062e-02 2.9436477076738136e-02 1.5389373841015980e-01 2.0437622331936908e-02 -2.4655323822686009e-01 -3.4149505677989783e-01 1.2751811938544305e-01 -1.7370780300517213e-01 8.8643913353130387e-03 1.8402026822630191e-01 7.7105887972284598e-02 2.3683152334098856e-01 7.5684500774725119e-02 1.0132825976393724e-01 -1.1810829415908512e-01 -3.2938873008440755e-01 7.8099136455669474e-02 1.7673938286147955e-01 -9.5022741650284376e-02 -3.2186500130399043e-01 -1.3951619549272352e-02 -3.8469323739285563e-02 1.1150283497797037e-01 -6.0706255400802205e-02 -3.4036939055270755e-02 1.9246989355968677e-01 1.1314579215964210e-01 8.7759330108219097e-02 -2.4442442805705128e-01 -2.9540533039930472e-01 -3.0738094853582143e-01 3.4035026296355586e-01 -3.0786167198532616e-01 -1.5807464080597455e-01 7.6377455836501060e-02 -2.6503861075779256e-01 -2.2633938787050087e-01 -3.0417608630093168e-01 2.6665080459706952e-01 1.1717668089537094e-01 -9.0826907120920841e-03 1.0157949524889788e-01 1.0270370899266129e-01 -3.1208217418883799e-02 1.2856942165907445e-01 1.9143796868638349e-01 1.0185390645577637e-01 1.3570519788101601e-01 -3.4029297550834239e-02 4.8148976359135037e-02 -6.6972412672885687e-02 4.9491056912383279e-02 -1.6417538022153427e-02 1.6350841547841094e-01 -2.0509256804841483e-01 1.4047885015347328e-01 2.5842796971396013e-02 -3.3385744784477461e-01 -2.3760851601399735e-01 -2.0952521815903241e-01 -1.3892200263845617e-01 -2.1730919579801308e-01 3.5195432563241891e-01 -3.3997276750218522e-03 -5.7834190177897954e-02 -1.1468741412890811e-02 -4.2082259712836509e-02 2.4802056494602498e-01 1.4998985665199147e-01 3.2372036143017625e-02 -1.1753194871774631e-02 -1.2781336457280978e-01 -2.1010059042179921e-01 -6.7217482668726236e-02 -2.3743231916304394e-01 3.2957209834106521e-01 -2.3528431516605827e-01 5.4406723006609356e-02 3.0606034656049669e-01 9.2078972830545419e-02 -1.2013718133356263e-01 -2.7148081317154519e-02 -1.0238696059688478e-01 1.4272277782895396e-01 -2.3009297200438250e-01 1.4537765691994842e-01 -4.4523784271901401e-02 3.8071730477162335e-02 -2.3898757839812187e-01 -2.1372159480110056e-01 1.3858424648356471e-01 2.9936960591109346e-01 -3.4024923962772935e-01 -3.7187097099880745e-02 1.3594765563286726e-01 -3.2142182733194058e-01 -5.5810687915871071e-02 -6.8118707538710521e-02 -3.4010677972234404e-01 -4.8210399498025865e-02 -1.5790258753719108e-01 -1.5797077102159368e-01 -2.6838228339701137e-01 3.4313829380882621e-01 2.6271443642170617e-01 -2.4431135422913580e-01 -7.2794576649051382e-02 -2.3953116922421868e-02 -1.6259847509009187e-01 -1.7973966751466752e-01 -7.0497029926153656e-02 -1.1648430922026008e-01 6.7730603281265025e-02 1.2508572325815486e-02 1.3071802826995910e-01 -1.6095512282259702e-01 -2.7646976371201137e-01 -2.6318048949287470e-01 -1.2335114977566160e-01 -2.8931851001001596e-01 4.4110963128603083e-02 -2.2053271710763547e-01 -6.7027027201311720e-02 -2.4481145093650919e-01 2.2974683982379249e-01 7.2154216840437907e-02 2.8864125443945204e-01 2.5826788219873503e-01 -3.0551209099304261e-01 2.3858540485780805e-01 2.3541877441006765e-02 2.4011987906543497e-01 3.2828561410796250e-02 -1.0086187053307975e-01 -1.7928214895935540e-01 1.3433193618722358e-01 2.1546494428122898e-01 -2.0023636528517533e-01 2.5860997632918808e-01 1.0482396968561805e-01 -4.8729731378044698e-02 -2.5653773842533734e-01 -3.0757497143496221e-01 -7.4972573161252555e-03 3.3484975325905064e-01 -1.8681953062015949e-01 -1.1776309507752675e-01 2.7386554234396593e-01 -1.2535153354951767e-01 1.2319053085457166e-02 -2.9013077693954070e-02 2.2978676521735245e-01 2.3745629846528046e-01 3.0878374867008962e-01 1.6249755545786593e-01 -5.1462528657171061e-02 -2.4997251477613841e-01 -2.5194740196956578e-01 1.3063777615158928e-01 -2.9603101107356511e-01 7.0882885633800713e-02 2.7557050948256716e-02 -9.4498500173614303e-02 1.0213814701402327e-01 2.6037417655252643e-01 -2.3836610225749541e-01 5.2255104615751446e-02 -2.2009676329825856e-01 2.9520493657652713e-01 -1.1514312146745656e-01 -2.8145198186564757e-01 3.2212109905314412e-01 2.1312925928294979e-01 2.9385571620838474e-01 1.9034164618053609e-01 2.9635872717123796e-01 3.0313396076530202e-01 -1.4294379815087918e-01 -3.2771245999772713e-01 6.8570705013122790e-02 -3.4504265133146689e-01 -2.9477747804819415e-01 2.2358339163230456e-01 -3.2844359479008206e-01 3.2815846132759147e-01 -1.7705135544686747e-02 -8.2971409957672063e-02 -2.2842077825807597e-01 2.7838874405850544e-01 -1.7572501284803346e-01 2.2966621675329263e-01 -1.7854617636980319e-01 2.9566757108403741e-01 -2.9525276676345119e-01 3.4425247039659007e-01 2.1691415226898123e-01 -2.7298741955767358e-01 -1.9624216002357482e-02 -2.3191730122528473e-01 6.7147145793220869e-02 5.1257430833162719e-02 3.0169225037534897e-01 7.7590706417644054e-02 -2.5261274969114555e-01 1.9132534674739202e-01 -1.8813226024357482e-01 7.1202010994394910e-02 3.3606233971088884e-01 -3.5692301523843474e-03 2.2840501638120925e-01 4.5875367267956664e-02 1.7555133530312717e-01 -7.1493257783634204e-02 -1.5341443058334667e-01 -3.3249897769005321e-01 -2.9350199846721442e-01 1.6514908619429056e-01 -2.8227156249971286e-01 3.4226645885668294e-01 1.7505904746486090e-01 2.7854088197758536e-01 -1.8322351509258247e-01 2.0552505055517103e-01 -1.7901183229599751e-01 1.3192089140321403e-01 5.1980442977983175e-02 1.0878887432309180e-01 -1.2788673810101925e-01 3.2448453007139104e-02 3.4695806571542649e-02 -8.8303788617170781e-02 3.4083274958524735e-02 -3.1790320690645030e-01 -3.7211306524018557e-02 1.2873373754670400e-01 1.0796817933116380e-01 -2.1360740537653555e-01 -3.4826355455111251e-02 1.1332084190411065e-01 9.0604119881856543e-02 1.6170363357036072e-01 6.3435899647104966e-03 2.9204481169242769e-01 -3.5164077549450085e-01 -1.4760175470839254e-01 9.7055834076034173e-02 2.5988763751913591e-01 2.7696055050621388e-01 1.0552541483858899e-02 -3.2775391298315859e-01 3.0842815294154097e-01 2.3779885807131326e-01 1.3739939922148656e-01 -3.5215565570949547e-01 -7.3030182878391414e-02 7.7131980522800380e-03 -2.2899982187539764e-01 7.8810262194491058e-03 -3.3115877076973471e-01 -1.6286067304588443e-03 -2.1637939995300037e-01 -2.1717139688433679e-01 1.4810161564785576e-01 -4.4156255620202207e-02 -1.9727722501066439e-01 2.5221576347100472e-01 8.5382785821424750e-02 -2.4720864433019341e-02 -2.8399344369013096e-01 -5.6650087066838127e-02 -1.8319208216652862e-02 -1.6604426703916225e-01 -2.4904490905614823e-01 8.1418616373676631e-02 -1.4103867809204046e-01 -3.1281677896431348e-01 2.5695093878930308e-01 -2.9473972754481270e-01 2.1642768685782593e-01 1.0780337633002934e-01 3.1950916154558662e-01 1.2089759087716745e-01 -7.0173871292739123e-02 3.2164407363022590e-01 -1.5710865292522320e-02 6.0098495250241364e-02 -3.2589222603579077e-02 3.1207344131192222e-01 -2.4665701873902693e-01 -3.4871296232679855e-01 6.4629139678126640e-02 -1.9472346859958251e-01 1.8045894489380190e-01 -2.0120689032596115e-01 -8.9483407456676572e-02 -2.6392613734864079e-01 2.6551705930569325e-01 -1.9085770924985253e-02 -2.3342760989004302e-01 2.2133033109724462e-01 1.6056761646597090e-01 3.2781216731450985e-01 5.6883559555503645e-03 7.7224870965994966e-02 1.8114358566120223e-01 2.7535425647846101e-01 2.9840499900779116e-01 3.1936461944283240e-01 -2.4483110903920086e-01 -1.8832726695996563e-01 1.4334124166186435e-01 -2.7170640846465710e-01 1.2474694203160028e-02 -2.7115412146717971e-01 -1.4536491913764663e-01 -1.0939444729263503e-01 -2.3042409166496916e-01 -6.8578006222227549e-03 -8.3517594373863496e-02 -5.0271545126501400e-02 2.2305029337161553e-01 3.3290718274646108e-02 -8.5501673421713290e-02 8.4051752408361893e-02 -2.3572251299677233e-01 -2.7547523377764016e-01 1.2653710062954937e-01 2.8468084248709852e-01 3.2788695552773289e-01 -1.8257082642779431e-02 -3.2951270405315469e-01 1.3055076860590925e-02 -1.5637815493916010e-01 -3.4098762713756808e-02 -3.4794094164281392e-01 2.1071271360480756e-01 -1.5315628782387000e-01 -5.6400299756461193e-02 -3.5225333236244244e-01 -2.4049672813492895e-01 -2.8219124927959410e-01 -3.1357148805329492e-02 -2.5584350695511582e-01 -1.9699991635992503e-01 -5.0244266054433030e-02 1.8240386601647440e-01 6.9007867880577306e-02 2.8620778212345033e-01 1.6225556627972942e-01 -3.2737908506316263e-02 -2.5178690701279388e-01 2.1018549204571957e-01 -5.0058138048974084e-02 1.5970577907914849e-01 1.1382514824385925e-01 -1.1086859709393924e-01 -3.3186894487621882e-01 1.3199599760423675e-01 -1.7467341200732461e-01 -2.5567862116098374e-02 -6.4638020724929857e-02 1.7046437766932851e-01 -3.2155097282596218e-01 -2.5249918566632762e-01 -4.3668801554353306e-02 -2.0214472838901693e-01 -1.4797961752586519e-01 -3.2148250299269115e-01 -5.6797873899388424e-02 3.1791315912130291e-01 1.8346371037426115e-01 2.5265967362463243e-01 -6.2210704005225402e-02 -1.8004172183754816e-01 1.1203438142791684e-01 -2.3820576363482932e-01 -1.0716029593047727e-01 2.8634879050828976e-01 -2.7756577240670743e-01 1.2339115389112928e-01 -1.3265586380402175e-01 -1.9670068024147480e-01 -3.3342424279973283e-02 
      </Weights>
      <Biases rows="128" cols="1">
        -2.7487436008431909e-01 1.9305647906919762e-01 2.0201605767695699e-01 1.6029066072847369e-02 9.8693370829422547e-02 5.2131789906037083e-02 -3.5070899344139100e-01 8.0739531318191504e-02 2.8738382570050675e-01 2.5375195991994082e-01 -2.0572144872700975e-02 1.6193307562018591e-01 -3.5088034246620825e-01 -2.8432510349906365e-01 -1.9262901342275557e-01 -2.9212326836040026e-01 -3.1855480155256227e-01 -2.2538500674253703e-01 -1.0116419958854049e-01 -1.1481593764785517e-01 -2.3490474570358941e-01 3.4109956823977444e-01 -2.5685034648590479e-02 -2.0262042554501863e-01 -1.2531735263371804e-01 1.8514747328403988e-01 1.8648001968821712e-01 3.3682624948935778e-02 -7.5756868015555881e-02 3.4283654257332091e-01 -1.8132424432398458e-01 5.0081513639801643e-02 -1.7532195099946207e-01 9.5784427581290604e-02 -1.3695685544562295e-02 -2.3159817586893319e-01 2.3284446202354273e-01 1.4764756429749842e-01 5.2893439075266752e-02 -2.5027260367543047e-01 -7.0207501800354927e-02 3.1748940118703323e-01 -1.3776682321667022e-01 -1.1398384238271506e-01 3.5365311323596915e-01 6.8773675168442100e-02 1.9692517619992894e-01 1.2894324426705778e-01 1.7814702621278983e-01 -1.7918664464010317e-01 3.2861331768939206e-01 -2.5326234686303323e-01 1.4890157009267817e-02 3.1473400821278652e-01 7.8366175921826556e-02 -3.2033263019064862e-01 2.2156004931167414e-01 1.5590245767054450e-01 -1.5831532743489255e-02 -9.3658911004384851e-02 -1.7118212652570983e-01 2.5378419385796419e-01 -2.3578983797945396e-01 1.6597227713301629e-01 3.4364701804399533e-01 1.5012277539862121e-01 3.4055246318946780e-01 -1.6589889364310956e-01 -1.7037358160098362e-01 2.6755813372681986e-01 -2.8124369911952596e-01 -9.2825217511770738e-02 2.4272336525270280e-01 1.6288045282207778e-01 3.2469212351693016e-01 1.4828255637804461e-01 7.4272255220491246e-02 3.1119516145853554e-01 -1.5603352420589137e-01 -2.8474570717000358e-01 5.4912050543203438e-02 -1.3539098769358454e-01 -2.6750110513367015e-01 -6.0379584594058483e-02 -2.4551177228369933e-01 -4.3989327821598929e-02 -1.4750982112749902e-01 -2.3838016349290303e-01 1.8143887082537394e-02 -2.8572307305125999e-01 -2.2128124229358404e-01 -3.1643065832198147e-01 1.4472259813311864e-01 -2.2870862973712752e-01 1.9167298749126915e-01 1.7679429939147875e-01 -9.2973998059473997e-02 -1.0351883600257553e-01 -2.7955359715329647e-01 -2.7595878462120599e-01 -8.9321340409851124e-02 -2.0016677028820454e-01 -1.4707185540362047e-01 -1.8150117401049140e-01 9.2176511020116425e-03 -3.0464150718440813e-01 3.2139817197236839e-02 3.1167750701248653e-01 2.9182530046615091e-01 2.5268785845221320e-01 -1.3384181655159424e-01 2.2552740028518484e-01 7.4912892638412304e-02 -9.3384183383801458e-02 -1.9593513667324683e-01 1.7135447873634585e-01 2.3002891649899337e-01 1.5919198720727670e-01 -3.5034349842093199e-01 -2.9305406693531943e-01 2.8593680452296755e-01 7.4171226780834862e-02 -3.4479731123828689e-01 -2.7546142456607532e-02 -4.0473916316749892e-03 3.0700728517095804e-01 2.0762199771046877e-01 -3.0663678437512448e-01 
      </Biases>
    </Layer>
    <Layer ActivationFunction="3">
      <Weights rows="128" cols="128">
        -4.9071107565361552e-02 2.2889309053984865e-02 -7.7986805075722972e-03 -1.0894580664835170e-01 1.1797370541791470e-01 -6.6611713778652049e-02 4.5430484410272177e-02 4.3218766460818014e-02 -1.9912358591214124e-02 -1.2229754496348653e-01 5.5721348675035941e-02 -3.2739785668713842e-02 1.4554572402614456e-02 2.4684400361587753e-03 -4.5415638038542296e-02 4.2029195064779951e-02 9.2303252963377908e-02 -8.1256104684537200e-02 4.4021133207028194e-03 -1.1078920047848632e-01 -2.8623917714635981e-02 -8.1338797074856556e-02 -1.1576241764921370e-01 -1.0592355110447865e-01 8.8384595419714176e-02 6.1688424533910401e-02 2.7667079085099425e-02 9.8298629970856394e-02 -6.1270994341876966e-02 3.3326988317340933e-02 4.3182424875309301e-02 6.5696180911749891e-02 -1.1883657261358997e-01 -4.4017528833791002e-02 -5.0206304723076654e-02 1.8190959299846411e-02 1.2090775258858347e-01 -9.6283022289319481e-02 -3.4153222160890867e-02 -2.9057996627502573e-02 -9.8008813793100502e-02 -6.3273307196604987e-03 1.0505505388094476e-01 -4.6779684830505555e-02 1.7013885138298455e-02 -2.7603542243644790e-02 7.3487109694757136e-02 -1.1243647009671451e-01 3.3744306878861451e-02 -7.0993375264298941e-02 -9.8660504921253722e-02 6.9929638789616916e-02 -5.5685943413217247e-02 -9.4535799985266331e-03 9.9325420588314936e-02 -3.1528880195192760e-02 -1.0802265125077525e-01 -9.9078480067201144e-02 3.8963309524861975e-02 5.9285655255225590e-02 -8.1792322761122613e-03 1.1224352166250814e-01 -1.0320861492792473e-01 -1.1935059850751420e-01 4.8528166605003920e-02 -4.5768573867806354e-02 -2.7629251338125126e-03 1.0284106461131104e-01 1.2298514368251721e-01 5.7912457884495158e-02 -1.0895361394147062e-03 8.8457309152369090e-04 4.4593177788122530e-02 7.1084660050250909e-02 6.4162746763189199e-02 1.9769925334985651e-02 -1.1376201023370291e-02 1.1454310043320325e-01 -2.0372551534129479e-02 -8.8078142373932439e-02 -1.0311840950001407e-01 -1.0771874777240292e-01 4.5112289109928969e-02 -1.1998140405967717e-01 1.0382161277510699e-01 4.2135527650382421e-02 -1.2166816074752053e-01 -4.9244434884650939e-02 -2.6466564367352088e-02 1.1869874995543307e-01 1.2764869782186578e-01 3.4988969148170082e-02 -1.1509888543866588e-01 4.0852273136721018e-02 -2.7520497051047709e-02 -5.8798915030225836e-02 2.5079056646486471e-02 1.0187139280886422e-01 -9.9558438709636002e-02 -5.7926560379758041e-03 -5.9208458830248582e-03 -5.6409202872182471e-02 4.0902839809665414e-02 4.1751610962677065e-02 -3.1729809258940631e-02 8.5817119963885455e-02 1.0668570898950712e-01 -5.5632152171267470e-02 1.1373129151050086e-01 -7.6935837299009324e-02 -5.2942563875016176e-02 5.3698440191752114e-02 1.1929109696733066e-02 1.0572508330557413e-01 -2.7899101927135420e-02 -3.8333929609599575e-02 7.2091227767728083e-02 -1.1463433289509528e-01 -1.2720338168457733e-02 5.3395456521420685e-02 -9.5607355054788817e-02 -1.0358582583461284e-01 4.0215487767105561e-02 8.7077268678160999e-02 8.0122938542529831e-02 3.9396931878665643e-02 6.2774520403787823e-02 -1.4781257911019755e-02 9.5523144741720536e-02 8.6978075492420051e-02 8.3602421415554046e-02 -1.1654101924597243e-01 -1.1575743873427902e-01 3.4194425480591678e-02 -4.6460547354185783e-02 -7.4248889341571624e-03 5.7725271673382695e-03 -3.1883737587667743e-02 -4.8959940149024800e-02 -2.0873220714931917e-02 8.3324771988808805e-02 3.9611392949830945e-02 -8.2363883351443887e-02 -3.2700695995531916e-02 -1.1084801188978707e-01 3.4481292186255931e-02 3.7713020139235397e-03 -7.7851135850444037e-02 -2.4305632493992910e-02 1.2515617583800401e-01 -1.0431200286451860e-01 -1.2306906838722398e-01 4.7750989058784603e-02 -2.2823137928264507e-02 -3.4179735865342155e-02 9.0703305662567610e-02 -6.6402696942366085e-02 -3.2181905828419739e-02 6.0418014667489923e-02 -2.6470384804840253e-02 6.3601123374328175e-02 7.4327866166821591e-02 1.2019143767128201e-01 -1.2266293266956316e-01 1.1068705611002916e-01 -2.6557311905535480e-02 -4.4813628647776844e-03 -8.0564768796728525e-02 -2.8529350445009549e-02 2.3498077604816093e-03 -1.8929787520440160e-02 2.0973585213168340e-02 7.7836638550904183e-02 -6.5678443129203873e-02 -4.9308506971411495e-02 1.1662594797302928e-01 -1.2506859441696548e-02 1.1948228576682511e-01 4.4562119141196198e-02 -2.6045414315523052e-02 -1.9867362345332228e-02 1.1176702740916536e-01 2.1666527490770388e-02 1.8617241952412468e-02 -8.6429955298871070e-03 1.7963081513096574e-02 1.2677193468113697e-02 -6.4291345816810216e-02 5.1713857795848167e-02 9.3847474725535937e-02 -6.1999211335713497e-02 8.0792911450522809e-02 1.1363752660964799e-01 -5.6994880109241142e-02 5.5704279772922839e-02 2.9467397931996004e-02 -5.0262470350459144e-02 3.1499304756278504e-02 -9.0845054767385761e-02 -7.7716783957490126e-02 -6.1330227219009034e-02 -6.5245120393515668e-02 -8.1554585447727604e-02 -8.0008944504935869e-02 -1.6013980921122006e-02 1.1890266140433299e-01 -7.8345360695251984e-02 -5.7964430367674603e-02 -5.2863933014625254e-02 -7.9420371010947607e-02 3.4913359019299844e-02 -8.8569378959801229e-02 -1.4239937175219474e-02 -1.5497934456522677e-02 -5.4615899374581625e-04 -3.7340908141121162e-02 4.2651306046646388e-02 -5.6296005425378208e-02 -4.9384512527158801e-02 8.9670027940130043e-02 7.5112144507710144e-02 -6.4919949867387070e-02 6.5912130298267958e-03 7.4269514151157345e-03 -5.8956279020662229e-02 -1.8230247281521440e-02 -5.8127275644339747e-02 -8.7830534364829058e-02 3.4924819885132435e-02 -5.2594650180046727e-02 -9.4428406162890041e-02 -6.5357253149636238e-02 -1.1382945671768026e-01 -1.0456446041816032e-01 -6.5206208247099232e-02 3.0715039370222224e-02 8.2918726291231915e-03 -6.9794179393628850e-02 -6.1356981031011129e-02 3.9543441055976687e-02 7.9715495303507404e-03 -2.6508016402678105e-03 2.1841661049889310e-02 3.9611235179310186e-02 -9.8569251141823827e-02 -1.1075500706991255e-01 -6.0629408026388297e-02 1.1643481306816200e-01 -1.9445212532791155e-02 8.8343406255049256e-04 -9.0874905339264386e-02 -9.5726395645167217e-02 -1.8661742201752277e-02 -1.0579119692015919e-01 3.2817308309647221e-04 5.4593069486487220e-02 4.4400902095665835e-02 -7.4793799882646547e-02 1.1614748468759305e-01 -3.2829361570662685e-02 7.9049680144903350e-02 -5.8312687219191167e-02 -2.8244997571789218e-02 9.4976377801036210e-02 -8.9456581879513733e-02 -7.5900047376378621e-02 6.7160936048843045e-02 -8.4717258238067680e-02 -1.1654398851211074e-01 -5.9863517591836161e-02 1.0977586683211342e-01 -7.2875861248560603e-02 6.9835658531194167e-02 7.6681234017266772e-02 -1.1565957397502272e-01 5.2234371531880368e-02 -8.3314633501689831e-03 -1.1430741173578433e-01 -1.1751335004301150e-01 -9.3496851113915050e-02 -1.2199669983907110e-01 1.4281616357282432e-02 9.3175440327272485e-02 7.2444923500416217e-02 4.6341275745801790e-02 8.2103543755334407e-02 4.3646241911666071e-02 -3.0139515184623000e-02 1.2087862411978448e-01 4.1734610975273256e-02 4.4379078055552669e-02 -4.6179758304502570e-02 -9.5663585051703207e-02 -8.7213019553171026e-02 1.0419492865280766e-01 5.4097250524152264e-03 -1.0521361513303359e-01 3.9821931258700212e-02 -1.2297304712703098e-01 1.0364641899451327e-01 -3.2454635841086721e-03 -1.2532435655383475e-01 -9.6499700245176956e-02 8.3696626778575617e-02 -7.4977346233899192e-02 3.9088883016795341e-02 4.3250410477878247e-02 1.0516040248206603e-01 -7.2490408032566858e-02 1.0087089336877794e-01 -6.9940066557882125e-02 -8.6021504147575534e-02 -3.7223965428780974e-02 7.1422918191190871e-02 -1.4176755468076377e-02 9.5135196081966633e-02 1.1971117153515366e-01 4.1796351534017749e-02 -3.1420606693351165e-02 1.0869794147786353e-01 -3.1300638368490785e-02 8.3873040189638551e-02 1.0749263295709419e-01 -1.2394705973302172e-01 -1.2670774873916626e-02 -1.1343916181497010e-01 -1.1235377295503063e-01 -1.1339765759944455e-01 -7.2582281858045536e-02 4.8676545774265410e-02 1.2359840102862590e-01 7.3022969974212260e-02 -5.7132563631113083e-02 -5.0211418891426420e-02 1.1995985591348793e-01 -1.5972793176448660e-02 1.2118881349899127e-01 -1.3642739306183625e-02 5.4653688798701527e-02 -8.5426757984922719e-03 2.8458350332883908e-03 -1.0026195901584196e-01 3.5658059451817575e-02 6.8045269171770034e-02 5.2457783973739222e-02 7.5372717041702328e-02 -1.1252901484825287e-01 9.5137305040623829e-02 -9.0349136133959243e-02 1.0745704748117339e-01 7.6166838003991877e-02 -1.0005084649171719e-01 -3.9643112711403944e-02 -8.6255282646434516e-03 -7.6134428824260469e-03 5.5431926647508623e-02 1.2424948119688468e-01 1.0909392606623251e-01 -2.0931083998959980e-02 4.3904343596575308e-02 -5.5419313290550394e-02 -8.5000756126122956e-02 9.3897006291931540e-02 -5.2544543901604943e-02 3.0695828120408254e-02 -1.7349969804435081e-02 -2.8434300407287588e-02 1.1811437502507094e-01 -5.7197905789363519e-02 4.5405588226389383e-02 -5.7099556389707838e-02 1.0979624075157091e-02 1.7522138229863753e-02 -1.1478943019166388e-01 -2.5649938410241557e-02 5.8736174598870046e-03 -7.9757517050302540e-02 6.4929690127334946e-02 7.9669351455477197e-02 -9.5905810926552107e-02 -7.7215655727146254e-02 -7.5418321441121011e-02 3.3635434333097722e-02 1.5662461322863062e-02 -3.7619049425034620e-02 4.1651532455701808e-02 -9.0942104050456361e-03 1.1898972397404182e-01 2.4528293249937216e-02 -1.0369881374319892e-01 1.0928449835129221e-01 6.1667810401602192e-02 1.9459850373286177e-02 1.1740946740300963e-01 -9.9768068071140401e-03 -2.4253924470455667e-02 8.3907698117099416e-02 -9.3561646274355925e-02 1.6108571165677623e-02 -1.2099071281262620e-01 -5.1312182365286152e-03 -6.8777753746395012e-02 1.2255748817277247e-01 -2.9495123530909099e-02 1.0207357453405323e-01 6.2699901909730335e-02 -1.1839968871664192e-01 -5.8555216345582570e-02 6.3884996997389809e-02 -6.5941271524852685e-02 6.9922453425712044e-02 8.8737360566078990e-02 8.0816787221289876e-02 4.4281878323081336e-02 2.6688273688984850e-03 2.8500322337171625e-02 9.8141458140983781e-02 4.3508163828228759e-02 6.5614684691385872e-02 -3.7581360075323242e-02 6.7362476704061341e-03 -4.3247939370811339e-02 1.1777537812499438e-01 3.8678836400609174e-03 -1.1663721197734289e-01 4.1871651188144086e-02 4.0752870432546877e-02 9.2690605394826459e-02 -1.0046581372498274e-01 -4.2773236949058865e-02 4.5677636935262458e-02 1.0521206748802245e-01 1.1528047606439830e-01 -8.8599795966306710e-02 4.0594439030681800e-02 7.3533471848772208e-02 -8.1457906524258258e-02 1.2258569120511204e-01 -9.0683980613053634e-04 -1.2310065777595067e-01 -5.9245275608057153e-02 -9.3378003704698245e-02 1.2266062841682544e-01 6.4190835572771318e-02 -5.1863106030863235e-02 7.6325902358170730e-02 2.4611491849652462e-02 8.5737881955115600e-02 2.2503425157954195e-02 -9.3212548129944534e-02 1.3462528947289712e-02 9.2068781081406357e-04 -1.1709741909843653e-01 9.9791237164015400e-03 2.3114013131529637e-02 -4.6115367402102994e-02 5.2365097519865830e-02 -7.4553444311106401e-02 8.3468897031994532e-03 5.2855231471959425e-02 3.8918542131600405e-03 -1.0617216071425307e-01 -5.5041183700791543e-02 9.4495263755604825e-02 3.7567447099065510e-02 -1.7511771233288117e-02 -4.5746673912453226e-02 9.1931708407988158e-02 1.2264720456497843e-01 -1.0766325335391211e-01 8.9164764456971787e-02 -3.0326387648619727e-02 8.5749523973495931e-02 -1.1752893587357510e-01 -5.4137086459006174e-02 2.6588716464379877e-02 -5.8545583095838669e-02 8.4647938329321437e-02 -8.7592623404103648e-02 7.1537109045518257e-02 3.4980893715110567e-02 -6.4726479447622456e-02 -7.2155385703765784e-02 8.1637591519574407e-02 -6.0785660709851856e-02 4.3786474444020389e-02 -9.8640479800504999e-02 -2.5441724345085241e-02 8.0973725189743370e-02 1.1939102527650888e-01 3.6820888560390175e-02 -1.1782665395443018e-01 7.3587800147564747e-02 2.6206681852465386e-02 -3.7201414089483832e-02 -6.6940997510343839e-02 -8.4547814943751534e-02 5.5788206906491791e-02 -4.0265906216146584e-02 2.3780493209473601e-02 -2.5557931899428756e-02 -4.3572670289723767e-02 1.1163366279542874e-02 -6.9911621056547302e-03 -5.1926553498471091e-02 -2.7951956958866184e-02 -1.1084924603073024e-01 -1.2313815129762404e-01 9.1486665081470894e-02 -6.8521200617371637e-03 2.3205936006435248e-02 -8.6878841235540599e-02 1.3649264937927515e-02 -3.5989907233137719e-02 -1.1179659754645625e-01 3.1228923407484829e-02 8.8708383586799722e-02 2.5453969231440540e-02 3.0490655897221480e-02 -2.2726473346337893e-02 1.1902673412661624e-01 3.7279861636872080e-02 -7.7171809051532717e-02 1.0032757841879123e-02 3.0907519277365522e-03 4.0924845925745655e-02 6.2102890197231697e-02 -1.1117078896388627e-02 6.0970577949030269e-02 -1.0451484166155044e-01 -1.1779821662005832e-01 -1.0757671676889251e-02 -7.9797485537955196e-02 2.8543511388397509e-02 8.6295611345603457e-02 1.8142632550292800e-02 1.0965123769143237e-01 -1.0840231373263837e-02 -9.7083221691295379e-02 -1.2342456708849149e-01 -1.7857366975410738e-02 1.2205564644161210e-01 1.8854607606816703e-02 -9.4506174410490709e-02 -1.1646634616756625e-01 -7.6461125267232616e-02 7.3437294170690753e-02 3.5427100237945860e-02 -5.9182923746997629e-02 1.0999836703212518e-01 1.0988794239612491e-01 -5.2489157596836665e-02 -4.5875038088915590e-02 1.0523643208577574e-01 6.7322363201524876e-02 4.8695795694917166e-02 -1.0590490492631091e-01 -1.1047702128141280e-02 1.2355449341050489e-02 1.0295095579681399e-01 5.2403183394888177e-02 6.3900711251566697e-02 -5.4941710072940589e-02 -1.8492542205313517e-02 2.9835587514128955e-02 -5.9005631844798135e-03 -6.2473008769084334e-02 -5.4988398295335965e-03 7.6995932027195721e-02 8.1694266766052667e-02 8.2429751552092215e-02 7.7793339699848071e-02 4.2910887555584871e-02 -1.2280529153479994e-01 1.2217308050173216e-01 5.3636777938512015e-02 1.1827928787341043e-02 -7.2171973611014878e-02 -9.3029655994990329e-02 -1.0633334926281156e-01 -9.3768729326226000e-02 -2.6108399751828430e-02 -8.9742302557803744e-02 -7.1829275172788323e-02 1.0817955060784543e-01 5.7321979125886866e-02 -9.7524532917482490e-02 -2.8599160379063373e-02 8.4145120536565522e-03 -1.8150591719251801e-02 -6.5997372874527791e-03 -1.2376358793891178e-01 2.2285879288048847e-02 6.9409292115848774e-03 -1.0065284910679044e-01 -1.0213764189469446e-01 6.8595984357093076e-02 5.2194107600305968e-02 2.3566172251849565e-02 -7.9034164909836488e-02 1.2151995560725008e-01 1.1174647980004022e-01 8.1895949332359386e-02 -1.0330293128861817e-01 1.0096383170421135e-01 1.1818646727844885e-01 4.5777917246742982e-02 -1.1586739808637046e-01 9.9703202823670484e-02 1.9875529885661110e-02 6.3205780233340766e-02 6.5994507816201517e-02 2.1487682805436132e-02 -3.3832291645757621e-02 1.0445794001995987e-01 8.9221745012171935e-02 -1.6832313471670541e-02 -5.8686175512824963e-02 -5.1770083840019755e-03 4.9302046411965764e-03 -1.1669829930488398e-01 -6.0460446518838581e-03 -8.6353123956275396e-02 -6.6372295656428368e-02 -1.0536425626485411e-01 -2.8930515859460818e-03 -9.1803914216778082e-02 4.3500668990051131e-02 -9.7565315031044791e-02 -5.1134244836643271e-02 -5.0839872100333736e-02 -7.2665397912421839e-02 -2.4965885172502769e-02 -1.1017779085091486e-01 9.4595811217083048e-03 -2.3885921107946378e-02 -2.1248991263269675e-02 1.2263214060464966e-01 -8.6209201798317855e-02 5.8401950550576349e-02 -8.1185618415496444e-02 -1.0228376311595277e-01 -1.2713975362617630e-01 3.5140626017105506e-02 -5.1077943178978204e-04 1.1492499586702166e-01 4.5848405139959697e-03 9.2648475444132433e-02 1.3054801333636613e-02 -1.1916809759243044e-01 1.1305623012232807e-01 -5.8967877413625386e-02 -5.4148087684882204e-02 -4.2863380379525480e-02 1.1956120533648487e-01 -8.6175874356595072e-02 7.1482718412863674e-02 4.9371217213606718e-02 -3.8242720521480388e-02 -8.3176132632880359e-02 1.2244798828976372e-01 9.1808230731000404e-02 -1.1764454338774204e-01 -4.0988031033269645e-02 -6.8403427241690240e-02 -8.6323752548972302e-02 -1.1241133623271676e-01 5.4487414813248376e-02 -6.1119573800032939e-02 -5.0701174441781613e-02 -5.9155011594098417e-02 8.4735604207611739e-02 -6.3849298601073870e-02 -3.4717449972543606e-02 -1.1742506692859571e-01 -1.1677604386694462e-02 9.3477302198213472e-02 2.7833667060891923e-02 1.1297234613962880e-01 -1.0454719527777544e-01 -4.8743816092628914e-02 1.0868118573730574e-01 4.7903013941338661e-02 -4.2081588267437881e-02 2.9726973088546268e-02 4.7260861030589879e-02 -6.3767559509952207e-02 -4.1338013638980861e-02 -3.0395623725191188e-02 -9.2665613342046010e-02 -9.8801598704483906e-02 -3.6543495089785522e-02 5.0733159996139345e-02 9.9525241989094765e-02 5.6268239144626621e-02 5.9013361871756508e-02 1.6117194046640589e-04 2.4944524424395917e-02 -6.4323399142842325e-02 4.7542048975697613e-03 9.1903767434300704e-02 1.1283057752508610e-01 1.6060685002928583e-02 1.0944179651072356e-02 -3.4026042967049211e-02 3.1971629546256382e-02 2.6243826264157426e-02 5.6279003249900823e-02 -1.0800628465658588e-01 -2.2296736715651740e-02 3.0860079106465616e-02 -2.2337556441602853e-02 -1.2301093788612102e-01 -8.8203329861425456e-02 9.4924663785876273e-02 -4.5151699654581975e-02 8.9372858398201541e-02 -4.5767733398282419e-02 -5.5550943531318328e-02 -7.8182208352563773e-02 1.0156315777967419e-01 -1.1193251927921279e-01 -1.1216760486094771e-01 5.7785724809351464e-02 1.1017909880021119e-01 3.0436734810615713e-02 2.0908907126623542e-03 8.4128552107029575e-02 -9.1793236389412405e-02 1.1684601646559014e-02 6.5543757323512850e-02 5.8245644704504294e-02 -4.0897556580635548e-02 -5.1083831750906090e-02 6.0995397195064104e-02 -9.3064619030438500e-02 -6.9727250296457335e-02 6.8275424595471298e-02 3.5575859105806004e-02 -7.3152713330918925e-02 5.5354278534486552e-02 -4.8022236367228598e-02 -2.9532255151290394e-02 -6.3508307197911409e-02 -4.3655680825246755e-02 9.2556522173209824e-02 5.9072664336493247e-02 -3.3830543092595443e-02 -8.4296265960333280e-02 -3.5505949019507502e-02 -5.7230000355237870e-02 2.4951962981778479e-02 -1.1283808922459780e-01 -1.0737296161185434e-03 -7.1573650580952872e-02 7.3861626031362246e-02 1.1513880318375856e-01 -3.3685519785535675e-02 -8.2803402879280587e-03 5.0292228397272536e-02 5.7943031296577505e-02 -1.9484606856130099e-02 6.6925454271108992e-02 -1.1932718154969166e-01 1.7860287068685182e-02 2.4073467776261355e-02 5.9234733369837168e-04 1.1934061604477340e-01 6.8120906983399607e-02 -1.0465513141392786e-01 1.7630798778962908e-02 1.1828818249041977e-01 1.0522396212520023e-01 -1.1495226801190930e-02 -1.0932730559253520e-01 -5.7818734003022461e-03 -1.2525082056219980e-02 4.2373245624968400e-02 4.7955450392939296e-02 1.1978573928995483e-01 8.0261437671546657e-02 -1.0464955983910888e-01 1.1783375228864500e-01 -1.1218910344142871e-01 1.1350459877584028e-01 5.8571993854521137e-02 3.8962067989445806e-02 -1.1810903777649934e-01 1.1640937959529694e-02 7.7896597222664288e-02 1.0359054858870304e-01 -1.7281309705044195e-02 1.0261090933981920e-01 -4.0432456019498790e-02 9.2171088305479498e-03 -9.3051968331790066e-02 -3.4863528388136028e-02 5.9593303651046946e-02 2.9047345275691153e-02 7.3908739140801372e-02 -8.1921715043912074e-02 -2.6845275078196903e-03 8.2021129980359792e-02 6.8716609306290297e-02 -4.2245183361825929e-02 -1.1157852612075652e-02 -2.4825450466823957e-02 -9.0566165974363122e-02 4.0255497268092681e-02 -1.1268796218352781e-01 1.1162441910749540e-01 -1.1042693419676719e-01 -3.2234166740696381e-02 -1.3854995514575206e-02 -1.0676840261115372e-01 -6.2772897317058304e-02 -3.9448996876297437e-02 -8.3086073466356283e-02 1.0941568872091156e-01 -1.0856663942022887e-01 -6.8272894173079125e-03 -1.1076264532471894e-01 4.5626400332672585e-03 -4.3272019024875085e-03 2.1090537741215082e-02 2.2267050109664854e-02 5.9311539936939946e-02 -8.9024391543881712e-02 -1.9734263688161065e-03 7.6842132401095898e-03 -1.0202515738757806e-01 1.9667957072520437e-02 5.9427966516985675e-02 1.0035404933449139e-01 -6.6792049275425730e-02 7.5444794650060445e-02 -1.3711303020670246e-02 -4.9582897108387237e-02 2.6916075109629715e-03 -6.6561112068218686e-02 1.6501674970333259e-02 -3.9618875685675431e-02 1.2379256814166252e-01 4.8266882458413547e-02 7.5468501619753325e-02 7.1121301439851195e-02 1.0248344425872119e-01 -1.1398304832445523e-01 6.9124894789565711e-02 -1.4299063152214037e-02 -3.3594402091875510e-02 4.3950201638884370e-02 1.0613305030760231e-01 8.8618630476846399e-02 -8.3191135753154372e-02 -1.7811921603385381e-02 5.1935621974520889e-02 1.2201097203613072e-01 -4.7488778598958406e-02 3.6892621018273147e-02 5.7446389330670367e-03 3.8444476991757709e-02 -8.6871758812668551e-02 8.7737481324093688e-02 -5.4567846573049028e-02 -1.0319355294052020e-01 5.5830461396099658e-02 -4.3360631150108783e-02 -8.1244976072778002e-02 -1.1496369914398036e-01 3.8832093478666788e-04 -9.3026829048801093e-02 1.9924748608676959e-02 -2.5017393278509280e-02 -9.8311826153119189e-02 -6.2700069361850561e-02 9.4221426221563612e-02 3.3538137486199764e-02 -4.7623170809397736e-02 -2.8839176466920597e-02 3.6260631654014247e-02 -8.8219288000014745e-02 -2.3305199240391365e-02 -1.0965203604108316e-01 -1.2149204139348520e-01 -5.0242367706139858e-02 -6.3622912723909117e-02 -1.2024275247253123e-01 1.5856762696749512e-02 -4.9464794413327670e-02 -1.1785992815473678e-01 1.2797396331468954e-02 7.1856452328317957e-02 1.2485362996522666e-01 4.9414372751199871e-02 -4.7653113382434823e-04 -3.5948462818836610e-02 4.8460545724052354e-02 4.8452706738663691e-02 -6.7779936120567569e-02 -3.4216447909241846e-02 1.5899034918428867e-02 -5.0006851373303234e-02 1.0731185170327403e-03 -7.0205858001066934e-02 -2.3718755091717034e-02 1.1127697812725485e-02 -6.8446751655468596e-02 -7.6514758612843875e-02 -6.5547650586033526e-02 7.8166456509555435e-02 2.4024866401904009e-02 7.2131354890475272e-02 5.5232795062553526e-02 1.2420514108824185e-01 -6.1773717977090546e-02 -1.1614527912516934e-01 -8.5499191922875431e-02 3.4008928943588694e-02 -3.4987500800003051e-03 -8.3858778565157790e-02 7.4368295510205559e-02 5.5894848920478100e-02 -1.0006869529338888e-01 -8.6852458670551511e-02 5.1736093404874076e-02 -6.8714857283441344e-02 2.3380495866352796e-02 -5.5342961826019086e-03 -1.1135667455874011e-01 -1.2292811704598150e-01 -4.9714064526100478e-02 -1.0082053769012610e-01 -4.8577788248563517e-03 -1.1178543549508899e-01 6.2527544143270636e-02 -6.0925082257652211e-02 1.2366865080307951e-01 -4.0575960322052615e-02 -6.4193700830560956e-03 -3.8038975977499395e-03 1.1885812994959297e-01 7.9010396689231585e-03 9.6005290861394157e-02 4.8817598302336354e-02 -9.8650503532376782e-02 6.0564106854367653e-02 -5.5860153179007353e-02 1.7440941915150777e-03 -9.5958120169138128e-02 2.0607538831626630e-02 -3.7633201312716413e-02 3.8293396896990711e-02 6.0772158362317148e-02 -2.7735782812491915e-02 -1.0130395416012168e-02 -5.3454194715937521e-02 -4.2748417264080185e-02 6.8488204526687621e-02 9.5045402809808832e-02 2.8479687771778860e-02 -7.6495161761827871e-02 5.3336574054706057e-02 2.1588189064694192e-02 1.2284806208509834e-01 -5.1291210726773393e-03 7.3413479099700529e-02 1.0860401828625091e-01 -7.8483819638491395e-02 -6.0356150777312871e-02 -7.8568086630586703e-02 -1.5364167332377710e-02 6.5804526747793010e-02 -9.6261976177312247e-02 -7.2379518740627063e-02 7.4456424985990810e-02 -9.7799398670153137e-02 -8.5257394828760574e-02 1.1730328389486772e-01 -1.4276881102247379e-02 -9.9196522837668230e-06 2.1230278510954805e-04 1.0625502297474773e-01 -8.7390625614354178e-02 -7.2135589656925703e-03 -3.9634696984703552e-02 -4.4879846948325718e-02 3.6187311528511082e-02 6.9216952652118760e-02 2.9979223668099901e-02 -1.1291057127876551e-01 -5.3064155261815189e-02 8.4606386581554852e-02 1.1329642132011035e-01 6.0016873406305050e-02 -1.0254028702704010e-01 5.9652691439900533e-02 1.0549177283644756e-01 1.2331617282014548e-01 4.3488229485358937e-02 -9.1228647318508452e-02 -7.6044764957216252e-02 5.0628702621864571e-02 8.3123550891892800e-02 9.2363494064022666e-02 2.0201613714062573e-02 -4.7290243397765830e-02 -1.1049219412696849e-01 -2.6466948386245002e-02 7.1354434346799347e-02 -8.8709074756291358e-03 -5.4486787215862519e-03 -9.4562389610222591e-05 6.0174942477959513e-03 4.8666980924358443e-02 1.8830089779179542e-02 1.3303351503110242e-02 -9.8064831642920749e-02 1.3071428034397413e-02 -1.0526190782956564e-01 -7.6834391714736799e-02 -9.4705974935483772e-02 1.9655264651888563e-02 1.1130879596787786e-01 -8.4376547165247368e-02 -3.4864423901884559e-02 -9.7188817633684102e-02 -7.6755676098803571e-02 2.0962399543019244e-02 -1.0166255430453372e-01 3.7473215603413865e-02 1.1155691489294446e-01 1.5298148910467217e-02 -7.5529554037918667e-02 -7.0911221032131169e-02 4.0350086125912531e-02 1.0363027885529971e-02 -5.9376914543604418e-03 5.2267023726709341e-02 -1.2007082216850382e-01 -6.0219716760421781e-02 6.6141551534378243e-02 3.6095344688167087e-02 -3.8132702321388517e-02 1.0203408252684253e-01 -8.4125343787466722e-02 -2.0602909093418276e-02 1.0907136405361947e-01 3.9380973643940380e-02 -7.4414299697523070e-02 -4.7602489482102231e-02 -8.7175971121585764e-03 9.2929661354932136e-02 -5.7358422255722463e-02 -1.0232307103397571e-01 1.0682279141095090e-01 1.2297974419013200e-01 -9.7800104235564206e-02 -6.3393482341337501e-02 1.1750212515857822e-01 -4.5982627907231580e-02 -1.1376900137793704e-01 -3.3408453707759668e-02 8.1710681938771471e-02 4.0772072720597213e-02 3.8987027760985594e-02 -7.8179257391903206e-02 -1.7920197573347434e-02 -8.3213019900145499e-02 -2.4978694203618302e-02 -6.1267656440635821e-03 -1.6877809309717582e-02 -5.8465381862413936e-02 -9.1605734772147604e-02 -8.7982864276793082e-02 -1.5138774224834128e-02 -1.1150258880627370e-01 1.4632135000011096e-02 -3.0949140126747453e-02 -1.1100084048262885e-02 -9.8570000551946216e-02 3.1839793193327512e-02 -9.0881043696920377e-02 6.3513341370913211e-03 -5.0084336457239760e-02 -2.2087987454862481e-02 2.3354586083847891e-02 4.3239952519572598e-02 1.0554057148973338e-01 -1.0772617098809606e-01 -5.1843518184799896e-02 -6.5965446491516701e-03 4.1805840024968413e-02 -1.2304572859100921e-01 -4.3712369903519607e-03 -1.0263171990236511e-01 1.2040862305855414e-01 8.7974249093543080e-02 1.2033430012568092e-01 1.2000227911552250e-01 1.0953382435976039e-01 -7.6462976670250121e-02 -4.6159461490457326e-02 9.9869850353926662e-02 -1.7662860014380787e-02 -9.9853871384994838e-02 -6.1378454313495041e-02 -1.2297557146047242e-01 -1.2255120614945690e-01 1.7576031554481335e-02 -1.6169615779399901e-02 -8.3771139033883155e-02 5.5741945666619830e-02 -8.9775018320842809e-02 7.6560280367748076e-02 5.6570407317715156e-02 1.1796841820621133e-01 7.1547079832733215e-02 1.1420882223880000e-01 -5.5194548980578427e-02 1.2538038015690345e-01 -8.6567081901476883e-02 -1.1182577795287249e-01 8.6404624456248511e-02 5.5405966272948651e-02 -1.1338417785928340e-01 8.4630375445468559e-02 -2.7659013258158568e-03 5.6548609864480862e-02 -2.2639193368539385e-02 -1.0688882870562413e-01 -1.2294539871194653e-01 1.7278890190616573e-02 5.6663689698624960e-02 7.2368217977077315e-03 -4.0338960618146638e-02 -6.5438892127820447e-02 4.6637154552521466e-02 -2.4955687986960844e-02 -5.4744302331325113e-03 7.0886617348504669e-02 -1.0379917057377307e-02 -9.8509426846831116e-02 4.5975722907265364e-02 -1.2557406688460990e-01 -3.8462440533455065e-02 -7.4742694213088346e-03 -5.5083518170790408e-02 -5.6142663584556225e-03 2.1941741931356177e-02 1.7705943501047934e-02 7.1509420895794096e-02 3.2004411143485172e-02 -1.0316727486890992e-01 -1.6149383147386967e-02 -7.0823442060291009e-02 1.1797839146499066e-01 -1.1040184777998722e-01 4.5535811831388953e-02 8.7799381248072170e-02 -7.8510667717181043e-02 -5.8736705713033167e-02 9.0314228844614750e-02 5.4899157344916363e-02 -7.6922358489558057e-02 -1.2207545116756623e-01 9.5201585293448576e-02 -1.3650775905009809e-02 9.6226178646053401e-02 2.5497046035204779e-02 -1.1246871620347300e-01 -8.1823381357699898e-02 -1.0919478805851499e-01 -2.5844881108573567e-02 6.4523784489521244e-02 -7.7508594015339938e-02 8.2907309503097368e-03 -9.4978050338768244e-02 5.8287435390187457e-02 -5.7982952443220853e-02 3.7169645718917399e-02 1.0913479804044819e-01 -9.6742929045342360e-02 -1.1852419080926496e-01 4.7624693755794992e-02 7.5018228092477976e-02 -2.8471386148287661e-02 5.1698248364963728e-02 1.0227941561505549e-01 -1.4944615530936692e-02 1.2344462271034759e-01 5.9675028272940019e-03 -7.2132289548507506e-02 -7.3037263341723543e-02 -5.9650415786918008e-02 1.2409924897722684e-02 6.4321796018526306e-02 -7.9023651870632178e-02 1.0171752987766378e-02 4.1137767988988556e-02 2.6449092519184945e-02 -1.2013754452893607e-01 -8.4562615686403095e-02 -5.9538788726357879e-02 3.4720893709627415e-02 3.9051064653039132e-03 -2.8865015081452144e-02 7.2366120892755362e-02 4.9240411472225409e-02 -8.5331935044487287e-02 -3.5866778154012124e-02 -6.4541341125043984e-03 -1.2338038477984796e-01 3.3579174742737618e-02 1.0456000787004324e-01 7.4862806941875110e-03 -7.3584079341210196e-02 1.2112973444563409e-02 7.5776566118120276e-03 -5.6184479732572311e-02 6.3900825569167000e-02 -6.3971654786153020e-02 -9.8391030191203859e-03 6.8393172141480080e-02 -2.1149244229518763e-02 6.3040521613515019e-02 -3.2953505688401129e-02 -6.1295783369857311e-02 8.4362425361907176e-02 2.0337808880017461e-02 6.6243140845669748e-02 -4.5919833457287687e-02 -3.2078542336446088e-02 -1.5468110920600870e-02 -8.3073696103679914e-02 8.1378127388232066e-02 7.0323839197868748e-02 -1.6665033012667127e-02 -2.9460495936073975e-02 9.0142884785198926e-02 -2.4693038997630475e-02 -1.2121799159566342e-01 3.2909678972637868e-03 -6.7105144119667989e-02 9.8160493829645992e-02 4.2210216139107901e-02 1.7993191103198133e-02 1.1337171197341922e-02 5.7162111526900004e-02 1.4152514863177966e-02 8.1039939500444871e-02 3.4129721866703509e-02 7.6227162574950685e-02 -2.1287585834595724e-02 1.1729609206295658e-01 5.0030819030599930e-02 5.3054115018541806e-02 1.6536565336125041e-02 2.1455864795196917e-02 -8.8045886734880174e-02 -1.0382281044237675e-01 -2.5655219060262177e-02 -7.5343839236561128e-02 5.8121644708779362e-02 -4.9369358678636746e-02 2.9971129253751495e-02 2.2392235762400372e-02 -3.2814346340946175e-02 -7.4273415965582399e-03 7.5307363946498757e-02 -7.0145575180289174e-02 5.9752963728810941e-02 -5.8625781487256598e-02 -2.8213373147550225e-02 4.6432741041948569e-02 -1.1847414964164431e-01 -4.9613547505826409e-02 6.9679402711586777e-02 7.0234784721185869e-02 -5.3625542010024792e-02 -5.4302326159805125e-02 1.0562040766594111e-01 -3.6603812778873292e-02 -8.9597212822688566e-02 -1.0717270282781689e-01 6.4429174585743487e-02 7.6939714090896075e-02 1.1282158157460916e-02 7.2035599340065676e-02 -4.8071342362382308e-02 1.5952326137898102e-02 -8.8853461579311982e-02 -2.4760500931777233e-02 7.5954238685216210e-02 -3.6746772800449481e-02 -9.7346249048935407e-02 -2.4984839898834169e-02 6.9662596871610361e-02 1.1452878362319413e-01 -6.0556361922896963e-02 -3.1616460155709430e-02 -4.0695778882729544e-02 1.1993106550724265e-01 -3.7556622722206112e-02 -5.2286947334031574e-02 4.2596786684834402e-02 -1.1901983780938662e-01 -9.9009709941975346e-02 -1.1883313215692637e-01 6.4631372624371589e-02 4.1266438348623790e-03 4.2992789027754538e-02 5.0050272595069591e-02 6.5823604222339682e-02 -8.6823726736459883e-02 1.1356608449065035e-01 -5.3079020059947066e-02 7.2623062920136261e-02 7.4782632790661746e-02 -8.1827620643120269e-02 1.2308098373594376e-01 1.1730051796209627e-01 -9.5643150778841959e-02 -6.8717919297361374e-02 2.3052814880408730e-02 -1.0278741099890260e-01 -6.0624395996350484e-03 -4.9854621349960979e-02 -2.7179935847926853e-02 6.6225195168842635e-02 1.1328812517583788e-01 -5.3126048671745391e-02 3.6566164580790546e-02 8.6252341334827912e-02 -1.8772625019030771e-02 1.3930899831784319e-02 -5.5509942045398789e-02 6.7530774785098821e-02 -9.6576406860151134e-02 3.1634866273098923e-02 6.3261174156420588e-02 -2.6357120336989857e-02 -5.5323228460553910e-02 4.3071416103996431e-02 -2.0087734656425205e-02 -8.1590393854170024e-02 -1.1451656083387082e-01 1.6509064639593760e-02 -2.7195544522114281e-02 -1.0504690667813495e-01 3.8701164180703393e-02 7.3833753129189340e-03 -6.7742881712334946e-02 8.7505316224744514e-02 -4.7740207100354336e-02 8.7633253156310514e-02 1.0708848778556995e-01 1.1966386053847103e-01 4.5578380361104825e-03 -1.1416269390227286e-01 8.2959652276622678e-02 -1.0936291392172143e-01 2.2283691184096070e-02 9.1249876504291061e-02 9.2602741305044447e-03 -2.5049017974052061e-02 1.0034990173581576e-01 -2.5079046877865104e-02 -6.5656339538907649e-02 -2.0599964496162668e-02 -5.0128824645668875e-02 -1.0390977439060685e-02 -1.9150752916396809e-02 7.7756210259479541e-02 7.3363920338050864e-02 8.2382210050640017e-02 1.3610993481433468e-02 -3.8396875977903762e-02 -7.7305776790582412e-02 1.0405960652457467e-01 9.6229080258891472e-02 -6.5086314918029672e-02 5.3516853507356750e-02 -8.3153327020074469e-02 -9.9429988300101441e-02 5.8231019903749501e-02 -1.0069577746421093e-01 -1.2004843978129931e-01 6.4947676019031772e-02 -1.2787971752345136e-02 4.6146565185032198e-02 7.6324738562013245e-02 -1.0797466700958404e-01 -4.0519450377932351e-02 9.2579046764670270e-02 -6.0324286915066923e-02 -7.1462795367643828e-02 -6.8421637803246865e-02 -6.8662256043629161e-02 6.5918928301481106e-02 2.4538074515117220e-02 -1.1526171615151522e-01 -9.2166763749664135e-02 7.3791248763572723e-02 -5.5242986629170238e-02 -9.8344748224070203e-02 -8.7733626461757516e-02 3.8309193044978461e-03 1.2443594996458929e-01 -1.0594328604612080e-01 1.0711687854653865e-01 6.9273559677244231e-02 -4.8306825128518430e-02 -5.9400284520851394e-02 9.2128667468747497e-02 -9.7034547066022173e-02 -1.1096496995966826e-01 -1.1658457846968678e-01 -8.4540525262664243e-02 -9.2484865779703801e-02 -1.3866468566480362e-02 4.7966285590154416e-02 2.5727209019290258e-02 6.3353856789115259e-02 4.8106692255240266e-03 -6.2943558885645401e-02 -1.1917670019531897e-01 -1.1885085053050629e-01 8.0030358654209052e-05 7.3443725031425945e-04 1.7283878018195434e-02 -7.1247792155282069e-02 1.2319790179991273e-01 2.9079255963486993e-02 -9.0176369956376567e-02 -4.2079470935602360e-03 -2.0169518731792156e-02 -4.3887534912983375e-03 1.1386033533025788e-01 -6.8003011105820091e-02 7.1216502945739613e-02 1.1439132897491663e-01 3.7731011166776095e-02 -7.6117731702865635e-02 -1.1600314845055947e-01 6.8638170601236309e-02 2.7541832353314810e-02 -5.0219112076385373e-02 -1.2567944948320342e-03 4.1012802619579359e-03 -1.1727311227958587e-01 1.0675155115475869e-01 -7.3915673540850518e-02 1.9592044455299773e-02 -4.2323488115784652e-02 -4.1548460710388528e-02 -2.1850836251879224e-02 7.0825392240245200e-02 3.1296151862342414e-02 1.1451316353535114e-01 -8.0771034981621359e-02 1.2118494819755302e-01 5.4372642791856815e-02 -9.6243970035782167e-02 -1.2332412574056185e-01 3.4162136986505748e-02 6.1742300791053473e-02 3.0224864393367336e-02 5.2927380618299026e-02 -5.1450254506518384e-02 -5.1685723134394269e-03 8.9896018483242315e-02 1.7063018818750622e-02 5.0411473143114113e-03 -1.0489151637003738e-01 -2.7980871624773977e-02 8.9304511185367405e-02 6.8714448385598315e-02 -3.8495337265413487e-02 1.2132708962318962e-01 1.2099504320580334e-01 1.1782067824400048e-02 3.5023481602205954e-02 -5.8884378731738470e-02 -6.5863505127191191e-02 -1.4590322439138735e-02 -6.8070097148950959e-02 -2.0890082441552580e-02 2.5738345291623131e-02 -7.3140790718463258e-02 5.4727777536110238e-02 -5.4119623095069354e-02 8.4374984380193002e-02 -8.4835877461710854e-02 6.8974510518276577e-02 -2.5105023313684270e-02 2.2558315414923449e-02 -5.3003090518645546e-02 -6.4215020879000939e-02 1.1444320462868814e-02 -2.3509224003729489e-03 -1.0210424950603578e-01 9.8317666070078455e-02 2.2830882546984500e-02 6.5374250394493599e-02 3.9881190706439376e-02 5.9385256329713303e-02 7.9832896568361345e-02 3.4574180943300691e-02 5.1562405297707059e-02 3.3866854104794328e-02 5.0735474590465665e-02 1.0997072855801146e-01 -3.4160390731397761e-02 -6.2200029491641891e-02 1.1525651948884914e-01 7.1656429939689445e-02 8.7918020359107923e-02 -1.1130661353981838e-01 6.3298228065012299e-02 9.0587135423618279e-02 8.3942528479500553e-02 -1.2241943357346885e-01 9.7550864067688911e-02 -1.0140808613810766e-01 8.2169366153862000e-02 7.9118418198231982e-03 -5.7932797347607083e-02 -9.2236699272551126e-02 8.2801476950819144e-02 3.1564175233578594e-02 -8.5646822459254188e-02 -1.3888608134389947e-02 3.7699568977611529e-02 -7.6527746780586353e-02 -8.9190683202506227e-02 1.1483432022259987e-01 -4.9833462974112265e-02 -1.1996970113916586e-01 -6.7310479045335048e-02 -7.0266651056920149e-02 6.9778847268444744e-02 -7.8133494514990950e-02 -7.2321558976216047e-02 -2.1548596397624218e-02 -5.0831643078960792e-02 -1.0010488087480895e-02 -7.3596722705569287e-02 1.8928217684043350e-02 8.7945242524581385e-02 -2.5114586624314240e-02 -2.4265441369723369e-02 1.1356389679517565e-01 -2.7363601571151329e-02 -7.9421046304603088e-02 4.2900396056631332e-02 -8.6108642271701633e-02 1.1031620562657833e-01 7.5003720757281303e-03 -1.7240639162388206e-02 1.1236806665426240e-02 -5.7287928262788883e-02 -7.7580533113334557e-02 -1.2405559061577899e-01 2.3771788684933244e-02 1.1019625338534174e-01 -4.0576147943499882e-02 -8.6364770712608882e-02 -4.0598458059535256e-02 1.1839130629172376e-01 -4.8616938643474212e-03 1.0986987398223880e-01 9.8351346292133907e-02 7.1153675537213273e-02 -9.5656946520189148e-02 1.1421581388141833e-01 -7.0648311623939530e-02 -9.1252673103409107e-02 3.8642755857491218e-02 -7.2617902269939361e-02 2.6763697432551806e-02 -9.2671744483961954e-02 -1.7091458188538709e-02 -3.6600476263980726e-02 9.4408263155836933e-02 6.9468764985207959e-02 1.2200774458771466e-01 -1.1837984456264695e-01 -5.2983040657776995e-02 1.2294587002350633e-01 4.6871532205346844e-02 -1.2222770928432823e-01 -7.7712500525844955e-02 -4.1591148247144445e-02 -1.5557677687967179e-02 7.9590984464755127e-02 6.1641670177596817e-03 6.4845311745928336e-02 -1.1875113615060955e-01 -7.6708561225239495e-03 -1.0988016015621287e-01 2.9446146017965597e-02 -6.5020637845449661e-03 -1.0844845961715849e-01 5.5621897327635679e-02 8.0937422618836449e-02 -2.5392449602529187e-02 -2.6437110581155172e-02 -6.3027020413337312e-02 -7.1756283089616735e-02 -1.0564330895877168e-01 2.4537318142374951e-02 -9.1940110880754863e-03 -7.3977174789378028e-02 -1.1415252363560173e-01 -1.3066119621880048e-02 -1.0760411249164419e-01 -5.4273901685613066e-02 -4.7519029030475377e-02 -8.8872181896430189e-02 -5.2046954736271855e-02 -3.4560919228039534e-02 -1.6867802132413318e-02 3.6181611348513644e-02 4.6132530172336653e-03 4.5979023369444136e-02 1.1956704230402966e-01 -6.2660225531408875e-02 8.3013281624369634e-02 2.3571752733724912e-02 -9.2338471062052507e-02 -4.7626349440025070e-02 4.1536478187204851e-02 1.2190019063700414e-01 6.0708946774710344e-03 1.1898170856143678e-01 -5.4469735133080593e-02 -1.2717874222817928e-02 -1.6501779223251207e-02 -1.3754141242758351e-02 2.7384188847169980e-02 1.1035148632453008e-01 -1.1514969259824398e-01 7.7921236090797430e-02 1.0488586534458898e-02 -6.0530039881221291e-02 -9.7006794848089342e-02 -7.5963866117377168e-02 -8.6673906127383668e-02 -8.3583500896263929e-02 -5.2673542093489158e-02 1.2366052742002275e-01 1.5623785229977876e-02 2.7445724261325837e-02 -2.9678134036737351e-02 -2.1342444412427466e-02 -2.9728967084205526e-02 3.7732732571625578e-02 -7.0589605094440178e-02 -5.9827208302504513e-03 -6.4548271339550614e-02 -3.1139550477943131e-02 -7.1757359656603209e-02 3.8172750693523050e-02 5.9759199229322928e-03 -1.1067535708586300e-01 8.2565467992915573e-02 -6.3689173648821637e-02 -6.6047872782203337e-02 5.7621560443013786e-03 -2.1885347153042304e-02 1.2029650313533695e-01 8.6083685833662230e-02 6.3952558017404376e-02 -8.5162681766047105e-02 -2.5312678538155508e-02 -8.7915241519359422e-02 -9.2414635883177846e-04 3.5093149620075747e-03 6.6594757279200445e-02 8.0134459298737484e-02 -7.5144076989051053e-02 -6.8262818428702660e-02 9.4901948699685823e-02 1.1369761062264665e-01 4.5849175297005967e-02 -1.0598431330637197e-01 -8.8290595658889567e-02 7.1683838280719336e-02 1.5979284873026172e-02 -8.8753180577220717e-02 1.1292620593565579e-01 7.1858720567922266e-02 9.5020607488951900e-02 9.4394502272557912e-02 -4.2241923462288125e-02 -5.0778443519800161e-02 -5.2649677635957910e-02 1.0236278818365815e-01 -8.4922479237391740e-02 2.2285909122050453e-02 -7.5212136742672644e-02 1.5769882012564809e-02 -1.1990759067312326e-02 -1.4669927846720355e-02 6.5056303081726288e-02 -1.0506141253000447e-02 1.1843982957498138e-01 5.1411095026835621e-02 3.6385313761743678e-02 -3.1288088535384506e-02 -7.5401172649195866e-02 8.4933501083734361e-02 -8.8940135807764831e-02 -6.9093618409969998e-02 