<?xml version="1.0"?>
<MethodSetup Method="BDT::BDTGAlt_200trees_MaxDepth3_shrinkage02">
  <GeneralInfo>
    <Info name="TMVA Release" value="4.2.1 [262657]"/>
    <Info name="ROOT Release" value="6.08/07 [395271]"/>
    <Info name="Creator" value="wverbeke"/>
    <Info name="Date" value="Tue Dec  5 02:06:12 2017"/>
    <Info name="Host" value="Linux vocms0302.cern.ch 2.6.32-696.1.1.el6.x86_64 #1 SMP Wed Apr 12 08:44:28 CEST 2017 x86_64 x86_64 x86_64 GNU/Linux"/>
    <Info name="Dir" value="/storage_mnt/storage/user/wverbeke/Work/AnalysisCode/ewkino/bdtTraining/bdtTrainingsubmit"/>
    <Info name="Training events" value="10124"/>
    <Info name="TrainingTime" value="4.56154108e+00"/>
    <Info name="AnalysisType" value="Classification"/>
  </GeneralInfo>
  <Options>
    <Option name="V" modified="Yes">False</Option>
    <Option name="VerbosityLevel" modified="No">Default</Option>
    <Option name="VarTransform" modified="No">None</Option>
    <Option name="H" modified="Yes">False</Option>
    <Option name="CreateMVAPdfs" modified="No">False</Option>
    <Option name="IgnoreNegWeightsInTraining" modified="Yes">True</Option>
    <Option name="NTrees" modified="Yes">200</Option>
    <Option name="MaxDepth" modified="Yes">3</Option>
    <Option name="MinNodeSize" modified="Yes">2.5%</Option>
    <Option name="nCuts" modified="Yes">200</Option>
    <Option name="BoostType" modified="Yes">Grad</Option>
    <Option name="AdaBoostR2Loss" modified="No">quadratic</Option>
    <Option name="UseBaggedBoost" modified="No">False</Option>
    <Option name="Shrinkage" modified="Yes">2.000000e-01</Option>
    <Option name="AdaBoostBeta" modified="No">5.000000e-01</Option>
    <Option name="UseRandomisedTrees" modified="No">False</Option>
    <Option name="UseNvars" modified="No">4</Option>
    <Option name="UsePoissonNvars" modified="No">True</Option>
    <Option name="BaggedSampleFraction" modified="No">6.000000e-01</Option>
    <Option name="UseYesNoLeaf" modified="No">True</Option>
    <Option name="NegWeightTreatment" modified="No">pray</Option>
    <Option name="Css" modified="No">1.000000e+00</Option>
    <Option name="Cts_sb" modified="No">1.000000e+00</Option>
    <Option name="Ctb_ss" modified="No">1.000000e+00</Option>
    <Option name="Cbb" modified="No">1.000000e+00</Option>
    <Option name="NodePurityLimit" modified="No">5.000000e-01</Option>
    <Option name="SeparationType" modified="No">giniindex</Option>
    <Option name="RegressionLossFunctionBDTG" modified="No">huber</Option>
    <Option name="HuberQuantile" modified="No">7.000000e-01</Option>
    <Option name="DoBoostMonitor" modified="No">False</Option>
    <Option name="UseFisherCuts" modified="No">False</Option>
    <Option name="MinLinCorrForFisher" modified="No">8.000000e-01</Option>
    <Option name="UseExclusiveVars" modified="No">False</Option>
    <Option name="DoPreselection" modified="No">False</Option>
    <Option name="SigToBkgFraction" modified="No">1.000000e+00</Option>
    <Option name="PruneMethod" modified="No">nopruning</Option>
    <Option name="PruneStrength" modified="No">0.000000e+00</Option>
    <Option name="PruningValFraction" modified="No">5.000000e-01</Option>
    <Option name="SkipNormalization" modified="No">False</Option>
    <Option name="nEventsMin" modified="No">0</Option>
    <Option name="UseBaggedGrad" modified="No">False</Option>
    <Option name="GradBaggingFraction" modified="No">6.000000e-01</Option>
    <Option name="UseNTrainEvents" modified="No">0</Option>
    <Option name="NNodesMax" modified="No">0</Option>
  </Options>
  <Variables NVar="15">
    <Variable VarIndex="0" Expression="topMass" Label="topMass" Title="topMass" Unit="" Internal="topMass" Type="F" Min="0.00000000e+00" Max="3.13443433e+03"/>
    <Variable VarIndex="1" Expression="etaMostForward" Label="etaMostForward" Title="etaMostForward" Unit="" Internal="etaMostForward" Type="F" Min="1.30448694e-04" Max="2.84039593e+00"/>
    <Variable VarIndex="2" Expression="pTLeadingJet" Label="pTLeadingJet" Title="pTLeadingJet" Unit="" Internal="pTLeadingJet" Type="F" Min="2.50015526e+01" Max="1.60782019e+03"/>
    <Variable VarIndex="3" Expression="pTLeadingLepton" Label="pTLeadingLepton" Title="pTLeadingLepton" Unit="" Internal="pTLeadingLepton" Type="F" Min="2.62393208e+01" Max="7.21943726e+02"/>
    <Variable VarIndex="4" Expression="mNotSoForwardJets" Label="mNotSoForwardJets" Title="mNotSoForwardJets" Unit="" Internal="mNotSoForwardJets" Type="F" Min="0.00000000e+00" Max="2.70412689e+02"/>
    <Variable VarIndex="5" Expression="missingET" Label="missingET" Title="missingET" Unit="" Internal="missingET" Type="F" Min="3.47164243e-01" Max="1.14455701e+03"/>
    <Variable VarIndex="6" Expression="highestDeepCSV" Label="highestDeepCSV" Title="highestDeepCSV" Unit="" Internal="highestDeepCSV" Type="F" Min="6.32408917e-01" Max="9.99999404e-01"/>
    <Variable VarIndex="7" Expression="minMlb" Label="minMlb" Title="minMlb" Unit="" Internal="minMlb" Type="F" Min="-2.42446854e+02" Max="1.17017871e+03"/>
    <Variable VarIndex="8" Expression="etaZ" Label="etaZ" Title="etaZ" Unit="" Internal="etaZ" Type="F" Min="1.20927762e-04" Max="6.44222164e+00"/>
    <Variable VarIndex="9" Expression="m3l" Label="m3l" Title="m3l" Unit="" Internal="m3l" Type="F" Min="8.69279938e+01" Max="1.15016394e+03"/>
    <Variable VarIndex="10" Expression="maxDeltaPhill" Label="maxDeltaPhill" Title="maxDeltaPhill" Unit="" Internal="maxDeltaPhill" Type="F" Min="3.60684395e-02" Max="3.14158797e+00"/>
    <Variable VarIndex="11" Expression="pTMaxlb" Label="pTMaxlb" Title="pTMaxlb" Unit="" Internal="pTMaxlb" Type="F" Min="2.37251358e+01" Max="1.70798035e+03"/>
    <Variable VarIndex="12" Expression="pT3l" Label="pT3l" Title="pT3l" Unit="" Internal="pT3l" Type="F" Min="1.03410971e+00" Max="1.09975488e+03"/>
    <Variable VarIndex="13" Expression="mForwardJetsLeadinBJetW" Label="mForwardJetsLeadinBJetW" Title="mForwardJetsLeadinBJetW" Unit="" Internal="mForwardJetsLeadinBJetW" Type="F" Min="0.00000000e+00" Max="3.13443433e+03"/>
    <Variable VarIndex="14" Expression="ht" Label="ht" Title="ht" Unit="" Internal="ht" Type="F" Min="2.50015526e+01" Max="1.60782019e+03"/>
  </Variables>
  <Spectators NSpec="0"/>
  <Classes NClass="2">
    <Class Name="Signal" Index="0"/>
    <Class Name="Background" Index="1"/>
  </Classes>
  <Transformations NTransformations="0"/>
  <MVAPdfs/>
  <Weights NTrees="200" AnalysisType="1">
    <BinaryTree type="DecisionTree" boostWeight="1.0000000000000000e+00" itree="0">
      <Node pos="s" depth="0" NCoef="0" IVar="6" Cut="9.3599069118499756e-01" cType="1" res="4.0684726227187956e-16" rms="5.0000000000000000e-01" purity="5.0000000000000000e-01" nType="0">
        <Node pos="l" depth="1" NCoef="0" IVar="6" Cut="7.9098671674728394e-01" cType="1" res="-2.0560805499553680e-01" rms="4.5576894283294678e-01" purity="2.9439193010330200e-01" nType="0">
          <Node pos="l" depth="2" NCoef="0" IVar="2" Cut="5.0148494720458984e+01" cType="1" res="-3.0169326066970825e-01" rms="3.9872443675994873e-01" purity="1.9830673933029175e-01" nType="0">
            <Node pos="l" depth="3" NCoef="0" IVar="-1" Cut="0.0000000000000000e+00" cType="1" res="-5.2805226296186447e-03" rms="3.4425100684165955e-01" purity="1.3738279044628143e-01" nType="-99"/>
            <Node pos="r" depth="3" NCoef="0" IVar="-1" Cut="0.0000000000000000e+00" cType="1" res="-3.2792195677757263e-02" rms="4.5049744844436646e-01" purity="2.8308516740798950e-01" nType="-99"/>
          </Node>
          <Node pos="r" depth="2" NCoef="0" IVar="13" Cut="2.3391300964355469e+02" cType="1" res="-8.3880044519901276e-02" rms="4.9291393160820007e-01" purity="4.1611996293067932e-01" nType="0">
            <Node pos="l" depth="3" NCoef="0" IVar="-1" Cut="0.0000000000000000e+00" cType="1" res="3.8234464591369033e-04" rms="4.9993351101875305e-01" purity="5.0815397500991821e-01" nType="-99"/>
            <Node pos="r" depth="3" NCoef="0" IVar="-1" Cut="0.0000000000000000e+00" cType="1" res="-6.6700158640742302e-03" rms="3.6636650562286377e-01" purity="1.5974189341068268e-01" nType="-99"/>
          </Node>
        </Node>
        <Node pos="r" depth="1" NCoef="0" IVar="13" Cut="2.7173822021484375e+02" cType="1" res="2.4894507229328156e-01" rms="4.3362006545066833e-01" purity="7.4894505739212036e-01" nType="0">
          <Node pos="l" depth="2" NCoef="0" IVar="2" Cut="3.3565937042236328e+01" cType="1" res="2.9143682122230530e-01" rms="4.0628141164779663e-01" purity="7.9143679141998291e-01" nType="0">
            <Node pos="l" depth="3" NCoef="0" IVar="-1" Cut="0.0000000000000000e+00" cType="1" res="5.2272714674472809e-04" rms="4.9908611178398132e-01" purity="5.3021669387817383e-01" nType="-99"/>
            <Node pos="r" depth="3" NCoef="0" IVar="-1" Cut="0.0000000000000000e+00" cType="1" res="5.2042014896869659e-02" rms="3.7574860453605652e-01" purity="8.2986813783645630e-01" nType="-99"/>
          </Node>
          <Node pos="r" depth="2" NCoef="0" IVar="-1" Cut="0.0000000000000000e+00" cType="1" res="-1.0341341607272625e-02" rms="4.7870203852653503e-01" purity="3.5562422871589661e-01" nType="-99"/>
        </Node>
      </Node>
    </BinaryTree>
    <BinaryTree type="DecisionTree" boostWeight="1.0000000000000000e+00" itree="1">
      <Node pos="s" depth="0" NCoef="0" IVar="6" Cut="9.3599069118499756e-01" cType="1" res="-6.2907375395298004e-03" rms="4.9261713027954102e-01" purity="5.0000000000000000e-01" nType="0">
        <Node pos="l" depth="1" NCoef="0" IVar="6" Cut="7.9098671674728394e-01" cType="1" res="-2.0059281587600708e-01" rms="4.5527917146682739e-01" purity="2.9439193010330200e-01" nType="0">
          <Node pos="l" depth="2" NCoef="0" IVar="2" Cut="5.0148494720458984e+01" cType="1" res="-2.9330360889434814e-01" rms="4.0000253915786743e-01" purity="1.9830673933029175e-01" nType="0">
            <Node pos="l" depth="3" NCoef="0" IVar="-1" Cut="0.0000000000000000e+00" cType="1" res="-5.2422210574150085e-03" rms="3.4425100684165955e-01" purity="1.3738279044628143e-01" nType="-99"/>
            <Node pos="r" depth="3" NCoef="0" IVar="-1" Cut="0.0000000000000000e+00" cType="1" res="-3.0347004532814026e-02" rms="4.5049744844436646e-01" purity="2.8308516740798950e-01" nType="-99"/>
          </Node>
          <Node pos="r" depth="2" NCoef="0" IVar="13" Cut="2.3391300964355469e+02" cType="1" res="-8.3139777183532715e-02" rms="4.9243167042732239e-01" purity="4.1611996293067932e-01" nType="0">
            <Node pos="l" depth="3" NCoef="0" IVar="-1" Cut="0.0000000000000000e+00" cType="1" res="3.7338069523684680e-04" rms="4.9993348121643066e-01" purity="5.0815397500991821e-01" nType="-99"/>
            <Node pos="r" depth="3" NCoef="0" IVar="-1" Cut="0.0000000000000000e+00" cType="1" res="-6.6049350425601006e-03" rms="3.6636650562286377e-01" purity="1.5974189341068268e-01" nType="-99"/>
          </Node>
        </Node>
        <Node pos="r" depth="1" NCoef="0" IVar="13" Cut="2.7173822021484375e+02" cType="1" res="2.2896534204483032e-01" rms="4.2949721217155457e-01" purity="7.4894505739212036e-01" nType="0">
          <Node pos="l" depth="2" NCoef="0" IVar="2" Cut="3.3565937042236328e+01" cType="1" res="2.6874002814292908e-01" rms="4.0424519777297974e-01" purity="7.9143679141998291e-01" nType="0">
            <Node pos="l" depth="3" NCoef="0" IVar="-1" Cut="0.0000000000000000e+00" cType="1" res="5.1820586668327451e-04" rms="4.9908611178398132e-01" purity="5.3021669387817383e-01" nType="-99"/>
            <Node pos="r" depth="3" NCoef="0" IVar="-1" Cut="0.0000000000000000e+00" cType="1" res="4.8070441931486130e-02" rms="3.7574860453605652e-01" purity="8.2986813783645630e-01" nType="-99"/>
          </Node>
          <Node pos="r" depth="2" NCoef="0" IVar="-1" Cut="0.0000000000000000e+00" cType="1" res="-9.9720563739538193e-03" rms="4.7870200872421265e-01" purity="3.5562422871589661e-01" nType="-99"/>
        </Node>
      </Node>
    </BinaryTree>
    <BinaryTree type="DecisionTree" boostWeight="1.0000000000000000e+00" itree="2">
      <Node pos="s" depth="0" NCoef="0" IVar="6" Cut="8.7015366554260254e-01" cType="1" res="-1.2005346827208996e-02" rms="4.8612517118453979e-01" purity="5.0000000000000000e-01" nType="0">
        <Node pos="l" depth="1" NCoef="0" IVar="2" Cut="5.0148494720458984e+01" cType="1" res="-2.4368521571159363e-01" rms="4.2991629242897034e-01" purity="2.4426300823688507e-01" nType="0">
          <Node pos="l" depth="2" NCoef="0" IVar="6" Cut="7.9208517074584961e-01" cType="1" res="-3.1518355011940002e-01" rms="3.8411772251129150e-01" purity="1.8057028949260712e-01" nType="0">
            <Node pos="l" depth="3" NCoef="0" IVar="-1" Cut="0.0000000000000000e+00" cType="1" res="-5.2296770736575127e-03" rms="3.4373170137405396e-01" purity="1.3688595592975616e-01" nType="-99"/>
            <Node pos="r" depth="3" NCoef="0" IVar="-1" Cut="0.0000000000000000e+00" cType="1" res="-1.7105545848608017e-02" rms="4.7049763798713684e-01" purity="3.3238005638122559e-01" nType="-99"/>
          </Node>
          <Node pos="r" depth="2" NCoef="0" IVar="13" Cut="2.1181469726562500e+02" cType="1" res="-1.6245499253273010e-01" rms="4.6344143152236938e-01" purity="3.1662517786026001e-01" nType="0">
            <Node pos="l" depth="3" NCoef="0" IVar="-1" Cut="0.0000000000000000e+00" cType="1" res="-5.5208604317158461e-04" rms="4.9659162759780884e-01" purity="4.7493273019790649e-01" nType="-99"/>
            <Node pos="r" depth="3" NCoef="0" IVar="-1" Cut="0.0000000000000000e+00" cType="1" res="-9.8908664658665657e-03" rms="3.5431331396102905e-01" purity="1.4736853539943695e-01" nType="-99"/>
          </Node>
        </Node>
        <Node pos="r" depth="1" NCoef="0" IVar="0" Cut="2.0272460937500000e+02" cType="1" res="1.6475322842597961e-01" rms="4.5100599527359009e-01" purity="6.9511276483535767e-01" nType="0">
          <Node pos="l" depth="2" NCoef="0" IVar="2" Cut="3.2866924285888672e+01" cType="1" res="2.3121844232082367e-01" rms="4.1556867957115173e-01" purity="7.6609420776367188e-01" nType="0">
            <Node pos="l" depth="3" NCoef="0" IVar="-1" Cut="0.0000000000000000e+00" cType="1" res="-1.1595657560974360e-03" rms="4.9058869481086731e-01" purity="4.0356603264808655e-01" nType="-99"/>
            <Node pos="r" depth="3" NCoef="0" IVar="-1" Cut="0.0000000000000000e+00" cType="1" res="5.9705238789319992e-02" rms="3.6588877439498901e-01" purity="8.3758515119552612e-01" nType="-99"/>
          </Node>
          <Node pos="r" depth="2" NCoef="0" IVar="0" Cut="2.7566677856445312e+02" cType="1" res="-4.7082241624593735e-02" rms="4.9226745963096619e-01" purity="4.6888348460197449e-01" nType="0">
            <Node pos="l" depth="3" NCoef="0" IVar="-1" Cut="0.0000000000000000e+00" cType="1" res="4.5607509091496468e-03" rms="4.9071237444877625e-01" purity="5.7823085784912109e-01" nType="-99"/>
            <Node pos="r" depth="3" NCoef="0" IVar="-1" Cut="0.0000000000000000e+00" cType="1" res="-1.4460423961281776e-02" rms="4.6842512488365173e-01" purity="3.2474428415298462e-01" nType="-99"/>
          </Node>
        </Node>
      </Node>
    </BinaryTree>
    <BinaryTree type="DecisionTree" boostWeight="1.0000000000000000e+00" itree="3">
      <Node pos="s" depth="0" NCoef="0" IVar="6" Cut="9.3599069118499756e-01" cType="1" res="-2.0909033715724945e-02" rms="4.7865316271781921e-01" purity="5.0000000000000000e-01" nType="0">
        <Node pos="l" depth="1" NCoef="0" IVar="6" Cut="7.9098671674728394e-01" cType="1" res="-1.9620899856090546e-01" rms="4.5189812779426575e-01" purity="2.9439193010330200e-01" nType="0">
          <Node pos="l" depth="2" NCoef="0" IVar="2" Cut="5.0148494720458984e+01" cType="1" res="-2.8291428089141846e-01" rms="4.0093150734901428e-01" purity="1.9830673933029175e-01" nType="0">
            <Node pos="l" depth="3" NCoef="0" IVar="-1" Cut="0.0000000000000000e+00" cType="1" res="-5.1671187393367290e-03" rms="3.4425100684165955e-01" purity="1.3738279044628143e-01" nType="-99"/>
            <Node pos="r" depth="3" NCoef="0" IVar="-1" Cut="0.0000000000000000e+00" cType="1" res="-2.7783529832959175e-02" rms="4.4983527064323425e-01" purity="2.8308516740798950e-01" nType="-99"/>
          </Node>
          <Node pos="r" depth="2" NCoef="0" IVar="13" Cut="2.3391300964355469e+02" cType="1" res="-8.6364209651947021e-02" rms="4.8753228783607483e-01" purity="4.1611996293067932e-01" nType="0">
            <Node pos="l" depth="3" NCoef="0" IVar="-1" Cut="0.0000000000000000e+00" cType="1" res="2.1257146727293730e-05" rms="4.9626371264457703e-01" purity="5.0815397500991821e-01" nType="-99"/>
            <Node pos="r" depth="3" NCoef="0" IVar="-1" Cut="0.0000000000000000e+00" cType="1" res="-6.4374599605798721e-03" rms="3.6643221974372864e-01" purity="1.5974189341068268e-01" nType="-99"/>
          </Node>
        </Node>
        <Node pos="r" depth="1" NCoef="0" IVar="13" Cut="2.7173822021484375e+02" cType="1" res="1.9133977591991425e-01" rms="4.2070969939231873e-01" purity="7.4894505739212036e-01" nType="0">
          <Node pos="l" depth="2" NCoef="0" IVar="5" Cut="1.8942369461059570e+01" cType="1" res="2.2579154372215271e-01" rms="3.9899298548698425e-01" purity="7.9143679141998291e-01" nType="0">
            <Node pos="l" depth="3" NCoef="0" IVar="-1" Cut="0.0000000000000000e+00" cType="1" res="2.8106980607844889e-04" rms="4.7409310936927795e-01" purity="5.6883424520492554e-01" nType="-99"/>
            <Node pos="r" depth="3" NCoef="0" IVar="-1" Cut="0.0000000000000000e+00" cType="1" res="4.4259283691644669e-02" rms="3.7706929445266724e-01" purity="8.2420814037322998e-01" nType="-99"/>
          </Node>
          <Node pos="r" depth="2" NCoef="0" IVar="-1" Cut="0.0000000000000000e+00" cType="1" res="-9.1477595269680023e-03" rms="4.7863194346427917e-01" purity="3.5562422871589661e-01" nType="-99"/>
        </Node>
      </Node>
    </BinaryTree>
    <BinaryTree type="DecisionTree" boostWeight="1.0000000000000000e+00" itree="4">
      <Node pos="s" depth="0" NCoef="0" IVar="6" Cut="8.7015366554260254e-01" cType="1" res="-2.5947660207748413e-02" rms="4.7327005863189697e-01" purity="5.0000000000000000e-01" nType="0">
        <Node pos="l" depth="1" NCoef="0" IVar="2" Cut="5.0148494720458984e+01" cType="1" res="-2.3495690524578094e-01" rms="4.2983210086822510e-01" purity="2.4426300823688507e-01" nType="0">
          <Node pos="l" depth="2" NCoef="0" IVar="6" Cut="7.9208517074584961e-01" cType="1" res="-3.0912661552429199e-01" rms="3.8438645005226135e-01" purity="1.8057028949260712e-01" nType="0">
            <Node pos="l" depth="3" NCoef="0" IVar="-1" Cut="0.0000000000000000e+00" cType="1" res="-5.1554925739765167e-03" rms="3.4373396635055542e-01" purity="1.3688595592975616e-01" nType="-99"/>
            <Node pos="r" depth="3" NCoef="0" IVar="-1" Cut="0.0000000000000000e+00" cType="1" res="-1.6186188906431198e-02" rms="4.7024098038673401e-01" purity="3.3238005638122559e-01" nType="-99"/>
          </Node>
          <Node pos="r" depth="2" NCoef="0" IVar="13" Cut="2.1181469726562500e+02" cType="1" res="-1.5069168806076050e-01" rms="4.6200034022331238e-01" purity="3.1662517786026001e-01" nType="0">
            <Node pos="l" depth="3" NCoef="0" IVar="-1" Cut="0.0000000000000000e+00" cType="1" res="6.0296396259218454e-04" rms="4.9552667140960693e-01" purity="4.7493273019790649e-01" nType="-99"/>
            <Node pos="r" depth="3" NCoef="0" IVar="-1" Cut="0.0000000000000000e+00" cType="1" res="-9.4735752791166306e-03" rms="3.5437837243080139e-01" purity="1.4736853539943695e-01" nType="-99"/>
          </Node>
        </Node>
        <Node pos="r" depth="1" NCoef="0" IVar="0" Cut="2.0272460937500000e+02" cType="1" res="1.3351450860500336e-01" rms="4.4176548719406128e-01" purity="6.9511276483535767e-01" nType="0">
          <Node pos="l" depth="2" NCoef="0" IVar="2" Cut="3.2866924285888672e+01" cType="1" res="1.9184184074401855e-01" rms="4.0893656015396118e-01" purity="7.6609420776367188e-01" nType="0">
            <Node pos="l" depth="3" NCoef="0" IVar="-1" Cut="0.0000000000000000e+00" cType="1" res="-1.2580577749758959e-03" rms="4.8518657684326172e-01" purity="4.0356603264808655e-01" nType="-99"/>
            <Node pos="r" depth="3" NCoef="0" IVar="-1" Cut="0.0000000000000000e+00" cType="1" res="5.1845110952854156e-02" rms="3.6464282870292664e-01" purity="8.3758515119552612e-01" nType="-99"/>
          </Node>
          <Node pos="r" depth="2" NCoef="0" IVar="0" Cut="2.7566677856445312e+02" cType="1" res="-5.2384171634912491e-02" rms="4.8863631486892700e-01" purity="4.6888348460197449e-01" nType="0">
            <Node pos="l" depth="3" NCoef="0" IVar="-1" Cut="0.0000000000000000e+00" cType="1" res="2.6930214371532202e-03" rms="4.8931267857551575e-01" purity="5.7823085784912109e-01" nType="-99"/>
            <Node pos="r" depth="3" NCoef="0" IVar="-1" Cut="0.0000000000000000e+00" cType="1" res="-1.3487812131643295e-02" rms="4.6848246455192566e-01" purity="3.2474428415298462e-01" nType="-99"/>
          </Node>
        </Node>
      </Node>
    </BinaryTree>
    <BinaryTree type="DecisionTree" boostWeight="1.0000000000000000e+00" itree="5">
      <Node pos="s" depth="0" NCoef="0" IVar="6" Cut="9.3599069118499756e-01" cType="1" res="-3.3257562667131424e-02" rms="4.6736538410186768e-01" purity="5.0000000000000000e-01" nType="0">
        <Node pos="l" depth="1" NCoef="0" IVar="6" Cut="7.9098671674728394e-01" cType="1" res="-1.9187101721763611e-01" rms="4.4915559887886047e-01" purity="2.9439193010330200e-01" nType="0">
          <Node pos="l" depth="2" NCoef="0" IVar="2" Cut="5.0148494720458984e+01" cType="1" res="-2.7330458164215088e-01" rms="4.0174886584281921e-01" purity="1.9830673933029175e-01" nType="0">
            <Node pos="l" depth="3" NCoef="0" IVar="-1" Cut="0.0000000000000000e+00" cType="1" res="-5.0941719673573971e-03" rms="3.4425103664398193e-01" purity="1.3738279044628143e-01" nType="-99"/>
            <Node pos="r" depth="3" NCoef="0" IVar="-1" Cut="0.0000000000000000e+00" cType="1" res="-2.5512328371405602e-02" rms="4.4914039969444275e-01" purity="2.8308516740798950e-01" nType="-99"/>
          </Node>
          <Node pos="r" depth="2" NCoef="0" IVar="13" Cut="2.3391300964355469e+02" cType="1" res="-8.8704802095890045e-02" rms="4.8352900147438049e-01" purity="4.1611996293067932e-01" nType="0">
            <Node pos="l" depth="3" NCoef="0" IVar="-1" Cut="0.0000000000000000e+00" cType="1" res="-2.6950507890433073e-04" rms="4.9341097474098206e-01" purity="5.0815397500991821e-01" nType="-99"/>
            <Node pos="r" depth="3" NCoef="0" IVar="-1" Cut="0.0000000000000000e+00" cType="1" res="-6.2792538665235043e-03" rms="3.6650314927101135e-01" purity="1.5974189341068268e-01" nType="-99"/>
          </Node>
        </Node>
        <Node pos="r" depth="1" NCoef="0" IVar="0" Cut="2.6685089111328125e+02" cType="1" res="1.5878762304782867e-01" rms="4.1387858986854553e-01" purity="7.4894505739212036e-01" nType="0">
          <Node pos="l" depth="2" NCoef="0" IVar="5" Cut="1.8942369461059570e+01" cType="1" res="1.8884570896625519e-01" rms="3.9466419816017151e-01" purity="7.9169106483459473e-01" nType="0">
            <Node pos="l" depth="3" NCoef="0" IVar="-1" Cut="0.0000000000000000e+00" cType="1" res="3.1354866223409772e-05" rms="4.6753120422363281e-01" purity="5.6936335563659668e-01" nType="-99"/>
            <Node pos="r" depth="3" NCoef="0" IVar="-1" Cut="0.0000000000000000e+00" cType="1" res="3.8379777222871780e-02" rms="3.7495669722557068e-01" purity="8.2445371150970459e-01" nType="-99"/>
          </Node>
          <Node pos="r" depth="2" NCoef="0" IVar="-1" Cut="0.0000000000000000e+00" cType="1" res="-8.3370879292488098e-03" rms="4.7921562194824219e-01" purity="3.6036562919616699e-01" nType="-99"/>
        </Node>
      </Node>
    </BinaryTree>
    <BinaryTree type="DecisionTree" boostWeight="1.0000000000000000e+00" itree="6">
      <Node pos="s" depth="0" NCoef="0" IVar="6" Cut="8.7015366554260254e-01" cType="1" res="-3.7195343524217606e-02" rms="4.6315008401870728e-01" purity="5.0000000000000000e-01" nType="0">
        <Node pos="l" depth="1" NCoef="0" IVar="2" Cut="5.0148494720458984e+01" cType="1" res="-2.2684118151664734e-01" rms="4.2970448732376099e-01" purity="2.4426300823688507e-01" nType="0">
          <Node pos="l" depth="2" NCoef="0" IVar="6" Cut="7.9208517074584961e-01" cType="1" res="-3.0320805311203003e-01" rms="3.8464236259460449e-01" purity="1.8057028949260712e-01" nType="0">
            <Node pos="l" depth="3" NCoef="0" IVar="-1" Cut="0.0000000000000000e+00" cType="1" res="-5.0834128633141518e-03" rms="3.4373614192008972e-01" purity="1.3688595592975616e-01" nType="-99"/>
            <Node pos="r" depth="3" NCoef="0" IVar="-1" Cut="0.0000000000000000e+00" cType="1" res="-1.5313168056309223e-02" rms="4.7000581026077271e-01" purity="3.3238005638122559e-01" nType="-99"/>
          </Node>
          <Node pos="r" depth="2" NCoef="0" IVar="13" Cut="2.1181469726562500e+02" cType="1" res="-1.4007975161075592e-01" rms="4.6063411235809326e-01" purity="3.1662517786026001e-01" nType="0">
            <Node pos="l" depth="3" NCoef="0" IVar="-1" Cut="0.0000000000000000e+00" cType="1" res="1.6034831060096622e-03" rms="4.9463704228401184e-01" purity="4.7493273019790649e-01" nType="-99"/>
            <Node pos="r" depth="3" NCoef="0" IVar="-1" Cut="0.0000000000000000e+00" cType="1" res="-9.0903360396623611e-03" rms="3.5450345277786255e-01" purity="1.4736853539943695e-01" nType="-99"/>
          </Node>
        </Node>
        <Node pos="r" depth="1" NCoef="0" IVar="0" Cut="2.0272460937500000e+02" cType="1" res="1.0749365389347076e-01" rms="4.3464520573616028e-01" purity="6.9511276483535767e-01" nType="0">
          <Node pos="l" depth="2" NCoef="0" IVar="2" Cut="3.2866924285888672e+01" cType="1" res="1.5881568193435669e-01" rms="4.0381765365600586e-01" purity="7.6609420776367188e-01" nType="0">
            <Node pos="l" depth="3" NCoef="0" IVar="-1" Cut="0.0000000000000000e+00" cType="1" res="-1.3407971709966660e-03" rms="4.8063448071479797e-01" purity="4.0356603264808655e-01" nType="-99"/>
            <Node pos="r" depth="3" NCoef="0" IVar="-1" Cut="0.0000000000000000e+00" cType="1" res="4.5562554150819778e-02" rms="3.6380237340927124e-01" purity="8.3758515119552612e-01" nType="-99"/>
          </Node>
          <Node pos="r" depth="2" NCoef="0" IVar="6" Cut="9.5570462942123413e-01" cType="1" res="-5.6078035384416580e-02" rms="4.8594957590103149e-01" purity="4.6888348460197449e-01" nType="0">
            <Node pos="l" depth="3" NCoef="0" IVar="-1" Cut="0.0000000000000000e+00" cType="1" res="-2.4294814094901085e-02" rms="4.7215926647186279e-01" purity="3.2942706346511841e-01" nType="-99"/>
            <Node pos="r" depth="3" NCoef="0" IVar="-1" Cut="0.0000000000000000e+00" cType="1" res="8.0862555478233844e-05" rms="4.8251461982727051e-01" purity="5.3768062591552734e-01" nType="-99"/>
          </Node>
        </Node>
      </Node>
    </BinaryTree>
    <BinaryTree type="DecisionTree" boostWeight="1.0000000000000000e+00" itree="7">
      <Node pos="s" depth="0" NCoef="0" IVar="6" Cut="9.3599069118499756e-01" cType="1" res="-4.2982708662748337e-02" rms="4.5839211344718933e-01" purity="5.0000000000000000e-01" nType="0">
        <Node pos="l" depth="1" NCoef="0" IVar="6" Cut="7.9098671674728394e-01" cType="1" res="-1.8708714842796326e-01" rms="4.4697353243827820e-01" purity="2.9439193010330200e-01" nType="0">
          <Node pos="l" depth="2" NCoef="0" IVar="2" Cut="5.0148494720458984e+01" cType="1" res="-2.6439663767814636e-01" rms="4.0245056152343750e-01" purity="1.9830673933029175e-01" nType="0">
            <Node pos="l" depth="3" NCoef="0" IVar="-1" Cut="0.0000000000000000e+00" cType="1" res="-5.0232741050422192e-03" rms="3.4425100684165955e-01" purity="1.3738279044628143e-01" nType="-99"/>
            <Node pos="r" depth="3" NCoef="0" IVar="-1" Cut="0.0000000000000000e+00" cType="1" res="-2.3485066369175911e-02" rms="4.4842669367790222e-01" purity="2.8308516740798950e-01" nType="-99"/>
          </Node>
          <Node pos="r" depth="2" NCoef="0" IVar="13" Cut="2.3391300964355469e+02" cType="1" res="-8.9145638048648834e-02" rms="4.8013836145401001e-01" purity="4.1611996293067932e-01" nType="0">
            <Node pos="l" depth="3" NCoef="0" IVar="-1" Cut="0.0000000000000000e+00" cType="1" res="-4.7792031546123326e-04" rms="4.9124488234519958e-01" purity="5.0815397500991821e-01" nType="-99"/>
            <Node pos="r" depth="3" NCoef="0" IVar="-1" Cut="0.0000000000000000e+00" cType="1" res="-6.0789911076426506e-03" rms="3.6703598499298096e-01" purity="1.5974189341068268e-01" nType="-99"/>
          </Node>
        </Node>
        <Node pos="r" depth="1" NCoef="0" IVar="13" Cut="2.7173822021484375e+02" cType="1" res="1.3149534165859222e-01" rms="4.0872317552566528e-01" purity="7.4894505739212036e-01" nType="0">
          <Node pos="l" depth="2" NCoef="0" IVar="5" Cut="1.8942369461059570e+01" cType="1" res="1.5774020552635193e-01" rms="3.9149791002273560e-01" purity="7.9143679141998291e-01" nType="0">
            <Node pos="l" depth="3" NCoef="0" IVar="-1" Cut="0.0000000000000000e+00" cType="1" res="-1.9517484179232270e-04" rms="4.6208015084266663e-01" purity="5.6883424520492554e-01" nType="-99"/>
            <Node pos="r" depth="3" NCoef="0" IVar="-1" Cut="0.0000000000000000e+00" cType="1" res="3.3556245267391205e-02" rms="3.7356054782867432e-01" purity="8.2420814037322998e-01" nType="-99"/>
          </Node>
          <Node pos="r" depth="2" NCoef="0" IVar="-1" Cut="0.0000000000000000e+00" cType="1" res="-8.0169234424829483e-03" rms="4.7880369424819946e-01" purity="3.5562422871589661e-01" nType="-99"/>
        </Node>
      </Node>
    </BinaryTree>
    <BinaryTree type="DecisionTree" boostWeight="1.0000000000000000e+00" itree="8">
      <Node pos="s" depth="0" NCoef="0" IVar="6" Cut="8.7015366554260254e-01" cType="1" res="-4.6046368777751923e-02" rms="4.5506623387336731e-01" purity="5.0000000000000000e-01" nType="0">
        <Node pos="l" depth="1" NCoef="0" IVar="2" Cut="5.0148494720458984e+01" cType="1" res="-2.1928758919239044e-01" rms="4.2952921986579895e-01" purity="2.4426300823688507e-01" nType="0">
          <Node pos="l" depth="2" NCoef="0" IVar="6" Cut="7.9208517074584961e-01" cType="1" res="-2.9743134975433350e-01" rms="3.8488173484802246e-01" purity="1.8057028949260712e-01" nType="0">
            <Node pos="l" depth="3" NCoef="0" IVar="-1" Cut="0.0000000000000000e+00" cType="1" res="-5.0133359618484974e-03" rms="3.4373819828033447e-01" purity="1.3688595592975616e-01" nType="-99"/>
            <Node pos="r" depth="3" NCoef="0" IVar="-1" Cut="0.0000000000000000e+00" cType="1" res="-1.4485353603959084e-02" rms="4.6979036927223206e-01" purity="3.3238005638122559e-01" nType="-99"/>
          </Node>
          <Node pos="r" depth="2" NCoef="0" IVar="13" Cut="2.1181469726562500e+02" cType="1" res="-1.3050739467144012e-01" rms="4.5933264493942261e-01" purity="3.1662517786026001e-01" nType="0">
            <Node pos="l" depth="3" NCoef="0" IVar="-1" Cut="0.0000000000000000e+00" cType="1" res="2.4671838618814945e-03" rms="4.9389016628265381e-01" purity="4.7493273019790649e-01" nType="-99"/>
            <Node pos="r" depth="3" NCoef="0" IVar="-1" Cut="0.0000000000000000e+00" cType="1" res="-8.7375929579138756e-03" rms="3.5466802120208740e-01" purity="1.4736853539943695e-01" nType="-99"/>
          </Node>
        </Node>
        <Node pos="r" depth="1" NCoef="0" IVar="0" Cut="2.3391300964355469e+02" cType="1" res="8.6126841604709625e-02" rms="4.2889681458473206e-01" purity="6.9511276483535767e-01" nType="0">
          <Node pos="l" depth="2" NCoef="0" IVar="2" Cut="3.2866924285888672e+01" cType="1" res="1.1884483695030212e-01" rms="4.1205585002899170e-01" purity="7.4791014194488525e-01" nType="0">
            <Node pos="l" depth="3" NCoef="0" IVar="-1" Cut="0.0000000000000000e+00" cType="1" res="-1.3665631413459778e-03" rms="4.7873204946517944e-01" purity="4.1397690773010254e-01" nType="-99"/>
            <Node pos="r" depth="3" NCoef="0" IVar="-1" Cut="0.0000000000000000e+00" cType="1" res="2.9704926535487175e-02" rms="3.8451057672500610e-01" purity="8.0872285366058350e-01" nType="-99"/>
          </Node>
          <Node pos="r" depth="2" NCoef="0" IVar="8" Cut="1.1909772157669067e+00" cType="1" res="-1.1225666850805283e-01" rms="4.7326421737670898e-01" purity="3.7497931718826294e-01" nType="0">
            <Node pos="l" depth="3" NCoef="0" IVar="-1" Cut="0.0000000000000000e+00" cType="1" res="-8.3724455907940865e-03" rms="4.8791861534118652e-01" purity="4.5725354552268982e-01" nType="-99"/>
            <Node pos="r" depth="3" NCoef="0" IVar="-1" Cut="0.0000000000000000e+00" cType="1" res="-1.2787500396370888e-02" rms="4.4575527310371399e-01" purity="2.9952719807624817e-01" nType="-99"/>
          </Node>
        </Node>
      </Node>
    </BinaryTree>
    <BinaryTree type="DecisionTree" boostWeight="1.0000000000000000e+00" itree="9">
      <Node pos="s" depth="0" NCoef="0" IVar="6" Cut="9.3599069118499756e-01" cType="1" res="-4.9940411001443863e-02" rms="4.5197996497154236e-01" purity="5.0000000000000000e-01" nType="0">
        <Node pos="l" depth="1" NCoef="0" IVar="6" Cut="7.9098671674728394e-01" cType="1" res="-1.8262334167957306e-01" rms="4.4525992870330811e-01" purity="2.9439193010330200e-01" nType="0">
          <Node pos="l" depth="2" NCoef="0" IVar="2" Cut="5.0148494720458984e+01" cType="1" res="-2.5612074136734009e-01" rms="4.0303736925125122e-01" purity="1.9830673933029175e-01" nType="0">
            <Node pos="l" depth="3" NCoef="0" IVar="-1" Cut="0.0000000000000000e+00" cType="1" res="-4.9543259665369987e-03" rms="3.4425100684165955e-01" purity="1.3738279044628143e-01" nType="-99"/>
            <Node pos="r" depth="3" NCoef="0" IVar="-1" Cut="0.0000000000000000e+00" cType="1" res="-2.1664856001734734e-02" rms="4.4770529866218567e-01" purity="2.8308516740798950e-01" nType="-99"/>
          </Node>
          <Node pos="r" depth="2" NCoef="0" IVar="13" Cut="2.3391300964355469e+02" cType="1" res="-8.9511305093765259e-02" rms="4.7761818766593933e-01" purity="4.1611996293067932e-01" nType="0">
            <Node pos="l" depth="3" NCoef="0" IVar="-1" Cut="0.0000000000000000e+00" cType="1" res="-6.3723372295498848e-04" rms="4.8970735073089600e-01" purity="5.0815397500991821e-01" nType="-99"/>
            <Node pos="r" depth="3" NCoef="0" IVar="-1" Cut="0.0000000000000000e+00" cType="1" res="-5.9323832392692566e-03" rms="3.6702853441238403e-01" purity="1.5974189341068268e-01" nType="-99"/>
          </Node>
        </Node>
        <Node pos="r" depth="1" NCoef="0" IVar="13" Cut="1.9883283996582031e+02" cType="1" res="1.1070875823497772e-01" rms="4.0553998947143555e-01" purity="7.4894505739212036e-01" nType="0">
          <Node pos="l" depth="2" NCoef="0" IVar="5" Cut="2.8218887329101562e+01" cType="1" res="1.5268966555595398e-01" rms="3.6874705553054810e-01" purity="8.1801313161849976e-01" nType="0">
            <Node pos="l" depth="3" NCoef="0" IVar="-1" Cut="0.0000000000000000e+00" cType="1" res="4.8067476018331945e-04" rms="4.4779968261718750e-01" purity="6.4564776420593262e-01" nType="-99"/>
            <Node pos="r" depth="3" NCoef="0" IVar="-1" Cut="0.0000000000000000e+00" cType="1" res="5.1096010953187943e-02" rms="3.2587480545043945e-01" purity="8.7606960535049438e-01" nType="-99"/>
          </Node>
          <Node pos="r" depth="2" NCoef="0" IVar="5" Cut="9.4177085876464844e+01" cType="1" res="-1.3991308398544788e-02" rms="4.7780662775039673e-01" purity="5.4378533363342285e-01" nType="0">
            <Node pos="l" depth="3" NCoef="0" IVar="-1" Cut="0.0000000000000000e+00" cType="1" res="6.8030594848096371e-03" rms="4.6508565545082092e-01" purity="6.1767059564590454e-01" nType="-99"/>
            <Node pos="r" depth="3" NCoef="0" IVar="-1" Cut="0.0000000000000000e+00" cType="1" res="-7.3437830433249474e-03" rms="4.7766837477684021e-01" purity="3.8852709531784058e-01" nType="-99"/>
          </Node>
        </Node>
      </Node>
    </BinaryTree>
    <BinaryTree type="DecisionTree" boostWeight="1.0000000000000000e+00" itree="10">
      <Node pos="s" depth="0" NCoef="0" IVar="6" Cut="8.4455037117004395e-01" cType="1" res="-5.3546264767646790e-02" rms="4.4836378097534180e-01" purity="5.0000000000000000e-01" nType="0">
        <Node pos="l" depth="1" NCoef="0" IVar="2" Cut="5.0148494720458984e+01" cType="1" res="-2.2624601423740387e-01" rms="4.2056387662887573e-01" purity="2.2800809144973755e-01" nType="0">
          <Node pos="l" depth="2" NCoef="0" IVar="6" Cut="7.9163044691085815e-01" cType="1" res="-3.0715459585189819e-01" rms="3.7210780382156372e-01" purity="1.6567547619342804e-01" nType="0">
            <Node pos="l" depth="3" NCoef="0" IVar="-1" Cut="0.0000000000000000e+00" cType="1" res="-4.9363812431693077e-03" rms="3.4393361210823059e-01" purity="1.3706798851490021e-01" nType="-99"/>
            <Node pos="r" depth="3" NCoef="0" IVar="-1" Cut="0.0000000000000000e+00" cType="1" res="-1.7681866884231567e-02" rms="4.6379077434539795e-01" purity="3.1787654757499695e-01" nType="-99"/>
          </Node>
          <Node pos="r" depth="2" NCoef="0" IVar="13" Cut="1.9668508911132812e+02" cType="1" res="-1.3130903244018555e-01" rms="4.5304438471794128e-01" purity="3.0114832520484924e-01" nType="0">
            <Node pos="l" depth="3" NCoef="0" IVar="-1" Cut="0.0000000000000000e+00" cType="1" res="6.0132835060358047e-03" rms="4.9380421638488770e-01" purity="4.8613604903221130e-01" nType="-99"/>
            <Node pos="r" depth="3" NCoef="0" IVar="-1" Cut="0.0000000000000000e+00" cType="1" res="-8.3188181743025780e-03" rms="3.6726674437522888e-01" purity="1.6145978868007660e-01" nType="-99"/>
          </Node>
        </Node>
        <Node pos="r" depth="1" NCoef="0" IVar="0" Cut="2.0272460937500000e+02" cType="1" res="5.8159470558166504e-02" rms="4.2998254299163818e-01" purity="6.7592996358871460e-01" nType="0">
          <Node pos="l" depth="2" NCoef="0" IVar="2" Cut="3.2866924285888672e+01" cType="1" res="1.0223054885864258e-01" rms="4.0291494131088257e-01" purity="7.5141280889511108e-01" nType="0">
            <Node pos="l" depth="3" NCoef="0" IVar="-1" Cut="0.0000000000000000e+00" cType="1" res="-1.4614510582759976e-03" rms="4.7561886906623840e-01" purity="4.1054257750511169e-01" nType="-99"/>
            <Node pos="r" depth="3" NCoef="0" IVar="-1" Cut="0.0000000000000000e+00" cType="1" res="3.1288683414459229e-02" rms="3.7192311882972717e-01" purity="8.1948846578598022e-01" nType="-99"/>
          </Node>
          <Node pos="r" depth="2" NCoef="0" IVar="6" Cut="9.5599919557571411e-01" cType="1" res="-7.5536064803600311e-02" rms="4.7907233238220215e-01" purity="4.4694259762763977e-01" nType="0">
            <Node pos="l" depth="3" NCoef="0" IVar="-1" Cut="0.0000000000000000e+00" cType="1" res="-1.9927343353629112e-02" rms="4.6187654137611389e-01" purity="3.1001934409141541e-01" nType="-99"/>
            <Node pos="r" depth="3" NCoef="0" IVar="-1" Cut="0.0000000000000000e+00" cType="1" res="-8.2508556079119444e-04" rms="4.7897815704345703e-01" purity="5.3818720579147339e-01" nType="-99"/>
          </Node>
        </Node>
      </Node>
    </BinaryTree>
    <BinaryTree type="DecisionTree" boostWeight="1.0000000000000000e+00" itree="11">
      <Node pos="s" depth="0" NCoef="0" IVar="6" Cut="8.4455037117004395e-01" cType="1" res="-5.7027786970138550e-02" rms="4.4546076655387878e-01" purity="5.0000000000000000e-01" nType="0">
        <Node pos="l" depth="1" NCoef="0" IVar="2" Cut="5.0148494720458984e+01" cType="1" res="-2.2390112280845642e-01" rms="4.1994744539260864e-01" purity="2.2800809144973755e-01" nType="0">
          <Node pos="l" depth="2" NCoef="0" IVar="6" Cut="7.9163044691085815e-01" cType="1" res="-3.0369344353675842e-01" rms="3.7254780530929565e-01" purity="1.6567547619342804e-01" nType="0">
            <Node pos="l" depth="3" NCoef="0" IVar="-1" Cut="0.0000000000000000e+00" cType="1" res="-4.9029667861759663e-03" rms="3.4393361210823059e-01" purity="1.3706798851490021e-01" nType="-99"/>
            <Node pos="r" depth="3" NCoef="0" IVar="-1" Cut="0.0000000000000000e+00" cType="1" res="-1.6678106039762497e-02" rms="4.6379658579826355e-01" purity="3.1787654757499695e-01" nType="-99"/>
          </Node>
          <Node pos="r" depth="2" NCoef="0" IVar="13" Cut="1.9668508911132812e+02" cType="1" res="-1.3027398288249969e-01" rms="4.5188063383102417e-01" purity="3.0114832520484924e-01" nType="0">
            <Node pos="l" depth="3" NCoef="0" IVar="-1" Cut="0.0000000000000000e+00" cType="1" res="5.6100110523402691e-03" rms="4.9379995465278625e-01" purity="4.8613604903221130e-01" nType="-99"/>
            <Node pos="r" depth="3" NCoef="0" IVar="-1" Cut="0.0000000000000000e+00" cType="1" res="-8.2037523388862610e-03" rms="3.6726409196853638e-01" purity="1.6145978868007660e-01" nType="-99"/>
          </Node>
        </Node>
        <Node pos="r" depth="1" NCoef="0" IVar="0" Cut="2.0272460937500000e+02" cType="1" res="5.0909314304590225e-02" rms="4.2784866690635681e-01" purity="6.7592996358871460e-01" nType="0">
          <Node pos="l" depth="2" NCoef="0" IVar="2" Cut="3.2866924285888672e+01" cType="1" res="9.1213151812553406e-02" rms="4.0177908539772034e-01" purity="7.5141280889511108e-01" nType="0">
            <Node pos="l" depth="3" NCoef="0" IVar="-1" Cut="0.0000000000000000e+00" cType="1" res="-1.4522244455292821e-03" rms="4.7561541199684143e-01" purity="4.1054257750511169e-01" nType="-99"/>
            <Node pos="r" depth="3" NCoef="0" IVar="-1" Cut="0.0000000000000000e+00" cType="1" res="2.9010431841015816e-02" rms="3.7204498052597046e-01" purity="8.1948846578598022e-01" nType="-99"/>
          </Node>
          <Node pos="r" depth="2" NCoef="0" IVar="6" Cut="9.5599919557571411e-01" cType="1" res="-7.1357801556587219e-02" rms="4.7831889986991882e-01" purity="4.4694259762763977e-01" nType="0">
            <Node pos="l" depth="3" NCoef="0" IVar="-1" Cut="0.0000000000000000e+00" cType="1" res="-1.8788412213325500e-02" rms="4.6189296245574951e-01" purity="3.1001934409141541e-01" nType="-99"/>
            <Node pos="r" depth="3" NCoef="0" IVar="-1" Cut="0.0000000000000000e+00" cType="1" res="-7.9073564847931266e-04" rms="4.7897663712501526e-01" purity="5.3818720579147339e-01" nType="-99"/>
          </Node>
        </Node>
      </Node>
    </BinaryTree>
    <BinaryTree type="DecisionTree" boostWeight="1.0000000000000000e+00" itree="12">
      <Node pos="s" depth="0" NCoef="0" IVar="6" Cut="8.6466723680496216e-01" cType="1" res="-6.0085773468017578e-02" rms="4.4290342926979065e-01" purity="5.0000000000000000e-01" nType="0">
        <Node pos="l" depth="1" NCoef="0" IVar="2" Cut="5.0148494720458984e+01" cType="1" res="-2.1198806166648865e-01" rms="4.2583382129669189e-01" purity="2.4037778377532959e-01" nType="0">
          <Node pos="l" depth="2" NCoef="0" IVar="6" Cut="7.9277652502059937e-01" cType="1" res="-2.8819033503532410e-01" rms="3.8373601436614990e-01" purity="1.7861029505729675e-01" nType="0">
            <Node pos="l" depth="3" NCoef="0" IVar="-1" Cut="0.0000000000000000e+00" cType="1" res="-4.8846523277461529e-03" rms="3.4425288438796997e-01" purity="1.3735274970531464e-01" nType="-99"/>
            <Node pos="r" depth="3" NCoef="0" IVar="-1" Cut="0.0000000000000000e+00" cType="1" res="-1.6341915354132652e-02" rms="4.7217252850532532e-01" purity="3.4109023213386536e-01" nType="-99"/>
          </Node>
          <Node pos="r" depth="2" NCoef="0" IVar="13" Cut="1.9668508911132812e+02" cType="1" res="-1.2547515332698822e-01" rms="4.5381709933280945e-01" purity="3.1050279736518860e-01" nType="0">
            <Node pos="l" depth="3" NCoef="0" IVar="-1" Cut="0.0000000000000000e+00" cType="1" res="3.8457063492387533e-03" rms="4.9463695287704468e-01" purity="4.8976200819015503e-01" nType="-99"/>
            <Node pos="r" depth="3" NCoef="0" IVar="-1" Cut="0.0000000000000000e+00" cType="1" res="-8.4358975291252136e-03" rms="3.7464910745620728e-01" purity="1.7062956094741821e-01" nType="-99"/>
          </Node>
        </Node>
        <Node pos="r" depth="1" NCoef="0" IVar="2" Cut="3.2893367767333984e+01" cType="1" res="5.1181755959987640e-02" rms="4.2159616947174072e-01" purity="6.9017171859741211e-01" nType="0">
          <Node pos="l" depth="2" NCoef="0" IVar="5" Cut="3.2526809692382812e+01" cType="1" res="-1.0891681909561157e-01" rms="4.7526714205741882e-01" purity="4.1404896974563599e-01" nType="0">
            <Node pos="l" depth="3" NCoef="0" IVar="-1" Cut="0.0000000000000000e+00" cType="1" res="-2.2284402512013912e-03" rms="3.7529656291007996e-01" purity="1.8044136464595795e-01" nType="-99"/>
            <Node pos="r" depth="3" NCoef="0" IVar="-1" Cut="0.0000000000000000e+00" cType="1" res="1.3063596561551094e-02" rms="4.7050899267196655e-01" purity="6.2950485944747925e-01" nType="-99"/>
          </Node>
          <Node pos="r" depth="2" NCoef="0" IVar="0" Cut="2.0272460937500000e+02" cType="1" res="7.8196376562118530e-02" rms="4.0566769242286682e-01" purity="7.3676401376724243e-01" nType="0">
            <Node pos="l" depth="3" NCoef="0" IVar="-1" Cut="0.0000000000000000e+00" cType="1" res="3.1681329011917114e-02" rms="3.6285895109176636e-01" purity="8.3693975210189819e-01" nType="-99"/>
            <Node pos="r" depth="3" NCoef="0" IVar="-1" Cut="0.0000000000000000e+00" cType="1" res="-6.1900001019239426e-03" rms="4.7850698232650757e-01" purity="4.5676857233047485e-01" nType="-99"/>
          </Node>
        </Node>
      </Node>
    </BinaryTree>
    <BinaryTree type="DecisionTree" boostWeight="1.0000000000000000e+00" itree="13">
      <Node pos="s" depth="0" NCoef="0" IVar="6" Cut="9.3599069118499756e-01" cType="1" res="-6.3488304615020752e-02" rms="4.4032862782478333e-01" purity="5.0000000000000000e-01" nType="0">
        <Node pos="l" depth="1" NCoef="0" IVar="6" Cut="7.9098671674728394e-01" cType="1" res="-1.7755568027496338e-01" rms="4.4059938192367554e-01" purity="2.9439193010330200e-01" nType="0">
          <Node pos="l" depth="2" NCoef="0" IVar="2" Cut="5.0148494720458984e+01" cType="1" res="-2.4477519094944000e-01" rms="4.0227952599525452e-01" purity="1.9830673933029175e-01" nType="0">
            <Node pos="l" depth="3" NCoef="0" IVar="-1" Cut="0.0000000000000000e+00" cType="1" res="-4.8218225128948689e-03" rms="3.4425103664398193e-01" purity="1.3738279044628143e-01" nType="-99"/>
            <Node pos="r" depth="3" NCoef="0" IVar="-1" Cut="0.0000000000000000e+00" cType="1" res="-1.9731709733605385e-02" rms="4.4510602951049805e-01" purity="2.8308516740798950e-01" nType="-99"/>
          </Node>
          <Node pos="r" depth="2" NCoef="0" IVar="13" Cut="2.3391300964355469e+02" cType="1" res="-9.2396892607212067e-02" rms="4.7124332189559937e-01" purity="4.1611996293067932e-01" nType="0">
            <Node pos="l" depth="3" NCoef="0" IVar="-1" Cut="0.0000000000000000e+00" cType="1" res="-1.1838806094601750e-03" rms="4.8597091436386108e-01" purity="5.0815397500991821e-01" nType="-99"/>
            <Node pos="r" depth="3" NCoef="0" IVar="-1" Cut="0.0000000000000000e+00" cType="1" res="-5.5456566624343395e-03" rms="3.6752167344093323e-01" purity="1.5974189341068268e-01" nType="-99"/>
          </Node>
        </Node>
        <Node pos="r" depth="1" NCoef="0" IVar="13" Cut="2.7173822021484375e+02" cType="1" res="7.4621595442295074e-02" rms="3.9846250414848328e-01" purity="7.4894505739212036e-01" nType="0">
          <Node pos="l" depth="2" NCoef="0" IVar="3" Cut="5.6082328796386719e+01" cType="1" res="9.3129627406597137e-02" rms="3.8428956270217896e-01" purity="7.9143679141998291e-01" nType="0">
            <Node pos="l" depth="3" NCoef="0" IVar="-1" Cut="0.0000000000000000e+00" cType="1" res="3.7973519647493958e-04" rms="4.2235064506530762e-01" purity="6.9778078794479370e-01" nType="-99"/>
            <Node pos="r" depth="3" NCoef="0" IVar="-1" Cut="0.0000000000000000e+00" cType="1" res="3.6239437758922577e-02" rms="3.5746273398399353e-01" purity="8.3718162775039673e-01" nType="-99"/>
          </Node>
          <Node pos="r" depth="2" NCoef="0" IVar="-1" Cut="0.0000000000000000e+00" cType="1" res="-6.9922450929880142e-03" rms="4.7847840189933777e-01" purity="3.5562422871589661e-01" nType="-99"/>
        </Node>
      </Node>
    </BinaryTree>
    <BinaryTree type="DecisionTree" boostWeight="1.0000000000000000e+00" itree="14">
      <Node pos="s" depth="0" NCoef="0" IVar="6" Cut="8.4455037117004395e-01" cType="1" res="-6.5433949232101440e-02" rms="4.3812602758407593e-01" purity="5.0000000000000000e-01" nType="0">
        <Node pos="l" depth="1" NCoef="0" IVar="2" Cut="5.0148494720458984e+01" cType="1" res="-2.1461121737957001e-01" rms="4.1931310296058655e-01" purity="2.2800809144973755e-01" nType="0">
          <Node pos="l" depth="2" NCoef="0" IVar="6" Cut="7.9163044691085815e-01" cType="1" res="-2.9484516382217407e-01" rms="3.7323600053787231e-01" purity="1.6567547619342804e-01" nType="0">
            <Node pos="l" depth="3" NCoef="0" IVar="-1" Cut="0.0000000000000000e+00" cType="1" res="-4.8054116778075695e-03" rms="3.4393543004989624e-01" purity="1.3706798851490021e-01" nType="-99"/>
            <Node pos="r" depth="3" NCoef="0" IVar="-1" Cut="0.0000000000000000e+00" cType="1" res="-1.4723848551511765e-02" rms="4.6362715959548950e-01" purity="3.1787654757499695e-01" nType="-99"/>
          </Node>
          <Node pos="r" depth="2" NCoef="0" IVar="13" Cut="1.9668508911132812e+02" cType="1" res="-1.2046587467193604e-01" rms="4.4972947239875793e-01" purity="3.0114832520484924e-01" nType="0">
            <Node pos="l" depth="3" NCoef="0" IVar="-1" Cut="0.0000000000000000e+00" cType="1" res="6.0025257989764214e-03" rms="4.9325820803642273e-01" purity="4.8613604903221130e-01" nType="-99"/>
            <Node pos="r" depth="3" NCoef="0" IVar="-1" Cut="0.0000000000000000e+00" cType="1" res="-7.7690482139587402e-03" rms="3.6743983626365662e-01" purity="1.6145978868007660e-01" nType="-99"/>
          </Node>
        </Node>
        <Node pos="r" depth="1" NCoef="0" IVar="6" Cut="9.4125396013259888e-01" cType="1" res="3.1056962907314301e-02" rms="4.2270970344543457e-01" purity="6.7592996358871460e-01" nType="0">
          <Node pos="l" depth="2" NCoef="0" IVar="1" Cut="1.3275071382522583e+00" cType="1" res="-6.9979414343833923e-02" rms="4.7367867827415466e-01" purity="4.7235837578773499e-01" nType="0">
            <Node pos="l" depth="3" NCoef="0" IVar="-1" Cut="0.0000000000000000e+00" cType="1" res="1.9351512310095131e-04" rms="4.7086444497108459e-01" purity="5.5340325832366943e-01" nType="-99"/>
            <Node pos="r" depth="3" NCoef="0" IVar="-1" Cut="0.0000000000000000e+00" cType="1" res="-3.6076090764254332e-03" rms="4.5931744575500488e-01" purity="3.5786154866218567e-01" nType="-99"/>
          </Node>
          <Node pos="r" depth="2" NCoef="0" IVar="13" Cut="2.7173822021484375e+02" cType="1" res="6.9073967635631561e-02" rms="3.9522913098335266e-01" purity="7.5252789258956909e-01" nType="0">
            <Node pos="l" depth="3" NCoef="0" IVar="-1" Cut="0.0000000000000000e+00" cType="1" res="7.1661355905234814e-03" rms="3.8110044598579407e-01" purity="7.9543840885162354e-01" nType="-99"/>
            <Node pos="r" depth="3" NCoef="0" IVar="-1" Cut="0.0000000000000000e+00" cType="1" res="-6.8833888508379459e-03" rms="4.7732493281364441e-01" purity="3.5236155986785889e-01" nType="-99"/>
          </Node>
        </Node>
      </Node>
    </BinaryTree>
    <BinaryTree type="DecisionTree" boostWeight="1.0000000000000000e+00" itree="15">
      <Node pos="s" depth="0" NCoef="0" IVar="6" Cut="8.4455037117004395e-01" cType="1" res="-6.5498113632202148e-02" rms="4.3721592426300049e-01" purity="5.0000000000000000e-01" nType="0">
        <Node pos="l" depth="1" NCoef="0" IVar="2" Cut="5.0148494720458984e+01" cType="1" res="-2.1251340210437775e-01" rms="4.1873484849929810e-01" purity="2.2800809144973755e-01" nType="0">
          <Node pos="l" depth="2" NCoef="0" IVar="6" Cut="7.9163044691085815e-01" cType="1" res="-2.9168882966041565e-01" rms="3.7359985709190369e-01" purity="1.6567547619342804e-01" nType="0">
            <Node pos="l" depth="3" NCoef="0" IVar="-1" Cut="0.0000000000000000e+00" cType="1" res="-4.7737094573676586e-03" rms="3.4393543004989624e-01" purity="1.3706798851490021e-01" nType="-99"/>
            <Node pos="r" depth="3" NCoef="0" IVar="-1" Cut="0.0000000000000000e+00" cType="1" res="-1.3899880461394787e-02" rms="4.6363538503646851e-01" purity="3.1787654757499695e-01" nType="-99"/>
          </Node>
          <Node pos="r" depth="2" NCoef="0" IVar="13" Cut="2.4207394409179688e+02" cType="1" res="-1.1961007118225098e-01" rms="4.4868117570877075e-01" purity="3.0114832520484924e-01" nType="0">
            <Node pos="l" depth="3" NCoef="0" IVar="-1" Cut="0.0000000000000000e+00" cType="1" res="-1.0511687723919749e-03" rms="4.8638641834259033e-01" purity="4.2689725756645203e-01" nType="-99"/>
            <Node pos="r" depth="3" NCoef="0" IVar="-1" Cut="0.0000000000000000e+00" cType="1" res="-6.6831768490374088e-03" rms="3.1034156680107117e-01" purity="1.0622913390398026e-01" nType="-99"/>
          </Node>
        </Node>
        <Node pos="r" depth="1" NCoef="0" IVar="6" Cut="9.4125396013259888e-01" cType="1" res="2.9594382271170616e-02" rms="4.2233529686927795e-01" purity="6.7592996358871460e-01" nType="0">
          <Node pos="l" depth="2" NCoef="0" IVar="1" Cut="1.3275071382522583e+00" cType="1" res="-6.9309823215007782e-02" rms="4.7351324558258057e-01" purity="4.7235837578773499e-01" nType="0">
            <Node pos="l" depth="3" NCoef="0" IVar="-1" Cut="0.0000000000000000e+00" cType="1" res="1.7492710321675986e-04" rms="4.7086504101753235e-01" purity="5.5340325832366943e-01" nType="-99"/>
            <Node pos="r" depth="3" NCoef="0" IVar="-1" Cut="0.0000000000000000e+00" cType="1" res="-3.5707503557205200e-03" rms="4.5930397510528564e-01" purity="3.5786154866218567e-01" nType="-99"/>
          </Node>
          <Node pos="r" depth="2" NCoef="0" IVar="9" Cut="1.4511503601074219e+02" cType="1" res="6.6809110343456268e-02" rms="3.9503210783004761e-01" purity="7.5252789258956909e-01" nType="0">
            <Node pos="l" depth="3" NCoef="0" IVar="-1" Cut="0.0000000000000000e+00" cType="1" res="3.2486744225025177e-02" rms="3.4330826997756958e-01" purity="8.4455370903015137e-01" nType="-99"/>
            <Node pos="r" depth="3" NCoef="0" IVar="-1" Cut="0.0000000000000000e+00" cType="1" res="1.2533183908089995e-03" rms="4.2123791575431824e-01" purity="6.8936520814895630e-01" nType="-99"/>
          </Node>
        </Node>
      </Node>
    </BinaryTree>
    <BinaryTree type="DecisionTree" boostWeight="1.0000000000000000e+00" itree="16">
      <Node pos="s" depth="0" NCoef="0" IVar="6" Cut="8.4455037117004395e-01" cType="1" res="-6.6870734095573425e-02" rms="4.3580535054206848e-01" purity="5.0000000000000000e-01" nType="0">
        <Node pos="l" depth="1" NCoef="0" IVar="2" Cut="5.0148494720458984e+01" cType="1" res="-2.1013483405113220e-01" rms="4.1854327917098999e-01" purity="2.2800809144973755e-01" nType="0">
          <Node pos="l" depth="2" NCoef="0" IVar="6" Cut="7.9163044691085815e-01" cType="1" res="-2.8861555457115173e-01" rms="3.7393978238105774e-01" purity="1.6567547619342804e-01" nType="0">
            <Node pos="l" depth="3" NCoef="0" IVar="-1" Cut="0.0000000000000000e+00" cType="1" res="-4.7424109652638435e-03" rms="3.4393543004989624e-01" purity="1.3706798851490021e-01" nType="-99"/>
            <Node pos="r" depth="3" NCoef="0" IVar="-1" Cut="0.0000000000000000e+00" cType="1" res="-1.3123526237905025e-02" rms="4.6364384889602661e-01" purity="3.1787654757499695e-01" nType="-99"/>
          </Node>
          <Node pos="r" depth="2" NCoef="0" IVar="13" Cut="1.9668508911132812e+02" cType="1" res="-1.1804670840501785e-01" rms="4.4827154278755188e-01" purity="3.0114832520484924e-01" nType="0">
            <Node pos="l" depth="3" NCoef="0" IVar="-1" Cut="0.0000000000000000e+00" cType="1" res="5.6702415458858013e-03" rms="4.9325469136238098e-01" purity="4.8613604903221130e-01" nType="-99"/>
            <Node pos="r" depth="3" NCoef="0" IVar="-1" Cut="0.0000000000000000e+00" cType="1" res="-7.6030679047107697e-03" rms="3.6716583371162415e-01" purity="1.6145978868007660e-01" nType="-99"/>
          </Node>
        </Node>
        <Node pos="r" depth="1" NCoef="0" IVar="2" Cut="3.2893367767333984e+01" cType="1" res="2.5795424357056618e-02" rms="4.2142939567565918e-01" purity="6.7592996358871460e-01" nType="0">
          <Node pos="l" depth="2" NCoef="0" IVar="5" Cut="3.2526809692382812e+01" cType="1" res="-1.1822323501110077e-01" rms="4.6966809034347534e-01" purity="4.1331845521926880e-01" nType="0">
            <Node pos="l" depth="3" NCoef="0" IVar="-1" Cut="0.0000000000000000e+00" cType="1" res="-2.2996375337243080e-03" rms="3.7284305691719055e-01" purity="1.8280129134654999e-01" nType="-99"/>
            <Node pos="r" depth="3" NCoef="0" IVar="-1" Cut="0.0000000000000000e+00" cType="1" res="1.0069656185805798e-02" rms="4.6950826048851013e-01" purity="6.1927628517150879e-01" nType="-99"/>
          </Node>
          <Node pos="r" depth="2" NCoef="0" IVar="0" Cut="2.0272460937500000e+02" cType="1" res="4.9969393759965897e-02" rms="4.0782549977302551e-01" purity="7.2001010179519653e-01" nType="0">
            <Node pos="l" depth="3" NCoef="0" IVar="-1" Cut="0.0000000000000000e+00" cType="1" res="2.2214971482753754e-02" rms="3.7001204490661621e-01" purity="8.1972813606262207e-01" nType="-99"/>
            <Node pos="r" depth="3" NCoef="0" IVar="-1" Cut="0.0000000000000000e+00" cType="1" res="-7.1323243901133537e-03" rms="4.7596678137779236e-01" purity="4.4880419969558716e-01" nType="-99"/>
          </Node>
        </Node>
      </Node>
    </BinaryTree>
    <BinaryTree type="DecisionTree" boostWeight="1.0000000000000000e+00" itree="17">
      <Node pos="s" depth="0" NCoef="0" IVar="6" Cut="8.4455037117004395e-01" cType="1" res="-6.9027990102767944e-02" rms="4.3410438299179077e-01" purity="5.0000000000000000e-01" nType="0">
        <Node pos="l" depth="1" NCoef="0" IVar="2" Cut="5.0148494720458984e+01" cType="1" res="-2.0811830461025238e-01" rms="4.1799864172935486e-01" purity="2.2800809144973755e-01" nType="0">
          <Node pos="l" depth="2" NCoef="0" IVar="6" Cut="7.9163044691085815e-01" cType="1" res="-2.8562110662460327e-01" rms="3.7425589561462402e-01" purity="1.6567547619342804e-01" nType="0">
            <Node pos="l" depth="3" NCoef="0" IVar="-1" Cut="0.0000000000000000e+00" cType="1" res="-4.7115068882703781e-03" rms="3.4393543004989624e-01" purity="1.3706798851490021e-01" nType="-99"/>
            <Node pos="r" depth="3" NCoef="0" IVar="-1" Cut="0.0000000000000000e+00" cType="1" res="-1.2391320429742336e-02" rms="4.6365252137184143e-01" purity="3.1787654757499695e-01" nType="-99"/>
          </Node>
          <Node pos="r" depth="2" NCoef="0" IVar="13" Cut="2.4207394409179688e+02" cType="1" res="-1.1717765778303146e-01" rms="4.4729033112525940e-01" purity="3.0114832520484924e-01" nType="0">
            <Node pos="l" depth="3" NCoef="0" IVar="-1" Cut="0.0000000000000000e+00" cType="1" res="-1.1120338458567858e-03" rms="4.8593854904174805e-01" purity="4.2689725756645203e-01" nType="-99"/>
            <Node pos="r" depth="3" NCoef="0" IVar="-1" Cut="0.0000000000000000e+00" cType="1" res="-6.5526901744306087e-03" rms="3.1032121181488037e-01" purity="1.0622913390398026e-01" nType="-99"/>
          </Node>
        </Node>
        <Node pos="r" depth="1" NCoef="0" IVar="6" Cut="9.5671314001083374e-01" cType="1" res="2.0938482135534286e-02" rms="4.2037597298622131e-01" purity="6.7592996358871460e-01" nType="0">
          <Node pos="l" depth="2" NCoef="0" IVar="1" Cut="1.4012355804443359e+00" cType="1" res="-6.1110202223062515e-02" rms="4.6607348322868347e-01" purity="5.0921696424484253e-01" nType="0">
            <Node pos="l" depth="3" NCoef="0" IVar="-1" Cut="0.0000000000000000e+00" cType="1" res="3.1195214251056314e-04" rms="4.6001991629600525e-01" purity="5.8508247137069702e-01" nType="-99"/>
            <Node pos="r" depth="3" NCoef="0" IVar="-1" Cut="0.0000000000000000e+00" cType="1" res="-3.6815651692450047e-03" rms="4.5767673850059509e-01" purity="3.8455674052238464e-01" nType="-99"/>
          </Node>
          <Node pos="r" depth="2" NCoef="0" IVar="9" Cut="1.4447795104980469e+02" cType="1" res="6.2039755284786224e-02" rms="3.8905283808708191e-01" purity="7.5944274663925171e-01" nType="0">
            <Node pos="l" depth="3" NCoef="0" IVar="-1" Cut="0.0000000000000000e+00" cType="1" res="4.1126288473606110e-02" rms="3.2757994532585144e-01" purity="8.6337715387344360e-01" nType="-99"/>
            <Node pos="r" depth="3" NCoef="0" IVar="-1" Cut="0.0000000000000000e+00" cType="1" res="1.0257433168590069e-03" rms="4.1861158609390259e-01" purity="6.9218254089355469e-01" nType="-99"/>
          </Node>
        </Node>
      </Node>
    </BinaryTree>
    <BinaryTree type="DecisionTree" boostWeight="1.0000000000000000e+00" itree="18">
      <Node pos="s" depth="0" NCoef="0" IVar="6" Cut="8.4455037117004395e-01" cType="1" res="-7.0534795522689819e-02" rms="4.3265160918235779e-01" purity="5.0000000000000000e-01" nType="0">
        <Node pos="l" depth="1" NCoef="0" IVar="2" Cut="5.0148494720458984e+01" cType="1" res="-2.0582908391952515e-01" rms="4.1781440377235413e-01" purity="2.2800809144973755e-01" nType="0">
          <Node pos="l" depth="2" NCoef="0" IVar="6" Cut="7.9163044691085815e-01" cType="1" res="-2.8270161151885986e-01" rms="3.7454843521118164e-01" purity="1.6567547619342804e-01" nType="0">
            <Node pos="l" depth="3" NCoef="0" IVar="-1" Cut="0.0000000000000000e+00" cType="1" res="-4.6809879131615162e-03" rms="3.4393540024757385e-01" purity="1.3706798851490021e-01" nType="-99"/>
            <Node pos="r" depth="3" NCoef="0" IVar="-1" Cut="0.0000000000000000e+00" cType="1" res="-1.1700209230184555e-02" rms="4.6366122364997864e-01" purity="3.1787654757499695e-01" nType="-99"/>
          </Node>
          <Node pos="r" depth="2" NCoef="0" IVar="13" Cut="2.4207394409179688e+02" cType="1" res="-1.1562795937061310e-01" rms="4.4690605998039246e-01" purity="3.0114832520484924e-01" nType="0">
            <Node pos="l" depth="3" NCoef="0" IVar="-1" Cut="0.0000000000000000e+00" cType="1" res="-1.0279081761837006e-03" rms="4.8594009876251221e-01" purity="4.2689725756645203e-01" nType="-99"/>
            <Node pos="r" depth="3" NCoef="0" IVar="-1" Cut="0.0000000000000000e+00" cType="1" res="-6.4936638809740543e-03" rms="3.1031143665313721e-01" purity="1.0622913390398026e-01" nType="-99"/>
          </Node>
        </Node>
        <Node pos="r" depth="1" NCoef="0" IVar="2" Cut="3.2893367767333984e+01" cType="1" res="1.6976326704025269e-02" rms="4.1934636235237122e-01" purity="6.7592996358871460e-01" nType="0">
          <Node pos="l" depth="2" NCoef="0" IVar="5" Cut="3.2526809692382812e+01" cType="1" res="-1.2304007261991501e-01" rms="4.6686804294586182e-01" purity="4.1331845521926880e-01" nType="0">
            <Node pos="l" depth="3" NCoef="0" IVar="-1" Cut="0.0000000000000000e+00" cType="1" res="-2.3010810837149620e-03" rms="3.7191003561019897e-01" purity="1.8280129134654999e-01" nType="-99"/>
            <Node pos="r" depth="3" NCoef="0" IVar="-1" Cut="0.0000000000000000e+00" cType="1" res="8.7485210970044136e-03" rms="4.6833103895187378e-01" purity="6.1927628517150879e-01" nType="-99"/>
          </Node>
          <Node pos="r" depth="2" NCoef="0" IVar="0" Cut="2.3391300964355469e+02" cType="1" res="4.0478501468896866e-02" rms="4.0612721443176270e-01" purity="7.2001010179519653e-01" nType="0">
            <Node pos="l" depth="3" NCoef="0" IVar="-1" Cut="0.0000000000000000e+00" cType="1" res="1.4044797047972679e-02" rms="3.8720291852951050e-01" purity="7.9057520627975464e-01" nType="-99"/>
            <Node pos="r" depth="3" NCoef="0" IVar="-1" Cut="0.0000000000000000e+00" cType="1" res="-1.2668500654399395e-02" rms="4.6322312951087952e-01" purity="3.5120829939842224e-01" nType="-99"/>
          </Node>
        </Node>
      </Node>
    </BinaryTree>
    <BinaryTree type="DecisionTree" boostWeight="1.0000000000000000e+00" itree="19">
      <Node pos="s" depth="0" NCoef="0" IVar="6" Cut="8.4455037117004395e-01" cType="1" res="-7.1653686463832855e-02" rms="4.3145796656608582e-01" purity="5.0000000000000000e-01" nType="0">
        <Node pos="l" depth="1" NCoef="0" IVar="2" Cut="5.0148494720458984e+01" cType="1" res="-2.0359644293785095e-01" rms="4.1762456297874451e-01" purity="2.2800809144973755e-01" nType="0">
          <Node pos="l" depth="2" NCoef="0" IVar="6" Cut="7.9163044691085815e-01" cType="1" res="-2.7985337376594543e-01" rms="3.7481781840324402e-01" purity="1.6567547619342804e-01" nType="0">
            <Node pos="l" depth="3" NCoef="0" IVar="-1" Cut="0.0000000000000000e+00" cType="1" res="-4.6508451923727989e-03" rms="3.4393537044525146e-01" purity="1.3706798851490021e-01" nType="-99"/>
            <Node pos="r" depth="3" NCoef="0" IVar="-1" Cut="0.0000000000000000e+00" cType="1" res="-1.1047468520700932e-02" rms="4.6366995573043823e-01" purity="3.1787654757499695e-01" nType="-99"/>
          </Node>
          <Node pos="r" depth="2" NCoef="0" IVar="13" Cut="1.9668508911132812e+02" cType="1" res="-1.1411768198013306e-01" rms="4.4652426242828369e-01" purity="3.0114832520484924e-01" nType="0">
            <Node pos="l" depth="3" NCoef="0" IVar="-1" Cut="0.0000000000000000e+00" cType="1" res="5.4338080808520317e-03" rms="4.9325236678123474e-01" purity="4.8613604903221130e-01" nType="-99"/>
            <Node pos="r" depth="3" NCoef="0" IVar="-1" Cut="0.0000000000000000e+00" cType="1" res="-7.3839304968714714e-03" rms="3.6665421724319458e-01" purity="1.6145978868007660e-01" nType="-99"/>
          </Node>
        </Node>
        <Node pos="r" depth="1" NCoef="0" IVar="2" Cut="3.2893367767333984e+01" cType="1" res="1.3689596205949783e-02" rms="4.1858026385307312e-01" purity="6.7592996358871460e-01" nType="0">
          <Node pos="l" depth="2" NCoef="0" IVar="5" Cut="3.2526809692382812e+01" cType="1" res="-1.2472829222679138e-01" rms="4.6578279137611389e-01" purity="4.1331845521926880e-01" nType="0">
            <Node pos="l" depth="3" NCoef="0" IVar="-1" Cut="0.0000000000000000e+00" cType="1" res="-2.2931552957743406e-03" rms="3.7190559506416321e-01" purity="1.8280129134654999e-01" nType="-99"/>
            <Node pos="r" depth="3" NCoef="0" IVar="-1" Cut="0.0000000000000000e+00" cType="1" res="8.1200581043958664e-03" rms="4.6835142374038696e-01" purity="6.1927628517150879e-01" nType="-99"/>
          </Node>
          <Node pos="r" depth="2" NCoef="0" IVar="0" Cut="2.0272460937500000e+02" cType="1" res="3.6923456937074661e-02" rms="4.0552034974098206e-01" purity="7.2001010179519653e-01" nType="0">
            <Node pos="l" depth="3" NCoef="0" IVar="-1" Cut="0.0000000000000000e+00" cType="1" res="1.8612224608659744e-02" rms="3.6962619423866272e-01" purity="8.1972813606262207e-01" nType="-99"/>
            <Node pos="r" depth="3" NCoef="0" IVar="-1" Cut="0.0000000000000000e+00" cType="1" res="-6.9732158444821835e-03" rms="4.7428253293037415e-01" purity="4.4880419969558716e-01" nType="-99"/>
          </Node>
        </Node>
      </Node>
    </BinaryTree>
    <BinaryTree type="DecisionTree" boostWeight="1.0000000000000000e+00" itree="20">
      <Node pos="s" depth="0" NCoef="0" IVar="6" Cut="9.3599069118499756e-01" cType="1" res="-7.3179796338081360e-02" rms="4.3012610077857971e-01" purity="5.0000000000000000e-01" nType="0">
        <Node pos="l" depth="1" NCoef="0" IVar="2" Cut="4.8625709533691406e+01" cType="1" res="-1.6751590371131897e-01" rms="4.3650272488594055e-01" purity="2.9439193010330200e-01" nType="0">
          <Node pos="l" depth="2" NCoef="0" IVar="6" Cut="7.9249697923660278e-01" cType="1" res="-2.4168299138545990e-01" rms="4.0969780087471008e-01" purity="2.2648797929286957e-01" nType="0">
            <Node pos="l" depth="3" NCoef="0" IVar="-1" Cut="0.0000000000000000e+00" cType="1" res="-5.3833336569368839e-03" rms="3.5189858078956604e-01" purity="1.4470610022544861e-01" nType="-99"/>
            <Node pos="r" depth="3" NCoef="0" IVar="-1" Cut="0.0000000000000000e+00" cType="1" res="-4.1004447266459465e-03" rms="4.6982640027999878e-01" purity="3.5602125525474548e-01" nType="-99"/>
          </Node>
          <Node pos="r" depth="2" NCoef="0" IVar="13" Cut="2.3391300964355469e+02" cType="1" res="-9.7873434424400330e-02" rms="4.4924154877662659e-01" purity="3.5815337300300598e-01" nType="0">
            <Node pos="l" depth="3" NCoef="0" IVar="-1" Cut="0.0000000000000000e+00" cType="1" res="-4.2813038453459740e-04" rms="4.7614187002182007e-01" purity="4.8171558976173401e-01" nType="-99"/>
            <Node pos="r" depth="3" NCoef="0" IVar="-1" Cut="0.0000000000000000e+00" cType="1" res="-8.0915298312902451e-03" rms="3.4320741891860962e-01" purity="1.3651445508003235e-01" nType="-99"/>
          </Node>
        </Node>
        <Node pos="r" depth="1" NCoef="0" IVar="11" Cut="6.8764045715332031e+01" cType="1" res="4.1039995849132538e-02" rms="3.9306020736694336e-01" purity="7.4894505739212036e-01" nType="0">
          <Node pos="l" depth="2" NCoef="0" IVar="5" Cut="3.7571849822998047e+01" cType="1" res="-7.1247301995754242e-02" rms="4.2023131251335144e-01" purity="6.0052019357681274e-01" nType="0">
            <Node pos="l" depth="3" NCoef="0" IVar="-1" Cut="0.0000000000000000e+00" cType="1" res="-2.0170172210782766e-03" rms="4.2043420672416687e-01" purity="4.2593508958816528e-01" nType="-99"/>
            <Node pos="r" depth="3" NCoef="0" IVar="-1" Cut="0.0000000000000000e+00" cType="1" res="2.4541990831494331e-02" rms="3.7675008177757263e-01" purity="7.9149192571640015e-01" nType="-99"/>
          </Node>
          <Node pos="r" depth="2" NCoef="0" IVar="13" Cut="1.9883283996582031e+02" cType="1" res="5.7720005512237549e-02" rms="3.8608619570732117e-01" purity="7.7099323272705078e-01" nType="0">
            <Node pos="l" depth="3" NCoef="0" IVar="-1" Cut="0.0000000000000000e+00" cType="1" res="2.2785877808928490e-02" rms="3.4369274973869324e-01" purity="8.5748922824859619e-01" nType="-99"/>
            <Node pos="r" depth="3" NCoef="0" IVar="-1" Cut="0.0000000000000000e+00" cType="1" res="-1.8970642704516649e-03" rms="4.7047778964042664e-01" purity="5.4457890987396240e-01" nType="-99"/>
          </Node>
        </Node>
      </Node>
    </BinaryTree>
    <BinaryTree type="DecisionTree" boostWeight="1.0000000000000000e+00" itree="21">
      <Node pos="s" depth="0" NCoef="0" IVar="6" Cut="7.9151499271392822e-01" cType="1" res="-7.4493668973445892e-02" rms="4.2882075905799866e-01" purity="5.0000000000000000e-01" nType="0">
        <Node pos="l" depth="1" NCoef="0" IVar="2" Cut="5.0148494720458984e+01" cType="1" res="-2.2657775878906250e-01" rms="4.0055504441261292e-01" purity="1.9858138263225555e-01" nType="0">
          <Node pos="l" depth="2" NCoef="0" IVar="11" Cut="7.6630081176757812e+01" cType="1" res="-3.1108668446540833e-01" rms="3.4398683905601501e-01" purity="1.3707286119461060e-01" nType="0">
            <Node pos="l" depth="3" NCoef="0" IVar="-1" Cut="0.0000000000000000e+00" cType="1" res="-4.1631376370787621e-03" rms="2.8974094986915588e-01" purity="9.2455133795738220e-02" nType="-99"/>
            <Node pos="r" depth="3" NCoef="0" IVar="-1" Cut="0.0000000000000000e+00" cType="1" res="-5.7426663115620613e-03" rms="3.9899039268493652e-01" purity="1.9861954450607300e-01" nType="-99"/>
          </Node>
          <Node pos="r" depth="2" NCoef="0" IVar="13" Cut="1.8155546569824219e+02" cType="1" res="-1.0940379649400711e-01" rms="4.4182494282722473e-01" purity="2.8386461734771729e-01" nType="0">
            <Node pos="l" depth="3" NCoef="0" IVar="-1" Cut="0.0000000000000000e+00" cType="1" res="5.2244318649172783e-03" rms="4.9851432442665100e-01" purity="4.6373140811920166e-01" nType="-99"/>
            <Node pos="r" depth="3" NCoef="0" IVar="-1" Cut="0.0000000000000000e+00" cType="1" res="-3.1489096581935883e-02" rms="3.8529914617538452e-01" purity="1.8614152073860168e-01" nType="-99"/>
          </Node>
        </Node>
        <Node pos="r" depth="1" NCoef="0" IVar="13" Cut="2.6510140991210938e+02" cType="1" res="-7.0475279353559017e-03" rms="4.2364752292633057e-01" purity="6.3367289304733276e-01" nType="0">
          <Node pos="l" depth="2" NCoef="0" IVar="2" Cut="3.2866924285888672e+01" cType="1" res="2.2110946476459503e-02" rms="4.1608110070228577e-01" purity="6.9927406311035156e-01" nType="0">
            <Node pos="l" depth="3" NCoef="0" IVar="-1" Cut="0.0000000000000000e+00" cType="1" res="-1.9805557094514370e-03" rms="4.6057239174842834e-01" purity="3.9952233433723450e-01" nType="-99"/>
            <Node pos="r" depth="3" NCoef="0" IVar="-1" Cut="0.0000000000000000e+00" cType="1" res="1.0813416913151741e-02" rms="4.0080037713050842e-01" purity="7.5520360469818115e-01" nType="-99"/>
          </Node>
          <Node pos="r" depth="2" NCoef="0" IVar="6" Cut="9.0885621309280396e-01" cType="1" res="-1.7769004404544830e-01" rms="4.2727774381637573e-01" purity="2.4975888431072235e-01" nType="0">
            <Node pos="l" depth="3" NCoef="0" IVar="-1" Cut="0.0000000000000000e+00" cType="1" res="-4.2045456357300282e-03" rms="3.3813256025314331e-01" purity="1.3184034824371338e-01" nType="-99"/>
            <Node pos="r" depth="3" NCoef="0" IVar="-1" Cut="0.0000000000000000e+00" cType="1" res="-7.6453518122434616e-03" rms="4.7277966141700745e-01" purity="3.4976121783256531e-01" nType="-99"/>
          </Node>
        </Node>
      </Node>
    </BinaryTree>
    <BinaryTree type="DecisionTree" boostWeight="1.0000000000000000e+00" itree="22">
      <Node pos="s" depth="0" NCoef="0" IVar="6" Cut="9.3599069118499756e-01" cType="1" res="-7.4655681848526001e-02" rms="4.2764216661453247e-01" purity="5.0000000000000000e-01" nType="0">
        <Node pos="l" depth="1" NCoef="0" IVar="2" Cut="4.8625709533691406e+01" cType="1" res="-1.6381086409091949e-01" rms="4.3514609336853027e-01" purity="2.9439193010330200e-01" nType="0">
          <Node pos="l" depth="2" NCoef="0" IVar="6" Cut="7.9249697923660278e-01" cType="1" res="-2.3851376771926880e-01" rms="4.0903496742248535e-01" purity="2.2648797929286957e-01" nType="0">
            <Node pos="l" depth="3" NCoef="0" IVar="-1" Cut="0.0000000000000000e+00" cType="1" res="-5.3053842857480049e-03" rms="3.5193130373954773e-01" purity="1.4470610022544861e-01" nType="-99"/>
            <Node pos="r" depth="3" NCoef="0" IVar="-1" Cut="0.0000000000000000e+00" cType="1" res="-4.0979371406137943e-03" rms="4.6933585405349731e-01" purity="3.5602125525474548e-01" nType="-99"/>
          </Node>
          <Node pos="r" depth="2" NCoef="0" IVar="13" Cut="2.3391300964355469e+02" cType="1" res="-9.3665257096290588e-02" rms="4.4708997011184692e-01" purity="3.5815337300300598e-01" nType="0">
            <Node pos="l" depth="3" NCoef="0" IVar="-1" Cut="0.0000000000000000e+00" cType="1" res="-4.1595447692088783e-04" rms="4.7491884231567383e-01" purity="4.8171558976173401e-01" nType="-99"/>
            <Node pos="r" depth="3" NCoef="0" IVar="-1" Cut="0.0000000000000000e+00" cType="1" res="-7.7760885469615459e-03" rms="3.4337148070335388e-01" purity="1.3651445508003235e-01" nType="-99"/>
          </Node>
        </Node>
        <Node pos="r" depth="1" NCoef="0" IVar="5" Cut="1.8942369461059570e+01" cType="1" res="3.3291179686784744e-02" rms="3.9212542772293091e-01" purity="7.4894505739212036e-01" nType="0">
          <Node pos="l" depth="2" NCoef="0" IVar="-1" Cut="0.0000000000000000e+00" cType="1" res="-1.4306087978184223e-03" rms="4.3629735708236694e-01" purity="5.6472647190093994e-01" nType="-99"/>
          <Node pos="r" depth="2" NCoef="0" IVar="13" Cut="1.9883283996582031e+02" cType="1" res="4.9026828259229660e-02" rms="3.8306063413619995e-01" purity="7.7385503053665161e-01" nType="0">
            <Node pos="l" depth="3" NCoef="0" IVar="-1" Cut="0.0000000000000000e+00" cType="1" res="2.3925051093101501e-02" rms="3.4041160345077515e-01" purity="8.6095291376113892e-01" nType="-99"/>
            <Node pos="r" depth="3" NCoef="0" IVar="-1" Cut="0.0000000000000000e+00" cType="1" res="-2.4481881409883499e-03" rms="4.7044569253921509e-01" purity="5.4038220643997192e-01" nType="-99"/>
          </Node>
        </Node>
      </Node>
    </BinaryTree>
    <BinaryTree type="DecisionTree" boostWeight="1.0000000000000000e+00" itree="23">
      <Node pos="s" depth="0" NCoef="0" IVar="6" Cut="7.9151499271392822e-01" cType="1" res="-7.5755119323730469e-02" rms="4.2646846175193787e-01" purity="5.0000000000000000e-01" nType="0">
        <Node pos="l" depth="1" NCoef="0" IVar="2" Cut="5.0148494720458984e+01" cType="1" res="-2.1960508823394775e-01" rms="4.0021225810050964e-01" purity="1.9858138263225555e-01" nType="0">
          <Node pos="l" depth="2" NCoef="0" IVar="11" Cut="7.6630081176757812e+01" cType="1" res="-3.0627918243408203e-01" rms="3.4409305453300476e-01" purity="1.3707286119461060e-01" nType="0">
            <Node pos="l" depth="3" NCoef="0" IVar="-1" Cut="0.0000000000000000e+00" cType="1" res="-4.1189100593328476e-03" rms="2.8981566429138184e-01" purity="9.2455133795738220e-02" nType="-99"/>
            <Node pos="r" depth="3" NCoef="0" IVar="-1" Cut="0.0000000000000000e+00" cType="1" res="-5.6318822316825390e-03" rms="3.9897394180297852e-01" purity="1.9861954450607300e-01" nType="-99"/>
          </Node>
          <Node pos="r" depth="2" NCoef="0" IVar="13" Cut="1.8155546569824219e+02" cType="1" res="-9.9429070949554443e-02" rms="4.3957525491714478e-01" purity="2.8386461734771729e-01" nType="0">
            <Node pos="l" depth="3" NCoef="0" IVar="-1" Cut="0.0000000000000000e+00" cType="1" res="4.8784790560603142e-03" rms="4.9851426482200623e-01" purity="4.6373140811920166e-01" nType="-99"/>
            <Node pos="r" depth="3" NCoef="0" IVar="-1" Cut="0.0000000000000000e+00" cType="1" res="-2.9198778793215752e-02" rms="3.8507086038589478e-01" purity="1.8614152073860168e-01" nType="-99"/>
          </Node>
        </Node>
        <Node pos="r" depth="1" NCoef="0" IVar="13" Cut="2.6510140991210938e+02" cType="1" res="-1.1960637755692005e-02" rms="4.2220222949981689e-01" purity="6.3367289304733276e-01" nType="0">
          <Node pos="l" depth="2" NCoef="0" IVar="2" Cut="3.2866924285888672e+01" cType="1" res="1.5441427938640118e-02" rms="4.1518896818161011e-01" purity="6.9927406311035156e-01" nType="0">
            <Node pos="l" depth="3" NCoef="0" IVar="-1" Cut="0.0000000000000000e+00" cType="1" res="-1.9994506146758795e-03" rms="4.5892307162284851e-01" purity="3.9952233433723450e-01" nType="-99"/>
            <Node pos="r" depth="3" NCoef="0" IVar="-1" Cut="0.0000000000000000e+00" cType="1" res="9.3367444351315498e-03" rms="4.0051099658012390e-01" purity="7.5520360469818115e-01" nType="-99"/>
          </Node>
          <Node pos="r" depth="2" NCoef="0" IVar="6" Cut="9.0885621309280396e-01" cType="1" res="-1.7232421040534973e-01" rms="4.2721563577651978e-01" purity="2.4975888431072235e-01" nType="0">
            <Node pos="l" depth="3" NCoef="0" IVar="-1" Cut="0.0000000000000000e+00" cType="1" res="-4.1390177793800831e-03" rms="3.3810192346572876e-01" purity="1.3184034824371338e-01" nType="-99"/>
            <Node pos="r" depth="3" NCoef="0" IVar="-1" Cut="0.0000000000000000e+00" cType="1" res="-7.2148353792726994e-03" rms="4.7272613644599915e-01" purity="3.4976121783256531e-01" nType="-99"/>
          </Node>
        </Node>
      </Node>
    </BinaryTree>
    <BinaryTree type="DecisionTree" boostWeight="1.0000000000000000e+00" itree="24">
      <Node pos="s" depth="0" NCoef="0" IVar="6" Cut="9.4147706031799316e-01" cType="1" res="-7.5721994042396545e-02" rms="4.2548564076423645e-01" purity="5.0000000000000000e-01" nType="0">
        <Node pos="l" depth="1" NCoef="0" IVar="11" Cut="7.6978050231933594e+01" cType="1" res="-1.5823587775230408e-01" rms="4.3441429734230042e-01" purity="3.0117297172546387e-01" nType="0">
          <Node pos="l" depth="2" NCoef="0" IVar="0" Cut="1.4835534667968750e+02" cType="1" res="-2.5881165266036987e-01" rms="3.9103594422340393e-01" purity="2.1199540793895721e-01" nType="0">
            <Node pos="l" depth="3" NCoef="0" IVar="-1" Cut="0.0000000000000000e+00" cType="1" res="-3.0917476397007704e-03" rms="3.2625561952590942e-01" purity="1.2986841797828674e-01" nType="-99"/>
            <Node pos="r" depth="3" NCoef="0" IVar="-1" Cut="0.0000000000000000e+00" cType="1" res="-4.1707612574100494e-02" rms="4.4368076324462891e-01" purity="3.2362639904022217e-01" nType="-99"/>
          </Node>
          <Node pos="r" depth="2" NCoef="0" IVar="3" Cut="1.0044748687744141e+02" cType="1" res="-1.0711517184972763e-01" rms="4.4627434015274048e-01" purity="3.4650018811225891e-01" nType="0">
            <Node pos="l" depth="3" NCoef="0" IVar="-1" Cut="0.0000000000000000e+00" cType="1" res="-5.7892617769539356e-03" rms="4.6655663847923279e-01" purity="4.3003574013710022e-01" nType="-99"/>
            <Node pos="r" depth="3" NCoef="0" IVar="-1" Cut="0.0000000000000000e+00" cType="1" res="-5.0040222704410553e-03" rms="3.7127354741096497e-01" purity="1.8761786818504333e-01" nType="-99"/>
          </Node>
        </Node>
        <Node pos="r" depth="1" NCoef="0" IVar="7" Cut="7.8396858215332031e+01" cType="1" res="2.9216654598712921e-02" rms="3.8936185836791992e-01" purity="7.5286215543746948e-01" nType="0">
          <Node pos="l" depth="2" NCoef="0" IVar="3" Cut="5.6753231048583984e+01" cType="1" res="-6.2009734101593494e-03" rms="4.0249326825141907e-01" purity="7.2950512170791626e-01" nType="0">
            <Node pos="l" depth="3" NCoef="0" IVar="-1" Cut="0.0000000000000000e+00" cType="1" res="-2.5998996570706367e-03" rms="4.2844462394714355e-01" purity="6.3135141134262085e-01" nType="-99"/>
            <Node pos="r" depth="3" NCoef="0" IVar="-1" Cut="0.0000000000000000e+00" cType="1" res="1.0044196620583534e-02" rms="3.7604612112045288e-01" purity="7.8919768333435059e-01" nType="-99"/>
          </Node>
          <Node pos="r" depth="2" NCoef="0" IVar="13" Cut="2.7165795898437500e+02" cType="1" res="8.6833968758583069e-02" rms="3.5961997509002686e-01" purity="7.9085952043533325e-01" nType="0">
            <Node pos="l" depth="3" NCoef="0" IVar="-1" Cut="0.0000000000000000e+00" cType="1" res="5.0474207848310471e-02" rms="3.1701612472534180e-01" purity="8.8277137279510498e-01" nType="-99"/>
            <Node pos="r" depth="3" NCoef="0" IVar="-1" Cut="0.0000000000000000e+00" cType="1" res="-3.5934757906943560e-03" rms="4.8513284325599670e-01" purity="3.8225349783897400e-01" nType="-99"/>
          </Node>
        </Node>
      </Node>
    </BinaryTree>
    <BinaryTree type="DecisionTree" boostWeight="1.0000000000000000e+00" itree="25">
      <Node pos="s" depth="0" NCoef="0" IVar="6" Cut="7.9151499271392822e-01" cType="1" res="-7.5778804719448090e-02" rms="4.2386505007743835e-01" purity="5.0000000000000000e-01" nType="0">
        <Node pos="l" depth="1" NCoef="0" IVar="2" Cut="5.0148494720458984e+01" cType="1" res="-2.1007165312767029e-01" rms="4.0011453628540039e-01" purity="1.9858138263225555e-01" nType="0">
          <Node pos="l" depth="2" NCoef="0" IVar="13" Cut="1.4793492126464844e+02" cType="1" res="-2.9796820878982544e-01" rms="3.4455043077468872e-01" purity="1.3707286119461060e-01" nType="0">
            <Node pos="l" depth="3" NCoef="0" IVar="-1" Cut="0.0000000000000000e+00" cType="1" res="-3.2889274880290031e-03" rms="2.7559903264045715e-01" purity="8.2561597228050232e-02" nType="-99"/>
            <Node pos="r" depth="3" NCoef="0" IVar="-1" Cut="0.0000000000000000e+00" cType="1" res="-7.5490358285605907e-03" rms="3.8639894127845764e-01" purity="1.8306779861450195e-01" nType="-99"/>
          </Node>
          <Node pos="r" depth="2" NCoef="0" IVar="13" Cut="2.4207394409179688e+02" cType="1" res="-8.8200651109218597e-02" rms="4.3806037306785583e-01" purity="2.8386461734771729e-01" nType="0">
            <Node pos="l" depth="3" NCoef="0" IVar="-1" Cut="0.0000000000000000e+00" cType="1" res="-2.7288333512842655e-03" rms="4.7942844033241272e-01" purity="3.7871211767196655e-01" nType="-99"/>
            <Node pos="r" depth="3" NCoef="0" IVar="-1" Cut="0.0000000000000000e+00" cType="1" res="-4.9615144729614258e-02" rms="3.1328484416007996e-01" purity="1.1031910032033920e-01" nType="-99"/>
          </Node>
        </Node>
        <Node pos="r" depth="1" NCoef="0" IVar="13" Cut="2.6510140991210938e+02" cType="1" res="-1.6222706064581871e-02" rms="4.2047065496444702e-01" purity="6.3367289304733276e-01" nType="0">
          <Node pos="l" depth="2" NCoef="0" IVar="2" Cut="3.2866924285888672e+01" cType="1" res="9.6632391214370728e-03" rms="4.1383150219917297e-01" purity="6.9927406311035156e-01" nType="0">
            <Node pos="l" depth="3" NCoef="0" IVar="-1" Cut="0.0000000000000000e+00" cType="1" res="-1.9688808824867010e-03" rms="4.5821180939674377e-01" purity="3.9952233433723450e-01" nType="-99"/>
            <Node pos="r" depth="3" NCoef="0" IVar="-1" Cut="0.0000000000000000e+00" cType="1" res="7.8795300796627998e-03" rms="3.9962008595466614e-01" purity="7.5520360469818115e-01" nType="-99"/>
          </Node>
          <Node pos="r" depth="2" NCoef="0" IVar="6" Cut="9.0885621309280396e-01" cType="1" res="-1.6771356761455536e-01" rms="4.2701345682144165e-01" purity="2.4975888431072235e-01" nType="0">
            <Node pos="l" depth="3" NCoef="0" IVar="-1" Cut="0.0000000000000000e+00" cType="1" res="-4.0679532103240490e-03" rms="3.3811065554618835e-01" purity="1.3184034824371338e-01" nType="-99"/>
            <Node pos="r" depth="3" NCoef="0" IVar="-1" Cut="0.0000000000000000e+00" cType="1" res="-6.9098980166018009e-03" rms="4.7273424267768860e-01" purity="3.4976121783256531e-01" nType="-99"/>
          </Node>
        </Node>
      </Node>
    </BinaryTree>
    <BinaryTree type="DecisionTree" boostWeight="1.0000000000000000e+00" itree="26">
      <Node pos="s" depth="0" NCoef="0" IVar="6" Cut="7.9151499271392822e-01" cType="1" res="-7.5300492346286774e-02" rms="4.2295283079147339e-01" purity="5.0000000000000000e-01" nType="0">
        <Node pos="l" depth="1" NCoef="0" IVar="2" Cut="5.0148494720458984e+01" cType="1" res="-2.0496389269828796e-01" rms="4.0004619956016541e-01" purity="1.9858138263225555e-01" nType="0">
          <Node pos="l" depth="2" NCoef="0" IVar="13" Cut="1.4793492126464844e+02" cType="1" res="-2.9522141814231873e-01" rms="3.4471607208251953e-01" purity="1.3707286119461060e-01" nType="0">
            <Node pos="l" depth="3" NCoef="0" IVar="-1" Cut="0.0000000000000000e+00" cType="1" res="-3.2765872310847044e-03" rms="2.7559870481491089e-01" purity="8.2561597228050232e-02" nType="-99"/>
            <Node pos="r" depth="3" NCoef="0" IVar="-1" Cut="0.0000000000000000e+00" cType="1" res="-7.4511081911623478e-03" rms="3.8639947772026062e-01" purity="1.8306779861450195e-01" nType="-99"/>
          </Node>
          <Node pos="r" depth="2" NCoef="0" IVar="0" Cut="1.8155546569824219e+02" cType="1" res="-7.9819366335868835e-02" rms="4.3613791465759277e-01" purity="2.8386461734771729e-01" nType="0">
            <Node pos="l" depth="3" NCoef="0" IVar="-1" Cut="0.0000000000000000e+00" cType="1" res="5.3468821570277214e-03" rms="4.9795889854431152e-01" purity="4.6372613310813904e-01" nType="-99"/>
            <Node pos="r" depth="3" NCoef="0" IVar="-1" Cut="0.0000000000000000e+00" cType="1" res="-2.5216111913323402e-02" rms="3.8389825820922852e-01" purity="1.8614268302917480e-01" nType="-99"/>
          </Node>
        </Node>
        <Node pos="r" depth="1" NCoef="0" IVar="13" Cut="2.6510140991210938e+02" cType="1" res="-1.7797466367483139e-02" rms="4.2010354995727539e-01" purity="6.3367289304733276e-01" nType="0">
          <Node pos="l" depth="2" NCoef="0" IVar="2" Cut="3.2866924285888672e+01" cType="1" res="7.3556136339902878e-03" rms="4.1367724537849426e-01" purity="6.9927406311035156e-01" nType="0">
            <Node pos="l" depth="3" NCoef="0" IVar="-1" Cut="0.0000000000000000e+00" cType="1" res="-1.9547252450138330e-03" rms="4.5819881558418274e-01" purity="3.9952233433723450e-01" nType="-99"/>
            <Node pos="r" depth="3" NCoef="0" IVar="-1" Cut="0.0000000000000000e+00" cType="1" res="7.2799907065927982e-03" rms="3.9968320727348328e-01" purity="7.5520360469818115e-01" nType="-99"/>
          </Node>
          <Node pos="r" depth="2" NCoef="0" IVar="6" Cut="9.0885621309280396e-01" cType="1" res="-1.6499942541122437e-01" rms="4.2716857790946960e-01" purity="2.4975888431072235e-01" nType="0">
            <Node pos="l" depth="3" NCoef="0" IVar="-1" Cut="0.0000000000000000e+00" cType="1" res="-4.0445737540721893e-03" rms="3.3811017870903015e-01" purity="1.3184034824371338e-01" nType="-99"/>
            <Node pos="r" depth="3" NCoef="0" IVar="-1" Cut="0.0000000000000000e+00" cType="1" res="-6.6357669420540333e-03" rms="4.7273319959640503e-01" purity="3.4976121783256531e-01" nType="-99"/>
          </Node>
        </Node>
      </Node>
    </BinaryTree>
    <BinaryTree type="DecisionTree" boostWeight="1.0000000000000000e+00" itree="27">
      <Node pos="s" depth="0" NCoef="0" IVar="6" Cut="8.6466723680496216e-01" cType="1" res="-7.4999734759330750e-02" rms="4.2220157384872437e-01" purity="5.0000000000000000e-01" nType="0">
        <Node pos="l" depth="1" NCoef="0" IVar="2" Cut="5.0148494720458984e+01" cType="1" res="-1.7336764931678772e-01" rms="4.2000895738601685e-01" purity="2.4037778377532959e-01" nType="0">
          <Node pos="l" depth="2" NCoef="0" IVar="6" Cut="7.9277652502059937e-01" cType="1" res="-2.4918042123317719e-01" rms="3.8351905345916748e-01" purity="1.7861029505729675e-01" nType="0">
            <Node pos="l" depth="3" NCoef="0" IVar="-1" Cut="0.0000000000000000e+00" cType="1" res="-4.3534161522984505e-03" rms="3.4516364336013794e-01" purity="1.3735274970531464e-01" nType="-99"/>
            <Node pos="r" depth="3" NCoef="0" IVar="-1" Cut="0.0000000000000000e+00" cType="1" res="-1.1783570982515812e-02" rms="4.7039300203323364e-01" purity="3.4109023213386536e-01" nType="-99"/>
          </Node>
          <Node pos="r" depth="2" NCoef="0" IVar="13" Cut="2.1181469726562500e+02" cType="1" res="-8.7296970188617706e-02" rms="4.4244998693466187e-01" purity="3.1050279736518860e-01" nType="0">
            <Node pos="l" depth="3" NCoef="0" IVar="-1" Cut="0.0000000000000000e+00" cType="1" res="2.2037019953131676e-03" rms="4.8873853683471680e-01" purity="4.6491587162017822e-01" nType="-99"/>
            <Node pos="r" depth="3" NCoef="0" IVar="-1" Cut="0.0000000000000000e+00" cType="1" res="-6.0941576957702637e-03" rms="3.5578638315200806e-01" purity="1.4795795083045959e-01" nType="-99"/>
          </Node>
        </Node>
        <Node pos="r" depth="1" NCoef="0" IVar="2" Cut="3.2893367767333984e+01" cType="1" res="-2.9458135832101107e-03" rms="4.0905654430389404e-01" purity="6.9017171859741211e-01" nType="0">
          <Node pos="l" depth="2" NCoef="0" IVar="5" Cut="3.2526809692382812e+01" cType="1" res="-1.3046483695507050e-01" rms="4.5928719639778137e-01" purity="4.1404896974563599e-01" nType="0">
            <Node pos="l" depth="3" NCoef="0" IVar="-1" Cut="0.0000000000000000e+00" cType="1" res="-2.2246483713388443e-03" rms="3.6358752846717834e-01" purity="1.8044136464595795e-01" nType="-99"/>
            <Node pos="r" depth="3" NCoef="0" IVar="-1" Cut="0.0000000000000000e+00" cType="1" res="7.0714056491851807e-03" rms="4.6589028835296631e-01" purity="6.2950485944747925e-01" nType="-99"/>
          </Node>
          <Node pos="r" depth="2" NCoef="0" IVar="0" Cut="2.0272460937500000e+02" cType="1" res="1.8571415916085243e-02" rms="3.9592993259429932e-01" purity="7.3676401376724243e-01" nType="0">
            <Node pos="l" depth="3" NCoef="0" IVar="-1" Cut="0.0000000000000000e+00" cType="1" res="1.4900727197527885e-02" rms="3.6036664247512817e-01" purity="8.3693975210189819e-01" nType="-99"/>
            <Node pos="r" depth="3" NCoef="0" IVar="-1" Cut="0.0000000000000000e+00" cType="1" res="-6.5760319121181965e-03" rms="4.7129991650581360e-01" purity="4.5676857233047485e-01" nType="-99"/>
          </Node>
        </Node>
      </Node>
    </BinaryTree>
    <BinaryTree type="DecisionTree" boostWeight="1.0000000000000000e+00" itree="28">
      <Node pos="s" depth="0" NCoef="0" IVar="6" Cut="9.4147706031799316e-01" cType="1" res="-7.5661204755306244e-02" rms="4.2135745286941528e-01" purity="5.0000000000000000e-01" nType="0">
        <Node pos="l" depth="1" NCoef="0" IVar="2" Cut="4.8625709533691406e+01" cType="1" res="-1.4878787100315094e-01" rms="4.3253520131111145e-01" purity="3.0117297172546387e-01" nType="0">
          <Node pos="l" depth="2" NCoef="0" IVar="6" Cut="7.9229515790939331e-01" cType="1" res="-2.2211720049381256e-01" rms="4.0971201658248901e-01" purity="2.3307463526725769e-01" nType="0">
            <Node pos="l" depth="3" NCoef="0" IVar="-1" Cut="0.0000000000000000e+00" cType="1" res="-5.0055054016411304e-03" rms="3.5257145762443542e-01" purity="1.4471174776554108e-01" nType="-99"/>
            <Node pos="r" depth="3" NCoef="0" IVar="-1" Cut="0.0000000000000000e+00" cType="1" res="-4.0248399600386620e-03" rms="4.6935722231864929e-01" purity="3.6699366569519043e-01" nType="-99"/>
          </Node>
          <Node pos="r" depth="2" NCoef="0" IVar="13" Cut="2.3391300964355469e+02" cType="1" res="-8.0551788210868835e-02" rms="4.4194394350051880e-01" purity="3.6454132199287415e-01" nType="0">
            <Node pos="l" depth="3" NCoef="0" IVar="-1" Cut="0.0000000000000000e+00" cType="1" res="-3.9327976992353797e-04" rms="4.7089752554893494e-01" purity="4.8810863494873047e-01" nType="-99"/>
            <Node pos="r" depth="3" NCoef="0" IVar="-1" Cut="0.0000000000000000e+00" cType="1" res="-6.9262292236089706e-03" rms="3.4783175587654114e-01" purity="1.4121082425117493e-01" nType="-99"/>
          </Node>
        </Node>
        <Node pos="r" depth="1" NCoef="0" IVar="5" Cut="4.1206012725830078e+01" cType="1" res="1.7339067533612251e-02" rms="3.8723859190940857e-01" purity="7.5286215543746948e-01" nType="0">
          <Node pos="l" depth="2" NCoef="0" IVar="12" Cut="4.7429332733154297e+01" cType="1" res="-3.4486625343561172e-02" rms="4.0984323620796204e-01" purity="7.0064383745193481e-01" nType="0">
            <Node pos="l" depth="3" NCoef="0" IVar="-1" Cut="0.0000000000000000e+00" cType="1" res="-3.3926030155271292e-03" rms="4.4564855098724365e-01" purity="5.4728645086288452e-01" nType="-99"/>
            <Node pos="r" depth="3" NCoef="0" IVar="-1" Cut="0.0000000000000000e+00" cType="1" res="1.5201992355287075e-02" rms="3.5452413558959961e-01" purity="8.1329202651977539e-01" nType="-99"/>
          </Node>
          <Node pos="r" depth="2" NCoef="0" IVar="2" Cut="7.1256881713867188e+01" cType="1" res="5.1847301423549652e-02" rms="3.6739265918731689e-01" purity="7.8763192892074585e-01" nType="0">
            <Node pos="l" depth="3" NCoef="0" IVar="-1" Cut="0.0000000000000000e+00" cType="1" res="4.1493732482194901e-02" rms="3.3187153935432434e-01" purity="8.5630434751510620e-01" nType="-99"/>
            <Node pos="r" depth="3" NCoef="0" IVar="-1" Cut="0.0000000000000000e+00" cType="1" res="-6.4604711951687932e-04" rms="4.0806567668914795e-01" purity="6.8510365486145020e-01" nType="-99"/>
          </Node>
        </Node>
      </Node>
    </BinaryTree>
    <BinaryTree type="DecisionTree" boostWeight="1.0000000000000000e+00" itree="29">
      <Node pos="s" depth="0" NCoef="0" IVar="6" Cut="7.9151499271392822e-01" cType="1" res="-7.7257379889488220e-02" rms="4.2005157470703125e-01" purity="5.0000000000000000e-01" nType="0">
        <Node pos="l" depth="1" NCoef="0" IVar="2" Cut="5.0148494720458984e+01" cType="1" res="-1.9749772548675537e-01" rms="3.9946842193603516e-01" purity="1.9858138263225555e-01" nType="0">
          <Node pos="l" depth="2" NCoef="0" IVar="13" Cut="1.4793492126464844e+02" cType="1" res="-2.8811708092689514e-01" rms="3.4492647647857666e-01" purity="1.3707286119461060e-01" nType="0">
            <Node pos="l" depth="3" NCoef="0" IVar="-1" Cut="0.0000000000000000e+00" cType="1" res="-3.2317950390279293e-03" rms="2.7567830681800842e-01" purity="8.2561597228050232e-02" nType="-99"/>
            <Node pos="r" depth="3" NCoef="0" IVar="-1" Cut="0.0000000000000000e+00" cType="1" res="-7.2368439286947250e-03" rms="3.8639116287231445e-01" purity="1.8306779861450195e-01" nType="-99"/>
          </Node>
          <Node pos="r" depth="2" NCoef="0" IVar="0" Cut="1.8155546569824219e+02" cType="1" res="-7.1851514279842377e-02" rms="4.3439170718193054e-01" purity="2.8386461734771729e-01" nType="0">
            <Node pos="l" depth="3" NCoef="0" IVar="-1" Cut="0.0000000000000000e+00" cType="1" res="4.8321788199245930e-03" rms="4.9795737862586975e-01" purity="4.6372613310813904e-01" nType="-99"/>
            <Node pos="r" depth="3" NCoef="0" IVar="-1" Cut="0.0000000000000000e+00" cType="1" res="-2.3184482008218765e-02" rms="3.8362953066825867e-01" purity="1.8614268302917480e-01" nType="-99"/>
          </Node>
        </Node>
        <Node pos="r" depth="1" NCoef="0" IVar="13" Cut="2.6510140991210938e+02" cType="1" res="-2.3933282122015953e-02" rms="4.1793406009674072e-01" purity="6.3367289304733276e-01" nType="0">
          <Node pos="l" depth="2" NCoef="0" IVar="2" Cut="3.2866924285888672e+01" cType="1" res="-7.0242822403088212e-04" rms="4.1208037734031677e-01" purity="6.9927406311035156e-01" nType="0">
            <Node pos="l" depth="3" NCoef="0" IVar="-1" Cut="0.0000000000000000e+00" cType="1" res="-1.9963651429861784e-03" rms="4.5490908622741699e-01" purity="3.9952233433723450e-01" nType="-99"/>
            <Node pos="r" depth="3" NCoef="0" IVar="-1" Cut="0.0000000000000000e+00" cType="1" res="5.3753326646983624e-03" rms="3.9882859587669373e-01" purity="7.5520360469818115e-01" nType="-99"/>
          </Node>
          <Node pos="r" depth="2" NCoef="0" IVar="6" Cut="9.0885621309280396e-01" cType="1" res="-1.5988591313362122e-01" rms="4.2598289251327515e-01" purity="2.4975888431072235e-01" nType="0">
            <Node pos="l" depth="3" NCoef="0" IVar="-1" Cut="0.0000000000000000e+00" cType="1" res="-3.9456342346966267e-03" rms="3.3790698647499084e-01" purity="1.3184034824371338e-01" nType="-99"/>
            <Node pos="r" depth="3" NCoef="0" IVar="-1" Cut="0.0000000000000000e+00" cType="1" res="-6.4473324455320835e-03" rms="4.7195687890052795e-01" purity="3.4976121783256531e-01" nType="-99"/>
          </Node>
        </Node>
      </Node>
    </BinaryTree>
    <BinaryTree type="DecisionTree" boostWeight="1.0000000000000000e+00" itree="30">
      <Node pos="s" depth="0" NCoef="0" IVar="6" Cut="7.9151499271392822e-01" cType="1" res="-7.6683297753334045e-02" rms="4.1946846246719360e-01" purity="5.0000000000000000e-01" nType="0">
        <Node pos="l" depth="1" NCoef="0" IVar="2" Cut="5.0148494720458984e+01" cType="1" res="-1.9363905489444733e-01" rms="3.9949569106101990e-01" purity="1.9858138263225555e-01" nType="0">
          <Node pos="l" depth="2" NCoef="0" IVar="13" Cut="1.4793492126464844e+02" cType="1" res="-2.8548312187194824e-01" rms="3.4508642554283142e-01" purity="1.3707286119461060e-01" nType="0">
            <Node pos="l" depth="3" NCoef="0" IVar="-1" Cut="0.0000000000000000e+00" cType="1" res="-3.2199250999838114e-03" rms="2.7567788958549500e-01" purity="8.2561597228050232e-02" nType="-99"/>
            <Node pos="r" depth="3" NCoef="0" IVar="-1" Cut="0.0000000000000000e+00" cType="1" res="-7.1449023671448231e-03" rms="3.8639178872108459e-01" purity="1.8306779861450195e-01" nType="-99"/>
          </Node>
          <Node pos="r" depth="2" NCoef="0" IVar="13" Cut="2.4207394409179688e+02" cType="1" res="-6.6294707357883453e-02" rms="4.3342313170433044e-01" purity="2.8386461734771729e-01" nType="0">
