<?xml version="1.0"?>
<MethodSetup Method="MLP::MLP">
  <GeneralInfo>
    <Info name="TMVA Release" value="4.2.1 [262657]"/>
    <Info name="ROOT Release" value="6.08/07 [395271]"/>
    <Info name="Creator" value="wverbeke"/>
    <Info name="Date" value="Wed Nov 22 22:00:45 2017"/>
    <Info name="Host" value="Linux vocms0302.cern.ch 2.6.32-696.1.1.el6.x86_64 #1 SMP Wed Apr 12 08:44:28 CEST 2017 x86_64 x86_64 x86_64 GNU/Linux"/>
    <Info name="Dir" value="/storage_mnt/storage/user/wverbeke/Work/AnalysisCode/ewkino/bdtTraining"/>
    <Info name="Training events" value="8493"/>
    <Info name="TrainingTime" value="7.25241342e+01"/>
    <Info name="AnalysisType" value="Classification"/>
  </GeneralInfo>
  <Options>
    <Option name="NCycles" modified="Yes">600</Option>
    <Option name="HiddenLayers" modified="Yes">N+5</Option>
    <Option name="NeuronType" modified="Yes">tanh</Option>
    <Option name="RandomSeed" modified="No">1</Option>
    <Option name="EstimatorType" modified="No">CE</Option>
    <Option name="NeuronInputType" modified="No">sum</Option>
    <Option name="V" modified="Yes">False</Option>
    <Option name="VerbosityLevel" modified="No">Default</Option>
    <Option name="VarTransform" modified="Yes">N</Option>
    <Option name="H" modified="Yes">True</Option>
    <Option name="CreateMVAPdfs" modified="No">False</Option>
    <Option name="IgnoreNegWeightsInTraining" modified="No">False</Option>
    <Option name="TrainingMethod" modified="No">BP</Option>
    <Option name="LearningRate" modified="No">2.000000e-02</Option>
    <Option name="DecayRate" modified="No">1.000000e-02</Option>
    <Option name="TestRate" modified="Yes">5</Option>
    <Option name="EpochMonitoring" modified="No">False</Option>
    <Option name="Sampling" modified="No">1.000000e+00</Option>
    <Option name="SamplingEpoch" modified="No">1.000000e+00</Option>
    <Option name="SamplingImportance" modified="No">1.000000e+00</Option>
    <Option name="SamplingTraining" modified="No">True</Option>
    <Option name="SamplingTesting" modified="No">False</Option>
    <Option name="ResetStep" modified="No">50</Option>
    <Option name="Tau" modified="No">3.000000e+00</Option>
    <Option name="BPMode" modified="No">sequential</Option>
    <Option name="BatchSize" modified="No">-1</Option>
    <Option name="ConvergenceImprove" modified="No">1.000000e-30</Option>
    <Option name="ConvergenceTests" modified="No">-1</Option>
    <Option name="UseRegulator" modified="Yes">False</Option>
    <Option name="UpdateLimit" modified="No">10000</Option>
    <Option name="CalculateErrors" modified="No">False</Option>
    <Option name="WeightRange" modified="No">1.000000e+00</Option>
  </Options>
  <Variables NVar="15">
    <Variable VarIndex="0" Expression="topMass" Label="topMass" Title="topMass" Unit="" Internal="topMass" Type="F" Min="0.00000000e+00" Max="3.07674805e+03"/>
    <Variable VarIndex="1" Expression="etaMostForward" Label="etaMostForward" Title="etaMostForward" Unit="" Internal="etaMostForward" Type="F" Min="2.39020665e-05" Max="2.39936209e+00"/>
    <Variable VarIndex="2" Expression="pTLeadingJet" Label="pTLeadingJet" Title="pTLeadingJet" Unit="" Internal="pTLeadingJet" Type="F" Min="2.50015526e+01" Max="1.60782019e+03"/>
    <Variable VarIndex="3" Expression="pTLeadingLepton" Label="pTLeadingLepton" Title="pTLeadingLepton" Unit="" Internal="pTLeadingLepton" Type="F" Min="2.57762833e+01" Max="7.21943726e+02"/>
    <Variable VarIndex="4" Expression="mNotSoForwardJets" Label="mNotSoForwardJets" Title="mNotSoForwardJets" Unit="" Internal="mNotSoForwardJets" Type="F" Min="0.00000000e+00" Max="1.87814194e+02"/>
    <Variable VarIndex="5" Expression="missingET" Label="missingET" Title="missingET" Unit="" Internal="missingET" Type="F" Min="3.47164243e-01" Max="7.46419983e+02"/>
    <Variable VarIndex="6" Expression="highestDeepCSV" Label="highestDeepCSV" Title="highestDeepCSV" Unit="" Internal="highestDeepCSV" Type="F" Min="6.32408917e-01" Max="9.99999762e-01"/>
    <Variable VarIndex="7" Expression="minMlb" Label="minMlb" Title="minMlb" Unit="" Internal="minMlb" Type="F" Min="-2.77515961e+02" Max="7.94788940e+02"/>
    <Variable VarIndex="8" Expression="etaZ" Label="etaZ" Title="etaZ" Unit="" Internal="etaZ" Type="F" Min="1.20927762e-04" Max="5.54380512e+00"/>
    <Variable VarIndex="9" Expression="m3l" Label="m3l" Title="m3l" Unit="" Internal="m3l" Type="F" Min="8.69279938e+01" Max="1.28550098e+03"/>
    <Variable VarIndex="10" Expression="maxDeltaPhill" Label="maxDeltaPhill" Title="maxDeltaPhill" Unit="" Internal="maxDeltaPhill" Type="F" Min="2.29072571e-02" Max="3.14157152e+00"/>
    <Variable VarIndex="11" Expression="pTMaxlb" Label="pTMaxlb" Title="pTMaxlb" Unit="" Internal="pTMaxlb" Type="F" Min="2.37251358e+01" Max="1.70798035e+03"/>
    <Variable VarIndex="12" Expression="pT3l" Label="pT3l" Title="pT3l" Unit="" Internal="pT3l" Type="F" Min="1.03410971e+00" Max="9.90706665e+02"/>
    <Variable VarIndex="13" Expression="mForwardJetsLeadinBJetW" Label="mForwardJetsLeadinBJetW" Title="mForwardJetsLeadinBJetW" Unit="" Internal="mForwardJetsLeadinBJetW" Type="F" Min="0.00000000e+00" Max="3.07674805e+03"/>
    <Variable VarIndex="14" Expression="ht" Label="ht" Title="ht" Unit="" Internal="ht" Type="F" Min="2.50015526e+01" Max="1.60782019e+03"/>
  </Variables>
  <Spectators NSpec="0"/>
  <Classes NClass="2">
    <Class Name="Signal" Index="0"/>
    <Class Name="Background" Index="1"/>
  </Classes>
  <Transformations NTransformations="1">
    <Transform Name="Normalize">
      <Selection>
        <Input NInputs="15">
          <Input Type="Variable" Label="topMass" Expression="topMass"/>
          <Input Type="Variable" Label="etaMostForward" Expression="etaMostForward"/>
          <Input Type="Variable" Label="pTLeadingJet" Expression="pTLeadingJet"/>
          <Input Type="Variable" Label="pTLeadingLepton" Expression="pTLeadingLepton"/>
          <Input Type="Variable" Label="mNotSoForwardJets" Expression="mNotSoForwardJets"/>
          <Input Type="Variable" Label="missingET" Expression="missingET"/>
          <Input Type="Variable" Label="highestDeepCSV" Expression="highestDeepCSV"/>
          <Input Type="Variable" Label="minMlb" Expression="minMlb"/>
          <Input Type="Variable" Label="etaZ" Expression="etaZ"/>
          <Input Type="Variable" Label="m3l" Expression="m3l"/>
          <Input Type="Variable" Label="maxDeltaPhill" Expression="maxDeltaPhill"/>
          <Input Type="Variable" Label="pTMaxlb" Expression="pTMaxlb"/>
          <Input Type="Variable" Label="pT3l" Expression="pT3l"/>
          <Input Type="Variable" Label="mForwardJetsLeadinBJetW" Expression="mForwardJetsLeadinBJetW"/>
          <Input Type="Variable" Label="ht" Expression="ht"/>
        </Input>
        <Output NOutputs="15">
          <Output Type="Variable" Label="topMass" Expression="topMass"/>
          <Output Type="Variable" Label="etaMostForward" Expression="etaMostForward"/>
          <Output Type="Variable" Label="pTLeadingJet" Expression="pTLeadingJet"/>
          <Output Type="Variable" Label="pTLeadingLepton" Expression="pTLeadingLepton"/>
          <Output Type="Variable" Label="mNotSoForwardJets" Expression="mNotSoForwardJets"/>
          <Output Type="Variable" Label="missingET" Expression="missingET"/>
          <Output Type="Variable" Label="highestDeepCSV" Expression="highestDeepCSV"/>
          <Output Type="Variable" Label="minMlb" Expression="minMlb"/>
          <Output Type="Variable" Label="etaZ" Expression="etaZ"/>
          <Output Type="Variable" Label="m3l" Expression="m3l"/>
          <Output Type="Variable" Label="maxDeltaPhill" Expression="maxDeltaPhill"/>
          <Output Type="Variable" Label="pTMaxlb" Expression="pTMaxlb"/>
          <Output Type="Variable" Label="pT3l" Expression="pT3l"/>
          <Output Type="Variable" Label="mForwardJetsLeadinBJetW" Expression="mForwardJetsLeadinBJetW"/>
          <Output Type="Variable" Label="ht" Expression="ht"/>
        </Output>
      </Selection>
      <Class ClassIndex="0">
        <Ranges>
          <Range Index="0" Min="8.4452453613281250e+01" Max="1.0466470947265625e+03"/>
          <Range Index="1" Min="7.7091564889997244e-04" Max="2.3992807865142822e+00"/>
          <Range Index="2" Min="2.5034605026245117e+01" Max="6.1611621093750000e+02"/>
          <Range Index="3" Min="2.5776283264160156e+01" Max="4.8765811157226562e+02"/>
          <Range Index="4" Min="0.0000000000000000e+00" Max="1.4731059265136719e+02"/>
          <Range Index="5" Min="1.0290584564208984e+00" Max="4.4765673828125000e+02"/>
          <Range Index="6" Min="6.3293558359146118e-01" Max="9.9999958276748657e-01"/>
          <Range Index="7" Min="-2.7751596069335938e+02" Max="5.6577288818359375e+02"/>
          <Range Index="8" Min="1.0255144443362951e-03" Max="5.5438051223754883e+00"/>
          <Range Index="9" Min="9.1282531738281250e+01" Max="8.9746545410156250e+02"/>
          <Range Index="10" Min="3.7097728252410889e-01" Max="3.1414756774902344e+00"/>
          <Range Index="11" Min="2.3725135803222656e+01" Max="6.3197283935546875e+02"/>
          <Range Index="12" Min="1.1689796447753906e+00" Max="6.9485974121093750e+02"/>
          <Range Index="13" Min="8.4452453613281250e+01" Max="1.0466470947265625e+03"/>
          <Range Index="14" Min="2.5034605026245117e+01" Max="6.1611621093750000e+02"/>
        </Ranges>
      </Class>
      <Class ClassIndex="1">
        <Ranges>
          <Range Index="0" Min="0.0000000000000000e+00" Max="3.0767480468750000e+03"/>
          <Range Index="1" Min="2.3902066459413618e-05" Max="2.3993620872497559e+00"/>
          <Range Index="2" Min="2.5001552581787109e+01" Max="1.6078201904296875e+03"/>
          <Range Index="3" Min="2.5932292938232422e+01" Max="7.2194372558593750e+02"/>
          <Range Index="4" Min="0.0000000000000000e+00" Max="1.8781419372558594e+02"/>
          <Range Index="5" Min="3.4716424345970154e-01" Max="7.4641998291015625e+02"/>
          <Range Index="6" Min="6.3240891695022583e-01" Max="9.9999976158142090e-01"/>
          <Range Index="7" Min="-1.6317929077148438e+02" Max="7.9478894042968750e+02"/>
          <Range Index="8" Min="1.2092776159988716e-04" Max="5.4959783554077148e+00"/>
          <Range Index="9" Min="8.6927993774414062e+01" Max="1.2855009765625000e+03"/>
          <Range Index="10" Min="2.2907257080078125e-02" Max="3.1415715217590332e+00"/>
          <Range Index="11" Min="2.7453392028808594e+01" Max="1.7079803466796875e+03"/>
          <Range Index="12" Min="1.0341097116470337e+00" Max="9.9070666503906250e+02"/>
          <Range Index="13" Min="0.0000000000000000e+00" Max="3.0767480468750000e+03"/>
          <Range Index="14" Min="2.5001552581787109e+01" Max="1.6078201904296875e+03"/>
        </Ranges>
      </Class>
      <Class ClassIndex="2">
        <Ranges>
          <Range Index="0" Min="0.0000000000000000e+00" Max="3.0767480468750000e+03"/>
          <Range Index="1" Min="2.3902066459413618e-05" Max="2.3993620872497559e+00"/>
          <Range Index="2" Min="2.5001552581787109e+01" Max="1.6078201904296875e+03"/>
          <Range Index="3" Min="2.5776283264160156e+01" Max="7.2194372558593750e+02"/>
          <Range Index="4" Min="0.0000000000000000e+00" Max="1.8781419372558594e+02"/>
          <Range Index="5" Min="3.4716424345970154e-01" Max="7.4641998291015625e+02"/>
          <Range Index="6" Min="6.3240891695022583e-01" Max="9.9999976158142090e-01"/>
          <Range Index="7" Min="-2.7751596069335938e+02" Max="7.9478894042968750e+02"/>
          <Range Index="8" Min="1.2092776159988716e-04" Max="5.5438051223754883e+00"/>
          <Range Index="9" Min="8.6927993774414062e+01" Max="1.2855009765625000e+03"/>
          <Range Index="10" Min="2.2907257080078125e-02" Max="3.1415715217590332e+00"/>
          <Range Index="11" Min="2.3725135803222656e+01" Max="1.7079803466796875e+03"/>
          <Range Index="12" Min="1.0341097116470337e+00" Max="9.9070666503906250e+02"/>
          <Range Index="13" Min="0.0000000000000000e+00" Max="3.0767480468750000e+03"/>
          <Range Index="14" Min="2.5001552581787109e+01" Max="1.6078201904296875e+03"/>
        </Ranges>
      </Class>
    </Transform>
  </Transformations>
  <MVAPdfs/>
  <Weights>
    <Layout NLayers="3">
      <Layer Index="0" NNeurons="16">
        <Neuron NSynapses="20">
          -3.2064595903761162e-01 1.9879722747449677e+00 8.6962711941271942e-01 1.7332713715778685e+00 -1.9979913809914160e+00 -1.4873957477351600e+00 -4.4852972203027058e-01 2.0035300006656542e+00 -1.5257398904916051e+00 -1.0453096770088051e+00 -1.6109376411340017e+00 -3.9678290611810307e-01 -1.2696538063413410e+00 -5.4505090825979119e-01 -6.2632950075297666e-01 6.7734782411060246e-01 -4.1258682779969630e-01 1.9734444336176136e+00 1.5691858808447207e-01 1.3868993908708074e+00 
        </Neuron>
        <Neuron NSynapses="20">
          -1.2751224763716015e-01 -7.4805583968571587e-01 7.6831089040207057e-01 1.3030965353406876e-01 -1.1863645526492281e+00 -2.2982538980742015e-01 1.3777013734966819e+00 -1.0768522761383699e+00 -1.7364642449251564e+00 8.9063045478748104e-02 7.1031953457997898e-01 1.6385351151776344e+00 -3.0150369536823690e-01 8.1462361754135654e-02 2.4568580994609054e-01 -2.8003257269804943e-01 -1.4387893615793559e+00 1.6272073261865827e+00 -1.2089151385599146e+00 1.1154349883414725e+00 
        </Neuron>
        <Neuron NSynapses="20">
          1.2131039864616040e+00 8.6035251996789408e-01 1.8569094256840668e+00 1.1984036963146669e+00 -7.4342949361422617e-01 -1.6266543465946000e+00 1.1486266920961068e+00 9.5373726397589523e-02 1.3532704848999690e+00 1.4767735371467423e+00 1.5797985445538880e+00 1.3355848807866664e+00 -1.6834716602531408e+00 1.1896010645888222e+00 -1.8528548025897400e+00 -9.0995343760587699e-01 -1.3202807993466976e+00 -1.5053688602600448e+00 1.5144718499084682e+00 6.8436683353042560e-01 
        </Neuron>
        <Neuron NSynapses="20">
          -1.5802325555834238e+00 3.7075874138587511e-01 -3.2274733925037519e-01 6.6688783562722087e-01 1.8325056463133711e+00 -3.5466412516058532e-01 4.6384553917969001e-01 -1.1976403830500968e+00 6.5397211245122944e-01 -8.3313499206573749e-01 -6.9995285182481148e-01 -1.4153004061390486e+00 7.2764235664679544e-01 1.0632390345855152e+00 1.3303031683134243e+00 -3.5508132288945266e-01 -1.9266128850158590e+00 -1.6426480940301276e+00 1.0023452686624761e+00 4.9751097377356196e-01 
        </Neuron>
        <Neuron NSynapses="20">
          1.9317329234059977e+00 6.3830858530734336e-01 9.7014447781534963e-01 -8.2189878512817705e-01 -8.8233258093994060e-01 -2.2008556668091778e-01 1.4967969065011906e+00 -1.0868113765811107e+00 -1.6532189819021508e+00 -1.7035221235327644e+00 -1.3328610959865803e-01 -1.0740256616679383e-01 1.6598613405653702e+00 -1.7336157044423255e+00 -8.3118834535686315e-01 1.6121820067598385e+00 -8.4898315364879162e-01 -1.2688648189234308e+00 -1.4786177629504540e+00 1.0101348642362580e-01 
        </Neuron>
        <Neuron NSynapses="20">
          -1.9276943348367785e+00 -1.6687595123959722e+00 7.0392179082082329e-01 1.6558800751925373e+00 -1.1501311977666151e+00 1.6442275109840796e+00 -5.9221564859903753e-01 -7.8551998379645382e-01 -1.6293071546845250e-01 3.5555014455227035e-01 -1.7832772699258461e+00 2.8072889187647215e-01 2.7310496407865559e-01 3.2467074474955321e-01 -1.4208048560935620e+00 1.8266090817222700e+00 3.5764020266214114e-01 -7.2569026119351843e-01 8.0082160888618814e-01 -1.0742684252158847e+00 
        </Neuron>
        <Neuron NSynapses="20">
          -1.8628654567473408e+00 1.3398339894848796e-01 -3.4104024616388062e-01 1.8075371112500251e+00 7.8099426605448785e-01 -2.1832533503768761e-02 -3.2810575719747032e-01 1.5822436009029342e-01 -1.7556690550261547e+00 1.0524517840075001e+00 6.3332743120463469e-02 -1.8083247433043284e+00 6.4635228438147085e-01 -1.5840295282227168e+00 5.0107929752486922e-02 1.1711138734478226e+00 1.7787985693465542e+00 -1.8692839964756891e+00 3.4632616432686048e-01 1.5322892122730907e+00 
        </Neuron>
        <Neuron NSynapses="20">
          1.6097103864282829e+00 1.6190118980215212e-01 -1.4583316559277215e+00 -2.1198950663272503e-01 -1.4404967915882612e+00 1.5732128325162784e+00 1.3520390728828462e+00 -4.8103340052302024e-01 -4.8103688217273499e-01 1.5533080039535418e-01 -1.3840007242757222e+00 6.1425841546980886e-01 1.7080078210993015e+00 -6.2407440620571009e-01 -6.1171482645529607e-01 2.8435837406819137e-01 1.0033017951323289e+00 6.4104013225682765e-01 9.0452444931061460e-01 -1.4940913122621722e+00 
        </Neuron>
        <Neuron NSynapses="20">
          1.2963770789534081e+00 7.5550130935906967e-01 4.3576750497707878e-01 5.3945713581053512e-01 1.0027295901802418e+00 -5.8919347501075181e-01 -3.2962755910191127e-01 1.0712312761173926e+00 -9.9045627522991486e-01 -5.2125594630032313e-01 1.6602086054913598e+00 1.0264423849344815e+00 -3.0391998702380796e-01 1.2994663633732981e+00 1.8552285792767220e+00 -1.9514845287775358e+00 6.5409783003429545e-01 2.2941809460585133e-01 4.8823552308265422e-01 -1.7063477130143330e+00 
        </Neuron>
        <Neuron NSynapses="20">
          -1.4890182663556277e+00 1.1506387535186864e+00 1.7952456228868183e+00 -1.7613197584877616e+00 -2.0021597773979846e-01 -5.8273089210217766e-01 6.3256148815815638e-01 1.7537385774490517e+00 -4.7052343551470960e-01 -4.7885931178300162e-01 -9.8697928522058265e-01 1.0693656624336663e+00 1.5917862892073793e+00 1.0718545301182141e+00 2.8640595171480832e-01 -7.9933004038565381e-01 -1.9882018897829841e+00 1.2957695804403386e+00 4.7039036977993964e-01 -1.3870919129944514e+00 
        </Neuron>
        <Neuron NSynapses="20">
          -7.4322915554182567e-01 3.1752754442586545e-01 1.2261174664876016e-01 -1.9669833885697152e+00 1.5431582558268482e+00 8.3154972338198696e-01 -8.0940655142505424e-01 -1.4007101556795182e-01 1.7351075781196903e+00 1.0396453403924182e+00 5.3963329961030171e-01 -1.4366791354078734e-01 -1.9419069122891550e+00 -7.5783769000890588e-01 1.7226653762784943e+00 1.3213416858208653e+00 7.6331706336766225e-01 9.8832500763256122e-03 1.9889806432040753e+00 -1.7215226869108378e+00 
        </Neuron>
        <Neuron NSynapses="20">
          -1.2927556054491049e+00 -1.1295068269355331e-01 -1.4638120993289567e+00 9.5557145653898012e-01 1.7328225152397740e+00 -1.2311843692654172e+00 1.1456140394427574e+00 -1.2404858274396151e-01 -1.8751639392822717e+00 -1.0657921670062218e+00 1.0362634433667819e+00 5.0951114907806704e-02 9.9225508202356860e-01 -1.2686621797186919e+00 1.6834443201869500e+00 -1.8054303481698089e+00 8.4645934639580267e-01 3.1451290841211271e-01 -1.5010352188000871e+00 -1.3088344190992753e+00 
        </Neuron>
        <Neuron NSynapses="20">
          -1.9222496172463097e+00 -4.1816296145704596e-01 -1.9107457129962035e+00 -1.5929058632891637e+00 -1.8851892475601064e+00 4.0112605239933007e-02 -6.7307588676454477e-01 -1.5698282442074489e+00 1.3096560176870116e+00 -8.2926824380862418e-01 1.6308168812019827e-01 -1.0558004632512921e+00 1.9397873018058231e-01 1.7429191776313882e+00 1.3605457187233616e+00 -8.9039315300679300e-01 -1.5029971982393748e+00 -8.3160929777081083e-01 -8.8164527000613635e-01 -1.6319951655874207e+00 
        </Neuron>
        <Neuron NSynapses="20">
          3.5430311885170551e-01 2.7949967360687089e-01 1.8667121449465698e+00 -3.2525192014400073e-01 2.4567197378546582e-01 -5.2852057682634679e-01 -1.5832708327572280e+00 1.2593478256405592e+00 1.0897672316375968e+00 -8.3062557525586000e-01 -1.0483949297494073e+00 8.8646059730352600e-01 1.2137261136719080e+00 3.5509849208626648e-01 -4.5712981891207827e-01 -2.9399704267927951e-01 1.4545107083022155e+00 1.2387800204709389e+00 9.9013821872822605e-01 -2.8709374120636155e-01 
        </Neuron>
        <Neuron NSynapses="20">
          2.3508667026181615e-01 -2.8999988541637356e-01 -1.4703159530304351e+00 -5.6500851850078448e-01 -1.7574554528005528e+00 -1.3845036515314262e+00 -1.1352899712823725e+00 1.7715248371882160e+00 -1.9740786004607964e+00 1.6823320485752773e+00 -1.5686516177078365e+00 1.1468310887019129e+00 -1.1208111337688897e+00 3.3650337711323597e-01 8.4288199773074468e-01 -1.8581556043123859e+00 2.3926542728899175e-01 8.7495343777505930e-01 -1.9478742391640573e+00 -1.4786668800561207e+00 
        </Neuron>
        <Neuron NSynapses="20">
          -1.7039356753713792e+00 -8.1790558756132814e-01 1.8903070594655444e+00 -5.2657333686566610e-01 2.7235997470353568e-01 -8.9734875088122878e-01 -1.5916836016428955e+00 -1.7295104659717118e+00 -8.6223475091181268e-01 -1.4113205003060494e+00 8.9324215565284815e-01 -1.3742512256877015e+00 -1.1948075557016957e+00 1.8623378554947214e+00 3.3387649288895227e-01 -5.1323606162140023e-01 1.8795301704556231e+00 -2.0732030651852309e+00 1.3852164359153232e+00 9.6192167424432418e-01 
        </Neuron>
      </Layer>
      <Layer Index="1" NNeurons="21">
        <Neuron NSynapses="1">
          -8.2893763571839607e-01 
        </Neuron>
        <Neuron NSynapses="1">
          -4.7387797810576177e-01 
        </Neuron>
        <Neuron NSynapses="1">
          -3.0848401951857463e-01 
        </Neuron>
        <Neuron NSynapses="1">
          -8.0533310934160429e-01 
        </Neuron>
        <Neuron NSynapses="1">
          1.1258497562302311e-01 
        </Neuron>
        <Neuron NSynapses="1">
          1.5891470495369904e+00 
        </Neuron>
        <Neuron NSynapses="1">
          1.2133010819078676e+00 
        </Neuron>
        <Neuron NSynapses="1">
          1.8978503281094035e+00 
        </Neuron>
        <Neuron NSynapses="1">
          -1.5825480731729367e+00 
        </Neuron>
        <Neuron NSynapses="1">
          7.6738173310274627e-01 
        </Neuron>
        <Neuron NSynapses="1">
          -2.2929362987190789e+00 
        </Neuron>
        <Neuron NSynapses="1">
          9.3306037488901494e-01 
        </Neuron>
        <Neuron NSynapses="1">
          -1.3954888272946564e+00 
        </Neuron>
        <Neuron NSynapses="1">
          -1.4017114853297590e+00 
        </Neuron>
        <Neuron NSynapses="1">
          1.4688859917956137e-01 
        </Neuron>
        <Neuron NSynapses="1">
          9.1869333638848127e-01 
        </Neuron>
        <Neuron NSynapses="1">
          8.9853127307056496e-02 
        </Neuron>
        <Neuron NSynapses="1">
          6.2500607115077766e-01 
        </Neuron>
        <Neuron NSynapses="1">
          3.5956685926776318e-02 
        </Neuron>
        <Neuron NSynapses="1">
          -5.1713722033139453e-01 
        </Neuron>
        <Neuron NSynapses="1">
          -1.0686738377915310e+00 
        </Neuron>
      </Layer>
      <Layer Index="2" NNeurons="1">
        <Neuron NSynapses="0"/>
      </Layer>
    </Layout>
  </Weights>
</MethodSetup>
