<?xml version="1.0"?>
<MethodSetup Method="MLP::MLP">
  <GeneralInfo>
    <Info name="TMVA Release" value="4.2.1 [262657]"/>
    <Info name="ROOT Release" value="6.08/07 [395271]"/>
    <Info name="Creator" value="wverbeke"/>
    <Info name="Date" value="Wed Nov 22 22:32:23 2017"/>
    <Info name="Host" value="Linux vocms0302.cern.ch 2.6.32-696.1.1.el6.x86_64 #1 SMP Wed Apr 12 08:44:28 CEST 2017 x86_64 x86_64 x86_64 GNU/Linux"/>
    <Info name="Dir" value="/storage_mnt/storage/user/wverbeke/Work/AnalysisCode/ewkino/bdtTraining"/>
    <Info name="Training events" value="53698"/>
    <Info name="TrainingTime" value="7.38549923e+02"/>
    <Info name="AnalysisType" value="Classification"/>
  </GeneralInfo>
  <Options>
    <Option name="NCycles" modified="Yes">600</Option>
    <Option name="HiddenLayers" modified="Yes">N+5</Option>
    <Option name="NeuronType" modified="Yes">tanh</Option>
    <Option name="RandomSeed" modified="No">1</Option>
    <Option name="EstimatorType" modified="No">CE</Option>
    <Option name="NeuronInputType" modified="No">sum</Option>
    <Option name="V" modified="Yes">False</Option>
    <Option name="VerbosityLevel" modified="No">Default</Option>
    <Option name="VarTransform" modified="Yes">N</Option>
    <Option name="H" modified="Yes">True</Option>
    <Option name="CreateMVAPdfs" modified="No">False</Option>
    <Option name="IgnoreNegWeightsInTraining" modified="No">False</Option>
    <Option name="TrainingMethod" modified="No">BP</Option>
    <Option name="LearningRate" modified="No">2.000000e-02</Option>
    <Option name="DecayRate" modified="No">1.000000e-02</Option>
    <Option name="TestRate" modified="Yes">5</Option>
    <Option name="EpochMonitoring" modified="No">False</Option>
    <Option name="Sampling" modified="No">1.000000e+00</Option>
    <Option name="SamplingEpoch" modified="No">1.000000e+00</Option>
    <Option name="SamplingImportance" modified="No">1.000000e+00</Option>
    <Option name="SamplingTraining" modified="No">True</Option>
    <Option name="SamplingTesting" modified="No">False</Option>
    <Option name="ResetStep" modified="No">50</Option>
    <Option name="Tau" modified="No">3.000000e+00</Option>
    <Option name="BPMode" modified="No">sequential</Option>
    <Option name="BatchSize" modified="No">-1</Option>
    <Option name="ConvergenceImprove" modified="No">1.000000e-30</Option>
    <Option name="ConvergenceTests" modified="No">-1</Option>
    <Option name="UseRegulator" modified="Yes">False</Option>
    <Option name="UpdateLimit" modified="No">10000</Option>
    <Option name="CalculateErrors" modified="No">False</Option>
    <Option name="WeightRange" modified="No">1.000000e+00</Option>
  </Options>
  <Variables NVar="21">
    <Variable VarIndex="0" Expression="topMass" Label="topMass" Title="topMass" Unit="" Internal="topMass" Type="F" Min="0.00000000e+00" Max="2.49312012e+03"/>
    <Variable VarIndex="1" Expression="pTForwardJets" Label="pTForwardJets" Title="pTForwardJets" Unit="" Internal="pTForwardJets" Type="F" Min="0.00000000e+00" Max="4.98057983e+02"/>
    <Variable VarIndex="2" Expression="etaMostForward" Label="etaMostForward" Title="etaMostForward" Unit="" Internal="etaMostForward" Type="F" Min="3.46110649e-02" Max="5.08574343e+00"/>
    <Variable VarIndex="3" Expression="pTLeadingJet" Label="pTLeadingJet" Title="pTLeadingJet" Unit="" Internal="pTLeadingJet" Type="F" Min="2.51371422e+01" Max="1.42227527e+03"/>
    <Variable VarIndex="4" Expression="pTLeadingLepton" Label="pTLeadingLepton" Title="pTLeadingLepton" Unit="" Internal="pTLeadingLepton" Type="F" Min="2.50299892e+01" Max="1.19899036e+03"/>
    <Variable VarIndex="5" Expression="mNotSoForwardJets" Label="mNotSoForwardJets" Title="mNotSoForwardJets" Unit="" Internal="mNotSoForwardJets" Type="F" Min="0.00000000e+00" Max="5.77671094e+03"/>
    <Variable VarIndex="6" Expression="pTLeadingBJet" Label="pTLeadingBJet" Title="pTLeadingBJet" Unit="" Internal="pTLeadingBJet" Type="F" Min="2.50020657e+01" Max="1.17742163e+03"/>
    <Variable VarIndex="7" Expression="missingET" Label="missingET" Title="missingET" Unit="" Internal="missingET" Type="F" Min="2.88354188e-01" Max="1.07190247e+03"/>
    <Variable VarIndex="8" Expression="highestDeepCSV" Label="highestDeepCSV" Title="highestDeepCSV" Unit="" Internal="highestDeepCSV" Type="F" Min="6.32401466e-01" Max="9.99999940e-01"/>
    <Variable VarIndex="9" Expression="maxMjj" Label="maxMjj" Title="maxMjj" Unit="" Internal="maxMjj" Type="F" Min="0.00000000e+00" Max="5.57834668e+03"/>
    <Variable VarIndex="10" Expression="minMlb" Label="minMlb" Title="minMlb" Unit="" Internal="minMlb" Type="F" Min="-2.61477997e+02" Max="8.18496033e+02"/>
    <Variable VarIndex="11" Expression="asymmetryWlep" Label="asymmetryWlep" Title="asymmetryWlep" Unit="" Internal="asymmetryWlep" Type="F" Min="-2.49844050e+00" Max="2.48950291e+00"/>
    <Variable VarIndex="12" Expression="etaZ" Label="etaZ" Title="etaZ" Unit="" Internal="etaZ" Type="F" Min="1.22866244e-04" Max="7.11888361e+00"/>
    <Variable VarIndex="13" Expression="m3l" Label="m3l" Title="m3l" Unit="" Internal="m3l" Type="F" Min="8.54054642e+01" Max="1.72166785e+03"/>
    <Variable VarIndex="14" Expression="maxDeltaPhijj" Label="maxDeltaPhijj" Title="maxDeltaPhijj" Unit="" Internal="maxDeltaPhijj" Type="F" Min="2.70247459e-04" Max="3.14158821e+00"/>
    <Variable VarIndex="15" Expression="maxDeltaRjj" Label="maxDeltaRjj" Title="maxDeltaRjj" Unit="" Internal="maxDeltaRjj" Type="F" Min="4.06033427e-01" Max="1.00386209e+01"/>
    <Variable VarIndex="16" Expression="maxDeltaPhill" Label="maxDeltaPhill" Title="maxDeltaPhill" Unit="" Internal="maxDeltaPhill" Type="F" Min="1.13712549e-02" Max="3.14153457e+00"/>
    <Variable VarIndex="17" Expression="pTMaxlb" Label="pTMaxlb" Title="pTMaxlb" Unit="" Internal="pTMaxlb" Type="F" Min="1.60231552e+01" Max="1.18475330e+03"/>
    <Variable VarIndex="18" Expression="pT3l" Label="pT3l" Title="pT3l" Unit="" Internal="pT3l" Type="F" Min="3.44374746e-01" Max="1.32228772e+03"/>
    <Variable VarIndex="19" Expression="mForwardJetsLeadinBJetW" Label="mForwardJetsLeadinBJetW" Title="mForwardJetsLeadinBJetW" Unit="" Internal="mForwardJetsLeadinBJetW" Type="F" Min="0.00000000e+00" Max="7.49952100e+03"/>
    <Variable VarIndex="20" Expression="ht" Label="ht" Title="ht" Unit="" Internal="ht" Type="F" Min="5.01492119e+01" Max="2.00485938e+03"/>
  </Variables>
  <Spectators NSpec="0"/>
  <Classes NClass="2">
    <Class Name="Signal" Index="0"/>
    <Class Name="Background" Index="1"/>
  </Classes>
  <Transformations NTransformations="1">
    <Transform Name="Normalize">
      <Selection>
        <Input NInputs="21">
          <Input Type="Variable" Label="topMass" Expression="topMass"/>
          <Input Type="Variable" Label="pTForwardJets" Expression="pTForwardJets"/>
          <Input Type="Variable" Label="etaMostForward" Expression="etaMostForward"/>
          <Input Type="Variable" Label="pTLeadingJet" Expression="pTLeadingJet"/>
          <Input Type="Variable" Label="pTLeadingLepton" Expression="pTLeadingLepton"/>
          <Input Type="Variable" Label="mNotSoForwardJets" Expression="mNotSoForwardJets"/>
          <Input Type="Variable" Label="pTLeadingBJet" Expression="pTLeadingBJet"/>
          <Input Type="Variable" Label="missingET" Expression="missingET"/>
          <Input Type="Variable" Label="highestDeepCSV" Expression="highestDeepCSV"/>
          <Input Type="Variable" Label="maxMjj" Expression="maxMjj"/>
          <Input Type="Variable" Label="minMlb" Expression="minMlb"/>
          <Input Type="Variable" Label="asymmetryWlep" Expression="asymmetryWlep"/>
          <Input Type="Variable" Label="etaZ" Expression="etaZ"/>
          <Input Type="Variable" Label="m3l" Expression="m3l"/>
          <Input Type="Variable" Label="maxDeltaPhijj" Expression="maxDeltaPhijj"/>
          <Input Type="Variable" Label="maxDeltaRjj" Expression="maxDeltaRjj"/>
          <Input Type="Variable" Label="maxDeltaPhill" Expression="maxDeltaPhill"/>
          <Input Type="Variable" Label="pTMaxlb" Expression="pTMaxlb"/>
          <Input Type="Variable" Label="pT3l" Expression="pT3l"/>
          <Input Type="Variable" Label="mForwardJetsLeadinBJetW" Expression="mForwardJetsLeadinBJetW"/>
          <Input Type="Variable" Label="ht" Expression="ht"/>
        </Input>
        <Output NOutputs="21">
          <Output Type="Variable" Label="topMass" Expression="topMass"/>
          <Output Type="Variable" Label="pTForwardJets" Expression="pTForwardJets"/>
          <Output Type="Variable" Label="etaMostForward" Expression="etaMostForward"/>
          <Output Type="Variable" Label="pTLeadingJet" Expression="pTLeadingJet"/>
          <Output Type="Variable" Label="pTLeadingLepton" Expression="pTLeadingLepton"/>
          <Output Type="Variable" Label="mNotSoForwardJets" Expression="mNotSoForwardJets"/>
          <Output Type="Variable" Label="pTLeadingBJet" Expression="pTLeadingBJet"/>
          <Output Type="Variable" Label="missingET" Expression="missingET"/>
          <Output Type="Variable" Label="highestDeepCSV" Expression="highestDeepCSV"/>
          <Output Type="Variable" Label="maxMjj" Expression="maxMjj"/>
          <Output Type="Variable" Label="minMlb" Expression="minMlb"/>
          <Output Type="Variable" Label="asymmetryWlep" Expression="asymmetryWlep"/>
          <Output Type="Variable" Label="etaZ" Expression="etaZ"/>
          <Output Type="Variable" Label="m3l" Expression="m3l"/>
          <Output Type="Variable" Label="maxDeltaPhijj" Expression="maxDeltaPhijj"/>
          <Output Type="Variable" Label="maxDeltaRjj" Expression="maxDeltaRjj"/>
          <Output Type="Variable" Label="maxDeltaPhill" Expression="maxDeltaPhill"/>
          <Output Type="Variable" Label="pTMaxlb" Expression="pTMaxlb"/>
          <Output Type="Variable" Label="pT3l" Expression="pT3l"/>
          <Output Type="Variable" Label="mForwardJetsLeadinBJetW" Expression="mForwardJetsLeadinBJetW"/>
          <Output Type="Variable" Label="ht" Expression="ht"/>
        </Output>
      </Selection>
      <Class ClassIndex="0">
        <Ranges>
          <Range Index="0" Min="0.0000000000000000e+00" Max="2.3762363281250000e+03"/>
          <Range Index="1" Min="0.0000000000000000e+00" Max="4.8261206054687500e+02"/>
          <Range Index="2" Min="3.6906689405441284e-02" Max="5.0857434272766113e+00"/>
          <Range Index="3" Min="2.5137142181396484e+01" Max="1.4222752685546875e+03"/>
          <Range Index="4" Min="2.5270803451538086e+01" Max="9.3791693115234375e+02"/>
          <Range Index="5" Min="0.0000000000000000e+00" Max="5.7767109375000000e+03"/>
          <Range Index="6" Min="2.5002065658569336e+01" Max="1.0471170654296875e+03"/>
          <Range Index="7" Min="2.8835418820381165e-01" Max="6.2243109130859375e+02"/>
          <Range Index="8" Min="6.3245439529418945e-01" Max="9.9999994039535522e-01"/>
          <Range Index="9" Min="0.0000000000000000e+00" Max="5.5783466796875000e+03"/>
          <Range Index="10" Min="-2.6147799682617188e+02" Max="7.5508050537109375e+02"/>
          <Range Index="11" Min="-2.4984405040740967e+00" Max="2.4669063091278076e+00"/>
          <Range Index="12" Min="1.2286624405533075e-04" Max="7.1188836097717285e+00"/>
          <Range Index="13" Min="8.5405464172363281e+01" Max="1.2257257080078125e+03"/>
          <Range Index="14" Min="2.7024745941162109e-04" Max="3.1415882110595703e+00"/>
          <Range Index="15" Min="4.1341373324394226e-01" Max="9.6700801849365234e+00"/>
          <Range Index="16" Min="1.1371254920959473e-02" Max="3.1415345668792725e+00"/>
          <Range Index="17" Min="2.1079124450683594e+01" Max="1.0914641113281250e+03"/>
          <Range Index="18" Min="3.4437474608421326e-01" Max="1.0453444824218750e+03"/>
          <Range Index="19" Min="0.0000000000000000e+00" Max="7.4995209960937500e+03"/>
          <Range Index="20" Min="5.0149211883544922e+01" Max="2.0048593750000000e+03"/>
        </Ranges>
      </Class>
      <Class ClassIndex="1">
        <Ranges>
          <Range Index="0" Min="0.0000000000000000e+00" Max="2.4931201171875000e+03"/>
          <Range Index="1" Min="0.0000000000000000e+00" Max="4.9805798339843750e+02"/>
          <Range Index="2" Min="3.4611064940690994e-02" Max="5.0765833854675293e+00"/>
          <Range Index="3" Min="2.5217048645019531e+01" Max="1.2619134521484375e+03"/>
          <Range Index="4" Min="2.5029989242553711e+01" Max="1.1989903564453125e+03"/>
          <Range Index="5" Min="0.0000000000000000e+00" Max="4.0282951660156250e+03"/>
          <Range Index="6" Min="2.5003751754760742e+01" Max="1.1774216308593750e+03"/>
          <Range Index="7" Min="5.1283168792724609e-01" Max="1.0719024658203125e+03"/>
          <Range Index="8" Min="6.3240146636962891e-01" Max="9.9999982118606567e-01"/>
          <Range Index="9" Min="0.0000000000000000e+00" Max="4.0282951660156250e+03"/>
          <Range Index="10" Min="-2.5105111694335938e+02" Max="8.1849603271484375e+02"/>
          <Range Index="11" Min="-2.4951372146606445e+00" Max="2.4895029067993164e+00"/>
          <Range Index="12" Min="2.6963031268678606e-04" Max="6.0962500572204590e+00"/>
          <Range Index="13" Min="8.8113121032714844e+01" Max="1.7216678466796875e+03"/>
          <Range Index="14" Min="7.4219703674316406e-04" Max="3.1415765285491943e+00"/>
          <Range Index="15" Min="4.0603342652320862e-01" Max="1.0038620948791504e+01"/>
          <Range Index="16" Min="3.2065391540527344e-02" Max="3.1414833068847656e+00"/>
          <Range Index="17" Min="1.6023155212402344e+01" Max="1.1847532958984375e+03"/>
          <Range Index="18" Min="4.6899026632308960e-01" Max="1.3222877197265625e+03"/>
          <Range Index="19" Min="0.0000000000000000e+00" Max="4.3681489257812500e+03"/>
          <Range Index="20" Min="5.0248588562011719e+01" Max="1.9846918945312500e+03"/>
        </Ranges>
      </Class>
      <Class ClassIndex="2">
        <Ranges>
          <Range Index="0" Min="0.0000000000000000e+00" Max="2.4931201171875000e+03"/>
          <Range Index="1" Min="0.0000000000000000e+00" Max="4.9805798339843750e+02"/>
          <Range Index="2" Min="3.4611064940690994e-02" Max="5.0857434272766113e+00"/>
          <Range Index="3" Min="2.5137142181396484e+01" Max="1.4222752685546875e+03"/>
          <Range Index="4" Min="2.5029989242553711e+01" Max="1.1989903564453125e+03"/>
          <Range Index="5" Min="0.0000000000000000e+00" Max="5.7767109375000000e+03"/>
          <Range Index="6" Min="2.5002065658569336e+01" Max="1.1774216308593750e+03"/>
          <Range Index="7" Min="2.8835418820381165e-01" Max="1.0719024658203125e+03"/>
          <Range Index="8" Min="6.3240146636962891e-01" Max="9.9999994039535522e-01"/>
          <Range Index="9" Min="0.0000000000000000e+00" Max="5.5783466796875000e+03"/>
          <Range Index="10" Min="-2.6147799682617188e+02" Max="8.1849603271484375e+02"/>
          <Range Index="11" Min="-2.4984405040740967e+00" Max="2.4895029067993164e+00"/>
          <Range Index="12" Min="1.2286624405533075e-04" Max="7.1188836097717285e+00"/>
          <Range Index="13" Min="8.5405464172363281e+01" Max="1.7216678466796875e+03"/>
          <Range Index="14" Min="2.7024745941162109e-04" Max="3.1415882110595703e+00"/>
          <Range Index="15" Min="4.0603342652320862e-01" Max="1.0038620948791504e+01"/>
          <Range Index="16" Min="1.1371254920959473e-02" Max="3.1415345668792725e+00"/>
          <Range Index="17" Min="1.6023155212402344e+01" Max="1.1847532958984375e+03"/>
          <Range Index="18" Min="3.4437474608421326e-01" Max="1.3222877197265625e+03"/>
          <Range Index="19" Min="0.0000000000000000e+00" Max="7.4995209960937500e+03"/>
          <Range Index="20" Min="5.0149211883544922e+01" Max="2.0048593750000000e+03"/>
        </Ranges>
      </Class>
    </Transform>
  </Transformations>
  <MVAPdfs/>
  <Weights>
    <Layout NLayers="3">
      <Layer Index="0" NNeurons="22">
        <Neuron NSynapses="26">
          -4.6049580816478364e-01 2.2431071046782032e+00 1.0344862664459349e+00 1.7307340839048519e+00 -1.9647062611623027e+00 -1.2888693853332738e+00 -7.5968250777822433e-01 2.1692321893495587e+00 -1.3860917583986709e+00 -1.0971006778293164e+00 -1.7282548658654406e+00 -4.0080369934654564e-01 -1.2180899237780878e+00 -5.2553720110594560e-01 -6.2680525972595924e-01 4.5204247369122058e-01 -4.8291397127886088e-01 1.7404452865200646e+00 1.4795719615878422e-01 1.3230005727122636e+00 -2.7995233213076604e-01 -8.1634593209692674e-01 7.6680573261852680e-01 3.6764793250328880e-02 -1.1668115865722257e+00 -3.5269640346408141e-03 
        </Neuron>
        <Neuron NSynapses="26">
          1.4865168857405973e+00 -5.1958440616570123e-01 -1.6022243622649326e+00 4.0709704992868022e-03 7.4629418933009251e-01 1.3964237673906492e+00 -1.7025448787842049e-01 -5.8859158145365398e-01 2.9884442490161578e-01 -3.6965058202880097e-01 -1.3331566528744490e+00 1.7142235667379797e+00 -1.2299984073621932e+00 7.9079069020341919e-01 1.2139143750160133e+00 1.1746732260406496e+00 2.1670363400261445e+00 1.3796018810085080e+00 -7.9442170048337979e-01 -1.4003341721165419e+00 4.2834976249862916e-01 5.3058676216797607e-01 1.3505043737133313e+00 1.3245263054938090e+00 1.6238628186832200e+00 5.7709331018142107e-01 
        </Neuron>
        <Neuron NSynapses="26">
          -1.5882226785751996e+00 1.4608014288516538e+00 -1.7448665028327301e+00 -8.6403466707857501e-01 -1.2778123489417521e+00 -1.9883521918892306e+00 1.5999907757202607e+00 5.0134297741160083e-01 -1.5968989385242325e+00 3.5072981760081312e-01 -2.3715035621920250e-01 7.0078690052716452e-01 1.8194267806865290e+00 -3.2268919785002187e-01 1.3040326368182328e-01 -1.0000620809742213e+00 9.3343674494098727e-01 -7.9642536031991085e-01 -7.2081786655818580e-01 -1.3829821239231130e+00 5.0337192123376628e-01 1.5394171544307502e+00 1.3205568738765077e+00 -3.5782611704791639e-01 -1.9186386582846398e+00 -2.2969993713874644e+00 
        </Neuron>
        <Neuron NSynapses="26">
          9.0684308682513470e-01 8.5544728902423017e-01 2.1381751895389627e+00 6.6363154944988478e-01 1.0327186949467424e+00 -6.5224931994226165e-01 -8.5376763437027681e-01 -1.3115138570283452e-01 1.1701681784231917e+00 -1.1606691445622690e+00 -1.6476107656172760e+00 -1.6613011818983408e+00 -1.9280556611840682e-01 -1.9840347193738356e-01 1.6227339104134431e+00 -1.7234659186896084e+00 -8.3434806809434203e-01 1.6154455978686781e+00 -8.4439107859396001e-01 -1.6022767379057441e+00 -1.5297585873938619e+00 1.7534393257479769e-01 -1.9528421978434520e+00 -1.6985322959321254e+00 7.2889592842113138e-01 1.6604249497687877e+00 
        </Neuron>
        <Neuron NSynapses="26">
          -1.2959625968835820e+00 1.9655091789519217e+00 -7.6091653600975162e-01 -7.4731831709970997e-01 6.3200607968845945e-03 5.1372611150205305e-01 -1.7372249053080231e+00 2.7431913782811385e-01 3.1770927899803103e-01 4.0333607063084737e-01 -1.4992075075369171e+00 1.8436365710109106e+00 3.9268026462242567e-01 -1.0594213827878542e+00 7.8616411862984403e-01 -1.2715939646263252e+00 -1.6311837644558709e+00 1.3653779803845098e-01 -3.6797014217989565e-01 1.7721036641994632e+00 7.9399298321500344e-01 -5.1029033286894496e-02 -3.4321857759539032e-01 1.1485019148868390e-01 -1.7950965105624943e+00 1.2460655559750886e+00 
        </Neuron>
        <Neuron NSynapses="26">
          5.6294134921608265e-02 -1.3266613692618001e+00 9.1595621292449148e-01 -1.4647035817298326e+00 1.1752556406054207e-01 1.1635052135389430e+00 1.8708326237259223e+00 -1.8984115483233486e+00 3.9372417151935857e-01 1.4537437631186849e+00 1.5929678222747523e+00 1.4710249633314360e-01 -1.4199539706967195e+00 -4.3441142010772327e-01 -1.4478655136121836e+00 1.6832523708701872e+00 1.2999506369013996e+00 -4.2684399285871538e-01 -4.5461676804732493e-01 1.4530417878742954e-01 -1.4715760876480408e+00 9.0395776670715822e-01 1.7086569605580402e+00 -6.7965318579518541e-01 -5.7497294737266968e-01 3.2087794291301638e-02 
        </Neuron>
        <Neuron NSynapses="26">
          9.0251999132955263e-01 9.0727655324663503e-01 1.1008732793214675e+00 -1.4762623288842032e+00 1.5716519891520362e+00 9.5618064189531426e-01 5.1582372934406406e-01 7.0354079641814282e-01 1.0189332355231004e+00 -6.3664745675901813e-01 -6.9551179695540177e-01 1.1127282137491581e+00 -8.9859157980175219e-01 -6.7275125501978972e-01 1.5747468011090950e+00 8.6680985664179344e-01 -3.1992482815655204e-01 1.4982441848614445e+00 1.8132045137455228e+00 -2.0537673787902722e+00 6.2741366786775021e-01 6.0293246933839133e-02 4.6497775502197364e-01 -1.7540697221689165e+00 -1.5350800728989575e+00 1.2027829403190897e+00 
        </Neuron>
        <Neuron NSynapses="26">
          1.6684423539721609e+00 -1.3294486681419118e+00 2.5411910145317192e-02 -5.8468882137400668e-01 3.6191075209708101e-01 1.8249013521173565e+00 -2.8636538943898182e-01 -5.6691823148825582e-01 -1.0055977238004217e+00 9.8226063290753829e-01 1.5791051433317094e+00 1.0670169094523807e+00 3.3783549253553091e-01 -1.0186403172779064e+00 -1.9929829691997778e+00 1.0518130613337784e+00 4.4856914331111780e-01 -1.3305617853220910e+00 -7.2462032511433938e-01 3.4701346937360272e-01 8.2055580045078041e-02 -1.8899455254076054e+00 1.5503172770844216e+00 7.2610272692941091e-01 -5.3852436508845569e-01 -2.0283932271474478e-01 
        </Neuron>
        <Neuron NSynapses="26">
          1.6893927314805224e+00 8.7756157934757939e-01 3.2857551903484367e-01 3.8273672602265579e-02 -1.9192735051353471e+00 -6.9302485749378306e-01 1.6927693695711596e+00 1.0122133188688369e+00 7.4248614393103629e-01 2.4282668332594406e-01 1.8593559978971992e+00 -1.6741809089361968e+00 -1.3166451270507920e+00 -9.9591852350515944e-02 -1.4669960301499001e+00 8.9673785963079089e-01 1.6906215790705292e+00 -1.3301205961132168e+00 8.0543153655403155e-01 -4.7362359262759765e-02 -1.7420318663656271e+00 -1.0567414893693827e+00 9.8554670454270776e-01 9.6904902352212843e-02 1.0193230478595661e+00 -7.7726517251531180e-01 
        </Neuron>
        <Neuron NSynapses="26">
          1.6328616747961295e+00 -1.3214002133413725e+00 1.0931381960436235e+00 2.0786607146008274e-02 -1.4477396928716086e+00 -1.3171525672400799e+00 -1.8375654617458825e+00 -4.8989182801220515e-01 -1.8534209097173602e+00 -1.6439808718545239e+00 -1.8945278353889750e+00 3.2940556650998098e-02 -1.0108694370368851e+00 -1.8070116101357407e+00 1.4357176946391199e+00 -6.6365391849093958e-01 3.0061683790670551e-01 -1.0113485976279817e+00 1.7765356124563353e-01 1.8799455652863533e+00 1.1757479273812632e+00 -5.4895470173176175e-01 -1.5339202182517897e+00 -1.1734625049305687e+00 -8.5124501748839387e-01 -1.9687566088279183e+00 
        </Neuron>
        <Neuron NSynapses="26">
          2.8385586239888122e-01 3.8028563498579215e-01 1.9236715029942963e+00 -2.9744932045590877e-01 2.5471322759009790e-01 -4.1124688169754675e-01 -1.9217949849649800e+00 1.4246299710272687e+00 1.2023003135854660e+00 -8.5361730715053685e-01 -1.1348843451432797e+00 9.1096511650669643e-01 1.2179727776183655e+00 4.6451953177728550e-01 -4.5246855166873284e-01 -3.9659331109278062e-01 1.4527055252060166e+00 9.6954293087991628e-01 9.6771776620701122e-01 -3.7596436468115252e-01 2.0502066437314462e-01 -2.5614790981782504e-01 -1.4586093524481860e+00 -5.6174904780140877e-01 -1.7710930210913431e+00 -1.2802899850896510e+00 
        </Neuron>
        <Neuron NSynapses="26">
          -1.4310374305601543e+00 1.6479393601304739e+00 -1.8266277238214150e+00 1.4905684489951359e+00 -1.5455017129168778e+00 1.1836030471839929e+00 -1.0422300572506169e+00 4.3357869138387722e-01 8.4075027687329040e-01 -1.8315597769854597e+00 2.1239513431424864e-01 6.5479849779968580e-01 -1.9404954976434896e+00 -1.5029815275108589e+00 -1.7174205481091736e+00 -8.9537761764733126e-01 1.6867640338345629e+00 -5.7847041950096778e-01 2.6157551338379387e-01 -8.4803552424656048e-01 -1.2531402473958932e+00 -1.7959908559558728e+00 -9.5073767401662146e-01 -1.3612253476218299e+00 9.6603002861039100e-01 -1.1156951487647904e+00 
        </Neuron>
        <Neuron NSynapses="26">
          -1.2699245680408362e+00 2.1128918423107996e+00 5.0322061594645295e-01 -6.3175493603177979e-01 1.9096149618907485e+00 -1.7116319150307033e+00 1.4533067673314879e+00 7.6324694086039724e-01 -9.9411027267353658e-01 -8.5993731220837988e-01 -5.4336907819547323e-02 -1.2052437789819406e+00 4.4303669801895834e-01 1.7056702183149928e+00 1.3155869944811744e+00 1.6385898203359117e+00 -1.0858494815094999e+00 1.1041533942813475e+00 -1.9618385276240311e+00 6.5887085635932896e-01 -1.8815821071036671e+00 -1.4177312402226803e+00 -1.2110688713908620e-01 1.1383489890601657e+00 4.6470419993359002e-01 7.4094904472606038e-01 
        </Neuron>
        <Neuron NSynapses="26">
          1.1645711840213734e-01 1.5618909943113318e-01 -5.6228977022840476e-01 1.5349446043844764e-01 1.9893478015485637e+00 -1.4022963396659807e+00 3.9177300981208479e-01 -1.4947210066714407e+00 -4.4184744363959993e-01 -2.0395691373685593e-02 1.2364583352401903e-01 -1.1409370176267168e+00 1.0050203191547353e+00 1.4646324519704739e+00 6.6869196178129775e-01 -3.3859032410666712e-01 -9.1676240031099976e-01 -1.4382504964652791e+00 -1.7410600424878635e+00 1.0807725566348432e+00 -5.0571466292913725e-01 -1.1511148959202520e+00 5.1896841836778629e-01 -1.7885023268317826e+00 -1.1351838788260864e+00 -1.5065169929037845e+00 
        </Neuron>
        <Neuron NSynapses="26">
          1.1160037348855056e+00 -1.4433110840416450e+00 -1.8891745489556029e+00 -7.2922222441058893e-01 -9.3789086105547959e-01 -1.6335625329072216e+00 1.2367719976480023e+00 -1.1534684835713036e+00 -1.2457648399410015e+00 1.7272504325546103e+00 6.5344891878732692e-01 3.3880685751335354e-01 1.4069545348849186e-01 1.3058656440189176e+00 1.7035092413880251e+00 5.6153081270112348e-01 -9.8922653305557251e-01 -6.8130793733777961e-01 -1.6937999858057902e+00 8.1453673164698204e-01 9.5551908051500767e-01 6.7997014527239205e-02 1.0589963162293781e+00 9.7336450427796384e-01 1.6488713037924623e+00 -1.3401066229285421e+00 
        </Neuron>
        <Neuron NSynapses="26">
          1.7385084788711274e+00 1.0589613831095317e+00 -1.7897130980697393e+00 -3.1736079969349940e-01 -1.0134569958670911e+00 7.1317194838867604e-01 5.4501866775185792e-01 9.5141441846332941e-01 1.8209188323458467e+00 -4.5775479043921119e-01 1.8651420331294293e+00 1.6903284103339247e+00 2.4213616894782561e-01 -1.2936380455134404e+00 1.6595455019587888e+00 -1.7156779014968095e+00 7.0861550770132464e-01 1.7621478284561016e+00 -4.4649016355495880e-01 -8.3180787226058095e-01 -2.2448010612422081e-01 -9.6718219959760054e-01 4.3465202574996276e-01 -1.9542436103538185e+00 2.2085717868274329e-01 -6.4724041610233352e-01 
        </Neuron>
        <Neuron NSynapses="26">
          1.7688888975777191e+00 9.2223797582176703e-01 1.5025415742980108e+00 -4.5867202484059300e-01 -4.5090109793731448e-01 4.7472506433230233e-01 1.8171355123661417e+00 -1.9539110685819627e+00 -1.3192495980894163e+00 -5.3271800460724272e-01 -1.4426891873149965e+00 -1.6718828899322689e+00 -1.5054327890448094e+00 7.7234511063663236e-01 2.7608550240392014e-02 -1.8353192883746612e+00 -1.7269901888048975e+00 -1.5435129654071669e-01 1.7740824136191602e+00 1.8875200693150349e+00 1.3301648774997574e+00 -7.1779267001367730e-01 -1.9130079422726529e+00 -7.3997354636699472e-02 -1.3158273274435062e+00 -1.5505091890473663e+00 
        </Neuron>
        <Neuron NSynapses="26">
          -7.7969467243251966e-01 2.8814778363113647e-01 -1.3321471299607761e+00 1.5737639674750850e+00 1.2705488963942877e+00 3.6839902213808967e-01 -6.0870319635787329e-01 -7.6151428203690952e-01 1.7655811999999089e+00 -6.2217783316551722e-01 2.4074212591408017e-01 1.6428217917121262e+00 1.5402321788948776e+00 -1.0822364006749745e+00 1.3673939322240454e+00 -2.0756894581186636e+00 1.5663887791881133e+00 1.8411603937180900e+00 -1.8034497349167017e-01 -3.5964280625850098e-01 2.0734916522113353e-01 -6.6222254433945960e-01 1.1853497344956649e+00 2.9614640348707477e-01 -8.5243338867982965e-01 -1.3207406330808384e+00 
        </Neuron>
        <Neuron NSynapses="26">
          -1.7661080618632055e-01 2.1084089844870464e+00 5.6266803851622138e-01 -6.6445340378815265e-01 -1.8991979856869825e+00 1.9777769476674925e+00 4.1258076759205398e-01 -1.0471803088044733e+00 -2.5135342561120777e-01 -1.0524863271450704e+00 1.1451670824769993e+00 1.4799605741452364e+00 -7.0699398580518935e-01 -1.1161000746924830e+00 1.5576492226177094e+00 1.0717650014764348e+00 2.3173766244888955e-01 1.6345465623742444e-01 -1.2748509431706239e+00 -1.3008658011457064e+00 1.1732015211296769e+00 3.3398953287121536e-01 4.5331015109059275e-01 -1.8380792660350398e+00 -1.7811407925521763e+00 -1.7417947344572395e+00 
        </Neuron>
        <Neuron NSynapses="26">
          -4.1974061535160279e-01 -1.3575806119801497e+00 9.4985502070101213e-01 -4.2620586677429972e-01 1.7261999997282020e+00 3.3083550995783445e-01 -1.9231118860431884e+00 1.4107734647057759e+00 1.9511709618093729e+00 1.0745899635861760e+00 -5.1676066532437159e-01 -9.8129335670011353e-01 1.9257102406056508e+00 -1.8774276462549255e+00 4.1342246808197980e-01 -1.2699665881192979e+00 1.3759385342015100e+00 -1.1091094093947758e+00 2.6958316374752450e-01 -3.1063830597072317e-01 4.1290455539359361e-01 -4.0903529478555034e-01 -8.5337629308029306e-01 6.9294025794693825e-01 3.8203119374777977e-01 6.3855930159275798e-01 
        </Neuron>
        <Neuron NSynapses="26">
          9.1711147152049088e-01 -1.3291456394518513e+00 1.6124953181790069e+00 -1.8633807391595116e+00 1.0643464997593350e+00 1.2858461783908808e+00 8.2927989553836301e-01 1.6755537543684771e+00 1.4754612729472576e+00 -2.0331576153435762e+00 -7.4886867375823141e-01 -9.2037166283611804e-01 6.9081712402135365e-01 -2.4512667769780710e-01 -2.0465477329087794e-01 -6.1362063657847199e-01 -4.6081886192318811e-01 -1.0170389278111696e+00 -3.5921627097358788e-01 -1.9783259122647019e+00 -4.6708774628482891e-01 2.2494739668136010e-01 -7.8450342242890592e-01 -1.5267539931656362e+00 5.0612437053690851e-01 1.9882322087326451e-01 
        </Neuron>
        <Neuron NSynapses="26">
          -1.6315228628734241e-01 -1.8445797769270909e+00 1.6178678818424495e+00 -2.6723036471191169e-01 6.5525071371498089e-01 6.9478781598704109e-01 -1.3155769078723092e+00 -7.4495886823154067e-01 -3.5219907549234691e-01 -1.8744209841457080e+00 -5.9754356079858362e-01 -1.0895686096454886e+00 1.1578774613779796e+00 -1.5626634125452363e+00 1.5237058711310356e+00 1.7606290287752990e+00 1.5625692804692675e+00 1.0522137473063531e+00 7.0425444992343567e-01 2.4882031014563780e-02 -8.3112085781017753e-01 -2.1409772727461442e+00 -9.7546410190720301e-01 -6.5526773830416052e-01 1.3722538459469162e+00 3.3139436770951003e-01 
        </Neuron>
      </Layer>
      <Layer Index="1" NNeurons="27">
        <Neuron NSynapses="1">
          3.7895895078643516e-01 
        </Neuron>
        <Neuron NSynapses="1">
          8.2456906516902528e-01 
        </Neuron>
        <Neuron NSynapses="1">
          -1.8426284759502617e-01 
        </Neuron>
        <Neuron NSynapses="1">
          -1.5570293731390554e+00 
        </Neuron>
        <Neuron NSynapses="1">
          5.8820164911493922e-01 
        </Neuron>
        <Neuron NSynapses="1">
          -1.1714999859012387e+00 
        </Neuron>
        <Neuron NSynapses="1">
          7.1124750497531164e-01 
        </Neuron>
        <Neuron NSynapses="1">
          -1.4764129795342686e+00 
        </Neuron>
        <Neuron NSynapses="1">
          2.1023166828923004e-01 
        </Neuron>
        <Neuron NSynapses="1">
          4.4448254686955298e-02 
        </Neuron>
        <Neuron NSynapses="1">
          7.4191138573362148e-01 
        </Neuron>
        <Neuron NSynapses="1">
          -1.5322490639769437e+00 
        </Neuron>
        <Neuron NSynapses="1">
          -3.4905912044258830e-01 
        </Neuron>
        <Neuron NSynapses="1">
          -1.7417891030857111e+00 
        </Neuron>
        <Neuron NSynapses="1">
          1.4910041937652072e-01 
        </Neuron>
        <Neuron NSynapses="1">
          8.6543346546245081e-01 
        </Neuron>
        <Neuron NSynapses="1">
          1.0209351365474222e+00 
        </Neuron>
        <Neuron NSynapses="1">
          6.1985514436133848e-01 
        </Neuron>
        <Neuron NSynapses="1">
          -2.0971156785608147e+00 
        </Neuron>
        <Neuron NSynapses="1">
          7.8154750553648600e-01 
        </Neuron>
        <Neuron NSynapses="1">
          -5.5889650814300895e-01 
        </Neuron>
        <Neuron NSynapses="1">
          8.7262482373286754e-01 
        </Neuron>
        <Neuron NSynapses="1">
          -1.1709112075003518e+00 
        </Neuron>
        <Neuron NSynapses="1">
          -1.2277968095203486e+00 
        </Neuron>
        <Neuron NSynapses="1">
          1.5567830560831437e+00 
        </Neuron>
        <Neuron NSynapses="1">
          -6.7631152545192952e-01 
        </Neuron>
        <Neuron NSynapses="1">
          -1.6781004723942667e+00 
        </Neuron>
      </Layer>
      <Layer Index="2" NNeurons="1">
        <Neuron NSynapses="0"/>
      </Layer>
    </Layout>
  </Weights>
</MethodSetup>
