<?xml version="1.0"?>
<MethodSetup Method="MLP::MLP">
  <GeneralInfo>
    <Info name="TMVA Release" value="4.2.1 [262657]"/>
    <Info name="ROOT Release" value="6.08/07 [395271]"/>
    <Info name="Creator" value="wverbeke"/>
    <Info name="Date" value="Thu Nov 23 00:07:53 2017"/>
    <Info name="Host" value="Linux vocms0302.cern.ch 2.6.32-696.1.1.el6.x86_64 #1 SMP Wed Apr 12 08:44:28 CEST 2017 x86_64 x86_64 x86_64 GNU/Linux"/>
    <Info name="Dir" value="/storage_mnt/storage/user/wverbeke/Work/AnalysisCode/ewkino/bdtTraining"/>
    <Info name="Training events" value="49778"/>
    <Info name="TrainingTime" value="6.85988762e+02"/>
    <Info name="AnalysisType" value="Classification"/>
  </GeneralInfo>
  <Options>
    <Option name="NCycles" modified="Yes">600</Option>
    <Option name="HiddenLayers" modified="Yes">N+5</Option>
    <Option name="NeuronType" modified="Yes">tanh</Option>
    <Option name="RandomSeed" modified="No">1</Option>
    <Option name="EstimatorType" modified="No">CE</Option>
    <Option name="NeuronInputType" modified="No">sum</Option>
    <Option name="V" modified="Yes">False</Option>
    <Option name="VerbosityLevel" modified="No">Default</Option>
    <Option name="VarTransform" modified="Yes">N</Option>
    <Option name="H" modified="Yes">True</Option>
    <Option name="CreateMVAPdfs" modified="No">False</Option>
    <Option name="IgnoreNegWeightsInTraining" modified="No">False</Option>
    <Option name="TrainingMethod" modified="No">BP</Option>
    <Option name="LearningRate" modified="No">2.000000e-02</Option>
    <Option name="DecayRate" modified="No">1.000000e-02</Option>
    <Option name="TestRate" modified="Yes">5</Option>
    <Option name="EpochMonitoring" modified="No">False</Option>
    <Option name="Sampling" modified="No">1.000000e+00</Option>
    <Option name="SamplingEpoch" modified="No">1.000000e+00</Option>
    <Option name="SamplingImportance" modified="No">1.000000e+00</Option>
    <Option name="SamplingTraining" modified="No">True</Option>
    <Option name="SamplingTesting" modified="No">False</Option>
    <Option name="ResetStep" modified="No">50</Option>
    <Option name="Tau" modified="No">3.000000e+00</Option>
    <Option name="BPMode" modified="No">sequential</Option>
    <Option name="BatchSize" modified="No">-1</Option>
    <Option name="ConvergenceImprove" modified="No">1.000000e-30</Option>
    <Option name="ConvergenceTests" modified="No">-1</Option>
    <Option name="UseRegulator" modified="Yes">False</Option>
    <Option name="UpdateLimit" modified="No">10000</Option>
    <Option name="CalculateErrors" modified="No">False</Option>
    <Option name="WeightRange" modified="No">1.000000e+00</Option>
  </Options>
  <Variables NVar="21">
    <Variable VarIndex="0" Expression="topMass" Label="topMass" Title="topMass" Unit="" Internal="topMass" Type="F" Min="0.00000000e+00" Max="2.41867969e+03"/>
    <Variable VarIndex="1" Expression="pTForwardJets" Label="pTForwardJets" Title="pTForwardJets" Unit="" Internal="pTForwardJets" Type="F" Min="0.00000000e+00" Max="5.30691956e+02"/>
    <Variable VarIndex="2" Expression="etaMostForward" Label="etaMostForward" Title="etaMostForward" Unit="" Internal="etaMostForward" Type="F" Min="7.56851258e-03" Max="5.08811855e+00"/>
    <Variable VarIndex="3" Expression="pTLeadingJet" Label="pTLeadingJet" Title="pTLeadingJet" Unit="" Internal="pTLeadingJet" Type="F" Min="2.52303104e+01" Max="1.31254529e+03"/>
    <Variable VarIndex="4" Expression="pTLeadingLepton" Label="pTLeadingLepton" Title="pTLeadingLepton" Unit="" Internal="pTLeadingLepton" Type="F" Min="2.50929489e+01" Max="9.83317871e+02"/>
    <Variable VarIndex="5" Expression="mNotSoForwardJets" Label="mNotSoForwardJets" Title="mNotSoForwardJets" Unit="" Internal="mNotSoForwardJets" Type="F" Min="0.00000000e+00" Max="5.11072314e+03"/>
    <Variable VarIndex="6" Expression="pTLeadingBJet" Label="pTLeadingBJet" Title="pTLeadingBJet" Unit="" Internal="pTLeadingBJet" Type="F" Min="2.50006523e+01" Max="1.31254529e+03"/>
    <Variable VarIndex="7" Expression="missingET" Label="missingET" Title="missingET" Unit="" Internal="missingET" Type="F" Min="3.39112341e-01" Max="7.93616760e+02"/>
    <Variable VarIndex="8" Expression="highestDeepCSV" Label="highestDeepCSV" Title="highestDeepCSV" Unit="" Internal="highestDeepCSV" Type="F" Min="6.32403016e-01" Max="9.99999881e-01"/>
    <Variable VarIndex="9" Expression="maxMjj" Label="maxMjj" Title="maxMjj" Unit="" Internal="maxMjj" Type="F" Min="0.00000000e+00" Max="4.86016992e+03"/>
    <Variable VarIndex="10" Expression="minMlb" Label="minMlb" Title="minMlb" Unit="" Internal="minMlb" Type="F" Min="-2.72974030e+02" Max="1.00051398e+03"/>
    <Variable VarIndex="11" Expression="asymmetryWlep" Label="asymmetryWlep" Title="asymmetryWlep" Unit="" Internal="asymmetryWlep" Type="F" Min="-2.48666644e+00" Max="2.49501038e+00"/>
    <Variable VarIndex="12" Expression="etaZ" Label="etaZ" Title="etaZ" Unit="" Internal="etaZ" Type="F" Min="6.63794708e-05" Max="7.90405655e+00"/>
    <Variable VarIndex="13" Expression="m3l" Label="m3l" Title="m3l" Unit="" Internal="m3l" Type="F" Min="1.63404770e+01" Max="2.46046558e+03"/>
    <Variable VarIndex="14" Expression="maxDeltaPhijj" Label="maxDeltaPhijj" Title="maxDeltaPhijj" Unit="" Internal="maxDeltaPhijj" Type="F" Min="3.64780426e-05" Max="3.14155316e+00"/>
    <Variable VarIndex="15" Expression="maxDeltaRjj" Label="maxDeltaRjj" Title="maxDeltaRjj" Unit="" Internal="maxDeltaRjj" Type="F" Min="4.07080978e-01" Max="9.50587273e+00"/>
    <Variable VarIndex="16" Expression="maxDeltaPhill" Label="maxDeltaPhill" Title="maxDeltaPhill" Unit="" Internal="maxDeltaPhill" Type="F" Min="5.11491299e-03" Max="3.14158344e+00"/>
    <Variable VarIndex="17" Expression="pTMaxlb" Label="pTMaxlb" Title="pTMaxlb" Unit="" Internal="pTMaxlb" Type="F" Min="1.30851822e+01" Max="1.26456311e+03"/>
    <Variable VarIndex="18" Expression="pT3l" Label="pT3l" Title="pT3l" Unit="" Internal="pT3l" Type="F" Min="5.49152493e-01" Max="1.07090503e+03"/>
    <Variable VarIndex="19" Expression="mForwardJetsLeadinBJetW" Label="mForwardJetsLeadinBJetW" Title="mForwardJetsLeadinBJetW" Unit="" Internal="mForwardJetsLeadinBJetW" Type="F" Min="0.00000000e+00" Max="5.35813623e+03"/>
    <Variable VarIndex="20" Expression="ht" Label="ht" Title="ht" Unit="" Internal="ht" Type="F" Min="5.03089218e+01" Max="2.22776343e+03"/>
  </Variables>
  <Spectators NSpec="0"/>
  <Classes NClass="2">
    <Class Name="Signal" Index="0"/>
    <Class Name="Background" Index="1"/>
  </Classes>
  <Transformations NTransformations="1">
    <Transform Name="Normalize">
      <Selection>
        <Input NInputs="21">
          <Input Type="Variable" Label="topMass" Expression="topMass"/>
          <Input Type="Variable" Label="pTForwardJets" Expression="pTForwardJets"/>
          <Input Type="Variable" Label="etaMostForward" Expression="etaMostForward"/>
          <Input Type="Variable" Label="pTLeadingJet" Expression="pTLeadingJet"/>
          <Input Type="Variable" Label="pTLeadingLepton" Expression="pTLeadingLepton"/>
          <Input Type="Variable" Label="mNotSoForwardJets" Expression="mNotSoForwardJets"/>
          <Input Type="Variable" Label="pTLeadingBJet" Expression="pTLeadingBJet"/>
          <Input Type="Variable" Label="missingET" Expression="missingET"/>
          <Input Type="Variable" Label="highestDeepCSV" Expression="highestDeepCSV"/>
          <Input Type="Variable" Label="maxMjj" Expression="maxMjj"/>
          <Input Type="Variable" Label="minMlb" Expression="minMlb"/>
          <Input Type="Variable" Label="asymmetryWlep" Expression="asymmetryWlep"/>
          <Input Type="Variable" Label="etaZ" Expression="etaZ"/>
          <Input Type="Variable" Label="m3l" Expression="m3l"/>
          <Input Type="Variable" Label="maxDeltaPhijj" Expression="maxDeltaPhijj"/>
          <Input Type="Variable" Label="maxDeltaRjj" Expression="maxDeltaRjj"/>
          <Input Type="Variable" Label="maxDeltaPhill" Expression="maxDeltaPhill"/>
          <Input Type="Variable" Label="pTMaxlb" Expression="pTMaxlb"/>
          <Input Type="Variable" Label="pT3l" Expression="pT3l"/>
          <Input Type="Variable" Label="mForwardJetsLeadinBJetW" Expression="mForwardJetsLeadinBJetW"/>
          <Input Type="Variable" Label="ht" Expression="ht"/>
        </Input>
        <Output NOutputs="21">
          <Output Type="Variable" Label="topMass" Expression="topMass"/>
          <Output Type="Variable" Label="pTForwardJets" Expression="pTForwardJets"/>
          <Output Type="Variable" Label="etaMostForward" Expression="etaMostForward"/>
          <Output Type="Variable" Label="pTLeadingJet" Expression="pTLeadingJet"/>
          <Output Type="Variable" Label="pTLeadingLepton" Expression="pTLeadingLepton"/>
          <Output Type="Variable" Label="mNotSoForwardJets" Expression="mNotSoForwardJets"/>
          <Output Type="Variable" Label="pTLeadingBJet" Expression="pTLeadingBJet"/>
          <Output Type="Variable" Label="missingET" Expression="missingET"/>
          <Output Type="Variable" Label="highestDeepCSV" Expression="highestDeepCSV"/>
          <Output Type="Variable" Label="maxMjj" Expression="maxMjj"/>
          <Output Type="Variable" Label="minMlb" Expression="minMlb"/>
          <Output Type="Variable" Label="asymmetryWlep" Expression="asymmetryWlep"/>
          <Output Type="Variable" Label="etaZ" Expression="etaZ"/>
          <Output Type="Variable" Label="m3l" Expression="m3l"/>
          <Output Type="Variable" Label="maxDeltaPhijj" Expression="maxDeltaPhijj"/>
          <Output Type="Variable" Label="maxDeltaRjj" Expression="maxDeltaRjj"/>
          <Output Type="Variable" Label="maxDeltaPhill" Expression="maxDeltaPhill"/>
          <Output Type="Variable" Label="pTMaxlb" Expression="pTMaxlb"/>
          <Output Type="Variable" Label="pT3l" Expression="pT3l"/>
          <Output Type="Variable" Label="mForwardJetsLeadinBJetW" Expression="mForwardJetsLeadinBJetW"/>
          <Output Type="Variable" Label="ht" Expression="ht"/>
        </Output>
      </Selection>
      <Class ClassIndex="0">
        <Ranges>
          <Range Index="0" Min="0.0000000000000000e+00" Max="2.4186796875000000e+03"/>
          <Range Index="1" Min="0.0000000000000000e+00" Max="5.3069195556640625e+02"/>
          <Range Index="2" Min="4.5419510453939438e-02" Max="5.0881185531616211e+00"/>
          <Range Index="3" Min="2.5404005050659180e+01" Max="1.1519465332031250e+03"/>
          <Range Index="4" Min="2.5140686035156250e+01" Max="9.8331787109375000e+02"/>
          <Range Index="5" Min="0.0000000000000000e+00" Max="5.1107231445312500e+03"/>
          <Range Index="6" Min="2.5000652313232422e+01" Max="1.0071645507812500e+03"/>
          <Range Index="7" Min="6.2190920114517212e-01" Max="7.1239324951171875e+02"/>
          <Range Index="8" Min="6.3240301609039307e-01" Max="9.9999988079071045e-01"/>
          <Range Index="9" Min="0.0000000000000000e+00" Max="4.8601699218750000e+03"/>
          <Range Index="10" Min="-1.8097407531738281e+02" Max="7.8352270507812500e+02"/>
          <Range Index="11" Min="-2.4818017482757568e+00" Max="2.4946858882904053e+00"/>
          <Range Index="12" Min="8.6421452579088509e-05" Max="6.4718461036682129e+00"/>
          <Range Index="13" Min="3.5809226989746094e+01" Max="1.4938769531250000e+03"/>
          <Range Index="14" Min="3.6478042602539062e-05" Max="3.1415531635284424e+00"/>
          <Range Index="15" Min="4.2039516568183899e-01" Max="9.5058727264404297e+00"/>
          <Range Index="16" Min="7.7300429344177246e-02" Max="3.1415407657623291e+00"/>
          <Range Index="17" Min="1.7872709274291992e+01" Max="1.2645631103515625e+03"/>
          <Range Index="18" Min="5.4915249347686768e-01" Max="1.0485744628906250e+03"/>
          <Range Index="19" Min="0.0000000000000000e+00" Max="5.3581362304687500e+03"/>
          <Range Index="20" Min="5.0545673370361328e+01" Max="2.2277634277343750e+03"/>
        </Ranges>
      </Class>
      <Class ClassIndex="1">
        <Ranges>
          <Range Index="0" Min="0.0000000000000000e+00" Max="2.2337004394531250e+03"/>
          <Range Index="1" Min="0.0000000000000000e+00" Max="4.1548184204101562e+02"/>
          <Range Index="2" Min="7.5685125775635242e-03" Max="5.0833616256713867e+00"/>
          <Range Index="3" Min="2.5230310440063477e+01" Max="1.3125452880859375e+03"/>
          <Range Index="4" Min="2.5092948913574219e+01" Max="8.8005285644531250e+02"/>
          <Range Index="5" Min="0.0000000000000000e+00" Max="3.9661577148437500e+03"/>
          <Range Index="6" Min="2.5005516052246094e+01" Max="1.3125452880859375e+03"/>
          <Range Index="7" Min="3.3911234140396118e-01" Max="7.9361676025390625e+02"/>
          <Range Index="8" Min="6.3242119550704956e-01" Max="9.9999988079071045e-01"/>
          <Range Index="9" Min="0.0000000000000000e+00" Max="3.8674196777343750e+03"/>
          <Range Index="10" Min="-2.7297402954101562e+02" Max="1.0005139770507812e+03"/>
          <Range Index="11" Min="-2.4866664409637451e+00" Max="2.4950103759765625e+00"/>
          <Range Index="12" Min="6.6379470808897167e-05" Max="7.9040565490722656e+00"/>
          <Range Index="13" Min="1.6340476989746094e+01" Max="2.4604655761718750e+03"/>
          <Range Index="14" Min="3.2925605773925781e-04" Max="3.1414465904235840e+00"/>
          <Range Index="15" Min="4.0708097815513611e-01" Max="9.1172161102294922e+00"/>
          <Range Index="16" Min="5.1149129867553711e-03" Max="3.1415834426879883e+00"/>
          <Range Index="17" Min="1.3085182189941406e+01" Max="1.1866927490234375e+03"/>
          <Range Index="18" Min="7.6824438571929932e-01" Max="1.0709050292968750e+03"/>
          <Range Index="19" Min="0.0000000000000000e+00" Max="4.3077324218750000e+03"/>
          <Range Index="20" Min="5.0308921813964844e+01" Max="1.8313054199218750e+03"/>
        </Ranges>
      </Class>
      <Class ClassIndex="2">
        <Ranges>
          <Range Index="0" Min="0.0000000000000000e+00" Max="2.4186796875000000e+03"/>
          <Range Index="1" Min="0.0000000000000000e+00" Max="5.3069195556640625e+02"/>
          <Range Index="2" Min="7.5685125775635242e-03" Max="5.0881185531616211e+00"/>
          <Range Index="3" Min="2.5230310440063477e+01" Max="1.3125452880859375e+03"/>
          <Range Index="4" Min="2.5092948913574219e+01" Max="9.8331787109375000e+02"/>
          <Range Index="5" Min="0.0000000000000000e+00" Max="5.1107231445312500e+03"/>
          <Range Index="6" Min="2.5000652313232422e+01" Max="1.3125452880859375e+03"/>
          <Range Index="7" Min="3.3911234140396118e-01" Max="7.9361676025390625e+02"/>
          <Range Index="8" Min="6.3240301609039307e-01" Max="9.9999988079071045e-01"/>
          <Range Index="9" Min="0.0000000000000000e+00" Max="4.8601699218750000e+03"/>
          <Range Index="10" Min="-2.7297402954101562e+02" Max="1.0005139770507812e+03"/>
          <Range Index="11" Min="-2.4866664409637451e+00" Max="2.4950103759765625e+00"/>
          <Range Index="12" Min="6.6379470808897167e-05" Max="7.9040565490722656e+00"/>
          <Range Index="13" Min="1.6340476989746094e+01" Max="2.4604655761718750e+03"/>
          <Range Index="14" Min="3.6478042602539062e-05" Max="3.1415531635284424e+00"/>
          <Range Index="15" Min="4.0708097815513611e-01" Max="9.5058727264404297e+00"/>
          <Range Index="16" Min="5.1149129867553711e-03" Max="3.1415834426879883e+00"/>
          <Range Index="17" Min="1.3085182189941406e+01" Max="1.2645631103515625e+03"/>
          <Range Index="18" Min="5.4915249347686768e-01" Max="1.0709050292968750e+03"/>
          <Range Index="19" Min="0.0000000000000000e+00" Max="5.3581362304687500e+03"/>
          <Range Index="20" Min="5.0308921813964844e+01" Max="2.2277634277343750e+03"/>
        </Ranges>
      </Class>
    </Transform>
  </Transformations>
  <MVAPdfs/>
  <Weights>
    <Layout NLayers="3">
      <Layer Index="0" NNeurons="22">
        <Neuron NSynapses="26">
          -5.0886489950019498e-01 2.3424392160161509e+00 1.0942947844112116e+00 1.6893956671892656e+00 -1.9587826174727485e+00 -1.2817268637209784e+00 -7.8871176619365446e-01 2.1496810402479554e+00 -1.3833819115175199e+00 -1.0833506327551503e+00 -1.6836933422495350e+00 -4.3047319618165242e-01 -1.2615822373454517e+00 -4.7072050308158142e-01 -6.1784101041247586e-01 5.7249731705008156e-01 -4.4109169050409697e-01 1.7398099990546507e+00 1.6784202866260811e-01 1.4021908165704522e+00 -3.8887787066874374e-01 -7.2987847572019182e-01 8.3595436197298167e-01 1.1486673166655722e-02 -1.1784506827884174e+00 -7.7362992471782716e-02 
        </Neuron>
        <Neuron NSynapses="26">
          1.5699636060463571e+00 -5.3066908554980063e-01 -1.4709194879520828e+00 -1.3273500463076696e-01 7.4667246186302549e-01 1.5498794504230340e+00 -2.5019864526336200e-01 -3.0471381564441957e-01 3.0432408574056358e-01 -3.5157194128842356e-01 -1.3747593448586837e+00 1.6931325325445830e+00 -1.2042179050513069e+00 7.4647989479665633e-01 1.2235559782437455e+00 1.1350770185293193e+00 1.9291074579974488e+00 1.3356197073483875e+00 -7.5135612933675866e-01 -1.3703107056630608e+00 5.8099306401545270e-01 5.7743535781603206e-01 1.4795736031205589e+00 1.2601741008654348e+00 1.6051521691912642e+00 7.6330105260781222e-01 
        </Neuron>
        <Neuron NSynapses="26">
          -1.4301682867390197e+00 1.3842169220554246e+00 -1.6848426595638146e+00 -8.1631191315560359e-01 -1.2842586587052056e+00 -1.8511270147635877e+00 1.5392151966757321e+00 5.9454445801917111e-01 -1.5989225041240884e+00 3.5802011140148443e-01 -2.9139576318938326e-01 6.9631484384267650e-01 1.8467509722535653e+00 -2.7371876478892426e-01 1.2893424575821985e-01 -1.2761268581349359e+00 7.7837948258182232e-01 -7.9291354927877800e-01 -7.2428192132457503e-01 -1.5262773074277198e+00 7.0031216345901404e-01 1.8392142545476555e+00 1.3218190530277356e+00 -3.7870615215656811e-01 -1.9230536366921434e+00 -2.2050602542338105e+00 
        </Neuron>
        <Neuron NSynapses="26">
          8.2380031484602134e-01 8.5933096633148909e-01 2.1833284334017002e+00 7.0313338632189659e-01 1.0386818170645156e+00 -6.0387221808777158e-01 -8.8859381451572272e-01 -4.6948700602380523e-02 1.1690225416082733e+00 -1.1295495520435703e+00 -1.6274430236329462e+00 -1.7055164798467193e+00 -2.2137114689793144e-01 -5.1825070212441059e-02 1.6281312893041666e+00 -1.8550824948233569e+00 -8.4659255902500707e-01 1.5942334446291391e+00 -8.4320731802700821e-01 -1.4989767956579001e+00 -1.5693842428549005e+00 1.6777524433157534e-01 -1.8181218459454822e+00 -1.6944911281344126e+00 7.2144797042319520e-01 1.6863127659912693e+00 
        </Neuron>
        <Neuron NSynapses="26">
          -1.3744230275218743e+00 1.9541738079567852e+00 -6.9119621318052316e-01 -7.3763399697328003e-01 6.1496909299554930e-03 5.7687183212670534e-01 -1.7982747487295618e+00 3.9789862795942860e-01 3.1757733383957742e-01 4.3143287196335506e-01 -1.4840248480036147e+00 1.8126938814570395e+00 3.3716392597622891e-01 -9.0398529102328551e-01 7.9528772831004313e-01 -1.2650178137066272e+00 -1.6160282330862084e+00 1.2186654147742638e-01 -3.2736037522482669e-01 1.8239922571213116e+00 7.1940498578237089e-01 -1.0735360086632253e-01 -2.1659028390276178e-01 1.3476069869942689e-01 -1.8046417757047277e+00 1.2534465655538780e+00 
        </Neuron>
        <Neuron NSynapses="26">
          5.8309637579547276e-02 -1.3280961468702659e+00 1.0397819593248132e+00 -1.4455114324725487e+00 1.1776889182038522e-01 1.2179766105609258e+00 1.8196299565476071e+00 -1.8236574445955553e+00 3.9830652895782387e-01 1.4731554680024397e+00 1.6172591531167879e+00 1.3039176994812884e-01 -1.4342322859846850e+00 -4.5789832318592255e-01 -1.4360825933890893e+00 1.6706997047183327e+00 1.2270384444468834e+00 -4.2303620975207928e-01 -3.9847011682892308e-01 2.0083245134446739e-01 -1.4591052043112032e+00 9.0895436290212905e-01 1.8139646290593350e+00 -7.0810859416203265e-01 -5.8570507180077658e-01 5.7601067658885952e-02 
        </Neuron>
        <Neuron NSynapses="26">
          7.9858410405322555e-01 9.2918268573428120e-01 1.1537050598470731e+00 -1.4381965883342793e+00 1.5800557105200010e+00 9.9995465847801235e-01 4.8924742039127250e-01 8.0030748391198681e-01 1.0269983549764332e+00 -6.0863374429352091e-01 -6.4998773554808587e-01 1.0521012396537259e+00 -9.2254798000392635e-01 -4.7715302124991787e-01 1.5800469957747596e+00 7.8780531870939197e-01 -3.4855428648821063e-01 1.5071062333790528e+00 1.8757460965581292e+00 -1.9719754714665922e+00 5.7179016896368262e-01 3.1208060616799194e-02 6.2461094485494018e-01 -1.7760050053052947e+00 -1.5336682167633642e+00 1.2935521019495462e+00 
        </Neuron>
        <Neuron NSynapses="26">
          1.5836593133168111e+00 -1.3335153928687209e+00 1.0367373603689121e-01 -5.7701259613673617e-01 3.6240003320137087e-01 1.8829050533994844e+00 -3.3980391822575612e-01 -3.9489676049013950e-01 -1.0051868702533322e+00 1.0054873536881663e+00 1.6068732553529639e+00 1.0502742801219214e+00 2.9835238349911569e-01 -8.7728501539115544e-01 -1.9834169556689021e+00 1.0851414373453752e+00 4.0894974216897700e-01 -1.3535645300739569e+00 -6.8090249768749489e-01 3.8396041064069281e-01 3.4195468171137409e-02 -1.9695449367444802e+00 1.6858296724078341e+00 6.8948298294175281e-01 -5.5631706594055741e-01 -9.1025497540581243e-02 
        </Neuron>
        <Neuron NSynapses="26">
          1.6812490985734330e+00 7.4789186933480667e-01 2.1598810487002790e-01 -1.4793632383664818e-02 -1.9018919380217931e+00 -6.9204830000688344e-01 1.6374935998577489e+00 1.2108001695915485e+00 7.1357347290227480e-01 2.6985092025937013e-01 1.9175111810079919e+00 -1.6867555140762178e+00 -1.3104543727428799e+00 -6.6257243151321504e-02 -1.4714620765894730e+00 6.2604324811873902e-01 1.8436553192303298e+00 -1.3314668288191980e+00 7.8346148479146449e-01 -1.0078271118253133e-01 -1.7110102718311186e+00 -1.2713963301524536e+00 8.8217243233799270e-01 1.6705649605425466e-01 1.0031230830485729e+00 -8.5057211481526318e-01 
        </Neuron>
        <Neuron NSynapses="26">
          1.6484641745956583e+00 -1.3391438974767356e+00 1.1932625684404417e+00 7.9432820112427194e-02 -1.4470395907037372e+00 -1.2569565979341952e+00 -1.8863296120732964e+00 -3.7624710826664282e-01 -1.8489410851806012e+00 -1.6222031887152930e+00 -1.8786674126730221e+00 9.9522519951046329e-03 -1.0157016669479297e+00 -1.8136168255391816e+00 1.4408609979784588e+00 -8.0987258414374830e-01 1.8846473574398706e-01 -1.0163164571668368e+00 2.2376639344848670e-01 1.9340112577264204e+00 1.2300326923737341e+00 -5.2375852670990553e-01 -1.4198129055916644e+00 -1.1953068002696345e+00 -8.6149191648231549e-01 -1.9744238945368691e+00 
        </Neuron>
        <Neuron NSynapses="26">
          2.3230287608213551e-01 4.3149754746841712e-01 1.9619196380202271e+00 -3.0821202351293109e-01 2.6437118442315027e-01 -3.7454861956989638e-01 -1.9372262188876437e+00 1.3979617993871392e+00 1.2050286536929034e+00 -8.4041509998546915e-01 -1.0990153880403390e+00 8.8637299750345910e-01 1.2231457736145597e+00 5.1674027390187494e-01 -4.5031630498415071e-01 -4.3895808075525028e-01 1.4185760792411697e+00 9.8715097714092714e-01 9.9999818627729420e-01 -3.2366616831518857e-01 1.8848818381376259e-01 -3.0077927034168545e-01 -1.3855627318534880e+00 -5.7879124156328099e-01 -1.7659897774552979e+00 -1.2761265606578434e+00 
        </Neuron>
        <Neuron NSynapses="26">
          -1.3141572011570499e+00 1.6431179106491243e+00 -1.7936116337819796e+00 1.6279786498886675e+00 -1.5364287751197745e+00 1.1616977122397538e+00 -1.0912645827759855e+00 5.6739606035031365e-01 8.3821600752212433e-01 -1.8329274581557324e+00 2.5677817355492949e-01 6.2043006608897577e-01 -1.9543026392766816e+00 -1.5448303369791576e+00 -1.7145895265076205e+00 -8.1818702069178717e-01 1.8202387423788502e+00 -5.5599637022676018e-01 2.7042006460999635e-01 -9.3745628945892001e-01 -1.2102641453531431e+00 -1.4845149173869927e+00 -9.4508417617052198e-01 -1.3629942212140365e+00 9.7889818061251721e-01 -1.1563509287328355e+00 
        </Neuron>
        <Neuron NSynapses="26">
          -1.2903124023539740e+00 2.0943603676186942e+00 5.6141473917925555e-01 -6.9537932656734169e-01 1.9044079022655058e+00 -1.6411603754061106e+00 1.4167782911817692e+00 9.4454892598280682e-01 -9.9086659014614498e-01 -8.4792089393086034e-01 -4.2971065706664077e-02 -1.2247235040227040e+00 4.3737003751794440e-01 1.7596118293277405e+00 1.3278794356954231e+00 1.5090899234882331e+00 -1.3075079016429090e+00 1.0937058223031824e+00 -1.9175539646527711e+00 7.2450721302356191e-01 -1.8103342958848583e+00 -1.5602592245688129e+00 1.1285584922859443e-02 1.1043018076104718e+00 4.5033738878582930e-01 9.0588332331653643e-01 
        </Neuron>
        <Neuron NSynapses="26">
          8.5908061024313045e-02 1.7331673224000502e-01 -4.5183078755033129e-01 1.0358325163610606e-01 1.9944115868418104e+00 -1.3911513653541330e+00 3.5420403740230150e-01 -1.3530495539769682e+00 -4.3139713838638610e-01 -1.6354584525221866e-03 1.6970671788741909e-01 -1.1810443313997969e+00 9.6561944040208381e-01 1.5501377175255957e+00 6.8250231119457716e-01 -2.5273681723768815e-01 -9.7057787723533950e-01 -1.4284478362540503e+00 -1.7222736156723268e+00 1.1359465187643720e+00 -5.9392168478760876e-01 -1.1593694750847841e+00 6.1522792591301811e-01 -1.8416432078339875e+00 -1.1429499074758853e+00 -1.5337221637285134e+00 
        </Neuron>
        <Neuron NSynapses="26">
          1.0817103277518536e+00 -1.5086818133052582e+00 -1.9421522666028732e+00 -5.1053763013247622e-01 -9.4362926881594278e-01 -1.5440300056776679e+00 1.1826418436070534e+00 -1.3667594900134552e+00 -1.2457084280290189e+00 1.7491416822125085e+00 5.8616427048798680e-01 3.4566330370112541e-01 9.3318854706051682e-02 1.3580820709459160e+00 1.6929551334535977e+00 6.9153851114100273e-01 -1.0341092452849692e+00 -7.0034515161881028e-01 -1.7511971138972084e+00 8.6572074534481391e-01 9.6028241222701116e-01 4.2168851883670422e-02 1.0101258680867031e+00 9.9754076968175065e-01 1.6285429845516846e+00 -7.2822909178331363e-01 
        </Neuron>
        <Neuron NSynapses="26">
          1.8511933754827068e+00 9.8472043108864593e-01 -1.7233526487786401e+00 -2.4501426678926999e-01 -1.0197471997359913e+00 8.0080650574061607e-01 5.0023872160004723e-01 9.8364959801424445e-01 1.8174511214682061e+00 -4.3789858319519753e-01 1.8525210905862377e+00 1.7000745471084595e+00 2.4447868186036134e-01 -1.3312878872681360e+00 1.6627625846799574e+00 -1.7316563513292977e+00 6.6465224726205918e-01 1.7661681205176589e+00 -4.3268283412969094e-01 -8.3521169177675303e-01 -1.6083251820247171e-01 -7.4526430219292050e-01 4.2634163375771611e-01 -1.9652729883073750e+00 2.0866880129695656e-01 -6.5719342853104690e-01 
        </Neuron>
        <Neuron NSynapses="26">
          1.8604889310387847e+00 8.7847435412149788e-01 1.4533685084161148e+00 -7.1753225985624591e-01 -4.5417812917931866e-01 3.5048899133175315e-01 1.8602255575262938e+00 -1.7435972097497447e+00 -1.3160921171815627e+00 -5.4775507503445175e-01 -1.4573360290877573e+00 -1.7251334234102684e+00 -1.4860086083206550e+00 7.8293347103789857e-01 2.7545167890418665e-02 -1.7549311342583156e+00 -1.7623587896726653e+00 -1.4438944636666379e-01 1.8011466942553935e+00 1.8008373485015519e+00 1.3645927498226471e+00 -5.8878732972863579e-01 -1.8917354801990427e+00 -7.3104386855217307e-02 -1.3059914497863470e+00 -1.7500177508315633e+00 
        </Neuron>
        <Neuron NSynapses="26">
          -8.8865046093301681e-01 2.9042408472094322e-01 -1.2945280686706377e+00 1.6149993960831410e+00 1.2761486568965819e+00 3.9398710963637229e-01 -6.3186048962725250e-01 -6.7020252088777732e-01 1.7735282357694013e+00 -5.9297147339847200e-01 2.7190960131918962e-01 1.5835114346718298e+00 1.4977768228321591e+00 -9.4000735251607292e-01 1.3726222298475546e+00 -2.1838921197227732e+00 1.5746025117716032e+00 1.8359470792164954e+00 -1.4859092684694411e-01 -2.7991469518490453e-01 1.3016469042950546e-01 -6.9777545140640784e-01 1.3269990331683414e+00 2.7740112947572160e-01 -8.5595352074545794e-01 -1.2738701212732411e+00 
        </Neuron>
        <Neuron NSynapses="26">
          -2.7411298270108236e-01 2.1174024775317104e+00 6.2796737975453831e-01 -6.0282847368084225e-01 -1.8957036564300325e+00 2.0453705422895272e+00 3.5063767479562391e-01 -9.8263754631907341e-01 -2.5501429848262575e-01 -1.0239354533160183e+00 1.1695189117604863e+00 1.4578448791017724e+00 -7.4855254490858392e-01 -9.5499801167988496e-01 1.5649237038635937e+00 1.0144285638744890e+00 2.5377323045258643e-01 1.5140212219892837e-01 -1.2519168826245894e+00 -1.2326034643480888e+00 1.0995229098738419e+00 2.5267904140811809e-01 5.6646368531517954e-01 -1.8099049718503153e+00 -1.7921348108225041e+00 -1.7508985202335352e+00 
        </Neuron>
        <Neuron NSynapses="26">
          -4.0554137464857604e-01 -1.3650251592868186e+00 1.0383718619083016e+00 -3.9202674625323947e-01 1.7282201875502647e+00 3.7769200543230702e-01 -1.9680851107453785e+00 1.5244803920161794e+00 1.9522046791002821e+00 1.0973184230873456e+00 -4.9259064637401112e-01 -1.0019847631264778e+00 1.9059670269001732e+00 -1.8478880642117874e+00 4.2302531014686601e-01 -1.3319627109430556e+00 1.2799300745623599e+00 -1.1162319333092423e+00 3.1368495852152162e-01 -2.7178507411170744e-01 4.0208179218867157e-01 -3.7141007716833241e-01 -7.7905085270642715e-01 6.6491283266591372e-01 3.6261719210252652e-01 6.3242181397440578e-01 
        </Neuron>
        <Neuron NSynapses="26">
          8.4400039038980290e-01 -1.3013077789737053e+00 1.7000687791920839e+00 -1.8277622515501577e+00 1.0703020231047469e+00 1.3284021838107207e+00 7.9655872897025004e-01 1.7140352394892939e+00 1.4860782343871717e+00 -2.0122227571552163e+00 -7.3262450512531729e-01 -9.5772180071268698e-01 6.7382597028493818e-01 -1.4095568162403932e-01 -1.9746791585505202e-01 -7.1007237967348857e-01 -4.9628408577139627e-01 -1.0304912958357537e+00 -3.4875484045585170e-01 -1.8569503044426738e+00 -4.9028825754030092e-01 2.3031273460558047e-01 -6.3627442360303588e-01 -1.5565465312091431e+00 5.0106361339062622e-01 2.0674939634008305e-01 
        </Neuron>
        <Neuron NSynapses="26">
          -1.0225680627336432e-01 -1.8484475860490717e+00 1.4824560920161758e+00 -2.6249918690943680e-01 6.5176120820105354e-01 6.3083958907999904e-01 -1.2602061960393041e+00 -9.1755165944904260e-01 -3.6124227074994558e-01 -1.8953579525172091e+00 -6.1795570197785643e-01 -1.0682392853415776e+00 1.1854067883728749e+00 -1.7058836569537779e+00 1.5094210046156873e+00 1.7476546590494602e+00 1.6569918891923967e+00 1.0519951854174847e+00 6.3673788770488504e-01 -2.1890614063629823e-02 -8.0654870577133830e-01 -2.0799408804205735e+00 -1.0962668054996119e+00 -5.9532275782439126e-01 1.3888782804911428e+00 1.9383107640714942e-01 
        </Neuron>
      </Layer>
      <Layer Index="1" NNeurons="27">
        <Neuron NSynapses="1">
          5.6567589388548956e-01 
        </Neuron>
        <Neuron NSynapses="1">
          6.0482909403649054e-01 
        </Neuron>
        <Neuron NSynapses="1">
          4.5762147329987124e-01 
        </Neuron>
        <Neuron NSynapses="1">
          -1.6353362031884748e+00 
        </Neuron>
        <Neuron NSynapses="1">
          6.9831801217880651e-01 
        </Neuron>
        <Neuron NSynapses="1">
          -9.0346240542045431e-01 
        </Neuron>
        <Neuron NSynapses="1">
          6.0839885819433159e-01 
        </Neuron>
        <Neuron NSynapses="1">
          -1.3593129313783250e+00 
        </Neuron>
        <Neuron NSynapses="1">
          2.9276524012722399e-01 
        </Neuron>
        <Neuron NSynapses="1">
          5.7068155850400855e-03 
        </Neuron>
        <Neuron NSynapses="1">
          6.2965005951229758e-01 
        </Neuron>
        <Neuron NSynapses="1">
          -1.4618471558618507e+00 
        </Neuron>
        <Neuron NSynapses="1">
          -2.8365021551564595e-01 
        </Neuron>
        <Neuron NSynapses="1">
          -1.4976359284985090e+00 
        </Neuron>
        <Neuron NSynapses="1">
          1.8710102527076725e-01 
        </Neuron>
        <Neuron NSynapses="1">
          1.0377923327123320e+00 
        </Neuron>
        <Neuron NSynapses="1">
          4.9890208279583009e-01 
        </Neuron>
        <Neuron NSynapses="1">
          7.4616443581323399e-01 
        </Neuron>
        <Neuron NSynapses="1">
          -2.2254383799846504e+00 
        </Neuron>
        <Neuron NSynapses="1">
          7.5096594177739007e-01 
        </Neuron>
        <Neuron NSynapses="1">
          -1.8129485633537953e-01 
        </Neuron>
        <Neuron NSynapses="1">
          9.3748642241118130e-01 
        </Neuron>
        <Neuron NSynapses="1">
          -1.0669089392391777e+00 
        </Neuron>
        <Neuron NSynapses="1">
          -1.3728392574059813e+00 
        </Neuron>
        <Neuron NSynapses="1">
          1.4581296962358539e+00 
        </Neuron>
        <Neuron NSynapses="1">
          -8.9830600655429749e-01 
        </Neuron>
        <Neuron NSynapses="1">
          -1.7678811749297187e+00 
        </Neuron>
      </Layer>
      <Layer Index="2" NNeurons="1">
        <Neuron NSynapses="0"/>
      </Layer>
    </Layout>
  </Weights>
</MethodSetup>
