<?xml version="1.0"?>
<MethodSetup Method="MLP::MLP">
  <GeneralInfo>
    <Info name="TMVA Release" value="4.2.1 [262657]"/>
    <Info name="ROOT Release" value="6.08/07 [395271]"/>
    <Info name="Creator" value="wverbeke"/>
    <Info name="Date" value="Tue Dec  5 03:45:40 2017"/>
    <Info name="Host" value="Linux vocms0302.cern.ch 2.6.32-696.1.1.el6.x86_64 #1 SMP Wed Apr 12 08:44:28 CEST 2017 x86_64 x86_64 x86_64 GNU/Linux"/>
    <Info name="Dir" value="/storage_mnt/storage/user/wverbeke/Work/AnalysisCode/ewkino/bdtTraining/bdtTrainingsubmit"/>
    <Info name="Training events" value="67534"/>
    <Info name="TrainingTime" value="1.04382176e+03"/>
    <Info name="AnalysisType" value="Classification"/>
  </GeneralInfo>
  <Options>
    <Option name="NCycles" modified="Yes">600</Option>
    <Option name="HiddenLayers" modified="Yes">N+5</Option>
    <Option name="NeuronType" modified="Yes">tanh</Option>
    <Option name="RandomSeed" modified="No">1</Option>
    <Option name="EstimatorType" modified="No">CE</Option>
    <Option name="NeuronInputType" modified="No">sum</Option>
    <Option name="V" modified="Yes">False</Option>
    <Option name="VerbosityLevel" modified="No">Default</Option>
    <Option name="VarTransform" modified="Yes">N</Option>
    <Option name="H" modified="Yes">True</Option>
    <Option name="CreateMVAPdfs" modified="No">False</Option>
    <Option name="IgnoreNegWeightsInTraining" modified="No">False</Option>
    <Option name="TrainingMethod" modified="No">BP</Option>
    <Option name="LearningRate" modified="No">2.000000e-02</Option>
    <Option name="DecayRate" modified="No">1.000000e-02</Option>
    <Option name="TestRate" modified="Yes">5</Option>
    <Option name="EpochMonitoring" modified="No">False</Option>
    <Option name="Sampling" modified="No">1.000000e+00</Option>
    <Option name="SamplingEpoch" modified="No">1.000000e+00</Option>
    <Option name="SamplingImportance" modified="No">1.000000e+00</Option>
    <Option name="SamplingTraining" modified="No">True</Option>
    <Option name="SamplingTesting" modified="No">False</Option>
    <Option name="ResetStep" modified="No">50</Option>
    <Option name="Tau" modified="No">3.000000e+00</Option>
    <Option name="BPMode" modified="No">sequential</Option>
    <Option name="BatchSize" modified="No">-1</Option>
    <Option name="ConvergenceImprove" modified="No">1.000000e-30</Option>
    <Option name="ConvergenceTests" modified="No">-1</Option>
    <Option name="UseRegulator" modified="Yes">False</Option>
    <Option name="UpdateLimit" modified="No">10000</Option>
    <Option name="CalculateErrors" modified="No">False</Option>
    <Option name="WeightRange" modified="No">1.000000e+00</Option>
  </Options>
  <Variables NVar="19">
    <Variable VarIndex="0" Expression="topMass" Label="topMass" Title="topMass" Unit="" Internal="topMass" Type="F" Min="0.00000000e+00" Max="2.61130444e+03"/>
    <Variable VarIndex="1" Expression="pTForwardJets" Label="pTForwardJets" Title="pTForwardJets" Unit="" Internal="pTForwardJets" Type="F" Min="0.00000000e+00" Max="6.92093689e+02"/>
    <Variable VarIndex="2" Expression="etaMostForward" Label="etaMostForward" Title="etaMostForward" Unit="" Internal="etaMostForward" Type="F" Min="1.45087436e-01" Max="5.09044313e+00"/>
    <Variable VarIndex="3" Expression="numberOfJets" Label="numberOfJets" Title="numberOfJets" Unit="" Internal="numberOfJets" Type="F" Min="4.00000000e+00" Max="1.50000000e+01"/>
    <Variable VarIndex="4" Expression="pTLeadingLepton" Label="pTLeadingLepton" Title="pTLeadingLepton" Unit="" Internal="pTLeadingLepton" Type="F" Min="2.55576496e+01" Max="1.25348242e+03"/>
    <Variable VarIndex="5" Expression="mNotSoForwardJets" Label="mNotSoForwardJets" Title="mNotSoForwardJets" Unit="" Internal="mNotSoForwardJets" Type="F" Min="0.00000000e+00" Max="8.28129199e+03"/>
    <Variable VarIndex="6" Expression="missingET" Label="missingET" Title="missingET" Unit="" Internal="missingET" Type="F" Min="5.00592701e-02" Max="1.12446448e+03"/>
    <Variable VarIndex="7" Expression="highestDeepCSV" Label="highestDeepCSV" Title="highestDeepCSV" Unit="" Internal="highestDeepCSV" Type="F" Min="6.32402778e-01" Max="9.99999940e-01"/>
    <Variable VarIndex="8" Expression="maxMjj" Label="maxMjj" Title="maxMjj" Unit="" Internal="maxMjj" Type="F" Min="0.00000000e+00" Max="7.09218506e+03"/>
    <Variable VarIndex="9" Expression="minMlb" Label="minMlb" Title="minMlb" Unit="" Internal="minMlb" Type="F" Min="-4.05621735e+02" Max="1.16570435e+03"/>
    <Variable VarIndex="10" Expression="asymmetryWlep" Label="asymmetryWlep" Title="asymmetryWlep" Unit="" Internal="asymmetryWlep" Type="F" Min="-2.49264002e+00" Max="2.49715924e+00"/>
    <Variable VarIndex="11" Expression="etaZ" Label="etaZ" Title="etaZ" Unit="" Internal="etaZ" Type="F" Min="1.05171657e-05" Max="6.35199118e+00"/>
    <Variable VarIndex="12" Expression="m3l" Label="m3l" Title="m3l" Unit="" Internal="m3l" Type="F" Min="8.39610367e+01" Max="1.85878613e+03"/>
    <Variable VarIndex="13" Expression="maxDeltaRjj" Label="maxDeltaRjj" Title="maxDeltaRjj" Unit="" Internal="maxDeltaRjj" Type="F" Min="7.87727714e-01" Max="1.02749844e+01"/>
    <Variable VarIndex="14" Expression="maxDeltaPhill" Label="maxDeltaPhill" Title="maxDeltaPhill" Unit="" Internal="maxDeltaPhill" Type="F" Min="1.30531788e-02" Max="3.14159060e+00"/>
    <Variable VarIndex="15" Expression="pTMaxlb" Label="pTMaxlb" Title="pTMaxlb" Unit="" Internal="pTMaxlb" Type="F" Min="1.00685625e+01" Max="1.74167285e+03"/>
    <Variable VarIndex="16" Expression="pT3l" Label="pT3l" Title="pT3l" Unit="" Internal="pT3l" Type="F" Min="5.51839948e-01" Max="1.55557361e+03"/>
    <Variable VarIndex="17" Expression="mForwardJetsLeadinBJetW" Label="mForwardJetsLeadinBJetW" Title="mForwardJetsLeadinBJetW" Unit="" Internal="mForwardJetsLeadinBJetW" Type="F" Min="0.00000000e+00" Max="9.06572949e+03"/>
    <Variable VarIndex="18" Expression="ht" Label="ht" Title="ht" Unit="" Internal="ht" Type="F" Min="1.04800522e+02" Max="3.01028125e+03"/>
  </Variables>
  <Spectators NSpec="0"/>
  <Classes NClass="2">
    <Class Name="Signal" Index="0"/>
    <Class Name="Background" Index="1"/>
  </Classes>
  <Transformations NTransformations="1">
    <Transform Name="Normalize">
      <Selection>
        <Input NInputs="19">
          <Input Type="Variable" Label="topMass" Expression="topMass"/>
          <Input Type="Variable" Label="pTForwardJets" Expression="pTForwardJets"/>
          <Input Type="Variable" Label="etaMostForward" Expression="etaMostForward"/>
          <Input Type="Variable" Label="numberOfJets" Expression="numberOfJets"/>
          <Input Type="Variable" Label="pTLeadingLepton" Expression="pTLeadingLepton"/>
          <Input Type="Variable" Label="mNotSoForwardJets" Expression="mNotSoForwardJets"/>
          <Input Type="Variable" Label="missingET" Expression="missingET"/>
          <Input Type="Variable" Label="highestDeepCSV" Expression="highestDeepCSV"/>
          <Input Type="Variable" Label="maxMjj" Expression="maxMjj"/>
          <Input Type="Variable" Label="minMlb" Expression="minMlb"/>
          <Input Type="Variable" Label="asymmetryWlep" Expression="asymmetryWlep"/>
          <Input Type="Variable" Label="etaZ" Expression="etaZ"/>
          <Input Type="Variable" Label="m3l" Expression="m3l"/>
          <Input Type="Variable" Label="maxDeltaRjj" Expression="maxDeltaRjj"/>
          <Input Type="Variable" Label="maxDeltaPhill" Expression="maxDeltaPhill"/>
          <Input Type="Variable" Label="pTMaxlb" Expression="pTMaxlb"/>
          <Input Type="Variable" Label="pT3l" Expression="pT3l"/>
          <Input Type="Variable" Label="mForwardJetsLeadinBJetW" Expression="mForwardJetsLeadinBJetW"/>
          <Input Type="Variable" Label="ht" Expression="ht"/>
        </Input>
        <Output NOutputs="19">
          <Output Type="Variable" Label="topMass" Expression="topMass"/>
          <Output Type="Variable" Label="pTForwardJets" Expression="pTForwardJets"/>
          <Output Type="Variable" Label="etaMostForward" Expression="etaMostForward"/>
          <Output Type="Variable" Label="numberOfJets" Expression="numberOfJets"/>
          <Output Type="Variable" Label="pTLeadingLepton" Expression="pTLeadingLepton"/>
          <Output Type="Variable" Label="mNotSoForwardJets" Expression="mNotSoForwardJets"/>
          <Output Type="Variable" Label="missingET" Expression="missingET"/>
          <Output Type="Variable" Label="highestDeepCSV" Expression="highestDeepCSV"/>
          <Output Type="Variable" Label="maxMjj" Expression="maxMjj"/>
          <Output Type="Variable" Label="minMlb" Expression="minMlb"/>
          <Output Type="Variable" Label="asymmetryWlep" Expression="asymmetryWlep"/>
          <Output Type="Variable" Label="etaZ" Expression="etaZ"/>
          <Output Type="Variable" Label="m3l" Expression="m3l"/>
          <Output Type="Variable" Label="maxDeltaRjj" Expression="maxDeltaRjj"/>
          <Output Type="Variable" Label="maxDeltaPhill" Expression="maxDeltaPhill"/>
          <Output Type="Variable" Label="pTMaxlb" Expression="pTMaxlb"/>
          <Output Type="Variable" Label="pT3l" Expression="pT3l"/>
          <Output Type="Variable" Label="mForwardJetsLeadinBJetW" Expression="mForwardJetsLeadinBJetW"/>
          <Output Type="Variable" Label="ht" Expression="ht"/>
        </Output>
      </Selection>
      <Class ClassIndex="0">
        <Ranges>
          <Range Index="0" Min="0.0000000000000000e+00" Max="2.3029621582031250e+03"/>
          <Range Index="1" Min="0.0000000000000000e+00" Max="6.9209368896484375e+02"/>
          <Range Index="2" Min="1.4508743584156036e-01" Max="5.0904431343078613e+00"/>
          <Range Index="3" Min="4.0000000000000000e+00" Max="1.4000000000000000e+01"/>
          <Range Index="4" Min="2.5938333511352539e+01" Max="1.1071699218750000e+03"/>
          <Range Index="5" Min="0.0000000000000000e+00" Max="7.7912827148437500e+03"/>
          <Range Index="6" Min="4.4800478219985962e-01" Max="1.1244644775390625e+03"/>
          <Range Index="7" Min="6.3240277767181396e-01" Max="9.9999994039535522e-01"/>
          <Range Index="8" Min="0.0000000000000000e+00" Max="7.0921850585937500e+03"/>
          <Range Index="9" Min="-2.4679829406738281e+02" Max="1.1657043457031250e+03"/>
          <Range Index="10" Min="-2.4926400184631348e+00" Max="2.4577486515045166e+00"/>
          <Range Index="11" Min="1.0517165719647892e-05" Max="6.2946033477783203e+00"/>
          <Range Index="12" Min="8.3961036682128906e+01" Max="1.5204060058593750e+03"/>
          <Range Index="13" Min="1.3227310180664062e+00" Max="1.0092736244201660e+01"/>
          <Range Index="14" Min="6.0266971588134766e-02" Max="3.1415066719055176e+00"/>
          <Range Index="15" Min="1.9457317352294922e+01" Max="1.2829086914062500e+03"/>
          <Range Index="16" Min="5.5183994770050049e-01" Max="1.2922423095703125e+03"/>
          <Range Index="17" Min="0.0000000000000000e+00" Max="7.9279077148437500e+03"/>
          <Range Index="18" Min="1.1017002105712891e+02" Max="2.6863417968750000e+03"/>
        </Ranges>
      </Class>
      <Class ClassIndex="1">
        <Ranges>
          <Range Index="0" Min="0.0000000000000000e+00" Max="2.6113044433593750e+03"/>
          <Range Index="1" Min="0.0000000000000000e+00" Max="6.2250640869140625e+02"/>
          <Range Index="2" Min="1.5126869082450867e-01" Max="5.0881400108337402e+00"/>
          <Range Index="3" Min="4.0000000000000000e+00" Max="1.5000000000000000e+01"/>
          <Range Index="4" Min="2.5557649612426758e+01" Max="1.2534824218750000e+03"/>
          <Range Index="5" Min="0.0000000000000000e+00" Max="8.2812919921875000e+03"/>
          <Range Index="6" Min="5.0059270113706589e-02" Max="1.0159771118164062e+03"/>
          <Range Index="7" Min="6.3242453336715698e-01" Max="9.9999982118606567e-01"/>
          <Range Index="8" Min="0.0000000000000000e+00" Max="5.5747705078125000e+03"/>
          <Range Index="9" Min="-4.0562173461914062e+02" Max="1.1262651367187500e+03"/>
          <Range Index="10" Min="-2.4823386669158936e+00" Max="2.4971592426300049e+00"/>
          <Range Index="11" Min="2.3737657102174126e-05" Max="6.3519911766052246e+00"/>
          <Range Index="12" Min="8.4445549011230469e+01" Max="1.8587861328125000e+03"/>
          <Range Index="13" Min="7.8772771358489990e-01" Max="1.0274984359741211e+01"/>
          <Range Index="14" Min="1.3053178787231445e-02" Max="3.1415905952453613e+00"/>
          <Range Index="15" Min="1.0068562507629395e+01" Max="1.7416728515625000e+03"/>
          <Range Index="16" Min="1.3172700405120850e+00" Max="1.5555736083984375e+03"/>
          <Range Index="17" Min="0.0000000000000000e+00" Max="9.0657294921875000e+03"/>
          <Range Index="18" Min="1.0480052185058594e+02" Max="3.0102812500000000e+03"/>
        </Ranges>
      </Class>
      <Class ClassIndex="2">
        <Ranges>
          <Range Index="0" Min="0.0000000000000000e+00" Max="2.6113044433593750e+03"/>
          <Range Index="1" Min="0.0000000000000000e+00" Max="6.9209368896484375e+02"/>
          <Range Index="2" Min="1.4508743584156036e-01" Max="5.0904431343078613e+00"/>
          <Range Index="3" Min="4.0000000000000000e+00" Max="1.5000000000000000e+01"/>
          <Range Index="4" Min="2.5557649612426758e+01" Max="1.2534824218750000e+03"/>
          <Range Index="5" Min="0.0000000000000000e+00" Max="8.2812919921875000e+03"/>
          <Range Index="6" Min="5.0059270113706589e-02" Max="1.1244644775390625e+03"/>
          <Range Index="7" Min="6.3240277767181396e-01" Max="9.9999994039535522e-01"/>
          <Range Index="8" Min="0.0000000000000000e+00" Max="7.0921850585937500e+03"/>
          <Range Index="9" Min="-4.0562173461914062e+02" Max="1.1657043457031250e+03"/>
          <Range Index="10" Min="-2.4926400184631348e+00" Max="2.4971592426300049e+00"/>
          <Range Index="11" Min="1.0517165719647892e-05" Max="6.3519911766052246e+00"/>
          <Range Index="12" Min="8.3961036682128906e+01" Max="1.8587861328125000e+03"/>
          <Range Index="13" Min="7.8772771358489990e-01" Max="1.0274984359741211e+01"/>
          <Range Index="14" Min="1.3053178787231445e-02" Max="3.1415905952453613e+00"/>
          <Range Index="15" Min="1.0068562507629395e+01" Max="1.7416728515625000e+03"/>
          <Range Index="16" Min="5.5183994770050049e-01" Max="1.5555736083984375e+03"/>
          <Range Index="17" Min="0.0000000000000000e+00" Max="9.0657294921875000e+03"/>
          <Range Index="18" Min="1.0480052185058594e+02" Max="3.0102812500000000e+03"/>
        </Ranges>
      </Class>
    </Transform>
  </Transformations>
  <MVAPdfs/>
  <Weights>
    <Layout NLayers="3">
      <Layer Index="0" NNeurons="20">
        <Neuron NSynapses="24">
          -3.3478585363911090e-01 1.9066132135431895e+00 6.7290554302981276e-01 1.6077326183876828e+00 -1.9545876047727559e+00 -1.4875355507915682e+00 -8.7464985055747047e-01 1.9934420266985211e+00 -1.4686306175927177e+00 -1.1426744841246790e+00 -1.6566809482674996e+00 -4.7172183845298615e-01 -1.3622551403233554e+00 -3.3149105756834918e-01 -6.2507286821181607e-01 4.3681248788166094e-01 -4.1677521067168050e-01 1.8860599180767619e+00 3.6019851307072542e-01 1.3826714817901284e+00 -1.2388605433095184e-01 -7.4651088224661477e-01 5.2506155516527575e-01 1.7884161149542244e-01 
        </Neuron>
        <Neuron NSynapses="24">
          -1.1870919149239152e+00 -3.4795504047947040e-01 1.4877341561813333e+00 -1.0042315353318403e+00 -1.8365448670794213e+00 1.3782966857066808e-01 5.2006649310024133e-01 1.6285846910882680e+00 -3.4340065956820387e-01 -1.9833172398964974e-01 3.1714727293655559e-01 -3.4534667479702269e-01 -1.5916026767160887e+00 1.7396461706656079e+00 -1.2259330164733520e+00 7.5816499722160990e-01 1.1993596957032246e+00 8.9230603419545518e-01 2.1446219091600627e+00 1.2311014163107403e+00 -7.1691582098570061e-01 -1.6281324364425993e+00 9.1544376569104768e-01 2.8808654248492305e-01 
        </Neuron>
        <Neuron NSynapses="24">
          1.5067499685370751e+00 1.5307563573145893e+00 1.5854679755807686e+00 1.3137218630068130e+00 -1.6836168366409243e+00 1.3183627908992663e+00 -1.8157938964789893e+00 -9.1554749465225227e-01 -1.2901459012960035e+00 -1.7174803321237182e+00 1.4870785153664476e+00 7.3336804604569739e-01 -1.5577125314753810e+00 2.8326985313512082e-01 -3.1050127421855223e-01 6.2113483292294369e-01 1.8360310508156370e+00 -3.9718733958470154e-01 1.7155013011142770e-01 -1.1755633486064714e+00 7.4295242571371944e-01 -8.4211946330118936e-01 -7.5484600055583129e-01 -1.2760661027907381e+00 
        </Neuron>
        <Neuron NSynapses="24">
          7.4371414539532121e-01 1.0552297732987510e+00 1.1206477536217794e+00 -4.5748597505113742e-01 -1.8675635193504172e+00 -1.8632300727417159e+00 8.5107844815696465e-01 4.6335318490653415e-01 1.9002675205870658e+00 5.0310284732843447e-01 9.5985800777140928e-01 -8.4705557453994773e-01 -1.0259356864197002e+00 -8.8180104155266434e-02 1.1456700264028152e+00 -1.3609090563166759e+00 -1.5916760155167342e+00 -1.5189712715584691e+00 6.7546079268574366e-02 -1.3823617598400248e-01 2.1065885385758771e+00 -1.6154564201767585e+00 -1.0718358971725082e+00 1.6130040611746714e+00 
        </Neuron>
        <Neuron NSynapses="24">
          -8.5267238436405335e-01 -1.6234616363648304e+00 -1.6258859171039690e+00 6.6154267009440604e-02 -1.8662362553588037e+00 -1.6654470542560265e+00 5.8563907749536737e-01 1.6469082099784536e+00 -1.1654703337060557e+00 1.5855218280601640e+00 -8.8101974602112365e-01 -8.8100413306507863e-01 -1.8370450164686797e-01 3.7956038184839902e-01 -1.8008987429418499e+00 -3.2482510541916997e-02 2.9352544284320164e-01 5.6588309440741125e-01 -1.1366002952186147e+00 1.8338129444374665e+00 3.1851759668154811e-01 -9.5647674695712426e-01 7.9891550781850584e-01 -9.1739185510423205e-01 
        </Neuron>
        <Neuron NSynapses="24">
          -1.5935197824801872e+00 3.8587206916463702e-02 -3.1665443099982316e-01 1.9414887190200056e+00 8.3370102853516848e-01 -2.7714234518955799e-02 -4.9374389202120766e-01 1.3425306308408708e-01 -1.8064199002547421e+00 1.0649669678071223e+00 3.3961482221552181e-01 -1.8293029485530559e+00 4.9567490443097334e-01 -1.4571103024317962e+00 4.0636726063857362e-02 8.3586741161502343e-01 1.7782657802934809e+00 -1.8902353668844056e+00 6.1641058150189154e-01 1.5577659002877169e+00 1.4040468939154533e+00 1.6252397621265044e-01 -1.2020106135901514e+00 1.3201759446860901e-02 
        </Neuron>
        <Neuron NSynapses="24">
          -1.4471933716068923e+00 1.4427042600450697e+00 1.1385186609049158e+00 -4.5074255629419652e-01 -3.4565501390315767e-01 1.5381586958626817e-01 -1.4479720780580514e+00 6.0274116598293748e-01 1.6867639454334489e+00 -5.8969102382785021e-01 -5.0200428899410232e-01 2.0060121566888234e-01 8.3668306976175744e-01 5.9944504042407853e-01 8.8530911201702522e-01 -1.7636908761536716e+00 1.5284111153402253e+00 8.3449416355066808e-01 7.1059890907923717e-01 5.9792631416945530e-01 8.8972986200950677e-01 -5.8375221391873489e-01 -5.1369499301731958e-01 1.1912496592929627e+00 
        </Neuron>
        <Neuron NSynapses="24">
          -9.1531228971989342e-01 -5.4397894730876051e-01 1.5310601076809143e+00 1.0103219866160855e+00 -3.4643330650547899e-01 1.5252998539474945e+00 1.8505863934317739e+00 -1.9568419506589154e+00 7.0139101760635725e-01 -1.6231721825969634e-02 1.9848851762814076e-01 -1.6068891419576932e+00 -1.3489331842527026e+00 1.1117068358376754e+00 1.8165801342305610e+00 -1.4322800493321737e+00 -1.9816514539358412e-01 -5.6545169403083362e-01 1.4138286763781088e-01 1.7548347345187563e+00 -9.4449441126637543e-02 -4.8219869930543879e-01 -1.1169949664978589e+00 8.8394043605516370e-01 
        </Neuron>
        <Neuron NSynapses="24">
          1.6097549424037361e+00 9.8875466636271847e-01 2.9352198907242411e-01 -6.8253321758852348e-01 -1.9330734413710893e+00 1.0910091655839258e+00 3.3554743002358983e-01 -1.4112182024710012e+00 -6.9862022177817884e-01 3.1154828632487441e-01 2.7639767501404400e-01 -1.9788542870548600e+00 1.3698734602716847e+00 8.4063750174377805e-01 -5.8795460151987800e-01 -4.3815310894067355e-01 1.6340107639532651e+00 1.0593515280819321e+00 7.5543251546722046e-01 -1.0743674245811999e-01 -2.0833507903952890e+00 -9.2418888308847902e-01 1.9314783527013095e+00 1.5376164728376895e+00 
        </Neuron>
        <Neuron NSynapses="24">
          7.6033787776229234e-01 1.6023783475034789e-01 1.9301246651827297e+00 -1.7495250613810835e+00 -1.2859736651003517e+00 -1.1016457616752873e-01 -1.4830082194867378e+00 9.7424041914969417e-01 1.6990619635366417e+00 -1.2587175290512858e+00 8.0868081054620933e-01 -1.8040662532604884e-01 -1.7846220476738108e+00 -1.0358316368126101e+00 1.0156270835758570e+00 -6.4758344567745041e-02 1.0140911565025372e+00 -1.1235166698159369e+00 1.7701343560965406e+00 -1.8017866394360091e+00 8.3309226351787513e-01 7.6262568439814896e-02 -1.5376262566894576e+00 -1.2676711827959755e+00 
        </Neuron>
        <Neuron NSynapses="24">
          -1.9169470455471274e+00 -3.9547258381207157e-01 -1.9437239594191882e+00 -1.6283757256689941e+00 -1.9196144070577157e+00 3.9171785516014454e-02 -1.0095319313972442e+00 -1.5892702026566652e+00 1.4262189945217725e+00 -8.0886246125473638e-01 1.5032918931063582e-01 -1.0580810723095038e+00 2.0878246979023490e-01 1.8676066156193631e+00 1.3797416606971111e+00 -8.7394892238229149e-01 -1.5055419429614731e+00 -1.0911678694757430e+00 -8.2679938415911858e-01 -1.6156987912037633e+00 2.3603238606566063e-01 2.8058136968255393e-01 1.7618906500676179e+00 -1.9555327425514851e-01 
        </Neuron>
        <Neuron NSynapses="24">
          2.4023178326789374e-01 -6.4557541908641003e-01 -1.8627602328483941e+00 1.3895203105924920e+00 1.2660419065859470e+00 -8.4079267261206692e-01 -1.1941328144747363e+00 8.4744941985412803e-01 1.2108814187929837e+00 4.2975425665368749e-01 -3.6114026359346135e-01 -3.8191792613351178e-01 1.2639962560053335e+00 9.5616409738620489e-01 9.6496005693753006e-01 -5.8720529786445430e-01 2.2234691819945315e-01 -2.4118689201609250e-01 -1.1693980578679641e+00 -5.5008895351318610e-01 -1.5598775233662541e+00 -1.3852664979672742e+00 -1.2187122825505166e+00 1.9192941833583368e+00 
        </Neuron>
        <Neuron NSynapses="24">
          -1.8192805161827381e+00 1.5812265832350410e+00 -1.7411208658565585e+00 1.0468964096487492e+00 -1.0537541648477107e+00 4.6545930389475865e-01 6.9701207458981895e-01 -1.8819159847200404e+00 2.1710124288114310e-01 5.4146448764724731e-01 -1.9175811633685278e+00 -1.5429112317538651e+00 -1.8319133811691979e+00 -7.5143763306877909e-01 1.8618345230242943e+00 -8.7348630796589777e-01 2.6873490102459918e-01 -7.7949471166238737e-01 -8.6543927729307557e-01 -1.6973847652733385e+00 -8.0821522585547390e-01 -1.3921750315462176e+00 8.5397546552349235e-01 -1.1817112470949085e+00 
        </Neuron>
        <Neuron NSynapses="24">
          -1.2179232171556718e+00 1.8007881535863157e+00 3.2412531619049767e-01 -4.7483537547921939e-01 1.8785758914071271e+00 -1.7999479215858736e+00 1.3518244974597686e+00 9.4572242888402880e-01 -1.0230851162957066e+00 -7.8078389792766989e-01 1.2095587195120454e-02 -1.1436609719301678e+00 4.4688434998562498e-01 1.8488334061585159e+00 1.3160802615532445e+00 1.4199586976109353e+00 -1.3701124862413234e+00 1.0190657126020202e+00 -1.7930876377325824e+00 6.3340727521227791e-01 -1.6772629754156849e+00 -1.8416227015003235e+00 -8.3625508203524993e-03 1.4072813052303341e+00 
        </Neuron>
        <Neuron NSynapses="24">
          4.2874195651528763e-01 1.1338624348869899e+00 4.3258446857326027e-01 -1.0942840454946048e-01 -7.9086816036001728e-01 1.2735042762172541e-01 1.8834065919313958e+00 -1.5758336049159178e+00 3.5392113552242765e-01 -1.3671844703272513e+00 -4.9992194894316327e-01 6.0421882011886752e-02 2.8375072913644556e-01 -1.1994447630455551e+00 9.8937082175143387e-01 1.5794439729154361e+00 6.8114665178774869e-01 -1.9603689447397529e-01 -8.3348247363153039e-01 -1.4704731779085227e+00 -1.0772448090999009e+00 1.0549503434660430e+00 -5.9261772513766398e-01 -1.1054301712206851e+00 
        </Neuron>
        <Neuron NSynapses="24">
          5.1459563654039098e-01 -1.8087902072944404e+00 -1.2818151658619665e+00 -1.6159089279260350e+00 1.0738641999582874e+00 -1.3513130937216966e+00 -1.8499026668449907e+00 -5.8641800598396376e-01 -9.9535925264647274e-01 -1.6739484687618280e+00 1.2740568984319962e+00 -1.4969678488635809e+00 -1.3823507480069890e+00 1.7685446410272074e+00 5.4141508128660021e-01 9.8101145491787615e-03 9.5526540053424494e-02 1.4559889032565241e+00 1.9556048660917320e+00 4.9716031817287898e-01 -9.4929082597094494e-01 -7.0147303286805607e-01 -1.7117919966264192e+00 1.0503021108434871e+00 
        </Neuron>
        <Neuron NSynapses="24">
          9.3589431476746821e-01 -1.4886768885415043e-02 9.4851642505729372e-01 9.0729718838948292e-01 1.6929453180571241e+00 -1.3383281572226442e+00 1.6281313306343632e+00 7.3404659885981627e-01 -1.9635801964922930e+00 -3.4666244032821414e-01 -9.9717620361054204e-01 8.4308205539451808e-01 3.1799515150211471e-01 1.0828161879228746e+00 1.7813083933208704e+00 -6.5734465750330928e-01 1.7977732283263013e+00 1.7978803530930640e+00 4.5268441038085994e-01 -1.1787691596976335e+00 1.5660736273638383e+00 -1.9678806629937931e+00 5.7342048490854369e-01 1.8401234356344776e+00 
        </Neuron>
        <Neuron NSynapses="24">
          -4.4200618660902635e-01 -9.0056810572292323e-01 -1.4472971931949663e-01 -1.3186005170440158e+00 4.6271636605024380e-01 -1.9035374900211681e+00 7.1003146616756843e-02 -2.1506408199766644e-01 1.6615112179817284e+00 1.1970927743357047e+00 1.7334810162844858e+00 -5.5141944633806961e-01 -5.6279451809571046e-01 4.6850978653719250e-01 1.8397363657292807e+00 -2.1778408982094057e+00 -1.3059404295985497e+00 -5.1931180593009274e-01 -1.2205557837921597e+00 -1.6700257315764593e+00 -1.3466124413648406e+00 7.7159545960574905e-01 2.9089413190677576e-02 -1.7576767693728028e+00 
        </Neuron>
        <Neuron NSynapses="24">
          -1.9172793899510983e+00 -2.6933492527628805e-01 1.6468653558693609e+00 1.7931071191274306e+00 1.3690659296180641e+00 -6.6335214337306103e-01 -2.0251285257664957e+00 -1.1526951909526068e-01 -1.3484987272506355e+00 -1.6601014386730311e+00 -6.4146174451887461e-01 -3.6466435594628539e-02 -1.6169763184261272e+00 1.6654313464989825e+00 1.2205371530396534e+00 -8.7885636379964729e-02 -6.2503665140620512e-01 -7.5973618931500642e-01 1.9372452455835638e+00 -5.8536065928939918e-01 4.6481287340714506e-01 1.5855186106543389e+00 1.4228517673383005e+00 -9.6841436536380399e-01 
        </Neuron>
        <Neuron NSynapses="24">
          1.3857471246167810e+00 -1.7633745350335754e+00 1.7051917440454891e+00 1.7826458659736977e+00 -2.4148195338132222e-01 -2.8030646843520068e-01 3.6226780492551397e-01 -5.8609065447252795e-01 1.2196214347326191e+00 3.4691297458221182e-01 -9.9203754309432646e-01 -1.3920533107600654e+00 2.0157732179439231e-01 1.7880399257660406e+00 4.1805359024644861e-01 -3.4701778116283516e-01 -1.9332165028580668e+00 1.7336271227682913e+00 1.3678946925288676e-02 -1.1408270361972210e+00 -1.6185867436476539e-01 -1.0064397851121289e+00 1.0419859062809731e+00 1.2496039727057211e+00 
        </Neuron>
      </Layer>
      <Layer Index="1" NNeurons="25">
        <Neuron NSynapses="1">
          -8.1147814808260699e-01 
        </Neuron>
        <Neuron NSynapses="1">
          -1.0682076142113321e+00 
        </Neuron>
        <Neuron NSynapses="1">
          8.9556479136781053e-01 
        </Neuron>
        <Neuron NSynapses="1">
          8.8748242372453212e-01 
        </Neuron>
        <Neuron NSynapses="1">
          4.3547477660393902e-01 
        </Neuron>
        <Neuron NSynapses="1">
          9.8421018412003639e-02 
        </Neuron>
        <Neuron NSynapses="1">
          -1.0217026747812437e+00 
        </Neuron>
        <Neuron NSynapses="1">
          -1.1675072435506211e+00 
        </Neuron>
        <Neuron NSynapses="1">
          1.0248337554307285e+00 
        </Neuron>
        <Neuron NSynapses="1">
          3.1671680650940559e-01 
        </Neuron>
        <Neuron NSynapses="1">
          8.3513581093979061e-01 
        </Neuron>
        <Neuron NSynapses="1">
          -1.8221579437282893e+00 
        </Neuron>
        <Neuron NSynapses="1">
          -1.7369716788575960e+00 
        </Neuron>
        <Neuron NSynapses="1">
          -1.8532497483715571e+00 
        </Neuron>
        <Neuron NSynapses="1">
          -3.1051100672038268e-01 
        </Neuron>
        <Neuron NSynapses="1">
          -1.4252279073823662e+00 
        </Neuron>
        <Neuron NSynapses="1">
          7.9785428736037989e-01 
        </Neuron>
        <Neuron NSynapses="1">
          -4.3126806677581625e-01 
        </Neuron>
        <Neuron NSynapses="1">
          1.4657298452532488e+00 
        </Neuron>
        <Neuron NSynapses="1">
          6.0413454915259283e-02 
        </Neuron>
        <Neuron NSynapses="1">
          -2.0353711509253229e+00 
        </Neuron>
        <Neuron NSynapses="1">
          1.3924799962343071e+00 
        </Neuron>
        <Neuron NSynapses="1">
          1.4603314172105719e+00 
        </Neuron>
        <Neuron NSynapses="1">
          7.1635063656456011e-01 
        </Neuron>
        <Neuron NSynapses="1">
          -5.7195763024638091e-01 
        </Neuron>
      </Layer>
      <Layer Index="2" NNeurons="1">
        <Neuron NSynapses="0"/>
      </Layer>
    </Layout>
  </Weights>
</MethodSetup>
