<?xml version="1.0"?>
<MethodSetup Method="MLP::MLP">
  <GeneralInfo>
    <Info name="TMVA Release" value="4.2.1 [262657]"/>
    <Info name="ROOT Release" value="6.08/07 [395271]"/>
    <Info name="Creator" value="wverbeke"/>
    <Info name="Date" value="Tue Dec  5 04:17:41 2017"/>
    <Info name="Host" value="Linux vocms0302.cern.ch 2.6.32-696.1.1.el6.x86_64 #1 SMP Wed Apr 12 08:44:28 CEST 2017 x86_64 x86_64 x86_64 GNU/Linux"/>
    <Info name="Dir" value="/storage_mnt/storage/user/wverbeke/Work/AnalysisCode/ewkino/bdtTraining/bdtTrainingsubmit"/>
    <Info name="Training events" value="63436"/>
    <Info name="TrainingTime" value="8.90027302e+02"/>
    <Info name="AnalysisType" value="Classification"/>
  </GeneralInfo>
  <Options>
    <Option name="NCycles" modified="Yes">600</Option>
    <Option name="HiddenLayers" modified="Yes">N+5</Option>
    <Option name="NeuronType" modified="Yes">tanh</Option>
    <Option name="RandomSeed" modified="No">1</Option>
    <Option name="EstimatorType" modified="No">CE</Option>
    <Option name="NeuronInputType" modified="No">sum</Option>
    <Option name="V" modified="Yes">False</Option>
    <Option name="VerbosityLevel" modified="No">Default</Option>
    <Option name="VarTransform" modified="Yes">N</Option>
    <Option name="H" modified="Yes">True</Option>
    <Option name="CreateMVAPdfs" modified="No">False</Option>
    <Option name="IgnoreNegWeightsInTraining" modified="No">False</Option>
    <Option name="TrainingMethod" modified="No">BP</Option>
    <Option name="LearningRate" modified="No">2.000000e-02</Option>
    <Option name="DecayRate" modified="No">1.000000e-02</Option>
    <Option name="TestRate" modified="Yes">5</Option>
    <Option name="EpochMonitoring" modified="No">False</Option>
    <Option name="Sampling" modified="No">1.000000e+00</Option>
    <Option name="SamplingEpoch" modified="No">1.000000e+00</Option>
    <Option name="SamplingImportance" modified="No">1.000000e+00</Option>
    <Option name="SamplingTraining" modified="No">True</Option>
    <Option name="SamplingTesting" modified="No">False</Option>
    <Option name="ResetStep" modified="No">50</Option>
    <Option name="Tau" modified="No">3.000000e+00</Option>
    <Option name="BPMode" modified="No">sequential</Option>
    <Option name="BatchSize" modified="No">-1</Option>
    <Option name="ConvergenceImprove" modified="No">1.000000e-30</Option>
    <Option name="ConvergenceTests" modified="No">-1</Option>
    <Option name="UseRegulator" modified="Yes">False</Option>
    <Option name="UpdateLimit" modified="No">10000</Option>
    <Option name="CalculateErrors" modified="No">False</Option>
    <Option name="WeightRange" modified="No">1.000000e+00</Option>
  </Options>
  <Variables NVar="21">
    <Variable VarIndex="0" Expression="topMass" Label="topMass" Title="topMass" Unit="" Internal="topMass" Type="F" Min="0.00000000e+00" Max="4.21410254e+03"/>
    <Variable VarIndex="1" Expression="pTForwardJets" Label="pTForwardJets" Title="pTForwardJets" Unit="" Internal="pTForwardJets" Type="F" Min="0.00000000e+00" Max="4.82612061e+02"/>
    <Variable VarIndex="2" Expression="etaMostForward" Label="etaMostForward" Title="etaMostForward" Unit="" Internal="etaMostForward" Type="F" Min="7.56851258e-03" Max="5.08890200e+00"/>
    <Variable VarIndex="3" Expression="pTLeadingJet" Label="pTLeadingJet" Title="pTLeadingJet" Unit="" Internal="pTLeadingJet" Type="F" Min="2.52170486e+01" Max="1.42227527e+03"/>
    <Variable VarIndex="4" Expression="pTLeadingLepton" Label="pTLeadingLepton" Title="pTLeadingLepton" Unit="" Internal="pTLeadingLepton" Type="F" Min="2.51583538e+01" Max="1.01983197e+03"/>
    <Variable VarIndex="5" Expression="mNotSoForwardJets" Label="mNotSoForwardJets" Title="mNotSoForwardJets" Unit="" Internal="mNotSoForwardJets" Type="F" Min="0.00000000e+00" Max="6.36979736e+03"/>
    <Variable VarIndex="6" Expression="pTLeadingBJet" Label="pTLeadingBJet" Title="pTLeadingBJet" Unit="" Internal="pTLeadingBJet" Type="F" Min="2.50003223e+01" Max="1.11264612e+03"/>
    <Variable VarIndex="7" Expression="missingET" Label="missingET" Title="missingET" Unit="" Internal="missingET" Type="F" Min="3.97838175e-01" Max="9.45961731e+02"/>
    <Variable VarIndex="8" Expression="highestDeepCSV" Label="highestDeepCSV" Title="highestDeepCSV" Unit="" Internal="highestDeepCSV" Type="F" Min="6.32402778e-01" Max="9.99999940e-01"/>
    <Variable VarIndex="9" Expression="maxMjj" Label="maxMjj" Title="maxMjj" Unit="" Internal="maxMjj" Type="F" Min="0.00000000e+00" Max="5.98954150e+03"/>
    <Variable VarIndex="10" Expression="minMlb" Label="minMlb" Title="minMlb" Unit="" Internal="minMlb" Type="F" Min="-3.37236053e+02" Max="8.32854004e+02"/>
    <Variable VarIndex="11" Expression="asymmetryWlep" Label="asymmetryWlep" Title="asymmetryWlep" Unit="" Internal="asymmetryWlep" Type="F" Min="-2.49844050e+00" Max="2.48868632e+00"/>
    <Variable VarIndex="12" Expression="etaZ" Label="etaZ" Title="etaZ" Unit="" Internal="etaZ" Type="F" Min="3.07097143e-05" Max="7.13334560e+00"/>
    <Variable VarIndex="13" Expression="m3l" Label="m3l" Title="m3l" Unit="" Internal="m3l" Type="F" Min="8.39448166e+01" Max="1.72820544e+03"/>
    <Variable VarIndex="14" Expression="maxDeltaPhijj" Label="maxDeltaPhijj" Title="maxDeltaPhijj" Unit="" Internal="maxDeltaPhijj" Type="F" Min="1.29222870e-04" Max="3.14157581e+00"/>
    <Variable VarIndex="15" Expression="maxDeltaRjj" Label="maxDeltaRjj" Title="maxDeltaRjj" Unit="" Internal="maxDeltaRjj" Type="F" Min="3.97812366e-01" Max="9.60661888e+00"/>
    <Variable VarIndex="16" Expression="maxDeltaPhill" Label="maxDeltaPhill" Title="maxDeltaPhill" Unit="" Internal="maxDeltaPhill" Type="F" Min="4.39798236e-02" Max="3.14158845e+00"/>
    <Variable VarIndex="17" Expression="pTMaxlb" Label="pTMaxlb" Title="pTMaxlb" Unit="" Internal="pTMaxlb" Type="F" Min="1.60231552e+01" Max="1.12210510e+03"/>
    <Variable VarIndex="18" Expression="pT3l" Label="pT3l" Title="pT3l" Unit="" Internal="pT3l" Type="F" Min="3.44374746e-01" Max="1.16284033e+03"/>
    <Variable VarIndex="19" Expression="mForwardJetsLeadinBJetW" Label="mForwardJetsLeadinBJetW" Title="mForwardJetsLeadinBJetW" Unit="" Internal="mForwardJetsLeadinBJetW" Type="F" Min="0.00000000e+00" Max="6.53622510e+03"/>
    <Variable VarIndex="20" Expression="ht" Label="ht" Title="ht" Unit="" Internal="ht" Type="F" Min="5.02485886e+01" Max="2.00485938e+03"/>
  </Variables>
  <Spectators NSpec="0"/>
  <Classes NClass="2">
    <Class Name="Signal" Index="0"/>
    <Class Name="Background" Index="1"/>
  </Classes>
  <Transformations NTransformations="1">
    <Transform Name="Normalize">
      <Selection>
        <Input NInputs="21">
          <Input Type="Variable" Label="topMass" Expression="topMass"/>
          <Input Type="Variable" Label="pTForwardJets" Expression="pTForwardJets"/>
          <Input Type="Variable" Label="etaMostForward" Expression="etaMostForward"/>
          <Input Type="Variable" Label="pTLeadingJet" Expression="pTLeadingJet"/>
          <Input Type="Variable" Label="pTLeadingLepton" Expression="pTLeadingLepton"/>
          <Input Type="Variable" Label="mNotSoForwardJets" Expression="mNotSoForwardJets"/>
          <Input Type="Variable" Label="pTLeadingBJet" Expression="pTLeadingBJet"/>
          <Input Type="Variable" Label="missingET" Expression="missingET"/>
          <Input Type="Variable" Label="highestDeepCSV" Expression="highestDeepCSV"/>
          <Input Type="Variable" Label="maxMjj" Expression="maxMjj"/>
          <Input Type="Variable" Label="minMlb" Expression="minMlb"/>
          <Input Type="Variable" Label="asymmetryWlep" Expression="asymmetryWlep"/>
          <Input Type="Variable" Label="etaZ" Expression="etaZ"/>
          <Input Type="Variable" Label="m3l" Expression="m3l"/>
          <Input Type="Variable" Label="maxDeltaPhijj" Expression="maxDeltaPhijj"/>
          <Input Type="Variable" Label="maxDeltaRjj" Expression="maxDeltaRjj"/>
          <Input Type="Variable" Label="maxDeltaPhill" Expression="maxDeltaPhill"/>
          <Input Type="Variable" Label="pTMaxlb" Expression="pTMaxlb"/>
          <Input Type="Variable" Label="pT3l" Expression="pT3l"/>
          <Input Type="Variable" Label="mForwardJetsLeadinBJetW" Expression="mForwardJetsLeadinBJetW"/>
          <Input Type="Variable" Label="ht" Expression="ht"/>
        </Input>
        <Output NOutputs="21">
          <Output Type="Variable" Label="topMass" Expression="topMass"/>
          <Output Type="Variable" Label="pTForwardJets" Expression="pTForwardJets"/>
          <Output Type="Variable" Label="etaMostForward" Expression="etaMostForward"/>
          <Output Type="Variable" Label="pTLeadingJet" Expression="pTLeadingJet"/>
          <Output Type="Variable" Label="pTLeadingLepton" Expression="pTLeadingLepton"/>
          <Output Type="Variable" Label="mNotSoForwardJets" Expression="mNotSoForwardJets"/>
          <Output Type="Variable" Label="pTLeadingBJet" Expression="pTLeadingBJet"/>
          <Output Type="Variable" Label="missingET" Expression="missingET"/>
          <Output Type="Variable" Label="highestDeepCSV" Expression="highestDeepCSV"/>
          <Output Type="Variable" Label="maxMjj" Expression="maxMjj"/>
          <Output Type="Variable" Label="minMlb" Expression="minMlb"/>
          <Output Type="Variable" Label="asymmetryWlep" Expression="asymmetryWlep"/>
          <Output Type="Variable" Label="etaZ" Expression="etaZ"/>
          <Output Type="Variable" Label="m3l" Expression="m3l"/>
          <Output Type="Variable" Label="maxDeltaPhijj" Expression="maxDeltaPhijj"/>
          <Output Type="Variable" Label="maxDeltaRjj" Expression="maxDeltaRjj"/>
          <Output Type="Variable" Label="maxDeltaPhill" Expression="maxDeltaPhill"/>
          <Output Type="Variable" Label="pTMaxlb" Expression="pTMaxlb"/>
          <Output Type="Variable" Label="pT3l" Expression="pT3l"/>
          <Output Type="Variable" Label="mForwardJetsLeadinBJetW" Expression="mForwardJetsLeadinBJetW"/>
          <Output Type="Variable" Label="ht" Expression="ht"/>
        </Output>
      </Selection>
      <Class ClassIndex="0">
        <Ranges>
          <Range Index="0" Min="0.0000000000000000e+00" Max="1.6141367187500000e+03"/>
          <Range Index="1" Min="0.0000000000000000e+00" Max="4.8261206054687500e+02"/>
          <Range Index="2" Min="3.6413535475730896e-02" Max="5.0889019966125488e+00"/>
          <Range Index="3" Min="2.5667066574096680e+01" Max="1.4222752685546875e+03"/>
          <Range Index="4" Min="2.6422729492187500e+01" Max="9.3791693115234375e+02"/>
          <Range Index="5" Min="0.0000000000000000e+00" Max="6.3697973632812500e+03"/>
          <Range Index="6" Min="2.5002065658569336e+01" Max="1.0695916748046875e+03"/>
          <Range Index="7" Min="3.9783817529678345e-01" Max="6.2243109130859375e+02"/>
          <Range Index="8" Min="6.3241547346115112e-01" Max="9.9999994039535522e-01"/>
          <Range Index="9" Min="0.0000000000000000e+00" Max="5.9895415039062500e+03"/>
          <Range Index="10" Min="-2.7167977905273438e+02" Max="7.0304370117187500e+02"/>
          <Range Index="11" Min="-2.4984405040740967e+00" Max="2.4851803779602051e+00"/>
          <Range Index="12" Min="1.2286624405533075e-04" Max="7.1333456039428711e+00"/>
          <Range Index="13" Min="8.5405464172363281e+01" Max="1.3413367919921875e+03"/>
          <Range Index="14" Min="3.2353401184082031e-04" Max="3.1415758132934570e+00"/>
          <Range Index="15" Min="4.1016122698783875e-01" Max="9.6066188812255859e+00"/>
          <Range Index="16" Min="4.3979823589324951e-02" Max="3.1415884494781494e+00"/>
          <Range Index="17" Min="2.1575326919555664e+01" Max="1.1140953369140625e+03"/>
          <Range Index="18" Min="3.4437474608421326e-01" Max="1.0453444824218750e+03"/>
          <Range Index="19" Min="0.0000000000000000e+00" Max="6.5362250976562500e+03"/>
          <Range Index="20" Min="5.1278156280517578e+01" Max="2.0048593750000000e+03"/>
        </Ranges>
      </Class>
      <Class ClassIndex="1">
        <Ranges>
          <Range Index="0" Min="0.0000000000000000e+00" Max="4.2141025390625000e+03"/>
          <Range Index="1" Min="0.0000000000000000e+00" Max="4.5623275756835938e+02"/>
          <Range Index="2" Min="7.5685125775635242e-03" Max="5.0855135917663574e+00"/>
          <Range Index="3" Min="2.5217048645019531e+01" Max="1.2619134521484375e+03"/>
          <Range Index="4" Min="2.5158353805541992e+01" Max="1.0198319702148438e+03"/>
          <Range Index="5" Min="0.0000000000000000e+00" Max="3.4210244140625000e+03"/>
          <Range Index="6" Min="2.5000322341918945e+01" Max="1.1126461181640625e+03"/>
          <Range Index="7" Min="4.7556459903717041e-01" Max="9.4596173095703125e+02"/>
          <Range Index="8" Min="6.3240277767181396e-01" Max="9.9999994039535522e-01"/>
          <Range Index="9" Min="0.0000000000000000e+00" Max="3.1136745605468750e+03"/>
          <Range Index="10" Min="-3.3723605346679688e+02" Max="8.3285400390625000e+02"/>
          <Range Index="11" Min="-2.4951372146606445e+00" Max="2.4886863231658936e+00"/>
          <Range Index="12" Min="3.0709714337717742e-05" Max="6.4695830345153809e+00"/>
          <Range Index="13" Min="8.3944816589355469e+01" Max="1.7282054443359375e+03"/>
          <Range Index="14" Min="1.2922286987304688e-04" Max="3.1415517330169678e+00"/>
          <Range Index="15" Min="3.9781236648559570e-01" Max="9.1172161102294922e+00"/>
          <Range Index="16" Min="6.5524339675903320e-02" Max="3.1414833068847656e+00"/>
          <Range Index="17" Min="1.6023155212402344e+01" Max="1.1221051025390625e+03"/>
          <Range Index="18" Min="9.0931731462478638e-01" Max="1.1628403320312500e+03"/>
          <Range Index="19" Min="0.0000000000000000e+00" Max="4.2141025390625000e+03"/>
          <Range Index="20" Min="5.0248588562011719e+01" Max="1.7127659912109375e+03"/>
        </Ranges>
      </Class>
      <Class ClassIndex="2">
        <Ranges>
          <Range Index="0" Min="0.0000000000000000e+00" Max="4.2141025390625000e+03"/>
          <Range Index="1" Min="0.0000000000000000e+00" Max="4.8261206054687500e+02"/>
          <Range Index="2" Min="7.5685125775635242e-03" Max="5.0889019966125488e+00"/>
          <Range Index="3" Min="2.5217048645019531e+01" Max="1.4222752685546875e+03"/>
          <Range Index="4" Min="2.5158353805541992e+01" Max="1.0198319702148438e+03"/>
          <Range Index="5" Min="0.0000000000000000e+00" Max="6.3697973632812500e+03"/>
          <Range Index="6" Min="2.5000322341918945e+01" Max="1.1126461181640625e+03"/>
          <Range Index="7" Min="3.9783817529678345e-01" Max="9.4596173095703125e+02"/>
          <Range Index="8" Min="6.3240277767181396e-01" Max="9.9999994039535522e-01"/>
          <Range Index="9" Min="0.0000000000000000e+00" Max="5.9895415039062500e+03"/>
          <Range Index="10" Min="-3.3723605346679688e+02" Max="8.3285400390625000e+02"/>
          <Range Index="11" Min="-2.4984405040740967e+00" Max="2.4886863231658936e+00"/>
          <Range Index="12" Min="3.0709714337717742e-05" Max="7.1333456039428711e+00"/>
          <Range Index="13" Min="8.3944816589355469e+01" Max="1.7282054443359375e+03"/>
          <Range Index="14" Min="1.2922286987304688e-04" Max="3.1415758132934570e+00"/>
          <Range Index="15" Min="3.9781236648559570e-01" Max="9.6066188812255859e+00"/>
          <Range Index="16" Min="4.3979823589324951e-02" Max="3.1415884494781494e+00"/>
          <Range Index="17" Min="1.6023155212402344e+01" Max="1.1221051025390625e+03"/>
          <Range Index="18" Min="3.4437474608421326e-01" Max="1.1628403320312500e+03"/>
          <Range Index="19" Min="0.0000000000000000e+00" Max="6.5362250976562500e+03"/>
          <Range Index="20" Min="5.0248588562011719e+01" Max="2.0048593750000000e+03"/>
        </Ranges>
      </Class>
    </Transform>
  </Transformations>
  <MVAPdfs/>
  <Weights>
    <Layout NLayers="3">
      <Layer Index="0" NNeurons="22">
        <Neuron NSynapses="26">
          -3.3203384599327573e-01 2.4241430268687552e+00 1.1112977941447160e+00 2.0429373726871485e+00 -1.9469416865465192e+00 -1.2971691461428856e+00 -7.7582229946869052e-01 2.1083683096497490e+00 -1.3855544523128154e+00 -1.1121149329306754e+00 -1.6991184701026798e+00 -4.2032286946447434e-01 -1.3014830178548678e+00 -5.8083717715531769e-01 -6.0767730690924571e-01 5.2459636155963607e-01 -4.6324918184485797e-01 1.7728491281700858e+00 1.3299895123820005e-01 1.3265745235926945e+00 -3.2185770195902458e-01 -7.3908988242642537e-01 8.2788552016015426e-01 -1.4041251853298584e-02 -1.1426110762261454e+00 -6.4164351299065572e-02 
        </Neuron>
        <Neuron NSynapses="26">
          1.6168142620947281e+00 -5.1124608709299613e-01 -1.5753307152506797e+00 -2.2164210144477742e-01 7.5593885573018038e-01 1.3878264423714637e+00 -2.5055741171035262e-01 -3.2956188106689760e-01 2.8513762926007491e-01 -3.7602125328174135e-01 -1.3723464606376590e+00 1.6836384643735591e+00 -1.1663465838868139e+00 7.6273076410491236e-01 1.2237792865803188e+00 1.0155485755939972e+00 1.9333127928890868e+00 1.3695224291015735e+00 -7.7502064345102817e-01 -1.4637355514475758e+00 4.0863272706285453e-01 3.2285915687799260e-01 1.4788867540666122e+00 1.3079410524948731e+00 1.6283799797778464e+00 6.6841256897577128e-01 
        </Neuron>
        <Neuron NSynapses="26">
          -1.6109924545777237e+00 1.3837109099329070e+00 -1.7168759527537425e+00 -7.9772040099054842e-01 -1.2895853589655029e+00 -1.9807810061146978e+00 1.5358110520277850e+00 5.4275880190538206e-01 -1.6007330502676060e+00 3.6229514254982870e-01 -2.8428400269034237e-01 6.7924450115893786e-01 1.8871758222563300e+00 -3.1821343349191072e-01 1.2495342954941062e-01 -1.1680220985955512e+00 7.7828220799635606e-01 -8.4098406606762721e-01 -7.3071244553669545e-01 -1.4038070692549698e+00 5.6414717421700944e-01 1.3440675912182056e+00 1.3172325335812742e+00 -3.3884926651950675e-01 -1.9305009349719142e+00 -2.2286277598589717e+00 
        </Neuron>
        <Neuron NSynapses="26">
          1.0374311901158086e+00 9.0416184811524836e-01 2.1782995971759780e+00 8.0983679301950762e-01 1.0238922752052784e+00 -6.5114360030460705e-01 -8.8028258036657059e-01 -5.9267706096415705e-02 1.1720205621599131e+00 -1.1583702208482851e+00 -1.6468297507125906e+00 -1.6716866082719204e+00 -2.4467305102157397e-01 -1.5510354086714867e-01 1.6409794219791820e+00 -1.7512611747948159e+00 -8.3517388471384402e-01 1.6253717841002555e+00 -8.5595503898788450e-01 -1.6048322673731334e+00 -1.5508059026308443e+00 1.6164738348257712e-01 -1.8567913533476086e+00 -1.7204027062288234e+00 7.3117184967177085e-01 1.6498875286295756e+00 
        </Neuron>
        <Neuron NSynapses="26">
          -1.1595089531389657e+00 1.9806730508370465e+00 -7.3714310489563883e-01 -4.2893005210582569e-01 5.0015888480665445e-03 5.2316197003961395e-01 -1.7773688967950152e+00 4.0128375335524086e-01 3.1337028371099684e-01 4.1444777375255387e-01 -1.4954459169490266e+00 1.8689150442675562e+00 2.9613070229773436e-01 -1.0018053742499367e+00 8.0346184946701094e-01 -1.2898477096211385e+00 -1.6498868179516026e+00 1.4729654335685374e-01 -3.6150582052167030e-01 1.7284030328144635e+00 7.9058344519049994e-01 -3.0298326166331931e-02 -2.6273149749627334e-01 1.1084113791076255e-01 -1.7955864740984693e+00 1.2859090919788247e+00 
        </Neuron>
        <Neuron NSynapses="26">
          1.8676657316327594e-01 -1.2706186704039277e+00 9.5213987262207489e-01 -1.4159735285385653e+00 1.3037408617012003e-01 1.1845693058179128e+00 1.8222020270528669e+00 -1.8856334522467724e+00 3.8392687116019308e-01 1.4550814630259736e+00 1.5782278710908622e+00 1.0902828931890422e-01 -1.4502826784318432e+00 -4.4760555132224317e-01 -1.4320631541092212e+00 1.5443063566507005e+00 1.2543781807872454e+00 -4.2300471959663410e-01 -4.3985334703938528e-01 1.4818020618370573e-01 -1.5415133900851070e+00 7.9286087139089079e-01 1.7484600909819326e+00 -6.9213316123280944e-01 -5.6406787623498411e-01 3.0933892242278428e-02 
        </Neuron>
        <Neuron NSynapses="26">
          1.0212389941993789e+00 9.5978618125228421e-01 1.1258204919226280e+00 -1.2366554707789355e+00 1.5670160868302871e+00 9.8568003486409028e-01 4.8193790881726750e-01 7.7294242051112794e-01 1.0155604623547392e+00 -6.3195670335967402e-01 -6.8539493465423351e-01 1.1117238476253599e+00 -9.6456976480691092e-01 -5.8865138361894032e-01 1.5889380487615827e+00 8.4196887555557554e-01 -3.0313256446138814e-01 1.5108911203736419e+00 1.8347697605028510e+00 -2.0558972257477302e+00 6.1050487407574505e-01 2.9884063190752333e-02 5.7025454253353292e-01 -1.7513639986835394e+00 -1.5350864782404376e+00 1.2128454785895681e+00 
        </Neuron>
        <Neuron NSynapses="26">
          1.7948185240189285e+00 -1.2678287661787702e+00 5.3272861023333624e-02 -3.4203551278718713e-01 3.6675231572976619e-01 1.8585775224547798e+00 -3.3188840674063547e-01 -4.2045109061937669e-01 -1.0196260940441566e+00 9.8431864068837782e-01 1.5768383541548858e+00 1.0578605337552460e+00 2.5798168021700491e-01 -9.6896075691031702e-01 -1.9763800219641929e+00 1.0138431460612309e+00 4.3849125076535250e-01 -1.3368773948322406e+00 -7.0986524273089657e-01 2.8864748103171428e-01 7.1404517072123544e-02 -1.9261479571312565e+00 1.6240029499417807e+00 7.1036620603872547e-01 -5.2913698606742976e-01 -1.5644725971493012e-01 
        </Neuron>
        <Neuron NSynapses="26">
          1.5920631939855452e+00 7.9390194172784101e-01 2.9513388129226836e-01 -1.8106210017617561e-01 -1.9199408424530156e+00 -6.2104335533384369e-01 1.6409569811833800e+00 1.1434369965124473e+00 7.4577508706129825e-01 2.5122734854785300e-01 1.9121993844143061e+00 -1.6507073660630005e+00 -1.3090951595991100e+00 -6.7078312385076749e-02 -1.4546158595975753e+00 8.7548260714289616e-01 1.7264497233748357e+00 -1.3195475514338706e+00 7.7964939586550508e-01 -9.1449439682986619e-02 -1.6971601499631019e+00 -1.0771165043536273e+00 9.3393802820760907e-01 9.8819675320143296e-02 1.0219467947630387e+00 -7.7801000374476537e-01 
        </Neuron>
        <Neuron NSynapses="26">
          1.7430619555862679e+00 -1.2785551356109839e+00 1.1304706908986732e+00 3.2015182976098136e-02 -1.4395537572401058e+00 -1.3012267639417134e+00 -1.8836196672165897e+00 -4.2681972080219999e-01 -1.8604635077895448e+00 -1.6428056899865064e+00 -1.9132130883537717e+00 -1.1099369400543802e-03 -1.0115776859998689e+00 -1.8092359119506076e+00 1.4498474076825187e+00 -8.3172083945181341e-01 2.0361490045194339e-01 -1.0094349399300333e+00 1.8880967532945053e-01 1.8745393675953888e+00 1.1371974274356000e+00 -6.9335002342270780e-01 -1.4680126790554155e+00 -1.1831182081545626e+00 -8.4269113687405506e-01 -1.9509843554508648e+00 
        </Neuron>
        <Neuron NSynapses="26">
          3.3563195599652812e-01 3.6173757990638516e-01 1.9096646984491750e+00 -9.8364401863501053e-02 2.5239077798430654e-01 -3.9794567540832348e-01 -1.9475695945213365e+00 1.3871210308428654e+00 1.1960747751272907e+00 -8.4147500260214869e-01 -1.1189691623339768e+00 9.1915300944437062e-01 1.2082533687881232e+00 5.5516918560718120e-01 -4.4929501032730584e-01 -4.0316696392505719e-01 1.4274805328092666e+00 9.6592833561709879e-01 9.7955530308637717e-01 -3.6058057201455385e-01 2.2330547029067513e-01 -3.0877399319388438e-01 -1.4248520645663163e+00 -5.3797372350873174e-01 -1.7713773760497789e+00 -1.2758220273539940e+00 
        </Neuron>
        <Neuron NSynapses="26">
          -1.3856595346702987e+00 1.6261387035087305e+00 -1.7664669119045697e+00 1.0887237982310631e+00 -1.5378957310942307e+00 1.1498342918130242e+00 -1.0757245304860732e+00 5.3266836828194475e-01 8.4561318319465606e-01 -1.8302679102238273e+00 2.4399582327777763e-01 6.1982278268272395e-01 -1.9180178788360269e+00 -1.3830538565102768e+00 -1.7059313601624733e+00 -7.8354735511579976e-01 1.8477134780867306e+00 -5.3271788310860757e-01 2.5293216220851217e-01 -9.0177764999532095e-01 -1.2861475954316972e+00 -1.8844222779109394e+00 -9.6536269025423815e-01 -1.3772475580248729e+00 9.8167326471210226e-01 -1.3071359635194357e+00 
        </Neuron>
        <Neuron NSynapses="26">
          -1.1821384927616845e+00 2.0782739654719053e+00 5.2089445546247837e-01 -5.8661727778443462e-01 1.9141375831957603e+00 -1.6807565862575911e+00 1.4078170268208874e+00 9.4382569841810704e-01 -1.0066300103525472e+00 -8.5068224281175397e-01 -6.8898513044271276e-02 -1.2146291834796095e+00 4.7133268411438572e-01 1.7100653974560711e+00 1.3237366771007031e+00 1.5046492152856816e+00 -1.2797807747763490e+00 1.0652600648038490e+00 -1.9346046419407847e+00 6.2623692531126052e-01 -1.8756515130855729e+00 -1.6755497027780251e+00 -1.4987389537908400e-02 1.1227133854384439e+00 4.6749320135040850e-01 7.6381637369250244e-01 
        </Neuron>
        <Neuron NSynapses="26">
          2.6782104349323915e-01 2.2410809207082272e-01 -5.1266944435626449e-01 4.3150530021941691e-01 1.9981241221629533e+00 -1.4039776621710438e+00 3.4814931443837066e-01 -1.3557041561415204e+00 -4.4736485202348347e-01 -2.3205518730513793e-02 1.4493278826753342e-01 -1.1557503803778644e+00 9.2695005952463061e-01 1.4999377109406606e+00 6.8685280718965724e-01 -3.2493631381184268e-01 -9.8639736402993572e-01 -1.4169652578806524e+00 -1.7349415046606689e+00 1.0247096576760197e+00 -5.4901979843354964e-01 -1.1464833626421407e+00 6.0385298907781682e-01 -1.8240250658156230e+00 -1.1290112934757008e+00 -1.4753519246349587e+00 
        </Neuron>
        <Neuron NSynapses="26">
          1.0084952886648679e+00 -1.4713292081953659e+00 -1.9017213837922324e+00 -4.4790782616205588e-01 -9.4846823906732547e-01 -1.6796031698440039e+00 1.2360835164113855e+00 -1.2976873727149947e+00 -1.2372366906172865e+00 1.7255438710619295e+00 6.4517850274998656e-01 3.0147190556929099e-01 9.9219222676789315e-02 1.4537823014946900e+00 1.6913974090585213e+00 5.3877781241747591e-01 -9.4050137903206066e-01 -6.9240214895353780e-01 -1.7207438291032788e+00 8.8147131149836233e-01 1.0292291199931600e+00 1.1804962445682758e-01 1.0491043581727777e+00 9.5638748467857182e-01 1.6446800178019838e+00 -1.0707850349415060e+00 
        </Neuron>
        <Neuron NSynapses="26">
          1.7666124496403399e+00 1.0388986728010896e+00 -1.7568435893469949e+00 -3.9697254139627364e-01 -1.0169877483926539e+00 6.9181095309789886e-01 5.0010680554678255e-01 8.8536465319419699e-01 1.8143526174239448e+00 -4.5038629513168355e-01 1.8309949488611663e+00 1.6652023565633687e+00 2.8842065317203486e-01 -1.3046107294916585e+00 1.6593642902900012e+00 -1.8627719501523625e+00 6.9185248640087060e-01 1.7217506982210378e+00 -4.4983006347299992e-01 -7.9591522940213433e-01 -3.5312868308161377e-01 -1.0587301550825450e+00 4.0033786878714478e-01 -1.9503614821557274e+00 2.1854325439820757e-01 -7.8132493616297150e-01 
        </Neuron>
        <Neuron NSynapses="26">
          1.6611295021989494e+00 9.2357697124346982e-01 1.5018380593408422e+00 -6.6026591578290961e-01 -4.3223214072334248e-01 3.8411545305694550e-01 1.8513216321646762e+00 -1.8889654174502100e+00 -1.3116474284136681e+00 -5.4371853473546017e-01 -1.4332363740903491e+00 -1.6814147004025004e+00 -1.4657807473654749e+00 8.4187101125011854e-01 1.9597642676820556e-02 -1.7971806230861365e+00 -1.8453173739479602e+00 -1.6012994527988447e-01 1.7803886453759306e+00 1.8355443361129928e+00 1.2896441287348086e+00 -6.0142200502461995e-01 -1.9126238147895420e+00 -1.0348854579014563e-01 -1.3148679061340718e+00 -1.6328811564961574e+00 
        </Neuron>
        <Neuron NSynapses="26">
          -6.6678335030080027e-01 3.4119910177230517e-01 -1.3023090994467355e+00 1.8149435284133730e+00 1.2658601922336465e+00 3.5369828656241897e-01 -6.2865019650951692e-01 -6.9981465154210876e-01 1.7691062714096608e+00 -6.1787320110360855e-01 2.5409097197246194e-01 1.6352554668428232e+00 1.4596209306224570e+00 -1.0068597207369283e+00 1.3839925873591501e+00 -2.0901347747904646e+00 1.5811583108964169e+00 1.8521459427164255e+00 -1.7655737831708476e-01 -3.8052951001751240e-01 1.9837581973160270e-01 -6.1540449837447553e-01 1.2718519969807611e+00 2.6992353243615252e-01 -8.5470088917750919e-01 -1.3261981902741213e+00 
        </Neuron>
        <Neuron NSynapses="26">
          -4.4999115007272182e-02 2.1132715095960743e+00 5.8345839278174272e-01 -3.1927834369507613e-01 -1.9079626726959815e+00 1.9997443327683839e+00 3.7213622988920070e-01 -9.5621087469111288e-01 -2.5494654426676222e-01 -1.0391597970276945e+00 1.1467396363077975e+00 1.5160595263908980e+00 -7.9441420938346297e-01 -1.0550672783299360e+00 1.5734186182867069e+00 1.0404078224177791e+00 2.3625758054680576e-01 1.7115708601728044e-01 -1.2707403970239906e+00 -1.3204812842975948e+00 1.1814915595112319e+00 3.3548678304423341e-01 5.2217175745866795e-01 -1.8329837918350425e+00 -1.7850644390215382e+00 -1.7062604722450256e+00 
        </Neuron>
        <Neuron NSynapses="26">
          -2.8254691654725961e-01 -1.3146977239199760e+00 9.7433795456970085e-01 -3.0894154381372407e-01 1.7349138029092448e+00 3.4847620016598507e-01 -1.9683660190900356e+00 1.4752600143277892e+00 1.9383403472771412e+00 1.0780867908827305e+00 -5.2861682191761639e-01 -1.0071266898657889e+00 1.8877577516192141e+00 -1.8509942775414940e+00 4.2754428899785346e-01 -1.3798170361384601e+00 1.2918055420345571e+00 -1.1128699140062470e+00 2.7527067197898530e-01 -3.3264481421915548e-01 3.8134086018735119e-01 -4.8080969319058692e-01 -8.1027204114033258e-01 6.8880135296839629e-01 3.8374481665105731e-01 6.6528122464244910e-01 
        </Neuron>
        <Neuron NSynapses="26">
          1.0400088882377125e+00 -1.2865120859500887e+00 1.6546908296202480e+00 -1.7288214320586082e+00 1.0585655871921140e+00 1.2896882455427026e+00 7.9780770457873162e-01 1.7416452120088957e+00 1.4761829575014223e+00 -2.0315908039645767e+00 -7.5320621004776078e-01 -9.1916319263066748e-01 6.5325375187227952e-01 -1.9446103752773053e-01 -1.8838457648555967e-01 -6.6229535923008320e-01 -4.7937697157422093e-01 -1.0080284865821045e+00 -3.6446492160576516e-01 -1.9711315728626744e+00 -4.7257802644490621e-01 1.9706048393010336e-01 -6.7235031656832056e-01 -1.5380074929658554e+00 5.1071020202100792e-01 1.8916795267269784e-01 
        </Neuron>
        <Neuron NSynapses="26">
          -3.0080278127403831e-01 -1.8959039454391635e+00 1.5913485140892782e+00 -4.3889310863307524e-01 6.3967509643754206e-01 6.4954996628247175e-01 -1.2502674103249762e+00 -9.1719263399712003e-01 -3.3712795395517342e-01 -1.8757563255372229e+00 -5.8568093286839806e-01 -1.0816054333573462e+00 1.2195514006436692e+00 -1.5850865999267270e+00 1.5057141276897485e+00 1.8079581846118560e+00 1.6094519463098294e+00 1.0452157211352500e+00 6.7579559948660184e-01 7.1465862416144832e-02 -7.9847396129285741e-01 -2.0406106305441951e+00 -1.0681819073703331e+00 -6.3833640184196605e-01 1.3645533880068441e+00 2.4512292161019339e-01 
        </Neuron>
      </Layer>
      <Layer Index="1" NNeurons="27">
        <Neuron NSynapses="1">
          4.5833883508338696e-01 
        </Neuron>
        <Neuron NSynapses="1">
          1.0126853893564678e+00 
        </Neuron>
        <Neuron NSynapses="1">
          6.7472109044832931e-02 
        </Neuron>
        <Neuron NSynapses="1">
          -1.3340749987326792e+00 
        </Neuron>
        <Neuron NSynapses="1">
          6.1220562910766163e-01 
        </Neuron>
        <Neuron NSynapses="1">
          -1.0442148756300846e+00 
        </Neuron>
        <Neuron NSynapses="1">
          5.6055157423994262e-01 
        </Neuron>
        <Neuron NSynapses="1">
          -1.3694138400500060e+00 
        </Neuron>
        <Neuron NSynapses="1">
          1.6960734706335165e-01 
        </Neuron>
        <Neuron NSynapses="1">
          -1.3626844297984861e-01 
        </Neuron>
        <Neuron NSynapses="1">
          6.2019300744632400e-01 
        </Neuron>
        <Neuron NSynapses="1">
          -1.4669480564058255e+00 
        </Neuron>
        <Neuron NSynapses="1">
          -2.0026850935025611e-01 
        </Neuron>
        <Neuron NSynapses="1">
          -1.7531424012915473e+00 
        </Neuron>
        <Neuron NSynapses="1">
          1.2604561729771904e-01 
        </Neuron>
        <Neuron NSynapses="1">
          7.7290721149470931e-01 
        </Neuron>
        <Neuron NSynapses="1">
          5.7974724349638462e-01 
        </Neuron>
        <Neuron NSynapses="1">
          6.4284146006600495e-01 
        </Neuron>
        <Neuron NSynapses="1">
          -2.1693336164574641e+00 
        </Neuron>
        <Neuron NSynapses="1">
          7.9490592719719999e-01 
        </Neuron>
        <Neuron NSynapses="1">
          -6.6658910456691789e-01 
        </Neuron>
        <Neuron NSynapses="1">
          6.2109376393644944e-01 
        </Neuron>
        <Neuron NSynapses="1">
          -1.1431972941421422e+00 
        </Neuron>
        <Neuron NSynapses="1">
          -1.3569986922664510e+00 
        </Neuron>
        <Neuron NSynapses="1">
          1.4859337637007621e+00 
        </Neuron>
        <Neuron NSynapses="1">
          -6.2619475569122529e-01 
        </Neuron>
        <Neuron NSynapses="1">
          -1.7556858627753651e+00 
        </Neuron>
      </Layer>
      <Layer Index="2" NNeurons="1">
        <Neuron NSynapses="0"/>
      </Layer>
    </Layout>
  </Weights>
</MethodSetup>
