<?xml version="1.0"?>
<MethodSetup Method="MLP::MLP">
  <GeneralInfo>
    <Info name="TMVA Release" value="4.2.1 [262657]"/>
    <Info name="ROOT Release" value="6.08/07 [395271]"/>
    <Info name="Creator" value="wverbeke"/>
    <Info name="Date" value="Thu Nov 23 01:23:10 2017"/>
    <Info name="Host" value="Linux vocms0302.cern.ch 2.6.32-696.1.1.el6.x86_64 #1 SMP Wed Apr 12 08:44:28 CEST 2017 x86_64 x86_64 x86_64 GNU/Linux"/>
    <Info name="Dir" value="/storage_mnt/storage/user/wverbeke/Work/AnalysisCode/ewkino/bdtTraining"/>
    <Info name="Training events" value="58157"/>
    <Info name="TrainingTime" value="7.39732142e+02"/>
    <Info name="AnalysisType" value="Classification"/>
  </GeneralInfo>
  <Options>
    <Option name="NCycles" modified="Yes">600</Option>
    <Option name="HiddenLayers" modified="Yes">N+5</Option>
    <Option name="NeuronType" modified="Yes">tanh</Option>
    <Option name="RandomSeed" modified="No">1</Option>
    <Option name="EstimatorType" modified="No">CE</Option>
    <Option name="NeuronInputType" modified="No">sum</Option>
    <Option name="V" modified="Yes">False</Option>
    <Option name="VerbosityLevel" modified="No">Default</Option>
    <Option name="VarTransform" modified="Yes">N</Option>
    <Option name="H" modified="Yes">True</Option>
    <Option name="CreateMVAPdfs" modified="No">False</Option>
    <Option name="IgnoreNegWeightsInTraining" modified="No">False</Option>
    <Option name="TrainingMethod" modified="No">BP</Option>
    <Option name="LearningRate" modified="No">2.000000e-02</Option>
    <Option name="DecayRate" modified="No">1.000000e-02</Option>
    <Option name="TestRate" modified="Yes">5</Option>
    <Option name="EpochMonitoring" modified="No">False</Option>
    <Option name="Sampling" modified="No">1.000000e+00</Option>
    <Option name="SamplingEpoch" modified="No">1.000000e+00</Option>
    <Option name="SamplingImportance" modified="No">1.000000e+00</Option>
    <Option name="SamplingTraining" modified="No">True</Option>
    <Option name="SamplingTesting" modified="No">False</Option>
    <Option name="ResetStep" modified="No">50</Option>
    <Option name="Tau" modified="No">3.000000e+00</Option>
    <Option name="BPMode" modified="No">sequential</Option>
    <Option name="BatchSize" modified="No">-1</Option>
    <Option name="ConvergenceImprove" modified="No">1.000000e-30</Option>
    <Option name="ConvergenceTests" modified="No">-1</Option>
    <Option name="UseRegulator" modified="Yes">False</Option>
    <Option name="UpdateLimit" modified="No">10000</Option>
    <Option name="CalculateErrors" modified="No">False</Option>
    <Option name="WeightRange" modified="No">1.000000e+00</Option>
  </Options>
  <Variables NVar="19">
    <Variable VarIndex="0" Expression="topMass" Label="topMass" Title="topMass" Unit="" Internal="topMass" Type="F" Min="0.00000000e+00" Max="2.48621777e+03"/>
    <Variable VarIndex="1" Expression="pTForwardJets" Label="pTForwardJets" Title="pTForwardJets" Unit="" Internal="pTForwardJets" Type="F" Min="0.00000000e+00" Max="6.68675720e+02"/>
    <Variable VarIndex="2" Expression="etaMostForward" Label="etaMostForward" Title="etaMostForward" Unit="" Internal="etaMostForward" Type="F" Min="1.45087436e-01" Max="5.08814001e+00"/>
    <Variable VarIndex="3" Expression="numberOfJets" Label="numberOfJets" Title="numberOfJets" Unit="" Internal="numberOfJets" Type="F" Min="4.00000000e+00" Max="1.50000000e+01"/>
    <Variable VarIndex="4" Expression="pTLeadingLepton" Label="pTLeadingLepton" Title="pTLeadingLepton" Unit="" Internal="pTLeadingLepton" Type="F" Min="2.55576496e+01" Max="1.21822681e+03"/>
    <Variable VarIndex="5" Expression="mNotSoForwardJets" Label="mNotSoForwardJets" Title="mNotSoForwardJets" Unit="" Internal="mNotSoForwardJets" Type="F" Min="0.00000000e+00" Max="7.79128271e+03"/>
    <Variable VarIndex="6" Expression="missingET" Label="missingET" Title="missingET" Unit="" Internal="missingET" Type="F" Min="5.00592701e-02" Max="1.01597711e+03"/>
    <Variable VarIndex="7" Expression="highestDeepCSV" Label="highestDeepCSV" Title="highestDeepCSV" Unit="" Internal="highestDeepCSV" Type="F" Min="6.32402778e-01" Max="9.99999940e-01"/>
    <Variable VarIndex="8" Expression="maxMjj" Label="maxMjj" Title="maxMjj" Unit="" Internal="maxMjj" Type="F" Min="0.00000000e+00" Max="7.40054541e+03"/>
    <Variable VarIndex="9" Expression="minMlb" Label="minMlb" Title="minMlb" Unit="" Internal="minMlb" Type="F" Min="-2.83305756e+02" Max="1.12626514e+03"/>
    <Variable VarIndex="10" Expression="asymmetryWlep" Label="asymmetryWlep" Title="asymmetryWlep" Unit="" Internal="asymmetryWlep" Type="F" Min="-2.49922061e+00" Max="2.49885201e+00"/>
    <Variable VarIndex="11" Expression="etaZ" Label="etaZ" Title="etaZ" Unit="" Internal="etaZ" Type="F" Min="1.05171657e-05" Max="7.27044916e+00"/>
    <Variable VarIndex="12" Expression="m3l" Label="m3l" Title="m3l" Unit="" Internal="m3l" Type="F" Min="8.44455490e+01" Max="1.85878613e+03"/>
    <Variable VarIndex="13" Expression="maxDeltaRjj" Label="maxDeltaRjj" Title="maxDeltaRjj" Unit="" Internal="maxDeltaRjj" Type="F" Min="9.45032001e-01" Max="1.01510210e+01"/>
    <Variable VarIndex="14" Expression="maxDeltaPhill" Label="maxDeltaPhill" Title="maxDeltaPhill" Unit="" Internal="maxDeltaPhill" Type="F" Min="2.31745243e-02" Max="3.14158297e+00"/>
    <Variable VarIndex="15" Expression="pTMaxlb" Label="pTMaxlb" Title="pTMaxlb" Unit="" Internal="pTMaxlb" Type="F" Min="1.00685625e+01" Max="1.31542175e+03"/>
    <Variable VarIndex="16" Expression="pT3l" Label="pT3l" Title="pT3l" Unit="" Internal="pT3l" Type="F" Min="3.90917510e-01" Max="1.55557361e+03"/>
    <Variable VarIndex="17" Expression="mForwardJetsLeadinBJetW" Label="mForwardJetsLeadinBJetW" Title="mForwardJetsLeadinBJetW" Unit="" Internal="mForwardJetsLeadinBJetW" Type="F" Min="0.00000000e+00" Max="8.23442969e+03"/>
    <Variable VarIndex="18" Expression="ht" Label="ht" Title="ht" Unit="" Internal="ht" Type="F" Min="1.04569206e+02" Max="3.37663770e+03"/>
  </Variables>
  <Spectators NSpec="0"/>
  <Classes NClass="2">
    <Class Name="Signal" Index="0"/>
    <Class Name="Background" Index="1"/>
  </Classes>
  <Transformations NTransformations="1">
    <Transform Name="Normalize">
      <Selection>
        <Input NInputs="19">
          <Input Type="Variable" Label="topMass" Expression="topMass"/>
          <Input Type="Variable" Label="pTForwardJets" Expression="pTForwardJets"/>
          <Input Type="Variable" Label="etaMostForward" Expression="etaMostForward"/>
          <Input Type="Variable" Label="numberOfJets" Expression="numberOfJets"/>
          <Input Type="Variable" Label="pTLeadingLepton" Expression="pTLeadingLepton"/>
          <Input Type="Variable" Label="mNotSoForwardJets" Expression="mNotSoForwardJets"/>
          <Input Type="Variable" Label="missingET" Expression="missingET"/>
          <Input Type="Variable" Label="highestDeepCSV" Expression="highestDeepCSV"/>
          <Input Type="Variable" Label="maxMjj" Expression="maxMjj"/>
          <Input Type="Variable" Label="minMlb" Expression="minMlb"/>
          <Input Type="Variable" Label="asymmetryWlep" Expression="asymmetryWlep"/>
          <Input Type="Variable" Label="etaZ" Expression="etaZ"/>
          <Input Type="Variable" Label="m3l" Expression="m3l"/>
          <Input Type="Variable" Label="maxDeltaRjj" Expression="maxDeltaRjj"/>
          <Input Type="Variable" Label="maxDeltaPhill" Expression="maxDeltaPhill"/>
          <Input Type="Variable" Label="pTMaxlb" Expression="pTMaxlb"/>
          <Input Type="Variable" Label="pT3l" Expression="pT3l"/>
          <Input Type="Variable" Label="mForwardJetsLeadinBJetW" Expression="mForwardJetsLeadinBJetW"/>
          <Input Type="Variable" Label="ht" Expression="ht"/>
        </Input>
        <Output NOutputs="19">
          <Output Type="Variable" Label="topMass" Expression="topMass"/>
          <Output Type="Variable" Label="pTForwardJets" Expression="pTForwardJets"/>
          <Output Type="Variable" Label="etaMostForward" Expression="etaMostForward"/>
          <Output Type="Variable" Label="numberOfJets" Expression="numberOfJets"/>
          <Output Type="Variable" Label="pTLeadingLepton" Expression="pTLeadingLepton"/>
          <Output Type="Variable" Label="mNotSoForwardJets" Expression="mNotSoForwardJets"/>
          <Output Type="Variable" Label="missingET" Expression="missingET"/>
          <Output Type="Variable" Label="highestDeepCSV" Expression="highestDeepCSV"/>
          <Output Type="Variable" Label="maxMjj" Expression="maxMjj"/>
          <Output Type="Variable" Label="minMlb" Expression="minMlb"/>
          <Output Type="Variable" Label="asymmetryWlep" Expression="asymmetryWlep"/>
          <Output Type="Variable" Label="etaZ" Expression="etaZ"/>
          <Output Type="Variable" Label="m3l" Expression="m3l"/>
          <Output Type="Variable" Label="maxDeltaRjj" Expression="maxDeltaRjj"/>
          <Output Type="Variable" Label="maxDeltaPhill" Expression="maxDeltaPhill"/>
          <Output Type="Variable" Label="pTMaxlb" Expression="pTMaxlb"/>
          <Output Type="Variable" Label="pT3l" Expression="pT3l"/>
          <Output Type="Variable" Label="mForwardJetsLeadinBJetW" Expression="mForwardJetsLeadinBJetW"/>
          <Output Type="Variable" Label="ht" Expression="ht"/>
        </Output>
      </Selection>
      <Class ClassIndex="0">
        <Ranges>
          <Range Index="0" Min="0.0000000000000000e+00" Max="2.4862177734375000e+03"/>
          <Range Index="1" Min="0.0000000000000000e+00" Max="6.6867572021484375e+02"/>
          <Range Index="2" Min="1.4508743584156036e-01" Max="5.0858020782470703e+00"/>
          <Range Index="3" Min="4.0000000000000000e+00" Max="1.1000000000000000e+01"/>
          <Range Index="4" Min="2.5938333511352539e+01" Max="1.1142728271484375e+03"/>
          <Range Index="5" Min="0.0000000000000000e+00" Max="7.7912827148437500e+03"/>
          <Range Index="6" Min="8.1340646743774414e-01" Max="9.0080419921875000e+02"/>
          <Range Index="7" Min="6.3240277767181396e-01" Max="9.9999994039535522e-01"/>
          <Range Index="8" Min="0.0000000000000000e+00" Max="7.4005454101562500e+03"/>
          <Range Index="9" Min="-2.1406224060058594e+02" Max="8.4144482421875000e+02"/>
          <Range Index="10" Min="-2.4904382228851318e+00" Max="2.4988520145416260e+00"/>
          <Range Index="11" Min="1.0517165719647892e-05" Max="7.2704491615295410e+00"/>
          <Range Index="12" Min="8.7816345214843750e+01" Max="1.5169244384765625e+03"/>
          <Range Index="13" Min="1.3671876192092896e+00" Max="1.0092736244201660e+01"/>
          <Range Index="14" Min="4.4342517852783203e-02" Max="3.1414611339569092e+00"/>
          <Range Index="15" Min="2.1531803131103516e+01" Max="1.0451571044921875e+03"/>
          <Range Index="16" Min="3.9091750979423523e-01" Max="1.3887070312500000e+03"/>
          <Range Index="17" Min="0.0000000000000000e+00" Max="8.2344296875000000e+03"/>
          <Range Index="18" Min="1.1001171112060547e+02" Max="1.9970422363281250e+03"/>
        </Ranges>
      </Class>
      <Class ClassIndex="1">
        <Ranges>
          <Range Index="0" Min="0.0000000000000000e+00" Max="1.9760322265625000e+03"/>
          <Range Index="1" Min="0.0000000000000000e+00" Max="6.1163208007812500e+02"/>
          <Range Index="2" Min="1.8216502666473389e-01" Max="5.0881400108337402e+00"/>
          <Range Index="3" Min="4.0000000000000000e+00" Max="1.5000000000000000e+01"/>
          <Range Index="4" Min="2.5557649612426758e+01" Max="1.2182268066406250e+03"/>
          <Range Index="5" Min="0.0000000000000000e+00" Max="6.6336274414062500e+03"/>
          <Range Index="6" Min="5.0059270113706589e-02" Max="1.0159771118164062e+03"/>
          <Range Index="7" Min="6.3241481781005859e-01" Max="9.9999994039535522e-01"/>
          <Range Index="8" Min="0.0000000000000000e+00" Max="5.8044248046875000e+03"/>
          <Range Index="9" Min="-2.8330575561523438e+02" Max="1.1262651367187500e+03"/>
          <Range Index="10" Min="-2.4992206096649170e+00" Max="2.4968786239624023e+00"/>
          <Range Index="11" Min="4.9145925004268065e-05" Max="5.7679114341735840e+00"/>
          <Range Index="12" Min="8.4445549011230469e+01" Max="1.8587861328125000e+03"/>
          <Range Index="13" Min="9.4503200054168701e-01" Max="1.0151021003723145e+01"/>
          <Range Index="14" Min="2.3174524307250977e-02" Max="3.1415829658508301e+00"/>
          <Range Index="15" Min="1.0068562507629395e+01" Max="1.3154217529296875e+03"/>
          <Range Index="16" Min="8.6167651414871216e-01" Max="1.5555736083984375e+03"/>
          <Range Index="17" Min="0.0000000000000000e+00" Max="6.4556987304687500e+03"/>
          <Range Index="18" Min="1.0456920623779297e+02" Max="3.3766376953125000e+03"/>
        </Ranges>
      </Class>
      <Class ClassIndex="2">
        <Ranges>
          <Range Index="0" Min="0.0000000000000000e+00" Max="2.4862177734375000e+03"/>
          <Range Index="1" Min="0.0000000000000000e+00" Max="6.6867572021484375e+02"/>
          <Range Index="2" Min="1.4508743584156036e-01" Max="5.0881400108337402e+00"/>
          <Range Index="3" Min="4.0000000000000000e+00" Max="1.5000000000000000e+01"/>
          <Range Index="4" Min="2.5557649612426758e+01" Max="1.2182268066406250e+03"/>
          <Range Index="5" Min="0.0000000000000000e+00" Max="7.7912827148437500e+03"/>
          <Range Index="6" Min="5.0059270113706589e-02" Max="1.0159771118164062e+03"/>
          <Range Index="7" Min="6.3240277767181396e-01" Max="9.9999994039535522e-01"/>
          <Range Index="8" Min="0.0000000000000000e+00" Max="7.4005454101562500e+03"/>
          <Range Index="9" Min="-2.8330575561523438e+02" Max="1.1262651367187500e+03"/>
          <Range Index="10" Min="-2.4992206096649170e+00" Max="2.4988520145416260e+00"/>
          <Range Index="11" Min="1.0517165719647892e-05" Max="7.2704491615295410e+00"/>
          <Range Index="12" Min="8.4445549011230469e+01" Max="1.8587861328125000e+03"/>
          <Range Index="13" Min="9.4503200054168701e-01" Max="1.0151021003723145e+01"/>
          <Range Index="14" Min="2.3174524307250977e-02" Max="3.1415829658508301e+00"/>
          <Range Index="15" Min="1.0068562507629395e+01" Max="1.3154217529296875e+03"/>
          <Range Index="16" Min="3.9091750979423523e-01" Max="1.5555736083984375e+03"/>
          <Range Index="17" Min="0.0000000000000000e+00" Max="8.2344296875000000e+03"/>
          <Range Index="18" Min="1.0456920623779297e+02" Max="3.3766376953125000e+03"/>
        </Ranges>
      </Class>
    </Transform>
  </Transformations>
  <MVAPdfs/>
  <Weights>
    <Layout NLayers="3">
      <Layer Index="0" NNeurons="20">
        <Neuron NSynapses="24">
          -3.3301215430705533e-01 1.9531581533665479e+00 6.6514935042906864e-01 1.7002915210386262e+00 -1.9713003793849941e+00 -1.4874819887498871e+00 -8.3901501410930668e-01 1.9865649609274327e+00 -1.4489062793023781e+00 -1.1241237307576231e+00 -1.6669132731327376e+00 -4.7391783580305130e-01 -1.3623657654425601e+00 -3.2059761869912579e-01 -6.2532691872772339e-01 4.5092067469411973e-01 -4.1310912358816343e-01 1.8757452925678992e+00 3.6796531820788503e-01 1.3439900426074463e+00 -7.8404775609327945e-02 -7.5073314421645410e-01 4.3411783173875024e-01 -8.9029910021766856e-02 
        </Neuron>
        <Neuron NSynapses="24">
          -1.1867618062133110e+00 -2.7836667633347079e-01 1.5210539677457966e+00 -8.9928641362338646e-01 -1.8570513189738418e+00 1.3783388063566560e-01 5.4447368562505927e-01 1.6375630279162487e+00 -3.3220643659976656e-01 -1.8811095520820226e-01 3.0369637207151290e-01 -3.1645594161483714e-01 -1.5793129743095164e+00 1.7585046608529999e+00 -1.2212527629168040e+00 7.7339647456858918e-01 1.2033804954310332e+00 9.0137516166791509e-01 2.1194057759541467e+00 1.2108599650437335e+00 -7.1271831041572620e-01 -1.6320721024314584e+00 8.9182033184403153e-01 8.3904075999479244e-02 
        </Neuron>
        <Neuron NSynapses="24">
          1.5063682201756932e+00 1.5003786353797350e+00 1.6774564600000954e+00 1.2735993042671361e+00 -1.6812643518601396e+00 1.3183242976288818e+00 -1.7820106823949908e+00 -9.0506025121299383e-01 -1.2907239208390771e+00 -1.7289611402770328e+00 1.5298863652538306e+00 7.5014263847458762e-01 -1.5700852213884988e+00 3.5122265068957287e-01 -3.0989071206128982e-01 6.0673065031474172e-01 1.8321704354488935e+00 -4.2197719274924089e-01 1.6297334070322039e-01 -1.1497453630990002e+00 6.5962622121528958e-01 -8.3839681962112500e-01 -6.0389787109937265e-01 -1.2841712375468191e+00 
        </Neuron>
        <Neuron NSynapses="24">
          7.4467561621579226e-01 1.1102013602364897e+00 1.0906151292396413e+00 -5.0207989642592321e-01 -1.8998936162614988e+00 -1.8632033433575550e+00 8.8204137196169541e-01 4.7257099510149075e-01 1.9183065895580995e+00 5.1763582967253552e-01 9.1784317533507265e-01 -8.6997663099625500e-01 -1.0240316463483472e+00 -1.8749355949730876e-02 1.1524990715255949e+00 -1.3206677937481746e+00 -1.5873136410880944e+00 -1.5111633969906118e+00 4.2815238296438095e-02 -1.9785171803531201e-01 2.1516317767857411e+00 -1.6166154298761528e+00 -1.3745159643709952e+00 1.2651791583327636e+00 
        </Neuron>
        <Neuron NSynapses="24">
          -8.5339001696154637e-01 -1.5638365762949082e+00 -1.5777480907545045e+00 1.7088787239645825e-01 -1.8833228606661785e+00 -1.6654905877917658e+00 6.0323016219866854e-01 1.6485181848021528e+00 -1.1594268939180377e+00 1.5915433874129921e+00 -9.0000863748748461e-01 -9.0231090932182956e-01 -2.0565664931866104e-01 3.4127802792326567e-01 -1.8032717078652758e+00 -1.9861767381397746e-02 2.9726246373315846e-01 5.6422656534227578e-01 -1.1390527020450734e+00 1.8016115251067881e+00 3.3907523962432318e-01 -9.5627941641845771e-01 7.0234929278143410e-01 -1.1853642404412639e+00 
        </Neuron>
        <Neuron NSynapses="24">
          -1.5936627504110272e+00 1.0798080191348911e-01 -2.9225245398587407e-01 2.0011894088026141e+00 8.1044243309988817e-01 -2.7777640389589697e-02 -4.7211349372591205e-01 1.4484620327140599e-01 -1.7707481348189695e+00 1.0698447179347164e+00 3.3597427323206425e-01 -1.8110625419920785e+00 4.8318034146252947e-01 -1.4234097658074805e+00 4.7716109047674746e-02 8.3604081726753798e-01 1.7773291472619626e+00 -1.8900694222838776e+00 5.8608652847087073e-01 1.5586034661007038e+00 1.2786368385195708e+00 1.6289974600046714e-01 -1.1517375386075008e+00 -1.1865326785243595e-01 
        </Neuron>
        <Neuron NSynapses="24">
          -1.4482812406238210e+00 1.5210782693252527e+00 1.1216263003349289e+00 -3.7454090332655271e-01 -3.6846256158347662e-01 1.5390926834380925e-01 -1.4161745654011291e+00 5.9954318570218512e-01 1.6874350771101394e+00 -5.8025563545370240e-01 -5.0765795849477380e-01 2.0634498983917843e-01 8.1742635189139301e-01 5.9243041502018390e-01 8.8999809066192193e-01 -1.7896347058644075e+00 1.5305574045405783e+00 8.3801298048747375e-01 7.3464967723587926e-01 5.8182260046910972e-01 9.0780862412775742e-01 -5.8802480542053048e-01 -5.6929507572930538e-01 9.9688968176431125e-01 
        </Neuron>
        <Neuron NSynapses="24">
          -9.1312934425566750e-01 -5.4405904837318253e-01 1.6202536166240282e+00 9.0472592351380865e-01 -3.3607374758502728e-01 1.5252834538545872e+00 1.8827166516879974e+00 -1.9543959124720400e+00 7.6705553199662568e-01 -4.9320811792567781e-02 2.0922674107736591e-01 -1.6020870723335898e+00 -1.3248474156357273e+00 1.0945013956084193e+00 1.8128510692659188e+00 -1.4290784964340968e+00 -2.0011232296847226e-01 -5.6014179717517654e-01 1.1249860766363211e-01 1.7953676586248835e+00 7.0167387117542168e-02 -4.7806149171150747e-01 -1.0204293393797539e+00 9.9180946506483914e-01 
        </Neuron>
        <Neuron NSynapses="24">
          1.6094943580219832e+00 1.0550970294081301e+00 2.7981298337686272e-01 -6.4814300169384487e-01 -1.9549907766110171e+00 1.0909960662621305e+00 3.5619675378912108e-01 -1.4024207375815843e+00 -6.7560546148868728e-01 3.1281634510372719e-01 2.5394998488580067e-01 -1.9791502711435258e+00 1.3593633954533342e+00 8.5815783516032651e-01 -5.8291054926567543e-01 -4.5052468881612678e-01 1.6339307297119143e+00 1.0683719855257814e+00 7.4818775762478218e-01 -1.1447516764662874e-01 -2.1397768264535411e+00 -9.2413848064504611e-01 1.9294319425067950e+00 1.3688474367516010e+00 
        </Neuron>
        <Neuron NSynapses="24">
          7.5858867863360702e-01 1.7597236658345444e-01 1.9331262281478090e+00 -1.6627429601994765e+00 -1.2884235954236782e+00 -1.1023601531658220e-01 -1.4876938811684834e+00 9.7046428686790265e-01 1.7221301979844152e+00 -1.2497126613584963e+00 8.3626771788779186e-01 -2.0179390845057177e-01 -1.8095730486963386e+00 -1.0399973288695787e+00 1.0110746806178192e+00 -1.0001086500291979e-01 1.0156868010952373e+00 -1.1226705989435790e+00 1.8120059213179964e+00 -1.8176211886107150e+00 7.9439621289669582e-01 7.4215456313305048e-02 -1.4729603398565330e+00 -1.3410180482850000e+00 
        </Neuron>
        <Neuron NSynapses="24">
          -1.9154217191461422e+00 -3.8180472362189510e-01 -1.8089453495262890e+00 -1.6394306488841528e+00 -1.9016343176927746e+00 3.9082110746034751e-02 -1.0296045181336042e+00 -1.5897437039103059e+00 1.4682296063140787e+00 -8.5783990791999587e-01 2.5902824113256084e-01 -1.0730897780593756e+00 2.1267379849385123e-01 1.8715379643447545e+00 1.3718145441834686e+00 -8.6944457519646956e-01 -1.5028136316740925e+00 -1.0881163874551438e+00 -8.2577018733284380e-01 -1.6057826011889642e+00 1.0845814746621682e-01 2.8122728937972352e-01 1.6474903010914803e+00 -2.7782083775823668e-01 
        </Neuron>
        <Neuron NSynapses="24">
          2.3968963960832496e-01 -5.5454580845724977e-01 -1.8976898371425617e+00 1.4360081311503772e+00 1.2444404636880031e+00 -8.4084825711982092e-01 -1.1538536452821389e+00 8.5646945519830564e-01 1.2204385255578354e+00 4.3292620008627331e-01 -4.1164327921727939e-01 -3.8873691966440921e-01 1.2501711327498393e+00 9.2118559946579670e-01 9.6612102293492896e-01 -6.0505938246428415e-01 2.2560178547596310e-01 -2.3264491802401557e-01 -1.1613242897557208e+00 -5.7868400562647426e-01 -1.4557841626912180e+00 -1.3887384103090925e+00 -1.3444359281288925e+00 1.7509916782789630e+00 
        </Neuron>
        <Neuron NSynapses="24">
          -1.8194149460712616e+00 1.6331292427970772e+00 -1.6793248315447409e+00 1.1761388418506868e+00 -1.0701880774696952e+00 4.6546983889157661e-01 7.2591128649019432e-01 -1.8781080919051938e+00 2.3766395414039074e-01 5.5710732397693830e-01 -1.9044685399820314e+00 -1.5533449719009056e+00 -1.8359726888146140e+00 -7.7354929206464940e-01 1.8577797602609660e+00 -8.7082033918422508e-01 2.7206144038821001e-01 -7.8495470265231315e-01 -8.6960649193685469e-01 -1.7349188836876615e+00 -8.3742474801499633e-01 -1.3930600867436655e+00 8.3316152083588513e-01 -1.4783015514543270e+00 
        </Neuron>
        <Neuron NSynapses="24">
          -1.2181246809428559e+00 1.7849422175586480e+00 3.8482541558558225e-01 -5.0829919251938260e-01 1.8743712612689505e+00 -1.7999930935701718e+00 1.3540131958255581e+00 9.5252655847700529e-01 -1.0029300372307148e+00 -7.8546361546944143e-01 3.8572137706019541e-02 -1.1266335933929108e+00 4.3556226644890250e-01 1.9152551632429053e+00 1.3196794594108872e+00 1.4029233598914206e+00 -1.3725860714021736e+00 9.9727073406009870e-01 -1.7980160553572948e+00 6.4488649920970964e-01 -1.6924254073263514e+00 -1.8403044288001826e+00 4.0853750855073721e-02 1.3578686114437339e+00 
        </Neuron>
        <Neuron NSynapses="24">
          4.3087363212942920e-01 1.0714124297850411e+00 3.9065691190414081e-01 -1.1359771840640182e-01 -7.6082786115986545e-01 1.2738683317677485e-01 1.9073065083488259e+00 -1.5799110089532791e+00 4.0742125190601958e-01 -1.3915261190554340e+00 -4.8567840589560873e-01 7.2419351625691825e-02 2.5128467536969284e-01 -1.1643149495377012e+00 9.8420703869093518e-01 1.5950533498818908e+00 6.7687571391612933e-01 -2.0451495333066724e-01 -8.1384769085267961e-01 -1.4594640220766482e+00 -9.7748461767631800e-01 1.0543237353625736e+00 -3.6203391238911498e-01 -1.0643656099153647e+00 
        </Neuron>
        <Neuron NSynapses="24">
          5.1554523973305355e-01 -1.7400717353046564e+00 -1.2344416028720331e+00 -1.4993049448427618e+00 1.0499402002115947e+00 -1.3514711013871632e+00 -1.8298030908804834e+00 -5.8727658877947930e-01 -9.5806977112741887e-01 -1.6535937496652349e+00 1.2830744526642703e+00 -1.5153411740683163e+00 -1.3875660095427524e+00 1.7178237203212492e+00 5.3902366825250125e-01 3.0714152426002436e-02 9.9090526006579902e-02 1.4361954209030412e+00 1.9343916323747319e+00 4.7410102303223428e-01 -1.0132843624057717e+00 -7.0194469513620161e-01 -1.6878810106389013e+00 8.6670668803475681e-01 
        </Neuron>
        <Neuron NSynapses="24">
          9.3590396876894077e-01 4.2683382370837415e-02 9.7829503594484080e-01 9.9490299111573532e-01 1.6740753009862892e+00 -1.3383704384808890e+00 1.6366231004753087e+00 7.3449461531455040e-01 -1.9670719536501484e+00 -3.4385329401871095e-01 -1.0334362307583898e+00 8.1758775822383667e-01 3.0177235700871596e-01 1.0436533399914740e+00 1.7799884063827869e+00 -6.5363366998847083e-01 1.8014959225731380e+00 1.8058558507660758e+00 4.5198187439164200e-01 -1.2112368411197374e+00 1.5905378371141183e+00 -1.9668858387479613e+00 4.4761085169394488e-01 1.5827690347709586e+00 
        </Neuron>
        <Neuron NSynapses="24">
          -4.4214017245044296e-01 -8.3730883068597817e-01 -1.3696325687352512e-01 -1.2776912914312233e+00 4.4335057745043011e-01 -1.9035320841575938e+00 1.0728340255836719e-01 -2.0781338386491163e-01 1.6809319168111552e+00 1.2056424111311295e+00 1.7172791187910843e+00 -5.1553313658255162e-01 -5.6403790996454761e-01 5.1064425358904963e-01 1.8461920091773809e+00 -2.1769814468265807e+00 -1.3044005702813302e+00 -5.1859395075274384e-01 -1.2275610113192648e+00 -1.6897176472933371e+00 -1.3178502983236264e+00 7.6915906001881817e-01 -3.0287783348875854e-02 -2.0103676785528237e+00 
        </Neuron>
        <Neuron NSynapses="24">
          -1.9162194385534610e+00 -2.0110869301108592e-01 1.6173040551667499e+00 1.8619977845329314e+00 1.3448983995792765e+00 -6.6332353821484635e-01 -2.0273469363404444e+00 -1.2201867965766934e-01 -1.3219974754228192e+00 -1.6437168817843848e+00 -6.5733081389488490e-01 -6.3894294662249371e-02 -1.6333614292297103e+00 1.6266871256421673e+00 1.2236427688940446e+00 -1.1119551825386061e-01 -6.2043087604992619e-01 -7.6622947398873564e-01 1.9636862501184087e+00 -6.1318116330978489e-01 4.1947296033384490e-01 1.5845300216592779e+00 1.3899683240271485e+00 -1.1852658712041266e+00 
        </Neuron>
        <Neuron NSynapses="24">
          1.3857875166296147e+00 -1.8498873541228795e+00 1.7128050324313933e+00 1.7050441298764314e+00 -2.1193864816224348e-01 -2.8025378750624369e-01 3.4177852030735856e-01 -5.9439671491646973e-01 1.2028174089891814e+00 3.3601812532027753e-01 -9.6535666039832591e-01 -1.3757172857738980e+00 2.1559359106661533e-01 1.7767008143518792e+00 4.1427809899558860e-01 -3.5925015921490144e-01 -1.9384216645872543e+00 1.7271750181545102e+00 1.9741164626877576e-02 -1.1112108530350850e+00 -1.7200500632771540e-01 -1.0015404392630580e+00 1.1709660057799851e+00 1.4910469857858344e+00 
        </Neuron>
      </Layer>
      <Layer Index="1" NNeurons="25">
        <Neuron NSynapses="1">
          -8.4413559210741596e-01 
        </Neuron>
        <Neuron NSynapses="1">
          -9.8293966043154002e-01 
        </Neuron>
        <Neuron NSynapses="1">
          6.4111107445522031e-01 
        </Neuron>
        <Neuron NSynapses="1">
          7.6129574309362935e-01 
        </Neuron>
        <Neuron NSynapses="1">
          3.2619361312619416e-01 
        </Neuron>
        <Neuron NSynapses="1">
          6.3432559656268317e-02 
        </Neuron>
        <Neuron NSynapses="1">
          -1.1081557685357275e+00 
        </Neuron>
        <Neuron NSynapses="1">
          -1.1205409226211609e+00 
        </Neuron>
        <Neuron NSynapses="1">
          9.9773059977533851e-01 
        </Neuron>
        <Neuron NSynapses="1">
          1.9128270114670415e-01 
        </Neuron>
        <Neuron NSynapses="1">
          9.0184820016099276e-01 
        </Neuron>
        <Neuron NSynapses="1">
          -1.8496922224745207e+00 
        </Neuron>
        <Neuron NSynapses="1">
          -1.7790337495571427e+00 
        </Neuron>
        <Neuron NSynapses="1">
          -1.7503507877155757e+00 
        </Neuron>
        <Neuron NSynapses="1">
          -2.4966037733799482e-01 
        </Neuron>
        <Neuron NSynapses="1">
          -1.4720721696900982e+00 
        </Neuron>
        <Neuron NSynapses="1">
          8.2803678834179506e-01 
        </Neuron>
        <Neuron NSynapses="1">
          -2.9589209188943028e-01 
        </Neuron>
        <Neuron NSynapses="1">
          1.5319642061962453e+00 
        </Neuron>
        <Neuron NSynapses="1">
          3.0697899673564982e-01 
        </Neuron>
        <Neuron NSynapses="1">
          -2.0440342857078120e+00 
        </Neuron>
        <Neuron NSynapses="1">
          1.3547239802128093e+00 
        </Neuron>
        <Neuron NSynapses="1">
          1.4644939251268672e+00 
        </Neuron>
        <Neuron NSynapses="1">
          6.4550700736555289e-01 
        </Neuron>
        <Neuron NSynapses="1">
          -6.0714242851713951e-01 
        </Neuron>
      </Layer>
      <Layer Index="2" NNeurons="1">
        <Neuron NSynapses="0"/>
      </Layer>
    </Layout>
  </Weights>
</MethodSetup>
