<?xml version="1.0"?>
<MethodSetup Method="DNN::DNN">
  <GeneralInfo>
    <Info name="TMVA Release" value="4.2.1 [262657]"/>
    <Info name="ROOT Release" value="6.08/07 [395271]"/>
    <Info name="Creator" value="wverbeke"/>
    <Info name="Date" value="Tue Dec  5 04:52:28 2017"/>
    <Info name="Host" value="Linux vocms0302.cern.ch 2.6.32-696.1.1.el6.x86_64 #1 SMP Wed Apr 12 08:44:28 CEST 2017 x86_64 x86_64 x86_64 GNU/Linux"/>
    <Info name="Dir" value="/storage_mnt/storage/user/wverbeke/Work/AnalysisCode/ewkino/bdtTraining/bdtTrainingsubmit"/>
    <Info name="Training events" value="63436"/>
    <Info name="TrainingTime" value="2.07967806e+03"/>
    <Info name="AnalysisType" value="Classification"/>
  </GeneralInfo>
  <Options>
    <Option name="V" modified="Yes">True</Option>
    <Option name="VerbosityLevel" modified="No">Verbose</Option>
    <Option name="VarTransform" modified="Yes">N</Option>
    <Option name="H" modified="Yes">False</Option>
    <Option name="CreateMVAPdfs" modified="No">False</Option>
    <Option name="IgnoreNegWeightsInTraining" modified="No">False</Option>
    <Option name="Layout" modified="Yes">TANH|128,TANH|128,TANH|128,LINEAR</Option>
    <Option name="ErrorStrategy" modified="Yes">CROSSENTROPY</Option>
    <Option name="WeightInitialization" modified="Yes">XAVIERUNIFORM</Option>
    <Option name="Architecture" modified="Yes">STANDARD</Option>
    <Option name="TrainingStrategy" modified="Yes">LearningRate=1e-1,Momentum=0.9,Repetitions=1,ConvergenceSteps=20,BatchSize=256,TestRepetitions=10,WeightDecay=1e-4,Regularization=L2,DropConfig=0.0+0.5+0.5+0.5,</Option>
  </Options>
  <Variables NVar="21">
    <Variable VarIndex="0" Expression="topMass" Label="topMass" Title="topMass" Unit="" Internal="topMass" Type="F" Min="0.00000000e+00" Max="4.21410254e+03"/>
    <Variable VarIndex="1" Expression="pTForwardJets" Label="pTForwardJets" Title="pTForwardJets" Unit="" Internal="pTForwardJets" Type="F" Min="0.00000000e+00" Max="4.82612061e+02"/>
    <Variable VarIndex="2" Expression="etaMostForward" Label="etaMostForward" Title="etaMostForward" Unit="" Internal="etaMostForward" Type="F" Min="7.56851258e-03" Max="5.08890200e+00"/>
    <Variable VarIndex="3" Expression="pTLeadingJet" Label="pTLeadingJet" Title="pTLeadingJet" Unit="" Internal="pTLeadingJet" Type="F" Min="2.52170486e+01" Max="1.42227527e+03"/>
    <Variable VarIndex="4" Expression="pTLeadingLepton" Label="pTLeadingLepton" Title="pTLeadingLepton" Unit="" Internal="pTLeadingLepton" Type="F" Min="2.51583538e+01" Max="1.01983197e+03"/>
    <Variable VarIndex="5" Expression="mNotSoForwardJets" Label="mNotSoForwardJets" Title="mNotSoForwardJets" Unit="" Internal="mNotSoForwardJets" Type="F" Min="0.00000000e+00" Max="6.36979736e+03"/>
    <Variable VarIndex="6" Expression="pTLeadingBJet" Label="pTLeadingBJet" Title="pTLeadingBJet" Unit="" Internal="pTLeadingBJet" Type="F" Min="2.50003223e+01" Max="1.11264612e+03"/>
    <Variable VarIndex="7" Expression="missingET" Label="missingET" Title="missingET" Unit="" Internal="missingET" Type="F" Min="3.97838175e-01" Max="9.45961731e+02"/>
    <Variable VarIndex="8" Expression="highestDeepCSV" Label="highestDeepCSV" Title="highestDeepCSV" Unit="" Internal="highestDeepCSV" Type="F" Min="6.32402778e-01" Max="9.99999940e-01"/>
    <Variable VarIndex="9" Expression="maxMjj" Label="maxMjj" Title="maxMjj" Unit="" Internal="maxMjj" Type="F" Min="0.00000000e+00" Max="5.98954150e+03"/>
    <Variable VarIndex="10" Expression="minMlb" Label="minMlb" Title="minMlb" Unit="" Internal="minMlb" Type="F" Min="-3.37236053e+02" Max="8.32854004e+02"/>
    <Variable VarIndex="11" Expression="asymmetryWlep" Label="asymmetryWlep" Title="asymmetryWlep" Unit="" Internal="asymmetryWlep" Type="F" Min="-2.49844050e+00" Max="2.48868632e+00"/>
    <Variable VarIndex="12" Expression="etaZ" Label="etaZ" Title="etaZ" Unit="" Internal="etaZ" Type="F" Min="3.07097143e-05" Max="7.13334560e+00"/>
    <Variable VarIndex="13" Expression="m3l" Label="m3l" Title="m3l" Unit="" Internal="m3l" Type="F" Min="8.39448166e+01" Max="1.72820544e+03"/>
    <Variable VarIndex="14" Expression="maxDeltaPhijj" Label="maxDeltaPhijj" Title="maxDeltaPhijj" Unit="" Internal="maxDeltaPhijj" Type="F" Min="1.29222870e-04" Max="3.14157581e+00"/>
    <Variable VarIndex="15" Expression="maxDeltaRjj" Label="maxDeltaRjj" Title="maxDeltaRjj" Unit="" Internal="maxDeltaRjj" Type="F" Min="3.97812366e-01" Max="9.60661888e+00"/>
    <Variable VarIndex="16" Expression="maxDeltaPhill" Label="maxDeltaPhill" Title="maxDeltaPhill" Unit="" Internal="maxDeltaPhill" Type="F" Min="4.39798236e-02" Max="3.14158845e+00"/>
    <Variable VarIndex="17" Expression="pTMaxlb" Label="pTMaxlb" Title="pTMaxlb" Unit="" Internal="pTMaxlb" Type="F" Min="1.60231552e+01" Max="1.12210510e+03"/>
    <Variable VarIndex="18" Expression="pT3l" Label="pT3l" Title="pT3l" Unit="" Internal="pT3l" Type="F" Min="3.44374746e-01" Max="1.16284033e+03"/>
    <Variable VarIndex="19" Expression="mForwardJetsLeadinBJetW" Label="mForwardJetsLeadinBJetW" Title="mForwardJetsLeadinBJetW" Unit="" Internal="mForwardJetsLeadinBJetW" Type="F" Min="0.00000000e+00" Max="6.53622510e+03"/>
    <Variable VarIndex="20" Expression="ht" Label="ht" Title="ht" Unit="" Internal="ht" Type="F" Min="5.02485886e+01" Max="2.00485938e+03"/>
  </Variables>
  <Spectators NSpec="0"/>
  <Classes NClass="2">
    <Class Name="Signal" Index="0"/>
    <Class Name="Background" Index="1"/>
  </Classes>
  <Transformations NTransformations="1">
    <Transform Name="Normalize">
      <Selection>
        <Input NInputs="21">
          <Input Type="Variable" Label="topMass" Expression="topMass"/>
          <Input Type="Variable" Label="pTForwardJets" Expression="pTForwardJets"/>
          <Input Type="Variable" Label="etaMostForward" Expression="etaMostForward"/>
          <Input Type="Variable" Label="pTLeadingJet" Expression="pTLeadingJet"/>
          <Input Type="Variable" Label="pTLeadingLepton" Expression="pTLeadingLepton"/>
          <Input Type="Variable" Label="mNotSoForwardJets" Expression="mNotSoForwardJets"/>
          <Input Type="Variable" Label="pTLeadingBJet" Expression="pTLeadingBJet"/>
          <Input Type="Variable" Label="missingET" Expression="missingET"/>
          <Input Type="Variable" Label="highestDeepCSV" Expression="highestDeepCSV"/>
          <Input Type="Variable" Label="maxMjj" Expression="maxMjj"/>
          <Input Type="Variable" Label="minMlb" Expression="minMlb"/>
          <Input Type="Variable" Label="asymmetryWlep" Expression="asymmetryWlep"/>
          <Input Type="Variable" Label="etaZ" Expression="etaZ"/>
          <Input Type="Variable" Label="m3l" Expression="m3l"/>
          <Input Type="Variable" Label="maxDeltaPhijj" Expression="maxDeltaPhijj"/>
          <Input Type="Variable" Label="maxDeltaRjj" Expression="maxDeltaRjj"/>
          <Input Type="Variable" Label="maxDeltaPhill" Expression="maxDeltaPhill"/>
          <Input Type="Variable" Label="pTMaxlb" Expression="pTMaxlb"/>
          <Input Type="Variable" Label="pT3l" Expression="pT3l"/>
          <Input Type="Variable" Label="mForwardJetsLeadinBJetW" Expression="mForwardJetsLeadinBJetW"/>
          <Input Type="Variable" Label="ht" Expression="ht"/>
        </Input>
        <Output NOutputs="21">
          <Output Type="Variable" Label="topMass" Expression="topMass"/>
          <Output Type="Variable" Label="pTForwardJets" Expression="pTForwardJets"/>
          <Output Type="Variable" Label="etaMostForward" Expression="etaMostForward"/>
          <Output Type="Variable" Label="pTLeadingJet" Expression="pTLeadingJet"/>
          <Output Type="Variable" Label="pTLeadingLepton" Expression="pTLeadingLepton"/>
          <Output Type="Variable" Label="mNotSoForwardJets" Expression="mNotSoForwardJets"/>
          <Output Type="Variable" Label="pTLeadingBJet" Expression="pTLeadingBJet"/>
          <Output Type="Variable" Label="missingET" Expression="missingET"/>
          <Output Type="Variable" Label="highestDeepCSV" Expression="highestDeepCSV"/>
          <Output Type="Variable" Label="maxMjj" Expression="maxMjj"/>
          <Output Type="Variable" Label="minMlb" Expression="minMlb"/>
          <Output Type="Variable" Label="asymmetryWlep" Expression="asymmetryWlep"/>
          <Output Type="Variable" Label="etaZ" Expression="etaZ"/>
          <Output Type="Variable" Label="m3l" Expression="m3l"/>
          <Output Type="Variable" Label="maxDeltaPhijj" Expression="maxDeltaPhijj"/>
          <Output Type="Variable" Label="maxDeltaRjj" Expression="maxDeltaRjj"/>
          <Output Type="Variable" Label="maxDeltaPhill" Expression="maxDeltaPhill"/>
          <Output Type="Variable" Label="pTMaxlb" Expression="pTMaxlb"/>
          <Output Type="Variable" Label="pT3l" Expression="pT3l"/>
          <Output Type="Variable" Label="mForwardJetsLeadinBJetW" Expression="mForwardJetsLeadinBJetW"/>
          <Output Type="Variable" Label="ht" Expression="ht"/>
        </Output>
      </Selection>
      <Class ClassIndex="0">
        <Ranges>
          <Range Index="0" Min="0.0000000000000000e+00" Max="1.6141367187500000e+03"/>
          <Range Index="1" Min="0.0000000000000000e+00" Max="4.8261206054687500e+02"/>
          <Range Index="2" Min="3.6413535475730896e-02" Max="5.0889019966125488e+00"/>
          <Range Index="3" Min="2.5667066574096680e+01" Max="1.4222752685546875e+03"/>
          <Range Index="4" Min="2.6422729492187500e+01" Max="9.3791693115234375e+02"/>
          <Range Index="5" Min="0.0000000000000000e+00" Max="6.3697973632812500e+03"/>
          <Range Index="6" Min="2.5002065658569336e+01" Max="1.0695916748046875e+03"/>
          <Range Index="7" Min="3.9783817529678345e-01" Max="6.2243109130859375e+02"/>
          <Range Index="8" Min="6.3241547346115112e-01" Max="9.9999994039535522e-01"/>
          <Range Index="9" Min="0.0000000000000000e+00" Max="5.9895415039062500e+03"/>
          <Range Index="10" Min="-2.7167977905273438e+02" Max="7.0304370117187500e+02"/>
          <Range Index="11" Min="-2.4984405040740967e+00" Max="2.4851803779602051e+00"/>
          <Range Index="12" Min="1.2286624405533075e-04" Max="7.1333456039428711e+00"/>
          <Range Index="13" Min="8.5405464172363281e+01" Max="1.3413367919921875e+03"/>
          <Range Index="14" Min="3.2353401184082031e-04" Max="3.1415758132934570e+00"/>
          <Range Index="15" Min="4.1016122698783875e-01" Max="9.6066188812255859e+00"/>
          <Range Index="16" Min="4.3979823589324951e-02" Max="3.1415884494781494e+00"/>
          <Range Index="17" Min="2.1575326919555664e+01" Max="1.1140953369140625e+03"/>
          <Range Index="18" Min="3.4437474608421326e-01" Max="1.0453444824218750e+03"/>
          <Range Index="19" Min="0.0000000000000000e+00" Max="6.5362250976562500e+03"/>
          <Range Index="20" Min="5.1278156280517578e+01" Max="2.0048593750000000e+03"/>
        </Ranges>
      </Class>
      <Class ClassIndex="1">
        <Ranges>
          <Range Index="0" Min="0.0000000000000000e+00" Max="4.2141025390625000e+03"/>
          <Range Index="1" Min="0.0000000000000000e+00" Max="4.5623275756835938e+02"/>
          <Range Index="2" Min="7.5685125775635242e-03" Max="5.0855135917663574e+00"/>
          <Range Index="3" Min="2.5217048645019531e+01" Max="1.2619134521484375e+03"/>
          <Range Index="4" Min="2.5158353805541992e+01" Max="1.0198319702148438e+03"/>
          <Range Index="5" Min="0.0000000000000000e+00" Max="3.4210244140625000e+03"/>
          <Range Index="6" Min="2.5000322341918945e+01" Max="1.1126461181640625e+03"/>
          <Range Index="7" Min="4.7556459903717041e-01" Max="9.4596173095703125e+02"/>
          <Range Index="8" Min="6.3240277767181396e-01" Max="9.9999994039535522e-01"/>
          <Range Index="9" Min="0.0000000000000000e+00" Max="3.1136745605468750e+03"/>
          <Range Index="10" Min="-3.3723605346679688e+02" Max="8.3285400390625000e+02"/>
          <Range Index="11" Min="-2.4951372146606445e+00" Max="2.4886863231658936e+00"/>
          <Range Index="12" Min="3.0709714337717742e-05" Max="6.4695830345153809e+00"/>
          <Range Index="13" Min="8.3944816589355469e+01" Max="1.7282054443359375e+03"/>
          <Range Index="14" Min="1.2922286987304688e-04" Max="3.1415517330169678e+00"/>
          <Range Index="15" Min="3.9781236648559570e-01" Max="9.1172161102294922e+00"/>
          <Range Index="16" Min="6.5524339675903320e-02" Max="3.1414833068847656e+00"/>
          <Range Index="17" Min="1.6023155212402344e+01" Max="1.1221051025390625e+03"/>
          <Range Index="18" Min="9.0931731462478638e-01" Max="1.1628403320312500e+03"/>
          <Range Index="19" Min="0.0000000000000000e+00" Max="4.2141025390625000e+03"/>
          <Range Index="20" Min="5.0248588562011719e+01" Max="1.7127659912109375e+03"/>
        </Ranges>
      </Class>
      <Class ClassIndex="2">
        <Ranges>
          <Range Index="0" Min="0.0000000000000000e+00" Max="4.2141025390625000e+03"/>
          <Range Index="1" Min="0.0000000000000000e+00" Max="4.8261206054687500e+02"/>
          <Range Index="2" Min="7.5685125775635242e-03" Max="5.0889019966125488e+00"/>
          <Range Index="3" Min="2.5217048645019531e+01" Max="1.4222752685546875e+03"/>
          <Range Index="4" Min="2.5158353805541992e+01" Max="1.0198319702148438e+03"/>
          <Range Index="5" Min="0.0000000000000000e+00" Max="6.3697973632812500e+03"/>
          <Range Index="6" Min="2.5000322341918945e+01" Max="1.1126461181640625e+03"/>
          <Range Index="7" Min="3.9783817529678345e-01" Max="9.4596173095703125e+02"/>
          <Range Index="8" Min="6.3240277767181396e-01" Max="9.9999994039535522e-01"/>
          <Range Index="9" Min="0.0000000000000000e+00" Max="5.9895415039062500e+03"/>
          <Range Index="10" Min="-3.3723605346679688e+02" Max="8.3285400390625000e+02"/>
          <Range Index="11" Min="-2.4984405040740967e+00" Max="2.4886863231658936e+00"/>
          <Range Index="12" Min="3.0709714337717742e-05" Max="7.1333456039428711e+00"/>
          <Range Index="13" Min="8.3944816589355469e+01" Max="1.7282054443359375e+03"/>
          <Range Index="14" Min="1.2922286987304688e-04" Max="3.1415758132934570e+00"/>
          <Range Index="15" Min="3.9781236648559570e-01" Max="9.6066188812255859e+00"/>
          <Range Index="16" Min="4.3979823589324951e-02" Max="3.1415884494781494e+00"/>
          <Range Index="17" Min="1.6023155212402344e+01" Max="1.1221051025390625e+03"/>
          <Range Index="18" Min="3.4437474608421326e-01" Max="1.1628403320312500e+03"/>
          <Range Index="19" Min="0.0000000000000000e+00" Max="6.5362250976562500e+03"/>
          <Range Index="20" Min="5.0248588562011719e+01" Max="2.0048593750000000e+03"/>
        </Ranges>
      </Class>
    </Transform>
  </Transformations>
  <MVAPdfs/>
  <Weights InputWidth="21" Depth="4" LossFunction="C" OutputFunction="S">
    <Layer ActivationFunction="3">
      <Weights rows="128" cols="21">
        -2.2023553702132026e-01 1.0625856523327024e-01 7.3123658403501116e-02 -1.0229887043811499e-01 9.8761077204794101e-02 -2.8369778836592430e-01 3.0544156407934960e-02 3.8019378335860450e-02 -2.8219350955201555e-01 2.7735126417477751e-01 2.1937589480695303e-02 2.8218313772128067e-01 3.0598468440890501e-02 6.6680625603116481e-02 2.6037119305572437e-01 -2.3690834434412630e-01 -1.2604742810404443e-01 6.9021304892812704e-02 -1.0981213335934221e-02 -2.6433331216593275e-01 2.7969772049080172e-01 -1.8674638877483895e-02 1.9495534231778083e-01 -2.9172866319867291e-01 4.3209408945999457e-02 -2.6078335054801155e-01 -1.8867410072701876e-01 2.1456379194209824e-01 1.0273310997583608e-01 -2.0456933915426484e-01 -2.4710420935022989e-01 -1.1427044093133747e-01 -2.2411543232193384e-01 -5.7809276182522532e-02 2.8717751922949158e-01 -2.8026721769321161e-01 1.5472178371369386e-01 2.3449470006936637e-01 1.9913413718627235e-01 1.9862187998252703e-01 -2.7638435651015286e-01 -2.7703274365204872e-01 -1.8074239782452564e-01 2.1923812377711585e-01 1.3225553587973954e-01 -1.7268375212826192e-01 -1.3890017855759285e-01 -1.2461039762144388e-01 3.3101600860792516e-02 9.2348083088154384e-02 2.7957407533648754e-01 -2.2155897028368066e-01 -8.4927069213484738e-02 -2.2116948656871846e-01 4.0023796339565603e-03 2.2903088686173018e-01 1.9890879534218392e-02 1.9017580074435878e-01 1.1006495087519330e-01 -1.8054640955422585e-01 2.7644009654247537e-01 -8.2287908606135871e-02 1.9938840597515042e-01 1.0917665316318727e-01 -2.5110659171989402e-01 -2.6669187651114684e-01 2.8617690931130407e-01 -1.9442132429187697e-01 -5.4047446757180227e-02 2.4303347289165700e-01 -1.3199015039167381e-01 1.9587827500282692e-01 1.7810172491875587e-01 2.7792013354749417e-01 2.3666849695977171e-01 -1.2266867215849990e-01 1.5811424743775573e-01 6.0809748202389678e-02 1.4247145378780371e-02 -9.2605335022029833e-02 1.0511907922399474e-01 -1.9301088017168705e-02 2.8796801195943683e-01 5.8059560159426746e-02 2.6351555451254771e-01 7.3086990203271723e-02 9.9562320404240640e-03 -6.2614818359730132e-03 2.4031106285638659e-01 1.3112437229477905e-01 1.5657571102144435e-01 -2.9888917253828279e-01 -1.0639063761718347e-01 -7.6086980939629623e-02 9.6983074657829862e-02 6.4322153438179888e-02 2.1731789749718777e-01 -1.6807620297723402e-01 -2.3821467009712605e-02 8.0677058671269800e-02 2.8938288176975881e-02 -8.0802796687258552e-02 -2.6584774154365548e-01 7.3737499925292993e-02 2.1021953040154087e-01 1.2428549282782744e-02 -1.7217136167090516e-01 -2.6205838175851570e-01 1.8454708816111576e-01 5.7492368749148225e-02 8.0810475427906966e-02 3.0119076777879084e-01 -2.6511685016863495e-01 2.0183803200519526e-01 -2.1653646178910357e-01 5.0712913524675926e-02 -2.7818090598260681e-01 -9.9683683564537245e-02 -4.9472269219781199e-02 3.5039486274850977e-02 4.4794273842867091e-02 -2.0218556289359441e-01 -2.3438686373446019e-01 -2.9986118611964058e-01 8.3032901876401680e-02 -4.1982907140390270e-03 -2.7295970219048982e-01 -7.0622746642649267e-02 2.8798872668043235e-01 -2.0320635855054897e-01 1.2034474646550139e-01 -3.0270683925326369e-01 -6.9745434697958797e-02 -1.6858477422363385e-01 -4.1239677528904443e-02 -2.4598061908961119e-01 1.3989045911559512e-02 -1.6105011527488763e-01 2.2029038475273685e-01 -2.3450979872972960e-01 1.6234623460969633e-01 -3.0469934801926613e-01 1.6032865556704792e-01 -2.4824697706718199e-01 4.6957602093591039e-02 2.9043628464844046e-01 2.5488857606975029e-01 1.9923678551484875e-02 2.6775715706630826e-01 -1.0246374834843848e-01 -2.1201739667230668e-01 4.3053442560787844e-02 -9.3471008875033151e-02 1.4865097958660614e-01 -1.4801380750579418e-01 -2.6689409523345575e-01 -2.3019501207533516e-01 -7.6524179080980054e-02 -2.0112181572544241e-01 -2.3542902217785255e-01 -3.5398640246283940e-02 -3.1277991342015254e-02 6.6133589562854367e-02 -9.0024198902718400e-02 1.2329182719199173e-01 1.2086617483761256e-01 -1.6358819461253435e-01 -8.5158734162710234e-02 -3.0343697269935438e-01 -1.3176799700888264e-01 1.4546491087826188e-01 -7.0499325810257349e-02 -4.3566808079783748e-02 -2.0172709970421210e-03 1.5838975882830333e-01 1.4195443416374243e-01 8.9877314842266048e-02 1.3392971996628922e-01 2.1012152157407430e-02 -2.5856123144380760e-01 -2.9150555375550963e-01 1.6654113850085789e-01 3.9989442083456186e-02 2.5301954616114819e-01 -2.0249857953724804e-01 -8.4166963513399043e-02 -2.3663082708806077e-01 -1.8901131218942038e-01 5.2318567132109799e-02 -2.5300435284292244e-01 -1.4600159349157543e-01 -2.0656760578356859e-01 -4.7805414403275584e-02 -1.7300350471380707e-01 -1.1755715347607913e-01 8.8190256993031638e-02 -1.5099753657478966e-02 -1.9374334930232753e-01 3.6580031964296177e-02 -2.7098953706193901e-01 -1.2577545416648895e-02 2.1761774894577923e-01 1.6982669077294044e-01 -1.2765104429838917e-01 1.9900570743107185e-01 7.2623323695760716e-02 -2.4708845759646439e-01 -3.4251409426351728e-02 -1.7047551013649148e-01 2.8107422375461671e-01 1.1096780775152938e-01 1.7221053795048938e-01 2.6349352201650617e-01 9.1809790808314834e-02 -1.3812123022464318e-01 -2.1798080338012174e-01 -2.4008579133719646e-01 2.5468956121996700e-01 1.1132982805890755e-01 5.3785098758275543e-02 -2.4144719234804143e-01 1.1104342347489445e-01 -2.4546465507832849e-01 -2.7395349325030521e-01 -2.6676247550885640e-01 -1.5171868256906224e-02 -1.3347843456040059e-01 2.5850248162494238e-01 -8.6741409160965496e-02 -2.1810990924019935e-01 -2.5896148615789882e-01 2.5664319466028540e-01 -1.2580042512686321e-01 -1.4415790181817714e-01 -2.6441467632166171e-01 -1.5640537410653013e-01 -6.5240653241579544e-02 2.1825912647252757e-01 -1.5074389154682347e-01 -7.2862880324441784e-02 3.0275513902804868e-01 4.7112085749255905e-02 -2.1481426902143419e-01 2.4877650029633561e-01 1.8890953889642040e-01 2.2598730318831254e-02 1.4453882466752657e-01 2.9742170930560724e-01 -2.4983773841588791e-01 2.6005859640795825e-01 1.6586312555040861e-01 -1.1719783327480039e-01 4.7821897711106599e-02 -3.0138189122162612e-01 -2.2818808088803413e-01 2.5614301657538763e-01 1.3912462709795712e-02 -2.6002199951786986e-01 2.8356893310896358e-01 1.3107569222457333e-01 -2.6786806606160724e-01 -2.6032986657302820e-01 9.8906152916287238e-02 2.3750537643705655e-01 1.5723913842557158e-01 6.0708476533463396e-02 1.9612243247315050e-01 -3.0690059073505893e-01 2.5105597921026074e-01 -9.8601260750937045e-02 -2.6156137982255495e-01 -1.4342951141769084e-01 -1.5606866711203604e-01 8.3940294391759596e-02 2.9792036462829347e-01 -2.0135768831220899e-01 2.4107845227211602e-01 2.7163637094326165e-01 1.6211183487888889e-01 -1.3046238197694546e-01 -1.9463458946706470e-02 1.9555693445681802e-01 -7.0299481568948621e-02 1.8736188679018631e-01 -1.5979856911343579e-01 2.1150378325480773e-01 -2.6112103683228471e-01 3.3255991791625736e-02 -2.3063893925729101e-01 1.5015348489532126e-02 -2.6317142033938351e-01 1.9741202687728046e-01 -1.5900405784432525e-01 -1.6154072789442037e-01 1.1316893667986007e-01 2.0324693172900060e-01 -2.3120255787157540e-01 -1.9740713748327085e-01 -1.7548423514585074e-01 2.8290677876041231e-01 2.8322398065831933e-01 1.0573096602913032e-03 3.1733313013008864e-02 -1.5047251480777704e-01 7.7583964976779565e-02 -1.4845104345071025e-01 3.0032491662120198e-01 -1.4362896253097723e-01 -1.3573230918336182e-01 -1.4961566844548704e-01 1.9233171209397326e-01 2.8409128975692588e-01 -2.9913553013761851e-01 7.5556052444046146e-02 2.5043931803097996e-01 1.6323307037835799e-01 -6.6466127199899624e-02 -7.8407591960359430e-02 -2.8359016076258631e-01 1.7353253010732825e-01 2.9900788343067025e-01 2.0100928729615797e-01 2.0342816024945712e-01 1.3644463209410007e-01 2.8719748690773866e-01 -1.9866285791099997e-01 -1.7002145784967015e-01 -9.3357189029042872e-02 5.0232433565100675e-02 2.3074037195567212e-01 -2.5480250981918895e-01 2.1168054991248048e-01 1.1718297930236379e-01 -2.0160517749553017e-01 -1.5747682970021631e-01 -2.0686754274082617e-01 -2.6049094284543439e-01 -1.9978656154771085e-01 -1.0312551203588198e-01 1.7904283290810834e-02 2.8759884036149758e-01 -8.8480838030724845e-02 -1.7892245808063112e-01 2.9225876082306212e-01 1.2328812656521864e-02 -2.2133619172997832e-01 1.5155461846057575e-01 9.1400023142225909e-02 -1.6071008937172834e-01 9.3095328062402574e-02 1.9331876935173872e-01 -2.7574637258313811e-01 -9.6003007871560020e-02 1.2482852648094032e-01 -2.0411132460613965e-01 -4.0644707691925921e-02 -6.2539766749496711e-02 -1.0824589371225940e-01 -1.9472702308973472e-01 5.2383543540956742e-02 -1.3191859298417885e-01 4.1082434584897409e-02 -1.7450691835644988e-01 1.5898714362768554e-01 -2.1153841536564635e-01 1.3628312613942739e-01 9.4645065422341162e-02 1.0005345015047887e-01 -1.6288469337798639e-01 3.4883548262139685e-02 2.4910106518489938e-01 6.2879548291302975e-02 -1.7641246902119556e-01 -2.6167549194578987e-01 -1.6477817133681608e-01 1.0654257430413193e-01 1.3589781522466865e-02 1.5133084113577402e-01 1.5535727586883491e-01 -1.4591243285442659e-01 1.5698447177334199e-01 5.2393450602003663e-02 -2.2332694555661251e-01 2.6399761407601495e-02 -2.8171120982670605e-01 -6.1999751462315275e-02 1.3400459069554768e-01 9.4166149510329936e-02 1.4460850090251365e-01 -2.4608866304129362e-01 -2.4695704104238531e-01 1.5848245450247009e-01 2.3066551315218681e-01 -8.5175612833886472e-02 -3.0907361637361342e-02 -4.4731698908117588e-02 1.3509088000476432e-01 1.0281834694303399e-01 -1.3525402706416698e-01 -6.6068626846352396e-02 -2.5283085419548329e-01 1.1934021256928036e-01 1.8867180744724513e-01 1.2243041265356453e-02 -1.8259287630065105e-01 -6.8123750641758712e-02 1.6865967333075305e-01 1.0262456294501959e-01 -9.7328933320349365e-02 2.6422529249889060e-01 -2.9414339411724993e-01 -1.8118354674246778e-01 1.5234636641159708e-02 -1.1614036867238747e-03 -1.0878546944966302e-01 1.5677585546858209e-02 5.5125885749132533e-02 -1.0181569924560130e-01 1.8657240420784013e-01 8.8203782436071132e-02 2.9110551389934786e-01 7.6375649834055995e-02 2.6357186235743174e-01 2.6341832194182563e-01 2.6662161417494927e-03 5.4155865924952525e-03 -1.8583963531923708e-01 -2.8821366123033407e-02 -7.4920197612824951e-02 2.2528461844383668e-01 -2.6439049730932562e-01 2.1918771942273862e-01 2.5723521855250703e-01 2.7406099810186063e-01 -1.3434790045723680e-01 -2.0147622969399936e-01 4.8451460934892332e-02 6.7379958986002339e-02 2.8721773554146895e-01 2.1838854372812908e-01 -4.6823264337924400e-02 1.4774156174853484e-01 1.8271515494601509e-01 -8.4685311152906992e-02 4.9356426359599935e-02 -2.3315336062305630e-01 6.7177293437647223e-02 5.6872093744658965e-02 8.0911801149525092e-02 -1.8837587426185456e-01 -1.9399434385149411e-01 -8.4383857941543863e-02 1.1653442371603968e-01 -2.1904571730825689e-03 1.6615173004744582e-01 1.6296911707513989e-01 2.9433576397109334e-01 -1.1304461836524016e-01 -9.4900445324910696e-02 -2.6511951479784124e-01 5.1571634819342606e-02 -2.3066947164266102e-01 -2.5703763617093239e-01 1.5399264559889458e-01 -2.6186100450555125e-02 2.3042719746418452e-01 1.0245297985920483e-01 1.8121418310492396e-01 3.0574144528253248e-02 1.4673658108781770e-01 -1.1653384186556602e-01 -8.6818324990793963e-03 -1.9534586463621303e-01 -1.4612131456232733e-01 -8.1921163145591488e-02 2.7449500645260966e-01 -1.9446451495970538e-01 -1.7025804212033365e-02 -6.3153479562922901e-02 -6.3646934111431658e-02 1.0192789429728862e-01 -6.4975703562449735e-02 -2.9791699750642608e-01 2.3547820291727101e-01 7.7514494534323727e-02 -1.5650827661056510e-01 -1.8648017958938881e-01 -6.5404870806646934e-02 -2.1389651705002016e-01 1.6920760649220112e-01 -1.3582418673013483e-01 1.1396307559845885e-01 -2.4534607568100827e-01 -1.4009551408562634e-01 2.6868201843159656e-01 1.5340573803902313e-01 3.5019977385246051e-02 -9.1761032766760897e-02 -1.6928479773904515e-01 -1.2055163340406437e-01 -1.7264925863534691e-01 4.7293215843767902e-02 -1.1038255714591243e-01 -2.0018179317567011e-01 -3.5636961805933891e-02 5.6097287831060855e-02 -4.5006071714868472e-02 1.3064579448715904e-01 2.0098235455027405e-01 1.2983165025957396e-02 1.2611419878643840e-01 -1.9232507319505152e-01 -3.9519313262876476e-03 -2.2989650252249033e-01 3.9522229006117349e-02 -1.3267695917648648e-01 1.0830615489784251e-01 2.4871467118589793e-01 1.2066499091574177e-01 -1.0998281770325290e-01 -5.0403870784291253e-02 1.3414183414309941e-01 -1.7698651868556220e-01 -3.5729646400797458e-03 2.9062021555514456e-01 -1.9435985691019302e-04 -1.2139868200777099e-01 -1.3145103888005483e-01 -2.5493773630290062e-01 -2.1692174542299231e-01 3.9932890893744404e-02 2.3919300663588222e-01 1.7890221710929274e-01 -2.1341411798446283e-01 -2.3583414674773986e-01 -5.7505715740965042e-03 -1.8245992073515221e-01 -3.7644220542829683e-02 -4.5543784932334901e-02 2.9486747858732620e-01 1.4199312572249059e-01 1.1665794286361308e-01 -2.3107697622397791e-01 2.9137684308713102e-01 -2.0087785327332441e-01 1.5371500232726829e-01 -1.4104564969885997e-01 -2.1651175410911025e-01 -1.6615995555421675e-01 2.3225457383459214e-01 8.6047478634165647e-02 1.1601774282049948e-01 2.9775131030212759e-01 -2.5401282160162525e-01 -1.4645355150140887e-01 -2.0950111754082681e-01 1.1776625120590778e-01 2.4434961437393451e-01 3.7225898679630789e-02 -2.8793531696632856e-02 6.5334907062210582e-02 1.7433731524344628e-01 2.1073269214846863e-01 1.4025591612987134e-01 2.1408754671441721e-01 2.7826584103394858e-01 -2.3515222143839740e-01 -2.0197901675737709e-01 1.9050659321433364e-02 1.8459407747446838e-02 -2.4655190512969422e-01 2.0967504859884928e-01 2.0980514735790434e-01 -1.3901669435580901e-04 2.0598178537925510e-01 2.1048684483013416e-02 -4.4766745574605138e-02 1.8844497262959553e-01 6.6970393110676846e-02 1.3459585918326605e-01 1.4052345879124409e-01 -2.1963859069898506e-01 2.8476928731369533e-02 7.4194429864305647e-02 -2.9359759136888552e-02 -1.8710614909091434e-02 -5.7047803284234104e-03 -2.5974680621058083e-01 2.4108799289111105e-01 5.5804664367419439e-02 2.2356251842816377e-01 -4.9575485077786245e-02 -2.3715258247106205e-01 -9.8921352016248937e-02 1.5057832522721798e-01 2.6939347715849155e-01 -9.1245858922044301e-02 -1.4392595747454923e-01 -3.0029469508937029e-01 1.9794183028897358e-01 1.2238896900970564e-01 1.7687820241725391e-01 -6.6200282450277204e-02 -6.1503193885938015e-02 4.4837867068106267e-02 2.2488487100291898e-01 2.3260847850711930e-01 -2.2354341979928530e-01 -2.9010855647372441e-01 -2.6972854353370956e-01 1.2222997952487688e-01 1.2394306779965016e-01 1.0374766671509149e-01 -8.7401925770702979e-02 1.4504724713310674e-01 1.1134914543804614e-01 2.6581022791377218e-01 1.0613370833723960e-01 4.1093156336504615e-02 -2.6042585793633388e-01 -2.8858282158330761e-01 1.7023635622165623e-01 6.9838975206487269e-02 -1.7165256236077409e-01 2.9443215270619455e-01 -6.0237884741400648e-02 -2.8877720482924096e-01 -4.8193935534460948e-02 1.2421623458285283e-01 2.6251054095978066e-01 -4.0657449361204207e-04 -1.9906112116188535e-01 -6.9381074953200200e-02 1.8891279858973625e-01 1.2991683058503006e-01 -5.6354381379435894e-02 -1.9964735833426331e-01 -7.4737226612808086e-02 6.4090241703924869e-02 -1.8534195990699298e-01 -3.0299507656309610e-01 2.3667772020470984e-01 2.1792627949695476e-01 2.8709653927139287e-02 2.9606872339538870e-01 -1.4656896466649741e-01 2.7566074465185758e-01 2.4990682573789744e-01 -2.7666070119538982e-01 -1.2015618141155585e-01 1.2568812610656524e-01 -1.0898426415693449e-01 2.1526011433669076e-01 -2.6447221996603917e-02 1.6219589031672388e-01 4.9057586568470403e-02 3.2142235956183068e-02 -1.3093605756940799e-01 1.9793478980394655e-01 1.9039046709596844e-01 -2.0979769339630328e-01 2.8518298448584106e-01 8.5327869331703401e-02 1.7386254854094865e-01 1.1114863389337866e-01 -2.1807430748098691e-01 3.8534506279266537e-02 -5.0257244239496991e-02 -6.5423571362148061e-02 9.2450235167123238e-03 -2.5553522329784484e-01 -2.3226914595081843e-01 -2.5325091328326651e-03 3.6905045151541027e-02 1.8201467138439892e-01 2.3962984095669501e-01 -2.0614065666825709e-01 7.1294874175324943e-02 2.4840248199184758e-01 -1.6257462667889397e-01 -2.6466182307901903e-01 6.2708221200566142e-02 5.7935088509608088e-02 2.2093333366092388e-01 -2.1411509320754502e-02 1.5126695477983629e-01 1.9403725953027587e-01 -1.4467199828274455e-01 1.7758678038721548e-01 2.4269431223080711e-02 1.7312331837865882e-01 2.7318872852927667e-02 -4.9290655472133911e-02 -2.4036864397269231e-01 -1.2515085555047151e-01 -3.0308552422788904e-01 -1.1242033117854447e-02 -1.9522413013699158e-01 6.1051971680623131e-02 -5.9369232987018225e-02 2.1797708444816427e-01 -2.3341902197324718e-01 -2.5359218334588202e-01 -1.0872628957347351e-01 -2.4607305911389335e-01 -2.9696327853598447e-03 6.1259125492419367e-02 2.1497313080509656e-01 6.5676301667813616e-02 -1.8076804616060624e-01 4.5590125032295571e-02 -1.5037380447304211e-01 2.4974271233391016e-01 2.2738164584866630e-01 -2.6620162543767750e-01 3.4442995776210128e-02 1.0251260365602287e-01 -6.9391228938990288e-02 9.7745469729195233e-02 -2.6852596629251435e-01 2.4119764657021753e-01 2.7401591031585854e-01 2.2714099198430981e-01 -8.1076681169858250e-02 1.7960675525143729e-01 2.2141978682645125e-01 1.2435287347668704e-02 1.9221885976110764e-01 2.4678671046358405e-01 3.6632249190768225e-03 -1.3897251355254023e-01 1.8055905478587632e-02 -2.1016277770619435e-01 -1.3130476550686040e-01 2.7507865752168909e-01 -7.0133153458430894e-02 2.1691676449547989e-02 -1.8587189526360143e-01 9.6427276612118223e-02 2.2814720212206696e-01 -1.1629352322800729e-01 2.0559376376653980e-02 2.1102878087568541e-01 -2.8837584631045343e-01 2.2457009857339649e-01 -1.6294819808319000e-01 8.6663830349885968e-03 -3.0491922465410937e-01 -1.8278797051920515e-01 -1.0362735662670636e-01 -2.1729184418660769e-01 -4.4426698056927944e-03 1.2856522063598813e-01 2.8671384070148015e-01 7.2661714800907440e-02 -6.9973194989639956e-02 2.5253710755564629e-01 -4.2512661472027230e-02 -2.1945206719892721e-01 -2.5470344721624222e-01 -9.3191154628892478e-02 -1.9769748223529818e-01 -1.4121981279164122e-01 1.5235591743288746e-01 -1.3518888951653327e-01 2.5963326165060868e-01 -1.3973894296274345e-01 -9.2221013511739284e-03 -3.9230720961248119e-02 2.4372162970429523e-01 -2.9757997791002699e-01 1.9286995072767152e-01 2.9521050646736702e-01 3.6057734434113767e-02 -1.6457123109186925e-01 9.1944305013093322e-02 -2.8383543929942318e-01 -2.7732217132797235e-02 -6.9929795291754845e-02 2.7363659336800100e-01 -1.2545413771512613e-02 1.1606876796503415e-01 -4.1451461976686942e-02 -1.6191868923324648e-01 -5.1399577776636209e-02 -2.3609885850910126e-01 -1.4673983527668993e-01 -1.8239184261836278e-01 -2.9590963346409377e-01 2.6599515225708370e-01 -1.2022615364677193e-01 -1.9357539468784288e-01 1.3483002270814368e-01 2.8696773789776961e-02 -2.8791641582261492e-02 -1.0340603212497404e-01 -4.5363615065053077e-02 -1.9056825746693354e-01 -2.7404715221653164e-01 -2.3571405303218291e-02 5.9311633770069490e-02 -1.5343325153792689e-01 1.7573045317686511e-01 1.4386631166143063e-01 -9.8077473532958551e-02 -5.6475931410622487e-02 1.6677334021003312e-01 1.8817334088377713e-01 8.6995053540802433e-02 -2.0164266286153781e-01 1.7078032620285541e-01 -1.0426622059641852e-01 -2.7994697546602088e-01 5.2477115478502749e-02 1.4925852906988707e-01 -1.3969020510935745e-01 1.2286545712022640e-02 -1.6835250167250312e-01 -4.3683238771214154e-02 1.5905742983229954e-01 -5.9730201224230194e-02 -8.7579250263252612e-02 2.8874647291569738e-01 -1.3356871194956496e-01 -7.6292125411662581e-02 -2.9440562508836681e-02 -8.3497910720165214e-02 1.8367139728391707e-01 5.8776337124687474e-02 5.0136511643081742e-02 3.4304342919530606e-02 -4.5290027195594003e-04 -2.2023998259073065e-02 1.0436697435317255e-01 -2.0594107851288310e-01 1.0576975371629152e-02 1.2721375317518696e-01 6.6572173749362452e-03 2.3471145748062777e-01 2.6584041889859555e-01 -2.1654322834910089e-01 -2.5989835665341615e-01 -1.2785775464065679e-03 1.1201307579111658e-01 -1.9122144484397319e-01 -2.4999458826272028e-01 1.0662332213482972e-01 -1.7300454690868941e-01 -3.0111559919046887e-01 1.8534859113188207e-01 -3.8877756177370597e-02 2.8171504884865645e-01 -2.5385692225103207e-01 -2.0995555383073591e-01 1.1725642978238940e-01 -7.0817986464200511e-02 -1.5853250240765712e-01 -1.4466247223522119e-01 1.6568457211925677e-01 1.6801877706379073e-01 -2.3680807008125648e-01 1.0489929199877784e-01 -1.4583904650262899e-01 1.9626159056450537e-01 -8.4082714874260361e-02 -2.6337593498364531e-01 -5.0232670710029521e-02 1.8777266020105524e-01 1.9154807220995598e-01 6.9983110484717864e-02 1.1451159386358845e-02 -1.7569666030111503e-01 1.1753727814644828e-01 2.6717458606305716e-01 1.8773430761660689e-01 2.9299790705069328e-01 2.7647732373498135e-01 1.9064394853312636e-01 1.2383330633451557e-01 -2.0145843046306466e-01 -7.6524171603758046e-02 -5.3507516305946391e-02 8.6106290910041822e-02 9.3503910226580320e-02 -9.9181150767567158e-02 1.7361905883405029e-01 1.5455288207786066e-01 -1.1164712754410309e-01 2.7339389146898277e-02 2.8109466805907335e-01 -1.1288092710535048e-01 8.5858679299023410e-02 2.7708014527355018e-01 1.1317007228286324e-01 1.2231671675932142e-01 -1.3229381946408211e-01 -1.1713622159616344e-01 -1.2971203128208189e-01 -7.3660887992012439e-02 1.8898359419174934e-01 7.4971615607949557e-02 -1.7029256476780236e-01 -1.9687173658248985e-01 1.3750270064346501e-01 1.3912123386894309e-01 8.3247899991297392e-02 -2.5701417466336407e-01 -2.0137682617829189e-01 4.0038262929793018e-02 1.4921055513514780e-01 -4.9153724004127916e-02 -1.0337949043987681e-01 -6.9284845378419738e-02 -8.8053237473394122e-02 -1.3807554496096205e-01 6.7312195123325350e-03 2.2488034466856263e-01 2.1991908589563133e-01 -8.8382911532402991e-02 -1.8015954025839928e-01 1.1343462024025068e-01 1.9305671136553421e-01 1.1686459648663954e-01 1.5731727465549239e-01 2.4191516158327131e-01 2.5632478247028229e-01 -2.8395856458886304e-01 -1.0760726311105242e-02 1.7016459823439345e-01 1.3437214970560630e-02 1.5924693161508383e-01 1.3744580325904313e-01 1.7817374510461073e-01 -1.9252839766320839e-01 -2.1755424160345985e-01 -5.1568810149275932e-02 -2.5767335598975183e-01 1.7827154773463860e-01 -2.5399176012111035e-01 2.8466758113631502e-01 2.5710380256878623e-01 -2.3929185384562826e-01 2.3472896160283171e-01 1.3002287053814487e-01 2.6091967226007251e-01 -1.2315159497324336e-01 2.7925055892678613e-01 1.5801860435378723e-01 5.7320182113852350e-03 -4.2337758956121976e-02 -2.5667835335740152e-01 -5.5943199252083319e-02 -4.9635550558601194e-02 1.4620394109522131e-01 4.8166762407174504e-02 -1.7098411075116413e-01 -1.5883293097908777e-01 -7.5425242612733145e-02 -1.6138188927166786e-01 -2.1501590826627934e-02 7.3996462663336107e-02 2.9062476849358981e-01 2.9139064172056461e-01 1.2722580526699198e-01 1.3633178999399814e-01 -1.6402096522606172e-01 4.7859324301709749e-03 -1.0134952346904728e-02 1.2249806788846494e-02 2.6547705050751957e-01 2.5728544967960232e-01 -2.2678960038240548e-01 1.2251811846851880e-01 6.4380491955679200e-02 -2.1200468323525515e-01 1.3235897309780692e-01 -2.2104815988365173e-01 -4.6623157561202902e-02 -7.1636631838509199e-02 4.1613573872081748e-02 2.9191847848643332e-01 1.8100683795990355e-01 -7.7306984634251900e-03 9.1127448020667606e-02 1.3552482473905886e-01 8.7263967914641333e-02 9.4502247188003902e-02 2.1438688297097644e-01 9.3298209013344194e-02 -1.6221779657304655e-01 -2.1490170237111506e-01 -1.3779133061869939e-01 2.9026229145481575e-02 9.8818915260983312e-02 2.9547973340266692e-01 -1.0456809029871954e-01 -1.4544529774130022e-01 1.1163205171492881e-01 -2.4166380910680163e-01 -1.9639595314230840e-01 2.5635561371461568e-01 2.9666025984097563e-03 1.0460314486613066e-01 3.1676589498532505e-02 -2.6623038563086776e-01 1.7692746203953835e-02 8.2758479565224669e-02 -2.6864877695988015e-01 2.0727250833625374e-01 3.5199656890306512e-02 -2.4421530846900999e-01 -2.6910824296402752e-01 1.7348642051077470e-01 -2.4422369863123253e-01 -1.4295636233296821e-01 -3.0894794840682493e-01 -2.3676518353412651e-01 -2.5522944615645049e-01 1.3355824662403390e-01 -4.5489412124737554e-02 -2.5603052036857710e-01 2.8370409502164706e-01 1.0890692617652134e-01 1.3376497232995790e-01 9.7474874139481138e-02 2.7007225878128327e-01 2.7386513535889401e-01 -1.0468745957968434e-01 1.9855440724187784e-01 -4.1524567989907557e-02 -2.2071700121323065e-01 1.3063782244946509e-01 -5.5049812147672447e-02 -1.6611338471220405e-01 -2.6860089073165866e-01 -1.1370484175211344e-01 -2.2011003993765052e-01 2.2341571833725665e-01 -2.7628454406219033e-01 -1.3983450814035800e-01 -2.3181253563618900e-02 2.7352540626837135e-01 1.9475300066081280e-01 -6.5120381830730198e-02 -1.5731949266886572e-01 -2.1378313339979174e-01 -2.1057219347749900e-01 -2.4831644289239663e-01 -2.6917601162012698e-02 1.6213957799826353e-01 -1.2908456128743541e-02 -1.0401912291838292e-01 -1.4696740450289800e-01 2.7748681722579027e-01 -6.7434773110217519e-02 2.4671191096958073e-01 2.7625069679782532e-01 1.0856478252051650e-01 6.0404765118802377e-02 -2.8072790137881393e-01 3.0291503833485056e-01 7.7814407776643765e-02 -6.9925480399464029e-02 2.2300593227209467e-01 2.6501315953375743e-01 2.6548604029156864e-01 2.2641080480228840e-01 -3.5973761067858601e-02 -3.9662850974332096e-04 -6.6640388821658320e-02 9.2341051440420152e-02 -1.8858485910873693e-01 5.7686380518471693e-03 -7.9028560286374380e-02 -1.8309004361762679e-01 2.6227148525833049e-01 2.1195179670540354e-01 2.4449597588211858e-01 -1.5768703134722672e-01 2.1937022012106833e-01 1.7106518074796190e-01 -1.8091628453681802e-01 1.5395311561095382e-01 6.4373826375047530e-02 2.5065545238082604e-01 -2.5903098807824010e-01 -2.2741292565136173e-01 2.9525569838969240e-01 -2.0294392183418979e-02 2.3182779280817573e-01 -5.5322086845479609e-02 1.1800987120038722e-01 4.6572366718751645e-02 -2.8711968153930389e-01 -1.5645439848068846e-01 -1.8024817008128372e-01 7.3022378341468505e-02 3.4682961784444251e-02 2.8895233436785611e-01 1.1235725643640242e-01 -6.8641299597835354e-02 -1.2786315552028568e-01 -2.0677117408146004e-01 -4.6529836804204146e-02 -1.7882045656532691e-01 8.1565572439866132e-02 -2.0685546020905743e-01 1.4461816007476687e-02 1.4884638131195732e-02 -9.6728699858647876e-02 1.2790043351990268e-01 2.2533149226526397e-01 2.7347796128579105e-01 -3.0180445090280966e-01 1.2584866044445553e-01 -1.5035409812675144e-02 5.9193866115196128e-02 -9.8431413576130319e-02 2.2939406182427088e-01 -5.5406500056541796e-02 -2.1306703652455325e-01 2.0845380339737860e-01 -1.3552141466146972e-01 -2.7167726725019192e-01 4.6612370881555051e-02 -1.4541730877948484e-02 1.9139969063747536e-01 1.6426088678129214e-01 3.0455445496717842e-01 1.7631941096161388e-01 -7.7134950587546491e-02 -2.7440257788343934e-03 2.9338006860806554e-01 1.2692023836428523e-01 -1.2224230845229696e-02 2.6169131559492620e-01 2.8787153629100204e-01 4.8325888287616324e-02 -1.9127120173145601e-01 1.0064244140531541e-01 1.7071895574797039e-01 5.3758732647375435e-02 1.0663197190600260e-01 9.4018550806416190e-03 6.6204616800480454e-02 -3.8510402593648851e-02 -7.7224629671328301e-02 3.2910397903401591e-02 2.4151313626303846e-02 7.5953599865319285e-02 -2.3224633685864532e-01 2.0585895724507566e-01 -9.2846379303524004e-02 2.2231289978532079e-01 -2.5716910664540421e-01 1.5416430112317561e-01 2.8411097566109567e-01 -2.7772113500384027e-01 -7.7669317750791375e-02 1.7885518279796478e-01 2.8730410974729342e-01 6.4719143595363793e-02 -2.5452533721209708e-01 -2.5901945351965117e-01 -1.1988064057497520e-01 -8.7931470038312115e-02 6.1986258466192427e-02 1.6008050669327537e-01 1.7203995718856277e-01 -1.5687001213427215e-01 -2.7401736313775521e-01 -1.7696771508776868e-01 4.6530405701754214e-02 2.6768805394553996e-01 -2.8157790594414150e-01 1.2532416159289222e-01 2.3075117626827485e-01 2.1639626995430700e-01 -2.8376177541569608e-01 6.3889321165787397e-02 -2.9303596431116191e-01 -2.0049937570629944e-01 -2.3530993187017249e-01 -1.7902288848868436e-01 6.0803320329758652e-02 -2.2738962309910765e-01 -8.6837477468743249e-02 -1.3808918147800836e-02 -2.4016164779382701e-01 1.3993293649316675e-02 -2.6089889730410365e-01 1.9572639584640961e-01 -1.5231713759216567e-01 -6.9972102930528787e-02 1.9320806274441743e-01 1.6151835066873468e-01 3.0230763078522643e-01 2.3039341229314256e-01 -4.3401954710022284e-02 5.0217522078880222e-02 -2.0850039263667888e-01 -2.1406512028723768e-01 -1.3418252548927742e-01 -2.4358081203227200e-01 1.5082717414995581e-01 -1.2433249744456759e-01 -2.2359380748259469e-01 -2.0313049710671566e-01 -1.6518064693488327e-01 1.1460572666945522e-01 9.3549015753751089e-02 -8.6411583790654539e-03 1.0626036191167339e-01 -2.1639004212489429e-01 4.1061939198609829e-02 2.2964186908557324e-01 -9.4485530067697762e-02 -2.0042227735186505e-01 -1.6779956554568254e-01 -2.9669927007731856e-01 -1.0290688658465416e-01 2.9688516666240844e-01 9.6482538507390650e-02 5.4549444880692889e-02 -6.8580088308944437e-02 2.7663564549682568e-01 -1.5761075574091993e-01 1.8764096108596040e-01 1.5053354344904936e-02 7.5131726957879570e-03 -1.7075445052017027e-01 -2.6104829444209998e-01 -2.7604094143436630e-01 -1.7483546757730610e-02 2.6857004203744439e-01 -2.6616073334163226e-01 5.4360445641182843e-02 2.5671613992696501e-01 2.0783041662519250e-01 -2.2450856598864299e-01 1.2612968759992291e-01 1.9685791730972891e-02 -5.7561915154489163e-02 -7.1520808512034406e-02 -2.6290436030364661e-01 -6.5806068415889915e-02 1.4473122625477500e-01 -2.0776077449948280e-01 1.1460149017953229e-01 2.1848686698912601e-01 2.8932222084075304e-01 -1.9464043866245473e-01 -5.3674860723877074e-02 -3.2662552411204214e-02 -7.8037571328327490e-02 2.6481773788252227e-01 -7.8384262793403187e-02 1.1523939606023331e-01 -2.5274699801118631e-02 -7.1155017168614693e-02 -1.3902491518520660e-01 -3.0933777683757029e-02 -5.3662589697723806e-02 1.9342444335476686e-01 -1.0371137371262501e-01 2.7511913089123657e-01 3.4097453959650983e-02 -1.7182002808084687e-01 1.3571421850046642e-01 -1.5983474480613682e-01 2.7100978252627739e-01 -4.3202871345660254e-02 1.9075368717091309e-01 1.0003610400338434e-01 -1.9182452758827009e-01 -1.3144352126019127e-01 1.2417523776803871e-01 2.2517193146929065e-01 3.7740907212060783e-02 2.7268224946007397e-01 2.2360559351828735e-01 -6.1185652790601300e-02 1.7058418620138621e-01 2.8290813305768103e-01 -7.3454000111159781e-02 2.4311523486406875e-01 -1.2225958387907164e-01 1.1645369124589801e-01 2.0378015035068570e-01 -2.3325800807620686e-01 -1.9006221374306240e-01 2.1247733302560345e-01 1.0320077897862219e-01 -1.4663427997814138e-01 -8.9631503768777626e-02 7.3069743112001900e-02 2.3197534145647788e-01 -2.7295469302575120e-01 -1.1297150916727335e-01 1.0850854508784018e-01 -1.0187410682144515e-01 -2.4539055526694639e-01 1.2606382860346699e-01 1.2183246873028063e-01 2.2370257511539368e-01 -1.0793853105020419e-02 -6.4265173072835177e-02 -3.8930846274008508e-02 -2.9426289750539475e-01 -1.6883355091572322e-01 -1.8609836946031444e-01 1.2332603698500684e-01 2.4516025037371256e-01 -1.8237047040770846e-01 4.2742144343056732e-02 6.1350832978727373e-03 1.4601508542416437e-02 -1.9365119324516053e-01 1.3752734104685671e-01 -2.7006601239904354e-01 -1.4495032914979963e-02 -1.1201279520348258e-01 9.4628811329059329e-02 -1.5076702745596177e-01 1.4791308115695420e-01 -2.1296089528322398e-01 8.8475940965711541e-02 2.0411050141863929e-01 -1.8414389646772422e-01 -6.4869142484317605e-02 -1.3583229165995028e-01 -1.6481612136129564e-01 -2.5605939348586676e-01 2.7412279985450544e-01 1.6752585861431976e-01 -1.4345766647724481e-01 7.9429691251769394e-02 1.0003842671165476e-01 1.3196446648300672e-01 -4.2126202382387318e-02 -2.6629718077251835e-01 -2.8802583074573673e-01 2.0452439496372377e-01 -2.2224077903096975e-01 -1.0089369653014520e-01 -3.0683842166427028e-01 8.3454869858830619e-02 1.7970082585181629e-01 -2.1706918246849702e-01 1.5361542144606685e-01 4.3388733825823728e-02 2.0567980450556225e-01 -1.9069549158067048e-01 -2.3063270574568553e-01 2.4533394827684793e-01 -1.8608059704526306e-01 -3.3249640334776995e-02 2.7643962327103622e-01 2.2056189771018826e-02 2.8605890629275949e-01 -2.5220262812534350e-01 -5.9666269044148741e-02 -1.8633947200922291e-01 -3.4949001231139400e-02 -2.4328733702777547e-01 8.9486175646980470e-02 -2.5043970338348609e-01 2.6246965310583709e-01 -8.6042659854570130e-02 2.6486281326547684e-01 1.0535217383362339e-01 -1.4080212897486827e-01 7.3312670751339876e-02 -9.0694327094527960e-02 -1.5847870560254829e-01 -8.0903382718522793e-02 -2.1314905772883885e-01 -2.6880483563286933e-01 -4.2247475889420634e-02 1.2461519424886867e-01 1.2983046180499505e-01 2.7554035178465935e-01 1.7210806548525176e-01 -2.0727509017784973e-01 -6.1702212673547752e-02 8.9272843942724306e-02 9.4077184238773509e-02 2.5667370669149120e-01 1.8432842681450939e-01 -9.5466168611039001e-02 -9.8589428415142066e-02 1.1692849003914159e-01 -2.0823405910903856e-01 -2.8881122946227824e-02 -1.1025940260185724e-01 2.2824528833763399e-01 -2.9636925129537761e-01 1.4427920264089897e-01 2.5230554630209184e-01 -2.7987866488334595e-01 2.2641767991400100e-01 3.1013817513510283e-01 1.8552728274224264e-01 -3.7443165895883632e-02 -6.1614062466679900e-02 -2.7284215862793920e-02 1.2165757580391276e-01 -8.1777864749249168e-02 1.6983731695166707e-01 4.4410111258976273e-02 -2.0954914664659621e-01 3.4587648461144066e-02 -1.8917472792829260e-01 1.8202159489642930e-01 1.3424655384506573e-01 3.0639226796219915e-01 -6.2509737326824175e-02 -1.0913493900538881e-01 -4.1724030356478300e-03 8.5055475434628269e-02 1.2265752547012257e-01 2.4387425402013380e-01 -1.1716215637166411e-01 2.9743756043142189e-01 -6.6167748882819732e-02 -1.5589326157125752e-01 -4.9317773235416779e-03 1.5825556226875459e-01 -2.1382050908477637e-01 -3.0041109182855152e-01 2.6567479814539463e-01 9.9257768711929525e-02 2.0640880318101934e-01 2.5142636663722578e-01 -1.8722467581532731e-01 -5.4027476697285179e-02 9.3635270808780299e-02 -1.8262023618631121e-01 4.9840722169656348e-02 1.5969638673123093e-01 2.8518913822935388e-01 -2.2188720084149235e-01 -9.5981549315368911e-02 -1.4608116846334851e-01 -7.2497640457226717e-02 -1.1515342600033565e-01 -4.1405606693166721e-03 2.2610560446752484e-01 -5.7036242589022047e-02 1.9949297698448160e-01 1.7846085842331473e-02 -2.0365317984921352e-01 -1.1338669216920229e-01 1.8430977104427632e-01 -2.9743866345741304e-01 8.4284090375718532e-02 -2.4379497018479879e-01 2.7030482087306634e-01 1.1857126599322063e-01 2.5574325076161147e-01 -2.8282102630584938e-01 -8.6968450956561749e-02 1.6795968877013451e-01 2.5335293084240162e-01 2.4821731414519599e-01 2.5211567779564054e-01 -1.3472763037880209e-01 2.6112185249498937e-01 -1.6396301507319197e-01 2.4416110590621770e-01 2.8140098005375980e-01 1.9716285614437633e-02 -9.4415495099419183e-02 6.1050436864769936e-02 -3.4271943052448010e-02 -1.9659028853489505e-01 -2.5475610089790296e-01 -3.6644799063032148e-02 1.6614829888813115e-01 1.5401093801659291e-01 2.2698514098071521e-01 9.3040997565092987e-02 2.0854885781384205e-01 -2.5056875282270741e-02 2.7282945791490605e-02 -2.4631269555099167e-01 2.9564860588638803e-01 2.1006975997918503e-01 5.0851807735155172e-02 -7.1639126219875268e-02 2.3660337915450821e-01 -2.1340101464361974e-01 -1.6828307567441322e-01 -2.4559102421186782e-01 2.5447003706740284e-01 -9.1495144251104651e-02 1.0265243350651915e-01 -7.3297527281388844e-02 -1.5506098226591500e-01 9.3940964770941951e-02 -2.9165012554410075e-01 2.5060773776416356e-01 -2.3600231303036465e-01 2.7917789099148999e-01 -1.7424858660328274e-01 2.9796469793986957e-01 -7.9312238908189947e-02 3.3585325829990874e-02 -2.8361300853189453e-01 1.9068947172513923e-01 -1.8881301531275294e-01 7.1173647083527650e-02 -4.5964132529249142e-02 5.9842324547054918e-02 -2.9156426596880758e-01 6.3906053384730878e-03 2.5862646718174459e-01 1.9037745404411497e-03 -1.6573945250005862e-03 8.0284772402816340e-02 -2.0592190619467926e-01 -1.7205336585005049e-01 2.1770366961204515e-01 1.6398712504836113e-01 2.0987683398089790e-01 -2.2505517139796000e-02 1.5405455790123068e-01 1.8658935913996524e-01 -1.7252005419225816e-01 -2.4669685668977065e-01 3.1123166543048700e-02 -1.6194704179188779e-01 -4.3688506226994890e-02 3.1779389847816558e-02 1.3378142079323158e-01 2.1267398299517701e-01 -1.4179269151155904e-01 1.4217125720946386e-01 -1.8106159042273386e-02 -1.7395607278133221e-01 2.4551159597664397e-02 -1.3664407205258627e-01 -1.8596924930971617e-01 -2.2148002575317161e-01 -3.3579878542227347e-02 2.2282981818972517e-01 1.7882978991651730e-01 -1.1987794328673375e-01 1.4471422214625695e-01 -5.0901224433419379e-02 -1.2502969753537257e-01 -2.4228639214975994e-01 1.1316002684717415e-01 2.6303801908239627e-01 -1.6272539377671015e-02 -1.2252923687553104e-01 1.1023502078848725e-01 2.0211554829650641e-01 1.6091648355140453e-01 -2.4007710315999772e-01 -9.2400317793288528e-02 -2.5667977406546139e-01 -2.8026332475527133e-01 2.3518675183275589e-01 -2.1837552425663334e-01 -2.0551496489442167e-01 -2.9490037047140999e-01 -2.0718474454537383e-01 2.0998738246024579e-01 2.9311832921002634e-01 3.0353428498732676e-01 2.9023663900294966e-01 -1.5283430391935493e-01 1.7301297141386154e-01 -2.0991252550329367e-02 2.7317276786408323e-01 -6.9821058814058298e-02 1.2289037547192108e-01 8.2071271912311380e-02 6.4077284415747962e-02 -2.9572984895207242e-02 2.3468452741254997e-01 -2.7350237947905454e-01 -2.0970111119921913e-03 -2.6339290105612256e-01 7.5029313523544583e-02 5.8306043490096077e-02 -8.6348929392698101e-02 2.9460089979798026e-01 -1.7232948531849432e-01 1.3560916246547533e-01 -2.6731292979668853e-01 -2.3974690855406969e-01 -2.7032743883995802e-01 1.4031591571036690e-02 -2.1573917327270020e-01 -1.7914214326222830e-01 -1.2688273513338183e-01 -1.9212701222907433e-01 -2.8669554981724365e-02 -1.1071252375138339e-01 8.4099369215191969e-02 -3.7577277099434342e-02 -1.9856617955846072e-02 2.6965929658851062e-01 2.5413991987219320e-01 2.2237757546151748e-01 2.0049237939276893e-01 7.0908572701142661e-02 -6.7203998719550975e-02 2.6302891725050065e-01 5.1990280293320375e-02 -1.6752891541969381e-01 5.5218330611753380e-02 1.9093429604279299e-01 -1.3721923154471335e-01 2.4641444925259104e-01 6.7314076172753839e-02 -2.2158825824620187e-01 -9.0533620484187699e-02 -2.0315308029904477e-01 -2.3239056984899012e-01 2.3929089437613627e-01 2.8832360522046846e-01 -9.8744120662948923e-02 2.4423932065144671e-01 2.4590614989491388e-01 6.2611261345242600e-02 6.5465850690584124e-02 1.5246028450701316e-01 -1.0027348845513577e-01 2.6970031315676735e-01 2.8091034571376383e-01 2.3014357387579062e-01 1.8223741196498883e-01 2.6674570105676959e-01 2.8966557364137452e-01 -2.4816398099985423e-01 1.0006079957390066e-01 1.6060863296293576e-01 -2.1405348084309767e-01 1.0112200611790600e-01 -2.1404992102915638e-01 -1.7953945436803564e-01 5.0745120576046777e-02 2.1683767552821673e-01 2.1339723154482215e-01 -1.1100444165562950e-01 1.9811001362016082e-02 -1.8116192852177021e-01 -1.4694715920847307e-01 -1.6990540757532163e-01 -2.1039800948194912e-01 -1.4210118420157353e-01 1.7670304329799996e-01 2.2220106799042680e-01 1.2440362310533041e-03 -1.9941652487979616e-01 1.0334587388700738e-01 1.9010664573998245e-01 -2.7517840479111977e-01 -1.5771450959127845e-01 1.7390042719163926e-01 -2.2210337200760477e-01 -2.9455483116126685e-01 -2.1413153043883720e-01 -1.3265698753894714e-01 -1.7693158807508122e-01 -2.0192976011735145e-01 -7.8180053824276258e-02 -8.7498295869532037e-03 -9.4392471878783184e-03 1.9179183864511290e-01 9.6632849463619816e-02 -2.4126688503063790e-01 -2.1140376575521436e-01 2.8244394707411118e-02 1.4611951708949603e-01 1.4283978864255337e-01 2.4393581214373858e-01 -8.1899871094525869e-03 -2.1153508708572005e-01 5.7065729008563326e-02 -1.2999613245481764e-01 1.5424336213899142e-01 -2.3847819295696643e-01 1.1735110398722606e-03 1.2344193015473895e-01 -1.6368377737029480e-01 -2.0891161948389336e-01 3.1972395929916825e-02 1.1949295374436329e-01 -2.1643946181173726e-01 -3.6144516739528967e-02 -2.6927195102699520e-02 4.0288040143652899e-02 -9.3642492312524875e-03 1.0480200384936075e-01 3.9449855627127092e-02 8.2221651130036655e-02 1.8809384288611389e-01 -1.8131190969335892e-01 -1.1971942957769241e-01 -2.8605620803006920e-01 -1.0787689747692829e-01 -2.6374705301491219e-02 3.7813791207594587e-02 -2.5258018329800541e-01 2.2272570797341240e-01 1.9465781269819973e-01 2.9478999658227129e-01 -1.2376947675778832e-01 -5.4734773293620149e-02 -4.3478327706540079e-03 -1.3164093416675238e-01 1.3598816420518028e-01 -1.1903203670934995e-01 2.7089578898202127e-01 2.4741852079216400e-01 5.9057968087027506e-02 1.9390165046143312e-01 1.1809736854298329e-01 2.4391344052595543e-01 -1.2603465930193116e-02 1.5961924181963208e-01 1.3278381505440728e-01 -1.5871754557487716e-01 -1.5238513292589947e-01 -1.9610295982172501e-01 -1.9059161840225572e-01 2.7747437422919394e-02 8.7556470345242970e-02 4.7234832880763349e-02 2.4123783869290596e-01 -1.2234487482109245e-01 -8.0921732789416487e-02 -1.3953915055142746e-01 -2.2458614716906428e-01 -5.9875146746236695e-02 1.9653035361032109e-01 -1.7717063120851403e-01 1.4269394116271814e-01 -2.1660346100971126e-01 -2.0565444345192999e-01 -5.5956123908633484e-03 -2.6246476835928723e-01 -1.6284229944983963e-01 1.1900659055799424e-01 -2.9227331658856354e-01 -7.0959851677575236e-02 2.0820942724086661e-02 -2.1612038896503424e-01 2.5176985055300066e-01 -1.8348067922447850e-01 -1.9892276232920383e-01 2.7491823454836067e-01 1.3285109961523919e-02 -2.1186510815867678e-02 -7.2667243583367000e-02 -8.3477751643008788e-02 -2.4312347749674562e-01 -5.5010046630414013e-02 -1.8831108579098291e-01 1.1111474607654095e-01 -5.9495009740261895e-02 -1.9251457550585066e-01 2.6184178824797338e-01 -7.1086790840918929e-02 2.1088579049135608e-01 2.4308564624811518e-01 -2.0217209073111600e-01 1.3777888636360913e-01 2.5038220141644918e-01 1.8095910316682151e-01 1.6078479640727861e-01 2.5891399859749259e-01 4.9980766505837972e-02 -9.7812241754666907e-02 2.0287330850424101e-01 -1.9220576919518231e-01 -6.1575081796662975e-02 -1.2607153184950703e-02 2.2130913863275203e-01 -1.6366519864699217e-01 -2.5891693291867851e-01 2.3180390302817944e-01 2.0083312620674196e-01 -4.2739926540387517e-02 -2.5722195555359678e-01 -2.2956025891004300e-01 2.8068555246297318e-02 -1.5396033133013459e-01 -1.6008247212459537e-01 -1.3380033687312853e-01 -3.4833537400629520e-02 2.9066433207999193e-02 3.5558132803959384e-02 1.3154151403073341e-01 2.0283557477438421e-01 2.7073550416062575e-01 -4.0135244662460712e-02 -7.0726047828594497e-03 -1.9332651024355613e-01 1.6603733012150945e-01 -3.9799278352982788e-03 2.4524183983112821e-01 -2.0231933497059235e-01 4.9237160013660318e-02 2.0308600651768269e-01 4.0752089357738434e-02 2.6877584300467883e-01 -5.7043464075282246e-03 1.7659762914286839e-01 -1.5686709315881306e-01 -8.4848665723347969e-02 -2.2025220587155314e-01 -2.8570823139466722e-01 -8.2476531441856692e-03 1.6757191506569807e-01 2.2411524441636372e-02 5.3832398252030976e-02 -1.2520021320373201e-01 5.9428695661830580e-02 2.2413933868518984e-01 8.5502195481659521e-02 2.6122776826990005e-02 1.9541208251273953e-01 -8.3334303976827964e-02 -9.5793973383950973e-02 6.3651219433990741e-02 -4.5328756890935767e-02 -2.6656826803889583e-01 2.6665169949602546e-01 -1.5064299970879999e-01 1.9466229102192317e-01 1.2238175277833076e-01 -9.1472642165706122e-02 1.5781715086648324e-01 2.0635197948125007e-02 1.4200640533746850e-01 -7.0161744339392706e-02 5.4078819060475902e-02 -1.9379050212357640e-01 -1.9217424159659929e-01 -2.5156373396967080e-01 1.3681872939440412e-02 2.7525751538032267e-01 1.3717492911277671e-01 -2.2973589510287973e-01 3.0940776852105983e-01 1.3047932599986380e-02 -1.2046246809995745e-01 -2.2207345332273845e-01 3.7755502974256991e-02 2.8161270460140476e-02 2.2080794223561648e-01 -2.6384435004971213e-01 -6.7795290565241223e-02 -1.2618320748165313e-02 5.8883808361383579e-02 -4.8877786808234042e-02 -2.5496481810397309e-01 -2.3599520159029130e-01 3.0732138869535283e-02 1.8800043640954381e-01 2.0628712275858516e-01 1.3709942870489711e-01 3.3664225558537905e-03 2.9948205700789505e-02 -1.3686127750004919e-02 -3.1060090041769961e-01 -2.0422181106944506e-01 -8.1465597142433677e-02 -1.5348164365502370e-01 1.5184251275646113e-01 1.8529865334264775e-02 -2.7134260550423583e-01 -1.7569220144629208e-01 1.3184702421175890e-01 1.7742904958416886e-01 -2.0626560335107963e-01 1.8656122718392060e-01 -2.2619844624570584e-01 1.0749231705205226e-01 -2.5024941484526286e-01 1.5225156104074428e-01 1.5278720308267210e-01 -5.7939271687490405e-02 -2.4851492816850365e-01 -2.5112501785733676e-01 -2.8654098180032877e-02 -2.8381045438884178e-01 4.5165892983378406e-02 5.3824287371673302e-02 5.9819567605664002e-02 -1.9745528734682832e-01 -8.9343570949618631e-02 -7.3967879145768233e-03 4.2730692331030058e-02 1.6469522328044037e-01 -2.8384468497686838e-01 1.3181613154951435e-01 1.4757638098464542e-02 -1.3994077324308737e-01 1.5017406735392455e-01 -1.8404542253524855e-01 -6.4675964330005109e-02 2.1532445186905802e-01 2.9355258439208082e-02 -1.8208867084353633e-01 -4.9252535743651078e-02 2.5571855707997682e-01 1.3640752494572001e-03 2.1620294548533526e-02 -2.1103536959382642e-02 -2.7224770388389608e-01 -6.8264492642495303e-02 -5.4488129916044896e-02 -8.8009261805530550e-02 -8.1958349893799631e-02 2.2637892263491288e-01 2.1394896766636159e-01 -5.4716031588139917e-02 5.5019896002644328e-02 3.2642638540635593e-02 2.1861733169459752e-01 -2.6473947054343772e-01 -7.7163515492690959e-02 -2.6924654208508986e-01 2.1721361120791310e-01 2.3054213504904167e-01 1.8554304712736402e-02 -1.6854528612181197e-01 1.3692210399230043e-01 1.0366123796562021e-01 2.6669859133229507e-01 1.9022433413652493e-01 2.7822072785969304e-01 2.5197530764853598e-01 -2.0214484139510722e-01 -1.3060007889338685e-01 -5.2701812152226662e-02 1.4124902325378652e-01 -2.9619605425774465e-01 1.3936039584385965e-01 2.4169297738778261e-01 1.4234590419067059e-01 1.1948474729196160e-01 -2.1870773152783449e-01 1.4370097657962444e-01 5.0906643079966660e-02 2.1454244846936849e-01 -2.2898779102690078e-01 2.3591170853029506e-01 3.0321637123039740e-02 3.1688299953057705e-02 -2.7234249859892939e-01 -2.9029335711999432e-01 -1.1697193538042756e-01 3.5448540903544455e-02 -1.1863222988680100e-01 -9.4604150462396397e-02 9.9432094694512405e-02 -1.0547585783042408e-01 -2.6507860553727369e-01 -1.3669918482562021e-01 2.3554381805952224e-01 -1.3189045102973176e-01 -1.8578345621389122e-01 2.7477467226625030e-01 1.8065635217788820e-01 -2.0947179748547204e-01 1.5090715619891792e-01 -2.7648089762262229e-01 2.1293964254397679e-01 -2.2503997268692930e-01 1.0013956166293474e-01 5.7410331036369486e-02 2.8266525854046898e-01 2.3588973180179035e-01 -6.2374141375347615e-02 -2.1270769786204596e-01 1.0211683213128774e-01 7.6540000018211818e-02 -1.5849561581304825e-01 2.8795591773046247e-01 1.4552892821319791e-01 -1.6003916604828511e-01 -9.0121059090074340e-02 1.6792792892555095e-01 7.7567044780638084e-02 3.1637091827332146e-02 6.9122895496538342e-02 -2.5214862849362368e-01 2.2650753033125059e-01 5.2467464406426509e-03 -1.9337775124304457e-01 4.2973278896227464e-02 2.1715488288507795e-01 1.0364289574568865e-01 -1.5384285368220452e-01 1.8407955966076839e-01 2.4437689412294608e-01 2.5844668400553722e-01 -2.0791712518505558e-02 1.8877279150326026e-01 -1.5665699879586123e-01 -4.6891365533641184e-02 1.8799287844118093e-01 -2.8884646604523939e-01 1.4424887697185110e-01 2.5673019956721504e-01 -2.2138428090525111e-01 1.3661698493015140e-01 -2.5890376512382612e-01 -2.6135980487386301e-01 1.7300056395315350e-01 9.0208581964395657e-02 -3.3631730785973611e-02 -2.3445827182055629e-01 -1.6971695287555649e-01 2.1379233400793890e-01 -2.8122376251519171e-01 5.0505754619675422e-02 1.9188547357266256e-01 1.7897432835565302e-01 -2.4639409256968262e-01 -7.7894936454326949e-02 2.1236371771688142e-01 1.9054553596867072e-01 -7.5402651717802246e-03 -5.3995613531707995e-02 -2.4114516015449308e-01 4.3071360845225046e-02 -1.9163945514462960e-01 -1.1985874821443944e-01 2.0891698917175036e-01 -1.2442688112771827e-02 -2.3565182020865486e-01 -5.9368558063623976e-04 2.0116842883459621e-01 6.1644818649425573e-02 1.2233772384370972e-01 -2.1808980036821618e-01 2.0257638290515378e-01 -1.2548441503809601e-01 -1.4916832182557330e-01 -1.7980820919547971e-01 1.8972607805945804e-01 -2.3515637790700075e-01 -3.5400306204142508e-02 -1.0584731093031025e-01 -9.6301373593982526e-02 1.5320781386954385e-01 -1.4631282925389005e-01 1.3714680366704451e-01 -2.0538668360836398e-01 -1.1974588157814739e-01 8.0752510635935193e-02 2.7587452545375274e-01 -2.8114000116254440e-01 9.6857014523774002e-02 -1.6331651369378702e-01 1.7589417766565068e-02 2.8388989256509733e-01 -1.7296143676678563e-01 -1.0565025151934740e-01 -2.4660363865313273e-01 -1.6137275212107019e-01 -1.1173543255969183e-01 1.1240869419519291e-01 1.4583329295925596e-01 -7.8293897521190980e-02 -2.3762967151764847e-01 7.1497074616176021e-02 1.5544594279296445e-01 1.6724479802295292e-01 -1.6964639534511045e-01 2.0079255438967181e-01 1.9749438632153962e-01 2.0453898040438973e-01 1.4401088860415788e-02 -2.8937301602918220e-01 -3.0170575036454556e-02 -2.4535595506876390e-01 -1.7534409777833104e-01 5.0700187052529523e-02 -2.6565926998606099e-01 4.0492857399528660e-02 -1.7785082132747446e-01 -1.0051136387165553e-01 -1.2727865952546996e-01 -1.6822107918830601e-01 4.5144505772008597e-02 -2.3451207131620913e-01 -2.2657557019692659e-01 -2.2554695733647670e-01 -1.4139273484673218e-01 1.9669173567860787e-01 -2.2586754463453196e-01 1.4535072783621389e-01 -1.7461819075508603e-01 -2.8083625840896648e-01 -1.8728947175412264e-01 2.7725688390739323e-01 1.5873530148312823e-01 2.0846534077212861e-01 -2.0163687689751358e-01 -2.1500447116527160e-01 -1.3899622097280098e-01 -2.5185045972468972e-01 8.0057124700759708e-02 -1.5933581988374071e-01 6.4612294086878769e-02 1.8431711854197896e-01 -9.9943562426536500e-02 2.5286760734714444e-02 2.9806280896793880e-01 -9.8692507055982939e-02 -2.8872495158942946e-01 -1.7556217067075428e-01 2.9359090006322064e-01 -6.7650018446621676e-02 -2.3273365021604889e-01 8.5552557269929306e-03 2.0470733682029348e-02 -1.2532140218451387e-01 -1.1103635720925781e-01 -1.1190243219855382e-01 -6.1760587483028126e-04 -2.3347283843675692e-01 2.9689764785590061e-01 -8.2755410048472366e-02 9.2341160566908276e-02 2.3135428836095484e-01 -5.3420218644619120e-02 -1.9467888749758158e-01 -1.0770273626412361e-01 1.6098858913077574e-01 7.6167531980115791e-02 -9.7734315732134008e-02 1.4796770848583296e-01 -1.2084744658446069e-01 2.3141014681476746e-01 3.2423179168965678e-02 1.3226012210095742e-01 2.2072144859419909e-01 1.5120186764445512e-01 2.9594902792692190e-01 -7.7816471995803729e-02 2.3558034573399240e-02 1.2680005718211820e-01 2.0298507620841261e-02 -2.1209717958391969e-01 -2.9360748258746150e-01 1.1239909851149743e-01 -1.4806332461897870e-01 -1.3419396126292599e-01 -1.7303295817053077e-01 1.7599517710063459e-01 -2.4890652185214984e-01 2.0870136332799291e-01 -9.5709428101913491e-02 6.5789009184850523e-03 1.5281255354008294e-01 6.2713900310561746e-02 2.0121134933853699e-01 6.4275346567224306e-02 8.3847410997255359e-02 -1.0280135067692404e-01 -2.8271911642233655e-01 6.1757587232937422e-02 1.4835763381491648e-01 -8.1938203985456814e-02 -2.7341574289253917e-01 -1.3571700927377559e-02 -3.3811481466056184e-02 9.4124229525641132e-02 -1.6122073232834574e-01 -1.5911812306434547e-01 -2.5986656492630567e-01 1.0506047514830730e-01 -1.7109921902502956e-01 5.4318899669790449e-02 -4.9336349005337239e-02 -3.2456601059726017e-02 1.6490852605188794e-01 9.5881264041891123e-02 7.6058975177042951e-02 -2.1031066697724421e-01 -2.5055112982259670e-01 -2.6164348196539394e-01 2.8853130542426558e-01 -2.6522797632575540e-01 -1.3328912102083593e-01 6.5289570913501349e-02 -2.2636281647734585e-01 -1.9245940738752881e-01 -2.6111046035377994e-01 5.4756515712422850e-03 1.7888236596997242e-01 1.0929470244231886e-01 1.2300147579974667e-01 1.6160388983335816e-01 -2.2664263364878701e-01 2.2737119539142323e-01 9.7250010798773004e-02 -8.4591323716422875e-03 8.5186047927954839e-02 8.6903475398160013e-02 -2.8738613598852058e-02 1.0919560083832411e-01 1.6261863938387638e-01 8.6332089086418831e-02 1.1313171151885913e-01 -2.8745198009364099e-02 4.0421282340310595e-02 -5.8535778623913966e-02 4.1450297012770365e-02 -1.4236496142325803e-02 -2.6123044048077432e-01 1.0101233919377724e-01 -1.6223612554277136e-01 2.2798824131017451e-01 1.9826946063437381e-01 9.5322711951075931e-02 1.5031161347446137e-01 -1.8706123359219412e-01 1.1499669370093780e-01 2.0388996748667999e-02 -2.7809005561555183e-01 -2.0863855721399452e-01 -1.7303112474783414e-01 -1.1507591092608949e-01 -1.9459277994498275e-01 2.9012071686370511e-01 2.4032458730407135e-03 -5.3696503162079461e-02 -1.3824510937517300e-02 -3.0869765854006106e-02 2.0995149802616703e-01 1.3489867900449232e-02 1.4973818805973677e-01 -2.4156168516091914e-02 2.9594341004461427e-01 7.7160494171383306e-02 -4.8147910776277565e-02 1.2851168654880724e-01 3.4883296516709600e-02 -9.1106890608991069e-03 -1.0443847561633678e-01 -1.7656393729755229e-01 -5.0752209913460418e-02 -2.0252337349480196e-01 2.8300240409291760e-01 -1.9264442915225211e-01 5.4489267408525693e-02 2.5969589502920570e-01 8.0105105616147920e-02 -9.7687295702544613e-02 -2.0548095016284535e-02 -8.4483942003798496e-02 2.6649565995267260e-01 -1.7415271775217409e-01 1.5791714502512846e-01 2.6069922101762577e-01 -1.2563717347480299e-01 -4.4632313315316176e-02 1.2481828450200941e-01 -1.9817902455654784e-01 1.2632296540781529e-01 -3.5755860126962101e-02 3.6337844357289317e-02 -2.0224214243984506e-01 -1.8272128005664512e-01 1.1867928518358487e-01 2.5681124330351235e-01 -2.8854958190312358e-01 -3.2422784656936710e-02 1.1833159747300889e-01 -2.7208210078925782e-01 -4.5129844110859671e-02 -5.6223190536849772e-02 2.4229021813772333e-01 -2.6770299601775155e-01 -1.7222696832636319e-01 -2.4996154668238299e-01 -2.4373636937366569e-01 1.6340859941801072e-01 -2.9968342698879974e-01 -5.7667414248714485e-03 -1.3256202223974317e-01 -1.2016880473583137e-01 -2.3154431873263739e-01 3.1419416311027387e-01 2.2742529832761196e-01 -2.0268277896384695e-01 -4.9225855407883733e-02 8.6147705297402247e-03 -1.4313923733577610e-01 -1.4914596171126654e-01 -4.6118287318174821e-02 -9.8773180563519594e-02 5.6541688691157888e-02 2.4467302088389925e-01 -1.5549327430535123e-01 1.2615497208543847e-01 -2.7604195412456400e-01 1.7180162787002309e-01 -2.4906745821113682e-01 1.1710329739329362e-02 1.1748861092508432e-01 -1.3250031114619165e-01 -2.2997309595373103e-01 -2.2049435069641848e-01 -9.7952825600674226e-02 -2.4794419433093917e-01 3.8878378192313261e-02 -1.7892287000126647e-01 -4.8044144484044309e-02 -2.1268585695428596e-01 2.0163783007400626e-01 6.7843916838640717e-02 2.4918895826565282e-01 2.2551001892843062e-01 -1.1606211621589244e-01 -1.3087822596903628e-03 -9.2406776455586953e-02 -3.5335615922242131e-02 5.8094810623040852e-02 4.0778540339591385e-02 -2.6508919245157025e-01 2.2031725739047539e-01 1.3717801984841451e-02 2.1297137155529169e-01 2.6666090376970254e-02 -7.5300035552546371e-02 -1.4840721078890462e-01 1.1889419066200714e-01 1.7844124987842822e-01 -1.5652638367995314e-01 2.1970373839034774e-01 8.9741523851814248e-02 -3.5968642834912488e-02 -2.1804196123214994e-01 -2.6554416264496966e-01 2.0644445778482964e-01 1.6858584122976192e-01 -2.7895554637817305e-01 2.7637132613110782e-01 -1.7277747859033847e-02 -2.3516431155924583e-01 -1.5076097008414018e-02 2.9222925737333844e-01 -1.5748996463550224e-01 -1.0153254431790555e-01 2.2725906550515895e-01 -1.0545774822666783e-01 5.8195199884943519e-03 -2.8266950810031402e-02 2.0240456634813855e-01 2.0636027445301364e-01 2.5965843413617434e-01 1.4004445125941919e-01 -4.3233648828220970e-02 -2.1806954916743551e-01 -2.1353149328766538e-01 7.2890396200052554e-02 -3.6207413928461024e-02 1.6525943567973522e-01 -1.3647138589332811e-01 1.6565119119020044e-01 -2.1675592847217720e-02 1.1355288967412490e-01 -2.5383508340251876e-01 6.4986942365397912e-02 2.0651138114228033e-02 -8.0998812134498416e-02 8.5872599372619110e-02 2.2278633416150981e-01 -2.0264405655873424e-01 4.8357450983997047e-02 -1.9063578681216189e-01 2.5312171701105252e-01 -9.9833458952443568e-02 -2.4041197524985386e-01 2.7491337908725150e-01 1.8267821889063882e-01 -7.5589167362449181e-02 2.4561890546201728e-01 1.4340693345601002e-01 -1.7463417577017482e-01 7.9687726619248486e-02 2.8303768585451322e-01 2.5147788426365258e-01 1.6289454651490654e-01 2.5256613296577740e-01 2.6011034131905159e-01 -1.2049549975868931e-01 -2.7820118621473172e-01 5.9000796265010896e-02 -2.9346926753611691e-01 -2.5203019317341380e-01 1.9214755901650002e-01 -2.8021671288928790e-01 2.8054521957133305e-01 -1.4211442957934882e-02 -6.9576517116130582e-02 -1.9456939293118541e-01 -1.6808719931903940e-01 2.4521395526384016e-01 -1.7877064652016308e-01 -1.6852472319486347e-01 7.0685903417377585e-02 -2.5030819436613028e-01 2.4071242742733323e-01 -1.5712541070767597e-01 2.0360818225486191e-01 -1.5866982284140266e-01 2.5148728061624437e-01 -2.5689196220026067e-01 2.9377419980868480e-01 1.8442549529539928e-01 -2.3189183176595260e-01 -2.5355407542258832e-02 -1.9659128324873229e-01 5.5619516641589505e-02 4.0853466335730719e-02 2.5722873354131959e-01 6.6319873189243678e-02 1.4949145063136438e-01 3.0197685311732564e-01 1.3426382535021408e-02 2.3650108444311183e-01 -2.7261688055451755e-01 2.1644112456234138e-01 -2.3277594194714943e-01 1.8134829270933053e-01 -1.5485166774293860e-01 5.9554810235329436e-02 2.7289593049347316e-01 3.4582070031669802e-03 1.8789505473863755e-01 3.4315560495423565e-02 1.6412011260857728e-01 -4.9662886412803010e-02 -1.3685338022952620e-01 -2.7672299617187807e-01 -2.4530877619719690e-01 1.3064797736151246e-01 -2.3797282363914168e-01 2.2262530754916776e-01 -1.1038671243560103e-02 2.8012412418842690e-02 6.0607361096509375e-02 5.8087950333598939e-02 -7.3185044236812824e-02 2.8572096037112443e-01 1.6329833157524953e-01 2.3978423717228248e-01 -1.5087856027023952e-01 1.7315923627552926e-01 -1.4399551867070454e-01 1.0902234431441983e-01 4.3414956165201739e-02 1.0691578519560344e-01 -9.6295114333580067e-02 2.2658934289122190e-02 3.4841160415202778e-02 -6.8052503719047391e-02 2.7469460714584063e-02 -2.6803429607598922e-01 1.4161028329597358e-01 1.8393812748036800e-01 -2.3750464279496256e-01 -6.2941927370427586e-02 1.5736906293322092e-01 9.6210700451072717e-02 -2.6245753048163865e-02 9.2181100122148765e-02 8.6882714108059575e-02 -1.8908552085997632e-01 -2.7919757977901315e-02 8.5059739739975326e-02 7.6829316356021721e-02 1.3670718452320971e-01 -4.8332274596405728e-03 2.3334031794192489e-01 -2.9790261531040257e-01 -1.2986835730520785e-01 7.5397375609624284e-02 2.2190293107316111e-01 2.3360108494592816e-01 -3.1446099625667662e-01 -2.8444143989258647e-01 2.2562817188013556e-01 -2.5294413574419600e-01 -1.5180986896437923e-01 -1.1752489880673087e-01 2.2801570275636250e-02 -2.8710032985449807e-01 2.5926765314899991e-01 2.0533150367619452e-01 1.2742160423905050e-01 -3.0056644167419777e-01 -5.4429728625880136e-02 1.3857998286493490e-02 -2.0639356561834662e-01 2.8174815915187968e-03 -2.7724230696090690e-01 -4.7379850697965966e-03 -1.8357177072927047e-01 -1.7621263597031825e-01 1.2409158539389187e-01 -2.5965386030350229e-01 -1.2970283964507529e-01 -1.0713222569472144e-01 1.5278875471532560e-01 -2.2600578432788626e-01 6.7946859145585322e-03 -2.5903741644934947e-02 -1.7746898714347420e-01 2.0900457132010472e-01 7.4492749040477729e-02 -1.2046453418241461e-02 -2.4451412377596246e-01 -4.3106968659283623e-02 -1.0693697669563953e-02 -1.4738134439493314e-01 -2.1764004943256016e-01 7.3233635204137962e-02 -1.2155504320304435e-01 -2.6616365727373115e-01 2.2575612025688610e-01 -2.5338658189735974e-01 2.2736520689734363e-01 1.4279511450676508e-01 -1.7169089780579105e-01 5.2557824265435447e-02 -1.2173862922968472e-01 9.9262858484236285e-02 1.7190734856161202e-01 1.1120409521652477e-01 2.7165342751278437e-01 1.0894519321475475e-01 -6.7207924126330962e-02 2.8422894427670187e-01 -1.6443960948739123e-02 5.0050936018264915e-02 -1.5457649266701732e-02 2.8215469078222649e-01 -2.1522411593066085e-01 -2.9200054882972309e-01 6.0584992011477046e-02 -1.7142860556128700e-01 1.5294678341952986e-01 8.0964296088417473e-02 1.5356816596583134e-01 8.8733969959182521e-02 -2.8311219751732869e-01 -2.7975111359132349e-01 -5.3929385754722454e-02 -1.8451824853338095e-01 -7.0661857072153902e-02 -2.2473040506024650e-01 2.2246301323060316e-01 -2.7762983308782636e-02 -2.0002393608467783e-01 1.8355595374588948e-01 1.3115074885972955e-01 2.8396564835978039e-01 6.6292126118446537e-03 6.3109498040378798e-02 1.5551225491835288e-01 2.3310302499278457e-01 2.4537258992934205e-01 2.7151335123259523e-01 -2.7945729905813887e-01 1.2865299677131814e-01 -1.3967449012908287e-01 -1.0124414489139641e-01 -5.8478170994654938e-02 1.8979794764884100e-01 -2.0440369251309684e-01 -1.6612145664047159e-01 1.2144290122702282e-01 -2.3267006375494292e-01 1.3543223450478052e-02 -2.3376129339623863e-01 -1.2213952220070587e-01 -9.2282810429220069e-02 -1.9996010868744865e-01 -1.0060953533842180e-02 -6.9266330588306765e-02 -4.4464670321128344e-02 1.8853626801312376e-01 3.0534460364056971e-02 -7.2900804806497688e-02 -2.9195215000740512e-02 -7.6879817889437202e-03 1.9472183341749433e-01 2.8972126386206488e-02 -6.3253613184434173e-03 2.4631400624026847e-01 7.2651847190114666e-02 -1.9857797836970320e-01 -2.3170488312968679e-01 1.0710962162463297e-01 2.4229079504575854e-01 2.8069355528594780e-01 -1.3934597585981177e-02 -2.7973166430920793e-01 1.5768884716487686e-02 -1.3297050026317347e-01 -2.8004671110780869e-02 -2.9838643033748158e-01 1.8048756238081901e-01 -1.3020377414497200e-01 -4.7123066393116642e-02 2.6530766138814022e-03 7.7939265855215909e-03 1.6379813731693091e-01 2.6246665383653606e-01 2.1132922697712561e-01 -9.8904735905459951e-02 -2.9706028497043740e-01 -2.0875576731135978e-01 -2.4081632394648447e-01 -2.7669863891699665e-02 -2.1620219080532399e-01 -1.6997696954081196e-01 -4.0965502339052842e-02 1.5650710147900240e-01 5.6593465355391739e-02 2.4066755011479257e-01 1.4019785976773952e-01 -2.9802905668756985e-02 -2.1605169230626450e-01 1.8087932477670576e-01 -4.2639701323108965e-02 2.5905444405214478e-01 -4.0490581693242308e-02 -6.1827742616188758e-02 2.5845630015070431e-01 5.7946186002180509e-02 6.0607560180845864e-02 1.5395865845844633e-01 7.1807597881687071e-02 -9.7440900676397185e-02 -2.8743433808477276e-01 1.2517982364745053e-01 -1.6050801121117986e-01 -1.6787791320691990e-02 -5.1723699139066832e-02 1.2344895371458743e-01 -2.9266695572353274e-01 -2.0906521372352493e-01 -4.0674650241220842e-02 -1.7810382349654053e-01 -1.1731720644281443e-01 -2.7973571063198893e-01 1.5000369731647761e-01 -1.2005830630468388e-01 9.5897129255509098e-02 2.6706273005987008e-01 -1.3322530029672480e-01 -1.1704230013720725e-01 -5.0369871085186993e-02 2.7629368334131499e-01 1.5890659644018817e-01 2.1613432524877219e-01 -5.4888417605160437e-02 -1.5113918765141807e-01 9.6123247303041032e-02 -2.0243710120431821e-01 -8.6353540632925538e-02 2.4719724065523754e-01 -2.3737166953282055e-01 1.0497383377788404e-01 -1.1179378050606328e-01 -1.6856551939847755e-01 -2.7541539423082736e-02 -2.5340015308320180e-01 -2.4832575443228522e-01 -2.3522109360512741e-01 1.2969079702844988e-01 -1.6821449225207988e-01 -1.8771487707756424e-01 
      </Weights>
      <Biases rows="128" cols="1">
        -1.5545060131815186e-01 7.5712579006025085e-02 -1.4228839659538456e-01 -2.4916069340923516e-01 6.5220764773988305e-02 2.8134790526926551e-01 -2.9971956203659968e-02 4.0530800889420175e-02 -2.4400987538330796e-01 -2.6622379952896363e-01 1.5757245238543091e-01 -1.4073831394684103e-01 1.4864038777707292e-01 2.0531521861864580e-02 7.5211773008141252e-06 5.5251494759286521e-02 1.2217468578904297e-01 -2.6137815041122481e-01 -1.7579418449680559e-01 2.8982308386094585e-01 -1.5460945079521887e-01 2.0052963899252083e-02 -2.9255934926269023e-01 2.7131125310588228e-01 2.4003376756994776e-01 2.9307952043916174e-01 8.8580416156943009e-02 -2.6483291986993962e-01 -1.6063670650101866e-01 -1.7938813792928046e-01 -2.8914114687506648e-01 -8.8637880575131653e-02 -1.6353158877405492e-02 2.2728100665395504e-01 1.2334810883626653e-01 2.3265346618254779e-01 -1.0811320436655537e-02 -1.9397021535096440e-02 1.6539538865048398e-01 -1.5893429586493160e-01 -1.2928850224110369e-01 2.4486716885776399e-01 2.3908914343290613e-01 1.7044515238463012e-01 2.8616604727937761e-01 -1.6275389148417682e-01 2.4357429131529199e-01 -2.0744355810755322e-01 -2.8778898052601515e-01 -1.5471674623330306e-01 -7.0520994511294649e-02 -1.0756812299740290e-01 -1.9413011339882466e-01 -2.4945860178543083e-01 -2.1571231659247878e-01 2.8584334310877302e-01 2.7685416676781094e-01 8.8461304132421287e-02 -2.0717559178421877e-01 -1.8754321219545267e-01 -2.5065404096969701e-01 -1.9874543326397842e-01 -1.3262217380558505e-02 5.5891474996761288e-02 4.5352458696119556e-02 -1.1015188588092416e-01 1.0373502203789760e-01 -2.6949110965145701e-01 2.2225156964700812e-01 -4.1617206724566466e-02 1.9041413320523740e-01 1.4985125519541517e-01 2.2657402066017157e-01 -1.8366189236297137e-01 4.0260333418141572e-02 4.3798713409179471e-02 2.7319947544578965e-01 1.4178257875767628e-01 1.3912344668696999e-01 -1.6631705549595885e-01 -2.7272275821104003e-01 1.1499198134428526e-01 2.1653923724269863e-01 6.5593912890173850e-03 1.4297830443230494e-01 -2.5641721754568214e-01 1.5791829512576397e-01 1.3121583018486069e-01 1.3595629889802793e-01 -1.2559435818323811e-01 2.8488040801139963e-01 2.2827699439753288e-01 2.9975529038284682e-01 -1.2288643779135958e-01 -6.5964421228421411e-03 -2.8866664743842925e-02 1.5546510637005134e-01 -2.6282698132206511e-01 -2.6395645457134037e-01 1.2513514299184311e-01 -4.9994100560741862e-02 2.7928883968553775e-01 2.4553269825875478e-02 1.3289165149429832e-01 8.4648087856694670e-02 -2.2526207808215526e-01 1.1431532286602801e-01 -2.9572251797243959e-01 7.8853029024169075e-02 -1.1611049327567642e-01 4.6375078463934426e-02 2.6835899317280858e-02 -2.4485829653490481e-02 -8.8585221363449193e-02 1.9920522456990150e-01 2.1779245672054862e-01 9.2360658597532341e-02 -5.8068542819444159e-03 -1.9865162053582627e-01 -2.4387847976150306e-01 1.0330391438545249e-01 1.0817027317623654e-01 -1.2928035621395648e-01 -1.9963253229031247e-01 -3.3687857093942061e-03 -2.6061474712755950e-01 -2.2873787078515542e-01 1.1599624966666935e-01 
      </Biases>
    </Layer>
    <Layer ActivationFunction="3">
      <Weights rows="128" cols="128">
