<?xml version="1.0"?>
<MethodSetup Method="MLP::MLP">
  <GeneralInfo>
    <Info name="TMVA Release" value="4.2.1 [262657]"/>
    <Info name="ROOT Release" value="6.08/07 [395271]"/>
    <Info name="Creator" value="wverbeke"/>
    <Info name="Date" value="Tue Dec  5 02:11:40 2017"/>
    <Info name="Host" value="Linux vocms0302.cern.ch 2.6.32-696.1.1.el6.x86_64 #1 SMP Wed Apr 12 08:44:28 CEST 2017 x86_64 x86_64 x86_64 GNU/Linux"/>
    <Info name="Dir" value="/storage_mnt/storage/user/wverbeke/Work/AnalysisCode/ewkino/bdtTraining/bdtTrainingsubmit"/>
    <Info name="Training events" value="10124"/>
    <Info name="TrainingTime" value="1.03346870e+02"/>
    <Info name="AnalysisType" value="Classification"/>
  </GeneralInfo>
  <Options>
    <Option name="NCycles" modified="Yes">600</Option>
    <Option name="HiddenLayers" modified="Yes">N+5</Option>
    <Option name="NeuronType" modified="Yes">tanh</Option>
    <Option name="RandomSeed" modified="No">1</Option>
    <Option name="EstimatorType" modified="No">CE</Option>
    <Option name="NeuronInputType" modified="No">sum</Option>
    <Option name="V" modified="Yes">False</Option>
    <Option name="VerbosityLevel" modified="No">Default</Option>
    <Option name="VarTransform" modified="Yes">N</Option>
    <Option name="H" modified="Yes">True</Option>
    <Option name="CreateMVAPdfs" modified="No">False</Option>
    <Option name="IgnoreNegWeightsInTraining" modified="No">False</Option>
    <Option name="TrainingMethod" modified="No">BP</Option>
    <Option name="LearningRate" modified="No">2.000000e-02</Option>
    <Option name="DecayRate" modified="No">1.000000e-02</Option>
    <Option name="TestRate" modified="Yes">5</Option>
    <Option name="EpochMonitoring" modified="No">False</Option>
    <Option name="Sampling" modified="No">1.000000e+00</Option>
    <Option name="SamplingEpoch" modified="No">1.000000e+00</Option>
    <Option name="SamplingImportance" modified="No">1.000000e+00</Option>
    <Option name="SamplingTraining" modified="No">True</Option>
    <Option name="SamplingTesting" modified="No">False</Option>
    <Option name="ResetStep" modified="No">50</Option>
    <Option name="Tau" modified="No">3.000000e+00</Option>
    <Option name="BPMode" modified="No">sequential</Option>
    <Option name="BatchSize" modified="No">-1</Option>
    <Option name="ConvergenceImprove" modified="No">1.000000e-30</Option>
    <Option name="ConvergenceTests" modified="No">-1</Option>
    <Option name="UseRegulator" modified="Yes">False</Option>
    <Option name="UpdateLimit" modified="No">10000</Option>
    <Option name="CalculateErrors" modified="No">False</Option>
    <Option name="WeightRange" modified="No">1.000000e+00</Option>
  </Options>
  <Variables NVar="15">
    <Variable VarIndex="0" Expression="topMass" Label="topMass" Title="topMass" Unit="" Internal="topMass" Type="F" Min="0.00000000e+00" Max="3.13443433e+03"/>
    <Variable VarIndex="1" Expression="etaMostForward" Label="etaMostForward" Title="etaMostForward" Unit="" Internal="etaMostForward" Type="F" Min="1.30448694e-04" Max="2.84039593e+00"/>
    <Variable VarIndex="2" Expression="pTLeadingJet" Label="pTLeadingJet" Title="pTLeadingJet" Unit="" Internal="pTLeadingJet" Type="F" Min="2.50015526e+01" Max="1.60782019e+03"/>
    <Variable VarIndex="3" Expression="pTLeadingLepton" Label="pTLeadingLepton" Title="pTLeadingLepton" Unit="" Internal="pTLeadingLepton" Type="F" Min="2.62393208e+01" Max="7.21943726e+02"/>
    <Variable VarIndex="4" Expression="mNotSoForwardJets" Label="mNotSoForwardJets" Title="mNotSoForwardJets" Unit="" Internal="mNotSoForwardJets" Type="F" Min="0.00000000e+00" Max="2.70412689e+02"/>
    <Variable VarIndex="5" Expression="missingET" Label="missingET" Title="missingET" Unit="" Internal="missingET" Type="F" Min="3.47164243e-01" Max="1.14455701e+03"/>
    <Variable VarIndex="6" Expression="highestDeepCSV" Label="highestDeepCSV" Title="highestDeepCSV" Unit="" Internal="highestDeepCSV" Type="F" Min="6.32408917e-01" Max="9.99999404e-01"/>
    <Variable VarIndex="7" Expression="minMlb" Label="minMlb" Title="minMlb" Unit="" Internal="minMlb" Type="F" Min="-2.42446854e+02" Max="1.17017871e+03"/>
    <Variable VarIndex="8" Expression="etaZ" Label="etaZ" Title="etaZ" Unit="" Internal="etaZ" Type="F" Min="1.20927762e-04" Max="6.44222164e+00"/>
    <Variable VarIndex="9" Expression="m3l" Label="m3l" Title="m3l" Unit="" Internal="m3l" Type="F" Min="8.69279938e+01" Max="1.15016394e+03"/>
    <Variable VarIndex="10" Expression="maxDeltaPhill" Label="maxDeltaPhill" Title="maxDeltaPhill" Unit="" Internal="maxDeltaPhill" Type="F" Min="3.60684395e-02" Max="3.14158797e+00"/>
    <Variable VarIndex="11" Expression="pTMaxlb" Label="pTMaxlb" Title="pTMaxlb" Unit="" Internal="pTMaxlb" Type="F" Min="2.37251358e+01" Max="1.70798035e+03"/>
    <Variable VarIndex="12" Expression="pT3l" Label="pT3l" Title="pT3l" Unit="" Internal="pT3l" Type="F" Min="1.03410971e+00" Max="1.09975488e+03"/>
    <Variable VarIndex="13" Expression="mForwardJetsLeadinBJetW" Label="mForwardJetsLeadinBJetW" Title="mForwardJetsLeadinBJetW" Unit="" Internal="mForwardJetsLeadinBJetW" Type="F" Min="0.00000000e+00" Max="3.13443433e+03"/>
    <Variable VarIndex="14" Expression="ht" Label="ht" Title="ht" Unit="" Internal="ht" Type="F" Min="2.50015526e+01" Max="1.60782019e+03"/>
  </Variables>
  <Spectators NSpec="0"/>
  <Classes NClass="2">
    <Class Name="Signal" Index="0"/>
    <Class Name="Background" Index="1"/>
  </Classes>
  <Transformations NTransformations="1">
    <Transform Name="Normalize">
      <Selection>
        <Input NInputs="15">
          <Input Type="Variable" Label="topMass" Expression="topMass"/>
          <Input Type="Variable" Label="etaMostForward" Expression="etaMostForward"/>
          <Input Type="Variable" Label="pTLeadingJet" Expression="pTLeadingJet"/>
          <Input Type="Variable" Label="pTLeadingLepton" Expression="pTLeadingLepton"/>
          <Input Type="Variable" Label="mNotSoForwardJets" Expression="mNotSoForwardJets"/>
          <Input Type="Variable" Label="missingET" Expression="missingET"/>
          <Input Type="Variable" Label="highestDeepCSV" Expression="highestDeepCSV"/>
          <Input Type="Variable" Label="minMlb" Expression="minMlb"/>
          <Input Type="Variable" Label="etaZ" Expression="etaZ"/>
          <Input Type="Variable" Label="m3l" Expression="m3l"/>
          <Input Type="Variable" Label="maxDeltaPhill" Expression="maxDeltaPhill"/>
          <Input Type="Variable" Label="pTMaxlb" Expression="pTMaxlb"/>
          <Input Type="Variable" Label="pT3l" Expression="pT3l"/>
          <Input Type="Variable" Label="mForwardJetsLeadinBJetW" Expression="mForwardJetsLeadinBJetW"/>
          <Input Type="Variable" Label="ht" Expression="ht"/>
        </Input>
        <Output NOutputs="15">
          <Output Type="Variable" Label="topMass" Expression="topMass"/>
          <Output Type="Variable" Label="etaMostForward" Expression="etaMostForward"/>
          <Output Type="Variable" Label="pTLeadingJet" Expression="pTLeadingJet"/>
          <Output Type="Variable" Label="pTLeadingLepton" Expression="pTLeadingLepton"/>
          <Output Type="Variable" Label="mNotSoForwardJets" Expression="mNotSoForwardJets"/>
          <Output Type="Variable" Label="missingET" Expression="missingET"/>
          <Output Type="Variable" Label="highestDeepCSV" Expression="highestDeepCSV"/>
          <Output Type="Variable" Label="minMlb" Expression="minMlb"/>
          <Output Type="Variable" Label="etaZ" Expression="etaZ"/>
          <Output Type="Variable" Label="m3l" Expression="m3l"/>
          <Output Type="Variable" Label="maxDeltaPhill" Expression="maxDeltaPhill"/>
          <Output Type="Variable" Label="pTMaxlb" Expression="pTMaxlb"/>
          <Output Type="Variable" Label="pT3l" Expression="pT3l"/>
          <Output Type="Variable" Label="mForwardJetsLeadinBJetW" Expression="mForwardJetsLeadinBJetW"/>
          <Output Type="Variable" Label="ht" Expression="ht"/>
        </Output>
      </Selection>
      <Class ClassIndex="0">
        <Ranges>
          <Range Index="0" Min="0.0000000000000000e+00" Max="1.3532542724609375e+03"/>
          <Range Index="1" Min="2.5692759663797915e-04" Max="2.8403959274291992e+00"/>
          <Range Index="2" Min="2.5015459060668945e+01" Max="6.1611621093750000e+02"/>
          <Range Index="3" Min="2.6239320755004883e+01" Max="4.8765811157226562e+02"/>
          <Range Index="4" Min="0.0000000000000000e+00" Max="1.3063139343261719e+02"/>
          <Range Index="5" Min="3.8933092355728149e-01" Max="4.4765673828125000e+02"/>
          <Range Index="6" Min="6.3292914628982544e-01" Max="9.9999940395355225e-01"/>
          <Range Index="7" Min="-2.4244685363769531e+02" Max="4.0210260009765625e+02"/>
          <Range Index="8" Min="2.9628502670675516e-04" Max="6.4385628700256348e+00"/>
          <Range Index="9" Min="8.9294990539550781e+01" Max="8.1060644531250000e+02"/>
          <Range Index="10" Min="2.9203581809997559e-01" Max="3.1413967609405518e+00"/>
          <Range Index="11" Min="2.3725135803222656e+01" Max="6.3197283935546875e+02"/>
          <Range Index="12" Min="1.1689796447753906e+00" Max="6.9485974121093750e+02"/>
          <Range Index="13" Min="0.0000000000000000e+00" Max="1.3532542724609375e+03"/>
          <Range Index="14" Min="2.5015459060668945e+01" Max="6.1611621093750000e+02"/>
        </Ranges>
      </Class>
      <Class ClassIndex="1">
        <Ranges>
          <Range Index="0" Min="0.0000000000000000e+00" Max="3.1344343261718750e+03"/>
          <Range Index="1" Min="1.3044869410805404e-04" Max="2.7568137645721436e+00"/>
          <Range Index="2" Min="2.5001552581787109e+01" Max="1.6078201904296875e+03"/>
          <Range Index="3" Min="2.6827274322509766e+01" Max="7.2194372558593750e+02"/>
          <Range Index="4" Min="0.0000000000000000e+00" Max="2.7041268920898438e+02"/>
          <Range Index="5" Min="3.4716424345970154e-01" Max="1.1445570068359375e+03"/>
          <Range Index="6" Min="6.3240891695022583e-01" Max="9.9999862909317017e-01"/>
          <Range Index="7" Min="-2.3349526977539062e+02" Max="1.1701787109375000e+03"/>
          <Range Index="8" Min="1.2092776159988716e-04" Max="6.4422216415405273e+00"/>
          <Range Index="9" Min="8.6927993774414062e+01" Max="1.1501639404296875e+03"/>
          <Range Index="10" Min="3.6068439483642578e-02" Max="3.1415879726409912e+00"/>
          <Range Index="11" Min="2.6793367385864258e+01" Max="1.7079803466796875e+03"/>
          <Range Index="12" Min="1.0341097116470337e+00" Max="1.0997548828125000e+03"/>
          <Range Index="13" Min="0.0000000000000000e+00" Max="3.1344343261718750e+03"/>
          <Range Index="14" Min="2.5001552581787109e+01" Max="1.6078201904296875e+03"/>
        </Ranges>
      </Class>
      <Class ClassIndex="2">
        <Ranges>
          <Range Index="0" Min="0.0000000000000000e+00" Max="3.1344343261718750e+03"/>
          <Range Index="1" Min="1.3044869410805404e-04" Max="2.8403959274291992e+00"/>
          <Range Index="2" Min="2.5001552581787109e+01" Max="1.6078201904296875e+03"/>
          <Range Index="3" Min="2.6239320755004883e+01" Max="7.2194372558593750e+02"/>
          <Range Index="4" Min="0.0000000000000000e+00" Max="2.7041268920898438e+02"/>
          <Range Index="5" Min="3.4716424345970154e-01" Max="1.1445570068359375e+03"/>
          <Range Index="6" Min="6.3240891695022583e-01" Max="9.9999940395355225e-01"/>
          <Range Index="7" Min="-2.4244685363769531e+02" Max="1.1701787109375000e+03"/>
          <Range Index="8" Min="1.2092776159988716e-04" Max="6.4422216415405273e+00"/>
          <Range Index="9" Min="8.6927993774414062e+01" Max="1.1501639404296875e+03"/>
          <Range Index="10" Min="3.6068439483642578e-02" Max="3.1415879726409912e+00"/>
          <Range Index="11" Min="2.3725135803222656e+01" Max="1.7079803466796875e+03"/>
          <Range Index="12" Min="1.0341097116470337e+00" Max="1.0997548828125000e+03"/>
          <Range Index="13" Min="0.0000000000000000e+00" Max="3.1344343261718750e+03"/>
          <Range Index="14" Min="2.5001552581787109e+01" Max="1.6078201904296875e+03"/>
        </Ranges>
      </Class>
    </Transform>
  </Transformations>
  <MVAPdfs/>
  <Weights>
    <Layout NLayers="3">
      <Layer Index="0" NNeurons="16">
        <Neuron NSynapses="20">
          -3.5898379520379375e-01 1.9886972808356580e+00 8.4906450079636830e-01 1.7837108584452399e+00 -1.9987654971393083e+00 -1.4820590344684015e+00 -4.6471611491892423e-01 1.9923478174271010e+00 -1.4649595481348925e+00 -9.8919602726677913e-01 -1.6305620965294254e+00 -4.1833544417261337e-01 -1.2677132391621839e+00 -5.2867443377068224e-01 -6.3407381789670436e-01 6.7138502084448171e-01 -4.1274725704202392e-01 1.9424650348760690e+00 1.5939391157819841e-01 1.3874016540945473e+00 
        </Neuron>
        <Neuron NSynapses="20">
          -9.4867084682872388e-02 -7.4757588336100422e-01 7.7105006205089410e-01 1.5712368112278863e-01 -1.1826398134455312e+00 -2.2642821264463486e-01 1.4121178642493841e+00 -1.0835439853385114e+00 -1.8356424277079439e+00 8.4701825551460996e-02 6.8129929448726934e-01 1.6615916211941748e+00 -3.2227700303584489e-01 -9.3787432003746410e-02 2.6455407513407281e-01 -2.6758666570041173e-01 -1.4385320499259344e+00 1.6878909948163694e+00 -1.2104449304140743e+00 1.1118227636482829e+00 
        </Neuron>
        <Neuron NSynapses="20">
          1.1393968750495174e+00 8.6276065376885702e-01 1.8240212804637139e+00 1.2641620876470483e+00 -7.4538203559114224e-01 -1.6237945709393777e+00 1.1279160071634591e+00 6.9795820418498966e-02 1.4352792385779385e+00 1.5387198214193951e+00 1.5786301939390430e+00 1.3173502082663913e+00 -1.6716211968069534e+00 1.2060082627588522e+00 -1.8687396634013995e+00 -9.1228625098832949e-01 -1.3204767666456652e+00 -1.5275931524021782e+00 1.5171378888490374e+00 6.8366602299866830e-01 
        </Neuron>
        <Neuron NSynapses="20">
          -1.6256268955471271e+00 3.6994731134703729e-01 -3.4341569203125127e-01 7.3632831214132988e-01 1.8328124662673630e+00 -3.4627290166134261e-01 4.4328929804579753e-01 -1.2110704437179904e+00 6.9414196263612482e-01 -7.8328813125517616e-01 -7.3933793367847389e-01 -1.4115801890329580e+00 7.3682369045427976e-01 1.0412793090968471e+00 1.3204867360119832e+00 -3.3917502751944473e-01 -1.9267254937028271e+00 -1.6596399563838395e+00 1.0047680193360624e+00 4.9467309526408726e-01 
        </Neuron>
        <Neuron NSynapses="20">
          1.8844673022027556e+00 6.3938146838302046e-01 9.4094657426623129e-01 -7.5155560351071393e-01 -8.7780383517280192e-01 -2.0661116453999134e-01 1.4518350157658804e+00 -1.1099201882442304e+00 -1.6477532435688540e+00 -1.6578628356528875e+00 -2.0889004667159472e-01 -1.0161352984631340e-01 1.6341530021893449e+00 -1.7706421565120813e+00 -8.4917169413751803e-01 1.6295087203326817e+00 -8.4878342353944414e-01 -1.3017981843966271e+00 -1.4769094370531943e+00 9.7331866612218668e-02 
        </Neuron>
        <Neuron NSynapses="20">
          -1.9953573008059382e+00 -1.6664639316514263e+00 6.6741104158299824e-01 1.7132118894189783e+00 -1.1522660817973311e+00 1.6506404315486671e+00 -5.8722967700846185e-01 -8.0572740016633504e-01 -1.0309167407913031e-01 4.1821279439632497e-01 -1.7862438450817981e+00 2.5828497112218030e-01 2.7859674345348545e-01 3.4552905482170981e-01 -1.4361734051461630e+00 1.8195917184752333e+00 3.5744693692630736e-01 -7.3912193968218376e-01 8.0344642867051652e-01 -1.0736770554033368e+00 
        </Neuron>
        <Neuron NSynapses="20">
          -1.8505510101670899e+00 1.3438630502912072e-01 -3.2985945256689914e-01 1.7507551628094993e+00 7.7708055724366054e-01 -3.6372372830985454e-02 -3.1924123716405894e-01 1.6214522961633451e-01 -1.7777847914651208e+00 1.0540341717287232e+00 1.4448934388107848e-01 -1.8084350218473144e+00 6.6835901626055116e-01 -1.4688267755260354e+00 3.0598974869726642e-02 1.1725834953310861e+00 1.7785258747276502e+00 -1.8649254747434341e+00 3.4650662688590683e-01 1.5319068037309438e+00 
        </Neuron>
        <Neuron NSynapses="20">
          1.5765362413144994e+00 1.6201026023258602e-01 -1.4787721926375317e+00 -1.7462721205035861e-01 -1.4427023513839987e+00 1.5711481515717785e+00 1.4215357697351125e+00 -4.8968459521005359e-01 -4.4397232436735901e-01 1.9109527592275027e-01 -1.3386813713017893e+00 6.1507014942749549e-01 1.7087348707478052e+00 -6.2700136493366831e-01 -6.2389838301623890e-01 2.8561507346425952e-01 1.0033387233794044e+00 6.8518878861550248e-01 9.0637112614953608e-01 -1.4946482551975102e+00 
        </Neuron>
        <Neuron NSynapses="20">
          1.3946557583002459e+00 7.5676932332832181e-01 4.0796225033388500e-01 6.3528223962198105e-01 1.0056206088449811e+00 -5.7258244097819777e-01 -3.2899778398362373e-01 1.0653268391324979e+00 -9.9847553555488222e-01 -4.8656004596308100e-01 1.5828496373323768e+00 1.0275807919564672e+00 -3.0518651657741658e-01 1.3350042361340309e+00 1.8313439056544998e+00 -1.9395917072446012e+00 6.5396507088677980e-01 1.9723755185250175e-01 4.9069564936835375e-01 -1.7067613238478478e+00 
        </Neuron>
        <Neuron NSynapses="20">
          -1.5145296385202307e+00 1.1450645778537634e+00 1.7849545431784863e+00 -1.6941327002247686e+00 -1.9863208716881892e-01 -5.6739748775112797e-01 6.2356028580676426e-01 1.7707674645589335e+00 -4.4690163476770967e-01 -4.2252829412312826e-01 -1.0535380187219145e+00 1.0721201342378130e+00 1.5977869234616275e+00 1.0057680757417056e+00 2.8567050901995772e-01 -7.8137034606663947e-01 -1.9884147852768401e+00 1.2792740495067318e+00 4.7316074432655064e-01 -1.3900839036237025e+00 
        </Neuron>
        <Neuron NSynapses="20">
          -5.7267050530443286e-01 3.1586138960973403e-01 1.5597357060766226e-01 -1.9745551478433434e+00 1.5445656043389264e+00 8.3714127079787815e-01 -7.7096212426296606e-01 -1.1694913604125966e-01 1.6629850072319228e+00 1.0187512491431303e+00 4.9272069377781702e-01 -1.3865229005848004e-01 -1.9457167389999217e+00 -8.2166818764494443e-01 1.7557423302584998e+00 1.3234772650694899e+00 7.6348535020132391e-01 4.8745916735248696e-02 1.9882093270960854e+00 -1.7196632816728932e+00 
        </Neuron>
        <Neuron NSynapses="20">
          -1.3554119254741297e+00 -1.1127231611280530e-01 -1.4923850000552406e+00 1.0233989068294616e+00 1.7314604484477090e+00 -1.2260331307147485e+00 1.1302081749618151e+00 -1.4522492411743998e-01 -1.8053247429674382e+00 -1.0056983135945579e+00 1.0218460677731112e+00 3.4929157393300193e-02 1.0023655142671539e+00 -1.2655899454800097e+00 1.6714109762389135e+00 -1.8058102451588949e+00 8.4627853511498419e-01 2.9515183176359711e-01 -1.4984052434699262e+00 -1.3095794031290389e+00 
        </Neuron>
        <Neuron NSynapses="20">
          -1.9873083894048755e+00 -4.1709455205979140e-01 -1.9412799025055438e+00 -1.5270899862086706e+00 -1.8858097462018300e+00 4.5469199004927109e-02 -6.9321023594000186e-01 -1.5930064289744419e+00 1.3623769068592610e+00 -7.7778651987929326e-01 1.5447175863991672e-01 -1.0544040650316744e+00 2.0453731191451988e-01 1.7431519706811527e+00 1.3419908417517832e+00 -8.7707965274334632e-01 -1.5031339630992608e+00 -8.4499739398129636e-01 -8.7924289219990925e-01 -1.6349639598972574e+00 
        </Neuron>
        <Neuron NSynapses="20">
          3.1782213803420323e-01 2.8024437578227968e-01 1.8464901287887927e+00 -2.7423318473930802e-01 2.4489642993349600e-01 -5.2320763091159406e-01 -1.6019357250219575e+00 1.2481492369621467e+00 1.1529901522685464e+00 -7.7564881656755769e-01 -1.0680141897592472e+00 8.6491395754422817e-01 1.2156971396003857e+00 3.7272167576876181e-01 -4.6442343223340266e-01 -2.9993711464545336e-01 1.4543491813217362e+00 1.2053466102742703e+00 9.9257204880377137e-01 -2.8659170626575498e-01 
        </Neuron>
        <Neuron NSynapses="20">
          1.6137955884963109e-01 -2.8759175161540546e-01 -1.5032040982507879e+00 -4.9925012716841238e-01 -1.7594079947774370e+00 -1.3816438758762040e+00 -1.1560006562150076e+00 1.7459469312093332e+00 -1.8920698467828270e+00 1.7442783328479301e+00 -1.5698199683226814e+00 1.1285964161816378e+00 -1.1089606703227024e+00 3.5291057528382413e-01 8.2699713691902688e-01 -1.8604884176947338e+00 2.3906945999008875e-01 8.5272914563286550e-01 -1.9452082002234881e+00 -1.4793676905879425e+00 
        </Neuron>
        <Neuron NSynapses="20">
          -1.6144680138696101e+00 -8.1895826005364813e-01 1.9295103162913858e+00 -5.9893516208439401e-01 2.7024309852566103e-01 -9.1826094525466551e-01 -1.5749012992151914e+00 -1.7055799907567892e+00 -8.8021627046994266e-01 -1.4839820043825427e+00 9.7638920599532386e-01 -1.3764105699527496e+00 -1.1983296982182559e+00 1.9290856436323849e+00 3.5696235145981808e-01 -5.3284222571764117e-01 1.8798295346944758e+00 -2.0550923977946152e+00 1.3822748839185339e+00 9.6561558558216376e-01 
        </Neuron>
      </Layer>
      <Layer Index="1" NNeurons="21">
        <Neuron NSynapses="1">
          -9.8443174422997404e-01 
        </Neuron>
        <Neuron NSynapses="1">
          -4.8062716464738897e-01 
        </Neuron>
        <Neuron NSynapses="1">
          -5.7842119509447865e-01 
        </Neuron>
        <Neuron NSynapses="1">
          -8.8389608036137002e-01 
        </Neuron>
        <Neuron NSynapses="1">
          1.9448958503716862e-01 
        </Neuron>
        <Neuron NSynapses="1">
          1.6375068631865499e+00 
        </Neuron>
        <Neuron NSynapses="1">
          1.3175248049785120e+00 
        </Neuron>
        <Neuron NSynapses="1">
          1.8658406784228010e+00 
        </Neuron>
        <Neuron NSynapses="1">
          -1.5701463128238353e+00 
        </Neuron>
        <Neuron NSynapses="1">
          8.0345305170116044e-01 
        </Neuron>
        <Neuron NSynapses="1">
          -2.2197772988110795e+00 
        </Neuron>
        <Neuron NSynapses="1">
          9.0448106367495840e-01 
        </Neuron>
        <Neuron NSynapses="1">
          -1.4007054005717745e+00 
        </Neuron>
        <Neuron NSynapses="1">
          -1.5498944643579580e+00 
        </Neuron>
        <Neuron NSynapses="1">
          -2.7413068793914219e-01 
        </Neuron>
        <Neuron NSynapses="1">
          9.3956153013482913e-01 
        </Neuron>
        <Neuron NSynapses="1">
          9.8036509683281328e-02 
        </Neuron>
        <Neuron NSynapses="1">
          8.2698026888766463e-01 
        </Neuron>
        <Neuron NSynapses="1">
          5.8263781410042292e-02 
        </Neuron>
        <Neuron NSynapses="1">
          -5.0478828076222437e-01 
        </Neuron>
        <Neuron NSynapses="1">
          -1.0586528766448833e+00 
        </Neuron>
      </Layer>
      <Layer Index="2" NNeurons="1">
        <Neuron NSynapses="0"/>
      </Layer>
    </Layout>
  </Weights>
</MethodSetup>
