<?xml version="1.0"?>
<MethodSetup Method="MLP::MLP">
  <GeneralInfo>
    <Info name="TMVA Release" value="4.2.1 [262657]"/>
    <Info name="ROOT Release" value="6.08/07 [395271]"/>
    <Info name="Creator" value="wverbeke"/>
    <Info name="Date" value="Tue Dec  5 03:17:20 2017"/>
    <Info name="Host" value="Linux vocms0302.cern.ch 2.6.32-696.1.1.el6.x86_64 #1 SMP Wed Apr 12 08:44:28 CEST 2017 x86_64 x86_64 x86_64 GNU/Linux"/>
    <Info name="Dir" value="/storage_mnt/storage/user/wverbeke/Work/AnalysisCode/ewkino/bdtTraining/bdtTrainingsubmit"/>
    <Info name="Training events" value="41168"/>
    <Info name="TrainingTime" value="7.25098604e+02"/>
    <Info name="AnalysisType" value="Classification"/>
  </GeneralInfo>
  <Options>
    <Option name="NCycles" modified="Yes">600</Option>
    <Option name="HiddenLayers" modified="Yes">N+5</Option>
    <Option name="NeuronType" modified="Yes">tanh</Option>
    <Option name="RandomSeed" modified="No">1</Option>
    <Option name="EstimatorType" modified="No">CE</Option>
    <Option name="NeuronInputType" modified="No">sum</Option>
    <Option name="V" modified="Yes">False</Option>
    <Option name="VerbosityLevel" modified="No">Default</Option>
    <Option name="VarTransform" modified="Yes">N</Option>
    <Option name="H" modified="Yes">True</Option>
    <Option name="CreateMVAPdfs" modified="No">False</Option>
    <Option name="IgnoreNegWeightsInTraining" modified="No">False</Option>
    <Option name="TrainingMethod" modified="No">BP</Option>
    <Option name="LearningRate" modified="No">2.000000e-02</Option>
    <Option name="DecayRate" modified="No">1.000000e-02</Option>
    <Option name="TestRate" modified="Yes">5</Option>
    <Option name="EpochMonitoring" modified="No">False</Option>
    <Option name="Sampling" modified="No">1.000000e+00</Option>
    <Option name="SamplingEpoch" modified="No">1.000000e+00</Option>
    <Option name="SamplingImportance" modified="No">1.000000e+00</Option>
    <Option name="SamplingTraining" modified="No">True</Option>
    <Option name="SamplingTesting" modified="No">False</Option>
    <Option name="ResetStep" modified="No">50</Option>
    <Option name="Tau" modified="No">3.000000e+00</Option>
    <Option name="BPMode" modified="No">sequential</Option>
    <Option name="BatchSize" modified="No">-1</Option>
    <Option name="ConvergenceImprove" modified="No">1.000000e-30</Option>
    <Option name="ConvergenceTests" modified="No">-1</Option>
    <Option name="UseRegulator" modified="Yes">False</Option>
    <Option name="UpdateLimit" modified="No">10000</Option>
    <Option name="CalculateErrors" modified="No">False</Option>
    <Option name="WeightRange" modified="No">1.000000e+00</Option>
  </Options>
  <Variables NVar="21">
    <Variable VarIndex="0" Expression="topMass" Label="topMass" Title="topMass" Unit="" Internal="topMass" Type="F" Min="0.00000000e+00" Max="2.99058154e+03"/>
    <Variable VarIndex="1" Expression="pTForwardJets" Label="pTForwardJets" Title="pTForwardJets" Unit="" Internal="pTForwardJets" Type="F" Min="0.00000000e+00" Max="5.30691956e+02"/>
    <Variable VarIndex="2" Expression="etaMostForward" Label="etaMostForward" Title="etaMostForward" Unit="" Internal="etaMostForward" Type="F" Min="2.58378647e-02" Max="5.08811855e+00"/>
    <Variable VarIndex="3" Expression="pTLeadingJet" Label="pTLeadingJet" Title="pTLeadingJet" Unit="" Internal="pTLeadingJet" Type="F" Min="2.53461285e+01" Max="1.31254529e+03"/>
    <Variable VarIndex="4" Expression="pTLeadingLepton" Label="pTLeadingLepton" Title="pTLeadingLepton" Unit="" Internal="pTLeadingLepton" Type="F" Min="2.50929489e+01" Max="9.71114990e+02"/>
    <Variable VarIndex="5" Expression="mNotSoForwardJets" Label="mNotSoForwardJets" Title="mNotSoForwardJets" Unit="" Internal="mNotSoForwardJets" Type="F" Min="0.00000000e+00" Max="5.07164795e+03"/>
    <Variable VarIndex="6" Expression="pTLeadingBJet" Label="pTLeadingBJet" Title="pTLeadingBJet" Unit="" Internal="pTLeadingBJet" Type="F" Min="2.50006523e+01" Max="1.31254529e+03"/>
    <Variable VarIndex="7" Expression="missingET" Label="missingET" Title="missingET" Unit="" Internal="missingET" Type="F" Min="3.27685952e-01" Max="1.04892969e+03"/>
    <Variable VarIndex="8" Expression="highestDeepCSV" Label="highestDeepCSV" Title="highestDeepCSV" Unit="" Internal="highestDeepCSV" Type="F" Min="6.32403016e-01" Max="9.99999940e-01"/>
    <Variable VarIndex="9" Expression="maxMjj" Label="maxMjj" Title="maxMjj" Unit="" Internal="maxMjj" Type="F" Min="0.00000000e+00" Max="4.76994238e+03"/>
    <Variable VarIndex="10" Expression="minMlb" Label="minMlb" Title="minMlb" Unit="" Internal="minMlb" Type="F" Min="-3.41213867e+02" Max="8.54306885e+02"/>
    <Variable VarIndex="11" Expression="asymmetryWlep" Label="asymmetryWlep" Title="asymmetryWlep" Unit="" Internal="asymmetryWlep" Type="F" Min="-2.49746633e+00" Max="2.49501038e+00"/>
    <Variable VarIndex="12" Expression="etaZ" Label="etaZ" Title="etaZ" Unit="" Internal="etaZ" Type="F" Min="5.61646157e-05" Max="6.56276846e+00"/>
    <Variable VarIndex="13" Expression="m3l" Label="m3l" Title="m3l" Unit="" Internal="m3l" Type="F" Min="1.90995312e+01" Max="2.46046558e+03"/>
    <Variable VarIndex="14" Expression="maxDeltaPhijj" Label="maxDeltaPhijj" Title="maxDeltaPhijj" Unit="" Internal="maxDeltaPhijj" Type="F" Min="1.33514404e-04" Max="3.14148211e+00"/>
    <Variable VarIndex="15" Expression="maxDeltaRjj" Label="maxDeltaRjj" Title="maxDeltaRjj" Unit="" Internal="maxDeltaRjj" Type="F" Min="4.13075596e-01" Max="9.55923367e+00"/>
    <Variable VarIndex="16" Expression="maxDeltaPhill" Label="maxDeltaPhill" Title="maxDeltaPhill" Unit="" Internal="maxDeltaPhill" Type="F" Min="4.11868095e-02" Max="3.14155149e+00"/>
    <Variable VarIndex="17" Expression="pTMaxlb" Label="pTMaxlb" Title="pTMaxlb" Unit="" Internal="pTMaxlb" Type="F" Min="1.30851822e+01" Max="1.26456311e+03"/>
    <Variable VarIndex="18" Expression="pT3l" Label="pT3l" Title="pT3l" Unit="" Internal="pT3l" Type="F" Min="2.85685539e-01" Max="9.01915894e+02"/>
    <Variable VarIndex="19" Expression="mForwardJetsLeadinBJetW" Label="mForwardJetsLeadinBJetW" Title="mForwardJetsLeadinBJetW" Unit="" Internal="mForwardJetsLeadinBJetW" Type="F" Min="0.00000000e+00" Max="5.58860498e+03"/>
    <Variable VarIndex="20" Expression="ht" Label="ht" Title="ht" Unit="" Internal="ht" Type="F" Min="5.05477715e+01" Max="2.22776343e+03"/>
  </Variables>
  <Spectators NSpec="0"/>
  <Classes NClass="2">
    <Class Name="Signal" Index="0"/>
    <Class Name="Background" Index="1"/>
  </Classes>
  <Transformations NTransformations="1">
    <Transform Name="Normalize">
      <Selection>
        <Input NInputs="21">
          <Input Type="Variable" Label="topMass" Expression="topMass"/>
          <Input Type="Variable" Label="pTForwardJets" Expression="pTForwardJets"/>
          <Input Type="Variable" Label="etaMostForward" Expression="etaMostForward"/>
          <Input Type="Variable" Label="pTLeadingJet" Expression="pTLeadingJet"/>
          <Input Type="Variable" Label="pTLeadingLepton" Expression="pTLeadingLepton"/>
          <Input Type="Variable" Label="mNotSoForwardJets" Expression="mNotSoForwardJets"/>
          <Input Type="Variable" Label="pTLeadingBJet" Expression="pTLeadingBJet"/>
          <Input Type="Variable" Label="missingET" Expression="missingET"/>
          <Input Type="Variable" Label="highestDeepCSV" Expression="highestDeepCSV"/>
          <Input Type="Variable" Label="maxMjj" Expression="maxMjj"/>
          <Input Type="Variable" Label="minMlb" Expression="minMlb"/>
          <Input Type="Variable" Label="asymmetryWlep" Expression="asymmetryWlep"/>
          <Input Type="Variable" Label="etaZ" Expression="etaZ"/>
          <Input Type="Variable" Label="m3l" Expression="m3l"/>
          <Input Type="Variable" Label="maxDeltaPhijj" Expression="maxDeltaPhijj"/>
          <Input Type="Variable" Label="maxDeltaRjj" Expression="maxDeltaRjj"/>
          <Input Type="Variable" Label="maxDeltaPhill" Expression="maxDeltaPhill"/>
          <Input Type="Variable" Label="pTMaxlb" Expression="pTMaxlb"/>
          <Input Type="Variable" Label="pT3l" Expression="pT3l"/>
          <Input Type="Variable" Label="mForwardJetsLeadinBJetW" Expression="mForwardJetsLeadinBJetW"/>
          <Input Type="Variable" Label="ht" Expression="ht"/>
        </Input>
        <Output NOutputs="21">
          <Output Type="Variable" Label="topMass" Expression="topMass"/>
          <Output Type="Variable" Label="pTForwardJets" Expression="pTForwardJets"/>
          <Output Type="Variable" Label="etaMostForward" Expression="etaMostForward"/>
          <Output Type="Variable" Label="pTLeadingJet" Expression="pTLeadingJet"/>
          <Output Type="Variable" Label="pTLeadingLepton" Expression="pTLeadingLepton"/>
          <Output Type="Variable" Label="mNotSoForwardJets" Expression="mNotSoForwardJets"/>
          <Output Type="Variable" Label="pTLeadingBJet" Expression="pTLeadingBJet"/>
          <Output Type="Variable" Label="missingET" Expression="missingET"/>
          <Output Type="Variable" Label="highestDeepCSV" Expression="highestDeepCSV"/>
          <Output Type="Variable" Label="maxMjj" Expression="maxMjj"/>
          <Output Type="Variable" Label="minMlb" Expression="minMlb"/>
          <Output Type="Variable" Label="asymmetryWlep" Expression="asymmetryWlep"/>
          <Output Type="Variable" Label="etaZ" Expression="etaZ"/>
          <Output Type="Variable" Label="m3l" Expression="m3l"/>
          <Output Type="Variable" Label="maxDeltaPhijj" Expression="maxDeltaPhijj"/>
          <Output Type="Variable" Label="maxDeltaRjj" Expression="maxDeltaRjj"/>
          <Output Type="Variable" Label="maxDeltaPhill" Expression="maxDeltaPhill"/>
          <Output Type="Variable" Label="pTMaxlb" Expression="pTMaxlb"/>
          <Output Type="Variable" Label="pT3l" Expression="pT3l"/>
          <Output Type="Variable" Label="mForwardJetsLeadinBJetW" Expression="mForwardJetsLeadinBJetW"/>
          <Output Type="Variable" Label="ht" Expression="ht"/>
        </Output>
      </Selection>
      <Class ClassIndex="0">
        <Ranges>
          <Range Index="0" Min="0.0000000000000000e+00" Max="2.9905815429687500e+03"/>
          <Range Index="1" Min="0.0000000000000000e+00" Max="5.3069195556640625e+02"/>
          <Range Index="2" Min="2.5837864726781845e-02" Max="5.0881185531616211e+00"/>
          <Range Index="3" Min="2.5368289947509766e+01" Max="1.1519465332031250e+03"/>
          <Range Index="4" Min="2.5230833053588867e+01" Max="7.8601293945312500e+02"/>
          <Range Index="5" Min="0.0000000000000000e+00" Max="5.0716479492187500e+03"/>
          <Range Index="6" Min="2.5000652313232422e+01" Max="1.0071645507812500e+03"/>
          <Range Index="7" Min="4.7825708985328674e-01" Max="7.0818676757812500e+02"/>
          <Range Index="8" Min="6.3240301609039307e-01" Max="9.9999994039535522e-01"/>
          <Range Index="9" Min="0.0000000000000000e+00" Max="4.7699423828125000e+03"/>
          <Range Index="10" Min="-2.6326025390625000e+02" Max="6.7679449462890625e+02"/>
          <Range Index="11" Min="-2.4932410717010498e+00" Max="2.4943666458129883e+00"/>
          <Range Index="12" Min="6.8138127971906215e-05" Max="6.4718461036682129e+00"/>
          <Range Index="13" Min="3.5809226989746094e+01" Max="1.8117730712890625e+03"/>
          <Range Index="14" Min="4.2963027954101562e-04" Max="3.1414821147918701e+00"/>
          <Range Index="15" Min="4.1532677412033081e-01" Max="9.5592336654663086e+00"/>
          <Range Index="16" Min="1.0025465488433838e-01" Max="3.1415514945983887e+00"/>
          <Range Index="17" Min="2.1501384735107422e+01" Max="1.2645631103515625e+03"/>
          <Range Index="18" Min="5.4915249347686768e-01" Max="7.5492602539062500e+02"/>
          <Range Index="19" Min="0.0000000000000000e+00" Max="5.5886049804687500e+03"/>
          <Range Index="20" Min="5.0684467315673828e+01" Max="2.2277634277343750e+03"/>
        </Ranges>
      </Class>
      <Class ClassIndex="1">
        <Ranges>
          <Range Index="0" Min="0.0000000000000000e+00" Max="2.4604099121093750e+03"/>
          <Range Index="1" Min="0.0000000000000000e+00" Max="5.2848840332031250e+02"/>
          <Range Index="2" Min="4.5272570103406906e-02" Max="5.0833616256713867e+00"/>
          <Range Index="3" Min="2.5346128463745117e+01" Max="1.3125452880859375e+03"/>
          <Range Index="4" Min="2.5092948913574219e+01" Max="9.7111499023437500e+02"/>
          <Range Index="5" Min="0.0000000000000000e+00" Max="3.9661577148437500e+03"/>
          <Range Index="6" Min="2.5005128860473633e+01" Max="1.3125452880859375e+03"/>
          <Range Index="7" Min="3.2768595218658447e-01" Max="1.0489296875000000e+03"/>
          <Range Index="8" Min="6.3250303268432617e-01" Max="9.9999994039535522e-01"/>
          <Range Index="9" Min="0.0000000000000000e+00" Max="3.8674196777343750e+03"/>
          <Range Index="10" Min="-3.4121386718750000e+02" Max="8.5430688476562500e+02"/>
          <Range Index="11" Min="-2.4974663257598877e+00" Max="2.4950103759765625e+00"/>
          <Range Index="12" Min="5.6164615671150386e-05" Max="6.5627684593200684e+00"/>
          <Range Index="13" Min="1.9099531173706055e+01" Max="2.4604655761718750e+03"/>
          <Range Index="14" Min="1.3351440429687500e-04" Max="3.1413378715515137e+00"/>
          <Range Index="15" Min="4.1307559609413147e-01" Max="9.2210760116577148e+00"/>
          <Range Index="16" Min="4.1186809539794922e-02" Max="3.1415245532989502e+00"/>
          <Range Index="17" Min="1.3085182189941406e+01" Max="1.1968732910156250e+03"/>
          <Range Index="18" Min="2.8568553924560547e-01" Max="9.0191589355468750e+02"/>
          <Range Index="19" Min="0.0000000000000000e+00" Max="4.3169765625000000e+03"/>
          <Range Index="20" Min="5.0547771453857422e+01" Max="1.9906353759765625e+03"/>
        </Ranges>
      </Class>
      <Class ClassIndex="2">
        <Ranges>
          <Range Index="0" Min="0.0000000000000000e+00" Max="2.9905815429687500e+03"/>
          <Range Index="1" Min="0.0000000000000000e+00" Max="5.3069195556640625e+02"/>
          <Range Index="2" Min="2.5837864726781845e-02" Max="5.0881185531616211e+00"/>
          <Range Index="3" Min="2.5346128463745117e+01" Max="1.3125452880859375e+03"/>
          <Range Index="4" Min="2.5092948913574219e+01" Max="9.7111499023437500e+02"/>
          <Range Index="5" Min="0.0000000000000000e+00" Max="5.0716479492187500e+03"/>
          <Range Index="6" Min="2.5000652313232422e+01" Max="1.3125452880859375e+03"/>
          <Range Index="7" Min="3.2768595218658447e-01" Max="1.0489296875000000e+03"/>
          <Range Index="8" Min="6.3240301609039307e-01" Max="9.9999994039535522e-01"/>
          <Range Index="9" Min="0.0000000000000000e+00" Max="4.7699423828125000e+03"/>
          <Range Index="10" Min="-3.4121386718750000e+02" Max="8.5430688476562500e+02"/>
          <Range Index="11" Min="-2.4974663257598877e+00" Max="2.4950103759765625e+00"/>
          <Range Index="12" Min="5.6164615671150386e-05" Max="6.5627684593200684e+00"/>
          <Range Index="13" Min="1.9099531173706055e+01" Max="2.4604655761718750e+03"/>
          <Range Index="14" Min="1.3351440429687500e-04" Max="3.1414821147918701e+00"/>
          <Range Index="15" Min="4.1307559609413147e-01" Max="9.5592336654663086e+00"/>
          <Range Index="16" Min="4.1186809539794922e-02" Max="3.1415514945983887e+00"/>
          <Range Index="17" Min="1.3085182189941406e+01" Max="1.2645631103515625e+03"/>
          <Range Index="18" Min="2.8568553924560547e-01" Max="9.0191589355468750e+02"/>
          <Range Index="19" Min="0.0000000000000000e+00" Max="5.5886049804687500e+03"/>
          <Range Index="20" Min="5.0547771453857422e+01" Max="2.2277634277343750e+03"/>
        </Ranges>
      </Class>
    </Transform>
  </Transformations>
  <MVAPdfs/>
  <Weights>
    <Layout NLayers="3">
      <Layer Index="0" NNeurons="22">
        <Neuron NSynapses="26">
          -3.6232730333521751e-01 2.2130476596940913e+00 1.1087303288762660e+00 1.7725640980012929e+00 -1.9711423561647214e+00 -1.3530465771477698e+00 -7.8635727388123777e-01 2.1034386481142846e+00 -1.3932642840543492e+00 -1.1306419405162671e+00 -1.6582375996669634e+00 -4.4114897608244008e-01 -1.2133071397831756e+00 -5.6106700784147578e-01 -6.0780428784940987e-01 5.5356221602046773e-01 -4.5233795920078046e-01 1.7568124699940233e+00 1.2762076917768692e-01 1.3759119350307645e+00 -3.5902925759297954e-01 -6.7259677787018934e-01 7.6782549104133535e-01 -1.9524819293363249e-02 -1.1709261878285060e+00 -1.6255311132588435e-01 
        </Neuron>
        <Neuron NSynapses="26">
          1.5870827417159583e+00 -6.5894104584864222e-01 -1.5308988794654546e+00 -6.4821433880694473e-02 7.2904390341834069e-01 1.5811301343855679e+00 -2.8032108839998154e-01 -2.6504370409962436e-01 2.8289928051880792e-01 -4.1737924896467554e-01 -1.3940164841949019e+00 1.6907346621807162e+00 -1.1850620822776976e+00 7.7307506508798896e-01 1.2239982991829932e+00 1.0007200772721900e+00 1.8442833908179639e+00 1.3116696125694873e+00 -7.8236391948300021e-01 -1.4930601900170630e+00 6.0145852934215116e-01 5.1889714614514837e-01 1.4140769704065144e+00 1.2878159714660657e+00 1.6036664747200882e+00 7.8898316658165946e-01 
        </Neuron>
        <Neuron NSynapses="26">
          -1.5413661916850865e+00 1.4579305431230520e+00 -1.6500787836557860e+00 -7.6121844381131676e-01 -1.2944037666585113e+00 -1.8965268229822190e+00 1.5326955349713089e+00 5.9523723962466224e-01 -1.5884386690215551e+00 3.4223071703996039e-01 -3.1774201877567282e-01 7.0504257389658986e-01 1.8341327978722093e+00 -3.4195732164268594e-01 1.2155305372483922e-01 -1.1731724353685984e+00 7.4327926686616830e-01 -7.9651226806834430e-01 -7.1551870557399533e-01 -1.4534848705402681e+00 6.9004686688087535e-01 1.3506794993709530e+00 1.4030571757907280e+00 -3.1154888138516545e-01 -1.9260146337187489e+00 -2.1788805834318477e+00 
        </Neuron>
        <Neuron NSynapses="26">
          9.6257346585265902e-01 7.2005897662696117e-01 2.1586570687252880e+00 7.7571884346109565e-01 1.0190722228447227e+00 -6.3617171522745453e-01 -8.8006827233667417e-01 -5.4218485160452176e-02 1.1590493183658335e+00 -1.1674583343106717e+00 -1.6095174646956152e+00 -1.7043344016849467e+00 -1.7371285359245825e-01 -7.3860547092835030e-02 1.6387535254516334e+00 -1.7922167539180502e+00 -8.6034909283220473e-01 1.6155564429758922e+00 -8.5406973418216359e-01 -1.5759358340140850e+00 -1.5378565003937645e+00 2.2004367219299342e-01 -1.8816017844153834e+00 -1.7108119252633049e+00 7.2143119413963663e-01 1.6328769197514399e+00 
        </Neuron>
        <Neuron NSynapses="26">
          -1.1834782308303633e+00 1.8231691493002671e+00 -7.3707803633655655e-01 -6.8714995759485464e-01 -6.4701216955783541e-03 5.0766774604518294e-01 -1.7830889466804238e+00 3.5834868894971661e-01 3.0978854779643006e-01 3.9452791664975839e-01 -1.4587590890963869e+00 1.8088448244332542e+00 3.8327669458113545e-01 -1.0327575248228535e+00 8.0563793333102951e-01 -1.2526374923074732e+00 -1.6177821921356428e+00 1.5947138166873098e-01 -3.5585795865760084e-01 1.7960695727544322e+00 7.4363266056382515e-01 3.8694729428157021e-02 -3.1553310298633946e-01 6.7613847321251835e-02 -1.7991371538055294e+00 1.1237150489835301e+00 
        </Neuron>
        <Neuron NSynapses="26">
          1.9336789131059001e-01 -1.4681185166943134e+00 9.9048514147315236e-01 -1.4863524803705679e+00 1.0178174822225693e-01 1.1822450317563740e+00 1.8052710766326170e+00 -1.8137168118977050e+00 3.8022719471417898e-01 1.4132742319456921e+00 1.6231718273956015e+00 1.4568969230524298e-01 -1.4044435950047811e+00 -3.4770309073286343e-01 -1.4350883476458440e+00 1.6224412413700711e+00 1.1898675814079218e+00 -4.3315939628426958e-01 -4.2706576148886877e-01 1.3220028124623334e-01 -1.4503448603347380e+00 8.9917734942857297e-01 1.7426359994009175e+00 -6.6359156358375915e-01 -5.8434360943586106e-01 5.1120763662879487e-02 
        </Neuron>
        <Neuron NSynapses="26">
          9.8034239974153947e-01 8.1283107916334807e-01 1.1474582284684047e+00 -1.4048799635732649e+00 1.5623923963450945e+00 9.2777635527673952e-01 4.9442309669026285e-01 7.1142708665859955e-01 1.0172252255493375e+00 -6.6406560780638801e-01 -6.2883767327492013e-01 1.0398426105981668e+00 -8.7647481769435653e-01 -6.6754427590293364e-01 1.5916052769400959e+00 8.6805054477343502e-01 -3.2953013134007048e-01 1.5295168419083018e+00 1.8274125400572523e+00 -1.9862632416974428e+00 5.9808971151155021e-01 1.1429001894064146e-01 5.2949256799831990e-01 -1.8164045322320936e+00 -1.5352808086328433e+00 1.1527567649676553e+00 
        </Neuron>
        <Neuron NSynapses="26">
          1.7773688553131801e+00 -1.4754019713989261e+00 7.6766299910554059e-02 -5.4553526811530351e-01 3.4537152411962430e-01 1.8652926775860512e+00 -3.4777375203619654e-01 -3.7826286669182563e-01 -1.0247307149176395e+00 9.5031447100722644e-01 1.5998423479622532e+00 1.0458464840855111e+00 3.3645134030285823e-01 -9.2302928577207000e-01 -1.9779142799616378e+00 1.0271108060868344e+00 4.2721850452142901e-01 -1.3539573899002419e+00 -7.1553388340966328e-01 3.1556324791331908e-01 4.6834519314466409e-02 -1.8406604092007719e+00 1.5904732905355408e+00 7.0393082548001928e-01 -5.5588207985771609e-01 -1.4546129309167552e-01 
        </Neuron>
        <Neuron NSynapses="26">
          1.6351962060322893e+00 9.8217647275020170e-01 2.3812884266155029e-01 -2.9380892419830612e-01 -1.9211956598412181e+00 -7.8783133778358361e-01 1.6575878525026511e+00 1.2028621794867180e+00 7.4229470890422555e-01 2.8735412336999477e-01 1.9217245728865948e+00 -1.6948089823627983e+00 -1.3441414827930833e+00 -2.8437665502647643e-02 -1.4682866648471924e+00 1.0165050959443522e+00 1.7879361224188792e+00 -1.3284330666784978e+00 7.9204349230395155e-01 -6.2208905961778770e-02 -1.7550890392413290e+00 -1.1027508917360660e+00 9.7358429867284757e-01 1.2302789484262516e-01 1.0157785940885391e+00 -9.7002761177280561e-01 
        </Neuron>
        <Neuron NSynapses="26">
          1.7410840927429310e+00 -1.4687258685012285e+00 1.1451701084110595e+00 7.1347118389618741e-02 -1.4635197826045556e+00 -1.2793403003465793e+00 -1.8949610022296142e+00 -3.6144124835732239e-01 -1.8670298414494970e+00 -1.6736345810459605e+00 -1.8739242641526774e+00 2.0237771948837767e-02 -9.8168748492918467e-01 -1.7149919671668767e+00 1.4425234828849294e+00 -8.2392418822424751e-01 1.2274610405584500e-01 -1.0255065854221299e+00 1.9295529343306386e-01 1.8559326567794243e+00 1.2559981306149532e+00 -5.7307199810279397e-01 -1.4793615458556986e+00 -1.1680191390175096e+00 -8.6315376749529937e-01 -1.9018577042395701e+00 
        </Neuron>
        <Neuron NSynapses="26">
          3.1113351576736736e-01 3.3032016705998096e-01 1.9216857388693869e+00 -2.3512376580043720e-01 2.5182266517516688e-01 -4.3743586142973212e-01 -1.9367148760381461e+00 1.3287944192041845e+00 1.1991043717127781e+00 -8.5820156745775478e-01 -1.0872278508949078e+00 8.7091058507713004e-01 1.2442757417086006e+00 4.7783874364035245e-01 -4.4784788058710401e-01 -3.6106572858099584e-01 1.4397195224801154e+00 9.8963297759795588e-01 9.8234226276551961e-01 -3.2143563670769437e-01 2.2252223578431393e-01 -2.8901824506260926e-01 -1.4239648253760260e+00 -5.6664857819701342e-01 -1.7629940214272162e+00 -1.3087061121334396e+00 
        </Neuron>
        <Neuron NSynapses="26">
          -1.4088660353707256e+00 1.6869832336593096e+00 -1.7854672688149067e+00 1.4455081601733228e+00 -1.5498296033874170e+00 1.0705351974621566e+00 -1.0875488666713837e+00 4.7875995909949504e-01 8.5175477654889076e-01 -1.8178224366713480e+00 1.9533297750185646e-01 6.2600289057644332e-01 -1.9462385450593567e+00 -1.4860735979091542e+00 -1.7078526527005544e+00 -7.8031482279633246e-01 1.8654293748071733e+00 -5.7333042032992998e-01 2.8808481367328981e-01 -9.0264845007064920e-01 -1.1625590675874313e+00 -1.7882057624046062e+00 -1.0099410688952046e+00 -1.3221591416654306e+00 9.8371956634670077e-01 -9.9662013157335994e-01 
        </Neuron>
        <Neuron NSynapses="26">
          -1.2047011236032390e+00 1.9144038040158886e+00 5.2189167037549833e-01 -6.6214008226600918e-01 1.8969924602573400e+00 -1.6969808264003765e+00 1.4086246303013714e+00 9.7737205043900532e-01 -1.0084496756514911e+00 -8.7444113193491868e-01 -4.8724021340319251e-02 -1.2273153156415459e+00 4.7192339886656332e-01 1.7478623158125237e+00 1.3257356304106698e+00 1.3771885383296345e+00 -1.3762813113514725e+00 1.0673474886599679e+00 -1.9473659930471356e+00 6.5153236314185992e-01 -1.7507062560532094e+00 -1.7897887407934800e+00 -6.9427833981853079e-02 1.1236462290638323e+00 4.4765105076200418e-01 1.0420115640219521e+00 
        </Neuron>
        <Neuron NSynapses="26">
          2.5808304640420965e-01 4.7630644260182750e-02 -4.9310236150329317e-01 1.9771546438388507e-01 1.9844461092297230e+00 -1.4517514426732452e+00 3.3996409760230678e-01 -1.3640215423693540e+00 -4.4928690421528655e-01 -4.7142934092012673e-02 1.7103055064233363e-01 -1.1868613401200769e+00 1.0074990708317275e+00 1.5097972204711032e+00 6.8741445297871029e-01 -2.6930735314742227e-01 -9.7066004972533160e-01 -1.4224302984983472e+00 -1.7567925099179602e+00 1.0774443052105052e+00 -5.7477073212703966e-01 -1.0377232643662666e+00 5.3975758585005695e-01 -1.8431136368913719e+00 -1.1469299701621933e+00 -1.6061179818350662e+00 
        </Neuron>
        <Neuron NSynapses="26">
          1.0135831253152878e+00 -1.5838904477944264e+00 -1.9793427993556001e+00 -4.2134790601264049e-01 -9.4298795694920234e-01 -1.5940893223517738e+00 1.2192260890709483e+00 -1.3123116673753694e+00 -1.2485540546099878e+00 1.7796183892594817e+00 6.1931610533076298e-01 3.2953581755571987e-01 1.0234950959802881e-01 1.5832818558497390e+00 1.6862744634262854e+00 4.2910288531401303e-01 -9.6099515881769582e-01 -6.8995220447630135e-01 -1.7360143378496569e+00 8.4153608143057212e-01 9.9324036664585014e-01 4.3691231023572225e-02 1.0761686275303251e+00 1.0132371079167062e+00 1.6333743985515832e+00 -1.1436685030786669e+00 
        </Neuron>
        <Neuron NSynapses="26">
          1.8133924716096685e+00 9.5946347419761857e-01 -1.7655105229264250e+00 -2.7834565530102789e-01 -1.0288178214225279e+00 7.8640294258941101e-01 4.9918207016885796e-01 9.6031161838447432e-01 1.8164414924244108e+00 -4.6970007021171717e-01 1.8573788362022705e+00 1.7090230906912174e+00 2.4609583384483963e-01 -1.2812859747038867e+00 1.6564887402738566e+00 -1.7982471501124648e+00 5.4771285395724134e-01 1.7484518447261022e+00 -4.3826802146204236e-01 -8.2613785484727176e-01 -1.4446263546775698e-01 -9.6826458009315564e-01 4.4445149403884193e-01 -1.9212214193302664e+00 2.0959632235809816e-01 -5.6787337079547295e-01 
        </Neuron>
        <Neuron NSynapses="26">
          1.6967855038216804e+00 1.0550728557030147e+00 1.4909578059281681e+00 -6.2442737623091260e-01 -4.4276890279381348e-01 3.3921767396991648e-01 1.8616265649018895e+00 -1.9505369094673313e+00 -1.3164335281158486e+00 -5.1592148626526457e-01 -1.4813203040707597e+00 -1.7308565561380458e+00 -1.5051859299526917e+00 5.6093053820957883e-01 1.6945844623705495e-02 -1.8228383455901842e+00 -1.8653422123925847e+00 -1.5695848555589031e-01 1.7782039413363031e+00 1.8878287273586467e+00 1.3834864052177718e+00 -7.2523429178205256e-01 -1.9188832114638787e+00 -1.5979161309220505e-01 -1.3043962544980516e+00 -1.5629989121103482e+00 
        </Neuron>
        <Neuron NSynapses="26">
          -7.1028511530416971e-01 1.8285550119950825e-01 -1.3056673015594993e+00 1.6700615465520643e+00 1.2602419954698416e+00 3.3142279959274396e-01 -6.2680531069868328e-01 -7.5005210703583503e-01 1.7648105666696279e+00 -6.3563163537921119e-01 2.8673767394560523e-01 1.5821021762208658e+00 1.5460555892722116e+00 -1.0889319231968617e+00 1.3816435713771622e+00 -2.1028142600367161e+00 1.5875179865774371e+00 1.8594911851568345e+00 -1.7974403504669906e-01 -3.1369678183222588e-01 1.6115638971368798e-01 -5.7907184989282479e-01 1.2303588973922026e+00 2.2377945512177175e-01 -8.5805654315577595e-01 -1.3858890313140291e+00 
        </Neuron>
        <Neuron NSynapses="26">
          -8.0388873638625832e-02 1.9565291121755701e+00 5.6337932424798798e-01 -5.7102728728799723e-01 -1.9142789108859115e+00 2.0000658920312278e+00 3.6674553858548548e-01 -9.8843781039082423e-01 -2.6404699780282259e-01 -1.0474182943353414e+00 1.1992886721532181e+00 1.4607454086319978e+00 -7.0961792912071542e-01 -1.0021617912992233e+00 1.5738251887577388e+00 1.0886784449127482e+00 2.7977046253410415e-01 1.8333330056731198e-01 -1.2615994332969933e+00 -1.2756120542273137e+00 1.1145060466845929e+00 4.1002193067701009e-01 4.8649036198851003e-01 -1.8333228811964040e+00 -1.7849224567163151e+00 -1.8666433153594819e+00 
        </Neuron>
        <Neuron NSynapses="26">
          -2.6846093285927908e-01 -1.4803227906712517e+00 1.0017155139987080e+00 -5.4688021957210453e-01 1.7109627786772212e+00 3.4081131620376692e-01 -1.9779523444522553e+00 1.4772219983931241e+00 1.9377902944609087e+00 1.0407014096843346e+00 -4.7628583231352140e-01 -1.0027665457161403e+00 1.9303775032603776e+00 -1.9078910867547720e+00 4.2593610076517913e-01 -1.2986168474873232e+00 1.2751120296621299e+00 -1.1201892911093763e+00 2.7107235547951353e-01 -3.0928442949953350e-01 4.2403635511006926e-01 -3.5873948942200101e-01 -8.7346621010558201e-01 6.6800980619860306e-01 3.6304398270824484e-01 5.9638570703994431e-01 
        </Neuron>
        <Neuron NSynapses="26">
          9.7220689576153752e-01 -1.4538206074998483e+00 1.6561429361381206e+00 -1.7461852797733695e+00 1.0513548381301903e+00 1.2968924246180116e+00 7.9984115148171830e-01 1.7186364605757429e+00 1.4706282802182478e+00 -2.0479941744190713e+00 -7.2428935993250820e-01 -9.5914830180902788e-01 7.1950631745701688e-01 -1.6515743020913959e-01 -1.8896128570412060e-01 -7.1609459127854092e-01 -5.0886213466146679e-01 -1.0164934708606834e+00 -3.7280850688742884e-01 -1.9284138193885672e+00 -4.5587180088250728e-01 2.6251810880287396e-01 -7.0491269075520357e-01 -1.5659835519723986e+00 4.9958324866438075e-01 1.7541234685656334e-01 
        </Neuron>
        <Neuron NSynapses="26">
          -2.7845862778222336e-01 -1.6795403199532088e+00 1.5482308643861331e+00 -3.4620090909984169e-01 6.6657063812610728e-01 6.7368239114289097e-01 -1.2388815735789596e+00 -9.2831881132962246e-01 -3.3497690456647483e-01 -1.8262059091669605e+00 -6.1577726101510810e-01 -1.0680842135190678e+00 1.1434838749195064e+00 -1.6205375621102478e+00 1.5050593361816087e+00 1.8019886571633406e+00 1.6606672774118287e+00 1.0613308826024885e+00 6.8422308358378991e-01 3.6368550611742677e-02 -8.2705701350391103e-01 -2.1320071123809443e+00 -1.0127445042193419e+00 -6.1795959112459753e-01 1.3910887319476013e+00 2.6181762924825841e-01 
        </Neuron>
      </Layer>
      <Layer Index="1" NNeurons="27">
        <Neuron NSynapses="1">
          4.5622817173044616e-01 
        </Neuron>
        <Neuron NSynapses="1">
          2.7373734533576749e-01 
        </Neuron>
        <Neuron NSynapses="1">
          2.7028494885779203e-01 
        </Neuron>
        <Neuron NSynapses="1">
          -1.6250766647848687e+00 
        </Neuron>
        <Neuron NSynapses="1">
          6.6255879409098373e-01 
        </Neuron>
        <Neuron NSynapses="1">
          -1.1455493715432685e+00 
        </Neuron>
        <Neuron NSynapses="1">
          6.4098228468141283e-01 
        </Neuron>
        <Neuron NSynapses="1">
          -1.3053318983425000e+00 
        </Neuron>
        <Neuron NSynapses="1">
          3.3381675376917841e-01 
        </Neuron>
        <Neuron NSynapses="1">
          -2.5539426336342780e-01 
        </Neuron>
        <Neuron NSynapses="1">
          6.6319625320168429e-01 
        </Neuron>
        <Neuron NSynapses="1">
          -1.5161064859544597e+00 
        </Neuron>
        <Neuron NSynapses="1">
          -4.2505137312011065e-01 
        </Neuron>
        <Neuron NSynapses="1">
          -1.9337225973288195e+00 
        </Neuron>
        <Neuron NSynapses="1">
          2.0513666741016309e-01 
        </Neuron>
        <Neuron NSynapses="1">
          7.4570847151156139e-01 
        </Neuron>
        <Neuron NSynapses="1">
          3.4261931287624786e-01 
        </Neuron>
        <Neuron NSynapses="1">
          7.9843186727719984e-01 
        </Neuron>
        <Neuron NSynapses="1">
          -2.1773456822041526e+00 
        </Neuron>
        <Neuron NSynapses="1">
          9.3540177630702248e-01 
        </Neuron>
        <Neuron NSynapses="1">
          -1.8900985807793594e-01 
        </Neuron>
        <Neuron NSynapses="1">
          7.6533963007563344e-01 
        </Neuron>
        <Neuron NSynapses="1">
          -1.1689036445595968e+00 
        </Neuron>
        <Neuron NSynapses="1">
          -1.3610580769207647e+00 
        </Neuron>
        <Neuron NSynapses="1">
          1.4833350774096421e+00 
        </Neuron>
        <Neuron NSynapses="1">
          -9.1039811763290246e-01 
        </Neuron>
        <Neuron NSynapses="1">
          -1.7344825068608096e+00 
        </Neuron>
      </Layer>
      <Layer Index="2" NNeurons="1">
        <Neuron NSynapses="0"/>
      </Layer>
    </Layout>
  </Weights>
</MethodSetup>
