<?xml version="1.0"?>
<MethodSetup Method="DNN::DNN">
  <GeneralInfo>
    <Info name="TMVA Release" value="4.2.1 [262657]"/>
    <Info name="ROOT Release" value="6.08/07 [395271]"/>
    <Info name="Creator" value="wverbeke"/>
    <Info name="Date" value="Fri Nov 17 01:42:41 2017"/>
    <Info name="Host" value="Linux vocms0302.cern.ch 2.6.32-696.1.1.el6.x86_64 #1 SMP Wed Apr 12 08:44:28 CEST 2017 x86_64 x86_64 x86_64 GNU/Linux"/>
    <Info name="Dir" value="/storage_mnt/storage/user/wverbeke/Work/AnalysisCode/ewkino/bdtTraining"/>
    <Info name="Training events" value="51025"/>
    <Info name="TrainingTime" value="1.30675560e+03"/>
    <Info name="AnalysisType" value="Classification"/>
  </GeneralInfo>
  <Options>
    <Option name="V" modified="Yes">True</Option>
    <Option name="VerbosityLevel" modified="No">Verbose</Option>
    <Option name="VarTransform" modified="Yes">N</Option>
    <Option name="H" modified="Yes">False</Option>
    <Option name="CreateMVAPdfs" modified="No">False</Option>
    <Option name="IgnoreNegWeightsInTraining" modified="No">False</Option>
    <Option name="Layout" modified="Yes">TANH|128,TANH|128,TANH|128,LINEAR</Option>
    <Option name="ErrorStrategy" modified="Yes">CROSSENTROPY</Option>
    <Option name="WeightInitialization" modified="Yes">XAVIERUNIFORM</Option>
    <Option name="Architecture" modified="Yes">STANDARD</Option>
    <Option name="TrainingStrategy" modified="Yes">LearningRate=1e-1,Momentum=0.9,Repetitions=1,ConvergenceSteps=20,BatchSize=256,TestRepetitions=10,WeightDecay=1e-4,Regularization=L2,DropConfig=0.0+0.5+0.5+0.5,</Option>
  </Options>
  <Variables NVar="10">
    <Variable VarIndex="0" Expression="topMass" Label="topMass" Title="topMass" Unit="" Internal="topMass" Type="F" Min="-1.54065704e+02" Max="2.79402808e+03"/>
    <Variable VarIndex="1" Expression="pTForwardJets" Label="pTForwardJets" Title="pTForwardJets" Unit="" Internal="pTForwardJets" Type="F" Min="0.00000000e+00" Max="6.61229858e+02"/>
    <Variable VarIndex="2" Expression="etaLeading" Label="etaLeading" Title="etaLeading" Unit="" Internal="etaLeading" Type="F" Min="1.67353155e-05" Max="5.02646637e+00"/>
    <Variable VarIndex="3" Expression="etaMostForward" Label="etaMostForward" Title="etaMostForward" Unit="" Internal="etaMostForward" Type="F" Min="3.26758809e-02" Max="5.09238243e+00"/>
    <Variable VarIndex="4" Expression="pTLeadingLepton" Label="pTLeadingLepton" Title="pTLeadingLepton" Unit="" Internal="pTLeadingLepton" Type="F" Min="2.51133461e+01" Max="1.18817078e+03"/>
    <Variable VarIndex="5" Expression="pTLeadingJet" Label="pTLeadingJet" Title="pTLeadingJet" Unit="" Internal="pTLeadingJet" Type="F" Min="2.74540615e+01" Max="1.47311768e+03"/>
    <Variable VarIndex="6" Expression="pTLeadingBJet" Label="pTLeadingBJet" Title="pTLeadingBJet" Unit="" Internal="pTLeadingBJet" Type="F" Min="2.61249237e+01" Max="1.22783093e+03"/>
    <Variable VarIndex="7" Expression="missingET" Label="missingET" Title="missingET" Unit="" Internal="missingET" Type="F" Min="2.63551235e-01" Max="9.36872620e+02"/>
    <Variable VarIndex="8" Expression="pTTrailingLepton" Label="pTTrailingLepton" Title="pTTrailingLepton" Unit="" Internal="pTTrailingLepton" Type="F" Min="1.50033464e+01" Max="2.97809875e+02"/>
    <Variable VarIndex="9" Expression="highestDeepCSV" Label="highestDeepCSV" Title="highestDeepCSV" Unit="" Internal="highestDeepCSV" Type="F" Min="6.35600686e-01" Max="9.99999881e-01"/>
  </Variables>
  <Spectators NSpec="0"/>
  <Classes NClass="2">
    <Class Name="Signal" Index="0"/>
    <Class Name="Background" Index="1"/>
  </Classes>
  <Transformations NTransformations="1">
    <Transform Name="Normalize">
      <Selection>
        <Input NInputs="10">
          <Input Type="Variable" Label="topMass" Expression="topMass"/>
          <Input Type="Variable" Label="pTForwardJets" Expression="pTForwardJets"/>
          <Input Type="Variable" Label="etaLeading" Expression="etaLeading"/>
          <Input Type="Variable" Label="etaMostForward" Expression="etaMostForward"/>
          <Input Type="Variable" Label="pTLeadingLepton" Expression="pTLeadingLepton"/>
          <Input Type="Variable" Label="pTLeadingJet" Expression="pTLeadingJet"/>
          <Input Type="Variable" Label="pTLeadingBJet" Expression="pTLeadingBJet"/>
          <Input Type="Variable" Label="missingET" Expression="missingET"/>
          <Input Type="Variable" Label="pTTrailingLepton" Expression="pTTrailingLepton"/>
          <Input Type="Variable" Label="highestDeepCSV" Expression="highestDeepCSV"/>
        </Input>
        <Output NOutputs="10">
          <Output Type="Variable" Label="topMass" Expression="topMass"/>
          <Output Type="Variable" Label="pTForwardJets" Expression="pTForwardJets"/>
          <Output Type="Variable" Label="etaLeading" Expression="etaLeading"/>
          <Output Type="Variable" Label="etaMostForward" Expression="etaMostForward"/>
          <Output Type="Variable" Label="pTLeadingLepton" Expression="pTLeadingLepton"/>
          <Output Type="Variable" Label="pTLeadingJet" Expression="pTLeadingJet"/>
          <Output Type="Variable" Label="pTLeadingBJet" Expression="pTLeadingBJet"/>
          <Output Type="Variable" Label="missingET" Expression="missingET"/>
          <Output Type="Variable" Label="pTTrailingLepton" Expression="pTTrailingLepton"/>
          <Output Type="Variable" Label="highestDeepCSV" Expression="highestDeepCSV"/>
        </Output>
      </Selection>
      <Class ClassIndex="0">
        <Ranges>
          <Range Index="0" Min="-1.5406570434570312e+02" Max="2.4180964355468750e+03"/>
          <Range Index="1" Min="0.0000000000000000e+00" Max="6.6122985839843750e+02"/>
          <Range Index="2" Min="1.6735315512050875e-05" Max="5.0128211975097656e+00"/>
          <Range Index="3" Min="5.3986325860023499e-02" Max="5.0847115516662598e+00"/>
          <Range Index="4" Min="2.5163938522338867e+01" Max="8.1049218750000000e+02"/>
          <Range Index="5" Min="2.7454061508178711e+01" Max="1.0532637939453125e+03"/>
          <Range Index="6" Min="2.6276088714599609e+01" Max="9.2416906738281250e+02"/>
          <Range Index="7" Min="2.6355123519897461e-01" Max="6.0223919677734375e+02"/>
          <Range Index="8" Min="1.5005184173583984e+01" Max="2.9780987548828125e+02"/>
          <Range Index="9" Min="6.4546835422515869e-01" Max="9.9999988079071045e-01"/>
        </Ranges>
      </Class>
      <Class ClassIndex="1">
        <Ranges>
          <Range Index="0" Min="-8.2254081726074219e+01" Max="2.7940280761718750e+03"/>
          <Range Index="1" Min="0.0000000000000000e+00" Max="5.2107159423828125e+02"/>
          <Range Index="2" Min="3.5206707252655178e-05" Max="5.0264663696289062e+00"/>
          <Range Index="3" Min="3.2675880938768387e-02" Max="5.0923824310302734e+00"/>
          <Range Index="4" Min="2.5113346099853516e+01" Max="1.1881707763671875e+03"/>
          <Range Index="5" Min="2.8404010772705078e+01" Max="1.4731176757812500e+03"/>
          <Range Index="6" Min="2.6124923706054688e+01" Max="1.2278309326171875e+03"/>
          <Range Index="7" Min="3.9604908227920532e-01" Max="9.3687261962890625e+02"/>
          <Range Index="8" Min="1.5003346443176270e+01" Max="2.6632131958007812e+02"/>
          <Range Index="9" Min="6.3560068607330322e-01" Max="9.9999988079071045e-01"/>
        </Ranges>
      </Class>
      <Class ClassIndex="2">
        <Ranges>
          <Range Index="0" Min="-1.5406570434570312e+02" Max="2.7940280761718750e+03"/>
          <Range Index="1" Min="0.0000000000000000e+00" Max="6.6122985839843750e+02"/>
          <Range Index="2" Min="1.6735315512050875e-05" Max="5.0264663696289062e+00"/>
          <Range Index="3" Min="3.2675880938768387e-02" Max="5.0923824310302734e+00"/>
          <Range Index="4" Min="2.5113346099853516e+01" Max="1.1881707763671875e+03"/>
          <Range Index="5" Min="2.7454061508178711e+01" Max="1.4731176757812500e+03"/>
          <Range Index="6" Min="2.6124923706054688e+01" Max="1.2278309326171875e+03"/>
          <Range Index="7" Min="2.6355123519897461e-01" Max="9.3687261962890625e+02"/>
          <Range Index="8" Min="1.5003346443176270e+01" Max="2.9780987548828125e+02"/>
          <Range Index="9" Min="6.3560068607330322e-01" Max="9.9999988079071045e-01"/>
        </Ranges>
      </Class>
    </Transform>
  </Transformations>
  <MVAPdfs/>
  <Weights InputWidth="10" Depth="4" LossFunction="C" OutputFunction="S">
    <Layer ActivationFunction="3">
      <Weights rows="128" cols="10">
        -3.1578767609192659e-01 1.5053643140871559e-01 9.9738974256594629e-02 -1.4651274748689608e-01 1.3687842551652993e-01 -4.0142307892332274e-01 4.0100007643889005e-02 5.2369638498756865e-02 -3.9762746377428021e-01 3.9528045415079333e-01 -3.5428438768668753e-02 2.8653140964615958e-01 -4.1154269131570886e-01 6.1937886338485355e-02 -3.7546346488066923e-01 -2.6227834473474820e-01 2.9970987470309762e-01 1.4273130913744844e-01 -2.8014211681579831e-01 -3.4137658313096980e-01 -2.3856043246711445e-01 2.8279752055096158e-01 1.9210791409264169e-01 -2.5146517674891800e-01 -1.8738195634314334e-01 -1.9080384452338189e-01 5.0334788547829926e-02 1.3064364465304529e-01 3.8185913796010168e-01 -3.3770073988095883e-01 1.5323870014185209e-01 -3.5516473877041227e-01 -3.7877536375999638e-01 4.0580800248648868e-01 -2.7553438311688266e-01 -7.7132407813726434e-02 3.4362468266960966e-01 -1.8747826296793349e-01 2.7348247326892144e-01 2.5063772841878862e-01 3.7108606331939004e-01 1.1339889732539728e-01 2.0602592882920566e-02 -3.2357202503343102e-03 3.3742118483750511e-01 1.8984633094237235e-01 2.2189535538842992e-01 -4.2311358209556038e-01 -1.4375299722098264e-01 -1.0118935716270547e-01 1.4894974561243408e-02 -2.4949891772187599e-01 -3.7634429462170604e-01 2.5562890556731765e-01 8.1082377576992562e-02 1.1173036225160346e-01 4.2293987718855341e-01 -3.7515826768517091e-01 2.8625393834362134e-01 -3.0710570276818144e-01 -3.9801337000004317e-01 -9.7291121093400046e-02 4.0439865372612643e-01 -2.9196451504583870e-01 1.6228486338731749e-01 -4.2733823914826208e-01 -1.0786976414173977e-01 -2.4376058075381332e-01 -5.0591105902308711e-02 -3.4280942352726279e-01 2.7357235147843276e-02 3.8680559374614398e-01 -1.3996467522769782e-01 -2.9415532853743692e-01 5.9847093996551783e-02 -1.2882530323576258e-01 2.1164039099341431e-01 -2.0944809235345163e-01 -3.7504124841448461e-01 -3.2394101402753572e-01 -4.2143715499813122e-01 -2.0192644068932863e-01 2.0097432124702008e-01 -1.0688058837600253e-01 -5.5542572343982459e-02 -8.2096828590315293e-03 2.2532828733622459e-01 2.0344021356462233e-01 1.2309532832034228e-01 1.8194699115514329e-01 -3.6948294772877122e-01 -1.8768117091011802e-01 -2.8676640766956613e-01 -6.9404437270298602e-02 -2.5089900381530122e-01 -1.5468153367377629e-01 1.2070418070891972e-01 -2.0865190640462696e-02 -2.4626759557565450e-01 6.6119826784508715e-02 1.5782995127709526e-01 2.4420713791754667e-01 3.8152699307662957e-01 1.3426118889862856e-01 -1.9857122840526875e-01 -3.1070157926085051e-01 -3.4090043903850020e-01 3.5616596291097785e-01 1.5672044825134288e-01 7.8263436940282802e-02 3.6717815156298267e-01 -1.8735924896773429e-01 -2.1233885211373657e-01 -3.7722297890461126e-01 -2.1653458198069747e-01 -9.6030551946714393e-02 3.1014681255967858e-01 -2.1118908942960121e-01 -1.1207384079266337e-01 4.2095788363922382e-01 2.2172474963720743e-02 -4.2218801671729861e-01 -3.2994920676262696e-01 3.3123772186418621e-01 -1.7521681203572594e-02 -3.7910204852593710e-01 3.6677402786832103e-01 1.5871638606077668e-01 -3.1879133149634925e-01 -3.7203704240262458e-01 1.3044909860372475e-01 4.1108241236185694e-01 -2.9042175018472177e-01 3.4229925630631447e-01 3.9266346888582004e-01 2.2550812023553315e-01 -1.7906512509303807e-01 -2.3052214133539944e-02 2.6625851662121436e-01 -1.0488547790853120e-01 1.6830940275768916e-01 2.6611122190070663e-01 -3.4202396367212379e-01 -2.8513044991706854e-01 -2.4303236583578008e-01 3.9025111676484242e-01 4.0138190588529399e-01 3.7297701778017558e-03 3.2333550655745044e-02 -2.2117775768391826e-01 2.2157352334354569e-01 -9.0236591076768707e-02 -1.1484597637382994e-01 -4.0123056696074849e-01 2.3912088975501503e-01 4.2323562900168921e-01 2.7949002450925242e-01 2.8405120513359006e-01 1.9675690355901584e-01 4.1412824131449227e-01 -3.8527113753706804e-01 -2.7609542263008890e-01 -1.4910352855898854e-01 1.7078159832244012e-02 3.9411683077782356e-01 -1.2725755378566453e-01 -2.6389635504373210e-01 4.0522839590908344e-01 4.4094661477919031e-02 -3.1339032132744393e-01 -1.4611406279197162e-01 -2.9303901726269199e-01 6.3068333781257369e-02 -1.9201380469341667e-01 6.4196321167355588e-02 -2.5610667080269034e-01 2.2659926476621459e-01 -2.9785741333682547e-01 1.7775955426897844e-01 1.1941931321637755e-01 2.1507767096888200e-01 -2.1528901612089266e-01 2.1220452346851343e-01 6.7831979590070771e-02 -3.1778228293468830e-01 3.2703809266070250e-02 -4.0299349867928425e-01 -8.9596115993161418e-02 1.8636706417427526e-01 1.3431082203967257e-01 -1.1748774747662770e-01 -3.4767419949642170e-01 1.6122622042193610e-01 2.5758955336847056e-01 1.6282809334626301e-03 -2.5717636592429838e-01 -1.0929619814243868e-01 2.3089627126321491e-01 1.7468899635423321e-01 -1.2631795803960705e-01 4.0952662582790678e-01 1.1650451597653899e-01 3.7693172265874747e-01 3.7997527662136082e-01 -1.2410996402443411e-03 9.0842299142123318e-03 -2.6412471831637446e-01 -4.4284740682634591e-02 -1.0565802941325043e-01 3.2733471864997182e-01 2.1540918218880137e-01 2.5038164178735178e-01 -1.1846127107837301e-01 6.7628178713936962e-02 -3.2611239212744869e-01 9.1394689973993137e-02 8.1943185919367986e-02 1.1558614578583422e-01 -2.6987253460929106e-01 -2.7943336497842264e-01 -3.6570625905779203e-01 2.1205331467327335e-01 -4.2912992333798423e-02 3.2179424319927807e-01 1.4397940791936484e-01 2.5330190302010402e-01 4.0809987687107044e-02 2.0641803903655714e-01 -1.6731078003548014e-01 -1.3748603002681522e-02 3.2684151103367370e-01 1.1076867685308341e-01 -2.2403492455003227e-01 -2.6702790875429150e-01 -9.6816331917912071e-02 -3.0266899608823555e-01 2.3467460489772787e-01 -1.9449358723834978e-01 1.7044046975390978e-01 -3.4411583459713363e-01 -5.2305177292047950e-02 9.1431539366068681e-02 -5.6630305983793511e-02 1.9480814056443571e-01 2.8063499173648621e-01 2.1922106087818236e-02 1.7973340569601601e-01 -2.7402528528767095e-01 -9.5039273656735684e-03 -3.2008335097337859e-01 -1.2886961319529426e-02 -1.4165528554407492e-01 -1.6567953415831149e-01 -3.5404797891793510e-01 -3.1735612695633231e-01 6.7642983041819579e-02 3.3397142861323248e-01 2.4873949432963313e-01 -2.6944087907727077e-01 -3.2808655712345147e-01 -1.9529270329227297e-01 -3.3761818929226267e-01 -2.5786957578420378e-01 3.1051194523910475e-01 1.2690574426880016e-01 1.4895753315391302e-01 4.1812997850781131e-01 -3.5966886932740683e-01 -2.2642419709137784e-01 -3.1088633733566806e-01 -2.8811735850171144e-01 1.4346992761840543e-02 1.5057768198786774e-02 -3.5542490286435102e-01 2.9549011831148964e-01 2.8979348665283283e-01 -4.5516145161200996e-03 2.8910117443255501e-01 2.1433102380744383e-02 -6.4450776319081624e-02 3.3877037408181015e-01 7.5232868071885811e-02 3.1112212365043801e-01 -6.9977277689264358e-02 -3.3708900729865704e-01 -1.4361331984401207e-01 2.1142773565070452e-01 3.7851782035923809e-01 -1.3802662920789863e-01 -2.0563097235942301e-01 -3.7447962881464048e-01 1.7748619470586119e-01 1.8884370155712529e-01 1.5483571979139230e-01 -1.2094498620513607e-01 2.0791166256020113e-01 1.6171284447781792e-01 3.7760049297516635e-01 1.4666310036554836e-01 6.1490909501654235e-02 4.6460946439977491e-03 -2.8491722417339405e-01 -9.4775727147433000e-02 2.7115456756729400e-01 1.8594179160966248e-01 -8.2264367379279016e-02 -2.7957688919344642e-01 -1.0567772416959950e-01 8.1698185973413731e-02 -2.6622302170791629e-01 -1.5485558138941438e-01 3.0667204554387040e-01 -3.4519573589308974e-02 2.2969575916221285e-01 6.8245444526000523e-02 4.6661905704098783e-02 -1.8580993629614026e-01 2.7952521925779578e-01 2.7289966471869864e-01 -2.9404115652587448e-01 -1.1038411236503739e-03 5.6121325119376807e-02 2.5865510586436641e-01 3.4242736061484313e-01 -2.8989796441022603e-01 1.0213827493792429e-01 3.5516723254214766e-01 -2.2900849697222325e-01 -3.7945231756066350e-01 8.2503076763461580e-02 -3.4784540648517154e-01 -1.5422084661798585e-01 -4.2034441465742967e-01 -9.0272562250794594e-03 -2.8141266587606439e-01 9.8398123271769056e-02 -8.4616075119757772e-02 3.0902560017158687e-01 -3.0733831534549627e-01 -3.4445612688471161e-01 -3.6327403840576272e-01 2.4504185854733646e-02 1.4058598529076941e-01 -1.0414724160679130e-01 1.4670756578728644e-01 -3.9231718058301412e-01 3.4342246631606838e-01 3.8829198409215271e-01 3.0417640429756432e-01 -1.3391634042628939e-01 -1.0045551174027133e-01 7.1231170436244648e-02 -2.7169292792111915e-01 1.5651271376479767e-01 3.2886286614554872e-01 -1.3519077701003682e-01 3.9426212627062494e-02 3.1397273572221268e-01 -4.0820271845610273e-01 3.5657809269476776e-01 3.5421261609972710e-01 -5.8591290888816726e-02 -3.1357434772171777e-01 -3.6248282076191685e-01 -1.3230779621584557e-01 -2.7851690074925661e-01 -2.0030026486827066e-01 2.1569895035818715e-01 -1.8890499975413380e-01 3.6531211736673463e-01 -2.8143282696080671e-02 -1.0416879779566875e-01 3.8859926692921176e-01 -1.2769310981721422e-02 1.7001983865463766e-01 -6.2756155165776067e-02 -2.2291038705891872e-01 -7.0621797206524048e-02 -3.4168377456291510e-01 -2.1749681025182518e-01 -3.8558052150298011e-01 -5.2784036982355773e-02 8.0136303207820947e-02 -2.3170322570626486e-01 2.5012390096653503e-01 1.9471617581566397e-01 -1.4215446482365540e-01 -8.0753726100106532e-02 2.4132246621452166e-01 2.5496857479522567e-01 2.2729646947380772e-01 -1.0330179773943739e-01 -1.3916818897037156e-01 3.9872287542828294e-01 -1.8687175952275420e-01 -1.1789534993503725e-01 -4.3671886310697551e-02 -1.1871133000971816e-01 2.5207520687541202e-01 7.5346108325565903e-02 -3.2042505717719638e-01 -3.6148607683418482e-01 6.5152702005192705e-03 1.5353604074060787e-01 -2.8212356082193052e-01 -3.5362704318247612e-01 1.4125559674181759e-01 -2.5316470367527355e-01 -4.1245321647569722e-01 2.6651090550047568e-01 1.6065970147688885e-01 -2.0880926117626525e-01 2.8716896376273554e-01 -1.1562315171462016e-01 -3.6479413718088516e-01 -6.9901615085753224e-02 2.7209804886503275e-01 2.7504895778761801e-01 1.0737027011850385e-01 1.4716024583240343e-02 1.1012728766378084e-01 1.5053513422506881e-01 -1.4464335269915723e-01 2.5175268676499396e-01 2.1231091787574427e-01 -1.4946103137969241e-01 3.5242265076668902e-02 3.9624654387180086e-01 -1.6130747006567833e-01 1.3625659184797509e-01 1.9234090439071636e-01 1.9513257901091741e-01 1.1253079667921098e-01 -3.6356568081182150e-01 -2.8588112012292477e-01 5.4693868354842613e-02 2.1015176277611378e-01 -7.0784121546941789e-02 -1.5283297395173043e-01 -9.9494706685964357e-02 3.3298763488304578e-01 3.8248264893147033e-01 -3.8862502462062809e-01 -1.2288305415523523e-02 2.3414466174302181e-01 2.9050966755524793e-02 2.2273288639962241e-01 1.9293632119268558e-01 2.6937337654301496e-01 -2.6163075543967990e-01 -1.6476867344011620e-01 3.7842770792673974e-01 2.3253481675325116e-01 3.8391525654288216e-03 -5.7818723429184427e-02 -3.7482469628285636e-01 -7.9211641357819981e-02 -7.3826501260526478e-02 2.0082064140806638e-01 5.1839497383869296e-02 1.2955215605377154e-02 -2.6223049799199379e-02 2.7145062575708867e-02 3.7742462542122002e-01 3.6397368165869470e-01 -3.3110041704207177e-01 1.7417291427873399e-01 8.5955293429135937e-02 -3.1738109787230406e-01 1.7279357383219288e-01 2.9499933678684875e-01 1.3683167315807240e-01 -2.3915044847947775e-01 -3.0241537471669128e-01 -1.9858762375612748e-01 4.2188461156164259e-02 1.3730328306183845e-01 4.1646701725659874e-01 -1.5616501633515475e-01 -2.0166466107938252e-01 2.9208373725959402e-01 8.7632795703578181e-02 -3.5732677765755072e-01 -3.6236099858097104e-01 2.5321945934930373e-01 -3.1642909685360487e-01 -1.8934034607180936e-01 -4.1909941254368643e-01 -3.3405478685595374e-01 -3.2851040936592368e-01 -7.1009637325199063e-02 -2.9490006911509453e-01 1.7987866811384107e-01 -7.5664835975966155e-02 -2.4398445122125464e-01 -3.7459935034372582e-01 -1.6797684291912254e-01 -3.1548917087532374e-01 3.2748372906407436e-01 -3.8342967243241410e-01 -2.6673517908810437e-02 -1.3109800585475426e-01 -2.0052769039013241e-01 3.9711936352351129e-01 -1.0177642050085875e-01 3.5708326349900260e-01 3.8814266186721791e-01 1.5163137674613847e-01 9.9121520851726264e-02 -3.8602786290586744e-01 -2.7278557642042089e-01 2.2148490244558280e-02 -1.0128587812990793e-01 -2.5581894665766236e-01 3.6664840680956495e-01 3.0741281895725325e-01 3.4483388685975563e-01 -2.2315279196325158e-01 3.2376757519867183e-01 2.4920750267500819e-01 5.7814153121237069e-02 -4.1992108241105797e-01 -2.3346264797875577e-01 -2.6264729888096994e-01 9.7416169639350125e-02 3.8316251675507007e-02 4.0045461781759367e-01 1.5228045403496418e-01 -1.0719348861840851e-01 -1.8507693277852127e-01 -3.9690342342257379e-01 1.2649155532214260e-01 -1.9747981371348589e-02 6.9820456882567855e-02 -1.2303163761598410e-01 2.9639322366651305e-01 -7.5546484607189060e-02 -3.0231442131285408e-01 2.5860874483559232e-01 -2.3536902248855054e-01 -3.5161069802943420e-03 3.5849868546930908e-01 4.1529278190496566e-01 8.0289390879306421e-02 -2.6338527637759118e-01 1.3710831420888742e-01 2.4940902936141218e-01 7.8391968661805075e-02 1.2045803271423039e-01 1.2507826356200904e-02 2.1060496364029063e-01 3.9917839950005563e-01 -3.9842771604285759e-01 -1.1295377414265297e-01 2.4718019041268852e-01 4.0225005558574767e-01 8.5654328658247986e-02 -3.6459263226541916e-01 -3.7375949784679069e-01 -1.7006326495438390e-01 3.3345050191824566e-01 2.9328175490239961e-01 -3.9992375858939272e-01 8.4872174638621303e-02 -4.1027966238396679e-01 -2.9018827484943710e-01 -3.3233325917617484e-01 -2.5278146658294831e-01 7.8878709211285189e-02 -3.3279856559509685e-01 2.9358752302788715e-01 -3.3504774547131348e-02 8.2935766169893288e-02 -2.9593479431631925e-01 -3.2765503140732127e-01 -1.8275044535916435e-01 -3.6200334141363461e-01 1.9932137082341653e-01 -1.4271235724487216e-01 -3.0257676047268722e-01 -2.4531782767223551e-01 -4.0844165948056621e-01 -1.4643967918908260e-01 4.2143728923042678e-01 1.3159743659315951e-01 8.3145936742245283e-02 -9.9824424001402234e-02 3.9047454008266452e-01 -2.1286054340438487e-01 2.7500832931476427e-01 -3.1557541661233390e-01 1.7549753742847815e-01 3.0040211526778503e-02 -8.3763598486182506e-02 -1.0048065777815135e-01 -3.7319464900094323e-01 -9.3481703919109552e-02 2.0483306541787416e-01 -2.9113759878766710e-01 1.6011946640893013e-01 -1.9465903297780918e-01 -5.9929179977839753e-02 -8.9259893915805369e-02 2.6707662998087234e-01 -1.4494058585507563e-01 3.8063130186393751e-01 4.7697992633883239e-02 -2.4364545875428018e-01 1.8187157924644992e-01 -2.3205964824197095e-01 -7.3914560268828811e-02 2.1460585996934395e-01 3.9940474709834206e-01 -1.0600928134972609e-01 3.5157870761931054e-01 -1.8671487167993728e-01 1.6872922175980418e-01 2.8748335055444169e-01 -3.6661105878149791e-01 -2.8574902924923407e-01 1.7790265907658687e-01 1.6489525131758584e-01 3.1169396466757704e-01 -1.8390270858880953e-02 -9.1538655584857839e-02 -6.0109034838997301e-02 -4.1809027443483143e-01 -2.4057230442549954e-01 -2.6859614291324196e-01 1.7039111129131354e-01 -2.2203176212205958e-01 2.1246969258201862e-01 -3.0746640927426522e-01 1.1908953839766634e-01 2.8505239399870780e-01 -2.5709016821031705e-01 -9.6188323623265987e-02 -1.9308300348834945e-01 -2.2124732981846346e-01 -3.5713286572576858e-01 -1.5372765217804105e-01 -4.1769416454786229e-01 1.2455395259291432e-01 2.5956454805634832e-01 -3.1566654059757182e-01 2.2303565468777761e-01 5.8249192677323300e-02 2.8675293484316972e-01 -2.6166915648728051e-01 -3.1922755968098010e-01 1.2723244232792383e-01 -3.6395714873557727e-01 3.6107154757101789e-01 -1.2610290908398869e-01 3.7609647841816074e-01 1.4465474228382222e-01 -2.0008595437841817e-01 1.0374986791035604e-01 -1.3392090292620118e-01 -2.2563925166691906e-01 1.5334217826757746e-01 3.4222085548837028e-01 2.6768085006208664e-01 -1.4206553192762916e-01 -1.2791113462782450e-01 1.5488143737015156e-01 -2.9002350775992658e-01 -3.7754550574888912e-02 -1.5776610533649793e-01 3.0655240963786723e-01 -9.3487924786780849e-02 2.1492364223413396e-01 6.6668011017637308e-02 -2.9945478718689716e-01 6.2848565347047455e-02 -2.8016056817774537e-01 2.6555838877844945e-01 1.9358594114290051e-01 4.1100440500003721e-01 -1.1351640177861332e-01 -3.0294540632707184e-01 -4.2746985972190105e-01 3.7137029010303835e-01 1.3628050748568193e-01 2.9327807034039616e-01 3.5656374776767791e-01 -2.6549688569239988e-01 -7.4580064572028523e-02 1.3779555916786621e-01 -2.5408999080229516e-01 2.9555286889947996e-01 1.8142197213271656e-02 -2.9056997369902648e-01 -1.5557701382772002e-01 2.7085975082543295e-01 -4.2231395875756184e-01 1.2718403238232828e-01 -3.3903400125372218e-01 3.6611712178685107e-01 1.6162212701199699e-01 3.8555474817766361e-01 3.0196730008854963e-02 -1.4269253189265174e-01 8.0066621714539488e-02 -5.5732513223297010e-02 -2.7723243909778966e-01 -3.6715519029924071e-01 -5.5252176963026076e-02 2.4299702525660583e-01 2.2476180331162260e-01 -2.9964499004383038e-01 -2.4247447229953711e-01 -3.4502304890118640e-01 3.5784662192657862e-01 -1.2777660629032084e-01 1.4396115008952445e-01 -1.0274531281657585e-01 -2.1876008770353592e-01 1.2977424270851062e-01 -4.1584676565991030e-01 -8.0953869937765002e-02 9.6220197385622444e-02 -4.2365681222643886e-01 9.8602970054176178e-04 3.5958011248942040e-01 1.1999026460316106e-02 -9.0637552065857847e-03 1.1470496028237341e-01 -2.7000233203722623e-01 -2.2591134689414055e-01 5.6403163795628916e-02 1.8401360325255997e-01 3.1346530059999111e-01 -1.9357788224543362e-01 2.0712805403923698e-01 -2.7214284770874494e-02 -2.4096088465139029e-01 3.6758281577346980e-02 -2.0796723034850695e-01 -2.6734081235752016e-01 -5.1938323121895492e-03 -1.7870791947440814e-01 1.5624081510941373e-01 2.8956136358722590e-01 2.3899725552311601e-01 -3.4129460652650384e-01 -1.1958866005503990e-01 -3.5621597032278657e-01 -4.0233054069579577e-01 3.1837980056726894e-01 3.9267184633128316e-01 -1.0933858291477251e-01 1.6983261807514857e-01 1.1559564060987412e-01 9.4517293499676400e-02 -4.7458661614173829e-02 3.3376002792039033e-01 -3.8621411107915077e-01 -1.4872089432280522e-02 -3.7905871092796189e-01 -2.5550880428948192e-01 -1.6225542871937135e-01 -2.6427988456413554e-01 -3.7314855904844256e-02 -1.5678586885009438e-01 1.3034463806620084e-01 -5.1213791249427161e-02 -2.4003944081355262e-02 3.9993937659220058e-01 3.7110559315741004e-01 1.1020616899510965e-01 -3.4338669988100734e-01 -1.4071024223577663e-01 -3.0125017506295571e-01 -3.1481369625956851e-01 3.2655987118215313e-01 4.1139818804196654e-01 -1.3368820877921694e-01 3.3235559648638041e-01 3.2571992859462467e-01 1.2633817278329071e-01 2.2797781589134242e-01 -3.1447789142183541e-01 1.3538948466379033e-01 -3.1295802487806407e-01 -2.5515906323864140e-01 6.2332468344971741e-02 3.0172335338616463e-01 3.1445618302829964e-01 -1.5109665930595567e-01 2.5938467521955227e-01 -3.7667372916157543e-01 -2.3409428057357412e-01 2.5362614324068739e-01 -3.1888713846185268e-01 -4.1164332211111720e-01 -3.0306988536550261e-01 -1.8875459536337347e-01 -2.6264791756615502e-01 -2.7731915573705507e-01 -2.0452891943025291e-02 -2.9187274530957291e-01 7.0024428893186663e-02 -1.8300516038146247e-01 2.1442717496813932e-01 -3.3358193487423043e-01 -4.4889627860083523e-04 1.7419194931109189e-01 -2.3314186186808528e-01 -2.8798564271840449e-01 -2.5095235231886154e-01 -1.7575601938247570e-01 -4.1236194216261973e-01 -1.6085253988369799e-01 -2.8821692436703725e-02 5.5077912744284634e-02 -3.5301353960292936e-01 3.2178841577546735e-01 2.7674572599457681e-01 4.0781978038684924e-01 3.3969337251429843e-01 -2.4108153770140885e-02 2.1893429394000627e-01 1.8346566069213330e-01 -2.2855401880464066e-01 -2.2015188277037900e-01 -2.8218316110718800e-01 -2.7337443350775914e-01 3.4819751657818955e-02 1.2497072800371903e-01 -3.0494933791961831e-01 1.5799803929751464e-02 -3.6364864272684527e-01 -2.3088158575808446e-01 1.5831838026393469e-01 -4.0024003849529394e-01 -1.0643575074568444e-01 2.7788526613575594e-02 -2.6888236843277297e-01 3.7199411189742426e-01 -7.6599392535611530e-02 -2.9815453811399051e-01 3.6318537505463006e-01 -1.0754103705328118e-01 3.0189607984296668e-01 3.2931147063743821e-01 -2.8611433161821992e-01 1.9194457122441097e-01 3.3550041906376032e-01 2.3708336749959680e-01 3.2544224918208448e-01 2.7311205209473693e-01 -7.4964085918035939e-02 -3.7455162784870899e-01 -3.2268514214673993e-01 3.7265047289344530e-02 -2.2066517572547845e-01 -2.2450168407496018e-01 -1.8733950012912026e-01 -4.8466782397373731e-02 -2.8870900795913879e-01 6.5106883355480955e-02 2.8117183220991893e-01 5.5639779413418182e-02 3.7831641846760966e-01 -1.1734059346213292e-02 2.4758660449581241e-01 -2.2415013678467363e-01 -1.2693829575919344e-01 -3.1387527891566963e-01 -1.1289124210857093e-01 -1.3873021211127021e-01 9.3002177021594454e-02 -6.1335721192170067e-02 -3.7469601784580259e-01 3.7430954169175196e-01 -2.1041415765097893e-01 2.7511462996376362e-01 1.6528607378670415e-01 -1.3653267077673090e-01 -3.1208932110201870e-01 4.1239803737124697e-01 1.2864296986651974e-02 -1.7938735403365041e-01 -3.0597053471415542e-01 4.0803218678724704e-02 4.1506542796690096e-02 3.1378052282274432e-01 -3.8967278236594066e-01 -1.1385591285207547e-01 -3.7933747869784928e-02 -4.2616143641606580e-01 -2.9153983028955283e-01 -1.2342708829273540e-01 -2.3133389926069120e-01 2.1633365604853963e-01 1.3275839883637282e-02 -3.9237155767638365e-01 -2.1738483853574722e-01 1.9097536018099526e-01 -4.1202930245410489e-02 -4.0338255221228059e-01 6.0715826132166063e-02 7.3935875242013352e-02 8.4868728751925054e-02 -2.7979933590870215e-01 -1.2688240629342518e-01 -1.0165620920862449e-02 6.0442449934657590e-02 2.3268179464335073e-01 3.6642755194861559e-01 -1.2435966163431187e-02 2.3004181402195806e-02 -3.3903921176149703e-02 -3.8129865814493336e-01 -1.0373609878838781e-01 -7.6798793156006101e-02 -1.2425492285091860e-01 -1.2792382106988168e-01 3.1270904341274058e-01 -2.4434692377784478e-01 2.0189546277173284e-01 1.4117529168723197e-01 3.7840630534766850e-01 2.6424574526588213e-01 3.9652945134821393e-01 3.5276728770038379e-01 -2.8767078041254079e-01 -1.8172876546039149e-01 -6.6046080993019840e-02 3.4784496705209628e-01 2.6365366343561684e-02 3.4793200792819279e-02 -3.8858125973883378e-01 -3.9773768801148301e-01 -1.6997459330464315e-01 5.7686730919676361e-02 -1.6029173454898848e-01 -1.5163254849312582e-01 1.3134472908630054e-01 3.0826060645822656e-01 -3.1984116908529930e-01 1.4623907800168495e-01 8.3901954637245355e-02 4.0411514725914505e-01 3.3348609894487158e-01 -8.4229534935058525e-02 -2.9848235288730879e-01 1.3815720850791194e-01 1.0572878207871063e-01 8.0014268446016393e-03 -2.5736630799995985e-01 7.1874292628061734e-02 3.1802059468964911e-01 1.4587605805369283e-01 -2.0996091238286355e-01 2.6447004823905973e-01 3.4673122322991018e-01 3.7032013634640010e-01 -2.3737849015879615e-02 2.7521060323590041e-01 1.0704097310161423e-01 -3.9365762265376206e-02 -3.2899704011072106e-01 -2.2072381397074961e-01 2.9438019196883081e-01 -3.8428867979650494e-01 8.0555322113730968e-02 2.5420041464732213e-01 2.2674424550856773e-01 -3.3566693372197157e-02 -3.2330008306787733e-01 -3.7025332842542439e-03 2.8007178649675529e-01 7.6812948679731624e-02 1.7645945954931547e-01 -3.1691790706886253e-01 2.8118831014626872e-01 -1.6404825442868695e-01 -2.0134776639284188e-01 1.1323747286359849e-01 3.8629938917171730e-01 -4.0040441328971788e-01 1.3415670179484676e-01 -2.3130811065789997e-01 2.2583267737246112e-02 4.0015763790144832e-01 -2.4524473564436072e-01 -1.5028797942949032e-01 -3.5221159460376983e-01 2.7785092987063570e-01 2.9065126510582318e-01 2.1541788921537963e-02 -4.0826188778971589e-01 -4.4162769171681659e-02 -3.4733787391189619e-01 -2.4862339193697622e-01 7.0341769002250670e-02 -3.7550061767848381e-01 5.5914015525477777e-02 1.7379010960413033e-01 -2.0346206396705036e-01 -3.9466215789008907e-01 -2.5906566839322126e-01 3.7081829102385805e-01 2.4209268462999095e-01 2.8349824661131862e-01 -2.9262899853998420e-01 -2.5852659773435938e-01 -1.6952484991831676e-01 3.8823358726214979e-01 -6.3079260174680088e-02 -3.3331350414317307e-01 2.0886007629097206e-02 1.2129654871031927e-02 -1.6308271937112567e-01 -1.6461421676522947e-01 -1.6354489436296718e-01 1.4163100028265726e-02 -3.0624752502131591e-01 -1.7998041898277414e-01 3.4319063549821827e-01 5.1256982261501306e-02 1.9288659251640536e-01 3.0290283400479756e-01 2.1800102430516571e-01 4.1298426061579957e-01 -1.1545185214858154e-01 3.3622050360108409e-02 1.8956301193076555e-01 1.2436877521303525e-02 2.2515397914276405e-01 9.9330222903648818e-02 2.9118794142445747e-01 9.1099514800079620e-02 1.2383231875238822e-01 -1.4243365474775155e-01 -3.9878814124334089e-01 9.3814213866470472e-02 2.1637030718259770e-01 -6.9826765050082812e-02 -3.0131733305188101e-02 2.4640594368791652e-01 1.4735687597535835e-01 1.0505893214525336e-01 -2.9151334179395733e-01 -3.5244018957974271e-01 -3.7119584254300475e-01 4.1011885333460280e-01 -3.7161896443812403e-01 3.2285944261410859e-01 1.4904892518048124e-01 -4.2220110215356759e-04 1.2971064825185194e-01 1.2124277246217435e-01 -3.6498638859102553e-02 1.5702571050298153e-01 2.2872349305875594e-01 1.2073160866156606e-01 1.6300163175876073e-01 1.9514930485574361e-01 -2.4908109430405523e-01 1.6681919731269698e-01 2.9096679477953993e-02 -4.0473508547945319e-01 -2.8870948451574063e-01 -2.5322205298546319e-01 -1.6864414512044912e-01 -2.6385595655328986e-01 4.2334455076117250e-01 1.8323990733910636e-01 3.7209791580994259e-02 -1.5131199183855063e-02 -1.5359212451307802e-01 -2.4834165706219055e-01 -7.8063502213318703e-02 -2.8723082374314984e-01 3.9906881420415141e-01 -2.7920467883634575e-01 6.9249959076373546e-02 1.7601830550662240e-01 -2.7724230165144753e-01 1.7797709207424334e-01 -5.0120545289159768e-02 5.2060397129619018e-02 -2.8379336424442914e-01 -2.5810843121737409e-01 1.6927784520375710e-01 3.6620393202313428e-01 -4.0557880776545513e-01 -4.0900894223369422e-01 -5.7094521217914924e-02 -1.9023098531268609e-01 -1.9059167980852332e-01 -3.2172092758521598e-01 4.1526621637261268e-01 3.1836014290174219e-01 -2.9298885460917640e-01 -8.5816676093892083e-02 -3.0187465740120462e-02 2.2068866818194068e-02 1.6050223006916961e-01 -1.8740945422259059e-01 -3.2658327867172743e-01 -3.0778391660573345e-01 -1.4103055888531899e-01 -3.4811017466872474e-01 5.6944207868961962e-02 -2.5817941317752952e-01 -7.4227062286744735e-02 -3.7221137657672076e-01 2.8401226298219723e-01 2.3149517863417533e-02 2.8470656114020815e-01 3.5058494585448324e-02 -1.2577175101155669e-01 -2.1729435196971722e-01 1.5992813756871688e-01 2.5566234696175760e-01 -2.4343661630958127e-01 -7.0068435182801024e-03 4.1066548818874515e-01 -2.1688574286781151e-01 -1.3571723314444581e-01 3.2981339202628152e-01 -1.4924554189364889e-01 1.7167246744464369e-02 -3.5086904957668606e-02 2.7690373897807319e-01 2.8501161691532256e-01 1.5566747367513001e-01 -3.5708856276244966e-01 8.3808973321882738e-02 3.0954211157834005e-02 -1.1693120831751554e-01 1.2102536989943734e-01 3.1431452822371586e-01 -2.8818214784551299e-01 6.0762411901070831e-02 -2.6871283259736412e-01 3.5429719367353185e-01 2.2866833742853523e-01 3.5735030325223749e-01 3.6583093121596927e-01 -1.7295491839504770e-01 -3.9535348015591304e-01 8.1439338582524126e-02 -4.1744738453572761e-01 -3.5620147960674930e-01 2.7192145643452581e-01 3.3488919424528130e-01 -2.0721144532628546e-01 2.8129456817941551e-01 -2.1353096848643452e-01 3.5305569021689887e-01 -3.5701712366409882e-01 4.1770271355642746e-01 2.6132314156305975e-01 -3.3194086282432300e-01 -2.8991372889249557e-02 -3.0715638693924902e-01 2.3087409125777827e-01 -2.2866459464750771e-01 8.3401783637466212e-02 4.0102664505211527e-01 -7.0398209499449469e-03 2.7591328510793878e-01 5.4154416897830897e-02 2.0823514618530631e-01 -9.0189596634239269e-02 4.1704086100620585e-01 2.1205077229381075e-01 3.4018715555549073e-01 -2.1610461011771664e-01 2.5377403269056997e-01 -2.1118589236804106e-01 1.5866591851672918e-01 6.4271184572620807e-02 1.3592833362811194e-01 -1.4831161535835066e-01 -4.5365011708115757e-02 1.5784364596004766e-01 1.3351927707803066e-01 -2.5552736710248186e-01 -4.4373752996940782e-02 1.3591046874380774e-01 1.0988360336200681e-01 1.9408491246633516e-01 5.2758012767583464e-03 3.5028688791826262e-01 1.4017409190383748e-02 -3.9150866280324831e-01 3.7558198378033381e-01 2.8949818623331702e-01 1.6550364220358305e-01 -4.2333846970682465e-01 -8.6297242418973186e-02 9.2979498505455539e-03 -2.7619472835894693e-01 8.5281435484694003e-03 -4.9068348857687419e-02 -2.3330510209268565e-01 3.0947704617973265e-01 1.0722869698862929e-01 -2.5156732483268236e-02 -3.3776739783361043e-01 -6.5451222176876836e-02 -1.9639777757944454e-02 -1.9582314997926017e-01 -3.0021820119620957e-01 2.5932215375660944e-01 1.3115950080129327e-01 3.9203163550339803e-01 1.5144314358899280e-01 -8.8980102994199395e-02 3.8562966276538285e-01 -2.1743599038805034e-02 6.7635357543728278e-02 -4.3502933198446683e-02 3.8080469521869559e-01 -2.4435918210041996e-01 -1.0438056058586566e-01 -3.1475608527963744e-01 3.2227753584373614e-01 -2.8143820269265148e-02 -2.8370039583373424e-01 2.6923982953135145e-01 1.9220709935183156e-01 3.9142253457067971e-01 2.5803282384412453e-03 -2.9546181107504965e-01 -2.2737288403235048e-01 1.7228075999863968e-01 -3.2813530992060086e-01 1.5000857538048492e-02 -3.2713992122956853e-01 -1.7505702091295303e-01 -1.3201534051431463e-01 -2.7784099942487611e-01 -8.3105856931549264e-03 9.9925013376090610e-02 -2.8286864201280976e-01 -3.3205413481607304e-01 1.5225233997586782e-01 3.4056167568095591e-01 3.9379119212720182e-01 -2.1133253860287415e-02 -3.9820247143412524e-01 1.3611410672031450e-02 -1.9139664268680609e-01 -4.2501519336152871e-01 -2.9072439433600539e-01 -3.4348955794599612e-01 -4.0678716203826099e-02 -3.0800545252980399e-01 -2.3769234773976197e-01 -5.9618431506406777e-02 2.2104051816844814e-01 8.3726231358162068e-02 3.4210365709505353e-01 1.9147103814950026e-01 1.3412228571099577e-01 -1.3575072045849731e-01 -4.0104808218945942e-01 1.5921023268659462e-01 -2.1205768395535968e-01 -3.3543160213617515e-02 -7.9561098772379671e-02 2.0517647422763874e-01 -3.8425202359865651e-01 -6.8156642652011448e-02 3.8999897063009320e-01 2.2837335402445361e-01 3.0931672013541595e-01 -7.9064992869046266e-02 -2.1728945943296890e-01 1.3699069209675407e-01 -2.8944921975276122e-01 -1.3272611296590295e-01 3.4284946502230895e-01 
      </Weights>
      <Biases rows="128" cols="1">
        3.2273629646857364e-02 -1.6507285978609884e-01 -1.1544202935638136e-01 3.9160252852360217e-01 1.3526142792493745e-01 7.3861974221480081e-02 1.6096002307341671e-02 -1.1221073949202524e-01 3.5310589628643099e-02 -3.8788643704498205e-01 -3.3921678465948885e-01 6.8497174668708832e-02 1.2219489409453813e-01 2.7078222675831520e-01 1.1914803739122110e-01 -2.8022671992255094e-01 2.0714618261755757e-01 1.4468088875725832e-01 2.0971928594429121e-01 3.7191660227420809e-01 -3.7193101047630001e-01 -1.1602633020339637e-01 -2.7450898341488855e-01 -1.9886903622010729e-01 5.1604183132453955e-02 -2.5159567091393279e-02 1.7539271185997118e-01 2.7270323036162736e-01 -4.2427382351299125e-01 -3.6686286733878076e-01 -4.2769251146596943e-01 4.0362931074694236e-01 7.6147838857189218e-02 -1.5963201705088134e-01 2.5865189145021356e-01 -2.2987837945793421e-01 -2.0069282473480973e-01 -2.5715461287635333e-01 1.2739647569423637e-01 7.8627257912985707e-02 -5.8856402444410677e-02 -2.4425399599619893e-01 3.8713255279659586e-01 -1.2498237438185748e-01 -3.1512752840964048e-01 -2.3893172641180907e-01 -3.1239854849715609e-01 1.5574836064592315e-01 1.8647411951008605e-01 -2.0680636182458523e-01 4.2291031722388156e-01 -2.6083835446464992e-01 -2.8850194818068070e-01 -3.7604915337161943e-01 1.0430011477805186e-01 -1.2473229755764217e-01 -1.2086382400856034e-01 -3.0425988064916804e-01 1.8341260939440000e-02 3.1019057417335838e-01 3.9040386257988779e-01 3.0808173325013821e-01 3.4879936948495838e-01 3.8463999989100450e-01 3.3987683053788209e-01 -1.0921133917666376e-01 -4.1030572881057154e-01 -1.5044031719515652e-01 7.4371478464271376e-02 3.6549531900716348e-01 3.2163420227730022e-01 3.5469000237111764e-01 3.0721349072019677e-01 -3.1215381846610035e-01 -3.1049387567924697e-01 1.0959520016094312e-01 3.1199228676138946e-01 9.5069823878523724e-02 2.7776369852784415e-02 -1.1473548470668543e-01 4.3188102047631100e-02 -1.7640902124867175e-01 7.0228943137111657e-02 -2.6701688260865825e-01 2.3151892039053695e-01 4.6700631490169675e-02 -4.0336630654789563e-01 2.2184912516591640e-01 -1.1391998766431499e-02 2.4254792106566342e-01 -4.0062521502393050e-01 3.0791770414441072e-01 1.9837209191640970e-01 -1.4137583629909198e-01 -2.2279036571849997e-01 2.6151801612772418e-01 -3.4610111497636703e-01 -2.5826437579914135e-01 -2.2844419716315564e-01 -2.5374150044602545e-01 -3.7193916600520832e-01 4.0929594793812052e-01 2.3542690990182701e-02 -1.1579888338905581e-01 -1.9574834709025019e-01 -4.4328748053740055e-02 -2.0520182564400372e-03 3.7016245738940945e-01 -4.5987255929232723e-02 -1.9731286027422215e-01 -2.9929896729839867e-01 3.1443010467577159e-01 3.6860136533907911e-01 3.5636629353561466e-01 -3.9518683415838757e-01 -2.8318880782605943e-01 -1.8459029917196906e-01 3.7683812857762830e-02 -4.2576857260438611e-01 -4.0160776804739662e-01 9.4604505558423951e-02 -2.9487349953172726e-01 9.1898254804814450e-02 -1.0028922418013198e-01 -4.1230754929540217e-02 1.9550316444092350e-01 -3.0161258303734878e-01 -3.3788720201497580e-01 
      </Biases>
    </Layer>
    <Layer ActivationFunction="3">
      <Weights rows="128" cols="128">
        1.1519315629397864e-01 1.2327961754431488e-02 2.9364130016857438e-02 1.0438366899650371e-01 -9.4438908634314214e-02 -5.3804262681267062e-02 2.6600064216511846e-02 -5.0312356166966948e-03 -1.1098434424870669e-01 1.1199488880687826e-01 -5.7396831690236995e-02 4.2351411110325865e-02 4.3597310667981018e-02 -1.4354819813649980e-02 -1.1765678220032581e-01 5.7988715045279575e-02 -3.8718314082842986e-02 9.8011925892655151e-03 -2.9708445999711026e-03 -4.6328099953146511e-02 4.6644995877426973e-02 9.3975513148452414e-02 -7.7795952797747842e-02 2.3337434247969104e-03 -1.0731773521965156e-01 -3.9122361366466546e-02 -8.1740861105000395e-02 -1.2040650052470925e-01 -1.0128817866701148e-01 9.0887908159242498e-02 6.6200295119814900e-02 3.1372560517800893e-02 1.0421446124945290e-01 -6.9283204463330292e-02 3.3003952867772975e-02 3.8194246064100087e-02 5.9241201134143627e-02 -1.1828235088813065e-01 -4.2352986946215226e-02 -5.1158013061745639e-02 1.4176127921638053e-02 1.2699060838728993e-01 -9.3810849371070287e-02 -3.1887804806990036e-02 -2.8145358920341874e-02 -8.9167781982315800e-02 -4.3590879417233089e-03 1.0066487247208065e-01 -5.3408711011089523e-02 1.7117876009956911e-02 -2.5193076529880232e-02 7.2344684791903549e-02 -1.1241577993286042e-01 4.0769515720389150e-02 -6.3130882129399699e-02 -9.7178147737652584e-02 6.3861062079485262e-02 -5.3938221846663817e-02 -1.1254028453304425e-02 9.5057699576782034e-02 -3.4012487399281977e-02 -9.9282034077484149e-02 -9.6733342410204856e-02 3.6892015387472062e-02 6.0820731980682198e-02 -7.9389060692298154e-03 1.2110547692126035e-01 -1.0230342048704884e-01 -1.1479735458104250e-01 4.6554499521677520e-02 -4.7809526826150167e-02 -8.8040225664652739e-03 9.4580797666847627e-02 1.2329267141972887e-01 5.8670399977760697e-02 -1.3744495885264127e-03 -2.3706210194251853e-03 4.1016857654040180e-02 7.0627931139141592e-02 6.3125763061195939e-02 1.5563865922977056e-02 -2.0317750219681824e-02 1.1542620564789285e-01 -2.2400928635261871e-02 -8.7090638771642637e-02 -1.0069198652292038e-01 -1.0404628780853316e-01 4.1586272801767944e-02 -1.1656937867429040e-01 9.3436017922003609e-02 3.9688763621442295e-02 -1.2616960401998445e-01 -4.4031743841022000e-02 -2.2902542189337124e-02 1.2270051628876569e-01 1.2520279703776380e-01 3.2509228360890645e-02 -1.1750686530415787e-01 4.6084772520321060e-02 -3.2362597457027346e-02 -6.1058805497203633e-02 1.6104548074621673e-02 1.0640097135959593e-01 -9.2732345762763069e-02 -1.2141248672056584e-03 -3.1535953024891951e-03 -5.9411120258549832e-02 3.5749707905106065e-02 3.7281578704343780e-02 -3.1509450165407196e-02 7.7845874412863530e-02 1.0943068875992264e-01 -5.3794509784197343e-02 1.1527816580698873e-01 -6.2680544111805570e-02 -5.0665837867906988e-02 5.9256134619412953e-02 1.6525064274747241e-02 1.0876121524065883e-01 -2.7570493551907747e-02 -3.9908966362373142e-02 8.2331365790999311e-02 -1.1724221492007735e-01 -2.1331616704755273e-02 4.8852818028080260e-02 -9.5917992384492903e-02 -1.0750563059162704e-01 4.4788036072160142e-02 -9.1732179032653877e-02 -2.3122701946575598e-02 1.1737691185173556e-01 -1.1592564325408837e-01 6.7285185620232502e-02 9.8460929592987773e-02 8.1414613012130543e-02 8.0511148820776576e-02 -1.1533308185232681e-01 -1.1363006298427729e-01 3.1267816646442952e-02 -4.7901689373100423e-02 -1.2488296448056352e-02 2.1867126847209721e-03 -3.6369897625921084e-02 -4.9906671754271222e-02 -2.1967300687546300e-02 8.4559356802654639e-02 4.4060809525336919e-02 -8.3719993366533199e-02 -2.7851723183405248e-02 -1.0955707383518365e-01 3.5056848127879993e-02 5.2114979335216452e-03 -7.9547728664322359e-02 -1.8170137782481909e-02 1.2323826926059081e-01 -1.0308574391532574e-01 -1.2344381173681188e-01 4.9825896029250832e-02 -2.7989200574056936e-02 -3.6415023022094276e-02 9.0896658486506077e-02 -6.4061982349735966e-02 -3.3111577234507472e-02 6.4871919725356622e-02 -2.5262280991325537e-02 6.6760839588810905e-02 6.9501756869828152e-02 1.2225275613545250e-01 -1.2244982031477407e-01 1.0691184339363786e-01 -2.9240314020201372e-02 -5.3296743088754282e-03 -7.7508231518322507e-02 -3.2386911804988879e-02 4.5326534254647556e-03 -1.6904133477010141e-02 2.1655454999939459e-02 7.5645120324019752e-02 -6.8008127860569437e-02 -4.7635745068254139e-02 1.1260501206714812e-01 -1.7408602491121181e-02 1.1874729713163711e-01 4.4531323775123137e-02 -2.1354692617765968e-02 -2.3343682617286515e-02 1.1146061211175658e-01 2.3202480866865202e-02 2.1108408856595373e-02 -1.4429767089554636e-02 1.4670327463333830e-02 1.1337327281917976e-02 -6.7044902496487882e-02 5.2430927797414359e-02 9.0915127288172207e-02 -6.1083959640239931e-02 7.6924666565981278e-02 1.1019919928566739e-01 -5.7410125942912296e-02 5.8117467539528553e-02 3.2456030483470712e-02 -4.6826005572674086e-02 3.0573575135142521e-02 -8.7107300661598192e-02 -7.9061865834452044e-02 -6.2431481228172631e-02 -6.4895992038535980e-02 -8.4325359738272210e-02 -8.0187105431777275e-02 -1.3723738015589059e-02 1.1942424510853304e-01 -8.1521836819325066e-02 -5.9463927344306507e-02 -5.6619148163682631e-02 -7.8807308589042877e-02 3.7159494545605957e-02 -9.0783104606403112e-02 -8.0347516045364501e-03 -1.4623599780165636e-02 2.0579696099334889e-03 -3.5997965263941938e-02 3.7650676919618264e-02 -5.8393519011561507e-02 -4.6461266465647126e-02 9.2152971831673439e-02 7.7807295746958993e-02 -6.7688557012212699e-02 1.1071598741150922e-02 7.0533864427015395e-03 -5.4812150070790544e-02 -1.7808075390076811e-02 -5.9495409839982506e-02 -9.0228277219307471e-02 3.5095146276339556e-02 -5.2623467892754829e-02 -9.2364359989819275e-02 -6.1924153606484851e-02 -1.1657551777722784e-01 -9.9537283173941504e-02 -6.5933954929299265e-02 2.6582866914882583e-02 5.1738213565991091e-03 -7.4975447241109924e-02 -6.1572576092385131e-02 3.5655278081428370e-02 6.8962374172319204e-03 -3.0064928041919647e-03 2.4472146898938913e-02 4.1278766303387074e-02 -1.0213250956045949e-01 -1.1094497846408127e-01 -5.5291432246567421e-02 1.1802174455245960e-01 -2.4158233090441173e-02 4.7303388534220255e-03 -8.6149692981590115e-02 -9.2378648740678471e-02 -1.0158456823984620e-03 9.5982545185755233e-02 9.0827326595056667e-03 7.0907888084815698e-02 4.3544611806696332e-02 -7.3087913607218863e-02 1.1678807614139280e-01 -3.2948187598646414e-02 7.9266252459320286e-02 -5.8271125627869687e-02 -2.7162119056971443e-02 9.6554524223690999e-02 -8.9325025481764506e-02 -7.5271231947978023e-02 6.6666025427896070e-02 -8.4312032875235796e-02 -1.1618318411935984e-01 -6.0364280403811324e-02 1.1038556091012652e-01 -7.4571600753197187e-02 6.9203039626767507e-02 7.5910467476623472e-02 -1.1626880763921317e-01 5.2216843644998227e-02 -9.5051363755690697e-03 -1.1350872250452849e-01 -1.1801268164171969e-01 -9.4164042045032606e-02 -1.2324995559897067e-01 1.5206273982950502e-02 9.3190243616152371e-02 7.2566830550695849e-02 4.6314052552155670e-02 8.1935062727334793e-02 4.2655243573058305e-02 -2.9754920517516364e-02 1.2003476129336063e-01 4.3086776032007272e-02 4.4044548707602320e-02 -4.5350808747898923e-02 -9.5228349853833355e-02 -8.6685050372528230e-02 1.0421557701069988e-01 3.8341942974826643e-03 -1.0462412053729715e-01 3.8985274431465787e-02 -1.2359486724634607e-01 1.0423503028653153e-01 -2.4090033596579439e-03 -1.2525347165840450e-01 -9.7394713306507286e-02 8.4402054724702955e-02 -7.4244374529641180e-02 3.8572972961894776e-02 4.2966778189610103e-02 1.0445358226180679e-01 -7.1610024794248106e-02 1.0131726560694408e-01 -6.9530670567874250e-02 -8.6444261306120637e-02 -3.6417014004368663e-02 7.2824605099754927e-02 -1.3346455736559234e-02 9.6146995460981516e-02 1.1907769631623488e-01 4.2151436613879718e-02 -3.2290476720058463e-02 1.0929457136391706e-01 -3.0016737674648280e-02 8.4493214705193470e-02 1.0752068653437999e-01 -1.2442785144129767e-01 -1.4032342524813805e-02 -1.1264538403259754e-01 -1.1364748429001749e-01 -1.1239079605456304e-01 -7.1955162757963848e-02 4.8256031918175200e-02 1.2501588076507653e-01 7.3338196229549429e-02 -5.7115219622728211e-02 -4.9889148932414140e-02 1.2144653522302994e-01 -1.5899894787450145e-02 1.2256605304578401e-01 -1.4516306520537241e-02 5.4242984155158783e-02 -7.9629501092810077e-03 2.3390343209194024e-03 -1.0016647438092971e-01 3.5782062430623145e-02 6.7211255731709954e-02 5.4142785186468541e-02 7.5315225576293152e-02 -1.1370826068399552e-01 9.4337870467098142e-02 -9.1238009594564365e-02 1.0769047166918698e-01 7.5446127041167543e-02 -1.0014645592550921e-01 -4.0084782653389460e-02 -9.4147517500933944e-03 -7.5015501974366201e-03 5.5695949854151279e-02 1.2352249229209239e-01 1.0995091030532363e-01 -2.0789586581056788e-02 4.2709320483649886e-02 -5.4385278053365946e-02 -8.5567885310987066e-02 9.3859638008452220e-02 -5.1558180821009846e-02 3.1657664290940808e-02 -1.6197083659673334e-02 -2.8991822004215368e-02 1.1828654071925489e-01 -5.7729545855270029e-02 4.5024084792660859e-02 -5.7682146629907935e-02 1.0932437635060013e-02 1.7615971075019273e-02 -1.1477313342338721e-01 -2.6093627426472917e-02 5.4486709797787348e-03 -7.7791366681421240e-02 6.3525704772022767e-02 7.8393236131242480e-02 9.6976088714747721e-02 -5.1051008553477904e-02 6.5906986933785258e-02 2.4111285771093456e-02 5.6563071391444054e-03 -3.7315888744205335e-02 4.2441918215846648e-02 -7.9556179387051430e-03 1.1856685739344067e-01 2.3506988023447157e-02 -1.0339032438268568e-01 1.0931691009990266e-01 6.3372377470391428e-02 2.1584299070196326e-02 1.1973146615134372e-01 -8.4259567185783618e-03 -2.2460200856940817e-02 8.3136338718138483e-02 -9.5863968226387222e-02 1.6169465628188277e-02 -1.2377388911229818e-01 -5.4773015592850969e-03 -6.8604176210525281e-02 1.2312761096493327e-01 -2.8554397639431330e-02 1.0120006149485700e-01 6.3203007956261201e-02 -1.1741761246033494e-01 -5.7981956952281262e-02 6.3780611659268821e-02 -6.3759366403056988e-02 7.1244009051963458e-02 8.6644045916643680e-02 8.0687220552100924e-02 4.5517841254806603e-02 1.5986065192369894e-03 2.8264006060552821e-02 9.6379429046686879e-02 4.5108531971796734e-02 6.4498596254168636e-02 -3.8711522712286901e-02 8.0537873914893945e-03 -4.2307941164011424e-02 1.1801054245517394e-01 4.0077439895940797e-03 -1.1631321001972213e-01 4.0918190053115221e-02 4.1346437350398960e-02 9.2525457123903893e-02 -1.0029685075842765e-01 -4.1127426803313341e-02 4.6363061957080162e-02 1.0800920690797022e-01 1.1696164257297081e-01 -8.8923480934082241e-02 4.1273324539887322e-02 7.1824440176628104e-02 -8.0311628298532986e-02 1.2233873087585595e-01 -2.3211238443830583e-03 -1.2415508102683341e-01 -5.7558826977960928e-02 -9.3786174230331934e-02 1.2276871448475771e-01 6.4341985587126865e-02 -5.1433047003080920e-02 7.6223064114345374e-02 2.5390249505942569e-02 8.6975283024954872e-02 2.4070886745369210e-02 -9.3633819218688213e-02 1.2477671936585484e-02 1.1187210524254128e-03 -1.1786682182281351e-01 8.9342826546122221e-03 2.2101852829296911e-02 -4.5927343758327202e-02 5.3409155048686333e-02 -7.3823619570400636e-02 8.3084154012790061e-03 5.3387749437794660e-02 4.0881620038348840e-03 -1.0766754955193222e-01 -5.4471712978605147e-02 9.5467266790080788e-02 3.7894244041840726e-02 -1.7317112286243552e-02 -4.6296451486423799e-02 9.1921501111907958e-02 1.2003168816621446e-01 -1.0816020511127389e-01 8.7247482815384164e-02 -3.1240215645302733e-02 8.6369690948473965e-02 -1.1619701456947337e-01 -5.4039274513621276e-02 2.6602300281096784e-02 -5.8843792782435345e-02 8.5825356955368970e-02 -8.9405579405024208e-02 7.3036742192697873e-02 3.4039570108965050e-02 -6.4563126748023059e-02 -7.2887660769197213e-02 8.2007859617144366e-02 -6.0093107690022469e-02 4.2670941977605417e-02 -9.9854355562988814e-02 -2.5470654647556528e-02 8.1652618788813677e-02 1.1751756147544221e-01 3.6804936601431401e-02 -1.1591788297666106e-01 7.4327853739603489e-02 2.5190604022889043e-02 -3.6385614908348893e-02 -6.4652739456778865e-02 -8.3502660991761804e-02 5.6366124820486634e-02 -4.2128108971223273e-02 2.2304274415730196e-02 -2.4930326963799623e-02 -4.2607388237046941e-02 8.6852373489003792e-03 -6.3591610320030099e-03 -5.1214348353329227e-02 -2.7829752790001567e-02 -1.1427003818181673e-01 2.6902252350809092e-02 9.1123824491774724e-02 -7.0098225855516824e-02 -8.3626721470708744e-03 3.4592202068085734e-02 1.3460938466127385e-02 -3.3368975896258077e-02 -1.1047834306192444e-01 3.1222531773340868e-02 8.9171467289216114e-02 2.4102232504313644e-02 3.2522819000814725e-02 -1.9138020584615296e-02 1.1995009376104268e-01 3.9255881927084089e-02 -7.6931144443909416e-02 1.3483264014020479e-02 3.8514665620904241e-03 3.9205913937707816e-02 6.3250807499654504e-02 -1.6921777703939257e-02 5.9397918399735967e-02 -1.0616786869583941e-01 -1.1769479854830493e-01 -1.0620199898342409e-02 -8.0253518788041059e-02 3.0072968694787951e-02 8.7408908034618579e-02 1.6815574495033007e-02 1.0727970686521944e-01 -8.4098672190130886e-03 -9.6513145121834815e-02 -1.2636454517981868e-01 -1.6557453763500228e-02 1.2309007651226844e-01 1.7349939719830735e-02 -9.2968014120061157e-02 -1.1913569558838623e-01 -7.3329615730644740e-02 7.2047014719246655e-02 3.6293325206753387e-02 -5.8473731524365781e-02 1.1103672886523440e-01 1.0969741429334198e-01 -5.4765416618063452e-02 -4.6336232012208753e-02 1.0279179316220532e-01 6.7796252927036380e-02 5.0571006289924336e-02 -1.0453146503465158e-01 -1.0098176601113080e-02 1.1853580800929350e-02 1.0645257666672490e-01 5.3582114132721681e-02 6.1415235818075987e-02 -5.5150590760723456e-02 -2.0019852913045071e-02 3.1863766450679891e-02 -5.1884189402744314e-03 -6.2340205317262698e-02 -6.7118103819204236e-03 7.8139772545387412e-02 8.2900136846760814e-02 8.4086167199779127e-02 7.9133854875280005e-02 4.2555996171024298e-02 -1.2403952285425315e-01 1.2155731977836558e-01 5.4950707469561599e-02 1.5406421959393287e-02 -7.1274740885636984e-02 -9.2749632138722254e-02 -1.0538724864170287e-01 -9.6283115153510138e-02 -2.6125913476489439e-02 -9.2392920856929850e-02 -6.9653239692112276e-02 1.1061225706951761e-01 5.7381025723597170e-02 -9.5341858451749278e-02 -2.6724577774348966e-02 1.0342884659217061e-02 -1.9170939100185951e-02 -3.6780824105505211e-03 -1.2273974606483194e-01 2.4060753628581844e-02 5.2508003989284206e-03 -1.0092604242595858e-01 -1.0200545349227963e-01 6.7504145344929919e-02 5.2417380644141302e-02 2.2793976836465960e-02 -8.2054708732366408e-02 1.2376678534476013e-01 1.1211091720719848e-01 8.0823062144484412e-02 -1.0389921761336700e-01 9.9917398905428209e-02 1.1834248360117100e-01 4.4138434258035271e-02 -1.1432794296987871e-01 9.9874020288934662e-02 1.8007275231715809e-02 6.1210943874043827e-02 6.5939769134669951e-02 2.0473833891640651e-02 -3.3024769529418761e-02 1.0450158844534663e-01 8.8531518466896719e-02 -1.4931565161761889e-02 -5.9668788027504312e-02 -5.6282855673745391e-03 7.6636335897589782e-03 -1.1493744263722401e-01 -8.1393724439993795e-03 -8.6747162177304410e-02 -6.5151425113204375e-02 -1.0601382100900585e-01 -3.4599348716735151e-03 -9.4233613473473019e-02 4.2508745980154146e-02 -9.8893901428625669e-02 -4.9883286857558329e-02 -5.1995731788054070e-02 -7.1966111262632748e-02 -2.1488540552824818e-02 -1.1122834683688834e-01 3.6101818808308844e-03 -1.1650727134016710e-01 -4.1391115039479891e-02 -1.9591393659234818e-02 1.2634601762287589e-02 2.0019709088925704e-02 -8.4255117649262301e-02 -9.8568142909075382e-02 -1.2414026642083166e-01 3.3472709393992196e-02 -4.0113067342010950e-03 1.1998879210215802e-01 3.9416922244386475e-03 9.5028299096055799e-02 1.7163462560006438e-02 -1.1463732810933780e-01 1.1491380306962802e-01 -6.1195440447221257e-02 -5.6946268754672194e-02 -4.7583863832975651e-02 1.1931825323056013e-01 -8.6502843043168673e-02 7.1882819903765285e-02 5.0698709224038074e-02 -3.9440528986767955e-02 -8.0923857790461420e-02 1.1573819042980919e-01 9.2540253357497507e-02 -1.1993623911679802e-01 -3.8480195216792919e-02 -6.7984061571553150e-02 -8.2110004706192771e-02 -1.0991712435172564e-01 5.6724423545235735e-02 -6.5235373338262043e-02 -5.0369011665757669e-02 -6.3101222388785697e-02 8.1473328108036272e-02 -6.5147528711106018e-02 -3.2036522892894104e-02 -1.1896319787276712e-01 -1.3868912211980803e-02 9.7890575646445904e-02 3.0028635268802943e-02 1.1454486316359534e-01 -1.0509504572227024e-01 -4.3425498099708332e-02 1.0859368439342836e-01 4.5512679426555638e-02 -4.5079220932667488e-02 3.0555897291656628e-02 4.9520404543541813e-02 -6.4550086556494024e-02 -3.9108034844253854e-02 -2.5075363550199334e-02 -8.8898284779175024e-02 -9.7662658750760231e-02 -4.1117922879244574e-02 5.3172698971623127e-02 9.8697889743914177e-02 5.3464861518565075e-02 5.6768369774837089e-02 6.4131477251417350e-03 2.7051090982875021e-02 -6.4862497864830115e-02 6.3333071216477672e-03 9.1590687046491426e-02 1.1798004022010460e-01 1.6286618273169733e-02 1.4183063435740608e-02 -3.3417917735598567e-02 3.1010260511749387e-02 2.2478073547581506e-02 5.1646197298484339e-02 -1.0926772551424112e-01 -2.2000539786204993e-02 2.9124687958091599e-02 -2.3428635168310903e-02 -1.2384349351682175e-01 -8.8228865755738781e-02 9.5393691774167316e-02 -4.6920824029106890e-02 8.4432764135874291e-02 -4.6035991584040911e-02 -5.5183087601587952e-02 -7.7379113840829156e-02 1.0434950019980327e-01 -1.1048055523744400e-01 -1.1477640365373078e-01 6.0388406465763711e-02 1.0267251652998566e-01 2.8817762771433338e-02 -1.1589156798749154e-03 8.5716598700762120e-02 -8.7971401086621062e-02 1.4320153609511102e-02 6.3117780613874339e-02 5.6332199994854962e-02 -4.3157812622524383e-02 -4.7108472924795065e-02 5.7101990752973439e-02 -9.3401355448532050e-02 -7.5378060450549053e-02 7.0256471506514609e-02 3.8992256835295336e-02 -7.0378424677459958e-02 5.6787809441316325e-02 -4.9762987487454009e-02 -3.2840290645725821e-02 -6.7005154359383701e-02 -4.2095684832573421e-02 8.7046927891813661e-02 6.0242306089869524e-02 -3.1198818614154026e-02 -8.2337718576801014e-02 -2.7389244376073554e-02 -5.5805409758695128e-02 2.9279513482626050e-02 -1.1024240776576374e-01 6.2354540533801682e-04 -7.2934086388548008e-02 7.2213537283586843e-02 1.2119598456279934e-01 -3.4693813052254691e-02 -1.4554248344301560e-02 4.7906614672248979e-02 5.9542215240083962e-02 -2.2450679628393946e-02 6.6606416851964459e-02 -7.0372906731663840e-02 9.3447486196259658e-02 -9.7177106164878652e-02 6.7763529155772925e-02 -1.2379796261922103e-01 7.3980699937162983e-02 -1.0761753038547764e-01 1.9173601176427125e-02 1.1835906349863048e-01 1.0594472859826298e-01 -1.7197683516199106e-02 -1.0859939027821029e-01 -3.6305977612105093e-03 -1.0138986972998393e-02 4.6169156337843624e-02 5.2205068465506009e-02 1.2779128261984618e-01 8.0525158643367831e-02 -1.0772393713054254e-01 1.1652628807258110e-01 -1.2155911457930893e-01 1.1303362582001864e-01 5.7882259956100891e-02 4.4110321886219231e-02 -1.1712891032534702e-01 1.8893052748736924e-02 7.8495867988379375e-02 1.1015881920484906e-01 -1.7378318349380893e-02 1.0264246925649835e-01 -3.8541143186698185e-02 1.0361625901912121e-02 -1.0336153775884814e-01 -2.9616649978672194e-02 6.3240787330891168e-02 3.0339590980651737e-02 7.7178344647809538e-02 -8.6287841628574821e-02 -1.5405930807138029e-03 7.9457395222901739e-02 6.6124120742637876e-02 -4.2912169481512309e-02 -1.1556461198630045e-02 -2.4805481633349398e-02 -8.7641260709942423e-02 3.4460377677323399e-02 -1.1598562466591049e-01 1.1798607494665531e-01 -1.0706365675530211e-01 -3.3258776668784767e-02 -1.0740060809387180e-02 -1.0217437940703972e-01 -5.5033763700902225e-02 -3.9762801827474728e-02 -8.8387292041713958e-02 1.1207175431389138e-01 -1.0801131099007867e-01 -5.6000707547515724e-03 -1.1186157735828152e-01 2.0753780024374093e-03 -5.4403794452011116e-03 1.8820168603573845e-02 1.6823111696134291e-02 5.9745528942365490e-02 -9.1439375398837119e-02 1.3511768082421530e-06 1.0500857285555658e-03 -9.8398399814927789e-02 1.8674523411106769e-02 6.3673504471617251e-02 9.8947989015929771e-02 -6.6006042812711024e-02 8.2193576835069351e-02 -1.3718319373062475e-02 -5.4793148970740842e-02 2.3921552582207811e-03 -6.5588663847616691e-02 2.1556285944092379e-02 -3.6503402474266339e-02 1.2188434240551567e-01 5.1994081025104111e-02 8.1918740520957906e-02 6.5200078086644839e-02 1.0297944254744749e-01 -1.1269670681583591e-01 6.7039859763401127e-02 -1.4443238714827156e-02 -3.2256849146696881e-02 4.1042173192087632e-02 1.0578872412444719e-01 8.8091840036200866e-02 -8.6603342156269303e-02 -2.2641554363442892e-02 4.9395890374438325e-02 1.2345660812576967e-01 -4.4450521652459364e-02 4.0414472847645537e-02 7.2498580525998495e-03 3.9088425148159543e-02 -8.7403103763368031e-02 9.4940475889176826e-02 -5.0664627182070571e-02 -1.0425993065454572e-01 4.8456538236126966e-02 -4.6015015827140890e-02 -8.0020164169933405e-02 -1.1799820219214360e-01 -4.9442575635926130e-04 -8.8572909572233391e-02 2.1191965460710404e-02 -2.3907233577094792e-02 -1.0063901591295316e-01 -5.9640065852039174e-02 9.4151163770875651e-02 1.9047521151059000e-02 -4.5674874242782465e-02 -2.5604678608852061e-02 3.7488461714055177e-02 -8.7481712905764925e-02 -2.8986198388963314e-02 -1.1349687085351606e-01 -1.2678982425731469e-01 -4.6037371900706649e-02 -6.4900596566920793e-02 -1.1434583162241398e-01 1.4683369756958354e-02 -4.3754345704953429e-02 -1.2918242967347782e-01 -8.3432850054539431e-02 -9.7785735450259287e-02 -1.4585048974544336e-02 -1.4273003879538775e-02 2.9029834692082222e-02 -3.8230547154642303e-02 5.0523906715944811e-02 4.9581031406560477e-02 -6.8590446612184192e-02 -3.6257369183188067e-02 1.9432239202352833e-02 -5.0776459261341021e-02 1.6275714148958548e-03 -6.8385407902906217e-02 -2.2153330070855015e-02 1.1513200781071554e-02 -7.0813150972528896e-02 -7.8072993566918714e-02 -6.7423791006247291e-02 7.8153906331464837e-02 2.5633628813929926e-02 7.2501664240570932e-02 5.6221941855699918e-02 1.2294181486668870e-01 -6.0666801290973037e-02 -1.2055782568511582e-01 -8.5398948230058072e-02 3.1908068937950174e-02 -2.0454570709361841e-03 -8.3361422688587775e-02 7.6142914720589830e-02 5.7100578004455720e-02 -9.7396579088116636e-02 -8.9863350139241543e-02 5.1435347666459498e-02 -7.0810312859434496e-02 2.1033372410960875e-02 -5.3299913665150554e-03 -1.1039420869784211e-01 -1.2325564083577087e-01 -5.0677623955379766e-02 -9.8520965207512051e-02 -3.7776897442378977e-03 -1.1101759715222810e-01 6.2146950681415486e-02 -5.7353636061645993e-02 1.2431689043922367e-01 -4.2713887102292791e-02 -8.6597160198841373e-03 -3.3634322936567638e-03 1.1954909733800818e-01 6.9804051740590756e-03 9.5793627670837669e-02 5.1514443745399367e-02 -9.5768703537243885e-02 6.0765224538201532e-02 -5.8210427859862184e-02 2.6076512913790991e-03 -9.6332189863942458e-02 1.9413395908583892e-02 -3.8544525315163738e-02 4.1754341900301792e-02 6.2387895377972832e-02 -2.8241755912281275e-02 -9.1661509415856112e-03 -5.3701833254486853e-02 -3.9186134952116786e-02 6.8283552138660025e-02 9.6865666638274062e-02 2.7916157409489797e-02 -7.6914762820675567e-02 5.1232114782725741e-02 1.8228452353634968e-02 1.2251486181943080e-01 -4.3235106113103713e-03 7.2878192881484866e-02 1.0767525317605663e-01 -7.9869060154386093e-02 -6.0786092095965784e-02 -7.8354371228055913e-02 -1.6891152511713272e-02 6.2265550544083462e-02 -9.5535628453645965e-02 -7.2626872740458676e-02 7.4757775599770579e-02 -9.6413083904807573e-02 -8.4249368244896247e-02 1.1583650288988602e-01 -1.2708704587978110e-02 -3.7855361853093321e-03 -5.5270773341630213e-04 1.0497892841279691e-01 -8.5610285002560668e-02 -5.3058739498353814e-03 -3.8387844478795105e-02 -4.6256185399197292e-02 3.4825456952953568e-02 6.8025762308948287e-02 3.1844970097155340e-02 -1.1476848765064662e-01 -5.4340889476223238e-02 8.1150417944684722e-02 1.1466578197739097e-01 6.2892646218046411e-02 -1.0063912044710921e-01 6.0366571379415652e-02 1.0486168449904630e-01 1.2163259669737088e-01 4.1336040111556345e-02 -9.0902656364932236e-02 -7.9036688726530135e-02 5.1688148706178084e-02 8.3851341323210274e-02 9.3197521372194711e-02 2.6358022620030893e-02 -4.6732138484691835e-02 -1.0872768968557794e-01 -2.5150419449067454e-02 7.2210125311519782e-02 -8.5475220309720792e-03 -5.6923330402224174e-03 3.8146382140513166e-03 4.8930663432894400e-03 4.5658112149382687e-02 1.6798129209006835e-02 1.3874504305517748e-02 -1.0016722679776131e-01 1.4886871368986938e-02 -1.0902513266911387e-01 -1.2149445006824675e-01 7.1325112326927759e-02 1.5648339120985282e-02 1.0290895711042160e-01 -8.4545506148217209e-02 -3.4459955546752179e-02 -9.6526884745270838e-02 -7.7359357963245154e-02 1.9423066929885133e-02 -1.0035267896561269e-01 3.6522285504200530e-02 1.1182266284691406e-01 1.7005358470817866e-02 -7.3939199425144181e-02 -6.9495459656483280e-02 4.0263318280559478e-02 9.1771119544143444e-03 -7.7669517241789315e-03 5.1852950196370873e-02 -1.2011432381399632e-01 -5.9993215306442103e-02 6.6831817554205808e-02 3.6243842419591908e-02 -3.7378927681944778e-02 1.0052381348973916e-01 -8.4075821570074580e-02 -2.0463075211401994e-02 1.1033934292012453e-01 4.0163859753888642e-02 -7.2934055269459744e-02 -4.6411326536712087e-02 -9.1233937820402282e-03 9.2014368988362266e-02 -5.6504318389489210e-02 -1.0303584339434325e-01 1.0544220232194040e-01 1.2269934329614160e-01 -9.7191701967040911e-02 -6.4017492921831703e-02 1.1602284090055281e-01 -4.4522291021408644e-02 -1.1297992977439274e-01 -3.3229505217333997e-02 8.2458614188663543e-02 4.2022910974732881e-02 3.9426912474960434e-02 -7.8408031666525962e-02 -1.9146613404132339e-02 -8.3373315880809873e-02 -2.3843368570982071e-02 -5.4204670459598592e-03 -1.5813556581108681e-02 -5.6938016001911854e-02 -9.0304971180533281e-02 -8.7535182714486182e-02 -1.6741921686171082e-02 -1.1098764832573578e-01 1.4272725620218892e-02 -3.2433879331208802e-02 -1.1825638195151252e-02 -9.6662464672601311e-02 3.1639382759688715e-02 -9.1542831422636792e-02 6.2214165675017440e-03 -4.9711318210787558e-02 -2.0979034110434589e-02 2.4164995282185200e-02 4.4355822040422474e-02 1.0546692214464475e-01 -1.0833649557027476e-01 -5.2865059466678313e-02 -7.4894006662665274e-03 4.2095147123621356e-02 -1.2407464840913837e-01 -4.4541221581607879e-03 -1.0361103761245663e-01 1.2006834273129707e-01 8.8705250742618869e-02 1.1972993867936693e-01 1.1958043361075880e-01 1.0817498604509163e-01 -7.7261710962943445e-02 -4.6960019397916414e-02 1.0071565806472135e-01 -1.7720804590520844e-02 -9.8846633995481992e-02 -6.1954968930600013e-02 -1.2270446856766357e-01 -1.2518655176471002e-01 1.7127035541005493e-02 -1.7654564513542022e-02 -8.3200561662321190e-02 5.5857353562420546e-02 -8.8713999766403651e-02 7.6953913700471818e-02 5.6433083498179555e-02 1.1782762501502275e-01 7.2626903361991166e-02 1.1296677709108219e-01 -5.5039170301226382e-02 1.2388433605942152e-01 -8.5363372131631352e-02 -1.1131322373795725e-01 8.7343128507136866e-02 5.6517072376898701e-02 -1.1488915028431486e-01 8.3009846137135940e-02 -2.8471851116949882e-03 5.6367494370348582e-02 -2.4572952887841962e-02 -1.0627433048871042e-01 -1.2215062421548842e-01 1.7573490204010143e-02 5.7717539082981759e-02 8.5430537681430337e-03 -3.8619048872579012e-02 -6.4322277842468703e-02 4.7295755304048268e-02 -2.5275839499057248e-02 -6.0603714815933574e-03 7.2495023586030813e-02 -1.0302142115224264e-02 -1.0069728543994047e-01 4.5967748043400689e-02 -1.2600354958588561e-01 -3.8262978716556463e-02 -8.1169579545598280e-03 -1.8822660058373333e-03 9.2912473508409407e-02 6.6621330587465707e-02 -4.8184478033601895e-02 8.7443464050721634e-02 3.3859778312948480e-02 -1.0266153663674131e-01 -1.7028819160032731e-02 -6.9441831066221080e-02 1.2198064227932144e-01 -1.1646580689491140e-01 4.9267838867417195e-02 9.0593992564310402e-02 -8.1339021527747440e-02 -6.0342299906588320e-02 8.8455946678273639e-02 6.0557629272706082e-02 -7.3290451661760847e-02 -1.1989028507295471e-01 9.6985222238488683e-02 -2.0592524063241559e-02 9.3764458934946615e-02 2.1928110891022482e-02 -1.1191311352644495e-01 -8.3908711528530577e-02 -1.0441290944486920e-01 -2.4264343343713697e-02 6.7224638892745825e-02 -8.1740588554400376e-02 4.4433721835427003e-03 -9.5722860588568590e-02 5.6408777907360458e-02 -6.2713029844256710e-02 4.2380588435262448e-02 1.0960437851332962e-01 -9.5261048066515655e-02 -1.1350410927677509e-01 4.5310201836973020e-02 7.6808029818324880e-02 -2.8693053309279109e-02 5.5368309613513439e-02 9.9297067724428381e-02 -1.5384449649341653e-02 1.2182078372837495e-01 2.7911100509514998e-03 -7.7043005305059184e-02 -7.6030358894726882e-02 -5.7508981519886898e-02 1.7576818674548415e-02 6.5528704380937150e-02 -8.0114649064711885e-02 9.6389728620120737e-03 4.3172180586027113e-02 2.3296587979987370e-02 -1.2654898782754953e-01 -8.6040677291244705e-02 -5.7436002725374947e-02 3.5213666072336502e-02 5.9064620080524185e-03 -2.5751025572465492e-02 7.2826273759341337e-02 4.5167875116164109e-02 -8.4793866945645599e-02 -3.3040148758218750e-02 -5.6634553877735359e-03 -1.2422754247910706e-01 2.7983478685681806e-02 1.0288816064384693e-01 6.0794567300892248e-03 -6.9475670902391373e-02 1.4473374558673717e-02 1.1393677873337872e-02 -5.1416043537270105e-02 6.1240170942924096e-02 -6.3513533647614945e-02 -1.2171981047440401e-02 7.2491538368437664e-02 -1.7275648966964291e-02 6.2819654675198650e-02 -2.9925682254787200e-02 -5.7642569936263321e-02 9.0926183707898650e-02 1.9824459088028323e-02 7.0222039193710187e-02 -4.5722644740768981e-02 -3.1611777126544255e-02 -1.9357365424813252e-02 -8.1334372062610696e-02 7.9716336636642848e-02 7.5756274189561434e-02 -1.4828220086699826e-02 -2.6991402786171580e-02 8.4895800381288231e-02 -2.4371210259731560e-02 -1.2344771586117058e-01 3.3474799681034316e-03 -6.6611279140945043e-02 9.8360390226543928e-02 3.8969852840557657e-02 1.9383948200292656e-02 1.3063873920421149e-02 6.2151707081980048e-02 9.8067512765536366e-03 7.6049489045616134e-02 3.1535974485190736e-02 7.3289492012085705e-02 -1.8095373782511078e-02 1.2056479152009551e-01 5.1266788251868568e-02 5.4543864129466650e-02 2.0209357186968358e-02 1.9749236492685458e-02 -8.6865423858621449e-02 -1.0308448874324862e-01 -3.4079377884436796e-02 -7.7532565854312493e-02 5.5447510418523735e-02 -5.2993497138783950e-02 2.7528711638723922e-02 2.0691584196936341e-02 -3.2369320696605350e-02 -1.4219097653330461e-02 7.7527391154129432e-02 -6.5889113819130277e-02 6.2253132241908753e-02 -5.4861460576204286e-02 -2.7875466334092741e-02 3.9907590127818741e-02 4.6712916851665891e-02 -1.0132357023334582e-01 -1.1444020200657276e-01 -1.0799289613790164e-01 -8.2252577260583035e-03 -5.3605704389229979e-02 1.0823049435979758e-01 -3.5882754295968440e-02 -8.9073612743825858e-02 -1.0512320629945041e-01 6.0634837838748512e-02 8.0233367389834748e-02 1.5803963546385420e-02 7.1710756180087043e-02 -4.6959400208607664e-02 1.5386847437579509e-02 -8.3308517331550050e-02 -2.2593257324067539e-02 7.5300689973908208e-02 -3.4893812172011228e-02 -1.0550392138511332e-01 -2.7451245154319539e-02 6.6630624691263698e-02 1.1477329945159144e-01 -6.1301891558643878e-02 -3.0126712360381318e-02 -3.8484713292652191e-02 1.2201675725342229e-01 -4.0551355607798885e-02 -5.6064986747641501e-02 4.4618620657358395e-02 -1.1920984516453123e-01 -1.0360729682771565e-01 -1.1539041803623507e-01 6.5807010139802335e-02 3.3397836114308177e-03 4.6329306979803316e-02 4.6682507711856676e-02 6.9417118764666982e-02 -8.8122901856231589e-02 1.1590781774675665e-01 -5.3624929923102062e-02 7.3472733545815211e-02 7.3787802532520277e-02 -8.5292527021106943e-02 1.2060012745868329e-01 1.1391627021753435e-01 -9.4431419826467938e-02 -6.4953114145623964e-02 2.4861178504880479e-02 -1.0219446828651710e-01 -6.7695957141736289e-03 -4.5863953989286749e-02 -2.7357610762763555e-02 6.1350800951344910e-02 1.1232718691637540e-01 -5.3714436592732326e-02 3.8556349171537725e-02 8.7873944618894223e-02 -1.7377448376621241e-02 1.3139048461603787e-02 -5.6117101627849462e-02 6.8938589373826908e-02 -9.3892883720280901e-02 3.3341624957020484e-02 6.2529515169512578e-02 -2.9883273718781259e-02 -5.6618737340226627e-02 4.3855939119886410e-02 -1.5194008298593523e-02 -7.9745659740562982e-02 -1.1246040833033143e-01 1.9295401281481363e-02 -3.0624375478532799e-02 -1.0493576739030569e-01 3.5343256633516257e-02 1.1040496430091116e-02 -6.3969458490440403e-02 8.7576753030237445e-02 -4.4380810789410557e-02 9.0826430996135965e-02 1.1148475196099979e-01 1.1849606225196412e-01 8.7723516292416322e-03 -1.1303750903010515e-01 8.4661155811153382e-02 -1.1250241043410196e-01 2.2855093320218817e-02 9.0625103033728199e-02 1.0531451834769038e-02 -2.4001916456541390e-02 1.0068908395774091e-01 -2.9944949039966338e-02 -6.3573182568926495e-02 -2.1234807845271739e-02 -5.0912456441345552e-02 -1.0845116973508177e-02 -1.9941290865114990e-02 7.6505651880303074e-02 7.2274857085542460e-02 8.4328114016350875e-02 1.5881284602894636e-02 -4.1856638841442785e-02 -8.1185011678186439e-02 1.0307927707790139e-01 9.4059246605369337e-02 -6.3031250480238082e-02 5.4814725917061005e-02 -8.3214844349445038e-02 -9.7085207431580764e-02 5.8712233002380161e-02 -1.0163568586125633e-01 -1.1713345921256292e-01 6.6984632595090840e-02 -1.8183726053161139e-02 4.4909142172131114e-02 7.6291112072324779e-02 -1.1020018685020540e-01 -4.2204930274196917e-02 8.9788365738458012e-02 -6.0921061904077950e-02 -7.5537125053249971e-02 -6.6270639662398642e-02 -6.7973280045459439e-02 6.7685513783711029e-02 2.9338636458289304e-02 -1.1614215378408133e-01 -1.0024848176193395e-01 -9.0133418706278015e-02 1.0224397643739849e-01 7.9602947239781105e-02 7.7414286069580522e-03 5.8035948502471950e-02 1.2233385008677920e-01 -1.0332626025628738e-01 1.0883557992023726e-01 6.8362166071566005e-02 -5.0326084466702406e-02 -5.6404028392575821e-02 9.1936422878083068e-02 -9.5657612489907534e-02 -1.0876078298757033e-01 -1.1403398308002148e-01 -8.3646074507774698e-02 -9.3992374422138841e-02 -1.5294800994628890e-02 4.5242902658409252e-02 2.5608952652107698e-02 6.3135290013485862e-02 4.8592559073096986e-03 -6.2439727256546923e-02 -1.2002328286576976e-01 -1.1766289017829402e-01 -4.1930853128996359e-03 1.2789944552838973e-03 1.5654979932803417e-02 -6.9955772522210177e-02 1.2317733197827473e-01 3.1604131833780622e-02 -8.8834613369420362e-02 -2.6843317493765242e-03 -2.2707813564917245e-02 -4.3506631210674610e-03 1.1135851543981291e-01 -6.9903704981860063e-02 7.0609829051894848e-02 1.1625031714726730e-01 3.6850205263220963e-02 -7.7275543817004771e-02 -1.1335814118654682e-01 6.9879495357960106e-02 2.8379594507382769e-02 -5.0881201917688176e-02 2.1514821489617432e-03 4.0877861439080369e-03 -1.1903601825023045e-01 1.0503831073262940e-01 -7.3254790859774585e-02 2.0586859929474514e-02 -4.2957928838565210e-02 -4.0421646406152652e-02 -1.8663021215127980e-02 7.3122511857848863e-02 3.1818206142245814e-02 1.1160334813656041e-01 -7.9287861909793644e-02 1.2080948236763649e-01 5.2911608535773667e-02 -9.7668174036980165e-02 -1.1957927742227258e-01 3.5866386895994279e-02 6.1440245940953368e-02 3.1291967774493050e-02 5.2601978662962560e-02 -4.8151145845742940e-02 -5.2331902097001119e-03 9.1950444769175951e-02 1.7615835596713415e-02 4.7113726584215691e-03 -1.0697738483190926e-01 -3.1058308957123373e-02 8.8463143279413209e-02 6.9085959064465394e-02 -3.9671767682950873e-02 1.2084578991692774e-01 1.2057136825792492e-01 1.1569489987398658e-02 3.5573810249984641e-02 -5.9925416763559461e-02 -6.8829743495431223e-02 -1.4434819228471943e-02 -6.7756964123729210e-02 -2.0256510225374520e-02 2.7683726462814646e-02 -7.2447785622534552e-02 5.3172300605462547e-02 -5.2611740313550814e-02 8.0033964952474140e-02 -8.5567944172435476e-02 6.7236616196313922e-02 -2.4170335028646333e-02 2.5145153742720784e-02 -5.1521131431019336e-02 -6.5875635938059091e-02 1.0224678529260792e-02 -3.9376490895406211e-03 -9.9985186902631473e-02 9.6085838779983584e-02 2.2341079780082703e-02 6.1927688111213526e-02 4.0968359122405928e-02 6.1478191722380997e-02 8.1609195750249316e-02 3.5176617755648461e-02 5.0780404852434090e-02 3.1834138593236701e-02 4.8409468755570492e-02 1.1096516416330650e-01 -3.7478226026702852e-02 -6.1414755534912775e-02 1.1690554027110822e-01 7.3030292804520405e-02 9.3155868253496865e-02 -1.1051008913011609e-01 6.5634337952375235e-02 9.1838827262538197e-02 8.4867480067995299e-02 -1.2305817683512116e-01 9.6796512263842477e-02 -9.7904122161550367e-02 8.1348460475148543e-02 4.3377689557722475e-03 -5.9515826809390153e-02 -9.0935436402329789e-02 8.0769521331309407e-02 3.1496235366303138e-02 1.0107365242888210e-01 6.4030630379539225e-02 1.6536555007828951e-02 8.2463985017844410e-02 -1.1957005009003793e-01 1.1333520300210140e-01 -5.1034378153002220e-02 -1.2020366986810731e-01 -6.8129688807400127e-02 -7.2763965669844638e-02 7.4260700739400096e-02 -8.1230661841669646e-02 -7.5838970727974533e-02 -2.0741227635717358e-02 -5.1279476956554298e-02 -9.5476877221382945e-03 -7.9269506654172872e-02 1.6548426934639638e-02 8.7877116330514995e-02 -2.6624067850287723e-02 -1.6708788863803368e-02 1.1577234091607241e-01 -2.4597744270311906e-02 -8.0206768952039209e-02 4.3884096395552220e-02 -8.9176551035800120e-02 1.0868579846567371e-01 4.7626140786998237e-03 -1.4271002301344198e-02 1.4452532305996213e-02 -5.8258092277848277e-02 -7.6984345130937826e-02 -1.1894258226889799e-01 1.9807206122530265e-02 1.0901146195831685e-01 -4.0797456581516484e-02 -9.0191424138884216e-02 -3.7519196977514692e-02 1.1573247724280025e-01 -3.8400173674940519e-03 1.0767308569595675e-01 9.9705958090996430e-02 7.0887830808497782e-02 -9.4649013097215517e-02 1.1677040998308139e-01 -6.7113361971426394e-02 -8.8063113112436850e-02 3.6581785600209575e-02 -7.6648889525313901e-02 2.5555133891265024e-02 -9.2887609495185361e-02 -1.7020133207972753e-02 -4.0247159550498200e-02 9.5606697459557341e-02 7.4765011876557555e-02 1.2267908739819593e-01 -1.1879562916687916e-01 -5.4338291006139752e-02 1.2156820057563679e-01 4.5342423874802008e-02 -1.2178488002085885e-01 -7.5794831356140693e-02 -4.1843814436903326e-02 -1.7935770145313217e-02 7.8742208119859838e-02 6.5696751246329963e-03 6.9192200805960141e-02 -1.1789148802572641e-01 -7.4754831278542313e-03 -1.1428815058992539e-01 2.7875082672253974e-02 -8.7309548445604953e-03 -1.1221875558459417e-01 5.8373285120441883e-02 8.1181993256882024e-02 -2.2723612940029517e-02 -2.9884156920272398e-02 -6.6865581327870682e-02 -7.1954646229788546e-02 -1.0812908281859505e-01 2.1235118184843953e-02 -1.4431203322097953e-02 -7.2580795044556556e-02 -1.1784757905998683e-01 -1.3838056137515684e-02 -1.0842883707582436e-01 -5.1259767320820965e-02 -4.8455772122085322e-02 -8.7700362940457174e-02 -5.4440116530039738e-02 -3.5617573962321944e-02 -1.7479689062806607e-02 4.1042065370543772e-02 3.6467078457882618e-03 4.6821811190080574e-02 1.1970603529982921e-01 -6.2992542571088814e-02 8.3185300859232189e-02 2.5233401382763906e-02 -9.2152985406678017e-02 -5.0065875900577601e-02 3.8371904026935792e-02 1.2533132138724962e-01 1.0475977134899785e-02 1.2073555612872371e-01 -5.2535923221238769e-02 -1.4556092076115834e-02 -1.8304049082972774e-02 -1.4552010693782308e-02 2.5560605775014251e-02 1.0874271417423333e-01 -1.1372388317998570e-01 7.5616413602272226e-02 9.3030331824459495e-03 -5.3368250987545100e-02 -9.5739437773034231e-02 -7.5456002318427029e-02 -8.4534544184284438e-02 -8.2090506719537104e-02 -4.9938668821252551e-02 1.2434437054850923e-01 2.0449598916330115e-02 2.5111980811661317e-02 -3.1277795842942407e-02 -2.3606430960562811e-02 -3.3370604066408259e-02 3.7533072080844380e-02 -6.2983134302439972e-02 -7.0205702335333478e-02 8.6854517852229016e-02 -1.0310061650152789e-01 8.5029983141430877e-03 -9.6483152181842308e-02 2.5209296669909164e-03 -1.0902568393002042e-01 8.4953584417245834e-02 -6.5713137436047536e-02 -7.2096447572195507e-02 1.4680557954975823e-02 -2.6229855224832985e-02 1.1894989207862128e-01 9.1319634498826824e-02 6.8030376588415500e-02 -8.2241836047754910e-02 -3.1383959172159484e-02 -9.3069170533492715e-02 -5.7612816008370425e-03 1.9471541499083726e-03 7.2994625822969145e-02 8.2671985157491773e-02 -7.0735782675407477e-02 -6.9370668024924212e-02 9.8373000033015010e-02 1.0547493644932392e-01 4.4577267368154400e-02 -1.0952565627509267e-01 -8.2606070112777638e-02 7.5845679649881009e-02 1.9330301598592461e-02 -8.5162956472947485e-02 1.1834984441909879e-01 6.4437699327086678e-02 9.5142439282112065e-02 9.0542267270260129e-02 -4.9164883989131491e-02 -4.9162925387343466e-02 -5.2818013756765710e-02 1.0156343993135736e-01 -8.9927884846351586e-02 2.7791233047649033e-02 -7.3571694318234113e-02 1.8205084108778954e-02 -9.0698533589542701e-03 -7.0688857235899983e-03 6.7794103647967605e-02 -1.3721034515520578e-02 1.1150109728291020e-01 5.0774038211993625e-02 3.9012417832364511e-02 -3.1162289807143920e-02 -7.5763487081927941e-02 9.1014293018935488e-02 -8.0611299986281346e-02 -6.7158899871526748e-02 8.9276419708624287e-03 9.5853756691387265e-02 1.0552343595189308e-01 8.5660920671898372e-02 -1.0299122439714663e-01 -4.9571871839390790e-02 -6.6439120501559215e-02 -2.9393117224262053e-02 2.0625591539648346e-02 5.3395928518974019e-02 -6.8448597464117605e-02 7.5161637766655034e-02 -2.2639255493306931e-02 -4.6840413370390695e-02 2.6631780916988972e-02 7.1916128699803947e-02 -8.3585416251189551e-02 -1.3581982973413597e-02 2.9311770729956738e-03 -6.1998573894444249e-02 8.3828524078723002e-02 -1.0355668072844847e-01 7.3034411260368678e-02 -1.1704060289129620e-01 -3.8157596076509120e-02 -4.3393886516704866e-02 -2.1155650844843971e-02 4.0067116885468275e-02 -8.2495537095994734e-02 -3.2948666591113979e-02 -9.3004066459288201e-02 3.7990502308673707e-02 -7.1116466716893034e-02 -1.2663864655094056e-01 5.6633288655602784e-02 -1.0161368680167758e-01 -3.1718129923271950e-02 9.5108114385935402e-02 -6.1508299428040356e-02 1.1007725532323478e-02 -3.8451096690415819e-02 3.0968460821637945e-02 5.2559632034733954e-02 -3.3708382379522416e-02 -9.4639998808785417e-02 1.0369382653171703e-01 7.5904283168547124e-02 -8.0415895892101075e-02 9.2472304503407293e-02 9.5205249921513080e-02 9.4152626929553174e-02 8.3000726300661489e-03 -2.7146750679165301e-02 9.6454548724265510e-02 8.5894992115555832e-02 -3.9249591018978632e-02 -4.2945517927154689e-02 -8.0665401076416746e-02 1.1220117401390006e-01 1.0054145824128124e-02 -1.1853704287602658e-01 -4.7638700082556058e-02 -1.1992289254751039e-01 -8.9822671604041032e-02 -3.8575262140680473e-02 6.1976528215488052e-03 -7.2850219252800053e-02 1.1291963497929011e-02 1.5852386823430143e-02 -4.2281292446010817e-02 -1.1407363579163504e-01 4.7350893323614890e-02 -6.1688672797191625e-02 1.2445736801185091e-01 -5.9257933596198013e-02 -5.5806742856861859e-02 -6.9251112242037560e-02 8.0031158247735837e-02 1.2067976570885577e-01 -1.2184587877973239e-01 3.2911564068167226e-02 1.0540319107228070e-01 -4.6488301690184768e-03 5.0196073711994665e-02 6.3863251919113087e-02 -7.1471992397533407e-02 -7.2336381465324062e-02 1.0605500818566796e-01 2.3589594761656230e-02 2.0055177441054669e-02 7.3329207635641103e-02 3.8585952562050871e-02 -2.0217510355361568e-02 -9.7199602390069639e-02 -1.2022606002786111e-01 3.2507566221360702e-02 -1.2022541160304634e-01 -6.9682628083591228e-02 1.8531508868806973e-02 1.1410132568779772e-01 -1.0494962000967448e-01 -8.2638278927053416e-02 1.0739245935214554e-01 2.3754629319263774e-02 4.1142210468096407e-02 -9.5433723050012721e-03 -9.2354096703657740e-02 2.6475979864022323e-02 -7.2484460753733521e-02 -1.2079731822938598e-01 8.8336739656807689e-02 8.1192549040776350e-03 4.1541989621608759e-02 -4.8644619740332247e-02 -1.8325328077493996e-02 2.5156758160648794e-02 -7.7221326942241514e-02 -6.2705292667359608e-02 -1.1371583939878722e-01 -1.2259442851200909e-01 -1.9890450144249023e-02 -2.3217046102876403e-02 7.8802906318670485e-02 2.2286655675240616e-02 -9.1975638384905363e-03 -3.6547760412331085e-02 -1.1958380726528696e-01 1.7997697527288452e-02 -1.4379288312985234e-02 -2.7734948765741559e-02 -7.4052078926488296e-02 -3.5233330680874773e-02 6.1541497960747732e-02 1.0815048586974609e-01 -9.7036884541441645e-02 7.5810895068693998e-02 2.0301495691965710e-02 -7.0705943290894219e-02 7.5948128758569211e-02 4.7062111710439856e-02 4.3978878649511721e-02 -8.4299657021784297e-02 8.1841262968699452e-02 -6.0560314423743149e-02 2.8884323955902073e-02 -2.9175310211775926e-02 2.4016203439461370e-02 -1.2439844699024441e-01 3.6265244684917070e-02 1.7260528870681002e-04 -8.8470106527750489e-02 -7.1384390042138991e-03 4.9497904402644899e-02 -3.3548253207551421e-02 -1.0694678026983122e-01 -6.7705875301983090e-02 -1.1949448894963310e-01 1.0977386851073766e-01 -4.0554586830990336e-02 -1.1252438282741035e-01 5.1371108368400219e-02 -5.0519167610886095e-02 -5.6134270068528017e-02 6.7164334948826232e-02 2.1277312309450278e-02 -9.9098908879374975e-02 6.7317482968094269e-02 6.4377757444103678e-02 7.5603409940746547e-02 5.0519994078463019e-02 -1.1213288716959802e-01 -1.0522872695232355e-01 -1.3934361592011770e-02 -4.2910500971859646e-02 2.3264660822576080e-03 8.7737015858773929e-02 1.0924867222837553e-01 7.6182390668422695e-02 -5.2937751052573199e-03 1.1183984615231729e-01 -7.6655539118325983e-02 7.6238604519638497e-03 -2.5247802911167714e-02 1.2243262556216011e-01 -3.8312823046478622e-02 -1.0386485247026006e-01 7.6067139566218356e-02 1.4437219658755534e-02 -3.6117349149860430e-02 -1.2325554724974498e-01 -5.8156414684491682e-02 3.2467905574854981e-02 -1.2365830043921426e-01 3.5166547780148279e-02 5.2488497428720811e-02 -1.2109715685076945e-01 6.8181173117996402e-02 1.1038065320753240e-03 -7.2173296178107152e-02 -8.8581897877264448e-02 -7.0817054977907259e-02 -3.8789416929271486e-02 2.0754439544044639e-02 9.3873264978585919e-02 -1.0194802326900436e-01 8.6749795409430161e-02 4.7293341257137023e-02 -8.4786393232719859e-02 -6.7020472481754384e-02 -8.7334502850498860e-02 2.7683098369099050e-02 -4.9287498860768456e-02 -8.3528170817038574e-03 1.2110755358275868e-01 -7.1529334062611055e-02 8.7105041076312062e-02 1.0415227230286149e-01 7.4204681253711088e-02 4.5883045980443828e-02 -1.0749946464296432e-01 1.2614623618408208e-01 -1.9337845249352302e-02 -3.1569023640225215e-02 8.4595257662144471e-02 9.4049474551252760e-02 -5.4814520871673975e-02 -6.6312955875277371e-02 -3.5054182945748823e-02 7.7279139605496025e-02 1.0031111412941467e-01 1.0163708304969729e-01 -7.6590959619460733e-02 -4.4332391701153689e-02 9.4643028440040758e-02 -2.6588734983964357e-02 6.0997334492209919e-02 9.0887229688714183e-02 -4.3421524720692307e-02 -1.2317820153668949e-01 -3.2176405372708002e-02 -1.0609993510805936e-02 -9.2554555105310840e-02 -1.0119441997613102e-01 -2.2090622623710147e-02 8.5533327071519574e-02 1.8025486388105961e-02 -1.0490823818595698e-02 -1.1120273771864367e-01 -1.0508051102527295e-01 4.1005700227766326e-02 -3.6779361867567209e-02 -3.8271381654755021e-02 1.6711695455172659e-02 5.8237292717199692e-02 1.0712890350832038e-01 1.2029885423702961e-01 8.8865630360061604e-04 2.2916093242415714e-02 2.1003516167981112e-02 -2.0420590704764294e-02 5.3913511500673188e-03 6.9467668509861386e-02 -8.2385274877510906e-02 -1.2262621735968919e-02 1.2332683402628151e-01 -1.2085795734455160e-01 -5.2644473426574627e-02 -4.6061866819174589e-02 -1.4666200936273670e-02 -1.1916428186101917e-01 -1.3058149825401192e-02 2.1710591632447949e-02 -7.2085787840845642e-02 -3.2737012397636461e-02 1.1115956191792170e-01 -1.1280216951919486e-01 -4.4011281989502077e-02 1.1030086350936072e-01 -3.2317763480765906e-02 1.5089891554653491e-02 -8.3991493674336504e-02 -1.9907626700665437e-02 -3.5395218439805233e-02 1.1714458880416730e-01 1.0145191466301760e-01 -1.1229566859422874e-01 9.7257590620212636e-02 -1.2008582258829231e-01 9.1653377458751198e-02 -5.9789075472589992e-02 1.2916424450302189e-02 -7.8772509624133111e-03 -9.8193162745704610e-02 1.2114199109623749e-01 6.2953275539892439e-02 -4.7904192651614712e-02 -8.9575626038022535e-03 5.7888493985810670e-03 1.2438730798875695e-01 -4.4900281119910776e-02 -1.7146269112067247e-02 -2.2093286631570886e-02 9.5324676114268495e-03 -6.0256408610022051e-02 6.4330444857245428e-02 4.7311512434947064e-02 -1.7166444915926015e-02 7.8528445661853144e-02 -2.0064155949569954e-02 -7.7692023486301734e-02 9.2205534522178501e-02 1.4867884247941119e-02 5.7843167381766765e-02 -7.9505070837599098e-02 4.4670512216291369e-02 -2.4592724609038909e-02 1.1569580339054057e-01 6.8272252240630743e-02 -9.7390431920106421e-02 1.4340852282270748e-02 -2.4295918694286423e-02 5.0195833857811976e-02 -1.6580970795842273e-04 5.5243746022391750e-05 -1.8899566322370900e-02 1.0075166594953835e-01 -5.0619927070643084e-02 -2.6794866546479473e-02 3.8083119705043057e-02 -6.7294309010904538e-02 3.5248337806273178e-02 8.1700380904960845e-02 -1.1175088035000239e-01 -3.7273968645026807e-02 4.8175543783536855e-02 -8.8736343758707661e-02 -2.0115220872531193e-02 -2.7600344576129837e-02 5.4087365123050887e-02 -4.0719992566168282e-02 2.9579470274708013e-02 1.1199099232285067e-02 1.1747999552422894e-02 5.7324189993752515e-02 -1.7608991528858784e-02 5.6738487166586443e-02 4.4485913654457365e-02 -5.3261664825501299e-02 1.2110539739156923e-01 3.7285572826836984e-02 1.2172233246065875e-02 1.1228122874194527e-01 3.2325452842482852e-02 9.6208846001700821e-02 3.8707556366224090e-02 -3.0990477779601441e-02 -7.5024987285187986e-02 -9.2682921639894777e-02 -2.0888552793692113e-02 1.1914684512090334e-01 6.7303613403474931e-03 1.0498148657709126e-01 1.1609422762142745e-01 -2.2422375338828557e-02 9.4197944773899783e-02 -8.7012945961779761e-02 -9.2800264691568685e-02 9.2661281195943135e-02 7.2229040027115415e-02 4.2939410725385110e-02 5.2725353980142838e-02 -5.8492306949044601e-02 -2.4977037414737296e-03 5.8547528547920655e-02 -2.8542284243031124e-02 -1.0768432034809158e-01 -6.3964489170101002e-02 -1.1205350291177869e-03 1.0318978986836493e-01 6.5258621470372204e-03 9.1315137871849666e-02 1.2080760662756158e-01 -1.2008885784760065e-01 7.8065714459466223e-02 1.0853702234553191e-02 -8.4862802548787100e-02 -2.1969277492693024e-02 -2.0369017148122996e-02 -1.0354465525698177e-01 8.0158338189834089e-02 8.8132296645034927e-02 -5.0901428094972327e-02 1.0300255473080777e-01 8.9606178572665632e-02 2.5952127480706133e-02 4.8136944086341081e-02 -1.1124291336983300e-01 7.3244522376504903e-02 1.0208252078363378e-01 -1.0471246352022358e-01 -4.4454694063546102e-02 -9.9085035894219686e-02 -1.1527254065736428e-01 -5.7348551916091089e-02 -1.1842930458374212e-01 1.8818745806771429e-02 -2.7724583382353191e-02 -8.1387217589348346e-02 -7.6670564479310421e-02 -6.4689082416991617e-02 -6.8238835810668613e-02 6.0877115541751264e-02 5.1468541870484837e-02 1.1180465738756178e-01 1.1601496934470361e-01 5.7461762880331869e-02 -6.9028789571917284e-02 -1.0617465750843604e-01 -6.4280260810122836e-02 -2.1018163047208889e-02 -7.1281044926934656e-02 -8.5995249304376825e-02 1.1061511959309608e-01 -1.0229533457310065e-01 3.2645655479933644e-04 1.0326452201052096e-01 -7.2188467645248985e-02 1.6091686181425511e-02 -1.3063784388488311e-02 -6.3970247899876723e-02 3.4496844562761080e-02 -4.8660337503431836e-02 -4.4238842922504004e-02 3.3629662562942572e-02 1.1626692720281503e-01 6.7188575358912983e-02 3.2914601428089088e-03 1.0949885485638401e-01 9.3472781091334708e-02 -8.9239164860869080e-02 -7.6491776638879178e-03 -7.7662891355736133e-02 7.7727677523616048e-02 -1.1083793105731835e-01 9.4395180323923605e-02 -1.0568941677094740e-01 1.1846224519881534e-02 -1.0460483736450026e-01 -8.9091519799719673e-02 -2.2410106233308757e-02 -1.0080290491099596e-01 -4.3812723193731029e-02 -7.4061184488248581e-03 1.1912554575622288e-01 -5.1645344305223141e-02 2.8793926213499271e-02 -6.7397900164956781e-02 1.2610935886761328e-02 1.0259395727271835e-01 2.7605643152197414e-02 -8.0593012377129583e-02 -1.0871905273523690e-01 -6.6566063277080853e-02 4.5305143916712642e-02 6.0180145638521190e-03 6.3782322028960517e-02 -1.1198392736057179e-01 -1.2014001264130494e-01 -3.9660389003881816e-02 -5.1913296830542251e-02 3.4775364416231181e-03 1.4632179835794561e-02 -1.0431938664082430e-01 -7.0046481603140767e-02 1.2050624438078909e-01 6.3548445447823513e-03 7.5570637885887929e-02 -1.3924119855592398e-02 7.0058170906288159e-02 1.7907981825505469e-02 -5.1382342481927142e-02 6.5487062459638437e-02 7.6083328256148650e-02 5.5168178081432678e-02 1.6798654774138781e-02 3.2345261142818875e-02 -6.5939676499676914e-02 -1.2528208717274576e-02 2.7056466118866269e-02 -9.5046131925736771e-02 6.0888717189617268e-02 2.5773532867530896e-02 9.5294946154744486e-03 -6.2812189541963867e-03 -8.8005841000652349e-04 -1.1939753946628266e-01 -1.2003635465435461e-01 -2.2379907275745282e-02 -7.0044012112114876e-02 -5.1177622979108404e-02 1.0018358940878300e-01 1.0466654819377581e-01 -3.3525454653126709e-02 2.2623701323683017e-02 1.2096955968177526e-02 -1.2004698855531411e-01 4.9674916465458317e-02 9.9459609664608054e-02 5.6301440528130242e-02 -6.6514899270685893e-02 -6.9139929503533967e-02 1.0935692126213088e-01 -8.5084015838647012e-02 -5.2787187340824757e-02 9.9290397294063193e-02 -1.1560050237726260e-01 -1.2281013393080081e-02 -1.2516771594404891e-01 2.5979168078333902e-02 7.4385893450753637e-02 -4.7006026602326646e-02 -6.6562840586166197e-02 8.3439474534113836e-02 -1.2316355544882900e-01 7.6073434686706978e-02 -2.0066340596069973e-02 -4.8802025378957690e-02 -8.0666451781906776e-02 6.7984246690096437e-02 1.0624733572035340e-02 -5.0738333892509348e-02 1.8603548296237542e-02 5.6824726534798344e-02 -8.9293349259067678e-02 -1.0751483206983671e-02 -1.8560482890808874e-02 1.2733982109761446e-02 1.0816921503446869e-01 -8.4741245282086416e-02 -1.0603510483733275e-01 -1.6098343586183929e-02 8.6267371623158923e-02 -8.3318363675647586e-02 1.2240426096277704e-01 -2.7043103294489428e-02 1.0153887931565912e-01 -8.3003017897371523e-02 -9.0233907980899183e-02 1.0313359086275509e-01 1.5204019057219097e-02 -8.0817796985862431e-02 -4.7612113643207832e-02 4.5992319263503750e-02 -5.1420575157054115e-04 -7.9424195021823241e-02 4.9669810714846871e-02 5.0498284309004451e-02 8.1012682552029175e-02 -3.0656072204993487e-02 2.8441419589985247e-02 9.7178785772209050e-02 -4.8592547922013028e-02 7.8361076733574911e-02 1.1526366240293247e-01 6.9857679300290437e-02 8.6390117260667906e-02 5.1455308125263608e-04 -6.9056736716296932e-02 7.7501796217540305e-03 4.4693714630707954e-02 -2.5967487614799386e-02 -1.0083538110783920e-01 -8.7334501551002044e-02 -1.8285239603057939e-02 7.7612154125416355e-03 1.1074480857787856e-01 -7.5507802155749787e-02 -5.8365112567073607e-02 -1.4141506226781925e-02 -5.5550466644608679e-02 -1.0308774970898496e-01 4.7745724834825129e-02 6.3975274400589963e-02 -7.6210822583598098e-02 -1.0462432517533861e-01 -1.0252929485911733e-01 6.7771532452535116e-02 9.2555262831071239e-02 -3.3280684338166409e-02 -1.2934718201754358e-02 -2.0719635965578010e-02 5.6639323781905088e-02 4.1251450606181655e-02 -5.9222723006561256e-02 -6.8821578302129843e-02 8.9065012339798522e-02 -4.5771079181465370e-02 3.3059035241524435e-03 7.9219479724209133e-02 4.1224720573112966e-02 -1.1310678198873721e-01 -5.1148776170353363e-03 9.0577117256244816e-02 -1.1111465047206372e-01 -4.8625322323869624e-02 1.5318267409333600e-02 -9.2333703272944864e-02 -1.7280594437720578e-02 3.9898860964280893e-02 1.1480425104867843e-01 1.1509548220333563e-01 8.6383824897572348e-02 -7.9043002019851691e-02 1.1410382978930216e-01 9.9895606768017994e-02 -5.2525058553773138e-02 3.4615949177956282e-02 1.0290340334509687e-01 6.6036136014961486e-02 9.7572341954516695e-02 -1.0878034463308686e-01 -1.1669163060884236e-01 5.7862509929707262e-02 -2.4618118764600523e-02 7.5755739497322144e-02 -3.3776139729490277e-02 7.9918930979947830e-02 5.4873696535511192e-03 -5.5124842920969162e-02 1.1820898200091280e-01 -9.1524780181081858e-02 3.4830096606795230e-02 -2.6484836935036390e-02 7.9245608215816721e-02 6.7192477409325074e-02 3.2110227396656595e-02 1.5033938813871899e-02 -4.1874337361652069e-03 4.7384224604221592e-02 1.2430858535649861e-01 7.0552509634875929e-02 1.7296420130271124e-02 3.3630939467665801e-02 -2.7664122832548484e-02 -5.9637798783986597e-02 1.2272127036703112e-02 6.5417639150551501e-02 8.7133134515908206e-02 -9.8413227032731282e-02 4.0108128728949741e-02 6.4680844478910671e-04 1.2685729154382264e-01 -2.7428857085677619e-02 -1.0063981001914991e-01 -8.1152622080407133e-02 -1.7705236249726950e-02 -1.0249750178809738e-01 -9.0658199328872494e-02 -6.8181570264710126e-02 5.2888725027351709e-02 -7.0286772775835310e-02 9.4192395250671274e-02 6.2475295673051677e-02 -5.2161352478912799e-02 9.2256060317386160e-02 4.8885697662523230e-02 -1.1727335995550023e-01 -9.7466251526895850e-02 6.1966573083758705e-02 4.9597606087234195e-02 6.6441136172920329e-04 -1.0120485933590163e-01 7.0101399538059009e-02 -6.7498403765433548e-02 1.1080954660001476e-02 2.7294290827237604e-02 7.2363097398068066e-02 -6.7696404531619847e-02 6.8291736015700613e-02 6.3138334981785019e-02 1.7104618665274785e-02 -1.1601060899601831e-01 2.8154666950699146e-02 3.8075890385779604e-02 -8.1532388792296656e-02 1.4150664545121471e-02 1.0989403832022049e-01 -3.6123954424874073e-02 -3.5500060922739672e-03 -1.7068496229176004e-02 1.1350779727089785e-01 -1.1398363251122554e-01 4.9125036227243617e-02 1.5696725600778973e-02 -1.1387389780680364e-01 -3.0019843299742984e-03 7.1388704021673570e-03 5.9801561843987182e-02 -3.5671047730682077e-03 2.4253493671589115e-02 2.7459268379157201e-02 4.6783160629085746e-02 6.4921202804897576e-02 -8.3983312707721053e-02 -4.9017146583170058e-02 4.4145769836271963e-02 7.0973636933557571e-02 -5.5361866175934027e-02 7.7447504879541787e-02 -1.2067494886980114e-01 1.0062284149375714e-01 -6.4114184131087631e-02 -1.2425086685043422e-01 -7.5418954050860257e-02 3.5230287315465114e-03 2.7027010583776702e-04 -3.8619535554163899e-02 9.5912872936729301e-03 1.8817607156232125e-02 -4.6355182618505589e-02 7.4056189907152334e-02 3.5894702239994587e-02 1.2397442024970659e-01 4.2450316757821814e-02 9.7701181807427484e-04 1.0601378738697202e-01 -1.0766781815424885e-01 -2.6180332426534302e-02 6.3319093060447432e-02 -1.9153676589624653e-02 -1.0415441983469249e-01 -1.5513888458679329e-02 9.3007279238623619e-02 -2.0288041020077328e-02 6.2985795386717974e-02 8.5467551128554059e-02 -8.1546270843061416e-02 1.0502920945901272e-01 -4.6560956860988094e-02 -3.0824963984308227e-03 -6.5026013064382646e-02 -6.1770375275353978e-02 -1.2449432078537542e-01 -2.5123438922889783e-02 3.3112343947068565e-02 -3.5593937351661366e-02 3.6551566908705937e-02 -2.8031003098487314e-02 6.0682777470548510e-02 -6.5746733223246215e-02 -1.1539312352368382e-01 6.3785120958979480e-02 -4.7617107942268415e-02 4.8786786556401424e-02 