<?xml version="1.0"?>
<MethodSetup Method="MLP::MLP">
  <GeneralInfo>
    <Info name="TMVA Release" value="4.2.1 [262657]"/>
    <Info name="ROOT Release" value="6.08/07 [395271]"/>
    <Info name="Creator" value="wverbeke"/>
    <Info name="Date" value="Fri Nov 17 01:20:50 2017"/>
    <Info name="Host" value="Linux vocms0302.cern.ch 2.6.32-696.1.1.el6.x86_64 #1 SMP Wed Apr 12 08:44:28 CEST 2017 x86_64 x86_64 x86_64 GNU/Linux"/>
    <Info name="Dir" value="/storage_mnt/storage/user/wverbeke/Work/AnalysisCode/ewkino/bdtTraining"/>
    <Info name="Training events" value="51025"/>
    <Info name="TrainingTime" value="2.99172835e+02"/>
    <Info name="AnalysisType" value="Classification"/>
  </GeneralInfo>
  <Options>
    <Option name="NCycles" modified="Yes">600</Option>
    <Option name="HiddenLayers" modified="Yes">N+5</Option>
    <Option name="NeuronType" modified="Yes">tanh</Option>
    <Option name="RandomSeed" modified="No">1</Option>
    <Option name="EstimatorType" modified="No">CE</Option>
    <Option name="NeuronInputType" modified="No">sum</Option>
    <Option name="V" modified="Yes">False</Option>
    <Option name="VerbosityLevel" modified="No">Default</Option>
    <Option name="VarTransform" modified="Yes">N</Option>
    <Option name="H" modified="Yes">True</Option>
    <Option name="CreateMVAPdfs" modified="No">False</Option>
    <Option name="IgnoreNegWeightsInTraining" modified="No">False</Option>
    <Option name="TrainingMethod" modified="No">BP</Option>
    <Option name="LearningRate" modified="No">2.000000e-02</Option>
    <Option name="DecayRate" modified="No">1.000000e-02</Option>
    <Option name="TestRate" modified="Yes">5</Option>
    <Option name="EpochMonitoring" modified="No">False</Option>
    <Option name="Sampling" modified="No">1.000000e+00</Option>
    <Option name="SamplingEpoch" modified="No">1.000000e+00</Option>
    <Option name="SamplingImportance" modified="No">1.000000e+00</Option>
    <Option name="SamplingTraining" modified="No">True</Option>
    <Option name="SamplingTesting" modified="No">False</Option>
    <Option name="ResetStep" modified="No">50</Option>
    <Option name="Tau" modified="No">3.000000e+00</Option>
    <Option name="BPMode" modified="No">sequential</Option>
    <Option name="BatchSize" modified="No">-1</Option>
    <Option name="ConvergenceImprove" modified="No">1.000000e-30</Option>
    <Option name="ConvergenceTests" modified="No">-1</Option>
    <Option name="UseRegulator" modified="Yes">False</Option>
    <Option name="UpdateLimit" modified="No">10000</Option>
    <Option name="CalculateErrors" modified="No">False</Option>
    <Option name="WeightRange" modified="No">1.000000e+00</Option>
  </Options>
  <Variables NVar="10">
    <Variable VarIndex="0" Expression="topMass" Label="topMass" Title="topMass" Unit="" Internal="topMass" Type="F" Min="-1.54065704e+02" Max="2.79402808e+03"/>
    <Variable VarIndex="1" Expression="pTForwardJets" Label="pTForwardJets" Title="pTForwardJets" Unit="" Internal="pTForwardJets" Type="F" Min="0.00000000e+00" Max="6.61229858e+02"/>
    <Variable VarIndex="2" Expression="etaLeading" Label="etaLeading" Title="etaLeading" Unit="" Internal="etaLeading" Type="F" Min="1.67353155e-05" Max="5.02646637e+00"/>
    <Variable VarIndex="3" Expression="etaMostForward" Label="etaMostForward" Title="etaMostForward" Unit="" Internal="etaMostForward" Type="F" Min="3.26758809e-02" Max="5.09238243e+00"/>
    <Variable VarIndex="4" Expression="pTLeadingLepton" Label="pTLeadingLepton" Title="pTLeadingLepton" Unit="" Internal="pTLeadingLepton" Type="F" Min="2.51133461e+01" Max="1.18817078e+03"/>
    <Variable VarIndex="5" Expression="pTLeadingJet" Label="pTLeadingJet" Title="pTLeadingJet" Unit="" Internal="pTLeadingJet" Type="F" Min="2.74540615e+01" Max="1.47311768e+03"/>
    <Variable VarIndex="6" Expression="pTLeadingBJet" Label="pTLeadingBJet" Title="pTLeadingBJet" Unit="" Internal="pTLeadingBJet" Type="F" Min="2.61249237e+01" Max="1.22783093e+03"/>
    <Variable VarIndex="7" Expression="missingET" Label="missingET" Title="missingET" Unit="" Internal="missingET" Type="F" Min="2.63551235e-01" Max="9.36872620e+02"/>
    <Variable VarIndex="8" Expression="pTTrailingLepton" Label="pTTrailingLepton" Title="pTTrailingLepton" Unit="" Internal="pTTrailingLepton" Type="F" Min="1.50033464e+01" Max="2.97809875e+02"/>
    <Variable VarIndex="9" Expression="highestDeepCSV" Label="highestDeepCSV" Title="highestDeepCSV" Unit="" Internal="highestDeepCSV" Type="F" Min="6.35600686e-01" Max="9.99999881e-01"/>
  </Variables>
  <Spectators NSpec="0"/>
  <Classes NClass="2">
    <Class Name="Signal" Index="0"/>
    <Class Name="Background" Index="1"/>
  </Classes>
  <Transformations NTransformations="1">
    <Transform Name="Normalize">
      <Selection>
        <Input NInputs="10">
          <Input Type="Variable" Label="topMass" Expression="topMass"/>
          <Input Type="Variable" Label="pTForwardJets" Expression="pTForwardJets"/>
          <Input Type="Variable" Label="etaLeading" Expression="etaLeading"/>
          <Input Type="Variable" Label="etaMostForward" Expression="etaMostForward"/>
          <Input Type="Variable" Label="pTLeadingLepton" Expression="pTLeadingLepton"/>
          <Input Type="Variable" Label="pTLeadingJet" Expression="pTLeadingJet"/>
          <Input Type="Variable" Label="pTLeadingBJet" Expression="pTLeadingBJet"/>
          <Input Type="Variable" Label="missingET" Expression="missingET"/>
          <Input Type="Variable" Label="pTTrailingLepton" Expression="pTTrailingLepton"/>
          <Input Type="Variable" Label="highestDeepCSV" Expression="highestDeepCSV"/>
        </Input>
        <Output NOutputs="10">
          <Output Type="Variable" Label="topMass" Expression="topMass"/>
          <Output Type="Variable" Label="pTForwardJets" Expression="pTForwardJets"/>
          <Output Type="Variable" Label="etaLeading" Expression="etaLeading"/>
          <Output Type="Variable" Label="etaMostForward" Expression="etaMostForward"/>
          <Output Type="Variable" Label="pTLeadingLepton" Expression="pTLeadingLepton"/>
          <Output Type="Variable" Label="pTLeadingJet" Expression="pTLeadingJet"/>
          <Output Type="Variable" Label="pTLeadingBJet" Expression="pTLeadingBJet"/>
          <Output Type="Variable" Label="missingET" Expression="missingET"/>
          <Output Type="Variable" Label="pTTrailingLepton" Expression="pTTrailingLepton"/>
          <Output Type="Variable" Label="highestDeepCSV" Expression="highestDeepCSV"/>
        </Output>
      </Selection>
      <Class ClassIndex="0">
        <Ranges>
          <Range Index="0" Min="-1.5406570434570312e+02" Max="2.4180964355468750e+03"/>
          <Range Index="1" Min="0.0000000000000000e+00" Max="6.6122985839843750e+02"/>
          <Range Index="2" Min="1.6735315512050875e-05" Max="5.0128211975097656e+00"/>
          <Range Index="3" Min="5.3986325860023499e-02" Max="5.0847115516662598e+00"/>
          <Range Index="4" Min="2.5163938522338867e+01" Max="8.1049218750000000e+02"/>
          <Range Index="5" Min="2.7454061508178711e+01" Max="1.0532637939453125e+03"/>
          <Range Index="6" Min="2.6276088714599609e+01" Max="9.2416906738281250e+02"/>
          <Range Index="7" Min="2.6355123519897461e-01" Max="6.0223919677734375e+02"/>
          <Range Index="8" Min="1.5005184173583984e+01" Max="2.9780987548828125e+02"/>
          <Range Index="9" Min="6.4546835422515869e-01" Max="9.9999988079071045e-01"/>
        </Ranges>
      </Class>
      <Class ClassIndex="1">
        <Ranges>
          <Range Index="0" Min="-8.2254081726074219e+01" Max="2.7940280761718750e+03"/>
          <Range Index="1" Min="0.0000000000000000e+00" Max="5.2107159423828125e+02"/>
          <Range Index="2" Min="3.5206707252655178e-05" Max="5.0264663696289062e+00"/>
          <Range Index="3" Min="3.2675880938768387e-02" Max="5.0923824310302734e+00"/>
          <Range Index="4" Min="2.5113346099853516e+01" Max="1.1881707763671875e+03"/>
          <Range Index="5" Min="2.8404010772705078e+01" Max="1.4731176757812500e+03"/>
          <Range Index="6" Min="2.6124923706054688e+01" Max="1.2278309326171875e+03"/>
          <Range Index="7" Min="3.9604908227920532e-01" Max="9.3687261962890625e+02"/>
          <Range Index="8" Min="1.5003346443176270e+01" Max="2.6632131958007812e+02"/>
          <Range Index="9" Min="6.3560068607330322e-01" Max="9.9999988079071045e-01"/>
        </Ranges>
      </Class>
      <Class ClassIndex="2">
        <Ranges>
          <Range Index="0" Min="-1.5406570434570312e+02" Max="2.7940280761718750e+03"/>
          <Range Index="1" Min="0.0000000000000000e+00" Max="6.6122985839843750e+02"/>
          <Range Index="2" Min="1.6735315512050875e-05" Max="5.0264663696289062e+00"/>
          <Range Index="3" Min="3.2675880938768387e-02" Max="5.0923824310302734e+00"/>
          <Range Index="4" Min="2.5113346099853516e+01" Max="1.1881707763671875e+03"/>
          <Range Index="5" Min="2.7454061508178711e+01" Max="1.4731176757812500e+03"/>
          <Range Index="6" Min="2.6124923706054688e+01" Max="1.2278309326171875e+03"/>
          <Range Index="7" Min="2.6355123519897461e-01" Max="9.3687261962890625e+02"/>
          <Range Index="8" Min="1.5003346443176270e+01" Max="2.9780987548828125e+02"/>
          <Range Index="9" Min="6.3560068607330322e-01" Max="9.9999988079071045e-01"/>
        </Ranges>
      </Class>
    </Transform>
  </Transformations>
  <MVAPdfs/>
  <Weights>
    <Layout NLayers="3">
      <Layer Index="0" NNeurons="11">
        <Neuron NSynapses="15">
          -4.4497465011967791e-01 1.8470246677133964e+00 9.3478767119985495e-01 1.7108439652826448e+00 -1.9386612231458655e+00 -1.2255253449548313e+00 -7.9691705951232916e-01 1.9843758749571414e+00 -1.4072684402349287e+00 -8.1346351316527554e-01 -1.7108557180058293e+00 -2.7277076270807715e-01 -1.2466428194307397e+00 -2.9463263625799779e-01 -6.3520593650268087e-01 
        </Neuron>
        <Neuron NSynapses="15">
          5.1612172249369792e-01 -5.9841306327733190e-01 1.9996502084010808e+00 1.3384382398912839e-01 1.4083372386018040e+00 -1.8526650554846192e-03 -7.4619369924580670e-01 7.1463575886055353e-01 1.1070599223496931e-01 -7.3952942529311050e-01 -3.2628654428855558e-01 1.6938861362615323e+00 -1.0843092684741189e+00 -1.6391537152914382e+00 1.1045849819386024e-01 
        </Neuron>
        <Neuron NSynapses="15">
          5.5771215982962974e-01 1.5227001774654965e+00 1.4514594709844467e-01 -2.0464241714937415e-01 1.6792910880335993e-01 8.1803048349561744e-02 -1.4252300516669496e+00 1.7190608809485974e+00 -1.1985724458273890e+00 1.7694322274130025e+00 1.1084571951421527e+00 9.9257272191885249e-01 1.8536796502241848e+00 1.3840012887393123e+00 -7.8037159626367070e-01 
        </Neuron>
        <Neuron NSynapses="15">
          -1.6681231725247234e+00 7.1603442632174308e-01 2.4753747392687406e-01 1.5238203717030201e+00 1.4378898069210051e+00 1.7048012342655379e+00 1.3288359706876129e+00 -1.6901065292654276e+00 1.3247574485858700e+00 -1.4586258179593505e+00 -8.9971615544096661e-01 -1.3675097793739261e+00 -1.7635231706842407e+00 1.6637954561388468e+00 6.8272213794721714e-01 
        </Neuron>
        <Neuron NSynapses="15">
          -1.7140564584517757e+00 2.2028758736397266e-01 -4.6567312210387657e-01 6.8052473494013088e-01 1.9211098089084044e+00 -2.9858323843425039e-01 1.2240299692879292e-01 -1.2153988614199598e+00 7.7477596061689857e-01 -7.3706010148312007e-01 -8.2173602599175855e-01 -1.2968094413593334e+00 7.7209703268659258e-01 1.2139613816647017e+00 1.3185866586474317e+00 
        </Neuron>
        <Neuron NSynapses="15">
          -4.5807640865285604e-01 -2.0573820809438246e+00 -1.9882500170874704e+00 9.8335588574368782e-01 5.6989143397524722e-01 1.9756132417302685e+00 6.3262537215313897e-01 9.8518318926748027e-01 -8.0519698802741058e-01 -7.9593988972994123e-01 -2.5207189648329154e-01 1.2796088081986352e+00 -1.0882418391098414e+00 -1.4887905567961084e+00 -1.7038294623148247e+00 
        </Neuron>
        <Neuron NSynapses="15">
          -3.1175793349604963e-01 -2.4417270371778116e-01 1.4281420136895437e+00 -1.6258305858531823e+00 -7.3958971189327949e-01 1.5363562737499141e+00 -8.6169303241458139e-01 -1.5219552347966065e+00 -1.4821508373449188e+00 6.2080414035535228e-02 -1.9419376183284907e+00 -1.5539917627724200e+00 7.4347231770422839e-01 1.7244698008395640e+00 -1.1412459227768661e+00 
        </Neuron>
        <Neuron NSynapses="15">
          1.5192103113132474e+00 -1.0923994608929384e+00 -8.7466465095172152e-01 -4.5118439801497552e-02 4.1716061522513881e-01 -1.5640601205949418e+00 2.5605315534461237e-01 2.8339091086451063e-01 4.6627300393487142e-01 -1.1509646751577232e+00 1.7312057899844389e+00 5.1102554964291103e-01 -9.3488979246214154e-01 9.2430976800593523e-01 -1.0886029197856830e+00 
        </Neuron>
        <Neuron NSynapses="15">
          -1.6961206707598520e+00 -2.6478113574221640e-02 -4.9849666783155955e-01 1.7970185825988165e+00 8.6909073477496479e-01 -3.8691031413615677e-02 -3.5458511906376800e-01 1.5572292369052965e-01 -1.7945911297266324e+00 1.0855012562207693e+00 5.7674403962443783e-02 -1.6772128583217023e+00 6.7939359860949378e-01 -1.3786275189673802e+00 3.5684344729111042e-02 
        </Neuron>
        <Neuron NSynapses="15">
          1.1568255237147651e+00 1.7734631023845358e+00 -1.5290339028560651e+00 3.5442961214885033e-01 1.4354561154149621e+00 1.9481305424260809e+00 1.8442016640630751e-01 -1.5032295835858112e+00 -2.1546101624364553e-01 -1.2049499369161767e+00 1.5097736361567164e+00 1.1658545438805121e+00 -5.3070160921897780e-01 -3.7148137587613622e-01 1.7350857066660144e-01 
        </Neuron>
        <Neuron NSynapses="15">
          -1.1880016759730259e+00 8.0509175463552274e-01 1.7352679128902331e+00 -5.3858131177794288e-01 -6.9569999399118099e-01 6.9483107271481451e-02 1.0133441682544626e+00 5.6244349760667811e-01 8.9201298763523851e-01 -1.7583201866081599e+00 1.6549356548281666e+00 5.6303824680223602e-01 4.7645962883576193e-01 4.4212179028169335e-01 1.0371378690811359e+00 
        </Neuron>
      </Layer>
      <Layer Index="1" NNeurons="16">
        <Neuron NSynapses="1">
          7.9505676006861925e-02 
        </Neuron>
        <Neuron NSynapses="1">
          -4.4792144358675012e-01 
        </Neuron>
        <Neuron NSynapses="1">
          9.8390032638650238e-01 
        </Neuron>
        <Neuron NSynapses="1">
          -6.8342848903183862e-01 
        </Neuron>
        <Neuron NSynapses="1">
          -8.5599694889424913e-02 
        </Neuron>
        <Neuron NSynapses="1">
          1.7697644102186967e+00 
        </Neuron>
        <Neuron NSynapses="1">
          7.6181962657066327e-01 
        </Neuron>
        <Neuron NSynapses="1">
          -1.4770580999735242e-01 
        </Neuron>
        <Neuron NSynapses="1">
          1.2874994187965376e+00 
        </Neuron>
        <Neuron NSynapses="1">
          1.1277237972336400e+00 
        </Neuron>
        <Neuron NSynapses="1">
          -2.1398284478319223e+00 
        </Neuron>
        <Neuron NSynapses="1">
          6.4911186016257527e-01 
        </Neuron>
        <Neuron NSynapses="1">
          -6.9731851570147566e-02 
        </Neuron>
        <Neuron NSynapses="1">
          3.9226361067768151e-01 
        </Neuron>
        <Neuron NSynapses="1">
          -1.9466933932828407e+00 
        </Neuron>
        <Neuron NSynapses="1">
          -1.7840806003991920e+00 
        </Neuron>
      </Layer>
      <Layer Index="2" NNeurons="1">
        <Neuron NSynapses="0"/>
      </Layer>
    </Layout>
  </Weights>
</MethodSetup>
