<?xml version="1.0"?>
<MethodSetup Method="MLP::MLP">
  <GeneralInfo>
    <Info name="TMVA Release" value="4.2.1 [262657]"/>
    <Info name="ROOT Release" value="6.08/07 [395271]"/>
    <Info name="Creator" value="wverbeke"/>
    <Info name="Date" value="Thu Nov 23 04:33:21 2017"/>
    <Info name="Host" value="Linux vocms0302.cern.ch 2.6.32-696.1.1.el6.x86_64 #1 SMP Wed Apr 12 08:44:28 CEST 2017 x86_64 x86_64 x86_64 GNU/Linux"/>
    <Info name="Dir" value="/storage_mnt/storage/user/wverbeke/Work/AnalysisCode/ewkino/bdtTraining"/>
    <Info name="Training events" value="41484"/>
    <Info name="TrainingTime" value="5.19218591e+02"/>
    <Info name="AnalysisType" value="Classification"/>
  </GeneralInfo>
  <Options>
    <Option name="NCycles" modified="Yes">600</Option>
    <Option name="HiddenLayers" modified="Yes">N+5</Option>
    <Option name="NeuronType" modified="Yes">tanh</Option>
    <Option name="RandomSeed" modified="No">1</Option>
    <Option name="EstimatorType" modified="No">CE</Option>
    <Option name="NeuronInputType" modified="No">sum</Option>
    <Option name="V" modified="Yes">False</Option>
    <Option name="VerbosityLevel" modified="No">Default</Option>
    <Option name="VarTransform" modified="Yes">N</Option>
    <Option name="H" modified="Yes">True</Option>
    <Option name="CreateMVAPdfs" modified="No">False</Option>
    <Option name="IgnoreNegWeightsInTraining" modified="No">False</Option>
    <Option name="TrainingMethod" modified="No">BP</Option>
    <Option name="LearningRate" modified="No">2.000000e-02</Option>
    <Option name="DecayRate" modified="No">1.000000e-02</Option>
    <Option name="TestRate" modified="Yes">5</Option>
    <Option name="EpochMonitoring" modified="No">False</Option>
    <Option name="Sampling" modified="No">1.000000e+00</Option>
    <Option name="SamplingEpoch" modified="No">1.000000e+00</Option>
    <Option name="SamplingImportance" modified="No">1.000000e+00</Option>
    <Option name="SamplingTraining" modified="No">True</Option>
    <Option name="SamplingTesting" modified="No">False</Option>
    <Option name="ResetStep" modified="No">50</Option>
    <Option name="Tau" modified="No">3.000000e+00</Option>
    <Option name="BPMode" modified="No">sequential</Option>
    <Option name="BatchSize" modified="No">-1</Option>
    <Option name="ConvergenceImprove" modified="No">1.000000e-30</Option>
    <Option name="ConvergenceTests" modified="No">-1</Option>
    <Option name="UseRegulator" modified="Yes">False</Option>
    <Option name="UpdateLimit" modified="No">10000</Option>
    <Option name="CalculateErrors" modified="No">False</Option>
    <Option name="WeightRange" modified="No">1.000000e+00</Option>
  </Options>
  <Variables NVar="19">
    <Variable VarIndex="0" Expression="topMass" Label="topMass" Title="topMass" Unit="" Internal="topMass" Type="F" Min="6.99746475e+01" Max="2.18480469e+03"/>
    <Variable VarIndex="1" Expression="pTForwardJets" Label="pTForwardJets" Title="pTForwardJets" Unit="" Internal="pTForwardJets" Type="F" Min="0.00000000e+00" Max="6.61229858e+02"/>
    <Variable VarIndex="2" Expression="etaMostForward" Label="etaMostForward" Title="etaMostForward" Unit="" Internal="etaMostForward" Type="F" Min="2.74638068e-02" Max="5.08774042e+00"/>
    <Variable VarIndex="3" Expression="numberOfJets" Label="numberOfJets" Title="numberOfJets" Unit="" Internal="numberOfJets" Type="F" Min="2.00000000e+00" Max="1.50000000e+01"/>
    <Variable VarIndex="4" Expression="pTLeadingLepton" Label="pTLeadingLepton" Title="pTLeadingLepton" Unit="" Internal="pTLeadingLepton" Type="F" Min="2.59122334e+01" Max="1.42124902e+03"/>
    <Variable VarIndex="5" Expression="mNotSoForwardJets" Label="mNotSoForwardJets" Title="mNotSoForwardJets" Unit="" Internal="mNotSoForwardJets" Type="F" Min="0.00000000e+00" Max="7.02121826e+03"/>
    <Variable VarIndex="6" Expression="missingET" Label="missingET" Title="missingET" Unit="" Internal="missingET" Type="F" Min="2.08686158e-01" Max="9.33393677e+02"/>
    <Variable VarIndex="7" Expression="highestDeepCSV" Label="highestDeepCSV" Title="highestDeepCSV" Unit="" Internal="highestDeepCSV" Type="F" Min="6.38919771e-01" Max="9.99999881e-01"/>
    <Variable VarIndex="8" Expression="maxMjj" Label="maxMjj" Title="maxMjj" Unit="" Internal="maxMjj" Type="F" Min="0.00000000e+00" Max="6.84262744e+03"/>
    <Variable VarIndex="9" Expression="minMlb" Label="minMlb" Title="minMlb" Unit="" Internal="minMlb" Type="F" Min="-4.38323792e+02" Max="4.48359558e+02"/>
    <Variable VarIndex="10" Expression="asymmetryWlep" Label="asymmetryWlep" Title="asymmetryWlep" Unit="" Internal="asymmetryWlep" Type="F" Min="-2.48486805e+00" Max="2.49792886e+00"/>
    <Variable VarIndex="11" Expression="etaZ" Label="etaZ" Title="etaZ" Unit="" Internal="etaZ" Type="F" Min="9.73431452e-05" Max="5.98529243e+00"/>
    <Variable VarIndex="12" Expression="m3l" Label="m3l" Title="m3l" Unit="" Internal="m3l" Type="F" Min="8.49562454e+01" Max="2.29316870e+03"/>
    <Variable VarIndex="13" Expression="maxDeltaRjj" Label="maxDeltaRjj" Title="maxDeltaRjj" Unit="" Internal="maxDeltaRjj" Type="F" Min="3.98503095e-01" Max="9.90432930e+00"/>
    <Variable VarIndex="14" Expression="maxDeltaPhill" Label="maxDeltaPhill" Title="maxDeltaPhill" Unit="" Internal="maxDeltaPhill" Type="F" Min="3.13100815e-02" Max="3.14154816e+00"/>
    <Variable VarIndex="15" Expression="pTMaxlb" Label="pTMaxlb" Title="pTMaxlb" Unit="" Internal="pTMaxlb" Type="F" Min="2.07804928e+01" Max="1.42569226e+03"/>
    <Variable VarIndex="16" Expression="pT3l" Label="pT3l" Title="pT3l" Unit="" Internal="pT3l" Type="F" Min="2.04118788e-01" Max="1.75672693e+03"/>
    <Variable VarIndex="17" Expression="mForwardJetsLeadinBJetW" Label="mForwardJetsLeadinBJetW" Title="mForwardJetsLeadinBJetW" Unit="" Internal="mForwardJetsLeadinBJetW" Type="F" Min="0.00000000e+00" Max="7.43440674e+03"/>
    <Variable VarIndex="18" Expression="ht" Label="ht" Title="ht" Unit="" Internal="ht" Type="F" Min="5.04050026e+01" Max="3.19472241e+03"/>
  </Variables>
  <Spectators NSpec="0"/>
  <Classes NClass="2">
    <Class Name="Signal" Index="0"/>
    <Class Name="Background" Index="1"/>
  </Classes>
  <Transformations NTransformations="1">
    <Transform Name="Normalize">
      <Selection>
        <Input NInputs="19">
          <Input Type="Variable" Label="topMass" Expression="topMass"/>
          <Input Type="Variable" Label="pTForwardJets" Expression="pTForwardJets"/>
          <Input Type="Variable" Label="etaMostForward" Expression="etaMostForward"/>
          <Input Type="Variable" Label="numberOfJets" Expression="numberOfJets"/>
          <Input Type="Variable" Label="pTLeadingLepton" Expression="pTLeadingLepton"/>
          <Input Type="Variable" Label="mNotSoForwardJets" Expression="mNotSoForwardJets"/>
          <Input Type="Variable" Label="missingET" Expression="missingET"/>
          <Input Type="Variable" Label="highestDeepCSV" Expression="highestDeepCSV"/>
          <Input Type="Variable" Label="maxMjj" Expression="maxMjj"/>
          <Input Type="Variable" Label="minMlb" Expression="minMlb"/>
          <Input Type="Variable" Label="asymmetryWlep" Expression="asymmetryWlep"/>
          <Input Type="Variable" Label="etaZ" Expression="etaZ"/>
          <Input Type="Variable" Label="m3l" Expression="m3l"/>
          <Input Type="Variable" Label="maxDeltaRjj" Expression="maxDeltaRjj"/>
          <Input Type="Variable" Label="maxDeltaPhill" Expression="maxDeltaPhill"/>
          <Input Type="Variable" Label="pTMaxlb" Expression="pTMaxlb"/>
          <Input Type="Variable" Label="pT3l" Expression="pT3l"/>
          <Input Type="Variable" Label="mForwardJetsLeadinBJetW" Expression="mForwardJetsLeadinBJetW"/>
          <Input Type="Variable" Label="ht" Expression="ht"/>
        </Input>
        <Output NOutputs="19">
          <Output Type="Variable" Label="topMass" Expression="topMass"/>
          <Output Type="Variable" Label="pTForwardJets" Expression="pTForwardJets"/>
          <Output Type="Variable" Label="etaMostForward" Expression="etaMostForward"/>
          <Output Type="Variable" Label="numberOfJets" Expression="numberOfJets"/>
          <Output Type="Variable" Label="pTLeadingLepton" Expression="pTLeadingLepton"/>
          <Output Type="Variable" Label="mNotSoForwardJets" Expression="mNotSoForwardJets"/>
          <Output Type="Variable" Label="missingET" Expression="missingET"/>
          <Output Type="Variable" Label="highestDeepCSV" Expression="highestDeepCSV"/>
          <Output Type="Variable" Label="maxMjj" Expression="maxMjj"/>
          <Output Type="Variable" Label="minMlb" Expression="minMlb"/>
          <Output Type="Variable" Label="asymmetryWlep" Expression="asymmetryWlep"/>
          <Output Type="Variable" Label="etaZ" Expression="etaZ"/>
          <Output Type="Variable" Label="m3l" Expression="m3l"/>
          <Output Type="Variable" Label="maxDeltaRjj" Expression="maxDeltaRjj"/>
          <Output Type="Variable" Label="maxDeltaPhill" Expression="maxDeltaPhill"/>
          <Output Type="Variable" Label="pTMaxlb" Expression="pTMaxlb"/>
          <Output Type="Variable" Label="pT3l" Expression="pT3l"/>
          <Output Type="Variable" Label="mForwardJetsLeadinBJetW" Expression="mForwardJetsLeadinBJetW"/>
          <Output Type="Variable" Label="ht" Expression="ht"/>
        </Output>
      </Selection>
      <Class ClassIndex="0">
        <Ranges>
          <Range Index="0" Min="7.1666336059570312e+01" Max="2.0544196777343750e+03"/>
          <Range Index="1" Min="0.0000000000000000e+00" Max="6.6122985839843750e+02"/>
          <Range Index="2" Min="5.8812186121940613e-02" Max="5.0808553695678711e+00"/>
          <Range Index="3" Min="2.0000000000000000e+00" Max="1.2000000000000000e+01"/>
          <Range Index="4" Min="2.6936731338500977e+01" Max="1.1348103027343750e+03"/>
          <Range Index="5" Min="0.0000000000000000e+00" Max="7.0212182617187500e+03"/>
          <Range Index="6" Min="2.0868615806102753e-01" Max="8.0211492919921875e+02"/>
          <Range Index="7" Min="6.4103865623474121e-01" Max="9.9999988079071045e-01"/>
          <Range Index="8" Min="0.0000000000000000e+00" Max="6.8426274414062500e+03"/>
          <Range Index="9" Min="-2.4456521606445312e+02" Max="2.5662039184570312e+02"/>
          <Range Index="10" Min="-2.4845142364501953e+00" Max="2.4972677230834961e+00"/>
          <Range Index="11" Min="4.3391363578848541e-04" Max="5.9581313133239746e+00"/>
          <Range Index="12" Min="8.9249641418457031e+01" Max="1.4294644775390625e+03"/>
          <Range Index="13" Min="4.0221801400184631e-01" Max="9.6938199996948242e+00"/>
          <Range Index="14" Min="5.4216146469116211e-02" Max="3.1415300369262695e+00"/>
          <Range Index="15" Min="2.0780492782592773e+01" Max="1.0294829101562500e+03"/>
          <Range Index="16" Min="2.0411878824234009e-01" Max="1.2438170166015625e+03"/>
          <Range Index="17" Min="0.0000000000000000e+00" Max="7.4344067382812500e+03"/>
          <Range Index="18" Min="5.0532077789306641e+01" Max="2.2642514648437500e+03"/>
        </Ranges>
      </Class>
      <Class ClassIndex="1">
        <Ranges>
          <Range Index="0" Min="6.9974647521972656e+01" Max="2.1848046875000000e+03"/>
          <Range Index="1" Min="0.0000000000000000e+00" Max="5.1146261596679688e+02"/>
          <Range Index="2" Min="2.7463806793093681e-02" Max="5.0877404212951660e+00"/>
          <Range Index="3" Min="2.0000000000000000e+00" Max="1.5000000000000000e+01"/>
          <Range Index="4" Min="2.5912233352661133e+01" Max="1.4212490234375000e+03"/>
          <Range Index="5" Min="0.0000000000000000e+00" Max="6.2923540039062500e+03"/>
          <Range Index="6" Min="9.7022336721420288e-01" Max="9.3339367675781250e+02"/>
          <Range Index="7" Min="6.3891977071762085e-01" Max="9.9999982118606567e-01"/>
          <Range Index="8" Min="0.0000000000000000e+00" Max="5.3790366210937500e+03"/>
          <Range Index="9" Min="-4.3832379150390625e+02" Max="4.4835955810546875e+02"/>
          <Range Index="10" Min="-2.4848680496215820e+00" Max="2.4979288578033447e+00"/>
          <Range Index="11" Min="9.7343145171180367e-05" Max="5.9852924346923828e+00"/>
          <Range Index="12" Min="8.4956245422363281e+01" Max="2.2931687011718750e+03"/>
          <Range Index="13" Min="3.9850309491157532e-01" Max="9.9043292999267578e+00"/>
          <Range Index="14" Min="3.1310081481933594e-02" Max="3.1415481567382812e+00"/>
          <Range Index="15" Min="2.1749845504760742e+01" Max="1.4256922607421875e+03"/>
          <Range Index="16" Min="7.8294682502746582e-01" Max="1.7567269287109375e+03"/>
          <Range Index="17" Min="0.0000000000000000e+00" Max="6.3120043945312500e+03"/>
          <Range Index="18" Min="5.0405002593994141e+01" Max="3.1947224121093750e+03"/>
        </Ranges>
      </Class>
      <Class ClassIndex="2">
        <Ranges>
          <Range Index="0" Min="6.9974647521972656e+01" Max="2.1848046875000000e+03"/>
          <Range Index="1" Min="0.0000000000000000e+00" Max="6.6122985839843750e+02"/>
          <Range Index="2" Min="2.7463806793093681e-02" Max="5.0877404212951660e+00"/>
          <Range Index="3" Min="2.0000000000000000e+00" Max="1.5000000000000000e+01"/>
          <Range Index="4" Min="2.5912233352661133e+01" Max="1.4212490234375000e+03"/>
          <Range Index="5" Min="0.0000000000000000e+00" Max="7.0212182617187500e+03"/>
          <Range Index="6" Min="2.0868615806102753e-01" Max="9.3339367675781250e+02"/>
          <Range Index="7" Min="6.3891977071762085e-01" Max="9.9999988079071045e-01"/>
          <Range Index="8" Min="0.0000000000000000e+00" Max="6.8426274414062500e+03"/>
          <Range Index="9" Min="-4.3832379150390625e+02" Max="4.4835955810546875e+02"/>
          <Range Index="10" Min="-2.4848680496215820e+00" Max="2.4979288578033447e+00"/>
          <Range Index="11" Min="9.7343145171180367e-05" Max="5.9852924346923828e+00"/>
          <Range Index="12" Min="8.4956245422363281e+01" Max="2.2931687011718750e+03"/>
          <Range Index="13" Min="3.9850309491157532e-01" Max="9.9043292999267578e+00"/>
          <Range Index="14" Min="3.1310081481933594e-02" Max="3.1415481567382812e+00"/>
          <Range Index="15" Min="2.0780492782592773e+01" Max="1.4256922607421875e+03"/>
          <Range Index="16" Min="2.0411878824234009e-01" Max="1.7567269287109375e+03"/>
          <Range Index="17" Min="0.0000000000000000e+00" Max="7.4344067382812500e+03"/>
          <Range Index="18" Min="5.0405002593994141e+01" Max="3.1947224121093750e+03"/>
        </Ranges>
      </Class>
    </Transform>
  </Transformations>
  <MVAPdfs/>
  <Weights>
    <Layout NLayers="3">
      <Layer Index="0" NNeurons="20">
        <Neuron NSynapses="24">
          -3.3136545945788193e-01 1.9265695710432471e+00 7.8786527530754724e-01 1.8340133575124478e+00 -1.9538422504182176e+00 -1.4875222536103097e+00 -8.8301228900397633e-01 1.9816483549304327e+00 -1.4182435326204357e+00 -1.0212718020326934e+00 -1.5814970359210123e+00 -4.8613581770519904e-01 -1.4810813254602995e+00 -3.4311720632587744e-01 -7.1453399487466374e-01 7.4637082225600748e-01 -4.1395380768451773e-01 1.8187037144116351e+00 3.8462850124447207e-01 1.4093124737700962e+00 -6.9583469581406210e-02 -7.4093420884498506e-01 6.5279191041772622e-01 2.9916822493515427e-01 
        </Neuron>
        <Neuron NSynapses="24">
          -1.1903009995019962e+00 -3.1628905696076703e-01 1.5172890887740484e+00 -7.8157049328299577e-01 -1.8236395858139349e+00 1.3765206886029907e-01 5.3156600133989906e-01 1.6303897932486169e+00 -3.3822474926756901e-01 -1.2327472331990583e-01 3.5845675331341958e-01 -3.4644977144401867e-01 -1.7361271405165020e+00 1.7250243085474437e+00 -1.3515267390226011e+00 9.5127503469629360e-01 1.2006849879504387e+00 8.5890578737842804e-01 2.1954740414038678e+00 1.2529722267820085e+00 -8.8360054693619128e-01 -1.6254193250291264e+00 9.5751494427162087e-01 3.4448604948837025e-01 
        </Neuron>
        <Neuron NSynapses="24">
          1.5068648819594153e+00 1.5421665213851530e+00 1.7113873807068578e+00 1.3824830106199282e+00 -1.6766529633482063e+00 1.3184062081106704e+00 -1.8446226085558102e+00 -9.0842871275988790e-01 -1.3167789476809539e+00 -1.7429539416238049e+00 1.5899828544682977e+00 7.6009165315119986e-01 -1.5289516343191809e+00 3.4257631303488872e-01 -3.4269420470365203e-01 5.5490014243603170e-01 1.8325762080110266e+00 -4.1904637170581832e-01 1.9462138752477451e-01 -1.1891802657852579e+00 6.3205437597365022e-01 -8.4761657741822194e-01 -5.3529059466196172e-01 -1.3474738553246872e+00 
        </Neuron>
        <Neuron NSynapses="24">
          7.4442887031489768e-01 1.1370231035817902e+00 1.1811342671217540e+00 -4.8241160305126435e-01 -1.9070548344963334e+00 -1.8633200522462572e+00 9.3079794826668405e-01 4.8326820048097774e-01 1.9494811347691805e+00 6.4744573109285386e-01 9.8380667034919722e-01 -8.3114508239184437e-01 -9.7306759022140632e-01 -7.8210897158086157e-02 1.1662055796184507e+00 -8.4815509758748497e-01 -1.5887837852075013e+00 -1.5984103018118649e+00 -9.7721030529545866e-02 -1.2408466199723624e-01 2.2561112793097826e+00 -1.6166515122765428e+00 -1.0466405462253341e+00 1.6677943323555267e+00 
        </Neuron>
        <Neuron NSynapses="24">
          -8.5378430380858639e-01 -1.6175423566139964e+00 -1.5387033971920951e+00 2.6199820504808996e-01 -1.8624861154021011e+00 -1.6655100706700630e+00 5.9839720436638422e-01 1.6468045728669429e+00 -1.1526626549226946e+00 1.6761866037676063e+00 -8.4106051851232988e-01 -9.1373298611879850e-01 -2.9111756410484746e-01 3.5518252468985900e-01 -1.9002099434745978e+00 2.4726330508958616e-01 2.9562951457289244e-01 4.9344283514776222e-01 -1.1643958482190524e+00 1.8541020028008008e+00 3.9826437122430597e-01 -9.5155897542765189e-01 7.9504185400761362e-01 -8.6003517320617784e-01 
        </Neuron>
        <Neuron NSynapses="24">
          -1.5936959759382712e+00 9.8853348313365522e-02 -2.8311693858865167e-01 2.0927876307950202e+00 8.2995883496537137e-01 -2.7750168905582996e-02 -4.8801389156164621e-01 1.4002445182929241e-01 -1.8013494806492560e+00 1.1077497626697552e+00 3.2999742078003014e-01 -1.8409149674043568e+00 4.1137222485224939e-01 -1.4069537184032714e+00 -1.2675531275267607e-01 9.3482063363249079e-01 1.7771554771307647e+00 -1.9142305601575409e+00 6.4749966401541414e-01 1.5742183717559626e+00 1.0766589509728521e+00 1.6069684404048851e-01 -1.2932884860979803e+00 5.1275143444236060e-02 
        </Neuron>
        <Neuron NSynapses="24">
          -1.4369419911563583e+00 1.4884073712688206e+00 1.1499944166449265e+00 -3.4706967608609618e-01 -3.4515446387448262e-01 1.5368410748690400e-01 -1.4276156028731313e+00 5.9856505807166427e-01 1.7036611026930155e+00 -5.2143650179663259e-01 -5.4037541355159646e-01 1.7770913081197484e-01 7.5576817064515844e-01 6.0834767009230939e-01 7.9748439608018706e-01 -1.5223002035642563e+00 1.5330368400632619e+00 8.1826896892381118e-01 7.3361396336356399e-01 6.1943315632218421e-01 1.0908942383888542e+00 -5.7845629568676626e-01 -6.3728316844434962e-01 1.2489589586156320e+00 
        </Neuron>
        <Neuron NSynapses="24">
          -9.0883485723706647e-01 -4.8272940366827788e-01 1.5242039478614895e+00 7.4541745645280222e-01 -3.5580691003804260e-01 1.5253469810748599e+00 1.8827638957812620e+00 -1.9560556540699499e+00 6.5054193898095225e-01 -5.5356259134625413e-02 3.3679026731891853e-01 -1.5555828881016862e+00 -1.1755627242314723e+00 1.1106084944096968e+00 1.9169761323673169e+00 -1.6020670643897299e+00 -1.9826250640834403e-01 -5.9445857375157340e-01 5.7868702875809398e-02 1.7273432385965437e+00 -1.4374739349392437e-01 -4.8843108824758874e-01 -1.1705801458838561e+00 7.9832079767881992e-01 
        </Neuron>
        <Neuron NSynapses="24">
          1.6082023987683789e+00 1.0165579032030012e+00 3.1148350695042881e-01 -5.1550566699237610e-01 -1.9361333936064711e+00 1.0909705342534146e+00 3.4251890203616331e-01 -1.4117487567720988e+00 -6.9634434550724622e-01 3.5927593014410492e-01 2.5574317621362608e-01 -2.0196319264103328e+00 1.2819199890655359e+00 8.7444704279950847e-01 -7.3530944059566150e-01 -2.7360582279357304e-01 1.6332212411547045e+00 1.0502289710382651e+00 7.7412201608908182e-01 -9.0774091300428530e-02 -2.2076067309669898e+00 -9.2450335009672835e-01 1.8038456944414902e+00 1.5739061915755452e+00 
        </Neuron>
        <Neuron NSynapses="24">
          7.6520304604565936e-01 2.1646443980778551e-01 1.9915448427566615e+00 -1.7384239393666838e+00 -1.3177873030698910e+00 -1.1010518996017502e-01 -1.4062990908651800e+00 9.7740379159568547e-01 1.7323946687103382e+00 -1.2387107158515831e+00 7.7387585140871995e-01 -1.2221424579500627e-01 -1.6493437449725610e+00 -1.0917465991232793e+00 1.0216886145990660e+00 1.9672059477142224e-02 1.0157326910904747e+00 -1.1651637684069414e+00 1.6158080482973114e+00 -1.8092480504163264e+00 7.7987408148404980e-01 7.3786364712415384e-02 -1.5135366900553540e+00 -1.3458232292807257e+00 
        </Neuron>
        <Neuron NSynapses="24">
          -1.9187752788557606e+00 -4.0862408689507995e-01 -1.8993847218007973e+00 -1.3502388280250834e+00 -1.9231383418796701e+00 3.9233920444425689e-02 -1.0333845453025550e+00 -1.6001698744386794e+00 1.4409026356199310e+00 -8.2437615945237386e-01 1.9252877985063827e-01 -1.0382071966317012e+00 1.3635203543377911e-01 1.8515299324630201e+00 1.3304628455074428e+00 -1.1573720604792019e+00 -1.5034952707760152e+00 -1.1083719907984606e+00 -7.6443635240177521e-01 -1.6135139839960220e+00 -4.0116448613809287e-02 2.7794727828466725e-01 1.6836588287295047e+00 -2.0762514611583641e-01 
        </Neuron>
        <Neuron NSynapses="24">
          2.3568014364053327e-01 -6.1126358657190649e-01 -1.8477097867352092e+00 1.3592091300680569e+00 1.2643639028880802e+00 -8.4095811206993687e-01 -1.1937263064229489e+00 8.4911946394561022e-01 1.2247587833946698e+00 4.7869357674265833e-01 -3.7879001076852592e-01 -3.9683170905080883e-01 1.1766473594669260e+00 9.5978895285540622e-01 8.7446782674461720e-01 -2.4775881296845970e-01 2.2393251834759964e-01 -2.4508118873722468e-01 -1.1961036682344082e+00 -5.2944415833055125e-01 -1.3107901286521839e+00 -1.3838373043998657e+00 -1.3013298413371244e+00 1.9164444474368203e+00 
        </Neuron>
        <Neuron NSynapses="24">
          -1.8281495390092757e+00 1.6032080368385038e+00 -1.6353534329382928e+00 1.2786874364093967e+00 -1.0498722715093172e+00 4.6532149014858221e-01 7.1183916903434374e-01 -1.8820438932865988e+00 2.3552557832018806e-01 6.5402098369323081e-01 -1.8705190715468401e+00 -1.5445281692618469e+00 -1.9644891483511493e+00 -7.4352783236982001e-01 1.7584743441633262e+00 -5.0020286964957061e-01 2.7107521446687455e-01 -8.5575941111048026e-01 -9.1421964915038034e-01 -1.6724335249123881e+00 -7.4347185516301029e-01 -1.3936050125529680e+00 9.1413274061865324e-01 -1.1198897507687893e+00 
        </Neuron>
        <Neuron NSynapses="24">
          -1.2184742394497055e+00 1.8078094656369781e+00 4.3344167117216020e-01 -3.3539827836640268e-01 1.8761844190998369e+00 -1.7999246096969677e+00 1.3302485155622528e+00 9.5701150788319733e-01 -1.0345516181876020e+00 -7.8103565662707897e-01 7.3672458583866909e-02 -1.1363412217726025e+00 4.4764771593121166e-01 1.8979721149488278e+00 1.2365445663600627e+00 1.3838486148051052e+00 -1.3726392980784126e+00 9.6278658481342250e-01 -1.7978202115597115e+00 6.2858266270011309e-01 -2.0542915912415669e+00 -1.8448924451575586e+00 1.0329698506371830e-01 1.3690119222937238e+00 
        </Neuron>
        <Neuron NSynapses="24">
          4.2513637545880251e-01 1.1312970170691310e+00 3.6718210085933123e-01 -2.4034197383917386e-01 -7.7848568751216551e-01 1.2733620088557104e-01 1.9095756134729240e+00 -1.5751523428367067e+00 3.3364123419333447e-01 -1.4141419013142975e+00 -5.5221513822410451e-01 1.1935545302140019e-01 2.9032134281232963e-01 -1.1008637791938880e+00 1.0756481347829898e+00 1.9325594546281026e+00 6.7927244253221819e-01 -2.0382679310567312e-01 -8.4465016985358432e-01 -1.4480312826996511e+00 -8.8614923435461657e-01 1.0538212947385392e+00 -3.6633309501400230e-01 -1.1366908103054798e+00 
        </Neuron>
        <Neuron NSynapses="24">
          5.1425390816457983e-01 -1.7907853471608763e+00 -1.2676602906893786e+00 -1.5136203602301310e+00 1.0623622720421400e+00 -1.3511497230775311e+00 -1.7979457371143681e+00 -5.9302797142334762e-01 -9.6206631993227609e-01 -1.5905836486263658e+00 1.2653100503994616e+00 -1.4872129308318813e+00 -1.4021048439254267e+00 1.7929806859847901e+00 4.7318784498122990e-01 3.7553830120059106e-01 9.7727675790337865e-02 1.4219053968530213e+00 1.8804639293246543e+00 5.1309797219607911e-01 -7.2190508605678960e-01 -6.9836748650078573e-01 -1.8210819423942937e+00 1.0723370983725531e+00 
        </Neuron>
        <Neuron NSynapses="24">
          9.3559746791691056e-01 -6.1154451535958727e-03 1.0251802878966310e+00 1.0970240614953903e+00 1.6938871809231777e+00 -1.3383863633640962e+00 1.6342805052475398e+00 7.3117556743669787e-01 -1.9445572038636989e+00 -2.6210452204582269e-01 -9.6650081550533740e-01 7.9735265542634881e-01 2.1934318163627325e-01 1.0452553510556220e+00 1.6851027496027302e+00 -4.6161058807944899e-01 1.7997323247564569e+00 1.7429028406758158e+00 4.3492534948968314e-01 -1.1634912384007348e+00 1.6144733923198746e+00 -1.9621307976779498e+00 5.4340860810144720e-01 1.8934385041729147e+00 
        </Neuron>
        <Neuron NSynapses="24">
          -4.4414622971092377e-01 -8.3973521186941880e-01 -1.0198042589270732e-01 -1.1835503918447881e+00 4.4633929038467723e-01 -1.9035957571150910e+00 8.2594977288435067e-02 -2.1324508001945819e-01 1.7008020480517712e+00 1.2744664189991539e+00 1.7563143547987026e+00 -5.2585443875286941e-01 -6.2869122039389791e-01 5.4875052082527198e-01 1.7475508456183761e+00 -1.8392422937141077e+00 -1.3058425354906007e+00 -5.4475599090907012e-01 -1.2562405195654711e+00 -1.6571216947612581e+00 -1.2111267283183191e+00 7.7073786044477743e-01 -3.8934386766371565e-02 -1.7381119539914918e+00 
        </Neuron>
        <Neuron NSynapses="24">
          -1.9141443980866160e+00 -2.2947422315984492e-01 1.6870402770103252e+00 1.9168387404053542e+00 1.3567289754050560e+00 -6.6325031902278753e-01 -2.0047848042470391e+00 -1.2591806262255617e-01 -1.3016474829231242e+00 -1.5526911853450593e+00 -6.1767052554607293e-01 -4.0964516118780263e-02 -1.6502727306969216e+00 1.6560751963380989e+00 1.1593175482157230e+00 2.0568444945867312e-01 -6.2247464175819978e-01 -7.9778811103047453e-01 1.9432525595925534e+00 -5.6233358290369184e-01 5.2761046766757735e-01 1.5882234857780460e+00 1.4104736171606489e+00 -8.7743491304626597e-01 
        </Neuron>
        <Neuron NSynapses="24">
          1.3906553886792286e+00 -1.7740701978528934e+00 1.6559051221720844e+00 1.6024515561222670e+00 -2.4215876671282263e-01 -2.8012632844934188e-01 3.5019806156746586e-01 -5.8368151676540725e-01 1.1980153176884243e+00 2.6249585647314011e-01 -9.8174408824966353e-01 -1.3426415614116827e+00 3.4482734046934771e-01 1.7924336392848734e+00 5.3582637212435980e-01 -6.5133589929009550e-01 -1.9364594480635686e+00 1.7823284178926209e+00 4.2638357703632834e-02 -1.1672251519156929e+00 -2.7124535482371093e-01 -1.0127170371931358e+00 1.1182544062910231e+00 1.1874374850451996e+00 
        </Neuron>
      </Layer>
      <Layer Index="1" NNeurons="25">
        <Neuron NSynapses="1">
          -8.3587865501038616e-01 
        </Neuron>
        <Neuron NSynapses="1">
          -1.1129789689202263e+00 
        </Neuron>
        <Neuron NSynapses="1">
          1.2943220666561348e+00 
        </Neuron>
        <Neuron NSynapses="1">
          6.3688093331074813e-01 
        </Neuron>
        <Neuron NSynapses="1">
          4.9007425751969597e-01 
        </Neuron>
        <Neuron NSynapses="1">
          7.0616473170206237e-02 
        </Neuron>
        <Neuron NSynapses="1">
          -1.0527706641169279e+00 
        </Neuron>
        <Neuron NSynapses="1">
          -1.1502958896519009e+00 
        </Neuron>
        <Neuron NSynapses="1">
          1.0326937731675983e+00 
        </Neuron>
        <Neuron NSynapses="1">
          -4.6628376364787567e-02 
        </Neuron>
        <Neuron NSynapses="1">
          6.2709385496155312e-01 
        </Neuron>
        <Neuron NSynapses="1">
          -1.6970343302616659e+00 
        </Neuron>
        <Neuron NSynapses="1">
          -1.6168292242230611e+00 
        </Neuron>
        <Neuron NSynapses="1">
          -1.8770955100701872e+00 
        </Neuron>
        <Neuron NSynapses="1">
          -6.0897926074349007e-01 
        </Neuron>
        <Neuron NSynapses="1">
          -6.3508069925775523e-01 
        </Neuron>
        <Neuron NSynapses="1">
          8.2304481226003423e-01 
        </Neuron>
        <Neuron NSynapses="1">
          -4.8146886717517889e-01 
        </Neuron>
        <Neuron NSynapses="1">
          1.3881581205971611e+00 
        </Neuron>
        <Neuron NSynapses="1">
          1.5290800214296582e-01 
        </Neuron>
        <Neuron NSynapses="1">
          -2.4770646941411449e+00 
        </Neuron>
        <Neuron NSynapses="1">
          1.3685598856912164e+00 
        </Neuron>
        <Neuron NSynapses="1">
          1.6103753087677783e+00 
        </Neuron>
        <Neuron NSynapses="1">
          7.9856362449394269e-01 
        </Neuron>
        <Neuron NSynapses="1">
          -5.9951433724102754e-01 
        </Neuron>
      </Layer>
      <Layer Index="2" NNeurons="1">
        <Neuron NSynapses="0"/>
      </Layer>
    </Layout>
  </Weights>
</MethodSetup>
