<?xml version="1.0"?>
<MethodSetup Method="MLP::MLP">
  <GeneralInfo>
    <Info name="TMVA Release" value="4.2.1 [262657]"/>
    <Info name="ROOT Release" value="6.08/07 [395271]"/>
    <Info name="Creator" value="wverbeke"/>
    <Info name="Date" value="Tue Dec  5 03:30:03 2017"/>
    <Info name="Host" value="Linux vocms0302.cern.ch 2.6.32-696.1.1.el6.x86_64 #1 SMP Wed Apr 12 08:44:28 CEST 2017 x86_64 x86_64 x86_64 GNU/Linux"/>
    <Info name="Dir" value="/storage_mnt/storage/user/wverbeke/Work/AnalysisCode/ewkino/bdtTraining/bdtTrainingsubmit"/>
    <Info name="Training events" value="35342"/>
    <Info name="TrainingTime" value="4.94181992e+02"/>
    <Info name="AnalysisType" value="Classification"/>
  </GeneralInfo>
  <Options>
    <Option name="NCycles" modified="Yes">600</Option>
    <Option name="HiddenLayers" modified="Yes">N+5</Option>
    <Option name="NeuronType" modified="Yes">tanh</Option>
    <Option name="RandomSeed" modified="No">1</Option>
    <Option name="EstimatorType" modified="No">CE</Option>
    <Option name="NeuronInputType" modified="No">sum</Option>
    <Option name="V" modified="Yes">False</Option>
    <Option name="VerbosityLevel" modified="No">Default</Option>
    <Option name="VarTransform" modified="Yes">N</Option>
    <Option name="H" modified="Yes">True</Option>
    <Option name="CreateMVAPdfs" modified="No">False</Option>
    <Option name="IgnoreNegWeightsInTraining" modified="No">False</Option>
    <Option name="TrainingMethod" modified="No">BP</Option>
    <Option name="LearningRate" modified="No">2.000000e-02</Option>
    <Option name="DecayRate" modified="No">1.000000e-02</Option>
    <Option name="TestRate" modified="Yes">5</Option>
    <Option name="EpochMonitoring" modified="No">False</Option>
    <Option name="Sampling" modified="No">1.000000e+00</Option>
    <Option name="SamplingEpoch" modified="No">1.000000e+00</Option>
    <Option name="SamplingImportance" modified="No">1.000000e+00</Option>
    <Option name="SamplingTraining" modified="No">True</Option>
    <Option name="SamplingTesting" modified="No">False</Option>
    <Option name="ResetStep" modified="No">50</Option>
    <Option name="Tau" modified="No">3.000000e+00</Option>
    <Option name="BPMode" modified="No">sequential</Option>
    <Option name="BatchSize" modified="No">-1</Option>
    <Option name="ConvergenceImprove" modified="No">1.000000e-30</Option>
    <Option name="ConvergenceTests" modified="No">-1</Option>
    <Option name="UseRegulator" modified="Yes">False</Option>
    <Option name="UpdateLimit" modified="No">10000</Option>
    <Option name="CalculateErrors" modified="No">False</Option>
    <Option name="WeightRange" modified="No">1.000000e+00</Option>
  </Options>
  <Variables NVar="19">
    <Variable VarIndex="0" Expression="topMass" Label="topMass" Title="topMass" Unit="" Internal="topMass" Type="F" Min="0.00000000e+00" Max="3.14998706e+03"/>
    <Variable VarIndex="1" Expression="pTForwardJets" Label="pTForwardJets" Title="pTForwardJets" Unit="" Internal="pTForwardJets" Type="F" Min="0.00000000e+00" Max="5.95088562e+02"/>
    <Variable VarIndex="2" Expression="etaMostForward" Label="etaMostForward" Title="etaMostForward" Unit="" Internal="etaMostForward" Type="F" Min="4.88829203e-02" Max="5.08168983e+00"/>
    <Variable VarIndex="3" Expression="numberOfJets" Label="numberOfJets" Title="numberOfJets" Unit="" Internal="numberOfJets" Type="F" Min="2.00000000e+00" Max="1.50000000e+01"/>
    <Variable VarIndex="4" Expression="pTLeadingLepton" Label="pTLeadingLepton" Title="pTLeadingLepton" Unit="" Internal="pTLeadingLepton" Type="F" Min="2.50331268e+01" Max="1.18817078e+03"/>
    <Variable VarIndex="5" Expression="mNotSoForwardJets" Label="mNotSoForwardJets" Title="mNotSoForwardJets" Unit="" Internal="mNotSoForwardJets" Type="F" Min="0.00000000e+00" Max="7.15681836e+03"/>
    <Variable VarIndex="6" Expression="missingET" Label="missingET" Title="missingET" Unit="" Internal="missingET" Type="F" Min="5.71747422e-01" Max="9.26747681e+02"/>
    <Variable VarIndex="7" Expression="highestDeepCSV" Label="highestDeepCSV" Title="highestDeepCSV" Unit="" Internal="highestDeepCSV" Type="F" Min="6.46791697e-01" Max="9.99999881e-01"/>
    <Variable VarIndex="8" Expression="maxMjj" Label="maxMjj" Title="maxMjj" Unit="" Internal="maxMjj" Type="F" Min="0.00000000e+00" Max="6.32115918e+03"/>
    <Variable VarIndex="9" Expression="minMlb" Label="minMlb" Title="minMlb" Unit="" Internal="minMlb" Type="F" Min="-3.12843689e+02" Max="4.88517944e+02"/>
    <Variable VarIndex="10" Expression="asymmetryWlep" Label="asymmetryWlep" Title="asymmetryWlep" Unit="" Internal="asymmetryWlep" Type="F" Min="-2.49243236e+00" Max="2.49260759e+00"/>
    <Variable VarIndex="11" Expression="etaZ" Label="etaZ" Title="etaZ" Unit="" Internal="etaZ" Type="F" Min="4.95472596e-05" Max="6.49132395e+00"/>
    <Variable VarIndex="12" Expression="m3l" Label="m3l" Title="m3l" Unit="" Internal="m3l" Type="F" Min="1.82155056e+01" Max="1.69626099e+03"/>
    <Variable VarIndex="13" Expression="maxDeltaRjj" Label="maxDeltaRjj" Title="maxDeltaRjj" Unit="" Internal="maxDeltaRjj" Type="F" Min="4.21814978e-01" Max="1.00401459e+01"/>
    <Variable VarIndex="14" Expression="maxDeltaPhill" Label="maxDeltaPhill" Title="maxDeltaPhill" Unit="" Internal="maxDeltaPhill" Type="F" Min="1.33972168e-02" Max="3.14159036e+00"/>
    <Variable VarIndex="15" Expression="pTMaxlb" Label="pTMaxlb" Title="pTMaxlb" Unit="" Internal="pTMaxlb" Type="F" Min="2.62868843e+01" Max="1.30785474e+03"/>
    <Variable VarIndex="16" Expression="pT3l" Label="pT3l" Title="pT3l" Unit="" Internal="pT3l" Type="F" Min="4.46836531e-01" Max="1.45952625e+03"/>
    <Variable VarIndex="17" Expression="mForwardJetsLeadinBJetW" Label="mForwardJetsLeadinBJetW" Title="mForwardJetsLeadinBJetW" Unit="" Internal="mForwardJetsLeadinBJetW" Type="F" Min="0.00000000e+00" Max="7.05471094e+03"/>
    <Variable VarIndex="18" Expression="ht" Label="ht" Title="ht" Unit="" Internal="ht" Type="F" Min="5.35915527e+01" Max="3.36736768e+03"/>
  </Variables>
  <Spectators NSpec="0"/>
  <Classes NClass="2">
    <Class Name="Signal" Index="0"/>
    <Class Name="Background" Index="1"/>
  </Classes>
  <Transformations NTransformations="1">
    <Transform Name="Normalize">
      <Selection>
        <Input NInputs="19">
          <Input Type="Variable" Label="topMass" Expression="topMass"/>
          <Input Type="Variable" Label="pTForwardJets" Expression="pTForwardJets"/>
          <Input Type="Variable" Label="etaMostForward" Expression="etaMostForward"/>
          <Input Type="Variable" Label="numberOfJets" Expression="numberOfJets"/>
          <Input Type="Variable" Label="pTLeadingLepton" Expression="pTLeadingLepton"/>
          <Input Type="Variable" Label="mNotSoForwardJets" Expression="mNotSoForwardJets"/>
          <Input Type="Variable" Label="missingET" Expression="missingET"/>
          <Input Type="Variable" Label="highestDeepCSV" Expression="highestDeepCSV"/>
          <Input Type="Variable" Label="maxMjj" Expression="maxMjj"/>
          <Input Type="Variable" Label="minMlb" Expression="minMlb"/>
          <Input Type="Variable" Label="asymmetryWlep" Expression="asymmetryWlep"/>
          <Input Type="Variable" Label="etaZ" Expression="etaZ"/>
          <Input Type="Variable" Label="m3l" Expression="m3l"/>
          <Input Type="Variable" Label="maxDeltaRjj" Expression="maxDeltaRjj"/>
          <Input Type="Variable" Label="maxDeltaPhill" Expression="maxDeltaPhill"/>
          <Input Type="Variable" Label="pTMaxlb" Expression="pTMaxlb"/>
          <Input Type="Variable" Label="pT3l" Expression="pT3l"/>
          <Input Type="Variable" Label="mForwardJetsLeadinBJetW" Expression="mForwardJetsLeadinBJetW"/>
          <Input Type="Variable" Label="ht" Expression="ht"/>
        </Input>
        <Output NOutputs="19">
          <Output Type="Variable" Label="topMass" Expression="topMass"/>
          <Output Type="Variable" Label="pTForwardJets" Expression="pTForwardJets"/>
          <Output Type="Variable" Label="etaMostForward" Expression="etaMostForward"/>
          <Output Type="Variable" Label="numberOfJets" Expression="numberOfJets"/>
          <Output Type="Variable" Label="pTLeadingLepton" Expression="pTLeadingLepton"/>
          <Output Type="Variable" Label="mNotSoForwardJets" Expression="mNotSoForwardJets"/>
          <Output Type="Variable" Label="missingET" Expression="missingET"/>
          <Output Type="Variable" Label="highestDeepCSV" Expression="highestDeepCSV"/>
          <Output Type="Variable" Label="maxMjj" Expression="maxMjj"/>
          <Output Type="Variable" Label="minMlb" Expression="minMlb"/>
          <Output Type="Variable" Label="asymmetryWlep" Expression="asymmetryWlep"/>
          <Output Type="Variable" Label="etaZ" Expression="etaZ"/>
          <Output Type="Variable" Label="m3l" Expression="m3l"/>
          <Output Type="Variable" Label="maxDeltaRjj" Expression="maxDeltaRjj"/>
          <Output Type="Variable" Label="maxDeltaPhill" Expression="maxDeltaPhill"/>
          <Output Type="Variable" Label="pTMaxlb" Expression="pTMaxlb"/>
          <Output Type="Variable" Label="pT3l" Expression="pT3l"/>
          <Output Type="Variable" Label="mForwardJetsLeadinBJetW" Expression="mForwardJetsLeadinBJetW"/>
          <Output Type="Variable" Label="ht" Expression="ht"/>
        </Output>
      </Selection>
      <Class ClassIndex="0">
        <Ranges>
          <Range Index="0" Min="0.0000000000000000e+00" Max="2.6324350585937500e+03"/>
          <Range Index="1" Min="0.0000000000000000e+00" Max="5.9508856201171875e+02"/>
          <Range Index="2" Min="7.6223909854888916e-02" Max="5.0795464515686035e+00"/>
          <Range Index="3" Min="2.0000000000000000e+00" Max="1.3000000000000000e+01"/>
          <Range Index="4" Min="2.5685653686523438e+01" Max="9.0035656738281250e+02"/>
          <Range Index="5" Min="0.0000000000000000e+00" Max="6.7885161132812500e+03"/>
          <Range Index="6" Min="5.7174742221832275e-01" Max="6.0223919677734375e+02"/>
          <Range Index="7" Min="6.5128779411315918e-01" Max="9.9999964237213135e-01"/>
          <Range Index="8" Min="0.0000000000000000e+00" Max="6.3211591796875000e+03"/>
          <Range Index="9" Min="-3.0285729980468750e+02" Max="3.1936770629882812e+02"/>
          <Range Index="10" Min="-2.4510767459869385e+00" Max="2.4926075935363770e+00"/>
          <Range Index="11" Min="3.5496454802341759e-04" Max="6.4913239479064941e+00"/>
          <Range Index="12" Min="2.9798519134521484e+01" Max="1.6609143066406250e+03"/>
          <Range Index="13" Min="4.2181497812271118e-01" Max="1.0040145874023438e+01"/>
          <Range Index="14" Min="2.8601169586181641e-02" Max="3.1415286064147949e+00"/>
          <Range Index="15" Min="2.6286884307861328e+01" Max="1.1286495361328125e+03"/>
          <Range Index="16" Min="1.2477617263793945e+00" Max="8.8810333251953125e+02"/>
          <Range Index="17" Min="0.0000000000000000e+00" Max="7.0547109375000000e+03"/>
          <Range Index="18" Min="5.4104820251464844e+01" Max="1.9099853515625000e+03"/>
        </Ranges>
      </Class>
      <Class ClassIndex="1">
        <Ranges>
          <Range Index="0" Min="0.0000000000000000e+00" Max="3.1499870605468750e+03"/>
          <Range Index="1" Min="0.0000000000000000e+00" Max="5.4681335449218750e+02"/>
          <Range Index="2" Min="4.8882920295000076e-02" Max="5.0816898345947266e+00"/>
          <Range Index="3" Min="2.0000000000000000e+00" Max="1.5000000000000000e+01"/>
          <Range Index="4" Min="2.5033126831054688e+01" Max="1.1881707763671875e+03"/>
          <Range Index="5" Min="0.0000000000000000e+00" Max="7.1568183593750000e+03"/>
          <Range Index="6" Min="6.1379408836364746e-01" Max="9.2674768066406250e+02"/>
          <Range Index="7" Min="6.4679169654846191e-01" Max="9.9999988079071045e-01"/>
          <Range Index="8" Min="0.0000000000000000e+00" Max="5.7237700195312500e+03"/>
          <Range Index="9" Min="-3.1284368896484375e+02" Max="4.8851794433593750e+02"/>
          <Range Index="10" Min="-2.4924323558807373e+00" Max="2.4688811302185059e+00"/>
          <Range Index="11" Min="4.9547259550308809e-05" Max="6.1204490661621094e+00"/>
          <Range Index="12" Min="1.8215505599975586e+01" Max="1.6962609863281250e+03"/>
          <Range Index="13" Min="4.3278944492340088e-01" Max="9.8715496063232422e+00"/>
          <Range Index="14" Min="1.3397216796875000e-02" Max="3.1415903568267822e+00"/>
          <Range Index="15" Min="3.2265296936035156e+01" Max="1.3078547363281250e+03"/>
          <Range Index="16" Min="4.4683653116226196e-01" Max="1.4595262451171875e+03"/>
          <Range Index="17" Min="0.0000000000000000e+00" Max="6.4632729492187500e+03"/>
          <Range Index="18" Min="5.3591552734375000e+01" Max="3.3673676757812500e+03"/>
        </Ranges>
      </Class>
      <Class ClassIndex="2">
        <Ranges>
          <Range Index="0" Min="0.0000000000000000e+00" Max="3.1499870605468750e+03"/>
          <Range Index="1" Min="0.0000000000000000e+00" Max="5.9508856201171875e+02"/>
          <Range Index="2" Min="4.8882920295000076e-02" Max="5.0816898345947266e+00"/>
          <Range Index="3" Min="2.0000000000000000e+00" Max="1.5000000000000000e+01"/>
          <Range Index="4" Min="2.5033126831054688e+01" Max="1.1881707763671875e+03"/>
          <Range Index="5" Min="0.0000000000000000e+00" Max="7.1568183593750000e+03"/>
          <Range Index="6" Min="5.7174742221832275e-01" Max="9.2674768066406250e+02"/>
          <Range Index="7" Min="6.4679169654846191e-01" Max="9.9999988079071045e-01"/>
          <Range Index="8" Min="0.0000000000000000e+00" Max="6.3211591796875000e+03"/>
          <Range Index="9" Min="-3.1284368896484375e+02" Max="4.8851794433593750e+02"/>
          <Range Index="10" Min="-2.4924323558807373e+00" Max="2.4926075935363770e+00"/>
          <Range Index="11" Min="4.9547259550308809e-05" Max="6.4913239479064941e+00"/>
          <Range Index="12" Min="1.8215505599975586e+01" Max="1.6962609863281250e+03"/>
          <Range Index="13" Min="4.2181497812271118e-01" Max="1.0040145874023438e+01"/>
          <Range Index="14" Min="1.3397216796875000e-02" Max="3.1415903568267822e+00"/>
          <Range Index="15" Min="2.6286884307861328e+01" Max="1.3078547363281250e+03"/>
          <Range Index="16" Min="4.4683653116226196e-01" Max="1.4595262451171875e+03"/>
          <Range Index="17" Min="0.0000000000000000e+00" Max="7.0547109375000000e+03"/>
          <Range Index="18" Min="5.3591552734375000e+01" Max="3.3673676757812500e+03"/>
        </Ranges>
      </Class>
    </Transform>
  </Transformations>
  <MVAPdfs/>
  <Weights>
    <Layout NLayers="3">
      <Layer Index="0" NNeurons="20">
        <Neuron NSynapses="24">
          -3.3413152044991790e-01 1.9741149388335464e+00 8.6159903683987593e-01 1.7611986342431183e+00 -1.9518448218630995e+00 -1.4875313304035731e+00 -8.1607585269513805e-01 1.9929325685584705e+00 -1.4215224075174195e+00 -1.0271602808387643e+00 -1.5845218229998170e+00 -5.5314682390515635e-01 -1.5035777758686579e+00 -4.0580438784416745e-01 -6.3511541053480991e-01 5.3856847317186285e-01 -4.1250717686670152e-01 1.7858601866594248e+00 3.4345993622184684e-01 1.4059348943582526e+00 -2.1558830989776770e-01 -7.2604875417109571e-01 6.4640531593706629e-01 3.4859831913195899e-01 
        </Neuron>
        <Neuron NSynapses="24">
          -1.1942110384188966e+00 -2.3542027036109572e-01 1.6043723573834889e+00 -9.2919730535514533e-01 -1.8221804041293421e+00 1.3768381637455046e-01 6.3832279748905418e-01 1.6522307281365147e+00 -3.3124164657582467e-01 -1.3383468184179478e-01 3.0986589303747020e-01 -3.9672269988371789e-01 -1.7354589982324427e+00 1.6913120901809606e+00 -1.2502580548459938e+00 8.6185903584485879e-01 1.2021967932468112e+00 8.5413508015927342e-01 2.0689217996716147e+00 1.2464167463562472e+00 -7.8562380833295109e-01 -1.6048128439021110e+00 8.4622340017947040e-01 3.6024545851360101e-01 
        </Neuron>
        <Neuron NSynapses="24">
          1.5050853607308350e+00 1.4701191518786147e+00 1.6129184766547207e+00 1.3878668819037321e+00 -1.6971819152780401e+00 1.3184065475413449e+00 -1.8304696110997947e+00 -9.0822845438637179e-01 -1.3067503309121695e+00 -1.7539218904748501e+00 1.5372872585867814e+00 7.5623945757387245e-01 -1.5378106106171898e+00 3.9024958090023765e-01 -3.0679888427654112e-01 6.5805868067235762e-01 1.8316395355515511e+00 -4.0109586341948994e-01 1.9376068972126112e-01 -1.1787820749089457e+00 7.2587448410329769e-01 -8.5433657406517316e-01 -6.2293991820401440e-01 -1.3513855821596943e+00 
        </Neuron>
        <Neuron NSynapses="24">
          7.3654573514480470e-01 1.1227629938041113e+00 1.1891350961830267e+00 -5.2995886217844401e-01 -1.9025716720224506e+00 -1.8632881308068892e+00 9.6074225572896255e-01 4.9341078688277956e-01 1.9506403179236202e+00 6.4063532469485185e-01 9.7028953526292139e-01 -8.7210909137099413e-01 -9.9512715865574797e-01 -1.9258940948434666e-01 1.1503465072351358e+00 -1.1463509820142219e+00 -1.5871285851301205e+00 -1.6175474123694409e+00 -1.0959530352151120e-01 -1.2949645865672846e-01 1.9447909397019159e+00 -1.6016647558162469e+00 -1.1810209744390407e+00 1.7191465914458615e+00 
        </Neuron>
        <Neuron NSynapses="24">
          -8.5403001762035746e-01 -1.5338312554190263e+00 -1.4800769694940108e+00 1.1416134876900105e-01 -1.8772125248961675e+00 -1.6655235895559519e+00 7.0214204928378732e-01 1.6646868450819559e+00 -1.1680451367072688e+00 1.6651393864398509e+00 -8.9054833006614953e-01 -9.0876105746566427e-01 -2.1868539438672108e-01 4.1299507313586181e-01 -1.7966847110280013e+00 1.0908579374738551e-01 2.9701410841814851e-01 5.0145818878578696e-01 -1.2637349320000009e+00 1.8432880611053108e+00 4.5153860765981502e-01 -9.5869093178108744e-01 6.9652937474022236e-01 -8.4543788470805692e-01 
        </Neuron>
        <Neuron NSynapses="24">
          -1.6014739055357494e+00 1.1775704136693547e-01 -2.7023682321422460e-01 1.9410161696675949e+00 8.1685310737386063e-01 -2.7739173478427557e-02 -3.8090357762132809e-01 1.5901510405640348e-01 -1.7978687335263719e+00 1.0974880364531296e+00 2.3754943188689190e-01 -1.8735119221769385e+00 3.9292384376015344e-01 -1.3730139159066783e+00 8.8795275118195554e-03 9.4889172744659089e-01 1.7773789077338311e+00 -1.8908870535210984e+00 5.4337300315529269e-01 1.5734085839391094e+00 1.4483358228021763e+00 1.7095390641617850e-01 -1.3424094146802348e+00 6.9609464867964960e-02 
        </Neuron>
        <Neuron NSynapses="24">
          -1.4526782038033805e+00 1.5561082569524738e+00 1.1964593501211094e+00 -5.2539739682224973e-01 -3.7302288349455121e-01 1.5367277719904071e-01 -1.3445208394681305e+00 6.0659846767624015e-01 1.7003907122580131e+00 -5.3297863330750073e-01 -5.7660328835080144e-01 1.6546882870617927e-01 7.4490907876683365e-01 6.1395182677681670e-01 8.8401373525964366e-01 -1.6351375365431162e+00 1.5330369168691063e+00 8.1559257694928877e-01 6.4022634148237112e-01 6.0147865694355118e-01 1.2022097458042154e+00 -5.5381211668389441e-01 -8.2388463841732595e-01 1.2547692367275636e+00 
        </Neuron>
        <Neuron NSynapses="24">
          -9.0065465319801907e-01 -5.5068638900284284e-01 1.4327047839129885e+00 9.1236635519329601e-01 -3.4203444605720296e-01 1.5253441332232003e+00 1.8748107418054174e+00 -1.9548614296730815e+00 6.6555021978135387e-01 -5.4182964802929133e-02 3.5583853987413494e-01 -1.5549791947893676e+00 -1.1535214009719250e+00 1.1828619712507527e+00 1.8336436332095021e+00 -1.4636603070007954e+00 -2.0186960285819400e-01 -5.5933162154620963e-01 6.7091360061776378e-02 1.7414609107475381e+00 -2.4211110180974077e-01 -5.3247114758814451e-01 -1.1380623004175208e+00 7.5409483644147757e-01 
        </Neuron>
        <Neuron NSynapses="24">
          1.6024234076198678e+00 1.0742314669379598e+00 3.5526667568581177e-01 -6.8649446737417574e-01 -1.9535807465195680e+00 1.0909800545828015e+00 4.3307677817023593e-01 -1.3914801144519389e+00 -6.8947842067427634e-01 3.4882788238637991e-01 1.8847844064542099e-01 -2.0213282815552471e+00 1.2956344331107454e+00 8.8378271024460120e-01 -6.1122928900822804e-01 -3.2791050035408414e-01 1.6332457525741084e+00 1.0574218702424636e+00 6.8883247435082673e-01 -9.5702360117604843e-02 -1.9935584162573878e+00 -9.1154463797938168e-01 1.7565643515052907e+00 1.5904831945268501e+00 
        </Neuron>
        <Neuron NSynapses="24">
          7.6489473792512863e-01 2.0388463843502569e-01 2.0412651463698146e+00 -1.6616636927725712e+00 -1.2953319567426735e+00 -1.1010379342681358e-01 -1.4580158242195389e+00 9.7142237174495361e-01 1.7270696429305878e+00 -1.2255809167269385e+00 8.0165555455358672e-01 -1.6270894334124078e-01 -1.7328932916894630e+00 -1.1232757844229566e+00 1.0003262056974929e+00 -2.7385454561451944e-02 1.0152093889558136e+00 -1.1737761867841034e+00 1.7080278093779218e+00 -1.7953700040812617e+00 7.4489559630837243e-01 7.4429615775295749e-02 -1.4260035173086085e+00 -1.2883242676939359e+00 
        </Neuron>
        <Neuron NSynapses="24">
          -1.9083754761098908e+00 -4.0058907821806278e-01 -1.9168074501055399e+00 -1.5334718171731923e+00 -1.9036891215973255e+00 3.9204010245814130e-02 -1.0001200189766657e+00 -1.5923344303327056e+00 1.4220863838271858e+00 -8.4058971886067579e-01 1.6519108707948496e-01 -1.0142625872058928e+00 2.1889653451489313e-01 1.8098650616321263e+00 1.3625311964634463e+00 -9.6513079539647739e-01 -1.5031435994313431e+00 -1.0539007849492139e+00 -7.9847539265637946e-01 -1.6363907917257787e+00 1.1237803554505153e-01 2.5391443767004146e-01 1.9323835751273084e+00 -2.6113723973713465e-01 
        </Neuron>
        <Neuron NSynapses="24">
          2.3084555518412561e-01 -5.5162928190263050e-01 -1.7988401115228043e+00 1.3913747391969580e+00 1.2726224223664195e+00 -8.4094462861693942e-01 -1.0786784965174312e+00 8.6632348239698020e-01 1.2287209479787355e+00 4.7770290415192890e-01 -3.8191739388755830e-01 -4.4835085880229614e-01 1.1748598337019751e+00 9.5185735453779763e-01 9.3866889987124846e-01 -4.5969502944407492e-01 2.2537314152361873e-01 -2.8262521981602873e-01 -1.2551464173660052e+00 -5.3136453022890329e-01 -1.6136034584862344e+00 -1.3581511408561622e+00 -1.3709969412537022e+00 1.9372934432029778e+00 
        </Neuron>
        <Neuron NSynapses="24">
          -1.8131895814543328e+00 1.6703508600799788e+00 -1.6321712239133461e+00 1.0540770091682747e+00 -1.0786700280137134e+00 4.6531130407603521e-01 8.3295300548624207e-01 -1.8590609357073000e+00 2.3194586460354041e-01 6.3321036238025152e-01 -1.9319887833063374e+00 -1.5366750713210451e+00 -1.7923107467046351e+00 -6.9286903562024549e-01 1.8776570318435588e+00 -6.1792822576595829e-01 2.7140577202768373e-01 -8.4067013601934726e-01 -1.0390112664771425e+00 -1.6847533470145446e+00 -7.5299285343387390e-01 -1.4065387428173164e+00 7.4822058939748681e-01 -1.1370508936653705e+00 
        </Neuron>
        <Neuron NSynapses="24">
          -1.2207207840233787e+00 1.7523636268258813e+00 3.9779233454217178e-01 -3.5212122724411832e-01 1.8756727155394775e+00 -1.7999204684462549e+00 1.3750414767340977e+00 9.6234983752452496e-01 -1.0293346504043497e+00 -7.8882537407927300e-01 1.4134134686507246e-02 -1.1469180816230820e+00 4.4223836167063518e-01 1.9007436682158070e+00 1.2957251894355488e+00 1.5004949810637638e+00 -1.3727192184617552e+00 9.8590314716872007e-01 -1.8447004480830524e+00 6.3700368711076882e-01 -1.8558243821905913e+00 -1.8487625132451828e+00 1.3648220533761951e-01 1.3692041547608345e+00 
        </Neuron>
        <Neuron NSynapses="24">
          4.3624477141458706e-01 1.0728442441202997e+00 2.8982710213140200e-01 -1.3734329782709997e-02 -7.8803093724694662e-01 1.2726791963893117e-01 1.9402747209533366e+00 -1.5646607793716616e+00 3.2468785561551039e-01 -1.4231611635573811e+00 -5.3914703414633691e-01 1.3184994126072749e-01 3.4421899713287701e-01 -1.1750573675659139e+00 1.0195039264224486e+00 1.8630337408496347e+00 6.7492497538154050e-01 -2.0941040475678918e-01 -8.6587339903244420e-01 -1.4537208421189114e+00 -1.3103516409986771e+00 1.0213160721620032e+00 -2.1331813647118317e-01 -1.1164681884582626e+00 
        </Neuron>
        <Neuron NSynapses="24">
          5.1296596052253474e-01 -1.7148905021521588e+00 -1.1992571243247137e+00 -1.6493917325428074e+00 1.0519373577598961e+00 -1.3511822176958845e+00 -1.7425447278356130e+00 -5.7685238421726748e-01 -9.6958043594054444e-01 -1.6000684924195090e+00 1.2442627507591832e+00 -1.5150071912285887e+00 -1.3787047257535312e+00 1.7584026367164209e+00 5.3706373742751279e-01 1.7166653702427542e-01 9.8579050808286994e-02 1.4081461940915203e+00 1.8402670844015396e+00 5.0170842538392035e-01 -7.9250767032136316e-01 -6.9602328884925857e-01 -1.8555956563114382e+00 1.0973308391140575e+00 
        </Neuron>
        <Neuron NSynapses="24">
          9.3119116400633084e-01 7.2609435348395202e-02 1.0992312841010496e+00 9.5433633652761030e-01 1.6871401514488744e+00 -1.3383766618789599e+00 1.7216405351108468e+00 7.4628459039561301e-01 -1.9578234101306462e+00 -2.6859639698743754e-01 -1.0118328178361640e+00 7.8889423281227034e-01 2.5658319085016629e-01 1.0831986512052312e+00 1.7756156579648148e+00 -5.9994130001767731e-01 1.8017801172074568e+00 1.7482867106503348e+00 3.4692174955170035e-01 -1.1718523325034040e+00 1.6751712911766838e+00 -1.9597860186633747e+00 4.4450234991205678e-01 1.9146871137073926e+00 
        </Neuron>
        <Neuron NSynapses="24">
          -4.4462375073783189e-01 -8.2491033431681637e-01 -9.9258894571047238e-02 -1.3347069948688299e+00 4.3569666124067002e-01 -1.9036001378263361e+00 1.8093630869472019e-01 -1.9516480508988027e-01 1.7072569036162577e+00 1.2599800729200321e+00 1.7285102884056185e+00 -5.5366409098708180e-01 -6.2734180224056890e-01 5.4956773647760671e-01 1.8452092411897960e+00 -1.9986181589022953e+00 -1.3059572436555436e+00 -5.6415595951027964e-01 -1.3296444899734186e+00 -1.6563863367460374e+00 -1.3794309898208408e+00 7.8935561932361220e-01 -1.0897953879666054e-01 -1.6937897515592912e+00 
        </Neuron>
        <Neuron NSynapses="24">
          -1.9262207653992691e+00 -1.8106324183904984e-01 1.7676209187650918e+00 1.7960228265449101e+00 1.3574462031116374e+00 -6.6323575752589370e-01 -1.9768096829907245e+00 -1.1404339486264746e-01 -1.3038974251457163e+00 -1.5576673715096125e+00 -6.4010508888105810e-01 -1.1047086539398372e-01 -1.6931552832353145e+00 1.5417014236023538e+00 1.2027305621984947e+00 -3.9857596008079053e-02 -6.2129970665234269e-01 -8.1888001164188717e-01 1.9146418587074943e+00 -5.7393564107054851e-01 4.7942362882535494e-01 1.6151794164750466e+00 1.3586575524710616e+00 -8.3990612968273437e-01 
        </Neuron>
        <Neuron NSynapses="24">
          1.3992803623513621e+00 -1.8771604616772779e+00 1.5392939689138827e+00 1.7346878639164391e+00 -2.3664893022014349e-01 -2.8016283804981679e-01 2.2582938274346051e-01 -6.1096721167132051e-01 1.1969322799745745e+00 2.6657227109226272e-01 -9.5029586875241356e-01 -1.3000898182306031e+00 3.6562709196601978e-01 1.8410420229604383e+00 4.4173848097370177e-01 -4.5612629989377362e-01 -1.9393600442822245e+00 1.7924066543546078e+00 1.3625936470990579e-01 -1.1562399463367761e+00 -3.1573182944029371e-01 -1.0602575526769911e+00 1.1907613456199582e+00 1.1409416730961730e+00 
        </Neuron>
      </Layer>
      <Layer Index="1" NNeurons="25">
        <Neuron NSynapses="1">
          -9.0338657530996402e-01 
        </Neuron>
        <Neuron NSynapses="1">
          -8.8981255325402542e-01 
        </Neuron>
        <Neuron NSynapses="1">
          1.1176981273678794e+00 
        </Neuron>
        <Neuron NSynapses="1">
          9.1518594676118237e-01 
        </Neuron>
        <Neuron NSynapses="1">
          4.9771456774014677e-01 
        </Neuron>
        <Neuron NSynapses="1">
          -1.0164557325435869e-02 
        </Neuron>
        <Neuron NSynapses="1">
          -1.3285792763978046e+00 
        </Neuron>
        <Neuron NSynapses="1">
          -1.0491919279295139e+00 
        </Neuron>
        <Neuron NSynapses="1">
          9.7099840291652306e-01 
        </Neuron>
        <Neuron NSynapses="1">
          2.8559787442973834e-02 
        </Neuron>
        <Neuron NSynapses="1">
          5.6860848830695920e-01 
        </Neuron>
        <Neuron NSynapses="1">
          -1.7854872764474450e+00 
        </Neuron>
        <Neuron NSynapses="1">
          -1.6456561451110590e+00 
        </Neuron>
        <Neuron NSynapses="1">
          -1.8497978748283568e+00 
        </Neuron>
        <Neuron NSynapses="1">
          -5.3944539519505130e-01 
        </Neuron>
        <Neuron NSynapses="1">
          -1.1142353408199617e+00 
        </Neuron>
        <Neuron NSynapses="1">
          9.0270499671751436e-01 
        </Neuron>
        <Neuron NSynapses="1">
          -2.3715339925213821e-01 
        </Neuron>
        <Neuron NSynapses="1">
          1.6640871871988527e+00 
        </Neuron>
        <Neuron NSynapses="1">
          3.0684664788437971e-01 
        </Neuron>
        <Neuron NSynapses="1">
          -2.2148686742137778e+00 
        </Neuron>
        <Neuron NSynapses="1">
          1.3216253289666242e+00 
        </Neuron>
        <Neuron NSynapses="1">
          1.8322860677775343e+00 
        </Neuron>
        <Neuron NSynapses="1">
          8.6330424546283679e-01 
        </Neuron>
        <Neuron NSynapses="1">
          -6.8116875131796628e-01 
        </Neuron>
      </Layer>
      <Layer Index="2" NNeurons="1">
        <Neuron NSynapses="0"/>
      </Layer>
    </Layout>
  </Weights>
</MethodSetup>
