<?xml version="1.0"?>
<MethodSetup Method="MLP::MLP">
  <GeneralInfo>
    <Info name="TMVA Release" value="4.2.1 [262657]"/>
    <Info name="ROOT Release" value="6.08/07 [395271]"/>
    <Info name="Creator" value="wverbeke"/>
    <Info name="Date" value="Fri Nov 17 00:41:04 2017"/>
    <Info name="Host" value="Linux vocms0302.cern.ch 2.6.32-696.1.1.el6.x86_64 #1 SMP Wed Apr 12 08:44:28 CEST 2017 x86_64 x86_64 x86_64 GNU/Linux"/>
    <Info name="Dir" value="/storage_mnt/storage/user/wverbeke/Work/AnalysisCode/ewkino/bdtTraining"/>
    <Info name="Training events" value="29477"/>
    <Info name="TrainingTime" value="1.69253704e+02"/>
    <Info name="AnalysisType" value="Classification"/>
  </GeneralInfo>
  <Options>
    <Option name="NCycles" modified="Yes">600</Option>
    <Option name="HiddenLayers" modified="Yes">N+5</Option>
    <Option name="NeuronType" modified="Yes">tanh</Option>
    <Option name="RandomSeed" modified="No">1</Option>
    <Option name="EstimatorType" modified="No">CE</Option>
    <Option name="NeuronInputType" modified="No">sum</Option>
    <Option name="V" modified="Yes">False</Option>
    <Option name="VerbosityLevel" modified="No">Default</Option>
    <Option name="VarTransform" modified="Yes">N</Option>
    <Option name="H" modified="Yes">True</Option>
    <Option name="CreateMVAPdfs" modified="No">False</Option>
    <Option name="IgnoreNegWeightsInTraining" modified="No">False</Option>
    <Option name="TrainingMethod" modified="No">BP</Option>
    <Option name="LearningRate" modified="No">2.000000e-02</Option>
    <Option name="DecayRate" modified="No">1.000000e-02</Option>
    <Option name="TestRate" modified="Yes">5</Option>
    <Option name="EpochMonitoring" modified="No">False</Option>
    <Option name="Sampling" modified="No">1.000000e+00</Option>
    <Option name="SamplingEpoch" modified="No">1.000000e+00</Option>
    <Option name="SamplingImportance" modified="No">1.000000e+00</Option>
    <Option name="SamplingTraining" modified="No">True</Option>
    <Option name="SamplingTesting" modified="No">False</Option>
    <Option name="ResetStep" modified="No">50</Option>
    <Option name="Tau" modified="No">3.000000e+00</Option>
    <Option name="BPMode" modified="No">sequential</Option>
    <Option name="BatchSize" modified="No">-1</Option>
    <Option name="ConvergenceImprove" modified="No">1.000000e-30</Option>
    <Option name="ConvergenceTests" modified="No">-1</Option>
    <Option name="UseRegulator" modified="Yes">False</Option>
    <Option name="UpdateLimit" modified="No">10000</Option>
    <Option name="CalculateErrors" modified="No">False</Option>
    <Option name="WeightRange" modified="No">1.000000e+00</Option>
  </Options>
  <Variables NVar="10">
    <Variable VarIndex="0" Expression="topMass" Label="topMass" Title="topMass" Unit="" Internal="topMass" Type="F" Min="2.10910721e+01" Max="2.18480469e+03"/>
    <Variable VarIndex="1" Expression="pTForwardJets" Label="pTForwardJets" Title="pTForwardJets" Unit="" Internal="pTForwardJets" Type="F" Min="0.00000000e+00" Max="6.05746033e+02"/>
    <Variable VarIndex="2" Expression="etaLeading" Label="etaLeading" Title="etaLeading" Unit="" Internal="etaLeading" Type="F" Min="1.71097497e-06" Max="5.01274061e+00"/>
    <Variable VarIndex="3" Expression="etaMostForward" Label="etaMostForward" Title="etaMostForward" Unit="" Internal="etaMostForward" Type="F" Min="2.74638068e-02" Max="5.08476305e+00"/>
    <Variable VarIndex="4" Expression="pTLeadingLepton" Label="pTLeadingLepton" Title="pTLeadingLepton" Unit="" Internal="pTLeadingLepton" Type="F" Min="2.74694595e+01" Max="1.11609705e+03"/>
    <Variable VarIndex="5" Expression="pTLeadingJet" Label="pTLeadingJet" Title="pTLeadingJet" Unit="" Internal="pTLeadingJet" Type="F" Min="2.61450043e+01" Max="1.53425916e+03"/>
    <Variable VarIndex="6" Expression="pTLeadingBJet" Label="pTLeadingBJet" Title="pTLeadingBJet" Unit="" Internal="pTLeadingBJet" Type="F" Min="2.61450043e+01" Max="1.38909399e+03"/>
    <Variable VarIndex="7" Expression="missingET" Label="missingET" Title="missingET" Unit="" Internal="missingET" Type="F" Min="6.32480025e-01" Max="9.33393677e+02"/>
    <Variable VarIndex="8" Expression="pTTrailingLepton" Label="pTTrailingLepton" Title="pTTrailingLepton" Unit="" Internal="pTTrailingLepton" Type="F" Min="1.50084286e+01" Max="4.27714752e+02"/>
    <Variable VarIndex="9" Expression="highestDeepCSV" Label="highestDeepCSV" Title="highestDeepCSV" Unit="" Internal="highestDeepCSV" Type="F" Min="6.42398894e-01" Max="9.99999821e-01"/>
  </Variables>
  <Spectators NSpec="0"/>
  <Classes NClass="2">
    <Class Name="Signal" Index="0"/>
    <Class Name="Background" Index="1"/>
  </Classes>
  <Transformations NTransformations="1">
    <Transform Name="Normalize">
      <Selection>
        <Input NInputs="10">
          <Input Type="Variable" Label="topMass" Expression="topMass"/>
          <Input Type="Variable" Label="pTForwardJets" Expression="pTForwardJets"/>
          <Input Type="Variable" Label="etaLeading" Expression="etaLeading"/>
          <Input Type="Variable" Label="etaMostForward" Expression="etaMostForward"/>
          <Input Type="Variable" Label="pTLeadingLepton" Expression="pTLeadingLepton"/>
          <Input Type="Variable" Label="pTLeadingJet" Expression="pTLeadingJet"/>
          <Input Type="Variable" Label="pTLeadingBJet" Expression="pTLeadingBJet"/>
          <Input Type="Variable" Label="missingET" Expression="missingET"/>
          <Input Type="Variable" Label="pTTrailingLepton" Expression="pTTrailingLepton"/>
          <Input Type="Variable" Label="highestDeepCSV" Expression="highestDeepCSV"/>
        </Input>
        <Output NOutputs="10">
          <Output Type="Variable" Label="topMass" Expression="topMass"/>
          <Output Type="Variable" Label="pTForwardJets" Expression="pTForwardJets"/>
          <Output Type="Variable" Label="etaLeading" Expression="etaLeading"/>
          <Output Type="Variable" Label="etaMostForward" Expression="etaMostForward"/>
          <Output Type="Variable" Label="pTLeadingLepton" Expression="pTLeadingLepton"/>
          <Output Type="Variable" Label="pTLeadingJet" Expression="pTLeadingJet"/>
          <Output Type="Variable" Label="pTLeadingBJet" Expression="pTLeadingBJet"/>
          <Output Type="Variable" Label="missingET" Expression="missingET"/>
          <Output Type="Variable" Label="pTTrailingLepton" Expression="pTTrailingLepton"/>
          <Output Type="Variable" Label="highestDeepCSV" Expression="highestDeepCSV"/>
        </Output>
      </Selection>
      <Class ClassIndex="0">
        <Ranges>
          <Range Index="0" Min="2.1091072082519531e+01" Max="1.8932752685546875e+03"/>
          <Range Index="1" Min="0.0000000000000000e+00" Max="6.0574603271484375e+02"/>
          <Range Index="2" Min="1.7109749705923605e-06" Max="5.0127406120300293e+00"/>
          <Range Index="3" Min="2.8002766892313957e-02" Max="5.0806736946105957e+00"/>
          <Range Index="4" Min="3.1216669082641602e+01" Max="1.1160970458984375e+03"/>
          <Range Index="5" Min="2.6145004272460938e+01" Max="1.5342591552734375e+03"/>
          <Range Index="6" Min="2.6145004272460938e+01" Max="7.2988208007812500e+02"/>
          <Range Index="7" Min="6.3248002529144287e-01" Max="8.4513647460937500e+02"/>
          <Range Index="8" Min="1.5008428573608398e+01" Max="2.1884538269042969e+02"/>
          <Range Index="9" Min="6.4760214090347290e-01" Max="9.9999964237213135e-01"/>
        </Ranges>
      </Class>
      <Class ClassIndex="1">
        <Ranges>
          <Range Index="0" Min="4.5845752716064453e+01" Max="2.1848046875000000e+03"/>
          <Range Index="1" Min="0.0000000000000000e+00" Max="4.5742050170898438e+02"/>
          <Range Index="2" Min="1.4034891501069069e-04" Max="4.6022205352783203e+00"/>
          <Range Index="3" Min="2.7463806793093681e-02" Max="5.0847630500793457e+00"/>
          <Range Index="4" Min="2.7469459533691406e+01" Max="8.9937695312500000e+02"/>
          <Range Index="5" Min="2.8360345840454102e+01" Max="1.3890939941406250e+03"/>
          <Range Index="6" Min="2.7096897125244141e+01" Max="1.3890939941406250e+03"/>
          <Range Index="7" Min="1.0035849809646606e+00" Max="9.3339367675781250e+02"/>
          <Range Index="8" Min="1.5030668258666992e+01" Max="4.2771475219726562e+02"/>
          <Range Index="9" Min="6.4239889383316040e-01" Max="9.9999982118606567e-01"/>
        </Ranges>
      </Class>
      <Class ClassIndex="2">
        <Ranges>
          <Range Index="0" Min="2.1091072082519531e+01" Max="2.1848046875000000e+03"/>
          <Range Index="1" Min="0.0000000000000000e+00" Max="6.0574603271484375e+02"/>
          <Range Index="2" Min="1.7109749705923605e-06" Max="5.0127406120300293e+00"/>
          <Range Index="3" Min="2.7463806793093681e-02" Max="5.0847630500793457e+00"/>
          <Range Index="4" Min="2.7469459533691406e+01" Max="1.1160970458984375e+03"/>
          <Range Index="5" Min="2.6145004272460938e+01" Max="1.5342591552734375e+03"/>
          <Range Index="6" Min="2.6145004272460938e+01" Max="1.3890939941406250e+03"/>
          <Range Index="7" Min="6.3248002529144287e-01" Max="9.3339367675781250e+02"/>
          <Range Index="8" Min="1.5008428573608398e+01" Max="4.2771475219726562e+02"/>
          <Range Index="9" Min="6.4239889383316040e-01" Max="9.9999982118606567e-01"/>
        </Ranges>
      </Class>
    </Transform>
  </Transformations>
  <MVAPdfs/>
  <Weights>
    <Layout NLayers="3">
      <Layer Index="0" NNeurons="11">
        <Neuron NSynapses="15">
          -4.2498604954248942e-01 1.8442654241487177e+00 8.6465273633309525e-01 1.7292466538440447e+00 -1.9133917436949639e+00 -1.2080607625169015e+00 -7.9524300983893947e-01 1.9855111066716291e+00 -1.4061663765706804e+00 -9.0032317881636370e-01 -1.6795985683018706e+00 -3.2974465565624184e-01 -1.2343718728738642e+00 -4.0362121092786374e-01 -6.3632571097719404e-01 
        </Neuron>
        <Neuron NSynapses="15">
          5.3907555981785304e-01 -5.8908872291504588e-01 1.9155927365221777e+00 1.5300713213673395e-01 1.4354723397724933e+00 8.7263274426909787e-02 -7.4455232923241099e-01 7.2208877184738340e-01 1.0965799142429615e-01 -7.9988465972666745e-01 -2.9634402157844431e-01 1.6201784274356072e+00 -1.0712455216205641e+00 -1.7884883901472890e+00 1.1367540233752624e-01 
        </Neuron>
        <Neuron NSynapses="15">
          5.6009708408643466e-01 1.5212813828153253e+00 -3.0292022858442805e-02 -1.8114320403497411e-01 2.0581233473750404e-01 1.3339098572076977e-01 -1.4301298755834990e+00 1.7319779012171632e+00 -1.1995906841775799e+00 1.6178464813051532e+00 1.1431897761527550e+00 9.4525952896567167e-01 1.8659725360382997e+00 1.2869714413803475e+00 -7.6459449048937855e-01 
        </Neuron>
        <Neuron NSynapses="15">
          -1.6810755819923429e+00 7.2820383248013221e-01 2.1881813393754360e-01 1.5059796966439125e+00 1.4175023319732423e+00 1.7106921904914036e+00 1.3239350777459795e+00 -1.6770649223732299e+00 1.3209427888472880e+00 -1.4972166658976249e+00 -9.1435561087801931e-01 -1.3229658055868512e+00 -1.7668169320024625e+00 1.5884691157641380e+00 6.7874967692951826e-01 
        </Neuron>
        <Neuron NSynapses="15">
          -1.6841276830695024e+00 2.3569874288840639e-01 -4.3406693067180513e-01 6.8659895382807312e-01 1.9346611095992323e+00 -2.8177710286329294e-01 1.2470526989215167e-01 -1.2147463103722500e+00 7.7471193466554267e-01 -8.8083598503192373e-01 -7.8370715063540186e-01 -1.3584569099480630e+00 7.8304411761784187e-01 1.1209970301982946e+00 1.3142649318906934e+00 
        </Neuron>
        <Neuron NSynapses="15">
          -4.3300317933450255e-01 -2.0483419485734893e+00 -1.9652042396443654e+00 9.9621204263590413e-01 5.8530487833131140e-01 2.0837099354342388e+00 6.3544190896509878e-01 9.8660755354819385e-01 -8.0913360922328925e-01 -8.9656123037285085e-01 -2.2837428294521270e-01 1.2187599210661495e+00 -1.0803322910388169e+00 -1.5710314364780595e+00 -1.7016741238253474e+00 
        </Neuron>
        <Neuron NSynapses="15">
          -2.9133313213902606e-01 -2.4386235106389928e-01 1.5149709468438775e+00 -1.6142382437222402e+00 -7.2683988908047736e-01 1.6798270568665143e+00 -8.5784979454756582e-01 -1.5244889260368988e+00 -1.4851342858765519e+00 3.7236956210034783e-02 -1.9277908499986647e+00 -1.6070673271540676e+00 7.4990441508316352e-01 1.6692552582184219e+00 -1.1344838977080753e+00 
        </Neuron>
        <Neuron NSynapses="15">
          1.5421090734985199e+00 -1.0884565979136767e+00 -8.3841476072839427e-01 -4.1225734383234333e-02 4.2825312842970781e-01 -1.5341323187448910e+00 2.5813494075845900e-01 2.8688825242756311e-01 4.6285143686723090e-01 -1.2948598159872087e+00 1.7681313825769609e+00 4.5233467044339676e-01 -9.3137890786859501e-01 8.3480830561576003e-01 -1.0970084050307969e+00 
        </Neuron>
        <Neuron NSynapses="15">
          -1.6873834273448156e+00 -1.2123523972667676e-02 -3.9341700332218443e-01 1.8004314617392743e+00 8.7704294778916625e-01 8.0661305200355887e-02 -3.5176387009230731e-01 1.6069065013936298e-01 -1.7927845644866927e+00 1.0603600788763978e+00 9.0001877351167645e-02 -1.7372470777844899e+00 6.8320635999077406e-01 -1.4424245492788137e+00 4.1686629777142818e-02 
        </Neuron>
        <Neuron NSynapses="15">
          1.1436684291628605e+00 1.7687643733846907e+00 -1.6225676837850722e+00 3.4475519738889471e-01 1.4240154989916085e+00 1.7363072459560165e+00 1.7447058755931491e-01 -1.4814004130568268e+00 -2.1299986889590525e-01 -1.2211250648234584e+00 1.5764389636606539e+00 1.2220881963875838e+00 -5.3803687779407927e-01 -3.3756386928494603e-01 1.6020967500433914e-01 
        </Neuron>
        <Neuron NSynapses="15">
          -1.2104001788528704e+00 7.9174414291089934e-01 1.6897284019610297e+00 -5.5314390928624413e-01 -7.1316285591745654e-01 -1.2055235776155008e-02 1.0098435988738610e+00 5.5820427689018659e-01 8.9195554063454874e-01 -1.6698845347625111e+00 1.6058915951914483e+00 6.4641029308201259e-01 4.6855187507194490e-01 5.4112434208245919e-01 1.0299955009160873e+00 
        </Neuron>
      </Layer>
      <Layer Index="1" NNeurons="16">
        <Neuron NSynapses="1">
          -3.9957045186728879e-02 
        </Neuron>
        <Neuron NSynapses="1">
          -3.7937610280839790e-01 
        </Neuron>
        <Neuron NSynapses="1">
          8.1797614336737734e-01 
        </Neuron>
        <Neuron NSynapses="1">
          -7.4001623404207240e-01 
        </Neuron>
        <Neuron NSynapses="1">
          -1.6965335690820083e-01 
        </Neuron>
        <Neuron NSynapses="1">
          1.7660308942379526e+00 
        </Neuron>
        <Neuron NSynapses="1">
          8.3155092621398152e-01 
        </Neuron>
        <Neuron NSynapses="1">
          -1.3724866814582115e-01 
        </Neuron>
        <Neuron NSynapses="1">
          1.3543010501827502e+00 
        </Neuron>
        <Neuron NSynapses="1">
          1.2998768980972544e+00 
        </Neuron>
        <Neuron NSynapses="1">
          -2.1051463744428505e+00 
        </Neuron>
        <Neuron NSynapses="1">
          5.9917680457008804e-01 
        </Neuron>
        <Neuron NSynapses="1">
          -1.6306729639630319e-01 
        </Neuron>
        <Neuron NSynapses="1">
          3.6219872421910559e-01 
        </Neuron>
        <Neuron NSynapses="1">
          -1.8593313301260961e+00 
        </Neuron>
        <Neuron NSynapses="1">
          -1.7167877288671789e+00 
        </Neuron>
      </Layer>
      <Layer Index="2" NNeurons="1">
        <Neuron NSynapses="0"/>
      </Layer>
    </Layout>
  </Weights>
</MethodSetup>
