<?xml version="1.0"?>
<MethodSetup Method="MLP::MLP">
  <GeneralInfo>
    <Info name="TMVA Release" value="4.2.1 [262657]"/>
    <Info name="ROOT Release" value="6.08/07 [395271]"/>
    <Info name="Creator" value="wverbeke"/>
    <Info name="Date" value="Tue Dec  5 03:35:42 2017"/>
    <Info name="Host" value="Linux vocms0302.cern.ch 2.6.32-696.1.1.el6.x86_64 #1 SMP Wed Apr 12 08:44:28 CEST 2017 x86_64 x86_64 x86_64 GNU/Linux"/>
    <Info name="Dir" value="/storage_mnt/storage/user/wverbeke/Work/AnalysisCode/ewkino/bdtTraining/bdtTrainingsubmit"/>
    <Info name="Training events" value="49982"/>
    <Info name="TrainingTime" value="6.05900121e+02"/>
    <Info name="AnalysisType" value="Classification"/>
  </GeneralInfo>
  <Options>
    <Option name="NCycles" modified="Yes">600</Option>
    <Option name="HiddenLayers" modified="Yes">N+5</Option>
    <Option name="NeuronType" modified="Yes">tanh</Option>
    <Option name="RandomSeed" modified="No">1</Option>
    <Option name="EstimatorType" modified="No">CE</Option>
    <Option name="NeuronInputType" modified="No">sum</Option>
    <Option name="V" modified="Yes">False</Option>
    <Option name="VerbosityLevel" modified="No">Default</Option>
    <Option name="VarTransform" modified="Yes">N</Option>
    <Option name="H" modified="Yes">True</Option>
    <Option name="CreateMVAPdfs" modified="No">False</Option>
    <Option name="IgnoreNegWeightsInTraining" modified="No">False</Option>
    <Option name="TrainingMethod" modified="No">BP</Option>
    <Option name="LearningRate" modified="No">2.000000e-02</Option>
    <Option name="DecayRate" modified="No">1.000000e-02</Option>
    <Option name="TestRate" modified="Yes">5</Option>
    <Option name="EpochMonitoring" modified="No">False</Option>
    <Option name="Sampling" modified="No">1.000000e+00</Option>
    <Option name="SamplingEpoch" modified="No">1.000000e+00</Option>
    <Option name="SamplingImportance" modified="No">1.000000e+00</Option>
    <Option name="SamplingTraining" modified="No">True</Option>
    <Option name="SamplingTesting" modified="No">False</Option>
    <Option name="ResetStep" modified="No">50</Option>
    <Option name="Tau" modified="No">3.000000e+00</Option>
    <Option name="BPMode" modified="No">sequential</Option>
    <Option name="BatchSize" modified="No">-1</Option>
    <Option name="ConvergenceImprove" modified="No">1.000000e-30</Option>
    <Option name="ConvergenceTests" modified="No">-1</Option>
    <Option name="UseRegulator" modified="Yes">False</Option>
    <Option name="UpdateLimit" modified="No">10000</Option>
    <Option name="CalculateErrors" modified="No">False</Option>
    <Option name="WeightRange" modified="No">1.000000e+00</Option>
  </Options>
  <Variables NVar="19">
    <Variable VarIndex="0" Expression="topMass" Label="topMass" Title="topMass" Unit="" Internal="topMass" Type="F" Min="0.00000000e+00" Max="2.77816455e+03"/>
    <Variable VarIndex="1" Expression="pTForwardJets" Label="pTForwardJets" Title="pTForwardJets" Unit="" Internal="pTForwardJets" Type="F" Min="0.00000000e+00" Max="6.61229858e+02"/>
    <Variable VarIndex="2" Expression="etaMostForward" Label="etaMostForward" Title="etaMostForward" Unit="" Internal="etaMostForward" Type="F" Min="2.65010893e-02" Max="5.08471155e+00"/>
    <Variable VarIndex="3" Expression="numberOfJets" Label="numberOfJets" Title="numberOfJets" Unit="" Internal="numberOfJets" Type="F" Min="2.00000000e+00" Max="1.50000000e+01"/>
    <Variable VarIndex="4" Expression="pTLeadingLepton" Label="pTLeadingLepton" Title="pTLeadingLepton" Unit="" Internal="pTLeadingLepton" Type="F" Min="2.59122334e+01" Max="1.42124902e+03"/>
    <Variable VarIndex="5" Expression="mNotSoForwardJets" Label="mNotSoForwardJets" Title="mNotSoForwardJets" Unit="" Internal="mNotSoForwardJets" Type="F" Min="0.00000000e+00" Max="6.91145166e+03"/>
    <Variable VarIndex="6" Expression="missingET" Label="missingET" Title="missingET" Unit="" Internal="missingET" Type="F" Min="2.08686158e-01" Max="9.36872620e+02"/>
    <Variable VarIndex="7" Expression="highestDeepCSV" Label="highestDeepCSV" Title="highestDeepCSV" Unit="" Internal="highestDeepCSV" Type="F" Min="6.36835039e-01" Max="9.99999881e-01"/>
    <Variable VarIndex="8" Expression="maxMjj" Label="maxMjj" Title="maxMjj" Unit="" Internal="maxMjj" Type="F" Min="0.00000000e+00" Max="6.59656543e+03"/>
    <Variable VarIndex="9" Expression="minMlb" Label="minMlb" Title="minMlb" Unit="" Internal="minMlb" Type="F" Min="-4.38323792e+02" Max="9.25533447e+02"/>
    <Variable VarIndex="10" Expression="asymmetryWlep" Label="asymmetryWlep" Title="asymmetryWlep" Unit="" Internal="asymmetryWlep" Type="F" Min="-2.49252605e+00" Max="2.49792886e+00"/>
    <Variable VarIndex="11" Expression="etaZ" Label="etaZ" Title="etaZ" Unit="" Internal="etaZ" Type="F" Min="9.73431452e-05" Max="6.51006031e+00"/>
    <Variable VarIndex="12" Expression="m3l" Label="m3l" Title="m3l" Unit="" Internal="m3l" Type="F" Min="8.28040314e+01" Max="2.29316870e+03"/>
    <Variable VarIndex="13" Expression="maxDeltaRjj" Label="maxDeltaRjj" Title="maxDeltaRjj" Unit="" Internal="maxDeltaRjj" Type="F" Min="3.98503095e-01" Max="1.01240606e+01"/>
    <Variable VarIndex="14" Expression="maxDeltaPhill" Label="maxDeltaPhill" Title="maxDeltaPhill" Unit="" Internal="maxDeltaPhill" Type="F" Min="1.57012939e-02" Max="3.14154816e+00"/>
    <Variable VarIndex="15" Expression="pTMaxlb" Label="pTMaxlb" Title="pTMaxlb" Unit="" Internal="pTMaxlb" Type="F" Min="2.63073292e+01" Max="1.37629834e+03"/>
    <Variable VarIndex="16" Expression="pT3l" Label="pT3l" Title="pT3l" Unit="" Internal="pT3l" Type="F" Min="4.04769868e-01" Max="1.75672693e+03"/>
    <Variable VarIndex="17" Expression="mForwardJetsLeadinBJetW" Label="mForwardJetsLeadinBJetW" Title="mForwardJetsLeadinBJetW" Unit="" Internal="mForwardJetsLeadinBJetW" Type="F" Min="0.00000000e+00" Max="7.52694678e+03"/>
    <Variable VarIndex="18" Expression="ht" Label="ht" Title="ht" Unit="" Internal="ht" Type="F" Min="5.05320778e+01" Max="3.38973438e+03"/>
  </Variables>
  <Spectators NSpec="0"/>
  <Classes NClass="2">
    <Class Name="Signal" Index="0"/>
    <Class Name="Background" Index="1"/>
  </Classes>
  <Transformations NTransformations="1">
    <Transform Name="Normalize">
      <Selection>
        <Input NInputs="19">
          <Input Type="Variable" Label="topMass" Expression="topMass"/>
          <Input Type="Variable" Label="pTForwardJets" Expression="pTForwardJets"/>
          <Input Type="Variable" Label="etaMostForward" Expression="etaMostForward"/>
          <Input Type="Variable" Label="numberOfJets" Expression="numberOfJets"/>
          <Input Type="Variable" Label="pTLeadingLepton" Expression="pTLeadingLepton"/>
          <Input Type="Variable" Label="mNotSoForwardJets" Expression="mNotSoForwardJets"/>
          <Input Type="Variable" Label="missingET" Expression="missingET"/>
          <Input Type="Variable" Label="highestDeepCSV" Expression="highestDeepCSV"/>
          <Input Type="Variable" Label="maxMjj" Expression="maxMjj"/>
          <Input Type="Variable" Label="minMlb" Expression="minMlb"/>
          <Input Type="Variable" Label="asymmetryWlep" Expression="asymmetryWlep"/>
          <Input Type="Variable" Label="etaZ" Expression="etaZ"/>
          <Input Type="Variable" Label="m3l" Expression="m3l"/>
          <Input Type="Variable" Label="maxDeltaRjj" Expression="maxDeltaRjj"/>
          <Input Type="Variable" Label="maxDeltaPhill" Expression="maxDeltaPhill"/>
          <Input Type="Variable" Label="pTMaxlb" Expression="pTMaxlb"/>
          <Input Type="Variable" Label="pT3l" Expression="pT3l"/>
          <Input Type="Variable" Label="mForwardJetsLeadinBJetW" Expression="mForwardJetsLeadinBJetW"/>
          <Input Type="Variable" Label="ht" Expression="ht"/>
        </Input>
        <Output NOutputs="19">
          <Output Type="Variable" Label="topMass" Expression="topMass"/>
          <Output Type="Variable" Label="pTForwardJets" Expression="pTForwardJets"/>
          <Output Type="Variable" Label="etaMostForward" Expression="etaMostForward"/>
          <Output Type="Variable" Label="numberOfJets" Expression="numberOfJets"/>
          <Output Type="Variable" Label="pTLeadingLepton" Expression="pTLeadingLepton"/>
          <Output Type="Variable" Label="mNotSoForwardJets" Expression="mNotSoForwardJets"/>
          <Output Type="Variable" Label="missingET" Expression="missingET"/>
          <Output Type="Variable" Label="highestDeepCSV" Expression="highestDeepCSV"/>
          <Output Type="Variable" Label="maxMjj" Expression="maxMjj"/>
          <Output Type="Variable" Label="minMlb" Expression="minMlb"/>
          <Output Type="Variable" Label="asymmetryWlep" Expression="asymmetryWlep"/>
          <Output Type="Variable" Label="etaZ" Expression="etaZ"/>
          <Output Type="Variable" Label="m3l" Expression="m3l"/>
          <Output Type="Variable" Label="maxDeltaRjj" Expression="maxDeltaRjj"/>
          <Output Type="Variable" Label="maxDeltaPhill" Expression="maxDeltaPhill"/>
          <Output Type="Variable" Label="pTMaxlb" Expression="pTMaxlb"/>
          <Output Type="Variable" Label="pT3l" Expression="pT3l"/>
          <Output Type="Variable" Label="mForwardJetsLeadinBJetW" Expression="mForwardJetsLeadinBJetW"/>
          <Output Type="Variable" Label="ht" Expression="ht"/>
        </Output>
      </Selection>
      <Class ClassIndex="0">
        <Ranges>
          <Range Index="0" Min="5.7646942138671875e+01" Max="2.0421374511718750e+03"/>
          <Range Index="1" Min="0.0000000000000000e+00" Max="6.6122985839843750e+02"/>
          <Range Index="2" Min="2.6501089334487915e-02" Max="5.0847115516662598e+00"/>
          <Range Index="3" Min="2.0000000000000000e+00" Max="1.2000000000000000e+01"/>
          <Range Index="4" Min="2.6984745025634766e+01" Max="1.2892761230468750e+03"/>
          <Range Index="5" Min="0.0000000000000000e+00" Max="6.7784506835937500e+03"/>
          <Range Index="6" Min="2.0868615806102753e-01" Max="5.7100695800781250e+02"/>
          <Range Index="7" Min="6.4103865623474121e-01" Max="9.9999988079071045e-01"/>
          <Range Index="8" Min="0.0000000000000000e+00" Max="6.5965654296875000e+03"/>
          <Range Index="9" Min="-2.7652612304687500e+02" Max="2.9975765991210938e+02"/>
          <Range Index="10" Min="-2.4925260543823242e+00" Max="2.4845037460327148e+00"/>
          <Range Index="11" Min="1.2068499927408993e-04" Max="6.5100603103637695e+00"/>
          <Range Index="12" Min="9.0249153137207031e+01" Max="1.1398311767578125e+03"/>
          <Range Index="13" Min="4.0221801400184631e-01" Max="1.0124060630798340e+01"/>
          <Range Index="14" Min="5.4216146469116211e-02" Max="3.1415202617645264e+00"/>
          <Range Index="15" Min="2.9872255325317383e+01" Max="1.2652883300781250e+03"/>
          <Range Index="16" Min="4.0476986765861511e-01" Max="1.3461330566406250e+03"/>
          <Range Index="17" Min="0.0000000000000000e+00" Max="7.5269467773437500e+03"/>
          <Range Index="18" Min="5.0532077789306641e+01" Max="2.2642514648437500e+03"/>
        </Ranges>
      </Class>
      <Class ClassIndex="1">
        <Ranges>
          <Range Index="0" Min="0.0000000000000000e+00" Max="2.7781645507812500e+03"/>
          <Range Index="1" Min="0.0000000000000000e+00" Max="5.8231451416015625e+02"/>
          <Range Index="2" Min="2.7463806793093681e-02" Max="5.0805339813232422e+00"/>
          <Range Index="3" Min="2.0000000000000000e+00" Max="1.5000000000000000e+01"/>
          <Range Index="4" Min="2.5912233352661133e+01" Max="1.4212490234375000e+03"/>
          <Range Index="5" Min="0.0000000000000000e+00" Max="6.9114516601562500e+03"/>
          <Range Index="6" Min="8.4347844123840332e-01" Max="9.3687261962890625e+02"/>
          <Range Index="7" Min="6.3683503866195679e-01" Max="9.9999982118606567e-01"/>
          <Range Index="8" Min="0.0000000000000000e+00" Max="5.5773720703125000e+03"/>
          <Range Index="9" Min="-4.3832379150390625e+02" Max="9.2553344726562500e+02"/>
          <Range Index="10" Min="-2.4919135570526123e+00" Max="2.4979288578033447e+00"/>
          <Range Index="11" Min="9.7343145171180367e-05" Max="6.3244576454162598e+00"/>
          <Range Index="12" Min="8.2804031372070312e+01" Max="2.2931687011718750e+03"/>
          <Range Index="13" Min="3.9850309491157532e-01" Max="9.9043292999267578e+00"/>
          <Range Index="14" Min="1.5701293945312500e-02" Max="3.1415481567382812e+00"/>
          <Range Index="15" Min="2.6307329177856445e+01" Max="1.3762983398437500e+03"/>
          <Range Index="16" Min="1.0420131683349609e+00" Max="1.7567269287109375e+03"/>
          <Range Index="17" Min="0.0000000000000000e+00" Max="6.9004677734375000e+03"/>
          <Range Index="18" Min="5.2419048309326172e+01" Max="3.3897343750000000e+03"/>
        </Ranges>
      </Class>
      <Class ClassIndex="2">
        <Ranges>
          <Range Index="0" Min="0.0000000000000000e+00" Max="2.7781645507812500e+03"/>
          <Range Index="1" Min="0.0000000000000000e+00" Max="6.6122985839843750e+02"/>
          <Range Index="2" Min="2.6501089334487915e-02" Max="5.0847115516662598e+00"/>
          <Range Index="3" Min="2.0000000000000000e+00" Max="1.5000000000000000e+01"/>
          <Range Index="4" Min="2.5912233352661133e+01" Max="1.4212490234375000e+03"/>
          <Range Index="5" Min="0.0000000000000000e+00" Max="6.9114516601562500e+03"/>
          <Range Index="6" Min="2.0868615806102753e-01" Max="9.3687261962890625e+02"/>
          <Range Index="7" Min="6.3683503866195679e-01" Max="9.9999988079071045e-01"/>
          <Range Index="8" Min="0.0000000000000000e+00" Max="6.5965654296875000e+03"/>
          <Range Index="9" Min="-4.3832379150390625e+02" Max="9.2553344726562500e+02"/>
          <Range Index="10" Min="-2.4925260543823242e+00" Max="2.4979288578033447e+00"/>
          <Range Index="11" Min="9.7343145171180367e-05" Max="6.5100603103637695e+00"/>
          <Range Index="12" Min="8.2804031372070312e+01" Max="2.2931687011718750e+03"/>
          <Range Index="13" Min="3.9850309491157532e-01" Max="1.0124060630798340e+01"/>
          <Range Index="14" Min="1.5701293945312500e-02" Max="3.1415481567382812e+00"/>
          <Range Index="15" Min="2.6307329177856445e+01" Max="1.3762983398437500e+03"/>
          <Range Index="16" Min="4.0476986765861511e-01" Max="1.7567269287109375e+03"/>
          <Range Index="17" Min="0.0000000000000000e+00" Max="7.5269467773437500e+03"/>
          <Range Index="18" Min="5.0532077789306641e+01" Max="3.3897343750000000e+03"/>
        </Ranges>
      </Class>
    </Transform>
  </Transformations>
  <MVAPdfs/>
  <Weights>
    <Layout NLayers="3">
      <Layer Index="0" NNeurons="20">
        <Neuron NSynapses="24">
          -3.3420044025685969e-01 1.9471828810649869e+00 7.4583388760984237e-01 1.6534776794636274e+00 -1.9776587738631148e+00 -1.4875179137520671e+00 -8.5095118452216900e-01 1.9825009083633185e+00 -1.4243578892868551e+00 -1.0408665843270459e+00 -1.5798772962262881e+00 -5.3161554107586495e-01 -1.4054265203527383e+00 -3.8162512218653449e-01 -6.3156363675559568e-01 4.1945845629030803e-01 -4.1265914988197583e-01 1.7865235403899553e+00 4.3115127174982804e-01 1.3784623836765477e+00 -1.3330357290185027e-01 -7.4389781935072519e-01 5.9007939116182495e-01 -1.1933968228616766e-02 
        </Neuron>
        <Neuron NSynapses="24">
          -1.1839067359030235e+00 -2.6960751955596413e-01 1.4789477418747483e+00 -9.6996475003228944e-01 -1.8652832629036475e+00 1.3764021478079735e-01 6.0251662194716216e-01 1.6363978617514801e+00 -3.5008351029714407e-01 -1.4558189320674789e-01 3.2674667162609933e-01 -3.3536668233067446e-01 -1.5555646532689835e+00 1.7584666723841504e+00 -1.2307202164645741e+00 7.6902880727810652e-01 1.2015420211852716e+00 8.6604502708357478e-01 2.1218700411495655e+00 1.2160177028717911e+00 -7.8712157920281733e-01 -1.6281416727005706e+00 8.9926735567309224e-01 8.2310366674671787e-02 
        </Neuron>
        <Neuron NSynapses="24">
          1.5077731504483303e+00 1.4989733219388222e+00 1.7263923164670438e+00 1.4572795596149892e+00 -1.6736825802336932e+00 1.3184109666756194e+00 -1.8509985522985533e+00 -9.0781113727448792e-01 -1.3130428680553357e+00 -1.7355108889368320e+00 1.5734638405751575e+00 7.6661958334139868e-01 -1.5585010285239420e+00 3.2341651400561511e-01 -3.1947895804200632e-01 5.6299299447297468e-01 1.8313841936438326e+00 -4.2239554610378421e-01 1.9537904688552507e-01 -1.1740014677110870e+00 5.7202909641037902e-01 -8.4597723773248834e-01 -6.1773442612660934e-01 -1.3679578085884356e+00 
        </Neuron>
        <Neuron NSynapses="24">
          7.4494938084575857e-01 1.1281589611225684e+00 1.1383471841649073e+00 -6.4589518180420291e-01 -1.9176803345830749e+00 -1.8633128913790906e+00 9.6155537107424183e-01 4.8370016345700600e-01 1.9474794557570889e+00 6.2108150254842631e-01 9.9997525674483789e-01 -8.5850668429897647e-01 -8.9480557504971825e-01 -5.2493904887223788e-02 1.1647612974497978e+00 -1.1675172476569438e+00 -1.5879504492307679e+00 -1.6185635450841920e+00 -6.3208453760076805e-02 -1.5639683163502438e-01 2.1897538151535718e+00 -1.6161017132690041e+00 -1.3123597306297317e+00 1.3621892632015116e+00 
        </Neuron>
        <Neuron NSynapses="24">
          -8.5115656642716175e-01 -1.5674554038004711e+00 -1.5733428786879708e+00 7.9391487580167661e-02 -1.8968441170714654e+00 -1.6655110447431860e+00 6.4682061197900198e-01 1.6534348611934067e+00 -1.1595901704505089e+00 1.6590254641842073e+00 -8.5559107920607647e-01 -9.2966651498581387e-01 -1.8210230373385661e-01 3.6673473600775797e-01 -1.8085236401166263e+00 -3.2731528406227096e-02 2.9732389437962514e-01 4.9430742437145503e-01 -1.1502167508025842e+00 1.8248150250737125e+00 3.7161568591435817e-01 -9.5292020169371761e-01 7.4822671617893577e-01 -1.1701548735040856e+00 
        </Neuron>
        <Neuron NSynapses="24">
          -1.5906508600510862e+00 1.2560961376823054e-01 -3.3084423874159191e-01 1.9548372250797010e+00 7.9164693407352649e-01 -2.7761411132811564e-02 -4.1600746299475128e-01 1.4373822051549162e-01 -1.8059683789286791e+00 1.0952630170456157e+00 2.7058518538420034e-01 -1.8161653517947509e+00 5.5107120099816220e-01 -1.3995285849971675e+00 3.2148495112479421e-02 8.2676583360052647e-01 1.7767659860398821e+00 -1.8872664093944216e+00 6.0468426350487670e-01 1.5511042283632694e+00 1.3527620334463144e+00 1.5983328360606788e-01 -1.3309521175456138e+00 -2.0508898948112136e-01 
        </Neuron>
        <Neuron NSynapses="24">
          -1.4405400488371554e+00 1.5282343768539470e+00 1.1102887113272808e+00 -5.4742546142665249e-01 -3.8310803051068704e-01 1.5368930507803283e-01 -1.3668618210870258e+00 5.9282137233540622e-01 1.6998146612932252e+00 -5.4294035500138882e-01 -5.4563477903879465e-01 1.7405119313277570e-01 8.5650080760404090e-01 6.1106024063150077e-01 8.8218621463932256e-01 -1.7366072153582619e+00 1.5332384844876807e+00 8.0455811945409939e-01 7.3425717662547696e-01 5.8625556697006087e-01 1.1006009395595178e+00 -5.8097028909159087e-01 -7.0714507128885962e-01 9.5358814305175754e-01 
        </Neuron>
        <Neuron NSynapses="24">
          -9.1621435447234945e-01 -5.1358275306724988e-01 1.4817392143689978e+00 8.4577355540305243e-01 -3.1847068709043042e-01 1.5253767871028547e+00 1.8819196513245406e+00 -1.9637198429667868e+00 6.6833546720437664e-01 -4.5887908642107629e-02 3.5468047433794708e-01 -1.5523124187831463e+00 -1.3541388158071932e+00 1.1127285820571293e+00 1.8233445178352834e+00 -1.4284087488102906e+00 -2.0072947310703407e-01 -5.6481780875685483e-01 2.6411813561090826e-02 1.7608608404451411e+00 -7.2505511571583539e-02 -4.8513282085202791e-01 -1.3031144292520109e+00 1.0244165496555229e+00 
        </Neuron>
        <Neuron NSynapses="24">
          1.6126873597261411e+00 1.0645065443335711e+00 2.7574601505416685e-01 -6.8533809452737526e-01 -1.9724650369334285e+00 1.0909506236639410e+00 3.9930354758855841e-01 -1.4071046067759292e+00 -7.0439974349131018e-01 3.4363843599107313e-01 2.1908097227512446e-01 -1.9927841367983363e+00 1.4163093219715941e+00 8.7314715988306246e-01 -5.9751689791719431e-01 -4.4184839931962822e-01 1.6331852692682434e+00 1.0591424196957320e+00 7.4956920978070551e-01 -1.1701233635220280e-01 -2.0735865472795023e+00 -9.2585241538465268e-01 1.7677373645005776e+00 1.3153678202093371e+00 
        </Neuron>
        <Neuron NSynapses="24">
          7.6307673665214126e-01 1.9008210162984937e-01 1.9702724777012426e+00 -1.6911744542258924e+00 -1.3016224681946207e+00 -1.1010851577578211e-01 -1.4627343818733685e+00 9.7091989976588555e-01 1.7265617316955280e+00 -1.2245253096306543e+00 8.2090010096346155e-01 -1.8429854264330039e-01 -1.7727238214006966e+00 -1.0718285481355101e+00 1.0120838180697074e+00 -4.6254116923429324e-02 1.0155821971334686e+00 -1.1586119869613671e+00 1.7542338693467772e+00 -1.8001966416424005e+00 7.6511206590759218e-01 7.6377712169522743e-02 -1.4443326931205380e+00 -1.3111995385360420e+00 
        </Neuron>
        <Neuron NSynapses="24">
          -1.9202843997392463e+00 -3.8483943624307287e-01 -1.8742499754172079e+00 -1.5948672146882696e+00 -1.9035641588436059e+00 3.9239561417954878e-02 -1.0208560528776121e+00 -1.5961503529358574e+00 1.4376465320667795e+00 -8.3495598056580866e-01 1.9019233564829779e-01 -1.0212758357191269e+00 1.7776173717833604e-01 1.8679815517952674e+00 1.3671058664552185e+00 -9.3130555331667975e-01 -1.5034247579245681e+00 -1.0874410272606565e+00 -7.9925977882035926e-01 -1.6280441053100612e+00 3.0679978238083491e-02 2.7847190233963243e-01 1.6060179589668933e+00 -3.3815780024558151e-01 
        </Neuron>
        <Neuron NSynapses="24">
          2.4137874111643459e-01 -5.7064159736968201e-01 -1.8920576753554847e+00 1.3180257507583018e+00 1.2238715654415173e+00 -8.4097280344851244e-01 -1.1322015030974779e+00 8.5308183454354503e-01 1.2163060482804540e+00 4.6722151689214242e-01 -3.9434398539132570e-01 -3.9628307106310839e-01 1.3037969544804444e+00 9.4375662639475311e-01 9.5919893964436942e-01 -5.4342574907565311e-01 2.2514820884579520e-01 -2.7459027421565563e-01 -1.1772081145720961e+00 -5.5564001443316580e-01 -1.4883938493416260e+00 -1.3850395396450585e+00 -1.4187483264293248e+00 1.7320396912656375e+00 
        </Neuron>
        <Neuron NSynapses="24">
          -1.8240633634574275e+00 1.6366918474459318e+00 -1.6659654982032384e+00 1.0905116697997823e+00 -1.0782503933777308e+00 4.6530662400364065e-01 7.6910872792401264e-01 -1.8751108399954504e+00 2.3195792904091531e-01 6.3346484232536782e-01 -1.8764724727472233e+00 -1.5706141438060028e+00 -1.8606108769370211e+00 -7.4684361237778307e-01 1.8450462995780581e+00 -8.5535267900077816e-01 2.7279727122638414e-01 -8.6318733077982635e-01 -8.9158885932837884e-01 -1.7079809831753467e+00 -8.3895143264309469e-01 -1.3932692218455474e+00 8.4448211459453537e-01 -1.4619064276744789e+00 
        </Neuron>
        <Neuron NSynapses="24">
          -1.2174056269728064e+00 1.7861691569793714e+00 4.0785722367306904e-01 -3.9412811061999914e-01 1.8725493141648071e+00 -1.7999279724408213e+00 1.3475883729598983e+00 9.5667094454599322e-01 -1.0344532886462432e+00 -7.7942058927174407e-01 4.0285271488408637e-02 -1.1176730526019507e+00 4.7153735130791169e-01 1.8953476936035747e+00 1.3101610296971014e+00 1.3992105980921770e+00 -1.3731644077469634e+00 9.9566258814570252e-01 -1.8112331522791456e+00 6.2941038827056395e-01 -1.8420879436514390e+00 -1.8437426244561304e+00 2.0429267982259580e-02 1.2925708143817480e+00 
        </Neuron>
        <Neuron NSynapses="24">
          4.2610904527705751e-01 1.0967833919050205e+00 4.5688968574141547e-01 -6.4275005055266676e-02 -7.5144646114125935e-01 1.2731371189407370e-01 1.8984907570861387e+00 -1.5780288666363993e+00 3.2773259702075208e-01 -1.4236536694701287e+00 -5.3012607686512825e-01 1.3615391648356509e-01 2.2196796735365651e-01 -1.1758473052022158e+00 1.0076890623491888e+00 1.6553715322148890e+00 6.7685968041344868e-01 -1.9713056345076371e-01 -8.5573680843339661e-01 -1.4642985209426014e+00 -8.9189297965990522e-01 1.0535097327828487e+00 -3.8855886357808384e-01 -1.1582072657841478e+00 
        </Neuron>
        <Neuron NSynapses="24">
          5.1630847880400355e-01 -1.7439795011132617e+00 -1.2464634682168110e+00 -1.6161686596354590e+00 1.0341626362094336e+00 -1.3511691405978987e+00 -1.7892667583401496e+00 -5.8708049167603971e-01 -9.6235263566367102e-01 -1.6073036894381445e+00 1.2892969042970892e+00 -1.5372558324346350e+00 -1.3705292471017374e+00 1.7261044726996737e+00 5.2892151061199588e-01 4.9779147948732352e-02 9.9317826194162254e-02 1.3998828543878692e+00 1.9130441470831494e+00 4.9004496274235776e-01 -9.1721025201298245e-01 -6.9924567513669866e-01 -1.7644774279140458e+00 8.3402659745772245e-01 
        </Neuron>
        <Neuron NSynapses="24">
          9.3752897157681359e-01 4.3098718152778104e-02 9.7234162505713428e-01 9.0356080886774015e-01 1.6576265589563968e+00 -1.3383796549465994e+00 1.6737918144868615e+00 7.3900476007761362e-01 -1.9515667344817225e+00 -2.7790424195288765e-01 -9.8359218244600699e-01 7.8602398173255761e-01 3.3738212342818019e-01 1.0634184601181995e+00 1.7736396632993678e+00 -6.6778857848628992e-01 1.8015527349157547e+00 1.7435277332987114e+00 4.4625453785477759e-01 -1.1891905182803348e+00 1.6153348263970155e+00 -1.9634243029984100e+00 4.8154195020275903e-01 1.6111753983543677e+00 
        </Neuron>
        <Neuron NSynapses="24">
          -4.4069897920781265e-01 -8.2484115685427162e-01 -1.4181192500697196e-01 -1.3313631931427115e+00 4.2814742230095287e-01 -1.9036017572898394e+00 1.2597860486101942e-01 -2.0824536177859870e-01 1.6951570321197671e+00 1.2567463229931377e+00 1.7462049686927257e+00 -5.2120472035382215e-01 -5.3709274640251581e-01 4.9664404068244128e-01 1.8361026821596385e+00 -2.1573391031915499e+00 -1.3051447655983444e+00 -5.6624171835877068e-01 -1.2360628788002761e+00 -1.6867716829181185e+00 -1.3249342527439547e+00 7.7019328568326051e-01 -9.1045143127062925e-02 -2.0233642134820080e+00 
        </Neuron>
        <Neuron NSynapses="24">
          -1.9157016698804914e+00 -2.0208676020876551e-01 1.6688281041314765e+00 1.7786834321929608e+00 1.3312133187770023e+00 -6.6325278656346753e-01 -1.9810887320155977e+00 -1.2436321464585109e-01 -1.3005613255682258e+00 -1.5738709238153206e+00 -6.0764123144425464e-01 -8.5095128850592755e-02 -1.5764088035948765e+00 1.6334972099450744e+00 1.2206327653654945e+00 -6.5482113008985016e-02 -6.2140311335155818e-01 -8.2076779298480462e-01 1.9486500609259350e+00 -5.9246957324526150e-01 4.4069054766272647e-01 1.5877208926394917e+00 1.3532752536738490e+00 -1.1518836172006091e+00 
        </Neuron>
        <Neuron NSynapses="24">
          1.3831223754914006e+00 -1.8425263453688825e+00 1.7173119835022157e+00 1.8386731694664717e+00 -1.9225802992704655e-01 -2.8011099305241355e-01 2.7730691097160526e-01 -5.9263309715549661e-01 1.2075083215890643e+00 2.8455860557718604e-01 -9.4954390629326524e-01 -1.3345287695162897e+00 1.5248976181515464e-01 1.7764099172895651e+00 4.2263803578174863e-01 -3.9528428595090109e-01 -1.9382709940294265e+00 1.7810820288123901e+00 2.6180608019771921e-02 -1.1269097316088095e+00 -3.0891200382768846e-01 -1.0095161276685756e+00 1.2041492209441467e+00 1.5142565955824216e+00 
        </Neuron>
      </Layer>
      <Layer Index="1" NNeurons="25">
        <Neuron NSynapses="1">
          -8.8228189272823265e-01 
        </Neuron>
        <Neuron NSynapses="1">
          -9.6591546754320012e-01 
        </Neuron>
        <Neuron NSynapses="1">
          1.1270807366552336e+00 
        </Neuron>
        <Neuron NSynapses="1">
          1.1248055768166338e+00 
        </Neuron>
        <Neuron NSynapses="1">
          2.7940883100820857e-01 
        </Neuron>
        <Neuron NSynapses="1">
          2.9835772380835734e-02 
        </Neuron>
        <Neuron NSynapses="1">
          -1.2294710075702997e+00 
        </Neuron>
        <Neuron NSynapses="1">
          -1.1021757364592601e+00 
        </Neuron>
        <Neuron NSynapses="1">
          9.8236479826906764e-01 
        </Neuron>
        <Neuron NSynapses="1">
          6.0851352080232797e-02 
        </Neuron>
        <Neuron NSynapses="1">
          5.4541777035999306e-01 
        </Neuron>
        <Neuron NSynapses="1">
          -1.7966476511493348e+00 
        </Neuron>
        <Neuron NSynapses="1">
          -1.8372195685980652e+00 
        </Neuron>
        <Neuron NSynapses="1">
          -1.7763585350965243e+00 
        </Neuron>
        <Neuron NSynapses="1">
          -3.8054310922330620e-01 
        </Neuron>
        <Neuron NSynapses="1">
          -1.0906435468507789e+00 
        </Neuron>
        <Neuron NSynapses="1">
          8.6221214380125777e-01 
        </Neuron>
        <Neuron NSynapses="1">
          -7.2900587795696553e-02 
        </Neuron>
        <Neuron NSynapses="1">
          1.5805567111660337e+00 
        </Neuron>
        <Neuron NSynapses="1">
          2.2632029919327432e-01 
        </Neuron>
        <Neuron NSynapses="1">
          -2.1806354705413851e+00 
        </Neuron>
        <Neuron NSynapses="1">
          1.3266489923667599e+00 
        </Neuron>
        <Neuron NSynapses="1">
          1.8607782731791602e+00 
        </Neuron>
        <Neuron NSynapses="1">
          6.5420890842383095e-01 
        </Neuron>
        <Neuron NSynapses="1">
          -6.3988551503473412e-01 
        </Neuron>
      </Layer>
      <Layer Index="2" NNeurons="1">
        <Neuron NSynapses="0"/>
      </Layer>
    </Layout>
  </Weights>
</MethodSetup>
