<?xml version="1.0"?>
<MethodSetup Method="MLP::MLP">
  <GeneralInfo>
    <Info name="TMVA Release" value="4.2.1 [262657]"/>
    <Info name="ROOT Release" value="6.08/07 [395271]"/>
    <Info name="Creator" value="wverbeke"/>
    <Info name="Date" value="Sat Nov 18 20:24:46 2017"/>
    <Info name="Host" value="Linux vocms0302.cern.ch 2.6.32-696.1.1.el6.x86_64 #1 SMP Wed Apr 12 08:44:28 CEST 2017 x86_64 x86_64 x86_64 GNU/Linux"/>
    <Info name="Dir" value="/storage_mnt/storage/user/wverbeke/Work/AnalysisCode/ewkino/bdtTraining"/>
    <Info name="Training events" value="51025"/>
    <Info name="TrainingTime" value="2.97382455e+02"/>
    <Info name="AnalysisType" value="Classification"/>
  </GeneralInfo>
  <Options>
    <Option name="NCycles" modified="Yes">600</Option>
    <Option name="HiddenLayers" modified="Yes">N+5</Option>
    <Option name="NeuronType" modified="Yes">tanh</Option>
    <Option name="RandomSeed" modified="No">1</Option>
    <Option name="EstimatorType" modified="No">CE</Option>
    <Option name="NeuronInputType" modified="No">sum</Option>
    <Option name="V" modified="Yes">False</Option>
    <Option name="VerbosityLevel" modified="No">Default</Option>
    <Option name="VarTransform" modified="Yes">N</Option>
    <Option name="H" modified="Yes">True</Option>
    <Option name="CreateMVAPdfs" modified="No">False</Option>
    <Option name="IgnoreNegWeightsInTraining" modified="No">False</Option>
    <Option name="TrainingMethod" modified="No">BP</Option>
    <Option name="LearningRate" modified="No">2.000000e-02</Option>
    <Option name="DecayRate" modified="No">1.000000e-02</Option>
    <Option name="TestRate" modified="Yes">5</Option>
    <Option name="EpochMonitoring" modified="No">False</Option>
    <Option name="Sampling" modified="No">1.000000e+00</Option>
    <Option name="SamplingEpoch" modified="No">1.000000e+00</Option>
    <Option name="SamplingImportance" modified="No">1.000000e+00</Option>
    <Option name="SamplingTraining" modified="No">True</Option>
    <Option name="SamplingTesting" modified="No">False</Option>
    <Option name="ResetStep" modified="No">50</Option>
    <Option name="Tau" modified="No">3.000000e+00</Option>
    <Option name="BPMode" modified="No">sequential</Option>
    <Option name="BatchSize" modified="No">-1</Option>
    <Option name="ConvergenceImprove" modified="No">1.000000e-30</Option>
    <Option name="ConvergenceTests" modified="No">-1</Option>
    <Option name="UseRegulator" modified="Yes">False</Option>
    <Option name="UpdateLimit" modified="No">10000</Option>
    <Option name="CalculateErrors" modified="No">False</Option>
    <Option name="WeightRange" modified="No">1.000000e+00</Option>
  </Options>
  <Variables NVar="10">
    <Variable VarIndex="0" Expression="topMass" Label="topMass" Title="topMass" Unit="" Internal="topMass" Type="F" Min="-1.54065704e+02" Max="2.79402808e+03"/>
    <Variable VarIndex="1" Expression="pTForwardJets" Label="pTForwardJets" Title="pTForwardJets" Unit="" Internal="pTForwardJets" Type="F" Min="0.00000000e+00" Max="6.61229858e+02"/>
    <Variable VarIndex="2" Expression="etaMostForward" Label="etaMostForward" Title="etaMostForward" Unit="" Internal="etaMostForward" Type="F" Min="3.26758809e-02" Max="5.09238243e+00"/>
    <Variable VarIndex="3" Expression="pTLeadingLepton" Label="pTLeadingLepton" Title="pTLeadingLepton" Unit="" Internal="pTLeadingLepton" Type="F" Min="2.51133461e+01" Max="1.18817078e+03"/>
    <Variable VarIndex="4" Expression="pTLeadingBJet" Label="pTLeadingBJet" Title="pTLeadingBJet" Unit="" Internal="pTLeadingBJet" Type="F" Min="2.61249237e+01" Max="1.22783093e+03"/>
    <Variable VarIndex="5" Expression="highestDeepCSV" Label="highestDeepCSV" Title="highestDeepCSV" Unit="" Internal="highestDeepCSV" Type="F" Min="6.35600686e-01" Max="9.99999881e-01"/>
    <Variable VarIndex="6" Expression="maxMjj" Label="maxMjj" Title="maxMjj" Unit="" Internal="maxMjj" Type="F" Min="0.00000000e+00" Max="6.59656543e+03"/>
    <Variable VarIndex="7" Expression="maxMlb" Label="maxMlb" Title="maxMlb" Unit="" Internal="maxMlb" Type="F" Min="3.60795746e+01" Max="2.64292896e+03"/>
    <Variable VarIndex="8" Expression="minDeltaPhilb" Label="minDeltaPhilb" Title="minDeltaPhilb" Unit="" Internal="minDeltaPhilb" Type="F" Min="2.63452530e-05" Max="3.09369802e+00"/>
    <Variable VarIndex="9" Expression="mNotSoForwardJets" Label="mNotSoForwardJets" Title="mNotSoForwardJets" Unit="" Internal="mNotSoForwardJets" Type="F" Min="-1.91057166e+03" Max="6.98991162e+03"/>
  </Variables>
  <Spectators NSpec="0"/>
  <Classes NClass="2">
    <Class Name="Signal" Index="0"/>
    <Class Name="Background" Index="1"/>
  </Classes>
  <Transformations NTransformations="1">
    <Transform Name="Normalize">
      <Selection>
        <Input NInputs="10">
          <Input Type="Variable" Label="topMass" Expression="topMass"/>
          <Input Type="Variable" Label="pTForwardJets" Expression="pTForwardJets"/>
          <Input Type="Variable" Label="etaMostForward" Expression="etaMostForward"/>
          <Input Type="Variable" Label="pTLeadingLepton" Expression="pTLeadingLepton"/>
          <Input Type="Variable" Label="pTLeadingBJet" Expression="pTLeadingBJet"/>
          <Input Type="Variable" Label="highestDeepCSV" Expression="highestDeepCSV"/>
          <Input Type="Variable" Label="maxMjj" Expression="maxMjj"/>
          <Input Type="Variable" Label="maxMlb" Expression="maxMlb"/>
          <Input Type="Variable" Label="minDeltaPhilb" Expression="minDeltaPhilb"/>
          <Input Type="Variable" Label="mNotSoForwardJets" Expression="mNotSoForwardJets"/>
        </Input>
        <Output NOutputs="10">
          <Output Type="Variable" Label="topMass" Expression="topMass"/>
          <Output Type="Variable" Label="pTForwardJets" Expression="pTForwardJets"/>
          <Output Type="Variable" Label="etaMostForward" Expression="etaMostForward"/>
          <Output Type="Variable" Label="pTLeadingLepton" Expression="pTLeadingLepton"/>
          <Output Type="Variable" Label="pTLeadingBJet" Expression="pTLeadingBJet"/>
          <Output Type="Variable" Label="highestDeepCSV" Expression="highestDeepCSV"/>
          <Output Type="Variable" Label="maxMjj" Expression="maxMjj"/>
          <Output Type="Variable" Label="maxMlb" Expression="maxMlb"/>
          <Output Type="Variable" Label="minDeltaPhilb" Expression="minDeltaPhilb"/>
          <Output Type="Variable" Label="mNotSoForwardJets" Expression="mNotSoForwardJets"/>
        </Output>
      </Selection>
      <Class ClassIndex="0">
        <Ranges>
          <Range Index="0" Min="-1.5406570434570312e+02" Max="2.4180964355468750e+03"/>
          <Range Index="1" Min="0.0000000000000000e+00" Max="6.6122985839843750e+02"/>
          <Range Index="2" Min="5.3986325860023499e-02" Max="5.0847115516662598e+00"/>
          <Range Index="3" Min="2.5163938522338867e+01" Max="8.1049218750000000e+02"/>
          <Range Index="4" Min="2.6276088714599609e+01" Max="9.2416906738281250e+02"/>
          <Range Index="5" Min="6.4546835422515869e-01" Max="9.9999988079071045e-01"/>
          <Range Index="6" Min="0.0000000000000000e+00" Max="6.5965654296875000e+03"/>
          <Range Index="7" Min="6.3894535064697266e+01" Max="1.9961295166015625e+03"/>
          <Range Index="8" Min="1.4948844909667969e-04" Max="2.8185586929321289e+00"/>
          <Range Index="9" Min="-1.9105716552734375e+03" Max="6.9899116210937500e+03"/>
        </Ranges>
      </Class>
      <Class ClassIndex="1">
        <Ranges>
          <Range Index="0" Min="-8.2254081726074219e+01" Max="2.7940280761718750e+03"/>
          <Range Index="1" Min="0.0000000000000000e+00" Max="5.2107159423828125e+02"/>
          <Range Index="2" Min="3.2675880938768387e-02" Max="5.0923824310302734e+00"/>
          <Range Index="3" Min="2.5113346099853516e+01" Max="1.1881707763671875e+03"/>
          <Range Index="4" Min="2.6124923706054688e+01" Max="1.2278309326171875e+03"/>
          <Range Index="5" Min="6.3560068607330322e-01" Max="9.9999988079071045e-01"/>
          <Range Index="6" Min="0.0000000000000000e+00" Max="5.7237700195312500e+03"/>
          <Range Index="7" Min="3.6079574584960938e+01" Max="2.6429289550781250e+03"/>
          <Range Index="8" Min="2.6345252990722656e-05" Max="3.0936980247497559e+00"/>
          <Range Index="9" Min="-1.8813901367187500e+03" Max="6.7844790039062500e+03"/>
        </Ranges>
      </Class>
      <Class ClassIndex="2">
        <Ranges>
          <Range Index="0" Min="-1.5406570434570312e+02" Max="2.7940280761718750e+03"/>
          <Range Index="1" Min="0.0000000000000000e+00" Max="6.6122985839843750e+02"/>
          <Range Index="2" Min="3.2675880938768387e-02" Max="5.0923824310302734e+00"/>
          <Range Index="3" Min="2.5113346099853516e+01" Max="1.1881707763671875e+03"/>
          <Range Index="4" Min="2.6124923706054688e+01" Max="1.2278309326171875e+03"/>
          <Range Index="5" Min="6.3560068607330322e-01" Max="9.9999988079071045e-01"/>
          <Range Index="6" Min="0.0000000000000000e+00" Max="6.5965654296875000e+03"/>
          <Range Index="7" Min="3.6079574584960938e+01" Max="2.6429289550781250e+03"/>
          <Range Index="8" Min="2.6345252990722656e-05" Max="3.0936980247497559e+00"/>
          <Range Index="9" Min="-1.9105716552734375e+03" Max="6.9899116210937500e+03"/>
        </Ranges>
      </Class>
    </Transform>
  </Transformations>
  <MVAPdfs/>
  <Weights>
    <Layout NLayers="3">
      <Layer Index="0" NNeurons="11">
        <Neuron NSynapses="15">
          -5.2669328346864952e-01 1.9864794498019913e+00 7.6089412106825927e-01 1.7039421262786549e+00 -1.9996435844090354e+00 -1.5397877999074050e+00 -8.2230371793435686e-01 1.9834673351176677e+00 -1.4844457112380027e+00 -1.0572596449366285e+00 -1.6482245990270588e+00 -4.1026057254087267e-01 -1.2820372331148293e+00 -3.6459553960535690e-01 -6.1011787679519347e-01 
        </Neuron>
        <Neuron NSynapses="15">
          3.8656522834450097e-01 -4.2287150882053798e-01 1.6846726806451102e+00 1.1324033691254451e-01 1.3853015111612046e+00 -3.3687311224535915e-01 -7.7017571715565780e-01 7.2572098707847099e-01 8.9937630564775495e-02 -1.1947301262368295e+00 -2.5967285975085869e-01 1.5180078293705941e+00 -1.1196361104058148e+00 -1.7911788803271567e+00 -3.0306495051561206e-02 
        </Neuron>
        <Neuron NSynapses="15">
          5.1452830478707068e-01 1.6670549578638616e+00 -1.6959410842530603e-01 -2.0643030794509296e-01 2.3572992774520038e-01 -5.7042939588780553e-02 -1.4480329466229107e+00 1.7399698792486040e+00 -1.2455532913867351e+00 1.1171960178886737e+00 1.1817996077815112e+00 8.6667853483864155e-01 1.8523641161466795e+00 1.0873606861739427e+00 -5.4596045398862525e-01 
        </Neuron>
        <Neuron NSynapses="15">
          -1.8254392562600059e+00 7.7605618426845180e-01 -1.9160694126008887e-01 1.4868573837568904e+00 1.4602502685612446e+00 1.4533584265581887e+00 1.2584744087193394e+00 -1.6743247880184873e+00 1.1590160260159053e+00 -1.8559295787607459e+00 -9.3566703009514496e-01 -1.3169997320147082e+00 -1.7952053796237799e+00 1.5520198178357416e+00 1.0959900399835758e+00 
        </Neuron>
        <Neuron NSynapses="15">
          -1.8495248699465221e+00 3.7245391853876797e-01 -4.4835998699320112e-01 6.5553340890891620e-01 1.8293276130015488e+00 -4.4081696534876902e-01 8.6554112385178295e-02 -1.2223588523681606e+00 6.6728970074370397e-01 -8.1518087028235320e-01 -7.6692753718406992e-01 -1.4280715397475625e+00 7.0357011046682849e-01 1.2212895272036071e+00 1.3703580857774269e+00 
        </Neuron>
        <Neuron NSynapses="15">
          -1.2480539579344266e-01 -1.9120615202111535e+00 -1.8247466767322107e+00 1.0318116546382172e+00 4.9582453756587547e-01 1.9281771084926407e+00 6.4652982131027259e-01 9.8526863216534188e-01 -7.7019000732520904e-01 -8.8163809465999010e-01 -1.8745475369223122e-01 1.1566033617563074e+00 -1.0685563935081599e+00 -1.7089048513815184e+00 -1.5300863249308978e+00 
        </Neuron>
        <Neuron NSynapses="15">
          -4.8018768660687050e-01 -1.2847533566183419e-01 1.6112034412861982e+00 -1.6516473963643648e+00 -8.2632145744055918e-01 1.5933147442009188e+00 -8.6717597727653317e-01 -1.5411024007966632e+00 -1.5283185521933977e+00 1.2526706003463470e-01 -1.9556767340202970e+00 -1.6604641629531289e+00 6.7514308626870190e-01 1.7330306583435733e+00 -1.3135975007064795e+00 
        </Neuron>
        <Neuron NSynapses="15">
          1.4042020776284891e+00 -9.3892907169523521e-01 -8.6309507753720083e-01 -6.8431443516937071e-02 3.3581038461579465e-01 -1.8014078653488601e+00 2.2923965221364206e-01 2.8071678822225360e-01 3.8934112772349522e-01 -1.3701174444190014e+00 1.7956162935432491e+00 3.6069045956192403e-01 -9.9997054167489363e-01 8.8271269349307646e-01 -1.2272684556844886e+00 
        </Neuron>
        <Neuron NSynapses="15">
          -1.7619286029958250e+00 1.2138866274406494e-01 -4.5832263055645339e-01 1.7810219101737397e+00 7.7918316488710815e-01 -1.0944842689954908e-01 -3.3879661434349961e-01 1.5559883236810121e-01 -1.7258553287022091e+00 1.0689382576758417e+00 1.2172713447588446e-01 -1.8186098069893528e+00 6.2870149789855589e-01 -1.3547264446057521e+00 -1.8085694331815622e-01 
        </Neuron>
        <Neuron NSynapses="15">
          1.0063961864637181e+00 1.7738127039056069e+00 -1.8135615087383739e+00 3.2558878484010989e-01 1.5318501428630411e+00 1.6394383504368144e+00 1.6486718478501353e-01 -1.4646806808294146e+00 -2.1458915634148343e-01 -1.4236668171343425e+00 1.5471767412909354e+00 1.2325121699252062e+00 -5.1350782128690275e-01 -3.7576375710580440e-01 -7.8160081535413081e-02 
        </Neuron>
        <Neuron NSynapses="15">
          -1.0655088237587083e+00 6.1372580485635220e-01 1.8685731228144158e+00 -5.2249928938782697e-01 -6.0859405273003264e-01 3.7940236140139699e-01 1.0461479470966133e+00 5.6686810797746656e-01 9.8588342350496827e-01 -1.5027413485229635e+00 1.5682471500875936e+00 7.5503865205259291e-01 5.3708064324418325e-01 4.8731021154315574e-01 1.0037028634404992e+00 
        </Neuron>
      </Layer>
      <Layer Index="1" NNeurons="16">
        <Neuron NSynapses="1">
          -4.1888852305260549e-01 
        </Neuron>
        <Neuron NSynapses="1">
          -2.3953263321797952e-01 
        </Neuron>
        <Neuron NSynapses="1">
          1.4484498908909929e+00 
        </Neuron>
        <Neuron NSynapses="1">
          -5.7270346520554660e-01 
        </Neuron>
        <Neuron NSynapses="1">
          -1.9641870537564404e-01 
        </Neuron>
        <Neuron NSynapses="1">
          1.1561527990175096e+00 
        </Neuron>
        <Neuron NSynapses="1">
          5.9437288550696610e-01 
        </Neuron>
        <Neuron NSynapses="1">
          -6.4652817293219955e-01 
        </Neuron>
        <Neuron NSynapses="1">
          9.1232356163250039e-01 
        </Neuron>
        <Neuron NSynapses="1">
          1.4647672945533570e+00 
        </Neuron>
        <Neuron NSynapses="1">
          -2.3187637692324401e+00 
        </Neuron>
        <Neuron NSynapses="1">
          2.8951840377027899e-01 
        </Neuron>
        <Neuron NSynapses="1">
          -2.8035460810945939e-01 
        </Neuron>
        <Neuron NSynapses="1">
          6.7194442316951752e-01 
        </Neuron>
        <Neuron NSynapses="1">
          -2.1875307920242064e+00 
        </Neuron>
        <Neuron NSynapses="1">
          -1.9144972949212655e+00 
        </Neuron>
      </Layer>
      <Layer Index="2" NNeurons="1">
        <Neuron NSynapses="0"/>
      </Layer>
    </Layout>
  </Weights>
</MethodSetup>
