<?xml version="1.0"?>
<MethodSetup Method="MLP::MLP">
  <GeneralInfo>
    <Info name="TMVA Release" value="4.2.1 [262657]"/>
    <Info name="ROOT Release" value="6.08/07 [395271]"/>
    <Info name="Creator" value="wverbeke"/>
    <Info name="Date" value="Sat Nov 18 15:01:09 2017"/>
    <Info name="Host" value="Linux vocms0302.cern.ch 2.6.32-696.1.1.el6.x86_64 #1 SMP Wed Apr 12 08:44:28 CEST 2017 x86_64 x86_64 x86_64 GNU/Linux"/>
    <Info name="Dir" value="/storage_mnt/storage/user/wverbeke/Work/AnalysisCode/ewkino/bdtTraining"/>
    <Info name="Training events" value="148421"/>
    <Info name="TrainingTime" value="6.95373956e+02"/>
    <Info name="AnalysisType" value="Classification"/>
  </GeneralInfo>
  <Options>
    <Option name="NCycles" modified="Yes">600</Option>
    <Option name="HiddenLayers" modified="Yes">N+5</Option>
    <Option name="NeuronType" modified="Yes">tanh</Option>
    <Option name="RandomSeed" modified="No">1</Option>
    <Option name="EstimatorType" modified="No">CE</Option>
    <Option name="NeuronInputType" modified="No">sum</Option>
    <Option name="V" modified="Yes">False</Option>
    <Option name="VerbosityLevel" modified="No">Default</Option>
    <Option name="VarTransform" modified="Yes">N</Option>
    <Option name="H" modified="Yes">True</Option>
    <Option name="CreateMVAPdfs" modified="No">False</Option>
    <Option name="IgnoreNegWeightsInTraining" modified="No">False</Option>
    <Option name="TrainingMethod" modified="No">BP</Option>
    <Option name="LearningRate" modified="No">2.000000e-02</Option>
    <Option name="DecayRate" modified="No">1.000000e-02</Option>
    <Option name="TestRate" modified="Yes">5</Option>
    <Option name="EpochMonitoring" modified="No">False</Option>
    <Option name="Sampling" modified="No">1.000000e+00</Option>
    <Option name="SamplingEpoch" modified="No">1.000000e+00</Option>
    <Option name="SamplingImportance" modified="No">1.000000e+00</Option>
    <Option name="SamplingTraining" modified="No">True</Option>
    <Option name="SamplingTesting" modified="No">False</Option>
    <Option name="ResetStep" modified="No">50</Option>
    <Option name="Tau" modified="No">3.000000e+00</Option>
    <Option name="BPMode" modified="No">sequential</Option>
    <Option name="BatchSize" modified="No">-1</Option>
    <Option name="ConvergenceImprove" modified="No">1.000000e-30</Option>
    <Option name="ConvergenceTests" modified="No">-1</Option>
    <Option name="UseRegulator" modified="Yes">False</Option>
    <Option name="UpdateLimit" modified="No">10000</Option>
    <Option name="CalculateErrors" modified="No">False</Option>
    <Option name="WeightRange" modified="No">1.000000e+00</Option>
  </Options>
  <Variables NVar="8">
    <Variable VarIndex="0" Expression="topMass" Label="topMass" Title="topMass" Unit="" Internal="topMass" Type="F" Min="-1.52389038e+03" Max="4.13083252e+03"/>
    <Variable VarIndex="1" Expression="pTForwardJets" Label="pTForwardJets" Title="pTForwardJets" Unit="" Internal="pTForwardJets" Type="F" Min="0.00000000e+00" Max="6.57554993e+02"/>
    <Variable VarIndex="2" Expression="etaMostForward" Label="etaMostForward" Title="etaMostForward" Unit="" Internal="etaMostForward" Type="F" Min="1.79375941e-03" Max="5.08897448e+00"/>
    <Variable VarIndex="3" Expression="pTLeadingLepton" Label="pTLeadingLepton" Title="pTLeadingLepton" Unit="" Internal="pTLeadingLepton" Type="F" Min="2.51461773e+01" Max="1.79043994e+03"/>
    <Variable VarIndex="4" Expression="pTLeadingBJet" Label="pTLeadingBJet" Title="pTLeadingBJet" Unit="" Internal="pTLeadingBJet" Type="F" Min="2.55013065e+01" Max="9.03122131e+02"/>
    <Variable VarIndex="5" Expression="highestDeepCSV" Label="highestDeepCSV" Title="highestDeepCSV" Unit="" Internal="highestDeepCSV" Type="F" Min="-2.00000000e+00" Max="9.99990165e-01"/>
    <Variable VarIndex="6" Expression="maxMjj" Label="maxMjj" Title="maxMjj" Unit="" Internal="maxMjj" Type="F" Min="0.00000000e+00" Max="6.67038232e+03"/>
    <Variable VarIndex="7" Expression="mNotSoForwardJets" Label="mNotSoForwardJets" Title="mNotSoForwardJets" Unit="" Internal="mNotSoForwardJets" Type="F" Min="-3.11506689e+03" Max="7.07822363e+03"/>
  </Variables>
  <Spectators NSpec="0"/>
  <Classes NClass="2">
    <Class Name="Signal" Index="0"/>
    <Class Name="Background" Index="1"/>
  </Classes>
  <Transformations NTransformations="1">
    <Transform Name="Normalize">
      <Selection>
        <Input NInputs="8">
          <Input Type="Variable" Label="topMass" Expression="topMass"/>
          <Input Type="Variable" Label="pTForwardJets" Expression="pTForwardJets"/>
          <Input Type="Variable" Label="etaMostForward" Expression="etaMostForward"/>
          <Input Type="Variable" Label="pTLeadingLepton" Expression="pTLeadingLepton"/>
          <Input Type="Variable" Label="pTLeadingBJet" Expression="pTLeadingBJet"/>
          <Input Type="Variable" Label="highestDeepCSV" Expression="highestDeepCSV"/>
          <Input Type="Variable" Label="maxMjj" Expression="maxMjj"/>
          <Input Type="Variable" Label="mNotSoForwardJets" Expression="mNotSoForwardJets"/>
        </Input>
        <Output NOutputs="8">
          <Output Type="Variable" Label="topMass" Expression="topMass"/>
          <Output Type="Variable" Label="pTForwardJets" Expression="pTForwardJets"/>
          <Output Type="Variable" Label="etaMostForward" Expression="etaMostForward"/>
          <Output Type="Variable" Label="pTLeadingLepton" Expression="pTLeadingLepton"/>
          <Output Type="Variable" Label="pTLeadingBJet" Expression="pTLeadingBJet"/>
          <Output Type="Variable" Label="highestDeepCSV" Expression="highestDeepCSV"/>
          <Output Type="Variable" Label="maxMjj" Expression="maxMjj"/>
          <Output Type="Variable" Label="mNotSoForwardJets" Expression="mNotSoForwardJets"/>
        </Output>
      </Selection>
      <Class ClassIndex="0">
        <Ranges>
          <Range Index="0" Min="-1.5206217041015625e+03" Max="4.1308325195312500e+03"/>
          <Range Index="1" Min="0.0000000000000000e+00" Max="6.5755499267578125e+02"/>
          <Range Index="2" Min="4.7298897057771683e-02" Max="5.0889744758605957e+00"/>
          <Range Index="3" Min="2.5221763610839844e+01" Max="9.8220538330078125e+02"/>
          <Range Index="4" Min="2.5501306533813477e+01" Max="9.0312213134765625e+02"/>
          <Range Index="5" Min="-2.0000000000000000e+00" Max="9.9996662139892578e-01"/>
          <Range Index="6" Min="0.0000000000000000e+00" Max="6.6703823242187500e+03"/>
          <Range Index="7" Min="-2.6516411132812500e+03" Max="7.0782236328125000e+03"/>
        </Ranges>
      </Class>
      <Class ClassIndex="1">
        <Ranges>
          <Range Index="0" Min="-1.5238903808593750e+03" Max="3.2680275878906250e+03"/>
          <Range Index="1" Min="0.0000000000000000e+00" Max="5.5968280029296875e+02"/>
          <Range Index="2" Min="1.7937594093382359e-03" Max="5.0875806808471680e+00"/>
          <Range Index="3" Min="2.5146177291870117e+01" Max="1.7904399414062500e+03"/>
          <Range Index="4" Min="2.5503477096557617e+01" Max="8.3191021728515625e+02"/>
          <Range Index="5" Min="-2.0000000000000000e+00" Max="9.9999016523361206e-01"/>
          <Range Index="6" Min="0.0000000000000000e+00" Max="5.7949687500000000e+03"/>
          <Range Index="7" Min="-3.1150668945312500e+03" Max="6.5158227539062500e+03"/>
        </Ranges>
      </Class>
      <Class ClassIndex="2">
        <Ranges>
          <Range Index="0" Min="-1.5238903808593750e+03" Max="4.1308325195312500e+03"/>
          <Range Index="1" Min="0.0000000000000000e+00" Max="6.5755499267578125e+02"/>
          <Range Index="2" Min="1.7937594093382359e-03" Max="5.0889744758605957e+00"/>
          <Range Index="3" Min="2.5146177291870117e+01" Max="1.7904399414062500e+03"/>
          <Range Index="4" Min="2.5501306533813477e+01" Max="9.0312213134765625e+02"/>
          <Range Index="5" Min="-2.0000000000000000e+00" Max="9.9999016523361206e-01"/>
          <Range Index="6" Min="0.0000000000000000e+00" Max="6.6703823242187500e+03"/>
          <Range Index="7" Min="-3.1150668945312500e+03" Max="7.0782236328125000e+03"/>
        </Ranges>
      </Class>
    </Transform>
  </Transformations>
  <MVAPdfs/>
  <Weights>
    <Layout NLayers="3">
      <Layer Index="0" NNeurons="9">
        <Neuron NSynapses="13">
          -3.3718250060418647e-01 2.0273185252222676e+00 7.6983922748964073e-01 1.7296791056121184e+00 -1.9940411638679321e+00 -1.4881839571175062e+00 -6.9717301730699510e-01 2.0222918040824203e+00 -1.4172715789615056e+00 -1.0531114333318725e+00 -1.6153701819312576e+00 -2.9571549486414755e-01 -1.2383860155360986e+00 
        </Neuron>
        <Neuron NSynapses="13">
          -3.9469760152193029e-01 -3.2325468731858814e-01 3.9457208662255294e-01 -6.8780504623882965e-01 1.6964694994121932e+00 8.0261844473904345e-02 1.5393754992072386e+00 -3.9523768516391410e-02 -7.5971613104977720e-01 6.5126188759600323e-01 -1.7873022806838199e-02 -1.0974772736571092e+00 -1.7891461002072948e-01 
        </Neuron>
        <Neuron NSynapses="13">
          1.4115555717047950e+00 -9.6764485341213680e-01 -2.2179504378551806e+00 -1.4709572085122216e-01 6.7755300981492372e-01 1.6312950830363435e+00 -2.9887070222826090e-01 1.0805193691720344e-01 2.1941469215236944e-01 -4.4399094847941922e-01 -1.4376550279139115e+00 9.9852294805643949e-01 -1.1057720144663392e+00 
        </Neuron>
        <Neuron NSynapses="13">
          1.2775501867348356e+00 1.4631712816245004e+00 6.6675224577486647e-01 1.8260703313109632e+00 1.2164425882823380e+00 -8.0139867306526336e-01 -1.4219596923943643e+00 9.2435664434171094e-01 5.9847264641353953e-02 1.5680984075888558e+00 1.5276343029168526e+00 1.8706110236986200e+00 1.3140900866674905e+00 
        </Neuron>
        <Neuron NSynapses="13">
          -1.5123116947017543e+00 1.4826081508856805e+00 -2.0382323577453381e+00 -8.7813310490925256e-01 -1.3284570414533383e+00 -1.7806993305680276e+00 1.6904699266352552e+00 7.6482981722661081e-01 -1.6060974977402180e+00 4.6116851704250755e-01 -2.7194978279985454e-01 1.1158227198369841e+00 1.7845590023471243e+00 
        </Neuron>
        <Neuron NSynapses="13">
          -4.4007663018872367e-01 -6.1696188696742760e-02 -8.8700702053192304e-01 7.5875902131448458e-01 -9.6014203436552026e-01 -6.9389073626397990e-01 -1.3488986104083647e+00 6.9922476711853632e-01 1.1652297247993004e+00 1.1473099859859093e+00 -4.6200623290233528e-01 -2.2990062676061580e+00 -1.9982284110199098e+00 
        </Neuron>
        <Neuron NSynapses="13">
          1.0476487893222557e+00 7.0826011630391883e-01 1.6047908545726792e+00 5.0267671469536390e-01 9.7193174039808061e-01 -8.5042679077322092e-01 -6.4334816714480736e-01 8.6247157818818837e-03 1.1363659971836213e+00 -1.1468848954957411e+00 -1.6638019157159327e+00 -1.4527094117864319e+00 -1.3563331666937098e-01 
        </Neuron>
        <Neuron NSynapses="13">
          -1.4271029408261832e-01 1.7054366797497569e+00 -1.8096033819326005e+00 -9.1730376484842802e-01 1.5853425797328777e+00 -8.6335078388348740e-01 -1.4234534041436726e+00 -1.3701314690867432e+00 8.9662123631530644e-02 -1.9600882185139363e+00 -1.7319625215642962e+00 8.6013252952581487e-01 1.7164403904129435e+00 
        </Neuron>
        <Neuron NSynapses="13">
          -1.2884770645645260e+00 1.2720327508134506e+00 -6.4058471170894837e-01 -5.5017732552722465e-01 -5.8969116959104083e-02 4.2136949881523322e-01 -2.0228805480268623e+00 -2.6755554180060561e-02 3.1926920974292677e-01 5.3262897219470173e-01 -1.3864637171900118e+00 1.8683562121464565e+00 3.2956561631255976e-01 
        </Neuron>
      </Layer>
      <Layer Index="1" NNeurons="14">
        <Neuron NSynapses="1">
          -4.3614553066318928e-01 
        </Neuron>
        <Neuron NSynapses="1">
          5.7544024033929986e-01 
        </Neuron>
        <Neuron NSynapses="1">
          -9.9674757592014407e-01 
        </Neuron>
        <Neuron NSynapses="1">
          -1.3817631227813711e+00 
        </Neuron>
        <Neuron NSynapses="1">
          4.0575894793969902e-01 
        </Neuron>
        <Neuron NSynapses="1">
          -5.5694932266819552e-01 
        </Neuron>
        <Neuron NSynapses="1">
          2.0404182372683701e+00 
        </Neuron>
        <Neuron NSynapses="1">
          5.7798845086170669e-01 
        </Neuron>
        <Neuron NSynapses="1">
          -2.7616627962342533e-01 
        </Neuron>
        <Neuron NSynapses="1">
          -7.9218448193164648e-01 
        </Neuron>
        <Neuron NSynapses="1">
          -1.0422150004468256e+00 
        </Neuron>
        <Neuron NSynapses="1">
          -2.1617455684741680e+00 
        </Neuron>
        <Neuron NSynapses="1">
          1.3841291921910390e+00 
        </Neuron>
        <Neuron NSynapses="1">
          -2.0007028196860741e-01 
        </Neuron>
      </Layer>
      <Layer Index="2" NNeurons="1">
        <Neuron NSynapses="0"/>
      </Layer>
    </Layout>
  </Weights>
</MethodSetup>
