<?xml version="1.0"?>
<MethodSetup Method="DNN::DNN">
  <GeneralInfo>
    <Info name="TMVA Release" value="4.2.1 [262657]"/>
    <Info name="ROOT Release" value="6.08/07 [395271]"/>
    <Info name="Creator" value="wverbeke"/>
    <Info name="Date" value="Sat Nov 18 15:41:38 2017"/>
    <Info name="Host" value="Linux vocms0302.cern.ch 2.6.32-696.1.1.el6.x86_64 #1 SMP Wed Apr 12 08:44:28 CEST 2017 x86_64 x86_64 x86_64 GNU/Linux"/>
    <Info name="Dir" value="/storage_mnt/storage/user/wverbeke/Work/AnalysisCode/ewkino/bdtTraining"/>
    <Info name="Training events" value="148421"/>
    <Info name="TrainingTime" value="2.41399907e+03"/>
    <Info name="AnalysisType" value="Classification"/>
  </GeneralInfo>
  <Options>
    <Option name="V" modified="Yes">True</Option>
    <Option name="VerbosityLevel" modified="No">Verbose</Option>
    <Option name="VarTransform" modified="Yes">N</Option>
    <Option name="H" modified="Yes">False</Option>
    <Option name="CreateMVAPdfs" modified="No">False</Option>
    <Option name="IgnoreNegWeightsInTraining" modified="No">False</Option>
    <Option name="Layout" modified="Yes">TANH|128,TANH|128,TANH|128,LINEAR</Option>
    <Option name="ErrorStrategy" modified="Yes">CROSSENTROPY</Option>
    <Option name="WeightInitialization" modified="Yes">XAVIERUNIFORM</Option>
    <Option name="Architecture" modified="Yes">STANDARD</Option>
    <Option name="TrainingStrategy" modified="Yes">LearningRate=1e-1,Momentum=0.9,Repetitions=1,ConvergenceSteps=20,BatchSize=256,TestRepetitions=10,WeightDecay=1e-4,Regularization=L2,DropConfig=0.0+0.5+0.5+0.5,</Option>
  </Options>
  <Variables NVar="8">
    <Variable VarIndex="0" Expression="topMass" Label="topMass" Title="topMass" Unit="" Internal="topMass" Type="F" Min="-1.52389038e+03" Max="4.13083252e+03"/>
    <Variable VarIndex="1" Expression="pTForwardJets" Label="pTForwardJets" Title="pTForwardJets" Unit="" Internal="pTForwardJets" Type="F" Min="0.00000000e+00" Max="6.57554993e+02"/>
    <Variable VarIndex="2" Expression="etaMostForward" Label="etaMostForward" Title="etaMostForward" Unit="" Internal="etaMostForward" Type="F" Min="1.79375941e-03" Max="5.08897448e+00"/>
    <Variable VarIndex="3" Expression="pTLeadingLepton" Label="pTLeadingLepton" Title="pTLeadingLepton" Unit="" Internal="pTLeadingLepton" Type="F" Min="2.51461773e+01" Max="1.79043994e+03"/>
    <Variable VarIndex="4" Expression="pTLeadingBJet" Label="pTLeadingBJet" Title="pTLeadingBJet" Unit="" Internal="pTLeadingBJet" Type="F" Min="2.55013065e+01" Max="9.03122131e+02"/>
    <Variable VarIndex="5" Expression="highestDeepCSV" Label="highestDeepCSV" Title="highestDeepCSV" Unit="" Internal="highestDeepCSV" Type="F" Min="-2.00000000e+00" Max="9.99990165e-01"/>
    <Variable VarIndex="6" Expression="maxMjj" Label="maxMjj" Title="maxMjj" Unit="" Internal="maxMjj" Type="F" Min="0.00000000e+00" Max="6.67038232e+03"/>
    <Variable VarIndex="7" Expression="mNotSoForwardJets" Label="mNotSoForwardJets" Title="mNotSoForwardJets" Unit="" Internal="mNotSoForwardJets" Type="F" Min="-3.11506689e+03" Max="7.07822363e+03"/>
  </Variables>
  <Spectators NSpec="0"/>
  <Classes NClass="2">
    <Class Name="Signal" Index="0"/>
    <Class Name="Background" Index="1"/>
  </Classes>
  <Transformations NTransformations="1">
    <Transform Name="Normalize">
      <Selection>
        <Input NInputs="8">
          <Input Type="Variable" Label="topMass" Expression="topMass"/>
          <Input Type="Variable" Label="pTForwardJets" Expression="pTForwardJets"/>
          <Input Type="Variable" Label="etaMostForward" Expression="etaMostForward"/>
          <Input Type="Variable" Label="pTLeadingLepton" Expression="pTLeadingLepton"/>
          <Input Type="Variable" Label="pTLeadingBJet" Expression="pTLeadingBJet"/>
          <Input Type="Variable" Label="highestDeepCSV" Expression="highestDeepCSV"/>
          <Input Type="Variable" Label="maxMjj" Expression="maxMjj"/>
          <Input Type="Variable" Label="mNotSoForwardJets" Expression="mNotSoForwardJets"/>
        </Input>
        <Output NOutputs="8">
          <Output Type="Variable" Label="topMass" Expression="topMass"/>
          <Output Type="Variable" Label="pTForwardJets" Expression="pTForwardJets"/>
          <Output Type="Variable" Label="etaMostForward" Expression="etaMostForward"/>
          <Output Type="Variable" Label="pTLeadingLepton" Expression="pTLeadingLepton"/>
          <Output Type="Variable" Label="pTLeadingBJet" Expression="pTLeadingBJet"/>
          <Output Type="Variable" Label="highestDeepCSV" Expression="highestDeepCSV"/>
          <Output Type="Variable" Label="maxMjj" Expression="maxMjj"/>
          <Output Type="Variable" Label="mNotSoForwardJets" Expression="mNotSoForwardJets"/>
        </Output>
      </Selection>
      <Class ClassIndex="0">
        <Ranges>
          <Range Index="0" Min="-1.5206217041015625e+03" Max="4.1308325195312500e+03"/>
          <Range Index="1" Min="0.0000000000000000e+00" Max="6.5755499267578125e+02"/>
          <Range Index="2" Min="4.7298897057771683e-02" Max="5.0889744758605957e+00"/>
          <Range Index="3" Min="2.5221763610839844e+01" Max="9.8220538330078125e+02"/>
          <Range Index="4" Min="2.5501306533813477e+01" Max="9.0312213134765625e+02"/>
          <Range Index="5" Min="-2.0000000000000000e+00" Max="9.9996662139892578e-01"/>
          <Range Index="6" Min="0.0000000000000000e+00" Max="6.6703823242187500e+03"/>
          <Range Index="7" Min="-2.6516411132812500e+03" Max="7.0782236328125000e+03"/>
        </Ranges>
      </Class>
      <Class ClassIndex="1">
        <Ranges>
          <Range Index="0" Min="-1.5238903808593750e+03" Max="3.2680275878906250e+03"/>
          <Range Index="1" Min="0.0000000000000000e+00" Max="5.5968280029296875e+02"/>
          <Range Index="2" Min="1.7937594093382359e-03" Max="5.0875806808471680e+00"/>
          <Range Index="3" Min="2.5146177291870117e+01" Max="1.7904399414062500e+03"/>
          <Range Index="4" Min="2.5503477096557617e+01" Max="8.3191021728515625e+02"/>
          <Range Index="5" Min="-2.0000000000000000e+00" Max="9.9999016523361206e-01"/>
          <Range Index="6" Min="0.0000000000000000e+00" Max="5.7949687500000000e+03"/>
          <Range Index="7" Min="-3.1150668945312500e+03" Max="6.5158227539062500e+03"/>
        </Ranges>
      </Class>
      <Class ClassIndex="2">
        <Ranges>
          <Range Index="0" Min="-1.5238903808593750e+03" Max="4.1308325195312500e+03"/>
          <Range Index="1" Min="0.0000000000000000e+00" Max="6.5755499267578125e+02"/>
          <Range Index="2" Min="1.7937594093382359e-03" Max="5.0889744758605957e+00"/>
          <Range Index="3" Min="2.5146177291870117e+01" Max="1.7904399414062500e+03"/>
          <Range Index="4" Min="2.5501306533813477e+01" Max="9.0312213134765625e+02"/>
          <Range Index="5" Min="-2.0000000000000000e+00" Max="9.9999016523361206e-01"/>
          <Range Index="6" Min="0.0000000000000000e+00" Max="6.6703823242187500e+03"/>
          <Range Index="7" Min="-3.1150668945312500e+03" Max="7.0782236328125000e+03"/>
        </Ranges>
      </Class>
    </Transform>
  </Transformations>
  <MVAPdfs/>
  <Weights InputWidth="8" Depth="4" LossFunction="C" OutputFunction="S">
    <Layer ActivationFunction="3">
      <Weights rows="128" cols="8">
        -3.4690311633570331e-01 1.7162168591848942e-01 1.1395525468863270e-01 -1.5918279301709959e-01 1.5296165971046316e-01 -4.4120302590368138e-01 4.8237571269082430e-02 5.9852422143364559e-02 -3.8455364434798717e-02 3.1906296254858807e-01 -4.5313257330382878e-01 6.9631282687106541e-02 -4.1363383035227330e-01 -2.8925123595381275e-01 3.3395946527279258e-01 1.5944396384010265e-01 -2.6487755126686768e-01 3.0996667660114002e-01 2.0906966272439054e-01 -2.8022567036038731e-01 -2.0767267369363454e-01 -2.1250946234116849e-01 5.4359403736461372e-02 1.4369399692133025e-01 1.6799374330615235e-01 -3.9653435701597572e-01 -4.2064977831169187e-01 4.4706705053088008e-01 -3.0596771910778137e-01 -8.7582231091378610e-02 3.7614275575097245e-01 -2.0954231085968350e-01 4.0934926437525826e-01 1.2040289204921703e-01 1.7771216152219615e-02 -8.6949173047955568e-03 3.7327708023311013e-01 2.0967580869815972e-01 2.4297172538633266e-01 -4.6744699679545548e-01 1.7973216890944631e-02 -2.7149093900725058e-01 -4.1002232784628945e-01 2.8748072773285677e-01 8.8215614850862933e-02 1.2442694788616732e-01 4.6792021750546747e-01 -4.1677542645121235e-01 -4.3872537086203728e-01 -1.0583797905340092e-01 4.4856814049476168e-01 -3.1974619914385155e-01 1.8049006128644560e-01 -4.7278460165494990e-01 -1.1929531296184018e-01 -2.7027186308742718e-01 2.8260523718316288e-02 4.2295606048903839e-01 -1.6045214491723281e-01 -3.3081846416790811e-01 6.5625616974018572e-02 -1.4384400622388194e-01 2.3308372306483938e-01 -2.3109577215515723e-01 -4.6481419193853812e-01 -2.2010140499858141e-01 2.2853260054912841e-01 -1.1390478229449851e-01 -6.3548350902306941e-02 -7.6927404120970180e-03 2.4823569579720786e-01 2.2302978575708085e-01 -4.0852049955354236e-01 -2.0477796764654640e-01 -3.0993203066436115e-01 -7.0799943264407056e-02 -2.7978155820428169e-01 -1.7246004977550430e-01 1.3195575766725967e-01 -2.6534348213130714e-02 1.7565761584206477e-01 2.6581310049597268e-01 4.1419371168557273e-01 1.4220744580211886e-01 -2.1547839085120932e-01 -3.4185730061304687e-01 -3.7687543445334543e-01 3.9758750846758134e-01 4.0584931066437074e-01 -2.0549481137654124e-01 -2.3105782038806214e-01 -4.1421013780152549e-01 -2.4079969394293269e-01 -1.0728082007426078e-01 3.4228715633351015e-01 -2.3538048907160894e-01 2.5650061332129204e-02 -4.5942104777052700e-01 -3.5402864445469745e-01 3.7533743203268777e-01 -2.1015828411682601e-02 -4.1844752727076895e-01 4.0765015674910549e-01 1.7413216743178550e-01 1.4587689517758387e-01 4.5958734355781733e-01 -3.1836145345615069e-01 3.7988141885639426e-01 4.3736947601701748e-01 2.5089568899737158e-01 -1.9234555342629528e-01 -2.2102762990431724e-02 1.8956155618934101e-01 3.0177476327990777e-01 -3.7206519485396317e-01 -3.1148509617060099e-01 -2.6705122143086807e-01 4.3646457377572789e-01 4.4882189937007860e-01 6.7163007638045887e-03 2.4666649957767553e-01 -9.7483337646159574e-02 -1.2420970834680163e-01 -4.4330093713730817e-01 2.6476707912467157e-01 4.7086740873507787e-01 3.1033377899738968e-01 3.1536413806715846e-01 -4.2719819431069578e-01 -3.0646507122268624e-01 -1.6312415730750637e-01 1.9770942846298590e-02 4.3225514374077523e-01 -1.4165930402540716e-01 -2.9459480198307342e-01 4.4502918668869845e-01 -1.6182517304289154e-01 -3.2291237331780775e-01 7.2041671321236775e-02 -2.0913171444220488e-01 6.9711518813953849e-02 -2.8481692688302379e-01 2.4949383704562259e-01 -3.3175789682523454e-01 2.4163209826499515e-01 -2.2999349467808977e-01 2.4262707997555269e-01 8.2050013422621096e-02 -3.4980059871134811e-01 3.9723584547163335e-02 -4.4228670250487023e-01 -9.8553678714777576e-02 -1.2700927822438876e-01 -3.7605524280797636e-01 1.8808884068867252e-01 2.9434978446838950e-01 1.7851790327413288e-03 -2.8185208088778207e-01 -1.1812145214896981e-01 2.5458877701096283e-01 4.5797090442671340e-01 1.3764197760791239e-01 4.0909957502257793e-01 4.1896112289749793e-01 1.1618440059943811e-02 1.5279993130180738e-02 -2.7714567911859717e-01 -3.6161340414703383e-02 2.3831071907561438e-01 2.7602246267219871e-01 -1.3058073806361900e-01 7.4348033232964975e-02 -3.6110520177012700e-01 1.0152789058765016e-01 8.9286143596019815e-02 1.2739007877182834e-01 -4.0285632852733594e-01 2.3909363095806008e-01 -4.2118237218268892e-02 3.5859873959276661e-01 1.5918812464846308e-01 2.8214463596088180e-01 4.7497529559356634e-02 2.2877900639651935e-01 3.6315282854023845e-01 1.2714422352479424e-01 -2.4458798410292529e-01 -2.9148727767342364e-01 -1.0551991911936393e-01 -3.3355564241249330e-01 2.6249090536554676e-01 -2.1425697847040026e-01 -5.9076725948157521e-02 9.6575574834782671e-02 -7.3015047203629932e-02 2.0792680200934227e-01 3.1445830232384447e-01 2.3010087193822474e-02 2.0092620512020259e-01 -2.9879146603028872e-01 -2.1576866959341027e-02 -1.7254665659105897e-01 -1.9850589229443802e-01 -4.0429454889359628e-01 -3.5669511914928242e-01 6.7652145145290804e-02 3.5990822167965336e-01 2.7054099293965556e-01 -2.1386975114097376e-01 -3.6837672540782240e-01 -2.6986924286774167e-01 3.5405520882326091e-01 1.3481788935930195e-01 1.6802674111456561e-01 4.5834939475276343e-01 -4.0288535125396441e-01 -3.1281208378277353e-01 3.0448592543975882e-02 2.6848052792209587e-02 -3.8438819855229073e-01 3.3240240717753700e-01 3.2578808278133786e-01 6.4017643871763430e-03 3.2531508166333595e-01 3.7526119434638988e-01 8.4450288627025291e-02 3.4256030500795098e-01 -7.8841899744304417e-02 -3.7147017149048711e-01 -1.5681451737504445e-01 2.3627150577159550e-01 4.2081750018100972e-01 -4.1447521007159921e-01 1.9082356225425035e-01 1.9934152946637343e-01 1.6412231521746709e-01 -1.3165184761500998e-01 2.3018299312570192e-01 1.7831750132441859e-01 4.2023550024701056e-01 4.0600860132899309e-03 -3.2026011069207144e-01 -1.1059732317578617e-01 2.9635267432027729e-01 2.0693849945497403e-01 -9.3479178233098925e-02 -3.1195740754857532e-01 -1.1744290375694055e-01 -1.7105805671344373e-01 3.3803128282966871e-01 -3.8158250423686695e-02 2.5320554205831169e-01 7.5272359226970412e-02 5.2206176053669812e-02 -2.0648343858355131e-01 3.0895468697810713e-01 -5.5852424484499870e-03 5.4026128821274527e-02 2.7834558698306439e-01 3.7373640001290898e-01 -3.2308094091335032e-01 1.0837796817926622e-01 3.8787167156103491e-01 -2.5547942642454607e-01 -3.8575661126546779e-01 -1.7307413380506242e-01 -4.6847332931009011e-01 -1.2894782719016069e-02 -3.1190518738956913e-01 1.0748757380515457e-01 -9.4421555019137807e-02 3.4109817635888556e-01 -4.0266453641793715e-01 2.4134013647162497e-02 1.5501826613073003e-01 -1.1681450933108367e-01 1.5967784808288382e-01 -4.3448863980524288e-01 3.7634078400530374e-01 4.2691937692040655e-01 -1.0867643764352909e-01 8.5736400751875649e-02 -2.9395920158732869e-01 1.7808091655195626e-01 3.6594738252626080e-01 -1.4765182871064381e-01 4.8544993226724634e-02 3.4942406529706987e-01 3.8897149141235154e-01 -6.9820098331958610e-02 -3.4529655573683377e-01 -4.0029622225503048e-01 -1.5167813376594380e-01 -3.1150516669824418e-01 -2.2859060676588144e-01 2.3266197651345816e-01 -3.3280848520097966e-02 -1.2141693800650506e-01 4.2060976035174213e-01 -2.0865316080464314e-02 1.8869515982413956e-01 -7.1269272204155992e-02 -2.4794468305645881e-01 -7.7145760806036370e-02 -4.2420994646671800e-01 -5.0497708902617539e-02 9.9693299073180280e-02 -2.4670046627376929e-01 2.7528699948314572e-01 2.1671642810770306e-01 -1.5557364072241411e-01 -9.1238914237229907e-02 2.5361899872830640e-01 -1.0996056625527495e-01 -1.4437567225853448e-01 4.4801742752095053e-01 -2.0721011303609721e-01 -1.2865838694536394e-01 -4.9550626559299871e-02 -1.3327634132617899e-01 -3.5444684305957153e-01 -4.0274308541596965e-01 8.1729673198256466e-03 1.6962090994303572e-01 -3.1385504841332174e-01 -3.9121011192211941e-01 1.5181632779488735e-01 -2.8255865070714298e-01 1.7707191667937749e-01 -2.3390198296434733e-01 3.1470814095963473e-01 -1.3125299750980288e-01 -4.0408407046960765e-01 -7.7053896652470977e-02 2.9895361863375114e-01 3.0416353400204577e-01 1.2254964718965726e-01 1.6821621552059501e-01 -1.6006712568669709e-01 2.7812429765471330e-01 2.3694851089092087e-01 -1.6463016244216153e-01 4.1812417728954394e-02 4.4048261649797399e-01 2.1340530777830571e-01 2.1908544578001721e-01 1.2471706417781649e-01 -4.0107379620897760e-01 -3.1420625495792442e-01 6.1198919889378034e-02 2.3634567743735357e-01 -7.5958864856209327e-02 3.6717657552592736e-01 4.2424639233966510e-01 -4.2830594515202008e-01 -1.4311897442501836e-02 2.5952457663268630e-01 3.1243002115409441e-02 2.4991625433276468e-01 2.1574754981443675e-01 -1.8287791416689306e-01 4.1352217160337573e-01 2.5164320640026283e-01 -1.0357477649458960e-04 -6.2675142018619137e-02 -4.1540974700856065e-01 -8.9689995821078117e-02 -8.1247142470246350e-02 1.2163816572286884e-02 -3.8392945488868263e-02 1.8155581255985660e-02 4.0714290080185556e-01 4.0375104486084645e-01 -3.6734514547310737e-01 1.8959841643367842e-01 9.6977728081840936e-02 3.2571794155425676e-01 1.5071944199995702e-01 -2.6374331805018014e-01 -3.3467193555748764e-01 -2.2158871036589331e-01 4.6878907148524003e-02 1.5050550710302796e-01 4.5888268120310849e-01 3.2084302366698114e-01 9.5502563891777720e-02 -3.8887783359789790e-01 -3.9751429795977433e-01 2.7335868733186169e-01 -3.5187615660154187e-01 -2.1565246199857868e-01 -4.7014368364354686e-01 -7.9779277651237157e-02 -3.3140612172358941e-01 1.9300025325133444e-01 -8.6048824455056905e-02 -2.6971822884577490e-01 -4.1684081045139615e-01 -1.8949655476815050e-01 -3.5023967489897767e-01 -3.0342798084184899e-02 -1.4782045432421553e-01 -2.2484249575384485e-01 4.3664340850226763e-01 -1.1273600926882139e-01 3.9376039055542977e-01 4.2762627483079796e-01 1.6722698114234577e-01 -3.0257949602638357e-01 2.3749047861643974e-02 -1.1438710717873912e-01 -2.8342456179597542e-01 4.0567414779186656e-01 3.3812286849450512e-01 3.8176212359703277e-01 -2.4681424103435423e-01 6.8013166841035685e-02 -4.5532846278741490e-01 -2.5168006738245946e-01 -2.8607499162604905e-01 1.1075156339948913e-01 4.7241493513802316e-02 4.4937411302343855e-01 1.7182191053785861e-01 -4.4095457780646646e-01 1.3189822485971614e-01 -2.9134707645867553e-02 7.0800777240521917e-02 -1.3673891055416559e-01 3.2565719128239085e-01 -8.8230438144457038e-02 -3.3576528123255195e-01 -1.9295099393144923e-03 3.9243223673422467e-01 4.4978279426797646e-01 7.9589610169222044e-02 -2.8615503099879375e-01 1.5490401795666237e-01 2.7751272721793185e-01 9.2394512831647416e-02 2.3435048028341693e-01 4.4596179399651376e-01 -4.3608796397926325e-01 -1.2393159378462357e-01 2.7540977228962121e-01 4.4731784291598992e-01 9.9670620704060922e-02 -3.9964638551577886e-01 3.6797955944778560e-01 3.2162453506358518e-01 -4.4115990666920185e-01 9.5928897266059521e-02 -4.5396335924016606e-01 -3.2407247212944795e-01 -3.7109080619224832e-01 -2.8272571801451218e-01 3.2228114897744131e-01 -4.2079859614622538e-02 8.6271403441611133e-02 -3.3166316113156941e-01 -3.6392033735855805e-01 -2.0401632867474273e-01 -4.0284813494874822e-01 2.1921197651277832e-01 -2.7020042215081946e-01 -4.4822743919049179e-01 -1.6012408866062386e-01 4.6824214580327972e-01 1.4739688341782922e-01 9.2532227689727242e-02 -1.0750182866019552e-01 4.3324769033933647e-01 -3.4809533177889690e-01 1.9614207100791961e-01 3.4557031873819484e-02 -9.1292763774406052e-02 -1.1017994845138133e-01 -4.1178160739520991e-01 -1.0157920679875299e-01 2.2741481672167640e-01 -2.1289723214077277e-01 -6.1023902785188780e-02 -9.1033957078617028e-02 3.0063630591180657e-01 -1.5990831398139108e-01 4.2334357171003878e-01 5.4252635280412714e-02 -2.6907067616177249e-01 -8.0396879651571010e-02 2.3838783526485444e-01 4.3941672443953878e-01 -1.1823138961844891e-01 3.9120388412816048e-01 -2.0488447171760457e-01 1.8895526242003105e-01 3.2050686030109310e-01 1.9728303123910812e-01 1.8189303395750506e-01 3.4568645115859453e-01 -1.8967769201773975e-02 -1.0134620293255903e-01 -6.6749348091075550e-02 -4.6409681757179877e-01 -2.6739824855906441e-01 -2.4494568025224903e-01 2.4036577340953241e-01 -3.3102570156092403e-01 1.3866690118898517e-01 3.1329356109473389e-01 -2.8398327421785469e-01 -1.0493913364086020e-01 -2.1551670071741821e-01 -1.7278744888395717e-01 -4.7053366165488170e-01 1.3061628758374952e-01 2.8120249930366026e-01 -3.5073933350322378e-01 2.4310868886600512e-01 5.8218789401233227e-02 3.1435108436653514e-01 1.4254009840078993e-01 -3.9930921613131592e-01 4.0615078237231517e-01 -1.3495634275318788e-01 4.1500594439418997e-01 1.6166719369761465e-01 -2.2208644159824861e-01 1.1341880379117365e-01 1.7075685781303240e-01 3.7952040723273878e-01 2.9719673497891386e-01 -1.5665970069574611e-01 -1.4002675877618173e-01 1.7273232335129310e-01 -3.1975421505115337e-01 -4.0220365831535397e-02 -1.0645448143830226e-01 2.3020872440598070e-01 6.8145505220890398e-02 -3.3574562296184152e-01 6.6286876233078926e-02 -3.1307025569059982e-01 2.8806078656551420e-01 2.1088968492819937e-01 -3.3100321797444732e-01 -4.6135907664257170e-01 4.2145424313611413e-01 1.5979307756179223e-01 3.2769227065961515e-01 3.9669178761862062e-01 -2.8597713837482408e-01 -7.9772276483043386e-02 3.2469862290581064e-01 1.2874060984913512e-02 -3.2561684316268219e-01 -1.7546342218620439e-01 2.9690173273472792e-01 -4.6955776330707172e-01 1.3420890278956071e-01 -3.7832652104967224e-01 4.2931700761614872e-01 4.0945216653419228e-02 -1.4741246066054853e-01 9.7211222544264814e-02 -6.0565493825097079e-02 -3.0451295516038390e-01 -4.0350834372090161e-01 -6.1312902149930681e-02 -3.3288294917799555e-01 -2.7166334945161891e-01 -3.7944422942359268e-01 3.9626624139919331e-01 -1.4388195394866740e-01 1.5619127674832187e-01 -1.1891185003460013e-01 -2.4586611973648573e-01 -8.5827621478482802e-02 1.2099419703040475e-01 -4.4906067857399146e-01 1.5882570891333075e-02 3.9568470145381979e-01 1.6879420789698073e-02 -4.6901101540780055e-03 1.2529684067021510e-01 5.8774029593826979e-02 1.8881289688522215e-01 3.3594708977103260e-01 -2.2520176435887854e-01 2.2555762184117345e-01 -3.3872857306075956e-02 -2.7753656441704394e-01 3.6251066047600547e-02 -1.1048902424578648e-02 -2.0776952115242547e-01 1.6454456025781078e-01 3.1397955246915943e-01 2.5998749300220170e-01 -3.8273335549819243e-01 -1.3909783310362286e-01 -3.9721119206638639e-01 4.3477122139666147e-01 -1.2060996231557226e-01 1.8720387834135482e-01 1.2724493733381526e-01 1.0592669561647021e-01 -5.1714863740428357e-02 3.6982377006755934e-01 -4.2587653241948309e-01 -2.8315184349211736e-01 -1.7937623102353900e-01 -2.9007410194051736e-01 -3.9272505967917773e-02 -1.7472763823725565e-01 1.4301557568678552e-01 -5.7970724145014585e-02 -2.8433310159224342e-02 1.2019021519557889e-01 -3.7863891026650509e-01 -1.4486733834115670e-01 -3.2810670314699475e-01 -3.5706478147374154e-01 3.6062431980019444e-01 4.4846228274327993e-01 -1.5520593897070614e-01 1.4305222449615701e-01 2.6141089215562979e-01 -3.3852360232702072e-01 1.5768827327835103e-01 -3.4442357199313911e-01 -2.7940614565059585e-01 7.3578959364090368e-02 3.3409118556091305e-01 2.8672823098737932e-01 -4.1608799878424813e-01 -2.6201913650023489e-01 2.8022772974164745e-01 -3.4994644448274953e-01 -4.5640471474579120e-01 -3.3300444625118220e-01 -2.0715626123775965e-01 -2.2494111008257517e-02 -3.2128988835852784e-01 8.1010078183195527e-02 -1.9959625955877949e-01 2.3560262540176005e-01 -3.6865906253766595e-01 -1.2719103833909679e-03 1.9105928231572691e-01 -2.8034830113567544e-01 -1.9334823002891804e-01 -4.4545430030155891e-01 -1.6949362998798254e-01 -3.9728737042205031e-02 5.6923692827215995e-02 -3.9580763415823655e-01 3.4773755048456445e-01 3.7814296270772613e-01 -2.3731051629991447e-02 2.4608865859357915e-01 2.0662110904908379e-01 -2.5103479227028713e-01 -2.4151980272492068e-01 -3.1173568341313035e-01 -3.0203078221346380e-01 -3.3699739958435704e-01 2.0690966891239324e-02 -3.9787496041143411e-01 -2.5202872442118035e-01 1.7455044087735397e-01 -4.4263657647776905e-01 -1.1601134171515931e-01 3.0408718918499094e-02 -8.6606056413365523e-02 -3.3655561602378681e-01 3.9760473320324602e-01 -1.2318844077080340e-01 3.2865087827573936e-01 3.6401745615179409e-01 -3.2452081936970728e-01 2.0790492957621823e-01 3.6425208995810038e-01 3.1707684993929430e-01 -6.5387360994978341e-02 -4.0049018019743926e-01 -3.5637188502281242e-01 4.4671651593045807e-02 -2.3736259701453691e-01 -2.4814940061881982e-01 -3.1788690015150584e-01 7.5559230938170380e-02 3.1177034712732343e-01 6.3124220017179794e-02 4.1996866081628131e-01 -1.1425280075646910e-02 2.7699747259843915e-01 -2.4576214715057118e-01 -1.2740082496952776e-01 -1.6089820762522875e-01 9.5479121944866088e-02 -7.3938026330054640e-02 -4.1568713391474432e-01 4.1168354736498214e-01 -2.3701444012204601e-01 3.0275086711295623e-01 -3.4415309383499476e-01 4.5869040587831056e-01 1.8200530475468362e-02 -1.9650506161162878e-01 -3.3922973809863638e-01 4.7242150834984391e-02 4.7062016861410816e-02 3.4725344789340684e-01 -4.4128794465308527e-02 -4.7594141327475065e-01 -3.1753463820361794e-01 -1.3666327445429308e-01 -2.6070724323199479e-01 2.3722149748542473e-01 6.9044688882939605e-03 -4.3914057723369698e-01 -4.5245314337863968e-02 -4.4513989415591548e-01 6.9620849611784275e-02 8.4484908846405748e-02 9.3116960184650668e-02 -3.0978461789867417e-01 -1.4144998168602543e-01 -1.2805007983493662e-02 4.0726541400275512e-01 -9.0762357314080958e-03 2.9631048959268103e-02 -3.3822812516914942e-02 -4.1980489210536548e-01 -1.1335937483357528e-01 -8.2176924534160131e-02 -1.3635220125102043e-01 -2.6857933552638713e-01 2.2527277330324758e-01 1.5745043622644497e-01 4.1856383426373772e-01 2.9409158252709799e-01 4.4076208244407900e-01 3.9193283199291351e-01 -3.1563339799440304e-01 3.8607601084232013e-01 3.6265821952635294e-02 4.6211225686168110e-02 -4.2259678369365750e-01 -4.3984286967006508e-01 -1.8737016684058891e-01 6.6908948768215765e-02 -1.7771553864626286e-01 3.3806157560417521e-01 -3.6294399553175372e-01 1.5678603280257356e-01 8.7741160514792582e-02 4.4264894554359208e-01 3.6600249457489448e-01 -1.0217115479138086e-01 -3.3434322320305149e-01 4.5703324843646706e-03 -2.9785366564323795e-01 6.6981128024966266e-02 3.4201021725820585e-01 1.5901049766659262e-01 -2.3617043927526604e-01 2.8433784045451316e-01 3.8083538423112973e-01 2.9823102767521620e-01 1.0335587242425548e-01 -5.5126185730718431e-02 -3.7518264843708160e-01 -2.4980585517866341e-01 3.2031455387424684e-01 -4.3485619202959452e-01 8.4236638712452683e-02 -3.4709796486483820e-02 -3.4969336896976783e-01 2.6268969853889940e-03 3.1602040630210088e-01 8.6794887481164915e-02 1.9674349424309492e-01 -3.4553001655002391e-01 3.1211964742184678e-01 1.2616080546298486e-01 4.3286970185587009e-01 -4.3784760668227501e-01 1.5104846544005768e-01 -2.5382359960650436e-01 2.5756398232142028e-02 4.4835384206321272e-01 -2.6861735443787865e-01 3.0632024845019751e-01 3.1961999896191956e-01 2.1041458941056263e-02 -4.5383547168461730e-01 -4.9052680078763317e-02 -3.8421956369365462e-01 -2.7476428370011363e-01 7.8330484683841614e-02 1.9014225845973856e-01 -2.2919300557287425e-01 -4.3915721180266526e-01 -2.8872906081334282e-01 4.0696059717840749e-01 2.6577100257932301e-01 3.0955163538814440e-01 -3.2640241515398616e-01 4.2775987166212881e-01 -7.4089150041383667e-02 -3.7075588193161396e-01 2.1890699351157283e-02 1.1774739676337489e-02 -1.8305224979090676e-01 -1.8641673460335059e-01 -1.8387379331536369e-01 -1.9802321828641706e-01 3.7881738522007502e-01 4.9192764368675618e-02 2.0797700292148763e-01 3.4045584091427894e-01 2.4319233709309862e-01 4.6140492774821340e-01 -1.2131326865822552e-01 1.4092639540315496e-02 2.4780878693506336e-01 1.0523854156214035e-01 3.1824336383044399e-01 1.0427243048266192e-01 1.3820355497061820e-01 -1.5507935114473720e-01 -4.3688688835492751e-01 -8.0589757386195601e-02 -4.3231699616539637e-02 2.5780788652791337e-01 1.5114887060487664e-01 1.1789220605533396e-01 -3.2516930089168450e-01 -3.9127142099802376e-01 -4.0841126376851428e-01 3.5521382970403664e-01 1.5711436582113364e-01 -1.2235331245159634e-02 1.3478594522664764e-01 1.3642837740439565e-01 -4.1664928499588576e-02 1.7259392565278808e-01 2.5598727828106277e-01 2.1626362508620603e-01 -2.7577356727045971e-01 1.8485193451432505e-01 3.2767622115060790e-02 -4.4753349854955365e-01 -3.1916419968059750e-01 -2.8122498522536038e-01 -1.8731297671931518e-01 2.0431608006804119e-01 4.8334555612238969e-02 -1.1699025946799068e-02 -1.6547178047454994e-01 -2.7335150467826336e-01 -8.4447835775653957e-02 -3.1206164187920465e-01 4.4333441122760731e-01 1.9499516867002673e-01 -3.0461260406254465e-01 1.9860316626034660e-01 -5.3607269201487062e-02 5.7663317850459729e-02 -3.1388361527393399e-01 -2.8433637026568620e-01 1.8688328511861946e-01 -4.5273888459815503e-01 -6.1972755783734422e-02 -2.1071675005560470e-01 -2.0945197177482006e-01 -3.5610419722099640e-01 4.5745945539726440e-01 3.5302422698488523e-01 -3.2449573576377977e-01 2.3013905494562684e-02 1.7420581608026828e-01 -2.0740090621359419e-01 -3.6135563585430652e-01 -3.4269575871974994e-01 -1.5770311648665730e-01 -3.8857392666105106e-01 6.0045477587636981e-02 -4.1012185171767646e-01 3.1650616686603589e-01 2.8791840484871656e-02 3.1643064937830073e-01 3.9536838435674446e-02 -1.3678133574938409e-01 -2.3887791658191870e-01 1.7811132039828720e-01 -1.0214337237713275e-02 4.4723108188100874e-01 -2.4901239137093689e-01 -1.5740572821316187e-01 3.6485409901325511e-01 -1.6720453983421671e-01 1.7316389640013363e-02 -3.8025504012484251e-02 1.7061328375800830e-01 -3.9946968909364450e-01 9.0830170759072668e-02 3.2863680569518348e-02 -1.3164184130459716e-01 1.3165541048043394e-01 3.4221211161162729e-01 -3.2162952691439567e-01 3.9494887269225121e-01 2.6016993828277063e-01 3.9428219240877233e-01 4.0927654668553898e-01 -1.8397823593516344e-01 -4.3600202683204520e-01 9.8291917409104909e-02 -4.5601864731073927e-01 3.6712790545407104e-01 -2.3727581175639692e-01 3.0321841460147270e-01 -2.4289078838190462e-01 3.8832278381569418e-01 -3.9778834416284986e-01 4.5706833836211980e-01 2.8703593228686480e-01 -3.3969956256749878e-01 2.5631778755468160e-01 -2.5300672148708020e-01 9.1785199172799814e-02 4.4451363567359825e-01 -7.5025397478572569e-03 3.0743039093161040e-01 6.1722092995416825e-02 4.6190095926469538e-01 2.3706540010299132e-01 3.7610519409759324e-01 -2.3855336390011300e-01 2.8150035519079680e-01 -2.3175942475717937e-01 1.7839876990120498e-01 7.3094458679284172e-02 -5.2366124399022197e-02 1.6580998862897067e-01 1.4178694243470669e-01 -2.8877712497436064e-01 -5.1899495908172069e-02 1.4831822497824859e-01 1.1450006636083399e-01 2.1194326946266284e-01 1.5009909274917171e-02 -4.3318099204207250e-01 4.1072824547788017e-01 3.1915763593247110e-01 1.8583417707866423e-01 -4.6976699816264278e-01 -9.3360804984351370e-02 1.2221506899286626e-02 -5.7778680003759783e-02 -2.6653570800956355e-01 3.3757587579490822e-01 1.1561969073599568e-01 -3.1857651768383038e-02 -3.7805050261171141e-01 -8.0179175516860504e-02 -2.6762188364311115e-02 2.8812939228328377e-01 1.3997934474894069e-01 4.2616516409996225e-01 1.6077681663719612e-01 -9.4941548548114763e-02 4.2797151270431438e-01 -2.5519293743518814e-02 7.7583919817377681e-02 -2.7055787929914737e-01 -1.1580559809379053e-01 -3.5427559822370275e-01 3.5231001354479657e-01 -2.7432397121360814e-02 -3.1422363797556951e-01 3.0173029286343839e-01 2.1605995464003161e-01 -3.2637035341189452e-01 -2.5076024247158263e-01 1.9073422845625904e-01 -3.6162434157051188e-01 1.7225590003381135e-02 -3.6218542540324911e-01 -1.9325789691157894e-01 -1.4602196953238472e-01 1.1013310787380744e-01 -3.1330735301722867e-01 -3.6958259624588269e-01 1.6648024559251243e-01 3.7739569002212242e-01 4.3529771743207191e-01 -2.2251791701454349e-02 -4.3915150350610804e-01 -4.7109235130965171e-01 -3.2355620520131156e-01 -3.7647391858003715e-01 -4.2669494504420501e-02 -3.4292349348336870e-01 -2.6535780925178948e-01 -7.0061873211185705e-02 2.4056001732657128e-01 2.1593427339640722e-01 1.5880693496289719e-01 -1.4568202613707074e-01 -4.3859503746029921e-01 1.8212913024471550e-01 -2.3005129446986575e-01 -2.7181841324762000e-02 -8.1896523214032610e-02 -7.7149612819705088e-02 4.2477440082338214e-01 2.4245719775593624e-01 3.3519608152353647e-01 -8.4643856285408839e-02 -2.4192144109094157e-01 1.5074522178901664e-01 -3.1713784297603415e-01 
      </Weights>
      <Biases rows="128" cols="1">
        -4.4046199246442641e-01 -3.1175954439392722e-01 4.2134750746065497e-01 3.0440927973241710e-01 -1.5576756944865988e-01 3.1756320537251942e-01 -5.4003993321546012e-02 -4.1714379472129764e-01 1.3885621293491501e-01 -2.7304183473120991e-01 1.8008814364766251e-01 -1.2518991605979990e-01 -3.5615304919819296e-01 2.9057880594330276e-01 3.7683290307106002e-02 2.2104222389105702e-01 4.8865169261192325e-02 1.9536394176796060e-01 2.0977951115391211e-01 1.9415117336253543e-01 -1.2360618775674974e-01 -2.9550374593291096e-01 -1.8551420711325337e-01 1.8728041159955144e-01 -1.3927280626726690e-02 -3.0064279532889215e-01 -2.4237944264775951e-01 1.9439085898656366e-02 -1.5369005491126614e-01 1.6517320979595321e-01 9.2913548310614533e-02 3.0434687672347999e-01 -4.2298247712154519e-01 -3.4116438395247317e-01 3.3881259308885858e-01 -4.5362885586800961e-01 -2.0626914021311990e-01 -3.7891899165189613e-01 2.6654054724788595e-01 2.8525858432581508e-01 -4.4954273577978376e-01 1.2160589381294984e-01 -1.7990165528767918e-01 -1.7328427121235776e-01 2.9021697131302227e-01 2.2519748266027348e-01 -3.4781242314753791e-01 -1.7179018413179717e-01 -3.6850788066147649e-01 3.6431683755577576e-01 1.1011926705840160e-01 3.5404680719605175e-01 -1.1817362799954517e-01 2.8979883823537028e-01 1.4102154546313792e-01 -4.1535051285326646e-01 8.9584132719776360e-02 -1.5873745883371065e-01 -2.3752979094635215e-01 -3.2282363465807140e-01 2.0395120634175851e-01 -4.0499310925183135e-01 -2.9314758977140098e-01 -2.4840275660370659e-01 -2.8612328294843342e-01 -1.4296862303634836e-01 -1.7177373565100301e-01 4.5523528486010861e-01 1.4818066570398103e-01 4.0970262246378519e-01 2.7055347354739118e-01 1.4717541979079257e-01 -3.0227751073212716e-01 -2.1907244732525391e-01 -4.4776129469185771e-01 -1.5444661279158492e-02 4.4154599595537164e-01 3.7006794077001803e-01 3.4673204397929941e-01 -2.9394760578163609e-01 -2.5738469275571135e-01 3.0230458090130125e-01 4.4420358737875747e-02 -3.0092346929763658e-01 3.7944838406225451e-01 -2.1070322970719918e-01 -1.4244167121728823e-01 1.8440494159144274e-01 -4.3051881548452436e-01 -2.3337278995174682e-01 6.8323808678998663e-02 -1.4108971687581856e-01 -1.9873216314867348e-01 -1.7138141469677645e-01 1.6117353452460070e-01 4.1358668375472069e-01 2.8313744922394268e-01 -1.8469704143228144e-01 -1.7291045633979479e-01 -4.1667440136309630e-01 -2.8535546825724956e-01 1.8249118053167677e-02 3.5827241127891679e-02 1.0355584637932991e-01 4.5146957808643640e-01 1.3369474759424213e-01 -2.8870754940062937e-01 -3.1421959598100097e-01 4.0331455096017832e-01 -9.9464899437235701e-02 -2.8385637292300669e-01 2.8458062831244563e-01 3.0453315401670783e-01 7.1345166632528226e-02 -3.9971501575458102e-01 -3.6649319489861076e-01 2.2689539377727483e-01 1.4792876122210458e-01 1.2552740783783866e-02 -3.0999196246409416e-01 -2.1403222038128072e-01 -3.8315052176255401e-02 4.2657754569292267e-01 -3.0745085321369953e-01 1.3040590212692646e-02 9.4696706849192042e-02 2.2248472268024894e-01 -1.4712395542928355e-01 
      </Biases>
    </Layer>
    <Layer ActivationFunction="3">
      <Weights rows="128" cols="128">
        1.1617165992576886e-01 9.1790144824127357e-03 1.1673233773118451e-01 1.2933038088991222e-02 2.7657337407487655e-02 1.0810873618049728e-01 -9.7418012449262681e-02 -5.1342089133597217e-02 2.7885025347099138e-02 -5.2944999691541105e-03 -1.0978090178590920e-01 1.1599229161614474e-01 -6.3839232733392620e-02 4.7480099237628040e-02 4.7841890198567369e-02 -1.7113478550268752e-02 -1.1826611701073558e-01 5.6058858556709071e-02 -3.2086926935889624e-02 1.3668082332153766e-02 -1.2130904791042381e-03 -4.3985658416812318e-02 3.7445557008826638e-02 9.0977168203173184e-02 -8.1727231606742751e-02 2.8452215970843440e-03 -1.0895298584020391e-01 -3.4464478203841936e-02 -7.9133929346114198e-02 -1.1708533334719069e-01 -1.0609561485437871e-01 8.6112410542080117e-02 6.6927896754866198e-02 2.9391879082503646e-02 9.8243554986421247e-02 -6.2560929904139001e-02 3.3744375258753151e-02 3.9274080801263052e-02 6.4496779984154512e-02 -1.2168830323631211e-01 -3.9246665387514923e-02 -5.2418436511615055e-02 1.8776849369963978e-02 1.2405693163312707e-01 -9.3342620636465243e-02 -3.3423843822310909e-02 -3.1585100605118488e-02 -9.4477178243565482e-02 -8.1323771613727655e-03 1.0262273328125002e-01 -4.6982702641103130e-02 1.8720259098907264e-02 -2.5866001226512367e-02 7.1283049168182663e-02 -1.0864416601794911e-01 3.8584495522197206e-02 -7.0814949542941985e-02 -9.9029477988773595e-02 6.5743764850137429e-02 -5.2275232256750306e-02 -9.2623719247502852e-03 9.8778556230650766e-02 -3.3985119878289678e-02 -1.0234651183604102e-01 -9.5920109380459487e-02 4.0410567036197047e-02 6.2017865854086897e-02 -9.0619783744234090e-03 1.1439031529030945e-01 -1.0404705525814949e-01 -1.1588245235758189e-01 5.1911738276366047e-02 -4.4577683342826788e-02 -4.4617696061332009e-03 1.0055957654787050e-01 1.2001847348123394e-01 5.8304482061292885e-02 -5.3352219342110811e-03 2.5863994665916612e-03 4.5869629702437111e-02 7.0805423428397324e-02 6.6556292890546362e-02 2.0013810625999755e-02 -1.2789268474259215e-02 1.1379399998343236e-01 -1.7600569161922212e-02 -8.6131325893302274e-02 -9.9982260958483338e-02 -1.0846453958775158e-01 4.2706561547983690e-02 -1.1824635840628138e-01 9.8294041192567419e-02 4.2129101516295446e-02 -1.2433696114553729e-01 -5.0708371816796001e-02 -2.1354691244280011e-02 1.1987306664802597e-01 1.2475886719568118e-01 3.3197783116724756e-02 -1.1758710343763593e-01 4.3279494729352323e-02 -3.1477416419293316e-02 -5.7970827165817841e-02 2.1660092836648707e-02 1.0102767461009171e-01 -9.8343653382546567e-02 -4.1101867370394269e-03 -6.6674046605402128e-03 -5.6371880692431632e-02 3.8454536879064645e-02 3.7949376062830886e-02 -2.8921705011311048e-02 8.1563663958073296e-02 1.0728460531975692e-01 -5.0891028934174805e-02 1.1740913468009093e-01 -7.1814368121055294e-02 -5.2501711453366968e-02 5.6911134672400818e-02 1.2940120462968519e-02 1.0606842711483666e-01 -3.0311285545837209e-02 -3.9640422062680356e-02 7.4431047352624569e-02 -1.1454290948585985e-01 -1.7969682156064710e-02 5.1802213454519165e-02 -9.0169265989400976e-02 -9.8162787234760115e-02 -4.6261762349313396e-02 -9.2896038575712367e-02 -2.4932486021462422e-02 1.1955257804410641e-01 -1.1723234100706585e-01 6.5963238488070411e-02 1.0107076131925270e-01 8.1112525318382700e-02 8.0145201669547805e-02 -1.1604245204011691e-01 -1.1402676928827103e-01 3.3300184127925375e-02 -4.7592812068420524e-02 -1.0271302590187764e-02 4.0399117913684970e-03 -3.7393785776230475e-02 -5.1656169828704947e-02 -2.5115699017911504e-02 8.2285039509943411e-02 4.4414197397240007e-02 -8.1582463559532928e-02 -2.4944639304907534e-02 -1.0986412684435788e-01 3.6551114165115285e-02 7.0824703012900550e-03 -7.8414305139404381e-02 -1.7084679603572184e-02 1.2536348661981028e-01 -1.0129619041014686e-01 -1.2568032386845215e-01 5.0314086599154921e-02 -2.5539063692802792e-02 -3.5913322563858090e-02 9.1688363909991369e-02 -6.1462831725542177e-02 -3.3568374665151897e-02 6.5093157937604243e-02 -2.7425276568499166e-02 6.4796032559668787e-02 6.8460315616439921e-02 1.2235644306005691e-01 -1.2022077598245082e-01 1.0879730304214136e-01 -2.7522702707236658e-02 -5.8815699108245387e-03 -7.4139404599778191e-02 -2.9723124983983315e-02 4.1284359089194993e-03 -2.0343111727718226e-02 2.2825556580043472e-02 7.5687196027038800e-02 -6.6734322724167350e-02 -4.9466342088174811e-02 1.1462388728182869e-01 -1.4785074555664178e-02 1.1684063265579711e-01 4.3281594837833781e-02 -2.1088674689208862e-02 -2.2377088986182174e-02 1.1002434369674692e-01 2.5933560707706371e-02 2.0405346808636832e-02 -1.3111992505934080e-02 1.4841729189017992e-02 1.0986758468958415e-02 -6.6429268081150294e-02 5.2734364916499972e-02 8.9164394298230323e-02 -6.2911120309034299e-02 7.4250520985369828e-02 1.0751704819905164e-01 -5.5835181332369456e-02 5.8744707887939909e-02 3.2822848029012731e-02 -4.5707703669718915e-02 2.7663501617426745e-02 -8.9022014770023153e-02 -7.9750284371489427e-02 -6.5606846732968141e-02 -6.4530416990824416e-02 -8.7187101371104428e-02 -8.2641343774378123e-02 -1.4249579197377620e-02 1.1721661655148552e-01 -8.2253479326760803e-02 -5.7613973468056481e-02 -5.9048830668382568e-02 -7.5397842873377752e-02 3.5256521665434297e-02 -9.3244157745895478e-02 -9.1803435753911190e-03 -1.1907148434330083e-02 1.3159706052754635e-03 -3.6945067865644415e-02 3.7275367208511892e-02 -6.0723960489751663e-02 -4.6819288467647165e-02 9.4426826162973265e-02 7.9012638821438955e-02 -6.6258987181712789e-02 9.3711322280484594e-03 9.9117568029608999e-03 -5.5706402407309681e-02 -2.1195467869783897e-02 -5.7515462040550365e-02 -9.2116051969515236e-02 3.6040973010613403e-02 -5.5867544942942014e-02 -9.2955635974963702e-02 -6.2618444394850453e-02 -1.1752813975407382e-01 -9.9410135398062441e-02 -6.6672088023514556e-02 2.8485579497095615e-02 7.9905962782811819e-03 -7.3173802507610367e-02 -5.9813846326990772e-02 3.7464699810713140e-02 7.0533026256064122e-03 -3.4793605046844695e-03 2.6209626005168039e-02 4.0130517962001198e-02 -1.0319046158393676e-01 -1.1198755319463644e-01 -5.7833974586162906e-02 1.1704557764280243e-01 -2.2831399949189052e-02 -1.0267564785600578e-01 -3.7785830468764006e-02 -9.0691132814483391e-02 1.4377618419769195e-03 9.2720756098008769e-02 9.5571008770689182e-03 7.4067758390323396e-02 3.8868217433923227e-02 -7.2460819885930894e-02 1.1737564350352432e-01 -3.1797329446622814e-02 7.9051024582576207e-02 -6.1486165158589651e-02 -2.9845175831393046e-02 9.2694290006203828e-02 -9.0303253010297860e-02 -7.3148282339551188e-02 7.0882018082658732e-02 -7.8848614289249178e-02 -1.1347785900219537e-01 -6.2301404726919585e-02 1.0608608169203212e-01 -7.8737732440933447e-02 7.0134033779989960e-02 7.3761609091806402e-02 -1.1821260559004031e-01 5.0186368339658609e-02 -1.0958745889177777e-02 -1.1721065008275103e-01 -1.2014837325691437e-01 -8.9735772272545325e-02 -1.2289624425552338e-01 1.1075025547192849e-02 9.3238706783864117e-02 7.1340979018243086e-02 4.0196356079376439e-02 8.3203855660162238e-02 4.2064999362640382e-02 -2.6672017961131684e-02 1.2310815397179768e-01 4.3773072590630402e-02 4.4693204734351885e-02 -5.1279355438190115e-02 -9.6935613245777902e-02 -9.0089404655266797e-02 1.0529901005377779e-01 -1.1814650877884170e-03 -1.0808941519369272e-01 3.9281437430726540e-02 -1.1712624602503510e-01 1.0088461764973874e-01 -2.5845642679893496e-03 -1.2644607278515418e-01 -9.3113078604436156e-02 8.1870695342718847e-02 -7.8674944266135499e-02 4.2401983880483933e-02 4.6189908868887679e-02 1.0282717967363819e-01 -7.3703522636861390e-02 1.0323202835289487e-01 -7.5810658335630443e-02 -8.5549793584650313e-02 -3.8857387456350687e-02 7.1998346540548444e-02 -1.3149497296008191e-02 9.4984922266264524e-02 1.1979920233783140e-01 4.6377285223204293e-02 -2.8944468090733810e-02 1.1380295409850193e-01 -2.6634224021427781e-02 8.0057248437826328e-02 1.0557911152608303e-01 -1.2650653696117464e-01 -1.5331622229291415e-02 -1.0810915157937188e-01 -1.0879877357577096e-01 -1.1270078163860749e-01 -6.8254591931764266e-02 4.7912029200549690e-02 1.2902957469797860e-01 7.6745360062551907e-02 -5.8065737072085670e-02 -4.5876451492211187e-02 1.2174275453035158e-01 -1.9100183142525304e-02 1.2672416420969818e-01 -1.8763594981532246e-02 5.7524886167762523e-02 -4.0865281106058238e-03 2.8524547213369935e-03 -1.0577408091971048e-01 3.6368118214913397e-02 6.9910001710680111e-02 5.3747764933127627e-02 8.0880617703898441e-02 -1.1250986683309487e-01 9.0094555091734668e-02 -9.3040042357625113e-02 1.0554466563163035e-01 7.7166292468533071e-02 -1.0517365642120048e-01 -4.0038786875485177e-02 -2.6027432644816747e-03 -1.0685120232176855e-02 5.9358042810530344e-02 1.2333837959826732e-01 1.1438876460035147e-01 -2.0177087335345532e-02 4.4676343903592708e-02 -5.3817187250489305e-02 -8.7258113587167715e-02 9.5804740587199316e-02 -5.5667409577174067e-02 2.6150529117782734e-02 -1.9511093857574716e-02 -3.0949540119313841e-02 1.1718952176309055e-01 -5.7397317065298978e-02 4.6382106644729172e-02 -5.9978424970510633e-02 1.1691200719816570e-02 2.0868584104736486e-02 -1.1355533389604001e-01 -2.2820818905182883e-02 7.1572816126487283e-03 -8.2200015767497858e-02 7.4178244310026856e-02 1.1575513820400622e-01 9.7834754170018426e-02 -5.1672584030452627e-02 6.5773706752379785e-02 2.4504524752402303e-02 4.9437717771060805e-03 -3.7766920461265771e-02 4.3199283809515460e-02 -8.3470485908025555e-03 1.1858640239063961e-01 2.3891265747671156e-02 -1.0233292440487216e-01 1.1011226048434333e-01 6.3653761413186308e-02 2.0630406167814926e-02 1.1840904026487049e-01 -1.0339497656821177e-02 -2.4688915074422866e-02 8.3199461320857052e-02 -9.4512125747242645e-02 1.7175489693948730e-02 -1.2181593165566232e-01 -5.6772934153054826e-03 -6.8585417463473658e-02 1.2232928320198885e-01 -2.8701013214836223e-02 1.0044355987090363e-01 6.3879131894160668e-02 -1.1840138803638450e-01 -5.9102727971733146e-02 6.3240920724719998e-02 -6.3737777549880220e-02 7.0482993985193879e-02 8.8916620810767025e-02 8.1058875260649532e-02 4.4336877014375442e-02 1.4890220626190714e-03 2.7670104222117343e-02 9.6756408372724784e-02 4.4847668214793752e-02 6.4927238877570140e-02 -3.6731810084242977e-02 8.0677319340120221e-03 -4.1938050772614623e-02 1.1793231244292537e-01 3.7486104031921479e-03 -1.1504495295395319e-01 4.1163253432778199e-02 3.9196462156683244e-02 9.2982114993165055e-02 -9.9823648823145747e-02 -4.1959760004059897e-02 4.4488802848340975e-02 1.0686900337543777e-01 1.1735682711664826e-01 -8.9050049230778736e-02 4.0121515897830896e-02 7.2372661929445969e-02 -8.0062465139566261e-02 1.2231409597093412e-01 -3.4447561440763833e-04 -1.2392243303886197e-01 -5.7162987590158656e-02 -9.2354667288307421e-02 1.2305871409521808e-01 6.5185515588620263e-02 -5.2096821537920335e-02 7.6526895722117613e-02 2.3879895187512313e-02 8.6226102359031109e-02 2.2975100128813646e-02 -9.2442361113437732e-02 1.3082806014760959e-02 4.4646741797245334e-04 -1.1787345496661764e-01 9.5314209641098168e-03 2.1203999206786998e-02 -4.5656169504155054e-02 5.2126605320503394e-02 -7.4565600487765768e-02 8.4886180102855136e-03 5.2484851079013010e-02 3.3807481268677765e-03 -1.0691366733045693e-01 -5.4195342277587107e-02 9.5469611010549849e-02 3.7985968288465205e-02 -1.7109527332394570e-02 -4.7004489175740620e-02 9.1985476573854030e-02 1.2071696831880595e-01 -1.0704218235070294e-01 8.8248473276542685e-02 -3.1143486935801004e-02 8.7346850715533178e-02 -1.1775536930350458e-01 -5.5204112281163661e-02 2.6485404610253747e-02 -5.9002061193608152e-02 8.5719399954352307e-02 -8.9209631215444354e-02 7.2464177324056703e-02 3.3781638662007916e-02 -6.5863049816334424e-02 -7.1233986143923747e-02 8.1764435757453416e-02 -6.0825711605768051e-02 4.3158445385692704e-02 -9.9425635320347622e-02 -2.6803350501549049e-02 8.1709716846874128e-02 1.1818298865111354e-01 3.6713124520443376e-02 -1.1588719639070928e-01 7.5378077064655533e-02 2.8210725954699832e-02 -3.6759018160516875e-02 -6.5625828226168331e-02 -8.4146407799213591e-02 5.5797847313417553e-02 -4.0693836773623197e-02 2.3174887961099129e-02 -2.5013713577584449e-02 -4.3740650036864233e-02 9.0276024550299330e-03 -7.7292538865781158e-03 -4.9796582673762968e-02 -3.2062501302833106e-02 3.7263466194517231e-02 2.7800470561810790e-02 9.2819978703204215e-02 -7.1942468636527535e-02 -8.2658622032324072e-03 3.7445867334896174e-02 9.4203053973014577e-03 -3.3333533757059469e-02 -1.1016374632996176e-01 3.1752898100033122e-02 8.7988446413537522e-02 2.4661446760019298e-02 3.0254435495460502e-02 -2.3717732468003447e-02 1.1847889291944193e-01 4.0458189958620779e-02 -7.4475581771256225e-02 1.3953919562541323e-02 5.2194800826742644e-03 3.8643678104811931e-02 5.9974988832424553e-02 -1.6179895440724641e-02 6.0844814142185087e-02 -1.0620862111571580e-01 -1.2048635545212345e-01 -1.1211613420111285e-02 -8.3691908625714961e-02 2.6972714763883864e-02 8.3769193276489115e-02 2.1110678055708852e-02 1.0841166816765001e-01 -1.1331472629841199e-02 -9.6772136544386614e-02 -1.2409008464231067e-01 -2.2003396569142238e-02 1.2284946158035846e-01 1.6971359226841128e-02 -9.2768841980121988e-02 -1.1542682895666077e-01 -7.3225442970023868e-02 7.2626061034972295e-02 3.2479891187600231e-02 -5.9667568047424013e-02 1.0894747217754418e-01 1.1108179853487916e-01 -5.7204837667247169e-02 -4.7319195810044463e-02 1.0481949247497890e-01 7.0500410432673272e-02 4.6700492972045773e-02 -1.0529244798470373e-01 -1.1484170408622199e-02 1.3752622560312094e-02 1.0244076273459415e-01 5.1374307712248310e-02 6.6346536394780234e-02 -5.3307029237601791e-02 -2.0825423698637425e-02 3.0218637603693369e-02 -4.4513288543788099e-03 -6.6268795527280822e-02 -5.7020679967967995e-03 7.7969122535660310e-02 8.2724841452532935e-02 8.3429865382948193e-02 7.8099841568666464e-02 4.2538582172754059e-02 -1.1928041146178597e-01 1.2403788371951281e-01 5.8276573953324355e-02 1.5968930415695231e-02 -7.4069733963994230e-02 -9.4847155967328928e-02 -1.0796122238041939e-01 -9.6092083724134664e-02 -2.2651911613149611e-02 -8.8962923127752710e-02 -7.0874268935530213e-02 1.1209675244062162e-01 5.7005541559852040e-02 -9.3556038047516860e-02 -2.5718610431252665e-02 7.8030287143272745e-03 -1.5807344286924100e-02 -4.9376176093446182e-03 -1.2504151959976437e-01 2.6422791877846359e-02 2.9542124668302670e-03 -9.9568417616294799e-02 -9.8286903518192914e-02 6.7033539342218632e-02 4.8656712087678730e-02 2.3057295797772031e-02 -7.8190482283650400e-02 1.2405443061267100e-01 1.1535752637553312e-01 8.1200047179261450e-02 -1.0696380245361375e-01 9.8566591170565931e-02 1.1768642589855219e-01 4.5641518538752666e-02 -1.1889792499718356e-01 9.8748200058729849e-02 2.3905442406738312e-02 6.1622763022715799e-02 6.9283197633258270e-02 2.0493503321313104e-02 -3.0249370081007428e-02 1.0390788237059595e-01 8.8490532356744409e-02 -1.4785346575294060e-02 -6.1206816769160739e-02 -3.8657710366587156e-03 4.5747157292451842e-03 -1.1848064925026718e-01 -5.8600317839849810e-03 -8.7906176079423845e-02 -6.6615446415961316e-02 -1.0445183874424953e-01 -1.6487907417198861e-03 -9.4796499359349015e-02 4.3989862699100386e-02 -9.4456996034979826e-02 -5.0134658349298540e-02 -5.0458094520051802e-02 -7.2342172269690724e-02 -2.4761571040462043e-02 -8.7626494495417831e-02 2.3539792963001543e-02 -1.1674090932663092e-01 -4.3168276066623157e-02 -1.8252666456335161e-02 1.3894735435352077e-02 1.6859781882075917e-02 -8.0628231643438950e-02 -9.8193255345335434e-02 -1.2534837145983008e-01 3.3672747942058483e-02 -2.6012719283093418e-03 1.1930443532182056e-01 7.6221333100276760e-03 9.8850636219335250e-02 1.6663462984372827e-02 -1.1657461791907002e-01 1.1138346638468172e-01 -6.1387034117842951e-02 -5.6764017850849599e-02 -4.5233586102217269e-02 1.2314636061725780e-01 -8.7615982179780325e-02 6.9775636515319164e-02 5.0429474120257826e-02 -3.8670124526351012e-02 -8.0490831152496459e-02 1.1808242101751386e-01 9.5839517233906282e-02 -1.1719964106794727e-01 -4.3208513099621024e-02 -7.0071995294768666e-02 -7.9199702118663978e-02 -1.1097715701621742e-01 5.5131216782452759e-02 -5.9132957113988187e-02 -5.0867042550764283e-02 -6.2269368316650815e-02 8.1647219048092842e-02 -6.8207163237423998e-02 -3.1206234887027746e-02 -1.1970841404134930e-01 -8.2712501141502543e-03 9.7554428816597011e-02 3.2497236366235575e-02 1.1314815945346506e-01 -1.0377510174011340e-01 -4.3619082965364368e-02 1.0683558776465758e-01 4.2177672693583836e-02 -4.0643821494128651e-02 3.1539880055745109e-02 4.9758908163618373e-02 -6.7728576828192860e-02 -3.6099704818775731e-02 -2.3476359400882371e-02 -9.4555071714884406e-02 -1.0091416215644285e-01 -3.9617259923210135e-02 5.4900820894111940e-02 9.8507095465903402e-02 5.8928729581684061e-02 5.6398853349040302e-02 6.6771932553948057e-03 2.7884163826379982e-02 -6.3301856457520303e-02 7.6928784871888832e-03 9.1016086280846814e-02 1.1270607347895181e-01 1.3569109420190914e-02 1.1545067753721674e-02 -3.3397612088289799e-02 3.5087052398930424e-02 2.5682449857091137e-02 5.5282418078507360e-02 -1.0970175544445819e-01 -2.4754359639189642e-02 2.4552497102412564e-02 -2.1185166200169948e-02 -1.2452833266435144e-01 -8.8019362634436105e-02 9.4432791342657890e-02 -4.6933365079994731e-02 8.7890923999807954e-02 -4.8736544363664577e-02 -5.3617790208747282e-02 -7.4516232121817016e-02 1.0186950895703735e-01 -1.0995176871566378e-01 -1.1648739295652495e-01 5.7156628827663841e-02 1.0434358680212324e-01 3.3408384771756373e-02 -8.6079927720114939e-04 8.1562754156370335e-02 -8.7136216149088314e-02 9.9292419439359365e-03 6.2497733938195695e-02 5.8854770084454354e-02 -4.2003330030987183e-02 -4.7551657589217249e-02 5.6101505292211723e-02 -8.9431021095579183e-02 -7.2966589734063433e-02 6.4087549519774203e-02 3.8841327563792660e-02 -7.3563361219419851e-02 5.5228365773162258e-02 -5.0874668398317044e-02 -3.2310734206204776e-02 -6.7927285137243693e-02 -4.1629212481270161e-02 8.9473690516558485e-02 5.8515068523689026e-02 -2.7523103621206798e-02 -7.8103862895573695e-02 -2.9034429911974007e-02 -5.5180277031557819e-02 2.8881242474299122e-02 -1.1181900881965812e-01 -1.3818650575840759e-03 -7.2163265817427866e-02 7.2109884063644450e-02 1.1585283853622050e-01 -3.4285952596998265e-02 -1.5260134381892101e-02 4.8012478259447336e-02 6.4761081789624739e-02 -1.0011226147351736e-01 4.9535608099835100e-03 -6.7113350523933357e-02 9.1150446097391757e-02 -9.8458844244517105e-02 6.8131317044402548e-02 -1.2441023704616488e-01 6.9146692181201730e-02 -1.0536584879690954e-01 1.7216180209163275e-02 1.1839889043364424e-01 1.0534924171322740e-01 -1.0967017747501417e-02 -1.0921367049967586e-01 -5.7954429879894980e-03 -1.2574442047730741e-02 4.1619291609060118e-02 4.7241983103724801e-02 1.1881745033734634e-01 7.9872599826038199e-02 -1.0391061161952864e-01 1.1841317618696658e-01 -1.1092901328936808e-01 1.1359379811866906e-01 5.9207899876959527e-02 3.9478770419415055e-02 -1.1776469250895097e-01 1.2366193752041290e-02 7.8161247438388939e-02 1.0402649192111650e-01 -1.7904312612847369e-02 1.0291339129538829e-01 -4.0261858002677765e-02 9.0919065685338609e-03 -9.2719755015155961e-02 -3.3951675892157321e-02 5.9301513770510135e-02 2.9470163871181135e-02 7.3440092920481703e-02 -8.2101919436157716e-02 -3.3370387901176480e-03 8.2160322333302352e-02 6.9538764461551938e-02 -4.2292638661270608e-02 -1.0974357498280747e-02 -2.4867643707591390e-02 -8.9235319427936485e-02 4.0499331103307133e-02 -1.1259583883538821e-01 1.1087997461748156e-01 -1.1005219905733025e-01 -3.2531977782483984e-02 -1.3828621968625063e-02 -1.0736972289504206e-01 -6.2692793922930798e-02 -3.9166337275056654e-02 -8.3698893141412836e-02 1.0902464682572972e-01 -1.0788364884420455e-01 -6.7827791750712900e-03 -1.1135404324882688e-01 5.6247463738480158e-03 -4.2581982935490171e-03 2.1017250482216029e-02 2.1789646980721673e-02 5.9121627660192230e-02 -8.9125640277894130e-02 -1.7250030094001325e-03 6.7326450181176946e-03 -1.0226644740299939e-01 1.8687506974415333e-02 5.8414049803246493e-02 1.0080543240943647e-01 -6.6552215867336451e-02 7.6045243126320661e-02 -1.3062045393132325e-02 -5.0340085093965342e-02 2.3706355228867767e-03 -6.6648314613057605e-02 1.5722342174776728e-02 -3.9600238769865945e-02 1.2264240435023918e-01 4.7712967935442656e-02 7.5841048331858077e-02 7.0494023084784960e-02 1.0204867681302929e-01 -1.1361390165922450e-01 6.7939326105449518e-02 -1.3429936703063442e-02 -3.3964678273986290e-02 4.3095529021172113e-02 1.0649651572987305e-01 8.9439971017142461e-02 -8.3272716703223879e-02 -1.8034173805676113e-02 5.1448945104632500e-02 1.2111784300707884e-01 -4.7417186837449589e-02 3.7870268562925469e-02 6.4412261304058888e-03 3.8568849900784991e-02 -8.6819111138206617e-02 8.8675568089220669e-02 -5.4373541182442080e-02 -1.0419805033563077e-01 5.6281153642527691e-02 -4.4177563426649316e-02 -8.1110028668783585e-02 -1.1569768773277912e-01 4.2549561410528016e-04 -9.2924943258102605e-02 1.9516643797732096e-02 -2.4322529269400598e-02 -9.8722212500933104e-02 -6.2405466168630457e-02 9.4757309773360887e-02 3.3583003198727382e-02 -4.7343235185912491e-02 -2.8827720270767746e-02 3.6502646964697613e-02 -8.8191517457414756e-02 -2.2809796653760060e-02 -1.0979045310542633e-01 -1.2211350430430422e-01 -5.0532467944936842e-02 -6.3833874949169714e-02 -1.2045226660634627e-01 1.5954924080878178e-02 -9.3298737959018052e-02 -3.0494702002984916e-02 -8.3644191640482118e-02 -9.9059332942502659e-02 -1.3716727453083414e-02 -1.4222478390237174e-02 2.7171065161970712e-02 -3.5218063715026497e-02 5.0872339413495955e-02 4.9257848926846343e-02 -6.8566997501089202e-02 -3.5008995076142239e-02 1.7927917096489745e-02 -4.9049759618309763e-02 5.1290108477885440e-03 -6.7561835536768255e-02 -2.3010090654195875e-02 9.8634228637262452e-03 -7.0064233517354343e-02 -7.8389446640509106e-02 -6.6860223297762256e-02 8.0468155095192326e-02 2.3768147791614659e-02 7.1041104519095136e-02 5.5586823417800378e-02 1.2506696563326927e-01 -6.0718921758475243e-02 -1.1744168077546371e-01 -8.2644187243821943e-02 3.5037587499740223e-02 -5.6855139361510583e-03 -8.4803166473922567e-02 7.8264143201754677e-02 5.6903856999479696e-02 -9.9581586671925057e-02 -8.5523968048144189e-02 5.1557490223594751e-02 -7.0161949503288412e-02 2.1711107797335354e-02 -8.5558885957887840e-03 -1.1009826855220570e-01 -1.2336632339650157e-01 -4.7796851152251948e-02 -9.7868289410658629e-02 -2.6393746751397981e-03 -1.1201370344711420e-01 6.3280650819813627e-02 -5.7515968580838649e-02 1.2206183541394910e-01 -4.4014094393113955e-02 -5.4375646068186238e-03 -2.7223926276424104e-03 1.2048806960450721e-01 5.6862484899128348e-03 9.9378969385419749e-02 5.2389289215741458e-02 -1.0041919762414876e-01 5.9589893284274151e-02 -5.7580423924779925e-02 3.9071663229806554e-03 -9.6642336984825564e-02 2.2433297425975007e-02 -3.9019396138286283e-02 4.1091560928815669e-02 6.2710115042701936e-02 -2.7040236263496286e-02 -8.1483313836409749e-03 -5.3668710351711751e-02 -4.3022705221431465e-02 6.6114643897329420e-02 9.4295506433276652e-02 2.8052965878242006e-02 -7.5010934566359308e-02 5.3386322922559036e-02 2.0696777208003780e-02 1.2194698539954320e-01 -6.7637356988978718e-03 7.0263029608882158e-02 1.0886992411460934e-01 -8.0434102609586819e-02 -6.0324438949906647e-02 -7.9157746080972938e-02 -1.6931896061845555e-02 6.4646711133739612e-02 -9.7809460170678583e-02 -7.1183260257423137e-02 7.6412025725237712e-02 -9.7763551271475180e-02 -8.3186845496734690e-02 1.1504077098118298e-01 -1.5393665311401990e-02 -2.8442416687122197e-03 2.1188849483195784e-03 1.0512939547429875e-01 -8.9003158937768737e-02 -5.3439475756645455e-03 -4.0762998768924835e-02 -4.6529295503820046e-02 3.6660986691986364e-02 6.8947266436099830e-02 3.1679088113781208e-02 -1.1609522503511049e-01 -5.0893762459794857e-02 8.2535483630415962e-02 1.1019138544016630e-01 6.1762280630106914e-02 -1.0312060830897943e-01 6.0054771994185303e-02 1.0348653665076078e-01 1.2235829790778521e-01 4.1457941244145403e-02 -9.0722472560573419e-02 -7.7857901100986920e-02 5.0360171241969863e-02 8.6274441438298793e-02 9.5900297310016966e-02 2.3283947987531532e-02 -4.6016053321306517e-02 -1.0772011904013125e-01 -2.6486989028440207e-02 7.0878963727474875e-02 -8.3749369810622518e-03 -7.0314366363766062e-03 6.7255742746052765e-05 5.1384195165709778e-03 4.4970617265796778e-02 1.7499618288970783e-02 1.6669984911095254e-02 5.4585188844408807e-02 1.0929806837715602e-02 -1.0856795473903585e-01 -1.2242276070720672e-01 7.1682687638502399e-02 1.6239749097963274e-02 1.0143710429460681e-01 -8.3281764085886445e-02 -3.3958701927461969e-02 -9.7020906961974296e-02 -7.7347320919148699e-02 2.0274271770193669e-02 -1.0030197625492590e-01 3.8430371918289165e-02 1.1357565205682298e-01 1.6421729222210767e-02 -7.5264078965124423e-02 -7.1831174498745598e-02 3.8687471122157986e-02 9.2028482782295657e-03 -6.2370862166309790e-03 5.3643805086435264e-02 -1.1952751329337186e-01 -6.0895523924783701e-02 6.6670217129775056e-02 3.6377593346152093e-02 -3.7371613553191886e-02 1.0139939249876338e-01 -8.2191649509601741e-02 -1.9820414739483556e-02 1.0773668670440396e-01 3.9033621296755860e-02 -7.1823729001619194e-02 -4.7398840425194357e-02 -8.3627117494895278e-03 9.4694374985119067e-02 -5.7656444344370873e-02 -1.0262989336941331e-01 1.0537592841246163e-01 1.2138499968777715e-01 -9.7175717552170165e-02 -6.3927255175346170e-02 1.1919368502253477e-01 -4.4486291516834378e-02 -1.1199681556294720e-01 -3.3672550881090432e-02 8.2916619848288978e-02 4.2628036042520426e-02 3.8575733463244222e-02 -8.0774029273828693e-02 -1.7029536367030394e-02 -8.2820151338998893e-02 -2.4169886923351022e-02 -7.5376749014324984e-03 -1.4955098490867300e-02 -5.6102500333119205e-02 -9.2806112300624591e-02 -8.9082549941196174e-02 -1.5760651389272653e-02 -1.1019490638658719e-01 1.4137934618472707e-02 -2.9233290923388035e-02 -1.1816224959366062e-02 -9.6663879959836288e-02 3.2832147072821748e-02 -9.0688329657200875e-02 7.2614350354224646e-03 -5.0479048476109012e-02 -2.2692774953017629e-02 2.1992240361528796e-02 4.2364508780906522e-02 1.0481924161680703e-01 -1.0626209383700898e-01 -5.1243616058154209e-02 -6.4975967001543030e-03 4.1832236507194052e-02 -1.2487534673950197e-01 -6.6962074749584953e-03 -1.0270058861662039e-01 1.1906689947610036e-01 8.8389376874078038e-02 1.1935975642819853e-01 1.1886143920280294e-01 1.0897801247589407e-01 -7.7906738613132243e-02 -4.6104272075027479e-02 1.0155790561315217e-01 -1.8369542239649463e-02 -9.8394751405731021e-02 -6.3086503955897100e-02 -1.2389443551121208e-01 -1.2417445982852118e-01 1.9454682292473175e-02 -1.6914475776717754e-02 -8.4751974210491937e-02 5.6845106708399380e-02 -9.1310170070861993e-02 7.5849772720861172e-02 5.7407408196494467e-02 1.1799101215767210e-01 7.2599205366338279e-02 1.1256787215114167e-01 -5.3536906058829027e-02 1.2464590765209789e-01 -8.8514336958261941e-02 -1.1047676931357409e-01 8.5708518236239692e-02 5.5593538167279834e-02 -1.1515215475053331e-01 8.3540869735510198e-02 -4.2176417415892573e-03 5.6817517583655525e-02 -2.3264642960802870e-02 -1.0718271531160573e-01 -1.2067833940516523e-01 1.9819843135125838e-02 5.8716313160524065e-02 8.5885352164751828e-03 -3.9087828574183553e-02 -6.5363522916027622e-02 4.6289203699968591e-02 -2.4237313429794859e-02 -6.0097110918225114e-03 7.0407964315888943e-02 -1.0931176207689080e-02 -1.0089289024255013e-01 4.5264116816943402e-02 -1.2325565439287477e-01 1.9519263237059339e-02 -1.1430270308278563e-01 -3.5811607665959572e-03 9.2863949030063661e-02 6.8294103821489621e-02 -5.1373400781477285e-02 9.0259060879606737e-02 3.1999463327915881e-02 -1.0401039192030703e-01 -1.6521002418451627e-02 -7.0495481810996546e-02 1.1838283462635067e-01 -1.1109023850078584e-01 4.5005645691338331e-02 8.6645913571821803e-02 -7.9158322956792912e-02 -5.9290800494171771e-02 9.0491802720409256e-02 5.5267702616550562e-02 -7.6466787276473547e-02 -1.2153872631163926e-01 9.4646896885420551e-02 -1.3240643511585038e-02 9.6553097296337903e-02 2.5424253046910428e-02 -1.1235609836145920e-01 -8.2224175685494671e-02 -1.0831384309128460e-01 -2.6614893141471037e-02 6.4461664928945964e-02 -7.7150980103158684e-02 8.6468722721591666e-03 -9.6272997676600899e-02 5.8033400640423040e-02 -5.8041891476891955e-02 3.6844414282787404e-02 1.0912388548557449e-01 -9.6159688303983012e-02 -1.1798725775299437e-01 4.8408731590502900e-02 7.4285773343918893e-02 -2.8031119864699479e-02 5.1169880467998863e-02 1.0148236342937049e-01 -1.5802730639562262e-02 1.2343847895092964e-01 5.9725941229661766e-03 -7.3048919853789779e-02 -7.2714295544378083e-02 -5.8643707348172321e-02 1.2175402457229759e-02 6.3964482737935688e-02 -7.9486941618197901e-02 1.0798940774214991e-02 4.0176347635924543e-02 2.5214608409453994e-02 -1.1987026266847767e-01 -8.4180899839110576e-02 -5.8871161566693433e-02 3.3970064221395348e-02 3.9810001365030278e-03 -2.9228198758649258e-02 7.2845235698320118e-02 4.8034829513572838e-02 -8.5990655669586427e-02 -3.6057095907018520e-02 -7.0015132474107412e-03 -1.2314052202948157e-01 3.3499575142061117e-02 1.0500548552729173e-01 7.2971895447851483e-03 -7.3783340130597230e-02 1.1567657745558492e-02 7.6287163642038717e-03 -5.5927164823026655e-02 6.4268220789518701e-02 -6.3535909185666595e-02 -8.7175869410266414e-03 6.8204985208697666e-02 -2.0935804910943462e-02 6.2939369592853706e-02 -3.3009789416310525e-02 -6.1004295821373442e-02 8.4703419340660960e-02 2.0844695576177841e-02 6.5866274410341027e-02 -4.6592699089424247e-02 -3.2272909925368604e-02 -1.5766061469479675e-02 -8.2332322562655852e-02 8.1397841994432410e-02 7.1433084636937455e-02 -1.7162152178782534e-02 -2.8968812572777378e-02 9.0592110713705959e-02 -2.5601535428030901e-02 -1.2094010250668043e-01 3.8224811850881561e-03 -6.7093777586510708e-02 9.8463323354251384e-02 4.1597782557113924e-02 1.8893501229940018e-02 1.0826716365387163e-02 5.7756230199144831e-02 1.4771927193151915e-02 8.0506077088381631e-02 3.4082060299883851e-02 7.6240316325475982e-02 -2.0813660256385497e-02 1.1786278995029989e-01 5.0847007803521985e-02 5.2621174830657064e-02 1.7204370974576506e-02 2.1471654475457125e-02 -8.9174737269942114e-02 -1.0493249474036040e-01 -2.6824773386147159e-02 -7.5764457465061302e-02 5.7405988059485519e-02 -4.9466894522756759e-02 3.0071578248985670e-02 2.2492093427245258e-02 -3.2528364260587014e-02 -7.5951710000470738e-03 7.5408378064320380e-02 -6.8894139615032740e-02 6.0105269826432287e-02 -5.9872952024532272e-02 2.0620124977338818e-02 -1.0128596786731302e-01 4.6473099938741255e-02 -1.0059932693243469e-01 -1.1451732987762733e-01 -1.0972049500020338e-01 -5.5452963861253824e-03 -5.6845019999349079e-02 1.0765619086940022e-01 -3.5347345109164839e-02 -8.9634824111405512e-02 -1.0746906291570335e-01 6.4046516586295094e-02 7.6786458854596923e-02 1.1764805389870210e-02 7.2466628471682587e-02 -4.6071480146741360e-02 1.7388964073069689e-02 -8.6575979227152142e-02 -2.3948018698751773e-02 7.4022040879180601e-02 -3.7652339418006796e-02 -1.0059060858634200e-01 -2.5144033378874664e-02 6.8451489660064438e-02 1.1340465170191069e-01 -6.0771315751569938e-02 -3.3980745290060975e-02 -4.1271842707926457e-02 1.1857430429440982e-01 -3.6201882972967017e-02 -5.3234480463626443e-02 4.2668463282182038e-02 -1.1833904157007004e-01 -9.9538674459563187e-02 -1.2132307103899083e-01 6.5313176281871332e-02 2.4869591616633953e-03 4.3923950477921421e-02 5.0173147974773576e-02 6.7785289537729873e-02 -8.7264135402560658e-02 1.1184909259215770e-01 -5.2749411064730044e-02 7.2270615878968783e-02 7.5182767639642809e-02 -8.4826609268500400e-02 1.2300390944992361e-01 1.1676232274039287e-01 -9.4132163640585437e-02 -6.9670077112471168e-02 2.3745785075506034e-02 -1.0259268113756284e-01 -5.3706623171147451e-03 -4.9739966228776474e-02 -2.7281985948144821e-02 6.7586940221938022e-02 1.1428917264535707e-01 -5.4913626744990639e-02 3.6941675752360313e-02 8.7199618205589025e-02 -2.1091560642553697e-02 1.3425994307435275e-02 -5.4693513983961412e-02 6.8583242419981566e-02 -9.5960868366242985e-02 3.2148270623700556e-02 6.2986483208811242e-02 -2.4244408682434521e-02 -5.4612748361902150e-02 4.5757115011652090e-02 -1.7473314788199395e-02 -8.2619197429736890e-02 -1.1573619325939484e-01 1.5002794489258686e-02 -2.8967262975893537e-02 -1.0295797692817509e-01 3.9004854167624732e-02 8.0896226384194539e-03 -6.5732372616954790e-02 8.7162835578470904e-02 -4.5111798203521208e-02 8.8969755462810635e-02 1.0649497803185506e-01 1.2096304528534221e-01 5.9785947566307592e-03 -1.1493662790590255e-01 8.5724599985104205e-02 -1.1138182586345061e-01 2.2919360399065367e-02 9.3277144163087036e-02 7.9646080529992974e-03 -2.7085562997804357e-02 1.0003638877255103e-01 -2.4815657993025361e-02 -6.4036665820706218e-02 -1.8317823612489854e-02 -5.0796757529663963e-02 -1.2602686556345576e-02 -2.0720596235160888e-02 7.7832464742075183e-02 7.2866727684743227e-02 8.0643215103546162e-02 1.2536505455326726e-02 -3.6551043161559264e-02 -7.8149806883598183e-02 1.0594363006707197e-01 9.5798334391093032e-02 -6.3209662232715430e-02 5.3354796804824210e-02 -8.3645163799401165e-02 -9.8276444314328693e-02 5.6332758918223869e-02 -9.9827656481795340e-02 -1.2010149269706233e-01 6.4149330327992582e-02 -1.2364197875366646e-02 4.5172643316170241e-02 7.6736073075670624e-02 -1.0791865327437908e-01 -4.0176841916183995e-02 9.0821858344628734e-02 -6.0330035351007810e-02 -6.9638834988692125e-02 -6.7808669736702382e-02 -6.8760767587553298e-02 6.6002272936609818e-02 2.4864849078834950e-02 1.2924112175623514e-01 2.5541057320024381e-02 -9.2817382598190792e-02 9.9088031704733487e-02 8.4324623944367572e-02 7.3643404968549856e-03 5.4573911454853845e-02 1.2915409554366930e-01 -1.0462122493263686e-01 1.0711851576424102e-01 6.8108347952005918e-02 -5.0773784816498968e-02 -5.2955438794002947e-02 9.6335913659022859e-02 -9.1977075119504773e-02 -1.0858803661829522e-01 -1.1621932720581594e-01 -8.8443103529193795e-02 -9.9140426738359363e-02 -1.7479391188473165e-02 4.8806629944273497e-02 3.0948511105425097e-02 6.6654105414635789e-02 3.1626999695475258e-03 -5.9330532331598441e-02 -1.1887096546743069e-01 -1.1488229388981212e-01 -2.3044656971835929e-03 6.4076987799110393e-03 1.9233831469668471e-02 -7.5310047199878619e-02 1.2264437320329813e-01 3.7787989277846289e-02 -9.0218903277303211e-02 -2.2062007795208239e-03 -1.3475932943667949e-02 -5.9864993661119239e-03 1.1331646915897656e-01 -7.3467579277237946e-02 6.6463526566277464e-02 1.1633374278493731e-01 3.5249221624372079e-02 -6.9121422701103621e-02 -1.1243208476915380e-01 7.4861192859031117e-02 2.7676258347321406e-02 -4.4051167419227148e-02 4.1196847611221542e-03 3.4354335585205409e-03 -1.2640044220196120e-01 1.0959183705584782e-01 -7.3598901350856227e-02 2.1782738713241549e-02 -4.8601003744504288e-02 -3.5866882629788863e-02 -1.3508579460964829e-02 6.6637822576226399e-02 2.6954730981593115e-02 1.1394041885350187e-01 -7.6059551554428687e-02 1.1809426450700532e-01 6.1637267257374492e-02 -9.8372597515608465e-02 -1.1616699854911765e-01 3.5697976755801698e-02 6.2039337580931081e-02 3.2476835925359125e-02 5.2191529843040825e-02 -5.4964191377060705e-02 -8.3610563229252095e-03 8.6962763759069611e-02 1.3785064649167520e-02 1.0755799852027716e-02 -1.0346884758243718e-01 -2.5787951238957954e-02 9.0719310626966837e-02 6.2043041305004473e-02 -4.7095391120988379e-02 1.2165757897203167e-01 1.1706830292656129e-01 1.3148586804002757e-02 2.9808000602538694e-02 -6.2447001786149106e-02 -6.6108102882343964e-02 -2.0505499961478699e-02 -6.8787058358261363e-02 -1.4656141723695951e-02 2.1205657448683683e-02 -6.8306242701244482e-02 4.8121851067364094e-02 -5.7419076333608959e-02 7.9394628096362260e-02 -7.7795029462442752e-02 6.5438713307356122e-02 -2.8398191702612135e-02 2.6285957199459239e-02 -5.9262809533534244e-02 -6.6647475253070146e-02 1.5824547176657426e-02 -1.1184326518650469e-03 -9.8253992039865443e-02 9.3669076904803847e-02 3.0025532743936455e-02 6.3621455870222207e-02 3.2776651380320328e-02 6.4679592931036894e-02 7.6663466936470193e-02 3.4626661915416766e-02 4.5532964320632190e-02 2.9615860672281578e-02 4.5633873866933558e-02 1.1100671443146763e-01 -3.4675249022884234e-02 -6.4203146658844995e-02 1.2375426481870377e-01 8.0906873265108925e-02 9.5275347451916570e-02 -1.0682451307109887e-01 6.6542532606387511e-02 9.3028833159148491e-02 8.4037465843730605e-02 -1.2086660208335656e-01 9.6106573712563551e-02 -1.0328752739896938e-01 8.0387352535758988e-02 -5.5441231046608199e-04 -6.0807901424288421e-02 -8.3930689400340874e-02 -1.0639792896108430e-01 3.8012410642588271e-02 1.0077928371984098e-01 6.2243096455179933e-02 1.7721551446029375e-02 8.3405055341435011e-02 -1.2295828963358507e-01 1.1825216173629666e-01 -5.0598977629479305e-02 -1.2085743041654035e-01 -6.7848193495989487e-02 -7.0370300325229049e-02 7.1421378678396805e-02 -7.7489828003298525e-02 -7.0327162079543190e-02 -2.0404039129011984e-02 -5.2660901828573414e-02 -1.2332014570785747e-02 -7.7303980131098127e-02 1.6798542600476862e-02 8.9252292907992289e-02 -2.2731910663410574e-02 -2.0755167819784592e-02 1.1307897248163988e-01 -2.5873245995995456e-02 -7.7429739749115989e-02 4.3767052971843377e-02 -8.4188454189188910e-02 1.1292447971425287e-01 9.6878099025791437e-03 -2.0231984425213331e-02 1.1608181905725271e-02 -5.4872098561315717e-02 -7.7721524716451967e-02 -1.2314321960026359e-01 2.7597518861121422e-02 1.0934036681393751e-01 -3.9498041101404820e-02 -8.8508625941063485e-02 -4.2670407254581301e-02 1.1700910228463629e-01 -4.5900345804869248e-03 1.1300544608215399e-01 9.9923312222072680e-02 7.2943249425487730e-02 -9.6377876102733545e-02 1.1817364024156640e-01 -6.8361274792290080e-02 -9.1556082900584090e-02 3.4695216463867085e-02 -7.0905309229757574e-02 2.6573395626977570e-02 -9.1771525687511082e-02 -1.9275936474870227e-02 -3.4625345947217410e-02 9.6744014203451328e-02 6.6779877042683858e-02 1.2022156991198123e-01 -1.1746507916759129e-01 -5.2068045104903489e-02 1.2143749943906619e-01 5.0693463370558897e-02 -1.2254880955384140e-01 -7.6875703328117231e-02 -4.1404081570654297e-02 -1.5804576688659248e-02 8.0227586999599976e-02 6.2642478661421707e-03 6.2240685495102928e-02 -1.2106459533263837e-01 -1.1288907390699803e-02 -1.1318377267524475e-01 3.1626335864047402e-02 -4.9089021027744805e-03 -1.0727046621764832e-01 5.7146086333142235e-02 7.7366553221041384e-02 -2.7706587873123224e-02 -2.7151891544685374e-02 -6.6527052072982124e-02 -7.1165188921732236e-02 -1.0900575893435717e-01 2.1942311333643674e-02 -9.2273541419668481e-03 -7.6520204224225452e-02 -1.1508599600856802e-01 -1.0848464627945309e-02 -1.1076012600545880e-01 -5.0579679536815469e-02 -4.9576149469636607e-02 -9.1887370080114855e-02 -5.2312969220011364e-02 -3.0940601192855216e-02 -1.7131708568094241e-02 3.4857939288192454e-02 3.9397524149226096e-03 4.2530969179288447e-02 1.1935235067129546e-01 -5.9831750677998514e-02 8.4617098016060183e-02 2.4542840755707184e-02 -9.3759730014855561e-02 -4.4381725679853413e-02 4.1426732043306734e-02 1.1784991808830358e-01 8.0490846585049500e-03 1.1651548862068870e-01 -5.3698411196542138e-02 -1.6167078304863639e-02 -1.7037212978896769e-02 -1.4449133258705737e-02 2.6324087685182192e-02 1.1126504547689535e-01 -1.1616837294628217e-01 8.0047127334218288e-02 1.3774785366648787e-02 -5.9125310398209924e-02 -9.4929412307724129e-02 -7.4690364958230657e-02 -8.6799278577434982e-02 -8.4305189424772053e-02 -5.0274891265958313e-02 1.2267843320311907e-01 1.3597996170890116e-02 2.6119762084889635e-02 -3.1856378350652914e-02 -2.2208731767670631e-02 -2.7974460208506930e-02 -3.0221879178660621e-02 7.9752037540462548e-02 -6.7345081048816313e-02 8.6047265963943284e-02 -1.0541790444243185e-01 1.2019582528873850e-02 -1.0015416041382695e-01 5.1394196153869750e-03 -1.0663531814421880e-01 8.4241636060519570e-02 -6.4458349473702506e-02 -6.7135268933347758e-02 7.6664888099596314e-03 -2.1114636790390297e-02 1.2494151760550880e-01 8.9158021214136865e-02 6.5840739341353052e-02 -8.5642416486977430e-02 -2.5586436347244695e-02 -8.9412597622561762e-02 -3.4723122859907263e-03 5.5004362379104622e-03 6.4323876398944629e-02 7.8707475224908535e-02 -7.5525441077243960e-02 -6.7995826132064729e-02 9.5813668890575951e-02 1.1085592838985517e-01 4.8670861059497084e-02 -1.0556967411891541e-01 -8.9891704477999462e-02 7.0026903252837308e-02 2.0378755718901076e-02 -8.7269520071253798e-02 1.1312759487594071e-01 7.1692334531438570e-02 9.5137726628961833e-02 9.1951218561777306e-02 -4.3432405908038409e-02 -5.4126402023390058e-02 -4.9977439063504665e-02 1.0175616252935654e-01 -8.3969918126830967e-02 2.5805032002692668e-02 -7.3215902625205581e-02 1.5869381429112563e-02 -1.3057914767222772e-02 -1.1110653907614582e-02 6.2783962875367250e-02 -1.3291895107775080e-02 1.1883199760323142e-01 5.3006174791876616e-02 3.8186531798476281e-02 -3.3218113974288262e-02 -7.1446387960763302e-02 8.8647317235454950e-02 -9.0150940016361036e-02 -6.9441798163453000e-02 1.0776535356088680e-02 9.7468082198294059e-02 1.0788239707096423e-01 9.0999410801309619e-02 -1.0287359087423258e-01 -5.3859917724479053e-02 -6.3882510703010889e-02 -2.5006986735922707e-02 2.3003136970784797e-02 5.1812574754535809e-02 -7.5358422144078827e-02 7.0770332736482630e-02 -2.5630572249724235e-02 -4.1985778299131117e-02 3.0512560987487961e-02 7.7275159384156300e-02 -7.8322951317134029e-02 -1.7739859329235018e-02 2.9308522048918854e-03 -6.6650847986775522e-02 8.9066280042881696e-02 -1.0024312733845667e-01 7.2684755644518734e-02 -1.1325998772078417e-01 -3.4766193498899596e-02 -3.6078247945301851e-02 -2.2087828251174890e-02 4.6211404019851812e-02 -8.1502055054160916e-02 -3.1835204588511419e-02 -9.6662146730955301e-02 3.8846415023131353e-02 -7.3928855700187049e-02 -1.2082988206152789e-01 6.0163475207108616e-02 -9.8330355135521630e-02 -3.9262735027143690e-02 9.6617938252143085e-02 -6.5242577658831902e-02 9.7658372553525302e-03 -3.7940258685655093e-02 3.0798700465305216e-02 4.9139166132716128e-02 -3.3882745553320666e-02 -9.1690419297459774e-02 1.0888313832051057e-01 6.8442029191234474e-02 -8.5518167779858392e-02 8.8927252674323928e-02 9.1692660999355760e-02 9.7378052557110489e-02 1.2354695799198770e-02 -2.6988421859039127e-02 9.8549971766659486e-02 8.9476936013321517e-02 -4.1412831433646130e-02 -3.9751301172030219e-02 -7.7767570578026440e-02 1.0365619589746283e-01 7.7566988150335227e-03 -1.2039708479842703e-01 -5.2786167544325920e-02 -1.2352923370521640e-01 -9.1103661873171454e-02 -3.9153161082756141e-02 -2.3095013875851431e-03 -7.1007226809435026e-02 1.5007196993076292e-02 1.8067235853941783e-02 -3.5474926807095394e-02 -6.2091350696267290e-02 3.7304304524740914e-02 -6.4472790262117247e-02 1.2102766103316377e-01 -5.4721490245018302e-02 -5.9360515813771567e-02 -7.0120339016950001e-02 8.3179872098156582e-02 1.1911270037977816e-01 -1.2283179492998250e-01 3.1121483281642520e-02 1.0245419937562601e-01 2.7430814046579379e-03 4.8582239830948566e-02 6.4983271670036896e-02 -6.7375493292046895e-02 -7.4135431018056183e-02 1.0353945925221296e-01 1.4083790122251777e-02 1.4340588502282854e-02 7.3688953279516384e-02 4.1237369801137215e-02 -9.6408289508737709e-03 -9.6207161852555040e-02 -1.1516033956981078e-01 3.4312236928817318e-02 -1.1715274179617415e-01 -7.1349473816884515e-02 2.0739517450773143e-02 1.1458226896960261e-01 -1.0619851664812963e-01 -7.9259787768404213e-02 1.1126187475821420e-01 2.5318957708860987e-02 4.6412874995348109e-02 -8.6027605964382175e-03 -9.3960437966303781e-02 2.6493134814876564e-02 -7.9349395462021383e-02 -1.2194075066519930e-01 8.5052692493367679e-02 8.9044911361144344e-03 4.3640389635588264e-02 -4.4520827657926157e-02 -1.5097192672550521e-02 2.4879138035331191e-02 -6.9705330991762599e-02 -5.5408377328821243e-02 -1.1164617702064514e-01 -1.3033405475964310e-01 -2.1416641247957700e-02 -2.4188763820359657e-02 8.1002974538153416e-02 1.9180547393701591e-02 -8.6663652603386036e-03 -3.0706998985317781e-02 -1.1845898429253615e-01 1.6221635697326008e-02 -1.4659069148608901e-02 -2.7292798874435472e-02 -7.7289424523302744e-02 -3.2000794623282577e-02 6.0630122520564857e-02 1.1233755134051841e-01 -9.7077094122816898e-02 7.3343628210639666e-02 2.0708908679883991e-02 -7.0051066661711070e-02 7.6470324766127126e-02 4.4888088864067005e-02 4.0303807601054883e-02 -9.1751317467368101e-02 8.3477072300930738e-02 -6.1561692822974856e-02 2.6533239721645941e-02 -2.5529454076272075e-02 1.9571933074230954e-02 -1.2609859136753471e-01 3.2821227039584983e-02 -7.7677898567842822e-03 -8.8059523165293405e-02 -1.3824107101409881e-02 4.2758582423270249e-02 -3.8287920882611591e-02 -1.0967626378611507e-01 -7.1638756567459758e-02 -1.1664063465356247e-01 1.0476441086352553e-01 -3.2829443582676865e-02 -1.1676228677578940e-01 4.8115043146670429e-02 -5.4867605074290296e-02 -5.2345332616122148e-02 6.4957282153208618e-02 2.3607394206796677e-02 -1.0036720339147714e-01 6.4406397263648940e-02 6.3993753773917292e-02 7.9058643241397678e-02 5.2632268817080288e-02 -1.0823120775121423e-01 -1.0849914755305157e-01 -1.1003706677572087e-02 -4.7126397944110207e-02 -4.4947015558687378e-04 9.4930077319789530e-02 1.0756142828929666e-01 7.9249643565626651e-02 -1.2120230068819047e-02 1.0904177250310448e-01 -7.8906705720622555e-02 4.7842215206297086e-03 -2.6803414608538127e-02 1.2237840313953663e-01 -3.6291102800658372e-02 -1.0000997263929598e-01 8.5225147742053170e-02 1.8159250042705258e-02 -3.2460224269969161e-02 -1.2103363994283733e-01 -5.7613514928384471e-02 3.7103507057740001e-02 -1.2518608523920546e-01 3.7493222309091433e-02 4.9503598023918592e-02 -1.2729335638469791e-01 6.4761735946893675e-02 9.8263827712577966e-04 1.2245976025113131e-01 -8.1052788746622001e-02 -7.1071281611320175e-02 -3.9966458381774372e-02 2.1501500315976529e-02 9.4975671590410288e-02 -1.0488125677117249e-01 9.0808300036826661e-02 4.7600463825128156e-02 -8.5166949934633793e-02 -6.6857059861218218e-02 -8.5090413724381864e-02 2.4728655838614895e-02 -4.5961356923508855e-02 -3.5966328660625136e-03 1.2139071054081620e-01 -7.2417430171106564e-02 8.5040255568605214e-02 1.0642951999568882e-01 7.4655304108877843e-02 4.6798694201806587e-02 -1.0445311204108008e-01 1.2197638911022159e-01 -2.1710375547108723e-02 -3.2960880814536221e-02 8.7071412097227158e-02 9.3858259861798618e-02 -5.0299388397780351e-02 -6.2960559175473482e-02 -3.0766593557461152e-02 7.2358252542726237e-02 9.7755836953250200e-02 1.0425183624917642e-01 -7.7154139305933206e-02 -4.8518989262740113e-02 1.0120046350919971e-01 -2.6166293169583302e-02 6.2010687093675319e-02 9.2818401139577011e-02 -4.7841106416687977e-02 -1.2191773726811660e-01 -3.2934154588579824e-02 -6.3862103909917978e-03 -9.2577354133218159e-02 -9.9683927578263609e-02 -2.3670267560517412e-02 8.6360022804399639e-02 1.6511466428623920e-02 -1.3679742036118697e-02 -1.1222125941541379e-01 -9.9982479560703968e-02 4.1920493878369061e-02 -3.5799958682291952e-02 -3.9726606882464238e-02 2.1567874265397496e-02 5.8925722537663545e-02 1.0027712958316751e-01 1.1844188961348437e-01 2.0546864071368646e-03 2.4687651080272745e-02 2.1167203081428537e-02 -1.6314165946987324e-02 4.6414609880508478e-03 6.8168816036241850e-02 -8.2065846152555841e-02 -1.0429273939130282e-02 1.2440081545782301e-01 -1.2123455209698708e-01 -5.8561834162946511e-02 -4.8589456603417007e-02 -1.7797535363968407e-02 -1.1756921953160995e-01 -1.0038935261111019e-02 2.4834386106969676e-02 -6.7804625161620169e-02 -3.4059825196679980e-02 1.0814364775291406e-01 -1.1682863057578047e-01 -4.1474287643135356e-02 1.1123520785709193e-01 -3.1714584370925086e-02 1.4710650944561952e-02 -8.3108573369417502e-02 -1.5141945079410427e-02 -3.8689350121231078e-02 1.1972879765319690e-01 1.0375419553415792e-01 -1.1392248985640013e-01 9.7398799236709854e-02 -1.2063754455086634e-01 8.8180665733328029e-02 -5.7816018044035133e-02 1.6613724392015593e-02 -7.5727493906663397e-03 -1.0355856255165907e-01 1.2139219053580422e-01 5.9655688331484026e-02 -4.8073050614045688e-02 -6.3231627660549740e-03 6.7295934243790517e-03 1.2374763350354159e-01 -4.6063192090551285e-02 -1.2323348838168945e-02 -1.9293193499664112e-02 3.3264015836096004e-03 -6.2867193545676520e-02 6.0694521156007576e-02 4.6237039842660109e-02 -1.8298429397179010e-02 7.9841944370181328e-02 -1.9809986604861947e-02 -7.6858041595071896e-02 9.4351982203156867e-02 1.2722720795890340e-02 6.1438432522299365e-02 -7.6067072079696457e-02 3.8992367508185445e-02 -2.4220539523914786e-02 1.1626817739426817e-01 6.6102312741134123e-02 -9.9347939338304728e-02 1.3608673588783036e-02 -2.5784692547637919e-02 4.4175531329318687e-02 1.0837788315698961e-03 -1.0736291232633470e-04 -1.7424436353379529e-02 1.0513748100879133e-01 -9.1386852522044121e-02 6.1113120335814203e-02 3.8531856810022483e-02 -6.7812945103510602e-02 3.4990531896633134e-02 8.1550180164711258e-02 -1.1237689198737590e-01 -3.6657165146290603e-02 4.8778508099901551e-02 -8.8582485183815160e-02 -2.0238078893083704e-02 -2.6650715095582249e-02 5.2985581195546305e-02 -4.0820007127917474e-02 3.1374065954550327e-02 1.1969109459777997e-02 1.1279627744031583e-02 5.6900346865097727e-02 -1.6810979167622978e-02 5.6534152901290206e-02 4.4103484048363548e-02 -5.2512631514504846e-02 1.2001573149224168e-01 3.6771159721709690e-02 1.1325472374341592e-02 1.1365947222087364e-01 3.1788582436701851e-02 9.7681762862985966e-02 3.9610117226763136e-02 -2.9828659401623204e-02 -7.6562510506463344e-02 -9.3473738275714771e-02 -2.0635786625306251e-02 1.1957958531154819e-01 5.7587548829468056e-03 1.0586691641083935e-01 1.1650411777513053e-01 -2.2466584631358873e-02 9.4899439949499731e-02 -8.8339277713574652e-02 -9.2814689911414935e-02 9.3165553790489894e-02 7.2662171498822772e-02 4.3614485966772532e-02 5.2563536713986288e-02 -5.9164205533095968e-02 -2.8322274243241870e-03 5.8824402550810978e-02 -2.9654344627261128e-02 -1.0771110542077249e-01 -6.2981766893536156e-02 -6.1602231943415581e-04 1.0372377584044976e-01 6.4459357052095937e-03 9.2461032098747731e-02 1.2063423063259066e-01 -1.2160228822749734e-01 7.8152526363534772e-02 1.0676377212756365e-02 -8.4622480540474554e-02 -2.1779865157270512e-02 -1.9888121565999707e-02 -1.0376746024441834e-01 7.9266139013180817e-02 8.8652120783494590e-02 -5.0389803092555509e-02 1.0360364786061568e-01 8.9713838886415084e-02 2.4967197318072617e-02 4.6981977388286050e-02 -1.1218146241075194e-01 7.3536930373400353e-02 1.0221750039599146e-01 -1.0410078279626211e-01 -4.4316477778447855e-02 -9.9807158326239293e-02 -1.1547746012058867e-01 -5.7615527901359417e-02 -1.1803491824845590e-01 1.8503836288602971e-02 -2.7814200543422589e-02 -8.0974752856985882e-02 -7.6749815465786950e-02 -6.4038538411988311e-02 -6.8472971927795431e-02 6.1997072328488653e-02 5.1463685134960843e-02 1.1200004430619045e-01 1.1645092078748365e-01 5.7866038226939899e-02 -6.9990326860923990e-02 -1.0554140280729618e-01 -6.3889900270821046e-02 -2.0364887904339213e-02 -7.2515305032994984e-02 -8.6450328305144111e-02 1.1040464269269974e-01 -1.0245445711944418e-01 4.5888362821770902e-04 1.0351427916638518e-01 -7.2449467920676983e-02 1.5533340626345111e-02 -1.2530916632062909e-02 -6.3924263824847116e-02 3.2891274369976992e-02 -4.9529334342458362e-02 -4.4834099820221469e-02 3.3798405178535509e-02 1.1610704929591391e-01 6.8198406901604058e-02 3.8995055679225061e-03 1.0920137347034993e-01 9.3478007082797188e-02 -8.9426478763009090e-02 -7.4817660855015051e-03 -7.7275726566063671e-02 7.6121440561744858e-02 -1.1107363115223849e-01 9.5053246274770936e-02 -1.0688937511314500e-01 1.1052776761391752e-02 -1.0448825877119888e-01 -8.9870960464511346e-02 -2.3421736181928447e-02 -1.0076852453735154e-01 -4.3420111189804232e-02 -7.0454507015075907e-03 1.1950295053729046e-01 3.1189629753941770e-02 3.8063313748997400e-02 -6.6301760886833400e-02 1.5503873648718977e-02 9.9747149477964328e-02 2.6934785202066634e-02 -7.6160652756282282e-02 -1.1510930634881807e-01 -6.6697095809627627e-02 4.6739354855997388e-02 5.7781549434837215e-03 6.1987534331360818e-02 -1.1150073627986842e-01 -1.2508759515229376e-01 -4.5592414348520537e-02 -5.1966304104125047e-02 6.0345686947952306e-03 1.9431672483370441e-02 -1.0317477317332659e-01 -6.9437043853955854e-02 1.1741550067716346e-01 6.9725747847675936e-04 7.6705578163758961e-02 -1.0882568907439247e-02 6.9857364841086442e-02 1.5450670818605879e-02 -5.2364563796238446e-02 6.1075954770374065e-02 7.0337252676135831e-02 4.9957816837566039e-02 2.4067965115107812e-02 3.4975556695794927e-02 -7.1274637443370106e-02 -1.1100264264836930e-02 2.9617497106826852e-02 -1.0502021033228494e-01 6.1733037872546088e-02 2.3978779908342962e-02 9.8911545920570120e-03 -7.2201571250470552e-04 -1.8801781213738441e-03 -1.1840786638687664e-01 -1.2816656292332410e-01 -2.3011259011952456e-02 -7.3700473540169134e-02 -4.9435309949541262e-02 9.6347359535675053e-02 1.0442442691207317e-01 -3.0295281626090395e-02 2.7783095719457411e-02 5.4236720889141027e-03 -1.2078554884137803e-01 4.8645105073139266e-02 1.0411466937981473e-01 5.0158978836094367e-02 -6.9537186560429606e-02 -6.0058154296518368e-02 1.1366917592842377e-01 -8.7251286863280056e-02 -5.5907089698352341e-02 1.0043034517666928e-01 -1.2395956739074930e-01 -1.1431660774535186e-02 -1.2568938066051649e-01 2.5035891415299241e-02 7.2327563713948065e-02 -4.8957806195068537e-02 -6.5896019492093769e-02 9.1546666837402285e-02 -1.1872526917968221e-01 8.1382823254321501e-02 -1.9058414404647939e-02 -5.4489672089762159e-02 -8.5238167318015035e-02 6.2202132714594127e-02 1.0571054929631327e-02 -4.5011821650079560e-02 2.5802888178338923e-02 5.4273039413042137e-02 -8.7745117235183870e-02 -1.1672657173382865e-02 -1.5491404877897323e-02 1.3366592854552771e-02 1.0338736431401717e-01 -7.9434644653898809e-02 -1.0786753607445364e-01 -2.0787042864058348e-02 9.0660735856032584e-02 -8.5619680138223714e-02 1.2551573397015556e-01 -2.1740314673117784e-02 9.9850019236487009e-02 -9.0298688011845346e-02 -9.0079513987717699e-02 1.0967585296118344e-01 1.4112469207107200e-02 -7.3825733537424360e-02 -4.6753210671532978e-02 4.1226312611509719e-02 -2.6203165942158572e-03 -7.9357096041357197e-02 5.1910215835244959e-02 4.3060803124976378e-02 7.7996838741858268e-02 -2.0930327744017364e-02 2.8532549363359735e-02 1.0251578783457765e-01 -4.7254203389348957e-02 8.1636701571684164e-02 1.1501357082835371e-01 7.1360482474931611e-02 8.5840327578387846e-02 -2.6397949905672818e-03 -6.6044082885150082e-02 1.4101443752445541e-03 3.7624786929715881e-02 -2.3062896030891799e-02 -1.0288374889853649e-01 -8.8051760691875827e-02 -1.6819919971249809e-02 9.9626071742822276e-03 1.0941248177674351e-01 -7.4111531180210577e-02 -5.0626300900688571e-02 -1.4140814718884636e-02 -5.3173009747197741e-02 -1.0302790182960388e-01 4.0200538867426854e-02 3.9259609639019949e-02 6.0355557454393083e-02 -1.0233366248834053e-01 -1.0306985044419355e-01 6.5949794333298964e-02 9.5459435326638947e-02 -3.5958864718613329e-02 -1.2308917890203752e-02 -1.8649858879600526e-02 5.5778553073593314e-02 4.2072124435779908e-02 -5.6106936869543413e-02 -7.2393108954922680e-02 9.2475686039466570e-02 -4.2397282202205018e-02 1.0326684415328483e-03 7.7149885681148986e-02 3.8083222073957007e-02 -1.1020355050892382e-01 -2.4466241248280339e-03 9.2909059392221299e-02 -1.0838747358830192e-01 -5.2852423937657794e-02 1.2904522191936853e-02 -9.5372328693009267e-02 -1.7679767261098749e-02 3.8255778177094933e-02 1.1693791041453368e-01 1.1729769043970328e-01 8.7547521003523032e-02 -8.3461564587468673e-02 1.1023969668766463e-01 1.0006807554030413e-01 -5.4022456191439111e-02 3.2773590965094988e-02 1.0674929647045704e-01 6.5597348680370704e-02 9.7858755290272395e-02 -1.0567726278434474e-01 -1.1850398392078791e-01 5.9536602006792221e-02 -2.4387104147504626e-02 8.0252941956367549e-02 -3.5515727566781771e-02 8.0252585844407962e-02 3.8614541069607305e-03 -5.8588873670530596e-02 1.1614285840428959e-01 -9.4008055968254803e-02 3.4223503560329702e-02 -2.2187338171320268e-02 8.1205222359731336e-02 6.6093135395226432e-02 2.9847783450211347e-02 1.6006911661817086e-02 -5.7654108586109977e-03 4.2354361716526782e-02 1.2199163065013122e-01 7.1941496043608152e-02 1.8110753975872678e-02 3.5516526002463453e-02 -2.3807868698956933e-02 -5.9223503339768550e-02 1.0115194076099501e-02 6.7806726363146455e-02 8.9904546521201639e-02 -9.6455847700890759e-02 3.8837542515886267e-02 -3.0144190454672432e-03 1.2379955723875724e-01 -2.8385654876308120e-02 -9.7948296731228790e-02 -7.8188717720019119e-02 -1.4285466145702688e-02 -1.0003717684258798e-01 -9.3305335141828635e-02 -6.7084655517201913e-02 5.0139305846961600e-02 -6.6791243332450984e-02 9.5795161224861508e-02 6.1558064919844224e-02 -4.8976929372473950e-02 9.4319933216165663e-02 5.2741843052984669e-02 -1.1675269579473506e-01 -9.3742215678342275e-02 6.2409892662495900e-02 5.0604102523415559e-02 -2.2205709628099059e-03 -1.0051717227765410e-01 6.8915317086183911e-02 -6.3354999892615060e-02 1.3366400574593406e-02 2.9928210730685450e-02 6.8368344685622473e-02 -6.6307175000229035e-02 6.5632687839752013e-02 6.2059229695714729e-02 1.6703599601899800e-02 -1.1629284873055810e-01 2.5686127344658770e-02 3.8451747353539165e-02 -8.1086636908055440e-02 1.7314506837634781e-02 1.0526470523099704e-01 -3.8404891241763592e-02 -5.1155016485282985e-03 -2.0015630533387497e-02 1.1650897078864379e-01 -1.1111097289429328e-01 4.8797149044401349e-02 1.6871823069300171e-02 -1.1140870739993525e-01 -3.8513987097997982e-03 8.2643226608562666e-03 6.1654246850264299e-02 -6.8759483525690605e-03 2.2095357075153633e-02 2.5035731224098030e-02 4.3124828095502762e-02 6.2126668581362163e-02 -8.4018321821685046e-02 -4.7986746046682412e-02 3.9167352823669600e-02 7.1837261720952283e-02 -5.2280671407532259e-02 7.8043726307333305e-02 -1.1597942532075728e-01 -3.5161734899681246e-02 1.1033953007152494e-01 -1.2398097876132715e-01 -7.7283642230190117e-02 4.5550718866856302e-03 6.1520530005720984e-04 -4.1429353800780513e-02 1.2379429562470274e-02 1.9515104359200876e-02 -4.6925839077444458e-02 7.3585652878263560e-02 3.7404540185235820e-02 1.2410067046804524e-01 4.4793548269143980e-02 5.1148197792815590e-03 1.0660336635660311e-01 -1.0979095283623290e-01 -2.9760370479789678e-02 6.1093201645189804e-02 -2.0148109063061654e-02 -1.0266272888442633e-01 -1.2119193204720500e-02 9.3923697294700223e-02 -2.1644502774221183e-02 6.2814716176268215e-02 8.7177444345258218e-02 -8.1390183345875874e-02 1.0728758301991127e-01 -4.3296899383751752e-02 -1.0537450443107194e-03 -6.9661674796788045e-02 -6.3339937410551134e-02 -1.2230875911283094e-01 -2.5539313612171852e-02 3.3368002718437526e-02 -3.1063859113774385e-02 3.5627438613280119e-02 -2.7759701930324548e-02 6.0251990787443227e-02 -6.8648926259043980e-02 -1.1578887001051814e-01 6.4056266867646108e-02 -4.2954069055713633e-02 4.9821746019858393e-02 5.1244091491447270e-02 -9.9997046631091935e-02 -7.2796630044819857e-02 -4.0627108333272779e-02 -8.8817186732044834e-02 9.9998007078203555e-02 1.2247026138633964e-01 3.1695567919582418e-02 2.0705918066760594e-02 1.0086625031373063e-01 6.1272534116838452e-02 7.4855004633276406e-02 -4.9618034102997685e-02 2.7776049798010804e-02 5.1776197331793047e-02 8.0504582863888424e-02 -6.6408157144246971e-02 2.0171401241201058e-02 -2.4512648099629376e-02 -1.0506759425221106e-01 -1.1214155657410910e-01 9.8299133464090430e-02 1.1645704795770498e-01 5.0154734984184844e-02 1.6273332169861213e-02 -5.5016312113122495e-02 1.2160480235818080e-01 -1.6332532471963982e-02 -1.0865023682963668e-01 1.0791648356264326e-01 5.0100883687219058e-02 -1.0295446513297566e-02 -4.3192379149640393e-02 -1.2368443565558709e-01 -1.0057746396216788e-01 8.5051584635636186e-03 -2.9271410002226595e-02 -9.1044050680909247e-02 -9.9836926645540405e-02 2.1045562965897990e-02 -6.3585713727862120e-02 -4.9909977892147392e-02 -3.4924023046497617e-02 1.6344556462123544e-02 3.9030624623312464e-02 -1.1881268082433175e-01 -1.2893822419165831e-02 -1.1968960518502091e-01 -9.1859609088885491e-02 -9.0927710810070506e-02 3.3485113440387175e-02 -9.1239590673957371e-02 2.6829751540927853e-02 -6.3361386518332091e-02 -3.5394134901955900e-02 8.6638437027491050e-02 -5.2717505658189487e-02 -7.7625140885411462e-02 5.0743118414197590e-02 7.8819930434421023e-02 -3.8350398523895796e-02 -5.5993731166558473e-02 6.4157511504694710e-03 9.2282672365091023e-02 7.9438959614015772e-02 3.8283732846182347e-02 -3.7419759945808012e-02 9.2687482840806218e-02 1.8415616263384747e-02 -8.7575489974492257e-02 8.4327416103850444e-02 -1.3337975150886144e-02 1.3184931117788082e-02 -4.8407171085028095e-02 -1.0906138235036841e-01 -1.1218377189831417e-01 6.9326253842752941e-02 -9.0985555240781862e-02 -8.5979956022843126e-02 3.1912747138120264e-03 -2.3188530956417822e-02 -1.0152777833375853e-01 5.0820307789280206e-02 -2.1448414299538247e-02 9.6833078671990785e-02 -1.0750079127190598e-01 8.9313661496803046e-02 1.0582008149915315e-01 1.1612160098237753e-01 -5.6300095997187306e-02 -8.3976519419722340e-02 2.2502813662695954e-02 2.7765132438940951e-02 1.1872336399837659e-01 9.0395470308643880e-02 -1.8750172732685828e-02 -6.3164412372733195e-02 1.1562449024744301e-01 -3.5620378445559132e-02 -8.7507314876856937e-02 7.3905348684388736e-02 5.0654585077838987e-02 -3.9580929586973228e-03 -2.2028636151285787e-02 -4.6861614707775737e-02 -8.1125892128256161e-02 1.0823113397828865e-01 -5.9653518176736531e-02 -1.1681765807177361e-01 9.6432299941064087e-02 1.4338625612170317e-02 -7.1834537454955660e-02 1.5034544724035039e-02 -1.1202046374159479e-01 -6.2921122334391691e-02 5.4337416916922579e-02 -9.1313340055134661e-03 -3.1025242254172081e-02 1.0413379187621680e-01 2.9074283933160628e-02 -6.0723003435377586e-02 8.5933070681070575e-02 -9.6993644041774033e-02 -6.3596267087312267e-02 9.3586382961235906e-02 -6.3341725944474582e-03 7.9804872812389821e-02 -1.0453893106168009e-01 1.6080476415514938e-02 2.9784592711748627e-02 -4.2431088464401127e-02 5.5613373656188569e-02 -3.5217218230533719e-02 9.9337887924572620e-03 1.0551015159433486e-01 9.0202390693519915e-02 -7.4322655570612031e-02 -9.2264341189691360e-02 -9.5402045604794192e-02 8.2485298336279420e-02 1.1698021504620047e-01 5.6780887413134154e-02 3.8299504889134778e-02 1.1086520460543749e-01 1.1154376460293818e-01 9.1305385425622124e-02 8.3128005811461680e-02 4.1177989923252292e-02 -2.1330818151078627e-02 -4.0163610046989061e-02 -1.2066640713116115e-01 -1.0594685180061347e-01 4.7509313184968059e-02 -9.1574110653773480e-02 5.5374696495238906e-02 -8.4186457032173645e-02 -7.5278132259664135e-02 -6.5122090747547004e-02 -4.7000491715884343e-02 -1.0798041078669922e-01 -1.2034175814332188e-01 1.0792167400208882e-01 -1.1157817326470719e-01 -3.5388067351983618e-02 -1.0681439685861800e-01 -7.2258057166362702e-02 -2.1515934264823289e-02 1.1306029457475789e-01 1.0356787718718707e-02 -2.6060702844682778e-03 -6.3778327414657540e-02 -9.0432182307881970e-02 1.5911084473869519e-02 -1.1442843149539521e-01 -1.4308821967804922e-02 1.5152113576326273e-02 -5.7789482322488261e-02 4.6083217345596866e-02 -8.7892350196932589e-02 1.0829237625560295e-01 2.2063458542025044e-02 -1.0915574429016314e-01 -7.5261104784858063e-02 1.2403811750473426e-01 5.7764926601844568e-02 4.1243071906215904e-03 7.0933499032609953e-02 6.5337853384129521e-02 -1.0618964956946252e-04 2.5367574758388564e-02 6.4342921597800598e-02 -8.0871715412275419e-02 -1.1687811072161082e-01 -8.1999890360309385e-02 8.6855256704192127e-02 4.5937700002070578e-02 -8.0448464535946326e-02 9.6833010229337657e-02 9.3755043275004737e-02 9.5366563078242150e-02 -6.7791462664624292e-03 5.4173740904744930e-02 -2.0879019859156762e-02 -9.9108221197414748e-02 -8.9320873357754127e-02 2.2716296469331508e-02 -2.6122288892206906e-02 -9.9013928905951329e-02 6.0714849764893219e-03 2.0169798198640294e-02 3.3713087035040779e-03 7.0473009084325577e-02 -7.9587871821041489e-02 -3.1457584559907791e-02 4.6388433046233205e-02 -3.2849238752072430e-03 7.2530180799643934e-02 6.6733603797141230e-02 1.1819915770063925e-01 -4.4235468152882075e-02 -3.9068570592428811e-02 -1.0946406176972444e-01 2.1722059339020522e-02 -9.6904128567640177e-02 1.0471180638101133e-02 1.0831451079012468e-01 -3.0009808094850817e-02 -2.8394692517650328e-02 3.7387060456182654e-02 3.1752955589482761e-02 -6.8842172104929156e-02 4.8570475757418125e-03 -5.9511471315901197e-02 -7.7375634983942926e-02 2.5983252505119080e-02 -1.2511485047620824e-01 -3.7332989331040241e-02 -4.1014994977248656e-02 -7.2516878793085979e-02 8.4370512553979676e-02 -4.0146905610717676e-03 9.0799702941734964e-02 -1.0248247217348574e-01 6.9664369444774485e-02 1.2346844557717312e-01 4.7149182872801468e-02 1.2428158122487816e-01 7.1517208230371970e-02 8.0834642069264176e-02 -1.0465291547926939e-01 9.7566701984904566e-02 -1.0859857132925106e-01 -1.0255959772947876e-01 -7.7810592843525220e-02 -6.8740586969657763e-02 -2.3640767732976173e-02 -7.8450316039188270e-02 7.0816161011452952e-02 3.1193265925623614e-02 -1.1205853379568739e-01 -3.8305380862565255e-02 5.0712348922898276e-02 -8.2670296630121931e-02 -1.1956415117400861e-01 3.3408344477464914e-02 1.3002658518723039e-02 9.8332663862414252e-02 7.4124528390199521e-02 -4.7194344503576818e-02 3.1506818300120441e-02 1.1226409294295161e-02 8.3809903458632609e-02 -7.9632369369939712e-02 4.9698248509581253e-02 8.7953134753179937e-02 -5.9798527238023947e-03 4.1239038975660530e-04 2.2675295910117726e-02 5.0059733406925398e-02 -8.6049486084089938e-02 1.0755144405813777e-01 6.4860109508654951e-02 7.1254235991736900e-02 8.8301643210081701e-02 5.9615304361027958e-02 -5.7629204677688742e-02 -5.2936354931515529e-02 -1.2295551543818446e-01 -3.0603872735279897e-02 -1.0188742038260204e-01 7.2885244505372732e-02 5.0658824729469816e-02 -9.4530710587958616e-02 4.0624083258315770e-02 -1.0350687572563842e-01 -1.1527550933248300e-01 -1.1919413291497231e-01 9.8580893686822421e-02 -6.6937337875314085e-02 1.0565104106753281e-01 -7.9531461871934495e-02 -4.2369375977803506e-02 -4.8189742461996546e-02 1.1877435673966208e-01 9.2378911900129229e-02 1.7803842429919236e-02 