<?xml version="1.0"?>
<MethodSetup Method="MLP::MLP">
  <GeneralInfo>
    <Info name="TMVA Release" value="4.2.1 [262657]"/>
    <Info name="ROOT Release" value="6.08/07 [395271]"/>
    <Info name="Creator" value="wverbeke"/>
    <Info name="Date" value="Sat Nov 18 11:58:40 2017"/>
    <Info name="Host" value="Linux vocms0302.cern.ch 2.6.32-696.1.1.el6.x86_64 #1 SMP Wed Apr 12 08:44:28 CEST 2017 x86_64 x86_64 x86_64 GNU/Linux"/>
    <Info name="Dir" value="/storage_mnt/storage/user/wverbeke/Work/AnalysisCode/ewkino/bdtTraining"/>
    <Info name="Training events" value="197251"/>
    <Info name="TrainingTime" value="7.78946127e+02"/>
    <Info name="AnalysisType" value="Classification"/>
  </GeneralInfo>
  <Options>
    <Option name="NCycles" modified="Yes">600</Option>
    <Option name="HiddenLayers" modified="Yes">N+5</Option>
    <Option name="NeuronType" modified="Yes">tanh</Option>
    <Option name="RandomSeed" modified="No">1</Option>
    <Option name="EstimatorType" modified="No">CE</Option>
    <Option name="NeuronInputType" modified="No">sum</Option>
    <Option name="V" modified="Yes">False</Option>
    <Option name="VerbosityLevel" modified="No">Default</Option>
    <Option name="VarTransform" modified="Yes">N</Option>
    <Option name="H" modified="Yes">True</Option>
    <Option name="CreateMVAPdfs" modified="No">False</Option>
    <Option name="IgnoreNegWeightsInTraining" modified="No">False</Option>
    <Option name="TrainingMethod" modified="No">BP</Option>
    <Option name="LearningRate" modified="No">2.000000e-02</Option>
    <Option name="DecayRate" modified="No">1.000000e-02</Option>
    <Option name="TestRate" modified="Yes">5</Option>
    <Option name="EpochMonitoring" modified="No">False</Option>
    <Option name="Sampling" modified="No">1.000000e+00</Option>
    <Option name="SamplingEpoch" modified="No">1.000000e+00</Option>
    <Option name="SamplingImportance" modified="No">1.000000e+00</Option>
    <Option name="SamplingTraining" modified="No">True</Option>
    <Option name="SamplingTesting" modified="No">False</Option>
    <Option name="ResetStep" modified="No">50</Option>
    <Option name="Tau" modified="No">3.000000e+00</Option>
    <Option name="BPMode" modified="No">sequential</Option>
    <Option name="BatchSize" modified="No">-1</Option>
    <Option name="ConvergenceImprove" modified="No">1.000000e-30</Option>
    <Option name="ConvergenceTests" modified="No">-1</Option>
    <Option name="UseRegulator" modified="Yes">False</Option>
    <Option name="UpdateLimit" modified="No">10000</Option>
    <Option name="CalculateErrors" modified="No">False</Option>
    <Option name="WeightRange" modified="No">1.000000e+00</Option>
  </Options>
  <Variables NVar="6">
    <Variable VarIndex="0" Expression="topMass" Label="topMass" Title="topMass" Unit="" Internal="topMass" Type="F" Min="-2.18718091e+03" Max="3.83546826e+03"/>
    <Variable VarIndex="1" Expression="pTForwardJets" Label="pTForwardJets" Title="pTForwardJets" Unit="" Internal="pTForwardJets" Type="F" Min="0.00000000e+00" Max="5.28055115e+02"/>
    <Variable VarIndex="2" Expression="etaMostForward" Label="etaMostForward" Title="etaMostForward" Unit="" Internal="etaMostForward" Type="F" Min="0.00000000e+00" Max="5.08899117e+00"/>
    <Variable VarIndex="3" Expression="pTLeadingLepton" Label="pTLeadingLepton" Title="pTLeadingLepton" Unit="" Internal="pTLeadingLepton" Type="F" Min="2.50367546e+01" Max="9.37622559e+02"/>
    <Variable VarIndex="4" Expression="highestDeepCSV" Label="highestDeepCSV" Title="highestDeepCSV" Unit="" Internal="highestDeepCSV" Type="F" Min="-2.00000000e+00" Max="9.99834597e-01"/>
    <Variable VarIndex="5" Expression="mNotSoForwardJets" Label="mNotSoForwardJets" Title="mNotSoForwardJets" Unit="" Internal="mNotSoForwardJets" Type="F" Min="-2.32325879e+03" Max="1.02494800e+03"/>
  </Variables>
  <Spectators NSpec="0"/>
  <Classes NClass="2">
    <Class Name="Signal" Index="0"/>
    <Class Name="Background" Index="1"/>
  </Classes>
  <Transformations NTransformations="1">
    <Transform Name="Normalize">
      <Selection>
        <Input NInputs="6">
          <Input Type="Variable" Label="topMass" Expression="topMass"/>
          <Input Type="Variable" Label="pTForwardJets" Expression="pTForwardJets"/>
          <Input Type="Variable" Label="etaMostForward" Expression="etaMostForward"/>
          <Input Type="Variable" Label="pTLeadingLepton" Expression="pTLeadingLepton"/>
          <Input Type="Variable" Label="highestDeepCSV" Expression="highestDeepCSV"/>
          <Input Type="Variable" Label="mNotSoForwardJets" Expression="mNotSoForwardJets"/>
        </Input>
        <Output NOutputs="6">
          <Output Type="Variable" Label="topMass" Expression="topMass"/>
          <Output Type="Variable" Label="pTForwardJets" Expression="pTForwardJets"/>
          <Output Type="Variable" Label="etaMostForward" Expression="etaMostForward"/>
          <Output Type="Variable" Label="pTLeadingLepton" Expression="pTLeadingLepton"/>
          <Output Type="Variable" Label="highestDeepCSV" Expression="highestDeepCSV"/>
          <Output Type="Variable" Label="mNotSoForwardJets" Expression="mNotSoForwardJets"/>
        </Output>
      </Selection>
      <Class ClassIndex="0">
        <Ranges>
          <Range Index="0" Min="-9.5288891601562500e+02" Max="2.1461174316406250e+03"/>
          <Range Index="1" Min="0.0000000000000000e+00" Max="4.1290045166015625e+02"/>
          <Range Index="2" Min="0.0000000000000000e+00" Max="5.0763616561889648e+00"/>
          <Range Index="3" Min="2.7411432266235352e+01" Max="6.3412548828125000e+02"/>
          <Range Index="4" Min="-2.0000000000000000e+00" Max="9.9782776832580566e-01"/>
          <Range Index="5" Min="-1.2735944824218750e+03" Max="9.0144213867187500e+02"/>
        </Ranges>
      </Class>
      <Class ClassIndex="1">
        <Ranges>
          <Range Index="0" Min="-2.1871809082031250e+03" Max="3.8354682617187500e+03"/>
          <Range Index="1" Min="0.0000000000000000e+00" Max="5.2805511474609375e+02"/>
          <Range Index="2" Min="0.0000000000000000e+00" Max="5.0889911651611328e+00"/>
          <Range Index="3" Min="2.5036754608154297e+01" Max="9.3762255859375000e+02"/>
          <Range Index="4" Min="-2.0000000000000000e+00" Max="9.9983459711074829e-01"/>
          <Range Index="5" Min="-2.3232587890625000e+03" Max="1.0249479980468750e+03"/>
        </Ranges>
      </Class>
      <Class ClassIndex="2">
        <Ranges>
          <Range Index="0" Min="-2.1871809082031250e+03" Max="3.8354682617187500e+03"/>
          <Range Index="1" Min="0.0000000000000000e+00" Max="5.2805511474609375e+02"/>
          <Range Index="2" Min="0.0000000000000000e+00" Max="5.0889911651611328e+00"/>
          <Range Index="3" Min="2.5036754608154297e+01" Max="9.3762255859375000e+02"/>
          <Range Index="4" Min="-2.0000000000000000e+00" Max="9.9983459711074829e-01"/>
          <Range Index="5" Min="-2.3232587890625000e+03" Max="1.0249479980468750e+03"/>
        </Ranges>
      </Class>
    </Transform>
  </Transformations>
  <MVAPdfs/>
  <Weights>
    <Layout NLayers="3">
      <Layer Index="0" NNeurons="7">
        <Neuron NSynapses="11">
          -4.5091724025184954e-01 2.0382383513680593e+00 8.9082217545122933e-01 1.9045408330262572e+00 -1.9981202561753668e+00 -1.4182842376980360e+00 -8.5282460388796577e-01 1.8951208250311598e+00 -1.4163707661684655e+00 -1.0333909352312407e+00 -1.6647257962469431e+00 
        </Neuron>
        <Neuron NSynapses="11">
          -7.9485372947205801e-01 -9.7604176981589674e-01 -4.0669290081449078e-01 -8.8166300232196002e-02 7.0199114230229842e-01 -2.5432074949340094e-01 1.6053090103007672e+00 -1.9337550335377590e-01 1.3712228844142624e+00 -2.5075071162205420e-01 -9.6031786884019799e-01 
        </Neuron>
        <Neuron NSynapses="11">
          3.6500108098670148e-01 2.9822308081510873e-01 -1.1518184672498957e+00 3.3963766866198364e-01 1.5123190196515750e+00 -9.3177812266429683e-01 -2.0115796653310802e+00 -1.7261703208770607e-01 6.7171332457552646e-01 1.5656163971673982e+00 -4.7688763953150198e-01 
        </Neuron>
        <Neuron NSynapses="11">
          -4.3927236771577011e-01 3.4898351833996966e-01 -2.5150824666144350e-01 -1.1569970236709475e+00 1.7625077982991799e+00 -1.0753640653547889e+00 1.0037268922603799e+00 9.2049887169671141e-01 8.5199869056166633e-01 1.9067531821725230e+00 1.0991893533426824e+00 
        </Neuron>
        <Neuron NSynapses="11">
          -6.8550623902564700e-01 -1.5654221260160923e+00 7.7358294143995909e-01 1.2667477453523640e-01 1.4926703820084197e+00 1.5016169729517170e+00 1.5413992882021614e+00 1.4525168082278657e+00 -1.6619934270365624e+00 1.3820320072003727e+00 -1.8948166192078739e+00 
        </Neuron>
        <Neuron NSynapses="11">
          -7.6465787485945902e-01 -1.4244507932779611e+00 -1.7769048443642115e+00 1.3307473225966953e+00 6.7034217487547521e-01 -1.6672927038771048e+00 4.2319128900082031e-01 -1.9211626828714329e-01 6.9194907833928188e-01 1.7855469249908376e+00 -2.7522529414154318e-01 
        </Neuron>
        <Neuron NSynapses="11">
          4.6717730349409659e-01 -1.3024936460080385e+00 7.4211548562613927e-01 -1.1042518638240675e+00 -7.6273624107489035e-01 -1.5780535293716389e+00 8.6873758760040520e-01 1.4219007116529956e+00 1.3519918942469620e+00 -4.1366267308982685e-01 -1.8321357616505722e+00 
        </Neuron>
      </Layer>
      <Layer Index="1" NNeurons="12">
        <Neuron NSynapses="1">
          -2.0414457218279951e+00 
        </Neuron>
        <Neuron NSynapses="1">
          1.2451300287402114e+00 
        </Neuron>
        <Neuron NSynapses="1">
          1.0722527833812490e-01 
        </Neuron>
        <Neuron NSynapses="1">
          1.7108850001540492e+00 
        </Neuron>
        <Neuron NSynapses="1">
          9.7630776270782516e-01 
        </Neuron>
        <Neuron NSynapses="1">
          7.9594110609498114e-01 
        </Neuron>
        <Neuron NSynapses="1">
          -9.4937142342221759e-01 
        </Neuron>
        <Neuron NSynapses="1">
          -7.2740323435645138e-01 
        </Neuron>
        <Neuron NSynapses="1">
          -1.2709229300020134e-03 
        </Neuron>
        <Neuron NSynapses="1">
          1.4010123983712341e+00 
        </Neuron>
        <Neuron NSynapses="1">
          -1.0135142706941223e+00 
        </Neuron>
        <Neuron NSynapses="1">
          -1.9379981762703140e+00 
        </Neuron>
      </Layer>
      <Layer Index="2" NNeurons="1">
        <Neuron NSynapses="0"/>
      </Layer>
    </Layout>
  </Weights>
</MethodSetup>
