<?xml version="1.0"?>
<MethodSetup Method="MLP::MLP">
  <GeneralInfo>
    <Info name="TMVA Release" value="4.2.1 [262657]"/>
    <Info name="ROOT Release" value="6.08/07 [395271]"/>
    <Info name="Creator" value="wverbeke"/>
    <Info name="Date" value="Sat Nov 18 13:24:41 2017"/>
    <Info name="Host" value="Linux vocms0302.cern.ch 2.6.32-696.1.1.el6.x86_64 #1 SMP Wed Apr 12 08:44:28 CEST 2017 x86_64 x86_64 x86_64 GNU/Linux"/>
    <Info name="Dir" value="/storage_mnt/storage/user/wverbeke/Work/AnalysisCode/ewkino/bdtTraining"/>
    <Info name="Training events" value="230313"/>
    <Info name="TrainingTime" value="1.07344837e+03"/>
    <Info name="AnalysisType" value="Classification"/>
  </GeneralInfo>
  <Options>
    <Option name="NCycles" modified="Yes">600</Option>
    <Option name="HiddenLayers" modified="Yes">N+5</Option>
    <Option name="NeuronType" modified="Yes">tanh</Option>
    <Option name="RandomSeed" modified="No">1</Option>
    <Option name="EstimatorType" modified="No">CE</Option>
    <Option name="NeuronInputType" modified="No">sum</Option>
    <Option name="V" modified="Yes">False</Option>
    <Option name="VerbosityLevel" modified="No">Default</Option>
    <Option name="VarTransform" modified="Yes">N</Option>
    <Option name="H" modified="Yes">True</Option>
    <Option name="CreateMVAPdfs" modified="No">False</Option>
    <Option name="IgnoreNegWeightsInTraining" modified="No">False</Option>
    <Option name="TrainingMethod" modified="No">BP</Option>
    <Option name="LearningRate" modified="No">2.000000e-02</Option>
    <Option name="DecayRate" modified="No">1.000000e-02</Option>
    <Option name="TestRate" modified="Yes">5</Option>
    <Option name="EpochMonitoring" modified="No">False</Option>
    <Option name="Sampling" modified="No">1.000000e+00</Option>
    <Option name="SamplingEpoch" modified="No">1.000000e+00</Option>
    <Option name="SamplingImportance" modified="No">1.000000e+00</Option>
    <Option name="SamplingTraining" modified="No">True</Option>
    <Option name="SamplingTesting" modified="No">False</Option>
    <Option name="ResetStep" modified="No">50</Option>
    <Option name="Tau" modified="No">3.000000e+00</Option>
    <Option name="BPMode" modified="No">sequential</Option>
    <Option name="BatchSize" modified="No">-1</Option>
    <Option name="ConvergenceImprove" modified="No">1.000000e-30</Option>
    <Option name="ConvergenceTests" modified="No">-1</Option>
    <Option name="UseRegulator" modified="Yes">False</Option>
    <Option name="UpdateLimit" modified="No">10000</Option>
    <Option name="CalculateErrors" modified="No">False</Option>
    <Option name="WeightRange" modified="No">1.000000e+00</Option>
  </Options>
  <Variables NVar="8">
    <Variable VarIndex="0" Expression="topMass" Label="topMass" Title="topMass" Unit="" Internal="topMass" Type="F" Min="-2.35966162e+03" Max="4.20512451e+03"/>
    <Variable VarIndex="1" Expression="pTForwardJets" Label="pTForwardJets" Title="pTForwardJets" Unit="" Internal="pTForwardJets" Type="F" Min="0.00000000e+00" Max="5.84062927e+02"/>
    <Variable VarIndex="2" Expression="etaMostForward" Label="etaMostForward" Title="etaMostForward" Unit="" Internal="etaMostForward" Type="F" Min="1.10737681e-02" Max="5.09595490e+00"/>
    <Variable VarIndex="3" Expression="pTLeadingLepton" Label="pTLeadingLepton" Title="pTLeadingLepton" Unit="" Internal="pTLeadingLepton" Type="F" Min="2.50000801e+01" Max="1.40287524e+03"/>
    <Variable VarIndex="4" Expression="pTLeadingBJet" Label="pTLeadingBJet" Title="pTLeadingBJet" Unit="" Internal="pTLeadingBJet" Type="F" Min="2.54996109e+01" Max="1.20835571e+03"/>
    <Variable VarIndex="5" Expression="highestDeepCSV" Label="highestDeepCSV" Title="highestDeepCSV" Unit="" Internal="highestDeepCSV" Type="F" Min="-2.00000000e+00" Max="9.99999046e-01"/>
    <Variable VarIndex="6" Expression="maxMjj" Label="maxMjj" Title="maxMjj" Unit="" Internal="maxMjj" Type="F" Min="0.00000000e+00" Max="7.17828125e+03"/>
    <Variable VarIndex="7" Expression="mNotSoForwardJets" Label="mNotSoForwardJets" Title="mNotSoForwardJets" Unit="" Internal="mNotSoForwardJets" Type="F" Min="-2.49594873e+03" Max="7.97339795e+03"/>
  </Variables>
  <Spectators NSpec="0"/>
  <Classes NClass="2">
    <Class Name="Signal" Index="0"/>
    <Class Name="Background" Index="1"/>
  </Classes>
  <Transformations NTransformations="1">
    <Transform Name="Normalize">
      <Selection>
        <Input NInputs="8">
          <Input Type="Variable" Label="topMass" Expression="topMass"/>
          <Input Type="Variable" Label="pTForwardJets" Expression="pTForwardJets"/>
          <Input Type="Variable" Label="etaMostForward" Expression="etaMostForward"/>
          <Input Type="Variable" Label="pTLeadingLepton" Expression="pTLeadingLepton"/>
          <Input Type="Variable" Label="pTLeadingBJet" Expression="pTLeadingBJet"/>
          <Input Type="Variable" Label="highestDeepCSV" Expression="highestDeepCSV"/>
          <Input Type="Variable" Label="maxMjj" Expression="maxMjj"/>
          <Input Type="Variable" Label="mNotSoForwardJets" Expression="mNotSoForwardJets"/>
        </Input>
        <Output NOutputs="8">
          <Output Type="Variable" Label="topMass" Expression="topMass"/>
          <Output Type="Variable" Label="pTForwardJets" Expression="pTForwardJets"/>
          <Output Type="Variable" Label="etaMostForward" Expression="etaMostForward"/>
          <Output Type="Variable" Label="pTLeadingLepton" Expression="pTLeadingLepton"/>
          <Output Type="Variable" Label="pTLeadingBJet" Expression="pTLeadingBJet"/>
          <Output Type="Variable" Label="highestDeepCSV" Expression="highestDeepCSV"/>
          <Output Type="Variable" Label="maxMjj" Expression="maxMjj"/>
          <Output Type="Variable" Label="mNotSoForwardJets" Expression="mNotSoForwardJets"/>
        </Output>
      </Selection>
      <Class ClassIndex="0">
        <Ranges>
          <Range Index="0" Min="-1.4216530761718750e+03" Max="4.2051245117187500e+03"/>
          <Range Index="1" Min="0.0000000000000000e+00" Max="5.8320074462890625e+02"/>
          <Range Index="2" Min="4.9503829330205917e-02" Max="5.0924148559570312e+00"/>
          <Range Index="3" Min="2.5169776916503906e+01" Max="8.5890893554687500e+02"/>
          <Range Index="4" Min="2.5502374649047852e+01" Max="8.4637890625000000e+02"/>
          <Range Index="5" Min="-2.0000000000000000e+00" Max="9.9999904632568359e-01"/>
          <Range Index="6" Min="0.0000000000000000e+00" Max="6.0952363281250000e+03"/>
          <Range Index="7" Min="-1.8916000976562500e+03" Max="6.7091816406250000e+03"/>
        </Ranges>
      </Class>
      <Class ClassIndex="1">
        <Ranges>
          <Range Index="0" Min="-2.3596616210937500e+03" Max="3.9437258300781250e+03"/>
          <Range Index="1" Min="0.0000000000000000e+00" Max="5.8406292724609375e+02"/>
          <Range Index="2" Min="1.1073768138885498e-02" Max="5.0959548950195312e+00"/>
          <Range Index="3" Min="2.5000080108642578e+01" Max="1.4028752441406250e+03"/>
          <Range Index="4" Min="2.5499610900878906e+01" Max="1.2083557128906250e+03"/>
          <Range Index="5" Min="-2.0000000000000000e+00" Max="9.9995803833007812e-01"/>
          <Range Index="6" Min="0.0000000000000000e+00" Max="7.1782812500000000e+03"/>
          <Range Index="7" Min="-2.4959487304687500e+03" Max="7.9733979492187500e+03"/>
        </Ranges>
      </Class>
      <Class ClassIndex="2">
        <Ranges>
          <Range Index="0" Min="-2.3596616210937500e+03" Max="4.2051245117187500e+03"/>
          <Range Index="1" Min="0.0000000000000000e+00" Max="5.8406292724609375e+02"/>
          <Range Index="2" Min="1.1073768138885498e-02" Max="5.0959548950195312e+00"/>
          <Range Index="3" Min="2.5000080108642578e+01" Max="1.4028752441406250e+03"/>
          <Range Index="4" Min="2.5499610900878906e+01" Max="1.2083557128906250e+03"/>
          <Range Index="5" Min="-2.0000000000000000e+00" Max="9.9999904632568359e-01"/>
          <Range Index="6" Min="0.0000000000000000e+00" Max="7.1782812500000000e+03"/>
          <Range Index="7" Min="-2.4959487304687500e+03" Max="7.9733979492187500e+03"/>
        </Ranges>
      </Class>
    </Transform>
  </Transformations>
  <MVAPdfs/>
  <Weights>
    <Layout NLayers="3">
      <Layer Index="0" NNeurons="9">
        <Neuron NSynapses="13">
          -3.4626723327757070e-01 1.9461516817059663e+00 8.0327537688851869e-01 1.8131344484314218e+00 -2.0104301951890959e+00 -1.4760576286629605e+00 -7.1643191692499120e-01 1.9861216438783975e+00 -1.4120556539277238e+00 -1.0249306201368844e+00 -1.6793030404457119e+00 -2.2973323194954756e-01 -1.2318522609579348e+00 
        </Neuron>
        <Neuron NSynapses="13">
          -3.8938014386625858e-01 -4.7463104572247566e-01 5.7319970383921870e-01 -4.0555503789775965e-01 1.6767349580690589e+00 1.1039215744416939e-01 1.5865053415160029e+00 -1.4286351666769367e-01 -7.4312243842870862e-01 7.0137899380316737e-01 3.3451040785144728e-02 -1.1169063179062695e+00 -2.7298979357768383e-01 
        </Neuron>
        <Neuron NSynapses="13">
          1.4294345205349803e+00 -1.0245611270350559e+00 -2.1768473826280128e+00 -1.1997499961907671e-01 6.8921862953832391e-01 1.6466136486372822e+00 -3.4750732322748262e-01 1.5266426552744500e-01 2.1628905313269084e-01 -3.1487392409213449e-01 -1.3437355629239838e+00 9.4508265430933847e-01 -1.1048774552757943e+00 
        </Neuron>
        <Neuron NSynapses="13">
          1.2530945320926306e+00 1.4661078080809076e+00 6.8527480091006421e-01 1.8305205446954149e+00 1.1861162344480332e+00 -7.9325296245692456e-01 -1.3900998447406805e+00 9.3316511978164485e-01 6.4876460463700686e-02 1.4626141533735040e+00 1.4371742597786157e+00 1.7581987733296633e+00 1.2075819947414221e+00 
        </Neuron>
        <Neuron NSynapses="13">
          -1.4844329149174711e+00 1.5144504970270516e+00 -1.9137971727668799e+00 -8.1591690269079242e-01 -1.3634450497205917e+00 -1.7912307197938742e+00 1.7140041259148002e+00 7.3098394065653949e-01 -1.5940562305121795e+00 3.9038079795023595e-01 -2.4481889089599929e-01 1.1040294021790871e+00 1.6661843565434409e+00 
        </Neuron>
        <Neuron NSynapses="13">
          -4.2238427715710275e-01 -5.7568456401616425e-02 -8.1283532484181475e-01 6.7595196965389959e-01 -9.8277835078601750e-01 -7.0329960047722040e-01 -1.3599188064803354e+00 8.5038317322560997e-01 1.2051193215081961e+00 1.1275079688374774e+00 -4.1534156785568671e-01 -2.4837973326715117e+00 -2.0890836970272670e+00 
        </Neuron>
        <Neuron NSynapses="13">
          1.0695790195756150e+00 6.3098172253735407e-01 1.6494683734877169e+00 6.0885470688984555e-01 9.4224148474967140e-01 -8.2836283270697042e-01 -5.9844459434739394e-01 -9.4144593206089387e-03 1.1396879453985607e+00 -1.2096046388033164e+00 -1.7369271132818731e+00 -1.6020288228022086e+00 -2.6637787017052095e-01 
        </Neuron>
        <Neuron NSynapses="13">
          -1.2334215839123773e-01 1.6471309664825875e+00 -1.8466093034392714e+00 -8.4166999837869261e-01 1.5744855803496940e+00 -8.5068819066230483e-01 -1.3393404515458454e+00 -1.3604626790790262e+00 8.3743276069630668e-02 -2.0069605397867689e+00 -1.8140756399848157e+00 7.5234984782022896e-01 1.6641909644383728e+00 
        </Neuron>
        <Neuron NSynapses="13">
          -1.3181821481957130e+00 1.2929555077193000e+00 -7.8615802048367966e-01 -7.3333096063554859e-01 -1.6433485134300631e-02 4.1018410372762570e-01 -2.0303443098888514e+00 6.9359945145424318e-02 3.0612242363308978e-01 5.3973699582527335e-01 -1.4839619153645780e+00 1.6460880979555272e+00 4.8180722605624282e-01 
        </Neuron>
      </Layer>
      <Layer Index="1" NNeurons="14">
        <Neuron NSynapses="1">
          -3.9568039948919725e-01 
        </Neuron>
        <Neuron NSynapses="1">
          5.6946114404724835e-01 
        </Neuron>
        <Neuron NSynapses="1">
          -9.3022759321491466e-01 
        </Neuron>
        <Neuron NSynapses="1">
          -1.2245344126452797e+00 
        </Neuron>
        <Neuron NSynapses="1">
          3.6505283090790214e-01 
        </Neuron>
        <Neuron NSynapses="1">
          -6.1100104740683048e-01 
        </Neuron>
        <Neuron NSynapses="1">
          2.0619054045672036e+00 
        </Neuron>
        <Neuron NSynapses="1">
          6.7546475868287559e-01 
        </Neuron>
        <Neuron NSynapses="1">
          -3.5686731259992094e-01 
        </Neuron>
        <Neuron NSynapses="1">
          -6.5363938638094454e-01 
        </Neuron>
        <Neuron NSynapses="1">
          -1.1658739385288581e+00 
        </Neuron>
        <Neuron NSynapses="1">
          -1.8950765189511591e+00 
        </Neuron>
        <Neuron NSynapses="1">
          1.4873105906722313e+00 
        </Neuron>
        <Neuron NSynapses="1">
          -2.3374482187508455e-01 
        </Neuron>
      </Layer>
      <Layer Index="2" NNeurons="1">
        <Neuron NSynapses="0"/>
      </Layer>
    </Layout>
  </Weights>
</MethodSetup>
