<?xml version="1.0"?>
<MethodSetup Method="MLP::MLP">
  <GeneralInfo>
    <Info name="TMVA Release" value="4.2.1 [262657]"/>
    <Info name="ROOT Release" value="6.08/07 [395271]"/>
    <Info name="Creator" value="wverbeke"/>
    <Info name="Date" value="Sat Nov 18 15:45:19 2017"/>
    <Info name="Host" value="Linux vocms0302.cern.ch 2.6.32-696.1.1.el6.x86_64 #1 SMP Wed Apr 12 08:44:28 CEST 2017 x86_64 x86_64 x86_64 GNU/Linux"/>
    <Info name="Dir" value="/storage_mnt/storage/user/wverbeke/Work/AnalysisCode/ewkino/bdtTraining"/>
    <Info name="Training events" value="11715"/>
    <Info name="TrainingTime" value="4.79721520e+01"/>
    <Info name="AnalysisType" value="Classification"/>
  </GeneralInfo>
  <Options>
    <Option name="NCycles" modified="Yes">600</Option>
    <Option name="HiddenLayers" modified="Yes">N+5</Option>
    <Option name="NeuronType" modified="Yes">tanh</Option>
    <Option name="RandomSeed" modified="No">1</Option>
    <Option name="EstimatorType" modified="No">CE</Option>
    <Option name="NeuronInputType" modified="No">sum</Option>
    <Option name="V" modified="Yes">False</Option>
    <Option name="VerbosityLevel" modified="No">Default</Option>
    <Option name="VarTransform" modified="Yes">N</Option>
    <Option name="H" modified="Yes">True</Option>
    <Option name="CreateMVAPdfs" modified="No">False</Option>
    <Option name="IgnoreNegWeightsInTraining" modified="No">False</Option>
    <Option name="TrainingMethod" modified="No">BP</Option>
    <Option name="LearningRate" modified="No">2.000000e-02</Option>
    <Option name="DecayRate" modified="No">1.000000e-02</Option>
    <Option name="TestRate" modified="Yes">5</Option>
    <Option name="EpochMonitoring" modified="No">False</Option>
    <Option name="Sampling" modified="No">1.000000e+00</Option>
    <Option name="SamplingEpoch" modified="No">1.000000e+00</Option>
    <Option name="SamplingImportance" modified="No">1.000000e+00</Option>
    <Option name="SamplingTraining" modified="No">True</Option>
    <Option name="SamplingTesting" modified="No">False</Option>
    <Option name="ResetStep" modified="No">50</Option>
    <Option name="Tau" modified="No">3.000000e+00</Option>
    <Option name="BPMode" modified="No">sequential</Option>
    <Option name="BatchSize" modified="No">-1</Option>
    <Option name="ConvergenceImprove" modified="No">1.000000e-30</Option>
    <Option name="ConvergenceTests" modified="No">-1</Option>
    <Option name="UseRegulator" modified="Yes">False</Option>
    <Option name="UpdateLimit" modified="No">10000</Option>
    <Option name="CalculateErrors" modified="No">False</Option>
    <Option name="WeightRange" modified="No">1.000000e+00</Option>
  </Options>
  <Variables NVar="7">
    <Variable VarIndex="0" Expression="topMass" Label="topMass" Title="topMass" Unit="" Internal="topMass" Type="F" Min="-6.08448677e+01" Max="2.10816821e+03"/>
    <Variable VarIndex="1" Expression="etaMostForward" Label="etaMostForward" Title="etaMostForward" Unit="" Internal="etaMostForward" Type="F" Min="1.09603185e-04" Max="2.39986610e+00"/>
    <Variable VarIndex="2" Expression="pTLeadingLepton" Label="pTLeadingLepton" Title="pTLeadingLepton" Unit="" Internal="pTLeadingLepton" Type="F" Min="2.51554337e+01" Max="8.22761597e+02"/>
    <Variable VarIndex="3" Expression="highestDeepCSV" Label="highestDeepCSV" Title="highestDeepCSV" Unit="" Internal="highestDeepCSV" Type="F" Min="6.32408917e-01" Max="9.99999762e-01"/>
    <Variable VarIndex="4" Expression="maxMlb" Label="maxMlb" Title="maxMlb" Unit="" Internal="maxMlb" Type="F" Min="0.00000000e+00" Max="1.75038904e+03"/>
    <Variable VarIndex="5" Expression="minDeltaPhilb" Label="minDeltaPhilb" Title="minDeltaPhilb" Unit="" Internal="minDeltaPhilb" Type="F" Min="2.25901604e-04" Max="3.09814739e+00"/>
    <Variable VarIndex="6" Expression="mNotSoForwardJets" Label="mNotSoForwardJets" Title="mNotSoForwardJets" Unit="" Internal="mNotSoForwardJets" Type="F" Min="-2.41176880e+02" Max="2.70412689e+02"/>
  </Variables>
  <Spectators NSpec="0"/>
  <Classes NClass="2">
    <Class Name="Signal" Index="0"/>
    <Class Name="Background" Index="1"/>
  </Classes>
  <Transformations NTransformations="1">
    <Transform Name="Normalize">
      <Selection>
        <Input NInputs="7">
          <Input Type="Variable" Label="topMass" Expression="topMass"/>
          <Input Type="Variable" Label="etaMostForward" Expression="etaMostForward"/>
          <Input Type="Variable" Label="pTLeadingLepton" Expression="pTLeadingLepton"/>
          <Input Type="Variable" Label="highestDeepCSV" Expression="highestDeepCSV"/>
          <Input Type="Variable" Label="maxMlb" Expression="maxMlb"/>
          <Input Type="Variable" Label="minDeltaPhilb" Expression="minDeltaPhilb"/>
          <Input Type="Variable" Label="mNotSoForwardJets" Expression="mNotSoForwardJets"/>
        </Input>
        <Output NOutputs="7">
          <Output Type="Variable" Label="topMass" Expression="topMass"/>
          <Output Type="Variable" Label="etaMostForward" Expression="etaMostForward"/>
          <Output Type="Variable" Label="pTLeadingLepton" Expression="pTLeadingLepton"/>
          <Output Type="Variable" Label="highestDeepCSV" Expression="highestDeepCSV"/>
          <Output Type="Variable" Label="maxMlb" Expression="maxMlb"/>
          <Output Type="Variable" Label="minDeltaPhilb" Expression="minDeltaPhilb"/>
          <Output Type="Variable" Label="mNotSoForwardJets" Expression="mNotSoForwardJets"/>
        </Output>
      </Selection>
      <Class ClassIndex="0">
        <Ranges>
          <Range Index="0" Min="-6.0844867706298828e+01" Max="2.1081682128906250e+03"/>
          <Range Index="1" Min="1.0960318468278274e-04" Max="2.3997991085052490e+00"/>
          <Range Index="2" Min="2.5562446594238281e+01" Max="6.4438989257812500e+02"/>
          <Range Index="3" Min="6.3284862041473389e-01" Max="9.9999964237213135e-01"/>
          <Range Index="4" Min="0.0000000000000000e+00" Max="1.7503890380859375e+03"/>
          <Range Index="5" Min="2.2590160369873047e-04" Max="2.8364150524139404e+00"/>
          <Range Index="6" Min="-1.2227255249023438e+02" Max="2.6201147460937500e+02"/>
        </Ranges>
      </Class>
      <Class ClassIndex="1">
        <Ranges>
          <Range Index="0" Min="-3.3656459808349609e+01" Max="1.7540689697265625e+03"/>
          <Range Index="1" Min="1.3044869410805404e-04" Max="2.3998661041259766e+00"/>
          <Range Index="2" Min="2.5155433654785156e+01" Max="8.2276159667968750e+02"/>
          <Range Index="3" Min="6.3240891695022583e-01" Max="9.9999976158142090e-01"/>
          <Range Index="4" Min="0.0000000000000000e+00" Max="1.4586729736328125e+03"/>
          <Range Index="5" Min="2.2888183593750000e-04" Max="3.0981473922729492e+00"/>
          <Range Index="6" Min="-2.4117687988281250e+02" Max="2.7041268920898438e+02"/>
        </Ranges>
      </Class>
      <Class ClassIndex="2">
        <Ranges>
          <Range Index="0" Min="-6.0844867706298828e+01" Max="2.1081682128906250e+03"/>
          <Range Index="1" Min="1.0960318468278274e-04" Max="2.3998661041259766e+00"/>
          <Range Index="2" Min="2.5155433654785156e+01" Max="8.2276159667968750e+02"/>
          <Range Index="3" Min="6.3240891695022583e-01" Max="9.9999976158142090e-01"/>
          <Range Index="4" Min="0.0000000000000000e+00" Max="1.7503890380859375e+03"/>
          <Range Index="5" Min="2.2590160369873047e-04" Max="3.0981473922729492e+00"/>
          <Range Index="6" Min="-2.4117687988281250e+02" Max="2.7041268920898438e+02"/>
        </Ranges>
      </Class>
    </Transform>
  </Transformations>
  <MVAPdfs/>
  <Weights>
    <Layout NLayers="3">
      <Layer Index="0" NNeurons="8">
        <Neuron NSynapses="12">
          -5.1476015792845020e-01 2.1484972812505956e+00 7.4501671823313598e-01 1.7088775371982436e+00 -2.0919082395571591e+00 -1.4749714238953218e+00 -6.2596242661186974e-01 1.8262670381294450e+00 -1.3970977106815883e+00 -8.9994271042909901e-01 -1.5917718180579044e+00 -4.6955227556937390e-01 
        </Neuron>
        <Neuron NSynapses="12">
          -1.1448472051473360e+00 -2.3716376635500167e-01 -6.4684108624237335e-01 6.6323375817855512e-01 -4.7930474370159559e-01 1.9727740290093314e+00 2.4798584240800045e-01 1.3343533245676491e+00 -3.3081516769685793e-01 -8.8895262285022203e-01 8.8653613542708176e-01 8.5438903175140996e-02 
        </Neuron>
        <Neuron NSynapses="12">
          -1.4421493049916658e+00 -1.0771037190848186e-01 1.3242946222471288e+00 -1.0775605132308255e+00 -2.0845236656034136e+00 6.2004458700033162e-02 9.0900822689442284e-01 1.5766968911263968e+00 -3.6392285554992521e-01 4.4661917547400551e-02 2.2431053087516573e-01 -3.5791938376124410e-01 
        </Neuron>
        <Neuron NSynapses="12">
          -1.7379892163618496e+00 1.6883778198742998e+00 -1.2075146864260640e+00 1.1036821741789504e+00 1.2120158886333663e+00 8.4338776660971881e-01 1.9354396152140492e+00 1.4539485410679212e+00 -7.1065968238622279e-01 -1.3297134785329940e+00 5.8782919469562711e-01 2.6117781507541741e-02 
        </Neuron>
        <Neuron NSynapses="12">
          1.2165205573816478e+00 1.4832109331119867e+00 1.3431661190332123e+00 1.3306081195937542e+00 -1.8963303830349698e+00 1.1551192028074164e+00 -1.6162696358523572e+00 -9.3177550030543577e-01 -1.3434462837929231e+00 -1.5134694528350707e+00 1.4471467001982821e+00 6.0529134174969035e-01 
        </Neuron>
        <Neuron NSynapses="12">
          -1.5981843077507263e+00 3.0235669108694191e-01 -3.8604521911002232e-01 6.9979507838071442e-01 1.6008032786053741e+00 -5.4817634503822477e-01 1.2999521692135751e-01 -1.1630433329463470e+00 7.2973659214202746e-01 -9.0495287530583790e-01 -8.2502303635693186e-01 -1.3852262719575068e+00 
        </Neuron>
        <Neuron NSynapses="12">
          7.6126575747271696e-01 1.1514992234513215e+00 1.3565055327704751e+00 -3.5130359657333449e-01 -1.8804695237071674e+00 -1.8361178578643822e+00 9.8051453878455952e-01 4.2852821764356408e-01 1.9511361948576107e+00 6.0412460497998377e-01 1.0419603059399518e+00 -7.9944530915868839e-01 
        </Neuron>
        <Neuron NSynapses="12">
          -5.0558193593138456e-01 -2.1586528011508713e-01 1.4852673128995182e+00 -1.1365879256749334e+00 -1.2364078831159380e+00 -1.4997602385691418e+00 -4.7949206258066090e-01 -1.1658051880143487e-01 1.6929589959701716e+00 -1.9286171524596460e+00 -7.6092343998432976e-01 1.7246160222909952e+00 
        </Neuron>
      </Layer>
      <Layer Index="1" NNeurons="13">
        <Neuron NSynapses="1">
          -1.1069067029264841e+00 
        </Neuron>
        <Neuron NSynapses="1">
          -1.2248775359505975e+00 
        </Neuron>
        <Neuron NSynapses="1">
          -1.3756867081621174e+00 
        </Neuron>
        <Neuron NSynapses="1">
          4.2525630475799769e-01 
        </Neuron>
        <Neuron NSynapses="1">
          -2.0544702425888448e+00 
        </Neuron>
        <Neuron NSynapses="1">
          -1.1731279123619245e+00 
        </Neuron>
        <Neuron NSynapses="1">
          7.6518929541143521e-01 
        </Neuron>
        <Neuron NSynapses="1">
          1.5805689720281999e+00 
        </Neuron>
        <Neuron NSynapses="1">
          -1.5274495799091581e+00 
        </Neuron>
        <Neuron NSynapses="1">
          1.1516283754940237e+00 
        </Neuron>
        <Neuron NSynapses="1">
          -5.1307238767899688e-01 
        </Neuron>
        <Neuron NSynapses="1">
          -1.1322594887635760e+00 
        </Neuron>
        <Neuron NSynapses="1">
          -4.2287932567938213e-01 
        </Neuron>
      </Layer>
      <Layer Index="2" NNeurons="1">
        <Neuron NSynapses="0"/>
      </Layer>
    </Layout>
  </Weights>
</MethodSetup>
