<?xml version="1.0"?>
<MethodSetup Method="MLP::MLP">
  <GeneralInfo>
    <Info name="TMVA Release" value="4.2.1 [262657]"/>
    <Info name="ROOT Release" value="6.08/07 [395271]"/>
    <Info name="Creator" value="wverbeke"/>
    <Info name="Date" value="Sat Nov 18 19:34:08 2017"/>
    <Info name="Host" value="Linux vocms0302.cern.ch 2.6.32-696.1.1.el6.x86_64 #1 SMP Wed Apr 12 08:44:28 CEST 2017 x86_64 x86_64 x86_64 GNU/Linux"/>
    <Info name="Dir" value="/storage_mnt/storage/user/wverbeke/Work/AnalysisCode/ewkino/bdtTraining"/>
    <Info name="Training events" value="37935"/>
    <Info name="TrainingTime" value="2.20068089e+02"/>
    <Info name="AnalysisType" value="Classification"/>
  </GeneralInfo>
  <Options>
    <Option name="NCycles" modified="Yes">600</Option>
    <Option name="HiddenLayers" modified="Yes">N+5</Option>
    <Option name="NeuronType" modified="Yes">tanh</Option>
    <Option name="RandomSeed" modified="No">1</Option>
    <Option name="EstimatorType" modified="No">CE</Option>
    <Option name="NeuronInputType" modified="No">sum</Option>
    <Option name="V" modified="Yes">False</Option>
    <Option name="VerbosityLevel" modified="No">Default</Option>
    <Option name="VarTransform" modified="Yes">N</Option>
    <Option name="H" modified="Yes">True</Option>
    <Option name="CreateMVAPdfs" modified="No">False</Option>
    <Option name="IgnoreNegWeightsInTraining" modified="No">False</Option>
    <Option name="TrainingMethod" modified="No">BP</Option>
    <Option name="LearningRate" modified="No">2.000000e-02</Option>
    <Option name="DecayRate" modified="No">1.000000e-02</Option>
    <Option name="TestRate" modified="Yes">5</Option>
    <Option name="EpochMonitoring" modified="No">False</Option>
    <Option name="Sampling" modified="No">1.000000e+00</Option>
    <Option name="SamplingEpoch" modified="No">1.000000e+00</Option>
    <Option name="SamplingImportance" modified="No">1.000000e+00</Option>
    <Option name="SamplingTraining" modified="No">True</Option>
    <Option name="SamplingTesting" modified="No">False</Option>
    <Option name="ResetStep" modified="No">50</Option>
    <Option name="Tau" modified="No">3.000000e+00</Option>
    <Option name="BPMode" modified="No">sequential</Option>
    <Option name="BatchSize" modified="No">-1</Option>
    <Option name="ConvergenceImprove" modified="No">1.000000e-30</Option>
    <Option name="ConvergenceTests" modified="No">-1</Option>
    <Option name="UseRegulator" modified="Yes">False</Option>
    <Option name="UpdateLimit" modified="No">10000</Option>
    <Option name="CalculateErrors" modified="No">False</Option>
    <Option name="WeightRange" modified="No">1.000000e+00</Option>
  </Options>
  <Variables NVar="10">
    <Variable VarIndex="0" Expression="topMass" Label="topMass" Title="topMass" Unit="" Internal="topMass" Type="F" Min="-2.14592224e+02" Max="3.42999146e+03"/>
    <Variable VarIndex="1" Expression="pTForwardJets" Label="pTForwardJets" Title="pTForwardJets" Unit="" Internal="pTForwardJets" Type="F" Min="0.00000000e+00" Max="8.61117004e+02"/>
    <Variable VarIndex="2" Expression="etaMostForward" Label="etaMostForward" Title="etaMostForward" Unit="" Internal="etaMostForward" Type="F" Min="1.51268691e-01" Max="5.08237696e+00"/>
    <Variable VarIndex="3" Expression="pTLeadingLepton" Label="pTLeadingLepton" Title="pTLeadingLepton" Unit="" Internal="pTLeadingLepton" Type="F" Min="2.55576496e+01" Max="1.21822681e+03"/>
    <Variable VarIndex="4" Expression="pTLeadingBJet" Label="pTLeadingBJet" Title="pTLeadingBJet" Unit="" Internal="pTLeadingBJet" Type="F" Min="2.55064564e+01" Max="1.79755652e+03"/>
    <Variable VarIndex="5" Expression="highestDeepCSV" Label="highestDeepCSV" Title="highestDeepCSV" Unit="" Internal="highestDeepCSV" Type="F" Min="6.32432103e-01" Max="9.99999940e-01"/>
    <Variable VarIndex="6" Expression="maxMjj" Label="maxMjj" Title="maxMjj" Unit="" Internal="maxMjj" Type="F" Min="0.00000000e+00" Max="7.32752832e+03"/>
    <Variable VarIndex="7" Expression="maxMlb" Label="maxMlb" Title="maxMlb" Unit="" Internal="maxMlb" Type="F" Min="0.00000000e+00" Max="1.91598254e+03"/>
    <Variable VarIndex="8" Expression="minDeltaPhilb" Label="minDeltaPhilb" Title="minDeltaPhilb" Unit="" Internal="minDeltaPhilb" Type="F" Min="1.76429749e-05" Max="3.04451299e+00"/>
    <Variable VarIndex="9" Expression="mNotSoForwardJets" Label="mNotSoForwardJets" Title="mNotSoForwardJets" Unit="" Internal="mNotSoForwardJets" Type="F" Min="-2.37411768e+03" Max="7.70891309e+03"/>
  </Variables>
  <Spectators NSpec="0"/>
  <Classes NClass="2">
    <Class Name="Signal" Index="0"/>
    <Class Name="Background" Index="1"/>
  </Classes>
  <Transformations NTransformations="1">
    <Transform Name="Normalize">
      <Selection>
        <Input NInputs="10">
          <Input Type="Variable" Label="topMass" Expression="topMass"/>
          <Input Type="Variable" Label="pTForwardJets" Expression="pTForwardJets"/>
          <Input Type="Variable" Label="etaMostForward" Expression="etaMostForward"/>
          <Input Type="Variable" Label="pTLeadingLepton" Expression="pTLeadingLepton"/>
          <Input Type="Variable" Label="pTLeadingBJet" Expression="pTLeadingBJet"/>
          <Input Type="Variable" Label="highestDeepCSV" Expression="highestDeepCSV"/>
          <Input Type="Variable" Label="maxMjj" Expression="maxMjj"/>
          <Input Type="Variable" Label="maxMlb" Expression="maxMlb"/>
          <Input Type="Variable" Label="minDeltaPhilb" Expression="minDeltaPhilb"/>
          <Input Type="Variable" Label="mNotSoForwardJets" Expression="mNotSoForwardJets"/>
        </Input>
        <Output NOutputs="10">
          <Output Type="Variable" Label="topMass" Expression="topMass"/>
          <Output Type="Variable" Label="pTForwardJets" Expression="pTForwardJets"/>
          <Output Type="Variable" Label="etaMostForward" Expression="etaMostForward"/>
          <Output Type="Variable" Label="pTLeadingLepton" Expression="pTLeadingLepton"/>
          <Output Type="Variable" Label="pTLeadingBJet" Expression="pTLeadingBJet"/>
          <Output Type="Variable" Label="highestDeepCSV" Expression="highestDeepCSV"/>
          <Output Type="Variable" Label="maxMjj" Expression="maxMjj"/>
          <Output Type="Variable" Label="maxMlb" Expression="maxMlb"/>
          <Output Type="Variable" Label="minDeltaPhilb" Expression="minDeltaPhilb"/>
          <Output Type="Variable" Label="mNotSoForwardJets" Expression="mNotSoForwardJets"/>
        </Output>
      </Selection>
      <Class ClassIndex="0">
        <Ranges>
          <Range Index="0" Min="-1.0634167480468750e+02" Max="2.5175915527343750e+03"/>
          <Range Index="1" Min="0.0000000000000000e+00" Max="8.6111700439453125e+02"/>
          <Range Index="2" Min="3.6717492341995239e-01" Max="5.0823769569396973e+00"/>
          <Range Index="3" Min="2.6919313430786133e+01" Max="9.3788299560546875e+02"/>
          <Range Index="4" Min="2.5543170928955078e+01" Max="7.4414941406250000e+02"/>
          <Range Index="5" Min="6.3243901729583740e-01" Max="9.9999994039535522e-01"/>
          <Range Index="6" Min="0.0000000000000000e+00" Max="7.3275283203125000e+03"/>
          <Range Index="7" Min="0.0000000000000000e+00" Max="1.6945959472656250e+03"/>
          <Range Index="8" Min="1.1324882507324219e-04" Max="3.0402679443359375e+00"/>
          <Range Index="9" Min="-1.8026409912109375e+03" Max="7.7089130859375000e+03"/>
        </Ranges>
      </Class>
      <Class ClassIndex="1">
        <Ranges>
          <Range Index="0" Min="-2.1459222412109375e+02" Max="3.4299914550781250e+03"/>
          <Range Index="1" Min="0.0000000000000000e+00" Max="5.0137789916992188e+02"/>
          <Range Index="2" Min="1.5126869082450867e-01" Max="5.0767154693603516e+00"/>
          <Range Index="3" Min="2.5557649612426758e+01" Max="1.2182268066406250e+03"/>
          <Range Index="4" Min="2.5506456375122070e+01" Max="1.7975565185546875e+03"/>
          <Range Index="5" Min="6.3243210315704346e-01" Max="9.9999988079071045e-01"/>
          <Range Index="6" Min="0.0000000000000000e+00" Max="5.8044248046875000e+03"/>
          <Range Index="7" Min="0.0000000000000000e+00" Max="1.9159825439453125e+03"/>
          <Range Index="8" Min="1.7642974853515625e-05" Max="3.0445129871368408e+00"/>
          <Range Index="9" Min="-2.3741176757812500e+03" Max="6.6609750976562500e+03"/>
        </Ranges>
      </Class>
      <Class ClassIndex="2">
        <Ranges>
          <Range Index="0" Min="-2.1459222412109375e+02" Max="3.4299914550781250e+03"/>
          <Range Index="1" Min="0.0000000000000000e+00" Max="8.6111700439453125e+02"/>
          <Range Index="2" Min="1.5126869082450867e-01" Max="5.0823769569396973e+00"/>
          <Range Index="3" Min="2.5557649612426758e+01" Max="1.2182268066406250e+03"/>
          <Range Index="4" Min="2.5506456375122070e+01" Max="1.7975565185546875e+03"/>
          <Range Index="5" Min="6.3243210315704346e-01" Max="9.9999994039535522e-01"/>
          <Range Index="6" Min="0.0000000000000000e+00" Max="7.3275283203125000e+03"/>
          <Range Index="7" Min="0.0000000000000000e+00" Max="1.9159825439453125e+03"/>
          <Range Index="8" Min="1.7642974853515625e-05" Max="3.0445129871368408e+00"/>
          <Range Index="9" Min="-2.3741176757812500e+03" Max="7.7089130859375000e+03"/>
        </Ranges>
      </Class>
    </Transform>
  </Transformations>
  <MVAPdfs/>
  <Weights>
    <Layout NLayers="3">
      <Layer Index="0" NNeurons="11">
        <Neuron NSynapses="15">
          -4.7471651196874104e-01 2.0046659635122666e+00 6.7608308384929572e-01 1.6362838635146055e+00 -1.9984431381900538e+00 -1.5628276775162364e+00 -9.1563306871368211e-01 1.9667299445552713e+00 -1.5307941198671091e+00 -1.0040828993662168e+00 -1.6414394126741478e+00 -4.0153001083265411e-01 -1.2764958693555117e+00 -4.1340340180223045e-01 -4.6286935849463134e-01 
        </Neuron>
        <Neuron NSynapses="15">
          4.4205498552005229e-01 -4.1791475735576455e-01 1.7292518449205894e+00 2.4763453967769741e-02 1.3864512303050036e+00 -1.7391617593151262e-01 -8.5692672937301861e-01 6.9249215242705131e-01 1.0138937625857997e-01 -1.1042198317826117e+00 -2.4128757110037824e-01 1.5330208158065861e+00 -1.1137575825607100e+00 -1.7928574563671118e+00 -9.5038895268329385e-02 
        </Neuron>
        <Neuron NSynapses="15">
          5.3823163757788850e-01 1.6238415932541026e+00 -1.0314481618736582e-01 -2.1316441280899848e-01 2.3430838813188548e-01 3.6791410317839494e-02 -1.3713096456655354e+00 1.7308739330804050e+00 -1.1112604973935087e+00 1.1270571655276100e+00 1.1947862561589873e+00 8.7293808603146517e-01 1.8565361214543827e+00 1.2330779866456887e+00 -6.6058118826318502e-01 
        </Neuron>
        <Neuron NSynapses="15">
          -1.7471973209938512e+00 8.0512739604185901e-01 -2.7807085046792962e-01 1.4177938871873279e+00 1.4613598353838659e+00 1.3837569783727144e+00 1.1576345365924665e+00 -1.6852125841093115e+00 1.1252970500274586e+00 -1.8104899183689616e+00 -9.1789980635045632e-01 -1.3093792165727356e+00 -1.7838757767183751e+00 1.5057741003060976e+00 1.0123220601828069e+00 
        </Neuron>
        <Neuron NSynapses="15">
          -1.8078788206879053e+00 3.8565034813586097e-01 -4.7454291128467518e-01 5.5994957106308696e-01 1.8321598841093560e+00 -3.6953318960699982e-01 -1.9363722686972330e-02 -1.2487442024259789e+00 6.8099322597612622e-01 -7.5039408245904426e-01 -7.5219947632808615e-01 -1.4142856817040241e+00 7.1588497665979678e-01 1.2002612240240291e+00 1.2951324534164304e+00 
        </Neuron>
        <Neuron NSynapses="15">
          -2.1875021056193944e-01 -1.9394530627283424e+00 -1.7388399194889506e+00 1.1216491086071831e+00 4.9494369781140668e-01 1.7568895071703425e+00 6.1846727198645446e-01 9.6856010331488829e-01 -9.3431795035732990e-01 -9.4048550950567988e-01 -2.0665363762992789e-01 1.1691079686506063e+00 -1.0846066554947575e+00 -1.6893544917300756e+00 -1.4004500919239167e+00 
        </Neuron>
        <Neuron NSynapses="15">
          -4.4661578429273541e-01 -1.3011402906325464e-01 1.6275812556690257e+00 -1.7492791423243002e+00 -8.2464459710656557e-01 1.7266045582960210e+00 -9.4337840561765463e-01 -1.5615701676401998e+00 -1.4615320131380680e+00 1.6659725775757958e-01 -1.9369413925443346e+00 -1.6479334353577035e+00 6.8469903498904050e-01 1.7523475133333317e+00 -1.4311160316175593e+00 
        </Neuron>
        <Neuron NSynapses="15">
          1.4781557184211280e+00 -9.2058899274807937e-01 -9.4412573209210293e-01 -1.4439241843058909e-01 3.3739609863434034e-01 -1.8041015855481917e+00 1.3403175217997190e-01 2.6937714496195331e-01 3.7001778853122569e-01 -1.3220461252603344e+00 1.8139673574467117e+00 3.6981302674601396e-01 -9.8143863565226608e-01 8.5380314588535577e-01 -1.0802766315500640e+00 
        </Neuron>
        <Neuron NSynapses="15">
          -1.7128910513533573e+00 1.1503679672230034e-01 -2.9253497211114660e-01 1.7997811384237616e+00 7.7730706521269588e-01 5.9154014983269824e-02 -3.5244400962522937e-01 1.4272466688448926e-01 -1.7295479151818383e+00 1.1143198915989228e+00 1.3679188168835490e-01 -1.8181357781118028e+00 6.3931415359356791e-01 -1.3377939881046781e+00 -4.1820474328075347e-01 
        </Neuron>
        <Neuron NSynapses="15">
          1.0244378565379380e+00 1.7638272477745400e+00 -1.8318176692967363e+00 2.7128988517622099e-01 1.5332116042477688e+00 1.7325066568239229e+00 1.3007099864100996e-01 -1.4705258670585672e+00 -1.7696590382236457e-01 -1.4198850551363205e+00 1.5603657634088390e+00 1.2388626747677478e+00 -5.0645683788815854e-01 -3.5451277155547822e-01 -5.9305943866522069e-02 
        </Neuron>
        <Neuron NSynapses="15">
          -1.1192449985142081e+00 5.9814971385990989e-01 1.8817440172691737e+00 -4.2330502512368751e-01 -6.0989668611478320e-01 3.0323765247712642e-01 1.1588761586157421e+00 5.9821833433075911e-01 9.9015133277545442e-01 -1.5805056073305290e+00 1.5482300563566460e+00 7.4089628129911334e-01 5.2650529944764268e-01 5.1825198905820968e-01 1.0395905413184376e+00 
        </Neuron>
      </Layer>
      <Layer Index="1" NNeurons="16">
        <Neuron NSynapses="1">
          -2.0165391620005363e-01 
        </Neuron>
        <Neuron NSynapses="1">
          -1.4422788763844208e-01 
        </Neuron>
        <Neuron NSynapses="1">
          1.4553025581841241e+00 
        </Neuron>
        <Neuron NSynapses="1">
          -7.2418672468826528e-01 
        </Neuron>
        <Neuron NSynapses="1">
          -2.4573070986653850e-01 
        </Neuron>
        <Neuron NSynapses="1">
          1.3408683288453125e+00 
        </Neuron>
        <Neuron NSynapses="1">
          5.3347821995273392e-01 
        </Neuron>
        <Neuron NSynapses="1">
          -5.4537283459713537e-01 
        </Neuron>
        <Neuron NSynapses="1">
          7.4740442869191037e-01 
        </Neuron>
        <Neuron NSynapses="1">
          1.5441018819695058e+00 
        </Neuron>
        <Neuron NSynapses="1">
          -2.2769309946659977e+00 
        </Neuron>
        <Neuron NSynapses="1">
          3.6394133909821441e-01 
        </Neuron>
        <Neuron NSynapses="1">
          -2.3443196506386077e-01 
        </Neuron>
        <Neuron NSynapses="1">
          5.9243337202303148e-01 
        </Neuron>
        <Neuron NSynapses="1">
          -2.0321239236333746e+00 
        </Neuron>
        <Neuron NSynapses="1">
          -1.8680471487187731e+00 
        </Neuron>
      </Layer>
      <Layer Index="2" NNeurons="1">
        <Neuron NSynapses="0"/>
      </Layer>
    </Layout>
  </Weights>
</MethodSetup>
