<?xml version="1.0"?>
<MethodSetup Method="MLP::MLP">
  <GeneralInfo>
    <Info name="TMVA Release" value="4.2.1 [262657]"/>
    <Info name="ROOT Release" value="6.08/07 [395271]"/>
    <Info name="Creator" value="wverbeke"/>
    <Info name="Date" value="Sat Nov 18 21:03:01 2017"/>
    <Info name="Host" value="Linux vocms0302.cern.ch 2.6.32-696.1.1.el6.x86_64 #1 SMP Wed Apr 12 08:44:28 CEST 2017 x86_64 x86_64 x86_64 GNU/Linux"/>
    <Info name="Dir" value="/storage_mnt/storage/user/wverbeke/Work/AnalysisCode/ewkino/bdtTraining"/>
    <Info name="Training events" value="29477"/>
    <Info name="TrainingTime" value="1.67937160e+02"/>
    <Info name="AnalysisType" value="Classification"/>
  </GeneralInfo>
  <Options>
    <Option name="NCycles" modified="Yes">600</Option>
    <Option name="HiddenLayers" modified="Yes">N+5</Option>
    <Option name="NeuronType" modified="Yes">tanh</Option>
    <Option name="RandomSeed" modified="No">1</Option>
    <Option name="EstimatorType" modified="No">CE</Option>
    <Option name="NeuronInputType" modified="No">sum</Option>
    <Option name="V" modified="Yes">False</Option>
    <Option name="VerbosityLevel" modified="No">Default</Option>
    <Option name="VarTransform" modified="Yes">N</Option>
    <Option name="H" modified="Yes">True</Option>
    <Option name="CreateMVAPdfs" modified="No">False</Option>
    <Option name="IgnoreNegWeightsInTraining" modified="No">False</Option>
    <Option name="TrainingMethod" modified="No">BP</Option>
    <Option name="LearningRate" modified="No">2.000000e-02</Option>
    <Option name="DecayRate" modified="No">1.000000e-02</Option>
    <Option name="TestRate" modified="Yes">5</Option>
    <Option name="EpochMonitoring" modified="No">False</Option>
    <Option name="Sampling" modified="No">1.000000e+00</Option>
    <Option name="SamplingEpoch" modified="No">1.000000e+00</Option>
    <Option name="SamplingImportance" modified="No">1.000000e+00</Option>
    <Option name="SamplingTraining" modified="No">True</Option>
    <Option name="SamplingTesting" modified="No">False</Option>
    <Option name="ResetStep" modified="No">50</Option>
    <Option name="Tau" modified="No">3.000000e+00</Option>
    <Option name="BPMode" modified="No">sequential</Option>
    <Option name="BatchSize" modified="No">-1</Option>
    <Option name="ConvergenceImprove" modified="No">1.000000e-30</Option>
    <Option name="ConvergenceTests" modified="No">-1</Option>
    <Option name="UseRegulator" modified="Yes">False</Option>
    <Option name="UpdateLimit" modified="No">10000</Option>
    <Option name="CalculateErrors" modified="No">False</Option>
    <Option name="WeightRange" modified="No">1.000000e+00</Option>
  </Options>
  <Variables NVar="10">
    <Variable VarIndex="0" Expression="topMass" Label="topMass" Title="topMass" Unit="" Internal="topMass" Type="F" Min="2.10910721e+01" Max="2.18480469e+03"/>
    <Variable VarIndex="1" Expression="pTForwardJets" Label="pTForwardJets" Title="pTForwardJets" Unit="" Internal="pTForwardJets" Type="F" Min="0.00000000e+00" Max="6.05746033e+02"/>
    <Variable VarIndex="2" Expression="etaMostForward" Label="etaMostForward" Title="etaMostForward" Unit="" Internal="etaMostForward" Type="F" Min="2.74638068e-02" Max="5.08476305e+00"/>
    <Variable VarIndex="3" Expression="pTLeadingLepton" Label="pTLeadingLepton" Title="pTLeadingLepton" Unit="" Internal="pTLeadingLepton" Type="F" Min="2.74694595e+01" Max="1.11609705e+03"/>
    <Variable VarIndex="4" Expression="pTLeadingBJet" Label="pTLeadingBJet" Title="pTLeadingBJet" Unit="" Internal="pTLeadingBJet" Type="F" Min="2.61450043e+01" Max="1.38909399e+03"/>
    <Variable VarIndex="5" Expression="highestDeepCSV" Label="highestDeepCSV" Title="highestDeepCSV" Unit="" Internal="highestDeepCSV" Type="F" Min="6.42398894e-01" Max="9.99999821e-01"/>
    <Variable VarIndex="6" Expression="maxMjj" Label="maxMjj" Title="maxMjj" Unit="" Internal="maxMjj" Type="F" Min="0.00000000e+00" Max="6.36116162e+03"/>
    <Variable VarIndex="7" Expression="maxMlb" Label="maxMlb" Title="maxMlb" Unit="" Internal="maxMlb" Type="F" Min="6.41620407e+01" Max="2.73411255e+03"/>
    <Variable VarIndex="8" Expression="minDeltaPhilb" Label="minDeltaPhilb" Title="minDeltaPhilb" Unit="" Internal="minDeltaPhilb" Type="F" Min="2.84761190e-05" Max="2.88676071e+00"/>
    <Variable VarIndex="9" Expression="mNotSoForwardJets" Label="mNotSoForwardJets" Title="mNotSoForwardJets" Unit="" Internal="mNotSoForwardJets" Type="F" Min="-1.55580359e+03" Max="6.71260352e+03"/>
  </Variables>
  <Spectators NSpec="0"/>
  <Classes NClass="2">
    <Class Name="Signal" Index="0"/>
    <Class Name="Background" Index="1"/>
  </Classes>
  <Transformations NTransformations="1">
    <Transform Name="Normalize">
      <Selection>
        <Input NInputs="10">
          <Input Type="Variable" Label="topMass" Expression="topMass"/>
          <Input Type="Variable" Label="pTForwardJets" Expression="pTForwardJets"/>
          <Input Type="Variable" Label="etaMostForward" Expression="etaMostForward"/>
          <Input Type="Variable" Label="pTLeadingLepton" Expression="pTLeadingLepton"/>
          <Input Type="Variable" Label="pTLeadingBJet" Expression="pTLeadingBJet"/>
          <Input Type="Variable" Label="highestDeepCSV" Expression="highestDeepCSV"/>
          <Input Type="Variable" Label="maxMjj" Expression="maxMjj"/>
          <Input Type="Variable" Label="maxMlb" Expression="maxMlb"/>
          <Input Type="Variable" Label="minDeltaPhilb" Expression="minDeltaPhilb"/>
          <Input Type="Variable" Label="mNotSoForwardJets" Expression="mNotSoForwardJets"/>
        </Input>
        <Output NOutputs="10">
          <Output Type="Variable" Label="topMass" Expression="topMass"/>
          <Output Type="Variable" Label="pTForwardJets" Expression="pTForwardJets"/>
          <Output Type="Variable" Label="etaMostForward" Expression="etaMostForward"/>
          <Output Type="Variable" Label="pTLeadingLepton" Expression="pTLeadingLepton"/>
          <Output Type="Variable" Label="pTLeadingBJet" Expression="pTLeadingBJet"/>
          <Output Type="Variable" Label="highestDeepCSV" Expression="highestDeepCSV"/>
          <Output Type="Variable" Label="maxMjj" Expression="maxMjj"/>
          <Output Type="Variable" Label="maxMlb" Expression="maxMlb"/>
          <Output Type="Variable" Label="minDeltaPhilb" Expression="minDeltaPhilb"/>
          <Output Type="Variable" Label="mNotSoForwardJets" Expression="mNotSoForwardJets"/>
        </Output>
      </Selection>
      <Class ClassIndex="0">
        <Ranges>
          <Range Index="0" Min="2.1091072082519531e+01" Max="1.8932752685546875e+03"/>
          <Range Index="1" Min="0.0000000000000000e+00" Max="6.0574603271484375e+02"/>
          <Range Index="2" Min="2.8002766892313957e-02" Max="5.0806736946105957e+00"/>
          <Range Index="3" Min="3.1216669082641602e+01" Max="1.1160970458984375e+03"/>
          <Range Index="4" Min="2.6145004272460938e+01" Max="7.2988208007812500e+02"/>
          <Range Index="5" Min="6.4760214090347290e-01" Max="9.9999964237213135e-01"/>
          <Range Index="6" Min="0.0000000000000000e+00" Max="6.3611616210937500e+03"/>
          <Range Index="7" Min="6.4162040710449219e+01" Max="2.7341125488281250e+03"/>
          <Range Index="8" Min="5.1021575927734375e-05" Max="2.7205550670623779e+00"/>
          <Range Index="9" Min="-1.5558035888671875e+03" Max="6.7126035156250000e+03"/>
        </Ranges>
      </Class>
      <Class ClassIndex="1">
        <Ranges>
          <Range Index="0" Min="4.5845752716064453e+01" Max="2.1848046875000000e+03"/>
          <Range Index="1" Min="0.0000000000000000e+00" Max="4.5742050170898438e+02"/>
          <Range Index="2" Min="2.7463806793093681e-02" Max="5.0847630500793457e+00"/>
          <Range Index="3" Min="2.7469459533691406e+01" Max="8.9937695312500000e+02"/>
          <Range Index="4" Min="2.7096897125244141e+01" Max="1.3890939941406250e+03"/>
          <Range Index="5" Min="6.4239889383316040e-01" Max="9.9999982118606567e-01"/>
          <Range Index="6" Min="0.0000000000000000e+00" Max="5.0550927734375000e+03"/>
          <Range Index="7" Min="6.8799575805664062e+01" Max="2.5152226562500000e+03"/>
          <Range Index="8" Min="2.8476119041442871e-05" Max="2.8867607116699219e+00"/>
          <Range Index="9" Min="-1.1884544677734375e+03" Max="6.2948525390625000e+03"/>
        </Ranges>
      </Class>
      <Class ClassIndex="2">
        <Ranges>
          <Range Index="0" Min="2.1091072082519531e+01" Max="2.1848046875000000e+03"/>
          <Range Index="1" Min="0.0000000000000000e+00" Max="6.0574603271484375e+02"/>
          <Range Index="2" Min="2.7463806793093681e-02" Max="5.0847630500793457e+00"/>
          <Range Index="3" Min="2.7469459533691406e+01" Max="1.1160970458984375e+03"/>
          <Range Index="4" Min="2.6145004272460938e+01" Max="1.3890939941406250e+03"/>
          <Range Index="5" Min="6.4239889383316040e-01" Max="9.9999982118606567e-01"/>
          <Range Index="6" Min="0.0000000000000000e+00" Max="6.3611616210937500e+03"/>
          <Range Index="7" Min="6.4162040710449219e+01" Max="2.7341125488281250e+03"/>
          <Range Index="8" Min="2.8476119041442871e-05" Max="2.8867607116699219e+00"/>
          <Range Index="9" Min="-1.5558035888671875e+03" Max="6.7126035156250000e+03"/>
        </Ranges>
      </Class>
    </Transform>
  </Transformations>
  <MVAPdfs/>
  <Weights>
    <Layout NLayers="3">
      <Layer Index="0" NNeurons="11">
        <Neuron NSynapses="15">
          -5.0959553609299124e-01 1.9952677690841147e+00 7.6195016849357278e-01 1.7042839998196908e+00 -2.0000906986688589e+00 -1.5428878280177138e+00 -8.4993819514103863e-01 1.9911733641813822e+00 -1.4910023902373157e+00 -9.7561126698149525e-01 -1.6552847883799455e+00 -4.1248575559767869e-01 -1.2850151366903313e+00 -3.9706825012783353e-01 -4.9939123171719202e-01 
        </Neuron>
        <Neuron NSynapses="15">
          4.2623403673172161e-01 -4.1052158679205392e-01 1.7284328480013229e+00 1.1958940023552762e-01 1.3862334521037409e+00 -2.7053375047969425e-01 -7.8798385525191716e-01 7.3075906790592560e-01 9.7856673134184891e-02 -1.0915612574710296e+00 -2.4964293065695159e-01 1.5129087838988424e+00 -1.1203784457309722e+00 -1.8215397358626233e+00 -6.7177481382055607e-02 
        </Neuron>
        <Neuron NSynapses="15">
          5.5812367602923629e-01 1.6486521686623197e+00 -2.7752825230070549e-01 -1.8513321269223801e-01 2.3463207252975643e-01 -1.9218028015360272e-01 -1.4116034745375403e+00 1.7421412548783894e+00 -1.2059721246099282e+00 1.1421619789794690e+00 1.1885519224587684e+00 8.6483635405779735e-01 1.8510349141514286e+00 1.1643186284125160e+00 -6.7432852040060931e-01 
        </Neuron>
        <Neuron NSynapses="15">
          -1.7896247837943997e+00 7.7750073664839880e-01 -7.5466695857978702e-02 1.4843571267873503e+00 1.4602330443238172e+00 1.5100428631818945e+00 1.2472315241423673e+00 -1.6662505169767647e+00 1.2154427227766824e+00 -1.8015703354068779e+00 -9.3666498262255327e-01 -1.3191909990623505e+00 -1.7903167549874985e+00 1.5333129830528143e+00 1.0160361612273192e+00 
        </Neuron>
        <Neuron NSynapses="15">
          -1.8201212015753929e+00 3.8004261098034453e-01 -4.0162380279831794e-01 6.5662219332481886e-01 1.8302169007654616e+00 -3.8575558066525184e-01 7.3886867525226746e-02 -1.2163494477153156e+00 7.2595597353390950e-01 -7.5110776057152051e-01 -7.5949892323926882e-01 -1.4314651397434219e+00 7.1038133292271088e-01 1.1892624052077423e+00 1.3131601475633268e+00 
        </Neuron>
        <Neuron NSynapses="15">
          -1.2008541696494357e-01 -1.9223557750653142e+00 -1.9104739383036053e+00 1.0361389760525732e+00 4.9779136465975365e-01 1.8151866827582253e+00 6.5744164105762237e-01 9.8969700408980155e-01 -8.0606851918283251e-01 -9.7999513490925028e-01 -1.9216644349983386e-01 1.1565607106359288e+00 -1.0716590582527736e+00 -1.6814778963735180e+00 -1.5523266527498893e+00 
        </Neuron>
        <Neuron NSynapses="15">
          -4.5266948549635222e-01 -1.2338099799572848e-01 1.6236924843909850e+00 -1.6529863346500140e+00 -8.2666680251095304e-01 1.6546081525601368e+00 -8.7062974209610966e-01 -1.5380950489163312e+00 -1.4682083922196463e+00 2.0860695001387577e-01 -1.9461188729766032e+00 -1.6649945144788871e+00 6.7643877817942866e-01 1.7314809333931969e+00 -1.3464747242866368e+00 
        </Neuron>
        <Neuron NSynapses="15">
          1.4373182560414230e+00 -9.3224499506069858e-01 -8.4521966101246149e-01 -6.4224097841970973e-02 3.3666215955560752e-01 -1.7787042610508492e+00 2.0971334969078925e-01 2.8628180541239273e-01 4.2408254393926104e-01 -1.3383954430942573e+00 1.8015428052702227e+00 3.5801567505563181e-01 -9.8993488764122883e-01 8.5546762585070857e-01 -1.1283996887237375e+00 
        </Neuron>
        <Neuron NSynapses="15">
          -1.7633275151335186e+00 1.3250504244802652e-01 -3.1406340880520633e-01 1.7830159820320870e+00 7.7602615691341892e-01 -2.4673531497944556e-02 -3.5110742128801548e-01 1.5524258107598515e-01 -1.7416074982649807e+00 1.1346302383250557e+00 1.2745052172484891e-01 -1.8181197996334282e+00 6.2714482365074009e-01 -1.3618468576728204e+00 -1.3732126346889004e-01 
        </Neuron>
        <Neuron NSynapses="15">
          1.0062994833863783e+00 1.7783631231418786e+00 -1.8435280390431619e+00 3.2023129516419524e-01 1.5318598325044195e+00 1.6715514005923626e+00 1.6517323046281121e-01 -1.4629758154213939e+00 -1.6277853061130387e-01 -1.3590160744648132e+00 1.5517917736356857e+00 1.2296794493453074e+00 -5.1573296035052218e-01 -3.7227536590635185e-01 -6.6375381122461760e-02 
        </Neuron>
        <Neuron NSynapses="15">
          -1.0955367051049190e+00 6.0145933448740418e-01 1.7732902850787917e+00 -5.1775975532844354e-01 -6.0781389336957803e-01 2.8568953422281967e-01 1.0690796323243581e+00 5.5964749144926884e-01 9.4918679598889899e-01 -1.6008869536595631e+00 1.5582171607517630e+00 7.6039915794982993e-01 5.3663622128362243e-01 5.1761632261465396e-01 1.0442445458534062e+00 
        </Neuron>
      </Layer>
      <Layer Index="1" NNeurons="16">
        <Neuron NSynapses="1">
          -3.8836014376839439e-01 
        </Neuron>
        <Neuron NSynapses="1">
          -2.3514732148926945e-01 
        </Neuron>
        <Neuron NSynapses="1">
          1.4493167047443141e+00 
        </Neuron>
        <Neuron NSynapses="1">
          -6.3124235984030741e-01 
        </Neuron>
        <Neuron NSynapses="1">
          -2.6064297584629970e-01 
        </Neuron>
        <Neuron NSynapses="1">
          1.2119695026325978e+00 
        </Neuron>
        <Neuron NSynapses="1">
          6.2152939351364578e-01 
        </Neuron>
        <Neuron NSynapses="1">
          -5.9516807130066818e-01 
        </Neuron>
        <Neuron NSynapses="1">
          9.6785980368816016e-01 
        </Neuron>
        <Neuron NSynapses="1">
          1.5680679061004015e+00 
        </Neuron>
        <Neuron NSynapses="1">
          -2.2654287593849958e+00 
        </Neuron>
        <Neuron NSynapses="1">
          3.3765831648438949e-01 
        </Neuron>
        <Neuron NSynapses="1">
          -2.0647071646151655e-01 
        </Neuron>
        <Neuron NSynapses="1">
          7.2696902557566168e-01 
        </Neuron>
        <Neuron NSynapses="1">
          -2.0508886872867400e+00 
        </Neuron>
        <Neuron NSynapses="1">
          -1.8555667517199186e+00 
        </Neuron>
      </Layer>
      <Layer Index="2" NNeurons="1">
        <Neuron NSynapses="0"/>
      </Layer>
    </Layout>
  </Weights>
</MethodSetup>
